#ifndef __CLASSIFIER_WEIGHT_H__
#define __CLASSIFIER_WEIGHT_H__

// classifier_weight
// (464, 10)
const int classifier_weight[] = {
1715,
1364,
61,
319,
-1331,
-749,
-851,
-894,
-1368,
1733,
-677,
355,
-588,
34,
-1060,
2284,
-729,
-895,
-927,
2203,
304,
-699,
1230,
1292,
-1143,
713,
496,
-833,
-736,
-625,
-867,
-555,
-836,
2235,
-1126,
-490,
27,
2655,
-461,
-580,
1942,
-997,
1576,
-773,
-1357,
-979,
1425,
-821,
1079,
-1094,
2310,
-670,
360,
-400,
600,
-846,
-561,
-593,
437,
-636,
-756,
-83,
-252,
-453,
-528,
-270,
1556,
-413,
1908,
-705,
-1469,
67,
2993,
1603,
-963,
-875,
417,
-667,
-527,
-578,
1542,
-942,
1636,
-1460,
909,
-1378,
-1404,
-404,
2206,
-703,
-731,
-385,
2231,
-702,
-1070,
2025,
-149,
-558,
-424,
-233,
913,
-365,
913,
80,
-966,
-309,
-444,
997,
-546,
-272,
2969,
-470,
-2210,
-367,
-644,
-431,
44,
2193,
-600,
-482,
3139,
-458,
-1813,
-1216,
923,
-256,
518,
-453,
-132,
-249,
1495,
1395,
-496,
883,
-1199,
-666,
-806,
-761,
-1189,
1345,
1411,
-546,
985,
-762,
112,
-526,
-633,
-545,
1039,
-533,
1498,
-194,
-1110,
-437,
156,
-265,
-469,
1514,
-370,
-322,
-793,
-214,
1485,
1811,
191,
-925,
-524,
-611,
-334,
-83,
-177,
380,
-372,
-840,
-610,
1315,
-271,
-536,
-663,
1776,
-730,
-466,
-513,
1023,
-1020,
431,
-546,
1515,
218,
89,
-414,
968,
-676,
-358,
-556,
-667,
726,
-527,
156,
1348,
-1080,
1759,
1446,
-749,
-562,
-330,
-738,
-136,
-618,
1011,
165,
-496,
1226,
-1181,
1183,
626,
-924,
566,
-748,
-418,
-384,
1953,
-324,
-19,
-338,
112,
167,
-325,
-279,
-561,
-1165,
-464,
1675,
-745,
2070,
-663,
844,
-391,
-803,
-356,
-666,
-549,
487,
-247,
1154,
2031,
-652,
-477,
-553,
-527,
-630,
1729,
-313,
344,
-581,
-699,
1628,
-438,
-234,
-804,
-697,
-321,
0,
577,
-508,
-675,
1181,
-465,
1548,
-637,
-874,
285,
2204,
-240,
-518,
-455,
369,
-188,
-276,
-305,
-672,
-73,
-375,
2371,
-1536,
2614,
-829,
-959,
-391,
-146,
-328,
-478,
-1387,
34,
1545,
-889,
2287,
-470,
-180,
-132,
1978,
2035,
1098,
-487,
-1009,
-510,
-632,
-790,
-798,
-882,
534,
-384,
2194,
1749,
-1051,
-358,
-1333,
-231,
-685,
-433,
-533,
-496,
-1171,
-978,
-625,
1329,
3966,
-505,
-590,
-395,
1625,
-450,
-1677,
1140,
417,
-293,
-1045,
1471,
-588,
-598,
956,
-537,
917,
10,
-1324,
-322,
155,
1200,
-713,
-342,
-701,
2450,
-577,
-737,
-708,
-727,
-613,
-825,
-334,
2775,
-1014,
-470,
697,
304,
1805,
-351,
-350,
271,
-516,
-376,
-1197,
-570,
-765,
1498,
1588,
28,
-919,
1771,
-718,
-714,
-814,
-422,
407,
1067,
1342,
4,
-778,
-158,
-448,
-199,
-1904,
-810,
2686,
-400,
-927,
1476,
-1420,
3137,
-824,
-1011,
1394,
-476,
-971,
-1020,
-668,
-593,
608,
-512,
1213,
1025,
-375,
-488,
-1040,
-17,
1705,
-471,
1883,
-727,
-308,
-159,
894,
-888,
1551,
1437,
-1303,
-541,
1463,
-864,
-1000,
-747,
1764,
-663,
1958,
-763,
1881,
-988,
-712,
-926,
-1087,
-463,
-635,
-933,
-1076,
602,
2450,
-186,
2543,
-1414,
-831,
-519,
1435,
-545,
593,
-485,
-374,
-311,
-403,
-512,
1133,
-528,
-427,
-294,
66,
2303,
528,
-1404,
-64,
-400,
-117,
-187,
1541,
-802,
1858,
-826,
-776,
-908,
-728,
-798,
2329,
-887,
-1107,
-488,
637,
113,
415,
1474,
-930,
1048,
-508,
-653,
-799,
-240,
2519,
148,
-305,
-164,
-769,
-314,
392,
-465,
1208,
-723,
1327,
-502,
-587,
-633,
-619,
-706,
2158,
-922,
20,
31,
1794,
-330,
-504,
-130,
-337,
-84,
-190,
-269,
-550,
-42,
-992,
-648,
1867,
-65,
-75,
857,
-110,
-240,
-668,
330,
1302,
206,
-679,
-34,
355,
-207,
-275,
-330,
-931,
-1281,
-302,
1633,
-719,
-1209,
155,
-559,
552,
2662,
-591,
-376,
-1010,
925,
2127,
-936,
-444,
754,
-268,
-179,
-670,
-490,
3,
-180,
298,
-471,
-234,
-208,
262,
1692,
-534,
-335,
-431,
1384,
555,
1360,
-893,
-328,
-544,
-232,
396,
-558,
-16,
-1267,
1409,
-778,
-907,
434,
1613,
-326,
1413,
657,
-893,
1771,
-767,
-984,
-715,
-121,
-727,
367,
-165,
-445,
148,
-1767,
1565,
-683,
-917,
1460,
933,
-128,
-771,
-424,
-592,
1891,
-588,
-1096,
-165,
-92,
2125,
-286,
1749,
-142,
-1379,
2275,
180,
-1542,
-755,
478,
-439,
-424,
-562,
1929,
-530,
197,
-544,
-370,
1343,
-431,
-376,
-653,
357,
1594,
-925,
1053,
-856,
-737,
-528,
-497,
-942,
1481,
-261,
-272,
795,
1083,
-781,
-877,
1514,
-253,
-450,
-497,
3190,
-823,
50,
-648,
-246,
-599,
-533,
-789,
1034,
-635,
-887,
-479,
1031,
1934,
1246,
-415,
-1101,
-890,
-517,
80,
141,
-527,
1255,
-1136,
-1182,
-875,
1826,
1429,
-594,
-335,
-128,
143,
-1151,
-1221,
2172,
-926,
-880,
1288,
913,
-209,
2834,
-558,
-1892,
-924,
369,
-738,
-296,
1571,
55,
-421,
-483,
2003,
-687,
-468,
-643,
266,
-484,
-759,
-914,
2171,
-30,
996,
-363,
158,
-352,
762,
-329,
-330,
-13,
-498,
2185,
-848,
1113,
-1096,
-661,
-769,
-830,
-698,
1849,
-244,
-845,
-528,
2696,
-687,
-1336,
2214,
252,
-803,
-583,
-378,
-555,
-312,
-462,
1015,
-419,
-261,
-71,
-203,
1799,
-528,
-95,
-171,
-567,
-411,
-642,
-7,
1984,
265,
-275,
-77,
-886,
-942,
-721,
1739,
1745,
776,
1547,
-1529,
-1030,
-700,
1695,
-427,
432,
-566,
1471,
-399,
-398,
-903,
-534,
-368,
1361,
-827,
-509,
41,
-527,
1110,
-633,
-826,
1691,
-880,
-1238,
-479,
992,
1294,
510,
241,
-1220,
896,
-563,
-435,
632,
2054,
-706,
-820,
1404,
-499,
-588,
-845,
161,
-794,
913,
-488,
-904,
755,
-378,
417,
-571,
-344,
1150,
-550,
-681,
-354,
828,
-400,
110,
-261,
2452,
-629,
-552,
-513,
-1659,
-714,
1173,
862,
571,
1629,
-1528,
1292,
-751,
-877,
-402,
1521,
-441,
-334,
-355,
-354,
-254,
-340,
1496,
-533,
-342,
-121,
-183,
-2275,
-643,
3593,
385,
-536,
-423,
547,
1421,
-934,
-1639,
1009,
-1495,
1825,
-1093,
-356,
2327,
-1064,
895,
-713,
-1372,
541,
197,
1146,
-382,
-741,
1180,
-752,
837,
-1338,
1394,
343,
1925,
-1280,
2032,
-1790,
-1366,
-757,
1509,
-264,
303,
-196,
-163,
-523,
-259,
-318,
326,
-415,
-246,
-192,
-740,
1681,
-768,
1878,
-707,
-251,
-521,
-129,
1372,
-608,
1393,
-606,
-706,
-494,
-188,
-580,
1047,
-628,
-552,
-362,
-513,
1473,
-502,
-841,
-211,
-22,
1765,
-231,
-1259,
1846,
506,
-783,
25,
-529,
-795,
377,
-633,
1245,
-705,
3304,
-459,
131,
-646,
-112,
404,
-517,
-231,
-1167,
-1017,
-417,
1480,
-401,
1288,
-900,
2104,
-930,
-704,
-500,
-316,
1363,
-581,
-318,
-523,
-535,
312,
-497,
-463,
1562,
-1332,
-506,
1339,
-286,
2096,
-342,
-119,
310,
-686,
-473,
-228,
21,
-335,
1483,
-702,
-354,
-353,
-251,
-524,
1245,
869,
-805,
235,
-577,
-483,
-550,
-621,
-517,
1205,
1246,
363,
-523,
-1489,
-524,
1644,
-1061,
1555,
-765,
1341,
-539,
-476,
1863,
-109,
-557,
-347,
1367,
-592,
-69,
-387,
-690,
-894,
-615,
-784,
1889,
-419,
-1685,
1510,
-580,
2216,
-636,
311,
-739,
382,
-1457,
1210,
-688,
-651,
741,
-697,
1588,
-801,
-494,
2182,
-608,
-1194,
-1051,
3012,
403,
-704,
-743,
-894,
-282,
1429,
2930,
-437,
-935,
-399,
-707,
-234,
-468,
1554,
-350,
682,
-979,
268,
-716,
1124,
-650,
-598,
-334,
-1358,
1235,
1210,
240,
377,
-801,
126,
-683,
-297,
-51,
-206,
1965,
-459,
46,
-483,
-300,
-179,
-452,
1013,
-945,
-1271,
-593,
-76,
1955,
-1259,
1709,
-1133,
2122,
-706,
-746,
204,
2448,
-1278,
-1257,
-832,
-991,
-1120,
-1140,
2242,
1725,
-742,
-190,
-614,
-639,
-481,
-338,
-357,
-302,
2466,
1198,
-786,
-296,
2131,
64,
-372,
-209,
-681,
-63,
690,
-476,
569,
1426,
-685,
-663,
1516,
-34,
-491,
-738,
-325,
-573,
-407,
-415,
-1209,
-427,
801,
2382,
-216,
256,
-450,
-314,
906,
-637,
-721,
-750,
-593,
-587,
-525,
-427,
1781,
1555,
481,
-469,
-983,
858,
-703,
743,
-669,
975,
-521,
289,
-825,
-431,
-586,
91,
-531,
1217,
-330,
-422,
2520,
-700,
-594,
-365,
-1844,
2521,
-1186,
1789,
2775,
-1035,
-1160,
-899,
-589,
-277,
-1262,
-396,
784,
-142,
1388,
1192,
-315,
-382,
-224,
9,
-398,
28,
-372,
-331,
1126,
570,
-180,
-228,
-774,
-348,
345,
690,
-299,
-220,
-197,
-362,
1668,
-501,
-334,
1119,
-1149,
-503,
-941,
-823,
1734,
-776,
-1012,
2689,
933,
-614,
-845,
-488,
242,
-544,
-498,
1075,
-529,
1269,
-595,
-458,
-216,
-452,
-146,
1293,
-333,
-386,
1872,
-575,
1031,
-723,
461,
915,
1622,
-1441,
-1145,
702,
-737,
-686,
-2018,
-869,
2005,
1292,
1287,
1058,
571,
-1476,
-981,
-869,
1387,
1752,
574,
-375,
-867,
-494,
-316,
-608,
-201,
-851,
-746,
-286,
-1132,
1089,
-743,
3062,
-911,
681,
-688,
-324,
-548,
1378,
-501,
1347,
317,
472,
-925,
-377,
-599,
-562,
-353,
-873,
-529,
-575,
-676,
1874,
-214,
-499,
-656,
2504,
-20,
-550,
-351,
-378,
-381,
-508,
-302,
1432,
-340,
1401,
-947,
-496,
542,
2005,
1698,
-874,
-803,
-853,
-362,
91,
-532,
-336,
-1407,
-956,
2571,
-1018,
-445,
1164,
1044,
-84,
1619,
-617,
1304,
-803,
-1096,
-927,
1819,
-214,
-744,
-339,
-587,
-161,
-1176,
-602,
2063,
828,
150,
116,
-333,
-295,
-973,
-191,
1193,
1011,
772,
-500,
-33,
-744,
-282,
-251,
-1348,
-262,
1882,
1098,
-626,
-249,
1410,
-825,
-395,
-681,
-1045,
-975,
429,
2987,
2100,
-2572,
1634,
-1532,
-503,
-521,
-576,
-318,
23,
-590,
-1098,
-1031,
-244,
3813,
-322,
345,
2727,
2176,
-671,
-258,
-714,
-503,
-498,
-849,
-514,
-893,
204,
-928,
-838,
-834,
-712,
-831,
-604,
-558,
2599,
2504,
-416,
-826,
-381,
251,
-268,
-545,
834,
-422,
-265,
2040,
-145,
-257,
92,
-1761,
2036,
-414,
-936,
2062,
-463,
-213,
1431,
-1014,
-972,
-627,
-534,
-866,
-827,
-254,
1870,
1793,
1249,
1593,
-607,
-204,
-624,
-326,
240,
-507,
-416,
-394,
1156,
-1042,
1947,
2009,
1509,
91,
-1838,
-1851,
-1192,
-787,
-319,
-243,
-312,
-214,
-263,
-332,
564,
-298,
-358,
1778,
1048,
1224,
-823,
381,
-60,
-518,
-481,
-34,
-461,
-272,
-849,
-338,
285,
685,
-778,
1351,
-911,
1479,
-444,
-480,
-949,
-350,
1812,
-1094,
-289,
359,
-520,
1982,
-456,
-494,
-1626,
-729,
1310,
1281,
1773,
-94,
-1349,
771,
-751,
-585,
-415,
1381,
-581,
-67,
-375,
-430,
1341,
-32,
-317,
-503,
1772,
-1118,
-1170,
-971,
-245,
-873,
-657,
585,
1276,
1403,
428,
-699,
-914,
1286,
-682,
-1197,
-657,
-147,
1336,
1247,
803,
1024,
-523,
-176,
-182,
-209,
-141,
-179,
-397,
-16,
-474,
1681,
-494,
-144,
-508,
-315,
-316,
-520,
-606,
1698,
-837,
-340,
2356,
1134,
-81,
-256,
-1019,
-477,
-14,
-463,
1774,
-72,
-1277,
-804,
1181,
-814,
-943,
177,
1492,
-713,
-998,
-570,
1524,
565,
568,
610,
-1293,
744,
-553,
-599,
-728,
-127,
-1257,
-967,
2216,
334,
-457,
1767,
-283,
-496,
-210,
-184,
-1001,
1987,
-958,
1144,
913,
-695,
-647,
-347,
-287,
-393,
-157,
384,
-235,
-335,
-2,
-164,
-126,
1319,
-1741,
-890,
299,
-251,
177,
-1086,
-758,
-191,
2005,
2437,
-768,
1355,
-1215,
-1011,
-887,
-1044,
628,
-815,
2806,
952,
805,
-285,
-712,
1078,
-500,
-699,
-386,
531,
-426,
594,
-1171,
-366,
1513,
-72,
1277,
-935,
914,
-408,
-350,
-400,
-1426,
-778,
1046,
117,
778,
-371,
4623,
-1697,
-1211,
-1080,
499,
721,
-769,
-223,
-138,
-462,
-404,
754,
-579,
602,
1328,
-1343,
-1047,
-801,
-531,
-846,
-917,
-618,
2379,
2398,
892,
-462,
1475,
1110,
-1170,
335,
-587,
-447,
-661,
-484,
-435,
-164,
-301,
923,
-635,
1725,
-680,
46,
-367,
-110,
-106,
-692,
-541,
-352,
-512,
-619,
-379,
-388,
1831,
1761,
2323,
-28,
-2008,
-1122,
-165,
-1227,
2328,
-543,
1317,
-872,
-467,
-368,
-992,
-730,
-1170,
-705,
3358,
2062,
-510,
-475,
-873,
-588,
-2005,
1109,
595,
345,
1382,
1507,
-782,
-689,
-828,
-374,
1583,
1354,
-330,
-640,
-546,
-456,
563,
-324,
370,
-293,
2692,
91,
-810,
-961,
-330,
-395,
-342,
-20,
-474,
960,
-904,
-283,
-432,
-480,
1392,
1136,
-355,
-558,
-497,
-358,
-566,
-369,
-628,
1786,
2094,
-536,
-502,
-422,
-939,
-339,
1456,
3608,
-324,
-1343,
-591,
-773,
-239,
-513,
-1051,
-544,
-1083,
1161,
1142,
-522,
254,
1885,
-575,
-666,
-1113,
-456,
1111,
362,
-370,
-131,
-293,
-529,
2055,
-634,
-457,
-652,
-604,
-388,
-386,
1979,
-550,
-666,
2587,
-860,
-655,
-524,
-237,
-917,
1082,
-197,
-577,
978,
-317,
1366,
-371,
-407,
-552,
256,
-501,
1169,
-394,
-337,
1649,
-510,
-441,
-299,
1587,
-480,
104,
-913,
1551,
-268,
-456,
-383,
1297,
-1155,
1202,
-1090,
919,
-786,
-606,
-897,
-966,
2083,
-1263,
-423,
-624,
-1164,
445,
242,
-451,
1975,
1755,
-492,
-403,
-462,
-626,
374,
-781,
1725,
-576,
-571,
1893,
-571,
-139,
1437,
-270,
174,
-311,
-67,
15,
-258,
-42,
-536,
1605,
-760,
1452,
-1136,
-17,
-1113,
-1019,
-531,
2126,
-607,
-485,
-739,
-508,
994,
-890,
1318,
-172,
-585,
-596,
1665,
3320,
44,
-1638,
-1161,
587,
-194,
174,
-402,
-382,
-346,
-345,
-362,
-588,
-1433,
-866,
1734,
2581,
-81,
-417,
-220,
-323,
-458,
-1000,
2883,
-1330,
910,
-1026,
1734,
-794,
-593,
-276,
-809,
-187,
1410,
1990,
-1014,
1127,
-1176,
-618,
-446,
-424,
1533,
-727,
353,
-764,
-627,
-238,
-581,
-794,
2271,
3563,
-857,
240,
-686,
-163,
-670,
-516,
-928,
791,
-772,
-1716,
2811,
235,
-770,
-184,
-903,
-827,
-808,
-813,
2976,
1098,
-168,
-1529,
-1230,
2094,
41,
-867,
1547,
-443,
-542,
-512,
-180,
-428,
-1205,
-309,
3132,
-764,
1096,
-329,
-498,
-803,
2257,
-372,
-206,
-365,
-258,
-554,
-552,
-530,
1387,
-578,
1862,
-480,
-297,
-434,
-458,
-233,
-391,
1740,
-728,
23,
-868,
-1418,
348,
1850,
-1133,
1156,
-805,
1458,
-612,
937,
-225,
-776,
1754,
-1270,
313,
-823,
672,
-783,
200,
874,
2396,
-948,
-734,
-441,
-756,
-819,
-811,
2125,
-885,
47,
1737,
-650,
1180,
-579,
-452,
-484,
-435,
-397,
35,
-1283,
-492,
2076,
296,
-668,
-430,
-395,
-634,
2265,
-733,
-1237,
-587,
1026,
1725,
1250,
1136,
-1516,
-750,
-724,
-321,
-28,
-256,
318,
-1019,
1374,
-499,
-669,
1489,
-432,
-277,
877,
-714,
1808,
-1933,
1938,
-489,
-1446,
1777,
-1254,
-561,
760,
-474,
-1493,
1767,
-1112,
1555,
-1184,
1204,
-791,
-231,
-711,
221,
-654,
-1286,
-424,
-959,
-799,
4908,
-317,
23,
-505,
-613,
-599,
587,
1244,
-4,
-529,
-212,
-422,
1054,
-409,
1319,
-262,
-412,
-366,
-375,
-321,
-423,
-293,
1545,
-691,
-569,
-707,
1992,
-710,
-1486,
343,
2824,
-400,
-594,
-41,
1743,
-836,
-266,
-736,
-259,
-188,
-745,
-1038,
2369,
370,
-136,
-499,
427,
-322,
472,
-363,
-264,
709,
-393,
-460,
2406,
-517,
424,
-566,
-79,
470,
-464,
-369,
-841,
-748,
-319,
-734,
496,
-827,
2111,
-678,
1705,
-522,
-482,
-511,
1127,
-689,
895,
367,
51,
-380,
-243,
-522,
-95,
618,
527,
-1400,
-699,
3239,
712,
-526,
-1314,
-651,
-506,
-391,
-150,
-290,
688,
-263,
-351,
-6,
-109,
1179,
-305,
-1030,
-536,
1065,
-263,
891,
916,
1104,
-960,
-676,
-510,
-513,
-962,
-831,
-141,
1042,
133,
879,
-766,
-502,
1662,
-483,
2275,
-775,
-732,
-757,
-781,
-636,
-882,
390,
2382,
856,
1783,
980,
-976,
1200,
-774,
-690,
-889,
-875,
-615,
95,
-554,
-269,
-398,
-530,
-444,
-232,
1345,
-389,
1378,
1964,
-911,
1319,
395,
-1587,
-285,
757,
-492,
-913,
-247,
-174,
1473,
-552,
76,
-531,
-307,
-322,
-460,
-614,
1413,
1876,
-308,
-1397,
-105,
-399,
-479,
-349,
1986,
-435,
-386,
2046,
998,
1083,
-125,
-970,
-387,
-765,
-529,
-584,
-765,
841,
-761,
1196,
-85,
939,
-1169,
1232,
-899,
-813,
-480,
-477,
-272,
794,
-134,
-66,
1274,
-347,
-179,
-306,
-284,
-458,
-249,
706,
985,
-379,
-325,
-458,
673,
-212,
-282,
-352,
2226,
-479,
-109,
-505,
-371,
-128,
-465,
1151,
-966,
-581,
-333,
-1316,
-95,
1681,
253,
1131,
-103,
-369,
-265,
2302,
1982,
987,
-1107,
1290,
-1023,
-934,
-1282,
-1195,
-1020,
-1248,
-672,
187,
-1793,
2159,
2566,
-1392,
1742,
-712,
-835,
-671,
1926,
-727,
-1392,
1870,
27,
-909,
1186,
-663,
-646,
2057,
-744,
1082,
-631,
-277,
-445,
-473,
-716,
856,
-708,
-899,
-267,
2089,
-949,
-1144,
-490,
1437,
1252,
-555,
-473,
-880,
-561,
-281,
-15,
1306,
-225,
-657,
-85,
-406,
1808,
-369,
-726,
-224,
-79,
159,
-378,
510,
-375,
-336,
1820,
-568,
-444,
1174,
1604,
-831,
792,
365,
-865,
-640,
-587,
-279,
-306,
-503,
-831,
-418,
1383,
1524,
-228,
-259,
-80,
767,
2382,
-1024,
-795,
-518,
-689,
-780,
-769,
2284,
-856,
-998,
-148,
2495,
-196,
-421,
711,
-794,
-246,
5,
-408,
-421,
-317,
-1066,
2794,
-1457,
2131,
-1276,
947,
-819,
-515,
-474,
-404,
-616,
-979,
-26,
1517,
1993,
-429,
-271,
-306,
2203,
-1198,
1588,
1164,
-1978,
2223,
271,
-1601,
-1417,
-1257,
-2185,
-860,
2492,
356,
2035,
33,
787,
-857,
-975,
-827,
-1230,
-490,
674,
-319,
-618,
429,
539,
-624,
2495,
-854,
302,
1176,
-732,
1575,
-793,
-629,
-644,
-358,
-701,
805,
1344,
-998,
773,
-977,
680,
-729,
-904,
-721,
601,
932,
-738,
-194,
-868,
1077,
-1089,
4729,
-1509,
13,
-773,
-646,
-1831,
-899,
1594,
973,
1312,
1568,
577,
-1419,
-998,
-877,
-764,
-246,
799,
3394,
-393,
-978,
-256,
-675,
-365,
-512,
-502,
-512,
-851,
-241,
983,
1225,
1513,
-747,
-513,
-352,
-1378,
68,
3452,
1756,
-1397,
-167,
-662,
-362,
-701,
-607,
-407,
1349,
-236,
-176,
-397,
-481,
1274,
-334,
9,
-598,
-204,
-163,
-49,
1494,
-710,
865,
-410,
-341,
-332,
-146,
-1110,
-309,
-560,
-838,
-892,
1076,
-599,
3518,
327,
-611,
316,
-217,
-549,
-1961,
1931,
636,
-917,
1724,
-666,
-297,
1294,
-659,
1075,
-202,
816,
1172,
-775,
-1299,
-802,
-618,
-388,
-102,
-40,
698,
-901,
1996,
-508,
-547,
-211,
4,
2516,
-684,
0,
-369,
255,
-524,
-442,
-722,
612,
-640,
571,
2945,
-1362,
-1309,
-704,
-973,
-1132,
-1162,
2581,
546,
-567,
-1021,
-348,
2035,
-870,
-1157,
-144,
-308,
-366,
2748,
-949,
-786,
-6,
837,
-1138,
-671,
-725,
1886,
-159,
1712,
-1118,
-312,
3468,
-1114,
-1402,
2306,
-874,
-310,
-432,
-208,
-519,
-460,
-286,
-562,
943,
-191,
-340,
121,
23,
1272,
-274,
-486,
-387,
954,
-433,
-685,
-263,
-175,
1021,
730,
-860,
-407,
-746,
1033,
-805,
783,
-440,
2296,
-311,
-540,
-405,
-34,
-309,
1004,
-932,
2173,
-635,
-527,
-247,
-85,
-706,
1743,
-725,
-990,
1287,
-191,
-709,
1438,
-521,
-625,
2585,
930,
1084,
1002,
-1857,
-58,
-1359,
-301,
-882,
-1143,
969,
-665,
1240,
1201,
1261,
-628,
-1170,
-987,
-784,
-436,
-958,
-581,
1302,
-658,
1270,
1982,
-1038,
-51,
-656,
-611,
1737,
-1285,
1689,
-1196,
410,
-811,
-713,
-1027,
-1145,
2340,
77,
2349,
-1089,
-873,
-825,
-846,
1005,
-678,
1930,
-1050,
-1052,
-351,
2587,
-886,
-1266,
986,
1334,
-228,
-623,
-500,
-880,
-833,
-1012,
674,
2045,
3096,
-983,
-491,
-895,
-719,
-405,
-136,
-1365,
-1222,
2911,
1413,
-208,
-311,
-471,
-204,
-1139,
741,
2068,
-239,
-756,
-193,
-1034,
909,
-390,
33,
-672,
-460,
1276,
-785,
-528,
1104,
927,
-408,
-27,
-425,
-809,
-467,
-1215,
-413,
-522,
2910,
-433,
2156,
-650,
-554,
1950,
-187,
-1415,
-1255,
1195,
-290,
-567,
1305,
-448,
-286,
-644,
-516,
1459,
-274,
656,
-172,
-1099,
1797,
-641,
-565,
-308,
-564,
-1342,
2752,
3043,
-735,
-968,
-877,
-671,
-326,
-299,
-231,
-656,
2020,
-496,
-1369,
-278,
1433,
265,
-388,
2147,
-655,
-2223,
831,
-1232,
1727,
-942,
1630,
-711,
-570,
519,
-617,
965,
-210,
922,
-913,
1078,
-720,
-676,
-347,
853,
-275,
942,
-599,
-609,
-705,
1287,
-170,
-315,
-406,
714,
-314,
1157,
-656,
-691,
-752,
1634,
-255,
-380,
-455,
-526,
-18,
-1038,
-694,
1860,
216,
-327,
1088,
-227,
-330,
1955,
-737,
-984,
-1031,
20,
-4,
259,
-406,
-581,
1510,
-292,
-384,
636,
-574,
-1050,
22,
-128,
2052,
-419,
138,
-139,
825,
-287,
-1364,
1049,
-256,
-718,
1209,
-619,
302,
613,
-497,
1143,
-284,
-470,
-468,
-362,
-465,
1358,
-567,
-876,
-496,
-2397,
-525,
1173,
1,
2660,
1745,
-642,
-643,
-821,
-467,
1261,
-1584,
1163,
1241,
-784,
1049,
-555,
-502,
-754,
-683,
-388,
1651,
1283,
761,
412,
-1089,
-739,
-453,
-588,
-958,
-648,
-521,
-524,
-836,
-198,
-567,
2214,
2628,
1028,
-669,
1675,
-988,
1587,
-614,
-1247,
872,
-1113,
-530,
2037,
2182,
-1223,
2235,
-653,
-1444,
-1188,
-525,
-280,
-1139,
650,
1904,
-1193,
-845,
-862,
-932,
-971,
-970,
1641,
1578,
-366,
-785,
-53,
-451,
976,
-174,
-782,
-493,
3002,
-871,
-310,
1053,
-598,
-139,
-507,
-441,
802,
-406,
-532,
1080,
-547,
-141,
1223,
1445,
-516,
-134,
-445,
-290,
-314,
-279,
-556,
-313,
-193,
-1179,
383,
1905,
-732,
1551,
-396,
-469,
-372,
-204,
-869,
-609,
-450,
127,
1821,
1172,
-324,
-290,
990,
-903,
-420,
-1151,
-580,
-110,
-158,
1154,
-783,
1963,
-874,
-425,
990,
-455,
1085,
938,
147,
-494,
-531,
-381,
1578,
-856,
-946,
-219,
-587,
464,
-650,
-482,
1341,
359,
-561,
1843,
-362,
-668,
-432,
118,
-416,
1472,
-412,
-582,
-463,
-448,
-792,
-41,
1578,
-800,
1447,
-570,
77,
12,
144,
422,
-836,
162,
-570,
-268,
1162,
326,
-392,
-150,
1986,
-532,
190,
-350,
156,
-556,
-372,
-476,
432,
-478,
-271,
1177,
-579,
1348,
-659,
-310,
-447,
-420,
-644,
807,
1544,
1796,
-509,
756,
-692,
-782,
-771,
-504,
146,
-982,
-257,
1334,
-387,
-86,
-379,
-195,
-281,
-386,
-429,
1069,
1888,
-1547,
1540,
-1658,
-1159,
-1723,
-630,
1028,
-260,
2522,
-1159,
1872,
40,
-1119,
543,
-210,
-832,
1681,
-579,
-238,
-564,
2234,
-666,
-902,
-741,
-744,
157,
-793,
-985,
3006,
-504,
-289,
-931,
628,
-480,
2772,
-654,
28,
-533,
-35,
-599,
-349,
-513,
-563,
-344,
609,
1248,
-414,
1526,
-599,
-1295,
1906,
1532,
-816,
-607,
-412,
-898,
589,
-689,
691,
-568,
1356,
-700,
-28,
-638,
1337,
-728,
-719,
-798,
1487,
-304,
-337,
-717,
-561,
-84,
4457,
-1035,
-351,
-599,
-466,
1398,
908,
-1002,
1601,
345,
-1011,
-870,
-126,
-525,
-717,
-352,
1722,
-279,
-396,
-517,
431,
-280,
534,
-277,
-585,
2414,
-474,
-672,
-243,
-509,
148,
-153,
-513,
-47,
51,
-879,
-561,
-1172,
424,
-1073,
774,
1596,
2181,
-655,
-635,
-180,
1752,
-90,
-390,
-486,
1209,
-491,
-327,
-435,
-559,
-1822,
-583,
2456,
-851,
2019,
-582,
1070,
-217,
-876,
-613,
1874,
-1321,
1241,
775,
-2205,
-703,
-485,
1489,
-1411,
746,
-1646,
-528,
2964,
-907,
399,
-1145,
3435,
-826,
-938,
-805,
397,
-350,
479,
-1578,
1555,
-288,
-925,
1944,
-786,
-447,
-748,
90,
1943,
579,
-504,
-354,
-95,
-298,
-310,
-300,
956,
-161,
3439,
-1269,
10,
-691,
-816,
-754,
-316,
-396,
-1473,
-585,
1637,
-787,
2263,
100,
860,
-600,
-931,
-483,
438,
-287,
-1130,
1190,
-603,
612,
793,
-265,
-600,
-147,
-623,
-669,
-929,
1027,
806,
1856,
907,
-981,
-796,
-596,
196,
-667,
1098,
1187,
1302,
713,
-952,
-1537,
-837,
-504,
-1275,
-537,
416,
-815,
821,
366,
-658,
10,
2277,
-606,
-534,
-141,
-237,
2380,
-667,
220,
387,
-538,
-479,
-389,
482,
-1014,
-745,
-677,
-429,
-699,
-615,
-489,
2021,
2168,
250,
-158,
-433,
-1232,
-6,
2060,
-96,
-60,
-197,
-124,
8,
-636,
-707,
-391,
-725,
-299,
1475,
339,
-511,
1448,
-357,
-71,
-717,
-646,
1515,
722,
-189,
156,
-222,
-189,
469,
-924,
1669,
1126,
-2018,
1148,
1194,
-721,
-1117,
-826,
121,
-287,
-888,
1511,
-897,
804,
1318,
-596,
-563,
-522,
-551,
-99,
-11,
1270,
-795,
251,
1564,
-601,
-440,
-586,
-730,
-193,
2360,
363,
-268,
-157,
-865,
-125,
61,
-443,
-902,
-554,
1155,
383,
1457,
-285,
-1017,
909,
-637,
-508,
-1055,
-406,
1363,
1006,
998,
-1059,
260,
-736,
-145,
-225,
-452,
561,
-1069,
-1187,
-937,
-993,
-734,
-890,
2978,
2726,
-223,
-354,
-462,
-658,
-553,
-316,
382,
1082,
1095,
8,
-1968,
-739,
2176,
-293,
1917,
454,
903,
-741,
-949,
-759,
-570,
-319,
113,
-537,
-1230,
-1000,
-256,
3816,
-324,
310,
276,
-720,
-194,
-916,
-336,
-628,
-245,
1478,
-532,
1819,
-358,
-506,
-677,
-190,
1590,
-441,
1905,
-752,
-396,
-171,
-527,
1671,
-416,
-500,
-487,
-483,
-168,
-538,
-640,
2091,
-471,
-244,
-292,
-407,
-260,
1411,
-418,
1303,
-288,
-331,
-534,
-96,
-763,
1870,
-785,
-1167,
2774,
-312,
-434,
-550,
-1247,
-370,
716,
-167,
-522,
-86,
448,
-567,
2616,
-818,
-798,
-444,
2142,
-443,
-1157,
1571,
523,
-500,
-519,
-374,
-1008,
1473,
93,
-621,
-214,
-579,
-546,
-420,
-527,
2351,
-211,
-117,
-467,
2032,
-1023,
1223,
-333,
-554,
-435,
-113,
1585,
-769,
1472,
-812,
-158,
-850,
-855,
-738,
2032,
-906,
-597,
1774,
-245,
-313,
-493,
-577,
1107,
-459,
618,
-813,
-451,
-331,
-746,
-60,
1119,
1143,
-381,
27,
-193,
-125,
-485,
-908,
-201,
-934,
-645,
-834,
-408,
2389,
-439,
2467,
1212,
-588,
2095,
-604,
-797,
-1040,
1374,
-469,
-582,
-600,
-215,
-93,
-53,
-1153,
-376,
1960,
184,
-349,
-235,
333,
-633,
-210,
-435,
223,
-707,
1293,
-560,
1666,
-238,
-396,
-492,
-162,
75,
-342,
-425,
-452,
-252,
2094,
-134,
92,
337,
3,
-435,
-205,
-556,
394,
-353,
1302,
-283,
-204,
900,
1357,
-1138,
-1013,
-814,
-866,
-899,
-868,
1904,
1439,
2392,
-256,
-1457,
-935,
-434,
-606,
1098,
-372,
1145,
-573,
1870,
-722,
-1253,
1235,
-975,
242,
-905,
120,
198,
190,
1342,
-598,
1296,
-413,
1066,
-685,
-1,
-808,
-806,
-392,
1431,
-562,
-1566,
2100,
-377,
1359,
-258,
-905,
-679,
-541,
-798,
-369,
486,
2228,
-1481,
521,
2078,
-953,
-838,
-875,
-47,
-1295,
-946,
-387,
1639,
-1110,
-687,
-414,
1113,
2136,
-1173,
-422,
3224,
37,
-614,
-149,
-1373,
1221,
16,
-765,
-190,
-175,
484,
-172,
-474,
-297,
1583,
-142,
-285,
-329,
-623,
-342,
90,
-304,
149,
452,
-281,
-188,
1448,
-400,
-2154,
-980,
2006,
-721,
1658,
1241,
281,
718,
-1090,
-960,
1793,
-667,
1652,
-477,
1349,
-768,
-517,
-941,
-981,
-440,
1540,
-105,
-1065,
-818,
-23,
262,
-662,
1900,
-559,
-468,
-688,
2425,
-734,
-572,
-564,
-599,
-302,
-568,
2213,
-607,
-328,
-294,
-592,
-581,
-24,
863,
1787,
-329,
-297,
-202,
1437,
-562,
-696,
1733,
-814,
878,
149,
-845,
-674,
-605,
-184,
2912,
-924,
-896,
-960,
-878,
-626,
-1036,
-638,
3234,
-602,
-277,
-181,
1028,
1215,
-608,
-361,
-176,
-7,
-30,
-560,
1794,
-447,
-402,
-400,
-421,
-184,
-395,
1621,
-603,
-27,
-854,
-779,
1433,
-782,
-1269,
-583,
110,
1094,
1659,
1221,
-578,
-1025,
1689,
-1717,
862,
-1144,
1287,
-469,
-125,
-1100,
608,
1682,
-1251,
-982,
642,
-904,
149,
-857,
2014,
-250,
-552,
-607,
-83,
-408,
-400,
1265,
-385,
-383,
1805,
-900,
-666,
-403,
1627,
667,
1481,
-1485,
-81,
-843,
602,
-636,
2367,
-673,
-270,
-681,
-109,
-637,
-771,
-849,
2261,
-163,
1130,
1412,
-125,
-508,
-490,
-446,
-424,
316,
-699,
-396,
-410,
-480,
220,
867,
1661,
-381,
-324,
-412,
-342,
-593,
-1065,
-429,
167,
-24,
-627,
685,
-529,
-298,
2714,
-1195,
-484,
427,
1128,
940,
-107,
-1024,
1367,
-525,
-527,
237,
-333,
-415,
-653,
1009,
-415,
-559,
3,
1391,
-266,
-248,
-234,
-1253,
-951,
-924,
533,
3198,
564,
-448,
-234,
-878,
-424,
215,
396,
-404,
270,
-223,
-386,
2037,
-602,
-884,
-819,
-690,
1632,
1231,
1964,
438,
-1253,
-931,
-686,
-148,
-1154,
-790,
2009,
1426,
1796,
868,
-1853,
-1273,
-881,
-686,
-422,
-662,
1249,
-907,
-675,
-284,
1464,
1298,
-373,
415,
-789,
159,
914,
2040,
-1482,
-1349,
1810,
-885,
-833,
-545,
-348,
-667,
-377,
-563,
1879,
-196,
1605,
-403,
-383,
705,
694,
-446,
-777,
-393,
-289,
202,
-450,
-669,
1425,
-794,
-252,
9,
812,
674,
-730,
-511,
1451,
-233,
-425,
1155,
992,
-924,
-1012,
-733,
-697,
1182,
-542,
1211,
-632,
-579,
2792,
-841,
-1037,
-839,
2199,
-928,
-1308,
-1095,
1638,
543,
-499,
1075,
382,
-379,
-754,
869,
-439,
-411,
-386,
-1028,
-396,
2680,
-449,
-1471,
881,
-492,
1044,
-494,
-273,
-151,
2607,
-1031,
125,
-940,
-559,
-621,
-804,
-1071,
2446,
215,
-641,
-475,
-27,
-432,
1388,
-585,
-644,
1961,
-758,
-920,
-593,
-1767,
-419,
708,
2939,
-542,
2033,
-740,
-698,
1689,
1684,
977,
421,
-1256,
-293,
-910,
-519,
-885,
-907,
-548,
-646,
-545,
611,
718,
992,
-627,
-585,
-482,
1113,
683,
2236,
-975,
-879,
-442,
-643,
-773,
-803,
1997,
-398,
-809,
-280,
1493,
-527,
1104,
-844,
1035,
-398,
-478,
-294,
-434,
-405,
-1020,
-263,
695,
2291,
-322,
183,
-439,
-284,
1045,
1245,
-1146,
732,
-685,
-749,
-527,
-212,
-1004,
1302,
1457,
-785,
572,
-622,
-441,
-239,
-159,
-592,
-749,
1560,
2639,
66,
284,
-560,
-658,
-175,
-136,
-660,
-451,
-347,
-464,
2245,
-642,
-244,
-586,
-535,
1731,
-438,
-435,
-627,
1002,
-464,
-1669,
1308,
1468,
-281,
-1157,
986,
-552,
-640,
-665,
-204,
80,
962,
-696,
1949,
-820,
66,
-456,
-214,
-410,
-823,
-9,
-464,
896,
-137,
-789,
-540,
3204,
-925,
815,
-316,
2683,
-745,
-621,
-507,
-274,
-553,
-53,
-427,
-339,
-822,
-567,
-159,
-315,
1467,
-195,
-472,
-586,
1992,
269,
-531,
-94,
-1014,
1237,
-565,
-797,
139,
1727,
-370,
-792,
-440,
-1777,
1053,
2213,
-189,
-219,
1275,
-585,
-536,
-1870,
-594,
2467,
-628,
401,
-503,
4208,
-1385,
-1119,
-974,
1119,
-1237,
1850,
337,
820,
-1834,
2373,
-1290,
-1288,
-849,
-709,
-645,
-2298,
-10,
1643,
3304,
-340,
489,
-790,
-643,
-450,
-91,
-690,
2276,
-1180,
1496,
-457,
-736,
-608,
442,
507,
2544,
-1596,
-1293,
-1203,
-1230,
-1030,
-1316,
2532,
2087,
-901,
-248,
401,
3574,
-1025,
-565,
743,
-715,
-622,
-640,
-498,
-131,
-333,
-533,
688,
-202,
-247,
540,
742,
-25,
-531,
2496,
-713,
-500,
-553,
-553,
-398,
-547,
2132,
-831,
544,
1699,
-545,
112,
-458,
-322,
-314,
-437,
166,
-443,
-13,
-145,
-744,
1166,
-336,
1076,
-111,
-344,
-400,
-146,
-455,
-33,
-1014,
1650,
-1116,
2923,
-289,
-832,
-553,
-277,
-726,
-370,
-450,
-1084,
1851,
1360,
-795,
1168,
-445,
-508,
-416,
-286,
-1049,
167,
-709,
87,
1762,
1183,
-433,
-305,
-285,
-352,
-999,
-111,
905,
1739,
-248,
-139,
-367,
-140,
-769,
-459,
-804,
2237,
-948,
-341,
-7,
2282,
-559,
-629,
-829,
643,
-1026,
-412,
-629,
-669,
1866,
-455,
2414,
-901,
364,
1443,
-488,
1107,
-368,
-739,
-412,
-329,
93,
-671,
-680,
-385,
-1304,
1150,
855,
157,
-237,
1505,
-529,
-531,
-1144,
-600,
1346,
2394,
1239,
-1246,
-1060,
-905,
-477,
453,
-472,
-255,
1359,
-217,
-665,
1066,
-50,
-304,
-295,
-166,
1168,
-336,
-782,
248,
-450,
141,
-482,
72,
767,
-347
};

#endif