#ifndef __MMCBLOCK2_MMLAYER4_BRANCH33C_CONV_0_WEIGHT_H__
#define __MMCBLOCK2_MMLAYER4_BRANCH33C_CONV_0_WEIGHT_H__

// MMCBlock2_mmLayer4_branch33c_conv_0_weight
// (3, 3, 6, 6)
const int MMCBlock2_mmLayer4_branch33c_conv_0_weight[] = {
-1004,
712,
-153,
-916,
1067,
728,
218,
-1000,
-627,
421,
-739,
1473,
-980,
1573,
-1210,
-306,
1948,
1227,
656,
-1724,
-671,
2188,
-1725,
-1040,
1343,
1211,
-849,
-300,
-633,
-210,
-1753,
-1262,
1596,
407,
-6,
-116,
-861,
616,
-3508,
433,
533,
-363,
24,
-1102,
213,
255,
-679,
626,
-500,
221,
-761,
-388,
273,
1103,
-580,
-694,
2513,
25,
-2250,
795,
773,
1392,
-95,
412,
-1377,
-49,
-2171,
746,
3303,
-1133,
823,
2031,
-399,
1124,
-527,
-565,
1088,
52,
-393,
-1129,
-340,
472,
72,
1196,
-564,
-1021,
325,
948,
-775,
-72,
492,
-1086,
-1758,
1669,
-1407,
-478,
793,
885,
-916,
-834,
-859,
175,
-1288,
-972,
2310,
849,
536,
402,
1582,
519,
-1154,
-674,
541,
-703,
-148,
-89,
194,
162,
137,
1425,
-519,
1587,
651,
-614,
-700,
-553,
345,
-615,
-89,
2016,
-653,
812,
65,
-541,
-284,
-317,
145,
14,
580,
-400,
-375,
1639,
-170,
-1774,
298,
-180,
-322,
696,
-792,
-725,
726,
-141,
-797,
54,
524,
548,
625,
433,
-966,
685,
-771,
-337,
829,
-598,
-1345,
-1391,
1657,
200,
-192,
-306,
1458,
269,
-129,
537,
560,
-411,
-2275,
-437,
-203,
-1166,
2017,
289,
-976,
-874,
419,
-246,
-504,
-119,
-359,
-246,
612,
1256,
796,
-394,
-1093,
575,
322,
-916,
372,
-336,
-356,
2196,
-411,
45,
-30,
-1410,
-187,
-567,
-44,
165,
869,
-720,
-19,
1940,
-212,
-1812,
71,
-394,
355,
-1150,
1448,
1893,
-453,
865,
1963,
-225,
95,
-845,
-796,
-395,
2956,
-1309,
32,
1497,
-712,
-887,
1737,
2165,
-830,
-18,
-468,
-84,
-1472,
-1252,
259,
-948,
1820,
74,
-306,
1100,
938,
196,
-1729,
18,
2929,
-200,
1148,
2473,
160,
158,
1578,
375,
-1424,
-571,
-246,
-1054,
-425,
586,
-226,
135,
-100,
-2566,
-2957,
-403,
55,
-1391,
-413,
650,
-103,
-811,
261,
-444,
1450,
-1740,
-2793,
-1269,
953,
-390,
-226,
447,
221,
-1315,
1861,
2472,
-501,
341,
1517,
-234,
-714,
-536,
962,
-1408,
-1679,
1408,
-370,
-228,
-1127,
-1141,
2335,
2321,
-1325,
-695,
-580,
-292,
-1283,
-674,
-69,
-596,
1162,
477,
-983,
488,
1049,
-226
};

#endif