#ifndef __MMCBLOCK1_MMLAYER3_BRANCH33C_CONV_0_WEIGHT_H__
#define __MMCBLOCK1_MMLAYER3_BRANCH33C_CONV_0_WEIGHT_H__

// MMCBlock1_mmLayer3_branch33c_conv_0_weight
// (3, 3, 6, 6)
const int MMCBlock1_mmLayer3_branch33c_conv_0_weight[] = {
545,
-2442,
-260,
-2125,
-1792,
2030,
-903,
1374,
-1880,
-1613,
-474,
-1384,
-1088,
-1308,
-2311,
2780,
3,
-597,
515,
1852,
787,
1000,
-56,
-829,
2097,
78,
1560,
995,
-55,
-763,
1188,
-1549,
8,
842,
-1476,
1161,
193,
17,
118,
-387,
-2197,
2594,
-647,
379,
-1961,
80,
-2658,
-3110,
749,
-1335,
-2396,
679,
395,
579,
1054,
1661,
791,
-505,
-264,
-1310,
889,
577,
-666,
137,
325,
-2252,
-6,
-977,
521,
772,
-1302,
1462,
-725,
2300,
-1144,
-840,
-2087,
847,
-98,
-1414,
-1082,
-2548,
-1899,
-2550,
1034,
-754,
-1904,
294,
-429,
1138,
2834,
-124,
-33,
532,
-67,
-537,
1137,
-1357,
-728,
1183,
352,
-1275,
-960,
105,
-188,
3533,
-570,
1600,
-441,
1756,
-499,
-889,
-1699,
-1352,
-40,
-2633,
137,
-1215,
-1486,
-1306,
213,
38,
-2375,
565,
813,
533,
1383,
-25,
-700,
205,
428,
-1088,
1769,
-493,
-77,
158,
1027,
-535,
-22,
2521,
450,
175,
-1255,
599,
-148,
-296,
336,
280,
-1599,
-1457,
-107,
-565,
-465,
27,
-1676,
-174,
-1317,
-98,
-886,
489,
464,
-175,
12,
551,
1796,
-1525,
637,
-1811,
-7,
379,
1399,
-1014,
1165,
-588,
-852,
-358,
422,
670,
-897,
-1530,
382,
-2521,
1445,
-2451,
-1482,
806,
-1042,
1422,
-763,
-1054,
-587,
-541,
295,
1642,
-2602,
1481,
-81,
-1072,
1794,
335,
172,
-233,
-460,
-521,
1204,
255,
723,
1640,
1008,
-746,
-688,
915,
1200,
1962,
-113,
413,
-534,
-1386,
210,
-324,
-2571,
1463,
262,
1372,
-1355,
-2347,
-2534,
-948,
462,
556,
-1280,
436,
-360,
376,
1775,
-762,
-558,
-558,
797,
1447,
1656,
578,
-625,
399,
767,
-1209,
-1448,
1073,
203,
4578,
-906,
1015,
129,
245,
-610,
-1671,
-2413,
2718,
-609,
-597,
-1762,
1173,
-2098,
-1705,
1411,
-1942,
-1910,
-11,
-151,
1040,
2031,
321,
182,
-84,
-44,
-662,
811,
312,
536,
-147,
12,
-149,
-164,
-873,
712,
1430,
-1931,
1476,
-605,
1924,
-1091,
-1094,
-1362,
949,
-387,
-632,
-1253,
-1576,
-1718,
-906,
-22,
-876,
-2050,
944,
1033,
1460,
1979,
-1400,
1860,
1085,
-185,
-1444,
1373,
567,
268,
132,
351,
993,
715,
2634,
845,
-450,
-1024,
298
};

#endif