#ifndef __MMCBLOCK3_MMLAYER1_BRANCH33A_CONV_0_WEIGHT_H__
#define __MMCBLOCK3_MMLAYER1_BRANCH33A_CONV_0_WEIGHT_H__

// MMCBlock3_mmLayer1_branch33a_conv_0_weight
// (3, 3, 12, 12)
const int MMCBlock3_mmLayer1_branch33a_conv_0_weight[] = {
-489,
340,
18,
305,
406,
1030,
-435,
-429,
-1458,
1234,
-1429,
-712,
214,
435,
-458,
-444,
-556,
494,
60,
-268,
3,
-403,
-1565,
-564,
-170,
435,
10,
-556,
-577,
-12,
463,
-511,
-274,
-309,
-222,
-803,
-65,
-933,
851,
-427,
754,
-132,
-1451,
577,
9,
-51,
-488,
928,
207,
168,
225,
132,
486,
-240,
-721,
-725,
518,
-346,
313,
57,
626,
797,
298,
-574,
125,
-542,
709,
-111,
1366,
-1294,
-1574,
-1065,
347,
-943,
53,
13,
-237,
88,
-132,
682,
40,
-50,
812,
1221,
304,
-429,
373,
1398,
-668,
-898,
-455,
-119,
363,
11,
256,
-183,
497,
54,
543,
-709,
688,
-935,
-207,
-64,
72,
191,
-738,
-975,
-379,
-85,
526,
1231,
-226,
1124,
-1244,
456,
-1024,
13,
-20,
8,
-255,
411,
-521,
-32,
380,
283,
-166,
-139,
-903,
1632,
-774,
-353,
-43,
369,
160,
-590,
514,
-951,
388,
-432,
889,
-181,
516,
-62,
-1024,
-242,
155,
193,
-500,
1868,
491,
-386,
-186,
505,
-1866,
-462,
635,
24,
-505,
188,
312,
-881,
-350,
75,
609,
237,
-1200,
-1003,
111,
-114,
19,
-482,
-1003,
417,
470,
-205,
-210,
-156,
-219,
-580,
-94,
-126,
1316,
147,
425,
84,
-1503,
-239,
-873,
-1048,
-1625,
577,
907,
-299,
1715,
-631,
67,
-579,
-352,
-140,
-498,
131,
7,
380,
770,
-443,
-555,
-47,
928,
-887,
-309,
-201,
-34,
-816,
-627,
-508,
419,
-142,
-617,
184,
-236,
-923,
169,
-5,
-256,
-263,
1494,
1856,
335,
49,
1104,
1252,
-566,
-825,
137,
390,
59,
-299,
334,
179,
-255,
-5,
1619,
-729,
605,
-490,
828,
-376,
414,
657,
-563,
-1433,
-1473,
-28,
-314,
260,
128,
1295,
-836,
-172,
-546,
-498,
-670,
158,
-190,
195,
183,
87,
-346,
-135,
1436,
-29,
218,
2061,
-872,
-321,
-147,
7,
73,
-484,
236,
-93,
333,
-164,
-185,
489,
1386,
-654,
-563,
-406,
73,
-596,
-5,
1041,
204,
179,
1579,
480,
-1311,
-151,
528,
-638,
-420,
937,
-519,
844,
318,
-63,
-48,
-121,
-1517,
-884,
-258,
-454,
98,
-398,
-1093,
-32,
197,
383,
7,
-675,
-119,
-653,
-158,
960,
1021,
-697,
796,
-288,
-919,
-915,
-358,
430,
-975,
731,
205,
-581,
717,
-1648,
525,
178,
-673,
155,
1,
161,
549,
-62,
421,
-327,
367,
1331,
292,
-573,
368,
405,
-1540,
467,
-1300,
-638,
378,
406,
-21,
1083,
-325,
139,
-294,
-946,
-666,
-292,
772,
812,
254,
53,
528,
404,
-1012,
-1241,
-569,
249,
-715,
52,
-117,
229,
404,
362,
642,
-87,
592,
-1014,
-629,
-32,
-486,
654,
-328,
-857,
-723,
519,
-373,
-603,
-278,
590,
-790,
-406,
143,
538,
-611,
34,
117,
-379,
-266,
-1102,
87,
344,
76,
824,
1287,
875,
-401,
-213,
-165,
-182,
-3,
-735,
496,
-830,
644,
247,
-946,
729,
588,
-13,
-169,
272,
-348,
-1263,
709,
936,
-201,
416,
-980,
916,
-561,
-12,
-305,
16,
-925,
-251,
-864,
565,
1749,
-223,
348,
182,
-185,
-349,
-230,
-72,
-744,
224,
-670,
137,
939,
53,
-589,
-37,
381,
23,
89,
-884,
1109,
-1635,
183,
200,
-1984,
1153,
-368,
517,
-825,
485,
-124,
-222,
426,
11,
860,
-191,
-1038,
102,
-629,
149,
-620,
-77,
-427,
1135,
-214,
559,
-158,
62,
270,
-1244,
1156,
-1156,
-591,
-764,
530,
-384,
256,
-447,
-631,
248,
804,
-284,
277,
-494,
-66,
-72,
-204,
-86,
-560,
1263,
682,
124,
-650,
-522,
-555,
606,
535,
-34,
-20,
-216,
1125,
-190,
349,
-791,
-1120,
315,
-542,
-436,
124,
-206,
427,
-371,
-27,
-1355,
164,
-503,
-356,
1425,
-698,
597,
-189,
213,
-66,
268,
194,
-269,
579,
-94,
181,
-68,
-761,
87,
1642,
-250,
-104,
995,
288,
1457,
-194,
-553,
901,
-1411,
1046,
-430,
-747,
-294,
-409,
-152,
589,
-501,
416,
541,
-53,
-10,
181,
-225,
-474,
-539,
457,
199,
-718,
547,
47,
-25,
1212,
298,
162,
896,
441,
219,
305,
-442,
-70,
-90,
-118,
722,
1318,
-403,
-598,
196,
1085,
-264,
-430,
-320,
1846,
123,
-238,
1078,
-1560,
-382,
-58,
-557,
-127,
-729,
-187,
262,
872,
-549,
-351,
655,
-654,
183,
-150,
241,
-574,
-190,
938,
-343,
522,
-878,
-214,
-530,
120,
-628,
-106,
-606,
612,
686,
300,
-214,
-65,
61,
179,
304,
1177,
-415,
-524,
195,
-101,
-857,
-294,
271,
813,
-156,
-313,
1643,
-83,
146,
96,
139,
861,
26,
216,
-105,
1621,
568,
-626,
-469,
778,
35,
-298,
-873,
414,
280,
53,
-246,
1340,
-230,
883,
-334,
408,
-396,
-699,
-416,
-474,
-511,
-148,
154,
494,
-220,
10,
231,
1772,
-125,
202,
-148,
-86,
21,
-206,
-44,
457,
187,
-114,
-289,
791,
42,
12,
457,
400,
204,
-202,
-236,
-470,
532,
337,
910,
-156,
-286,
1581,
433,
-694,
221,
-321,
-202,
-815,
-29,
-768,
210,
1820,
181,
-684,
980,
-585,
-138,
-291,
-397,
-1033,
-45,
-265,
751,
293,
-48,
234,
-746,
807,
-235,
364,
962,
648,
794,
406,
-67,
-1325,
-1148,
217,
330,
-309,
670,
-85,
-138,
40,
-291,
680,
-48,
-787,
-348,
991,
-177,
-541,
37,
-487,
-1092,
-552,
-663,
-5,
256,
314,
1361,
-1741,
-282,
-806,
-940,
620,
-301,
98,
45,
-457,
-88,
485,
-719,
-608,
-725,
547,
-108,
-282,
-407,
-334,
-1070,
165,
-20,
-490,
-36,
390,
-135,
174,
285,
123,
302,
1047,
646,
150,
-871,
-1027,
-90,
-717,
-932,
385,
-488,
569,
807,
-176,
1273,
104,
-354,
-249,
-1086,
842,
242,
-179,
-48,
-101,
-585,
-24,
-532,
365,
-539,
286,
59,
1115,
280,
1324,
-241,
-207,
-893,
249,
-1865,
-535,
-462,
251,
1419,
-891,
619,
-897,
-309,
268,
-264,
312,
-807,
-667,
-255,
-46,
811,
111,
-863,
742,
405,
-656,
257,
-1126,
505,
-438,
576,
788,
203,
570,
-397,
1038,
-535,
-385,
-101,
222,
-350,
-589,
455,
-539,
-77,
-982,
-832,
169,
-149,
676,
-524,
1096,
-1111,
-431,
314,
-965,
587,
-335,
639,
-886,
430,
31,
164,
378,
585,
29,
-797,
-397,
603,
-377,
252,
-172,
-67,
-790,
899,
-412,
193,
823,
1101,
-571,
-786,
343,
-200,
-88,
-48,
237,
-179,
-174,
-970,
-490,
498,
-487,
-159,
15,
-216,
-567,
-283,
277,
-169,
1,
174,
500,
-109,
-752,
101,
-1054,
193,
-536,
107,
-736,
426,
-375,
549,
706,
-157,
-63,
-975,
-1149,
52,
482,
567,
1191,
-640,
-368,
-877,
-890,
-560,
-426,
897,
-469,
260,
332,
-439,
-749,
74,
710,
-66,
-227,
-466,
592,
-22,
222,
-912,
1036,
-48,
-1098,
371,
124,
1767,
261,
-465,
486,
-936,
1028,
-532,
-1008,
155,
504,
-9,
1962,
1239,
-532,
-1331,
374,
623,
67,
-1091,
-5,
-514,
-369,
190,
-765,
800,
-197,
937,
223,
219,
314,
274,
2105,
-592,
-154,
76,
-180,
-337,
124,
2123,
-357,
-217,
-484,
-415,
-167,
-583,
269,
-310,
1080,
-110,
29,
-64,
-1401,
-261,
731,
696,
350,
-69,
-231,
369,
-49,
1746,
-137,
237,
-629,
302,
135,
70,
530,
-321,
492,
94,
278,
-880,
718,
-125,
-910,
-316,
-234,
-55,
801,
623,
711,
162,
-438,
-1067,
-198,
-26,
-226,
-258,
-112,
726,
-766,
-86,
-253,
364,
-292,
-834,
1005,
1560,
-919,
53,
-656,
-86,
-496,
-138,
-673,
-317,
823,
-213,
142,
-305,
423,
-234,
-879,
-347,
1691,
691,
1208,
-327,
1742,
-78,
-902,
-1962,
561,
-589,
-383,
482,
825,
-463,
-377,
-99,
2540,
295,
-493,
-923,
1573,
215,
-46,
-879,
-344,
-289,
-1029,
10,
63,
797,
822,
-555,
426,
249,
126,
217,
-833,
79,
364,
670,
645,
1502,
-534,
-529,
34,
-470,
-312,
-11,
676,
507,
-328,
237,
-1008,
245,
-474,
563,
1011,
371,
87,
117,
899,
-272,
-703,
-11,
-74,
-815,
128,
595,
-280,
-332,
803,
-568,
-394,
-151,
742,
578,
1266,
112,
-86,
-56,
-1148,
-727,
-405,
526,
-532,
760,
309,
259,
-134,
120,
271,
351,
-319,
-12,
1752,
853,
-733,
308,
-496,
-828,
-387,
-227,
1354,
1088,
-630,
654,
-866,
-113,
183,
90,
-102,
-159,
-280,
-1060,
-519,
101,
-61,
-309,
-629,
207,
-218,
-101,
265,
-72,
11,
-822,
695,
-872,
-1061,
-263,
594,
-264,
-265,
-116,
-942,
-669,
-220,
-503,
536,
-70,
-544,
401,
-278,
-463,
601,
377,
983,
1284,
100,
815,
-679,
-472,
-322,
-1077,
-64,
304,
779,
-517,
-627,
-106,
467,
-373,
-286,
-300,
552,
-54,
-1329,
98,
894,
42,
-857,
-1101,
-85,
-1053,
347,
-883,
495,
946,
-1358,
48,
-729,
284
};

#endif