#ifndef __MMCBLOCK2_MMLAYER4_BRANCH11_CONV_0_WEIGHT_H__
#define __MMCBLOCK2_MMLAYER4_BRANCH11_CONV_0_WEIGHT_H__

// MMCBlock2_mmLayer4_branch11_conv_0_weight
// (1, 1, 176, 12)
const int MMCBlock2_mmLayer4_branch11_conv_0_weight[] = {
-3970,
1297,
529,
-553,
-2254,
750,
1600,
59,
-56,
5789,
1305,
407,
395,
-532,
-482,
-101,
-384,
-482,
571,
363,
44,
-115,
-1697,
-34,
760,
-712,
119,
-687,
1400,
1369,
68,
504,
264,
-1079,
-305,
-224,
384,
2311,
905,
16,
-1143,
-427,
465,
546,
-511,
2722,
-294,
1830,
158,
799,
-439,
1567,
-53,
-537,
-330,
-1420,
97,
366,
-255,
347,
115,
-350,
-1521,
663,
341,
1917,
79,
1061,
1856,
-115,
-2000,
-1615,
-810,
1175,
1329,
-893,
3324,
-151,
676,
-478,
-480,
-540,
1422,
827,
-2519,
59,
-1071,
273,
-2358,
166,
-295,
20,
-153,
2963,
-559,
-931,
-107,
-101,
-351,
911,
14,
-341,
-251,
-209,
724,
315,
233,
-81,
-378,
-80,
-219,
233,
182,
323,
-246,
767,
-686,
318,
-1426,
-253,
529,
141,
312,
-41,
-391,
-1199,
-45,
-1060,
-837,
3,
726,
-21,
795,
-186,
-159,
93,
-326,
-88,
-784,
212,
99,
195,
368,
-10,
-715,
-1214,
-440,
-398,
51,
233,
632,
-430,
762,
843,
-831,
48,
500,
-560,
97,
97,
-79,
210,
332,
-1117,
-117,
635,
-520,
638,
-787,
137,
-151,
-1654,
-451,
-145,
38,
-628,
-268,
-845,
-234,
-1068,
1202,
-1092,
-1036,
1017,
435,
45,
-10,
-221,
615,
-245,
-873,
-100,
1880,
-986,
-617,
158,
782,
244,
827,
-539,
26,
170,
-748,
-455,
-134,
-1174,
-775,
-215,
774,
130,
-1028,
535,
1246,
557,
-2021,
-770,
842,
-1466,
-629,
336,
-1074,
444,
-41,
-746,
-2,
850,
-1115,
-344,
288,
516,
251,
-442,
98,
-734,
-190,
-213,
-299,
-46,
219,
284,
1760,
-82,
-247,
-715,
327,
1045,
381,
1263,
1042,
46,
-392,
-1017,
-801,
61,
553,
142,
79,
739,
-1724,
-404,
1532,
-1026,
544,
-812,
780,
-1430,
499,
-893,
1280,
2657,
914,
267,
298,
178,
-1543,
-1443,
-96,
-479,
-727,
-750,
-324,
-245,
1069,
802,
655,
-211,
-131,
-409,
-259,
916,
-1111,
8,
68,
206,
90,
666,
83,
-579,
47,
-1318,
-884,
-2087,
-652,
-2856,
244,
116,
898,
1454,
1691,
-284,
-71,
-1081,
4222,
1219,
799,
109,
2973,
-101,
591,
-260,
-705,
-3643,
982,
16,
-852,
276,
-979,
647,
41,
330,
195,
-246,
272,
76,
-144,
-669,
1093,
-374,
338,
1812,
427,
-863,
-1057,
-1691,
-319,
-369,
-1139,
882,
-662,
-776,
325,
-2019,
0,
1534,
-185,
1044,
-2,
-20,
-502,
-1113,
-271,
-1744,
-2059,
-1058,
36,
759,
-71,
454,
445,
655,
-895,
-1842,
-527,
-1499,
-1919,
-1511,
-539,
1058,
-351,
651,
697,
-660,
-674,
-2610,
-234,
-1146,
33,
388,
688,
156,
-325,
465,
661,
293,
-997,
-255,
-105,
-1312,
-1360,
-917,
29,
486,
-1005,
2294,
2974,
612,
-1128,
-1522,
1533,
-310,
43,
-922,
1105,
190,
327,
848,
-92,
1836,
4168,
244,
-661,
-2697,
379,
-1997,
-855,
2147,
-633,
1343,
-206,
-369,
-984,
-1182,
2,
290,
2162,
-167,
945,
-62,
-1548,
609,
-652,
-1162,
-787,
289,
-46,
-1316,
-2221,
-756,
-13,
582,
-729,
735,
1577,
61,
-2697,
-2528,
941,
262,
411,
676,
3175,
-174,
580,
-327,
327,
-2368,
424,
881,
110,
-764,
1464,
464,
375,
336,
-345,
-434,
75,
-224,
354,
881,
-1102,
-1421,
257,
-1207,
-268,
914,
-489,
830,
1173,
-150,
-518,
-848,
-17,
74,
847,
-286,
235,
-587,
84,
-722,
-182,
280,
-506,
1062,
-730,
-204,
-271,
31,
-284,
-33,
282,
-521,
-25,
898,
-818,
141,
-345,
-411,
-340,
79,
699,
127,
295,
76,
302,
463,
-505,
-213,
394,
-1617,
-313,
207,
-468,
22,
-979,
56,
-195,
-70,
-1064,
78,
-1003,
2172,
58,
318,
398,
-580,
344,
204,
-193,
-61,
-625,
-188,
-137,
-603,
736,
-529,
-304,
-261,
-416,
-1563,
-670,
-240,
-116,
-693,
-603,
-756,
-1402,
-2517,
105,
549,
-937,
2078,
1214,
-604,
-66,
-835,
95,
-1324,
788,
-1783,
1088,
1325,
223,
389,
62,
630,
1083,
-335,
1032,
-606,
364,
-1180,
624,
846,
-731,
700,
538,
1007,
547,
-718,
-442,
390,
489,
-590,
-576,
-1100,
-1003,
-314,
-733,
-777,
989,
425,
4420,
932,
325,
-104,
4833,
267,
793,
179,
870,
-3786,
1326,
43,
178,
951,
-132,
427,
-589,
-883,
978,
-483,
-15,
-488,
973,
388,
-222,
348,
-1573,
-331,
72,
675,
556,
612,
567,
-325,
-905,
-1030,
385,
-2162,
-540,
-3073,
320,
-492,
447,
842,
1059,
645,
1223,
-591,
728,
2519,
564,
238,
540,
-754,
-50,
99,
-390,
373,
276,
-964,
-1346,
-145,
532,
-609,
-1361,
750,
8,
84,
-47,
1454,
373,
215,
-461,
988,
2346,
801,
-81,
-879,
406,
-1054,
-215,
-623,
2131,
2598,
81,
-578,
-2456,
-1336,
468,
1223,
-366,
449,
790,
-1102,
-2285,
-1736,
307,
-298,
-908,
-226,
-756,
1107,
1021,
770,
70,
-901,
-954,
-689,
183,
-418,
782,
858,
-155,
-1371,
333,
-1904,
-771,
-118,
192,
840,
759,
-1716,
-1887,
-966,
107,
913,
-215,
1357,
981,
482,
-735,
-1347,
962,
-821,
-709,
141,
-112,
159,
528,
-734,
375,
681,
-1178,
319,
379,
-443,
97,
-1547,
-531,
898,
-1687,
72,
-891,
-93,
-974,
-1235,
-232,
228,
-161,
-87,
-307,
-322,
-405,
-376,
-497,
-6,
417,
1156,
-1651,
1478,
1808,
103,
-2235,
-284,
678,
-626,
-476,
4225,
978,
1635,
261,
940,
-333,
-518,
1392,
-449,
33,
-1063,
-509,
241,
283,
-47,
-1542,
-1352,
799,
-1339,
-894,
-1116,
-1394,
960,
-1174,
-1634,
284,
-1734,
847,
-935,
-26,
-2696,
651,
2082,
596,
780,
7,
965,
-234,
-972,
-249,
-431,
-698,
-1042,
-89,
595,
1350,
604,
891,
130,
-531,
-531,
-1788,
606,
206,
2,
-1560,
-188,
462,
-848,
-680,
2886,
661,
-155,
86,
-447,
-32,
1146,
1277,
310,
106,
-210,
-68,
142,
-493,
380,
539,
-445,
-257,
-669,
100,
1910,
-208,
1445,
629,
982,
-491,
-857,
-161,
-2165,
-608,
418,
1709,
336,
-733,
-416,
597,
334,
-2253,
-318,
-242,
-344,
310,
-44,
682,
401,
-124,
829,
592,
-86,
274,
-387,
-175,
-803,
-1843,
-1184,
-277,
161,
-774,
567,
363,
-978,
-1121,
-1886,
-199,
-601,
-42,
-1195,
-247,
-315,
-21,
-457,
393,
77,
1984,
-765,
-358,
-776,
-378,
-2060,
-994,
240,
796,
655,
194,
-162,
-330,
-603,
-744,
1355,
50,
-686,
-1550,
-323,
353,
336,
-688,
196,
1,
-667,
1910,
693,
863,
-71,
1569,
-832,
456,
-167,
-628,
-1823,
141,
483,
-316,
-93,
-325,
-687,
-317,
-850,
-152,
-463,
327,
-219,
108,
-521,
539,
-1395,
822,
-951,
177,
1144,
632,
1468,
1525,
-201,
-446,
-808,
-465,
905,
-1360,
-809,
-391,
-996,
1727,
-1855,
-760,
-728,
-433,
-1553,
877,
-829,
334,
1007,
-17,
255,
-1580,
64,
63,
359,
-585,
235,
-431,
-1072,
-1983,
-352,
-281,
1684,
-522,
195,
750,
1216,
-2273,
-1426,
-297,
-49,
-1203,
279,
-378,
-783,
415,
-663,
340,
-136,
29,
1205,
169,
-1148,
-2312,
1421,
801,
-125,
-1229,
689,
745,
-567,
-494,
-2129,
-827,
565,
-1608,
-976,
266,
1913,
-627,
2491,
2531,
-148,
-314,
-2025,
37,
127,
-48,
-1510,
-653,
100,
21,
959,
953,
-679,
-518,
-29,
-851,
-1378,
535,
-1444,
-1519,
-858,
-701,
1262,
789,
-824,
-389,
870,
-191,
-488,
960,
190,
-570,
334,
-1260,
204,
-627,
73,
-1162,
-37,
-75,
-74,
-451,
-857,
770,
-222,
756,
139,
671,
-158,
-693,
312,
138,
-381,
-426,
-783,
-341,
935,
-1131,
-342,
179,
-196,
-745,
-1251,
171,
332,
534,
-236,
-178,
-169,
136,
378,
-331,
329,
-824,
1815,
-415,
1548,
1664,
267,
534,
-1171,
457,
-1291,
-723,
245,
1989,
961,
-521,
-182,
167,
-238,
-31,
-514,
653,
-1361,
190,
-5,
-68,
614,
-2098,
-474,
-288,
-287,
-2395,
-254,
508,
-28,
307,
2845,
-267,
977,
574,
796,
496,
-15,
29,
-770,
-665,
1137,
-1532,
-732,
1370,
-862,
39,
-385,
-347,
911,
891,
-382,
-408,
-772,
137,
126,
-190,
656,
68,
-175,
-1315,
468,
121,
1917,
-1267,
1277,
1289,
-464,
-1336,
-1774,
99,
-786,
447,
1629,
-908,
-174,
-1445,
-442,
-405,
354,
-639,
686,
563,
463,
-309,
1167,
-44,
-143,
-1056,
802,
1235,
314,
-1293,
-623,
496,
-2109,
-483,
-623,
487,
557,
-324,
1737,
1341,
-391,
-2120,
-2136,
-290,
623,
-676,
-469,
-777,
-698,
1457,
-762,
-696,
295,
283,
223,
82,
-366,
86,
-1088,
-38,
1573,
-527,
795,
38,
-269,
531,
-37,
-44,
-890,
-1093,
-2255,
-406,
-67,
-353,
176,
139,
72,
-2650,
-1445,
-1230,
148,
836,
739,
388,
-404,
1995,
-134,
-195,
236,
-322,
193,
600,
-152,
-448,
-1234,
-677,
236,
-318,
842,
-99,
-9,
-379,
-249,
-993,
434,
-104,
-538,
-71,
242,
830,
-115,
369,
-136,
217,
794,
-1479,
-441,
-304,
-1029,
-13,
385,
407,
-355,
-21,
-249,
-98,
-158,
-1308,
745,
808,
867,
634,
-345,
2588,
-618,
-105,
-1016,
-934,
295,
-734,
-105,
302,
-114,
523,
83,
509,
-350,
244,
-209,
-560,
145,
165,
-179,
-366,
-443,
-130,
-741,
-808,
-354,
-346,
268,
128,
1147,
-495,
-510,
449,
-901,
-86,
32,
1239,
-679,
219,
-466,
498,
81,
-463,
141,
-1052,
-2156,
-569,
851,
-406,
-638,
962,
-729,
-162,
-1933,
179,
492,
-418,
-1728,
-981,
1198,
-512,
499,
328,
-444,
1227,
-241,
-54,
800,
738,
-1064,
566,
294,
485,
-440,
940,
658,
1119,
19,
-630,
-4,
-285,
269,
-191,
290,
-520,
355,
249,
-1243,
-727,
262,
-272,
295,
-291,
-82,
56,
-129,
1118,
-453,
0,
-372,
-780,
614,
224,
-305,
-235,
-189,
-849,
873,
-838,
652,
141,
-300,
-995,
-728,
422,
-301,
-328,
-49,
462,
-90,
-65,
64,
-575,
-186,
-1278,
842,
283,
-1446,
-436,
405,
-56,
-160,
931,
-116,
-377,
-226,
-945,
-769,
-10,
-89,
-326,
82,
-371,
423,
183,
-312,
291,
-661,
-32,
-388,
444,
-288,
-638,
-1266,
215,
193,
1407,
-524,
851,
53,
-652,
262,
-80,
230,
56,
885,
1205,
5,
410,
20,
763,
1153,
-607,
-230,
-599,
-482,
-949,
-1059,
583,
295,
1774,
-368,
918,
692,
-1083,
395,
-416,
-106,
-137,
59,
-209,
301,
273,
-66,
17,
-8,
-226,
381,
-167,
392,
24,
-827,
-363,
-207,
1818,
735,
-229,
-506,
-152,
81,
851,
1605,
198,
-581,
-1408,
182,
-994,
-738,
1221,
-1337,
817,
-1102,
1875,
-25,
92,
-321,
2309,
334,
1189,
-264,
-124,
2369,
-283,
960,
-308,
-574,
533,
-166,
-132,
306,
-612,
-1263,
1096,
-891,
954,
724,
-830,
511,
-285,
1628,
-1331,
-569,
-638,
-73,
50,
-1157,
-240,
5,
509,
709,
-670,
-398,
-377,
-449,
369,
-808,
777,
642,
-325,
130,
-224,
644,
1413,
1657,
-933,
-173,
-599,
411,
335,
-515,
980,
651,
-756,
724,
-88,
-440,
474,
-21,
284,
-510,
872,
166,
-103,
-290,
431,
136,
1030,
-945,
72,
-614,
1908,
-479,
-250,
-317,
449,
506,
-12,
-507,
-715,
-1520,
-21,
413,
2496,
503,
367,
-24,
-899,
-361,
-3192,
1358,
839,
624,
-188,
465,
-1100,
-890,
824,
539,
103,
-1058,
49,
-409,
146,
-483,
21,
213,
249,
-304,
42,
392,
-645,
-45,
419,
-156,
-168,
-2307,
651,
-142,
1579,
2243,
1558,
805,
-561,
-897,
-18,
-395,
-496,
-345,
471,
24,
826,
-307,
407,
247,
-13,
-456,
242,
-87,
1116,
2181,
632,
297,
-1305,
37,
371,
203,
322,
325,
714,
-976,
508,
-1234,
354,
228,
793,
-614,
339,
1317,
-530,
-159,
832,
55,
919,
-515,
925,
-487,
413,
877,
503,
1042,
-653,
-89,
-1021,
-346,
294,
1756,
-1097,
-158,
-948,
-12,
-1016,
-767,
-308,
-171,
-669,
658,
-86,
-892,
-222,
-340,
-131,
-583,
512,
-502,
35,
-726,
-420,
213,
-594,
-742,
-321,
122,
441,
17,
-284,
-574,
107,
141,
422,
-213,
-76,
304,
-25,
217,
239,
373,
348,
23,
8,
-219,
-220,
-350,
-862,
-77,
-542,
433,
1464,
-349,
-426,
-410,
-849,
303,
-316,
1020,
-1150,
-1387,
346,
-459,
815,
1152,
-398,
415,
-735,
733,
-180,
204,
1028,
409,
-213,
754,
138,
-114,
206,
-677,
-242,
855,
183,
2,
149,
-436,
-626,
-206,
-473,
-267,
924,
-51,
120,
-414,
240,
-1010,
468,
-158,
-656,
481,
-928,
-693,
1048,
-197,
524,
891,
617,
431,
260,
-363,
-1053,
183,
844,
-14,
-37,
-861,
-783,
429,
-66,
-316,
-53,
45,
979,
315,
583,
-1000,
729,
-123,
-1073,
433,
684,
-13,
-180,
-316,
-164,
-182,
1284,
81,
371,
124,
-1012,
328,
-595,
1624,
74,
-1179,
-87,
-569,
2219,
-891,
479,
-432,
592,
-73,
1086,
1348,
-187,
123,
400,
-731,
1479,
481,
667,
-339,
-479,
848,
-405,
-568,
-374,
-626,
-157,
-692,
971,
-82,
9,
264,
-1496,
-314,
-214,
256,
560,
-1079,
591,
-432,
2035,
718,
77,
379,
-1738,
1166,
162,
927,
-304,
-812,
3,
198,
-230,
502,
224,
-585,
-1011,
118,
429,
550,
578,
212,
580,
-71,
2507,
501,
-877,
263,
-136,
900,
-78,
524,
215,
-732,
687,
34,
2117,
-1154,
324,
-582,
61,
277,
-534,
1679,
512,
-408,
-159,
-622,
287,
106,
-124,
-1114,
353,
-1049,
1188,
-557,
303,
-286,
840,
158,
470,
674,
-1055,
982,
-220,
-233,
-462,
216,
699,
254,
-288,
1040,
228,
40,
604,
-493,
1001,
118,
-578,
850,
8,
-275,
-851,
-1152,
-598,
571,
-57,
-856,
1067,
-915,
-196,
244,
7,
-249,
626,
177,
211,
440,
410,
420,
-928,
732,
459,
907,
714,
-525,
151,
-2,
-188,
259,
279,
587,
62,
119,
82,
-383,
432,
282,
278,
255,
-170,
94,
-101,
-619,
-609,
-692,
-523,
562,
899,
-770,
-438,
740,
432,
-46,
-301,
-540,
-212,
-57,
273,
-403,
705,
-216,
-377,
518,
-300,
87,
-377,
439,
-814,
-384,
-999,
877,
-84,
321,
-311,
678,
600,
221,
1302,
-903,
852,
393,
-686,
299,
-99,
516,
-729,
-833,
-242,
-432,
531,
-379,
-570,
-404,
-33,
260,
-477,
-934,
-140,
-158,
-111,
-200,
-331,
871,
-498,
553,
-126,
68,
300,
-196,
-472,
-83,
225,
153,
-264,
-193,
-927,
102
};

#endif