#ifndef __MMCBLOCK2_MMLAYER1_BRANCH33C_CONV_0_WEIGHT_H__
#define __MMCBLOCK2_MMLAYER1_BRANCH33C_CONV_0_WEIGHT_H__

// MMCBlock2_mmLayer1_branch33c_conv_0_weight
// (3, 3, 6, 6)
const int MMCBlock2_mmLayer1_branch33c_conv_0_weight[] = {
-734,
1468,
-1952,
49,
-214,
1020,
-838,
-57,
-278,
139,
-646,
1101,
-1464,
1155,
-512,
270,
-1717,
488,
-74,
-1279,
1948,
730,
-644,
-864,
423,
1219,
766,
-2311,
-838,
206,
-781,
-156,
-578,
85,
585,
-879,
2425,
824,
218,
-234,
1475,
87,
-682,
-1550,
-1066,
-1701,
39,
76,
4422,
-2320,
-948,
-3086,
7693,
-1200,
-87,
-1184,
-1432,
175,
-1028,
-194,
1545,
-3337,
1012,
-4009,
667,
-539,
-2268,
1665,
-123,
943,
256,
2,
53,
69,
-1100,
400,
-1199,
940,
-362,
339,
2248,
-1490,
-1625,
-1060,
88,
-423,
-65,
670,
-663,
299,
-561,
-173,
-432,
-696,
-897,
558,
-626,
-2563,
1400,
444,
-439,
693,
-594,
-460,
-500,
-256,
-573,
-798,
-695,
-297,
-157,
988,
990,
1776,
-587,
-396,
-750,
-158,
242,
1269,
-3565,
-4020,
-62,
2941,
3591,
2406,
-116,
-703,
1642,
562,
267,
-504,
-2865,
-1987,
514,
3627,
-113,
1360,
2743,
713,
-1068,
-708,
-606,
-312,
-1797,
-772,
-122,
219,
395,
-1302,
-548,
274,
-1538,
-162,
529,
-101,
-2368,
1130,
-672,
609,
759,
-223,
-613,
200,
-1400,
337,
-571,
-146,
429,
-1236,
178,
-1774,
597,
-1615,
-974,
-465,
376,
-919,
-120,
497,
2261,
1220,
-234,
-1245,
374,
1897,
659,
591,
1837,
-649,
209,
-411,
1936,
5555,
-499,
-2872,
-4502,
1774,
-565,
100,
-606,
-212,
-654,
805,
2942,
3122,
191,
-2771,
-1848,
1593,
-2515,
-679,
-887,
-269,
2086,
596,
143,
-618,
0,
-845,
-1628,
619,
-576,
171,
-592,
-908,
-208,
1068,
1634,
1459,
1260,
-968,
1032,
3,
-521,
32,
1641,
-40,
625,
-386,
149,
-62,
-1025,
-125,
-1142,
1560,
-1061,
-1003,
-1540,
-47,
-2070,
-646,
-353,
-460,
-1440,
1320,
-21,
-1143,
-282,
430,
-1425,
189,
367,
-112,
-1564,
4367,
955,
4037,
-3848,
-1095,
-928,
377,
-1348,
-171,
-361,
-123,
-2115,
3379,
-438,
3878,
-1303,
-373,
2418,
-749,
-891,
-767,
700,
50,
-153,
98,
-1097,
358,
263,
784,
19,
-565,
2125,
1361,
-548,
-471,
749,
-1522,
1046,
1656,
2223,
819,
-299,
-441,
-402,
-458,
4,
831,
-1074,
-626,
-1115,
539,
614,
1759,
-1048,
-1351,
-1591,
-494,
-1811,
-753
};

#endif