#ifndef __MMCBLOCK3_MMLAYER4_BRANCH33A_CONV_0_WEIGHT_H__
#define __MMCBLOCK3_MMLAYER4_BRANCH33A_CONV_0_WEIGHT_H__

// MMCBlock3_mmLayer4_branch33a_conv_0_weight
// (3, 3, 12, 12)
const int MMCBlock3_mmLayer4_branch33a_conv_0_weight[] = {
481,
-299,
27,
324,
-737,
-36,
0,
188,
46,
708,
101,
401,
274,
292,
-87,
-13,
-390,
-1103,
0,
-728,
-389,
626,
970,
-596,
857,
-216,
610,
315,
558,
104,
0,
983,
-60,
-751,
-418,
537,
-464,
-497,
-158,
437,
-858,
1439,
0,
-350,
200,
286,
-117,
-416,
-911,
-80,
-119,
1242,
-1147,
-175,
0,
-1074,
206,
500,
-535,
-442,
-234,
-293,
-706,
-51,
-186,
283,
0,
-367,
-81,
935,
-230,
-423,
987,
964,
-229,
179,
-1071,
-233,
0,
-30,
-825,
1072,
338,
-996,
-195,
136,
-224,
340,
-288,
462,
0,
-748,
221,
990,
-349,
-566,
219,
-123,
334,
-1839,
1585,
147,
0,
609,
-469,
-954,
459,
827,
-417,
-496,
-239,
515,
254,
15,
0,
-903,
-151,
-662,
-131,
747,
-744,
-546,
-171,
-328,
-919,
950,
0,
-147,
654,
-111,
-1024,
-27,
1091,
313,
-328,
-633,
680,
343,
0,
2416,
-1401,
-353,
270,
-983,
480,
-245,
85,
158,
284,
613,
0,
537,
327,
630,
987,
66,
473,
474,
-62,
140,
509,
-1404,
0,
-748,
-901,
-983,
-129,
-175,
-121,
111,
514,
272,
329,
-299,
0,
562,
31,
-99,
-687,
1491,
-520,
-689,
-30,
-167,
108,
31,
0,
-533,
-357,
-265,
-206,
-470,
-760,
-521,
22,
130,
-151,
-1588,
0,
-298,
-989,
127,
-1710,
-432,
-365,
-479,
-616,
388,
237,
-481,
0,
-670,
-351,
742,
-177,
119,
-181,
0,
-488,
187,
-672,
-392,
0,
-142,
-256,
-104,
-301,
-421,
129,
-266,
-937,
-464,
-252,
-167,
0,
-815,
-147,
-356,
-281,
-948,
-204,
293,
-130,
-1,
537,
259,
0,
-461,
210,
-424,
-119,
2123,
-701,
-428,
89,
-78,
-88,
-827,
0,
-157,
-1050,
295,
-694,
998,
-1052,
-404,
-65,
-981,
-1292,
-190,
0,
-307,
944,
165,
-901,
-432,
-511,
79,
-369,
78,
-764,
382,
0,
191,
-521,
-1260,
688,
1317,
605,
289,
420,
358,
391,
621,
0,
384,
410,
-269,
767,
776,
664,
533,
-34,
-123,
-189,
-1112,
0,
-365,
-1265,
-1132,
1334,
-683,
-359,
83,
377,
726,
-697,
-533,
0,
744,
761,
1211,
-351,
-104,
126,
-563,
-538,
79,
942,
-392,
0,
1118,
-112,
-573,
254,
-463,
713,
-894,
-158,
-1386,
-507,
-159,
0,
822,
-1092,
-1171,
-94,
-247,
-228,
-122,
-498,
-130,
537,
-474,
0,
-138,
-31,
-518,
2,
239,
-491,
-501,
20,
480,
1358,
267,
0,
593,
1279,
-643,
-443,
-683,
533,
-249,
-117,
-413,
624,
-453,
0,
434,
-171,
-580,
-135,
-133,
-661,
375,
204,
352,
-341,
185,
0,
-1663,
-188,
1125,
81,
925,
-209,
-216,
-253,
-888,
-1359,
-595,
0,
815,
-445,
-72,
43,
1185,
-354,
-339,
248,
-346,
-269,
1274,
0,
338,
353,
-160,
-784,
84,
-992,
-960,
-314,
2247,
-409,
193,
0,
-960,
1051,
1474,
621,
-383,
-467,
200,
81,
692,
-865,
-414,
0,
-1163,
-238,
1156,
443,
-33,
-775,
532,
1261,
-842,
-598,
-474,
0,
1086,
-214,
-199,
2286,
8,
31,
228,
-150,
927,
-111,
-195,
0,
-300,
-75,
-143,
566,
-42,
-894,
267,
-1,
1548,
-553,
477,
0,
-435,
127,
1304,
125,
-595,
-630,
154,
-96,
62,
527,
-905,
0,
-225,
1205,
-424,
612,
-86,
-192,
119,
-72,
-476,
-64,
-43,
0,
973,
126,
544,
-934,
1428,
1400,
1394,
281,
26,
-1472,
-200,
0,
-230,
-1134,
1901,
824,
-339,
485,
504,
-24,
-132,
-714,
-79,
0,
-852,
-363,
1100,
-245,
-1407,
566,
-653,
60,
-511,
1381,
255,
0,
1192,
-525,
-438,
494,
810,
-539,
-272,
23,
660,
637,
-760,
0,
-339,
-98,
-1494,
-576,
61,
552,
-436,
-1047,
92,
-386,
1425,
0,
-809,
-131,
101,
-1098,
-1291,
1185,
554,
46,
-1143,
96,
413,
0,
918,
-1109,
122,
-9,
-1253,
-380,
-776,
-244,
-372,
592,
-224,
0,
-224,
-737,
-73,
-402,
-734,
67,
-154,
-244,
-193,
408,
-1101,
0,
655,
-83,
-1394,
570,
-645,
-496,
375,
-704,
-196,
223,
-1070,
0,
-68,
137,
807,
-781,
-988,
-813,
63,
409,
-251,
-542,
-299,
0,
-921,
-498,
388,
-276,
-690,
61,
280,
-82,
-627,
-43,
-874,
0,
-462,
-76,
-824,
-658,
124,
-588,
-80,
309,
214,
-333,
-244,
0,
-113,
-452,
-490,
-746,
1308,
-194,
-462,
-657,
-17,
-568,
68,
0,
-500,
-233,
-621,
428,
265,
-184,
-349,
1,
-791,
-864,
-152,
0,
-1283,
43,
-1135,
-321,
-1549,
100,
-261,
421,
861,
539,
263,
0,
811,
86,
35,
321,
426,
-292,
-465,
-121,
-360,
-161,
-639,
0,
-567,
-381,
-177,
-590,
450,
-154,
128,
-79,
525,
-1331,
905,
0,
-282,
-109,
727,
-1242,
-461,
-589,
-395,
-131,
163,
-711,
73,
0,
449,
-406,
-1163,
-25,
158,
30,
-725,
-317,
-758,
827,
35,
0,
1155,
-569,
-1376,
35,
-112,
-346,
18,
-1434,
-980,
738,
-1087,
0,
266,
27,
-377,
1791,
-843,
4,
-47,
-410,
-640,
-18,
348,
0,
726,
-42,
-119,
-613,
221,
222,
-430,
219,
-806,
864,
1069,
0,
1271,
-941,
-706,
88,
-783,
1191,
363,
-23,
-454,
-715,
224,
0,
-193,
-878,
204,
-476,
160,
371,
-286,
27,
108,
297,
-712,
0,
-227,
73,
4,
-344,
1300,
-606,
-1061,
804,
-174,
1725,
955,
0,
221,
1382,
-1243,
-139,
-149,
-687,
-690,
89,
-804,
1210,
-225,
0,
153,
560,
-752,
208,
-1137,
-365,
190,
13,
860,
-287,
448,
0,
141,
443,
1951,
358,
695,
-45,
-124,
-201,
-747,
-1319,
-551,
0,
205,
-139,
362,
-639,
512,
-146,
-524,
1493,
957,
-276,
1909,
0,
-736,
-379,
-298,
-1169,
-160,
-1174,
-1047,
170,
1691,
41,
297,
0,
-874,
1199,
370,
634,
-1340,
-1020,
111,
384,
-619,
-267,
-11,
0,
451,
-185,
636,
832,
-348,
-727,
441,
1438,
-1144,
291,
-873,
0,
1078,
261,
126,
1020,
372,
-658,
869,
586,
-251,
-613,
-7,
0,
341,
378,
154,
720,
552,
64,
445,
-563,
-571,
-531,
-372,
0,
822,
489,
900,
791,
-89,
-1098,
-418,
201,
-1010,
681,
-857,
0,
-60,
701,
-515,
150,
-760,
719,
205,
71,
-180,
-691,
-574,
0,
922,
58,
475,
-566,
2038,
472,
741,
566,
-512,
-828,
-667,
0,
519,
-484,
259,
98,
-877,
630,
64,
-372,
-316,
-991,
142,
0,
34,
-404,
929,
-368,
269,
-554,
-561,
-768,
596,
583,
49,
0,
-386,
-264,
-177,
-387,
31,
-57,
-43,
-35,
-300,
-57,
-1356,
0,
101,
-1110,
-1299,
-508,
-216,
767,
-419,
-1319,
1034,
66,
1209,
0,
-811,
-22,
-156,
-932,
-316,
445,
711,
-483,
-1042,
162,
673,
0,
-325,
-1341,
-294,
147,
-441,
-763,
-161,
263,
-532,
-19,
-85,
0,
-1153,
-427,
-625,
-305,
-633,
-616,
-528,
-127,
299,
-1169,
-426,
0,
527,
1031,
-72,
-293,
-86,
-159,
888,
165,
-338,
237,
-72,
0,
-300,
246,
310,
-56,
-61,
79,
541,
29,
-30,
48,
-239,
0,
-234,
-338,
-384,
-6,
-677,
-270,
-63,
65,
-277,
-121,
-407,
0,
-689,
-130,
-626,
-565,
-921,
-338,
-55,
673,
-143,
-161,
-460,
0,
-506,
-239,
-585,
-398,
1633,
-621,
-229,
615,
-207,
-120,
-284,
0,
-132,
-687,
-763,
-1005,
-473,
63,
71,
28,
-592,
-416,
-1120,
0,
-1059,
183,
-908,
-717,
181,
-152,
55,
-377,
700,
322,
356,
0,
192,
258,
1327,
265,
-476,
-507,
-574,
-297,
-1157,
-809,
-450,
0,
-843,
-488,
-576,
-370,
135,
986,
504,
-159,
523,
101,
-19,
0,
140,
-1008,
-1210,
-854,
-101,
-988,
728,
249,
112,
-1035,
-890,
0,
-149,
-219,
-1186,
-893,
1565,
212,
-6,
-119,
-923,
-146,
264,
0,
97,
-469,
-1524,
-649,
-311,
66,
-310,
-1094,
-668,
-871,
-997,
0,
1027,
666,
367,
1284,
-684,
273,
760,
377,
89,
209,
1009,
0,
-333,
-276,
-887,
-248,
322,
201,
-282,
202,
1482,
550,
1263,
0,
-565,
258,
652,
-253,
-734,
713,
205,
400,
-150,
-621,
-26,
0,
-1328,
-935,
233,
-1210,
-307,
152,
10,
320,
888,
325,
-365,
0,
477,
753,
91,
-214,
1602,
-357,
-965,
907,
546,
9,
616,
0,
-531,
713,
-922,
-157,
-773,
-244,
-394,
-442,
3,
991,
-420,
0,
-43,
214,
-741,
250,
185,
-177,
158,
-571,
-91,
-361,
-279,
0,
353,
-457,
932,
593,
323,
-1368,
-299,
104,
-32,
-87,
132,
0,
-884,
-177,
105,
-1159,
-114,
-128,
328,
1437,
949,
-66,
475,
0,
-739,
-577,
101,
-902,
217,
-1168,
80,
-337,
-216,
494,
2,
0,
-1398,
715,
-124,
615,
-330
};

#endif