#ifndef __MMCBLOCK4_MMLAYER1_BRANCH33A_CONV_0_WEIGHT_H__
#define __MMCBLOCK4_MMLAYER1_BRANCH33A_CONV_0_WEIGHT_H__

// MMCBlock4_mmLayer1_branch33a_conv_0_weight
// (3, 3, 12, 12)
const int MMCBlock4_mmLayer1_branch33a_conv_0_weight[] = {
-693,
14,
838,
48,
78,
0,
-790,
-151,
0,
0,
-60,
375,
331,
410,
452,
-480,
-634,
0,
7,
-817,
0,
0,
194,
-426,
-535,
-443,
-707,
510,
-497,
0,
-696,
383,
0,
0,
-106,
1282,
13,
-215,
-1162,
-255,
-84,
0,
53,
842,
0,
0,
347,
-853,
27,
-112,
-605,
-1057,
723,
0,
-19,
-465,
0,
0,
-285,
-735,
284,
-143,
-89,
-631,
-291,
0,
-192,
-193,
0,
0,
28,
355,
-677,
326,
-1098,
-304,
304,
0,
1087,
-94,
0,
0,
-505,
849,
1386,
-222,
-249,
-284,
-176,
0,
28,
-772,
0,
0,
54,
-711,
-586,
-277,
109,
1183,
-141,
0,
-559,
707,
0,
0,
-163,
-253,
-172,
-91,
8,
1006,
236,
0,
1185,
152,
0,
0,
303,
217,
-376,
-869,
1782,
-1032,
-388,
0,
798,
-89,
0,
0,
-137,
123,
465,
307,
604,
-103,
164,
0,
316,
442,
0,
0,
661,
889,
-214,
149,
803,
-40,
-16,
0,
-1192,
-301,
0,
0,
-79,
-291,
-1209,
226,
-21,
192,
-652,
0,
-33,
-926,
0,
0,
75,
-697,
568,
-437,
-345,
-263,
-609,
0,
-709,
830,
0,
0,
-72,
1089,
-552,
-178,
-1335,
-223,
-390,
0,
-142,
869,
0,
0,
368,
-453,
-704,
-102,
108,
-831,
834,
0,
222,
-341,
0,
0,
-307,
-528,
194,
-351,
-263,
-612,
-177,
0,
-413,
264,
0,
0,
100,
222,
219,
95,
-680,
-1020,
158,
0,
1385,
-139,
0,
0,
-716,
565,
-167,
-267,
-150,
536,
-563,
0,
590,
-756,
0,
0,
-148,
-165,
103,
-413,
496,
1936,
117,
0,
-572,
1013,
0,
0,
-290,
-151,
369,
-254,
119,
916,
94,
0,
1665,
480,
0,
0,
68,
122,
-15,
-956,
1946,
-1336,
-262,
0,
348,
5,
0,
0,
-9,
-349,
550,
524,
1012,
-211,
118,
0,
1335,
574,
0,
0,
749,
820,
131,
-176,
706,
182,
217,
0,
-1372,
-239,
0,
0,
-75,
-450,
-459,
183,
376,
-428,
-674,
0,
-418,
-620,
0,
0,
213,
-132,
1087,
-528,
-544,
241,
-407,
0,
-625,
405,
0,
0,
-188,
-824,
-541,
-186,
-952,
-77,
-206,
0,
7,
913,
0,
0,
393,
-177,
-645,
-67,
-485,
-757,
629,
0,
606,
-604,
0,
0,
-315,
42,
266,
-325,
-381,
-479,
-375,
0,
-275,
4,
0,
0,
123,
106,
753,
98,
-978,
-286,
94,
0,
1262,
-496,
0,
0,
-595,
-728,
-922,
-94,
-650,
63,
-29,
0,
100,
-734,
0,
0,
-98,
1832,
-33,
-189,
52,
1292,
-109,
0,
-711,
623,
0,
0,
-168,
-345,
753,
-581,
-94,
1135,
140,
0,
1607,
-41,
0,
0,
292,
-310,
-144,
-897,
1678,
-1113,
-463,
0,
827,
-131,
0,
0,
-149,
-1,
825,
668,
490,
-391,
180,
0,
746,
144,
0,
0,
621,
548,
-671,
-244,
-68,
1058,
228,
0,
822,
-12,
0,
0,
263,
-229,
468,
479,
1161,
-240,
-468,
0,
-249,
-258,
0,
0,
223,
-809,
-566,
-513,
-267,
-6,
-606,
0,
-59,
740,
0,
0,
-253,
1408,
171,
-451,
-999,
739,
-224,
0,
-237,
671,
0,
0,
254,
-524,
-122,
32,
-416,
-860,
355,
0,
401,
490,
0,
0,
91,
-340,
563,
1,
855,
-1035,
-533,
0,
205,
-885,
0,
0,
-3,
227,
-1112,
932,
-529,
-911,
-166,
0,
-544,
-274,
0,
0,
-458,
28,
1894,
-380,
-153,
353,
121,
0,
-320,
-256,
0,
0,
73,
-897,
-329,
-672,
-668,
236,
-425,
0,
-995,
-255,
0,
0,
-248,
-418,
98,
-312,
88,
-150,
143,
0,
1307,
170,
0,
0,
-56,
617,
-625,
-782,
454,
425,
-407,
0,
-254,
572,
0,
0,
-550,
439,
-477,
1171,
143,
136,
410,
0,
-743,
43,
0,
0,
877,
623,
-35,
109,
-71,
211,
-594,
0,
1040,
-63,
0,
0,
-84,
-7,
-380,
270,
1240,
-862,
849,
0,
-80,
233,
0,
0,
-433,
-169,
593,
-908,
-446,
-231,
188,
0,
-309,
234,
0,
0,
30,
166,
319,
-337,
-889,
365,
391,
0,
-504,
693,
0,
0,
174,
-425,
418,
-632,
766,
-115,
-789,
0,
-390,
948,
0,
0,
130,
-46,
302,
-125,
149,
-525,
519,
0,
111,
-755,
0,
0,
-82,
51,
-338,
910,
-99,
-36,
-99,
0,
-755,
-115,
0,
0,
333,
-929,
-347,
-974,
-354,
707,
66,
0,
96,
168,
0,
0,
-159,
-564,
-177,
-203,
-162,
212,
282,
0,
-374,
-729,
0,
0,
74,
-161,
90,
-524,
779,
640,
-185,
0,
756,
-9,
0,
0,
18,
394,
-36,
-407,
246,
485,
621,
0,
-45,
331,
0,
0,
220,
100,
255,
1788,
126,
500,
-20,
0,
101,
227,
0,
0,
-836,
320,
-617,
-449,
-404,
1031,
251,
0,
909,
-257,
0,
0,
229,
-665,
-585,
340,
1410,
-772,
-389,
0,
-231,
443,
0,
0,
358,
176,
1948,
-671,
-389,
59,
-379,
0,
-110,
375,
0,
0,
-166,
-693,
-280,
-382,
-975,
836,
-312,
0,
-389,
829,
0,
0,
248,
-421,
-241,
-4,
-157,
-938,
353,
0,
432,
456,
0,
0,
82,
-28,
-29,
431,
741,
-570,
-519,
0,
-139,
-664,
0,
0,
100,
423,
74,
412,
-603,
-662,
-192,
0,
-156,
-312,
0,
0,
-487,
-1130,
-875,
-423,
-10,
32,
22,
0,
-325,
471,
0,
0,
-129,
1755,
-373,
-290,
-527,
619,
-385,
0,
-744,
-713,
0,
0,
27,
-401,
746,
-465,
-175,
-166,
241,
0,
1237,
171,
0,
0,
-17,
6,
377,
-693,
555,
251,
-553,
0,
155,
639,
0,
0,
-395,
-671,
389,
1391,
-82,
491,
296,
0,
-711,
-85,
0,
0,
902,
-450,
-756,
-551,
-21,
428,
405,
0,
1809,
-492,
0,
0,
-50,
-182,
295,
460,
140,
943,
-607,
0,
-8,
538,
0,
0,
125,
-802,
-597,
1228,
327,
-138,
-364,
0,
-5,
273,
0,
0,
-173,
234,
1,
-537,
-623,
910,
-245,
0,
-208,
435,
0,
0,
105,
511,
213,
-170,
-298,
-218,
293,
0,
410,
682,
0,
0,
246,
1013,
84,
-452,
1771,
-505,
-361,
0,
-11,
-290,
0,
0,
142,
194,
-840,
608,
738,
532,
-27,
0,
-895,
-150,
0,
0,
-280,
-508,
1790,
-317,
-75,
-149,
-225,
0,
161,
-275,
0,
0,
-81,
-1052,
204,
-705,
-588,
-872,
-201,
0,
-689,
-705,
0,
0,
-116,
-644,
-355,
495,
-611,
-1303,
172,
0,
191,
-273,
0,
0,
-398,
570,
-550,
-125,
-604,
348,
-440,
0,
-526,
114,
0,
0,
-816,
706,
-229,
400,
414,
600,
412,
0,
-1791,
-505,
0,
0,
544,
-147,
-961,
-57,
-106,
435,
825,
0,
1330,
-670,
0,
0,
-138,
-443,
12,
-102,
411,
1405,
-375,
0,
15,
1322,
0,
0,
76,
-206,
-552,
1640,
73,
61,
-857,
0,
50,
40,
0,
0,
-5,
-495,
533,
-70,
-570,
1162,
-497,
0,
-37,
47,
0,
0,
134,
528,
862,
120,
-22,
175,
634,
0,
1527,
567,
0,
0,
372,
1306,
205,
-351,
1949,
-432,
-357,
0,
135,
-190,
0,
0,
133,
408,
-1701,
710,
492,
311,
54,
0,
-1301,
-9,
0,
0,
-25,
-1548,
188,
-880,
-230,
-484,
-386,
0,
261,
842,
0,
0,
-197,
182,
-740,
-701,
-471,
-367,
-91,
0,
-439,
-684,
0,
0,
-98,
-115,
136,
61,
-132,
-827,
296,
0,
1002,
-235,
0,
0,
-167,
236,
498,
0,
-1019,
786,
-246,
0,
-213,
46,
0,
0,
-828,
142,
-371,
838,
467,
904,
699,
0,
-1392,
-393,
0,
0,
556,
-834,
-493,
-88,
-107,
281,
608,
0,
1440,
-405,
0,
0,
-4,
-852,
-594,
1058,
-150,
760,
-634,
0,
-431,
663,
0,
0,
332,
30,
815,
663,
-204,
-278,
-421,
0,
-11,
63,
0,
0,
96,
-331,
624,
-334,
-568,
913,
-157,
0,
91,
-227,
0,
0,
117,
548,
1208,
-457,
-414,
17,
352,
0,
459,
250,
0,
0,
151,
122,
316,
-431,
1733,
-779,
-510,
0,
-131,
-242,
0,
0,
164,
355,
-577,
-238,
963,
275,
-285,
0,
-1100,
-305,
0,
0,
-345,
-615,
-1217,
433,
128,
-20,
-183,
0,
-492,
728,
0,
0,
-89,
1549,
-921,
-897,
-364,
-937,
-20,
0,
-178,
-408,
0,
0,
-100,
246,
309,
252,
-260,
-1073,
123,
0,
364,
-434,
0,
0,
-417,
-565,
822,
-3,
-1143,
138,
-505,
0,
-155,
0,
0,
0,
-887,
-207,
11,
288,
-28,
731,
377,
0,
-1464,
-145,
0,
0,
524,
-419
};

#endif