#ifndef __MMCBLOCK3_MMLAYER1_BRANCH33B_CONV_0_WEIGHT_H__
#define __MMCBLOCK3_MMLAYER1_BRANCH33B_CONV_0_WEIGHT_H__

// MMCBlock3_mmLayer1_branch33b_conv_0_weight
// (3, 3, 12, 6)
const int MMCBlock3_mmLayer1_branch33b_conv_0_weight[] = {
-659,
851,
-932,
402,
900,
110,
-1815,
-1251,
-357,
-965,
379,
-1444,
-132,
-127,
234,
-330,
-974,
-200,
145,
-658,
-353,
-192,
-1037,
-417,
-37,
-566,
-628,
391,
887,
99,
429,
-1265,
462,
338,
746,
854,
-1012,
-1055,
815,
-400,
-166,
-276,
789,
1178,
-1008,
2662,
-2719,
513,
157,
-790,
-1569,
297,
380,
14,
446,
-894,
-691,
1841,
265,
84,
1345,
396,
-378,
-840,
4,
136,
621,
-993,
-772,
-820,
1812,
372,
-1321,
1623,
73,
2228,
133,
-240,
-198,
-30,
-1445,
613,
-529,
-866,
835,
127,
-576,
-662,
31,
230,
-16,
278,
-1092,
-637,
-626,
-708,
-536,
-57,
711,
1452,
402,
606,
-945,
-1121,
-15,
-935,
774,
57,
449,
-282,
170,
1486,
-509,
948,
193,
-248,
-1751,
1195,
-1137,
-976,
71,
-550,
199,
2069,
-362,
-167,
193,
-947,
707,
1257,
810,
-21,
1019,
1550,
797,
-118,
-1319,
431,
-1009,
-395,
-142,
-924,
248,
169,
-1218,
94,
44,
344,
350,
-73,
706,
1039,
366,
2618,
-2321,
962,
-25,
-115,
1038,
161,
-992,
-157,
-114,
891,
-194,
-464,
-1053,
114,
-540,
-486,
-703,
31,
620,
-314,
-28,
-1681,
373,
313,
-100,
337,
-740,
-498,
1475,
404,
-935,
-302,
-1143,
-1471,
-1107,
-1131,
-7,
-1766,
-95,
-677,
236,
2672,
-509,
428,
-235,
-615,
-209,
-103,
1133,
-8,
356,
770,
33,
-866,
-741,
340,
-538,
-523,
-1028,
-1053,
1470,
329,
625,
-1091,
299,
-439,
-379,
-72,
-913,
-671,
1586,
-990,
-688,
-1816,
-467,
575,
-418,
-229,
-368,
533,
-155,
-365,
925,
599,
393,
-356,
-1229,
362,
-670,
-163,
-981,
-217,
-1141,
-239,
771,
1036,
-1098,
214,
-485,
498,
-463,
-1353,
-516,
-671,
445,
2029,
-1518,
-233,
-166,
1493,
-158,
-883,
-455,
-973,
-140,
-229,
-409,
-407,
466,
302,
-900,
307,
-152,
660,
-61,
-67,
-548,
-207,
-970,
780,
-975,
228,
-559,
377,
18,
-681,
-824,
97,
-855,
-398,
76,
-382,
-1066,
-437,
-527,
-547,
543,
-120,
-1383,
-595,
-746,
-132,
-118,
-411,
216,
113,
1536,
103,
-1314,
-217,
520,
-674,
-401,
-144,
-1236,
-1280,
854,
497,
598,
577,
1101,
1599,
-1215,
-146,
-295,
917,
-277,
-309,
-1088,
-1165,
-374,
-508,
-563,
-202,
62,
-979,
-620,
-386,
-657,
-458,
869,
123,
-58,
-265,
330,
1046,
535,
584,
-996,
60,
-2052,
775,
6,
-113,
-652,
-154,
696,
-710,
-97,
-764,
-652,
-6,
619,
1126,
-1085,
392,
-847,
1659,
-852,
1070,
-1287,
139,
-416,
341,
-605,
527,
-1299,
-280,
1683,
761,
-1400,
-37,
-1152,
-131,
-184,
-491,
-1489,
50,
1454,
1116,
-760,
236,
-304,
-9,
-809,
-920,
-716,
-879,
-1154,
-291,
962,
-1025,
33,
-1802,
-886,
828,
250,
-170,
-812,
300,
-428,
-435,
386,
-432,
72,
420,
-326,
121,
-702,
-257,
-790,
-411,
-1469,
1191,
-150,
200,
-284,
273,
2999,
-1445,
198,
-297,
-1636,
677,
-583,
-1220,
3022,
443,
10,
-1336,
-860,
-899,
435,
-12,
-512,
656,
-960,
-722,
1796,
1449,
-1655,
-771,
-1518,
1621,
11,
164,
-816,
-447,
-1266,
2717,
-881,
31,
111,
-175,
-1021,
-998,
-277,
-37,
-336,
-1030,
301,
1458,
-1206,
-1003,
4407,
1723,
24,
-613,
1082,
-48,
-558,
-242,
-212,
1279,
466,
-689,
-281,
763,
419,
-714,
313,
572,
-276,
-959,
-341,
295,
-741,
460,
-1325,
286,
2384,
-1389,
-249,
313,
-1762,
225,
832,
66,
701,
-136,
2281,
202,
-445,
-571,
793,
577,
-779,
-404,
39,
479,
1081,
54,
1158,
-490,
-1047,
1429,
-1059,
175,
674,
-198,
-1443,
1275,
-1202,
-365,
76,
-64,
516,
410,
-354,
507,
1282,
248,
474,
-895,
1577,
-794,
3036,
233,
-977,
464,
-167,
-901,
3,
-351,
-565,
626,
-136,
-855,
-4,
199,
274,
-951,
56,
772,
1929,
-995,
-483,
6,
-1237,
-169,
2648,
372,
2780,
-897,
-477,
-293,
-1536,
394,
928,
534,
-1467,
-833,
2495,
1956,
-595,
151,
569,
-131,
246,
407,
-186,
256,
-810,
-1550,
3443,
697,
-1832,
383,
-137,
80,
-1,
-395,
-1640,
2682,
-1471,
-15,
25,
-149,
-511,
-1156,
-199,
-428,
-377,
-1196,
-319,
-906,
3967,
1054,
-425,
-1282,
-1742,
2673,
354,
-915,
437,
135,
-745,
642,
741,
-528,
-456,
693,
-152,
-731,
-189,
1013,
-180,
-961,
-661,
-446,
-692,
1122,
-854,
277
};

#endif