#ifndef __MMCBLOCK3_MMLAYER2_BRANCH11_CONV_0_WEIGHT_H__
#define __MMCBLOCK3_MMLAYER2_BRANCH11_CONV_0_WEIGHT_H__

// MMCBlock3_mmLayer2_branch11_conv_0_weight
// (1, 1, 224, 12)
const int MMCBlock3_mmLayer2_branch11_conv_0_weight[] = {
1898,
984,
1059,
396,
940,
-144,
472,
-253,
-1852,
1555,
-78,
649,
274,
1001,
-557,
2162,
326,
779,
717,
-338,
434,
-798,
146,
-332,
-1000,
-337,
531,
-125,
-705,
-741,
-1378,
-247,
460,
-557,
-716,
363,
2278,
-1179,
147,
-1155,
2661,
-463,
383,
295,
-1320,
2541,
-1753,
420,
-191,
-152,
-1061,
1156,
-1406,
-69,
1479,
-464,
-2024,
-955,
-990,
819,
1718,
-579,
-1889,
-1949,
310,
-195,
-103,
2769,
1920,
951,
260,
608,
2270,
216,
482,
-2270,
1186,
-1196,
1547,
-1097,
-2383,
-391,
-937,
-1623,
-774,
-1029,
-1038,
-1722,
461,
-29,
956,
-561,
315,
-363,
808,
-1512,
-1641,
2723,
30,
7322,
-558,
875,
271,
-818,
2811,
1074,
-174,
-847,
-2476,
1367,
-1208,
951,
-1901,
1795,
-2172,
-758,
1731,
38,
2917,
149,
544,
290,
1190,
2449,
1818,
-520,
-165,
-679,
-1338,
83,
1123,
-1055,
-1859,
-1773,
-264,
348,
-602,
-456,
381,
44,
-2970,
979,
-439,
-859,
2370,
1210,
1572,
1044,
654,
-1111,
-584,
-528,
103,
1612,
249,
9,
-802,
18,
2381,
2129,
-847,
-557,
-1374,
528,
586,
1973,
19,
-26,
1275,
-1203,
1690,
-678,
-661,
-1516,
-3200,
-686,
600,
1236,
1348,
-1901,
540,
-151,
1183,
-102,
827,
-53,
-354,
-332,
-1176,
3326,
-760,
-146,
336,
-305,
480,
-2964,
-918,
-274,
1180,
102,
-1191,
-370,
1813,
-279,
-116,
2285,
225,
-1133,
1022,
-2151,
2,
317,
733,
728,
-110,
1849,
-1945,
-765,
376,
-3003,
-2153,
1794,
1066,
728,
-829,
-510,
-571,
2088,
-487,
-885,
268,
-301,
732,
536,
-709,
2600,
-2439,
-921,
-1129,
79,
-218,
-577,
-1483,
-407,
762,
-589,
697,
1443,
-1287,
-999,
-2334,
-655,
-2579,
-1210,
-145,
-1662,
-491,
-766,
956,
-1329,
-556,
-1034,
288,
-1461,
1846,
-167,
967,
97,
-431,
-193,
-256,
-1966,
328,
948,
-555,
-580,
1362,
-636,
799,
-2124,
1528,
346,
1145,
-472,
-1255,
175,
-1406,
1058,
1529,
2184,
-1888,
3241,
27,
1154,
-361,
-1143,
64,
-83,
1404,
-1514,
188,
-1269,
-1081,
6657,
266,
7155,
1050,
-196,
-1429,
-390,
-355,
-312,
-71,
82,
2205,
1236,
-414,
-221,
-1101,
2034,
-1051,
-469,
-426,
-483,
1594,
-1231,
424,
-21,
-1125,
-1831,
-275,
1360,
-14,
-1359,
1029,
-1263,
-1447,
1255,
478,
4134,
-735,
1063,
1374,
-1618,
327,
-341,
869,
-597,
1440,
-145,
1092,
-860,
155,
385,
-818,
-582,
359,
3825,
-289,
-107,
422,
-520,
682,
-1043,
2096,
573,
-828,
1352,
-103,
799,
-1335,
2491,
2334,
-133,
1094,
796,
-96,
-264,
-1395,
168,
-1345,
2033,
-1098,
164,
1762,
-263,
2131,
-733,
-59,
-1087,
-1023,
-788,
-485,
2652,
-1115,
-1126,
282,
-1222,
-189,
179,
-1063,
-1614,
-644,
481,
-507,
220,
347,
7,
-2093,
275,
1365,
1410,
249,
-515,
446,
342,
-252,
125,
100,
-617,
-2280,
724,
-1206,
1554,
-1068,
1217,
102,
231,
2895,
-717,
312,
-782,
-1922,
1112,
77,
686,
-304,
-319,
-166,
-1017,
-205,
374,
84,
-771,
-1437,
-796,
-1325,
238,
-516,
-2105,
-602,
1624,
1815,
1678,
991,
-761,
-740,
519,
-834,
-1346,
-1058,
860,
1431,
1312,
514,
774,
-848,
-1291,
28,
-247,
143,
-1065,
809,
-513,
-154,
433,
246,
136,
-57,
-1242,
-866,
1397,
504,
2221,
4322,
1826,
-681,
-106,
-323,
-16,
335,
751,
191,
-124,
651,
-354,
191,
143,
-187,
-1016,
-1299,
1208,
-1437,
498,
853,
653,
-1651,
-915,
2040,
-1170,
1921,
157,
-1690,
44,
-1029,
23,
-1335,
630,
-151,
1536,
22,
-208,
-786,
2232,
-156,
-1587,
-810,
144,
100,
710,
-997,
-187,
-494,
664,
693,
1065,
-511,
-2099,
-115,
-812,
4548,
-272,
-1496,
-1533,
-1437,
865,
467,
-570,
896,
-1107,
445,
1610,
2453,
164,
547,
-902,
-272,
-343,
-570,
-2124,
-575,
609,
439,
-262,
-1898,
1202,
-26,
3059,
146,
796,
-1200,
-487,
-421,
523,
1722,
-1332,
-261,
783,
754,
-286,
901,
94,
-138,
-1354,
805,
2512,
1615,
-1575,
648,
-322,
-1434,
1315,
-975,
325,
-496,
1107,
1113,
-428,
-511,
2465,
2175,
-2761,
1197,
-1443,
-1428,
-2037,
-1508,
-1217,
-759,
2716,
224,
-2133,
501,
4380,
-145,
307,
1518,
-1428,
119,
775,
-1775,
-930,
181,
-93,
44,
1876,
-238,
-829,
-1218,
-974,
493,
37,
1284,
-469,
939,
945,
-3081,
-809,
-1178,
159,
-1398,
-1915,
-865,
137,
2931,
-1062,
1485,
-953,
-681,
-521,
1051,
500,
37,
-1257,
-997,
357,
-678,
-994,
-341,
-106,
-594,
-1195,
515,
408,
1197,
4447,
-180,
610,
-712,
135,
-212,
272,
2019,
422,
-951,
837,
1513,
1208,
879,
1312,
142,
-1367,
-470,
2366,
-1054,
207,
1061,
-461,
-1128,
-849,
-166,
-646,
2033,
-296,
2639,
-127,
-1276,
-16,
-1078,
1202,
1038,
175,
-363,
1817,
121,
-853,
-80,
735,
-2064,
982,
-267,
2832,
-473,
574,
-818,
-478,
2133,
-23,
2510,
1324,
-287,
-809,
-147,
674,
174,
2231,
110,
-49,
48,
-605,
-154,
764,
1114,
1006,
-283,
-857,
-1589,
1366,
-552,
-1108,
-703,
676,
1722,
-1217,
-1379,
-740,
3877,
977,
1065,
192,
-1722,
501,
-2051,
2082,
-393,
711,
-1645,
292,
2196,
3043,
176,
-877,
238,
258,
481,
978,
194,
-1407,
-179,
656,
1030,
2524,
1875,
395,
-492,
-854,
-1405,
244,
-1138,
219,
-262,
-84,
-1213,
-322,
553,
-1051,
-1076,
2091,
1459,
-2227,
118,
578,
-27,
424,
-403,
3141,
-327,
-714,
-1096,
-1380,
-44,
1000,
2112,
-1688,
-529,
1259,
662,
398,
406,
598,
508,
-1538,
-1288,
805,
1426,
-1225,
-417,
683,
-289,
565,
2257,
211,
1757,
300,
1242,
-1054,
134,
1184,
-521,
-677,
920,
-985,
897,
-1101,
-346,
2112,
-2502,
-808,
-908,
238,
43,
-220,
197,
-273,
277,
-150,
1070,
-144,
113,
-1355,
36,
757,
1132,
274,
-606,
1847,
-1643,
822,
969,
929,
2244,
-1009,
100,
808,
2412,
99,
-314,
-2953,
-414,
874,
1020,
1563,
213,
-1538,
746,
303,
1296,
1124,
-852,
4746,
1354,
1505,
393,
-216,
-1229,
-1033,
445,
1396,
78,
-363,
2265,
506,
-485,
-198,
-1610,
-560,
538,
270,
1375,
-511,
518,
307,
1177,
-1034,
-1084,
178,
-1423,
-1612,
397,
870,
1335,
-926,
-735,
149,
-387,
-1390,
-532,
402,
507,
3085,
-1032,
-29,
952,
852,
503,
1242,
784,
415,
151,
744,
1225,
-827,
-1652,
532,
490,
504,
538,
-464,
-615,
-408,
457,
266,
-343,
584,
-759,
-1394,
-135,
2337,
-1454,
-141,
-750,
1176,
-3279,
-655,
-1648,
-361,
-2943,
-1527,
-483,
24,
652,
-466,
321,
-1143,
790,
-540,
-597,
-131,
103,
1097,
-129,
434,
1303,
101,
669,
-1334,
666,
-2204,
-296,
110,
-339,
-15,
-854,
748,
-2070,
0,
1018,
-204,
-277,
-497,
91,
651,
-2333,
-1472,
125,
-1499,
772,
-678,
210,
-522,
2561,
-110,
-824,
634,
-1502,
1012,
-526,
911,
-541,
300,
-323,
-674,
1419,
-35,
1583,
-254,
-913,
-626,
173,
1673,
1385,
505,
-480,
-198,
1825,
302,
-232,
-192,
-893,
-1571,
801,
-173,
-936,
881,
2188,
1273,
634,
548,
-1961,
-110,
2732,
-882,
1677,
0,
-411,
250,
717,
1644,
-483,
2913,
763,
-433,
312,
-613,
144,
1427,
776,
-1250,
-343,
-2642,
-1052,
-277,
395,
2500,
1432,
255,
455,
210,
1481,
-1007,
-983,
-964,
-577,
-394,
-188,
-684,
2233,
1109,
1115,
89,
858,
-446,
640,
-3468,
-1271,
-1052,
-912,
279,
-791,
1012,
1493,
260,
-952,
754,
-779,
351,
2708,
728,
719,
542,
-1464,
-1496,
-1262,
-1209,
1023,
-2326,
1346,
-2700,
293,
-622,
281,
-1197,
-1091,
-883,
-138,
-682,
-471,
-592,
-213,
445,
455,
-803,
-453,
1973,
-423,
4064,
-383,
627,
805,
-148,
-449,
-483,
-919,
1045,
-672,
631,
1058,
1103,
748,
725,
2,
-23,
-273,
-733,
-509,
349,
1989,
-364,
-2584,
1206,
-1519,
-966,
1044,
122,
-476,
835,
330,
-229,
-744,
-794,
397,
-610,
250,
-333,
-932,
-1094,
-694,
-610,
973,
-1058,
2473,
193,
-530,
145,
715,
-1660,
-1567,
-516,
26,
680,
-159,
-1176,
-16,
1774,
-551,
452,
-98,
-347,
-308,
1268,
-1094,
-710,
-886,
-278,
-410,
-697,
-120,
449,
522,
-403,
148,
31,
393,
80,
108,
302,
-235,
-1184,
1304,
2506,
1976,
-579,
4855,
222,
-2373,
-2140,
425,
-208,
1099,
-2119,
-1904,
-669,
-682,
4020,
3905,
1182,
-2418,
718,
-954,
-25,
1033,
789,
-1448,
230,
-1425,
-1174,
509,
-191,
899,
149,
-589,
-788,
-964,
1075,
119,
444,
1239,
-775,
2201,
1381,
94,
2404,
2113,
441,
1664,
-1048,
-1437,
817,
-738,
1289,
-1346,
405,
1139,
1352,
-999,
-2214,
-688,
-959,
-456,
1463,
274,
-1232,
188,
-1049,
-1268,
358,
80,
2804,
-565,
-274,
1688,
-786,
1021,
1080,
-698,
539,
-215,
-150,
-1586,
-301,
-351,
-384,
190,
-1244,
-1516,
-556,
135,
506,
-266,
348,
76,
473,
735,
378,
469,
-780,
-2272,
3110,
-888,
-16,
-262,
1276,
-390,
-149,
1268,
635,
-412,
-1843,
-117,
1629,
452,
1346,
322,
-440,
305,
-349,
-341,
169,
-45,
2567,
195,
905,
-682,
-115,
1157,
231,
442,
937,
-1089,
3352,
-904,
36,
-492,
495,
-465,
1210,
-487,
-842,
151,
2172,
153,
142,
-5,
-84,
-1176,
4565,
731,
-655,
928,
-590,
935,
348,
1645,
1311,
-345,
3270,
-320,
172,
-121,
1686,
-245,
2832,
2062,
1866,
244,
-3174,
-622,
685,
316,
-3285,
1014,
50,
-53,
286,
1042,
1076,
-108,
287,
538,
445,
-237,
1475,
1338,
792,
-432,
1120,
1184,
146,
-161,
44,
-116,
-2268,
272,
1362,
-252,
3686,
-759,
1069,
253,
-724,
1085,
1037,
-1437,
-397,
-506,
2241,
1363,
-2187,
-206,
-609,
1531,
2945,
343,
491,
248,
310,
-260,
1044,
1779,
-1401,
1936,
33,
-582,
-397,
-1340,
53,
-1029,
1015,
-740,
398,
-7,
-907,
-166,
-598,
-177,
1061,
1630,
184,
-1082,
-1059,
-129,
1083,
365,
748,
874,
4486,
686,
-675,
-1032,
-1228,
722,
3419,
-470,
-1550,
1165,
-336,
1324,
-72,
-1818,
727,
1815,
975,
1972,
115,
578,
-992,
-1567,
706,
-232,
-950,
2245,
1475,
893,
1230,
-282,
149,
-868,
2650,
846,
39,
-298,
-1731,
1152,
998,
425,
-1591,
-302,
-1068,
2823,
839,
120,
1145,
330,
-526,
710,
1681,
1865,
-1358,
352,
-1430,
425,
269,
-900,
262,
-371,
1106,
-79,
55,
-1957,
200,
-1342,
2086,
-710,
310,
-842,
530,
492,
-737,
1011,
124,
-78,
644,
-1206,
-2087,
-337,
596,
-188,
1505,
666,
833,
1647,
1346,
352,
-603,
-722,
-2502,
1189,
1554,
1319,
759,
-292,
-424,
-715,
-509,
-935,
2201,
753,
-395,
-286,
1686,
-52,
-582,
992,
-482,
536,
-1748,
-2372,
532,
588,
1037,
-214,
625,
759,
-858,
-1602,
-975,
-2372,
261,
-507,
985,
1768,
-111,
740,
1159,
-1846,
-271,
-1116,
233,
373,
-1055,
669,
1912,
-205,
854,
-421,
69,
1526,
-1027,
-1454,
-729,
2026,
-239,
-996,
-897,
-651,
601,
-1762,
2645,
-1877,
496,
1173,
-583,
691,
1224,
-614,
64,
311,
2,
2235,
91,
1775,
-246,
1198,
-2089,
1455,
-883,
1132,
-409,
456,
1034,
-318,
445,
346,
-1613,
756,
-1807,
-1439,
-39,
315,
-826,
81,
-2066,
-318,
-171,
645,
1321,
796,
999,
713,
818,
-193,
-1180,
852,
-1868,
60,
1253,
1225,
744,
23,
-165,
770,
4,
2493,
-1288,
-1662,
62,
-1145,
-660,
-890,
360,
-1501,
-2,
-799,
1923,
544,
253,
-1912,
1014,
-3797,
3707,
344,
-76,
-563,
-534,
-793,
-344,
2207,
632,
-152,
16,
-79,
-1513,
-282,
-803,
1611,
0,
-758,
-1974,
-2243,
1099,
15,
1772,
1714,
254,
929,
1980,
-966,
455,
-1727,
2271,
314,
-713,
666,
-1006,
-342,
-768,
345,
425,
129,
-1796,
192,
-576,
-380,
380,
-1591,
265,
-1212,
-451,
-1352,
1041,
311,
116,
-360,
-389,
-38,
295,
119,
-564,
309,
1454,
-336,
139,
-466,
-579,
651,
-316,
-835,
-355,
994,
390,
235,
267,
-1842,
-666,
1458,
-1500,
-1363,
-1032,
182,
-1123,
-744,
-1610,
949,
-1344,
-197,
118,
-733,
-545,
2293,
-850,
1424,
756,
-752,
-688,
-481,
583,
-1989,
1856,
48,
2208,
1433,
770,
1214,
-602,
-492,
-299,
-566,
-2039,
-396,
-1668,
-347,
-1086,
-1490,
82,
1003,
-704,
-1068,
-739,
-93,
850,
187,
561,
-1672,
1863,
-224,
222,
2497,
687,
1440,
-1638,
559,
911,
902,
-281,
-1762,
-2365,
1289,
-165,
-130,
-1807,
-1,
-126,
-758,
1119,
925,
-162,
1222,
-1922,
357,
-231,
1644,
1644,
-1783,
-51,
382,
123,
3107,
-985,
377,
-1021,
1298,
-571,
-1492,
-10,
1810,
407,
-433,
1248,
-1037,
-1020,
1704,
-2646,
-384,
104,
-1026,
63,
1072,
3150,
887,
1561,
-1014,
-540,
1055,
-409,
-713,
-27,
-477,
-204,
1255,
819,
1059,
729,
233,
1842,
-1078,
-1246,
-1031,
2549,
-64,
2530,
564,
-461,
-597,
346,
-873,
-1313,
231,
-2199,
-1044,
146,
566,
240,
222,
-1072,
977,
243,
-660,
6504,
-107,
3396,
253,
-1609,
-218,
-580,
-550,
235,
62,
-162,
-1449,
-104,
386,
-2593,
128,
-466,
-604,
-416,
274,
-181,
309,
-368,
-395,
264,
-632,
161,
702,
384,
-453,
478,
525,
-1168,
144,
226,
-464,
1123,
2227,
2271,
-272,
1647,
-1027,
-1921,
-965,
-1322,
-421,
-272,
-515,
-330,
-1201,
529,
-1392,
-583,
-447,
933,
-248,
2004,
-332,
-833,
417,
757,
-731,
299,
700,
243,
926,
110,
320,
-194,
-633,
1636,
51,
-1136,
-808,
684,
1583,
-987,
1086,
3124,
-428,
-740,
-1491,
3144,
2111,
-1253,
-105,
-2367,
2789,
-1733,
-1999,
-1548,
-747,
-408,
365,
42,
417,
-328,
58,
-1262,
-1200,
-298,
871,
3210,
547,
211,
-1148,
-743,
776,
-1375,
2333,
-1215,
1031,
-738,
-808,
-280,
-1626,
3804,
-174,
188,
-249,
1321,
-672,
100,
-354,
-1138,
921,
834,
-200,
-782,
701,
1586,
-334,
802,
-814,
374,
165,
1333,
304,
679,
-311,
-952,
-539,
261,
-363,
917,
-424,
-1409,
-540,
482,
2449,
-109,
2656,
-16,
-312,
-820,
318,
953,
-168,
524,
2655,
-160,
14,
-357,
-793,
1499,
-1499,
925,
1003,
744,
-1893,
-3586,
-2462,
1358,
1283,
-625,
-55,
-116,
346,
-127,
1694,
3,
-10,
-928,
868,
-668,
-403,
-130,
316,
-2324,
-1604,
1633,
-302,
113,
482,
-3861,
1125,
-513,
472,
-914,
-249,
-1179,
499,
-1219,
1414,
-115,
771,
97,
220,
635,
-129,
734,
586,
174,
1,
1947,
234,
886,
81,
523,
1667,
1809,
739,
-678,
-1349,
-1129,
-934,
978,
-229,
-681,
-2445,
-4255,
-876,
-2855,
-722,
1604,
2315,
363,
588,
-641,
-1650,
-1265,
-1686,
-2320,
-1320,
-416,
-1194,
2152,
-1478,
1692,
-746,
-2197,
-1608,
1278,
-1050,
-513,
897,
1936,
987,
478,
-764,
-149,
230,
123,
265,
-1072,
1945,
-2796,
-360,
-948,
-2369,
2576,
-1348,
734,
-1067,
534,
120,
-61,
721,
-92,
758,
-94,
441,
1093,
75,
-1126,
354,
-441,
1313,
1111,
-978,
1851,
505,
-151,
1260,
-931,
257,
-1007,
185,
-1146,
802,
2525,
-1049,
113,
536,
-40,
608,
434,
229,
394,
-956,
2050,
1825,
-726,
-2065,
-1888,
2267,
-299,
1638,
2194,
-1266,
-1275,
-1311,
1410,
-387,
-745,
1344,
-566,
2984,
68,
-233,
458,
-2054,
3589,
213,
-554,
-695,
212,
1343,
847,
2669,
135,
-170,
-121,
-5,
677,
1062,
-695,
63,
-1290,
-480,
25,
-1808,
-1214,
-589,
579,
132,
-1162,
38,
990,
2643,
-1364,
1407,
-1652,
86,
-342,
-868,
435,
117,
754,
194,
77,
61,
90,
-45,
1791,
-1328,
244,
-126,
741,
845,
2363,
-89,
-626,
-729,
2516,
-112,
1999,
-1208,
101,
1023,
-145,
444,
-726,
676,
1378,
-477,
-4,
-378,
-1100,
-1400,
1421,
-49,
-1505,
1874,
436,
1843,
1697,
967,
1259,
-605,
821,
307,
1830,
-153,
-1241,
463,
877,
-989,
1823,
-709,
-425,
-168,
-1431,
655,
-1097,
-354,
17,
-937,
-470,
-90,
-1458,
593,
-1127,
-37,
-1369,
-603,
-1091,
-459,
1390,
1590,
-531,
-1332,
586,
-97,
-1503,
-655,
-1730,
-1023,
1457,
68,
1078,
-61,
-957,
-205,
1615,
-756,
1817,
-669,
2363,
590,
-1488,
128,
-574,
-195,
-861,
-311,
-620,
-790,
2214,
428,
2122,
731,
1071,
-550,
1595,
434,
-598,
421,
466,
105,
-368,
387,
889,
289,
-835,
839,
-876,
-431,
-525,
1002,
135,
-2506,
-582,
-881,
2301,
-832,
-466,
904,
-1294,
-853,
524,
-797,
-2149,
-39,
-960,
-631,
1460,
-3278,
-1629,
-868,
4249,
-1161,
-552,
-889,
436,
454,
-1428,
-367,
936,
881,
2107,
319,
276,
-367,
-284,
-15,
-1001,
-786,
-1452,
-1028,
-1196,
-1222,
-1228,
-837,
675,
-490,
-980,
-405,
1750,
-660,
-437,
109,
-218,
290,
149,
-606,
1047,
-341,
810,
-946,
-1159,
-1196,
921,
-1442,
-1050,
-620,
-700,
671,
198,
1141,
-1189,
521,
-517,
1360,
17,
752,
-2410,
1327,
949,
1979,
-1092,
-510,
1579,
-977,
-711,
-588,
-1394,
758,
-12,
221,
-1056,
-1225,
-1575,
-909,
1127,
-903,
1589,
1383,
1494,
100,
-1494,
1836,
-1453,
-385,
-354,
-672,
-554,
-688,
-973,
751,
-678,
592,
-925,
2806,
1439,
312,
375,
-625,
-239,
299,
-1259,
454,
423,
-359,
1065,
445,
-241,
-190,
-339,
363,
1013,
146,
-1227,
-1617,
158,
860,
1801,
540,
936,
-1038,
195,
-1684,
-107,
-962,
-987,
193,
140,
1682,
415,
-1422,
-119,
-193,
-1033,
529,
558,
1119,
672,
-1176,
-435,
-998,
699,
-1368,
-381,
232,
2352,
-1680,
-1133,
-1065,
287,
1511,
-158,
-726,
546,
942,
620,
-1845,
-2341,
-694,
196,
610,
88,
-411,
2103,
-830,
286,
-193,
697,
-135,
-44,
784,
-574,
323,
-1142,
573,
-1052,
2184,
-1330,
713,
-1237,
6,
-596,
-56,
-1214,
-16,
-1572,
-722,
946,
-86,
-637,
-1156,
-1293,
403,
836,
106,
2099,
-970,
-152,
-371,
-713,
242,
-6,
-2101,
271,
-988,
-210,
-328,
1259,
1166,
-419,
-237,
-346,
8,
243,
1783,
649,
271,
-2199,
-346,
968,
-174,
-616,
-1163,
-731,
312,
-1202,
795,
-193,
24,
24,
-1011,
965,
-480,
-1669,
890,
1119,
-242,
-339,
820,
427,
43,
813,
686,
155,
-301,
-1001,
166,
25,
1708,
1509,
516,
735,
-1772,
-458,
-914,
1469,
482,
-509,
-2009,
-203,
483,
1449,
-790,
-762,
-1364,
-765,
-2163,
-630,
541,
443,
-652,
-366,
271,
-368,
-132,
237,
299,
-425,
-19,
480,
525,
658
};

#endif