#ifndef __MMCBLOCK1_MMLAYER1_BRANCH33A_CONV_0_WEIGHT_H__
#define __MMCBLOCK1_MMLAYER1_BRANCH33A_CONV_0_WEIGHT_H__

// MMCBlock1_mmLayer1_branch33a_conv_0_weight
// (3, 3, 12, 12)
const int MMCBlock1_mmLayer1_branch33a_conv_0_weight[] = {
-470,
74,
417,
951,
-544,
-339,
917,
159,
-1027,
-426,
596,
-687,
-42,
979,
288,
-669,
155,
-574,
-1109,
-632,
204,
-391,
-83,
-575,
-61,
644,
43,
1059,
-191,
1695,
645,
-348,
224,
-653,
-175,
-371,
-1527,
41,
-1694,
-1172,
326,
-970,
793,
70,
-345,
-2545,
1396,
-358,
210,
1833,
-263,
272,
-185,
424,
-574,
-610,
-874,
-296,
394,
374,
-284,
1887,
-416,
-323,
-697,
150,
-178,
-599,
-1051,
-592,
-206,
-641,
-205,
-2127,
-2174,
-772,
607,
1564,
-511,
1339,
122,
-362,
2563,
163,
336,
-498,
66,
333,
-455,
-409,
-176,
10,
-12,
-524,
7,
-957,
-576,
870,
-1568,
-948,
-228,
-590,
13,
808,
-453,
-2268,
563,
-1141,
-18,
2318,
468,
-1229,
-715,
-390,
-1470,
-1136,
-740,
467,
-1299,
-765,
-545,
843,
1224,
580,
146,
-429,
-107,
-481,
-228,
562,
-2188,
437,
272,
1142,
1790,
-1423,
-59,
982,
-1309,
-1070,
-1325,
-861,
-294,
94,
212,
39,
-798,
-864,
-112,
1141,
-767,
32,
86,
-320,
1821,
-387,
-1134,
324,
1371,
-122,
44,
-439,
1264,
-364,
298,
-651,
-198,
55,
-27,
-641,
-223,
-144,
-222,
-518,
1426,
463,
322,
-747,
419,
-191,
-326,
3090,
-1089,
-933,
-1426,
955,
-2129,
770,
641,
-585,
-1434,
-947,
-124,
-117,
-319,
-1546,
117,
-341,
837,
-517,
-721,
-201,
390,
341,
-745,
-50,
740,
-3068,
-988,
-1249,
-360,
634,
-56,
-1204,
1101,
-607,
-379,
3954,
-1822,
1058,
-1393,
-147,
-681,
-1132,
-363,
988,
-3137,
-757,
-312,
405,
266,
-58,
-696,
-247,
244,
-279,
-462,
-555,
-330,
-527,
-445,
1855,
-1033,
-1193,
-2496,
405,
88,
-33,
-1509,
391,
33,
-1831,
-1507,
201,
1155,
-3019,
446,
-932,
1086,
-142,
-2,
419,
1001,
-19,
-805,
-2697,
62,
-1691,
-595,
-912,
120,
1225,
366,
-341,
2307,
-308,
-622,
586,
669,
-1613,
317,
-105,
621,
-165,
-698,
-446,
2472,
-525,
834,
515,
-1629,
979,
947,
289,
-792,
-802,
191,
-552,
-56,
204,
672,
-1166,
1312,
-551,
1025,
-100,
958,
49,
-613,
-399,
-94,
-243,
771,
-68,
19,
270,
-48,
-761,
892,
-161,
-74,
-641,
-214,
476,
1118,
1573,
-46,
1587,
-315,
-294,
-294,
-240,
-17,
621,
96,
-455,
34,
-285,
300,
-597,
-234,
-487,
1105,
-618,
-170,
-933,
-130,
-37,
338,
574,
-347,
-621,
-567,
-676,
-13,
-856,
-387,
-551,
291,
3,
-302,
-837,
1351,
-671,
620,
-1423,
-116,
159,
-245,
-145,
267,
-197,
-134,
-694,
1305,
-937,
530,
-31,
101,
-640,
-385,
-857,
-129,
-16,
-488,
-148,
-712,
-399,
-1252,
-565,
-699,
-586,
-582,
653,
43,
-210,
-214,
-993,
676,
-548,
114,
-299,
498,
-107,
-999,
-513,
-567,
718,
500,
396,
-331,
486,
639,
149,
-2192,
-393,
-120,
374,
-265,
991,
6,
333,
-1354,
880,
-181,
26,
730,
3,
-556,
-357,
449,
-269,
-518,
83,
-2032,
487,
-380,
20,
1343,
-395,
-453,
162,
-1264,
493,
1439,
-33,
-875,
-2502,
839,
1399,
-1309,
571,
1042,
-292,
370,
-1260,
5,
33,
-1004,
602,
350,
1693,
-39,
327,
1369,
-267,
488,
-194,
-1383,
688,
2980,
1383,
-435,
-2467,
1477,
-448,
-2016,
-398,
-662,
1756,
394,
-455,
-309,
-684,
806,
771,
-759,
353,
246,
7,
1853,
268,
-1047,
-518,
-1656,
-562,
314,
-323,
-353,
-250,
245,
727,
894,
75,
-2237,
1147,
3661,
2487,
-1588,
-2239,
571,
21,
-1532,
-1854,
-2669,
941,
137,
318,
1008,
571,
149,
-516,
-149,
-120,
-546,
-1228,
-965,
408,
-595,
860,
-1142,
13,
-485,
-375,
-689,
180,
-526,
-966,
-864,
179,
1363,
-809,
-3966,
-2029,
1256,
2323,
-2079,
184,
1968,
-190,
393,
-2537,
1402,
-1207,
-623,
-290,
1800,
2170,
-266,
-480,
466,
835,
1228,
-636,
-20,
482,
-3734,
-823,
900,
1974,
-1924,
-565,
1353,
-170,
-717,
-1155,
40,
616,
973,
-1086,
185,
-842,
-458,
-18,
-299,
-799,
-1592,
1332,
-1610,
-191,
-1637,
1611,
-1415,
824,
463,
302,
1124,
939,
641,
-1427,
-174,
-404,
-250,
459,
-768,
-192,
393,
263,
269,
-184,
-1818,
-39,
1191,
-842,
3140,
-2723,
1019,
914,
-1598,
1059,
-858,
350,
1170,
2298,
-610,
375,
-852,
345,
136,
347,
-300,
-323,
1,
357,
-267,
231,
-340,
753,
-956,
-1043,
178,
-59,
-1554,
445,
-523,
-364,
-1479,
-860,
2931,
-1444,
2865,
-2593,
3348,
1904,
-829,
523,
163,
870,
2824,
-158,
176,
753,
-417,
55,
288,
668,
-200,
-234,
4,
-815,
-130,
7,
-904,
-1273,
852,
-117,
-460,
483,
-220,
559,
-1135,
132,
1152,
-998,
-3252,
936,
-2725,
3334,
-1934,
214,
484,
206,
1328,
99,
-477,
-2731,
-1414,
492,
-1544,
3022,
-2828,
-1753,
749,
-670,
-1126,
-452,
-2381,
-1048,
-1890,
450,
-1163,
782,
-567,
-110,
73,
-134,
1058,
-922,
-2123,
-1709,
1090,
98,
4316,
-83,
469,
-693,
-871,
-987,
-1027,
-182,
-473,
1270,
-957,
332,
-2569,
1210,
1136,
585,
465,
1365,
665,
310,
634,
-861,
1223,
-1198,
1468,
-849,
757,
-514,
-83,
-327,
-1,
411,
78,
895,
1963,
-16,
701,
-464,
-398,
-970,
203,
-1770,
-676,
342,
18,
965,
-696,
-113,
55,
377,
-641,
41,
444,
-65,
4,
201,
-396,
-107,
-387,
-277,
-436,
-718,
-664,
-143,
-467,
63,
-47,
216,
121,
-114,
-553,
-148,
-1119,
1586,
-666,
84,
-442,
-1892,
580,
418,
-254,
-882,
-718,
328,
-1766,
7,
672,
1229,
354,
-4,
749,
-626,
-252,
-196,
-487,
-247,
-149,
-1125,
-556,
-242,
-1013,
-448,
-492,
81,
365,
178,
-1197,
-23,
-57,
1151,
964,
1014,
1136,
1781,
-179,
-733,
429,
-1083,
1723,
387,
2587,
-1163,
2526,
-109,
-497,
275,
-725,
-1063,
-84,
1816,
377,
642,
2399,
193,
22,
-608,
578,
887,
-342,
-1011,
-919,
-422,
-197,
174,
952,
1700,
-98,
-301,
116,
27,
-176,
835,
654,
183,
298,
435,
-558,
-214,
31,
-371,
-330,
198,
333,
-735,
-947,
-661,
-639,
-1236,
1112,
378,
132,
-479,
259,
587,
-74,
290,
322,
-248,
-1134,
-511,
-1499,
-562,
120,
525,
-1771,
-1615,
-1408,
2826,
-11,
906,
-484,
-1495,
435,
-430,
1302,
-2267,
151,
227,
559,
-1071,
-785,
186,
-787,
-1236,
163,
161,
423,
-1360,
-910,
0,
426,
37,
-4,
119,
569,
211,
-1699,
-437,
-572,
2219,
-591,
-840,
-1042,
1474,
717,
279,
921,
-614,
38,
49,
256,
-174,
140,
-513,
-1214,
248,
182,
1427,
-510,
-772,
-419,
16,
384,
198,
-1635,
-639,
-256,
1652,
-625,
51,
-374,
-893,
2488,
-996,
280,
-1897,
108,
396,
702,
-1901,
375,
-1391,
-5,
927,
601,
314,
158,
-285,
916,
104,
-229,
-1858,
-333,
124,
298,
-497,
2285,
-170,
1005,
-260,
-216,
270,
511,
-715,
1220,
-854,
72,
-805,
-1669,
-514,
-255,
776,
-632,
303,
-526,
2030,
1913,
62,
-279,
149,
1474,
335,
-681,
-364,
-176,
445,
89,
-293,
-1119,
-634,
99,
-1065,
-1042,
-682,
-804,
262,
-536,
-141,
-430,
1916,
914,
-720,
-1692,
-624,
-2298,
-1130,
21,
5,
-1257,
478,
-93,
796,
-257,
855,
5,
-548,
559,
90,
466,
-290,
-1422,
-402,
-172,
608,
-426,
230,
-1211,
-724,
309,
-1143,
-289,
-745,
-1996,
481,
-283,
1824,
-488,
-713,
-1454,
132,
-2513,
-1094,
563,
-2510,
580,
-19,
1596,
-1157,
-1369,
-818,
528,
-942,
294,
64,
345,
134,
205,
-95,
-236,
120,
198,
41,
-1189,
-2491,
-967,
-263,
267,
-872,
-328,
645,
-31,
-435,
-584,
-1352,
49,
86,
1999,
-262,
-787,
7,
-1888,
605,
-551,
651,
1376,
-1448,
-79,
577,
-512,
-714,
-2296,
1207,
-300,
-419,
-1456,
2037,
61,
-223,
-44,
-436,
486,
700,
-136,
179,
-822,
882,
264,
943,
1321,
-1369,
58,
365,
-1750,
-556,
397,
657,
-217,
-445,
-263,
544,
622,
758,
612,
626,
1699,
-50,
961,
-660,
-190,
780,
-804,
-267,
-595,
16,
-323,
-842,
-833,
-821,
28,
-264,
-455,
-415,
235,
1653,
328,
-531,
411,
682,
-1040,
781,
472,
-787,
1892,
-1000,
634,
-1013,
302,
-173,
290,
337,
48,
577,
-537,
-237,
-599,
-1169,
-220,
1146,
-8,
-23,
-76,
-282,
-657,
50,
-853,
-567,
-374,
-813,
-177,
739,
479,
-269,
215,
202,
687,
714,
-793,
1120,
85,
911,
266,
-1375,
-460,
-279,
-166,
-341,
179,
1167,
3,
479,
13,
433,
39,
-60,
264,
-991,
-685,
-521,
-381,
-383,
627,
-1184,
-335,
83,
442,
-755,
-411,
-1017,
376,
1230,
-569,
364,
572,
-483,
-700,
-222,
-877,
494,
294,
-447,
692,
381,
-1293,
-1265,
1751,
-525,
159,
-897,
-595,
93,
1022,
874,
66,
262,
-1873,
1292,
-37,
-120,
469,
-195,
-88,
1492,
-394,
-244
};

#endif