#ifndef __MMCBLOCK3_MMLAYER4_BRANCH11_CONV_0_WEIGHT_H__
#define __MMCBLOCK3_MMLAYER4_BRANCH11_CONV_0_WEIGHT_H__

// MMCBlock3_mmLayer4_branch11_conv_0_weight
// (1, 1, 272, 12)
const int MMCBlock3_mmLayer4_branch11_conv_0_weight[] = {
1415,
-122,
334,
471,
783,
-795,
-352,
-732,
348,
-87,
-373,
-1483,
-612,
-3779,
-288,
285,
-286,
790,
-675,
691,
-21,
-464,
4082,
282,
696,
-59,
-1100,
-371,
809,
-5,
-1068,
1595,
4,
-388,
565,
-1495,
200,
64,
857,
-530,
40,
406,
1072,
-1736,
758,
1015,
0,
18,
-1287,
-518,
88,
592,
1135,
-845,
-1553,
-756,
-868,
622,
-694,
-845,
-559,
771,
718,
-1176,
-624,
2580,
2292,
780,
1437,
-268,
1276,
1337,
897,
-111,
-186,
148,
242,
1293,
-254,
-417,
-1172,
-292,
-180,
-1243,
-1421,
790,
960,
-684,
-659,
1043,
1218,
811,
-56,
1584,
499,
1751,
-288,
-940,
1231,
-1499,
-1829,
-641,
-1881,
-477,
2673,
-2546,
-779,
201,
-316,
1128,
-54,
-858,
236,
-902,
-874,
-1023,
342,
645,
1342,
682,
461,
288,
671,
347,
432,
-1857,
131,
418,
-1389,
-484,
410,
-1149,
-1325,
-1059,
157,
-1379,
-890,
884,
-1930,
-178,
118,
806,
70,
1617,
-294,
879,
372,
-633,
-949,
-212,
759,
1516,
-270,
-729,
766,
-240,
-103,
-721,
94,
-1171,
-1572,
-158,
482,
586,
-303,
-1406,
-64,
1463,
19,
222,
-177,
-984,
-374,
1599,
-140,
-359,
583,
273,
225,
-515,
824,
960,
-585,
611,
-963,
-405,
1561,
1217,
-659,
-711,
1177,
192,
-382,
-16,
-27,
144,
720,
-599,
-71,
442,
739,
732,
470,
-46,
1229,
4494,
-411,
-740,
563,
-1077,
578,
198,
-29,
273,
-3984,
-380,
366,
-964,
-132,
707,
651,
-1195,
-1098,
12,
-463,
-137,
-513,
-1147,
-165,
-244,
-136,
36,
-560,
108,
-1143,
558,
-759,
3238,
405,
-1099,
247,
-1879,
1018,
114,
1700,
-846,
687,
-223,
-1388,
-1119,
-2355,
-840,
-225,
-629,
150,
246,
1555,
108,
-506,
-345,
-151,
465,
-119,
-318,
763,
-683,
1977,
-789,
-219,
-1294,
-638,
-562,
692,
-1608,
160,
-327,
1571,
57,
362,
539,
179,
1489,
-702,
-153,
438,
61,
-209,
3,
-64,
-1107,
1881,
-74,
-1180,
-1354,
22,
-1182,
448,
1389,
-796,
679,
207,
-2540,
2875,
1263,
-387,
-856,
-545,
-947,
-208,
-889,
2170,
-694,
-613,
-844,
683,
-695,
232,
-498,
-2008,
-1246,
599,
340,
-914,
609,
45,
-700,
1125,
435,
-610,
-1637,
1927,
48,
-814,
-1622,
-832,
-295,
-1085,
-105,
-279,
-962,
1108,
1170,
-1389,
-1201,
-611,
-1020,
-569,
-1010,
289,
-203,
-372,
-970,
-628,
1118,
547,
765,
483,
-577,
-345,
1630,
1087,
278,
-21,
1285,
1495,
-418,
1701,
519,
-1390,
-1270,
588,
-98,
343,
307,
-573,
369,
266,
1115,
1159,
1473,
-355,
-1583,
-224,
-643,
1345,
-408,
384,
404,
169,
-2029,
759,
864,
-1146,
-413,
-853,
-1575,
-325,
443,
-894,
664,
159,
-734,
539,
228,
-763,
-379,
561,
-622,
123,
222,
321,
-567,
168,
-1399,
-869,
-165,
-124,
251,
501,
152,
-1872,
-198,
453,
-704,
-88,
1156,
-1346,
-966,
1391,
-145,
-760,
1054,
884,
-257,
-924,
-97,
-572,
1002,
385,
-338,
765,
-179,
270,
70,
-861,
175,
-1579,
395,
1623,
1337,
-2198,
-214,
934,
750,
-878,
-1882,
498,
377,
-215,
856,
-1557,
1416,
-371,
476,
-317,
-182,
-46,
-402,
-687,
85,
217,
-1400,
-854,
-1358,
-1955,
-161,
1200,
953,
193,
88,
96,
359,
-1438,
-377,
-701,
-1316,
-146,
1538,
-620,
-199,
-167,
-357,
878,
-515,
-1360,
-110,
-787,
604,
-1728,
413,
-497,
-764,
563,
563,
1153,
-1052,
501,
159,
735,
-1126,
-7,
836,
-1087,
388,
-1309,
-1127,
-392,
59,
1061,
-211,
-408,
482,
1268,
-702,
-971,
319,
770,
540,
-37,
-486,
560,
91,
2367,
-810,
388,
-228,
-710,
-426,
-360,
-13,
-1043,
683,
-55,
-1467,
-45,
-546,
-163,
1172,
-667,
-20,
-132,
899,
-1005,
94,
-697,
-110,
-810,
-807,
753,
1829,
-317,
563,
159,
72,
-1361,
-1394,
1543,
-1209,
1424,
-206,
-1406,
-1109,
960,
-549,
-656,
399,
350,
495,
1437,
553,
434,
-1370,
721,
251,
-1702,
1356,
219,
-643,
-896,
1161,
-960,
-212,
151,
-236,
-1937,
-1424,
-304,
-463,
972,
-1105,
451,
-592,
-665,
195,
547,
-1455,
-44,
2921,
-45,
730,
92,
30,
-152,
4479,
916,
-1303,
-43,
325,
651,
88,
1070,
179,
-3115,
380,
844,
2182,
-590,
-413,
766,
949,
-417,
1075,
-211,
51,
-3136,
-898,
-126,
768,
95,
-158,
-661,
667,
-1296,
-616,
-590,
771,
166,
165,
-123,
-327,
-650,
-1351,
-468,
-712,
804,
1531,
-598,
-1141,
-261,
657,
-1199,
-3087,
713,
57,
119,
-430,
-436,
-456,
-505,
-74,
4971,
298,
375,
266,
-364,
241,
73,
382,
-637,
-164,
-461,
-1139,
654,
172,
328,
867,
-7,
-283,
-1403,
-506,
1144,
-1736,
347,
-858,
1056,
604,
751,
-843,
2,
-330,
-870,
-292,
556,
91,
109,
-2000,
-693,
-359,
-64,
-29,
190,
-60,
-633,
-953,
-1332,
-1321,
2246,
-372,
305,
1374,
484,
-2311,
247,
1608,
163,
-1409,
1421,
87,
315,
-373,
1311,
-640,
1171,
294,
167,
890,
-126,
597,
-210,
336,
751,
610,
216,
821,
746,
-34,
377,
269,
490,
748,
-371,
2386,
-1137,
320,
-1041,
-599,
-176,
-693,
-676,
1027,
1188,
-88,
-1368,
2525,
-982,
1171,
388,
492,
135,
-948,
1161,
-747,
-582,
-1106,
975,
-170,
-804,
1096,
-433,
-597,
-79,
-292,
539,
-55,
586,
1800,
999,
677,
-905,
-1924,
-325,
-1748,
-347,
-154,
2089,
-412,
6,
-656,
1027,
845,
810,
-207,
-831,
836,
-319,
-572,
-643,
855,
-1073,
2251,
365,
1162,
-673,
517,
-454,
1193,
-713,
367,
377,
391,
-1528,
837,
967,
1156,
-1143,
-292,
241,
1419,
30,
-159,
-335,
128,
245,
785,
439,
798,
-960,
-787,
-1013,
-1092,
-1166,
-12,
1616,
-237,
-1500,
92,
224,
-166,
204,
600,
-511,
968,
-693,
456,
-1855,
-674,
-178,
1787,
-425,
620,
-1294,
-60,
43,
100,
-1100,
507,
-439,
-479,
-584,
-50,
-378,
-2102,
2777,
167,
1028,
-238,
-517,
-261,
1444,
536,
-360,
-775,
1915,
-812,
-669,
431,
-571,
241,
-524,
-62,
1178,
-277,
-1498,
465,
13,
57,
-405,
409,
373,
1869,
976,
-1100,
1582,
301,
942,
-907,
1491,
-458,
-36,
3212,
-519,
1365,
-636,
820,
-453,
256,
679,
-648,
-1322,
-857,
-1378,
-599,
1289,
-609,
287,
71,
-193,
168,
-291,
691,
270,
841,
-1505,
716,
-754,
-885,
553,
-168,
270,
588,
-3,
-429,
-2196,
-648,
-79,
1423,
-782,
-393,
1038,
260,
-222,
699,
-104,
632,
-1445,
-1143,
-1985,
1813,
40,
-673,
1137,
118,
622,
136,
243,
315,
369,
1210,
-2441,
-24,
564,
-413,
-8,
2413,
-964,
228,
-191,
-906,
413,
1526,
-866,
31,
-1940,
121,
1305,
60,
476,
737,
8,
486,
327,
1189,
-1146,
1308,
-391,
-456,
350,
-327,
1044,
-162,
-1040,
1401,
-864,
715,
1426,
1054,
-63,
-810,
1147,
-244,
675,
316,
-504,
3211,
564,
-803,
616,
-671,
619,
-1092,
-999,
1034,
-770,
-81,
373,
1164,
1743,
867,
-1950,
-1394,
1539,
-105,
1012,
362,
-273,
-8,
330,
-926,
-1479,
-302,
81,
1227,
17,
321,
-767,
-1844,
1192,
-27,
-536,
1646,
-1075,
-751,
-32,
-350,
1102,
258,
-89,
656,
-1383,
1502,
-608,
942,
1344,
558,
-948,
397,
1170,
498,
-573,
274,
-527,
-729,
-598,
-1790,
-1212,
-234,
546,
1123,
184,
763,
-407,
490,
-776,
-184,
101,
2350,
264,
274,
-705,
-188,
-239,
756,
1121,
13,
-93,
450,
-257,
-1128,
240,
1383,
-1365,
444,
68,
-966,
-729,
574,
-293,
154,
-251,
3919,
669,
-535,
279,
-1510,
-439,
194,
-512,
-80,
187,
573,
-284,
-160,
1607,
2054,
-638,
-315,
-27,
-343,
-976,
171,
98,
-842,
158,
87,
-427,
-762,
1238,
927,
-497,
1675,
-1028,
450,
449,
134,
476,
-929,
549,
35,
-937,
522,
-568,
-1351,
-1076,
30,
-256,
-679,
751,
129,
-972,
-369,
29,
-303,
311,
-740,
-807,
780,
464,
-262,
608,
119,
874,
-928,
-1414,
386,
-3,
-506,
599,
457,
73,
716,
-1159,
36,
670,
1710,
-1829,
-36,
-447,
86,
-566,
-28,
-385,
-74,
-239,
1674,
987,
689,
-1891,
1670,
-235,
-907,
91,
-367,
147,
777,
-126,
2230,
-468,
931,
-522,
-498,
581,
-867,
-1396,
74,
625,
-476,
1735,
412,
-679,
-1028,
-82,
-84,
-707,
-1350,
446,
-1009,
1037,
-153,
-692,
-1049,
1014,
702,
430,
-1157,
-680,
498,
963,
-599,
-739,
622,
993,
-288,
86,
1201,
-1011,
3357,
-322,
-1127,
-44,
-594,
1397,
-676,
33,
1398,
560,
-1671,
-849,
-383,
-114,
-222,
247,
-140,
1026,
-1114,
-1240,
1562,
-782,
-1573,
1806,
-109,
-429,
1550,
-1169,
-2989,
1608,
1449,
910,
189,
10,
974,
-119,
579,
2845,
-169,
-571,
-161,
275,
476,
-925,
-563,
-504,
91,
44,
-421,
-391,
148,
2529,
-435,
989,
-310,
-1194,
-988,
-1250,
-128,
817,
-1074,
-36,
-1255,
623,
529,
-314,
268,
-224,
-180,
-840,
726,
-1210,
-446,
-1576,
-563,
632,
-172,
-655,
386,
-83,
-58,
-28,
70,
-408,
-1778,
160,
-743,
-180,
-719,
-373,
70,
1227,
1382,
783,
2649,
-1190,
1179,
-768,
-769,
-1291,
1675,
-1564,
224,
-71,
-1437,
-1631,
194,
-437,
-106,
2204,
-165,
629,
-341,
-757,
228,
678,
-377,
-2162,
-192,
-169,
-1125,
-295,
-2279,
850,
-105,
2493,
568,
400,
-1142,
1667,
587,
-687,
84,
-630,
143,
1033,
133,
-386,
-122,
-99,
-865,
-688,
506,
1284,
-1195,
351,
-20,
2850,
378,
-38,
855,
614,
-1938,
377,
1191,
-1137,
-1206,
991,
-212,
1504,
1011,
-489,
98,
184,
-665,
-149,
1002,
-540,
-110,
-908,
-482,
22,
-5660,
-62,
930,
439,
-1457,
1155,
2265,
-785,
-531,
7102,
-138,
331,
-156,
-1076,
-546,
276,
919,
39,
1786,
-858,
673,
51,
781,
-544,
-1052,
766,
1258,
-1351,
-425,
-1714,
-101,
764,
473,
1136,
-576,
-377,
-546,
829,
283,
-539,
-498,
1506,
-421,
2410,
200,
-113,
1518,
537,
552,
1265,
316,
818,
-276,
1209,
-455,
-489,
915,
362,
480,
677,
1436,
68,
895,
959,
-251,
145,
-521,
-84,
-2430,
2022,
-281,
171,
-151,
1489,
634,
-309,
223,
1849,
-54,
784,
-992,
-781,
-1070,
299,
1154,
42,
558,
46,
-557,
-753,
-824,
38,
-1306,
2070,
-22,
2441,
-473,
-660,
1161,
1654,
671,
-718,
290,
-1773,
729,
-108,
121,
2064,
-684,
1426,
-425,
-455,
-2682,
1904,
687,
244,
247,
-446,
272,
16,
467,
-763,
515,
-853,
-1044,
-20,
2292,
-1461,
-984,
110,
135,
-849,
340,
-158,
168,
509,
-150,
209,
-527,
-652,
462,
679,
-294,
-95,
57,
-59,
-64,
-498,
1587,
3046,
220,
-322,
898,
-192,
1023,
-656,
447,
-514,
-561,
-191,
534,
-279,
1127,
-459,
132,
-149,
269,
256,
380,
-1049,
843,
836,
-451,
-740,
-36,
780,
-1523,
514,
-1457,
-1498,
-31,
-1206,
-1274,
1453,
-840,
-440,
-191,
-278,
700,
1044,
-724,
-1115,
688,
-1218,
274,
-472,
303,
-225,
1595,
-2329,
579,
160,
-1439,
-51,
-199,
1042,
-925,
-8,
1798,
2155,
-54,
787,
218,
-932,
294,
-321,
405,
-581,
-1521,
-1765,
2251,
805,
-761,
6,
-457,
1219,
1339,
-39,
970,
-645,
106,
-963,
1644,
2601,
1081,
-823,
-170,
1726,
835,
-447,
-904,
537,
-229,
660,
-1105,
33,
-1109,
-605,
-1218,
-1434,
-1321,
182,
-1181,
-267,
450,
829,
-1368,
-1142,
-1323,
-101,
213,
251,
-408,
966,
493,
2168,
118,
887,
-1165,
2251,
-1240,
29,
-237,
126,
-142,
-536,
914,
52,
274,
-54,
-977,
-219,
-321,
-1006,
-234,
592,
-309,
-742,
966,
-929,
-107,
133,
-1607,
122,
709,
1060,
-743,
605,
679,
799,
-378,
54,
1048,
1266,
-184,
-2658,
-126,
17,
1135,
74,
-444,
1235,
1516,
-90,
-480,
-154,
-728,
370,
-195,
-143,
-203,
-721,
-464,
-125,
270,
-1649,
-190,
864,
-856,
283,
-422,
-1205,
-963,
974,
-1075,
524,
-17,
1660,
95,
715,
617,
-2602,
-1775,
1044,
230,
-147,
-873,
-1115,
-759,
202,
19,
334,
105,
1769,
464,
0,
1705,
-641,
-154,
-1703,
-186,
1875,
-1276,
-111,
-540,
-620,
-203,
383,
-338,
200,
133,
-698,
-93,
-440,
-1293,
-903,
1819,
-1312,
-1938,
14,
510,
-736,
5,
-132,
26,
691,
442,
1174,
-1113,
638,
976,
-1911,
-456,
-9,
26,
138,
-639,
28,
-247,
-177,
-344,
209,
134,
-1028,
315,
-1309,
652,
-938,
19,
93,
-784,
-1283,
1500,
118,
-290,
-765,
-2,
411,
368,
955,
-14,
139,
-55,
855,
-1414,
1480,
264,
-1008,
-1954,
0,
-1793,
-787,
-19,
-423,
13,
927,
-1336,
1481,
503,
58,
-979,
-6,
784,
-893,
-184,
-3,
-648,
255,
875,
-592,
-699,
1874,
-991,
-108,
512,
-512,
496,
-61,
684,
796,
271,
-1429,
-596,
2523,
-1013,
136,
-992,
-200,
266,
526,
203,
705,
552,
-79,
-461,
1064,
2117,
441,
-1563,
2442,
2351,
1585,
-498,
-248,
-676,
-230,
-642,
-307,
-365,
-2368,
152,
-803,
-131,
-346,
-556,
-363,
-7,
1497,
788,
899,
-1444,
-131,
598,
-377,
-195,
801,
-472,
37,
-895,
-261,
909,
-533,
359,
-496,
-690,
1346,
373,
-245,
402,
-395,
-1129,
1462,
1794,
-1625,
-469,
211,
769,
1215,
-561,
-319,
15,
1744,
-1837,
-956,
-1439,
-1238,
1225,
-182,
-1722,
-434,
4,
676,
-234,
584,
-1340,
436,
-1064,
301,
245,
-740,
761,
-951,
1352,
429,
-159,
391,
-1743,
-825,
-1230,
1364,
-155,
1301,
155,
-334,
1046,
-533,
138,
1438,
-674,
-1004,
-642,
-1291,
-1756,
361,
-824,
-627,
164,
-485,
-614,
-209,
-1244,
1157,
2047,
-1436,
177,
163,
-38,
648,
-852,
606,
77,
-297,
775,
-685,
8,
1055,
1226,
15,
-614,
1452,
-78,
-570,
-441,
201,
325,
-734,
-1454,
196,
375,
-1123,
666,
122,
269,
479,
181,
-374,
697,
896,
285,
617,
-711,
315,
213,
1138,
-969,
384,
40,
-437,
252,
-47,
-33,
966,
-1843,
-913,
44,
-560,
583,
-704,
-252,
-89,
366,
-127,
413,
59,
208,
-414,
-122,
-835,
-1141,
318,
-651,
95,
-356,
677,
195,
1612,
-678,
-580,
2875,
-486,
602,
-347,
-490,
-932,
-854,
-1492,
423,
649,
-266,
1466,
-9,
-416,
660,
-552,
26,
226,
-160,
-1125,
-295,
-881,
566,
577,
-109,
80,
438,
459,
972,
565,
-2213,
-39,
1785,
-558,
426,
260,
566,
-1614,
506,
324,
-509,
-768,
1288,
-2048,
-2354,
20,
-1151,
703,
-1017,
-1443,
-475,
-231,
-1032,
2712,
-945,
-1121,
359,
157,
-586,
-385,
-758,
-887,
197,
-1018,
-83,
1305,
-1035,
-2039,
-795,
-1068,
-69,
-372,
-1150,
67,
249,
1616,
-122,
1309,
-1077,
-1375,
-190,
-95,
-503,
-140,
-1033,
-1190,
-1307,
-1641,
-865,
-1397,
-466,
-702,
341,
-493,
2586,
-1517,
-922,
167,
249,
-1497,
159,
-208,
-316,
-763,
1347,
1300,
223,
-750,
539,
283,
459,
110,
-236,
-902,
535,
1658,
1025,
-234,
-656,
-536,
463,
1163,
5995,
-489,
-19,
803,
-224,
180,
1474,
-781,
-256,
-4559,
35,
2545,
901,
-1466,
1706,
1371,
-686,
-178,
2093,
-976,
-1081,
1000,
-1190,
-381,
416,
-478,
381,
-1021,
1567,
1422,
412,
-74,
1290,
720,
-715,
-549,
-156,
215,
-432,
-379,
-849,
-914,
-1143,
287,
1205,
536,
-1015,
-785,
-148,
-53,
-243,
477,
1536,
-645,
-1948,
672,
2046,
-229,
1059,
480,
-128,
1032,
-363,
76,
1002,
1331,
-544,
62,
1282,
317,
526,
-322,
-558,
649,
124,
-1126,
-1199,
2803,
1211,
-811,
876,
-54,
1869,
391,
2504,
603,
-855,
-599,
582,
-1129,
-1456,
288,
-458,
-1946,
614,
-1133,
-105,
454,
-51,
-86,
-1295,
-402,
-2000,
2428,
-78,
-471,
1006,
-951,
-468,
-1059,
-583,
66,
1087,
-1592,
-431,
1810,
-348,
272,
116,
-191,
-989,
-597,
-649,
791,
2035,
-777,
-1719,
328,
2981,
-646,
-951,
71,
694,
-1420,
270,
200,
-1584,
316,
1337,
-1378,
318,
925,
-337,
-741,
-1384,
191,
1324,
220,
513,
-1147,
2,
610,
1251,
-400,
-358,
1373,
3024,
83,
-1025,
-806,
135,
-662,
263,
669,
-510,
-2240,
-336,
424,
-32,
607,
235,
-1170,
2301,
1288,
-869,
45,
-676,
-24,
146,
-1360,
227,
37,
-801,
-847,
1388,
1134,
357,
-920,
-745,
548,
858,
-869,
-495,
1024,
333,
1168,
-734,
743,
1354,
-996,
1378,
-830,
368,
120,
101,
-89,
-280,
-943,
-1967,
2317,
2300,
650,
987,
590,
1205,
-10,
-344,
-530,
243,
972,
1075,
-591,
-178,
-371,
3664,
-684,
522,
-1116,
822,
-1095,
-274,
-540,
346,
368,
-302,
-999,
790,
393,
-28,
365,
126,
-557,
-579,
338,
-1454,
-291,
-587,
-259,
745,
205,
-387,
-614,
-164,
-982,
-158,
122,
-202,
560,
-38,
-1760,
-533,
-545,
849,
405,
223,
502,
237,
-665,
1433,
-805,
46,
260,
-1485,
116,
699,
218,
-897,
-41,
1152,
-1852,
-530,
234,
288,
-1157,
-1647,
-950,
-1742,
-173,
-399,
-354,
-368,
1172,
822,
11,
835,
-357,
2540,
572,
72,
-314,
-225,
-643,
-94,
488,
-451,
-1071,
-388,
-864,
820,
610,
-666,
581,
-209,
-673,
-470,
751,
571,
-374,
484,
-760,
-627,
-435,
-316,
-242,
295,
-457,
1305,
776,
972,
1165,
1771,
848,
-101,
938,
-566,
-1003,
477,
756,
327,
-2468,
596,
-330,
931,
1696,
-704,
966,
2400,
680,
-755,
-238,
495,
-1634,
-297,
1884,
451,
-845,
117,
-587,
-620,
-937,
-923,
-295,
-946,
345,
-1044,
-591,
534,
-201,
1370,
-686,
644,
578,
-510,
1098,
140,
819,
-873,
-606,
-244,
539,
-1885,
241,
682,
-152,
137,
-555,
-180,
538,
370,
203,
343,
-1461,
1373,
-70,
-948,
-232,
47,
-710,
-263,
487,
933,
-446,
-1419,
-620,
1442,
-854,
433,
-36,
-379,
5,
-282,
-1173,
-204,
1758,
442,
-836,
1240,
279,
377,
-1198,
-335,
-181,
-275,
401,
-436,
-2684,
-1633,
412,
1067,
-371,
791,
-717,
-724,
-171,
-8,
-504,
100,
665,
752,
-605,
-226,
-1140,
-194,
306,
-112,
799,
153,
1257,
-5,
784,
423,
522,
-83,
135,
753,
25,
-110,
-357,
-124,
223,
-99,
612,
-286,
107,
392,
-616,
129,
993,
-387,
178,
307,
338,
-2562,
642,
825,
-882,
156,
-883,
-1146,
1034,
-1180,
88,
729,
-715,
1180,
1095,
-1698,
-831,
703,
-1509,
-222,
-1110,
-58,
842,
-458,
404,
-900,
-207,
7,
731,
2919,
-1403,
88,
4,
246,
1088,
510,
61,
812,
-1018,
1494,
1798,
142,
252,
21,
635,
-787,
483,
219,
1272,
1074,
2183,
453,
1079,
1570,
-368,
259,
-2095,
-743,
-587,
233,
538,
-1578,
-1257,
-779,
-318,
656,
-693,
-619,
1270,
686,
1117,
-134,
-231,
-456,
-125,
-107,
460,
1199,
-1092,
1276,
-1633,
480,
1151,
377,
-1295,
-2011,
1270,
-363,
-577,
-397,
206,
1609,
49,
-372,
-1886,
-255,
573,
216,
962,
1146,
-1302,
-2381,
-470,
-536,
-803,
-388,
26,
-247,
377,
485,
-837,
958,
-922,
-1738,
-890,
770,
1710,
-907,
-79,
1192,
2860,
-926,
-1694,
-436,
-882,
-1187,
-626,
-1846,
2140,
-178,
-210,
837,
41,
-1814,
3132,
-773,
11,
1165,
-473,
1083,
-270,
-764,
-865,
304,
153,
-339,
453,
-1248,
962,
865,
1054,
324,
-884,
-332,
1845,
45,
164,
-1343,
1935,
595,
795,
1505,
29,
302,
811,
-589,
30,
327,
528,
-859,
415,
-238,
-752,
2532,
-189,
-953,
-1417,
263,
-1270,
-921,
-702,
-473,
-242,
259,
157,
-148,
954,
15,
496,
1691,
509,
101,
-1016,
-1244,
-537,
-311,
2216,
-2175,
856,
531,
-342,
-751,
2165,
553,
387,
-922,
2010,
272,
-823,
851,
-152,
77,
-5,
-6,
-1,
2,
1,
-4,
-3,
6,
-8,
-6,
-8,
-6,
267,
13,
95,
-295,
1404,
-778,
-822,
504,
-670,
-1784,
-431,
112,
85,
-69,
106,
-37,
171,
-273,
639,
-347,
88,
890,
-326,
176,
-68,
-200,
397,
-232,
382,
-467,
474,
727,
157,
1371,
-248,
424,
0,
0,
0,
0,
0,
0,
0,
0,
0,
0,
0,
0,
-759,
-404,
529,
-1115,
-919,
-163,
86,
366,
482,
51,
-172,
846,
-218,
-607,
-425,
311,
578,
-1562,
-1109,
302,
-234,
-678,
-364,
-521,
-292,
-665,
-1030,
-133,
767,
-1096,
257,
856,
39,
-95,
-612,
-469,
260,
-466,
-527,
695,
-154,
1275,
1949,
-410,
424,
-21,
4,
1153,
-1515,
-638,
-941,
-78,
736,
1680,
-2002,
936,
375,
2795,
1503,
-566,
82,
-250,
363,
-435,
1208,
-181,
594,
212,
320,
1953,
-196,
-430,
2205,
-59,
-160,
1316,
-94,
71,
92,
496,
-1144,
-2282,
-64,
-1784,
1021,
631,
1229,
-1168,
-502,
-1388,
1561,
294,
799,
-2009,
-441,
749,
1635,
185,
842,
654,
1946,
377,
1342,
14,
1057,
-1715,
1015,
497,
-442,
-447,
354,
-668,
-1174,
-1007,
-1364,
-1134,
178,
756,
-482,
1830,
-896,
391,
-231,
447,
834,
960,
-1699,
232,
-161,
-69,
195,
489,
-619,
118,
-1649,
-1182,
-1306,
270,
223,
-500,
102,
-2285,
671,
439,
-1555,
-1201,
-740,
-918,
-718,
-339,
-2499,
-172,
-535,
1855,
-1588,
-1636,
946,
100,
-1359,
658,
559,
1677,
639,
177,
-207,
-162,
273,
651,
-614,
286,
-563,
-405,
-332,
591,
-61,
-270,
176,
651,
-695,
-22,
-62,
186,
589,
491,
1284,
-209,
-2066,
-554,
-532,
315,
989,
-412,
-1779,
674,
211,
254,
-137,
508,
-1694,
1213,
687,
-1007,
-71,
-705,
-480,
502,
129,
-339,
1423,
709,
-1690,
2,
855,
2683,
-307,
-167,
456,
-195,
-492,
561,
1172,
-31,
846,
19,
-1089,
-1921,
-613,
-61,
442,
-482,
-358,
-744,
-3609,
-1318,
884,
366,
2394,
-2712,
-280,
758,
-884,
-535,
936,
-252,
-1395,
686,
774,
-98,
1021,
1171,
185,
2085,
232,
-3,
1371,
77,
-1048,
-104,
673,
-195,
-461,
-855,
-140,
1453,
523,
-193,
514,
-501,
3151,
1567,
-1028,
1338,
-519,
4927,
876,
114,
155,
-720,
-621,
969,
455,
1627,
-613,
694,
-896,
3455,
-166,
-841,
53,
1048,
1215,
-283,
-771,
-54,
786,
-701,
-1615,
-1496,
1179,
2062,
793,
-627,
148,
236,
1791,
-1826,
701,
-809,
1179,
818,
-485,
296,
-1488,
-822,
-589,
-1781,
-4550,
-272,
1898,
-647,
2052,
-2611,
-566,
303
};

#endif