#ifndef __MMCBLOCK3_MMLAYER6_BRANCH33B_CONV_0_WEIGHT_H__
#define __MMCBLOCK3_MMLAYER6_BRANCH33B_CONV_0_WEIGHT_H__

// MMCBlock3_mmLayer6_branch33b_conv_0_weight
// (3, 3, 12, 6)
const int MMCBlock3_mmLayer6_branch33b_conv_0_weight[] = {
1099,
-832,
-928,
142,
-933,
-506,
23,
390,
-273,
183,
-451,
-1683,
340,
-14,
382,
-708,
-406,
1722,
-565,
-128,
-63,
-580,
310,
1146,
-566,
671,
51,
234,
-823,
-741,
-224,
2008,
969,
335,
-92,
2304,
-550,
-39,
-148,
3495,
-609,
-253,
549,
-809,
-179,
957,
-207,
87,
927,
-1025,
328,
392,
-2005,
-2351,
-402,
-146,
591,
1916,
-690,
-207,
-246,
-363,
-842,
-568,
182,
-615,
701,
-217,
-401,
-305,
-146,
-957,
1246,
-565,
-540,
-560,
-569,
-586,
-67,
23,
-662,
529,
49,
412,
366,
-282,
-196,
-367,
-48,
2567,
-471,
443,
-468,
-352,
359,
743,
-1094,
42,
-16,
328,
-217,
-18,
26,
-216,
241,
468,
-963,
-609,
-622,
-76,
-100,
3430,
-186,
-166,
247,
107,
-158,
1040,
-659,
485,
-248,
-616,
336,
71,
-1196,
-638,
443,
-872,
-63,
1033,
-715,
259,
724,
-95,
-828,
-397,
-275,
392,
-201,
-1109,
268,
-679,
183,
-59,
1518,
-170,
-846,
87,
-1151,
-363,
-834,
-38,
-570,
308,
-92,
-200,
-51,
193,
56,
-848,
-87,
1678,
-637,
-110,
347,
-182,
-176,
-1097,
-445,
-896,
42,
1167,
515,
318,
421,
-919,
42,
567,
-2105,
-1788,
-543,
-183,
-67,
2889,
-630,
-904,
430,
-791,
-135,
1062,
-380,
207,
-4,
1811,
424,
1010,
-68,
2438,
-274,
-20,
704,
789,
-894,
-495,
56,
-501,
-955,
-490,
-83,
-177,
-40,
156,
-92,
345,
-278,
-650,
374,
-146,
-365,
283,
152,
-761,
-713,
78,
-98,
422,
69,
-796,
649,
18,
-140,
-487,
-440,
177,
759,
-586,
-139,
-569,
243,
299,
-209,
670,
-564,
37,
-645,
-1326,
390,
2692,
-375,
-135,
-1135,
1071,
63,
-492,
-394,
317,
204,
-354,
-567,
-1137,
218,
198,
-631,
-1019,
286,
-1549,
526,
-661,
-91,
-959,
-76,
398,
955,
-151,
-938,
322,
-615,
186,
-516,
-309,
39,
145,
-86,
-119,
-207,
180,
-631,
-346,
870,
-380,
250,
-742,
-500,
-803,
-614,
-548,
-275,
178,
58,
458,
491,
1013,
-177,
-452,
-60,
-382,
-596,
-281,
-260,
-183,
337,
406,
-43,
60,
-231,
-118,
-268,
114,
73,
-121,
172,
-355,
-110,
19,
300,
-60,
-447,
-417,
566,
-72,
-191,
-966,
1,
83,
-1365,
-773,
385,
-559,
-224,
217,
105,
-161,
-287,
-527,
-220,
-94,
-67,
94,
-168,
-212,
-70,
-707,
140,
586,
-124,
-432,
52,
98,
10,
329,
869,
-383,
-261,
459,
-520,
-1127,
-670,
-391,
-259,
-31,
-295,
440,
601,
19,
-153,
-606,
-464,
-426,
-688,
-139,
172,
-179,
102,
-912,
285,
-964,
162,
-1,
753,
1098,
420,
-1573,
452,
-713,
-283,
-936,
350,
-182,
-172,
-49,
19,
-464,
-55,
-993,
449,
-96,
-489,
-914,
275,
2798,
-937,
490,
-1212,
1175,
-355,
340,
920,
-223,
-474,
-238,
-836,
-127,
-378,
-336,
-123,
-472,
-210,
-309,
-413,
366,
-968,
-506,
-258,
-73,
867,
275,
-428,
-1231,
483,
51,
586,
402,
341,
-1034,
410,
-41,
-401,
330,
-582,
-10,
2475,
171,
46,
135,
-127,
-454,
-668,
-377,
-362,
185,
-84,
-459,
610,
86,
-1336,
209,
-1582,
1737,
757,
-230,
-443,
-529,
-179,
334,
-216,
-59,
1017,
-942,
-793,
-1233,
-305,
-976,
221,
-159,
3968,
2277,
-183,
1524,
-147,
-137,
-283,
-1254,
155,
37,
700,
148,
91,
-112,
1636,
352,
-850,
160,
1262,
-641,
-269,
1226,
1593,
-945,
-479,
-1914,
3143,
41,
382,
324,
-110,
-550,
382,
18,
-500,
621,
157,
-551,
1853,
-32,
-168,
-506,
326,
-225,
-57,
-217,
-426,
-146,
536,
432,
795,
-1587,
-300,
7,
208,
1871,
-293,
10,
-177,
-570,
-305,
1393,
-222,
-1246,
988,
-810,
-946,
-914,
498,
-1633,
-662,
348,
1017,
1845,
1107,
1228,
-668,
282,
-253,
-779,
-789,
1024,
1234,
-783,
1506,
-1434,
3386,
684,
-823,
342,
838,
9,
-262,
-83,
1065,
4,
-231,
-572,
4586,
-104,
409,
368,
-991,
636,
245,
-524,
-568,
1136,
-500,
160,
-99,
132,
510,
-151,
200,
-263,
1442,
-167,
509,
-288,
1223,
475,
298,
-1310,
270,
389,
3913,
1516,
363,
53,
-358,
-145,
-735,
1038,
-1146,
384,
996,
-820,
-1197,
-1190,
-9,
-120,
-1176,
276,
-2202,
1758,
346,
1394,
-14,
323,
74,
-1402,
-65,
-322,
556,
369,
283,
-1208,
1888,
-229,
-565,
-127,
377,
-581
};

#endif