#ifndef __MMCBLOCK2_MMLAYER1_BRANCH11_CONV_0_WEIGHT_H__
#define __MMCBLOCK2_MMLAYER1_BRANCH11_CONV_0_WEIGHT_H__

// MMCBlock2_mmLayer1_branch11_conv_0_weight
// (1, 1, 104, 12)
const int MMCBlock2_mmLayer1_branch11_conv_0_weight[] = {
126,
-264,
-48,
-392,
-415,
-444,
-500,
-20,
1178,
-641,
-160,
-2135,
-2649,
340,
3334,
-2306,
2193,
-1809,
-1230,
1640,
1148,
451,
-311,
2730,
-266,
-585,
-557,
-261,
-235,
677,
195,
-339,
95,
-1301,
100,
-267,
409,
540,
59,
-36,
93,
-81,
-361,
-543,
-403,
-776,
-369,
2,
3185,
2749,
-3026,
1841,
-1278,
3143,
-588,
3130,
745,
38,
-975,
1844,
-220,
764,
293,
128,
910,
551,
503,
-280,
-106,
-1026,
630,
74,
241,
53,
-172,
-724,
-36,
-564,
28,
1100,
-432,
1875,
-671,
-1504,
247,
141,
-198,
556,
7,
375,
102,
186,
-373,
1675,
-68,
43,
662,
3173,
-1003,
-147,
2631,
3794,
-3590,
2522,
1793,
-429,
-861,
2435,
-83,
232,
659,
-119,
99,
66,
54,
26,
-947,
688,
436,
266,
1834,
-208,
-1475,
1545,
-2476,
-878,
3103,
2184,
1299,
798,
-1434,
-345,
-1249,
-858,
-632,
-180,
485,
499,
-1537,
-346,
-933,
-1997,
-171,
-1276,
-98,
704,
250,
-232,
-119,
-44,
73,
832,
-524,
-1211,
93,
303,
-486,
-666,
-32,
204,
-368,
-143,
-22,
-137,
-442,
-1091,
-92,
-1013,
206,
323,
-961,
-667,
-249,
-923,
-1166,
1772,
-479,
4150,
-703,
-564,
177,
-328,
127,
293,
-430,
258,
377,
-475,
-9,
494,
614,
-365,
-389,
-788,
-246,
-390,
-530,
40,
551,
-659,
-504,
-327,
303,
-918,
837,
977,
-2075,
-823,
-1072,
-455,
-110,
1583,
31,
168,
1744,
-188,
-327,
-638,
-295,
172,
44,
-264,
407,
-481,
-159,
-1507,
-59,
-153,
-2840,
-1492,
2461,
-2777,
-388,
-2668,
988,
87,
1072,
-357,
614,
3360,
83,
-525,
-217,
-284,
-456,
63,
-290,
529,
-704,
2221,
184,
-319,
-763,
-352,
274,
938,
-119,
628,
-527,
-221,
4074,
-3056,
1070,
574,
-307,
-86,
262,
64,
-1108,
599,
0,
-502,
-1683,
46,
-552,
495,
97,
151,
647,
457,
1146,
-373,
-165,
652,
120,
-130,
-5,
-621,
423,
193,
388,
-231,
-100,
743,
762,
109,
-799,
-4838,
-381,
1622,
-318,
-859,
-821,
121,
-893,
-448,
136,
920,
561,
-515,
-694,
183,
145,
-164,
-363,
254,
-129,
174,
96,
-707,
327,
-259,
235,
-451,
76,
120,
420,
286,
-220,
616,
-263,
732,
-801,
56,
-503,
-375,
174,
155,
-143,
-170,
-769,
1193,
66,
-2194,
-837,
-1765,
-205,
-1781,
-113,
146,
135,
-627,
-25,
231,
179,
-677,
118,
-391,
488,
1211,
-306,
322,
219,
-559,
-416,
-514,
-668,
859,
-780,
4514,
-301,
295,
-518,
-116,
-439,
-15,
-46,
-708,
-202,
415,
-137,
3048,
-403,
-151,
146,
317,
90,
568,
136,
-471,
-164,
-527,
-1361,
-1147,
-541,
-454,
-386,
853,
-234,
-46,
302,
-208,
368,
2025,
531,
-777,
498,
239,
813,
-416,
1300,
169,
1248,
781,
971,
1962,
-2455,
2256,
232,
1611,
-865,
31,
-92,
-1338,
-220,
682,
-18,
321,
-246,
661,
-42,
1352,
337,
1217,
-261,
-50,
628,
-533,
256,
531,
308,
-399,
-302,
-2036,
-547,
-2,
-42,
524,
414,
222,
-210,
-803,
892,
-1846,
397,
-737,
585,
-211,
107,
-176,
-30,
-92,
-11,
-526,
1286,
241,
-376,
-1668,
-1195,
-658,
1911,
-1226,
1379,
-794,
-1561,
953,
557,
-1599,
-674,
2111,
-174,
-109,
966,
-523,
1531,
-84,
-1330,
2534,
-36,
354,
-1055,
3082,
-2242,
-94,
2039,
-1456,
3223,
1063,
-2723,
439,
884,
-1294,
-962,
538,
173,
316,
-523,
143,
-251,
-178,
-639,
625,
-141,
-937,
-276,
741,
643,
41,
-498,
70,
-871,
-590,
-109,
-166,
-1386,
-165,
-205,
-824,
-22,
-163,
20,
146,
108,
61,
133,
-546,
-841,
538,
7,
197,
500,
83,
79,
-479,
-411,
-65,
-318,
-534,
410,
104,
395,
-95,
-383,
1155,
415,
-209,
982,
420,
514,
-88,
647,
-865,
8,
349,
-207,
-373,
941,
1134,
996,
-802,
393,
2565,
936,
-882,
-2793,
131,
-466,
-307,
884,
-819,
-412,
328,
-338,
2000,
-981,
250,
-467,
-387,
568,
658,
521,
2749,
775,
-874,
469,
1041,
-201,
-1500,
-2158,
-739,
-567,
-621,
-742,
-712,
-321,
-226,
-582,
2207,
1628,
-3270,
-855,
-253,
-3,
-130,
-220,
-606,
-223,
-72,
-480,
-386,
940,
662,
-199,
-1545,
260,
2,
369,
49,
939,
1048,
771,
738,
-316,
387,
18,
-197,
-17,
-63,
109,
-5,
450,
738,
454,
581,
40,
-566,
260,
1121,
493,
2436,
-662,
-1148,
1109,
-55,
362,
1645,
1,
124,
1791,
1317,
157,
-1194,
-219,
148,
-379,
395,
-329,
470,
761,
-988,
-146,
-383,
346,
140,
-207,
-164,
258,
484,
-30,
293,
-2,
-1102,
-43,
-815,
-290,
-438,
-349,
-515,
-916,
-711,
-644,
-86,
1600,
681,
25,
-1814,
-293,
913,
-205,
-747,
628,
231,
-79,
369,
-585,
2372,
-77,
1861,
762,
-75,
-484,
1450,
-1396,
-951,
704,
698,
1297,
-684,
-733,
813,
30,
-30,
-878,
-688,
-570,
112,
198,
-427,
-363,
-840,
89,
-1216,
556,
49,
-228,
771,
545,
717,
988,
76,
-950,
363,
268,
-1027,
-338,
-357,
14,
591,
-90,
331,
147,
-530,
-996,
-1044,
-795,
34,
-1043,
-569,
-412,
814,
-1542,
-850,
918,
-426,
54,
-1510,
-625,
-1278,
-1797,
-2014,
1525,
-1546,
-2620,
-5120,
6710,
1283,
1969,
1874,
753,
2846,
459,
-249,
105,
-558,
-169,
-61,
-14,
22,
170,
-247,
-204,
-1511,
-197,
50,
45,
545,
194,
211,
-247,
-299,
-71,
-1258,
555,
-528,
-960,
-766,
150,
-491,
-656,
-340,
95,
540,
358,
-1296,
357,
-586,
-752,
1597,
1194,
1786,
2824,
-1158,
-63,
3740,
844,
-759,
-3572,
-561,
709,
246,
-102,
-97,
-516,
142,
-170,
-117,
-1848,
-867,
-561,
692,
84,
-412,
-555,
256,
-657,
165,
179,
-75,
492,
-1010,
-326,
-1174,
-138,
-27,
189,
128,
-300,
299,
446,
-362,
-980,
-220,
466,
233,
72,
415,
194,
-557,
736,
-350,
-932,
1375,
-103,
41,
1164,
1164,
-311,
-188,
-179,
459,
-642,
263,
-89,
166,
-196,
-925,
239,
-547,
-914,
-519,
218,
-790,
15,
-179,
-198,
-994,
1419,
-458,
886,
1358,
-596,
265,
-341,
-441,
-235,
-873,
-598,
318,
804,
641,
319,
17,
314,
618,
732,
-434,
-1280,
-1072,
4714,
634,
1736,
956,
329,
561,
347,
1756,
-1855,
-1216,
94,
-516,
-104,
1519,
775,
1285,
1870,
2787,
-4,
393,
-407,
-600,
42,
-446,
-468,
-496,
1267,
2656,
626,
427,
142,
192,
244,
216,
106,
-374,
-68,
48,
936,
-731,
-73,
177,
-515,
1327,
-336,
-134,
862,
1655,
-2039,
378,
947,
938,
-584,
1519,
352,
2778,
-2888,
-2023,
14,
-671,
1164,
2431,
340,
875,
1862,
1410,
-177,
-845,
415,
-1222,
7,
739,
745,
1320,
-164,
1860,
199,
316,
-448,
43,
-54,
-184,
-227,
573,
121,
153,
934,
-612,
761,
67,
159,
-363,
-10,
-113,
142,
327,
-79,
-651,
-39,
217,
-17,
-268,
-764,
-136,
2390,
-752,
-1068,
-2008,
4023,
804,
1808,
-106,
-569,
4200,
-375,
516,
134,
-5,
-125,
191,
117,
-737,
-1106,
815,
630,
-1838,
263,
-95,
502,
325,
238,
157,
-197,
-375,
-781,
744,
106,
74,
846,
1644,
-878,
-665,
-619,
-976,
-680,
1198,
1339,
483,
589,
216,
24,
-958,
-393,
-348,
-132,
1028,
647,
-1214,
531,
-1819,
-446,
-587,
-312,
-383,
-46,
708,
350,
700,
226,
-680,
547,
-1206,
46,
-697,
-188,
-612,
-307,
-1372,
-994,
-642,
-635,
103,
-1861,
409,
257,
210,
2941,
915,
-2257,
2418,
-1489,
1075,
172,
2597,
-757,
1239,
-623,
442,
170,
739,
402,
215,
13,
-344,
-276,
81,
-15,
-45,
-358,
534,
319,
497,
-90,
-836,
953,
1157,
-824,
1203,
-287,
-784,
622,
867,
-2998,
282,
3677,
-3507,
2968,
-1216,
-361,
1957,
2819,
458,
-387,
3676,
186,
-241,
-303,
-38,
32,
198,
336,
-463,
748,
-1404,
-364,
-1389,
-225,
-771,
-130,
694,
-105,
-456,
-323,
1385,
-1198,
-517,
271,
1338,
1673,
-1017,
-2051,
1479,
-4035,
-1713,
3475,
318,
389,
-1019,
17,
-1703,
288,
-297,
321,
203,
-82,
-270,
229,
-864,
132,
-692,
-111,
252,
-410,
-49,
9,
441,
-470,
-290,
-374,
-802,
565,
-2082,
358,
-494,
-273,
-264,
-34,
258,
25,
-21,
222,
328,
-55,
-1509,
539,
-780,
273,
-319,
-16,
706,
692,
222,
375,
-1260,
356,
-584,
-242,
496,
856,
74,
-676,
-623,
-577,
-197,
582,
393,
449,
1873,
550,
282
};

#endif