#ifndef __MMCBLOCK3_MMLAYER6_BRANCH11_CONV_0_WEIGHT_H__
#define __MMCBLOCK3_MMLAYER6_BRANCH11_CONV_0_WEIGHT_H__

// MMCBlock3_mmLayer6_branch11_conv_0_weight
// (1, 1, 320, 12)
const int MMCBlock3_mmLayer6_branch11_conv_0_weight[] = {
-419,
-213,
-136,
-582,
-134,
178,
-729,
-1950,
313,
664,
-1282,
-1118,
-524,
371,
-501,
40,
-277,
-644,
715,
-2187,
971,
1399,
70,
29,
667,
1501,
880,
722,
530,
104,
479,
1475,
-2858,
-1186,
442,
-541,
-366,
243,
586,
-485,
2143,
-1525,
-1412,
4279,
104,
6,
2069,
1709,
-684,
-137,
1627,
-180,
281,
1089,
781,
-3271,
-408,
-1089,
-460,
-2017,
-38,
201,
674,
-244,
990,
-296,
230,
2866,
-500,
-1347,
536,
-114,
-195,
434,
-22,
-429,
1743,
-106,
1427,
1439,
-378,
285,
-246,
-1028,
-160,
455,
1149,
-307,
-14,
39,
526,
-2141,
-1104,
289,
-438,
-1210,
865,
-694,
369,
328,
-1217,
-460,
-157,
-2260,
-1373,
-19,
1028,
-1486,
381,
-403,
1861,
-160,
446,
63,
1043,
3222,
3463,
-1753,
933,
-37,
190,
991,
-1135,
1174,
-1348,
-392,
-29,
-423,
-1397,
526,
-597,
1237,
-236,
798,
-703,
442,
-5,
6,
189,
1253,
-1004,
-1259,
-683,
390,
-2023,
692,
-425,
396,
834,
212,
217,
-1095,
-556,
-628,
-930,
-745,
-282,
-1488,
607,
-1761,
-494,
-731,
-1074,
600,
2861,
417,
-599,
1605,
-734,
1445,
-1005,
-218,
671,
-317,
-290,
-579,
3,
-565,
1307,
1350,
-623,
-392,
-228,
-119,
-593,
-449,
-607,
1200,
391,
22,
-578,
-666,
1479,
934,
-1154,
1077,
-963,
-770,
-940,
195,
-1047,
1483,
-777,
624,
802,
-577,
363,
38,
-615,
433,
-518,
57,
1028,
-78,
177,
800,
366,
3139,
-1233,
154,
997,
506,
914,
632,
-1230,
-2125,
928,
-687,
-805,
-383,
-407,
20,
1633,
1009,
1082,
641,
793,
-3602,
556,
867,
738,
972,
-1696,
40,
185,
666,
138,
-542,
-1434,
-923,
248,
-505,
-1412,
-296,
-405,
18,
1765,
313,
390,
-835,
578,
-920,
893,
-1701,
-203,
451,
-809,
1021,
775,
-421,
-417,
-72,
1163,
-2642,
1336,
203,
288,
214,
-950,
-953,
-26,
628,
1230,
2126,
-826,
285,
-591,
645,
-571,
-277,
-769,
135,
257,
-525,
-1062,
359,
224,
-10,
-4,
830,
-1304,
-1064,
-213,
-543,
-918,
735,
-704,
-974,
-351,
-545,
-597,
852,
126,
-1180,
-730,
1276,
-489,
-878,
-1435,
-1189,
-373,
1698,
-676,
358,
-883,
-1281,
-369,
-1165,
-1713,
-800,
-452,
-2718,
80,
-1275,
548,
-1648,
-211,
2127,
-1072,
-3,
-599,
54,
304,
226,
555,
1173,
-1331,
-1527,
571,
2456,
-897,
1483,
-69,
257,
117,
569,
-644,
-348,
214,
3684,
-118,
53,
-169,
-392,
1065,
-563,
-1011,
390,
-650,
-978,
-1175,
991,
-813,
-567,
133,
-1067,
-813,
115,
-748,
-1146,
-342,
300,
-412,
-955,
-197,
-1162,
1953,
-1404,
-540,
-94,
-187,
-1003,
2445,
-1000,
-490,
991,
-1131,
-542,
743,
-515,
1273,
-394,
252,
77,
417,
-1754,
1169,
-405,
3013,
-372,
-270,
406,
390,
1088,
1138,
-1263,
1051,
1050,
624,
320,
-38,
187,
-247,
-105,
-538,
-200,
-9,
-78,
-1857,
714,
65,
-382,
232,
-147,
-847,
-1400,
860,
86,
279,
-952,
2263,
-527,
1451,
-472,
1077,
966,
148,
184,
-761,
-1076,
-123,
-2262,
851,
1327,
71,
145,
-1239,
-596,
-658,
-865,
-391,
422,
510,
2736,
642,
808,
-61,
-519,
-16,
392,
-902,
1221,
62,
-609,
-1053,
-2177,
-435,
-501,
874,
1274,
-1520,
820,
-54,
-235,
425,
-218,
-492,
-505,
752,
473,
235,
-518,
3169,
-418,
-463,
785,
-1050,
1320,
1810,
2941,
-67,
-767,
669,
604,
70,
-180,
174,
-474,
-1087,
713,
947,
-919,
-490,
752,
-946,
-992,
-864,
-86,
-1923,
-1657,
576,
-958,
-1026,
-2554,
-1715,
-1730,
-1855,
649,
276,
-165,
810,
-535,
2106,
-24,
-779,
-702,
3883,
-74,
1489,
137,
451,
902,
-627,
-204,
616,
359,
-263,
-1158,
2276,
-1094,
-52,
1785,
-659,
-1171,
-205,
415,
1808,
-594,
280,
241,
464,
-692,
287,
211,
434,
-231,
-309,
236,
-451,
-189,
-218,
-1752,
2189,
-670,
441,
-133,
-590,
371,
-981,
112,
1014,
342,
-233,
-1875,
402,
-592,
375,
225,
86,
-390,
1092,
1265,
-171,
-940,
-1098,
497,
-204,
0,
-848,
-1385,
111,
90,
812,
374,
2495,
-784,
-359,
272,
1256,
402,
1395,
524,
183,
-843,
-739,
-641,
-269,
-1753,
294,
-1223,
1204,
-359,
-261,
479,
71,
534,
1019,
650,
-122,
2214,
-1150,
-222,
-391,
1089,
-655,
-618,
-1326,
-432,
116,
-914,
2190,
210,
329,
-3463,
975,
-423,
-201,
-2664,
22,
-3169,
5069,
-2885,
300,
-1420,
-1170,
1857,
3478,
-810,
3750,
-1865,
74,
-1419,
-389,
-606,
-192,
212,
-2017,
-1326,
603,
289,
-798,
870,
-1553,
1339,
2047,
-369,
218,
-334,
-221,
1022,
445,
-1076,
74,
780,
1339,
-235,
389,
-234,
-1108,
-93,
728,
2824,
956,
-1226,
289,
265,
-1194,
560,
-261,
167,
16,
103,
382,
-1291,
-2506,
576,
-393,
-478,
-195,
-1038,
-92,
-403,
294,
945,
-648,
37,
2458,
-1990,
31,
-411,
-522,
694,
446,
405,
90,
-960,
1926,
-1137,
43,
231,
1181,
-252,
-949,
-657,
-314,
235,
-1207,
129,
731,
-1468,
-220,
-730,
-379,
1195,
273,
927,
-178,
12,
-944,
-288,
-805,
746,
648,
203,
124,
-555,
333,
-731,
-333,
-435,
-62,
27,
-862,
-3226,
231,
538,
3095,
-1884,
-652,
1155,
-668,
-147,
1365,
-401,
-494,
879,
-556,
-78,
450,
-1568,
-483,
-891,
-296,
-72,
-477,
-125,
-45,
691,
-380,
-501,
736,
-842,
1074,
1205,
-855,
384,
972,
387,
597,
2557,
-338,
556,
-409,
552,
-427,
-878,
-63,
109,
2144,
517,
513,
-1569,
-428,
-1077,
1186,
-613,
623,
-189,
-429,
-61,
847,
-691,
-403,
377,
-157,
1309,
-175,
-188,
-951,
444,
-172,
-1318,
2159,
-431,
-754,
-1126,
186,
-1477,
-460,
-820,
415,
36,
789,
-65,
430,
282,
-53,
-111,
-1775,
715,
434,
-410,
2840,
1718,
-370,
1989,
-1308,
58,
362,
-862,
-1526,
-124,
493,
959,
2078,
-1107,
763,
145,
-1245,
281,
-204,
2754,
-353,
-12,
1658,
-435,
1997,
-519,
648,
898,
-2105,
425,
404,
-213,
601,
-573,
491,
-220,
-1158,
608,
2414,
109,
1120,
647,
-57,
-3345,
-255,
-348,
-451,
1152,
-332,
-328,
-259,
-211,
1026,
184,
-276,
2692,
213,
227,
571,
864,
-567,
-228,
461,
69,
1580,
1275,
2170,
279,
989,
-517,
139,
79,
-3057,
-200,
1396,
548,
726,
-279,
648,
-3135,
944,
-785,
-1513,
1806,
-128,
-140,
1019,
-443,
-413,
574,
1265,
-975,
1535,
-592,
1614,
132,
-1259,
-1443,
383,
53,
2067,
1870,
1421,
-2334,
44,
-2059,
408,
-809,
-1287,
-1115,
-667,
-569,
-409,
-779,
-712,
3213,
-2460,
336,
-1615,
-1147,
346,
829,
63,
347,
850,
783,
-1186,
153,
344,
-332,
1612,
58,
1435,
-232,
320,
601,
655,
-727,
-890,
-1330,
-861,
-292,
-221,
1403,
-400,
1116,
-1700,
640,
923,
-231,
-817,
-744,
-780,
-1068,
-573,
206,
165,
1671,
-825,
1004,
1310,
50,
1400,
-247,
149,
-611,
-603,
1,
-1314,
262,
100,
-252,
-83,
-420,
-876,
-2853,
-19,
-1378,
-242,
1296,
307,
223,
300,
529,
-769,
733,
1138,
32,
513,
-874,
813,
-480,
-144,
219,
1491,
902,
-636,
34,
1541,
-397,
592,
290,
-553,
-509,
-10,
-424,
1326,
8,
1990,
-666,
-608,
-168,
-610,
533,
1170,
412,
3454,
-1018,
632,
172,
325,
-725,
-1357,
3395,
-1422,
-292,
352,
-2167,
-659,
-148,
686,
-1172,
-398,
1097,
1154,
-219,
-346,
847,
-1472,
1072,
-1634,
324,
-659,
-77,
-1147,
1045,
893,
-172,
1015,
847,
-1642,
244,
247,
1527,
-743,
1275,
252,
840,
990,
792,
-376,
-109,
319,
-652,
-162,
600,
-138,
-667,
378,
-613,
-1550,
795,
-1387,
-152,
-396,
-1081,
2132,
-1151,
-507,
-303,
1,
1066,
940,
1236,
-136,
619,
158,
445,
-1561,
1836,
-434,
-749,
2901,
-257,
-638,
-1294,
695,
123,
-111,
-305,
553,
610,
-221,
-112,
-104,
-270,
-634,
210,
2320,
-1393,
1530,
562,
-258,
694,
-197,
-355,
480,
-231,
-799,
-1091,
-1030,
2393,
-1663,
-1897,
-307,
-587,
131,
-974,
-721,
445,
68,
849,
1224,
-950,
1270,
-220,
850,
770,
975,
889,
-416,
1111,
1330,
969,
-1552,
-703,
-926,
1008,
436,
1001,
-661,
836,
1066,
-1317,
-1100,
-292,
352,
222,
-1686,
-1339,
1522,
1260,
-250,
340,
-1739,
-1269,
-737,
854,
-2529,
1277,
-1136,
-679,
219,
430,
-922,
1458,
-1318,
534,
64,
-253,
-1533,
-223,
-51,
-50,
1196,
428,
60,
44,
79,
202,
-199,
-1241,
316,
-1384,
1282,
35,
-316,
1206,
-719,
118,
-704,
321,
40,
1072,
-500,
256,
-1539,
525,
41,
-1109,
-927,
-898,
726,
240,
371,
837,
724,
-1139,
1241,
1150,
-337,
465,
542,
394,
490,
-423,
1947,
375,
-713,
299,
558,
685,
-2079,
52,
701,
458,
-645,
-142,
94,
-135,
-541,
-332,
-1315,
-61,
-144,
-38,
-326,
-1248,
-244,
-179,
108,
753,
-1454,
37,
-197,
-558,
-801,
515,
912,
400,
-403,
5540,
-2509,
-669,
38,
59,
-371,
-190,
368,
84,
-978,
-90,
-1267,
-775,
3,
-1125,
-93,
-533,
681,
445,
-634,
1220,
-998,
1130,
1283,
568,
1101,
-532,
-940,
-191,
1752,
-511,
-618,
-386,
438,
-1234,
-146,
-1308,
-1131,
-1360,
-356,
133,
120,
416,
582,
1166,
357,
-606,
-362,
-953,
-814,
-461,
97,
986,
40,
-682,
-1685,
338,
1,
-427,
1139,
-1394,
-164,
-833,
7,
1108,
-1644,
179,
-1279,
24,
410,
448,
264,
740,
642,
787,
-644,
128,
-73,
-91,
1224,
870,
212,
-909,
2069,
-541,
191,
1437,
-718,
784,
-1933,
-1028,
-585,
411,
-624,
-104,
-280,
824,
-206,
-197,
-270,
60,
-574,
-263,
134,
-1143,
-73,
-750,
-630,
-512,
1383,
898,
1310,
-175,
521,
244,
183,
817,
66,
-167,
-706,
414,
-263,
924,
-169,
-1316,
-596,
964,
31,
97,
1097,
465,
-217,
-2192,
5874,
-41,
-576,
-579,
43,
84,
24,
-1120,
-860,
507,
-867,
372,
-350,
-968,
-1199,
-560,
2223,
775,
406,
1043,
678,
-1023,
-78,
620,
638,
1798,
-890,
2332,
-1086,
-2237,
-1101,
-282,
-1453,
-135,
716,
-1974,
-1936,
-3062,
323,
2023,
-850,
-1248,
-983,
-1184,
319,
-857,
2307,
-674,
-433,
-1571,
-1035,
-35,
-992,
-1207,
127,
411,
714,
1836,
1049,
-238,
-759,
2061,
-1778,
-564,
-1566,
-3,
-325,
-1161,
1998,
121,
-58,
85,
369,
1390,
-3089,
-2566,
1448,
50,
842,
1172,
-1383,
246,
171,
-134,
-108,
3270,
1645,
-1540,
-717,
1120,
-1632,
986,
488,
321,
2489,
-809,
-206,
-2550,
-167,
-1010,
399,
-115,
265,
-306,
273,
-635,
-623,
492,
199,
340,
-177,
-620,
-113,
-1451,
152,
309,
-282,
426,
-143,
958,
297,
-1573,
-975,
-1661,
301,
-372,
-294,
-836,
532,
431,
1397,
152,
142,
30,
-1170,
-504,
831,
500,
-397,
508,
-1215,
-460,
-3003,
-102,
-343,
-2549,
165,
3415,
-1912,
-425,
465,
-120,
570,
-776,
-1538,
-438,
-235,
-43,
138,
1118,
-443,
394,
-3124,
2,
1799,
-1534,
170,
-537,
-508,
-1750,
793,
402,
-1334,
-209,
2331,
517,
-356,
588,
-267,
-93,
-16,
4580,
-128,
239,
1022,
-170,
4201,
1536,
-1246,
904,
-1258,
556,
159,
-1979,
2379,
-1066,
-428,
4339,
2059,
-1493,
765,
951,
-986,
-215,
-361,
1013,
-165,
-1114,
779,
812,
-308,
-141,
453,
-136,
-234,
212,
-60,
634,
380,
-33,
1767,
573,
82,
-900,
-717,
82,
-90,
-521,
-986,
196,
-366,
-956,
401,
352,
306,
-162,
-953,
142,
-170,
-913,
-428,
308,
151,
2105,
-2974,
1225,
374,
209,
-927,
-225,
-315,
-27,
517,
1238,
-459,
-710,
-321,
-128,
-748,
-1962,
1353,
260,
-1839,
809,
1066,
-1986,
3383,
-121,
364,
2263,
312,
-1096,
-1046,
-285,
938,
-3,
-166,
1610,
-1252,
-346,
1,
-1474,
-1265,
942,
1679,
-33,
792,
1903,
-928,
-1814,
-212,
-229,
-24,
-613,
-595,
303,
-45,
-426,
1249,
-204,
-173,
-1349,
1022,
591,
65,
1758,
-1788,
-46,
2183,
-263,
2295,
1412,
1159,
-998,
-268,
-1187,
-254,
-2585,
154,
-13,
-401,
-336,
-266,
767,
210,
-299,
-1339,
-241,
673,
278,
-208,
-930,
12,
-563,
-380,
-883,
-976,
-764,
338,
-895,
996,
-364,
4422,
417,
-241,
1984,
-615,
720,
78,
1035,
-936,
-1029,
23,
257,
994,
118,
734,
-653,
-164,
-587,
-73,
-360,
-544,
378,
574,
113,
-339,
-419,
921,
27,
1296,
-315,
-666,
1418,
-800,
-1632,
1151,
-521,
-743,
-142,
-548,
550,
-541,
-83,
-360,
2547,
479,
155,
-1636,
1108,
-1247,
684,
-488,
-287,
-363,
-192,
19,
-1454,
547,
-904,
-402,
-1006,
-395,
-478,
311,
-730,
-173,
-240,
14,
-67,
-2332,
-2337,
-168,
-1994,
191,
-498,
-548,
6,
-1229,
-389,
-454,
-2485,
-583,
864,
-440,
-1069,
-1045,
-513,
-631,
-1134,
-2141,
134,
-127,
-287,
1723,
305,
-403,
1099,
65,
-492,
1031,
175,
-479,
307,
1099,
134,
368,
268,
-1350,
-174,
-1206,
-423,
1003,
-115,
245,
-751,
704,
-1334,
67,
-7,
-917,
412,
1146,
176,
-151,
356,
-1251,
-317,
72,
697,
-1307,
1226,
232,
107,
-1328,
317,
1247,
1154,
9,
284,
33,
-236,
46,
210,
-16,
-615,
284,
220,
1475,
1151,
-884,
563,
124,
380,
820,
342,
202,
980,
-311,
555,
-783,
-357,
-343,
-1042,
139,
848,
-518,
-493,
27,
-842,
767,
-341,
1419,
-684,
-1468,
-151,
-544,
4046,
733,
1410,
1485,
1420,
515,
448,
-198,
-170,
344,
-158,
-882,
-575,
-919,
870,
-1838,
-1656,
-563,
745,
-1527,
588,
583,
-464,
-670,
-1637,
-328,
-1055,
67,
3444,
888,
626,
-263,
-41,
1170,
-666,
-449,
2268,
-533,
491,
-486,
-924,
255,
309,
1293,
252,
-528,
-961,
-1044,
-943,
-1751,
-188,
1907,
-1581,
1899,
619,
334,
1114,
-1023,
1854,
-2091,
-1850,
-588,
-1135,
866,
375,
-2477,
-676,
1575,
-1227,
303,
789,
689,
-1303,
1224,
-661,
405,
1252,
-190,
-61,
716,
-1287,
-1203,
-675,
-202,
3939,
-1058,
1636,
-2128,
-808,
-603,
5,
631,
-628,
800,
-176,
-555,
-424,
1043,
236,
696,
669,
1749,
868,
-1959,
763,
-59,
-1414,
-1168,
2862,
-276,
-250,
1440,
498,
-451,
256,
-679,
-65,
1107,
380,
234,
2991,
1187,
-354,
187,
1561,
941,
-23,
-1123,
148,
922,
-1195,
-284,
-1070,
1118,
647,
96,
1006,
-447,
-1265,
403,
-204,
812,
1238,
1737,
5223,
-636,
-412,
1261,
-949,
-145,
-677,
-1108,
604,
-914,
-298,
-248,
-688,
1822,
-344,
-647,
1718,
73,
-1311,
1039,
-1151,
-843,
-606,
-1023,
2035,
-2534,
-162,
205,
-1145,
-1580,
-17,
-195,
-954,
-199,
22,
-100,
1445,
-137,
-1151,
-1279,
974,
1056,
577,
643,
78,
319,
-334,
406,
-74,
-77,
515,
-1252,
-874,
-213,
-772,
-613,
-1693,
-562,
-318,
-275,
-936,
316,
-94,
-910,
-1174,
-247,
1309,
-1671,
-670,
301,
667,
36,
1803,
3336,
318,
-890,
3118,
-40,
956,
-43,
855,
-482,
984,
777,
-948,
-95,
-442,
835,
-31,
-786,
-541,
166,
-541,
422,
309,
-735,
248,
17,
686,
-9,
601,
-1009,
-294,
-1349,
-452,
1666,
284,
1283,
-447,
-507,
-180,
-66,
649,
-490,
345,
680,
188,
-538,
-696,
-199,
-1100,
-841,
-53,
1278,
-1151,
-474,
761,
-368,
-99,
-952,
-322,
-693,
-642,
-601,
1251,
-1240,
-630,
391,
-1231,
661,
662,
911,
-19,
-179,
627,
1594,
411,
-1747,
-1225,
616,
1034,
-645,
196,
-258,
-477,
-1132,
3927,
1214,
26,
723,
3925,
309,
698,
679,
-195,
103,
-169,
-715,
3532,
-1051,
1425,
-689,
116,
320,
795,
783,
677,
-675,
1199,
-559,
-1350,
617,
-96,
-1304,
990,
519,
2291,
676,
-478,
-225,
-567,
-174,
806,
433,
1313,
-1689,
187,
2416,
223,
471,
-301,
-986,
429,
-120,
1753,
1014,
-76,
1870,
-454,
613,
847,
-1739,
1280,
252,
1262,
1540,
308,
1771,
-1573,
-856,
-539,
-1342,
974,
-425,
-643,
892,
-190,
-745,
-2234,
844,
106,
-446,
575,
2061,
781,
-339,
1370,
-263,
-865,
2098,
-2044,
162,
-1187,
1720,
-74,
534,
88,
-41,
-153,
-404,
2975,
-1079,
128,
-53,
-647,
-231,
103,
555,
-153,
3548,
334,
-1351,
-391,
276,
-122,
617,
49,
912,
1537,
-150,
1613,
-2074,
198,
805,
203,
331,
1358,
-84,
987,
-1784,
-409,
-292,
-309,
152,
98,
-519,
1698,
1399,
-1712,
1890,
1062,
1514,
-2008,
-915,
319,
-1126,
-667,
1628,
-1852,
-1455,
2061,
-1186,
3415,
-1036,
-10,
518,
-375,
-1564,
1426,
-3,
2189,
-1865,
450,
-1038,
-115,
-245,
-159,
-1895,
-1086,
930,
-1300,
-262,
-1439,
-1420,
-558,
-1784,
192,
616,
-2339,
-1510,
771,
-142,
-58,
240,
2799,
-1010,
-396,
956,
-537,
569,
-1059,
861,
-1039,
-1214,
665,
-1053,
-29,
7,
-254,
1179,
-2018,
-22,
1206,
-886,
-592,
-761,
-1450,
-912,
360,
276,
-2498,
-695,
-83,
663,
-360,
145,
-1347,
-194,
-2030,
-1800,
-916,
-282,
-1262,
-1847,
-107,
-391,
96,
-670,
-987,
-1888,
1089,
407,
-1148,
3240,
615,
-770,
-218,
-51,
-1028,
446,
-625,
-707,
-488,
-403,
907,
-720,
317,
581,
-213,
282,
-637,
-384,
1223,
765,
-621,
84,
-324,
302,
-83,
86,
231,
-1075,
1056,
-206,
555,
301,
312,
-1843,
374,
-35,
513,
-1920,
-1465,
-445,
281,
-139,
-729,
176,
-13,
1485,
-94,
-611,
2918,
1157,
-1996,
1650,
-347,
-978,
-52,
-817,
177,
-159,
-628,
-934,
-2968,
-1805,
1794,
-868,
-1141,
161,
-502,
-489,
336,
1419,
-533,
-21,
166,
-609,
-1032,
526,
1051,
707,
2105,
392,
694,
864,
253,
-192,
497,
305,
445,
887,
-449,
-742,
121,
-1028,
577,
66,
-685,
-430,
1626,
221,
774,
-1119,
1776,
-373,
972,
75,
595,
-26,
384,
645,
-2788,
-383,
-7,
1019,
-874,
426,
-1771,
12,
-198,
1443,
-1418,
-1432,
93,
-2294,
106,
-1271,
-372,
868,
913,
15,
271,
-515,
-693,
-570,
-1182,
320,
118,
-1257,
970,
-477,
934,
38,
-515,
342,
201,
315,
111,
1462,
294,
-736,
329,
764,
1184,
394,
-293,
-1253,
687,
534,
331,
496,
-39,
956,
547,
44,
11,
-44,
-255,
1896,
-552,
-270,
-2164,
-389,
-419,
980,
-485,
148,
-2632,
1319,
-465,
43,
-1410,
-633,
1197,
-202,
538,
-456,
-394,
1411,
78,
299,
465,
249,
178,
207,
-403,
732,
856,
596,
-139,
-69,
-70,
-1186,
810,
515,
-329,
292,
-1705,
412,
213,
-776,
-43,
-1329,
-182,
-19,
-131,
1344,
-4,
-386,
-974,
349,
-352,
-1845,
-1742,
1149,
-525,
776,
943,
1568,
1352,
888,
2708,
-1299,
-138,
418,
766,
-1683,
-854,
-1910,
-173,
-403,
-2247,
-2212,
-1747,
-1980,
-1328,
-932,
1260,
-118,
449,
-419,
-1080,
378,
1575,
-504,
-573,
-793,
-627,
-407,
432,
1040,
-707,
-877,
997,
171,
-39,
117,
-4,
-382,
109,
-1356,
517,
-1328,
-1260,
605,
-1073,
-339,
-638,
-155,
-1049,
-2185,
-3274,
-793,
-9,
-1461,
668,
37,
-610,
1166,
-619,
-228,
1679,
-1787,
-326,
512,
-1321,
1127,
-1303,
-707,
-1807,
1329,
-1181,
-1464,
1950,
-1801,
919,
367,
25,
557,
-1327,
1821,
378,
335,
-317,
-29,
1534,
-761,
901,
530,
-2227,
-518,
341,
-670,
710,
354,
51,
606,
-890,
97,
702,
-256,
114,
-1616,
412,
1160,
-521,
235,
886,
517,
412,
-1364,
-89,
-430,
686,
-192,
933,
-811,
771,
-35,
-375,
431,
-519,
-657,
-130,
-399,
-954,
1089,
-131,
-2126,
-197,
825,
209,
244,
1719,
-895,
466,
-1015,
1022,
410,
526,
405,
-205,
51,
301,
-18,
1388,
629,
-736,
-809,
1560,
-1519,
564,
-15,
-285,
-503,
-114,
377,
-1106,
-231,
745,
-897,
-43,
-3,
1,
-10,
-2,
10,
-5,
-5,
-1,
-10,
-6,
-5,
0,
-584,
109,
713,
666,
-571,
-267,
-87,
-1006,
168,
559,
32,
-411,
-282,
311,
-324,
-132,
-138,
-159,
-225,
-277,
-361,
-162,
-485,
613,
-971,
-248,
-88,
-153,
-593,
-671,
-407,
1575,
-408,
1189,
192,
1171,
0,
0,
0,
0,
0,
0,
0,
0,
0,
0,
0,
0,
1618,
-196,
-1270,
47,
-96,
-557,
-316,
1219,
-1089,
712,
1809,
-624,
483,
-121,
-999,
337,
-1507,
-474,
-533,
264,
237,
-681,
-722,
1931,
-312,
-502,
-322,
437,
697,
-788,
-1437,
-174,
-109,
913,
48,
-538,
-1287,
2046,
1196,
-313,
166,
533,
1728,
323,
1063,
1634,
-3,
-1467,
151,
2414,
-1764,
2249,
-427,
-1761,
3448,
-1447,
937,
322,
118,
-321,
500,
506,
124,
302,
331,
-686,
-591,
131,
127,
1185,
-1863,
-90,
-864,
-919,
-223,
-138,
-548,
-1498,
-849,
1396,
-516,
368,
-1977,
-144,
-1111,
28,
-43,
-949,
-716,
-2046,
-1342,
1843,
-950,
2088,
-537,
-371,
358,
-483,
825,
778,
1253,
-89,
164,
1800,
-44,
-273,
2210,
-767,
-320,
-1721,
2053,
-1111,
-1322,
-407,
-559,
-241,
316,
-2457,
189,
212,
161,
251,
-1056,
-463,
79,
1639,
2238,
2087,
1010,
388,
1141,
-1600,
788,
-1288,
-49,
-114,
-930,
-1047,
59,
-1413,
-883,
965,
1122,
2930,
-527,
-1105,
-757,
-1758,
-1184,
-661,
-916,
-220,
-1579,
-756,
-2039,
-551,
1019,
2019,
52,
773,
1145,
-910,
-701,
-1855,
600,
16,
-296,
-296,
-892,
2074,
-1507,
1630,
-699,
3185,
-1719,
-1194,
-839,
336,
61,
411,
-248,
402,
-634,
-1068,
228,
1053,
1391,
-392,
486,
-1131,
564,
59,
-94,
15,
-3174,
696,
757,
1147,
1995,
-1686,
-3208,
329,
407,
16,
-47,
232,
-984,
1656,
79,
1603,
-1089,
-1474,
1589,
113,
-1179,
66,
388,
1,
-446,
-219,
1917,
-1210,
-977,
-441,
146,
2037,
-1137,
-435,
1597,
-915,
87,
215,
-546,
246,
-312,
997,
-2164,
764,
673,
76,
425,
506,
-188,
-936,
487,
-48,
-606,
782,
704,
538,
1122,
117,
-124,
-1341,
443,
-762,
-439,
485,
-410,
421,
1184,
-601,
-252,
-1472,
1166,
-152,
284,
746,
778,
-104,
-199,
-436,
2597,
-338,
-369,
-602,
-390,
670,
333,
1352,
-176,
1281,
-1543,
-1404,
1891,
359,
-987,
-220,
-1054,
505,
36,
-1378,
-1915,
556,
537,
-1857,
-976,
-1462,
1499,
-623,
133,
-737,
309,
-521,
715,
-1393,
-747,
1414,
13,
-1761,
-26,
513,
1701,
-2002,
-158,
-1535,
-290,
-630,
-1775,
1598,
-3003,
1896,
-917,
-225,
599,
-775,
33,
444,
-105,
-1074,
1050,
-712,
1036,
771,
693,
-629,
-440,
498,
-610,
184,
37,
-995,
-79,
-1105,
245,
1127,
795,
1345,
-524,
609,
1888,
-631,
19,
-1346,
-678,
476,
-1024,
1584,
-125,
387,
767,
-1246,
-1258,
700,
-2201,
1742,
-1433,
241,
-188,
201,
-1352,
419,
-938,
-292,
-400,
568,
-805,
966,
-980,
-831,
-141,
2675,
-1164,
-453,
-402,
-1233,
296,
-379,
-807,
770,
-521,
-474,
-1164,
-158,
-275,
634,
0,
0,
0,
0,
0,
0,
0,
0,
1,
0,
0,
0,
919,
-768,
-1762,
342,
-1054,
-1019,
1397,
-33,
46,
671,
-240,
1225,
383,
-598,
-850,
268,
-16,
664,
-1122,
-741,
840,
-314,
358,
-61,
-95,
-913,
-1276,
296,
-656,
-260,
504,
-216,
-1335,
1626,
-1990,
-1386,
-207,
-1012,
47,
-600,
182,
-304,
1020,
-501,
-463,
-838,
-883,
480,
1745,
312,
-486,
318,
424,
-535,
-573,
1152,
-2469,
626,
185,
998,
-957,
-150,
-1017,
1051,
-640,
-688,
710,
-845,
-829,
518,
-1208,
-1579,
545,
-847,
875,
-351,
56,
58,
180,
-225,
2810,
2413,
-94,
-64,
236,
-1215,
272,
-84,
-881,
-1000,
288,
-732,
2024,
-952,
-10,
-839,
-973,
-1362,
-172,
695,
-959,
788,
-354,
-1520,
1540,
-1179,
-1714,
-1096,
1031,
1527,
-446,
-300,
-248,
-673,
-549,
3246,
948,
1012,
-1167,
134,
1640,
-1207,
-1379,
332,
451,
316,
-593,
362,
-754,
-701,
1255,
2283,
-1703,
-338,
1876,
-574,
-501,
81,
8,
-999,
862,
449,
-1143,
-1115,
1362,
-668,
-358,
123,
1296,
-671,
-625,
-1011,
1942,
-1223,
-738,
941,
271,
2,
348,
118,
-679,
329,
560,
881,
-1705,
505,
-634,
189,
863,
935,
-1112,
-1197,
1085,
637,
-559,
1784,
1652,
-485,
380,
-447,
356,
58,
-1916,
-691,
1504,
-846,
-88,
1788,
1315,
1272,
-730,
201,
429,
-1475,
557,
-197,
10,
368,
399,
-788,
1460,
2930,
1356,
-407,
1854,
-1210,
1754,
1250,
-1609,
1056,
-833,
2017,
1353,
-1516,
-1018,
-878,
926,
-3,
124,
843,
1281,
422,
-1409,
-16,
3185,
61,
264,
-572,
354,
-159,
-1017,
344,
1696,
-94,
-83,
438,
-425,
556,
2183,
-622,
35,
555,
-609,
-502,
550,
527,
-1268,
-2199,
-43,
578,
-247,
-1019,
1037,
-681,
-1022,
1019,
1933,
-849,
-363,
-563,
3081,
262,
914,
41,
-830,
-716,
1138,
452,
-1031,
365,
-333,
-1326,
-644,
1079,
-1399,
-1,
-720,
721,
-704,
-813,
236,
278,
281,
-2330,
545,
-1273,
-424,
-789,
1199,
541,
-1086,
312,
866,
-2286,
-1445,
-1216,
-2102,
2609,
100,
-1449,
-542,
734,
-541,
-906,
-600,
-117,
571,
610,
1089,
-2715,
-697,
-665,
385,
84,
-493,
-141,
-560,
-1086,
-1317,
-2150,
-846,
1637,
-761,
57,
-832,
350,
1046,
925,
-1145,
-1920,
2432,
-472,
736,
1163,
-1909,
-905,
-1161,
504,
363,
-704,
2778,
-1560,
-1868,
-178,
-878,
-767,
-1579,
603,
-1271,
-399,
576,
-77,
-633,
-61,
71,
142,
587,
1651,
-1479,
-424,
487,
-159,
-798,
-93,
1681,
-463,
-403,
-1380,
346,
-1597,
-808,
477,
-233,
-645,
356,
-310,
-1125,
479,
184,
1236,
240,
-542,
785,
-334,
-165,
963,
-491,
847,
537,
647,
848,
-1890,
-809,
1330,
627,
928,
-591,
-417,
-919,
685,
-249,
275,
-269,
1093,
363,
120,
459,
-314,
-516,
10,
393,
582,
1052,
1433,
550,
307,
585,
46,
1028,
146,
483,
820,
490,
58,
-520,
-35,
134,
-711,
167,
-65,
1103,
1022,
-1559,
-495,
-9,
-675,
-1199,
-798,
-67,
870,
8,
-947,
735,
-727,
0,
0,
0,
0,
0,
0,
0,
0,
0,
0,
0,
0,
-992,
169,
-1194,
-511,
35,
560,
161,
976,
-861,
-621,
-1298,
-227,
-360,
873,
204,
-140,
-560,
-503,
-637,
456,
-116,
135,
-242,
793,
23,
-361,
-262,
-443,
1075,
13,
-441,
-166,
641,
-936,
-774,
-42
};

#endif