#ifndef __MMCBLOCK3_MMLAYER3_BRANCH33A_CONV_0_WEIGHT_H__
#define __MMCBLOCK3_MMLAYER3_BRANCH33A_CONV_0_WEIGHT_H__

// MMCBlock3_mmLayer3_branch33a_conv_0_weight
// (3, 3, 12, 12)
const int MMCBlock3_mmLayer3_branch33a_conv_0_weight[] = {
537,
106,
617,
-589,
1368,
-1,
-959,
523,
1445,
-282,
-555,
-769,
201,
1526,
-482,
-235,
885,
-48,
-210,
-102,
273,
-268,
-620,
-604,
-165,
-315,
-649,
-585,
859,
-373,
-64,
280,
-292,
-161,
176,
-195,
-539,
-49,
499,
397,
641,
306,
823,
-772,
-172,
377,
215,
-82,
642,
-429,
157,
148,
-71,
-11,
-707,
329,
-1066,
-3,
675,
-159,
-450,
-228,
-51,
463,
41,
-337,
-572,
-1142,
954,
-214,
-76,
424,
-420,
-695,
-563,
585,
-33,
-200,
1069,
-297,
428,
-16,
-190,
-104,
915,
3,
788,
-483,
-378,
130,
-551,
143,
-588,
-165,
572,
59,
607,
-127,
309,
-744,
-903,
-541,
-359,
-67,
-1500,
-55,
-150,
1,
-856,
1008,
-558,
557,
426,
582,
239,
274,
748,
-735,
-6,
1052,
470,
-255,
-228,
472,
-956,
560,
-557,
-461,
-160,
-1007,
44,
-9,
1526,
-764,
-253,
1015,
-475,
-101,
290,
86,
-844,
-8,
-333,
764,
-294,
-135,
-186,
-1735,
-505,
378,
-1478,
2421,
1935,
-525,
-738,
458,
-645,
1502,
-792,
136,
211,
-115,
-547,
-508,
684,
-778,
-88,
1510,
-952,
-438,
522,
-541,
707,
-1256,
649,
268,
-395,
897,
-257,
-486,
-1120,
-835,
-158,
958,
-140,
-93,
1000,
-842,
-147,
1605,
372,
-349,
854,
-87,
-192,
509,
-287,
-32,
140,
-313,
-149,
-798,
929,
-425,
-181,
-305,
-449,
944,
-477,
-12,
1301,
-1647,
445,
-210,
250,
-59,
131,
-340,
-616,
-500,
-546,
-26,
390,
-427,
43,
-661,
-464,
-444,
652,
360,
-258,
823,
-725,
43,
-641,
-367,
-1012,
-771,
1320,
288,
666,
-249,
1072,
-1327,
-1186,
-93,
-317,
810,
-1116,
470,
-547,
-168,
-1330,
626,
-400,
1495,
-238,
118,
889,
-329,
173,
-250,
361,
220,
657,
-349,
-249,
396,
-773,
-145,
-225,
-555,
170,
-504,
139,
-414,
2545,
70,
212,
-47,
-816,
-104,
320,
-406,
-414,
13,
-176,
417,
244,
-653,
-29,
-228,
786,
71,
-833,
565,
972,
-810,
-415,
287,
-229,
-683,
-816,
83,
1092,
-224,
-591,
-204,
360,
-251,
-559,
1111,
35,
283,
1472,
-430,
580,
-279,
-165,
-298,
-419,
459,
69,
37,
-534,
-86,
-906,
807,
347,
295,
1167,
-540,
-77,
458,
172,
-38,
868,
81,
-543,
-227,
-431,
-25,
-311,
-481,
-203,
-201,
192,
-164,
-481,
337,
-980,
629,
-28,
-234,
-24,
-1122,
1096,
-498,
-168,
-250,
205,
-418,
-483,
877,
-414,
-192,
1247,
-228,
98,
17,
77,
-103,
725,
-790,
-259,
110,
-223,
-20,
-793,
212,
-1002,
151,
814,
-552,
823,
-44,
1697,
-150,
-1276,
-251,
-569,
188,
-1159,
19,
273,
-517,
-760,
1279,
-1382,
741,
579,
306,
154,
182,
630,
-801,
-131,
433,
120,
-582,
-1156,
56,
-1238,
486,
-813,
-442,
182,
-904,
-180,
-317,
2143,
529,
398,
837,
367,
-62,
540,
-69,
-608,
-126,
-187,
-556,
87,
750,
-38,
364,
45,
-73,
-684,
-188,
106,
56,
76,
-873,
-558,
1230,
922,
-13,
2142,
137,
-12,
79,
923,
-947,
-648,
-1220,
137,
-580,
-739,
-437,
-655,
-1133,
-523,
-116,
-324,
953,
-312,
203,
241,
-1261,
-411,
-129,
17,
230,
597,
-341,
-222,
584,
275,
63,
501,
693,
293,
-252,
-656,
-107,
-1279,
-185,
-428,
-316,
259,
-648,
-193,
-1096,
-404,
82,
21,
-108,
1712,
-373,
439,
-174,
-457,
398,
737,
-267,
-303,
566,
332,
-111,
871,
-405,
90,
264,
473,
95,
122,
-703,
173,
-1066,
-550,
293,
18,
211,
163,
-735,
188,
-271,
-274,
1941,
396,
-159,
467,
-130,
-899,
-443,
-232,
163,
196,
-1403,
68,
-1352,
-160,
-301,
242,
69,
859,
-51,
90,
-347,
-2,
1538,
-749,
386,
610,
173,
-244,
291,
-382,
75,
75,
-578,
-204,
-61,
95,
0,
-133,
199,
1191,
77,
860,
347,
-307,
-909,
175,
-488,
-309,
-578,
-253,
-253,
-347,
-64,
-588,
-119,
-131,
393,
-1229,
119,
4,
-78,
-562,
401,
91,
341,
1502,
173,
-548,
-333,
-641,
-246,
-930,
-678,
-593,
-372,
-889,
-1765,
283,
94,
-456,
610,
-699,
-725,
91,
-337,
130,
251,
-318,
-273,
-361,
-485,
221,
542,
-11,
-207,
-111,
1077,
197,
-189,
-87,
78,
198,
88,
-473,
-948,
-265,
-408,
202,
-274,
-544,
191,
-263,
-167,
1800,
-505,
-328,
-604,
-356,
-471,
390,
-18,
-446,
-366,
-456,
-47,
355,
-131,
-548,
-402,
281,
553,
-87,
-70,
-33,
88,
-633,
62,
-683,
-777,
-250,
-1030,
-430,
805,
-598,
-143,
-565,
-521,
320,
268,
-179,
74,
-798,
298,
-1032,
-35,
794,
119,
212,
-48,
-424,
-614,
882,
-400,
-359,
85,
300,
-185,
-693,
630,
378,
822,
41,
-455,
257,
117,
274,
613,
-145,
501,
-1061,
-23,
-481,
-88,
706,
8,
1218,
94,
-142,
-776,
-1588,
703,
-543,
-603,
-640,
793,
42,
-200,
-434,
-235,
128,
-180,
120,
515,
-40,
-1242,
-786,
-139,
1995,
132,
-359,
403,
610,
-973,
-265,
1061,
337,
349,
269,
-420,
-1099,
-1207,
-477,
-524,
-612,
803,
-187,
-437,
758,
307,
-747,
-83,
248,
162,
877,
171,
34,
681,
-68,
-756,
-168,
590,
-266,
-955,
275,
265,
858,
529,
-138,
-597,
234,
-470,
-124,
410,
-604,
14,
927,
-205,
1706,
-389,
92,
-819,
-205,
-984,
6,
-191,
-705,
533,
426,
-104,
462,
-419,
46,
123,
350,
32,
-32,
-721,
247,
-707,
-1149,
81,
-1712,
451,
-440,
-236,
833,
89,
-112,
-2088,
414,
-174,
74,
-80,
-1133,
-653,
-332,
154,
257,
1497,
316,
1511,
-556,
-273,
53,
-246,
629,
16,
267,
-335,
264,
-1496,
-610,
-406,
-559,
-140,
-315,
223,
-159,
-194,
363,
-330,
-310,
178,
-355,
-561,
149,
261,
681,
80,
1004,
435,
-84,
-756,
217,
77,
-46,
-62,
-982,
1611,
-433,
114,
-201,
-1027,
-821,
-840,
129,
-617,
1293,
-1133,
904,
597,
-412,
-107,
780,
-273,
784,
-710,
893,
-1169,
-295,
-289,
-421,
78,
-497,
-611,
-970,
-207,
529,
100,
-296,
53,
490,
-138,
-108,
-871,
385,
149,
93,
789,
-835,
653,
-59,
303,
672,
817,
-374,
291,
-158,
-212,
-617,
545,
-748,
-232,
-681,
-452,
-348,
-901,
-608,
-721,
-591,
-73,
916,
1172,
-296,
-514,
-400,
-96,
762,
323,
107,
-271,
2814,
305,
697,
-464,
-100,
168,
46,
-267,
-865,
-190,
266,
-823,
-301,
173,
993,
346,
760,
-219,
574,
305,
-679,
630,
1459,
770,
186,
2,
-578,
-999,
862,
-172,
473,
-1482,
157,
-602,
176,
-921,
-20,
458,
933,
716,
-408,
-484,
702,
833,
395,
847,
1084,
-458,
-322,
733,
115,
113,
-862,
-989,
-308,
-508,
-512,
1211,
214,
-78,
801,
23,
945,
456,
155,
-295,
1031,
-642,
-231,
761,
-477,
2761,
329,
-391,
103,
-799,
-1035,
-544,
-422,
917,
1104,
-1141,
350,
-351,
-1738,
69,
695,
-844,
601,
-396,
2492,
-838,
-980,
9,
9,
-159,
-287,
-1495,
234,
-28,
339,
1015,
-876,
137,
1020,
850,
110,
-1052,
-572,
-263,
-1288,
1078,
-1027,
949,
-553,
835,
340,
558,
210,
-267,
-229,
319,
-419,
837,
-425,
-481,
256,
-565,
-65,
39,
6,
-1267,
-1023,
-140,
-341,
860,
-515,
-872,
-586,
-149,
880,
-271,
601,
-794,
2637,
682,
272,
-144,
-279,
-100,
-639,
-202,
-689,
-12,
-850,
-223,
-824,
244,
-572,
1892,
-659,
-1019,
-134,
297,
-847,
-851,
403,
1018,
1128,
62,
1111,
-1040,
1019,
876,
1718,
-608,
514,
440,
284,
-582,
585,
-233,
170,
1372,
-1037,
-254,
-830,
507,
180,
-78,
227,
-313,
-347,
289,
661,
196,
-567,
-237,
878,
-360,
-747,
86,
-39,
-763,
632,
161,
957,
326,
-688,
-267,
994,
-10,
190,
-188,
-389,
1868,
295,
-3,
80,
-996,
-859,
-459,
13,
-133,
1107,
-1151,
-525,
549,
-372,
-294,
492,
-230,
747,
-723,
1023,
-942,
-167,
242,
-720,
16,
-606,
-531,
-614,
-238,
281,
-417,
-475,
-16,
792,
582,
-165,
-935,
405,
169,
-295,
517,
-527,
682,
-184,
-175,
-295,
32,
-687,
-194,
507,
350,
1738,
-287,
966,
-134,
829,
-664,
160,
-198,
329,
-1072,
-269,
-285,
595,
1065,
-47,
-516,
-285,
-629,
879,
-499,
-644,
-555,
2833,
143,
19,
-53,
-620,
132,
-151,
1027,
-435,
-367,
52,
-745,
-562,
-163,
-420,
913,
115,
20,
-166,
-197,
-428,
-1993,
-371,
605,
1098,
-206,
-350,
-710,
767,
143,
649,
691,
-359,
786,
-33,
-861,
-171,
252,
699,
1113,
-506,
-559,
414,
68,
268,
-360,
-917,
-734,
-60,
539,
352,
259,
-692,
-757,
-215,
304,
-300,
-469,
-234,
8,
448,
-164,
367,
536,
200,
-222,
910,
1052
};

#endif