#ifndef __MMCBLOCK1_MMLAYER2_BRANCH33B_CONV_0_WEIGHT_H__
#define __MMCBLOCK1_MMLAYER2_BRANCH33B_CONV_0_WEIGHT_H__

// MMCBlock1_mmLayer2_branch33b_conv_0_weight
// (3, 3, 12, 6)
const int MMCBlock1_mmLayer2_branch33b_conv_0_weight[] = {
-1889,
-659,
189,
-1279,
2520,
-453,
768,
-1347,
493,
2214,
495,
-101,
-984,
-244,
-541,
-555,
839,
995,
-982,
-308,
-1358,
-1604,
-1619,
1599,
2161,
964,
-2784,
733,
-773,
-2175,
-647,
710,
-394,
-2525,
-506,
-186,
-1667,
-1989,
-143,
-292,
1840,
-384,
-1124,
-298,
2080,
428,
-2929,
-993,
970,
514,
719,
-674,
-1054,
-389,
33,
367,
-99,
-374,
-505,
-272,
913,
194,
1139,
-352,
-1858,
-993,
-1394,
613,
-880,
173,
151,
-257,
-1667,
-1334,
1344,
-208,
-574,
1061,
-648,
133,
808,
-829,
828,
-545,
-602,
-1453,
-1611,
-1378,
-756,
-1626,
-536,
-475,
171,
-54,
1952,
1275,
2300,
982,
-3341,
145,
-864,
-1812,
-1515,
931,
-354,
-2474,
979,
-763,
-745,
-551,
3490,
112,
-1821,
1035,
-1016,
-230,
-80,
-1434,
961,
84,
1559,
-1265,
-1195,
216,
1710,
-363,
-87,
-831,
1366,
-404,
-994,
-637,
1193,
-1570,
1501,
334,
1901,
-132,
-1165,
205,
1108,
1534,
83,
507,
-1306,
-660,
439,
-905,
-4630,
892,
-1052,
701,
-942,
-382,
-661,
-37,
-826,
-402,
-353,
-779,
-142,
123,
-813,
-1582,
-734,
-691,
-1215,
1178,
765,
949,
-2024,
611,
-836,
-1097,
-1139,
415,
-1172,
-2259,
-318,
117,
-2210,
-2025,
851,
-631,
-891,
564,
-46,
-976,
-903,
536,
-1208,
898,
939,
-1071,
222,
163,
29,
-195,
-828,
-166,
1036,
1605,
1822,
-460,
796,
417,
362,
-806,
739,
449,
-1483,
-38,
352,
466,
519,
-393,
880,
975,
-823,
346,
3172,
-241,
907,
-1141,
-1432,
3294,
-24,
1932,
97,
-1088,
-909,
-339,
-121,
-65,
-361,
-189,
-2082,
-206,
-834,
88,
154,
-827,
-99,
-803,
3678,
554,
247,
169,
261,
-221,
-56,
-921,
-3326,
-1442,
551,
-602,
-327,
-2029,
702,
214,
1466,
1288,
-3074,
-87,
1436,
1015,
-659,
512,
-687,
-153,
-757,
136,
-849,
-2156,
-1766,
16,
38,
564,
324,
-2124,
-1009,
-587,
1646,
273,
1209,
-20,
841,
-935,
151,
216,
1331,
1113,
-1495,
663,
937,
186,
-289,
180,
1276,
-181,
556,
-2333,
-2270,
-1293,
-1782,
-2963,
-302,
699,
-2417,
2710,
250,
593,
-133,
-701,
-148,
-928,
-1268,
-349,
168,
-286,
2050,
899,
1315,
-854,
-2302,
-100,
1438,
-216,
-61,
-1320,
521,
714,
-37,
423,
2475,
378,
865,
-679,
746,
-1162,
1195,
-659,
232,
-427,
-847,
1255,
-180,
640,
425,
-605,
-1599,
-1094,
133,
1437,
777,
-46,
282,
1246,
1281,
1350,
975,
681,
-414,
1181,
-5628,
456,
125,
794,
-1211,
-1828,
-931,
-115,
236,
-1176,
-1025,
-631,
611,
-972,
7,
-220,
-764,
1086,
-1978,
190,
-342,
-150,
118,
-1197,
2120,
528,
533,
0,
1108,
1446,
-1461,
-1020,
-3686,
-1655,
563,
-1073,
342,
-1570,
1040,
0,
318,
1063,
-3457,
697,
376,
-532,
1483,
-564,
-853,
121,
444,
455,
1236,
2495,
2386,
609,
413,
-3,
727,
-2442,
-480,
-526,
1951,
-19,
1244,
-361,
1966,
-660,
-405,
-543,
-2252,
-1268,
3053,
-1864,
-43,
-1348,
-91,
571,
92,
1047,
-1207,
169,
759,
333,
397,
1357,
-489,
596,
907,
-1990,
-987,
-691,
177,
-1041,
91,
8,
2016,
-500,
-320,
-959,
141,
208,
-1346,
220,
4055,
-2430,
-4806,
-512,
2692,
-2012,
-713,
-537,
-2076,
1580,
-2135,
-225,
-1730,
335,
179,
56,
338,
-642,
-694,
550,
-417,
-1545,
-729,
-492,
-749,
388,
-837,
-1692,
-1725,
-245,
-1687,
386,
235,
-729,
-1524,
-427,
-1783,
152,
-952,
-133,
-1267,
-453,
478,
-309,
202,
-337,
1479,
1251,
-748,
-1088,
-214,
-601,
-518,
-595,
-808,
839,
1795,
-1489,
1353,
-7,
273,
-889,
-625,
-59,
-1137,
-316,
-1221,
-795,
-1017,
3394,
1334,
1691,
2052,
-541,
-1429,
-73,
-2797,
-700,
-705,
421,
1799,
-2572,
2585,
-1311,
-1282,
-480,
-2187,
2118,
891,
-1067,
202,
-319,
-1512,
516,
-926,
38,
-295,
519,
-2590,
-222,
94,
45,
-1660,
-960,
1706,
-794,
-157,
477,
-1343,
-410,
-380,
-1359,
-4810,
-1448,
-23,
726,
-586,
-1602,
-1306,
-20,
-855,
124,
960,
-4,
292,
981,
569,
-237,
1415,
-1009,
-700,
-679,
139,
-942,
655,
-258,
-76,
-622,
-532,
-499,
564,
449,
-1420,
432,
3053,
-2469,
-3964,
-474,
-1972,
-1869,
-137,
-644,
1372,
-466,
-1986,
-276,
-890,
-458,
-1354,
1410,
-1144,
-248,
-1197,
-181,
-301,
-721,
2833,
427,
-511,
876,
-175,
-1894,
-584,
-637,
-923,
-271,
96,
-1125,
-1093,
613
};

#endif