#ifndef __MMCBLOCK2_MMLAYER4_BRANCH33B_CONV_0_WEIGHT_H__
#define __MMCBLOCK2_MMLAYER4_BRANCH33B_CONV_0_WEIGHT_H__

// MMCBlock2_mmLayer4_branch33b_conv_0_weight
// (3, 3, 12, 6)
const int MMCBlock2_mmLayer4_branch33b_conv_0_weight[] = {
552,
1173,
-1463,
-51,
-1081,
167,
-1766,
163,
1772,
495,
23,
-114,
452,
-224,
-83,
-117,
-518,
-152,
577,
993,
-316,
-624,
-456,
523,
663,
-1536,
-1336,
-153,
-768,
-163,
1177,
-392,
1090,
65,
594,
-285,
375,
603,
360,
-412,
-787,
-238,
278,
837,
-1078,
283,
53,
130,
112,
378,
-673,
730,
-7,
147,
-1055,
-123,
-2173,
-556,
-175,
1299,
-705,
-694,
-1113,
1157,
-419,
1028,
-511,
-517,
-1015,
-233,
-837,
-329,
379,
20,
-75,
55,
-1186,
-278,
-719,
519,
-112,
256,
224,
-1132,
570,
194,
-539,
-111,
-39,
-231,
-1105,
267,
-98,
-314,
-1246,
23,
350,
328,
-723,
45,
-1235,
-63,
-187,
-436,
397,
124,
572,
-311,
-1537,
-85,
-2588,
-166,
-1048,
229,
442,
349,
-470,
9,
-752,
230,
925,
-46,
519,
-41,
-47,
190,
2279,
-759,
246,
-1296,
-286,
634,
-1846,
93,
112,
495,
-917,
244,
941,
-528,
-1424,
284,
-696,
295,
-128,
-1659,
-429,
27,
-586,
74,
-1782,
317,
-921,
663,
308,
-279,
-136,
-124,
-124,
-8,
-666,
-212,
302,
1307,
755,
31,
-1025,
483,
682,
1284,
133,
105,
-482,
238,
1275,
-601,
-1106,
36,
267,
-493,
-1461,
-755,
-114,
1079,
-445,
1259,
1908,
-77,
42,
-664,
-10,
-371,
255,
188,
1164,
348,
129,
111,
-706,
-427,
1417,
-788,
-205,
1488,
247,
630,
-1502,
-671,
-918,
-523,
-675,
-572,
-195,
22,
-610,
-433,
-586,
822,
-593,
59,
-918,
438,
-589,
-26,
1270,
561,
294,
587,
-1132,
-13,
264,
-318,
-11,
340,
-417,
1030,
911,
-116,
-989,
516,
241,
-1247,
301,
173,
-573,
-4,
-310,
-40,
1015,
111,
243,
92,
3151,
149,
1788,
-1095,
-775,
-951,
372,
247,
1986,
108,
-174,
-425,
-1009,
171,
-412,
675,
542,
211,
-488,
-126,
-1410,
-427,
239,
39,
-1729,
309,
-1937,
2089,
-750,
1259,
-1450,
-862,
1427,
-266,
-775,
-657,
1,
-100,
147,
281,
-883,
232,
264,
229,
-75,
-518,
-134,
-371,
-265,
301,
-160,
-745,
725,
112,
-1541,
-955,
-470,
377,
-843,
-71,
-112,
82,
-32,
245,
-1153,
192,
-2035,
62,
-187,
166,
86,
-51,
760,
14,
1157,
-177,
-870,
-197,
-294,
-166,
-347,
456,
-479,
-209,
-1454,
43,
-166,
-80,
475,
0,
1767,
-791,
509,
-636,
93,
-439,
199,
-419,
-855,
103,
-571,
-107,
-1432,
937,
359,
651,
-929,
937,
140,
-1355,
-511,
3,
-417,
214,
-716,
-205,
-1619,
442,
794,
588,
-569,
-368,
-1150,
-404,
-68,
222,
165,
1095,
125,
-191,
-1260,
545,
-470,
827,
-908,
123,
-1042,
148,
-2,
-176,
-980,
29,
-34,
-228,
-1111,
315,
1859,
1994,
-711,
959,
33,
17,
-573,
-19,
197,
-93,
-1621,
114,
393,
597,
815,
252,
-622,
25,
2062,
-368,
83,
408,
3891,
-338,
-807,
-1076,
-1089,
-792,
-1250,
-987,
-13,
58,
-459,
-512,
22,
473,
1249,
-512,
-747,
6,
42,
-227,
-2199,
-166,
588,
1669,
-565,
-216,
1140,
28,
-376,
-82,
-431,
804,
57,
-229,
-716,
218,
661,
-1003,
1288,
310,
-216,
-148,
550,
-27,
69,
-737,
-419,
163,
-323,
-194,
608,
-1077,
-374,
-1275,
2218,
-63,
1057,
-216,
-122,
-171,
-1763,
188,
-1399,
892,
-63,
-92,
-298,
890,
52,
888,
342,
-653,
-12,
28,
-421,
941,
-123,
1278,
-815,
-1050,
728,
260,
-176,
-204,
-478,
-55,
1379,
59,
-841,
85,
4319,
-531,
-18,
-1488,
188,
344,
-32,
596,
-992,
-110,
415,
-316,
-31,
-1103,
138,
-587,
-98,
128,
-385,
-90,
206,
144,
-806,
38,
-445,
-246,
35,
-685,
-599,
188,
-526,
191,
-351,
447,
-749,
95,
20,
-250,
893,
685,
-657,
520,
-798,
-366,
-168,
-201,
-35,
-643,
-13,
529,
228,
1151,
-60,
-936,
348,
205,
-285,
203,
-439,
-325,
621,
237,
953,
383,
-845,
412,
1091,
-1125,
-1931,
205,
-441,
-190,
-570,
-351,
1451,
-625,
656,
1580,
-794,
103,
-1658,
-36,
-336,
-33,
403,
676,
-228,
-42,
-316,
247,
988,
174,
-1606,
-697,
-345,
226,
263,
-162,
-181,
-706,
-359,
104,
418,
-248,
-342,
1547,
-216,
1239,
-928,
-17,
663,
778,
-558,
284,
-1380,
-2,
1757,
542,
146,
-180,
-780,
320,
-256,
657,
112,
-644,
-1605,
-121,
-2346,
-567,
55,
-1024,
-278,
-1352,
443,
176,
-281,
-342
};

#endif