#ifndef __MMCBLOCK2_MMLAYER2_BRANCH33A_CONV_0_WEIGHT_H__
#define __MMCBLOCK2_MMLAYER2_BRANCH33A_CONV_0_WEIGHT_H__

// MMCBlock2_mmLayer2_branch33a_conv_0_weight
// (3, 3, 12, 12)
const int MMCBlock2_mmLayer2_branch33a_conv_0_weight[] = {
-15,
-887,
-213,
475,
-1,
240,
626,
-847,
559,
399,
-1121,
-32,
-104,
-355,
-1708,
507,
208,
-157,
-467,
-446,
241,
-321,
-1619,
1101,
789,
493,
-1358,
-805,
-572,
-780,
179,
-329,
1195,
-352,
2177,
-1332,
-230,
-498,
1223,
302,
-887,
-874,
1425,
523,
-535,
560,
-1932,
1470,
-499,
-1035,
-162,
98,
914,
740,
-508,
318,
-691,
156,
-197,
41,
747,
-54,
975,
-530,
397,
625,
272,
-2496,
-102,
-724,
249,
-49,
-478,
812,
498,
391,
-465,
669,
-925,
901,
384,
-567,
2112,
-137,
-372,
-2155,
155,
2076,
385,
109,
27,
148,
-2032,
1047,
836,
793,
-114,
-611,
2923,
413,
923,
852,
-912,
-795,
-822,
503,
213,
-44,
-535,
356,
745,
308,
-116,
-534,
456,
1072,
-84,
830,
-1933,
506,
360,
1196,
-382,
-502,
1842,
-293,
-685,
-505,
281,
-897,
1173,
-626,
361,
299,
-1913,
299,
272,
184,
-1250,
1170,
1555,
-566,
1395,
-314,
-655,
443,
620,
-301,
-1345,
-105,
-1700,
-235,
253,
719,
-612,
255,
0,
-291,
-2088,
-329,
-1094,
173,
1581,
-969,
-744,
-68,
-473,
70,
-176,
-795,
-1121,
-378,
-149,
-705,
1126,
278,
1863,
-103,
226,
-821,
-70,
-106,
777,
70,
-2302,
-831,
-3278,
465,
13,
-612,
1,
1465,
1107,
-1252,
4,
-78,
-1932,
-66,
-2106,
517,
-1621,
429,
-114,
538,
-433,
-392,
1386,
-719,
2033,
134,
-434,
-1098,
1493,
-50,
-387,
-700,
-117,
-908,
-484,
54,
3838,
784,
4332,
1009,
98,
-324,
68,
-1051,
-374,
-833,
397,
1294,
-2105,
-396,
-1659,
273,
-3267,
418,
-7,
799,
763,
60,
3437,
-313,
1487,
152,
-1674,
-540,
-277,
-163,
-936,
-296,
691,
450,
284,
-31,
-1343,
-749,
-2036,
1273,
107,
-920,
356,
-188,
-641,
-2878,
14,
-208,
766,
566,
357,
-484,
363,
-771,
-373,
-322,
-220,
-208,
-1723,
-321,
-235,
638,
1753,
-757,
587,
24,
-406,
-600,
1049,
-425,
-527,
-105,
542,
26,
169,
209,
312,
-1194,
270,
862,
81,
-1030,
-2582,
103,
-252,
738,
469,
9,
-665,
-199,
842,
-559,
-635,
1038,
144,
-897,
589,
-582,
-465,
-1683,
781,
1127,
-908,
-694,
164,
-395,
-528,
253,
1120,
-328,
-52,
530,
-294,
-6,
1444,
1371,
78,
-1061,
-371,
-35,
-1584,
519,
797,
176,
-428,
-398,
1591,
-101,
-152,
232,
2103,
-235,
-477,
-140,
-401,
1273,
988,
332,
-1369,
-288,
-351,
1155,
236,
127,
-413,
576,
-510,
572,
143,
23,
-2380,
214,
1085,
-2285,
-660,
1834,
220,
-20,
760,
-132,
-1728,
-774,
668,
1047,
-745,
-543,
951,
959,
-948,
-65,
833,
-108,
839,
167,
-582,
587,
596,
159,
-210,
624,
707,
-122,
335,
-54,
269,
-260,
696,
-132,
-713,
1397,
1159,
-546,
-1008,
-215,
1635,
-294,
446,
485,
-963,
-563,
-140,
-1049,
-1658,
302,
-466,
671,
890,
-1263,
45,
547,
715,
-121,
-349,
-691,
115,
956,
-734,
-76,
-2,
-601,
452,
784,
-634,
-490,
-502,
-338,
1394,
-474,
-1303,
150,
-289,
790,
1113,
1485,
54,
-170,
2537,
-96,
564,
-1166,
2512,
-656,
-1525,
1272,
-613,
-2094,
-305,
-476,
-1094,
-801,
-391,
807,
-1530,
-1443,
3122,
-816,
-633,
1645,
737,
-791,
-1387,
-868,
-366,
-51,
-1113,
-201,
261,
29,
-281,
1508,
-573,
-21,
1556,
261,
-232,
-21,
1618,
-514,
1327,
-1930,
-904,
-1361,
-1941,
880,
518,
647,
623,
-209,
1651,
110,
-3053,
820,
41,
-359,
-475,
561,
-825,
-1401,
-21,
848,
-378,
-433,
304,
-939,
599,
1705,
-1024,
-220,
-384,
-743,
-1599,
1403,
1733,
-725,
881,
-787,
-700,
97,
-57,
460,
-1375,
-356,
-63,
364,
-1087,
-363,
1019,
-175,
62,
1949,
-194,
722,
1561,
200,
39,
-296,
1451,
-608,
-1214,
-39,
-277,
-1094,
228,
-489,
1025,
-391,
1132,
83,
-541,
514,
-1471,
2470,
1108,
326,
-454,
-1017,
-693,
1137,
40,
-810,
54,
-550,
1562,
221,
542,
1431,
1467,
530,
556,
1619,
340,
-444,
2262,
-801,
-1117,
368,
-509,
-36,
729,
63,
-675,
-4304,
-349,
135,
-21,
431,
-729,
849,
131,
-419,
-1733,
-893,
27,
1945,
-168,
-301,
360,
-1449,
-20,
1395,
640,
-633,
1545,
715,
778,
1307,
-369,
-645,
-766,
-1903,
-518,
237,
-1068,
379,
742,
-232,
-229,
-2519,
-30,
816,
-1635,
379,
41,
-899,
340,
-18,
-2076,
-886,
559,
-1482,
-601,
575,
514,
-257,
-670,
-1212,
-1831,
564,
-3551,
-994,
-1646,
3730,
-298,
-1366,
-1185,
-2153,
-1282,
-33,
462,
-582,
988,
1300,
482,
1329,
-804,
-27,
-959,
-711,
1285,
137,
-563,
72,
-1043,
-254,
366,
700,
397,
-632,
417,
-634,
-847,
595,
393,
-1404,
1177,
1557,
-796,
-4440,
-80,
6,
-623,
-271,
-1519,
-52,
-1193,
-413,
-441,
-1595,
-82,
297,
-337,
521,
864,
37,
-1525,
-332,
128,
364,
1027,
-880,
1427,
154,
597,
-426,
357,
-480,
-1718,
-245,
63,
-1137,
-1680,
1060,
-48,
-512,
309,
793,
250,
-611,
1075,
-734,
-947,
694,
-1412,
331,
-2630,
401,
-1099,
-981,
193,
-863,
2626,
-234,
-697,
2251,
899,
8,
2170,
-1024,
370,
693,
1450,
-1174,
-2629,
-279,
-389,
-315,
-1221,
-834,
1064,
-555,
120,
573,
-13,
-579,
-1034,
193,
-179,
-1612,
134,
-218,
-787,
-61,
-512,
-626,
-1096,
-62,
494,
2342,
743,
1553,
-322,
-771,
-1266,
844,
-536,
73,
-2305,
316,
2164,
617,
-79,
368,
1295,
400,
2012,
-710,
-703,
702,
457,
-465,
-687,
-1125,
425,
-1339,
-691,
79,
932,
-80,
-539,
-250,
-850,
574,
-1154,
1760,
1178,
216,
82,
-1386,
991,
-1143,
-29,
1324,
-27,
-107,
-112,
-708,
-13,
-346,
-1311,
502,
-1079,
326,
-516,
-94,
-814,
-883,
1849,
-9,
-135,
1511,
-238,
-684,
-303,
-724,
-287,
720,
906,
-811,
635,
-2042,
-620,
493,
-817,
732,
-366,
22,
-375,
31,
14,
484,
-1640,
-350,
-6,
248,
-139,
-137,
-401,
-1327,
1167,
-467,
-132,
502,
-1205,
1628,
-564,
-59,
617,
-819,
1674,
818,
1227,
-40,
-515,
-1202,
263,
153,
-1567,
-1093,
-425,
158,
-353,
431,
-466,
-254,
447,
904,
-1368,
-751,
491,
787,
1108,
-1103,
-672,
-630,
-11,
-495,
-408,
755,
862,
-417,
143,
567,
32,
-319,
434,
583,
-1465,
-108,
-170,
-963,
-54,
-1740,
62,
-436,
-1230,
1380,
-181,
285,
91,
-504,
-364,
430,
1182,
839,
58,
-523,
-1491,
834,
-14,
-1686,
878,
-422,
-356,
1296,
337,
294,
1406,
1005,
-326,
-1263,
-359,
-205,
-2086,
359,
-5,
-578,
-1429,
-886,
229,
-369,
-513,
1258,
-962,
789,
268,
-111,
449,
1143,
-1287,
-257,
50,
1381,
935,
-685,
998,
1242,
135,
-651,
-5,
-289,
382,
-169,
-51,
-1152,
-776,
812,
737,
-1176,
1058,
117,
101,
-517,
101,
3275,
-452,
-313,
-56,
-267,
-650,
-226,
175,
-189,
506,
1028,
1371,
-590,
-583,
442,
-425,
-1394,
933,
-180,
1515,
354,
831,
104,
-1720,
-58,
-208,
-1456,
-911,
-134,
573,
-351,
639,
-78,
-981,
-112,
-1753,
55,
-743,
591,
-8,
1845,
-964,
-203,
-1518,
646,
1139,
1548,
1691,
-192,
187,
-1039,
-1544,
-1964,
-42,
-58,
-610,
-140,
1423,
-47,
1727,
-591,
447,
-705,
-89,
-1410,
-314,
-494,
-1098,
524,
-1557,
-866,
-360,
656,
-397,
654,
525,
1329,
1234,
-333,
409,
-592,
-2202,
-405,
-3069,
-254,
95,
983,
655,
1077,
-819,
-848,
344,
-1376,
496,
2158,
1116,
-309,
2226,
-983,
327,
-2807,
-1104,
-65,
-2228,
203,
-1271,
-226,
669,
603,
-275,
991,
-299,
-95,
52,
524,
-243,
100,
1878,
2078,
1172,
-23,
164,
-1256,
-1124,
-714,
-684,
-1701,
160,
-241,
-706,
-118,
-1250,
272,
-676,
-518,
15,
525,
185,
238,
1212,
508,
736,
-555,
-2191,
848,
-74,
-657,
-458,
733,
1089,
59,
296,
-110,
-656,
790,
141,
391,
-208,
-685,
-775,
-501,
-471,
40,
2330,
220,
-389,
-355,
-481,
171,
-143,
544,
124,
637,
-763,
1068,
-81,
-138,
-882,
-713,
267,
-952,
-924,
1297,
944,
780,
877,
334,
-369,
-94,
-409,
888,
412,
-193,
283,
-130,
-1259,
-1389,
624,
-514,
-155,
19,
1550,
383,
-606,
-466,
719,
-914,
-199,
-373,
-793,
335,
-1335,
98,
244,
-1343,
-341,
2832,
-602,
1022,
1038,
18,
-456,
-583,
410,
-561,
187,
477,
-23,
-781,
759,
132,
2356,
402,
1229,
-1731,
79,
-528,
187,
1686,
-375,
-28,
851,
-37,
483,
-1736,
0,
-1673,
-2367,
-781,
360,
690,
-549,
2846,
-458,
439,
-838,
-740,
521,
259,
252,
317,
-336,
954,
335,
-400,
284,
-188,
-852,
-669,
-1237,
734,
685,
-314,
300,
-484,
-388,
-95,
136,
869,
1412,
636,
70,
484,
1147,
167,
-823,
-982,
-337,
-1353,
773,
-45,
-554,
1568
};

#endif