#ifndef __MMCBLOCK3_MMLAYER6_BRANCH33A_CONV_0_WEIGHT_H__
#define __MMCBLOCK3_MMLAYER6_BRANCH33A_CONV_0_WEIGHT_H__

// MMCBlock3_mmLayer6_branch33a_conv_0_weight
// (3, 3, 12, 12)
const int MMCBlock3_mmLayer6_branch33a_conv_0_weight[] = {
-525,
-757,
-1093,
-921,
560,
3,
1087,
-288,
47,
538,
62,
404,
712,
453,
-697,
381,
-433,
-29,
-129,
23,
-476,
244,
489,
641,
-1056,
-157,
-17,
468,
1358,
-246,
34,
-156,
596,
41,
343,
-30,
411,
-1221,
-143,
-801,
-486,
1076,
1436,
376,
292,
788,
-155,
-505,
-274,
1756,
77,
-487,
-260,
-104,
-195,
-583,
-411,
-160,
-486,
-199,
491,
-299,
122,
-155,
-311,
15,
710,
766,
-432,
781,
-456,
-31,
-580,
-87,
-635,
-33,
-152,
403,
-433,
336,
217,
-274,
-6,
-172,
211,
2454,
492,
-1435,
745,
-442,
549,
167,
8,
61,
-489,
469,
409,
639,
2991,
115,
-504,
463,
-133,
-85,
-422,
37,
409,
-224,
1415,
-420,
-695,
424,
251,
-318,
-401,
526,
603,
-664,
836,
38,
-1612,
-113,
92,
-128,
-38,
114,
1147,
-423,
337,
474,
-208,
-890,
-538,
-158,
1289,
376,
-227,
87,
194,
332,
-30,
858,
-154,
-572,
-378,
-1096,
-1099,
-1522,
221,
222,
1675,
-152,
457,
46,
-329,
101,
-673,
869,
-917,
1013,
-413,
-303,
282,
99,
-533,
-31,
-1278,
216,
-289,
11,
507,
852,
1183,
181,
-504,
-314,
-43,
-247,
1408,
210,
-496,
-718,
-777,
-1375,
143,
40,
1297,
1316,
283,
-818,
-403,
-1415,
-182,
2300,
-13,
1710,
-370,
-783,
315,
-578,
-1153,
-809,
609,
-324,
-981,
140,
178,
-43,
-918,
13,
-486,
1048,
578,
-694,
-510,
-268,
-824,
-117,
510,
578,
947,
50,
-602,
947,
-126,
-667,
-519,
-74,
1373,
1855,
856,
-239,
233,
125,
1277,
385,
-135,
-368,
613,
884,
-238,
583,
1507,
-478,
35,
-236,
389,
220,
-369,
-919,
298,
-661,
2169,
-780,
-1407,
-113,
-316,
481,
-841,
712,
-1,
528,
-56,
601,
-2146,
-76,
-471,
-350,
-106,
-68,
2032,
-157,
-236,
-195,
570,
-729,
-640,
-158,
2472,
1089,
125,
-86,
991,
-216,
-155,
-625,
-157,
-450,
-369,
-696,
-1091,
-1595,
-764,
-354,
1268,
-142,
281,
227,
343,
83,
441,
1206,
-768,
89,
-69,
-267,
-125,
-20,
-142,
297,
249,
1042,
-641,
-221,
260,
895,
1208,
414,
-393,
-250,
86,
205,
-90,
-60,
949,
-409,
-1112,
-1635,
407,
-46,
1403,
944,
834,
783,
8,
-695,
-325,
-106,
-36,
2344,
-469,
-945,
-228,
-334,
-190,
17,
-747,
326,
-185,
-94,
-609,
326,
-352,
575,
-502,
6,
464,
-342,
-21,
-132,
812,
-99,
243,
55,
2402,
-431,
396,
490,
57,
753,
-290,
-433,
-114,
62,
531,
859,
-873,
245,
843,
-13,
-474,
-101,
63,
318,
821,
-22,
2978,
224,
119,
-183,
-398,
-79,
282,
-26,
42,
-226,
1591,
-403,
-918,
-696,
-800,
476,
-214,
96,
-205,
-483,
1028,
84,
-858,
-344,
-628,
-250,
868,
128,
1087,
-561,
99,
242,
-199,
-978,
-149,
974,
1560,
-354,
-532,
276,
214,
378,
-277,
770,
23,
-604,
-491,
704,
-1018,
-739,
1535,
54,
19,
-94,
-197,
-444,
286,
231,
-501,
-968,
-322,
-434,
-162,
771,
-57,
-930,
-683,
183,
-763,
185,
1341,
-858,
721,
609,
202,
-130,
-643,
317,
22,
-211,
1147,
-356,
538,
-228,
594,
357,
594,
2003,
-229,
-1184,
-1628,
718,
547,
317,
891,
-665,
-1031,
-642,
179,
88,
-171,
-297,
-933,
285,
-320,
244,
664,
608,
676,
1349,
369,
309,
-305,
-460,
-1427,
3200,
-1733,
131,
242,
-1051,
-741,
-1437,
-699,
778,
-634,
668,
401,
-240,
998,
-699,
755,
2609,
712,
-1264,
-41,
-245,
-223,
-63,
92,
19,
-378,
185,
1584,
263,
441,
-941,
-641,
463,
-403,
183,
0,
-256,
-414,
-532,
-775,
437,
-194,
-456,
-154,
-582,
672,
-1108,
721,
-630,
1580,
670,
808,
616,
-850,
-660,
33,
75,
-226,
509,
38,
239,
-221,
-213,
-596,
752,
862,
-216,
-580,
-86,
55,
-639,
-248,
-22,
-831,
-254,
-573,
934,
-108,
477,
640,
238,
124,
233,
198,
-445,
-1435,
-108,
14,
-1184,
202,
-594,
229,
-226,
-460,
-299,
-208,
480,
-922,
-216,
-662,
-811,
325,
-187,
546,
-51,
-319,
267,
-278,
-974,
986,
-245,
508,
706,
-361,
282,
21,
-1128,
-432,
-483,
-1084,
-28,
733,
-186,
796,
-293,
-725,
-69,
44,
-546,
-233,
-335,
-782,
-424,
393,
-158,
436,
290,
-295,
361,
-538,
-259,
-584,
-92,
-441,
-520,
316,
-503,
248,
1110,
261,
-466,
-1129,
-597,
-906,
-52,
-244,
-168,
50,
-321,
993,
1665,
332,
819,
-137,
0,
-563,
37,
19,
281,
-928,
36,
143,
1016,
-881,
-140,
-205,
-679,
234,
493,
-837,
276,
-566,
-663,
-1362,
205,
-108,
-1276,
-278,
7,
351,
-414,
-197,
127,
-961,
80,
1272,
607,
-633,
251,
-129,
176,
98,
209,
-174,
-346,
247,
93,
-586,
-509,
-439,
-794,
-446,
24,
510,
-433,
299,
-55,
424,
-471,
-1056,
442,
-964,
397,
-1643,
-239,
474,
-13,
-5,
68,
381,
3,
-691,
-1031,
10,
-1016,
111,
-271,
-47,
-1269,
781,
384,
-193,
163,
1199,
188,
509,
-569,
189,
-161,
-822,
476,
98,
-306,
1001,
-147,
-139,
535,
495,
44,
-1258,
-1278,
-423,
-875,
1782,
922,
1,
386,
1129,
-1186,
-976,
108,
-593,
-1050,
-114,
-509,
77,
424,
-324,
298,
-8,
-1358,
-283,
-653,
-798,
511,
-127,
642,
796,
-493,
509,
-563,
-143,
951,
543,
957,
-1260,
-1427,
-313,
-404,
517,
3060,
-1428,
92,
1165,
388,
-12,
3345,
-104,
158,
-8,
-83,
-402,
-185,
-26,
148,
1298,
-405,
83,
-370,
-688,
-134,
-354,
310,
254,
-302,
-182,
-765,
-746,
358,
-403,
54,
592,
323,
380,
-1110,
-447,
-758,
1024,
-15,
547,
-770,
-440,
518,
-75,
154,
302,
382,
-71,
65,
-277,
-37,
-617,
858,
632,
-1253,
-562,
-112,
244,
-346,
-14,
372,
-604,
-387,
-270,
685,
1216,
-1143,
776,
-537,
-712,
302,
-195,
82,
-171,
302,
-573,
-348,
1103,
607,
458,
1052,
487,
-931,
-168,
-39,
-193,
151,
726,
-792,
-740,
76,
-699,
-420,
-182,
170,
59,
-176,
230,
-377,
-1315,
110,
408,
-172,
-500,
1308,
148,
-958,
-762,
-1464,
663,
369,
722,
-1075,
-475,
-862,
318,
-261,
702,
-290,
278,
123,
116,
-475,
-1635,
-273,
-110,
-1366,
438,
872,
-621,
-604,
-1384,
325,
-1006,
378,
471,
686,
565,
-197,
-751,
246,
-688,
117,
-767,
-621,
2492,
-203,
-569,
492,
-104,
-219,
139,
-80,
-35,
-407,
353,
-474,
-211,
-161,
1350,
186,
-575,
-315,
-72,
24,
117,
321,
-360,
54,
-1070,
-34,
-1582,
-1057,
182,
-734,
-11,
-384,
1067,
-1062,
1154,
-616,
-428,
-415,
1697,
195,
-736,
9,
684,
479,
-170,
578,
-769,
98,
799,
-195,
-615,
3133,
-989,
387,
803,
-88,
-17,
-294,
205,
-746,
339,
1155,
-874,
179,
2233,
1237,
353,
-30,
-1058,
38,
131,
160,
-1234,
644,
-456,
-56,
-9,
-43,
990,
204,
798,
-887,
584,
-624,
-409,
933,
-1234,
-389,
-470,
-636,
-342,
-31,
131,
-141,
-574,
-254,
434,
-988,
-604,
222,
1582,
296,
-182,
-313,
136,
-1280,
-85,
-1802,
180,
1144,
474,
-809,
678,
-1405,
-710,
-483,
970,
-419,
-318,
-389,
1057,
472,
-804,
1075,
337,
289,
492,
-309,
-336,
-515,
-1109,
292,
1214,
167,
-645,
-57,
310,
-401,
-1096,
-907,
-266,
-326,
-5,
196,
669,
196,
-515,
-139,
104,
-610,
69,
-34,
-155,
-346,
222,
-390,
-888,
-460,
-245,
418,
-67,
-401,
-220,
-808,
274,
175,
-330,
538,
-1123,
606,
-1217,
-643,
-360,
710,
894,
34,
200,
-591,
-319,
-622,
-3075,
-31,
1568,
-495,
273,
-417,
46,
-807,
31,
490,
-265,
320,
2103,
80,
676,
1883,
-2232,
-656,
-156,
630,
-725,
-513,
292,
610,
-1247,
1766,
-289,
-88,
1088,
2043,
-543,
-238,
-274,
192,
-313,
-165,
-299,
269,
-757,
103,
678,
-1177,
-39,
-255,
202,
-872,
1025,
134,
374,
144,
1082,
-169,
-378,
-1191,
-478,
-233,
-515,
82,
-172,
-476,
-374,
-534,
-421,
362,
672,
1111,
-1327,
-586,
185,
-951,
1455,
-1563,
899,
484,
692,
-830,
-222,
-1764,
-472,
261,
406,
-345,
-109,
186,
-126,
-415,
-157,
580,
372,
929,
90,
-855,
-1049,
497,
277,
-591,
2273,
-447,
-1575,
-693,
173,
358,
-764,
-1103,
-384,
-322,
1382,
352,
-1215,
484,
-545,
339,
-421,
1309,
311,
-49,
-137,
-389,
-260,
-173,
-10,
-472,
1083,
-314,
-311,
49,
-343,
-764,
117,
374,
64,
202,
-1486,
40,
-1713,
-1377,
159,
403,
1991,
876,
501,
-872,
-411,
-799,
16,
-379,
2771,
-521,
-736,
617,
224,
-445,
-118,
299,
417,
311,
688,
-188,
-87,
1142,
-926,
1089,
-375,
441,
-123,
-342,
424,
-593,
597,
950
};

#endif