#ifndef __MMCBLOCK3_MMLAYER8_BRANCH33A_CONV_0_WEIGHT_H__
#define __MMCBLOCK3_MMLAYER8_BRANCH33A_CONV_0_WEIGHT_H__

// MMCBlock3_mmLayer8_branch33a_conv_0_weight
// (3, 3, 12, 12)
const int MMCBlock3_mmLayer8_branch33a_conv_0_weight[] = {
-218,
-216,
-560,
1408,
620,
744,
-1079,
-244,
-708,
-349,
-344,
-1082,
-1036,
-72,
-930,
545,
370,
237,
266,
719,
-605,
-145,
-226,
-477,
92,
1794,
668,
-738,
-158,
-1182,
772,
490,
1324,
-540,
-289,
-376,
-269,
-219,
203,
-416,
-432,
-2,
-395,
304,
-917,
1008,
-1583,
1874,
-162,
-540,
270,
-521,
-224,
698,
-147,
127,
-69,
-709,
829,
692,
345,
-798,
-137,
-985,
-146,
2333,
681,
-672,
-171,
1894,
994,
536,
1451,
-176,
-444,
-1736,
-692,
-457,
990,
513,
989,
600,
-1785,
-1378,
300,
750,
-145,
499,
-473,
-1043,
-1216,
-871,
-338,
-131,
-541,
-543,
1476,
-143,
-516,
58,
-149,
264,
881,
-693,
184,
729,
-716,
614,
775,
-621,
-873,
135,
1347,
-1654,
-436,
1335,
-109,
-781,
452,
1974,
-247,
284,
434,
-27,
-1188,
-1455,
109,
258,
-701,
-1171,
-417,
-639,
338,
22,
-25,
-234,
-19,
2787,
561,
443,
1133,
-862,
454,
-395,
-1013,
384,
-937,
-302,
114,
1044,
-307,
-348,
-569,
-135,
-613,
-346,
-1303,
501,
9,
-369,
823,
-1029,
104,
608,
-591,
101,
-596,
-674,
-450,
603,
2049,
1548,
38,
-753,
-468,
316,
706,
1297,
-194,
-734,
-351,
-225,
-394,
446,
130,
-76,
-1059,
1050,
-1438,
988,
983,
888,
-148,
1404,
-486,
-47,
241,
-413,
-987,
1337,
360,
-58,
1511,
-1148,
208,
-671,
-224,
233,
-378,
2235,
950,
-801,
23,
64,
2237,
-939,
2020,
780,
438,
-145,
128,
-1053,
1451,
-412,
-711,
347,
-1722,
-1233,
710,
879,
-100,
-167,
60,
-1242,
-252,
-763,
-611,
400,
-874,
-862,
1968,
24,
-444,
-298,
687,
153,
845,
-896,
-49,
-17,
-804,
-76,
252,
-390,
-873,
-417,
-384,
-622,
86,
1190,
874,
-684,
1672,
1899,
61,
-200,
-366,
-681,
-1381,
-647,
-213,
1119,
-320,
-359,
-174,
-952,
-364,
-675,
675,
-354,
307,
1071,
174,
1037,
838,
-440,
273,
759,
-507,
-132,
-807,
-681,
390,
412,
-1103,
-470,
510,
650,
-265,
-654,
-1270,
-442,
-923,
-232,
808,
69,
195,
395,
-32,
436,
-975,
-345,
5,
-1222,
257,
544,
-109,
-890,
1015,
-27,
-868,
532,
-399,
1042,
-218,
-458,
108,
147,
-187,
-134,
25,
10,
-579,
-218,
1410,
-974,
-20,
1463,
622,
-429,
-353,
507,
-585,
1233,
-22,
80,
-1186,
-253,
254,
1995,
-160,
1122,
-259,
-2568,
933,
-329,
-422,
-866,
1272,
-458,
1433,
-293,
-268,
677,
-739,
-1130,
1796,
699,
-1521,
-1513,
-1573,
393,
191,
38,
-507,
-53,
-907,
-261,
-1315,
-811,
246,
854,
-704,
-786,
1409,
1295,
-288,
860,
-13,
-248,
777,
-128,
589,
144,
-805,
-490,
670,
-452,
-529,
-358,
1105,
-677,
-336,
917,
662,
-515,
158,
1929,
-452,
-1361,
172,
-1200,
-1242,
-503,
-3,
185,
-325,
121,
46,
-354,
473,
-987,
260,
819,
84,
-1523,
708,
311,
468,
79,
100,
3096,
51,
318,
-113,
1599,
285,
-835,
-353,
-724,
-1708,
-1364,
-428,
-1694,
-1010,
-229,
138,
-262,
-470,
11,
720,
1653,
1887,
115,
5,
857,
-386,
-257,
-507,
-699,
-415,
-200,
345,
-14,
471,
172,
-247,
-770,
152,
413,
724,
216,
-1719,
183,
-602,
176,
501,
584,
-1309,
1177,
-202,
-27,
-802,
-62,
3279,
-856,
0,
-2,
-458,
-859,
521,
183,
168,
-758,
176,
-1008,
911,
-950,
525,
162,
-283,
998,
204,
468,
92,
-1137,
-21,
-1585,
237,
-165,
294,
-556,
653,
2143,
-750,
-899,
-640,
-501,
-87,
-239,
474,
-1344,
-55,
169,
-402,
408,
-107,
-900,
311,
-527,
-245,
-187,
66,
-1013,
91,
263,
279,
30,
-45,
1165,
228,
-461,
550,
1173,
73,
-173,
-122,
-148,
-460,
-765,
307,
846,
-154,
-506,
-169,
-1313,
1150,
-1651,
-392,
1500,
-541,
-737,
958,
291,
1306,
-275,
466,
1,
-961,
3223,
859,
169,
724,
361,
131,
82,
-317,
-687,
-287,
-746,
-549,
-651,
736,
-637,
-625,
-606,
-438,
-640,
-250,
-3,
392,
-914,
181,
-986,
141,
213,
-299,
-830,
317,
70,
-559,
98,
-316,
205,
-20,
323,
-143,
660,
-275,
21,
58,
649,
251,
23,
-195,
259,
98,
-758,
-517,
458,
10,
31,
-921,
921,
89,
38,
52,
-105,
-161,
-336,
-384,
123,
1011,
177,
-459,
-180,
156,
-329,
126,
-268,
-322,
-19,
340,
55,
444,
-148,
585,
-537,
-599,
-267,
-288,
-115,
-365,
-186,
96,
-905,
144,
-311,
-815,
-351,
-723,
-649,
141,
-519,
402,
-713,
1603,
1285,
-48,
-851,
-451,
868,
210,
-703,
324,
-552,
840,
-732,
314,
489,
-420,
-630,
1098,
-2,
-874,
-139,
155,
350,
-158,
-172,
137,
206,
577,
185,
350,
1051,
428,
-1038,
155,
-1211,
-1292,
-1282,
-471,
1357,
87,
-1072,
-247,
205,
421,
-114,
275,
335,
-349,
2288,
-39,
-74,
521,
162,
-43,
-180,
-140,
-1099,
-278,
-1724,
-393,
-256,
-99,
-941,
1323,
1147,
-307,
-834,
-1080,
-515,
61,
1181,
-773,
77,
876,
1406,
296,
-490,
185,
216,
-718,
-417,
-410,
630,
-452,
-1670,
-183,
-27,
-1178,
-499,
-177,
1534,
-850,
-421,
-156,
-855,
3215,
-31,
277,
-46,
-785,
266,
436,
-1487,
201,
463,
905,
179,
-1563,
1814,
-689,
238,
574,
-376,
-1223,
324,
-279,
1606,
236,
358,
260,
-449,
3,
44,
159,
-819,
730,
-1010,
-83,
839,
14,
1667,
345,
-995,
409,
-582,
-747,
-1614,
-590,
-594,
-695,
397,
-140,
-13,
219,
-1641,
160,
135,
427,
-939,
-766,
1324,
-518,
1015,
113,
-267,
297,
75,
-6,
634,
64,
-58,
9,
-92,
292,
-319,
465,
-854,
719,
365,
-535,
47,
1003,
683,
99,
181,
-281,
-691,
-153,
-500,
1253,
-2242,
-521,
1788,
-716,
-1138,
444,
-689,
1045,
494,
130,
902,
-457,
-1879,
1517,
-194,
-107,
124,
207,
91,
561,
791,
238,
1134,
-1336,
-492,
-72,
-679,
-658,
-891,
-394,
-804,
-717,
-639,
192,
-760,
-184,
902,
-379,
1857,
1845,
829,
-117,
609,
-907,
-529,
-811,
-666,
339,
983,
-336,
-340,
54,
1552,
-195,
-967,
616,
705,
229,
438,
-1378,
668,
-222,
-370,
575,
241,
-664,
-133,
-80,
1054,
-554,
1442,
1329,
-119,
-222,
-74,
-306,
-1070,
-832,
-401,
-338,
324,
-528,
118,
-94,
72,
-791,
-156,
-18,
-554,
-287,
-142,
-1107,
-833,
-234,
-1222,
54,
24,
-562,
-800,
-158,
1591,
-10,
-62,
-165,
-847,
196,
-533,
483,
2250,
445,
409,
619,
1090,
-229,
-285,
-738,
-54,
-315,
-786,
552,
-937,
-261,
708,
164,
-577,
826,
2672,
175,
349,
1137,
566,
-360,
-269,
-473,
616,
-10,
-428,
595,
-140,
216,
363,
-568,
1181,
1556,
239,
-105,
550,
-229,
-399,
-633,
292,
489,
-286,
-912,
-558,
538,
577,
99,
-211,
-525,
-192,
145,
213,
1172,
-543,
1270,
-370,
150,
584,
1174,
-385,
48,
-270,
-901,
-100,
-262,
-852,
-815,
-14,
36,
105,
165,
1626,
-41,
-714,
-496,
-73,
-648,
482,
-1740,
258,
986,
1615,
-491,
-210,
-50,
534,
193,
64,
52,
-587,
-162,
98,
-1319,
-726,
-300,
-14,
979,
954,
-448,
-537,
-157,
473,
-98,
1817,
-1447,
26,
-253,
-879,
304,
0,
-640,
-24,
-256,
-16,
-35,
-218,
-301,
-328,
-1010,
-725,
-161,
-319,
-465,
-261,
-1463,
778,
-943,
-431,
-1527,
742,
-1555,
-1130,
-173,
-103,
432,
351,
159,
-596,
370,
970,
-42,
3971,
2051,
2360,
253,
29,
-861,
352,
-415,
-266,
-319,
-801,
711,
-7,
-504,
760,
-720,
-711,
960,
824,
-449,
111,
1549,
312,
-585,
17,
737,
46,
777,
34,
-237,
306,
-283,
361,
39,
927,
-880,
977,
-489,
238,
328,
898,
-886,
172,
1064,
640,
-868,
-335,
-282,
731,
-526,
-426,
-185,
296,
31,
526,
697,
-35,
15,
-973,
-850,
-244,
156,
-427,
913,
880,
-122,
-617,
-821,
388,
337,
1738,
-90,
78,
-110,
2123,
374,
-1008,
282,
186,
-771,
1083,
-1082,
796,
224,
-1262,
-447,
-934,
-154,
-562,
-756,
540,
-430,
-1238,
-702,
-964,
1489,
943,
-57,
-581,
556,
1012,
-821,
-827,
307,
-558,
-100,
132,
-612,
1702,
149,
-189,
52,
702,
-576,
-15,
49,
-31,
45,
-398,
-300,
1207,
-628,
-685,
-111,
143,
-425,
-607,
-1049,
2012,
-309,
310,
-100,
-367,
-681,
-1187,
-444,
-1563,
-466,
-196,
19,
1529,
254,
1459,
833,
549,
485,
300,
402,
-608,
-140,
2364,
-764,
-162,
45,
-525,
184,
778,
-429,
1550,
36,
-523,
647,
-241,
141,
-569,
918,
-646,
-227,
336,
-722,
-273,
868,
377,
412,
1174,
403,
-484,
-530,
-200,
1937,
-460,
-391,
105,
586,
887,
-958,
-34,
854,
-376,
-482,
-707,
686,
-993,
107,
-127,
-123,
-642,
68,
-1629
};

#endif