#ifndef __MMCBLOCK3_MMLAYER3_BRANCH33C_CONV_0_WEIGHT_H__
#define __MMCBLOCK3_MMLAYER3_BRANCH33C_CONV_0_WEIGHT_H__

// MMCBlock3_mmLayer3_branch33c_conv_0_weight
// (3, 3, 6, 6)
const int MMCBlock3_mmLayer3_branch33c_conv_0_weight[] = {
-322,
-1779,
728,
-987,
1027,
275,
704,
916,
451,
1164,
-519,
879,
-930,
-208,
599,
-412,
-419,
-3365,
16,
602,
-72,
-466,
1143,
-828,
1692,
-888,
-2523,
788,
-3987,
2537,
3980,
-992,
1117,
-1204,
-696,
501,
933,
1559,
-1746,
-2023,
842,
1537,
-607,
-377,
758,
832,
-693,
314,
720,
2155,
1568,
22,
-24,
-1187,
265,
532,
-45,
71,
379,
-252,
298,
-4301,
2,
2701,
-3820,
-555,
4119,
-169,
-555,
-1832,
-376,
485,
272,
-908,
-648,
-1846,
656,
-1462,
220,
63,
-1061,
797,
-232,
602,
1673,
-501,
-36,
-47,
-279,
1660,
-92,
883,
-332,
-71,
1420,
-814,
1715,
-3002,
2073,
2350,
-3529,
4121,
4703,
-288,
-590,
-989,
-271,
137,
136,
-3193,
509,
854,
-466,
190,
-1732,
928,
-640,
381,
8,
104,
-735,
-125,
476,
-844,
-329,
-1308,
409,
-464,
201,
-108,
-493,
-179,
857,
1847,
-2663,
-4,
-73,
710,
1920,
-780,
836,
-989,
673,
-261,
1010,
1135,
-1214,
-313,
-717,
900,
-926,
157,
-328,
88,
-355,
1013,
68,
1872,
1336,
-836,
219,
-36,
750,
-932,
39,
144,
-1095,
148,
-359,
-1573,
-215,
997,
139,
-3267,
-1570,
1269,
-204,
-1090,
491,
-681,
-41,
-3261,
-560,
277,
-674,
-1794,
-1566,
70,
716,
373,
-190,
90,
659,
-433,
1106,
-382,
20,
1455,
934,
466,
-99,
-353,
-1141,
-377,
1467,
-1238,
1244,
625,
322,
2250,
1382,
546,
-1089,
-692,
235,
-902,
1208,
-234,
508,
2073,
-950,
-2539,
-1461,
-103,
-1245,
-350,
319,
-762,
-1301,
-379,
283,
-1320,
-446,
-2646,
-1035,
-1501,
-694,
-464,
-526,
321,
-1203,
-838,
-1875,
-3479,
1685,
3633,
-132,
-966,
-806,
-789,
609,
-703,
1229,
3837,
-1581,
777,
-540,
-975,
-693,
-69,
-1853,
226,
495,
1374,
-572,
601,
191,
-1096,
-457,
-829,
-313,
-2007,
86,
-237,
-804,
53,
-1803,
-2475,
389,
-2516,
1894,
402,
-2116,
341,
419,
-970,
85,
-162,
281,
-485,
-1699,
1122,
-1424,
-3653,
-1645,
-344,
1529,
392,
1059,
-845,
93,
-1618,
315,
-247,
183,
463,
460,
-1542,
341,
-112,
-665,
854,
-428,
-2110,
1828,
-2954,
2038,
4170,
-327,
-1279,
-29,
-639,
374,
250
};

#endif