#ifndef __MMCBLOCK4_MMLAYER2_BRANCH33A_CONV_0_WEIGHT_H__
#define __MMCBLOCK4_MMLAYER2_BRANCH33A_CONV_0_WEIGHT_H__

// MMCBlock4_mmLayer2_branch33a_conv_0_weight
// (3, 3, 12, 12)
const int MMCBlock4_mmLayer2_branch33a_conv_0_weight[] = {
0,
-95,
0,
0,
-649,
0,
-381,
211,
-183,
0,
-528,
-884,
0,
719,
0,
0,
2,
0,
252,
116,
248,
0,
144,
372,
0,
-244,
0,
0,
615,
0,
-386,
642,
-224,
0,
133,
609,
0,
128,
0,
0,
-263,
0,
-183,
-278,
-468,
0,
-738,
-908,
0,
112,
0,
0,
241,
0,
389,
-1079,
-66,
-1,
536,
-249,
0,
-294,
0,
0,
347,
0,
211,
-1693,
688,
0,
-475,
-785,
0,
-19,
0,
0,
398,
0,
259,
745,
340,
0,
339,
-516,
0,
1039,
0,
0,
280,
0,
84,
207,
-625,
-1,
-632,
-429,
0,
366,
0,
0,
76,
0,
-71,
856,
336,
-1,
485,
1014,
0,
-468,
0,
0,
-338,
0,
-447,
-441,
457,
0,
-109,
-18,
0,
61,
0,
0,
-512,
0,
396,
91,
-482,
0,
302,
-76,
0,
-1051,
0,
0,
-374,
0,
-594,
-267,
-436,
-1,
363,
223,
0,
481,
0,
0,
-656,
0,
-407,
-212,
-87,
0,
-354,
874,
0,
1110,
0,
0,
223,
0,
9,
76,
403,
0,
62,
-531,
0,
-429,
0,
0,
939,
0,
-245,
583,
-351,
0,
447,
1468,
0,
93,
0,
0,
-135,
0,
-160,
-611,
-440,
0,
-687,
-434,
0,
22,
0,
0,
346,
0,
140,
-1167,
-564,
-1,
376,
-1129,
0,
-99,
0,
0,
425,
0,
49,
-1122,
855,
0,
-431,
-184,
0,
-422,
0,
0,
296,
0,
392,
425,
318,
0,
426,
-334,
0,
1335,
0,
0,
398,
0,
24,
264,
-579,
-1,
-1041,
973,
0,
216,
0,
0,
109,
0,
254,
149,
437,
-1,
700,
2387,
0,
-274,
0,
0,
-470,
0,
-501,
-130,
463,
0,
102,
214,
0,
382,
0,
0,
-363,
0,
654,
38,
-407,
1,
240,
-243,
0,
-963,
0,
0,
-665,
0,
-462,
55,
-548,
-1,
299,
1456,
0,
260,
0,
0,
-626,
0,
-405,
-561,
-64,
0,
-346,
-486,
0,
214,
0,
0,
57,
0,
388,
113,
195,
0,
-6,
337,
0,
-394,
0,
0,
638,
0,
-284,
39,
-349,
0,
29,
642,
0,
215,
0,
0,
-371,
0,
-213,
-164,
-377,
0,
-726,
-1424,
0,
-241,
0,
0,
298,
0,
264,
-473,
-135,
0,
299,
-200,
0,
-108,
0,
0,
323,
0,
-54,
-187,
683,
0,
-663,
-1111,
0,
-593,
0,
0,
465,
0,
457,
-29,
320,
0,
439,
-268,
0,
432,
0,
0,
491,
0,
156,
-115,
-730,
0,
-1029,
-330,
0,
84,
0,
0,
27,
0,
85,
108,
370,
0,
371,
1587,
0,
-37,
0,
0,
-354,
0,
-283,
145,
446,
0,
192,
-165,
0,
363,
0,
0,
-440,
0,
547,
-82,
-328,
0,
433,
317,
0,
-598,
0,
0,
-615,
0,
-756,
253,
-363,
-1,
568,
433,
0,
-569,
0,
0,
-680,
0,
-193,
-242,
-241,
0,
-635,
-188,
0,
472,
0,
0,
-267,
0,
330,
24,
-785,
0,
-450,
1336,
0,
-113,
0,
0,
340,
0,
32,
1156,
-344,
1,
598,
576,
0,
-457,
0,
0,
-289,
0,
452,
-114,
-508,
0,
26,
-733,
0,
-294,
0,
0,
-454,
0,
534,
-576,
591,
0,
43,
-67,
0,
-48,
0,
0,
183,
0,
244,
-1147,
581,
0,
-391,
-268,
0,
76,
0,
0,
261,
0,
371,
706,
958,
0,
89,
-859,
0,
799,
0,
0,
-2,
0,
660,
837,
-423,
0,
144,
539,
0,
247,
0,
0,
-288,
0,
-55,
900,
-104,
0,
-78,
762,
0,
-77,
0,
0,
247,
0,
-554,
-277,
-153,
0,
-142,
757,
0,
-331,
0,
0,
-879,
0,
-169,
-190,
-660,
0,
92,
-212,
0,
-566,
0,
0,
-157,
0,
-422,
791,
495,
0,
610,
794,
0,
-73,
0,
0,
-67,
0,
-92,
159,
-53,
0,
240,
-528,
0,
-568,
0,
0,
18,
0,
-362,
-34,
-103,
0,
467,
-793,
0,
372,
0,
0,
-68,
0,
-29,
0,
-511,
1,
-512,
729,
0,
-269,
0,
0,
-188,
0,
-154,
-257,
67,
0,
-384,
-1324,
0,
26,
0,
0,
-410,
0,
596,
-317,
51,
0,
181,
875,
0,
67,
0,
0,
25,
0,
-343,
-143,
28,
-2,
-535,
809,
0,
-136,
0,
0,
-38,
0,
-281,
198,
-241,
0,
-196,
-509,
0,
-679,
0,
0,
19,
0,
-774,
-19,
852,
0,
898,
309,
0,
-41,
0,
0,
-302,
0,
429,
-296,
259,
-1,
-299,
286,
0,
-241,
0,
0,
287,
0,
-651,
-63,
0,
0,
-325,
939,
0,
55,
0,
0,
-243,
0,
146,
-551,
-444,
1,
57,
-881,
0,
801,
0,
0,
447,
0,
458,
356,
61,
0,
-412,
144,
0,
58,
0,
0,
-723,
0,
-201,
-280,
-410,
0,
-461,
-546,
0,
223,
0,
0,
-248,
0,
176,
-152,
-802,
0,
-693,
985,
0,
-403,
0,
0,
500,
0,
443,
-444,
-480,
1,
666,
691,
0,
-156,
0,
0,
-197,
0,
552,
132,
-309,
0,
-154,
-866,
0,
-199,
0,
0,
-503,
0,
626,
157,
520,
0,
241,
-167,
0,
-257,
0,
0,
401,
0,
188,
-160,
790,
-2,
-342,
-14,
0,
-782,
0,
0,
291,
0,
464,
-725,
778,
0,
14,
-805,
0,
-463,
0,
0,
341,
0,
773,
-764,
-436,
1,
-78,
644,
0,
-293,
0,
0,
-180,
0,
162,
-343,
-87,
0,
36,
1536,
0,
-77,
0,
0,
245,
0,
-543,
344,
-84,
0,
-175,
900,
0,
132,
0,
0,
-814,
0,
-164,
0,
-668,
1,
115,
-107,
0,
-242,
0,
0,
-326,
0,
-363,
314,
364,
2,
1000,
157,
0,
-274,
0,
0,
-433,
0,
9,
-1217,
62,
-1,
-706,
-1263,
0,
372,
0,
0,
-280,
0,
-57,
-280,
-476,
0,
-896,
693,
0,
-520,
0,
0,
-351,
0,
370,
1504,
722,
0,
242,
-102,
0,
175,
0,
0,
192,
0,
376,
583,
142,
0,
610,
-532,
0,
-324,
0,
0,
-628,
0,
-149,
-514,
521,
0,
-881,
1196,
0,
435,
0,
0,
42,
0,
131,
-324,
23,
0,
256,
812,
0,
39,
0,
0,
-4,
0,
460,
-1076,
578,
0,
21,
-595,
0,
461,
0,
0,
-388,
0,
599,
1037,
-493,
0,
0,
367,
0,
-200,
0,
0,
-354,
0,
-367,
762,
-899,
1,
-422,
192,
0,
622,
0,
0,
249,
0,
161,
-297,
-217,
0,
16,
1486,
0,
-412,
0,
0,
-273,
0,
-824,
268,
186,
0,
-408,
-4,
0,
-466,
0,
0,
-121,
0,
-158,
1276,
310,
1,
259,
169,
0,
-98,
0,
0,
-430,
0,
-19,
-709,
329,
-1,
-711,
-2153,
0,
863,
0,
0,
-593,
0,
238,
-319,
-444,
0,
-758,
-1672,
0,
-189,
0,
0,
-63,
0,
446,
660,
1653,
0,
371,
562,
0,
64,
0,
0,
647,
0,
590,
464,
524,
0,
471,
-842,
0,
-263,
0,
0,
-746,
0,
-69,
217,
514,
-1,
-824,
2011,
0,
274,
0,
0,
205,
0,
260,
-64,
129,
0,
260,
848,
0,
120,
0,
0,
66,
0,
389,
-899,
589,
0,
-36,
-285,
0,
692,
0,
0,
-131,
0,
776,
453,
-286,
0,
247,
778,
0,
-376,
0,
0,
-373,
0,
-340,
567,
-1035,
1,
-599,
-627,
0,
495,
0,
0,
379,
0,
357,
-178,
17,
0,
-316,
770,
0,
-451,
0,
0,
-199,
0,
-652,
619,
330,
0,
-184,
-189,
0,
-249,
0,
0,
-113,
0,
-115,
712,
486,
1,
14,
-122,
0,
-48,
0,
0,
-335,
0,
0,
-663,
396,
0,
-690,
-1112,
0,
476,
0,
0,
-500,
0,
128,
-50,
-675,
0,
-1079,
645,
0,
48,
0,
0,
-215,
0,
313,
-211,
657,
0,
454,
162,
0,
-552,
0,
0,
230,
0,
570,
111,
219,
0,
629,
-446,
0,
81,
0,
0,
-730,
0,
-346,
279,
464,
0,
-751,
1418,
0,
-461,
0,
0,
69,
0,
257,
-100,
24,
0,
126,
906,
0,
-288,
0,
0,
150,
0,
450,
-907,
533,
0,
-124,
-773,
0,
-448,
0,
0,
-81,
0,
912,
-673,
-671,
1,
-182,
388,
0,
-130,
0,
0,
-108,
0,
-256,
1,
-702,
1,
-259,
379,
0,
102,
0,
0,
269,
0,
213,
14,
-304,
0,
-51,
1391,
0,
-291,
0,
0,
-413,
0,
-985,
491,
228,
0,
-196,
208,
0,
-392,
0,
0,
45,
0,
-168,
76,
405,
2,
557,
-223
};

#endif