#ifndef __MMCBLOCK2_MMLAYER2_BRANCH33C_CONV_0_WEIGHT_H__
#define __MMCBLOCK2_MMLAYER2_BRANCH33C_CONV_0_WEIGHT_H__

// MMCBlock2_mmLayer2_branch33c_conv_0_weight
// (3, 3, 6, 6)
const int MMCBlock2_mmLayer2_branch33c_conv_0_weight[] = {
321,
503,
1318,
166,
-1514,
29,
-476,
-799,
1426,
-1185,
-230,
-405,
-457,
-377,
396,
-688,
-721,
-228,
-598,
3290,
-1590,
-614,
-177,
-516,
1465,
-209,
529,
-375,
-77,
-957,
-1795,
983,
944,
873,
118,
563,
-587,
221,
901,
499,
1314,
397,
-1667,
102,
1246,
-982,
2018,
-3983,
-538,
-830,
-394,
609,
-584,
1155,
1227,
-621,
-520,
-1235,
230,
2816,
-173,
1555,
-1175,
-239,
3018,
-2848,
-655,
-1983,
1091,
-308,
-1118,
1871,
375,
69,
2012,
83,
-866,
-518,
-429,
-571,
735,
-979,
-478,
332,
-201,
119,
121,
-595,
-943,
-537,
-324,
2985,
-826,
-816,
27,
105,
1677,
-178,
1007,
-639,
54,
-1102,
-1471,
1320,
169,
762,
459,
284,
-342,
-513,
269,
266,
-797,
165,
1818,
-1096,
-1850,
-1929,
-2039,
-658,
138,
-1165,
-788,
164,
626,
-74,
-323,
2831,
-977,
1032,
-808,
-88,
563,
-195,
4490,
-955,
-2457,
-1078,
-553,
303,
-1294,
-45,
1393,
1963,
-184,
24,
-518,
266,
1056,
-829,
-189,
-805,
-1217,
-1103,
-119,
51,
-403,
-351,
-309,
-554,
73,
-608,
-529,
-1278,
765,
-277,
-50,
247,
-105,
-65,
393,
571,
1293,
-753,
-323,
-536,
-703,
-1251,
-1427,
-1627,
350,
-1219,
269,
-216,
-851,
135,
1271,
-682,
-2022,
-1922,
-1669,
-1253,
49,
-357,
-139,
265,
488,
656,
-916,
2703,
-655,
171,
-875,
-547,
791,
-279,
3925,
-1167,
-1943,
-406,
-139,
796,
-1290,
141,
776,
1203,
1148,
592,
-948,
-115,
-48,
904,
1170,
-893,
666,
-1089,
-794,
-373,
786,
-728,
-574,
1261,
669,
87,
-354,
1233,
449,
851,
-1292,
-883,
-942,
586,
748,
-1829,
-632,
306,
1403,
-1053,
-539,
-764,
-423,
-314,
1203,
1083,
-1209,
612,
510,
-580,
-1106,
-295,
-40,
-903,
191,
2233,
64,
-621,
455,
1014,
-669,
-728,
-1107,
-653,
1231,
1084,
-753,
-3324,
-1796,
1316,
-1308,
-2248,
2579,
2788,
1408,
-1502,
-969,
-457,
-1637,
-2968,
1877,
123,
-658,
-118,
-461,
758,
987,
-452,
442,
-522,
-1262,
-788,
1007,
656,
-183,
857,
769,
557,
-1203,
1469,
-254,
1089,
-550,
-584,
-993,
719,
801,
-1700,
-304,
-27,
1208,
120,
-856,
-1050,
322,
279
};

#endif