#ifndef __MMCBLOCK1_MMLAYER1_BRANCH11_CONV_0_WEIGHT_H__
#define __MMCBLOCK1_MMLAYER1_BRANCH11_CONV_0_WEIGHT_H__

// MMCBlock1_mmLayer1_branch11_conv_0_weight
// (1, 1, 32, 12)
const int MMCBlock1_mmLayer1_branch11_conv_0_weight[] = {
170,
181,
1362,
-28,
176,
-662,
276,
1398,
152,
375,
249,
-176,
-2916,
-645,
-1254,
-3035,
3581,
-860,
109,
-664,
2355,
1285,
-3920,
975,
-396,
857,
-275,
-253,
82,
-1428,
31,
-801,
-339,
-187,
543,
186,
240,
261,
782,
-127,
389,
208,
-426,
-999,
727,
-210,
1304,
-85,
1173,
619,
4385,
498,
1388,
-679,
121,
-1525,
-988,
28,
490,
1253,
2039,
-814,
2314,
-300,
-1458,
-1244,
323,
-223,
-2004,
307,
504,
1929,
681,
473,
1156,
-67,
286,
-992,
330,
590,
-386,
-252,
90,
829,
322,
-17,
-117,
-162,
132,
-192,
-551,
288,
-239,
312,
827,
-105,
-3054,
520,
-3332,
-689,
-473,
-527,
498,
120,
-3420,
-821,
475,
-1343,
-185,
-12,
-649,
-724,
-265,
-864,
-197,
-613,
101,
-288,
698,
-335,
1676,
340,
1284,
301,
501,
-1134,
130,
446,
-166,
-101,
-332,
655,
258,
-32,
-252,
-146,
-425,
-563,
-244,
-1802,
-90,
64,
662,
449,
-2082,
-438,
33,
-945,
-797,
-731,
-43,
2257,
-1744,
-59,
1383,
-2604,
798,
615,
3920,
108,
1268,
1513,
-1964,
10,
-222,
526,
1442,
1227,
-66,
-24,
-4,
31,
58,
-1,
123,
-23,
141,
-97,
-190,
-91,
265,
199,
-17,
-405,
-142,
-1104,
-144,
-133,
-125,
119,
253,
-358,
-634,
-698,
857,
370,
1734,
990,
-233,
-649,
2449,
-1144,
-1659,
-698,
366,
-160,
-615,
304,
-608,
-1654,
977,
465,
-598,
-364,
-15,
-555,
2042,
-5549,
-1027,
4003,
-1474,
1003,
-1262,
-914,
4086,
-4711,
-454,
-3792,
-687,
161,
594,
55,
1747,
632,
1238,
583,
2249,
-653,
-1703,
-693,
-2894,
1872,
-1010,
1010,
571,
859,
1241,
2331,
509,
-429,
-51,
-2051,
538,
861,
2430,
-2583,
2117,
8681,
-7457,
-360,
-3674,
3252,
4982,
1880,
419,
200,
3462,
538,
1368,
101,
371,
-1648,
67,
-162,
-492,
394,
-1323,
85,
1909,
-293,
1763,
-375,
-125,
3,
579,
-445,
-1692,
-742,
1210,
-1896,
-547,
471,
-786,
-764,
-131,
-519,
1342,
-1341,
-1443,
-1266,
677,
129,
1660,
419,
783,
-285,
-63,
340,
-202,
283,
168,
701,
48,
168,
46,
167,
686,
395,
522,
199,
63,
152,
-439,
166,
158,
-590,
-272,
-221,
26,
-2599,
380,
1189,
-2682,
103,
378,
-266,
-124,
398,
-698,
58,
-485,
-979,
-214,
157,
408,
-468,
-575,
-201,
127,
50,
15,
70,
274,
277,
286,
102,
57,
83,
-109,
167,
-174,
802,
1154,
-1400,
2068,
4161,
-2508,
157,
-1487,
1307,
1514,
435,
314,
383,
-860,
-71,
-449,
-85,
-362,
-356,
-351,
-89,
446,
52
};

#endif