#ifndef __MMCBLOCK2_MMLAYER4_BRANCH33A_CONV_0_WEIGHT_H__
#define __MMCBLOCK2_MMLAYER4_BRANCH33A_CONV_0_WEIGHT_H__

// MMCBlock2_mmLayer4_branch33a_conv_0_weight
// (3, 3, 12, 12)
const int MMCBlock2_mmLayer4_branch33a_conv_0_weight[] = {
-962,
-322,
-324,
-855,
-181,
-259,
231,
393,
71,
-64,
-356,
854,
605,
-438,
1181,
208,
162,
-1186,
-298,
615,
-268,
665,
689,
522,
296,
-620,
-33,
4,
-611,
-70,
519,
637,
-664,
962,
-179,
-611,
212,
-1072,
783,
-328,
-113,
356,
221,
387,
368,
1044,
93,
-131,
-367,
-42,
529,
-412,
165,
-378,
-369,
415,
-154,
-123,
583,
281,
1316,
632,
311,
-265,
-1306,
257,
-751,
-1235,
385,
-903,
402,
-355,
-326,
-198,
107,
-240,
-86,
19,
280,
997,
-556,
-9,
123,
496,
-438,
-265,
439,
-24,
447,
-134,
-1143,
-723,
140,
-483,
996,
170,
-1245,
514,
482,
408,
1282,
-601,
-1187,
-909,
-5,
-226,
465,
-94,
-130,
-77,
134,
166,
-820,
192,
56,
229,
-332,
-383,
153,
-1674,
54,
-704,
-325,
-177,
-165,
-437,
542,
591,
-250,
417,
80,
-343,
-382,
-654,
34,
-227,
181,
-214,
909,
-4,
-732,
715,
-678,
-183,
-466,
-80,
308,
-120,
163,
-356,
95,
588,
-94,
52,
-337,
468,
-259,
-1378,
1902,
-740,
-150,
-570,
74,
-1222,
-563,
1714,
158,
53,
243,
-1289,
467,
-73,
213,
-176,
-70,
-153,
-616,
1493,
-415,
211,
236,
-2069,
562,
-355,
-132,
990,
530,
-368,
167,
1714,
368,
-999,
-504,
456,
315,
-234,
598,
-890,
-309,
649,
-382,
-46,
-279,
560,
15,
1903,
851,
-920,
-264,
94,
4,
-593,
635,
-989,
69,
1072,
33,
-15,
333,
-403,
157,
-285,
-227,
465,
-436,
164,
-272,
54,
36,
1528,
-29,
-8,
124,
-318,
-163,
-242,
138,
-925,
-248,
-404,
59,
1640,
1102,
357,
126,
-839,
332,
590,
-120,
-387,
163,
-748,
222,
141,
67,
-65,
-996,
-890,
-462,
698,
-368,
77,
-189,
497,
-43,
-1166,
933,
29,
-146,
-538,
-258,
-16,
-61,
1066,
-115,
-371,
209,
-1846,
520,
769,
156,
-279,
295,
-26,
-681,
1300,
-49,
106,
-862,
0,
-61,
298,
-217,
372,
46,
-1076,
-155,
-339,
-203,
-1133,
-178,
-574,
860,
-170,
303,
-1014,
414,
-1689,
-440,
720,
-109,
107,
-1063,
-876,
363,
-60,
308,
115,
-283,
-1431,
-624,
334,
419,
-729,
-134,
-866,
527,
-212,
61,
310,
10,
-2103,
367,
830,
383,
-50,
-145,
-86,
182,
32,
-391,
-356,
46,
278,
-281,
-301,
308,
-978,
-1410,
525,
315,
-428,
1349,
361,
227,
810,
604,
-658,
-1035,
-98,
175,
-298,
529,
-240,
-304,
158,
136,
-547,
-699,
-154,
-103,
302,
818,
-195,
-10,
193,
-755,
-166,
1233,
2033,
253,
-553,
-542,
268,
1051,
589,
612,
483,
-1550,
-844,
852,
1270,
40,
-336,
-756,
-494,
253,
-296,
509,
-939,
-524,
-821,
431,
-422,
-124,
55,
177,
935,
-250,
-742,
33,
-33,
9,
-279,
-235,
-611,
-327,
129,
134,
-334,
-261,
-698,
-12,
99,
-812,
-195,
-821,
-1886,
-636,
835,
1069,
138,
-1839,
25,
-372,
-1700,
1065,
-617,
-184,
-327,
-219,
-64,
37,
1584,
-184,
381,
654,
170,
671,
-520,
1694,
987,
-361,
-193,
-1188,
425,
400,
131,
-168,
-176,
-684,
-422,
571,
-33,
-670,
-272,
-1064,
-542,
-410,
255,
37,
-198,
482,
186,
867,
285,
737,
-427,
-1209,
-47,
-1479,
347,
-233,
-1797,
750,
-163,
-371,
-170,
-363,
-179,
-82,
888,
491,
-350,
-156,
303,
-1232,
-42,
-2284,
323,
78,
558,
1442,
-293,
25,
-146,
597,
508,
69,
-45,
619,
-194,
-340,
-268,
-179,
354,
0,
-565,
495,
-36,
-61,
-233,
-2704,
384,
485,
147,
2748,
186,
204,
-608,
980,
340,
-456,
-735,
-1601,
-49,
284,
-151,
1500,
20,
2331,
-318,
-583,
1985,
-2724,
-351,
-149,
425,
-215,
6,
225,
-2463,
-25,
-156,
257,
-17,
-85,
36,
801,
191,
101,
-777,
-1340,
262,
-343,
231,
-210,
-430,
-375,
-314,
1843,
-1190,
-75,
166,
-1089,
-537,
-1950,
-41,
212,
-77,
1345,
-717,
-86,
-303,
-307,
-167,
218,
-369,
-92,
-17,
1126,
-91,
344,
829,
-827,
1843,
-278,
-226,
-1568,
183,
651,
182,
318,
-32,
488,
-584,
-645,
1050,
-94,
-497,
-702,
554,
-370,
77,
-188,
301,
-264,
1309,
-636,
1812,
428,
-717,
-794,
91,
-1219,
-130,
471,
-225,
1411,
-996,
444,
-121,
-779,
56,
308,
734,
308,
-255,
1458,
-479,
-114,
-611,
421,
-863,
-590,
-86,
556,
-474,
749,
-110,
1604,
213,
278,
-141,
630,
1031,
-523,
-405,
469,
393,
65,
10,
857,
-478,
126,
-328,
-372,
-2427,
-118,
147,
-749,
-373,
77,
-513,
2077,
-693,
38,
-926,
855,
-1625,
-408,
-128,
759,
-310,
1983,
-207,
664,
-439,
-1976,
-1024,
552,
615,
-601,
-4,
341,
394,
-220,
-213,
989,
452,
13,
52,
-997,
639,
413,
-762,
-920,
797,
234,
-171,
185,
329,
321,
-24,
-227,
1510,
463,
-91,
-335,
157,
-2193,
-210,
-685,
1338,
1080,
-92,
-207,
-692,
147,
-9,
-49,
-1752,
650,
370,
611,
464,
-267,
-605,
-1042,
271,
-550,
-49,
1505,
389,
-222,
288,
-135,
-151,
454,
-409,
-777,
-234,
-757,
-399,
829,
-552,
354,
403,
15,
-76,
-465,
262,
-832,
-565,
495,
-629,
1218,
74,
-1898,
-253,
-474,
1644,
1606,
-692,
-185,
93,
-648,
110,
386,
-1508,
-916,
-177,
-104,
61,
428,
-200,
1543,
-197,
-53,
65,
-2478,
-131,
360,
-15,
816,
267,
-298,
-479,
-414,
793,
-630,
-213,
377,
439,
-402,
-609,
754,
-201,
-42,
-359,
2834,
-45,
500,
240,
-2782,
504,
-688,
-1121,
744,
253,
13,
-602,
1746,
-244,
410,
-166,
-2001,
-312,
1205,
44,
-519,
-2290,
-1960,
-57,
208,
-102,
-160,
-390,
-159,
1456,
-54,
199,
349,
370,
152,
-141,
-1178,
-398,
-67,
-690,
975,
76,
-560,
638,
-303,
-274,
-836,
-327,
-1382,
-784,
-184,
172,
1603,
26,
-1333,
171,
260,
-1102,
280,
245,
-58,
-664,
73,
-578,
54,
1038,
-629,
287,
722,
133,
261,
-657,
456,
-1409,
-100,
-229,
-303,
-266,
475,
678,
-67,
40,
-209,
-284,
373,
-1023,
-891,
-924,
-270,
-930,
-60,
949,
-211,
133,
345,
906,
311,
-550,
-270,
-843,
-130,
209,
-1159,
-318,
115,
-1854,
821,
567,
120,
-216,
-75,
-249,
-175,
420,
-1182,
-563,
-89,
-21,
832,
-668,
-314,
625,
248,
518,
904,
-448,
-344,
-576,
779,
28,
-108,
13,
362,
-836,
296,
236,
-38,
213,
287,
-42,
204,
244,
-205,
-482,
-1137,
1218,
144,
-532,
1680,
39,
137,
-727,
-457,
-320,
-904,
-324,
-1170,
1466,
653,
609,
224,
471,
568,
149,
-311,
1271,
-909,
-467,
177,
-730,
4,
168,
-639,
-1751,
72,
280,
-151,
-259,
83,
-673,
1013,
-701,
-324,
-796,
-474,
-471,
-135,
900,
332,
-622,
-303,
-216,
860,
-1391,
-827,
-318,
-980,
-278,
-1171,
244,
135,
742,
442,
-626,
-77,
746,
-248,
-3,
246,
-296,
-163,
164,
1385,
369,
-240,
166,
-728,
-1076,
-571,
-1208,
-459,
-72,
153,
1204,
930,
205,
276,
-104,
-570,
-100,
-799,
-1447,
-163,
-233,
129,
982,
-285,
92,
77,
1485,
110,
616,
-349,
-1646,
252,
-10,
-1234,
-300,
426,
57,
479,
-905,
525,
-172,
-455,
-84,
-91,
210,
-198,
-517,
820,
444,
130,
-828,
20,
807,
18,
1043,
-227,
-1099,
-107,
-104,
973,
-40,
4,
110,
80,
75,
-155,
-271,
617,
-55,
197,
197,
375,
-74,
-95,
-1436,
-484,
-871,
-210,
1146,
-843,
240,
-309,
-573,
294,
-943,
126,
-515,
-173,
570,
4,
1421,
-179,
835,
476,
240,
378,
373,
-1053,
-810,
199,
904,
-614,
-297,
442,
248,
-151,
638,
563,
105,
-273,
-722,
75,
199,
-323,
-1436,
-303,
327,
-295,
1164,
361,
-338,
-417,
464,
-412,
-216,
-1006,
-1131,
75,
-141,
-738,
205,
-123,
775,
-108,
3,
245,
-8,
250,
261,
-115,
-1338,
388,
-158,
826,
344,
-365,
-837,
-489,
991,
-388,
-239,
809,
86,
-172,
684,
275,
-526,
286,
23,
-179,
579,
-960,
-706,
296,
-696,
587,
841,
-130,
248,
82,
883,
36,
817,
-206,
-740,
400,
215,
-415,
114,
-59,
1126,
294,
-354,
-140,
-158,
-376,
136,
584,
-907,
866,
-220,
299,
121,
-973,
-934,
795,
-720,
295,
425,
-407,
-61,
-43,
-647,
1061,
-142,
-319,
273,
-526,
781,
143,
-90,
622,
366,
-330,
-127,
-191,
515,
474,
-735,
1366,
-1279,
-13,
-446,
-1155,
105,
-529,
-604,
-885,
-207,
547,
-244,
258,
-921,
663,
438,
-1222,
364,
1256,
56,
28,
-1642,
-1169,
902,
-259,
-154,
-121,
-252,
289,
1005,
274,
228,
-105,
-81,
150,
-438,
-141,
209,
-368,
-870,
908,
-400,
-466,
840,
474,
-766,
-285,
259,
-962,
140,
-873,
-346,
486,
-258
};

#endif