#ifndef __MMCBLOCK3_MMLAYER5_BRANCH11_CONV_0_WEIGHT_H__
#define __MMCBLOCK3_MMLAYER5_BRANCH11_CONV_0_WEIGHT_H__

// MMCBlock3_mmLayer5_branch11_conv_0_weight
// (1, 1, 296, 12)
const int MMCBlock3_mmLayer5_branch11_conv_0_weight[] = {
-591,
-317,
-559,
1164,
-101,
-448,
1184,
583,
-537,
210,
14,
178,
658,
434,
450,
-1310,
-600,
495,
130,
594,
599,
-781,
-890,
353,
-242,
-830,
-1689,
-1491,
1150,
-283,
1674,
-386,
754,
119,
420,
-1439,
159,
-508,
-1159,
-2044,
-833,
833,
-1835,
28,
434,
235,
652,
872,
-944,
-867,
-1124,
1111,
103,
-1452,
-3184,
-488,
-794,
-867,
-421,
-1372,
172,
-985,
-50,
-89,
-14,
-81,
790,
619,
573,
548,
318,
584,
285,
657,
-1000,
-154,
583,
11,
-84,
-339,
-379,
-1324,
-691,
174,
-805,
-1046,
2021,
938,
437,
624,
-644,
288,
148,
1127,
110,
509,
-634,
-902,
1072,
-788,
-288,
216,
290,
552,
-1057,
1711,
-220,
-14,
443,
790,
-272,
-138,
195,
379,
-223,
-238,
3,
401,
900,
589,
-564,
688,
-565,
-1147,
611,
-825,
-42,
-315,
1030,
-143,
230,
936,
-386,
5,
287,
154,
1481,
1734,
-1133,
-486,
-943,
-155,
-607,
-699,
-1782,
-1237,
2109,
1290,
-835,
-489,
-1496,
82,
198,
138,
-346,
1070,
-2613,
-639,
-447,
1355,
-292,
189,
-2197,
-1027,
564,
-1125,
867,
787,
1282,
-828,
-933,
7,
948,
-31,
1646,
-556,
-1076,
-931,
-705,
-1321,
-1916,
175,
-1399,
-1770,
1085,
-484,
-147,
-255,
1569,
-139,
802,
1012,
-951,
-758,
-3,
-914,
-630,
-1410,
-1066,
-514,
396,
-394,
974,
1011,
-59,
452,
107,
-490,
-1644,
107,
-137,
3070,
-1810,
-2648,
1902,
13,
3026,
843,
-1510,
-1284,
1572,
-1064,
3127,
1565,
594,
2433,
623,
-1300,
1343,
-1314,
44,
160,
543,
1817,
-417,
-115,
-463,
471,
-633,
-1361,
212,
-1739,
1062,
-1821,
-516,
-2225,
-354,
422,
142,
-93,
426,
433,
285,
346,
-2065,
1027,
964,
-335,
-1010,
130,
-70,
173,
35,
-556,
-1351,
67,
-1386,
412,
637,
15,
-424,
445,
155,
562,
-470,
625,
-585,
-2764,
-478,
272,
-527,
-304,
-1845,
474,
892,
1539,
751,
547,
349,
1838,
-719,
-228,
1555,
-1262,
1431,
-334,
-288,
150,
-376,
-750,
125,
433,
132,
-1900,
1263,
-714,
-312,
-577,
880,
348,
-769,
572,
-502,
-1652,
-46,
134,
229,
425,
-14,
283,
128,
-270,
185,
-339,
-2599,
-210,
-250,
-1560,
-1242,
-2026,
-731,
-1600,
362,
-1277,
-44,
-700,
1596,
-559,
432,
175,
892,
-1724,
1041,
-30,
-198,
-500,
-931,
-845,
-631,
-405,
-654,
-4186,
113,
21,
-677,
-671,
-182,
-309,
76,
-137,
504,
-409,
1582,
29,
-1281,
3666,
-1858,
-1237,
-79,
-1172,
222,
663,
-1479,
-466,
498,
1191,
-604,
-2274,
-988,
184,
-20,
1451,
155,
1006,
-1005,
145,
-1069,
675,
20,
-396,
-880,
-107,
1523,
75,
1318,
245,
-675,
-1081,
-100,
785,
-119,
-2375,
-970,
21,
813,
-237,
210,
601,
-1664,
-1053,
-140,
-2163,
-772,
-967,
1029,
-1668,
-1015,
93,
-862,
-359,
-259,
1426,
82,
-2102,
109,
135,
10,
85,
1168,
469,
447,
305,
-1279,
150,
-1771,
820,
1365,
-667,
-245,
981,
-102,
164,
-482,
-62,
1776,
232,
370,
-427,
-532,
-1206,
1827,
-36,
-1364,
-517,
-121,
-1981,
-1915,
-626,
-203,
-760,
574,
616,
-1342,
-565,
866,
-1226,
808,
1486,
2165,
2912,
549,
1171,
147,
1334,
357,
477,
-293,
1129,
-477,
-281,
125,
792,
-545,
-722,
1287,
113,
-1361,
1198,
200,
1750,
389,
-1093,
-486,
-1040,
-407,
-901,
130,
-12,
-700,
-842,
533,
255,
-247,
682,
870,
931,
-1247,
-1225,
-251,
-78,
378,
-849,
168,
-708,
-121,
-752,
-2607,
-1333,
650,
-519,
-484,
806,
-1784,
-103,
808,
-505,
209,
-34,
-701,
938,
-760,
474,
1473,
85,
2032,
-194,
-122,
-1735,
27,
241,
-1313,
441,
-89,
3096,
138,
1275,
-1751,
-176,
-235,
-177,
-234,
-183,
-313,
1367,
-1985,
1765,
541,
-1524,
-765,
-600,
747,
-608,
295,
646,
113,
-312,
697,
-933,
2312,
-797,
1462,
158,
-468,
-706,
-349,
89,
-1422,
393,
242,
694,
536,
1152,
362,
190,
360,
87,
288,
199,
85,
51,
-1623,
-306,
-302,
302,
28,
-225,
-392,
-207,
-212,
-992,
819,
-1181,
223,
-834,
518,
-734,
2160,
-743,
-1345,
219,
-799,
-1064,
-127,
1421,
-939,
-2048,
108,
-618,
859,
253,
-1136,
-1510,
186,
473,
150,
1281,
251,
261,
-924,
350,
-730,
2503,
-755,
-1748,
1388,
49,
1791,
2523,
-1783,
-328,
1182,
-1913,
-2027,
379,
1213,
12,
461,
531,
-1752,
1215,
-785,
2180,
-885,
1745,
-904,
-867,
1563,
-855,
645,
1068,
-189,
105,
-333,
-2689,
1642,
-710,
263,
-1087,
748,
-888,
-1244,
297,
352,
-2187,
-245,
4124,
114,
-740,
-726,
411,
633,
382,
620,
-216,
-417,
-868,
1544,
-290,
-1333,
324,
-1210,
933,
320,
176,
805,
1522,
232,
384,
1133,
-2505,
1249,
-355,
17,
-731,
-782,
-1047,
-630,
2227,
-1003,
-561,
1750,
5285,
-218,
-144,
-33,
208,
167,
-516,
427,
575,
1146,
341,
-1125,
-1216,
1482,
-1364,
-791,
-4172,
2551,
4459,
-2225,
175,
824,
705,
1330,
-1378,
792,
1194,
-508,
325,
-214,
775,
-695,
279,
398,
-26,
-790,
-385,
-68,
4600,
2508,
-266,
-592,
-452,
-66,
-2099,
-527,
1483,
-443,
-3497,
300,
-617,
527,
1050,
-8,
693,
-59,
1051,
-73,
-387,
1032,
1128,
12,
-2443,
-629,
470,
285,
599,
255,
-85,
1194,
-1981,
-125,
539,
-1125,
-1457,
-84,
-142,
562,
-1260,
334,
323,
-879,
-785,
-433,
-888,
480,
1211,
837,
-542,
8,
-341,
-389,
-485,
-135,
-729,
1016,
-10,
-43,
-264,
-6,
-262,
-1122,
36,
-916,
711,
-679,
1329,
-1635,
36,
26,
-647,
-634,
106,
1785,
158,
1964,
801,
-738,
-1419,
-49,
519,
-996,
3440,
-1594,
-653,
903,
-704,
452,
-65,
-1406,
-1158,
829,
1143,
-1323,
163,
-415,
-285,
-180,
-823,
-1152,
472,
-377,
2938,
-1803,
-2564,
1134,
-128,
466,
251,
-610,
170,
-930,
135,
1,
2123,
-951,
927,
1522,
-1770,
-1035,
927,
-370,
327,
-377,
-1107,
-1763,
807,
-229,
-500,
116,
-1404,
-1310,
-961,
557,
53,
-88,
1946,
-710,
-1078,
2273,
-643,
-841,
-100,
-1577,
-259,
421,
-856,
198,
1147,
-41,
-693,
-660,
-257,
505,
-651,
-216,
846,
440,
-471,
91,
-281,
-1363,
190,
-166,
1023,
319,
2321,
58,
-81,
301,
-104,
-299,
994,
-47,
384,
-798,
2289,
126,
506,
535,
-755,
-511,
-809,
-197,
1161,
925,
-17,
396,
-1641,
-749,
178,
-1044,
754,
948,
428,
448,
141,
1204,
-1979,
374,
-16,
-603,
-1198,
21,
-787,
26,
13,
175,
-682,
-1164,
-732,
639,
-217,
824,
310,
-1989,
168,
-136,
773,
-303,
294,
533,
859,
-46,
2081,
-1389,
-931,
1057,
4813,
-1388,
-4175,
327,
-888,
-1148,
-359,
1889,
-965,
-346,
-690,
367,
653,
568,
527,
-357,
981,
-1105,
-754,
1948,
891,
-199,
-424,
413,
-13,
800,
-582,
638,
-554,
1122,
-922,
330,
2507,
1585,
49,
528,
844,
-559,
663,
-849,
431,
-732,
-266,
1953,
-2332,
-208,
-450,
-864,
265,
57,
-404,
-173,
528,
306,
846,
783,
963,
-415,
74,
692,
596,
300,
887,
353,
-376,
439,
-1707,
304,
2921,
1574,
1131,
-341,
-2244,
554,
4584,
-1840,
223,
-249,
-1157,
126,
496,
511,
-289,
240,
-107,
382,
-1196,
-112,
1201,
-599,
1422,
-1448,
1687,
128,
68,
566,
-650,
-10,
-499,
-307,
-1041,
-1510,
389,
-418,
-604,
522,
946,
-886,
-928,
-140,
-1294,
20,
470,
854,
489,
-168,
-1673,
1048,
1828,
648,
504,
146,
-233,
97,
394,
-310,
358,
-464,
-1324,
-305,
319,
-793,
-176,
762,
24,
133,
-879,
-889,
511,
995,
-1430,
655,
-123,
843,
-170,
601,
-292,
912,
665,
-355,
943,
-637,
-21,
-112,
3184,
1252,
-690,
-1913,
35,
-1539,
-413,
1698,
749,
-1488,
-1159,
-198,
-1109,
1440,
-430,
-16,
-318,
289,
-1004,
1043,
830,
-2469,
-3024,
903,
-2451,
2484,
-37,
136,
177,
546,
-1211,
-1,
2331,
-905,
113,
-21,
-484,
-517,
-686,
1038,
29,
985,
1236,
-770,
-535,
980,
-728,
722,
584,
-830,
17,
-120,
300,
147,
415,
-891,
607,
-957,
-667,
-985,
-1571,
836,
-441,
-68,
-1004,
472,
814,
151,
923,
-1588,
-1686,
903,
634,
211,
589,
607,
815,
861,
-730,
1451,
-174,
-2167,
423,
-624,
-1813,
1226,
485,
40,
-370,
307,
-2046,
347,
450,
1033,
-2807,
469,
-363,
-468,
344,
-526,
961,
-542,
1203,
-904,
-477,
74,
1061,
-679,
630,
452,
271,
213,
502,
327,
-610,
-261,
447,
-1086,
167,
286,
-265,
-1393,
-199,
-155,
-70,
153,
-424,
-1643,
-818,
-17,
-670,
-317,
457,
-905,
-563,
-26,
-684,
-3,
916,
-295,
557,
-634,
311,
1050,
154,
-1062,
-1432,
1335,
346,
-1041,
-127,
241,
-817,
1516,
-240,
-848,
-486,
571,
329,
222,
518,
461,
311,
403,
-361,
1858,
1622,
-151,
-1302,
-562,
-416,
-217,
-25,
185,
859,
126,
-1201,
590,
3452,
-1496,
219,
-1282,
2620,
-1938,
-2073,
1474,
587,
25,
-17,
1030,
108,
176,
624,
-60,
65,
259,
73,
0,
24,
-192,
-471,
-183,
-782,
509,
1150,
-371,
15,
540,
673,
582,
160,
-104,
645,
361,
798,
-109,
-130,
-445,
287,
77,
207,
-30,
-233,
544,
1457,
4,
2223,
318,
-1540,
1504,
-303,
-33,
-174,
-120,
-1927,
536,
445,
144,
279,
552,
1439,
295,
258,
725,
525,
646,
243,
623,
242,
-730,
-87,
-285,
382,
1926,
473,
81,
-105,
110,
313,
507,
428,
885,
2847,
197,
421,
-737,
-514,
816,
-166,
530,
205,
649,
478,
395,
361,
-1195,
-153,
-338,
3496,
-967,
-1710,
863,
-228,
100,
7,
307,
-669,
2175,
-277,
-214,
-3712,
1527,
3791,
-2401,
168,
-1148,
-1669,
-196,
637,
-840,
-1115,
-1063,
484,
52,
31,
-167,
-439,
449,
-489,
-3,
3092,
110,
-392,
-1539,
-2095,
1553,
3070,
-1428,
461,
-755,
-241,
-319,
-173,
-578,
-744,
-261,
204,
-406,
-288,
-513,
-209,
106,
303,
-682,
1246,
-475,
-186,
2086,
-1249,
301,
-863,
491,
-112,
2129,
1201,
-798,
-1487,
621,
2564,
-472,
-177,
925,
-1322,
679,
1023,
179,
-1097,
1072,
6864,
24,
323,
-299,
-173,
-303,
-425,
-817,
196,
-567,
1300,
336,
-723,
-6,
-1374,
-1834,
340,
-720,
378,
350,
1196,
69,
-2169,
-115,
-144,
-715,
316,
-105,
-523,
-1246,
633,
-882,
352,
1187,
905,
-491,
-467,
2249,
865,
1436,
1320,
-942,
555,
-374,
-880,
-1808,
-87,
891,
1088,
-275,
498,
-1048,
258,
-238,
1133,
-438,
282,
-498,
2855,
737,
-1425,
271,
-1096,
-1591,
438,
-657,
69,
-465,
446,
-2583,
-300,
2031,
123,
-1509,
272,
-1254,
-631,
749,
-1628,
1001,
2231,
-197,
824,
72,
-1111,
-97,
-750,
-629,
-1765,
-223,
-1141,
456,
1168,
1472,
973,
1430,
1434,
236,
236,
-927,
97,
-374,
360,
-487,
-1410,
502,
446,
-1470,
-481,
1301,
-750,
-512,
-348,
-773,
1882,
-559,
-1282,
480,
674,
1360,
2627,
-350,
537,
-1013,
340,
-640,
1442,
-10,
-33,
-1024,
114,
-225,
-1984,
143,
156,
471,
482,
508,
-510,
273,
1002,
-1733,
-1591,
-49,
-124,
-491,
3128,
-396,
330,
-10,
547,
373,
-61,
-1903,
-1405,
690,
2115,
-457,
2969,
64,
131,
790,
1548,
763,
260,
174,
-259,
-221,
-1076,
-413,
-331,
-300,
-70,
699,
389,
-23,
-355,
1398,
1027,
415,
-210,
-1181,
-898,
-285,
-49,
348,
-52,
952,
-389,
335,
-920,
-278,
-540,
-1313,
-1683,
3625,
-1374,
9,
-438,
353,
-661,
-1143,
-1066,
185,
-1428,
175,
756,
-1524,
1132,
-221,
586,
-416,
-424,
236,
782,
-10,
-621,
-71,
406,
-2644,
938,
965,
1489,
1086,
-1164,
1000,
703,
-617,
2312,
-580,
-1023,
1027,
-413,
5,
-110,
219,
-298,
576,
558,
24,
-184,
-1066,
-1627,
-891,
3745,
-2028,
-3806,
2367,
-57,
-68,
-1247,
-431,
465,
-543,
-453,
23,
-113,
45,
1532,
87,
-253,
-930,
-650,
2375,
-983,
-905,
1575,
329,
-468,
420,
132,
662,
-1317,
1073,
-1098,
-67,
304,
-79,
-1116,
154,
126,
240,
377,
243,
-55,
389,
689,
1093,
-514,
-52,
2937,
81,
217,
-898,
224,
-693,
128,
-1757,
-2187,
-241,
438,
45,
2487,
-1973,
855,
-681,
1143,
-212,
364,
-565,
1591,
809,
-1259,
-684,
-6,
1694,
-789,
-1085,
-725,
-859,
-113,
-508,
-2812,
-282,
750,
-419,
-860,
52,
-324,
94,
-16,
152,
-583,
511,
-1048,
967,
766,
-521,
299,
-918,
-87,
296,
-236,
703,
517,
-959,
-421,
1291,
790,
798,
720,
-811,
192,
-425,
-202,
255,
902,
576,
688,
80,
-280,
-1474,
-566,
1294,
-245,
1508,
155,
1990,
-883,
-169,
231,
-179,
1327,
-273,
-542,
643,
-810,
117,
-24,
-568,
-154,
1046,
2212,
666,
-1289,
-383,
-84,
-326,
-253,
539,
-500,
603,
95,
-878,
-1449,
-1221,
-468,
-1017,
1069,
-731,
-188,
-170,
-259,
179,
74,
18,
857,
-44,
-1829,
-25,
185,
819,
664,
-413,
-722,
284,
655,
1653,
1276,
-1245,
-1040,
1476,
765,
280,
211,
490,
820,
564,
-1200,
553,
-863,
-407,
1361,
196,
-1496,
1392,
933,
1379,
945,
1356,
-1100,
-530,
1395,
1207,
-1205,
206,
-1960,
-46,
549,
620,
-51,
19,
1183,
1305,
18,
-1597,
-2255,
-156,
-1841,
264,
-323,
-116,
185,
-131,
-1467,
556,
901,
521,
-846,
266,
77,
-308,
415,
-182,
25,
235,
375,
712,
486,
-1074,
-2240,
-401,
781,
-1001,
160,
132,
-712,
549,
-434,
987,
-803,
-5,
1730,
1140,
-366,
-391,
345,
-516,
-213,
-217,
-1454,
39,
2166,
1347,
-565,
724,
-608,
135,
916,
489,
1201,
1167,
287,
-913,
-705,
242,
1212,
51,
-1121,
1703,
-82,
-384,
265,
-308,
-102,
691,
-731,
366,
-572,
-1551,
74,
-684,
7234,
-2765,
-4747,
735,
-771,
-431,
-298,
1491,
792,
1209,
431,
-908,
-527,
-742,
59,
-522,
973,
1987,
1117,
-154,
313,
444,
525,
-1020,
357,
1366,
11,
508,
250,
1059,
255,
-1474,
-417,
217,
-114,
973,
2539,
-181,
475,
-349,
-1321,
1082,
2059,
583,
0,
813,
-900,
1559,
229,
333,
324,
-225,
496,
-146,
-408,
-716,
-913,
547,
1131,
481,
213,
-415,
323,
310,
-1100,
326,
1452,
-433,
-1651,
1365,
-572,
566,
377,
755,
-156,
296,
-222,
-1687,
-333,
406,
-1856,
-412,
302,
-1230,
-595,
-71,
-1294,
-102,
1252,
487,
-1294,
723,
1081,
-1173,
2010,
1893,
708,
-909,
261,
-1313,
-1521,
631,
2455,
-353,
432,
-491,
-36,
224,
210,
-815,
-687,
-790,
-1770,
2049,
3174,
-485,
-1345,
261,
1248,
944,
681,
-725,
-112,
-1150,
-1565,
707,
1290,
-590,
-383,
616,
861,
1955,
879,
-557,
1296,
-334,
51,
-1455,
-790,
138,
-828,
-358,
-243,
-822,
-565,
-825,
-1018,
-864,
-1487,
-1457,
-1482,
377,
-241,
631,
2359,
-2427,
351,
416,
-739,
374,
-36,
-1309,
-534,
295,
813,
1115,
-1478,
-165,
-420,
380,
-733,
-41,
1558,
-55,
867,
766,
-1799,
819,
-214,
-899,
-1832,
-732,
719,
1504,
540,
-96,
-1766,
300,
-1063,
-259,
-747,
-1685,
-650,
-377,
-1355,
-222,
1123,
-588,
-889,
-766,
-1339,
631,
-168,
-316,
174,
-727,
-374,
-228,
-10,
-674,
-334,
149,
-1037,
264,
3542,
492,
-188,
-759,
-271,
-1089,
136,
507,
-1758,
-182,
2189,
-799,
1031,
693,
414,
-1384,
491,
-1077,
-1781,
-207,
-1290,
-1117,
625,
-87,
1571,
-1439,
-140,
95,
-195,
352,
-587,
-603,
-19,
1418,
546,
-483,
-878,
205,
-202,
244,
531,
102,
675,
-195,
-1910,
813,
1833,
-1312,
738,
-562,
4090,
-2118,
-2095,
1295,
414,
1078,
-487,
1411,
-552,
-482,
255,
1297,
215,
-282,
962,
196,
375,
-64,
-503,
-953,
-2682,
-85,
206,
-593,
-1297,
729,
125,
348,
-1088,
492,
-1318,
154,
-230,
2141,
1526,
863,
790,
-1061,
104,
-693,
-921,
419,
-1360,
451,
1045,
-461,
-1967,
782,
533,
325,
422,
278,
-1564,
395,
-1086,
840,
-1357,
1615,
-125,
99,
-4746,
1497,
6832,
-2759,
-241,
188,
-537,
867,
-597,
-464,
-456,
595,
1987,
-1030,
-1698,
1510,
312,
-177,
1439,
-304,
1862,
151,
-2574,
-634,
-53,
342,
-413,
412,
1686,
1199,
1448,
-428,
-2648,
-219,
933,
465,
-237,
420,
-615,
225,
-1919,
-273,
-902,
-140,
625,
-1119,
187,
-1215,
1359,
-414,
2598,
-221,
386,
-907,
-1960,
1303,
-1445,
-117,
-825,
-1459,
-1259,
10,
-280,
45,
949,
955,
612,
22,
127,
75,
383,
-160,
70,
-962,
-987,
1115,
630,
1043,
-383,
789,
-2744,
62,
1029,
961,
-425,
-132,
-860,
-286,
21,
837,
-1109,
-519,
-900,
-271,
1919,
454,
640,
-473,
-614,
1078,
877,
-990,
1103,
-492,
373,
-517,
331,
-1191,
-28,
877,
397,
347,
1314,
-358,
-574,
-325,
1712,
76,
617,
-356,
675,
288,
120,
-91,
-1048,
-935,
-332,
-176,
-734,
131,
1791,
-785,
-355,
690,
-362,
258,
-2790,
-108,
125,
224,
555,
130,
1430,
-331,
79,
347,
1711,
-945,
880,
-273,
272,
1065,
1243,
69,
-226,
-358,
392,
-930,
923,
-425,
-27,
-286,
585,
-131,
35,
322,
-387,
-648,
991,
563,
1153,
3,
-589,
-755,
303,
-659,
1759,
-1438,
-671,
-268,
-96,
-97,
-556,
770,
-515,
-1761,
-319,
1345,
2552,
-2020,
-741,
-601,
-969,
-440,
-846,
-255,
1181,
-976,
-738,
239,
-1175,
-664,
15,
-500,
134,
372,
413,
270,
-244,
-382,
60,
-860,
831,
-762,
-285,
-874,
-550,
-538,
-1044,
-387,
-852,
2478,
-530,
-684,
-473,
-242,
-703,
1249,
782,
383,
874,
644,
826,
383,
1242,
237,
-2041,
179,
-1346,
-497,
450,
106,
484,
144,
113,
1494,
-1882,
-232,
-504,
360,
2881,
100,
746,
187,
627,
-623,
121,
392,
1594,
1731,
139,
-1372,
-712,
-429,
-1066,
321,
-2185,
-942,
-485,
674,
833,
445,
-1759,
-260,
-1327,
383,
-448,
-376,
203,
-50,
-203,
592,
-460,
1155,
-1182,
110,
-503,
-481,
463,
195,
474,
252,
182,
389,
718,
984,
-946,
-1115,
252,
675,
470,
-502,
611,
65,
702,
870,
-717,
271,
-321,
48,
-625,
-1235,
-308,
-244,
-688,
-290,
439,
2,
-154,
-859,
-1677,
370,
-1736,
208,
93,
8,
-929,
-572,
128,
-165,
-738,
245,
511,
1153,
1464,
-497,
1122,
77,
-584,
-119,
-135,
582,
654,
1079,
-275,
1953,
34,
396,
902,
-1269,
687,
750,
324,
-863,
-1684,
862,
-567,
236,
1214,
-825,
435,
-483,
-54,
-233,
374,
477,
130,
-43,
-837,
-436,
158,
2169,
-118,
1014,
-250,
607,
-46,
-669,
-1970,
-916,
-2382,
-800,
-1243,
598,
-1161,
432,
-574,
229,
-349,
-18,
746,
393,
-178,
-644,
77,
-773,
2690,
-436,
-939,
378,
889,
-170,
1276,
581,
3539,
-1245,
-1340,
-882,
183,
-575,
111,
-781,
930,
-1731,
-2824,
-335,
986,
-190,
606,
422,
-784,
308,
-306,
77,
-1318,
737,
139,
163,
-1086,
452,
-1556,
399,
560,
329,
845,
172,
-147,
1862,
-872,
725,
670,
-111,
-2351,
463,
423,
-1071,
514,
-491,
-1448,
296,
416,
256,
-814,
-88,
-977,
-59,
95,
628,
-1119,
159,
47,
646,
-115,
734,
-977,
11,
887,
720,
-14,
701,
1563,
-1212,
-270,
498,
-928,
-257,
-1817,
589,
-1085,
-90,
235,
1875,
539,
1676,
-612,
-259,
-1044,
932,
-648,
94,
73,
-236,
41,
-79,
784,
-1355,
538,
103,
1015,
1389,
2593,
-662,
-13,
739,
-846,
97,
-413,
759,
-785,
-347,
-695,
97,
1490,
-1446,
207,
-876,
-414,
-131,
686,
106,
393,
-340,
-31,
-339,
-840,
-75,
243,
-791,
-201,
-109,
7,
456,
429,
0,
-9,
2,
1,
-6,
-2,
0,
-1,
-4,
-8,
-4,
0,
-1482,
-995,
-259,
392,
296,
-827,
-1501,
1363,
294,
450,
-287,
205,
-318,
-132,
270,
-686,
306,
191,
-374,
235,
180,
500,
24,
476,
47,
-15,
270,
-432,
-135,
-369,
-128,
-590,
358,
-632,
-756,
433,
0,
0,
0,
0,
0,
0,
0,
0,
0,
0,
0,
0,
1003,
1394,
304,
2063,
704,
912,
981,
-421,
124,
152,
90,
278,
-271,
384,
494,
682,
-58,
-584,
-309,
60,
-416,
-424,
-385,
-142,
966,
736,
-103,
-671,
43,
1361,
244,
-76,
7,
-352,
277,
671,
22,
-280,
-2459,
2790,
-544,
-788,
-845,
-478,
578,
-206,
198,
1432,
2316,
-688,
-267,
-1492,
-191,
349,
195,
-435,
565,
460,
-37,
-127,
-1106,
976,
-314,
763,
381,
286,
-108,
-174,
192,
-988,
-213,
-579,
368,
-478,
535,
-1968,
-873,
-1225,
-299,
783,
517,
1574,
360,
714,
-186,
-94,
1549,
527,
-1159,
42,
-937,
-868,
890,
-896,
906,
-667,
1162,
1293,
-171,
1076,
172,
431,
863,
14,
1856,
348,
1103,
1840,
-169,
-1634,
1432,
-589,
-103,
2428,
-68,
80,
-494,
361,
-3,
-103,
-117,
-1216,
337,
266,
-965,
-182,
-110,
-116,
86,
-581,
26,
116,
1692,
-602,
544,
857,
-546,
-1415,
133,
-32,
875,
-36,
312,
-720,
-1573,
-1559,
-683,
-572,
-539,
-1592,
-36,
-1563,
-1258,
-1200,
-1252,
-2376,
-1310,
-554,
-995,
-479,
599,
-681,
-2064,
819,
7,
578,
-864,
708,
1106,
-254,
-146,
-711,
-607,
-232,
889,
1334,
700,
713,
752,
-594,
-1118,
535,
-951,
-1555,
1323,
499,
1464,
-420,
-2058,
663,
-1677,
-1779,
-1218,
1067,
56,
51,
-284,
-2636,
-1178,
-732,
-35,
-183,
230,
163,
74,
-1054,
-118,
-319,
-732,
444,
523,
682,
-1067,
615,
-807,
-98,
-893,
-1459,
-865,
-33,
-803,
-625,
-1726,
-214,
350,
-1063,
499,
-599,
1422,
-170,
312,
1302,
-1623,
55,
-2408,
-289,
1904,
-452,
544,
2704,
1581,
278,
1076,
1382,
-1155,
809,
-379,
-171,
199,
-347,
100,
-55,
358,
-778,
2064,
304,
-710,
-779,
-681,
-558,
10,
-330,
94,
-584,
136,
-222,
-2186,
-1406,
1320,
1033,
1403,
981,
-1393,
938,
-1627,
-1680,
-91,
-208,
-1234,
-514,
311,
-228,
980,
-273,
-1608,
2240,
336,
9,
-971,
-570,
738,
-1223,
-1105,
1378,
-1788,
-616,
607,
112,
313,
-699,
-355,
-1809,
849,
677,
689,
1297,
-1480,
140,
1181,
295,
1655,
57,
603,
149,
2486,
2810,
421,
-703,
-967,
-136,
1929,
648,
1792,
2136,
162,
1119,
214,
-1730,
1290,
-2091,
651,
1290,
-783,
-744,
-1169,
-253,
-618,
-792,
-972,
827,
1599,
-909,
-64,
-155,
-1198,
-477,
1323,
330,
-210,
-647,
600,
2471,
-1090,
-251,
197,
-409,
1244,
-65,
273,
449,
-67,
2529,
1200,
-2071,
202,
803,
-1165,
-1174,
-1733,
2035,
-858,
672,
-161,
-461,
-35,
-1090,
-149,
-715,
628,
1470,
1943,
768,
211,
-80,
-115,
1125,
708,
-1730,
-867,
697,
-1267,
-1764,
1944,
-1389,
-1758,
-180,
0,
0,
0,
0,
0,
0,
0,
0,
0,
0,
0,
0,
657,
1480,
1862,
-772,
-354,
596,
-309,
1547,
-597,
-1832,
-289,
644,
-453,
789,
428,
-567,
919,
-1529,
-480,
168,
-858,
1044,
-1108,
-372,
-186,
-839,
1187,
-2359,
1255,
-1024,
451,
219,
-271,
596,
306,
117,
59,
1270,
35,
-1994,
575,
800,
-1974,
-1348,
-1839,
-1689,
2018,
-438,
-412,
-1281,
-246,
279,
-618,
1431,
-1512,
529,
75,
616,
426,
-848,
-103,
229,
-1,
-2703,
229,
-589,
1150,
-359,
-641,
-251,
-1482,
-121,
383,
239,
-280,
961,
-700,
2503,
1440,
-136,
-176,
127,
39,
-148,
-1539,
-1866,
-579,
-1402,
18,
-431,
-486,
-31,
-609,
-221,
86,
648,
-1260,
-999,
-712,
-2348,
-592,
-218,
479,
-393,
-698,
-451,
-833,
566,
1101,
1066,
1107,
75,
-263,
737,
-557,
-767,
-1173,
-811,
-978,
-1317,
-194,
1423,
-1095,
497,
-1392,
-361,
-1385,
-196,
-644,
463,
2,
370,
-606,
-585,
-1803,
-1804,
-311,
499,
909,
128,
-936,
-255,
-1344,
220,
1443,
-384,
893,
2106,
-191,
-538,
458,
-334,
429,
-760,
-29,
1345,
-734,
-61,
1587,
-658,
592,
-904,
642,
995,
-936,
-211,
-684,
-55,
-1056,
24,
-851,
136,
81,
-1573,
-290,
701,
814,
512,
402,
-132,
-414,
-1310,
-21,
1036,
161,
-1408,
688,
718,
-240,
603,
-7,
749,
722,
493,
587,
-626,
-807,
979,
-182,
-107,
-760,
-101,
-1108,
-6
};

#endif