#ifndef __MMCBLOCK3_MMLAYER8_BRANCH11_CONV_0_WEIGHT_H__
#define __MMCBLOCK3_MMLAYER8_BRANCH11_CONV_0_WEIGHT_H__

// MMCBlock3_mmLayer8_branch11_conv_0_weight
// (1, 1, 368, 12)
const int MMCBlock3_mmLayer8_branch11_conv_0_weight[] = {
1212,
-1132,
-577,
-74,
-649,
-511,
-1213,
-700,
-695,
-459,
-164,
-325,
12,
-965,
-23,
-501,
1383,
948,
676,
1107,
-1436,
-210,
-64,
-215,
-1229,
1408,
286,
417,
18,
-597,
1513,
-213,
-817,
-1183,
1837,
-2297,
-825,
-694,
389,
-539,
-345,
926,
-887,
-617,
-1295,
-1105,
588,
-116,
1248,
-2359,
-2880,
88,
84,
-104,
-5,
-1896,
525,
6,
296,
691,
-88,
321,
575,
-408,
-443,
-59,
-904,
1720,
100,
-59,
648,
-297,
-1097,
-1583,
-18,
112,
-398,
1154,
1445,
-255,
664,
-857,
-280,
3911,
-109,
259,
774,
-28,
-339,
-867,
-509,
248,
527,
122,
81,
-923,
545,
2083,
-142,
280,
-304,
543,
432,
-346,
-848,
59,
-895,
-275,
386,
662,
-380,
329,
1102,
122,
-133,
-137,
-92,
-515,
1294,
-896,
-339,
-170,
276,
-553,
-800,
713,
1441,
3534,
-959,
-935,
125,
-1133,
91,
-1092,
-824,
241,
726,
-760,
-160,
2261,
325,
-691,
-303,
-574,
-130,
716,
-182,
-350,
469,
708,
256,
-383,
119,
292,
-191,
1421,
956,
-34,
-1191,
-929,
-1553,
-24,
-1106,
-1364,
1222,
802,
-2054,
2490,
-239,
-2,
1463,
238,
-537,
683,
1214,
-1464,
1496,
-392,
1100,
1184,
169,
-1007,
-790,
-847,
-1065,
147,
-1122,
-86,
1077,
-680,
555,
-1235,
6,
1556,
591,
-234,
-29,
505,
416,
122,
452,
158,
10,
-258,
-14,
-180,
-173,
1844,
-1703,
-177,
-354,
-127,
613,
400,
753,
-29,
-1589,
-632,
213,
1379,
195,
423,
-47,
812,
135,
-1771,
1522,
-1611,
-293,
-751,
1129,
-91,
728,
-728,
-987,
-22,
-1539,
751,
1402,
-424,
-995,
-62,
490,
331,
233,
-339,
327,
-504,
1222,
-1947,
-245,
-1478,
986,
-1101,
-545,
880,
207,
-337,
458,
1232,
-169,
-10,
162,
-249,
-662,
231,
184,
568,
1497,
711,
156,
-896,
685,
24,
1606,
364,
-492,
850,
445,
-494,
-269,
59,
96,
-113,
127,
751,
553,
393,
1009,
402,
472,
-496,
-1144,
-1838,
33,
3420,
-628,
-338,
1518,
-1112,
123,
371,
-455,
-2989,
1476,
-1034,
-197,
315,
-171,
55,
1084,
4,
1670,
-2547,
-2030,
673,
370,
-1450,
-1189,
-1246,
862,
148,
539,
-442,
1608,
-1827,
-2301,
-651,
-926,
-625,
-924,
-2000,
1929,
385,
-771,
-1843,
-385,
416,
481,
-329,
-11,
-1398,
856,
1491,
1054,
-879,
310,
-270,
-75,
2201,
-1655,
179,
360,
346,
-34,
935,
601,
542,
557,
-262,
1076,
-816,
-385,
57,
161,
-1239,
-1321,
-3308,
-929,
191,
930,
-456,
347,
941,
576,
965,
41,
1701,
377,
-1755,
-413,
-554,
-639,
1023,
-987,
-3124,
61,
-624,
-938,
-1152,
465,
-1685,
-415,
-302,
-508,
2985,
-342,
388,
1421,
345,
67,
-591,
1160,
-243,
-1421,
-1254,
432,
971,
1038,
-1320,
-771,
-656,
-402,
-544,
347,
793,
-1241,
1159,
1208,
-461,
-7,
1462,
295,
63,
-402,
-615,
776,
-237,
-1016,
1048,
331,
322,
-425,
-333,
1460,
680,
-235,
-148,
424,
-1784,
-1501,
-928,
-322,
2666,
-592,
1639,
1348,
-671,
30,
-921,
131,
-240,
877,
-259,
34,
1162,
-670,
-303,
-242,
413,
887,
1038,
215,
-2354,
-691,
502,
-94,
1812,
172,
-1999,
-913,
-265,
177,
1934,
-1218,
-817,
-466,
617,
-859,
91,
-909,
2268,
-1398,
-657,
-161,
-552,
645,
315,
-913,
-259,
197,
-785,
112,
1067,
377,
-353,
588,
-835,
-410,
-345,
238,
143,
148,
-83,
1067,
1525,
-1168,
-1244,
-1214,
-451,
130,
497,
1147,
122,
50,
778,
-462,
140,
-583,
2,
266,
-488,
-274,
-430,
2270,
-70,
425,
-290,
-112,
187,
1543,
-702,
-225,
-983,
-114,
1591,
833,
-1453,
559,
616,
-292,
-49,
-768,
-181,
-454,
2466,
303,
705,
1098,
-1164,
-1139,
384,
-1132,
1012,
-165,
-327,
415,
467,
-20,
-501,
88,
1359,
-595,
2852,
-800,
-2151,
1760,
-980,
-725,
-1285,
-121,
1954,
-1171,
-941,
2196,
666,
-130,
-47,
-386,
-87,
1469,
-145,
-77,
1007,
-301,
316,
679,
-145,
-496,
-2450,
-4,
-287,
-437,
-1036,
119,
-1990,
647,
-1335,
-62,
-952,
-1112,
969,
761,
563,
-693,
1349,
478,
-827,
1912,
-772,
-14,
-1126,
499,
-1243,
1072,
-920,
274,
332,
-253,
3063,
-664,
-1118,
1028,
-8,
-741,
-344,
27,
2023,
-1180,
300,
536,
396,
-711,
-260,
-775,
-54,
-426,
-52,
88,
145,
74,
-1394,
311,
1253,
-397,
4,
40,
-407,
-772,
-945,
-447,
-1412,
-1114,
-240,
-33,
-164,
1595,
-625,
-2342,
3472,
-37,
-997,
505,
-367,
-7,
-599,
-551,
363,
-378,
-897,
1054,
-403,
658,
3507,
2,
494,
-7,
-45,
-1488,
1282,
797,
-571,
-755,
-1162,
-362,
-270,
-749,
303,
-85,
-883,
536,
-547,
983,
1208,
583,
843,
629,
-637,
-777,
952,
988,
1457,
-514,
-882,
561,
-706,
-156,
197,
263,
-28,
602,
-441,
-89,
1718,
-476,
1751,
-1628,
-1097,
332,
1080,
-419,
89,
613,
-2692,
2778,
586,
-344,
304,
394,
-130,
131,
-1465,
640,
-689,
-279,
1020,
308,
308,
-1534,
100,
-309,
656,
-1142,
-1407,
-1481,
448,
955,
-59,
431,
-325,
-680,
-544,
678,
220,
2415,
1133,
73,
-335,
554,
-117,
377,
-275,
-1077,
139,
-1461,
243,
-1183,
-743,
-1090,
1631,
-241,
-375,
-1000,
663,
-521,
1562,
1630,
-779,
31,
132,
-673,
629,
-377,
-356,
-248,
-584,
306,
1683,
-166,
-544,
-739,
170,
992,
2102,
-631,
32,
233,
319,
1520,
-102,
3359,
-897,
138,
-635,
630,
-1603,
-737,
-221,
-82,
1204,
799,
-2272,
1639,
655,
-2237,
121,
-197,
-739,
-1407,
163,
375,
426,
-326,
-314,
-470,
413,
-1499,
-1058,
-260,
-324,
-512,
-597,
-1271,
-1092,
-1092,
-490,
369,
-548,
-403,
47,
-440,
455,
131,
-171,
-665,
125,
1156,
-1613,
518,
538,
-1035,
2053,
138,
-449,
-1339,
626,
788,
1830,
-179,
798,
-974,
-1644,
-417,
265,
139,
42,
-565,
-363,
-210,
-85,
1319,
1939,
-901,
623,
249,
-572,
1428,
-2086,
-773,
499,
179,
-831,
-497,
1395,
1103,
478,
-25,
635,
-480,
2020,
-217,
718,
383,
610,
574,
513,
173,
1131,
216,
1824,
-302,
184,
-896,
-690,
-939,
17,
-238,
790,
89,
-1019,
-587,
-108,
1383,
-784,
-936,
-284,
-603,
-981,
-508,
1596,
-725,
1157,
662,
190,
-717,
-867,
-808,
123,
514,
748,
302,
-1409,
-305,
-1601,
-49,
1610,
541,
442,
340,
498,
300,
115,
630,
937,
-581,
364,
576,
405,
181,
-878,
-63,
1177,
104,
-757,
-977,
749,
-1372,
-578,
897,
-2640,
96,
-1487,
-430,
-72,
723,
618,
-587,
-2287,
398,
213,
-849,
-148,
-55,
-535,
809,
1792,
-821,
425,
57,
-289,
-345,
-543,
-392,
-585,
-263,
-993,
375,
526,
431,
-117,
426,
301,
396,
2103,
514,
1353,
55,
-1556,
278,
20,
988,
-1116,
843,
-1879,
-510,
-551,
-9,
-727,
-766,
493,
1513,
-695,
-150,
160,
541,
225,
539,
-436,
-407,
1825,
-785,
-1356,
1274,
-752,
-971,
249,
732,
-951,
288,
-1383,
-183,
-755,
1298,
-559,
-793,
602,
875,
-168,
154,
1927,
-301,
2391,
802,
441,
953,
15,
-473,
-2503,
2589,
360,
-275,
-1439,
34,
-619,
-858,
-42,
544,
-495,
61,
393,
451,
227,
-834,
-588,
-494,
-219,
581,
-155,
1013,
-565,
840,
-161,
-259,
-112,
577,
316,
-1463,
-1186,
-202,
-594,
2423,
700,
-1322,
-884,
-833,
-1352,
-1545,
687,
37,
1931,
-338,
662,
-406,
258,
-1215,
58,
1,
231,
-972,
1796,
622,
1416,
1596,
-38,
562,
-2078,
-2232,
525,
53,
283,
481,
-838,
909,
-790,
223,
-254,
65,
787,
225,
-463,
-571,
49,
-438,
382,
769,
-722,
-695,
-318,
370,
803,
370,
-255,
-348,
-922,
-404,
41,
-1366,
-399,
407,
-418,
722,
-1052,
424,
-1490,
-903,
-1063,
-421,
-778,
-568,
-699,
-900,
331,
-800,
-44,
669,
-401,
-589,
-841,
751,
-441,
1002,
-1005,
561,
1793,
-619,
-187,
-1065,
404,
26,
87,
-19,
768,
873,
31,
-934,
-1064,
682,
-496,
110,
403,
224,
133,
-502,
1298,
205,
1389,
101,
-871,
118,
-449,
1,
1328,
779,
457,
949,
-1428,
-185,
-1985,
-563,
-386,
-731,
-1556,
-168,
-314,
838,
1311,
935,
278,
-1029,
-1496,
843,
1238,
82,
977,
-649,
-131,
-606,
-1197,
-1412,
-874,
111,
-1494,
-533,
-634,
1071,
-219,
-425,
1164,
620,
566,
74,
1601,
-369,
678,
-347,
-543,
-174,
-1907,
-262,
450,
844,
7,
352,
-1407,
-1461,
376,
348,
756,
126,
72,
-195,
-291,
-1326,
-601,
57,
29,
-208,
-1320,
-23,
-642,
479,
31,
-550,
-603,
-109,
-568,
1136,
-36,
701,
-183,
90,
1619,
-394,
-485,
-387,
-1091,
2212,
383,
153,
1371,
-141,
-522,
-90,
-223,
-1692,
925,
648,
919,
485,
891,
695,
95,
554,
-279,
-32,
-1292,
-145,
1151,
-1253,
147,
206,
891,
-797,
-951,
-1093,
2017,
-34,
-814,
80,
-1267,
-1110,
2086,
-1594,
213,
614,
-1018,
-1057,
716,
-556,
-566,
-542,
3243,
1049,
226,
19,
854,
-162,
-345,
524,
-989,
355,
516,
312,
-235,
15,
-398,
-1081,
-984,
-73,
-508,
664,
149,
93,
-668,
-421,
364,
-358,
245,
259,
-939,
-88,
-1936,
-1531,
351,
930,
-554,
-886,
1396,
866,
17,
306,
-1721,
4,
1307,
-2244,
-478,
612,
811,
-1235,
1858,
-714,
-991,
-385,
-755,
-288,
978,
-58,
-82,
389,
288,
-73,
779,
2335,
-61,
786,
1600,
138,
-328,
-359,
915,
755,
1893,
-701,
1369,
745,
-795,
-720,
522,
-180,
2402,
-1116,
204,
-1001,
8,
-382,
1164,
-230,
2757,
-1326,
-27,
-456,
844,
-102,
431,
649,
235,
-184,
-759,
-139,
-1360,
2129,
618,
-3,
468,
-191,
485,
365,
-7,
110,
100,
-514,
444,
280,
1047,
-1151,
-692,
338,
1050,
83,
-181,
-652,
-916,
-853,
-1895,
2355,
147,
243,
226,
-1447,
272,
-150,
69,
-239,
-268,
900,
443,
53,
-160,
132,
846,
-673,
642,
600,
-710,
1133,
1591,
238,
-268,
9,
-48,
851,
525,
784,
1451,
-354,
804,
81,
870,
882,
-1790,
-1552,
257,
440,
267,
-799,
754,
87,
560,
-255,
-208,
-606,
285,
-21,
756,
-457,
-944,
720,
423,
-830,
64,
-127,
11,
-823,
1181,
1142,
943,
-126,
-1333,
-115,
355,
-915,
-1101,
662,
6,
-1040,
-367,
-682,
-580,
-1398,
-1595,
-210,
-848,
-1142,
-1026,
365,
-266,
693,
626,
585,
123,
-682,
1530,
774,
1798,
1099,
-82,
362,
185,
-773,
-525,
-431,
1481,
1046,
-1380,
-25,
-1189,
-2522,
-1078,
1628,
-848,
-1197,
-114,
196,
-31,
-677,
2110,
-327,
597,
-28,
-648,
-198,
-301,
1181,
-493,
-140,
406,
-4,
7,
-658,
148,
404,
1330,
670,
548,
-1520,
-423,
-1067,
770,
-380,
-1668,
-685,
261,
-2417,
1450,
-1091,
1371,
-736,
844,
1007,
421,
410,
287,
-580,
909,
-337,
-1035,
-254,
1386,
1366,
116,
-770,
-32,
376,
2081,
-1071,
-2323,
379,
-1258,
-490,
-983,
-1073,
1458,
722,
-1338,
-445,
39,
177,
963,
959,
-1281,
-399,
-336,
180,
-153,
-469,
-149,
472,
-402,
-683,
-540,
333,
1203,
-960,
255,
625,
327,
-298,
157,
27,
33,
-596,
-538,
1600,
405,
106,
-111,
-675,
-336,
-223,
-189,
313,
493,
-359,
-298,
-487,
-223,
317,
442,
-962,
-56,
-648,
-750,
476,
124,
254,
-726,
-94,
-824,
-292,
-545,
-970,
583,
713,
-492,
-180,
-313,
-403,
726,
-77,
-1511,
1049,
276,
200,
-988,
-19,
-633,
94,
-1004,
-116,
40,
-1328,
-313,
623,
-40,
-233,
-44,
317,
-1448,
-832,
-160,
46,
281,
943,
-1535,
1520,
-538,
4,
-546,
163,
-1187,
-1379,
1993,
-1451,
-834,
283,
-1868,
9,
-970,
212,
-338,
-438,
-28,
-13,
-842,
-2359,
622,
175,
803,
24,
204,
-385,
3018,
-2601,
512,
-124,
-345,
27,
530,
-356,
336,
-717,
2299,
302,
123,
-278,
-591,
355,
-185,
-1131,
-653,
1260,
399,
261,
-1663,
355,
491,
1281,
-1317,
858,
-779,
370,
670,
480,
1184,
-215,
1450,
-388,
86,
57,
1052,
554,
-381,
1536,
760,
-1524,
-935,
-1009,
1416,
567,
-2222,
-1610,
-1367,
278,
899,
-530,
-365,
833,
-79,
-180,
282,
293,
697,
-262,
63,
95,
-312,
497,
-1324,
535,
1791,
961,
-1469,
-245,
83,
363,
-88,
-139,
-1270,
-652,
295,
921,
-1273,
-664,
-632,
-716,
-260,
-851,
311,
280,
-1292,
-1178,
-2123,
138,
-1118,
644,
-1548,
-650,
606,
707,
-1549,
-782,
-141,
859,
-252,
638,
453,
572,
-674,
1117,
588,
-232,
-579,
-973,
-967,
-512,
-894,
-85,
1477,
376,
1035,
411,
-280,
-156,
178,
-634,
-843,
-631,
410,
-587,
-1427,
338,
-2071,
-404,
-210,
-675,
-714,
468,
-123,
-1245,
539,
-321,
332,
-298,
1989,
147,
-168,
8,
225,
-195,
1310,
-162,
-235,
-466,
-812,
-1029,
-788,
-308,
1013,
467,
202,
595,
-965,
-447,
755,
1058,
-1107,
371,
626,
263,
147,
-2350,
-1914,
-310,
22,
203,
-777,
1063,
600,
-719,
-223,
-393,
588,
92,
994,
720,
577,
865,
949,
-273,
-594,
78,
-1581,
-482,
-736,
-1688,
-1274,
1239,
128,
-915,
-505,
-1336,
-1891,
-591,
572,
-584,
2167,
1359,
1423,
-459,
-215,
-774,
505,
1597,
977,
-772,
1735,
324,
-584,
7,
-326,
15,
-976,
138,
995,
693,
552,
49,
779,
425,
16,
-364,
-50,
-1443,
-823,
956,
19,
-363,
-24,
644,
-1239,
378,
-832,
-1238,
-1200,
-295,
287,
-135,
91,
493,
-706,
-1684,
2781,
4386,
-1511,
-1898,
1039,
1283,
489,
-909,
-1482,
-832,
1347,
870,
-2080,
-1137,
799,
970,
1634,
-886,
248,
-565,
315,
169,
23,
-219,
462,
720,
703,
498,
195,
461,
-376,
-570,
91,
-841,
1196,
588,
-23,
-377,
3004,
-2891,
-75,
81,
-1240,
402,
631,
1022,
499,
99,
134,
-109,
155,
363,
-58,
-452,
1558,
-165,
979,
200,
-54,
-655,
-1619,
-735,
787,
586,
-11,
1517,
690,
1148,
-375,
793,
-77,
-548,
-534,
1065,
709,
327,
-16,
105,
288,
-1689,
-423,
685,
543,
-807,
-115,
-146,
785,
764,
1526,
91,
1408,
-610,
1090,
-61,
-405,
133,
594,
-1655,
-557,
-331,
-49,
201,
975,
-1008,
1723,
-591,
485,
-1270,
841,
-43,
-767,
-187,
-492,
532,
-152,
-374,
55,
335,
1608,
1261,
-569,
-534,
-151,
670,
405,
-738,
725,
-1285,
115,
-684,
-1319,
360,
-40,
-422,
-825,
-972,
-326,
-185,
-2042,
-987,
-346,
-103,
-335,
812,
-114,
1058,
-423,
-1141,
-242,
-1249,
-927,
779,
-204,
-113,
-1946,
78,
52,
-491,
-920,
-878,
-1250,
-571,
-347,
-532,
34,
-151,
-555,
441,
2895,
810,
388,
485,
-287,
-874,
209,
-1103,
156,
-571,
-1176,
-1168,
589,
-933,
-791,
-1105,
-1730,
-190,
176,
-1257,
-831,
-103,
-1783,
-756,
2491,
-645,
775,
-578,
376,
1317,
1004,
573,
1577,
-467,
172,
-513,
217,
-177,
-699,
-186,
1153,
641,
828,
2301,
1420,
-588,
957,
379,
151,
-580,
1580,
-1275,
170,
-4,
-539,
570,
1330,
-224,
-752,
-268,
151,
-587,
900,
282,
2232,
-348,
-1383,
680,
1681,
-132,
-1338,
524,
-689,
-254,
-243,
273,
-70,
-560,
-1303,
196,
-844,
354,
223,
1002,
-1634,
-409,
-326,
280,
-51,
-995,
108,
256,
1631,
424,
197,
2073,
1640,
-976,
-678,
-139,
-675,
-287,
-291,
1363,
856,
-1317,
102,
1099,
432,
-929,
258,
402,
738,
-488,
-1157,
2537,
-62,
-237,
-587,
401,
1717,
1067,
-606,
-82,
-41,
149,
348,
158,
382,
-556,
-1069,
-329,
221,
284,
2287,
-2526,
669,
158,
-1607,
-155,
14,
181,
745,
-149,
612,
2060,
165,
-176,
-2,
649,
-332,
717,
-860,
336,
-1197,
209,
1982,
374,
-463,
-631,
-587,
365,
-2309,
143,
-17,
-1399,
129,
-531,
-697,
836,
-522,
-889,
-356,
826,
111,
531,
-1035,
1316,
1353,
-353,
-1344,
180,
904,
845,
300,
121,
-2801,
-1311,
282,
-428,
1548,
452,
-17,
-644,
-2610,
4497,
149,
312,
-1363,
-367,
339,
283,
208,
74,
851,
-173,
2323,
-2263,
6,
659,
321,
-347,
120,
272,
54,
340,
-458,
725,
365,
-520,
-223,
-34,
1568,
1161,
-104,
-327,
-1762,
-30,
1349,
584,
-1385,
-333,
253,
401,
-51,
373,
-1183,
-710,
36,
753,
-818,
-705,
-842,
-764,
-2320,
-445,
1420,
240,
-1071,
-699,
-1048,
-136,
-430,
-1663,
92,
-473,
-455,
496,
-1735,
1013,
1360,
-649,
-1964,
-981,
-378,
1242,
320,
-805,
544,
449,
848,
-532,
579,
695,
-5,
-420,
689,
-760,
-209,
-766,
-344,
-906,
-3673,
-659,
-478,
-1334,
-1243,
-137,
-1324,
609,
310,
-317,
936,
157,
-1784,
-731,
368,
993,
-556,
1168,
2065,
-1663,
-538,
-60,
-1671,
-991,
-327,
-547,
-191,
1286,
533,
674,
288,
-772,
1343,
450,
632,
58,
1849,
-1756,
-449,
-1034,
-448,
1557,
-961,
-376,
-68,
-59,
-270,
-288,
-33,
372,
62,
-777,
-358,
-1455,
-898,
1351,
-508,
32,
394,
224,
-323,
-314,
11,
725,
682,
-1261,
-1025,
1320,
412,
364,
-588,
-114,
-145,
-1253,
7,
608,
667,
-678,
1300,
814,
-187,
1964,
1191,
-211,
-559,
270,
-152,
-322,
-393,
-788,
-785,
-1470,
316,
-578,
893,
-266,
-391,
-556,
1237,
553,
-2156,
163,
-28,
-435,
-24,
553,
865,
1370,
-594,
129,
-1879,
-1142,
-86,
-466,
-777,
-743,
-382,
121,
-478,
-209,
-286,
211,
160,
-1182,
-1803,
-571,
-1024,
-1682,
-761,
-710,
1302,
267,
1138,
132,
-1444,
777,
203,
-535,
-554,
117,
536,
662,
719,
897,
-1695,
2349,
124,
-595,
-1039,
372,
474,
610,
310,
317,
54,
399,
-1430,
915,
1963,
362,
-503,
393,
71,
-316,
474,
3,
170,
-1053,
1810,
-27,
116,
-370,
-1400,
569,
240,
18,
-943,
-939,
2642,
727,
-441,
965,
279,
-1704,
-2805,
-157,
1653,
617,
-15,
-787,
-121,
95,
-80,
1957,
-208,
-498,
-828,
1339,
907,
-868,
654,
362,
405,
-160,
-316,
2424,
82,
1137,
-928,
-131,
420,
-1136,
1326,
428,
-1073,
-25,
-263,
734,
-333,
1279,
-246,
-322,
-776,
-238,
109,
-123,
1702,
484,
-727,
452,
154,
240,
-210,
753,
-1141,
306,
-713,
-556,
1021,
-328,
-247,
-193,
888,
-234,
-2072,
-1229,
-828,
-458,
601,
551,
-1523,
-536,
1514,
-277,
-1480,
424,
1447,
-285,
-289,
651,
-258,
876,
-462,
-185,
448,
-565,
-67,
91,
-305,
-567,
498,
405,
184,
203,
445,
-447,
-120,
-1894,
3705,
867,
188,
1245,
1832,
585,
-381,
-816,
-187,
315,
1808,
-2359,
224,
373,
568,
-306,
-720,
-302,
-353,
-29,
-368,
-625,
1463,
-1869,
419,
-940,
-2820,
635,
216,
-762,
781,
-387,
-716,
-42,
449,
-538,
69,
471,
318,
-578,
2633,
418,
-2529,
-1739,
-342,
-352,
1124,
-2884,
-2131,
-2768,
-4,
189,
316,
477,
436,
496,
-795,
-108,
-73,
505,
-719,
-1015,
-150,
247,
-39,
229,
615,
781,
-1143,
1135,
-1695,
-123,
245,
866,
-49,
1590,
322,
-1264,
-506,
-416,
-1136,
-1823,
-2027,
-136,
121,
-226,
-1905,
-510,
-93,
-422,
-960,
-1211,
-383,
-43,
-982,
-143,
-1124,
235,
184,
70,
-104,
1020,
402,
403,
-80,
60,
441,
-36,
-728,
-198,
-264,
1580,
-1453,
-186,
748,
-385,
-717,
27,
2600,
-1541,
568,
-109,
1247,
310,
-980,
277,
-456,
-138,
-183,
-828,
-61,
55,
31,
185,
912,
440,
207,
-1350,
-253,
-1276,
605,
1031,
-496,
-2079,
-1014,
-592,
-698,
-1195,
-272,
-203,
-823,
-357,
826,
660,
-344,
-150,
1159,
920,
-1041,
419,
932,
-979,
-359,
-11,
-352,
-76,
1265,
-1258,
1147,
82,
896,
-2,
-8,
-6,
-5,
-1,
-1,
2,
-4,
-4,
-3,
-4,
-2,
1118,
-534,
379,
-386,
-967,
701,
-152,
-1658,
-1638,
1218,
-376,
591,
-12,
-209,
503,
19,
74,
-208,
-57,
71,
-255,
-500,
57,
467,
367,
1009,
223,
-278,
-103,
606,
-490,
723,
1745,
-1022,
-214,
392,
0,
0,
0,
0,
0,
0,
0,
0,
0,
0,
0,
0,
283,
1395,
-619,
-387,
-347,
-188,
467,
-350,
-1168,
-597,
-163,
-246,
-482,
-2635,
-34,
335,
-440,
571,
1233,
-608,
-1010,
92,
240,
-472,
402,
1034,
245,
464,
-431,
1023,
-79,
247,
115,
-123,
22,
901,
947,
-1822,
690,
-328,
-390,
-256,
926,
1089,
2417,
1243,
-1264,
21,
186,
491,
-309,
662,
258,
730,
175,
330,
839,
1461,
89,
-1312,
-189,
-235,
-905,
953,
89,
36,
-553,
-961,
495,
-469,
219,
246,
-373,
1263,
548,
-129,
213,
-1018,
-684,
-407,
598,
879,
798,
1992,
-1060,
-654,
-428,
-8,
-291,
-989,
257,
-1221,
2474,
-163,
-797,
-775,
1291,
800,
1834,
918,
8,
1099,
1221,
268,
1538,
1583,
-2015,
1854,
599,
-1824,
281,
-350,
-63,
-300,
1044,
-580,
-377,
387,
-965,
1886,
163,
76,
-684,
257,
69,
1166,
52,
190,
1329,
728,
-186,
-383,
-726,
2053,
-1581,
-115,
460,
-212,
-238,
-2660,
1053,
-174,
-431,
-118,
-985,
-728,
-1122,
-484,
-765,
-870,
-490,
11,
-1460,
-1622,
-253,
-1061,
-666,
428,
1330,
862,
618,
-485,
-450,
-388,
2738,
-196,
524,
3071,
-496,
956,
-2,
420,
-548,
0,
421,
267,
1883,
289,
143,
-1262,
845,
-519,
-1569,
698,
683,
-362,
-1649,
-217,
-1535,
624,
1642,
-900,
486,
-317,
-560,
-701,
-1127,
-393,
534,
-1913,
715,
768,
84,
-1094,
505,
-810,
-643,
-2175,
2608,
-382,
-790,
2316,
-794,
1435,
480,
-423,
-592,
-284,
-1594,
112,
202,
767,
777,
-1846,
3000,
149,
-405,
1123,
-133,
-275,
978,
-11,
221,
-924,
686,
76,
-790,
-447,
-2859,
-174,
-298,
1449,
329,
-443,
-793,
268,
120,
367,
1301,
380,
603,
219,
99,
-385,
490,
-982,
-301,
-1045,
549,
-2012,
-1181,
-71,
-422,
-930,
114,
-482,
-1020,
715,
559,
326,
-1017,
473,
-1287,
990,
1319,
233,
541,
-204,
-148,
-1370,
1163,
-501,
-586,
1489,
1514,
1043,
280,
434,
-265,
2462,
-1615,
418,
-290,
-91,
-179,
-1291,
-43,
-1412,
863,
-432,
-518,
-1924,
-1268,
-605,
-339,
2942,
-175,
-1328,
-1702,
-2465,
-1548,
-99,
-2432,
-299,
2623,
713,
1246,
-306,
1888,
1376,
-621,
-1150,
-1454,
617,
-1257,
445,
1234,
2042,
-1077,
173,
-346,
553,
-682,
-604,
908,
-1140,
-651,
1854,
582,
1615,
-1901,
-740,
59,
989,
-30,
-1320,
516,
-650,
317,
1362,
140,
-43,
988,
-104,
-195,
-144,
-1085,
-97,
-273,
-1402,
-227,
-708,
-195,
-1060,
1231,
188,
88,
-334,
226,
320,
820,
-212,
-552,
41,
-43,
-1934,
1871,
-144,
1360,
564,
503,
-416,
-1066,
169,
1488,
-1553,
145,
-644,
-1042,
660,
255,
-194,
-1175,
-571,
-43,
-383,
0,
0,
0,
0,
0,
0,
0,
0,
0,
0,
0,
0,
119,
118,
-769,
-148,
-954,
-146,
852,
-615,
-423,
-599,
651,
-112,
-1348,
591,
764,
-879,
1278,
-101,
149,
1751,
-153,
-562,
642,
-1430,
-441,
459,
453,
1104,
-684,
378,
973,
-208,
-121,
-1108,
-416,
1438,
1160,
-2076,
1,
-577,
-891,
-619,
410,
-990,
-1895,
-827,
309,
-248,
-203,
657,
-907,
-544,
1359,
-166,
75,
-1170,
59,
-787,
419,
-1257,
-265,
-61,
222,
-112,
121,
421,
448,
-381,
-165,
-880,
-104,
170,
833,
-329,
-370,
-505,
-125,
-74,
-1208,
1441,
-1245,
478,
-874,
819,
-241,
-629,
-975,
-638,
-1081,
-784,
-726,
-536,
-1195,
-830,
-589,
-83,
-965,
-700,
-661,
0,
-772,
-474,
-135,
-61,
194,
-742,
-224,
-59,
351,
1573,
-164,
357,
-11,
251,
271,
-616,
-424,
38,
491,
-1679,
433,
-1724,
-889,
-2033,
-1797,
-348,
952,
-562,
-985,
-1679,
-1026,
37,
979,
-709,
-635,
576,
348,
514,
-1710,
432,
-884,
890,
2065,
701,
1119,
127,
-690,
-573,
-669,
-1254,
-171,
-275,
-1186,
-575,
1074,
942,
682,
654,
-600,
-1383,
-1040,
186,
111,
126,
992,
1150,
-1515,
-1056,
-17,
-1638,
-681,
-231,
597,
303,
-91,
3272,
-945,
227,
-802,
-426,
-137,
1373,
-804,
-217,
127,
-32,
-294,
947,
-751,
-1610,
-75,
-1260,
555,
938,
-1205,
-348,
-700,
-994,
-697,
-276,
-1308,
-226,
95,
258,
-1123,
-757,
-98,
719,
780,
-100,
715,
54,
-452,
-262,
2297,
-790,
-365,
1596,
2346,
-1919,
852,
-769,
-385,
3464,
126,
-1938,
2204,
601,
-565,
-1903,
-1019,
567,
959,
1862,
153,
-2135,
-44,
3059,
-425,
-1261,
-561,
1088,
284,
-376,
-477,
-1018,
-696,
163,
-732,
-167,
-846,
326,
-384,
1655,
885,
1340,
-1985,
294,
-188,
4049,
186,
-1790,
2430,
1201,
529,
846,
987,
123,
67,
-2412,
-190,
-370,
-965,
-166,
915,
-350,
23,
582,
102,
-461,
-360,
-1159,
143,
909,
-113,
-677,
-216,
380,
-1034,
116,
-148,
-767,
-761,
-1584,
751,
2001,
-507,
412,
-89,
592,
1808,
1903,
-1397,
-758,
-70,
-592,
-185,
-2430,
-483,
1616,
-139,
-1004,
-45,
-141,
1049,
231,
-199,
-169,
-12,
-1970,
1426,
-36,
-1664,
618,
701,
-254,
333,
1888,
-2662,
-708,
547,
979,
165,
2188,
-1487,
291,
51,
-684,
-566,
1281,
892,
-1033,
-870,
-1482,
-774,
215,
592,
549,
174,
-1412,
-1071,
-272,
-521,
-98,
616,
1654,
-626,
240,
-387,
-540,
-265,
-1224,
-1296,
1126,
458,
-380,
48,
-1440,
-360,
-931,
570,
599,
500,
-526,
-1300,
76,
-72,
-279,
-424,
339,
-1575,
1110,
471,
-445,
157,
1303,
-1312,
-501,
-724,
124,
-738,
-1644,
-664,
-1176,
610,
-818,
-76,
177,
-94,
-1406,
-2023,
-1571,
-613,
1880,
1320,
274,
-607,
576,
754,
-326,
1262,
-1909,
-1443,
-761,
-291,
2956,
950,
-613,
-712,
-1113,
703,
-689,
-246,
278,
285,
-462,
734,
-1021,
583,
1994,
1062,
1397,
-83,
-340,
-281,
849,
514,
38,
387,
0,
997,
1164,
16,
726,
0,
0,
0,
0,
0,
0,
0,
0,
0,
0,
0,
0,
-19,
-703,
-1629,
-358,
-390,
-345,
138,
-562,
-1482,
-998,
-814,
-933,
-453,
-1185,
-1288,
-597,
-607,
-1009,
364,
-393,
-1737,
-487,
-846,
-342,
-360,
633,
310,
-740,
416,
-462,
85,
909,
-1273,
-1694,
-330,
-1445,
-406,
-281,
-1238,
-49,
437,
2103,
1433,
-542,
1123,
-721,
-243,
-2,
-43,
596,
82,
-1118,
-118,
-114,
779,
639,
-214,
-263,
-357,
-355,
117,
477,
-1026,
-808,
-486,
-618,
212,
704,
-2166,
-133,
-139,
-93,
-152,
65,
-274,
-114,
912,
1128,
472,
669,
1275,
228,
224,
-531,
-429,
74,
143,
209,
1038,
54,
333,
-440,
-24,
346,
653,
-446,
-710,
-523,
-364,
-714,
-115,
843,
-90,
717,
-316,
-522,
-983,
-774,
-1186,
621,
559,
-917,
-593,
-945,
1051,
839,
-65,
-475,
-91,
-1411,
1191,
-2347,
-1478,
-615,
-45,
150,
767,
-451,
-547,
422,
-600,
1842,
-541,
99,
-497,
-34,
-1340,
711,
-1091,
94,
350,
-748,
-428,
-721,
266,
1739,
-2168,
-709,
-150,
-969,
-641,
-119,
1499,
-683,
37,
1332,
-666,
-1813,
584,
-601,
-783,
1459,
622,
1727,
-846,
-1993,
370,
-124,
-33,
639,
-1381,
1132,
163,
1217,
-640,
-319,
1143,
-1359,
294,
-1559,
-871,
284,
-1383,
114,
309,
62,
545,
178,
-519,
-756,
141,
181,
-728,
671,
-1823,
-498,
682,
-386,
11,
-1131,
1850,
-1787,
-1763,
-1143,
26,
-402,
-933,
-648,
-240,
-218,
-1603,
1159,
1685,
-174,
825,
50,
-112,
677,
942,
-975,
-328,
425,
1372,
-768,
839,
-375,
-600,
524,
-988,
578,
1045,
490,
400,
-468,
-928,
-5,
-1076,
900,
1482,
-45,
-228,
1889,
-991,
427,
10,
-822,
358,
-681,
-435,
-444,
-556,
-994,
-308,
658,
-977,
-846,
-1179,
922,
356,
204,
2689,
-1412,
-347,
-182,
-547,
810,
-67,
-530,
-338,
559,
1453,
-1489,
-277,
-220,
606,
135,
1276,
-551,
-923,
-628,
266,
1537,
-654,
-1773,
-1923,
-234,
5,
-401,
113,
-837,
-196,
201,
724,
-1302,
-490,
1997,
1617,
-156,
300,
-156,
-1839,
1839,
338,
1132,
1556,
282,
235,
-724,
2121,
-1059,
-1609,
-422,
-674,
1574,
-659,
-384,
-66,
-1738,
163,
-1191,
-858,
-832,
-92,
316,
483,
-2119,
1551,
-193,
-930,
-782,
1945,
903,
-952,
-133,
-544,
-1155,
-848,
298,
-180,
-1297,
-199,
98,
115,
-343,
-12,
452,
13,
-335,
-387,
-1417,
-1161,
3,
1541,
920,
664,
463,
-515,
-351,
2297,
-2126,
-230,
-1244,
344,
2025,
-2486,
700,
203,
152,
-224,
839,
1249,
226,
-455,
213,
-426,
-1774,
-1373,
-44,
1042,
-252,
-2417,
-1156,
-1431,
-91,
806,
-78,
-1401,
0,
817,
1363,
-762,
-2089,
103,
-670,
212,
-751,
-1319,
424,
-1410,
-874,
-1139,
25,
227,
-322,
-1639,
-3902,
329,
-2403,
925,
924,
-628,
-1601,
-1033,
-1095,
118,
1001,
872,
494,
-77,
2714,
-650,
-2600,
-1511,
-357,
-656,
1491,
-1862,
-807,
-1999,
-203,
-1427,
-390,
-2087,
855,
1394,
-2414,
-2301,
1785,
1938,
897,
1915,
-1500,
-339,
-2653,
162,
-1270,
-129,
455,
-341,
-1717,
206,
4602,
-1800,
-364,
-126,
1406,
-222,
2101,
323,
86,
-606,
747,
978,
-187,
1353,
42,
652,
2104,
-910,
406,
343,
-695,
-183,
217,
675,
133,
995,
-293,
-825,
-374,
772,
-202,
-106,
1439,
1808,
1042,
104,
846,
-573,
1279,
-502,
225,
-1758,
2224,
1887,
-3289,
-2689,
202,
2363,
481,
1841,
-711,
-1336,
-351,
-790,
-840,
953,
34,
-529,
47,
1118,
-9,
-117,
-1185,
-485,
-1046,
617,
1293,
-279,
253,
-815,
-765,
299,
761,
-2122,
-999,
168,
905,
-1552,
-773,
-308,
-754,
-1701,
100,
846,
-803,
-353,
-273,
-330,
-558,
-1127,
-741,
451,
435,
-1157,
584,
1147,
458,
-184,
-584,
-205,
-701,
-1744,
995,
790,
-68,
246,
-1428,
1298,
1853,
1057,
417,
-1541,
-171,
-1768,
-1507,
455,
907,
251,
-154,
-173,
-45,
-1182,
-646,
-1013,
-999,
-595,
1135,
60,
-1321,
-1842,
130,
1489,
-169,
-1033,
-1425,
17,
389,
1180,
1112,
-1560,
-805,
-1043,
56,
388,
-731,
-2004,
-2196,
138,
1444,
666,
-28,
-631,
1298,
124,
288,
-687,
-694,
-1759,
709,
812,
1298
};

#endif