#ifndef __MMCBLOCK2_MMLAYER3_BRANCH11_CONV_0_WEIGHT_H__
#define __MMCBLOCK2_MMLAYER3_BRANCH11_CONV_0_WEIGHT_H__

// MMCBlock2_mmLayer3_branch11_conv_0_weight
// (1, 1, 152, 12)
const int MMCBlock2_mmLayer3_branch11_conv_0_weight[] = {
1297,
-272,
-1045,
969,
2302,
-1135,
-945,
204,
-623,
337,
1159,
205,
-77,
-904,
23,
197,
161,
114,
808,
-589,
-434,
-14,
336,
55,
776,
34,
-64,
-1799,
1131,
1260,
380,
1584,
2308,
-360,
-998,
-985,
923,
168,
-236,
-1465,
1042,
95,
-567,
-980,
-920,
-860,
-312,
2532,
595,
-1625,
-1989,
-55,
231,
-428,
-104,
266,
-331,
-741,
-18,
1005,
1238,
-428,
797,
-71,
1743,
697,
497,
449,
-284,
336,
283,
-1092,
1223,
520,
-512,
-1547,
-618,
-229,
599,
-800,
-114,
-48,
-597,
-279,
254,
825,
179,
260,
582,
-139,
368,
571,
-164,
342,
-522,
-90,
-220,
-468,
-1066,
151,
-631,
23,
788,
810,
519,
-213,
110,
1060,
147,
2204,
769,
-905,
444,
1139,
-398,
-222,
61,
-105,
-608,
181,
26,
-1716,
-720,
-1189,
-1342,
-897,
68,
-131,
-188,
-633,
-455,
302,
47,
1050,
-4,
-417,
1899,
356,
-211,
139,
-119,
410,
86,
290,
-1692,
-566,
1644,
2531,
-121,
-241,
540,
-2218,
-2755,
112,
3679,
-884,
-1985,
166,
415,
3735,
1293,
133,
-1320,
-1702,
-3802,
-148,
2418,
-19,
-1076,
-548,
-616,
-556,
-126,
-103,
146,
-763,
-1192,
175,
-733,
-803,
-1214,
669,
1516,
1428,
1354,
-8,
-287,
-1791,
-4503,
153,
1929,
304,
1813,
-810,
1540,
-4716,
296,
1968,
-12,
1751,
3439,
-419,
-2026,
-251,
-628,
1699,
-1158,
249,
3419,
3159,
-490,
-938,
-127,
-349,
-630,
1441,
-1591,
813,
675,
2932,
125,
337,
-130,
-1035,
-4091,
-521,
2371,
359,
55,
112,
508,
365,
904,
-131,
-57,
-575,
-14,
-333,
54,
105,
-1198,
831,
3171,
431,
383,
-519,
-903,
267,
595,
1359,
-430,
-851,
165,
-14,
-79,
-496,
391,
492,
-1021,
567,
-261,
-273,
329,
-165,
540,
-1422,
481,
-643,
-606,
1022,
-591,
-698,
25,
-300,
466,
238,
426,
-199,
3335,
-162,
-1486,
-1026,
-59,
630,
502,
226,
612,
-1764,
-115,
14,
-1102,
1348,
-93,
-281,
400,
-389,
940,
61,
-85,
-702,
-1016,
-11,
1308,
232,
-915,
278,
1848,
-1091,
1007,
-685,
-365,
-1110,
1249,
-33,
-643,
-1380,
357,
922,
-1485,
795,
1071,
-97,
-292,
192,
955,
-337,
118,
-1013,
275,
377,
612,
2282,
2224,
55,
-1244,
-1064,
1170,
-386,
-1410,
-409,
683,
355,
-581,
1,
-276,
-215,
-115,
335,
-869,
1924,
192,
-93,
956,
1678,
1000,
253,
-352,
-259,
-964,
480,
-863,
-46,
1120,
1947,
387,
62,
364,
-1340,
-2376,
818,
1043,
-967,
132,
-1299,
101,
-2900,
206,
194,
452,
1021,
880,
259,
-1422,
-738,
567,
1417,
-413,
-710,
2746,
696,
975,
434,
-561,
-357,
448,
-240,
-440,
-1178,
1457,
808,
-1479,
-948,
2699,
1362,
-21,
1228,
5,
-936,
-1056,
1097,
665,
270,
-1727,
1025,
-136,
-141,
1424,
83,
0,
1248,
-1075,
339,
1382,
-876,
285,
2297,
1269,
-394,
-578,
-76,
-635,
432,
177,
518,
-1042,
-986,
-1319,
808,
233,
-1015,
-310,
-448,
-977,
2123,
371,
560,
970,
-434,
1088,
11,
1358,
-2615,
-2942,
614,
1083,
-661,
215,
-4,
-868,
1156,
1742,
-292,
681,
-2873,
-1859,
328,
2276,
-218,
668,
-1451,
-103,
-601,
-344,
-899,
618,
903,
-38,
-81,
785,
-347,
-430,
-662,
-253,
476,
1045,
303,
951,
947,
-248,
-141,
-104,
-59,
-109,
-896,
-714,
-468,
-306,
-612,
-187,
440,
-344,
-148,
113,
-683,
-256,
-1011,
593,
2329,
341,
-458,
1059,
-525,
-749,
-227,
854,
-1047,
107,
-255,
-1680,
-392,
-126,
24,
1898,
215,
-24,
-20,
186,
257,
-647,
1417,
517,
-475,
-266,
245,
542,
-187,
-1394,
-185,
-530,
892,
994,
-188,
-258,
-278,
-960,
-757,
674,
-292,
-578,
-151,
62,
-236,
-793,
521,
-1000,
577,
-157,
380,
1216,
518,
-441,
-88,
-896,
964,
-1906,
-851,
1561,
37,
-2284,
-1228,
902,
1691,
-167,
582,
439,
-683,
-595,
-554,
-574,
-166,
-78,
1011,
212,
-196,
-209,
387,
-76,
778,
-445,
-869,
-303,
147,
-941,
-1086,
670,
527,
-698,
-377,
628,
1330,
-638,
-5,
-904,
-911,
-575,
-275,
1078,
-1292,
-667,
-179,
-570,
386,
1597,
298,
-769,
-528,
1403,
-114,
-1608,
-283,
550,
14,
831,
-590,
-27,
-900,
18,
-952,
-200,
3,
-381,
-512,
-592,
200,
-815,
-298,
401,
-575,
-1336,
187,
-634,
-173,
599,
-123,
-414,
132,
-3,
243,
-1253,
-945,
563,
-11,
17,
1013,
2451,
-83,
535,
-464,
-154,
-879,
396,
-374,
-879,
179,
-1094,
-880,
527,
-490,
-47,
-209,
-320,
86,
-964,
758,
311,
2128,
574,
-935,
420,
-2324,
-2173,
73,
1965,
-353,
-176,
-1698,
-956,
1674,
-884,
218,
-1353,
94,
1217,
-878,
50,
23,
-902,
316,
70,
347,
-244,
40,
92,
575,
60,
888,
-569,
-911,
331,
-907,
-381,
-123,
-1531,
-850,
679,
1118,
-197,
-40,
269,
596,
561,
-403,
-399,
-7,
-428,
527,
23,
-13,
701,
-659,
156,
714,
-19,
1138,
1736,
-185,
-333,
778,
-886,
680,
952,
882,
-135,
-62,
1228,
-606,
251,
-4056,
1296,
1210,
-96,
1344,
3548,
-240,
-2354,
817,
-979,
1744,
-14,
-724,
-1531,
579,
119,
-235,
-241,
306,
-629,
35,
-736,
-943,
-294,
-291,
-845,
475,
-259,
-41,
103,
-135,
-358,
-388,
985,
453,
-1224,
687,
136,
-932,
-732,
-880,
-416,
-412,
518,
143,
107,
1928,
-814,
-206,
-53,
-436,
-87,
131,
341,
82,
-188,
405,
-405,
-343,
311,
-1118,
-308,
-559,
-308,
-442,
162,
60,
2,
-1030,
-996,
-2060,
2528,
67,
-2326,
-2131,
366,
1850,
455,
525,
383,
-1238,
-1042,
613,
2752,
1047,
1266,
851,
-1463,
19,
629,
1278,
-118,
-1567,
270,
410,
-581,
1137,
102,
-811,
-944,
-890,
-877,
-50,
622,
220,
-2184,
-333,
781,
4191,
173,
807,
-1590,
-681,
-2573,
-309,
3296,
1185,
-219,
795,
-225,
365,
1513,
-653,
-578,
465,
618,
-224,
309,
154,
2319,
177,
1668,
-5151,
1373,
517,
-956,
3906,
3090,
-389,
-2467,
-2093,
704,
-363,
361,
-126,
-1390,
-499,
1077,
-839,
316,
-574,
324,
76,
117,
-283,
-166,
-2485,
-75,
-237,
546,
895,
981,
135,
-1748,
-1064,
-613,
-836,
-367,
-270,
-1333,
-55,
264,
-56,
403,
32,
-398,
678,
-1037,
-195,
357,
9,
-2042,
568,
1203,
-684,
172,
-275,
-254,
-933,
-128,
796,
-1006,
-367,
855,
-109,
-648,
-864,
-374,
193,
-685,
183,
-32,
-206,
-458,
1648,
-151,
-98,
-472,
-660,
-922,
-156,
648,
1326,
-200,
134,
161,
-417,
1175,
-46,
-5,
-13,
-388,
-170,
-1,
-535,
-1300,
528,
760,
641,
-603,
3645,
698,
-1277,
120,
-873,
-236,
171,
-479,
-423,
-676,
-1244,
-108,
-811,
359,
-1039,
-1225,
180,
-1012,
-632,
1118,
317,
1556,
-3611,
-276,
-72,
-773,
1073,
4133,
-678,
-1830,
-355,
-309,
-506,
-99,
2726,
0,
-152,
482,
-1633,
-3055,
30,
2107,
97,
19,
-1426,
-166,
124,
-559,
160,
-189,
-440,
-327,
-199,
-442,
325,
1071,
2777,
726,
926,
610,
947,
-1801,
969,
2362,
392,
-55,
-1151,
1193,
96,
-319,
1556,
-564,
-484,
367,
-328,
381,
674,
350,
-975,
-125,
-1196,
175,
-430,
-788,
-454,
192,
683,
-65,
106,
123,
428,
-481,
-104,
517,
-597,
-1248,
-1032,
1802,
1514,
-451,
-191,
390,
-807,
-1782,
1709,
1036,
1867,
-268,
767,
-7,
469,
399,
-25,
1075,
-875,
-360,
-445,
32,
-333,
-772,
109,
-439,
867,
-447,
162,
119,
198,
452,
-503,
109,
469,
0,
-181,
-539,
534,
670,
-942,
405,
-277,
1330,
-1010,
-1525,
-893,
-1607,
426,
-181,
-789,
346,
-612,
-744,
3932,
-75,
-1251,
-643,
-453,
-459,
0,
-1325,
-84,
-98,
-434,
-655,
310,
54,
-3132,
-950,
-34,
-126,
-1153,
1727,
812,
382,
-648,
765,
-822,
1655,
-297,
-33,
-3597,
1597,
152,
-306,
3188,
1626,
-184,
-2035,
-1427,
-1630,
696,
845,
-1362,
-1462,
-1089,
339,
-922,
-1179,
-220,
-1011,
18,
406,
-516,
-909,
5,
1229,
401,
185,
174,
-347,
-143,
259,
56,
654,
823,
215,
-1120,
549,
766,
268,
-379,
-827,
45,
-592,
645,
-329,
1189,
-130,
3075,
-2208,
-1295,
8,
1018,
2166,
-1020,
302,
106,
635,
1217,
1674,
-1213,
562,
-1054,
-213,
-1489,
-33,
-274,
-111,
-1712,
1930,
-518,
1808,
-1161,
-739,
-900,
1601,
264,
-917,
-153,
484,
19,
99,
-731,
-1326,
619,
-1641,
-1081,
-899,
-401,
679,
-99,
-97,
1099,
-261,
-1120,
943,
135,
-1067,
-328,
687,
-181,
-198,
-642,
-140,
-7,
-1473,
31,
-863,
-332,
-335,
-255,
-230,
-288,
-457,
434,
-1262,
-341,
1286,
-1280,
-1037,
1949,
-572,
-957,
441,
648,
-1398,
-330,
-369,
187,
-1107,
-1052,
-238,
-463,
-885,
29,
1515,
1436,
-377,
120,
-492,
850,
565,
-815,
-1036,
-1979,
564,
537,
334,
1094,
-47,
55,
-532,
24,
-169,
-272,
-974,
1184,
148,
-509,
480,
-1274,
-1178,
136,
982,
-8,
838,
-772,
-1908,
-845,
485,
761,
-911,
-1117,
831,
-116,
1017,
-68,
-107,
-844,
-1640,
-610,
24,
-167,
-10,
822,
563,
-260,
-186,
1038,
557,
155,
-447,
-19,
-215,
-1825,
-1045,
-386,
-322,
73,
-401,
364,
-364,
-534,
-1895,
-744,
13,
-107,
-1208,
1169,
51,
-232,
-407,
-300,
-2841,
521,
1193,
930,
-1741,
270,
1696,
-140,
998,
-780,
-1180,
-1153,
-765,
-613,
-32,
-563,
1551,
579,
866,
517,
-617,
-506,
210,
-52,
93,
557,
-260,
-36,
1258,
1331,
-2018,
784,
-535,
558,
38,
-375,
201,
606,
5,
-300,
130,
194,
-923,
-243,
-256,
-30,
-280,
-851,
24,
-772,
-944,
-228,
-576,
-365,
1036,
-547,
-355,
-663,
171,
-645,
280,
759,
-10,
-331,
-190,
-12,
-843,
-68,
-338,
-78,
213,
29,
-884,
165,
-340,
-631,
-233,
-441,
420,
383,
-214,
-87,
595,
-966,
-141,
852,
-743,
-746,
-233,
351,
-49,
669,
-329,
-183,
-131,
430,
-494,
-2206,
-549,
848,
1464,
-439,
72,
-871,
-1630,
-802,
957,
-44,
-918,
-1130,
1176,
-2200,
-441,
1496,
-155,
-299,
2165,
-563,
-264,
-680,
855,
584,
-647,
-9,
-557,
721,
353,
631,
73,
79,
231,
674,
-777,
111,
440,
2133,
789,
1792,
553,
-854,
-1747,
-594,
-209,
-624,
-500,
-1984,
-1234,
-1057,
1772,
-958,
-889,
857,
965,
-288,
-487,
623,
-70,
-2055,
774,
381,
-1529,
-586,
275,
303,
-128,
137,
-996,
420,
127,
-658,
-1169,
1352,
-1188,
-1201,
2505,
-697,
-611,
-605,
608,
-158,
1425,
-425,
-709,
1643,
-616,
-838,
-1211,
64,
1911,
-471,
1829,
136,
-222,
-526,
281,
11,
50,
-475,
555,
408,
16,
212,
-84,
-507,
-266,
1110,
-2428,
522,
1675,
-134,
914,
1127,
400,
-405,
28,
-882,
-1005,
-476,
137,
-1134,
-719,
378,
-392,
2057,
1850,
-395,
-722,
-195,
-48,
1019,
3565,
-853,
-2111,
-164,
-910,
620,
-1055,
256,
-53,
1647,
-996,
-1341,
-106,
1925,
879,
-1196,
327,
-2172,
-753,
448,
222,
440,
-1455,
643,
1180,
72,
1874,
1516,
-1654,
1219,
-69,
431,
-167,
378,
-1580,
2004,
1092,
1334,
-498,
336,
-1938,
-587,
1941,
643,
-275,
-612,
1364,
-575,
-888,
-258,
-428,
-1354,
2623,
2045,
550,
-1057,
-214,
-307,
-884,
-12,
12,
-2853,
1113,
-766,
172,
-326,
1447,
-123,
-1943,
-622,
-101,
2148,
-1048,
1065,
732,
-324,
1632,
-206,
1605,
224,
119,
1487,
591,
768,
2890,
888,
-1207,
-688,
-661,
-165,
926,
129,
384,
30,
-589,
-664,
-1335,
-743,
343,
-839,
358,
226,
-851,
-151,
-182,
-1298,
-1253,
683,
858,
954,
1130,
46,
267,
-339,
419,
275,
127,
-73,
168,
1294,
-3532,
476,
3506,
842,
-3271,
92,
378,
-580,
65,
1043,
-414,
-39,
953,
-1160,
364,
902,
124,
-20,
-889,
-1538,
-555,
-1778,
-519,
-1619,
1269,
318,
-287,
-409,
-893,
-310,
19,
-439,
-346,
635,
-768,
-1507,
-1,
-859,
-17,
-791,
340,
676,
-830,
273,
-96,
-1540,
348,
323,
-283,
709,
686,
1179,
-1075,
-279,
27,
-688,
-298,
795,
-272,
-820,
-1619,
272,
-710,
391,
277,
-934,
696,
-377,
102,
-1261,
665,
-243,
127,
423,
169,
-942,
526,
-72,
616,
-202,
84,
-331,
227,
-404,
-711,
181,
765,
866,
954,
395,
-457,
-842,
-375,
-60,
-1384,
470,
-50,
613,
1181,
618,
1400,
1468,
535,
667,
186,
-330
};

#endif