#ifndef __MMCBLOCK2_MMLAYER3_BRANCH33C_CONV_0_WEIGHT_H__
#define __MMCBLOCK2_MMLAYER3_BRANCH33C_CONV_0_WEIGHT_H__

// MMCBlock2_mmLayer3_branch33c_conv_0_weight
// (3, 3, 6, 6)
const int MMCBlock2_mmLayer3_branch33c_conv_0_weight[] = {
-627,
-61,
353,
1481,
718,
-625,
1207,
-1072,
-896,
-1612,
515,
-923,
-1184,
-733,
996,
551,
581,
-1293,
43,
45,
-762,
1716,
-112,
232,
-572,
144,
2702,
391,
597,
-625,
3815,
1071,
494,
-1426,
334,
-34,
302,
1997,
43,
174,
-459,
199,
150,
-2056,
1677,
29,
-506,
-820,
-1970,
698,
-367,
-371,
568,
-635,
-1323,
609,
-206,
1799,
114,
-734,
-530,
1660,
-597,
-1425,
768,
-1103,
3481,
-782,
-1017,
4120,
239,
1195,
813,
1876,
627,
-346,
487,
-607,
617,
-1010,
243,
-1769,
1115,
-1349,
-1377,
-813,
872,
-867,
1104,
-836,
586,
436,
-852,
2299,
738,
1203,
-229,
774,
3862,
603,
706,
-182,
3719,
1245,
345,
-523,
738,
-196,
-964,
-1450,
1256,
-455,
249,
-737,
-282,
540,
-914,
-147,
-221,
139,
-88,
-685,
1119,
-561,
299,
-1161,
-94,
-439,
-1172,
725,
899,
212,
-811,
-772,
4490,
-946,
-211,
-576,
-326,
2371,
2559,
-515,
-1176,
1018,
-1080,
-97,
1310,
-1107,
-32,
-365,
-1746,
99,
1170,
-1432,
-178,
-840,
1049,
339,
-846,
-386,
383,
16,
-777,
-767,
-618,
-1408,
-627,
-1211,
-195,
408,
-862,
-1063,
-458,
-535,
-2498,
-1648,
392,
-513,
-380,
-1832,
-1422,
480,
769,
-1015,
783,
371,
52,
1248,
-1051,
-1358,
85,
-141,
-151,
-1076,
993,
-444,
294,
-741,
426,
-472,
-1203,
1525,
582,
-302,
-944,
261,
4284,
-310,
675,
-451,
219,
1459,
2125,
-635,
-1295,
-63,
969,
-1278,
-158,
1760,
115,
-347,
981,
520,
-1366,
751,
813,
822,
480,
-301,
-906,
1696,
-1372,
-1138,
666,
-727,
618,
88,
3145,
-19,
-1086,
-727,
568,
1701,
-967,
22,
-463,
1015,
-236,
-361,
284,
2208,
825,
-632,
-268,
18,
300,
-26,
980,
557,
-185,
-1901,
1434,
2322,
-499,
982,
-566,
3761,
-1825,
127,
2410,
-219,
-320,
1411,
599,
-1460,
-2418,
-685,
-2003,
1493,
-1358,
-294,
-407,
-1444,
260,
-2521,
1590,
2138,
-99,
-1051,
215,
-1213,
699,
-25,
675,
1116,
-767,
8,
970,
1517,
-216,
669,
-674,
2007,
-1506,
-1365,
1125,
-888,
143,
-193,
2455,
-1348,
-819,
-796,
17,
747,
-901,
-421,
-1117,
243,
-122,
1107,
479,
2045
};

#endif