#ifndef __MMCBLOCK3_MMLAYER8_BRANCH33C_CONV_0_WEIGHT_H__
#define __MMCBLOCK3_MMLAYER8_BRANCH33C_CONV_0_WEIGHT_H__

// MMCBlock3_mmLayer8_branch33c_conv_0_weight
// (3, 3, 6, 6)
const int MMCBlock3_mmLayer8_branch33c_conv_0_weight[] = {
2721,
-1056,
-26,
-3653,
1481,
216,
-678,
1774,
-1576,
407,
211,
-1194,
585,
-1283,
1236,
-2110,
1044,
-79,
-3235,
2363,
-1366,
4187,
1197,
-652,
3936,
809,
-1062,
-1464,
-327,
-1469,
-346,
-2270,
536,
-860,
691,
2234,
-817,
677,
-1154,
-557,
414,
-1115,
1106,
554,
-3106,
-22,
1046,
-1425,
7136,
-507,
1637,
-1002,
-394,
-1482,
-984,
1061,
-1202,
159,
1419,
-888,
-554,
-421,
107,
-678,
-1766,
-1398,
-1545,
-1086,
389,
1901,
757,
1241,
-1592,
1751,
-1596,
4651,
637,
-707,
-1731,
1962,
-2079,
1374,
212,
-927,
1263,
-906,
1029,
-2842,
1830,
-461,
3314,
-1281,
6,
-2930,
2451,
-530,
-2602,
-2035,
1156,
304,
-1369,
1247,
-1153,
-2052,
655,
-1369,
1474,
1936,
1621,
-1648,
-1689,
-1457,
-1744,
417,
766,
497,
-273,
418,
180,
74,
-367,
-1110,
-94,
11,
82,
125,
-893,
739,
-866,
1861,
1471,
-1896,
1863,
391,
-274,
-1675,
1373,
-1511,
-85,
-1619,
-99,
143,
-1310,
31,
1415,
-637,
-817,
-712,
78,
-1560,
1022,
-1796,
-97,
-1499,
-454,
-161,
-1071,
248,
-592,
1840,
442,
-1470,
1143,
-575,
-715,
385,
207,
-1388,
1179,
-57,
720,
-1416,
-729,
-859,
-906,
-789,
-143,
528,
921,
-201,
-2063,
-129,
-92,
1949,
2638,
-1996,
116,
565,
-610,
545,
-755,
-410,
-351,
-978,
-75,
-1202,
384,
-481,
281,
-1805,
-1081,
-625,
-788,
298,
614,
-1500,
-403,
-215,
-2155,
2301,
686,
-889,
167,
113,
-224,
-109,
307,
-904,
-1903,
-1125,
-1778,
-220,
470,
-186,
358,
2292,
2463,
-727,
-1144,
-756,
-352,
-2153,
-887,
1924,
-1255,
2270,
639,
1668,
1913,
-1403,
291,
-366,
768,
464,
4581,
-1733,
2087,
-749,
-296,
770,
-1080,
81,
-650,
364,
-370,
411,
-559,
-1602,
-8,
-1667,
3334,
929,
3892,
709,
-1123,
715,
-1272,
-967,
700,
2291,
-1282,
241,
-641,
333,
-176,
-781,
282,
-1044,
-1110,
883,
1827,
-1461,
-2097,
-707,
-1591,
707,
-155,
-23,
-1183,
1861,
1315,
1663,
2492,
-996,
-23,
517,
1116,
1615,
1717,
-832,
-887,
-792,
-1105,
-2127,
-1032,
2078,
-338,
-372,
-1664,
-897,
-2938,
603,
1855,
-1471,
-2636,
1567,
-1900,
-648,
1375,
-716,
-73,
1585,
-2185,
676
};

#endif