#ifndef __MMCBLOCK1_MMLAYER3_BRANCH33B_CONV_0_WEIGHT_H__
#define __MMCBLOCK1_MMLAYER3_BRANCH33B_CONV_0_WEIGHT_H__

// MMCBlock1_mmLayer3_branch33b_conv_0_weight
// (3, 3, 12, 6)
const int MMCBlock1_mmLayer3_branch33b_conv_0_weight[] = {
0,
194,
-1612,
-270,
-194,
1586,
-128,
-352,
352,
1273,
-612,
-203,
-76,
234,
-878,
678,
469,
-203,
428,
217,
-547,
-601,
639,
484,
20,
-243,
-44,
-714,
386,
-803,
-99,
2,
231,
-193,
-692,
-437,
588,
681,
-1086,
-1313,
465,
-444,
-116,
305,
-139,
-706,
-208,
2,
-47,
-387,
827,
243,
-375,
-41,
-29,
-579,
396,
-27,
-52,
450,
239,
55,
760,
-589,
-463,
-273,
-1456,
-64,
147,
98,
739,
8,
-384,
174,
954,
659,
881,
-1934,
283,
-89,
116,
-250,
-396,
274,
248,
-211,
-1005,
-64,
-612,
881,
-248,
789,
564,
-766,
101,
-349,
202,
47,
-788,
-526,
-177,
-253,
-344,
-188,
1037,
-419,
-922,
-197,
-154,
1214,
853,
288,
1121,
-837,
6,
-131,
67,
111,
-356,
-654,
-331,
-1004,
-91,
472,
137,
-694,
944,
-835,
-266,
-1110,
-306,
762,
-245,
229,
-1248,
-1067,
280,
-125,
-731,
177,
-186,
124,
42,
864,
-378,
-825,
1116,
-37,
-674,
473,
531,
102,
-138,
-923,
333,
-69,
28,
-485,
-810,
-849,
-887,
-467,
-282,
-91,
144,
1128,
-123,
-639,
167,
-390,
-548,
-628,
162,
-536,
212,
-563,
639,
1298,
-623,
-880,
-126,
531,
209,
1120,
-1216,
-113,
-160,
-77,
-870,
165,
-680,
-663,
258,
-124,
-698,
418,
-96,
636,
405,
236,
-696,
-344,
563,
-1601,
-6,
731,
646,
190,
1195,
-428,
-745,
505,
-627,
159,
-1540,
105,
-102,
-51,
549,
-137,
-343,
383,
-487,
627,
481,
1361,
-1131,
-565,
-356,
392,
-550,
575,
-780,
558,
-563,
-447,
1448,
904,
262,
-734,
103,
-186,
-669,
375,
-192,
-339,
5,
-313,
902,
592,
-712,
305,
258,
-593,
-435,
-658,
642,
684,
-350,
-437,
558,
-942,
95,
-68,
709,
600,
-666,
-1353,
335,
893,
-485,
464,
-266,
462,
532,
-1188,
-470,
401,
-376,
-1013,
355,
-588,
114,
963,
-61,
-1049,
628,
143,
580,
-394,
941,
-537,
-44,
1516,
-1484,
1164,
-717,
-70,
-776,
-581,
-791,
-11,
-58,
1005,
-544,
-19,
820,
-886,
-553,
-30,
-981,
1107,
570,
-118,
-490,
-209,
389,
451,
78,
-221,
182,
401,
-634,
-855,
1211,
-1449,
907,
-302,
339,
791,
-176,
-393,
-470,
-174,
171,
393,
456,
818,
144,
-1417,
1365,
260,
-1789,
1200,
-521,
106,
-651,
109,
-392,
287,
-56,
-1530,
1077,
589,
-441,
1016,
326,
425,
-46,
-414,
77,
225,
-1719,
299,
-94,
-1612,
-1089,
901,
149,
-391,
896,
667,
-724,
128,
-413,
513,
-1127,
337,
698,
-670,
-412,
99,
475,
335,
314,
128,
-17,
-934,
875,
128,
-72,
274,
615,
-163,
-391,
-257,
401,
-712,
-627,
653,
-925,
-62,
-117,
-8,
447,
-643,
250,
61,
-95,
847,
642,
-1388,
768,
-1168,
-754,
507,
550,
-311,
1007,
758,
135,
151,
1368,
-1496,
776,
380,
-843,
341,
-276,
1173,
-1495,
197,
30,
-207,
383,
581,
671,
-961,
111,
-73,
-322,
-105,
-59,
-144,
-273,
-373,
-50,
-806,
152,
-13,
219,
-80,
304,
1277,
-173,
-398,
-614,
-115,
-608,
650,
-598,
-474,
-321,
87,
519,
-154,
212,
-705,
-929,
-213,
86,
1196,
267,
-482,
-160,
-536,
-165,
-127,
14,
-121,
-392,
352,
462,
-234,
95,
-620,
732,
-128,
274,
-665,
168,
294,
499,
-442,
-688,
-231,
-63,
-144,
395,
-200,
240,
-1263,
831,
-364,
-374,
294,
-1556,
-434,
-193,
-282,
1137,
-606,
-162,
179,
-397,
522,
421,
-313,
163,
382,
-389,
47,
-596,
746,
-1504,
-156,
-1303,
-1308,
-352,
186,
323,
133,
-163,
226,
-250,
116,
140,
-748,
-261,
373,
-1384,
566,
-759,
-543,
-426,
-559,
-245,
-76,
-695,
-644,
-192,
309,
-463,
-146,
913,
-742,
1697,
631,
1463,
-1094,
1220,
244,
-594,
-244,
348,
-895,
1104,
281,
461,
-855,
1130,
-737,
-208,
544,
442,
310,
-87,
461,
719,
-103,
223,
2250,
800,
-229,
404,
411,
-67,
-446,
132,
-122,
477,
-331,
-596,
46,
-850,
457,
1183,
-569,
449,
1096,
-437,
181,
-656,
-349,
173,
-555,
153,
-351,
1470,
-1075,
590,
-361,
-869,
312,
92,
-902,
549,
248,
-172,
-2,
252,
-895,
712,
-329,
324,
-323,
-815,
125,
1034,
190,
225,
-660,
-150,
824,
383,
-888,
-175,
-234,
-337,
215,
-252,
-603,
908,
-565,
-288,
1047,
-682,
-176
};

#endif