#ifndef __MMCBLOCK1_MMLAYER1_BRANCH33C_CONV_0_WEIGHT_H__
#define __MMCBLOCK1_MMLAYER1_BRANCH33C_CONV_0_WEIGHT_H__

// MMCBlock1_mmLayer1_branch33c_conv_0_weight
// (3, 3, 6, 6)
const int MMCBlock1_mmLayer1_branch33c_conv_0_weight[] = {
-2154,
430,
-862,
1854,
1085,
-2598,
430,
-2611,
1635,
3758,
-1206,
-1535,
-82,
623,
927,
3154,
102,
1112,
0,
284,
3591,
-113,
77,
-1275,
-3245,
923,
-289,
1137,
-1373,
-1820,
536,
-1218,
731,
1676,
547,
-3354,
-2681,
217,
-28,
313,
-764,
-744,
199,
-4340,
985,
2599,
-406,
941,
78,
-4357,
431,
4655,
-1953,
171,
-837,
-1507,
315,
-188,
1012,
-1774,
-2709,
-2743,
-533,
816,
1192,
-345,
228,
1795,
-531,
87,
-882,
18,
-3161,
858,
-316,
2022,
1083,
-1299,
295,
997,
293,
657,
442,
47,
-176,
-3664,
689,
3447,
736,
-1577,
540,
-876,
-205,
-1012,
953,
1546,
-4385,
-1155,
-200,
114,
-1554,
1216,
281,
811,
885,
1447,
-1744,
-2356,
-1432,
-470,
-2216,
-2067,
970,
-3141,
917,
-2401,
2128,
-2723,
-834,
1423,
-1472,
-247,
2234,
-3748,
-386,
-619,
104,
1104,
-766,
-1302,
3075,
-2106,
-2662,
-382,
2532,
-2198,
-683,
-334,
803,
-744,
-408,
-1414,
-953,
-1779,
-350,
1452,
-420,
-1696,
170,
-1937,
1284,
-3602,
-1178,
-1508,
-995,
319,
1156,
-3524,
-464,
-820,
-786,
2554,
-290,
-611,
640,
369,
-3061,
-948,
-960,
-2719,
-1344,
-57,
152,
-69,
-413,
618,
591,
-1524,
409,
-2276,
-2112,
-105,
116,
-1329,
78,
-134,
-1122,
965,
2242,
-1664,
720,
-72,
-469,
-3900,
963,
-4039,
691,
364,
-155,
-848,
561,
-100,
1942,
-579,
-3018,
-1043,
-1372,
-2611,
-272,
483,
854,
-339,
-37,
-576,
134,
-2274,
-965,
1678,
-1580,
-678,
-2004,
-1308,
1371,
-2553,
1848,
-2663,
-998,
-222,
-134,
-107,
2089,
-3371,
-401,
-331,
478,
1251,
-1519,
29,
65,
-2278,
-1786,
-465,
-621,
-330,
1759,
-2351,
1529,
-1608,
524,
-1501,
150,
-1055,
-940,
874,
-1134,
110,
991,
-1713,
596,
-3108,
1016,
-2726,
1678,
-717,
1488,
-5057,
1060,
-3040,
1734,
-374,
-411,
-192,
195,
-463,
72,
-3550,
-1076,
-1495,
-878,
117,
-626,
-852,
826,
-175,
-300,
-22,
-611,
1955,
-760,
746,
-947,
408,
-828,
638,
556,
-396,
1599,
23,
-2688,
-175,
-785,
-4172,
1941,
-4179,
-947,
-536,
207,
519,
2041,
265,
515,
-827,
-2977,
-366,
71,
-1521,
1292,
-191,
165,
-389,
838,
394,
2228,
844
};

#endif