#ifndef __MMCBLOCK4_MMLAYER1_BRANCH11_CONV_0_WEIGHT_H__
#define __MMCBLOCK4_MMLAYER1_BRANCH11_CONV_0_WEIGHT_H__

// MMCBlock4_mmLayer1_branch11_conv_0_weight
// (1, 1, 392, 12)
const int MMCBlock4_mmLayer1_branch11_conv_0_weight[] = {
-260,
-806,
499,
-2590,
-587,
1641,
800,
-4210,
4585,
-437,
-662,
1029,
1157,
-1237,
-3491,
84,
-966,
-2107,
781,
5025,
-350,
-1493,
-1492,
-1435,
-1080,
1757,
1407,
-1690,
-2385,
1316,
-656,
211,
2413,
-1280,
350,
-2094,
2478,
852,
748,
66,
1108,
-1391,
2730,
-3966,
-90,
3892,
989,
-338,
3478,
-1186,
-752,
-6019,
3246,
1349,
1210,
861,
-3084,
3475,
-1837,
-1477,
1109,
2106,
-386,
5496,
-2857,
-1062,
690,
3093,
2283,
-3072,
296,
2090,
-657,
-1418,
-5153,
-3714,
2132,
2840,
872,
-4394,
-2006,
-1798,
-2123,
-667,
144,
-1145,
188,
-3152,
-58,
2445,
-669,
8099,
2007,
-3,
-1666,
-4607,
378,
-2709,
-1285,
-1663,
-4251,
-1432,
-1915,
-6591,
1302,
194,
-156,
-889,
2489,
554,
-6393,
-2861,
3672,
889,
530,
-4200,
-2330,
-962,
-2463,
-70,
-1282,
1445,
1323,
-1984,
998,
1742,
-335,
983,
-2517,
-529,
-1960,
256,
-1270,
-2077,
-284,
-4670,
-2307,
2962,
4361,
1470,
3670,
1807,
-1706,
-1734,
-3746,
1186,
2454,
5601,
967,
1744,
-3120,
-3227,
645,
3867,
2864,
-1752,
-453,
4485,
-2799,
-5507,
-2484,
1308,
-1706,
4037,
-708,
-1778,
899,
-2578,
-2159,
55,
3916,
-1022,
-2408,
272,
-1703,
1325,
526,
2028,
1496,
-2802,
2277,
-4532,
-300,
-4823,
-828,
1874,
-2266,
966,
3184,
-1304,
-1892,
-148,
-1901,
-1712,
994,
-13,
-3675,
-971,
5433,
-4173,
-1391,
-1064,
-450,
1461,
-1295,
1045,
-87,
-391,
-1151,
3661,
196,
-2261,
-770,
1165,
-3494,
5672,
-1149,
-1677,
-465,
285,
1747,
953,
-254,
-1559,
1871,
-1516,
-910,
-667,
14,
-1112,
-4827,
-928,
-2203,
2014,
-2221,
3234,
-5102,
-4212,
-1585,
-1611,
-130,
-1434,
-3181,
-5060,
-1766,
-2362,
-1959,
115,
841,
-3011,
-1886,
-2484,
-2700,
4274,
-4588,
-5442,
2393,
-1024,
-574,
5528,
-4947,
127,
1595,
-758,
-783,
-1934,
150,
3590,
-2801,
-1943,
-2809,
465,
6165,
-16,
-2652,
-673,
20,
188,
930,
-1565,
1880,
1476,
739,
-1789,
-1910,
-3491,
274,
555,
-473,
1445,
3207,
3361,
2192,
344,
1187,
-2213,
-5164,
1225,
1539,
1441,
137,
-962,
3045,
-795,
334,
-369,
1500,
-1839,
-29,
-17,
716,
-3736,
-3005,
1453,
-93,
2610,
821,
3075,
-3552,
-1668,
-300,
-3792,
-1525,
1186,
-279,
542,
-2360,
-827,
-1308,
-326,
-3306,
-2039,
-1685,
-2991,
-1597,
-1811,
817,
3333,
-1605,
-2610,
2933,
5017,
2083,
-1171,
-2382,
1969,
-74,
3990,
-4491,
-3264,
-3475,
3358,
883,
-2444,
-2599,
-1703,
-303,
-190,
1650,
5285,
1339,
2842,
-1568,
1770,
266,
-1687,
-387,
1448,
-1430,
-1635,
1094,
2158,
2095,
94,
1106,
280,
-1727,
-2017,
-179,
-3495,
-1847,
1117,
4842,
2226,
3427,
-1221,
2455,
13236,
5727,
-1723,
-3544,
-66,
-2786,
4123,
2562,
-423,
-910,
-2227,
399,
548,
-3296,
4004,
-433,
992,
2780,
654,
-1099,
-424,
856,
1363,
-517,
-1648,
-2523,
2,
-2617,
-1889,
-1807,
-2045,
-3329,
3614,
6865,
-3196,
547,
-3288,
-372,
1890,
-42,
1897,
177,
3066,
-33,
-1323,
-1200,
814,
1078,
213,
-219,
2603,
2004,
-1084,
-593,
-2610,
-2785,
963,
976,
2947,
-2898,
1444,
-988,
3587,
-664,
-168,
2258,
389,
-942,
-2343,
-16,
136,
-2796,
905,
680,
-4895,
-1165,
-640,
-2408,
-2724,
-4453,
2099,
-2098,
-796,
453,
-5271,
606,
2651,
2221,
-1215,
-3093,
-1263,
-1758,
1531,
-4060,
-82,
-73,
-1130,
1216,
-4912,
-443,
5153,
239,
926,
2686,
6108,
252,
-2039,
3093,
3152,
-4169,
-2583,
988,
3190,
6481,
-5070,
-985,
-3326,
-452,
332,
2552,
10043,
-87,
1319,
1658,
-1484,
557,
-3674,
-3495,
4895,
-1944,
5336,
2495,
2345,
-2170,
1243,
-443,
12958,
1089,
122,
3482,
-986,
-172,
1107,
2729,
-5570,
1289,
-252,
1739,
2008,
-2717,
-644,
-891,
-906,
-586,
2875,
3111,
2084,
2138,
2871,
1254,
-854,
-1535,
36,
752,
1675,
-3401,
-1506,
1089,
-2831,
583,
3023,
-551,
-2439,
-3251,
437,
2553,
3561,
-644,
664,
150,
-3969,
1111,
6216,
1762,
-422,
-368,
-400,
-4044,
351,
-1428,
2851,
448,
-3825,
-339,
-1073,
-60,
2179,
-1308,
-2801,
798,
413,
-4015,
-93,
-1712,
-1580,
5392,
-1636,
4795,
680,
-5470,
1361,
1160,
4266,
1405,
2709,
834,
863,
-151,
310,
-3300,
3557,
4299,
-1613,
961,
684,
-1429,
-33,
-3486,
-2035,
-6184,
-790,
-2039,
-1912,
2666,
-1694,
-2033,
273,
563,
400,
756,
3546,
-3784,
-3885,
-2467,
-1472,
3818,
-4233,
967,
835,
3667,
-1503,
-3091,
-7742,
1863,
564,
4274,
-5270,
120,
3269,
-2559,
-436,
3443,
-1403,
578,
568,
-2656,
1752,
-3351,
3689,
1866,
-1447,
-46,
765,
4404,
-2712,
-2029,
3907,
197,
-2526,
-2294,
2207,
2040,
-964,
2551,
2354,
-744,
-1854,
-974,
-463,
-94,
-2679,
-3930,
209,
-1329,
-1552,
-138,
-2471,
1943,
1670,
-3586,
-211,
16,
1863,
-2087,
-64,
-2142,
189,
-907,
6060,
136,
161,
1379,
-662,
4094,
4660,
1849,
-1303,
2562,
-2196,
-831,
-2268,
-1993,
-633,
1440,
-2643,
3252,
-1517,
6690,
-1314,
-2610,
91,
-390,
-1875,
4836,
-3832,
1451,
-460,
532,
-928,
-4970,
-2186,
2336,
2182,
-88,
-3400,
-3445,
183,
3623,
-77,
-1946,
-439,
989,
-498,
-1627,
423,
4823,
0,
-957,
171,
4140,
2300,
-4116,
2910,
3013,
1135,
-1150,
-3375,
-74,
1417,
2806,
-2106,
-2599,
-2978,
4453,
1548,
-65,
2289,
1187,
2680,
-2309,
-1036,
1546,
-2197,
1142,
1186,
3948,
-379,
-1064,
2489,
3515,
3623,
1903,
-2802,
425,
-1174,
-2848,
-909,
2483,
-77,
1448,
4595,
100,
-2945,
-1103,
-1665,
-3429,
-1270,
-2526,
-5403,
-373,
-542,
-1268,
5714,
1788,
1076,
-1301,
3546,
3372,
-4774,
46,
-66,
-2261,
-1791,
788,
-1768,
1079,
2087,
-1578,
2514,
2660,
-2811,
-4112,
-2083,
2513,
-2424,
-1712,
-4296,
1646,
-167,
-696,
-1911,
-1422,
557,
-3052,
1194,
1978,
-2454,
-3656,
4965,
-2020,
637,
3100,
-1140,
-29,
4905,
-1988,
961,
-1441,
5340,
2810,
-3677,
-2623,
1435,
275,
3283,
1090,
-2821,
2479,
3348,
-2091,
-1147,
-2058,
-1298,
5288,
-1392,
-2672,
124,
2237,
3978,
1020,
-3268,
1003,
2502,
-2751,
-777,
-330,
-263,
-3782,
1439,
-374,
-454,
2372,
-3590,
196,
-800,
-4359,
-5982,
-2439,
988,
2115,
-3964,
-2341,
-2698,
-1740,
-1350,
-461,
-2271,
-133,
385,
2607,
-143,
-2788,
18,
-240,
-603,
604,
-2894,
-2330,
2411,
-715,
893,
2309,
474,
-1409,
1399,
-5519,
1901,
1606,
-1429,
-784,
-725,
-1520,
-1271,
-2736,
977,
375,
-981,
-2133,
215,
-368,
-3802,
-1623,
-1191,
-700,
1865,
-2437,
-2376,
1456,
-2491,
1305,
-3518,
1353,
3724,
-3739,
-2146,
-1400,
787,
-782,
1534,
4675,
-1282,
-1733,
1073,
2445,
10601,
1545,
-1293,
-2077,
1932,
1768,
-1009,
2002,
61,
-954,
755,
3974,
1141,
-495,
-1353,
380,
2278,
-1815,
1554,
-1902,
1185,
-315,
1950,
-2518,
-3252,
967,
-1309,
1123,
2373,
-2023,
0,
1605,
-848,
-3086,
1284,
1263,
1472,
-3353,
-1221,
-337,
108,
6098,
3671,
-509,
-1702,
-3037,
1460,
-254,
-221,
-3153,
2576,
3122,
-963,
2117,
779,
878,
967,
-2033,
-1331,
-497,
1192,
-2522,
2442,
902,
305,
534,
-1813,
-1829,
2340,
-1486,
-2211,
-542,
-2046,
-4644,
-982,
-2640,
-2076,
-3334,
-1160,
-681,
2188,
-1623,
2852,
1152,
-2060,
-1003,
4746,
2274,
263,
1368,
-4518,
-86,
551,
-491,
-6233,
-2274,
-329,
2551,
807,
2986,
86,
2502,
111,
406,
-3006,
-3676,
2343,
239,
-1863,
-3693,
1617,
262,
1121,
405,
-3892,
-1053,
-1201,
1967,
4221,
-703,
463,
905,
-1452,
-588,
-7897,
-1700,
-569,
261,
-2440,
-411,
-4511,
439,
3230,
854,
-4275,
-416,
-3670,
2185,
3470,
5072,
-1267,
-2460,
1381,
-1667,
-1863,
5001,
-1443,
-2823,
9191,
-4831,
-2562,
-475,
-5696,
-4095,
442,
3658,
951,
-5552,
-1378,
280,
3424,
-2687,
-204,
3336,
5325,
-4755,
4264,
3564,
-4713,
-1360,
422,
-2714,
-1265,
-2518,
-1942,
2222,
-1702,
-103,
187,
-2079,
-3753,
3226,
-2312,
692,
-1535,
-555,
-2435,
1248,
-1459,
-1313,
-1722,
890,
-3027,
1942,
-121,
988,
1024,
462,
1870,
-2675,
1078,
-733,
-3995,
-1207,
-4646,
2907,
2288,
3315,
702,
-2648,
3839,
1167,
-2371,
-1325,
-3804,
-1744,
-3294,
-3285,
-1557,
-1040,
-5059,
-1452,
-1349,
-2994,
-3706,
-1168,
3207,
-405,
786,
-429,
2632,
403,
-665,
-710,
-2791,
-611,
1452,
5646,
277,
-2322,
-2801,
7069,
-970,
-4028,
2676,
-1157,
2579,
627,
-39,
-220,
2425,
-3205,
494,
-1761,
3258,
-1484,
2466,
1825,
-3902,
-2664,
-4324,
1555,
-4437,
-404,
-4651,
-546,
-308,
-2816,
606,
872,
-1740,
1806,
-456,
482,
-992,
-969,
4318,
3756,
1662,
-1831,
-894,
-2157,
-209,
-5132,
2136,
-1717,
-1341,
1614,
8697,
-2209,
-2204,
1740,
1500,
-2886,
-2463,
543,
3179,
1353,
-1250,
-1544,
-6130,
-125,
-3569,
-2269,
2387,
418,
6029,
947,
-2996,
-2207,
-1296,
5931,
-3820,
-1190,
2046,
6751,
-3519,
-5021,
2039,
-3151,
2973,
-2030,
-247,
-1696,
-3823,
-1061,
2761,
3283,
-6091,
-4627,
2952,
-2824,
-612,
-1109,
8939,
-1713,
-5475,
599,
-2486,
1093,
-1556,
-1511,
-1595,
3322,
2649,
-3484,
-19,
-2462,
-2716,
-3291,
5736,
-4236,
-1982,
275,
-4275,
-4227,
-2626,
-1030,
-1515,
607,
-3176,
-163,
-2563,
-3356,
-199,
4704,
6270,
1835,
-1497,
5789,
-2352,
5423,
18356,
-4115,
-2013,
-510,
2088,
797,
2665,
2568,
64,
610,
339,
-1173,
4558,
2690,
-1603,
-448,
-4276,
-328,
714,
664,
649,
-5418,
111,
-1361,
-1112,
2947,
46,
6297,
-4331,
-2574,
1091,
1188,
956,
-5557,
-528,
101,
34,
-3378,
3390,
-1601,
5727,
763,
-4822,
-1385,
-530,
-620,
47,
2295,
1904,
-1494,
4667,
-3053,
9217,
458,
3175,
-4057,
1819,
-6444,
-1991,
4662,
598,
-518,
-1026,
-4241,
2357,
-4856,
2671,
5758,
-3426,
1772,
3027,
4246,
4986,
-929,
2166,
2025,
-382,
619,
231,
6977,
-391,
-3436,
1627,
626,
2441,
-1489,
663,
558,
-1804,
1139,
-2675,
-427,
2278,
-825,
-766,
-2439,
-3609,
5250,
613,
1495,
-444,
-4420,
707,
-1060,
24,
795,
3297,
1890,
10517,
4130,
-1057,
-253,
-2133,
-867,
-1268,
1264,
3384,
189,
-1498,
-2816,
-90,
-879,
-672,
3072,
-3718,
1260,
2515,
1122,
-2025,
-453,
351,
97,
1526,
-1613,
4237,
-3171,
4248,
5147,
-1043,
-346,
459,
1573,
-1744,
247,
-832,
56,
369,
6293,
-2220,
-1959,
-2386,
-1092,
442,
139,
-1246,
-958,
4487,
-2545,
-2027,
3245,
-3159,
4810,
2295,
-3595,
-2198,
1335,
-997,
-1370,
149,
2937,
288,
636,
-1120,
254,
3031,
2757,
-1712,
185,
-1819,
1184,
1392,
1197,
1179,
2243,
-6454,
915,
-332,
3034,
1362,
-1047,
1347,
2228,
-3116,
3,
-558,
-2533,
-515,
1466,
1940,
4423,
621,
-2684,
3240,
-2739,
-837,
1665,
1548,
-872,
10995,
241,
-3404,
-793,
-3219,
-366,
1935,
-562,
-369,
5241,
-3147,
-732,
-779,
-2175,
-94,
703,
-952,
-2542,
1203,
1341,
-2767,
533,
270,
3413,
2682,
3607,
846,
-805,
-1709,
1979,
-365,
-1849,
1726,
1870,
-1307,
-898,
-2651,
5106,
4732,
-3256,
-1963,
291,
228,
-205,
-300,
-4217,
-501,
-2534,
-3484,
2274,
-3735,
-2041,
-1713,
2567,
5547,
-758,
-1461,
912,
-3618,
-4923,
-2299,
-2613,
-2875,
5776,
-175,
-45,
-1407,
-110,
2056,
-28,
645,
-1939,
817,
188,
-739,
-794,
438,
1191,
673,
-2162,
-153,
-111,
-6736,
-2686,
-1049,
-212,
-142,
-598,
-415,
-1417,
-798,
9630,
1304,
2491,
-488,
1994,
-2892,
-4419,
1919,
1920,
2857,
-2239,
-285,
-3356,
-4697,
-394,
-1541,
74,
-145,
-546,
-1177,
-2041,
762,
-8016,
-2887,
-2929,
2486,
1891,
4119,
932,
832,
-4447,
-4630,
2471,
-370,
1226,
-1136,
2136,
-5242,
-3161,
-1110,
-100,
-3133,
1607,
4466,
1076,
3355,
-199,
113,
984,
4227,
-969,
-1211,
2532,
-124,
956,
786,
1686,
4827,
-5133,
-5,
3048,
5448,
-3085,
-1222,
-4384,
-178,
-425,
-5031,
880,
-20,
-1181,
-573,
529,
-1929,
380,
-338,
1258,
3002,
-2615,
-1819,
517,
-1910,
-93,
1001,
3730,
1818,
-4857,
2323,
868,
2513,
2853,
-3040,
3519,
-3638,
-351,
-2297,
-2659,
597,
2614,
-777,
-246,
2312,
-3743,
1779,
-1257,
2341,
-1693,
4070,
-3463,
-4548,
1641,
2927,
2966,
860,
-822,
-1839,
-256,
-3942,
-1436,
-1412,
3455,
1062,
-1618,
-816,
3669,
3994,
-4127,
-1745,
2339,
797,
-2971,
-3123,
-979,
-5541,
-494,
-2919,
-1126,
-2535,
-1315,
680,
-2927,
-75,
6152,
1188,
1316,
-1314,
-2742,
-1517,
615,
-2647,
333,
2613,
2124,
4012,
-1386,
3636,
3212,
-248,
-1580,
6147,
-1161,
2441,
-2361,
-1778,
-430,
-4074,
-2322,
-413,
-1241,
-3182,
-505,
3493,
-4054,
3314,
2637,
-618,
-4780,
2017,
-783,
-1350,
-333,
1973,
-1700,
1926,
3414,
-272,
1799,
-4333,
-2280,
-672,
-2512,
1195,
-1456,
-1673,
-1721,
-3243,
-1326,
414,
-1050,
-3009,
-1216,
-1588,
-1877,
2011,
343,
5935,
2592,
-496,
1070,
1255,
446,
-3733,
1121,
-1193,
-2499,
-3142,
8697,
-4420,
-6047,
-824,
2790,
1586,
2615,
-1893,
1393,
-637,
4308,
-631,
3315,
-2408,
3130,
-696,
842,
2231,
-975,
8063,
2591,
-1572,
5642,
3884,
-5227,
-3320,
236,
-2331,
-341,
2304,
1445,
-486,
4177,
3998,
-2250,
-156,
2458,
-2749,
-1529,
411,
-496,
-2915,
-1927,
279,
147,
-199,
3865,
1418,
1808,
-855,
5981,
-670,
629,
-3731,
-1817,
-365,
2061,
-517,
-4791,
-1442,
1557,
-2386,
-1229,
2229,
3948,
-1157,
2579,
-2008,
-2714,
-1649,
1929,
-596,
50,
-3077,
2179,
-1383,
403,
-199,
-2931,
-1043,
-2511,
390,
2308,
-1109,
-463,
5832,
-4933,
-1129,
209,
-1970,
-1809,
-916,
-1134,
-796,
-3566,
3,
-1089,
3019,
263,
7355,
4467,
1343,
-3211,
-130,
-3149,
589,
-1930,
-898,
10,
-1087,
-3253,
3119,
383,
5960,
2209,
-4246,
-3402,
-342,
-1157,
107,
830,
1318,
-1671,
-1185,
-862,
6973,
45,
-3548,
938,
250,
-1889,
-3444,
-5424,
-4913,
5211,
-503,
1749,
644,
-2875,
-247,
-1372,
-2562,
426,
-2755,
-3409,
-3838,
10,
3123,
-2028,
-4219,
-4827,
-2988,
-1,
-3267,
-119,
1655,
-2181,
679,
-2482,
-4761,
-1554,
1029,
-827,
-631,
977,
-79,
1418,
3794,
937,
537,
2285,
-463,
786,
-1987,
-1310,
-1255,
113,
-1287,
3771,
811,
-61,
11963,
40,
-3918,
267,
2460,
2810,
-4811,
307,
3219,
4827,
-584,
3157,
786,
-2829,
-334,
-1750,
-1083,
1789,
-1349,
4327,
4445,
-2785,
-824,
4850,
11094,
2063,
-2974,
-1376,
1159,
-962,
-933,
1219,
-1339,
-1838,
-1289,
2486,
-1359,
-3259,
-1670,
2369,
-1004,
-512,
1487,
730,
548,
479,
5630,
-378,
224,
-448,
593,
-1817,
967,
1549,
-1817,
1721,
-1622,
6132,
-574,
3577,
928,
-1641,
-229,
-3627,
271,
1853,
-5215,
-722,
-410,
2483,
777,
3571,
-1389,
-2950,
-296,
-595,
-1188,
5025,
1866,
2290,
-5761,
1390,
-1811,
-2859,
-2179,
-2562,
-3722,
2914,
-891,
1981,
414,
-1298,
-68,
2431,
2226,
-365,
-301,
-2261,
1417,
203,
2837,
-1518,
897,
-690,
1858,
-1492,
510,
6496,
-3462,
-587,
696,
2073,
-2000,
-2031,
473,
1097,
-1160,
976,
1779,
-2417,
-5182,
-1510,
-751,
544,
4265,
-433,
1586,
2437,
-2393,
-310,
-1616,
-1971,
4906,
1097,
-571,
5756,
-4872,
-1736,
-653,
-3840,
-1027,
104,
-1869,
-2260,
-8154,
5011,
2692,
803,
3847,
-1776,
-2980,
-2384,
991,
1828,
-2924,
-1312,
-4145,
4573,
1797,
2051,
-947,
367,
5453,
-2545,
2835,
743,
1488,
2206,
3953,
-1608,
265,
-2197,
202,
2460,
-781,
2103,
3112,
-5946,
3681,
677,
5445,
-422,
-1796,
801,
2394,
1701,
-998,
4733,
-1797,
-2714,
1168,
90,
-24,
387,
-3011,
-688,
-3110,
-4905,
3395,
3032,
-658,
729,
-209,
624,
5252,
-1600,
-4365,
612,
-3648,
3818,
-1442,
-3161,
2367,
-1659,
1141,
942,
1483,
-2595,
-1184,
436,
-709,
6827,
-3030,
-1287,
874,
1322,
-266,
723,
-2130,
-1146,
-46,
-2085,
2260,
140,
1474,
-949,
1210,
2591,
775,
-1974,
-1130,
-2613,
1881,
1913,
2225,
1794,
-3947,
-3097,
1244,
1381,
1823,
-791,
-3712,
-2299,
1421,
-4603,
3604,
-295,
-3203,
-3260,
1917,
42,
-1114,
1809,
-1216,
-3639,
-299,
-650,
1428,
2955,
2204,
3239,
-1715,
-3239,
795,
1121,
-68,
2571,
-252,
-1282,
4195,
-926,
-4256,
3586,
-2509,
-609,
-2681,
-2092,
-22,
3292,
999,
1062,
896,
1433,
-2858,
-1128,
2165,
-2165,
-4230,
9510,
-453,
-1100,
1260,
916,
-6525,
-9,
2415,
-725,
-1211,
997,
4002,
1024,
-2970,
-2732,
661,
-466,
-1973,
-1276,
-2242,
-1555,
1830,
-1416,
2774,
2903,
841,
3645,
724,
2553,
1998,
264,
-56,
943,
-119,
-1555,
-2970,
-2008,
-5561,
-2051,
114,
-221,
-4341,
-2960,
-3598,
-422,
-2483,
2250,
3362,
1164,
9512,
-878,
-3098,
-382,
6158,
3036,
541,
-846,
741,
-805,
493,
2259,
-1473,
-1059,
1180,
3047,
-3254,
3918,
2315,
1557,
1140,
300,
-3514,
-1956,
-4057,
812,
-4386,
-2352,
2951,
4078,
386,
1729,
-2175,
-1296,
2689,
-1747,
11321,
1880,
-3619,
1036,
1472,
-7196,
-6657,
2837,
3414,
-4311,
-1921,
-2318,
-1678,
-3725,
-989,
-2639,
-1933,
-1327,
-4930,
-1970,
-3589,
-2124,
-5182,
-732,
-5814,
1495,
-1615,
2025,
-1596,
289,
-1497,
-1219,
-511,
-544,
1839,
-1658,
5222,
-2898,
-2405,
-6177,
768,
-531,
-1754,
6020,
792,
1488,
1966,
-2180,
-4644,
-743,
2137,
3830,
-2847,
-680,
-5311,
1139,
-2402,
-766,
-4324,
-1764,
-395,
3120,
-2670,
1375,
-1444,
-6708,
4618,
-1661,
1033,
2137,
684,
-5096,
4879,
-525,
-2578,
-2836,
1722,
2644,
0,
-2746,
1035,
-520,
281,
-2301,
-1757,
28,
3648,
-2542,
-895,
-2011,
2881,
-2087,
4386,
501,
-59,
-192,
-4162,
-799,
2352,
1102,
1296,
-245,
2125,
1094,
-1893,
1353,
-1323,
-2785,
-3190,
208,
-1044,
187,
-1647,
37,
-205,
-164,
-148,
-768,
114,
-731,
5021,
-2263,
-1933,
-2140,
8750,
2269,
-548,
562,
-691,
941,
-2661,
-1386,
1782,
-4433,
-2379,
-2311,
-104,
8864,
4280,
36,
355,
1181,
321,
935,
-783,
-811,
564,
-3837,
-354,
-3514,
-4588,
60,
-2967,
-1541,
-408,
575,
-3106,
5650,
-1193,
379,
-1907,
-1351,
-2878,
-315,
-5366,
2516,
686,
-1191,
309,
-843,
-2528,
-3634,
-2940,
8409,
2987,
1077,
-4525,
2992,
-645,
-3776,
-63,
3263,
253,
3149,
-707,
-1981,
-1932,
1068,
113,
-2363,
-2083,
-1493,
7106,
-3568,
-1312,
-4111,
1347,
2759,
-2539,
-447,
-2635,
-3656,
-244,
-1133,
245,
-1537,
822,
-1522,
-1669,
1356,
53,
-2552,
1907,
748,
-697,
3962,
-5514,
186,
1579,
3325,
-2998,
-1375,
-688,
1110,
-1369,
-1055,
-2307,
1146,
6126,
-2631,
-2291,
-4247,
-1729,
10494,
3814,
-2817,
270,
-1610,
-4387,
1865,
2104,
-2099,
-610,
978,
-730,
4217,
-2095,
1325,
-4338,
551,
-361,
2774,
-2302,
-868,
-2095,
230,
-1273,
2639,
1425,
2953,
-1669,
-986,
3457,
3744,
-2895,
-2038,
3253,
481,
-421,
2008,
658,
-216,
-3110,
3577,
-5162,
2824,
-1406,
-2222,
-3562,
963,
-1040,
2984,
9147,
237,
-2041,
569,
-1899,
-809,
-1256,
5578,
702,
-3681,
5774,
524,
7698,
-2985,
-32,
422,
-3433,
-2147,
-6023,
107,
-5759,
-3057,
-2660,
-767,
-662,
-4298,
-2108,
1014,
165,
-5498,
-1914,
1527,
593,
-815,
3346,
-5941,
-2824,
-3079,
480,
-998,
5335,
3862,
-6708,
57,
4638,
899,
-902,
-2048,
3034,
2544,
39,
55,
-5772,
574,
369,
-1046,
-2834,
-2151,
4346,
1943,
1286,
-3518,
30,
-330,
-2199,
-2479,
-1436,
-492,
766,
52,
-2352,
1192,
-3512,
2214,
-3912,
-520,
1488,
1985,
-106,
-2243,
2507,
4265,
357,
416,
-1951,
-455,
717,
-2124,
1190,
-521,
-1663,
-769,
-938,
-2362,
-1533,
3062,
-3231,
5158,
-2021,
235,
579,
-57,
6638,
-4026,
-1697,
-1578,
406,
1370,
-4750,
1414,
2826,
2461,
1149,
735,
-2020,
-2519,
1564,
3730,
3101,
4704,
-2927,
3392,
-3861,
-1852,
-569,
3868,
448,
-771,
852,
-1315,
1777,
310,
-199,
-367,
-1548,
2299,
2231,
-2338,
2631,
-412,
453,
-2365,
365,
-1571,
-86,
-4044,
5438,
-3972,
523,
-2154,
3466,
2271,
-569,
633,
54,
-2467,
-2985,
-2535,
-2760,
4734,
1251,
-3449,
-2963,
1724,
30,
-308,
-2068,
-1175,
-1918,
-1684,
-1038,
4243,
891,
880,
-1505,
-3430,
-451,
-3288,
1205,
5486,
-366,
6442,
3747,
3194,
-1861,
6274,
-3151,
-2524,
645,
6078,
-2397,
4975,
5341,
412,
135,
-1275,
-1044,
2240,
-323,
-1,
34,
335,
-1647,
-2548,
3363,
-899,
-299,
-3034,
1931,
-1263,
3174,
879,
616,
1243,
-1820,
-3547,
-2511,
-3422,
4186,
362,
516,
367,
-4294,
-4294,
2493,
1144,
-3070,
3311,
-2334,
1544,
767,
-3385,
-2325,
-326,
-418,
1948,
-1450,
-1909,
-4149,
-1554,
-3532,
795,
881,
992,
1227,
-1118,
3786,
-834,
-1337,
-838,
105,
1273,
-255,
2286,
2635,
2656,
2410,
-1815,
903,
-320,
4962,
-2158,
718,
-2130,
111,
-1618,
6572,
3292,
1072,
-1387,
-4007,
-2557,
-524,
784,
-2476,
1410,
-838,
127,
1089,
2997,
1299,
1897,
-2371,
-2125,
4089,
1563,
-1142,
2203,
-1947,
3530,
907,
2124,
-3356,
3222,
710,
-1898,
-3810,
-3097,
-6325,
-388,
-2457,
628,
1837,
-3899,
-1029,
-807,
-1410,
4511,
-355,
-773,
3705,
-825,
-2086,
-1506,
-2080,
610,
1052,
-1690,
-2341,
-4287,
2349,
-1855,
667,
-340,
-4087,
-1539,
-1427,
-1161,
5798,
607,
-4222,
-2990,
2897,
2505,
192,
-2418,
-5593,
1341,
726,
159,
2165,
2773,
2734,
-3170,
109,
1764,
56,
1758,
886,
3246,
-3062,
2749,
3101,
-1304,
4210,
1315,
-2899,
-1089,
-3434,
-4953,
-4665,
3222,
743,
599,
815,
-207,
7499,
6913,
997,
-722,
-4025,
-3930,
-2373,
-1818,
1209,
-2303,
-3070,
-906,
-3234,
-305,
3261,
2234,
407,
558,
-1400,
2859,
-1992,
-2527,
-2107,
-710,
-2989,
-1807,
2621,
-484,
-2208,
1203,
-3385,
-1049,
-2166,
2168,
-1439,
-4302,
-2976,
1494,
-3279,
-939,
3788,
3352,
-867,
-1969,
1630,
5162,
-418,
1265,
4690,
6103,
-1684,
-3169,
-3562,
1651,
2138,
-2100,
-3252,
-939,
-516,
-1706,
-498,
-1941,
738,
138,
1101,
457,
708,
-2186,
35,
505,
-397,
1343,
-697,
-4645,
-162,
-3065,
-1173,
866,
-3102,
-1548,
-3,
4652,
3662,
-4149,
6113,
-908,
-2141,
-1650,
2635,
-2209,
-2892,
-85,
532,
-1611,
-222,
279,
-2415,
-1945,
5039,
450,
-2372,
1253,
2865,
-3443,
950,
3181,
-2550,
494,
2883,
-2603,
-2519,
-1511,
-16,
220,
2213,
1120,
2080,
470,
220,
-821,
303,
1351,
-801,
-4024,
1692,
-2669,
-701,
-1592,
-402,
79,
1779,
-2654,
-3109,
1591,
2539,
-2088,
2630,
-91,
465,
893,
-3301,
-1416,
-2712,
-404,
-4241,
2755,
-1222,
2348,
4702,
-614,
6534,
-1024,
-314,
3333,
511,
-3191,
-1253,
2576,
193,
-3318,
-564,
622,
109,
136,
3114,
1982,
-3646,
-2558,
3230,
-1024,
-3960,
-661,
-2238,
-487,
-134,
-552,
-239,
-4338,
-2365,
-4601,
813,
2269,
-1402,
3949,
-714,
1106,
2484,
-1508,
4176,
-1835,
-2138,
2576,
-2204,
3007,
240,
55,
-1822,
-4960,
450,
663,
373,
1487,
-2475,
1512,
3642,
4738,
194,
520,
-536,
2601,
9032,
243,
1010,
297,
-1177,
-1632,
-2369,
2595,
-424,
-1848,
3959,
-2753,
-1159,
-2213,
-1442,
-1246,
35,
-1326,
-8354,
-2208,
4866,
1491,
3829,
575,
-744,
1697,
-3006,
1574,
-1784,
1432,
2635,
-2544,
-4128,
3296,
-3305,
2185,
-523,
1225,
-2121,
886,
706,
-2400,
-232,
892,
-12,
1764,
-2161,
0,
-1233,
185,
1621,
-1030,
-1011,
-478,
-449,
2638,
-1858,
356,
-914,
-687,
-1243,
227,
-1776,
-2198,
-1704,
870,
2776,
-809,
-1033,
-1067,
1981,
-986,
210,
-2041,
1000,
-921,
-821,
-3457,
-7224,
1968,
866,
2459,
1286,
-414,
518,
-1350,
-937,
-2068,
-1728,
2231,
-1810,
675,
-182,
-75,
-208,
-849,
-3515,
-349,
-1838,
-2610,
1363,
-1999,
-1010,
-4525,
1903,
-1458,
-5494,
-2472,
-3901,
-2304,
2024,
-3427,
-1924,
5076,
1241,
2614,
4043,
4489,
999,
-543,
340,
-3988,
-825,
138,
-712,
-1349,
636,
2120,
1475,
121,
-102,
1163,
1631,
-4584,
1733,
3218,
-94,
-1857,
12275,
2625,
-4583,
1190,
3349,
-2084,
-4822,
1876,
-3377,
249,
-1151,
3715,
-3083,
-2349,
1167,
2280,
-3073,
-4316,
-83,
1952,
154,
-359,
2844,
-1995,
3421,
2749,
2603,
-2998,
9188,
-3918,
-1855,
2323,
-3120,
-1689,
-2871,
-1306,
-1160,
4236,
-216,
321,
1595,
2148,
-2936,
-4257,
-1739,
115,
3041,
-4687,
754,
3147,
1164,
1811,
-1169,
-3431,
-3535,
-2943,
765,
5109,
-772,
-823,
-666,
-838,
2392,
1000,
2478,
2876,
-2560,
-912,
-1934,
-5139,
4035,
690,
-1243,
910,
1662,
1241,
232,
-3203,
2552,
-808,
305,
8447,
-1270,
-1235,
-5523,
77,
-1596,
-1482,
1771,
-1192,
3859,
-129,
-959,
2151,
-4689,
1882,
-2425,
-1527,
-1997,
4205,
-1224,
454,
-1718,
-2532,
-709,
-3586,
1913,
-3733,
-2857,
-1192,
2375,
1130,
108,
-796,
-5564,
-2140,
2282,
425,
-4315,
1730,
-2044,
5796,
-1487,
4268,
-2659,
-2629,
1893,
-2610,
2104,
-4732,
2248,
1219,
337,
-715,
-2149,
-4232,
-74,
-1111,
-5640,
292,
-581,
-2704,
-2422,
-1511,
-1274,
-1003,
235,
1821,
391,
765,
-1017,
-3727,
1852,
-2432,
-403,
-1062,
-5758,
-682,
5194,
2865,
5748,
2471,
2008,
-2158,
-1946,
-2385,
-2779,
5582,
-1037,
6539,
-751,
1343,
15,
-2232,
8033,
882,
-14,
-2408,
-4575,
-2917,
-951,
-511,
-4434,
4672,
-1926,
1141,
2006,
-3274,
4457,
3101,
1240,
-2026,
828,
121,
-1208,
-3902,
1952,
-2705,
2265,
-2518,
-1981,
-1062,
1836,
-1160,
-2540,
1900,
893,
2727,
2387,
-1582,
2608,
1119,
-2200,
-1170,
1520,
5291,
6836,
-1252,
14,
3557,
-825,
-5115,
3165,
2477,
2964,
380,
1004,
-823,
-3326,
3991,
160,
993,
2567,
-3563,
6367,
2098,
-829,
2230,
2412,
-1239,
-3268,
236,
-3084,
1154,
487,
830,
-1209,
589,
349,
-822,
-1294,
-1556,
-1225,
2038,
620,
-1278,
-1100,
2477,
947,
2710,
-1620,
-2602,
2929,
2781,
1033,
3754,
411,
-1466,
-2341,
-2459,
-1965,
-738,
-339,
809,
1276,
-3669,
1774,
2111,
-2017,
-2542,
-1319,
2701,
449,
-2578,
-4872,
-381,
-1719,
-1050,
-4150,
3854,
-2614,
-2437,
-3838,
2627,
1495,
-1369,
-2364,
-1885,
1932,
4860,
638,
-3062,
2958,
2008,
4096,
869,
1085,
2173,
-2664,
-972,
747,
462,
-3263,
-6135,
-1875,
62,
-1982,
-18,
-1500,
1559,
317,
1272,
279,
878,
1507,
-3703,
-1638,
-2867,
544,
-892,
4022,
2449,
2515,
369,
6972,
-820,
-239,
-3955,
-2046,
-1573,
1628,
-3305,
-4577,
9243,
968,
-782,
-780,
545,
-943,
3619,
-1125,
58,
7802,
427,
66,
-967,
-3399,
2114,
-171,
-1778,
5364,
-242,
1559,
-1538,
-2404,
1884,
-3494,
2211,
716,
-3258,
-73,
-3148,
390,
2658,
-847,
-660,
6204,
-1289,
-2034,
-5583,
-1276,
713,
3534,
-3743,
-2479,
-2278,
-296,
2816,
-1617,
-274,
3085,
3307,
1033,
4760,
5317,
9,
-2747,
2220,
1300,
757,
-2492,
-834,
5073,
6555,
4363,
-659,
-1932,
-176,
-5752,
-1570,
647,
-2719,
1601,
1449,
308,
270,
-45,
-553,
-1428,
2096,
-5316,
1403,
3004,
535,
-920,
-309,
1834,
660,
-3923,
135,
-1010,
31,
2081,
-390,
-1000,
-1685,
1729,
1725,
-5784,
-1519,
636,
1347,
991,
808,
2973,
-2065,
-1450,
-19,
-3359,
1497,
-3369,
1769,
-844,
1032,
3124,
3620,
-238,
-3956,
2614,
24,
-1797,
2486,
370,
-4646,
424,
2922,
1606,
552,
795,
275,
728,
605,
-1011,
-1824,
-2098,
-2003,
2734,
-3506,
-1712,
-1707,
-4985,
-4339,
-2256,
-2319,
-4021,
-1277,
-6255,
-1629,
-2446,
1036,
-2927,
-1991,
-3181,
1400,
-494,
606,
-2365,
2893,
-3405,
-1095,
-2954,
-1577,
2299,
-401,
-1798,
-387,
2632,
-2195,
2435,
-1022,
419,
703,
-55,
744,
3792,
-237,
58,
2262,
755,
-269,
-1730,
2752,
2431,
260,
1736,
-4,
2227,
-2351,
-4237,
548,
-3147,
1381,
-4980,
-4906,
-3218,
1135,
1301,
1222,
371,
-3843,
-2406,
-624,
609,
247,
-2627,
1564,
-2114,
-567,
1278,
1071,
-157,
-1630,
4596,
-2664,
-2172,
-2016,
-684,
-565,
-1437,
-1905,
1555,
3797,
280,
-3298,
-5392,
56,
-1296,
5334,
1045,
1156,
4597,
1174,
1608,
-1905,
4128,
-1515,
-4058,
-192,
1667,
-1047,
-4982,
-1998,
-1222,
-1949,
-826,
-3808,
-6451,
7354,
-1305,
-2607,
-2181,
-496,
-1327,
-2379,
2876,
-2708,
-645,
4782,
764,
318,
-1551,
-2127,
1108,
-1185,
-5438,
-3895,
-3143,
-3093,
3850,
112,
2387,
1685,
7831,
-1251,
880,
-1808,
-187,
-1580,
-2620,
-1166,
-436,
2542,
-2957,
-1901,
3318,
-3859,
-3860,
1077,
-10,
1588,
94,
3131,
-1974,
-2770,
-644,
1593,
190,
-2572,
1437,
1572,
-3012,
-533,
-1269,
455,
-2724,
1073,
-1454,
123,
2548,
-2898,
-1821,
669,
-638,
2566,
-2772,
-2265,
2737,
4413,
-1808,
-1074,
-1280,
-1375,
2859,
-410,
-339,
1306,
-865,
-144,
-5595,
-2145,
-1239,
-3524,
-1310,
-5930,
-898,
-3131,
-1419,
3371,
-213,
-510,
1883,
-329,
3107,
-558,
-706,
5834,
560,
-1855,
-1000,
-3409,
155,
1246,
-151,
104,
-1918,
-151,
-3600,
1157,
-1932,
870,
-102,
-430,
-3238,
475,
-3490,
1297,
-2149,
-1224,
-3576,
-2628,
483,
1022,
-2737,
-211,
1835,
-3619,
990,
-5156,
-5766,
5485,
747,
-2027,
-1202,
2599,
-2127,
4660,
7679,
-3362,
2088,
245,
1353,
-954,
-225,
426,
-266,
2737,
636,
2063,
501,
73,
-1400,
4371,
1448,
-112,
1281,
-2296,
1195,
-728,
-4502,
3557,
-981,
7240,
1910,
673,
-2431,
-1895,
3851,
-6010,
-1924,
-1949,
1862,
2792,
714,
462,
2411,
476,
-1098,
-1853,
1506,
2231,
-4136,
2062,
-2659,
697,
-2490,
-1062,
-847,
3977,
-1885,
-6289,
-881,
3627,
-1850,
-1398,
-543,
2369,
635,
-2918,
-2883,
488,
2128,
-1935,
1468,
-293,
2019,
688,
-5465,
-230,
-4389,
2460,
6768,
-1517,
-262,
446,
685,
2418,
4707,
87,
-632,
-2324,
-597,
-1174,
-524,
4324,
-2595,
377,
4591,
-344,
-2500,
28,
1234,
2718,
1738,
-734,
2284,
3191,
3123,
1873,
-1100,
-2536,
-526,
-1674,
667,
2037,
-1423,
2489,
-955,
-627,
529,
-474,
-2448,
-1812,
-910,
5232,
-5061,
2671,
1598,
221,
1738,
-250,
-1058,
-2683,
-3751,
4203,
1357,
-1216,
2366,
-2884,
-1335,
-3339,
1080,
503,
805,
-948,
1322,
-3195,
36,
-1238,
4252,
1095,
-6271,
-615,
1220,
-1329,
1279,
-1895,
2808,
1893,
-1311,
5449,
753,
-1680,
-622,
152,
3775,
2071,
-777,
585,
-4454,
-676,
5316,
1697,
-2935,
2229,
2875,
1891,
-4106,
1581,
1896,
4907,
-2446,
1154,
-580,
2150,
-2902,
-349,
3822,
-988,
1695,
-924,
6283,
-1895,
2003,
-1132,
108,
2581,
-1424,
-1262,
-2849,
2643,
2081,
-1063,
1349,
101,
-37,
-2726,
3074,
488,
2095,
2617,
-1819,
-314,
-685,
7086,
-1373,
-2016,
826,
1852,
-1585,
-1599,
840,
-839,
3718,
-3838,
-59,
-1201,
5305,
-1408,
-1420,
528,
2880,
-1064,
1342,
1320,
-3307,
410,
2746,
267,
2375,
-1442,
-5196,
558,
-1707,
5828,
-2185,
-2120,
-2976,
2887,
153,
-1647,
-1333,
-2239,
221,
-5937,
505,
-951,
1875,
4899,
-457,
-3596,
255,
-1626,
-1682,
-3504,
-3047,
2838,
-1775,
1498,
2055,
-414,
3798,
-621,
-1539,
318,
-1590,
4439,
-5047,
1894,
774,
3018,
-3790,
-2807,
1680,
256,
2462,
7299,
-3972,
3103,
-2896,
-803,
209,
-513,
-2941,
318,
316,
637,
328,
100,
-1408,
3811,
-383,
-1383,
-1196,
1386,
827,
2197,
1757,
-2097,
-3472,
1946,
-2597,
895,
-689,
2989,
-155,
2947,
7675,
442,
-935,
-862,
-3081,
-2512,
-323,
-86,
-7569,
-1976,
-321,
1859,
646,
-1121,
-1724,
-1708,
-257,
2428,
-4269,
1499,
-3028,
171,
-1966,
86,
190,
-611,
7241,
-231,
2789,
1083,
2180,
804,
2058,
411,
-815,
-607,
811,
458,
-2932,
-1252,
-2394,
802,
-1610,
-1733,
-2779,
-3031,
2144,
-4216,
-1178,
2155,
-2345,
-3666,
-40,
2265,
-4244,
-93,
257,
461,
59,
-1493,
730,
6389,
5070,
-4601,
-2427,
218,
350,
1461,
-1512,
-2899,
3911,
6965,
-2842,
-1649,
-1515,
-387,
1102,
-101,
1058,
1073,
-3815,
-2414,
422,
-681,
-1991,
305,
-1224,
1570,
-1097,
-1007,
-1793,
-2024,
-4728,
1168,
225,
3960,
376,
-2102,
-1269,
1037,
-1314,
-544,
-895,
4656,
4409,
-619,
1953,
-3905,
4609,
-1619,
-84,
758,
875,
5554,
890,
-1316,
-2483,
1298,
1567,
-2435,
-2449,
-2281,
-143,
-3228,
-591,
-3324,
-292,
-961,
959,
845,
-1276,
-164,
-1617,
-1348,
3562,
77,
2136,
-2506,
-1683,
2808,
9051,
-373,
-1116,
-9,
3926,
4839,
4139,
-5399,
-1311,
-1032,
930,
3964,
1658,
-178,
1098,
20,
-614,
-1388,
-1443,
1441,
-1086,
393,
2443,
137,
6105,
-1376,
-2021,
-4024,
2088,
4967,
-24,
3149,
-1076,
2087,
-938,
1155,
315,
2967,
73,
2650,
-2176,
136,
1764,
-478,
-1717,
-1843,
-1280,
-1322,
-2579,
-2332,
686,
-3199,
2564,
-4071,
-275,
175,
-2343,
-973,
-690,
-22,
886,
3266,
955,
-404,
-1637,
-653,
22,
-1230,
955,
4828,
487,
-2951,
-5980,
2776,
-1268,
433,
-1867,
-3067,
3436,
-1503,
-841,
-1870,
860,
1633,
455,
2479,
-988,
489,
-2321,
-2255,
2433,
-1086,
1289,
-1583,
-4107,
-835,
-4133,
130,
-1160,
-1887,
4917,
4225,
7563,
-3638,
-695,
-972,
398,
3482,
-1320,
-1414,
3286,
5187,
-1993,
-512,
-1978,
636,
-840,
30,
-4048,
7933,
-834,
2061,
-554,
-2083,
-7038,
-2331,
1535,
3042,
-1156
};

#endif