#ifndef __MMCBLOCK1_MMLAYER2_BRANCH11_CONV_0_WEIGHT_H__
#define __MMCBLOCK1_MMLAYER2_BRANCH11_CONV_0_WEIGHT_H__

// MMCBlock1_mmLayer2_branch11_conv_0_weight
// (1, 1, 56, 12)
const int MMCBlock1_mmLayer2_branch11_conv_0_weight[] = {
166,
1417,
-4245,
265,
-20,
531,
394,
2334,
-465,
103,
161,
-541,
-37,
-392,
273,
357,
-1130,
1143,
579,
916,
328,
1385,
241,
-1189,
-764,
586,
-1042,
631,
34,
580,
-173,
1420,
-9371,
-687,
709,
1255,
-600,
-437,
-300,
308,
135,
-100,
-169,
-898,
2086,
-75,
246,
1174,
928,
-221,
-1351,
-293,
160,
924,
-118,
1206,
-7948,
11,
135,
861,
700,
-627,
290,
256,
678,
260,
-2442,
244,
292,
-413,
1819,
823,
121,
-813,
4326,
53,
78,
-276,
-37,
-2120,
-530,
291,
-437,
-346,
-7,
-220,
-258,
204,
172,
-325,
95,
329,
-1737,
-275,
287,
88,
1340,
1440,
982,
-2732,
1324,
449,
-1711,
-621,
-2468,
-46,
476,
-1373,
60,
-76,
-838,
79,
403,
591,
-88,
-329,
-6646,
-13,
-262,
788,
-418,
-270,
435,
1266,
-32,
887,
487,
-275,
-8578,
704,
961,
-70,
-627,
-448,
244,
566,
-178,
-577,
-513,
-685,
114,
-123,
-251,
1036,
1271,
-494,
193,
-65,
-1428,
1152,
2217,
366,
3203,
491,
-2849,
-1426,
93,
59,
45,
172,
-366,
304,
245,
905,
4709,
637,
580,
-292,
17,
46,
61,
-8,
5,
259,
18,
-33,
124,
37,
-33,
-62,
170,
-350,
-426,
-27,
-249,
-482,
302,
181,
-197,
-200,
435,
-78,
-196,
430,
-358,
-22,
-546,
5889,
426,
-328,
2411,
634,
-641,
-958,
81,
357,
-334,
128,
-236,
34,
367,
-208,
-1477,
-287,
57,
239,
-99,
480,
128,
798,
-934,
1428,
-228,
1268,
1396,
-1786,
627,
-1189,
240,
415,
565,
-478,
-366,
4509,
892,
-1086,
3524,
858,
-315,
-1410,
-560,
1328,
-335,
-1740,
-311,
1409,
1262,
-1731,
-1324,
651,
-2325,
-746,
-283,
-1377,
-341,
988,
121,
399,
-841,
2894,
901,
-748,
165,
69,
-633,
-145,
-1093,
-976,
-838,
1099,
452,
271,
-7946,
236,
926,
-55,
-227,
948,
-1115,
-935,
269,
3894,
610,
-605,
4524,
873,
668,
-1883,
812,
2,
345,
145,
178,
702,
-1329,
96,
-814,
-76,
936,
-139,
-212,
-204,
-1009,
1397,
-536,
1840,
334,
-2,
-8440,
286,
423,
21,
87,
73,
191,
-31,
-117,
1265,
159,
-154,
1178,
139,
-256,
-270,
784,
-395,
619,
205,
-138,
21,
49,
172,
-10848,
-233,
-890,
-228,
-216,
389,
216,
21,
278,
614,
-163,
104,
-4411,
-254,
-225,
435,
22,
43,
169,
89,
-67,
400,
79,
6,
597,
0,
-73,
-74,
-152,
-544,
-139,
-12,
-113,
-65,
97,
628,
-681,
-135,
-407,
-150,
-264,
-80,
-2189,
539,
-204,
114,
-271,
-129,
-9499,
-139,
120,
1038,
-1058,
370,
61,
231,
347,
-322,
809,
518,
1815,
959,
-183,
1180,
-947,
-857,
-52,
2320,
-375,
161,
-374,
-147,
-2670,
-286,
-658,
-798,
-390,
982,
-719,
-1210,
895,
578,
-637,
-141,
-5405,
-1017,
-280,
-1392,
92,
-281,
634,
-434,
304,
1329,
-735,
2531,
1773,
-1038,
-535,
-447,
-761,
1051,
441,
-912,
53,
-493,
-712,
77,
1874,
-626,
411,
-585,
597,
320,
-616,
-847,
825,
-101,
642,
1178,
-1969,
2985,
-1294,
429,
-388,
864,
1026,
-1179,
625,
-5,
-396,
-1165,
2006,
8,
355,
230,
-549,
-7,
-30,
-459,
84,
722,
-185,
-434,
933,
-1048,
705,
48,
-819,
-741,
906,
-268,
-797,
-812,
-843,
1182,
-2328,
940,
1211,
-1093,
-1009,
-324,
-690,
-1272,
332,
-79,
1699,
339,
-844,
292,
-468,
-766,
-577,
1986,
909,
-1581,
-565,
1367,
727,
-1253,
1568,
-315,
-1569,
673,
-1016,
-437,
-86,
-613,
-1372,
730,
-439,
481,
-6410,
-283,
-141,
-810,
118,
-1004,
-83,
-18,
190,
94,
-173,
109,
1846,
-31,
-371,
-2,
-1794,
343,
-290,
-494,
-268,
-544,
-433,
-516,
661,
-1024,
-617,
31,
-1969,
-190,
-281,
377,
-1727,
-294,
-346,
120,
-6435,
108,
249,
-1818,
-548,
-164,
-342,
-97,
-1778,
8,
-200,
194,
-2522,
-871,
1365,
-1212,
-760,
28,
-304,
-86,
-370,
2455,
-233,
458,
-2865,
322,
-294,
-575,
-83,
1193,
470,
164,
-63,
-987,
-360,
400,
-1253,
-246,
-451,
157,
-204,
68,
566,
-387,
-44,
-491,
-91,
-147,
-3844,
89,
-414,
-940,
5827,
-178,
36,
-796,
-943,
981,
141,
637,
4658,
1494,
-54,
-486,
-923,
60,
-362,
63,
-40,
-1394,
-558,
-394,
951,
-210,
-700,
-348,
110,
600,
79,
566,
878,
463,
131,
1085,
-974,
395,
-1103,
-712,
-429,
-148,
253,
79,
2398,
595,
576,
375,
772,
278,
231,
-381,
640,
-328,
-295,
-510,
-416,
885,
-375,
643,
-363,
1859,
-55,
-257
};

#endif