#ifndef __MMCBLOCK3_MMLAYER2_BRANCH33B_CONV_0_WEIGHT_H__
#define __MMCBLOCK3_MMLAYER2_BRANCH33B_CONV_0_WEIGHT_H__

// MMCBlock3_mmLayer2_branch33b_conv_0_weight
// (3, 3, 12, 6)
const int MMCBlock3_mmLayer2_branch33b_conv_0_weight[] = {
-1471,
2718,
-563,
-292,
0,
-797,
631,
-67,
762,
-308,
0,
47,
188,
-487,
251,
-1068,
0,
34,
-22,
-115,
158,
-433,
0,
485,
2084,
-827,
-1316,
-298,
0,
-635,
1715,
89,
-2873,
81,
0,
-310,
-309,
-1442,
-219,
-136,
0,
716,
-471,
29,
71,
-8,
0,
220,
-671,
-529,
-264,
198,
0,
-295,
-782,
2799,
-1114,
502,
0,
460,
4290,
-1386,
-1384,
1350,
0,
439,
932,
409,
-408,
-223,
0,
771,
-846,
-730,
-821,
84,
0,
-349,
-359,
23,
736,
308,
0,
491,
1792,
-632,
-849,
-392,
0,
247,
-406,
-355,
-144,
-114,
0,
486,
-583,
546,
435,
-248,
0,
244,
280,
288,
-977,
-303,
0,
216,
372,
-434,
-292,
-445,
0,
1203,
-617,
292,
1083,
223,
0,
-690,
-68,
-394,
-336,
301,
0,
-440,
-1270,
2695,
-1380,
-592,
0,
1045,
1301,
68,
-680,
-94,
0,
-146,
-165,
1845,
490,
-936,
0,
205,
-485,
-1415,
-1030,
1148,
0,
566,
-509,
-524,
-192,
195,
0,
-224,
990,
-988,
-197,
-166,
0,
-371,
26,
-306,
280,
-259,
0,
166,
-250,
1425,
615,
-680,
0,
296,
-652,
657,
-2339,
201,
0,
45,
1455,
-1661,
-29,
270,
0,
396,
-1539,
-709,
932,
-370,
0,
-219,
1672,
-992,
377,
211,
0,
-349,
-589,
2474,
-413,
190,
0,
27,
-163,
2493,
-540,
-805,
0,
-401,
-105,
712,
-101,
-466,
0,
-11,
-1135,
804,
2129,
-150,
0,
-904,
436,
238,
205,
-277,
0,
-1046,
-93,
-257,
-615,
359,
0,
-529,
-286,
306,
-695,
-104,
0,
-287,
1531,
-458,
-1366,
-119,
0,
-321,
1562,
252,
-1959,
-12,
0,
-306,
-380,
-430,
-1596,
146,
0,
45,
-121,
122,
-627,
-243,
0,
-462,
-437,
188,
14,
-490,
0,
20,
-723,
81,
-150,
-941,
0,
-126,
3143,
-224,
-1234,
697,
0,
430,
1109,
-144,
-115,
1296,
0,
-116,
-239,
-469,
-278,
-195,
0,
543,
-571,
234,
696,
-640,
0,
-641,
408,
248,
-590,
-61,
0,
190,
-1300,
159,
-1022,
-85,
0,
-153,
-59,
63,
-312,
16,
0,
393,
-253,
-1185,
-308,
-871,
0,
-17,
-98,
711,
-464,
-634,
0,
-149,
343,
-360,
423,
893,
0,
-847,
228,
428,
-631,
-810,
0,
-520,
219,
-1289,
-357,
-1548,
0,
83,
300,
-544,
415,
-559,
0,
-204,
646,
-204,
-660,
463,
0,
237,
-1106,
-848,
-1830,
695,
0,
1196,
-958,
-316,
-281,
550,
0,
-1026,
184,
-514,
-853,
192,
0,
-1019,
-579,
27,
-652,
-480,
0,
-425,
291,
-1117,
1116,
458,
0,
-248,
-1843,
51,
-1512,
330,
0,
96,
1150,
-635,
-598,
-430,
0,
-631,
376,
-178,
-114,
-17,
0,
-1123,
1537,
-270,
327,
-276,
0,
44,
-355,
759,
-99,
-519,
0,
-413,
-589,
1463,
1694,
-468,
0,
-1251,
-541,
19,
-379,
1304,
0,
-166,
-195,
-392,
970,
1112,
0,
-583,
896,
-509,
175,
-972,
0,
419,
-386,
-729,
-1047,
-965,
0,
138,
-80,
-583,
-1236,
-990,
0,
549,
276,
-344,
-282,
428,
0,
-540,
-379,
1270,
896,
-270,
0,
1239,
-814,
-473,
-1305,
456,
0,
-1135,
-71,
-476,
-381,
364,
0,
-1440,
-883,
10,
-269,
-839,
0,
804,
-457,
-815,
627,
-413,
0,
-1427,
749,
5,
-355,
-470,
0,
994,
-757,
-76,
-227,
2780,
0,
-1524,
-688,
4,
454,
836,
0,
-42,
13,
-158,
1463,
-226,
0,
1923,
970,
-110,
-533,
-1316,
0,
822,
-772,
-1137,
-1509,
-863,
0,
650,
240,
384,
-987,
1028,
0,
-135,
-1180,
-241,
2746,
-735,
0,
1435,
-45,
-285,
-1155,
-143,
0,
-1599,
551,
-55,
-285,
889,
0,
-1745,
-1077,
314,
-472,
-885,
0,
946,
1318,
-789,
1243,
-86,
0,
-848,
229,
127,
478,
-99,
0,
-23,
774,
-275,
-1193,
2194,
0,
-551,
-921,
-412,
-1364,
-255,
0,
1228,
359,
39,
-505,
-177,
0,
1032,
489,
-1048,
-188,
-1084,
0,
348,
608,
-30,
-394,
-574,
0,
212,
353,
215,
-840,
1571,
0,
-477,
-2740,
886,
979,
276,
0,
1037,
1155,
-435,
-1271,
134,
0,
-1498,
823,
170,
-345,
94,
0,
-1443,
-167,
-27,
-430,
-851,
0,
1198,
893,
-238,
68,
184,
0,
-1577,
-764,
170,
918,
48,
0,
-1559,
-717,
-614,
-189,
2175,
0,
-1238
};

#endif