#ifndef __MMCBLOCK3_MMLAYER5_BRANCH33A_CONV_0_WEIGHT_H__
#define __MMCBLOCK3_MMLAYER5_BRANCH33A_CONV_0_WEIGHT_H__

// MMCBlock3_mmLayer5_branch33a_conv_0_weight
// (3, 3, 12, 12)
const int MMCBlock3_mmLayer5_branch33a_conv_0_weight[] = {
-257,
448,
-484,
-557,
471,
1057,
301,
1267,
-1387,
-1114,
100,
-493,
-341,
-30,
240,
1079,
245,
604,
-1172,
-301,
-470,
-529,
588,
-423,
-83,
-1516,
-9,
-185,
736,
10,
128,
1139,
526,
392,
620,
-776,
-181,
-72,
378,
-640,
406,
696,
-335,
-769,
231,
504,
126,
255,
-89,
257,
-15,
1336,
122,
284,
-1002,
1135,
254,
-329,
138,
-398,
195,
-47,
453,
-607,
205,
-133,
-820,
-603,
-690,
-275,
-37,
-421,
-471,
629,
152,
3,
-445,
658,
974,
943,
-116,
-722,
-457,
-452,
1480,
-1434,
-1099,
-503,
558,
1074,
-945,
-1438,
-564,
4,
-512,
72,
212,
-861,
247,
-2273,
-278,
-113,
2365,
-511,
727,
233,
998,
-287,
-1604,
-245,
479,
-195,
97,
-365,
-216,
1898,
-782,
364,
-170,
-849,
883,
-512,
-852,
-759,
1082,
-180,
1452,
-112,
158,
309,
-457,
-157,
-281,
-773,
-43,
-259,
400,
-553,
-520,
808,
1766,
798,
1013,
-1664,
-53,
490,
-1222,
354,
163,
2058,
12,
329,
-1165,
-974,
297,
-118,
-629,
179,
1138,
86,
610,
843,
-191,
618,
-548,
34,
297,
-376,
-83,
-619,
295,
184,
-845,
32,
-2,
1094,
127,
-410,
-216,
-231,
12,
-28,
183,
-558,
97,
235,
-1246,
-646,
385,
-158,
63,
716,
-54,
301,
-603,
9,
-673,
572,
256,
445,
-41,
-329,
1025,
-232,
727,
-479,
113,
-627,
-145,
-302,
291,
-607,
-1027,
-539,
-154,
-470,
-190,
-796,
-431,
-485,
-698,
1287,
332,
-184,
-504,
-166,
-260,
127,
-672,
-1349,
-587,
-907,
923,
761,
-320,
-268,
284,
-321,
-934,
-598,
538,
-266,
-98,
-183,
-285,
-40,
-53,
-912,
516,
-24,
143,
-339,
-1044,
1178,
-640,
-516,
-1287,
738,
-844,
-188,
222,
-342,
252,
-653,
396,
-72,
-208,
417,
-389,
14,
518,
-966,
632,
170,
-642,
54,
-143,
624,
866,
160,
557,
-776,
-528,
224,
2554,
491,
-21,
-1275,
43,
587,
-679,
1590,
283,
1009,
-129,
1146,
-1352,
-994,
-385,
-325,
-397,
51,
478,
-2052,
230,
677,
994,
37,
-591,
-544,
-331,
-137,
180,
883,
46,
361,
-1548,
-277,
102,
1163,
209,
153,
-518,
-625,
-170,
280,
571,
-189,
-439,
319,
-901,
-515,
427,
419,
-191,
481,
632,
-305,
-39,
-940,
-133,
614,
1490,
-301,
618,
-367,
1077,
-254,
-38,
19,
75,
-982,
-297,
-334,
-41,
-263,
-778,
-178,
197,
-175,
-318,
-476,
425,
862,
554,
636,
-2,
646,
-547,
-365,
200,
-452,
-1448,
-281,
274,
-611,
106,
-437,
569,
2065,
-492,
-106,
-1117,
-1271,
1240,
1510,
-799,
951,
-694,
-297,
220,
97,
20,
-110,
-1046,
-225,
1228,
574,
-1107,
184,
-1314,
638,
-941,
-1257,
-739,
10,
238,
358,
74,
-284,
90,
2310,
-1111,
0,
-2137,
-135,
441,
454,
-897,
-195,
-334,
-87,
-44,
-1554,
-807,
-647,
-364,
451,
2094,
438,
-1425,
-2014,
-494,
-242,
132,
-85,
25,
337,
-389,
889,
324,
-301,
326,
-34,
-55,
-172,
-37,
3170,
397,
-201,
-2004,
437,
-98,
-529,
-90,
-12,
48,
-1638,
5,
-2072,
961,
14,
190,
896,
-899,
601,
930,
-216,
-143,
-82,
-127,
-1702,
195,
-122,
3827,
-5,
-119,
661,
144,
415,
-439,
279,
37,
514,
-383,
-165,
-370,
464,
466,
233,
20,
-703,
-340,
-575,
597,
-219,
-1,
-397,
-1069,
-95,
487,
880,
-215,
-359,
487,
887,
-73,
-108,
-897,
-170,
-784,
895,
173,
-245,
-33,
-39,
279,
-231,
-649,
162,
511,
837,
-148,
3,
-219,
-770,
-711,
1269,
20,
-1087,
759,
-306,
518,
-277,
485,
356,
20,
-88,
960,
100,
-787,
-718,
356,
-955,
-276,
203,
1198,
-45,
-615,
1051,
-111,
-1490,
512,
-999,
-700,
637,
1161,
105,
-502,
-214,
-894,
-1125,
192,
811,
158,
-1867,
94,
-337,
1269,
-401,
-1059,
241,
518,
397,
1183,
-490,
236,
-70,
-413,
-318,
-125,
369,
87,
-82,
821,
-24,
126,
119,
72,
305,
-149,
365,
-92,
516,
1207,
531,
-430,
-263,
-413,
77,
-37,
-830,
607,
-541,
-892,
150,
-530,
-91,
-1087,
-27,
-297,
168,
144,
536,
-129,
235,
237,
-259,
-459,
-96,
-418,
91,
-180,
299,
-450,
601,
-339,
218,
1017,
-317,
220,
38,
403,
-211,
61,
-292,
-56,
-546,
-169,
-97,
-762,
-187,
-276,
4,
495,
613,
-207,
146,
-334,
233,
-630,
-345,
-100,
-237,
55,
-149,
-83,
176,
-194,
434,
-479,
330,
-35,
42,
-193,
196,
-100,
-601,
-273,
107,
-752,
-271,
-23,
-499,
64,
-243,
-101,
291,
-188,
154,
-303,
-758,
-102,
596,
-49,
-733,
134,
-761,
-346,
127,
-530,
-952,
-102,
-23,
742,
-505,
72,
-518,
-11,
677,
-376,
268,
4,
-1,
-135,
-734,
-695,
527,
-89,
525,
749,
84,
408,
153,
-444,
-196,
-373,
-220,
114,
623,
-259,
-400,
-266,
977,
-167,
177,
-192,
851,
180,
-110,
-2,
152,
135,
639,
61,
-2071,
-359,
150,
2564,
466,
-259,
-799,
28,
104,
350,
1318,
137,
471,
-1268,
-180,
-824,
933,
-800,
290,
-799,
57,
-103,
-36,
-244,
4058,
-190,
-198,
-1324,
173,
-193,
934,
-305,
562,
-262,
170,
-38,
-608,
552,
-56,
1681,
656,
219,
-364,
-93,
808,
-534,
-24,
486,
-1298,
-350,
-64,
119,
128,
253,
952,
114,
-201,
466,
-820,
-233,
718,
1178,
-241,
1023,
788,
-93,
-316,
49,
-180,
-1275,
-127,
364,
789,
-349,
259,
-506,
537,
-281,
1382,
-242,
-1324,
918,
911,
-969,
-879,
-966,
429,
198,
-94,
-552,
-1076,
-521,
642,
209,
494,
-913,
341,
-395,
766,
-663,
-57,
171,
-213,
348,
1172,
-18,
742,
744,
-8,
-1008,
28,
-355,
405,
208,
310,
-770,
-193,
478,
1229,
-93,
-762,
-1654,
-390,
-287,
-137,
284,
478,
-1424,
-13,
-440,
-1164,
810,
-322,
625,
-844,
-788,
683,
39,
-74,
158,
387,
-397,
-92,
414,
3000,
310,
-245,
-1327,
182,
-46,
28,
-194,
-82,
177,
-952,
-574,
-1231,
-491,
-7,
1056,
-287,
-463,
543,
557,
105,
-399,
-229,
-261,
-1027,
-57,
-22,
4569,
133,
-459,
483,
331,
355,
1017,
-235,
-205,
-1018,
-395,
-285,
-398,
-330,
276,
45,
-445,
-600,
-181,
70,
456,
-105,
-119,
311,
-363,
-304,
527,
1486,
40,
-76,
936,
38,
439,
-16,
-323,
-1391,
-740,
16,
1021,
-162,
391,
370,
-628,
354,
-616,
-1031,
-667,
-244,
-50,
1198,
955,
-669,
589,
746,
-20,
-951,
611,
632,
1483,
-180,
-350,
-26,
-357,
298,
288,
-750,
899,
-420,
717,
-1190,
614,
658,
-112,
-383,
-668,
513,
-993,
-1168,
-531,
-638,
-466,
1029,
-472,
271,
-993,
504,
-203,
335,
839,
209,
940,
-1962,
-386,
-45,
921,
704,
1334,
399,
-1507,
73,
221,
624,
891,
-247,
1037,
-191,
-62,
-1194,
-739,
643,
115,
-250,
508,
354,
653,
-625,
-4,
1414,
-509,
-411,
1803,
83,
332,
-660,
304,
-219,
-183,
-1025,
-436,
-1632,
-900,
969,
-1176,
-1081,
-620,
1172,
251,
-113,
454,
204,
-395,
-156,
-205,
10,
-88,
-454,
-653,
273,
181,
-403,
18,
-886,
107,
-532,
709,
-398,
236,
-283,
264,
-328,
-502,
42,
-504,
98,
-60,
-289,
-223,
589,
-510,
-483,
1072,
1864,
179,
-242,
908,
-64,
1484,
-232,
-523,
-1350,
-212,
104,
1491,
-40,
-57,
937,
362,
1950,
378,
-423,
-1365,
-251,
-452,
-161,
-243,
-181,
753,
-307,
-308,
-350,
-339,
-17,
961,
-15,
850,
1188,
-272,
-13,
-554,
281,
536,
-1633,
340,
-1293,
1445,
-84,
525,
151,
-181,
259,
-1011,
-9,
-298,
689,
-429,
-779,
-564,
241,
-515,
910,
-183,
8,
167,
-96,
-748,
-31,
-846,
884,
236,
1484,
1408,
1301,
-1196,
-279,
84,
527,
-276,
488,
1159,
-775,
-695,
-721,
-1238,
784,
-310,
-315,
-367,
300,
-267,
389,
178,
-1140,
-357,
-655,
2603,
277,
590,
-234,
139,
73,
-127,
-47,
-627,
-81,
-619,
-5,
-1439,
-237,
-566,
805,
-266,
-123,
-363,
-302,
-204,
2921,
-416,
91,
-1467,
-212,
-496,
524,
-594,
372,
-101,
-322,
-363,
420,
-410,
-268,
-1264,
669,
472,
-372,
-107,
-44,
-406,
-34,
246,
48,
98,
360,
-234,
-184,
643,
1402,
154,
75,
979,
-371,
492,
-421,
-9,
-1170,
-120,
59,
1182,
-219,
-257,
248,
1337,
605,
669,
350,
-896,
494,
-1108,
-385,
-105,
325,
1014,
-1636,
-382,
-23,
-218,
-760,
-787,
277,
363,
420,
6,
17,
-680,
161,
-573,
-679,
-744,
-493,
94,
117,
-270,
481,
785,
-727,
-503,
638,
21,
1771,
1043,
-1159,
-785,
-368,
40,
111,
-212,
818,
-869,
-401,
717,
1318,
-741,
1419,
-1436,
1012,
-195,
304,
-1228,
-23,
-722,
480
};

#endif