#ifndef __MMCBLOCK3_MMLAYER7_BRANCH11_CONV_0_WEIGHT_H__
#define __MMCBLOCK3_MMLAYER7_BRANCH11_CONV_0_WEIGHT_H__

// MMCBlock3_mmLayer7_branch11_conv_0_weight
// (1, 1, 344, 12)
const int MMCBlock3_mmLayer7_branch11_conv_0_weight[] = {
-253,
1246,
-1177,
-582,
1022,
-624,
-633,
246,
734,
-528,
1980,
-489,
-201,
43,
415,
-427,
-1087,
431,
241,
-474,
709,
-599,
-417,
984,
-594,
-1180,
-850,
422,
1252,
-545,
-966,
-404,
-1091,
891,
-1020,
1521,
-1,
179,
434,
137,
-547,
339,
145,
-853,
-693,
-643,
-373,
-156,
980,
412,
-1266,
405,
-344,
403,
-1029,
1551,
-1571,
1303,
-862,
-205,
-1416,
102,
893,
-891,
-1768,
-70,
1469,
-248,
2977,
175,
-340,
-521,
-191,
12,
1137,
1374,
-16,
646,
168,
-962,
770,
-58,
274,
823,
-630,
787,
-814,
-1252,
-152,
-900,
558,
-401,
568,
1081,
-771,
2374,
715,
-439,
899,
59,
-1632,
-2148,
1391,
1010,
1105,
23,
1110,
495,
-353,
500,
-20,
1588,
1362,
745,
406,
-1018,
411,
-530,
-60,
748,
164,
-482,
689,
27,
261,
-641,
-2,
-890,
535,
-721,
-615,
1101,
217,
105,
-618,
1115,
-299,
-6,
-431,
28,
290,
-1054,
-930,
2043,
-1105,
203,
-113,
-368,
325,
-135,
-586,
16,
827,
810,
368,
-31,
483,
-390,
403,
1200,
815,
1027,
44,
600,
-1837,
-2432,
2243,
-1679,
161,
-349,
-288,
-255,
2088,
-1005,
-280,
558,
-1061,
-15,
-1376,
1261,
845,
-783,
244,
-1618,
1286,
1275,
90,
377,
-1638,
-340,
-1803,
-47,
-1879,
-117,
801,
-13,
-560,
-1537,
1399,
1384,
1840,
-1153,
305,
561,
-223,
-191,
-481,
110,
282,
1017,
220,
-150,
892,
11,
-355,
-845,
1104,
732,
-1449,
-1279,
310,
-898,
-675,
-152,
-517,
22,
-1204,
-1753,
-607,
-224,
1421,
-803,
466,
1065,
-872,
-103,
-184,
721,
-1354,
-526,
332,
-86,
977,
-1377,
-1386,
-910,
-309,
-486,
669,
24,
31,
-1077,
-173,
-288,
121,
1570,
218,
358,
-1100,
2947,
-1385,
-344,
128,
-545,
279,
356,
-415,
-1586,
-1423,
-1736,
505,
287,
426,
-429,
1846,
111,
361,
2222,
1412,
616,
-434,
-1409,
803,
383,
741,
716,
361,
-616,
322,
241,
624,
-715,
42,
-851,
-390,
1431,
-222,
-258,
792,
-393,
470,
655,
552,
-148,
-993,
1190,
-361,
-676,
1008,
-205,
-284,
-429,
1421,
-1003,
32,
1275,
372,
-171,
77,
335,
-1080,
-1267,
-778,
12,
1090,
-607,
-565,
-1100,
-253,
-1554,
-1117,
1889,
-955,
-1120,
1996,
-1119,
499,
-311,
-951,
590,
1589,
-1803,
18,
690,
-1425,
1154,
-480,
1806,
-738,
1265,
-128,
-824,
-1345,
-896,
963,
116,
352,
-1067,
1545,
65,
1517,
-1069,
-437,
-463,
102,
2543,
-1653,
-1262,
-2,
-261,
-631,
-1397,
-60,
81,
721,
-460,
-564,
-343,
-488,
-1060,
503,
-322,
1798,
-615,
-193,
-338,
473,
145,
1002,
813,
330,
-473,
-1279,
-80,
765,
-2327,
-846,
-212,
1727,
-492,
-828,
1790,
-458,
1033,
261,
757,
-753,
-760,
-460,
655,
-875,
-1329,
908,
482,
-219,
-357,
-1172,
851,
100,
-642,
408,
177,
-874,
337,
449,
-638,
25,
-192,
-599,
-332,
524,
439,
-732,
1066,
-1064,
818,
-69,
-483,
-465,
-906,
2037,
-384,
-382,
618,
543,
-1057,
-659,
196,
1292,
-526,
-1143,
1529,
-1877,
954,
-1024,
976,
245,
-687,
-492,
-100,
-922,
-952,
-303,
-1220,
-390,
1098,
547,
999,
1226,
472,
-908,
-876,
-334,
-1423,
808,
-404,
-1403,
-1073,
772,
-258,
-676,
570,
1404,
2746,
719,
-777,
-806,
-858,
475,
-697,
1203,
1681,
-309,
86,
247,
62,
578,
268,
-291,
482,
994,
-970,
41,
-59,
-201,
-1105,
-60,
669,
450,
-603,
-378,
1224,
-286,
-136,
895,
725,
-753,
558,
531,
-710,
-1217,
1967,
-811,
1224,
215,
-659,
643,
-273,
-695,
-249,
696,
-1573,
-619,
493,
-93,
-257,
1129,
402,
257,
1505,
-120,
263,
216,
-1213,
-287,
-1791,
824,
-678,
1652,
135,
132,
76,
543,
-609,
-1145,
-133,
844,
847,
572,
-51,
453,
-838,
1218,
276,
667,
683,
-308,
1394,
6,
1019,
-616,
-960,
-309,
792,
-228,
885,
-62,
86,
390,
-1530,
-1058,
-734,
502,
-119,
430,
112,
-387,
-50,
182,
-1460,
375,
-894,
-469,
345,
1289,
1481,
-1257,
1912,
-1117,
-1326,
-1195,
-200,
-1924,
-942,
192,
-784,
308,
-12,
1255,
424,
1809,
-103,
-95,
-325,
524,
-454,
557,
1422,
407,
147,
-133,
-336,
-285,
-481,
-285,
1454,
-255,
108,
-1553,
-255,
185,
-796,
435,
1211,
141,
43,
671,
290,
647,
-897,
68,
766,
-1489,
675,
-1841,
-260,
835,
-1275,
-542,
1243,
584,
-1603,
560,
-1780,
370,
-402,
-537,
126,
1779,
-1273,
4,
-649,
1040,
-810,
456,
946,
687,
-125,
201,
-1658,
-606,
377,
-39,
978,
-1370,
91,
1206,
-817,
-1028,
-347,
346,
199,
319,
1456,
328,
411,
767,
-476,
-418,
-915,
815,
-1278,
512,
-94,
931,
-493,
-472,
80,
420,
-88,
-1175,
3376,
621,
37,
1398,
-105,
295,
871,
971,
216,
201,
196,
334,
-448,
-545,
201,
195,
-502,
1626,
-343,
50,
1191,
46,
-304,
-308,
-449,
303,
-431,
1115,
477,
-433,
-260,
2156,
1120,
1013,
-1218,
-492,
-1268,
322,
-94,
2123,
-1564,
229,
-1699,
-142,
-1134,
1800,
-566,
5,
-953,
-367,
731,
30,
632,
84,
1929,
-753,
-297,
1228,
-337,
-1097,
-1494,
57,
670,
1882,
-890,
504,
-1891,
328,
505,
-631,
-627,
-13,
-1415,
-437,
414,
1097,
-234,
707,
128,
-100,
-1075,
-38,
-230,
167,
-655,
144,
576,
-281,
-640,
-660,
-157,
-105,
-399,
-984,
-1337,
1229,
-442,
407,
714,
-424,
702,
1150,
819,
-135,
-187,
-770,
-129,
-1042,
613,
-452,
425,
-238,
61,
304,
2350,
552,
-137,
-498,
-918,
-84,
478,
1106,
-781,
213,
-563,
-772,
-699,
141,
-233,
1075,
-1027,
-572,
1709,
-98,
1661,
-1093,
-776,
104,
-919,
-728,
967,
-304,
-243,
113,
-90,
-335,
-755,
1069,
1359,
-482,
-6,
-260,
-447,
444,
171,
-1326,
779,
-7,
507,
62,
390,
-144,
1707,
558,
-1259,
270,
-690,
631,
-244,
338,
867,
-426,
1368,
206,
-699,
-1935,
1386,
514,
-532,
-1182,
372,
533,
-350,
497,
1014,
-815,
-858,
491,
473,
-1081,
-82,
-1071,
366,
-789,
352,
-415,
-546,
2430,
-1616,
-798,
270,
-13,
-1328,
309,
322,
-306,
1340,
-191,
-449,
-74,
-668,
-25,
562,
-610,
-1478,
950,
740,
-45,
60,
-782,
-307,
667,
-1391,
56,
51,
4,
230,
-1049,
-88,
129,
-838,
619,
1669,
-1554,
910,
-156,
1544,
873,
-437,
-250,
-359,
-1466,
1310,
-257,
168,
1303,
-642,
1102,
1004,
-429,
-1003,
-1132,
454,
-636,
1854,
-1504,
1791,
-190,
-631,
-39,
1119,
0,
-803,
358,
988,
-1394,
1052,
-203,
430,
-25,
569,
-1119,
94,
-528,
478,
495,
-107,
-208,
-485,
175,
506,
-639,
305,
103,
2627,
564,
-298,
-317,
-249,
-1734,
-1235,
1873,
-1738,
1088,
-357,
998,
567,
-672,
-487,
626,
997,
-824,
-150,
1042,
-620,
2,
-1079,
-556,
950,
305,
412,
-847,
72,
416,
455,
1967,
353,
-484,
-29,
843,
44,
557,
-868,
-1138,
-2171,
747,
-557,
677,
-282,
-49,
54,
-859,
-118,
952,
-363,
-244,
-410,
-1253,
784,
-349,
357,
-1154,
545,
51,
199,
-1049,
740,
456,
1008,
654,
-659,
-539,
905,
-704,
380,
1118,
-1288,
457,
186,
-748,
138,
364,
-767,
-144,
31,
602,
-333,
-458,
-1212,
-135,
253,
534,
1219,
349,
-235,
-1059,
-31,
-2184,
898,
726,
-616,
-444,
-142,
253,
-1852,
-624,
220,
-938,
-437,
828,
872,
-872,
-503,
-188,
238,
853,
-560,
-1233,
144,
-704,
1312,
-377,
-445,
370,
-624,
-1239,
145,
-793,
-2099,
562,
1364,
-665,
-214,
150,
192,
259,
-1110,
765,
75,
-876,
-739,
654,
110,
256,
190,
-1058,
-523,
-1227,
-317,
201,
866,
1126,
-588,
648,
1026,
-678,
575,
-638,
-671,
1218,
-52,
819,
803,
-165,
-587,
-312,
-44,
-377,
1115,
-1303,
1166,
-116,
-1343,
-11,
-3,
1783,
158,
106,
459,
-1212,
846,
31,
692,
132,
-387,
716,
-108,
190,
1355,
-99,
-1474,
-954,
-444,
533,
-1228,
-431,
0,
295,
-1623,
-1088,
-525,
-543,
764,
-542,
0,
-174,
-1190,
-2,
1032,
-1346,
-894,
874,
-1206,
-77,
260,
-1069,
2130,
-1615,
-214,
970,
2102,
-1449,
770,
568,
406,
-482,
-867,
79,
316,
1626,
-849,
-1084,
-1054,
193,
1281,
2237,
-37,
-283,
-1171,
-1493,
-1009,
-850,
423,
679,
-546,
125,
735,
-408,
378,
244,
-2,
1149,
-437,
-87,
237,
-301,
-137,
586,
-43,
-662,
67,
143,
1158,
232,
-913,
-289,
-21,
230,
-152,
-268,
536,
1883,
1095,
-760,
835,
-1122,
-1233,
177,
389,
419,
210,
-85,
-76,
105,
202,
807,
-64,
506,
-858,
-212,
368,
-60,
568,
-822,
585,
-556,
77,
-130,
-237,
419,
783,
-609,
517,
14,
-1091,
512,
-275,
-134,
-162,
262,
-904,
122,
993,
-1264,
-1078,
471,
391,
-369,
-1556,
-1827,
-544,
1977,
-702,
1642,
-415,
1675,
-16,
-375,
639,
-17,
590,
-224,
793,
-355,
-947,
147,
1355,
-560,
-912,
1539,
1335,
1131,
-437,
919,
-283,
647,
132,
330,
801,
-328,
-111,
-947,
-1404,
64,
1251,
72,
2538,
-123,
-480,
466,
388,
-665,
-103,
-337,
938,
625,
917,
589,
3172,
1455,
-507,
493,
-223,
-134,
-314,
1581,
-846,
-38,
935,
1794,
-1408,
-19,
-607,
-1359,
-612,
-23,
1043,
-688,
612,
710,
-419,
275,
209,
-1492,
375,
310,
-35,
-593,
-498,
-1480,
-552,
807,
657,
-85,
-1144,
2080,
91,
2530,
151,
-632,
702,
-1781,
-1381,
1989,
1149,
-507,
-133,
1462,
-1080,
2063,
-1000,
334,
931,
-531,
508,
-67,
-660,
-828,
538,
-79,
-281,
418,
641,
309,
-723,
204,
-261,
-385,
-553,
-55,
1113,
563,
-289,
225,
-153,
259,
-856,
521,
739,
-1034,
-859,
-989,
-1466,
-1470,
1115,
422,
-945,
1669,
797,
361,
403,
-152,
688,
-924,
1550,
-70,
-872,
-240,
1230,
-51,
-71,
990,
-371,
732,
177,
-588,
-164,
237,
-319,
-445,
-449,
-496,
809,
-70,
-432,
161,
-287,
-479,
-1029,
100,
-558,
-305,
-301,
960,
74,
315,
154,
1671,
-42,
-38,
-316,
797,
-263,
-685,
-1080,
575,
-1039,
-336,
-359,
-31,
-1199,
-652,
479,
569,
-718,
-203,
-410,
598,
333,
-134,
-672,
-563,
1810,
-203,
2728,
-184,
-1458,
305,
409,
488,
-127,
1557,
1412,
299,
-1658,
-614,
-759,
-316,
1514,
172,
-254,
-250,
-668,
-225,
37,
145,
-699,
426,
-2154,
214,
934,
2896,
-1815,
849,
-458,
-1308,
625,
792,
2301,
990,
1215,
-59,
-1006,
269,
-1266,
779,
445,
522,
-239,
429,
-287,
-752,
844,
-590,
618,
763,
374,
-812,
-841,
-493,
-202,
1494,
-255,
193,
161,
361,
210,
988,
291,
-1032,
-202,
489,
168,
-1289,
-647,
-484,
1930,
345,
-530,
163,
1554,
-1210,
974,
413,
-977,
931,
-178,
1171,
-1308,
486,
-550,
-127,
-943,
-460,
1172,
-693,
-515,
-65,
473,
1828,
996,
-205,
-893,
-921,
864,
-869,
1033,
-610,
635,
663,
-273,
820,
806,
571,
-137,
-770,
-551,
793,
-1169,
-721,
-958,
-299,
-750,
472,
-283,
-61,
-307,
529,
-26,
960,
196,
110,
-862,
1332,
443,
397,
-602,
-6,
-1553,
1380,
-1371,
-692,
-1230,
192,
-375,
954,
-38,
983,
-7,
177,
-721,
812,
-134,
-1115,
-537,
1863,
232,
-128,
41,
251,
-973,
-402,
549,
-290,
-109,
-8,
114,
273,
-874,
-717,
72,
-1429,
209,
-837,
16,
-1140,
681,
-615,
-1206,
514,
-367,
1111,
19,
1315,
-917,
522,
-768,
-1594,
24,
895,
-1083,
2130,
-1054,
1245,
-194,
132,
-1228,
576,
-274,
-27,
-979,
477,
1562,
1708,
670,
-121,
-97,
989,
426,
-286,
-827,
-1285,
632,
-1207,
706,
-1176,
98,
-752,
721,
1140,
-338,
-103,
1244,
-879,
-51,
-569,
74,
-98,
508,
-193,
-680,
-332,
-899,
44,
-104,
1046,
503,
631,
-365,
1173,
-277,
-988,
1122,
1334,
510,
-118,
-921,
-1484,
-763,
-346,
745,
998,
-419,
-377,
1262,
-628,
874,
-1079,
751,
-126,
-826,
1288,
-703,
-1336,
-762,
1562,
755,
550,
630,
526,
324,
-368,
-376,
-224,
576,
331,
1158,
-41,
-360,
-171,
-70,
-538,
-443,
746,
-304,
-1200,
1905,
-256,
1270,
-15,
144,
-362,
-651,
854,
-1115,
1043,
330,
-1645,
2032,
118,
680,
-463,
589,
-260,
509,
193,
1191,
1127,
-1402,
576,
277,
-253,
-1191,
12,
129,
674,
-570,
365,
-691,
-478,
-115,
-714,
-884,
1515,
-148,
-570,
1399,
-567,
137,
-452,
587,
-683,
-903,
-94,
-473,
780,
-629,
-698,
-800,
724,
1752,
-222,
-466,
-693,
406,
-349,
-870,
946,
-974,
273,
-1291,
-159,
-776,
324,
755,
-145,
-1440,
1734,
-1627,
-110,
299,
-795,
-442,
-621,
141,
122,
694,
-1274,
-252,
619,
-908,
1393,
-421,
339,
676,
771,
49,
-630,
-616,
-437,
-842,
45,
-468,
-584,
215,
-785,
-964,
-428,
91,
-613,
-579,
-197,
2362,
-1155,
116,
81,
312,
1308,
66,
-482,
1819,
-234,
-131,
660,
-54,
217,
-130,
-100,
-329,
-274,
-714,
-24,
480,
148,
-24,
40,
-705,
283,
907,
-622,
-954,
-757,
688,
-241,
418,
18,
-198,
-756,
68,
-1552,
332,
473,
497,
-1573,
393,
-386,
-1843,
352,
-287,
1140,
-1552,
1303,
-925,
688,
-205,
-239,
-1311,
-233,
-1323,
-1574,
1561,
-1429,
1079,
-726,
336,
-1319,
739,
-364,
-569,
-791,
418,
-279,
211,
-384,
1531,
-1072,
186,
-258,
-395,
332,
1130,
486,
1574,
1282,
-313,
-759,
-997,
-371,
-925,
418,
1048,
1014,
-217,
231,
-332,
961,
759,
632,
-586,
-378,
2000,
404,
-132,
-982,
-46,
-600,
644,
741,
429,
-231,
-668,
-336,
-1030,
309,
335,
-1201,
1276,
631,
-191,
-96,
1408,
465,
193,
-439,
2835,
412,
1156,
-880,
899,
-385,
-600,
-800,
-687,
978,
-178,
1207,
1050,
33,
166,
111,
-418,
-1498,
-232,
134,
583,
2,
969,
129,
540,
500,
-527,
536,
1086,
1330,
-525,
-83,
-867,
81,
998,
225,
475,
-1454,
891,
-186,
867,
-74,
677,
-369,
-195,
253,
940,
-254,
403,
-56,
-268,
-1421,
-1450,
407,
-1366,
561,
-360,
-682,
-223,
761,
21,
-236,
338,
-627,
2167,
993,
445,
-56,
-341,
267,
-1376,
1203,
345,
-750,
-587,
-404,
951,
1011,
-905,
350,
919,
-445,
-670,
161,
217,
-958,
-852,
116,
166,
-395,
674,
268,
601,
647,
-470,
1236,
-663,
-551,
109,
536,
1819,
899,
947,
83,
-990,
-629,
-556,
-1154,
928,
910,
-882,
87,
-1219,
1135,
1563,
-740,
2267,
-1667,
-1518,
1222,
-1469,
6,
86,
-1349,
64,
696,
220,
-585,
498,
-462,
-308,
-861,
1534,
-565,
-41,
-1220,
-1094,
717,
-958,
229,
535,
300,
1072,
-353,
294,
-480,
-363,
-52,
86,
1421,
285,
-1505,
109,
-708,
279,
-2180,
-516,
-706,
-980,
164,
547,
1819,
178,
-218,
-351,
-310,
-491,
-84,
1210,
-232,
813,
-304,
437,
-176,
685,
-11,
-340,
554,
673,
-690,
133,
-7,
-793,
280,
550,
27,
1851,
262,
-1271,
384,
-586,
235,
-351,
-1323,
356,
-768,
-1027,
-986,
1877,
218,
-906,
-259,
-240,
2823,
61,
529,
-338,
-36,
388,
1875,
888,
238,
-229,
-1285,
-347,
-2026,
991,
-343,
-115,
-210,
763,
909,
-1284,
659,
763,
679,
-524,
-670,
-32,
-270,
-515,
-274,
878,
1322,
-1612,
475,
1714,
-1296,
1841,
-1222,
705,
-583,
-89,
-249,
-1713,
-800,
-810,
91,
-653,
-264,
419,
-560,
-756,
1538,
-337,
-317,
-1166,
756,
-103,
-1436,
704,
-956,
208,
1260,
-1170,
489,
225,
-325,
497,
-77,
-6,
-115,
-719,
46,
1206,
-446,
462,
217,
592,
-202,
90,
-143,
-1272,
1,
589,
1087,
-466,
545,
832,
-1767,
443,
217,
2349,
753,
889,
492,
281,
503,
-74,
-702,
648,
-723,
-323,
266,
858,
407,
-157,
-737,
-281,
101,
750,
-1628,
2277,
-2475,
235,
-587,
464,
457,
392,
-804,
-1493,
247,
-742,
-130,
339,
723,
1656,
-1178,
479,
-751,
-1133,
-30,
-1034,
851,
183,
368,
110,
519,
780,
609,
178,
-250,
131,
491,
230,
1377,
-70,
681,
316,
-703,
886,
967,
-1131,
-434,
1787,
-1008,
869,
804,
473,
668,
-411,
1835,
407,
-1261,
76,
-474,
-1815,
872,
360,
1245,
136,
-407,
790,
-642,
1578,
589,
-470,
-794,
-366,
129,
-375,
122,
1333,
-2291,
507,
636,
0,
1963,
-301,
1901,
-452,
529,
-250,
1281,
-970,
567,
-217,
-1687,
-87,
164,
517,
-776,
238,
10,
-1485,
1015,
526,
-1165,
378,
-26,
193,
582,
-184,
1452,
-1120,
881,
564,
270,
-623,
-352,
-1908,
212,
-1054,
73,
828,
-279,
282,
604,
-657,
263,
316,
136,
284,
-339,
907,
21,
997,
1084,
368,
-332,
1204,
-183,
-480,
-905,
-427,
-1139,
-622,
-198,
1282,
-796,
-958,
-786,
-58,
31,
-750,
1057,
85,
1112,
-778,
-35,
-706,
-767,
1173,
-836,
2,
-479,
-824,
1812,
-469,
-2690,
-377,
605,
490,
-900,
76,
80,
-816,
220,
828,
-1753,
1311,
-1868,
-487,
744,
-223,
-347,
156,
-1041,
-390,
263,
-663,
-1501,
243,
-1061,
1652,
-252,
-567,
168,
229,
-751,
391,
1238,
-446,
-805,
8,
1480,
-515,
-204,
-1331,
-331,
332,
51,
986,
-568,
-459,
1154,
-1135,
473,
344,
211,
-408,
875,
-2173,
255,
-127,
82,
-206,
-205,
1105,
-91,
-532,
-386,
-220,
-738,
-1395,
-471,
-194,
-986,
-960,
-129,
-347,
550,
-1006,
85,
673,
-585,
345,
-217,
534,
-500,
-813,
-738,
-121,
-1026,
777,
-255,
-45,
-90,
-1118,
-1016,
22,
-138,
331,
883,
385,
-760,
174,
1278,
-96,
380,
-23,
-320,
904,
451,
-1476,
19,
-1163,
-106,
-503,
1292,
-464,
-865,
-517,
725,
788,
788,
528,
748,
-244,
-622,
-544,
1075,
-924,
-713,
124,
-204,
1725,
-769,
-1512,
297,
-2339,
549,
486,
437,
599,
-205,
-245,
-290,
-57,
-71,
-389,
-73,
434,
779,
147,
1355,
812,
-864,
312,
506,
-577,
347,
367,
-274,
355,
-1157,
963,
487,
-1036,
-168,
-959,
-92,
-329,
230,
-20,
-547,
988,
990,
-794,
1249,
1000,
395,
2307,
421,
268,
278,
-113,
425,
-11,
1556,
537,
907,
494,
-820,
34,
155,
-272,
-1916,
-188,
-839,
-1128,
964,
-217,
-293,
757,
773,
1209,
288,
-542,
394,
-366,
-671,
-461,
-935,
-260,
402,
941,
534,
593,
272,
-521,
235,
1169,
-1281,
273,
179,
1508,
45,
-1234,
-183,
623,
-1225,
-581,
-11,
-486,
1220,
1013,
-1114,
-428,
483,
-1223,
936,
-284,
-177,
391,
-440,
652,
-5,
-437,
-107,
-669,
1301,
-1855,
-944,
-741,
133,
642,
-1823,
126,
-122,
-1683,
-92,
176,
-191,
755,
87,
768,
287,
-1051,
121,
288,
-299,
1191,
956,
-544,
654,
333,
-612,
1913,
-28,
-775,
-2237,
1111,
-1311,
-968,
-24,
-1188,
-771,
-1442,
641,
-1347,
-527,
1400,
-955,
-380,
-1228,
-683,
1508,
676,
-707,
-359,
111,
-522,
-789,
764,
-271,
-22,
-172,
-1013,
115,
-860,
138,
-570,
-501,
-434,
-669,
1042,
-624,
-208,
375,
-1386,
930,
-613,
27,
-362,
-993,
-911,
-46,
-476,
643,
334,
-11,
-2440,
-598,
-222,
186,
-213,
157,
-756,
-18,
-415,
-640,
1142,
-936,
-281,
544,
-67,
-217,
301,
-1863,
-453,
-249,
-193,
-231,
-825,
-188,
417,
-473,
25,
360,
-272,
-812,
1276,
-182,
-747,
526,
502,
-470,
87,
101,
-778,
815,
-682,
-231,
-732,
274,
-1334,
-2147,
709,
-910,
-303,
622,
-280,
286,
425,
-166,
675,
217,
-993,
1014,
306,
557,
290,
871,
-23,
-1355,
313,
-593,
240,
-518,
159,
-80,
133,
-242,
722,
3,
-4,
-2,
-6,
-1,
-9,
-2,
-1,
-2,
-6,
3,
-4,
419,
205,
-631,
212,
-11,
-41,
459,
-1039,
-875,
3,
-283,
1439,
251,
125,
59,
126,
107,
-270,
63,
-192,
198,
-151,
238,
133,
285,
-482,
708,
-180,
-172,
414,
-26,
-381,
156,
534,
-440,
410,
0,
0,
0,
0,
0,
0,
0,
0,
0,
0,
0,
0,
1112,
281,
-228,
-383,
907,
1472,
16,
95,
-930,
571,
-706,
128,
229,
531,
-245,
-300,
646,
570,
1141,
-1287,
-603,
-598,
-197,
152,
164,
-103,
-398,
344,
-117,
-739,
-1224,
1160,
555,
-386,
536,
1030,
77,
591,
41,
452,
-370,
-1506,
251,
-902,
566,
1667,
1235,
337,
-341,
646,
-1960,
872,
-1284,
21,
125,
-405,
404,
2435,
-864,
545,
-340,
-575,
-526,
118,
158,
669,
-907,
165,
629,
225,
-276,
586,
832,
943,
206,
-349,
-1082,
-1419,
7,
-1577,
-1048,
761,
-219,
-296,
2065,
-1317,
1440,
-279,
154,
-122,
750,
-889,
331,
779,
-779,
-837,
-1587,
-91,
121,
1081,
-781,
1236,
370,
439,
209,
-138,
1182,
1799,
61,
2060,
1033,
281,
-784,
-733,
-1583,
364,
665,
7,
953,
121,
960,
130,
-434,
1219,
-86,
505,
-263,
-477,
527,
-2105,
-214,
580,
1894,
-774,
217,
-827,
725,
-202,
-513,
-830,
-213,
-965,
1633,
-96,
-181,
-667,
240,
-606,
385,
-408,
-1099,
1105,
-285,
-986,
-1186,
-1265,
-500,
9,
-695,
-263,
459,
2102,
168,
-898,
893,
1375,
961,
-371,
564,
60,
-717,
271,
-93,
-33,
-40,
-466,
-424,
1333,
-457,
516,
1264,
-528,
-436,
-1306,
24,
-131,
-293,
806,
782,
1488,
-799,
841,
-69,
-603,
-1053,
933,
-209,
-714,
0,
-685,
-717,
799,
-1052,
-499,
-989,
-661,
169,
918,
-541,
1265,
257,
789,
171,
1478,
-1115,
953,
1520,
805,
-18,
213,
1677,
170,
-195,
-201,
-1051,
-975,
15,
799,
-1147,
1029,
912,
968,
-219,
305,
1296,
-2393,
874,
-1423,
-865,
-726,
270,
1016,
-109,
-277,
-1396,
298,
-616,
-14,
-393,
-223,
354,
-436,
926,
-340,
219,
-1460,
465,
293,
596,
-891,
-189,
190,
-872,
94,
-1211,
-1296,
-1038,
437,
-630,
1080,
970,
833,
334,
466,
856,
1082,
-1193,
668,
318,
1352,
-70,
642,
666,
368,
898,
1666,
-392,
317,
1794,
-149,
-130,
-1427,
498,
-72,
88,
-1056,
-1346,
-203,
-362,
436,
1685,
-128,
-2339,
4,
-838,
-2457,
-1342,
884,
512,
-365,
2530,
-79,
-153,
840,
2195,
-299,
305,
-719,
210,
-2385,
503,
-229,
-1385,
-66,
234,
-654,
-504,
993,
-111,
535,
722,
-990,
-382,
1924,
11,
-37,
640,
-251,
263,
-45,
-210,
141,
701,
-435,
-674,
546,
363,
349,
-1088,
-961,
1375,
-559,
-214,
-1036,
-56,
-262,
634,
-1072,
-394,
746,
257,
760,
152,
606,
43,
-247,
770,
-833,
548,
1053,
14,
-265,
-472,
-58,
595,
641,
-914,
322,
-322,
117,
-189,
-629,
-967,
1765,
1798,
-229,
-129,
-666,
214,
-1105,
378,
-974,
-1075,
658,
442,
-1213,
0,
0,
0,
0,
0,
0,
0,
0,
0,
0,
0,
0,
922,
-19,
-80,
-7,
-267,
-458,
1453,
-926,
349,
359,
-106,
-1511,
892,
-238,
-1283,
654,
619,
695,
492,
-1164,
-719,
1315,
-2,
109,
-466,
-387,
1034,
453,
-280,
899,
275,
-35,
545,
237,
-559,
866,
1679,
-493,
328,
314,
-235,
-1498,
472,
-152,
-65,
587,
1074,
-1078,
883,
-1090,
-748,
776,
-553,
664,
-666,
-239,
-181,
1216,
-875,
142,
-99,
-29,
292,
241,
286,
555,
-410,
441,
196,
395,
-1006,
-458,
-598,
112,
-750,
-504,
1689,
1970,
429,
74,
903,
1374,
-2233,
-106,
60,
712,
466,
-1086,
246,
-444,
-743,
-498,
-1125,
804,
-262,
-195,
81,
215,
554,
-822,
33,
-94,
-367,
247,
-299,
1092,
-163,
-168,
-1624,
1377,
1580,
-2945,
-1659,
-1213,
696,
177,
1534,
-1287,
114,
323,
640,
398,
1573,
-339,
-829,
-269,
-285,
-719,
-1380,
249,
-1370,
839,
-868,
-674,
-668,
383,
1209,
-433,
930,
1472,
1614,
-624,
930,
817,
623,
-1011,
95,
771,
850,
123,
1200,
-863,
-330,
-365,
518,
-223,
-12,
240,
656,
-1296,
-986,
400,
296,
144,
-280,
-720,
-589,
588,
290,
-53,
15,
-709,
-300,
-38,
-564,
-649,
-1120,
1406,
-406,
1395,
-897,
493,
2010,
-72,
1056,
-1339,
379,
-1435,
-680,
766,
34,
788,
498,
-139,
1560,
1237,
1109,
760,
382,
-422,
-303,
-50,
-1002,
346,
-1251,
1805,
-416,
-2639,
-1151,
-300,
-1582,
-269,
863,
1793,
318,
-1476,
-1719,
169,
-74,
-332,
102,
534,
-314,
578,
-799,
2270,
1249,
1329,
605,
-730,
-1421,
3266,
-649,
772,
-267,
-436,
-943,
590,
757,
662,
318,
-727,
-109,
194,
-739,
-119,
100,
-276,
-910,
1348,
-1044,
-432,
-1376,
-355,
-563,
243,
762,
-230,
-279,
822,
242,
2663,
992,
995,
-74,
1230,
765,
-1450,
1536,
993,
61,
-716,
1691,
-873,
-657,
-1673,
520,
-1008,
-302,
330,
-459,
-865,
690,
-399,
-452,
643,
-482,
67,
1105,
-1672,
1769,
922,
734,
-286,
1219,
-1880,
-1101,
-769,
-1768,
-42,
1926,
1315,
-439,
-760,
-1832,
560,
705,
-915,
-1202,
-149,
-60,
81,
1769,
718,
1533,
340,
1120,
9,
-265,
-1315,
436,
-377,
1024,
-334,
-1068,
1319,
-228,
1816,
14,
599,
-558,
1745,
795,
1206,
-2078,
748,
-2000,
-164,
1039,
316,
2371,
-671,
-2862,
1487,
-377,
-317,
-157,
-1156,
1351,
119,
696,
-1169,
848,
-287,
-742,
-1,
-1816,
-432,
221,
-515,
492,
-91,
-130,
-1222,
-615,
-1678,
-839,
-784,
633,
-1496,
-710,
-1090,
-1353,
526,
1194,
-1217,
-816,
-445,
-881,
88,
948,
1,
831,
-8,
120,
-720,
1149,
-1711,
-1108,
121,
-672,
-1507,
-1610,
-848,
-1376,
287,
1713,
-156,
1016,
2252,
-1361,
1347,
345,
-1228,
-1547,
1411,
-1493,
-77,
1126,
63,
729,
819,
-394,
392,
-904,
1450,
-1301,
-405,
618,
-865,
-320,
358,
-767,
1673,
-744,
2007,
597,
-103,
508,
964,
1037,
270,
1564,
40,
172,
-59,
437,
-373,
226,
271,
-416,
1657,
-379,
893,
0,
0,
0,
0,
0,
0,
0,
0,
0,
0,
0,
0,
352,
545,
1634,
-471,
529,
-857,
-608,
-298,
-319,
513,
-632,
-465,
-18,
-471,
1004,
-477,
-386,
-218,
-1440,
-1073,
122,
309,
-745,
70,
267,
518,
695,
-886,
320,
-1559,
-178,
-314,
-90,
-102,
-86,
-302,
591,
-1071,
1890,
488,
1142,
1237,
-1141,
-554,
-1980,
177,
-845,
-456,
916,
-169,
393,
-193,
1877,
-1600,
67,
-1172,
-581,
32,
-1136,
299,
931,
-378,
180,
35,
-270,
-84,
-101,
-498,
-587,
2258,
583,
-73,
173,
-588,
-444,
-25,
-738,
-181,
-325,
-588,
-331,
434,
26,
712,
1004,
738,
923,
1178,
-735,
-65,
466,
-702,
-483,
579,
-553,
-792,
-131,
7,
1587,
768,
334,
848,
-47,
254,
343,
1739,
-1452,
-472,
481,
1017,
668,
249,
1020,
-623,
883,
-821,
-988,
-87,
176,
-489,
1716,
213,
223,
-1455,
-358,
-1723,
-56,
844,
160,
859,
-396,
535,
172,
-20,
744,
216,
755,
387,
-209,
43,
-450,
1014,
-1472,
-919,
52,
-1241,
-1314,
-92,
420,
-651,
-884,
-916,
-364,
677,
-486,
-479,
-535,
-1156,
142,
2315,
-1626,
1994,
-346,
1527,
-2287,
39,
-799,
-526,
1596,
329,
-240,
514,
1152,
-442,
-934,
536,
324,
-1340,
465,
-279,
145,
552,
-714,
-1412,
248,
80,
191,
-1242,
297,
193,
-150,
470,
778,
-870,
3401,
-1458,
1197,
-324,
-616,
-1342,
1360,
-2453,
-1925,
-2220,
1545,
-1532,
-794,
710,
-1281,
437,
-134,
131,
-1693,
1669,
-251,
685,
1200,
-260,
564,
-236,
-367,
-514,
983,
-1307,
-114,
-194,
-603,
1022,
-3018,
123,
-1210,
3476,
68,
-153,
-1526,
2919,
-1096,
32,
1350,
1,
481,
189,
30,
-195,
78,
-1000,
88,
-1539,
-1575,
838,
-1150,
-119,
2906,
-1400,
364,
1261,
798,
-816,
-766,
-1283,
-879,
-595,
-1112,
685,
1960,
-581,
129,
1313,
-5,
-470,
293,
-1041,
-1049,
-69,
-162,
-388,
738,
-207,
-850,
-1928,
-1140,
-1633,
-404,
1855,
1243,
-735,
1021,
671,
-398,
-266,
-366,
329,
-1417,
245,
-579,
840,
101,
484,
-880,
-80,
568,
1849,
2990,
-882,
1992,
-1634,
344,
-2636,
1836,
-713,
-1678,
-40,
1403,
1147,
-989,
-1609,
-178,
1242,
-424,
-74,
-581,
-1026,
-780,
-159
};

#endif