#ifndef __MMCBLOCK3_MMLAYER2_BRANCH33C_CONV_0_WEIGHT_H__
#define __MMCBLOCK3_MMLAYER2_BRANCH33C_CONV_0_WEIGHT_H__

// MMCBlock3_mmLayer2_branch33c_conv_0_weight
// (3, 3, 6, 6)
const int MMCBlock3_mmLayer2_branch33c_conv_0_weight[] = {
-362,
4064,
0,
1487,
-363,
-1228,
-477,
629,
0,
5064,
-389,
-1173,
-1459,
357,
0,
-1456,
367,
-624,
2401,
1343,
0,
-938,
-883,
-142,
0,
-8,
0,
-1,
-2,
-1,
-231,
340,
0,
-902,
642,
50,
-1781,
1023,
0,
-1627,
25,
-1132,
-1251,
-2853,
0,
4211,
1274,
49,
-1625,
-563,
0,
-1289,
438,
-102,
-790,
684,
0,
-795,
-178,
-521,
-1,
-4,
0,
-5,
-1,
1,
-327,
2392,
0,
149,
-628,
-200,
-314,
-1302,
0,
-1090,
127,
646,
-645,
835,
0,
4263,
-181,
59,
-265,
197,
0,
-462,
628,
-536,
3311,
1592,
0,
-1203,
1135,
-623,
-2,
0,
0,
-6,
-1,
0,
-357,
765,
0,
-151,
-65,
-1784,
595,
3301,
0,
219,
-61,
519,
-799,
100,
0,
-53,
-327,
-1154,
2541,
1935,
0,
-324,
84,
433,
-1325,
-505,
0,
-485,
-585,
1501,
0,
-8,
0,
-1,
-4,
11,
-825,
-1174,
0,
704,
-628,
-585,
153,
-868,
0,
-1342,
-141,
-128,
-667,
-1518,
0,
-2826,
408,
-1010,
-1911,
405,
0,
73,
-1633,
454,
-1110,
-232,
0,
-894,
120,
-286,
-1,
-5,
0,
-3,
-4,
5,
19,
-178,
0,
581,
-1261,
414,
-743,
-2807,
0,
-1294,
-470,
-580,
-391,
1373,
0,
99,
253,
-422,
3212,
-342,
0,
-746,
-1591,
366,
672,
-281,
0,
-76,
16,
449,
0,
8,
0,
-3,
-4,
2,
-756,
-182,
0,
-119,
-247,
-188,
761,
2990,
0,
848,
48,
313,
-54,
496,
0,
-1646,
88,
-306,
1066,
-1210,
0,
-496,
2045,
-1521,
-362,
7,
0,
104,
-1191,
5040,
-1,
-9,
0,
-7,
0,
0,
585,
24,
0,
807,
2967,
-1934,
2700,
602,
0,
-146,
-326,
769,
-1977,
-1196,
0,
-3344,
-618,
-15,
-2610,
-2317,
0,
-702,
2298,
-1734,
-411,
1841,
0,
882,
-1118,
5685,
-1,
-1,
0,
-5,
0,
-3,
-108,
917,
0,
707,
2408,
-1219,
53,
-1919,
0,
-759,
-205,
-1259,
2333,
-1420,
0,
-2111,
438,
-934,
1133,
-2009,
0,
-619,
1326,
674,
-1210,
1138,
0,
-106,
-1338,
4358,
0,
11,
0,
-4,
0,
0,
-1192,
-571,
0,
200,
3947,
-899
};

#endif