#ifndef __MMCBLOCK2_MMLAYER2_BRANCH11_CONV_0_WEIGHT_H__
#define __MMCBLOCK2_MMLAYER2_BRANCH11_CONV_0_WEIGHT_H__

// MMCBlock2_mmLayer2_branch11_conv_0_weight
// (1, 1, 128, 12)
const int MMCBlock2_mmLayer2_branch11_conv_0_weight[] = {
1423,
-640,
-1408,
185,
2275,
-1025,
-1778,
672,
1788,
-1104,
1535,
1368,
-575,
146,
756,
-416,
321,
316,
-173,
-779,
-328,
-854,
1147,
-606,
-305,
1134,
1013,
-335,
-68,
-598,
-1294,
-700,
-1896,
-174,
-68,
2707,
473,
-1633,
-558,
-34,
908,
-1410,
235,
719,
73,
470,
709,
-1237,
-397,
273,
671,
-697,
-353,
683,
1482,
-882,
364,
-1233,
1225,
12,
-391,
-579,
664,
-337,
-355,
-69,
-549,
-515,
-829,
-307,
-618,
-173,
2068,
-588,
-1256,
113,
358,
-1405,
-1018,
1655,
-695,
-236,
80,
-863,
586,
-323,
615,
-204,
169,
-729,
-205,
216,
-383,
-626,
315,
824,
-73,
-6,
-247,
-24,
148,
-185,
873,
238,
-528,
372,
-1268,
-628,
5,
210,
158,
323,
-494,
27,
-325,
623,
-1252,
-387,
938,
-741,
-978,
-151,
840,
-223,
-447,
538,
906,
-698,
-167,
-391,
1140,
707,
262,
260,
269,
153,
-79,
-189,
919,
134,
616,
759,
36,
40,
-200,
-880,
-297,
-285,
-586,
1445,
409,
-206,
2528,
257,
-852,
-2961,
106,
-890,
-738,
353,
-561,
1505,
-279,
108,
2122,
612,
-992,
-1902,
-245,
825,
81,
126,
554,
-685,
-1179,
288,
440,
-2,
-875,
-572,
599,
-1682,
-1033,
771,
244,
435,
-316,
898,
1788,
816,
-2459,
-2875,
1813,
1354,
10,
93,
16,
-2533,
-972,
1349,
-2520,
344,
-3165,
954,
-774,
-735,
16,
247,
-734,
-688,
605,
-612,
-224,
609,
-525,
-960,
-65,
-1416,
-364,
855,
216,
-826,
1159,
1016,
1190,
1239,
-2187,
-2384,
-243,
569,
-169,
-61,
-55,
-528,
-163,
186,
-59,
-147,
596,
-457,
-436,
753,
-901,
776,
154,
-264,
-260,
-28,
-575,
720,
-2985,
-1401,
-980,
-1482,
243,
-1219,
-3608,
849,
-151,
-1716,
-1740,
350,
3864,
1866,
961,
703,
-641,
251,
-152,
-1178,
-284,
-131,
-366,
-293,
-514,
475,
973,
-382,
-256,
-275,
-390,
-531,
-350,
338,
-444,
582,
95,
31,
316,
-128,
2086,
-719,
-524,
1056,
-976,
-1562,
695,
-785,
1128,
657,
84,
-234,
101,
322,
270,
723,
-1403,
-708,
305,
709,
335,
1680,
-207,
2560,
-939,
907,
1539,
-2272,
-637,
1428,
134,
1268,
507,
-413,
-1127,
805,
1080,
-724,
-389,
-965,
1095,
-869,
-849,
-949,
25,
2779,
315,
-122,
1159,
-368,
493,
1068,
1549,
-549,
-656,
401,
-3122,
-585,
1547,
-477,
-238,
826,
66,
804,
-1193,
257,
304,
1019,
786,
348,
-637,
-603,
-674,
368,
926,
1294,
-519,
604,
576,
-115,
43,
-878,
-559,
682,
133,
116,
-290,
-2807,
-1184,
108,
-1169,
-622,
208,
1855,
-743,
-2064,
180,
-373,
487,
262,
-274,
-257,
-1011,
661,
-1223,
-173,
99,
-105,
624,
397,
-1105,
850,
-1134,
-1106,
-1655,
166,
328,
-98,
1286,
965,
311,
710,
1838,
-288,
459,
-33,
974,
916,
1173,
813,
588,
-366,
827,
816,
-170,
1551,
-2252,
-164,
936,
118,
298,
1720,
736,
157,
-1500,
397,
152,
-1318,
199,
1586,
-309,
486,
-552,
-504,
211,
-548,
-486,
477,
214,
1142,
-1085,
-253,
-668,
12,
789,
-3811,
2306,
-3062,
-1178,
348,
546,
1586,
-190,
1281,
3400,
-566,
623,
-2525,
-230,
-342,
-1002,
223,
-369,
72,
-1109,
-110,
665,
654,
-1131,
698,
-349,
133,
-1039,
293,
-308,
-1000,
-1307,
-835,
-109,
363,
-1624,
-1467,
-640,
35,
1176,
-749,
-858,
559,
-195,
-868,
-348,
-96,
1015,
-462,
-338,
-376,
-385,
-790,
-1172,
1718,
317,
-371,
983,
-566,
955,
-447,
-411,
-661,
794,
-625,
726,
599,
1152,
-459,
-391,
-342,
1275,
8,
462,
-570,
501,
564,
-475,
140,
258,
387,
-168,
337,
-1673,
-797,
-696,
-303,
142,
-510,
-487,
509,
711,
51,
-1080,
-1042,
909,
-1,
227,
-200,
573,
-309,
-60,
1181,
741,
-56,
-519,
17,
-982,
1171,
-352,
-238,
267,
854,
253,
46,
-2078,
-142,
-827,
577,
1427,
-254,
535,
707,
365,
380,
-595,
519,
-21,
-767,
694,
-278,
877,
754,
1033,
-1030,
343,
46,
-404,
387,
-454,
-784,
432,
519,
-1548,
682,
-1204,
-1191,
712,
-992,
-201,
448,
1452,
-121,
-553,
-919,
148,
-1326,
-1370,
1838,
-1229,
54,
1250,
-188,
-1521,
-191,
1028,
-62,
177,
43,
-608,
319,
1858,
-778,
-80,
404,
238,
-435,
-116,
104,
2785,
448,
-157,
-865,
2265,
-1432,
-1125,
662,
497,
-1589,
-547,
-708,
1274,
-589,
944,
190,
-645,
325,
6,
632,
-2177,
-463,
10,
504,
-358,
1646,
-730,
-395,
175,
-461,
-215,
291,
366,
-500,
-189,
133,
3775,
733,
-593,
-1661,
-558,
187,
2,
1099,
-422,
-561,
2859,
160,
181,
-1100,
-917,
-54,
-1286,
-791,
-592,
-44,
872,
469,
1129,
295,
707,
1803,
-720,
-331,
918,
-398,
120,
230,
-60,
-782,
-324,
-603,
-1092,
-430,
-981,
-118,
-1747,
545,
-1346,
-962,
-728,
101,
1202,
-427,
-1536,
-62,
728,
981,
-203,
-630,
-649,
-120,
913,
793,
-172,
357,
-1308,
-449,
2053,
1225,
54,
1364,
1556,
-734,
-620,
813,
2,
871,
-2498,
349,
573,
1536,
1253,
-124,
-524,
-2076,
531,
373,
-1812,
266,
-2905,
2697,
136,
-589,
247,
370,
-161,
1136,
-821,
363,
-250,
-53,
483,
1373,
-351,
-74,
787,
-947,
23,
1102,
365,
-472,
9,
-201,
-1551,
694,
-1590,
2251,
-1821,
1272,
1468,
-1593,
-131,
1219,
1189,
2740,
558,
-335,
1058,
-1344,
556,
221,
-339,
-435,
1243,
269,
-853,
865,
556,
-236,
-1061,
-598,
-379,
221,
-1050,
-710,
-985,
-1,
-888,
-1243,
4193,
-696,
539,
102,
-308,
902,
-662,
217,
-2359,
-1040,
-149,
930,
-1569,
686,
-1228,
950,
2031,
-718,
-1571,
27,
-778,
-1580,
1242,
-780,
-386,
1196,
-879,
1331,
-1533,
1101,
1188,
-675,
-265,
1459,
88,
1723,
-27,
-339,
735,
-1071,
-314,
745,
-919,
-2355,
-490,
1525,
1630,
209,
-2448,
-526,
-18,
-505,
913,
563,
35,
230,
-530,
-286,
352,
984,
1136,
-199,
1064,
2158,
364,
-143,
-589,
-3091,
58,
460,
-1810,
333,
200,
2181,
416,
52,
-1499,
223,
359,
-1318,
-933,
683,
-262,
629,
1114,
-585,
-1192,
1044,
-1139,
186,
275,
-1981,
-399,
486,
-609,
-375,
1229,
501,
-14,
-594,
93,
-512,
492,
484,
1444,
-261,
56,
98,
1076,
-295,
-97,
-112,
-1187,
268,
-329,
-577,
-3257,
125,
-298,
229,
335,
335,
328,
-1016,
-1421,
626,
1435,
-2028,
-573,
1445,
-7,
204,
1438,
-1237,
142,
393,
-1589,
1046,
1559,
-2315,
137,
1330,
647,
1294,
2390,
-1100,
137,
341,
-27,
86,
356,
-262,
641,
228,
-211,
67,
-2,
-713,
779,
-295,
741,
267,
-267,
-94,
-1636,
44,
-1360,
159,
802,
-266,
222,
-1000,
1298,
-910,
-98,
566,
2065,
-577,
-1005,
-723,
2932,
-1622,
1108,
1926,
-1580,
601,
-839,
183,
-839,
1283,
-1875,
944,
-2529,
-1332,
-271,
-604,
-821,
208,
106,
1663,
-435,
-204,
767,
56,
-1474,
-2574,
-1274,
340,
853,
-501,
-146,
-554,
1740,
-1392,
-619,
-679,
-752,
-463,
207,
36,
-1115,
1522,
738,
-1158,
581,
1111,
616,
391,
-2998,
956,
-514,
31,
1119,
498,
455,
639,
-888,
-288,
27,
-360,
710,
-144,
-169,
369,
-810,
287,
-68,
102,
-1809,
-211,
581,
-774,
-1199,
711,
269,
-895,
34,
735,
551,
2448,
-1045,
384,
724,
12,
-703,
2572,
-86,
-914,
691,
432,
-333,
1425,
-1667,
-268,
68,
118,
158,
425,
-411,
-407,
44,
-1131,
-691,
-94,
1343,
-1484,
-1029,
-1052,
-1435,
170,
840,
499,
-262,
-8,
-186,
-243,
5,
58,
983,
66,
-888,
-252,
1024,
641,
-1121,
579,
1754,
-1272,
203,
1224,
-44,
488,
831,
-1665,
-758,
-422,
-855,
-1115,
-15,
-300,
1979,
-283,
-225,
-507,
2323,
-286,
-672,
523,
-204,
-798,
89,
142,
1267,
-549,
343,
-478,
806,
124,
-918,
3393,
-66,
235,
1257,
-2973,
-494,
509,
-2989,
1193,
-54,
4126,
-1310,
-704,
209,
-417,
-431,
-264,
1135,
-233,
-1780,
-698,
1450,
-830,
611,
-251,
342,
215,
607,
602,
559,
-223,
871,
906,
-217,
663,
-226,
-511,
109,
178,
-165,
-662,
-1015,
86,
-844,
-54,
-1266,
-1248,
294,
967,
-997,
1072,
-635,
-478,
360,
1535,
431,
349,
-4330,
-162,
-30,
107,
-151,
-504,
-275,
-2137,
367,
943,
-1585,
600,
-205,
-1431,
-128,
-369,
783,
-584,
-243,
1126,
-1031,
-378,
-787,
190,
366,
226,
397,
112,
-1033,
541,
931,
-791,
1023,
1109,
820,
266,
500,
-463,
39,
-581,
81,
457,
-1175,
449,
561,
-721,
63,
842,
650,
425,
17,
147,
-3415,
966,
1942,
-2811,
-2749,
1446,
-447,
313,
-4179,
-1398,
1333,
-878,
-2690,
17,
1734,
6,
-922,
-150,
2128,
-303,
1947,
-1786,
-135,
-381,
604,
-381,
-217,
-509,
1748,
-36,
-98,
-403,
-373,
388,
-1104,
3230,
-240,
348,
946,
-1566,
-1424,
8,
-1693,
1292,
1629,
847,
838,
-2307,
-1951,
628,
1108,
1428,
-766,
-240,
1530,
779,
1804,
-2174,
501,
1273,
-2808,
20,
2243,
-1785,
-1647,
281,
107,
229,
2988,
1528,
1003,
0,
-1472,
329,
866,
-1433,
166,
-180,
-89,
290,
1871,
643,
1,
744,
-118,
312,
-35,
-254,
-1453,
592,
-625,
505,
756,
-250,
238,
711,
-1680,
540,
1931,
-1851,
-455,
-365,
495,
1275,
2787,
484,
578,
-122,
1293,
1121,
-88,
647,
-1444,
-651,
-1416,
656,
-181,
-40,
1109,
-331,
114,
777,
-763,
366,
-659,
-371,
848,
212,
245,
-492,
-300,
-682,
-167,
-539,
469,
-151,
142,
49,
-414,
-702,
528,
517,
-279,
-514,
-1738,
364,
-1470,
-1485,
-1587,
857,
-976,
627,
849,
300,
-262,
-644,
-227,
396,
32,
268,
1157,
1010,
444,
-138,
1686,
-252,
122,
-997,
-1509,
659,
-1237,
-1307,
-1714,
722,
-368,
457,
1388,
-1389,
-1146,
-612,
-265,
-537,
-728,
89,
-390,
273,
-468,
-755,
-1452,
-59,
-1886,
-8,
51,
-967,
-757,
-457,
654,
360,
-88,
-1284,
-1604,
-264,
995,
36,
-658,
551,
268,
358,
928,
136,
1874,
134,
729,
-1061,
-267,
1105,
788,
33,
-131,
-1439,
346,
-67,
-706,
260,
-1479,
1090,
10,
-840,
-127,
-98,
-724,
241,
1281,
32,
-1293,
510,
-899,
-157,
165,
-767,
290,
376,
85,
1190,
-1058,
-130,
547,
-1,
-320,
-521,
-463,
1167,
-193,
225,
888,
-748,
-104,
80,
-526,
775,
-339,
384,
53,
197,
-67,
-513,
1082,
-183,
-452,
53,
-113,
-185,
-350,
-54
};

#endif