#ifndef __MMCBLOCK3_MMLAYER1_BRANCH11_CONV_0_WEIGHT_H__
#define __MMCBLOCK3_MMLAYER1_BRANCH11_CONV_0_WEIGHT_H__

// MMCBlock3_mmLayer1_branch11_conv_0_weight
// (1, 1, 200, 12)
const int MMCBlock3_mmLayer1_branch11_conv_0_weight[] = {
-744,
185,
-343,
-639,
-223,
-980,
1934,
-273,
-713,
-279,
780,
1046,
-379,
-127,
38,
-27,
-1524,
-170,
233,
1373,
55,
-439,
959,
-589,
585,
-1629,
-2389,
685,
-223,
-1852,
-380,
-1281,
348,
984,
1974,
-918,
-1026,
-1865,
-933,
-26,
371,
-1119,
1757,
304,
-821,
270,
-585,
-781,
-354,
-180,
-925,
387,
1572,
-796,
784,
1062,
663,
-782,
89,
1083,
-1043,
-2390,
-1349,
849,
97,
-621,
373,
681,
1127,
-473,
655,
389,
479,
234,
849,
495,
-2624,
-1018,
-1452,
-533,
-838,
716,
-1323,
-774,
-273,
411,
-817,
916,
132,
-880,
-370,
301,
559,
832,
98,
-1400,
415,
734,
658,
-675,
-872,
-77,
-1754,
-577,
142,
843,
-1188,
-306,
421,
-313,
-1832,
866,
500,
-397,
-1103,
-20,
-237,
870,
666,
-1277,
-537,
-535,
2177,
726,
785,
-23,
-871,
2064,
-617,
-382,
-147,
-66,
86,
-701,
-1024,
290,
-1250,
-1390,
1137,
1441,
-1618,
1119,
-2213,
-693,
-547,
404,
0,
-512,
361,
-125,
686,
289,
-1126,
-51,
-704,
538,
1064,
55,
-55,
-207,
-318,
364,
1642,
31,
13,
88,
-1353,
605,
1902,
-592,
-358,
-552,
1079,
-1369,
-1761,
-341,
-256,
-4,
2477,
381,
-594,
83,
511,
-1815,
-1106,
-1122,
144,
-245,
-1683,
-838,
436,
1507,
-1368,
-1526,
-916,
1572,
-904,
-99,
1068,
353,
-422,
550,
-1276,
-491,
635,
655,
260,
589,
-44,
141,
-455,
454,
666,
333,
1054,
360,
-1452,
-744,
-579,
755,
83,
-833,
1757,
1479,
3212,
-787,
-1608,
-1495,
-427,
-610,
689,
-417,
-106,
-817,
472,
2245,
90,
-1084,
-221,
146,
-956,
-1356,
-533,
-648,
-1639,
313,
-1463,
-491,
-1786,
-1190,
-241,
941,
-1435,
-480,
422,
-1720,
-2361,
-317,
-13,
-429,
-1718,
-584,
1085,
1354,
-529,
1135,
-1336,
-244,
-1416,
-775,
-293,
-1314,
-531,
746,
-880,
759,
-125,
617,
1239,
-1181,
1395,
818,
1227,
-265,
-220,
-117,
-411,
499,
-1143,
-964,
-144,
48,
-1234,
-1136,
1307,
-598,
-158,
248,
-1148,
-871,
-448,
810,
763,
-580,
392,
-280,
-123,
2,
1148,
492,
382,
-294,
205,
-498,
-694,
1043,
981,
-787,
2659,
-435,
-25,
1058,
-305,
-329,
-1104,
-170,
1313,
-2094,
-1001,
2542,
-577,
-354,
-1362,
-952,
-1330,
2835,
370,
-922,
-914,
1159,
-632,
-69,
-109,
1164,
754,
484,
-1703,
164,
-1659,
-27,
488,
-907,
-174,
-139,
763,
427,
-540,
-410,
-1053,
-416,
-82,
628,
447,
-1542,
14,
79,
-1519,
144,
106,
-1476,
-287,
2186,
649,
928,
106,
154,
-11,
560,
-1044,
18,
-1354,
-346,
-1237,
-237,
3144,
360,
655,
-102,
1772,
-672,
-557,
34,
-1242,
568,
692,
446,
-374,
-108,
367,
-314,
-1749,
464,
10,
77,
-1054,
-562,
-580,
309,
-335,
848,
-152,
-94,
-172,
189,
1279,
-2512,
931,
723,
757,
-912,
-928,
-98,
-605,
1522,
-1414,
-571,
-990,
-181,
821,
689,
-662,
-110,
2336,
-843,
240,
545,
1069,
-378,
-1215,
-112,
-514,
156,
2213,
580,
1081,
-243,
1407,
-851,
-942,
-667,
375,
-69,
-837,
883,
1734,
-352,
-1168,
1079,
419,
-24,
-1013,
-44,
335,
-369,
-96,
-376,
63,
432,
-951,
303,
-44,
-1292,
1116,
-323,
-119,
-177,
1490,
54,
607,
-1034,
-176,
-677,
-506,
1616,
-598,
-1136,
1417,
-128,
1678,
220,
2126,
-483,
159,
-599,
220,
-397,
-963,
-363,
1136,
1395,
-2000,
535,
1607,
-37,
-85,
813,
2620,
-1391,
172,
1640,
-221,
-961,
-53,
-732,
1472,
1501,
-2013,
1627,
-202,
-771,
-626,
942,
232,
683,
1630,
-1101,
-1047,
278,
284,
-264,
508,
-659,
-480,
-859,
-1,
322,
-1227,
935,
-2626,
-665,
-35,
-892,
-775,
463,
1661,
-374,
-1273,
885,
-522,
-116,
-605,
-434,
617,
258,
-2960,
446,
-935,
-327,
-353,
-2341,
-318,
1274,
572,
343,
849,
-990,
0,
-1017,
-189,
-1528,
272,
1291,
-1236,
408,
694,
-808,
-130,
-489,
545,
-567,
1684,
1133,
-2300,
388,
1731,
-878,
957,
-422,
-1032,
389,
-162,
-539,
-490,
454,
-1236,
-1345,
1196,
190,
1731,
-1892,
1108,
-152,
-636,
-19,
-332,
-412,
760,
-1047,
-700,
649,
2452,
-1551,
186,
17,
-24,
-42,
-310,
83,
135,
828,
679,
-108,
2111,
-82,
-47,
-554,
-173,
1223,
-545,
-425,
-284,
495,
-520,
592,
-327,
-481,
-525,
1266,
257,
-1152,
649,
-547,
-913,
213,
229,
-269,
1133,
56,
2221,
989,
305,
1382,
2695,
-344,
-1600,
1444,
-700,
842,
3944,
-279,
-402,
854,
-709,
-890,
515,
-49,
498,
-326,
1412,
262,
1629,
-575,
437,
-775,
-1024,
1480,
0,
-1733,
1578,
314,
-1336,
1804,
225,
-1039,
355,
1032,
-205,
910,
1758,
38,
242,
-350,
-851,
-123,
-905,
-287,
-321,
934,
746,
-258,
-1529,
-124,
-1406,
-754,
957,
-476,
508,
844,
246,
-928,
1038,
-183,
-225,
-771,
-745,
1001,
-1568,
-746,
-1330,
191,
-760,
-282,
1223,
232,
448,
-820,
-911,
390,
693,
89,
-1145,
-1159,
-1825,
-66,
122,
-1415,
-467,
32,
-1264,
1837,
-1923,
-1142,
-1744,
-246,
1178,
1759,
565,
-660,
-142,
-919,
-1973,
-1033,
-1902,
456,
262,
452,
-848,
800,
-130,
-998,
-239,
533,
-1068,
649,
-553,
-1102,
101,
-376,
-18,
-887,
140,
-631,
555,
-510,
311,
398,
-1172,
204,
-1287,
-391,
1055,
257,
483,
-963,
-1367,
-273,
-1067,
-815,
-840,
603,
1326,
-1235,
-407,
-423,
-814,
723,
605,
700,
1682,
-1062,
-87,
-17,
707,
-647,
351,
169,
2188,
965,
-329,
-408,
-810,
281,
-888,
-296,
467,
-406,
-758,
655,
-1641,
561,
-269,
1041,
2583,
-1099,
2097,
238,
-1493,
714,
-943,
-431,
-1151,
-1601,
358,
900,
-853,
-1560,
-360,
-1015,
-906,
1876,
359,
-636,
418,
-657,
428,
-496,
1891,
19,
-1273,
-164,
-1078,
168,
-747,
54,
-1787,
636,
1532,
-965,
-497,
-256,
1236,
-616,
156,
511,
140,
-381,
827,
-721,
149,
486,
-660,
-194,
249,
231,
1075,
-427,
-598,
-435,
-217,
108,
895,
-451,
-279,
944,
321,
-253,
165,
29,
-1582,
238,
563,
530,
42,
-915,
1646,
-842,
-1717,
-152,
-1840,
284,
-626,
1849,
-497,
-1097,
-808,
802,
835,
-665,
-207,
-813,
503,
2266,
-385,
-18,
-1229,
924,
599,
400,
-1224,
291,
2545,
-1420,
596,
741,
2151,
-201,
-1950,
484,
1213,
-2441,
-646,
-736,
-321,
556,
459,
-1500,
-42,
1062,
-15,
-1190,
26,
-205,
498,
256,
-36,
-17,
643,
1284,
-493,
-795,
2283,
-1372,
-1611,
163,
-747,
230,
1365,
-663,
-1495,
459,
733,
699,
-950,
-1421,
779,
270,
-162,
311,
-958,
-134,
1537,
1024,
1270,
-842,
-824,
1016,
-401,
-1330,
-489,
1243,
529,
1034,
1581,
-795,
-81,
292,
-809,
-798,
725,
1110,
711,
-96,
-1148,
-119,
-1095,
-448,
-1167,
-60,
541,
-153,
-428,
-1588,
1399,
926,
-2152,
179,
-1532,
-226,
-573,
-708,
507,
90,
129,
-942,
870,
1380,
242,
-1025,
213,
-500,
172,
-1219,
1229,
-51,
805,
-499,
-320,
1286,
-1479,
-110,
-21,
791,
251,
2873,
890,
-1166,
-924,
65,
-773,
805,
-943,
-611,
1416,
-533,
-302,
-812,
-707,
1253,
2439,
-1356,
562,
-378,
-898,
885,
828,
468,
-652,
1469,
-1835,
-640,
-1057,
-677,
1088,
-311,
-556,
-546,
-813,
-382,
1022,
-672,
-1671,
-41,
1645,
75,
-2236,
-477,
2679,
2,
2273,
702,
332,
-1099,
914,
-1012,
2161,
738,
93,
3537,
-357,
-1745,
140,
-565,
-187,
-93,
1650,
-428,
667,
380,
447,
957,
575,
-323,
2045,
-215,
529,
1762,
2534,
535,
-1830,
-603,
-603,
363,
399,
440,
-226,
-799,
70,
-771,
59,
-670,
-90,
-651,
-507,
-831,
47,
-831,
2890,
1589,
1912,
-1021,
-752,
849,
461,
543,
-306,
-636,
558,
390,
1241,
-66,
-905,
-1083,
844,
-603,
-304,
304,
-374,
-276,
1954,
-446,
-1859,
237,
1586,
-399,
784,
673,
768,
-799,
-946,
919,
980,
944,
1386,
-1004,
-658,
631,
-1186,
412,
-857,
906,
2759,
735,
-1089,
273,
-1636,
-1707,
-1420,
565,
1974,
-266,
-1146,
907,
-1056,
137,
-79,
-681,
-668,
1506,
-185,
-814,
-1137,
907,
1000,
898,
-1480,
469,
1236,
-1167,
935,
656,
-327,
-2108,
1627,
2094,
-855,
-232,
-287,
1243,
-256,
-849,
-837,
121,
451,
-836,
2033,
-229,
-709,
155,
863,
-883,
585,
105,
1232,
-536,
-663,
558,
935,
292,
701,
2541,
-714,
1046,
-72,
-824,
231,
1372,
941,
2211,
-1549,
-483,
583,
79,
-1975,
-934,
1744,
-1647,
1137,
-443,
176,
2255,
-2008,
1030,
920,
998,
150,
-708,
-353,
-350,
2066,
871,
1569,
-371,
277,
1375,
-599,
-1664,
1397,
-1268,
-1523,
1715,
-3769,
-253,
-197,
14,
389,
434,
-52,
-406,
-136,
-689,
-119,
514,
-764,
483,
539,
-369,
-1693,
762,
823,
-2114,
-514,
539,
-2077,
472,
-74,
-2627,
-391,
1346,
2346,
-666,
-424,
-444,
1225,
-618,
-858,
-53,
-956,
30,
569,
-562,
194,
732,
597,
-286,
1411,
2297,
-522,
-76,
-670,
-465,
-79,
-426,
1956,
-849,
477,
746,
240,
1119,
1234,
-308,
1249,
-553,
-623,
504,
-811,
-544,
-1247,
-530,
588,
-6,
1479,
-928,
-101,
-160,
-451,
-82,
-520,
1221,
-452,
1006,
429,
-71,
1229,
235,
2231,
-409,
-252,
631,
235,
-1515,
-922,
-569,
-1389,
128,
-202,
-465,
630,
790,
180,
428,
-1493,
683,
348,
-1315,
148,
-524,
914,
173,
1415,
-344,
-25,
-495,
-897,
1645,
-39,
12,
-1334,
-685,
556,
400,
-116,
-601,
415,
1503,
1994,
-317,
-812,
-678,
285,
577,
-1936,
538,
-1288,
-1074,
-582,
581,
762,
-30,
-565,
-86,
85,
454,
339,
-316,
-155,
-26,
-261,
820,
687,
123,
-204,
214,
-324,
454,
549,
565,
1765,
99,
-967,
9,
-1446,
-1521,
-548,
653,
-139,
83,
-2108,
-1998,
-1337,
1385,
114,
-934,
1234,
1067,
-65,
-528,
48,
2422,
-408,
-278,
-1636,
-1002,
-696,
-71,
403,
-1489,
-135,
-344,
-492,
-1264,
6,
-882,
-1148,
415,
454,
-710,
1834,
928,
-1010,
146,
2690,
1544,
-615,
-905,
-665,
565,
-1171,
-261,
-10,
-718,
-847,
102,
-493,
231,
-509,
-564,
-770,
113,
-454,
586,
895,
-393,
100,
229,
-1322,
-54,
510,
-1401,
-1867,
442,
-323,
-420,
-253,
28,
389,
-77,
355,
217,
526,
162,
887,
-432,
-579,
-1165,
262,
-434,
-762,
40,
-1422,
-33,
328,
-223,
358,
-618,
-528,
-665,
1911,
-51,
-261,
1987,
1415,
1255,
1989,
-732,
789,
2042,
-1156,
-903,
49,
1477,
392,
-433,
2424,
1958,
829,
-383,
-781,
-472,
-670,
450,
1930,
-357,
2789,
771,
-1212,
895,
493,
-881,
1002,
1407,
-1315,
-763,
511,
-2142,
-429,
1725,
19,
-1249,
660,
-996,
799,
2795,
-1282,
-234,
-1533,
581,
1032,
1538,
382,
720,
883,
-637,
-574,
-401,
980,
1850,
2762,
-611,
-1401,
858,
468,
-540,
-216,
235,
76,
-1397,
980,
-399,
1298,
-289,
-515,
-923,
-931,
-106,
1314,
197,
2476,
-583,
-51,
421,
-480,
779,
2212,
455,
-483,
663,
-106,
-732,
156,
72,
250,
184,
-520,
542,
-960,
-699,
2111,
-837,
-370,
629,
-396,
-378,
429,
-618,
-920,
162,
2289,
-457,
854,
1394,
-980,
-1204,
-223,
68,
46,
-285,
-687,
924,
682,
-2087,
-432,
-208,
-1828,
928,
-190,
882,
-301,
210,
1223,
-1016,
1332,
588,
-1192,
-417,
-1009,
-1276,
-2191,
1698,
-278,
1266,
-603,
-629,
-1837,
-55,
-506,
-1788,
-716,
-864,
-1308,
165,
-989,
-752,
-932,
-35,
-1311,
977,
1408,
-1016,
-884,
-869,
-1340,
110,
368,
-596,
723,
318,
1240,
-920,
169,
-64,
92,
221,
-75,
-309,
71,
62,
-366,
-1310,
614,
490,
-1283,
1334,
-2327,
-291,
-196,
11,
751,
516,
510,
-458,
-163,
42,
-1211,
593,
1464,
-204,
57,
732,
-977,
1303,
999,
-635,
-1635,
-71,
-842,
1179,
807,
-709,
-1355,
-402,
1450,
759,
644,
1260,
1117,
164,
1428,
286,
1119,
1388,
1639,
-933,
-283,
2557,
1992,
-716,
-3266,
358,
991,
662,
-1642,
-775,
-124,
986,
-663,
78,
958,
66,
-484,
994,
-623,
916,
-145,
-485,
-2594,
1299,
-825,
-1355,
-698,
-101,
-13,
-626,
1620,
1123,
227,
625,
543,
-78,
275,
-1040,
-637,
1820,
1958,
-1771,
1319,
878,
365,
511,
-1056,
-1372,
425,
1353,
53,
228,
-1175,
1595,
1331,
-526,
-313,
182,
-1004,
-1087,
238,
-418,
-762,
-670,
16,
253,
-732,
-798,
-1182,
253,
613,
240,
-386,
-197,
975,
-151,
350,
-987,
2423,
1535,
-1081,
550,
-976,
-28,
580,
2466,
-381,
-1062,
564,
86,
-3162,
290,
-1225,
-589,
1522,
1158,
-378,
2486,
19,
-1803,
-2251,
-478,
17,
-676,
-1243,
-578,
217,
1173,
994,
-274,
490,
833,
154,
-608,
-331,
-188,
-31,
357,
-1157,
-894,
607,
1005,
769,
-809,
-776,
624,
-1507,
416,
-1415,
666,
809,
-738,
-112,
-336,
-305,
1909,
507,
-45,
284,
-1598,
-400,
89,
-1629,
-907,
-132,
346,
878,
769,
-489,
-536,
46,
-714,
-358,
374,
1000,
-393,
-1174,
328,
207,
-547,
-511,
312,
107,
-328,
876,
68,
-810,
-1393,
784,
-1866,
-313,
1779,
443,
-2834,
-978,
555,
1056,
1547,
1556,
-1543,
-554,
-449,
1314,
-625,
-1691,
-598,
136,
-34,
-655,
-862,
-875,
897,
873,
803,
-1265,
-1006,
-1044,
519,
-845,
-1442,
451,
-332,
969,
-639,
-151,
-516,
-840,
-499,
881,
0,
1066,
-1121,
-1471,
663,
-264,
-131,
-27,
-47,
85,
-382,
-310,
1007,
2437,
-115,
-1434,
594,
-335,
-2319,
319,
-162,
406,
1484,
2478,
-1653,
-1371,
1423,
-247,
709,
354,
90,
-1098,
162,
-1148,
251,
-284,
1675,
503,
-580,
772,
-1026,
-994,
238,
2404,
-413,
1896,
78,
-631,
-2086,
-1091,
-1019,
-64,
804,
2764,
509,
13,
-32,
-974,
997,
595,
669,
719,
5,
1834,
40,
-263,
-77,
-473,
-60,
1692,
264,
425,
197,
541,
836,
-298,
181,
-1056,
104,
-173,
-407,
-2324,
775,
-574,
-1153,
1271,
-761,
-1256,
459,
-15,
91,
-25,
-526,
514,
408,
-492,
-1211,
-506,
15,
1823,
327,
525,
-1012,
-219,
1342,
-1362,
-1441,
-1057,
835,
-31,
-1307,
615,
886,
372,
-1203,
-105,
-176,
1247,
629,
442,
-524,
435,
-241,
1212,
87,
2024,
-866,
431,
-892,
-1065,
-427,
1111,
-1113,
-584,
-349,
2489,
-428,
1638,
2069,
-232,
845,
225,
12,
-255,
423,
1737,
-291,
-1728,
-593,
-942,
174,
997,
-1165,
586,
278,
-1421,
-1544,
2112,
-158,
731,
581,
1352,
-554,
-158,
2617,
801,
46,
-818,
1907,
-1526,
-701,
1195,
-134,
861,
-578,
-405,
-631,
0,
-341,
464,
856,
-653,
681,
2814,
-680,
4439,
-480,
506,
-482,
-989,
572,
711,
-755,
-1339,
-438,
881,
519,
1404,
-185,
-2178,
-1137,
94,
-2429,
-1554,
-3076,
4367,
-93,
-1225,
255,
1456,
-1971,
-281,
818,
-443,
453,
-1463,
115,
381,
-683,
17,
281,
-907,
42,
207,
364,
873,
-465,
220,
-883,
-308,
208,
-835,
-68,
404,
-557,
-294,
980,
272,
-634,
89,
312,
-994,
-224,
116,
-919,
467,
-425,
-602,
1113,
273,
-646,
-1867,
340,
527,
340,
-938,
-684,
-624,
416,
-82,
-687,
-428,
-968,
-816,
-864,
-79,
-52,
-3,
-438,
3700,
798,
-302,
617,
665,
-679,
-149,
516,
-2369,
-1018,
1358,
-678,
1213,
1647,
-774,
-615,
-1223,
727,
413,
-29,
778,
118,
294,
-38,
-294,
82,
-1102,
-446,
1387,
-104,
-495,
229,
2989,
-411,
-945,
-105,
-345,
-131,
-1358,
1255,
1947,
-892,
-877,
1394,
-440,
307,
-776,
-322,
-215,
-294,
164,
-1009,
-909,
768,
371,
-491,
884,
621,
-354,
1306,
-277,
-191,
-1150,
-538,
-870,
1193,
200,
575,
1156,
107,
-940,
824,
-433,
-1451,
1203,
-237,
-333,
563,
659,
-494,
-806,
1021,
-695,
288,
915,
-540,
821,
-559,
266,
141,
1645,
-2326,
-1166,
2139,
1923,
-714,
779,
-607,
-125,
-275,
-996,
592,
255,
-403,
-639,
665,
1840,
709,
2417,
-393,
-311,
-74,
-1238,
993,
3878,
-110,
-414,
-1675,
564,
-119,
-839,
92,
-578,
155,
627,
-454,
-431,
-491,
-30,
779,
269,
-74,
561,
257,
-1382,
1001,
-478,
146,
-68,
967,
1304,
58,
-661,
165,
-681,
-1041,
-669,
-1001,
559,
227,
99,
-639,
1605,
-594,
110,
-1300,
-469,
-83,
-85,
-351,
-275,
1058,
898,
-706,
-68,
-187,
250,
651,
-1747,
-1051
};

#endif