#ifndef __MMCBLOCK3_MMLAYER6_BRANCH33C_CONV_0_WEIGHT_H__
#define __MMCBLOCK3_MMLAYER6_BRANCH33C_CONV_0_WEIGHT_H__

// MMCBlock3_mmLayer6_branch33c_conv_0_weight
// (3, 3, 6, 6)
const int MMCBlock3_mmLayer6_branch33c_conv_0_weight[] = {
-1080,
-627,
-352,
-1043,
-646,
800,
3793,
729,
-1175,
550,
136,
-78,
366,
731,
-43,
-1007,
-1377,
-838,
517,
3169,
-1580,
-1112,
-212,
-602,
-2476,
-419,
1645,
1106,
-1483,
-974,
-43,
-1365,
-1700,
1000,
286,
-254,
208,
130,
-58,
-421,
115,
-2360,
3597,
-147,
-483,
734,
-1533,
360,
0,
170,
-116,
-1347,
-156,
-217,
-1186,
3310,
-1667,
-918,
-101,
-555,
-1730,
-1442,
-107,
2289,
-375,
2323,
295,
-709,
-1318,
591,
-1659,
-384,
-1166,
-732,
-776,
-1498,
-154,
1561,
3283,
792,
-1113,
974,
-560,
469,
755,
239,
245,
-1227,
-1271,
-1100,
-553,
4444,
-1437,
-1142,
89,
-701,
-1846,
-937,
1205,
1205,
-1051,
-764,
586,
-476,
-877,
909,
346,
358,
-664,
-969,
-454,
-919,
-289,
2152,
1578,
411,
-2080,
887,
1053,
-781,
1065,
-283,
-794,
-760,
-1476,
-397,
-623,
-694,
-1302,
-367,
-169,
-850,
-790,
-76,
990,
-641,
-709,
-91,
-455,
-252,
781,
-142,
474,
721,
-1002,
-432,
430,
-482,
313,
-3506,
-198,
619,
-233,
-189,
-1801,
158,
171,
-811,
-707,
-1737,
-1060,
37,
-699,
-225,
-1462,
198,
-666,
-714,
765,
-628,
-632,
-447,
-325,
770,
-652,
267,
-542,
276,
-1609,
-605,
-848,
-821,
-560,
-900,
-163,
1659,
1672,
58,
-1165,
174,
1085,
-877,
631,
-258,
-978,
-1252,
-2041,
173,
-424,
1470,
-1465,
-711,
-308,
-427,
-1063,
-703,
849,
-782,
-245,
-75,
-549,
154,
580,
-116,
991,
869,
-666,
-141,
-1568,
-566,
-52,
4287,
-326,
-416,
82,
-1692,
3676,
428,
1838,
-96,
-1890,
1198,
1129,
-736,
-457,
-38,
-1415,
-685,
-845,
111,
-1666,
-322,
1574,
-1111,
131,
2007,
-905,
-668,
1940,
-1597,
433,
857,
-754,
-235,
-460,
-728,
163,
3004,
-2117,
109,
1123,
-940,
4370,
2468,
440,
-127,
-1542,
1299,
-257,
-1752,
-460,
-135,
-918,
-492,
-897,
124,
-885,
-30,
985,
-2422,
-586,
-1567,
-1645,
-523,
1714,
-683,
-1155,
-1836,
-999,
-12,
-997,
-869,
-973,
4267,
307,
-425,
19,
-1037,
4093,
240,
1187,
172,
-1650,
1640,
-138,
-631,
-1283,
-713,
-1002,
-665,
-173,
878,
-1657,
-374,
871,
-926,
-809,
1739,
-1422,
-24,
1335,
-1830,
-267,
709
};

#endif