#ifndef __MMCBLOCK4_MMLAYER3_BRANCH33B_CONV_0_WEIGHT_H__
#define __MMCBLOCK4_MMLAYER3_BRANCH33B_CONV_0_WEIGHT_H__

// MMCBlock4_mmLayer3_branch33b_conv_0_weight
// (3, 3, 12, 6)
const int MMCBlock4_mmLayer3_branch33b_conv_0_weight[] = {
-1149,
0,
2689,
0,
458,
-270,
2548,
0,
771,
0,
-61,
-166,
16,
0,
-241,
0,
1423,
-433,
-863,
0,
-808,
0,
-202,
-997,
924,
0,
-824,
0,
-154,
-152,
-1194,
0,
135,
0,
539,
-1227,
-24,
0,
-764,
0,
-344,
-516,
119,
0,
-1356,
0,
480,
107,
287,
0,
-245,
0,
34,
-37,
562,
0,
586,
0,
-143,
18,
1440,
0,
-1215,
0,
471,
-398,
89,
0,
92,
0,
38,
39,
-1008,
0,
2043,
0,
226,
-370,
2647,
0,
1228,
0,
32,
18,
181,
0,
-172,
0,
1742,
-319,
-929,
0,
-825,
0,
-272,
-1193,
636,
0,
-688,
0,
-467,
-9,
-1364,
0,
-33,
0,
271,
-1889,
37,
0,
-208,
0,
-110,
-254,
1381,
0,
-1586,
0,
254,
-145,
-74,
0,
-661,
0,
-179,
608,
1023,
0,
1252,
0,
-457,
-37,
891,
0,
-1333,
0,
947,
-471,
-622,
0,
46,
0,
-6,
331,
-338,
0,
1956,
0,
29,
-330,
2749,
0,
1112,
0,
-88,
57,
242,
0,
239,
0,
1347,
-15,
-960,
0,
-565,
0,
-560,
-1041,
1141,
0,
-1093,
0,
-505,
154,
-1130,
0,
565,
0,
-123,
-1265,
-53,
0,
-530,
0,
112,
-507,
1241,
0,
-1225,
0,
-178,
-229,
-99,
0,
-496,
0,
64,
143,
1518,
0,
907,
0,
-493,
230,
274,
0,
-946,
0,
741,
-399,
-815,
0,
110,
0,
19,
-16,
-727,
0,
-419,
0,
-430,
-375,
-691,
0,
311,
0,
335,
-666,
840,
0,
684,
0,
-88,
-513,
275,
0,
-189,
0,
-172,
-1002,
311,
0,
56,
0,
993,
174,
877,
0,
-84,
0,
-94,
-949,
-571,
0,
48,
0,
-60,
-213,
-633,
0,
-123,
0,
-720,
131,
138,
0,
625,
0,
-65,
-452,
-931,
0,
-450,
0,
-823,
326,
135,
0,
-349,
0,
31,
-36,
-1608,
0,
-606,
0,
-103,
94,
-1362,
0,
-1739,
0,
-583,
-389,
-1516,
0,
-133,
0,
54,
-657,
650,
0,
534,
0,
-668,
-631,
-228,
0,
-289,
0,
-335,
-16,
-101,
0,
171,
0,
-1320,
-63,
580,
0,
61,
0,
-223,
-1912,
-389,
0,
757,
0,
291,
0,
-112,
0,
-332,
0,
-1023,
-109,
486,
0,
675,
0,
315,
-191,
-1023,
0,
-695,
0,
-1062,
831,
-545,
0,
444,
0,
-130,
283,
-2844,
0,
-727,
0,
-91,
852,
-666,
0,
-831,
0,
-605,
-585,
-725,
0,
-269,
0,
55,
-549,
960,
0,
28,
0,
-565,
-508,
57,
0,
-469,
0,
-376,
-745,
59,
0,
42,
0,
-692,
-602,
171,
0,
213,
0,
250,
-1064,
180,
0,
-119,
0,
198,
-612,
388,
0,
-337,
0,
-150,
-300,
304,
0,
532,
0,
370,
5,
-735,
0,
-540,
0,
-250,
507,
293,
0,
358,
0,
-169,
302,
-1857,
0,
-254,
0,
327,
214,
1510,
0,
338,
0,
-183,
394,
313,
0,
106,
0,
214,
385,
-137,
0,
-134,
0,
-270,
419,
-485,
0,
-162,
0,
107,
-638,
74,
0,
-325,
0,
2073,
-242,
284,
0,
674,
0,
627,
2465,
-346,
0,
-719,
0,
25,
191,
-553,
0,
-124,
0,
-93,
-681,
-82,
0,
637,
0,
117,
-265,
-139,
0,
-687,
0,
2411,
-2,
-34,
0,
127,
0,
1053,
-951,
2773,
0,
516,
0,
99,
-210,
1146,
0,
-542,
0,
174,
-133,
180,
0,
-514,
0,
-307,
246,
-512,
0,
-716,
0,
-843,
120,
-635,
0,
-187,
0,
-440,
-451,
-369,
0,
-255,
0,
1285,
-273,
-210,
0,
791,
0,
1103,
4639,
-612,
0,
-714,
0,
43,
-57,
-390,
0,
-181,
0,
1887,
-397,
170,
0,
732,
0,
336,
-579,
-453,
0,
-1121,
0,
2594,
877,
-515,
0,
327,
0,
-679,
-443,
3496,
0,
934,
0,
82,
-173,
1097,
0,
-322,
0,
-56,
-225,
107,
0,
-614,
0,
-118,
93,
-185,
0,
-609,
0,
-605,
94,
-460,
0,
-87,
0,
-337,
-697,
-237,
0,
-267,
0,
851,
-593,
213,
0,
327,
0,
1157,
2537,
-523,
0,
-854,
0,
58,
-221,
218,
0,
-302,
0,
2405,
-990,
-42,
0,
789,
0,
270,
-365,
-251,
0,
-804,
0,
2225,
-186,
-264,
0,
186,
0,
-640,
-499,
2909,
0,
365,
0,
48,
-12
};

#endif