#ifndef __MMCBLOCK3_MMLAYER4_BRANCH33B_CONV_0_WEIGHT_H__
#define __MMCBLOCK3_MMLAYER4_BRANCH33B_CONV_0_WEIGHT_H__

// MMCBlock3_mmLayer4_branch33b_conv_0_weight
// (3, 3, 12, 6)
const int MMCBlock3_mmLayer4_branch33b_conv_0_weight[] = {
1269,
569,
2273,
-1956,
-717,
-2091,
905,
-201,
751,
-110,
-1058,
-340,
867,
-276,
-800,
-999,
-563,
-478,
962,
553,
-295,
309,
-1575,
-643,
400,
383,
17,
-663,
-78,
-1080,
-497,
956,
-1240,
320,
-1535,
-48,
0,
0,
0,
0,
0,
0,
2151,
25,
1179,
-759,
2310,
-1425,
-758,
-1481,
-437,
-46,
-465,
2538,
-1194,
-281,
-665,
1058,
-1004,
648,
-1100,
-1688,
483,
-724,
1080,
-2,
2389,
-1100,
-23,
-936,
-367,
-1184,
2441,
43,
-91,
-903,
-244,
187,
-8,
-130,
-1063,
464,
-429,
288,
-341,
-924,
-381,
-398,
-101,
-188,
-291,
-110,
-1182,
1584,
900,
-899,
1599,
587,
694,
-1252,
286,
114,
1397,
-331,
512,
1243,
-1316,
24,
0,
0,
0,
0,
0,
0,
1698,
36,
1125,
-162,
811,
-916,
-854,
46,
-702,
751,
-572,
379,
-1244,
778,
-1418,
1833,
803,
105,
-319,
-652,
1319,
179,
-1080,
-125,
-1265,
-523,
-902,
-422,
-36,
-1357,
117,
-1635,
684,
-615,
-595,
2598,
-843,
-419,
-241,
-682,
199,
-68,
-570,
-440,
-84,
55,
-696,
-6,
-657,
-243,
-1219,
1776,
2195,
-1474,
1562,
278,
-88,
-419,
-734,
391,
123,
-1786,
-982,
542,
970,
-8,
0,
0,
0,
1,
0,
0,
755,
794,
946,
-196,
-1412,
42,
-1755,
781,
-1267,
2865,
-873,
-2183,
-972,
444,
-1012,
1100,
335,
-1488,
-78,
1171,
1367,
-997,
-1734,
-399,
-1442,
-948,
-141,
1294,
-469,
-820,
112,
-412,
1879,
-921,
-876,
-1558,
502,
-1260,
2466,
-60,
2,
-50,
1144,
-295,
390,
-452,
-158,
478,
679,
748,
-4,
-547,
-838,
629,
1230,
490,
-40,
-539,
134,
-994,
178,
2871,
-820,
142,
-1588,
-402,
0,
0,
0,
0,
0,
0,
2489,
-610,
1379,
-869,
586,
-832,
-211,
343,
-1167,
1920,
-53,
1697,
-690,
-160,
-539,
901,
-1046,
1046,
-864,
-2236,
-19,
-651,
2220,
-502,
2194,
188,
1170,
-682,
-401,
-709,
-434,
403,
-854,
-989,
273,
311,
-66,
-148,
-312,
229,
-64,
281,
-1206,
-10,
-729,
-874,
330,
660,
-597,
531,
-625,
-845,
562,
599,
1483,
-242,
1603,
-970,
266,
28,
585,
19,
279,
159,
-321,
-555,
0,
0,
0,
0,
0,
0,
-49,
287,
-55,
-571,
478,
539,
-197,
261,
-1130,
166,
331,
259,
-116,
31,
-916,
1571,
29,
-196,
11,
-96,
209,
355,
-291,
-49,
-849,
526,
351,
-394,
339,
203,
654,
85,
2123,
-255,
122,
1376,
-595,
446,
431,
-238,
-268,
485,
-404,
-972,
-1208,
1073,
41,
457,
-599,
-413,
-874,
2035,
397,
-441,
721,
-489,
370,
-440,
-632,
1389,
-662,
-2220,
-691,
-530,
2461,
-819,
0,
-1,
0,
1,
0,
0,
272,
645,
110,
-502,
-987,
940,
-1310,
-1108,
-1060,
1642,
-780,
-1493,
-1211,
-59,
-179,
743,
196,
-1041,
-231,
2802,
-34,
-526,
-1476,
-180,
-1171,
115,
1220,
2586,
-221,
-203,
315,
-1180,
295,
-1523,
-1091,
-896,
707,
-1426,
2839,
-104,
-225,
82,
879,
-756,
-316,
909,
263,
1335,
120,
-84,
1049,
-36,
94,
-787,
661,
-21,
-582,
-1264,
661,
-306,
-191,
1358,
-1492,
-1340,
-1060,
-506,
0,
0,
-1,
0,
0,
0,
1816,
-437,
467,
-522,
-825,
183,
-770,
1347,
-2564,
3141,
929,
277,
-580,
-835,
-36,
619,
-1117,
-271,
-319,
-1771,
-844,
-287,
454,
-17,
1502,
-265,
351,
-420,
-630,
-7,
1801,
-261,
1551,
-797,
-166,
-671,
-390,
139,
355,
-190,
504,
-41,
-24,
-238,
-35,
-752,
-59,
722,
-608,
-304,
610,
-1320,
-820,
63,
181,
-516,
-473,
-56,
-706,
-701,
333,
-609,
614,
-1542,
-59,
108,
0,
0,
0,
0,
0,
0,
-316,
-340,
-2295,
-21,
-520,
-24,
-1098,
-170,
-1314,
2525,
-114,
-543,
-182,
-224,
-280,
-130,
-748,
-49,
-577,
-836,
-970,
489,
-132,
-361,
-185,
484,
-593,
-982,
406,
291,
2808,
1483,
3313,
-1715,
875,
-173,
-764,
819,
386,
-1571,
476,
129,
1416,
-720,
954,
626,
259,
1011,
-415,
-521,
-250,
1117,
-999,
-67,
531,
-735,
-416,
354,
-1343,
6,
-63,
-1536,
324,
-697,
764,
72,
0,
-1,
0,
0,
0,
0,
434,
136,
-939,
581,
-494,
-369,
-1757,
-1624,
-1590,
1164,
-1112,
-1000,
-1109,
391,
-168,
61,
415,
-291,
-974,
1783,
-1221,
-358,
-1116,
-520,
-638,
90,
312,
661,
-660,
-521
};

#endif