#ifndef __MMCBLOCK3_MMLAYER4_BRANCH33C_CONV_0_WEIGHT_H__
#define __MMCBLOCK3_MMLAYER4_BRANCH33C_CONV_0_WEIGHT_H__

// MMCBlock3_mmLayer4_branch33c_conv_0_weight
// (3, 3, 6, 6)
const int MMCBlock3_mmLayer4_branch33c_conv_0_weight[] = {
1697,
-1530,
4,
-1233,
791,
2971,
-161,
-1234,
3416,
1178,
-2242,
1526,
1419,
706,
-979,
-755,
1958,
1746,
-1308,
-1866,
-289,
-1968,
20,
-263,
-1054,
1290,
-1217,
56,
3043,
117,
-2612,
1781,
222,
-1094,
-1155,
-1149,
212,
-140,
-842,
-1518,
355,
2478,
1443,
-2855,
3844,
-376,
-1310,
1070,
-176,
-12,
-105,
-654,
1129,
1973,
-228,
-706,
-795,
-1066,
993,
3059,
-145,
577,
-1082,
-203,
1638,
1327,
-1488,
1633,
-1633,
-1968,
-3271,
-1677,
-1402,
-1084,
-1907,
-2745,
-6,
-135,
80,
-2259,
2978,
894,
-2323,
1807,
-1462,
-635,
1413,
-855,
-653,
554,
1880,
-589,
-869,
-1010,
2121,
3213,
-676,
220,
-423,
139,
2386,
-428,
-2055,
2155,
-457,
-1323,
-1204,
-358,
71,
-219,
788,
-807,
-71,
423,
414,
-1063,
-2333,
864,
-1182,
764,
307,
1023,
-838,
-1302,
-500,
-216,
-1935,
-2133,
729,
-168,
700,
-1671,
-205,
-1583,
-585,
-173,
56,
182,
-981,
-117,
943,
-772,
-498,
-474,
-1007,
425,
236,
-741,
-164,
-155,
-1023,
-2220,
-1210,
-586,
948,
-866,
-1144,
-752,
-845,
-574,
-318,
-618,
-1186,
0,
-51,
-1393,
-310,
-47,
541,
-1437,
-1301,
-638,
-1457,
2198,
1355,
769,
134,
400,
-276,
395,
-1584,
-998,
-509,
-248,
312,
-1020,
388,
-1050,
-1955,
645,
-901,
714,
-1014,
-2160,
623,
588,
131,
-924,
807,
1153,
-669,
-1472,
-311,
926,
-418,
-761,
-585,
-847,
442,
-564,
-1352,
-918,
1270,
-282,
-1081,
92,
2400,
-1019,
-1031,
-1490,
-644,
-1213,
881,
4499,
-3787,
446,
-291,
2687,
2595,
-934,
150,
-2488,
-1525,
-1340,
-2479,
2150,
-479,
3075,
54,
-2319,
328,
-1384,
3298,
88,
630,
-1985,
-2681,
-1971,
-573,
1559,
572,
-150,
760,
831,
-1156,
-32,
-459,
-794,
-1358,
7904,
-2543,
-783,
1080,
2270,
1017,
-204,
-830,
-857,
-945,
-1913,
286,
-496,
-1717,
-1150,
-1418,
-2677,
-194,
-977,
4858,
-32,
598,
-323,
-142,
844,
-1289,
1969,
1880,
648,
-1434,
986,
-417,
1590,
447,
-582,
1346,
4598,
-2619,
848,
55,
1798,
-1133,
315,
585,
2781,
352,
-1692,
3507,
-429,
-215,
-2089,
-1705,
-1351,
-36,
-1829,
4187,
275,
622,
-1756,
-2646,
-1696,
-1074,
1709,
711,
-545
};

#endif