#ifndef __MMCBLOCK3_MMLAYER5_BRANCH33C_CONV_0_WEIGHT_H__
#define __MMCBLOCK3_MMLAYER5_BRANCH33C_CONV_0_WEIGHT_H__

// MMCBlock3_mmLayer5_branch33c_conv_0_weight
// (3, 3, 6, 6)
const int MMCBlock3_mmLayer5_branch33c_conv_0_weight[] = {
-292,
-665,
0,
-78,
3526,
-625,
-260,
-1317,
0,
2548,
-735,
666,
-966,
-783,
0,
-418,
3647,
550,
-967,
-1511,
0,
-12,
400,
1625,
832,
1220,
0,
-603,
550,
-390,
574,
368,
0,
702,
770,
-181,
-151,
726,
0,
284,
962,
-1391,
-2251,
-2848,
0,
2062,
352,
-193,
-1452,
-1853,
0,
379,
3573,
-185,
806,
-1133,
0,
-584,
-981,
-830,
2573,
4219,
0,
-1210,
-459,
59,
1732,
1493,
0,
1031,
-924,
-680,
-292,
-595,
0,
-21,
2929,
-1028,
-561,
-1494,
0,
2524,
-745,
571,
-222,
-853,
0,
-312,
2557,
-146,
-886,
-1210,
0,
672,
285,
1163,
538,
1666,
0,
-366,
362,
-707,
285,
366,
0,
-228,
1418,
-329,
-310,
118,
0,
-123,
-1120,
-779,
1173,
-945,
0,
833,
-396,
1044,
-359,
781,
0,
-441,
978,
517,
324,
405,
0,
1656,
302,
782,
-726,
-1344,
0,
309,
-115,
-791,
-724,
-1490,
0,
-459,
-659,
1518,
-667,
213,
0,
812,
-1883,
-323,
-313,
67,
0,
-656,
50,
534,
-1152,
-690,
0,
254,
-627,
1086,
-638,
282,
0,
712,
-823,
-986,
889,
-204,
0,
226,
-303,
-669,
534,
-785,
0,
74,
-1298,
-1147,
-221,
-457,
0,
-428,
-211,
-319,
750,
-885,
0,
2435,
-478,
596,
207,
429,
0,
-173,
401,
658,
-360,
275,
0,
1875,
765,
642,
-126,
-1826,
0,
-122,
128,
-718,
-702,
-681,
0,
-589,
-693,
1185,
-20,
200,
0,
48,
-811,
50,
-79,
-170,
0,
4280,
287,
1177,
39,
77,
0,
345,
-322,
-906,
1731,
-1307,
0,
2102,
-828,
-977,
-1234,
-71,
0,
703,
457,
1698,
-1962,
1200,
0,
287,
1234,
2419,
-602,
-876,
0,
-360,
-866,
-374,
80,
510,
0,
5013,
1321,
166,
-291,
124,
0,
-340,
-472,
-955,
719,
-577,
0,
3030,
-1098,
-2068,
62,
878,
0,
-563,
-386,
1527,
-1294,
2205,
0,
-751,
389,
1706,
-300,
-572,
0,
123,
-141,
591,
218,
-744,
0,
4762,
-23,
1030,
696,
356,
0,
-1265,
278,
-1169,
2275,
-1293,
0,
1311,
-237,
-1591,
-948,
-856,
0,
293,
312,
1927,
-2288,
2085,
0,
501,
896,
2560
};

#endif