#ifndef __MMCBLOCK1_MMLAYER3_BRANCH33A_CONV_0_WEIGHT_H__
#define __MMCBLOCK1_MMLAYER3_BRANCH33A_CONV_0_WEIGHT_H__

// MMCBlock1_mmLayer3_branch33a_conv_0_weight
// (3, 3, 12, 12)
const int MMCBlock1_mmLayer3_branch33a_conv_0_weight[] = {
-275,
516,
-6,
-296,
-528,
-132,
-652,
478,
-27,
-662,
8,
-80,
1003,
7,
-390,
-828,
-935,
-638,
-908,
-1055,
752,
928,
1588,
5,
2497,
-227,
828,
1569,
755,
-1363,
-700,
-1832,
923,
1471,
2186,
-2183,
240,
-201,
79,
14,
-689,
-599,
753,
531,
-229,
1119,
46,
613,
-1437,
-1191,
-505,
1277,
-38,
-807,
599,
80,
-764,
-2,
83,
-735,
1899,
217,
314,
-416,
-746,
-1426,
-313,
-177,
601,
828,
946,
1462,
-605,
806,
202,
-329,
-691,
2204,
446,
1694,
-1923,
-391,
-2679,
626,
-2497,
-1481,
290,
1640,
1219,
1570,
-1420,
-527,
-753,
-366,
-1763,
-1371,
1123,
-504,
-652,
1463,
-23,
-2242,
-885,
-741,
741,
834,
1747,
-1422,
-369,
-319,
-30,
-461,
-862,
-1288,
391,
-285,
-462,
-780,
-442,
511,
-1191,
-1691,
677,
-1458,
863,
-95,
-619,
-1962,
-977,
-700,
-276,
480,
1331,
1029,
-908,
-540,
-419,
-1138,
-2393,
150,
754,
40,
-402,
553,
-71,
757,
-187,
389,
-164,
-294,
-687,
374,
97,
-236,
140,
11,
-549,
465,
-64,
-1726,
-1251,
-750,
-762,
300,
1062,
2277,
315,
2791,
-528,
-57,
-2011,
-951,
827,
-829,
872,
876,
2820,
14,
400,
-277,
-853,
-180,
845,
-1648,
-350,
-851,
482,
-2,
213,
491,
358,
1664,
47,
-953,
-358,
2840,
-333,
-370,
1154,
205,
-37,
-1185,
1004,
-886,
-1737,
2026,
729,
-2809,
-1097,
-1921,
-764,
-873,
-149,
3177,
242,
2927,
2170,
481,
723,
2392,
-427,
1293,
-105,
355,
-1698,
1107,
501,
-1583,
2154,
-1350,
-936,
6090,
2339,
1556,
616,
-259,
57,
-764,
-652,
-2805,
-3762,
-339,
-2146,
-583,
-172,
-68,
355,
-262,
855,
-1788,
-1786,
771,
-1299,
47,
271,
-668,
-221,
-227,
396,
144,
-798,
126,
-1472,
812,
910,
-1566,
-2443,
-1445,
564,
-72,
-145,
-143,
-1263,
-907,
-1532,
1253,
-2213,
1853,
1464,
-1944,
-1119,
-1661,
-2580,
178,
810,
636,
507,
2194,
-284,
282,
108,
168,
-205,
-617,
-574,
323,
288,
-316,
421,
-186,
129,
210,
2029,
1021,
-1130,
92,
-639,
1206,
-1317,
1966,
-509,
1202,
103,
310,
-245,
-972,
-107,
-1251,
-107,
1432,
653,
557,
54,
310,
883,
184,
88,
75,
-731,
-745,
1313,
444,
-294,
1656,
238,
665,
-747,
-596,
-269,
763,
-348,
-266,
-164,
264,
598,
-273,
-856,
-357,
1863,
-161,
616,
1889,
-1645,
555,
1004,
-594,
-2096,
2122,
322,
1301,
-724,
177,
146,
-997,
-532,
-601,
-679,
-2063,
263,
338,
222,
-1216,
-1126,
-712,
-583,
-97,
2864,
-198,
-853,
-613,
2360,
-1271,
-1071,
-1846,
938,
196,
1722,
1903,
-323,
159,
-768,
905,
-2172,
18,
-1038,
276,
1500,
-633,
1713,
3057,
-1072,
703,
-991,
542,
-1611,
566,
99,
-470,
-1539,
-1744,
-443,
-2439,
575,
593,
480,
-13,
150,
-181,
75,
245,
1298,
972,
173,
663,
-927,
-1235,
-2522,
-125,
-1393,
894,
166,
476,
-130,
722,
-111,
1028,
136,
365,
-455,
101,
178,
-3105,
-630,
-1838,
-1559,
-325,
-866,
-417,
33,
-1115,
54,
-778,
14,
-727,
1077,
-1038,
-1345,
-918,
2158,
-588,
955,
-2752,
-1242,
-3071,
-835,
750,
3174,
-292,
-1588,
-1738,
-248,
382,
-350,
-671,
-729,
176,
-43,
-446,
451,
764,
419,
-341,
1421,
-590,
1424,
753,
361,
-471,
-302,
-1536,
-1608,
608,
-2267,
-505,
-2002,
900,
-734,
-1441,
1537,
-215,
567,
1128,
2221,
-781,
3101,
-113,
-2488,
158,
-743,
3477,
222,
4013,
1355,
-878,
-2023,
1242,
3254,
988,
1207,
-1821,
-864,
602,
231,
603,
-43,
-661,
-1015,
219,
-2927,
613,
1682,
-895,
671,
-2162,
192,
-741,
-540,
894,
2026,
-488,
-14,
5,
-1101,
98,
330,
809,
421,
-2,
-488,
-97,
-936,
-48,
-357,
-1051,
1085,
-1351,
-959,
1319,
-1060,
-1288,
216,
-14,
-297,
-898,
-2014,
-1259,
-242,
2098,
-129,
-367,
903,
568,
-889,
-202,
-127,
-445,
1040,
739,
-650,
1597,
214,
-26,
-232,
58,
222,
-1922,
-348,
-2014,
1726,
-1931,
-1843,
495,
-297,
455,
1593,
296,
23,
-1184,
-210,
99,
1790,
-53,
-1601,
952,
1726,
159,
725,
418,
-475,
764,
-80,
696,
2186,
-2446,
-477,
-1176,
-412,
-597,
-163,
26,
-434,
-1514,
44,
712,
964,
775,
-159,
1163,
251,
61,
-710,
384,
604,
-1638,
384,
-402,
2606,
-2360,
-373,
7,
-889,
-89,
3515,
-135,
-310,
-1297,
-39,
257,
-2814,
-23,
3423,
-1014,
-186,
-685,
-502,
-1287,
999,
101,
1135,
667,
-4464,
2845,
1202,
-963,
69,
-769,
-2040,
307,
106,
3325,
139,
-559,
3152,
-31,
-2975,
849,
140,
1123,
309,
577,
536,
-76,
-1346,
-319,
505,
23,
-1590,
-1177,
-532,
1906,
53,
1442,
263,
-61,
-1310,
413,
493,
-289,
-97,
-2252,
-106,
-798,
-1453,
-710,
-62,
1526,
-780,
-292,
2498,
-2618,
-2051,
3691,
-733,
739,
4502,
1011,
-556,
-2772,
-246,
-1745,
-1350,
343,
-432,
-11,
282,
-95,
-382,
15,
545,
-2493,
-360,
-909,
-1807,
-445,
-164,
-1147,
-414,
578,
493,
1109,
-673,
-588,
-937,
-132,
-32,
-51,
-1413,
1179,
733,
-49,
488,
2325,
-1379,
-536,
1119,
-175,
-1039,
-2009,
26,
335,
-701,
-160,
-692,
343,
-696,
195,
631,
982,
200,
159,
-1318,
-373,
671,
365,
-861,
279,
1629,
-1442,
165,
246,
-1505,
-637,
930,
247,
-762,
1522,
1721,
-104,
-1033,
-291,
-1082,
386,
184,
-627,
357,
-1169,
-328,
-1318,
-658,
-2392,
513,
1302,
-356,
-80,
1706,
347,
-1389,
-267,
-317,
-2340,
-43,
107,
136,
1233,
839,
-1114,
-621,
869,
769,
646,
163,
-899,
-362,
430,
-571,
-1324,
1159,
54,
-268,
-510,
2304,
-858,
-539,
1293,
-1174,
300,
480,
-1167,
1338,
252,
-107,
-1515,
-1231,
-1686,
-29,
-555,
-1113,
-297,
-44,
393,
-532,
-724,
-2252,
-772,
-115,
-718,
-775,
666,
1308,
-197,
203,
-1528,
-244,
-541,
417,
731,
692,
-127,
54,
114,
-1531,
361,
19,
-1351,
-148,
-429,
1032,
-465,
1136,
485,
1225,
43,
-1220,
203,
-641,
-1387,
-764,
-747,
3224,
-389,
2613,
-119,
-1165,
-487,
350,
-2939,
-707,
-1808,
-181,
615,
-541,
-681,
-24,
-101,
-592,
-579,
-216,
353,
84,
259,
316,
218,
1576,
2767,
1545,
-311,
-41,
1140,
-417,
-925,
-208,
299,
-2043,
-720,
-363,
-894,
-1278,
-504,
1490,
-511,
-1681,
1005,
9,
60,
443,
-589,
-2471,
-339,
-3037,
-577,
1114,
-553,
81,
2779,
1733,
2576,
143,
-512,
-750,
315,
829,
-1057,
-1829,
-1378,
1559,
599,
-239,
148,
1037,
1063,
3097,
-469,
3233,
-526,
-1459,
-147,
750,
-381,
-1273,
-896,
-851,
312,
270,
695,
-570,
191,
743,
272,
-171,
463,
-16,
162,
-427,
-666,
-2020,
259,
-626,
-1203,
-559,
-1194,
1118,
1380,
-595,
-1218,
852,
-1649,
1532,
169,
929,
-1323,
80,
1618,
-147,
-464,
-524,
-283,
-873,
-770,
-1489,
1040,
498,
-33,
-8,
342,
-1721,
76,
143,
750,
57,
-518,
-817,
-223,
-616,
457,
1200,
714,
-509,
206,
-671,
-502,
-797,
-402,
-2422,
1677,
711,
1675,
-808,
2637,
-263,
-171,
-1545,
1281,
-2489,
-2,
-315,
-545,
-477,
341,
-313,
-334,
-868,
386,
-262,
-276,
119,
292,
-1402,
4442,
-85,
-833,
535,
817,
-1829,
247,
403,
2371,
57,
-1120,
-541,
-2464,
-49,
877,
1304,
-49,
-190,
-520,
101,
-1389,
108,
-958,
3501,
-664,
999,
-635,
-150,
-1549,
993,
-958,
1921,
-549,
522,
304,
-158,
8,
-357,
-1346,
-1914,
-627,
2238,
-228,
117,
-1685,
703,
1730,
-2899,
254,
-1659,
-736,
-334,
1778,
70,
1241,
-1192,
2244,
-1165,
-698,
-1501,
626,
-1999,
-335,
561,
-56,
259,
1882,
667,
1983,
51,
-488,
1713,
114,
212,
-536,
182,
-965,
1980,
3,
-299,
-2898,
-100,
-1978,
-1087,
760,
1225,
-1514,
1152,
-144,
-800,
-344,
-324,
3854,
462,
-665,
1934,
286,
61,
-355,
19,
315,
-925,
9,
119,
-983,
-677,
-841,
109,
188,
-888,
294,
1223,
540,
-837,
168,
-347,
-366,
-512,
-376,
289,
1254,
-659,
-134,
-751,
794,
475,
1078,
-1511,
-53,
-623,
-312,
92,
-602,
-35,
1197,
-563,
-320,
-756,
564,
-123,
-720,
445,
-3,
1207,
1978,
-854,
-1078,
914,
-1523,
-155,
474,
795,
690,
965,
-1940,
-1540,
-1448,
414,
80,
323,
-160,
-1099,
-1197,
96,
-692,
-909,
-185,
-862,
-100,
855,
947,
-68,
613,
1126,
-2306,
-195,
-621,
764,
503,
-220,
508,
-413,
-832,
-1056,
300,
1510,
-206,
-1583,
127,
484,
1039,
1235,
-1424,
-778,
-936,
-488,
-2006,
273,
225,
653,
-599,
2603,
210,
2081,
-205,
1189,
-1460,
0,
-1139,
-41,
597,
2271,
-752,
1378,
-583,
-771,
801,
163,
-1282,
-197,
-273,
8,
-21,
-894,
-2229,
145,
-2161,
520,
-186,
-896,
-619,
309,
-993,
-761,
-851,
-370,
541,
1182,
-1328
};

#endif