#ifndef __MMCBLOCK4_MMLAYER3_BRANCH33A_CONV_0_WEIGHT_H__
#define __MMCBLOCK4_MMLAYER3_BRANCH33A_CONV_0_WEIGHT_H__

// MMCBlock4_mmLayer3_branch33a_conv_0_weight
// (3, 3, 12, 12)
const int MMCBlock4_mmLayer3_branch33a_conv_0_weight[] = {
20,
631,
117,
477,
-356,
-12,
646,
-77,
-334,
-520,
-181,
-1278,
-762,
352,
377,
-196,
1960,
-508,
277,
-764,
-235,
372,
1801,
241,
286,
-242,
813,
146,
-1008,
426,
-754,
-1190,
-443,
-127,
1639,
241,
81,
76,
-87,
-198,
-817,
759,
50,
-59,
200,
-696,
-423,
684,
430,
-427,
229,
-354,
46,
-234,
296,
833,
814,
711,
-879,
296,
348,
-896,
-495,
-555,
-611,
325,
-547,
-1140,
-344,
-708,
-667,
112,
-325,
10,
-679,
-48,
-99,
-1057,
-526,
-805,
263,
-310,
1152,
-514,
287,
1106,
-107,
-565,
-143,
-610,
-330,
-642,
587,
90,
-815,
-77,
-196,
-824,
1724,
-325,
-115,
216,
-398,
45,
3,
-244,
-139,
-599,
234,
1115,
205,
-820,
-1080,
232,
-1117,
356,
-642,
269,
-164,
-1272,
1121,
97,
363,
948,
1039,
325,
71,
-80,
-182,
763,
-481,
-368,
-24,
312,
0,
765,
-896,
-636,
301,
-14,
-61,
-117,
-134,
-33,
59,
704,
73,
700,
103,
195,
547,
570,
-412,
-237,
571,
-1499,
-626,
601,
385,
-63,
1788,
-178,
537,
2260,
-398,
607,
1230,
76,
848,
-219,
665,
432,
-336,
735,
-602,
754,
-604,
-317,
1121,
721,
-173,
-325,
224,
0,
-274,
856,
-145,
-593,
-128,
-552,
-214,
734,
457,
-365,
205,
-549,
760,
-202,
165,
-137,
307,
1076,
-657,
508,
384,
-880,
-701,
-307,
-1021,
7,
-840,
-951,
-260,
-636,
-263,
-112,
-416,
132,
-345,
-19,
-111,
-1063,
-490,
522,
-1,
-418,
456,
-192,
562,
493,
182,
-308,
-119,
-696,
212,
-657,
514,
217,
-863,
-78,
100,
-544,
1635,
-351,
313,
-199,
-463,
67,
132,
-364,
-100,
-931,
593,
1038,
-115,
-487,
-569,
85,
-915,
-663,
-899,
537,
-518,
-1101,
1128,
-413,
0,
1028,
402,
280,
230,
165,
-287,
983,
-782,
-338,
-119,
-31,
-33,
691,
-619,
-910,
-70,
-397,
-134,
-136,
-28,
-55,
-66,
377,
-96,
820,
-17,
55,
707,
-272,
-282,
-565,
-138,
-1237,
-655,
82,
256,
-495,
-180,
-629,
67,
2348,
-245,
555,
-1060,
291,
483,
-544,
600,
35,
-1037,
478,
-731,
928,
-217,
-129,
-678,
536,
-21,
-246,
72,
30,
110,
637,
167,
-1558,
77,
-640,
205,
806,
396,
-136,
277,
-374,
945,
-239,
97,
-846,
501,
627,
253,
242,
493,
-747,
-705,
-368,
-982,
310,
-871,
-227,
-432,
-621,
-802,
245,
-397,
-207,
-586,
-144,
-495,
-970,
-395,
175,
384,
-231,
-392,
-117,
215,
1290,
124,
-295,
-318,
-576,
-261,
-854,
480,
76,
-667,
-195,
0,
-717,
1856,
-308,
-126,
56,
-371,
-369,
21,
-211,
130,
-649,
209,
1171,
-9,
-529,
-68,
111,
-910,
-1003,
-824,
529,
-180,
-861,
1012,
-133,
7,
870,
-385,
177,
-209,
569,
-488,
913,
-754,
-503,
-96,
93,
-66,
885,
0,
-629,
308,
-822,
2,
-81,
-85,
51,
77,
883,
323,
530,
65,
-36,
748,
517,
-78,
452,
-122,
-1125,
-315,
86,
-234,
-190,
1504,
-715,
223,
-1404,
6,
195,
-132,
817,
-330,
-219,
-249,
572,
1454,
534,
322,
-922,
152,
258,
784,
-19,
-318,
188,
-172,
-955,
-986,
-344,
-99,
-163,
117,
-438,
1010,
-361,
-186,
-1244,
202,
-380,
-698,
-861,
-1171,
-201,
576,
-355,
-47,
579,
388,
-464,
-524,
782,
-427,
253,
-80,
-662,
-300,
-878,
-153,
-500,
-149,
-291,
455,
490,
57,
-830,
273,
-995,
266,
-7,
1461,
-505,
1191,
-49,
319,
-324,
-95,
618,
-223,
-1016,
-184,
37,
10,
546,
127,
-386,
595,
581,
-571,
68,
-334,
1010,
-268,
333,
-52,
-791,
-548,
-255,
-184,
-21,
-807,
-453,
-1138,
1040,
-335,
232,
954,
842,
1058,
758,
-465,
638,
174,
31,
-491,
-487,
595,
-38,
-127,
-199,
-683,
175,
371,
-33,
-431,
-794,
-479,
-249,
23,
-807,
401,
-999,
-48,
-189,
572,
189,
432,
219,
470,
378,
-22,
111,
28,
-980,
262,
-82,
-597,
427,
460,
53,
60,
-345,
-207,
-108,
-959,
-530,
-143,
913,
-896,
-297,
430,
790,
-33,
672,
-132,
-125,
49,
828,
-15,
154,
53,
-658,
-421,
-339,
-338,
-116,
578,
-457,
289,
-253,
-555,
202,
-73,
-514,
47,
-238,
-992,
-228,
-56,
-257,
-190,
1188,
-110,
-141,
159,
-211,
200,
114,
-743,
327,
-281,
693,
780,
517,
261,
554,
545,
190,
-446,
352,
-732,
303,
121,
-473,
-102,
55,
171,
-1203,
249,
-124,
335,
199,
1047,
755,
-264,
-247,
543,
291,
-534,
133,
-1288,
-603,
-18,
416,
-171,
-486,
-530,
-193,
-263,
-410,
74,
-522,
413,
685,
690,
551,
-170,
609,
-91,
21,
627,
-1068,
-559,
557,
-509,
-320,
-402,
-397,
358,
-803,
-523,
-399,
-57,
213,
-352,
-892,
185,
108,
-483,
-561,
-317,
164,
904,
-480,
301,
-791,
280,
516,
24,
233,
337,
201,
829,
-169,
-5,
392,
473,
-1081,
-471,
-10,
-311,
-110,
-606,
-650,
248,
502,
198,
279,
-961,
886,
-405,
-321,
-234,
469,
-923,
656,
344,
2397,
319,
193,
-664,
236,
-562,
79,
84,
-977,
-24,
-395,
-335,
35,
127,
-385,
-167,
-200,
-289,
-1239,
245,
-172,
78,
-768,
-887,
-292,
724,
-350,
195,
827,
546,
-483,
-477,
607,
-1142,
357,
81,
-135,
-112,
-739,
-443,
-326,
-149,
-266,
495,
434,
-966,
-657,
141,
1699,
205,
-174,
-100,
-543,
1116,
-243,
333,
-222,
-807,
919,
-484,
462,
-309,
-92,
-568,
825,
-62,
-38,
549,
501,
411,
130,
-515,
-734,
-315,
247,
642,
-957,
-167,
-129,
-188,
32,
848,
-583,
-1197,
219,
-694,
204,
675,
507,
717,
401,
-384,
315,
-410,
197,
-604,
-324,
732,
162,
-206,
-340,
-894,
84,
333,
-126,
-524,
-687,
-417,
122,
346,
-564,
-4,
-1022,
569,
451,
-44,
-987,
-575,
-384,
-217,
383,
284,
601,
-631,
325,
151,
-45,
-574,
-455,
-450,
-423,
175,
-1005,
80,
-214,
-456,
749,
-638,
-463,
-582,
94,
2139,
-160,
892,
-1061,
533,
4,
-811,
-323,
-254,
-40,
-118,
-387,
462,
-1264,
-253,
-428,
-785,
714,
1534,
-316,
-502,
-503,
187,
928,
-19,
-815,
167,
-287,
311,
-828,
369,
-409,
-56,
-159,
-93,
134,
-738,
-334,
707,
-177,
140,
-966,
-231,
-1154,
894,
-322,
140,
480,
919,
455,
1174,
-309,
12,
533,
543,
441,
855,
-1079,
275,
82,
828,
778,
-696,
-905,
-526,
108,
-4,
265,
-245,
596,
-602,
1258,
-1178,
-122,
346,
1312,
269,
1127,
-770,
-209,
-350,
-1152,
-471,
184,
-681,
-1065,
202,
844,
-89,
-256,
226,
1590,
-354,
300,
-275,
-218,
243,
46,
-763,
267,
1293,
-374,
186,
-110,
-904,
683,
638,
-1191,
506,
855,
-230,
536,
-556,
-165,
-331,
-550,
615,
361,
40,
-908,
416,
-53,
83,
-35,
-10,
878,
-517,
766,
99,
-298,
-699,
-174,
-896,
-339,
210,
-1353,
-8,
-9,
-684,
1057,
-494,
-600,
-579,
-368,
884,
-376,
958,
-155,
350,
142,
-379,
-536,
124,
-263,
-371,
5,
-147,
-1314,
-181,
1274,
-902,
893,
1072,
-592,
-622,
-352,
-32,
881,
179,
-614,
850,
-247,
299,
-385,
140,
-267,
-75,
-349,
-286,
601,
-752,
-488,
194,
-933,
254,
-827,
16,
-1200,
956,
116,
267,
756,
430,
879,
1577,
354,
-539,
760,
351,
298,
880,
-1488,
-161,
613,
-180,
1509,
-775,
174,
-740,
395,
53,
-63,
-159,
250,
-1010,
1572,
-94,
287,
-142,
-310,
36,
941,
-344,
-55,
78,
-1506,
-524,
226,
381,
-1406,
567,
535,
-33,
192,
356,
1667,
-786,
42,
-419,
-419,
-281,
140,
-580,
345,
1242,
-344,
162,
-194,
-913,
298,
749,
-1209,
343,
1421,
-139,
-129,
-657,
127,
-74,
-370,
812,
572,
-143,
-1289,
1169,
-429,
-91,
-583,
-76,
612,
0,
45,
377,
-34,
-523,
-443,
-724,
-141,
341,
-693,
229,
-372,
-833,
798,
-429,
-448,
-157,
31,
-611,
-395,
979,
80,
706,
271,
-407,
-423,
-201,
-431,
-138,
-429,
-68,
-1373,
-396,
2366,
-827,
797,
49,
-586,
-341,
-573,
288,
679,
1,
-872,
44,
-287,
609,
-974,
85,
-535,
-126,
-3,
-45,
296,
-672,
-121,
724,
-1241,
224,
-937,
-90,
-909,
781,
-339,
90,
433,
74,
535,
1212,
1236,
-343,
603,
-573,
432,
1046,
-1190,
135,
223,
-675,
967,
-579,
770,
-576,
1,
-196,
202,
-500,
839,
-525,
1473,
1320,
82,
25,
-1130,
-27,
924,
416,
-567,
-118,
-1126,
-380,
-129,
1054,
-1294,
-61,
-345,
199,
-629,
395,
1448,
-868,
512,
-230,
-222,
-85,
165,
-748,
514,
1253,
-467,
160,
-164,
-852,
633,
494,
-735,
-38,
1038,
-83,
-103,
-735,
65,
416,
-221
};

#endif