#ifndef __MMCBLOCK2_MMLAYER2_BRANCH33B_CONV_0_WEIGHT_H__
#define __MMCBLOCK2_MMLAYER2_BRANCH33B_CONV_0_WEIGHT_H__

// MMCBlock2_mmLayer2_branch33b_conv_0_weight
// (3, 3, 12, 6)
const int MMCBlock2_mmLayer2_branch33b_conv_0_weight[] = {
-1740,
-786,
-552,
1522,
-1126,
-187,
-1102,
-47,
-117,
181,
-478,
-490,
965,
-134,
-517,
67,
-200,
-112,
-672,
1202,
447,
566,
-847,
180,
-1787,
-207,
-2460,
759,
-254,
-1537,
583,
-208,
-250,
-873,
50,
-50,
-714,
-332,
534,
-590,
-135,
301,
810,
-437,
-323,
-282,
344,
-351,
-463,
-665,
-775,
-523,
858,
-551,
-1031,
785,
-922,
-1493,
672,
-215,
1,
311,
-1043,
-21,
55,
-916,
578,
1261,
882,
548,
-612,
-578,
-1715,
455,
-1720,
490,
-367,
284,
-1297,
120,
-1627,
657,
-300,
-776,
245,
202,
-554,
-454,
-463,
-331,
-629,
1714,
1390,
355,
-761,
104,
-670,
-847,
970,
146,
-636,
627,
2709,
-612,
977,
-694,
-279,
1162,
-835,
-1012,
1918,
-452,
-919,
-24,
1315,
-482,
-182,
41,
416,
-43,
-265,
-839,
645,
1533,
103,
109,
-1335,
594,
-639,
201,
-153,
882,
-712,
-103,
-717,
-391,
-178,
-106,
1182,
1167,
616,
294,
-162,
-868,
-214,
459,
-764,
-1817,
654,
-11,
-526,
127,
-523,
158,
-283,
-457,
-261,
445,
-552,
115,
-209,
-867,
-652,
1057,
456,
239,
-699,
292,
-751,
-609,
123,
-476,
35,
558,
663,
18,
204,
-1125,
349,
103,
-722,
-247,
-3198,
323,
24,
-926,
465,
-541,
-133,
-276,
64,
-588,
-524,
-788,
608,
-248,
862,
-715,
-1708,
-409,
-986,
1373,
-1241,
-423,
176,
-663,
1131,
435,
-191,
594,
755,
1110,
-40,
461,
-923,
-581,
156,
-1435,
1517,
2603,
-1872,
415,
1391,
-193,
-982,
353,
505,
-1062,
-268,
-51,
135,
603,
-539,
146,
-186,
-351,
-313,
-572,
-55,
916,
1340,
-147,
2242,
666,
-915,
387,
-910,
93,
261,
216,
-341,
-188,
-593,
784,
-446,
-579,
439,
-342,
-492,
54,
-785,
329,
-328,
-120,
66,
323,
-1185,
-843,
-423,
176,
226,
623,
-612,
-1305,
1934,
-997,
412,
148,
204,
-474,
-469,
-173,
-271,
1,
-250,
-461,
-264,
-323,
154,
-318,
312,
-218,
-88,
-188,
-192,
38,
1686,
762,
391,
-231,
-177,
-77,
333,
-349,
-551,
-379,
-535,
812,
-799,
16,
853,
108,
563,
213,
462,
-265,
-568,
448,
400,
-66,
919,
655,
-160,
-546,
-151,
217,
-479,
-146,
-683,
324,
31,
29,
1262,
248,
-660,
388,
1968,
-436,
623,
-240,
368,
279,
-212,
-355,
520,
-263,
-114,
-183,
-29,
-68,
240,
-333,
-300,
350,
-256,
-872,
1290,
962,
-394,
-26,
592,
774,
-780,
-1487,
2019,
-1078,
1325,
-79,
-586,
-31,
392,
-1043,
40,
-56,
-495,
-526,
292,
105,
-857,
129,
685,
-597,
155,
934,
-880,
806,
-1550,
-438,
-202,
-49,
-806,
212,
-208,
626,
-614,
-731,
1585,
-448,
3264,
469,
-681,
52,
-959,
40,
376,
580,
-235,
-127,
-306,
149,
-528,
-516,
-233,
-695,
-682,
-1281,
1116,
2030,
-1644,
288,
61,
317,
-119,
444,
-509,
-937,
-729,
157,
-1195,
-609,
-298,
-64,
1467,
-88,
-1307,
-188,
-941,
1080,
789,
89,
-544,
-246,
-68,
370,
-538,
419,
-1209,
289,
-86,
-278,
-72,
-615,
-1318,
216,
361,
559,
685,
-513,
1701,
67,
-87,
1340,
-975,
728,
-459,
-105,
42,
800,
-272,
-143,
-48,
-416,
-35,
-442,
-425,
-31,
-727,
-165,
-286,
-1280,
-1977,
772,
138,
-450,
-841,
614,
1118,
579,
999,
-2041,
536,
-661,
-11,
-413,
2761,
-21,
-1338,
-320,
-647,
-829,
56,
-761,
431,
-1103,
870,
-95,
260,
-1008,
-673,
1721,
649,
-222,
-1059,
-29,
173,
1799,
-1101,
186,
578,
758,
-815,
-23,
990,
-76,
-566,
-521,
1592,
-1775,
-121,
-56,
-606,
-671,
496,
242,
-1041,
1274,
-498,
913,
69,
153,
-383,
-26,
-1067,
158,
107,
-42,
-1009,
13,
-880,
257,
-1174,
3,
41,
469,
341,
-692,
-44,
943,
576,
-147,
-797,
-520,
-447,
1858,
-452,
121,
-654,
-99,
-222,
-222,
-821,
-1028,
-676,
817,
-302,
-1975,
976,
683,
2037,
-1885,
188,
-1115,
180,
98,
660,
-466,
-128,
234,
146,
-17,
956,
392,
-43,
-371,
-332,
-566,
-1368,
175,
522,
128,
-94,
-247,
-1102,
-356,
122,
-459,
-392,
675,
-757,
-580,
189,
493,
203,
-485,
2053,
180,
-244,
1016,
-824,
262,
-169,
-193,
305,
-1130,
-1409,
643,
435,
-46,
-794,
1199,
1911,
-187,
-725,
-110,
-1014,
1706,
36,
407,
-980,
-308,
387,
-765,
-435,
-539,
-409,
-648,
0,
-1125
};

#endif