#ifndef __MMCBLOCK1_MMLAYER1_BRANCH33B_CONV_0_WEIGHT_H__
#define __MMCBLOCK1_MMLAYER1_BRANCH33B_CONV_0_WEIGHT_H__

// MMCBlock1_mmLayer1_branch33b_conv_0_weight
// (3, 3, 12, 6)
const int MMCBlock1_mmLayer1_branch33b_conv_0_weight[] = {
301,
-32,
112,
-35,
-182,
-369,
-397,
-175,
-448,
-699,
-580,
-236,
-40,
-355,
-135,
-961,
-625,
717,
-611,
774,
-307,
-291,
740,
-246,
885,
-818,
1248,
415,
-989,
-350,
-413,
620,
-217,
-221,
-45,
126,
165,
-259,
-85,
-639,
559,
447,
207,
-168,
-328,
-155,
-803,
907,
-22,
805,
-860,
-421,
-528,
340,
-436,
25,
111,
233,
368,
-892,
468,
-357,
-188,
-940,
-586,
-719,
-401,
-1117,
84,
199,
-1555,
-196,
-425,
368,
-1073,
626,
606,
-1994,
-1033,
-454,
-440,
-1515,
195,
-964,
540,
-259,
-635,
-886,
864,
-113,
476,
216,
830,
-446,
-1432,
373,
-1531,
-818,
-1014,
-784,
379,
441,
376,
-41,
592,
-582,
124,
-853,
-174,
197,
-289,
550,
-802,
305,
-109,
209,
-118,
133,
-276,
-657,
-184,
-10,
-1300,
-452,
1102,
682,
2,
-980,
953,
749,
241,
120,
25,
49,
-76,
464,
75,
442,
245,
-259,
988,
190,
1178,
-350,
373,
216,
845,
477,
44,
22,
-60,
-399,
-31,
-798,
-1294,
-807,
148,
-119,
-196,
-1228,
-831,
139,
-138,
-1673,
206,
-331,
376,
-861,
1230,
1491,
274,
496,
-869,
102,
-1141,
-1365,
-43,
-237,
570,
1469,
-397,
165,
-91,
416,
152,
-377,
-828,
-333,
701,
-601,
400,
-496,
-249,
520,
1015,
-31,
-628,
-347,
490,
637,
-786,
312,
276,
942,
131,
350,
-278,
-549,
-273,
53,
-477,
667,
-720,
-482,
-650,
-464,
1133,
-506,
926,
848,
-277,
1147,
-181,
273,
-610,
-57,
-461,
-805,
-125,
-404,
125,
-184,
-818,
-200,
-532,
924,
-567,
-370,
1243,
-1165,
1712,
-594,
671,
83,
-1760,
76,
504,
-490,
197,
609,
-691,
577,
207,
690,
-82,
-926,
910,
-520,
212,
474,
833,
435,
-358,
-60,
-196,
273,
-1521,
43,
-1195,
936,
-620,
-565,
142,
-118,
-396,
366,
489,
-179,
28,
-571,
-695,
536,
-728,
-1003,
489,
147,
-1648,
134,
-1173,
-141,
-3686,
-888,
1079,
672,
-127,
-128,
-331,
-383,
-181,
-90,
-20,
-505,
358,
-484,
616,
-409,
836,
-493,
2356,
547,
-2628,
-1081,
-2232,
-805,
-1805,
-115,
1109,
875,
-28,
355,
-1533,
-1881,
1180,
68,
193,
-950,
1561,
218,
-2317,
85,
-182,
-863,
331,
832,
473,
-679,
-113,
162,
-604,
1252,
1412,
157,
437,
22,
-357,
-1101,
158,
-580,
-434,
-364,
-222,
18,
-60,
270,
480,
7,
1266,
565,
1816,
287,
934,
2167,
798,
128,
-1215,
-326,
170,
-741,
-409,
65,
-507,
102,
-121,
1109,
-802,
-491,
-583,
-92,
-1027,
-2576,
-538,
-217,
1093,
1061,
2286,
2095,
962,
79,
-1515,
-1087,
-239,
919,
1449,
748,
-361,
-1104,
-493,
-1476,
-369,
-333,
1035,
560,
785,
-304,
-725,
-83,
-650,
-47,
-133,
476,
1115,
306,
-805,
-1469,
-86,
-313,
-37,
366,
-22,
-16,
-223,
349,
600,
-284,
-96,
-1413,
-601,
1769,
-1330,
106,
-875,
250,
926,
-182,
618,
-604,
-333,
826,
619,
30,
-125,
1020,
128,
-511,
158,
-53,
-401,
-1081,
-842,
8,
-449,
25,
622,
1004,
63,
-148,
-67,
-23,
-50,
-1170,
-653,
167,
1348,
-118,
-605,
-735,
-880,
269,
57,
708,
35,
-281,
1055,
-951,
9,
270,
463,
-577,
3,
-326,
-615,
457,
-684,
199,
-434,
226,
411,
-232,
-475,
-1062,
-604,
679,
-489,
-24,
-151,
-745,
528,
-83,
-246,
-252,
-71,
-981,
-777,
-211,
-1141,
301,
-1250,
1696,
540,
-2,
-203,
-173,
-161,
-744,
354,
311,
305,
0,
-264,
-1103,
244,
-418,
36,
-13,
-797,
-1512,
-868,
1020,
-1484,
503,
-251,
1766,
166,
-1065,
-231,
337,
-304,
713,
455,
247,
187,
-171,
1288,
-134,
-2099,
-786,
-358,
-878,
493,
498,
252,
-398,
77,
201,
-221,
1219,
747,
-195,
276,
-44,
157,
-806,
-255,
-1187,
271,
77,
1391,
2524,
-402,
-631,
502,
-725,
-28,
-54,
1649,
-281,
751,
408,
101,
-481,
-263,
-99,
328,
953,
520,
598,
-142,
-97,
378,
-505,
-117,
-535,
-357,
-838,
-330,
210,
244,
264,
262,
-124,
404,
-401,
364,
-486,
292,
-726,
254,
523,
-94,
-876,
-27,
-15,
-196,
-1527,
563,
-838,
873,
612,
323,
-1281,
-169,
-839,
-183,
740,
-643,
-154,
-418,
-400,
-337,
-491,
-340,
-251,
-304,
-677,
-317,
-935,
-41,
-960,
-565,
-726,
326,
546,
-165,
-282,
-1324,
458,
-1137,
-645
};

#endif