#ifndef __MMCBLOCK3_MMLAYER7_BRANCH33B_CONV_0_WEIGHT_H__
#define __MMCBLOCK3_MMLAYER7_BRANCH33B_CONV_0_WEIGHT_H__

// MMCBlock3_mmLayer7_branch33b_conv_0_weight
// (3, 3, 12, 6)
const int MMCBlock3_mmLayer7_branch33b_conv_0_weight[] = {
-128,
-340,
501,
-1413,
-835,
-396,
131,
-272,
-113,
-202,
700,
-476,
-1086,
-845,
-476,
2494,
-690,
668,
-1023,
-532,
-1123,
-1279,
142,
483,
-692,
-111,
-506,
-830,
1132,
-80,
1654,
-463,
-875,
-350,
-1106,
-290,
500,
59,
10,
249,
-185,
319,
-394,
-773,
501,
-605,
-669,
-677,
1193,
-95,
966,
-644,
-145,
1147,
-880,
-1519,
1414,
-526,
1536,
66,
-131,
361,
-878,
-1124,
1883,
-1322,
-270,
10,
-29,
2071,
-414,
-34,
-316,
-753,
1051,
-258,
-759,
211,
669,
-477,
1108,
-1076,
519,
-711,
349,
1151,
-1252,
-3028,
-706,
527,
-857,
-603,
-752,
-1792,
-833,
481,
-1058,
-301,
-1106,
-130,
514,
278,
908,
596,
-1724,
1282,
-895,
313,
-64,
54,
40,
-186,
-307,
-11,
-297,
-1488,
2163,
-1030,
-1171,
-886,
219,
-355,
312,
-895,
-278,
430,
4,
-550,
2672,
-104,
1857,
-249,
-860,
-600,
-1417,
-603,
1160,
-856,
1705,
731,
1575,
-280,
-302,
-182,
-634,
-746,
499,
-1274,
-1003,
-360,
-200,
-299,
-819,
-723,
887,
-793,
1553,
-830,
-493,
853,
-574,
499,
275,
-880,
-468,
188,
117,
-113,
-510,
-326,
-859,
-281,
738,
71,
-844,
-179,
-1325,
912,
-1107,
-357,
-123,
-269,
-117,
812,
-262,
191,
-22,
-781,
599,
-1180,
-245,
-135,
-1556,
-127,
1009,
348,
-212,
1400,
-582,
-975,
1371,
-1488,
1186,
-170,
-1912,
-18,
-385,
-1042,
1607,
-1651,
2010,
368,
-274,
2023,
-463,
790,
-47,
-546,
-333,
89,
479,
-1036,
-29,
-230,
-180,
-244,
-335,
-22,
-1219,
1028,
-347,
1061,
-173,
675,
-784,
42,
-445,
-1438,
-185,
47,
-88,
-103,
-82,
-335,
214,
3,
237,
162,
-1467,
978,
-563,
-401,
-38,
-823,
-151,
-1088,
83,
-45,
599,
-498,
-387,
447,
371,
-548,
1768,
-22,
-377,
13,
47,
111,
-579,
-1807,
1074,
-1165,
-46,
749,
-125,
-757,
499,
-1026,
-35,
65,
-696,
-483,
185,
1453,
-436,
93,
270,
-101,
-554,
-229,
0,
364,
771,
186,
-777,
832,
-11,
-190,
-722,
369,
-896,
-657,
346,
140,
33,
1074,
-643,
-1748,
-556,
536,
425,
64,
162,
-113,
-216,
-337,
-896,
-15,
-321,
-1566,
-364,
627,
-530,
-466,
465,
-658,
-323,
-646,
155,
-507,
-1580,
-974,
-1194,
-310,
-396,
-249,
-808,
-1376,
279,
-484,
1239,
-831,
-1100,
778,
-488,
268,
-498,
-389,
-705,
-1370,
-665,
649,
517,
4,
-424,
1255,
-261,
-772,
677,
175,
-328,
-260,
131,
-210,
-13,
-500,
-480,
104,
50,
544,
-912,
282,
-167,
1059,
-258,
383,
-61,
1546,
-1159,
2995,
-152,
-228,
-236,
56,
-384,
-767,
-421,
219,
-1415,
138,
-828,
251,
-675,
-362,
-937,
-411,
261,
-285,
348,
-129,
797,
-826,
-121,
-76,
511,
-716,
-1809,
285,
-548,
1058,
-310,
-326,
-242,
-1835,
682,
-1864,
-59,
184,
-727,
-301,
-76,
-59,
-118,
698,
844,
176,
-272,
611,
-459,
313,
-929,
-79,
321,
1163,
382,
-1214,
-646,
-70,
-121,
768,
-894,
3199,
-1037,
-866,
-252,
-1510,
958,
315,
-700,
-437,
-530,
-1325,
84,
-59,
-1069,
-489,
-430,
-1148,
276,
1180,
-952,
-624,
-152,
-642,
446,
-918,
-19,
-976,
-107,
-544,
78,
-748,
-350,
-679,
-455,
1321,
813,
586,
2187,
182,
-63,
642,
-302,
-682,
900,
-282,
1,
-318,
-1028,
1167,
-500,
120,
48,
2344,
-210,
-1049,
-737,
-1034,
123,
1532,
246,
2026,
112,
1189,
-586,
-963,
-135,
-604,
443,
-190,
415,
-850,
-456,
3811,
-570,
-1512,
-95,
-572,
1399,
-490,
-212,
-474,
-273,
-1145,
580,
135,
-257,
-653,
222,
-150,
62,
710,
-974,
-1374,
326,
-1331,
712,
-122,
-62,
-770,
-526,
-324,
-428,
-409,
-283,
151,
-1137,
-1216,
193,
363,
-1297,
-464,
-81,
-1376,
-200,
-132,
131,
86,
-960,
2645,
-1371,
594,
29,
212,
-930,
-1140,
-288,
-1498,
929,
359,
316,
359,
341,
1607,
261,
169,
150,
-16,
275,
-830,
448,
221,
-170,
-526,
-910,
2570,
-1016,
-1515,
100,
-1605,
697,
264,
-246,
719,
-41,
370,
377,
-732,
-298,
-133,
-274,
-1504,
131,
622,
-969,
-849,
-182,
-754,
633,
-490,
-332,
-255,
-158,
-358,
-30,
-316,
28,
-1103,
-557,
1203,
536,
544,
-1658,
415,
302,
1312,
-188,
-280,
-576,
248,
-359,
333,
-1130,
787,
710,
-368,
370,
1873,
177,
-927,
363,
-492,
-129,
-436,
208,
1181
};

#endif