#ifndef __MMCBLOCK1_MMLAYER2_BRANCH33C_CONV_0_WEIGHT_H__
#define __MMCBLOCK1_MMLAYER2_BRANCH33C_CONV_0_WEIGHT_H__

// MMCBlock1_mmLayer2_branch33c_conv_0_weight
// (3, 3, 6, 6)
const int MMCBlock1_mmLayer2_branch33c_conv_0_weight[] = {
-93,
55,
-107,
-559,
371,
42,
-159,
1139,
-1121,
-1911,
-228,
-529,
730,
-171,
-1304,
-1570,
-1863,
335,
-60,
-183,
-1385,
-256,
-289,
421,
-103,
23,
240,
943,
426,
360,
-931,
-726,
-27,
-1225,
1387,
-599,
34,
283,
-765,
-181,
417,
140,
-611,
383,
2191,
1259,
73,
931,
769,
-33,
-588,
170,
-1336,
504,
-364,
39,
-1953,
618,
-965,
142,
1258,
-90,
-1291,
-329,
-47,
-1101,
-553,
471,
-1961,
1941,
1451,
-128,
140,
103,
-946,
-31,
398,
232,
173,
-1994,
802,
142,
1127,
402,
1502,
-1149,
278,
628,
-1501,
151,
104,
2940,
-413,
-338,
-230,
373,
691,
-969,
-26,
1,
-119,
1289,
-143,
2816,
-1569,
-1058,
1287,
-290,
-318,
-995,
-35,
889,
146,
92,
88,
2077,
-2066,
-2159,
-174,
-47,
2810,
-1049,
102,
-998,
-235,
557,
-341,
-2186,
3342,
358,
1469,
-215,
-649,
-24,
55,
3960,
265,
-282,
4202,
-1621,
2515,
-1182,
730,
-209,
1109,
44,
-360,
-138,
217,
-61,
-172,
1027,
414,
281,
-486,
1209,
576,
544,
-238,
974,
-684,
-47,
1030,
-1416,
-2237,
383,
398,
401,
-1046,
-890,
-768,
-617,
222,
-1058,
3714,
-283,
-269,
1440,
661,
385,
1652,
-248,
-1041,
316,
-757,
154,
1001,
-2929,
2443,
113,
-696,
1629,
1351,
-321,
-770,
544,
115,
-331,
-560,
4184,
-2327,
153,
1279,
774,
10,
-874,
254,
-216,
-179,
1491,
3499,
2521,
-2038,
-185,
350,
358,
1796,
-1574,
-694,
-68,
-988,
389,
-1118,
94,
-483,
-777,
349,
-895,
-2529,
-1452,
9,
-1347,
1315,
-31,
-170,
-1458,
2436,
-51,
245,
-568,
574,
522,
-243,
2382,
133,
35,
-3412,
-1383,
1531,
-2495,
-661,
-13,
3465,
-665,
-447,
-1143,
-887,
138,
-3244,
1357,
-1408,
751,
976,
487,
-3749,
-878,
-1064,
718,
3693,
-105,
94,
-257,
3339,
551,
-1083,
-683,
328,
-1372,
-605,
-743,
57,
-823,
-3954,
-1017,
1931,
2121,
-1745,
1026,
1431,
-366,
-1020,
-330,
-1099,
399,
-107,
-1605,
332,
202,
1117,
-384,
-2120,
796,
-1491,
1186,
2678,
-263,
-1164,
3287,
-1746,
-161,
-223,
-266,
-120,
-1032,
520,
54,
-43,
1804,
-3368,
1460,
-1981,
-368,
-1341,
490
};

#endif