#ifndef __MMCBLOCK3_MMLAYER3_BRANCH33B_CONV_0_WEIGHT_H__
#define __MMCBLOCK3_MMLAYER3_BRANCH33B_CONV_0_WEIGHT_H__

// MMCBlock3_mmLayer3_branch33b_conv_0_weight
// (3, 3, 12, 6)
const int MMCBlock3_mmLayer3_branch33b_conv_0_weight[] = {
80,
-106,
-726,
512,
482,
619,
-487,
-1719,
-90,
-401,
-176,
1405,
-978,
-471,
-601,
1216,
1027,
1215,
-1010,
-879,
-167,
1235,
642,
-1117,
-1077,
-197,
-421,
-196,
-12,
-582,
-738,
1315,
-1393,
-2575,
2360,
1489,
-133,
313,
-52,
-607,
-185,
-994,
655,
-95,
-177,
795,
-295,
704,
-944,
272,
-925,
-776,
556,
-772,
766,
-1479,
325,
861,
-1654,
297,
-608,
-262,
-1260,
454,
134,
-445,
168,
4448,
-128,
197,
509,
-1946,
133,
-606,
12,
374,
-12,
2033,
-579,
2211,
-505,
-721,
-241,
-122,
125,
850,
-11,
399,
-238,
212,
-738,
354,
-735,
465,
387,
-687,
-615,
-725,
-618,
427,
16,
32,
74,
20,
-208,
-1345,
313,
251,
-677,
886,
-292,
-762,
1022,
-428,
-219,
-247,
-138,
1047,
170,
486,
-921,
-107,
-218,
-721,
254,
-1300,
-1051,
-838,
355,
926,
-664,
-719,
409,
-2111,
-155,
-82,
-350,
-875,
-337,
2778,
-450,
17,
-126,
-560,
-412,
-1459,
293,
1499,
396,
555,
599,
4925,
-712,
44,
328,
-1882,
462,
-1126,
-18,
391,
-1373,
-661,
-855,
-470,
-147,
805,
304,
-422,
-929,
-73,
-261,
735,
0,
21,
-648,
285,
1144,
-2438,
2297,
1582,
-188,
477,
850,
-538,
-338,
-1102,
105,
551,
-282,
540,
-177,
1062,
-1366,
267,
1160,
-735,
491,
-1026,
1216,
-1394,
-1017,
207,
-1234,
222,
-737,
-1144,
1167,
961,
133,
-291,
-1064,
-227,
591,
-522,
152,
1645,
-514,
-549,
-293,
-88,
338,
-149,
-803,
3,
-1196,
257,
-40,
3088,
-1032,
-736,
-725,
471,
734,
713,
-108,
-727,
-37,
1333,
173,
-1223,
-1285,
-288,
-329,
-23,
-696,
604,
-200,
635,
-1681,
-289,
1182,
739,
-219,
-78,
120,
-818,
-619,
-385,
-129,
-231,
-347,
-285,
245,
789,
-105,
259,
-223,
642,
-440,
-1536,
122,
-646,
663,
528,
-1077,
-409,
-36,
-1226,
-528,
863,
-192,
-1301,
583,
1848,
-55,
-910,
76,
-1299,
-258,
-280,
40,
25,
-25,
-77,
-202,
850,
-1366,
-180,
-155,
428,
512,
-70,
-331,
-267,
-147,
174,
-223,
-120,
-274,
-387,
-67,
-769,
-530,
-587,
-303,
-1168,
-345,
674,
491,
-782,
512,
625,
-857,
-300,
-292,
-618,
-311,
-832,
270,
266,
333,
808,
504,
-230,
180,
-166,
-177,
-416,
-261,
606,
-345,
-1434,
-2802,
-617,
-224,
-292,
-349,
-1185,
-540,
-1085,
-66,
-611,
-231,
-403,
130,
1242,
195,
-297,
-227,
-52,
-644,
-618,
113,
619,
402,
-534,
37,
721,
-682,
-1388,
169,
-1269,
841,
-782,
157,
-205,
-935,
190,
-2,
-942,
421,
919,
224,
-824,
-934,
-302,
402,
527,
-242,
582,
-492,
278,
2453,
-414,
1346,
594,
-521,
68,
-163,
-855,
-742,
-629,
-201,
945,
443,
-1244,
138,
1172,
-70,
95,
147,
342,
-685,
-1919,
258,
-219,
-1096,
-115,
-975,
-946,
-143,
-1063,
632,
792,
149,
-601,
-501,
-1415,
1882,
12,
-28,
2801,
-321,
-26,
-874,
-520,
-76,
1172,
1127,
-1229,
-1070,
605,
-429,
949,
-624,
-359,
-93,
105,
416,
86,
290,
-561,
296,
813,
-34,
-810,
-721,
-1830,
55,
458,
61,
-688,
-1208,
1140,
-1433,
894,
2131,
-4,
-882,
503,
180,
-166,
-328,
-999,
-272,
641,
-1008,
-983,
-166,
338,
-214,
-794,
404,
1729,
-623,
-1358,
870,
-27,
456,
611,
-1590,
62,
-415,
-1230,
71,
1415,
47,
-160,
-827,
-273,
-116,
-614,
740,
-1618,
238,
989,
-258,
-137,
-562,
914,
-104,
-996,
-656,
121,
-61,
-705,
-129,
-552,
-396,
266,
173,
-270,
278,
681,
-145,
468,
-94,
-655,
-326,
-508,
-193,
-580,
487,
-1543,
-1526,
223,
439,
1607,
463,
-618,
-1002,
675,
-386,
118,
195,
-358,
-815,
264,
155,
-343,
-540,
119,
-160,
-1071,
216,
1510,
-285,
-483,
-1024,
404,
-219,
-545,
-619,
-96,
-1541,
-1066,
-611,
2285,
937,
-133,
227,
52,
-446,
94,
67,
-982,
-219,
399,
427,
-946,
23,
744,
-751,
-559,
-244,
-1101,
635,
-1832,
-308,
-1234,
-381,
692,
250,
91,
465,
-642,
62,
798,
0,
-1174,
-1079,
-1351,
-37,
321,
224,
-541,
-1970,
1382,
1371,
580,
2126,
-16,
-692,
1352,
-928,
619,
-515,
-699,
-1134,
1012,
745,
-122,
-67,
542,
-17,
-399,
-548,
1319,
-428,
-1126,
717,
659,
-248,
218,
-1257,
-210,
-297,
-1401,
47,
1227,
321,
-194,
593,
-1134,
922,
294,
-10,
696
};

#endif