#ifndef __MMCBLOCK4_MMLAYER3_BRANCH11_CONV_0_WEIGHT_H__
#define __MMCBLOCK4_MMLAYER3_BRANCH11_CONV_0_WEIGHT_H__

// MMCBlock4_mmLayer3_branch11_conv_0_weight
// (1, 1, 440, 12)
const int MMCBlock4_mmLayer3_branch11_conv_0_weight[] = {
2484,
4297,
8739,
1940,
953,
-4256,
2194,
-1909,
828,
-1348,
-2352,
1744,
225,
6900,
-303,
-3208,
-1963,
-3579,
1174,
-1196,
-648,
-2637,
932,
-2180,
252,
394,
490,
-1691,
1553,
1204,
187,
-3689,
1366,
4091,
1743,
1803,
-942,
248,
1552,
696,
-441,
496,
1624,
4965,
-233,
-1107,
-42,
-1684,
486,
1202,
-2812,
-3736,
-3624,
-3423,
-168,
-68,
-857,
1032,
-470,
-2609,
2706,
-589,
-2272,
-1279,
-546,
-1183,
-1429,
1675,
2677,
130,
-1066,
-1835,
580,
2210,
-439,
-477,
-950,
-1486,
116,
-575,
-1366,
2355,
-5236,
-1734,
-1293,
-694,
5184,
-956,
-988,
25,
1414,
-3864,
-362,
-551,
-1286,
-699,
-3683,
2438,
-626,
-1280,
3032,
-1889,
-1732,
492,
-3182,
-1228,
4264,
1979,
-1016,
2495,
-563,
-1287,
-608,
-739,
-2517,
-1227,
454,
-54,
-530,
-211,
5859,
1690,
-398,
-5078,
-2961,
1911,
3766,
192,
-2235,
2599,
-1011,
1195,
1038,
-315,
-2020,
-2811,
-1017,
1120,
441,
5231,
-128,
-1976,
-2257,
828,
3112,
-1366,
-858,
260,
-295,
-40,
-1801,
-2723,
-334,
-1499,
2287,
1960,
1322,
814,
1420,
2448,
-2009,
-2889,
4133,
4029,
521,
-608,
-1349,
-1707,
-1208,
-726,
2586,
-366,
964,
2739,
1284,
483,
3571,
662,
-2870,
285,
-2382,
-1330,
-1929,
3153,
-2123,
-1411,
-350,
-4677,
-2413,
78,
-1765,
-1921,
-1452,
2982,
3040,
2404,
1302,
-962,
1908,
1028,
700,
-576,
-3391,
1985,
-1772,
2319,
1765,
-307,
2189,
1353,
-2294,
-921,
-1780,
1957,
-1223,
-3333,
619,
-1872,
102,
2162,
-193,
216,
2091,
2215,
-263,
-456,
-1565,
1936,
-407,
1864,
138,
35,
-1751,
-2263,
-1548,
367,
2081,
-3635,
-570,
4377,
-1069,
-846,
-3235,
-2248,
2144,
-154,
-2534,
1392,
-1458,
-1546,
-1804,
2195,
1142,
-396,
787,
122,
213,
4222,
-463,
3396,
-1876,
-2092,
1401,
726,
1579,
624,
330,
286,
-1246,
-1555,
-796,
-1497,
3408,
-1301,
-3344,
-3245,
-1470,
-1901,
-271,
52,
2428,
351,
-2252,
867,
4011,
2986,
1123,
302,
1681,
127,
-2570,
0,
1720,
1956,
-889,
-200,
-819,
1154,
956,
256,
-3137,
-1234,
-3946,
-3049,
-1001,
2031,
-2167,
5055,
-610,
-466,
3351,
535,
1213,
-1896,
-3091,
2756,
-4287,
-1220,
-3110,
-3965,
4386,
-4137,
-240,
1696,
908,
-1109,
-1563,
-2077,
-5805,
-1321,
38,
518,
-280,
-836,
-1744,
-3633,
172,
420,
1048,
-301,
2523,
1505,
454,
-748,
2987,
-2075,
-91,
1608,
-1845,
-1690,
-678,
783,
3214,
801,
662,
5,
624,
1543,
917,
-3026,
-2968,
-1480,
210,
1485,
4680,
-265,
863,
499,
1800,
985,
2061,
-2322,
219,
-1473,
5265,
-2664,
3584,
1632,
2252,
-952,
645,
190,
232,
-557,
1599,
427,
-83,
-55,
778,
1439,
3100,
2035,
-1182,
-3186,
-1412,
-3555,
303,
199,
-605,
113,
-1641,
-2071,
-885,
-4641,
-1955,
-266,
969,
-742,
2095,
232,
551,
-1041,
-203,
-2599,
171,
-1071,
2573,
639,
1329,
-4661,
1904,
716,
711,
1013,
-1425,
-965,
4830,
3551,
1568,
459,
-3632,
-4338,
-1108,
1624,
-1672,
-5,
-43,
-283,
1135,
-791,
-500,
109,
-697,
-1598,
-700,
258,
-183,
1642,
-1186,
-1384,
-306,
-2844,
68,
2181,
-2398,
1816,
193,
936,
609,
-1004,
4349,
1048,
-782,
-1036,
-2174,
1189,
-35,
-435,
-1233,
-2427,
-914,
-861,
1953,
-916,
-2395,
2701,
-1185,
2771,
994,
-2443,
2375,
-425,
-2455,
1192,
-2510,
354,
-1034,
-166,
-1235,
1683,
126,
-2252,
1805,
-1882,
-711,
2747,
-2017,
-482,
-1989,
2799,
1107,
1199,
-1794,
2675,
-2656,
-1209,
-1494,
-2994,
1078,
53,
-1261,
-1089,
-233,
235,
-1230,
-747,
1320,
-1167,
443,
-3772,
-1147,
-758,
-78,
291,
-8,
-4671,
-2766,
1918,
-1099,
255,
-2336,
33,
-1137,
-184,
-2047,
387,
-1227,
2664,
-310,
2154,
-2465,
1887,
341,
555,
4585,
-1662,
-593,
-2270,
-1091,
3560,
-137,
219,
-2114,
-992,
-1509,
-2298,
-69,
7095,
-1810,
-1679,
-1175,
-746,
-70,
-21,
-236,
2358,
-2881,
-2043,
-1173,
31,
1704,
2006,
1287,
-1318,
-2526,
-411,
-2626,
-548,
2177,
592,
683,
232,
-5008,
-847,
-1611,
5385,
457,
-2287,
-966,
-115,
-806,
144,
1931,
2561,
1592,
2564,
-913,
-3061,
-825,
876,
-410,
-471,
1488,
-2632,
908,
2915,
-529,
-715,
1434,
-1445,
3172,
-927,
-982,
1292,
-2239,
-626,
-1864,
-1139,
-1802,
-2767,
-1739,
-1237,
274,
410,
671,
4956,
-458,
-2650,
279,
-1861,
2339,
4109,
1740,
289,
-2831,
931,
247,
-2069,
546,
2103,
1650,
3821,
1222,
78,
704,
-140,
1488,
3443,
687,
-2288,
74,
-550,
-472,
462,
6,
-1342,
549,
-96,
-2325,
1300,
-2030,
2195,
819,
595,
-999,
2263,
1022,
935,
-1915,
559,
1989,
208,
-695,
-2009,
1811,
-100,
-1516,
-2288,
678,
-1370,
-3397,
-577,
-3303,
2010,
752,
1118,
-1146,
309,
3067,
1191,
-4012,
-4202,
192,
883,
-1849,
-2759,
3372,
1841,
-347,
-1019,
4336,
-2851,
229,
-2779,
-2102,
1975,
1430,
922,
-1352,
-2154,
-700,
360,
-2022,
200,
-3354,
-1982,
-1492,
-200,
1129,
-3228,
1218,
2274,
1669,
-2081,
-553,
433,
-5763,
-5440,
-667,
-2006,
972,
1088,
1079,
-1561,
-453,
-582,
271,
-170,
-3882,
1301,
1275,
1979,
1422,
-4147,
1354,
-2057,
-3322,
-436,
-2498,
1147,
133,
1552,
-3918,
-956,
-1842,
-882,
1719,
-1590,
-2477,
971,
-2340,
1882,
-2469,
3413,
1503,
-1072,
-779,
-1865,
-1024,
-2587,
3609,
1412,
184,
892,
-859,
-1166,
-205,
2778,
3030,
-3772,
-402,
-2275,
-1247,
-1117,
85,
1842,
-4289,
-84,
2531,
2376,
3545,
418,
3913,
-2285,
-3237,
1248,
-3623,
1078,
1740,
-3301,
239,
-927,
-1303,
1300,
-119,
315,
-2922,
78,
-4627,
-1000,
-1420,
2241,
781,
-5376,
-104,
-1068,
216,
1155,
201,
1462,
-709,
-2111,
-1745,
-465,
1333,
2757,
-1256,
2485,
3357,
-2067,
-1074,
-3828,
-134,
944,
-731,
-2315,
292,
-33,
628,
4484,
34,
900,
1388,
402,
6703,
-293,
1039,
1904,
-690,
5403,
-387,
-1939,
-1607,
3118,
593,
-2880,
-2292,
-3424,
1041,
-2358,
25,
1479,
-1602,
302,
-1901,
1277,
-1474,
-3678,
1561,
3068,
-1400,
254,
708,
-2992,
-2167,
-3580,
868,
2017,
-1091,
-77,
-4961,
-1243,
-3529,
-1078,
-1357,
1293,
287,
400,
1032,
857,
-1371,
267,
-2678,
832,
407,
-826,
-3719,
3060,
-1576,
3508,
851,
-1116,
5792,
4372,
809,
-1648,
6705,
-2101,
2486,
430,
-2550,
2901,
-2420,
-2360,
-2241,
-1701,
3062,
-2098,
783,
-3430,
5431,
4403,
-1376,
-868,
2445,
-644,
-3894,
955,
-2348,
-2148,
-1557,
1675,
-2334,
-1291,
386,
3141,
-866,
-2715,
-1057,
-480,
332,
-2061,
-2844,
2397,
2555,
-1344,
-1257,
1270,
1686,
1998,
510,
-346,
-2937,
-1561,
-639,
-1637,
-3057,
-1155,
-2096,
-367,
2389,
3364,
-3161,
-470,
-1966,
-4716,
-3872,
938,
-3597,
3754,
967,
336,
-1495,
2378,
3741,
1011,
-2216,
738,
2242,
1780,
926,
-2396,
-1168,
531,
-111,
2747,
-1597,
-2894,
-2306,
3450,
894,
3326,
-1406,
-4004,
491,
1667,
-2696,
-1005,
-404,
-1426,
-98,
1538,
772,
5190,
317,
-2335,
-1691,
3604,
-279,
-153,
291,
125,
-2294,
796,
-889,
-1709,
-426,
-938,
-2307,
-1757,
1309,
-387,
1064,
927,
-935,
-602,
-2630,
-1863,
1476,
-799,
-1792,
-3233,
-1596,
582,
-1293,
-1028,
526,
2705,
-2228,
-1806,
-2256,
1410,
735,
1285,
54,
-414,
121,
1309,
-3554,
-2959,
-1171,
1166,
5563,
-602,
-1642,
-2195,
-4861,
-221,
-2152,
-2403,
2577,
139,
1189,
1241,
898,
-1573,
-3755,
2930,
2399,
2455,
1001,
-1718,
-3428,
-2444,
820,
4916,
4618,
-2909,
-344,
1135,
1746,
728,
-333,
-1,
-495,
-1276,
2397,
-353,
-2520,
-820,
-2896,
3586,
-281,
-1364,
404,
248,
-682,
893,
-332,
1871,
-617,
3453,
-492,
687,
1974,
1932,
-2994,
-1099,
-1566,
348,
-920,
518,
-2031,
-2242,
209,
634,
-1560,
-363,
3162,
1577,
1533,
1957,
-1242,
1919,
-2886,
3310,
-1871,
895,
-1543,
-2276,
-1920,
-1359,
3006,
-1156,
-1647,
-629,
-740,
259,
3212,
1433,
622,
-1418,
124,
2555,
957,
544,
31,
1121,
4125,
-201,
910,
-76,
1137,
561,
71,
-202,
-1852,
116,
-586,
4411,
1041,
-2386,
1594,
-800,
-1883,
-2136,
-2021,
-2557,
-2336,
-2189,
-2405,
-2242,
-1511,
-828,
-1995,
-3077,
816,
2796,
-2332,
-315,
-1982,
1036,
-2066,
-102,
-2626,
3263,
-1471,
247,
-2592,
982,
-5783,
-2750,
-853,
1552,
-2512,
3756,
1539,
-1816,
-561,
-1544,
-1659,
-347,
1137,
-3730,
453,
-2070,
-995,
-1476,
1917,
913,
631,
-1021,
-3911,
1022,
1189,
2232,
-281,
1315,
-2207,
-2222,
185,
-789,
-1770,
-931,
3963,
2322,
-95,
997,
-1577,
-2584,
-381,
-78,
-1315,
1317,
-1140,
1962,
-60,
-749,
-2554,
-759,
820,
2267,
-1625,
997,
-768,
-2345,
658,
1869,
586,
-2104,
-61,
54,
693,
2219,
-674,
1656,
349,
-2935,
-785,
1750,
-1262,
-2031,
-1459,
-571,
-536,
2697,
1567,
0,
-1888,
459,
-326,
-1809,
-1175,
-2484,
-3230,
2375,
-1920,
3290,
-2770,
1597,
-1724,
-1178,
-3896,
3822,
338,
220,
-568,
-269,
-412,
1217,
-1577,
299,
1218,
472,
726,
-1030,
-694,
-945,
-54,
-1991,
-2959,
409,
136,
-963,
1570,
-83,
914,
353,
2447,
-1959,
-744,
-1563,
1974,
3364,
885,
3154,
-531,
2886,
2222,
1061,
-1248,
1501,
1251,
21,
561,
-1994,
-1368,
-1136,
1087,
128,
1907,
3072,
-1350,
-1565,
4671,
1798,
3858,
5890,
-55,
-1603,
2710,
197,
79,
1712,
3378,
1373,
-306,
825,
45,
1240,
2,
-1385,
2209,
-3206,
-1476,
738,
-1817,
-2994,
-2055,
-741,
-460,
1259,
4287,
230,
1658,
-3117,
-3176,
2434,
-309,
1396,
498,
-89,
-4009,
582,
2899,
124,
-1340,
115,
-1566,
1659,
-1169,
456,
-249,
1971,
-205,
4083,
-1961,
-1356,
87,
-595,
2008,
2582,
1472,
-1079,
-1341,
-1149,
-182,
-2853,
-449,
255,
-603,
-1586,
4094,
4624,
-826,
-3085,
-1495,
-404,
-342,
1335,
3459,
2117,
527,
-1076,
-415,
414,
633,
4587,
525,
-991,
286,
117,
1378,
-380,
-1768,
1047,
4342,
-166,
678,
5838,
2468,
-1326,
-904,
283,
2081,
-1843,
1232,
-1801,
-2024,
-3460,
378,
-607,
370,
100,
2577,
227,
-933,
2441,
3721,
-846,
3030,
-193,
-2717,
5949,
-596,
-1872,
1965,
-3131,
1979,
967,
259,
1485,
-1701,
-2187,
18,
1836,
1342,
-645,
-2431,
-225,
81,
2932,
1846,
-2305,
-1756,
-931,
-1348,
-1665,
1739,
-1045,
1742,
2699,
-4103,
932,
1774,
2461,
9834,
-1268,
-2205,
-5877,
213,
5759,
-904,
-350,
4460,
2256,
1587,
-128,
1080,
3527,
-1737,
-255,
-760,
-3259,
645,
1381,
-3383,
-980,
2192,
-2133,
2643,
-2965,
-896,
-2603,
3042,
1007,
5279,
2533,
-3107,
2355,
-1203,
-1788,
1056,
-1276,
454,
128,
-1308,
-925,
-943,
1014,
1952,
-806,
-2574,
1771,
-95,
2718,
-3166,
-548,
-37,
-743,
2598,
3304,
-2271,
1301,
-486,
3468,
3503,
457,
7340,
-495,
287,
-2096,
-5600,
209,
2210,
1031,
1026,
-4025,
-2571,
2140,
-748,
1226,
2443,
461,
-731,
-1494,
-1413,
-542,
3509,
896,
886,
962,
453,
858,
6905,
2446,
-926,
389,
-1329,
-2843,
-498,
1377,
-653,
197,
-888,
-517,
-559,
-1053,
1437,
163,
-2464,
3188,
-1492,
824,
2872,
1950,
7401,
4615,
-3039,
858,
-2207,
-6925,
-1859,
1270,
-3800,
4600,
2272,
-1413,
2087,
-605,
-1339,
-381,
-2633,
1255,
694,
-729,
594,
-2493,
483,
-1343,
-204,
-2287,
353,
-413,
1140,
1876,
178,
100,
-1503,
-93,
1189,
-981,
-2831,
-128,
-2667,
1015,
2637,
-489,
-1630,
-292,
-2527,
1223,
-3206,
-404,
-1735,
-434,
-1028,
-177,
539,
-235,
-1014,
1696,
-1130,
-351,
-1142,
-80,
-1603,
1153,
-1077,
2925,
-785,
-65,
-1014,
1189,
-2131,
-5,
-5082,
-2007,
5267,
-275,
197,
1790,
-5925,
-1223,
3760,
-298,
-473,
-117,
403,
3638,
-205,
-412,
-390,
-2049,
-2152,
532,
389,
-2231,
-3705,
1299,
1297,
-2225,
-1220,
2666,
-750,
139,
-2710,
-865,
4072,
-1041,
-2870,
1462,
2857,
-1754,
-365,
3166,
5161,
-2137,
-2082,
-1216,
2208,
-376,
1840,
-4357,
-1182,
1564,
1468,
-845,
28,
3962,
882,
2501,
505,
-3639,
253,
3677,
-589,
-1235,
-1992,
-796,
-2218,
-785,
1731,
-1810,
-5356,
-921,
-1137,
-2093,
1909,
-2432,
-203,
-1350,
2484,
1476,
-2191,
-2677,
1419,
-2079,
2539,
2639,
-3773,
515,
3203,
-1984,
-2654,
-4411,
-1922,
305,
-1616,
5115,
3626,
-3814,
940,
-3249,
1692,
0,
-1397,
-3152,
-2122,
-638,
4643,
2351,
-1423,
768,
150,
650,
-903,
2162,
5468,
-2902,
-584,
-1325,
2841,
3059,
952,
352,
1394,
-2042,
1963,
929,
1309,
552,
272,
-1776,
705,
-2563,
-830,
-1416,
481,
-643,
-325,
347,
-1095,
-3826,
-725,
-62,
-4057,
1584,
2036,
-2596,
-1369,
-2557,
-1075,
-1945,
-314,
-3356,
-1852,
-774,
-2137,
-4171,
-2720,
132,
-1511,
-1543,
-837,
739,
-3013,
-3666,
1882,
-1017,
463,
3151,
2234,
-2735,
1038,
901,
-72,
175,
379,
-2451,
-1190,
286,
811,
-316,
-1590,
-1101,
-2480,
1594,
176,
-1304,
297,
4376,
-1657,
432,
1273,
-2647,
220,
630,
-1206,
1795,
-2158,
1244,
1289,
818,
-612,
-1251,
170,
1792,
1124,
1490,
4117,
200,
-1769,
2115,
5724,
-1636,
-1770,
304,
1241,
-4586,
-64,
-2511,
-1999,
-12,
-612,
-1813,
504,
3004,
880,
-1915,
-373,
586,
-860,
-780,
1593,
-80,
-2971,
256,
2367,
1696,
3359,
5365,
546,
346,
1311,
-934,
-1371,
-424,
3183,
-550,
-3945,
-616,
383,
-1119,
-3,
1259,
-1307,
1256,
1399,
470,
-939,
-1739,
-793,
-4041,
986,
6094,
2235,
-521,
509,
-1669,
-2245,
2892,
1709,
-1437,
-4012,
4090,
-2379,
47,
839,
-1569,
-929,
2557,
-749,
301,
29,
-536,
-1593,
-215,
-655,
-939,
-1287,
3815,
-4251,
1531,
2240,
-887,
-2674,
-616,
796,
681,
-1109,
-1535,
-2721,
-1106,
3273,
1629,
-5697,
661,
590,
-4493,
-1488,
347,
-948,
3452,
-3055,
-1582,
2601,
-185,
2685,
4819,
-1953,
-1497,
-1877,
-1088,
-289,
894,
843,
-1678,
-1321,
-3396,
-1630,
1373,
-279,
-1859,
-3393,
-793,
-213,
205,
-2555,
91,
-1645,
23,
-344,
2051,
-2456,
480,
-2125,
-2253,
726,
848,
-745,
-266,
162,
-2258,
684,
294,
2400,
126,
-1557,
571,
-2934,
-1883,
-2078,
-534,
-1561,
-1065,
1252,
1509,
1902,
-138,
-2675,
-2198,
20,
1604,
-37,
-748,
-1388,
-385,
-50,
734,
-1741,
5475,
732,
-2500,
-1826,
-3309,
499,
-2853,
496,
721,
-1568,
-1078,
336,
-20,
-1494,
2376,
-950,
-335,
-3348,
-125,
49,
796,
-2379,
-1183,
-403,
399,
-590,
588,
3482,
208,
3779,
1203,
2967,
588,
940,
1173,
222,
1866,
-1405,
1858,
906,
115,
-3254,
-1168,
-3113,
2480,
-2251,
815,
-1360,
-2672,
1834,
-1911,
-2506,
1706,
-1022,
3456,
-186,
-3032,
456,
-1740,
-1171,
-1837,
-295,
4598,
12,
-854,
1578,
2797,
506,
-85,
3708,
1396,
194,
1699,
-3273,
685,
-3809,
-2919,
2052,
1638,
-3175,
-478,
-1403,
-2891,
-3965,
-2722,
-2230,
4958,
-749,
-299,
2416,
4106,
-1843,
1768,
-1358,
1577,
4338,
-1625,
113,
1239,
-3020,
-1701,
922,
1735,
810,
-2731,
1171,
2303,
-408,
-1006,
1630,
-3853,
2233,
3447,
22,
2656,
2225,
-462,
6856,
-1647,
-1111,
-2946,
-640,
-2745,
941,
761,
446,
-858,
631,
711,
-549,
1636,
1073,
3668,
263,
-1952,
187,
-1610,
-399,
2829,
-501,
-231,
1821,
-304,
2131,
-1829,
2012,
1280,
-2006,
2038,
-616,
-2719,
480,
1330,
76,
-1852,
1372,
2013,
-897,
914,
-282,
-1231,
484,
444,
-1817,
755,
-1163,
3635,
-1381,
-773,
58,
1200,
-1355,
-2062,
-2877,
-1110,
-1995,
-868,
-949,
-2740,
-280,
655,
3036,
-1480,
-2134,
-2383,
3257,
-773,
2365,
295,
-740,
-3238,
5651,
2165,
-1366,
-584,
-1177,
-4065,
-294,
-1611,
5373,
457,
779,
-3072,
-503,
-3031,
1528,
68,
-1277,
5601,
3392,
-3311,
-1072,
-3903,
1594,
-1248,
51,
2701,
-2390,
981,
-1018,
1984,
-2749,
43,
-1282,
2597,
-1206,
-470,
-656,
2671,
2021,
-2364,
1322,
1649,
1515,
1009,
-1716,
612,
3304,
-3608,
2010,
-1902,
-3745,
266,
-381,
1427,
388,
3080,
-800,
-1885,
-3802,
1134,
-1088,
-287,
-192,
-2089,
-2691,
-471,
-2477,
-746,
-1018,
-2073,
1749,
821,
-2775,
1434,
1571,
-661,
1003,
159,
62,
-533,
2843,
1162,
-2784,
787,
1026,
2639,
514,
-54,
719,
-450,
-555,
-1510,
-1474,
-391,
711,
-1282,
527,
-2102,
4308,
2668,
933,
2644,
4452,
-4000,
7793,
-505,
-2222,
-1815,
-714,
1140,
-398,
-2837,
629,
-1825,
1212,
-775,
-1252,
1675,
-170,
-1896,
-125,
44,
-2349,
-1726,
-74,
-2111,
-2988,
-341,
-2317,
-2794,
-1717,
-1167,
4411,
2924,
-402,
-1581,
-2139,
-826,
-743,
-911,
-100,
1711,
-1805,
-849,
5447,
2115,
-3089,
-1745,
-3054,
-3615,
-1505,
2112,
-793,
1697,
-1017,
358,
-2274,
-1761,
-1781,
2585,
3966,
-1952,
-1726,
164,
-1216,
1010,
-2348,
-2059,
-411,
247,
-998,
2760,
1065,
61,
1177,
-1371,
616,
-2211,
-285,
-1036,
-2767,
-2134,
-620,
-3987,
-2398,
-3524,
-2904,
-4895,
-2937,
-2952,
-3739,
-2567,
-1127,
4339,
4249,
-4386,
-961,
-917,
933,
-1159,
-2354,
-1079,
2917,
-2006,
4523,
-2127,
2436,
1582,
-1125,
680,
1564,
577,
-822,
-992,
141,
2644,
-640,
-2754,
791,
-1716,
-77,
-1979,
685,
2485,
1680,
-714,
1078,
2262,
1589,
401,
1711,
-281,
539,
3953,
2062,
2166,
-2752,
2300,
1105,
1420,
-2386,
1735,
784,
117,
322,
876,
1191,
74,
2285,
2810,
-1230,
-3070,
9418,
-1104,
-2890,
4947,
-3522,
-818,
-2907,
-2990,
-1830,
410,
-1118,
-4411,
-900,
-479,
-645,
-3839,
-3022,
256,
1534,
2627,
-921,
-4537,
2285,
4692,
1060,
-424,
-2025,
-168,
-2499,
-593,
-643,
-544,
-306,
-2476,
-1468,
-597,
-77,
-1068,
696,
230,
-2315,
2311,
-431,
-2184,
712,
-37,
2859,
1084,
-3902,
1327,
-886,
101,
2489,
-1226,
-373,
1693,
-3164,
1801,
-1378,
185,
-3528,
-1765,
-753,
-147,
-3151,
-814,
-1067,
-692,
-1154,
-3735,
-1410,
1986,
841,
5138,
1251,
-2612,
1156,
-3231,
-2146,
-396,
-1649,
-1432,
4409,
3,
-3547,
441,
3191,
3288,
1328,
1325,
-1380,
2107,
1133,
557,
5256,
-24,
1498,
1147,
1382,
1269,
-1093,
-2772,
-1458,
-1157,
910,
918,
-1375,
-1457,
-2651,
-1,
-1629,
-1226,
-1841,
861,
-1209,
-172,
1800,
1113,
-2540,
449,
-3120,
3006,
-1252,
762,
239,
-1765,
-4361,
-3811,
-2440,
1271,
-2283,
-5034,
-2110,
1177,
6247,
-1069,
426,
2813,
200,
2,
587,
-1341,
3766,
-3153,
1523,
-1392,
-932,
1772,
-1798,
-1446,
-1693,
2079,
1367,
887,
274,
3229,
-1728,
447,
607,
-337,
-1143,
-477,
-4259,
-1665,
-2354,
415,
-1361,
-1102,
-2758,
-1855,
-2292,
3305,
753,
1996,
-1322,
636,
-1709,
1925,
-243,
-689,
725,
71,
0,
-933,
-346,
4153,
-4443,
-529,
-4668,
-487,
-870,
-871,
1687,
-974,
780,
2997,
-1796,
-193,
2689,
-636,
-946,
-832,
-2179,
-122,
-6683,
1432,
-1204,
3619,
6675,
1133,
1141,
64,
-2290,
1277,
-2644,
-854,
-1750,
-2041,
-532,
-1157,
2151,
349,
1934,
-114,
1822,
-2546,
1875,
961,
-1406,
1529,
-1724,
370,
3830,
816,
2768,
847,
2229,
-2426,
-2907,
-771,
-3855,
4284,
-283,
726,
-42,
971,
879,
-644,
-1171,
1054,
1305,
-828,
3953,
-1897,
-1377,
-307,
-940,
1297,
2980,
-1349,
-2518,
-1763,
-1051,
3517,
1507,
992,
-323,
-75,
-3047,
-986,
-663,
-1842,
-126,
864,
541,
-1389,
-2585,
-370,
-412,
789,
3987,
1080,
171,
-39,
877,
4236,
-2323,
-1215,
-1385,
461,
2558,
652,
1353,
1286,
797,
-116,
-436,
-118,
2992,
3273,
183,
-1621,
185,
1192,
-1515,
1764,
-671,
1562,
1470,
547,
1353,
-3354,
-984,
-1231,
-2142,
-476,
-1235,
-4171,
-4471,
-2854,
-1623,
1358,
-1032,
-1977,
-1892,
5032,
1118,
-3656,
355,
-1016,
-372,
-4603,
-143,
796,
-1023,
-422,
273,
2697,
188,
-1527,
1427,
-972,
-2101,
-1077,
1586,
1405,
2724,
-2224,
-1440,
-1361,
6226,
6004,
14,
-3420,
4390,
-682,
592,
11,
-1662,
-1237,
608,
-1145,
-3017,
2002,
-1592,
134,
644,
3303,
-1400,
3475,
-1556,
-367,
-1407,
-1146,
-1267,
1115,
5423,
-434,
-832,
1939,
-2815,
2850,
1806,
-142,
3776,
-1712,
-1376,
3725,
-2528,
983,
-2276,
-2980,
1679,
-609,
1263,
-1399,
-41,
4723,
-1521,
-1453,
532,
-2818,
-2305,
1146,
-2778,
528,
-405,
1064,
604,
1852,
1431,
1063,
-2362,
-2597,
1730,
343,
-1542,
3368,
-1748,
-3517,
-230,
-2408,
1167,
173,
76,
1744,
2509,
-1003,
1270,
86,
3327,
1705,
-2133,
-1597,
976,
3496,
2814,
5158,
-157,
-3121,
480,
3941,
1769,
752,
889,
-1498,
-490,
1447,
887,
785,
-1468,
-192,
-124,
-2510,
-106,
1014,
3466,
383,
-844,
1914,
610,
3465,
-1474,
-3515,
918,
2329,
778,
-3144,
178,
-2454,
-687,
960,
-605,
920,
912,
-77,
749,
663,
-1052,
1355,
-2087,
-175,
550,
-629,
2291,
-503,
1875,
6866,
1544,
519,
-2044,
1496,
-2732,
1440,
3592,
-1473,
-2444,
-4553,
-2715,
-3143,
-4218,
-620,
-1288,
-5362,
-1433,
1981,
-663,
3390,
-2836,
719,
-2056,
-2774,
867,
-1082,
-113,
-1128,
-1081,
-2613,
256,
1571,
-3342,
373,
3437,
-171,
1859,
-620,
-1131,
-1752,
-209,
574,
2517,
-1316,
1102,
-2477,
-1286,
-474,
-1244,
-2065,
6620,
-1721,
930,
3139,
1916,
-1564,
-3100,
-2041,
-2716,
2547,
3081,
-2467,
347,
-1076,
-3408,
2565,
5983,
2879,
1387,
-687,
1175,
130,
-418,
786,
2165,
-550,
7336,
-424,
-2546,
-377,
-4341,
-440,
899,
-1279,
-92,
-1986,
4425,
96,
-1405,
-1682,
-1286,
-557,
-109,
2846,
-2686,
1835,
-672,
-1500,
1342,
-924,
0,
167,
-722,
3278,
2294,
548,
-3014,
-1600,
-1769,
-636,
1051,
-1877,
176,
1599,
1126,
-661,
-57,
-958,
-1531,
793,
-1013,
-490,
1231,
-705,
-2706,
3373,
-1583,
1046,
2094,
-2968,
-4975,
1771,
-2844,
2441,
1176,
-1924,
-2603,
-631,
1952,
242,
4302,
7903,
1784,
-3131,
2964,
-2785,
-3203,
-2093,
1942,
-650,
-1012,
2314,
-165,
-2397,
-4862,
1704,
-337,
-659,
-4648,
-705,
2429,
1883,
2211,
-1316,
-1804,
-428,
-209,
-3320,
2788,
-2339,
-1176,
-847,
2172,
-1084,
213,
2214,
75,
1617,
1641,
-2246,
2161,
-72,
-978,
-3845,
1615,
-898,
-2200,
224,
-1266,
-657,
237,
766,
2498,
-2450,
-1883,
59,
-832,
3026,
-2346,
1390,
-303,
798,
434,
-1516,
-601,
-1963,
60,
-1233,
-672,
-3,
1130,
-762,
-3089,
-5562,
-1457,
2789,
1399,
-1874,
2315,
-78,
-743,
5018,
1845,
-2269,
-327,
1162,
1625,
-2002,
75,
-3448,
921,
-411,
3289,
-3828,
-947,
2541,
50,
-1066,
-3736,
944,
2554,
3223,
-403,
166,
-3710,
-372,
821,
-1234,
5901,
4323,
-282,
-1981,
2286,
854,
-1785,
268,
2913,
-2142,
-878,
4176,
-619,
94,
-1600,
-2207,
-131,
1271,
6421,
941,
769,
-2982,
-1424,
618,
1480,
5250,
2958,
-583,
-1771,
-1608,
1162,
-693,
505,
-2474,
-2713,
-2634,
-1872,
767,
2150,
101,
906,
-3536,
-461,
2235,
-1836,
153,
-1418,
2194,
693,
-443,
-4211,
-13,
2729,
77,
663,
747,
-2001,
1128,
-508,
-2692,
-649,
2655,
-284,
-2937,
-1936,
-3031,
837,
1675,
1708,
-592,
934,
137,
-892,
-891,
426,
6673,
1303,
-574,
4976,
1519,
-1162,
-1449,
65,
341,
3279,
-76,
-709,
4496,
2095,
3183,
1737,
-513,
1207,
-2563,
2783,
6490,
418,
3653,
-2100,
-1955,
961,
1651,
4412,
-2386,
1780,
-226,
-1614,
2253,
-1338,
-1823,
-4092,
-5052,
-1625,
-3346,
-2849,
262,
1214,
-2384,
373,
3521,
-1265,
1817,
3218,
33,
573,
179,
1353,
967,
752,
8416,
5677,
-1246,
172,
-1462,
-569,
56,
424,
-979,
1166,
-543,
-2956,
-1886,
-1645,
-945,
-1894,
-720,
-366,
-4882,
-2596,
278,
-1716,
-3637,
-1475,
-4264,
-1319,
-1489,
1250,
-2049,
82,
2929,
-1370,
2680,
-4397,
2430,
-977,
3105,
-1629,
1937,
125,
-1129,
2060,
922,
-2834,
564,
-1111,
2315,
684,
-295,
-1355,
3772,
2098,
1096,
897,
-2085,
2123,
1366,
1057,
1464,
-3216,
28,
1301,
1118,
-164,
1054,
740,
-1689,
-2365,
229,
-3521,
-3905,
-1505,
-3826,
-1966,
3679,
1847,
4586,
-1964,
-1480,
370,
-320,
5035,
5740,
-396,
-1762,
149,
-679,
-1947,
536,
-2311,
2536,
5229,
-1312,
97,
1878,
3154,
-1006,
587,
-556,
-3157,
-953,
-1460,
-5283,
930,
2487,
4856,
-2536,
249,
-1225,
4084,
529,
-1369,
-1233,
5981,
664,
1861,
315,
-2087,
3653,
-407,
534,
1678,
-3033,
-183,
4557,
490,
-2811,
-3239,
-3518,
-4595,
4072,
-1407,
-1446,
1090,
1322,
981,
1863,
-3131,
-4184,
-838,
268,
-2053,
-194,
179,
-1184,
3321,
2838,
446,
-646,
3022,
1586,
1367,
-1167,
2808,
658,
-242,
3017,
-1371,
1064,
-5530,
-1533,
2316,
-5062,
1737,
-5199,
90,
140,
-2425,
-768,
-948,
1521,
-1265,
-639,
3741,
-4508,
-677,
3703,
-2282,
3811,
-2101,
-384,
-1372,
-2160,
321,
1632,
-874,
-221,
-2739,
1764,
1323,
-137,
-926,
2948,
450,
-1291,
-1335,
1448,
316,
-3753,
-1001,
1392,
-1696,
-3000,
-1235,
-833,
-370,
-2274,
5180,
4018,
-2102,
2409,
886,
-850,
701,
2379,
-1198,
-1515,
-1718,
417,
-693,
2492,
-2521,
362,
-2123,
-644,
926,
-25,
-1876,
-2612,
-1393,
1650,
1616,
1735,
1963,
-134,
982,
-746,
-2075,
255,
-1457,
2490,
-1429,
1660,
2508,
313,
-1605,
-2895,
-1549,
2379,
-575,
-402,
3053,
-275,
3629,
3362,
-2097,
-1902,
940,
-3464,
3386,
-149,
-2390,
-1181,
-433,
-1370,
1849,
1098,
661,
1875,
407,
-1644,
1011,
1565,
-1855,
2467,
474,
2901,
277,
1079,
-1138,
1063,
79,
279,
-1835,
1684,
-488,
1966,
2021,
3433,
2699,
-3143,
-1130,
-2147,
70,
-1212,
-2357,
1039,
3455,
166,
6089,
387,
-2981,
-582,
-2553,
-3457,
-760,
3458,
-520,
-177,
-1016,
57,
-1952,
1040,
4601,
-1302,
1809,
2908,
17,
1347,
-137,
-1492,
4437,
-1090,
-3015,
855,
1603,
2161,
2024,
1630,
-475,
-1223,
-23,
1168,
-1887,
-3295,
65,
-198,
658,
205,
2953,
2183,
-4154,
-262,
280,
143,
2955,
-2775,
-2500,
-528,
-5110,
-1560,
2281,
313,
-1497,
2808,
571,
-2892,
1373,
2850,
-872,
555,
6311,
2001,
-23,
-3286,
2442,
-1652,
-146,
273,
-2722,
1742,
-1040,
3582,
5286,
2905,
-743,
-4052,
1766,
-2951,
2734,
2924,
-3659,
-3318,
945,
-263,
-2551,
464,
1917,
-447,
-702,
1299,
-1027,
2029,
4687,
555,
1757,
-757,
4037,
3608,
-977,
-4125,
3721,
1173,
3423,
-405,
-1527,
646,
-1802,
-529,
-2015,
2804,
-274,
2001,
248,
-583,
1531,
758,
-614,
3013,
-3089,
-641,
-1197,
-1372,
3000,
3022,
-647,
-1009,
-2302,
102,
-2123,
-391,
171,
2093,
5794,
408,
-107,
-2765,
3761,
1382,
-211,
-643,
-2561,
-138,
-2332,
106,
-3054,
1824,
-477,
2659,
1379,
1658,
2193,
-691,
314,
4880,
-2986,
-2648,
-2436,
1561,
3169,
3540,
1175,
1977,
3106,
827,
-526,
-3245,
-53,
619,
5376,
-651,
-1402,
-666,
1387,
-1311,
-4479,
-74,
244,
1538,
-3627,
4172,
-42,
-3250,
615,
-1798,
1306,
-3724,
-147,
1635,
-4407,
-1141,
181,
-3157,
-1763,
1131,
-1513,
-1714,
2063,
-61,
2789,
-99,
-1179,
2395,
-2998,
3718,
197,
1339,
2234,
487,
1206,
-2841,
-2611,
-2406,
-1354,
1280,
-2219,
2248,
-1026,
-820,
233,
-1925,
-1934,
5231,
-205,
4789,
-2755,
-819,
213,
-1391,
-110,
1103,
1932,
-102,
-3011,
-983,
-4436,
-2538,
-3789,
-1587,
-1912,
-1333,
-3363,
-371,
-599,
-1122,
-3124,
-144,
1631,
2783,
-4413,
691,
-1688,
2302,
1988,
4463,
-1498,
324,
-104,
-815,
2353,
-2272,
3118,
436,
8581,
1716,
-145,
-47,
-1146,
2193,
-447,
3490,
-728,
2348,
4234,
5547,
1655,
-2815,
663,
-1240,
2124,
1603,
-1354,
1624,
1141,
1279,
8188,
-1572,
296,
1447,
941,
-656,
-160,
-214,
-2938,
-2370,
-1482,
2569,
599,
-440,
-3738,
-988,
-1269,
-649,
2919,
4052,
-1704,
113,
1306,
-149,
-1871,
-5534,
527,
1048,
-1111,
-1666,
-399,
-3235,
-1101,
2399,
579,
-1163,
-2611,
-3416,
4526,
2087,
-999,
-668,
-5299,
-6211,
-744,
-1644,
48,
-232,
-1890,
-1845,
598,
-952,
-341,
-174,
-1520,
1742,
797,
681,
-1917,
1067,
682,
-1354,
-1406,
-2615,
356,
-439,
1191,
3371,
1481,
-1876,
-200,
-491,
702,
1272,
-3028,
469,
3396,
-1907,
3841,
1464,
1029,
-3175,
732,
2652,
-2129,
553,
-4052,
-14,
-1526,
-2637,
4423,
1034,
1723,
3395,
-1385,
-2717,
1636,
420,
2200,
1235,
-5705,
1304,
-3278,
-3899,
-200,
4628,
-1840,
349,
-570,
669,
-2,
-3284,
-2171,
1090,
-2212,
3403,
431,
-440,
1246,
1297,
1043,
1428,
-1082,
-296,
2454,
-1921,
347,
-1515,
-2851,
1356,
335,
-1248,
2798,
-2629,
43,
166,
-1305,
-466,
-2182,
2065,
830,
-2147,
-3329,
-1053,
-3125,
-1001,
1160,
-268,
-2457,
-2676,
1774,
-473,
1419,
2324,
-1826,
-652,
301,
51,
-1261,
-2686,
-1416,
573,
-331,
-3001,
-3102,
-1030,
-114,
1079,
-1908,
-2423,
-2032,
-1571,
-2192,
-1442,
-912,
1903,
838,
5102,
2106,
-421,
-647,
1502,
114,
-2183,
254,
710,
-327,
1378,
-1754,
631,
-248,
-2430,
990,
4125,
-3907,
-805,
94,
-876,
9372,
-254,
-2642,
188,
-1227,
4581,
5103,
1225,
-192,
-796,
73,
-1145,
2339,
-648,
-2993,
408,
1103,
220,
6023,
-1181,
199,
-1837,
-383,
-4524,
1887,
1262,
-200,
-722,
7,
-5167,
2518,
4371,
-276,
-1421,
-304,
-1156,
2888,
1561,
-3037,
-1393,
1887,
1281,
9076,
-389,
107,
4199,
-2024,
-704,
-42,
-1250,
736,
4559,
260,
1981,
-780,
1911,
-1634,
-2544,
-2012,
2316,
4605,
-544,
-336,
-398,
1040,
3781,
-224,
-2251,
710,
-155,
1109,
-2810,
674,
1295,
-599,
-634,
1617,
-617,
-1784,
-431,
2506,
-1598,
877,
83,
-1679,
62,
2607,
-1232,
406,
-468,
542,
2018,
-94,
-411,
-1137,
-1225,
2828,
1237,
861,
-417,
-1550,
1309,
80,
5944,
708,
1689,
69,
1238,
-1343,
1336,
-2649,
-2128,
1962,
-1554,
325,
57,
290,
-1137,
2340,
2037,
2554,
1372,
-1121,
-2815,
2270,
600,
3084,
-722,
2482,
7807,
2323,
-2204,
-846,
-2963,
1845,
1317,
-970,
1562,
109,
-2513,
-1680,
4001,
-3279,
-29,
-1049,
-3121,
-1326,
-392,
-3142,
-618,
-838,
-2672,
-2156,
-2048,
4400,
-823,
637,
751,
-4808,
428,
2237,
-3699,
-574,
-3490,
2365,
111,
-1009,
283,
-476,
-325,
1227,
6095,
-194,
5886,
-1703,
1018,
2249,
-4408,
1285,
582,
1844,
484,
2849,
2913,
3665,
-1775,
-1424,
3746,
67,
-1193,
2721,
-1396,
-931,
2299,
-898,
709,
1787,
117,
-2011,
976,
2564,
869,
1665,
-1542,
1603,
1361,
-1317,
-2842,
-2757,
-2591,
-277,
-2348,
303,
1446,
2246,
-2376,
957,
236,
1010,
1487,
1040,
-179,
1326,
-1706,
3284,
-2970,
103,
-468,
454,
-232,
1762,
3112,
2420,
599,
-48,
3007,
81,
292,
1032,
-2477,
1346,
449,
149,
-1569,
-339,
-5772,
-690,
1474,
1879,
4837,
-378,
-2090,
-663,
1272,
1350,
-1939,
-2116,
256,
-2036,
2618,
-631,
-1919,
-825,
-351,
632,
4002,
1971,
2113,
-1437,
3257,
-1564,
2114,
-1654,
3168,
-2011,
353,
-1738,
-3131,
-4876,
-4414,
-2895,
-1557,
6448,
-3837,
-995,
-2417,
-1276,
149,
-1952,
-223,
-2059,
-538,
521,
719,
-3725,
2211,
733,
1183,
4651,
-1641,
-472,
-1382,
3839,
807,
812,
934,
-1953,
3059,
-352,
651,
2274,
-1075,
1264,
3291,
-2267,
2397,
1213,
-746,
5565,
-1350,
-1980,
647,
-39,
1540,
1736,
77,
-701,
-942,
-619,
2496,
3095,
-2180,
44,
1266,
-1525,
-228,
-316,
-3463,
576,
-857,
6,
1278,
-1396,
1071,
-2081,
-3681,
718,
7851,
3183,
-33,
1412,
-957,
-4556,
668,
421,
908,
-2245,
344,
-653,
554,
1435,
739,
-257,
315,
-107,
599,
-1226,
-1109,
3978,
1265,
-1520,
5182,
-2193,
-1074,
5030,
-833,
486,
-582,
-2747,
-879,
-115,
3586,
-850,
-413,
-331,
1151,
-276,
-1077,
-245,
214,
831,
1117,
-1233,
-2950,
733,
77,
1691,
1505,
-1472,
3222,
-1864,
1570,
4935,
-15,
2450,
1595,
-1563,
-808,
-84,
1123,
-1741,
1401,
-1117,
-713,
4754,
-1903,
165,
-3227,
-4273,
-971,
-1519,
236,
-2933,
2042,
-2694,
6147,
1738,
-1598,
-1509,
1852,
1773,
1059,
2603,
2593,
2804,
-5282,
-2018,
406,
-1142,
-591,
444,
4128,
0,
82,
1146,
1368,
731,
-1610,
-2480,
-2069,
413,
-301,
3102,
4656,
1706,
-1845,
-2462,
-874,
3404,
-2561,
-1116,
-3464,
-3798,
931,
1753,
-208,
-699,
1310,
-1992,
430,
-1817,
-444,
527,
450,
-1784,
60,
-2464,
-2434,
-1270,
-1000,
-735,
494,
380,
-1129,
860,
-1490,
-1091,
-711,
-453,
-868,
923,
-2379,
-1689,
1644,
1908,
-1648,
-1054,
-2964,
126,
1607,
3611,
-3228,
-1615,
2694,
-2082,
-154,
-282,
-1618,
903,
-3063,
-832,
-1474,
-1199,
53,
1947,
782,
2782,
489,
1049,
2743,
2324,
-1407,
-683,
137,
-2219,
-154,
2029,
-963,
3494,
2538,
486,
-1448,
-1090,
94,
2333,
-803,
3460,
-1620,
-2044,
1218,
-6452,
3441,
734,
477,
-778,
-4550,
-570,
95,
1750,
-970,
-1633,
4101,
-740,
-990,
2194,
2181,
1253,
227,
-3503,
1872,
-2326,
219,
-2956,
2053,
1301,
1350,
-137,
-906,
-782,
1727,
-3428,
2644,
-358,
-2199,
-1057,
-915,
-743,
1248,
172,
-1467,
-3846,
-1005,
-4864,
332,
-2442,
-1479,
367,
1015,
-1783,
-236,
114,
-74,
-964,
-1262,
-1863,
-407,
-2799,
528,
404,
-2471,
-1668,
-2788,
705,
-1898,
-721,
-84,
2720,
-1404,
1031,
61,
906,
-617,
-185,
-1175,
-826,
-304,
2817,
-246,
-73,
-1872,
4111,
3107,
-1550,
2135,
1835,
2164,
1302,
2099,
1597,
-619,
1411,
-1624,
0,
0,
0,
0,
0,
0,
0,
0,
0,
0,
0,
0,
-2759,
1602,
-732,
1880,
-2782,
1991,
1778,
-1007,
-1405,
-628,
-480,
-3448,
-2424,
1310,
-252,
272,
-615,
-447,
-475,
1617,
-934,
-474,
-2978,
-47,
0,
0,
0,
0,
0,
0,
0,
0,
0,
0,
0,
0,
0,
0,
0,
0,
0,
0,
0,
0,
0,
0,
0,
0,
2525,
1884,
-5283,
1678,
2037,
-776,
-66,
-2842,
-2033,
-346,
1843,
-1039,
-106,
-831,
-919,
983,
-2396,
2795,
423,
-1059,
-4085,
-141,
-3480,
688,
422,
2807,
-375,
-3418,
12,
-191,
515,
853,
-139,
538,
-1017,
349,
0,
0,
0,
0,
0,
0,
0,
0,
0,
0,
0,
0,
0,
0,
0,
0,
0,
0,
0,
0,
0,
0,
0,
0,
0,
0,
0,
0,
0,
0,
0,
0,
0,
0,
0,
0,
0,
0,
0,
0,
0,
0,
0,
0,
0,
0,
0,
0,
0,
0,
0,
0,
0,
0,
0,
0,
0,
0,
0,
0,
0,
0,
0,
0,
0,
0,
0,
0,
0,
0,
0,
0,
0,
0,
0,
0,
0,
0,
0,
0,
0,
0,
0,
0,
0,
0,
0,
0,
0,
0,
0,
0,
0,
0,
0,
0,
0,
0,
0,
0,
0,
0,
0,
0,
0,
0,
0,
0,
0,
0,
0,
0,
0,
0,
0,
0,
0,
0,
0,
0,
0,
0,
0,
0,
0,
0,
0,
0,
0,
0,
0,
0,
0,
0,
0,
0,
0,
0,
0,
0,
0,
0,
0,
0,
715,
-965,
1911,
275,
434,
757,
737,
75,
-2505,
1143,
298,
1586,
0,
0,
0,
0,
0,
0,
0,
0,
0,
0,
0,
0,
0,
0,
0,
0,
0,
0,
0,
0,
0,
0,
0,
0,
1103,
-127,
-2160,
-2360,
637,
-2176,
1000,
747,
2499,
-137,
-1858,
1345,
0,
0,
0,
0,
0,
0,
0,
0,
0,
0,
0,
1,
1253,
-111,
1453,
-3059,
-1920,
154,
-55,
-1164,
-2167,
1133,
-2653,
-5320,
-782,
-51,
-52,
-3207,
-1942,
1043,
-661,
-711,
-830,
1916,
-1362,
-3199,
-2150,
3168,
-762,
751,
-112,
2137,
-55,
865,
972,
2012,
2413,
-3245,
-30,
-40,
-59,
-30,
14,
-19,
-69,
-17,
-5,
27,
41,
-15,
-518,
1496,
262,
-1971,
139,
1694,
1631,
462,
-212,
2701,
-1071,
-2392,
-3080,
318,
-790,
-705,
341,
34,
-269,
-1619,
-897,
-1359,
233,
307,
-89,
250,
-1649,
126,
-374,
164,
-657,
-547,
-2810,
1044,
-486,
-1516,
-362,
-465,
-1339,
-481,
-544,
-831,
-619,
-1584,
-731,
454,
565,
-1903,
-1211,
-87,
-1685,
416,
427,
-628,
1263,
-518,
-1236,
-287,
3885,
-2537,
0,
0,
0,
0,
0,
0,
0,
0,
0,
0,
0,
0,
1540,
-635,
-2547,
411,
1593,
-301,
258,
-2966,
-3746,
-1212,
24,
-1236,
-215,
1340,
-431,
700,
-496,
-254,
-1384,
-811,
609,
-829,
2327,
-444,
-96,
-9,
187,
-176,
13,
-347,
195,
-311,
286,
-402,
261,
315,
281,
-2190,
-36,
2047,
-413,
-246,
-173,
-138,
-2646,
-1106,
-718,
1557,
0,
0,
0,
0,
0,
0,
0,
0,
0,
0,
0,
0,
0,
0,
0,
0,
0,
0,
0,
0,
0,
0,
0,
0,
0,
0,
0,
0,
0,
0,
0,
0,
0,
0,
0,
0,
1,
0,
0,
0,
3,
-1,
-2,
-2,
-1,
-3,
0,
1
};

#endif