#ifndef __MMCBLOCK3_MMLAYER8_BRANCH33B_CONV_0_WEIGHT_H__
#define __MMCBLOCK3_MMLAYER8_BRANCH33B_CONV_0_WEIGHT_H__

// MMCBlock3_mmLayer8_branch33b_conv_0_weight
// (3, 3, 12, 6)
const int MMCBlock3_mmLayer8_branch33b_conv_0_weight[] = {
-202,
-245,
727,
876,
-252,
480,
-55,
-905,
1010,
-142,
-404,
-649,
-535,
370,
775,
714,
-565,
723,
503,
-241,
2423,
-859,
168,
-742,
505,
-1056,
-677,
-376,
1301,
-148,
220,
-139,
-806,
495,
-843,
-323,
1275,
-578,
-494,
1138,
-418,
589,
467,
867,
-638,
987,
-666,
548,
8,
-419,
-818,
1017,
-843,
160,
-93,
721,
-1776,
1541,
-800,
-1004,
871,
-562,
-587,
-694,
861,
790,
440,
1004,
25,
1347,
565,
-253,
-287,
-609,
1272,
211,
-737,
206,
135,
-516,
-595,
270,
22,
-1472,
377,
263,
-103,
630,
-420,
-4,
284,
-328,
-190,
217,
-187,
-603,
-1146,
-1012,
-545,
-770,
-322,
93,
-20,
-143,
1111,
926,
-67,
-670,
526,
-385,
201,
527,
289,
99,
1108,
588,
-1343,
977,
-43,
339,
421,
-130,
-382,
604,
-832,
-52,
520,
-304,
-780,
457,
-1400,
-1662,
-1372,
-1035,
355,
-511,
-571,
2171,
1665,
-64,
-506,
146,
1401,
444,
296,
-201,
237,
178,
-749,
483,
1535,
1348,
-646,
-77,
-855,
-904,
914,
253,
88,
81,
-1078,
770,
1608,
67,
-2008,
190,
28,
-503,
-419,
-1778,
-671,
143,
-1182,
84,
297,
475,
891,
-97,
522,
-706,
1567,
-668,
-586,
1248,
174,
445,
1539,
679,
-595,
278,
-423,
516,
-10,
99,
1302,
174,
1095,
296,
-330,
-727,
2531,
-274,
-114,
-1199,
-411,
-520,
-711,
348,
-1635,
825,
-82,
-860,
-1163,
-144,
583,
634,
-194,
360,
-244,
612,
912,
113,
278,
-1319,
-1088,
-736,
-667,
294,
-778,
-86,
34,
-354,
-614,
49,
992,
-374,
1066,
-1226,
-1246,
170,
750,
-929,
890,
249,
1475,
108,
-12,
-520,
-354,
452,
88,
-845,
-29,
113,
-805,
967,
39,
-359,
-55,
-409,
-165,
134,
127,
-49,
-79,
149,
-1202,
538,
-807,
-769,
-374,
676,
-1079,
881,
686,
-892,
965,
-1429,
-64,
-1167,
1418,
-187,
72,
311,
655,
263,
-410,
-2,
-193,
104,
166,
94,
358,
82,
-134,
0,
-437,
-134,
-909,
-149,
-546,
117,
376,
-474,
-813,
-89,
-789,
204,
-371,
-294,
-201,
-525,
-545,
-1178,
-492,
-398,
-229,
319,
-240,
-399,
907,
32,
-192,
-14,
-648,
-116,
273,
-443,
-470,
-475,
-701,
-695,
-251,
-137,
-481,
134,
-414,
321,
-452,
-514,
-688,
-393,
-12,
142,
-832,
-762,
540,
-329,
-867,
-694,
-1039,
-134,
-699,
442,
305,
-298,
-67,
-150,
270,
-329,
-192,
215,
-235,
-75,
-13,
118,
1007,
1223,
-199,
-235,
-948,
-369,
22,
-62,
-21,
-645,
39,
238,
933,
223,
-2100,
-376,
-433,
-1250,
808,
-1248,
1252,
577,
-97,
-464,
-611,
105,
-164,
-440,
-442,
-164,
443,
450,
-1094,
183,
-668,
5,
9,
-149,
-508,
-186,
-539,
53,
-816,
38,
1385,
119,
1229,
1,
-680,
-716,
387,
397,
989,
-187,
-519,
-833,
476,
738,
-782,
-1053,
311,
-575,
-458,
-58,
1037,
-492,
1065,
398,
-1272,
-111,
1733,
-222,
600,
-801,
-1239,
11,
-688,
857,
559,
315,
589,
-846,
753,
-911,
2067,
14,
-41,
-1335,
-1753,
1812,
920,
741,
665,
174,
-444,
733,
0,
336,
-884,
641,
1111,
-365,
-982,
416,
-1145,
1024,
2564,
-583,
65,
-363,
727,
22,
-28,
-31,
-587,
892,
-1675,
-712,
-741,
-557,
-347,
1807,
-1456,
421,
-454,
-965,
1328,
-618,
982,
108,
352,
-786,
-467,
602,
1304,
-218,
-469,
-102,
832,
172,
-1108,
-55,
833,
-373,
1079,
169,
269,
7,
-518,
519,
-448,
421,
935,
-771,
-196,
-1236,
-14,
1271,
-345,
-1331,
-451,
993,
568,
664,
334,
820,
-461,
510,
-998,
-119,
-524,
-20,
560,
689,
-546,
-239,
523,
-213,
-224,
-1005,
-528,
-239,
1061,
190,
-152,
448,
-727,
748,
-74,
-292,
131,
502,
-901,
1352,
-199,
300,
321,
1141,
-110,
-605,
-850,
375,
-574,
-113,
101,
-335,
459,
-315,
-674,
87,
100,
748,
-1124,
101,
-251,
-505,
771,
1307,
199,
-50,
-1485,
-750,
-599,
586,
1355,
-50,
532,
-1039,
-379,
1483,
-2213,
-1158,
-1421,
-965,
440,
732,
1061,
917,
-405,
840,
-214,
134,
-563,
-743,
-924,
542,
1226,
740,
-1048,
-521,
-1929,
-323,
-43,
64,
1334,
-20,
-790,
174,
-812,
-30,
749,
1297,
1383,
962,
-1259,
-232,
-832,
1459,
1644,
1536,
5,
-643,
827,
1441,
631,
-1123,
531,
-245,
-399,
72,
-263,
-88
};

#endif