#ifndef __MMCBLOCK1_MMLAYER3_BRANCH11_CONV_0_WEIGHT_H__
#define __MMCBLOCK1_MMLAYER3_BRANCH11_CONV_0_WEIGHT_H__

// MMCBlock1_mmLayer3_branch11_conv_0_weight
// (1, 1, 80, 12)
const int MMCBlock1_mmLayer3_branch11_conv_0_weight[] = {
1107,
107,
145,
813,
0,
-79,
368,
268,
5,
290,
277,
-86,
-43,
217,
1376,
-622,
-412,
-155,
-2168,
918,
867,
-3690,
-958,
885,
-168,
103,
-50,
-23,
337,
712,
-257,
-37,
-29,
674,
-619,
-150,
-558,
138,
560,
35,
850,
177,
-285,
-615,
1069,
585,
-534,
181,
457,
658,
1251,
-39,
882,
912,
959,
-281,
687,
712,
-250,
559,
354,
1885,
-86,
-136,
-172,
1684,
-395,
-3677,
19,
163,
-1128,
2623,
234,
403,
232,
149,
-130,
348,
541,
-190,
467,
194,
-80,
762,
-139,
108,
332,
125,
315,
192,
-153,
-175,
241,
63,
-310,
123,
3597,
391,
-325,
-179,
-6155,
759,
128,
-1148,
926,
-381,
-142,
-1211,
-170,
7,
136,
434,
88,
216,
247,
42,
320,
61,
-91,
-602,
-180,
493,
918,
168,
766,
695,
932,
-52,
224,
514,
241,
360,
-446,
117,
12,
-562,
129,
357,
168,
-283,
188,
-132,
-380,
712,
452,
-2598,
-187,
1037,
1367,
-4376,
-454,
1083,
1149,
-102,
2917,
-571,
-62,
637,
646,
84,
466,
468,
435,
-338,
267,
1040,
-143,
310,
24,
-33,
-11,
18,
18,
-42,
29,
34,
-28,
-27,
0,
-40,
-634,
177,
-93,
-1,
376,
250,
-591,
475,
193,
136,
-544,
-192,
472,
-240,
-136,
527,
20,
-289,
204,
1221,
267,
-481,
-629,
-713,
-46,
93,
-474,
-70,
148,
556,
279,
53,
-406,
-17,
-633,
-432,
-143,
-796,
-4570,
-741,
-203,
25,
1974,
1062,
-1672,
732,
-1378,
994,
-344,
-50,
283,
1252,
255,
-359,
676,
843,
5,
-333,
-163,
-550,
1550,
-1205,
573,
1755,
-1472,
-1680,
637,
1634,
-323,
394,
578,
-3482,
226,
815,
1568,
107,
676,
307,
-1770,
-595,
1620,
267,
149,
1336,
-422,
201,
499,
-1258,
311,
343,
1122,
884,
46,
294,
535,
869,
1286,
293,
508,
-152,
-353,
-119,
1442,
1047,
908,
81,
-592,
-314,
354,
600,
-753,
-253,
-576,
841,
487,
-1573,
-516,
137,
-714,
1088,
332,
415,
936,
462,
553,
691,
666,
-379,
-228,
539,
-543,
-124,
50,
-44,
207,
602,
100,
-97,
226,
-26,
-252,
-55,
31,
-180,
-842,
-541,
391,
0,
313,
-1095,
-279,
-53,
437,
-242,
1422,
384,
307,
-301,
307,
149,
-293,
-91,
-94,
24,
-160,
-27,
268,
-460,
-64,
18,
126,
260,
59,
33,
22,
-60,
-130,
-50,
58,
0,
29,
256,
839,
-390,
324,
-62,
-737,
-226,
412,
234,
-248,
-413,
-104,
372,
733,
-209,
202,
672,
114,
-103,
484,
316,
-1723,
40,
649,
-537,
-1535,
746,
276,
696,
1353,
477,
-2780,
-645,
1701,
-62,
37,
386,
-1210,
961,
95,
-459,
-949,
128,
-1205,
-1296,
128,
1032,
251,
-816,
-125,
720,
-154,
-204,
162,
-1269,
-154,
1237,
385,
-1514,
883,
-134,
441,
206,
-58,
-608,
-1733,
-81,
1148,
1032,
1,
-172,
155,
-651,
-851,
-709,
-235,
399,
427,
-509,
-2102,
-583,
-555,
-56,
306,
339,
1468,
1533,
-83,
-625,
-70,
-256,
-990,
-1252,
1844,
-542,
1275,
764,
-621,
383,
-715,
728,
-660,
-240,
665,
846,
-919,
198,
352,
-48,
213,
-405,
-191,
81,
-1108,
1014,
-649,
-179,
-217,
227,
526,
-707,
1519,
-765,
-349,
119,
-1431,
188,
-88,
-1638,
-1464,
197,
-516,
-552,
-1501,
321,
833,
-1197,
-1054,
-38,
8,
-175,
1684,
-135,
992,
-650,
-372,
-597,
-982,
-655,
-800,
119,
-1046,
-610,
2063,
-3334,
28,
-357,
-1046,
-472,
-635,
-171,
794,
217,
2081,
878,
-752,
805,
-1119,
-206,
412,
-56,
12,
-643,
-1010,
-67,
1078,
-323,
-834,
-553,
382,
-780,
-1259,
-383,
-241,
348,
-921,
181,
-161,
-373,
-713,
176,
-310,
53,
113,
367,
-47,
53,
-564,
-113,
-108,
410,
-485,
-157,
824,
1080,
-858,
-398,
236,
1749,
-840,
-690,
458,
262,
-81,
551,
444,
183,
-779,
960,
197,
298,
-185,
-346,
-454,
-353,
-990,
-558,
197,
-408,
-3137,
-264,
-402,
-62,
1738,
-423,
-684,
635,
648,
-837,
123,
171,
647,
-62,
-643,
-772,
595,
-351,
709,
998,
-176,
175,
513,
514,
743,
9,
349,
787,
570,
707,
517,
699,
-1077,
722,
-951,
118,
-1869,
-1141,
650,
62,
-2938,
641,
379,
-2119,
236,
87,
1343,
20,
-224,
607,
-914,
343,
164,
381,
-40,
242,
1016,
-158,
-409,
-13,
-697,
1607,
991,
-503,
-407,
809,
-955,
-966,
279,
87,
662,
240,
1130,
576,
-31,
-182,
-1143,
200,
1340,
-286,
-10,
73,
-187,
113,
-754,
-2181,
14,
-99,
526,
-185,
1512,
949,
-419,
996,
963,
146,
1710,
1616,
-1101,
-977,
-827,
281,
850,
-1126,
198,
-161,
822,
-272,
-1261,
106,
-199,
-553,
-3764,
-2356,
-228,
-77,
-360,
224,
-2378,
579,
-153,
-452,
923,
-55,
-74,
1332,
803,
951,
252,
-232,
114,
-1521,
-1341,
455,
-564,
-1160,
-1381,
-2668,
-1553,
-1597,
-308,
-1607,
610,
-35,
-733,
-799,
173,
-76,
1168,
92,
452,
-869,
-1109,
803,
480,
280,
-148,
312,
489,
643,
559,
1279,
622,
709,
-320,
963,
1211,
223,
98,
1681,
447,
783,
456,
42,
-333,
-238,
2260,
-480,
-365,
811,
971,
-1673,
-189,
58,
-706,
-1739,
-180,
184,
1446,
-419,
1538,
-1023,
65,
1808,
-982,
-2225,
597,
-505,
-194,
361,
890,
-1230,
168,
-408,
-605,
753,
-517,
13,
906,
-285,
-188,
-1102,
937,
-556,
1717,
-401,
-736,
42,
-345,
-15,
503,
241,
-1720,
-924,
682,
-629,
1503,
173,
-80,
-690,
-1540,
1322,
-492,
754,
191,
-147,
-1905,
-4559,
-302,
1669,
1640,
-1153,
1723,
1232,
1138,
1408,
691,
1543,
-1055,
-869,
-678,
147,
350,
-2339,
1024,
37,
-387,
-154,
1313,
300,
24,
1896,
1667,
-282,
6,
-846,
-281,
-708,
1152,
425,
-503,
-158,
-701,
502,
-773,
-92,
-4237,
-189,
322,
621,
-5045,
231,
-5611,
2359,
-588,
187,
-1541,
-251,
112,
174,
62,
127,
942,
1804,
-1183,
-521,
1873,
871,
-1650,
-1429,
563,
1871,
436,
-4289,
506,
-5229,
-266,
453,
-4288,
-5737,
-461,
287,
-387,
-106,
-687,
-848,
-1422,
-13,
848,
353,
-174,
20,
-242,
482,
136,
8,
-606,
-514,
455,
587,
1323,
-672,
-494,
1054,
-633,
760,
2307,
-262,
785,
434,
1761,
220,
-3557,
-3337,
45,
514,
1622,
-13,
542,
-1824,
-1253,
-50,
144,
-25,
140,
-6,
2907,
641,
-683,
245,
2861,
261,
511,
524,
2350,
253,
1139,
710,
342,
-288
};

#endif