#ifndef __MMCBLOCK1_MMLAYER2_BRANCH33A_CONV_0_WEIGHT_H__
#define __MMCBLOCK1_MMLAYER2_BRANCH33A_CONV_0_WEIGHT_H__

// MMCBlock1_mmLayer2_branch33a_conv_0_weight
// (3, 3, 12, 12)
const int MMCBlock1_mmLayer2_branch33a_conv_0_weight[] = {
1190,
208,
-1200,
-1421,
2248,
-1003,
617,
-1766,
246,
1175,
481,
651,
-563,
-268,
-2710,
696,
-1517,
-447,
1363,
396,
-685,
244,
-1306,
248,
595,
-1672,
245,
808,
-1698,
203,
1994,
383,
-670,
1146,
-2702,
-999,
-187,
-528,
-343,
1264,
415,
1015,
2489,
-1071,
-383,
-601,
703,
-242,
-650,
-1273,
557,
292,
-1835,
-1105,
1321,
694,
-1252,
133,
486,
663,
-1391,
-792,
-190,
-497,
1174,
-842,
-1047,
407,
-634,
779,
-14,
150,
-211,
-1259,
16,
-2347,
-2816,
-160,
-1314,
142,
2128,
-1273,
-378,
618,
194,
31,
456,
-437,
-854,
487,
1141,
-202,
-1058,
-1402,
-1771,
-330,
-240,
-1763,
148,
-720,
11695,
-769,
112,
-890,
-254,
-1760,
47,
-747,
669,
-2023,
1459,
248,
3169,
833,
235,
-490,
548,
9,
264,
-517,
594,
-911,
-950,
310,
-2639,
-1611,
-2420,
1270,
-2436,
2678,
-917,
1275,
-1006,
1173,
725,
-345,
1621,
-788,
-2412,
1540,
-1033,
-1212,
2403,
-1612,
-221,
345,
-240,
453,
-2006,
-674,
-321,
-533,
292,
-293,
2784,
788,
-288,
-1770,
-1913,
-212,
-1258,
1556,
-208,
-326,
-464,
-1181,
-2611,
864,
598,
-623,
152,
617,
-1635,
-910,
836,
-1005,
-1404,
-211,
-2108,
974,
-918,
-50,
1372,
466,
-685,
1308,
1900,
-90,
-780,
-329,
1271,
-2222,
691,
460,
-317,
935,
662,
-1683,
1982,
-258,
-1551,
321,
-1501,
1343,
-1265,
-1090,
4464,
-332,
510,
-252,
61,
332,
-246,
-36,
-814,
-304,
-238,
-3928,
855,
-4122,
-2858,
1508,
-87,
-1840,
2838,
-888,
-3939,
79,
-1316,
-616,
341,
595,
-2650,
79,
-643,
72,
-1792,
214,
-862,
-1898,
1018,
-1061,
137,
-209,
7789,
-811,
4967,
-1480,
-396,
-2041,
-1452,
446,
-234,
-1519,
-805,
91,
49,
270,
-1358,
-675,
-313,
873,
-1129,
-165,
-262,
-3,
733,
-410,
-2134,
-2895,
-1174,
436,
-2599,
986,
1101,
1512,
-765,
-329,
1533,
433,
1023,
-2267,
1097,
-1119,
-490,
-862,
2037,
-964,
-1550,
39,
-1381,
-1011,
3887,
-1382,
374,
-1170,
390,
1996,
1598,
-1331,
-555,
-430,
-1080,
1572,
-347,
-1282,
2835,
-1269,
-169,
-1255,
-2394,
-989,
-852,
2057,
686,
-790,
-1798,
435,
842,
-104,
-1475,
-1711,
-2677,
-1267,
174,
-570,
1118,
-145,
176,
1670,
1722,
-27,
-284,
-900,
852,
-146,
-580,
-653,
868,
517,
-2531,
-1387,
1720,
-933,
-2461,
1156,
101,
-267,
133,
-1379,
-171,
-616,
1520,
135,
-349,
2364,
-1879,
61,
475,
-34,
119,
-4365,
-1083,
-2075,
-3153,
71,
-2361,
121,
-1531,
421,
386,
601,
1103,
-1132,
270,
-202,
-442,
-255,
2490,
-630,
-1451,
280,
133,
254,
-3061,
-781,
-909,
-1331,
10426,
-1116,
731,
-1968,
-463,
964,
319,
-918,
-71,
-891,
-2010,
251,
1580,
-563,
-591,
2175,
-687,
165,
1317,
1271,
-830,
2684,
1070,
-1477,
-2236,
-536,
-3189,
206,
-229,
-232,
-1661,
1065,
-321,
-1122,
2051,
2106,
-267,
-846,
-1951,
-699,
-745,
2279,
2580,
-1300,
1924,
640,
879,
-888,
1395,
-848,
3214,
-1448,
1390,
169,
-1804,
-446,
-99,
-1434,
323,
-555,
50,
-494,
-1638,
489,
-237,
1781,
-3254,
335,
-77,
-421,
434,
-724,
1595,
-1709,
-3174,
912,
1190,
1014,
309,
2825,
-264,
-997,
-1251,
-677,
-219,
382,
-1075,
-278,
7,
124,
60,
737,
142,
424,
-968,
-1468,
716,
-530,
88,
746,
-296,
186,
1331,
-1417,
-2557,
-1913,
5124,
-333,
3843,
71,
-728,
-381,
-57,
48,
-765,
183,
660,
-1124,
-806,
-1123,
-479,
-1161,
-585,
954,
-1468,
2492,
1289,
-2672,
139,
-21,
2296,
-1634,
384,
-354,
-2072,
-440,
1614,
-76,
-417,
1941,
608,
-67,
-240,
48,
-5306,
-128,
6741,
-145,
-410,
-400,
1135,
-701,
649,
912,
685,
308,
-1868,
-121,
2684,
-430,
-717,
216,
-192,
-695,
206,
897,
-896,
-159,
-291,
-839,
-2432,
-245,
2733,
-1218,
781,
-54,
-848,
1838,
87,
-534,
493,
437,
-1676,
83,
66,
-1024,
-206,
181,
455,
497,
1652,
745,
-571,
-251,
-420,
308,
-177,
-1128,
-280,
254,
-472,
-2709,
2875,
-526,
1180,
-206,
-2397,
520,
-451,
903,
48,
1674,
236,
370,
1055,
-1659,
1165,
-2716,
-5135,
-365,
758,
1053,
933,
2114,
-389,
-924,
86,
-790,
-1178,
1156,
-684,
-752,
1802,
-169,
-2114,
47,
1254,
-1282,
-380,
-798,
1087,
-539,
666,
680,
-105,
-1354,
-1339,
-619,
-2769,
-951,
7452,
-162,
4373,
-702,
25,
-1031,
-151,
-430,
212,
83,
401,
1133,
301,
364,
4211,
-766,
-951,
-240,
-1837,
1938,
306,
-124,
-1062,
696,
-429,
-2020,
1199,
33,
-2618,
549,
1451,
-40,
-2095,
1923,
1283,
691,
-116,
-577,
-4284,
-284,
10252,
-686,
138,
-1150,
-1479,
-1568,
-176,
1883,
1806,
642,
1264,
-734,
-630,
106,
-636,
656,
-575,
486,
66,
-1000,
-799,
-3212,
2463,
-350,
-1210,
125,
3133,
441,
255,
-2354,
-78,
21,
907,
-651,
1233,
-870,
1236,
-1025,
1180,
-2245,
-848,
-1094,
-542,
-970,
234,
-335,
1079,
-464,
1875,
-5,
-414,
2302,
-1373,
-390,
1078,
1100,
40,
-1418,
457,
-1125,
-1547,
315,
-1287,
-507,
-1579,
-35,
55,
1391,
752,
-1429,
71,
-1050,
-2547,
-636,
-936,
927,
-736,
1215,
-284,
-1092,
188,
-90,
-1222,
164,
-1437,
-442,
-663,
-120,
615,
688,
1120,
-2410,
-247,
-1686,
1131,
-750,
1525,
-902,
719,
34,
46,
-2524,
-1829,
621,
5055,
-332,
5358,
514,
241,
558,
-1075,
-1516,
8,
174,
-352,
3718,
-668,
-3826,
37,
-986,
-2696,
517,
369,
-528,
1640,
-3704,
805,
-877,
1066,
-1277,
836,
-607,
-1382,
-619,
751,
-430,
915,
1158,
-1637,
134,
-288,
-884,
-5119,
-906,
2909,
-1202,
-306,
1546,
1050,
-1550,
46,
1494,
1122,
-917,
541,
-1219,
1289,
1913,
2180,
-2004,
-656,
-1381,
438,
-1123,
-1004,
674,
630,
-1908,
-2645,
338,
-1666,
1611,
-187,
314,
607,
-2033,
454,
242,
417,
438,
-2089,
-1173,
290,
1240,
-367,
-608,
1658,
-219,
-209,
-1341,
-2088,
-1619,
193,
-1400,
232,
674,
-2185,
996,
-520,
-902,
-2486,
-643,
-76,
-1610,
72,
-523,
-466,
1331,
835,
-92,
-114,
2524,
-879,
549,
-476,
343,
803,
207,
624,
-1355,
30,
-1079,
-598,
425,
-1529,
-706,
1921,
38,
272,
823,
414,
1234,
420,
-933,
-1056,
1214,
89,
-1355,
-506,
-1786,
-102,
-540,
-1595,
-368,
-87,
-1378,
-1226,
-485,
1136,
133,
-2197,
-429,
-612,
-1761,
1447,
-56,
172,
59,
1308,
-919,
-552,
1723,
-1176,
1319,
-364,
-2210,
-925,
549,
60,
-1499,
195,
-1468,
-1244,
885,
-102,
-320,
1051,
-533,
1232,
1231,
2092,
-1751,
203,
-333,
-103,
-777,
-4494,
-1017,
-163,
-857,
-1818,
-1101,
1876,
1389,
438,
1236,
1886,
233,
2244,
-96,
1277,
-413,
740,
-214,
-512,
-1192,
803,
-378,
393,
2550,
-1098,
-1067,
1026,
510,
64,
-902,
1829,
287,
-1899,
362,
1048,
-356,
345,
1933,
-3205,
951,
256,
348,
-1526,
2337,
-27,
602,
153,
-1144,
-2128,
-1005,
-1429,
604,
142,
-1143,
-1604,
700,
-351,
-1018,
-348,
-776,
2163,
-658,
-294,
-945,
2119,
-96,
2325,
-1503,
146,
-751,
-1664,
323,
-895,
-211,
-545,
-703,
368,
-323,
664,
-1934,
-687,
668,
-603,
207,
3098,
171,
192,
512,
-1066,
1773,
405,
2421,
1058,
-210,
-465,
-1007,
-1278,
146,
1018,
-915,
-1553,
676,
568,
-282,
-1368,
-368,
5141,
-15,
-2507,
-1475,
-78,
-1772,
2376,
-837,
1030,
-616,
994,
1337,
-1191,
958,
-914,
1974,
-365,
-4771,
-822,
490,
939,
-1652,
-540,
231,
-350,
2318,
176,
20,
-1166,
-673,
-382,
2078,
1855,
1177,
972,
34,
305,
-452,
-3035,
-744,
6261,
-1889,
-1804,
-1873,
-450,
907,
-210,
1186,
-179,
-492,
-676,
843,
-1629,
-1733,
167,
807,
894,
110,
64,
251,
1786,
1445,
-223,
-3126,
1117,
572,
787,
-244,
665,
-1698,
-41,
1128,
707,
-1720,
789,
1932,
786,
739,
240,
673,
-2189,
284,
-1703,
-561,
1022,
-2029,
-1303,
-892,
-1710,
-857,
21,
1094,
-2009,
1466,
490,
1132,
-858,
-1547,
745,
-935,
1167,
-705,
-1493,
-1171,
1576,
-56,
495,
-1790,
-1443,
1181,
-1374,
979,
-46,
-1273,
548,
1498,
433,
-2610,
-201,
2224,
130,
-1165,
2902,
344,
-543,
-587,
568,
934,
33,
460,
74,
-1545,
-705,
-719,
-1032,
-784,
1373,
612,
-267,
691,
-997,
-2217,
412,
-181,
428,
917,
-2780,
339,
292,
-893,
188,
-281,
492,
690,
-2,
2790,
-226,
20,
-1623,
-1040,
69,
-660,
-791,
-742,
160,
-1711,
1058,
607,
-277,
-197,
-1797,
-398,
518,
-1340,
-69,
84,
721,
-928,
-2752,
-814,
3478,
-1820,
-3179,
-1410,
225,
-2904,
-1302,
1036,
699,
1564,
465,
50,
-136,
986,
-1113,
-943,
-316,
249,
183,
-689,
-719,
182,
743,
309,
-582,
2290,
176,
-91,
-1686,
-3284,
-512,
267,
690,
520,
-430,
-632,
816,
-851,
2019,
1674,
-3184,
2063,
-91,
2557,
-1925,
1559
};

#endif