#ifndef __MMCBLOCK2_MMLAYER3_BRANCH33A_CONV_0_WEIGHT_H__
#define __MMCBLOCK2_MMLAYER3_BRANCH33A_CONV_0_WEIGHT_H__

// MMCBlock2_mmLayer3_branch33a_conv_0_weight
// (3, 3, 12, 12)
const int MMCBlock2_mmLayer3_branch33a_conv_0_weight[] = {
214,
1395,
-416,
742,
134,
-125,
-650,
-809,
590,
284,
-1000,
1659,
-6,
-415,
-175,
-1225,
95,
-681,
-739,
-106,
-1060,
-105,
-194,
-664,
-132,
-1899,
1884,
-1923,
240,
-100,
-183,
985,
646,
81,
-150,
-506,
-1271,
302,
-515,
-159,
-393,
-596,
1981,
1602,
-725,
-1763,
457,
-689,
-274,
36,
-924,
-1030,
-142,
-609,
228,
223,
-830,
-276,
-32,
-372,
466,
35,
379,
63,
-232,
-661,
600,
-372,
-1291,
5,
-204,
-600,
-177,
905,
-381,
-215,
-7,
181,
-274,
-265,
-435,
-135,
375,
-211,
970,
-726,
448,
-1031,
-574,
846,
-530,
97,
895,
1077,
-959,
-386,
161,
-879,
34,
-3,
19,
-366,
-1907,
-657,
601,
1367,
-539,
-756,
-28,
158,
566,
-488,
292,
482,
673,
509,
281,
95,
665,
-405,
-1415,
216,
-412,
382,
-480,
-1146,
1646,
1255,
346,
-1218,
528,
80,
-681,
-428,
-1766,
859,
101,
622,
-446,
-512,
-874,
81,
-403,
103,
534,
-833,
-1740,
835,
167,
-151,
-1404,
-467,
591,
-161,
-526,
2080,
-50,
-664,
-520,
-801,
93,
224,
-501,
-368,
-1024,
-171,
288,
228,
296,
-1124,
413,
1045,
-313,
-276,
2207,
-1131,
1320,
277,
-369,
244,
-1179,
767,
2460,
-1627,
-767,
-527,
-683,
321,
-15,
-375,
122,
-1139,
-156,
-267,
-589,
-774,
-250,
-200,
-732,
-582,
-823,
-113,
6,
701,
231,
-249,
149,
1472,
-116,
130,
812,
-58,
-1709,
-117,
-62,
-371,
35,
-439,
-598,
-936,
-427,
603,
482,
433,
135,
85,
-61,
60,
1021,
712,
-1344,
1248,
-7,
-15,
-549,
40,
1735,
44,
-558,
-270,
1697,
370,
-1792,
2007,
260,
-555,
-635,
383,
-83,
-304,
-636,
-1224,
-2,
54,
77,
113,
200,
196,
628,
197,
367,
171,
317,
-88,
-1056,
37,
2484,
-2151,
-684,
-283,
-318,
-596,
1911,
-226,
60,
547,
188,
-171,
308,
-658,
266,
895,
-1115,
-209,
-1859,
276,
294,
-311,
881,
-1915,
259,
-1170,
-179,
-406,
165,
468,
325,
-664,
357,
1645,
-370,
358,
-1236,
-33,
-328,
-467,
-387,
136,
-1130,
-36,
330,
-359,
-612,
3916,
-2119,
1737,
-374,
-62,
409,
189,
-206,
75,
142,
-506,
-1248,
-637,
-470,
669,
-805,
-372,
-1853,
-476,
41,
760,
-162,
-828,
36,
-802,
-616,
-1035,
-278,
-547,
-180,
126,
-1006,
-379,
149,
-165,
-345,
572,
-109,
-43,
270,
-172,
846,
146,
-1711,
-271,
-194,
-521,
-226,
-791,
-620,
-209,
113,
684,
-496,
90,
-768,
-178,
-138,
-54,
1015,
1141,
260,
1000,
896,
-718,
774,
899,
987,
-738,
-606,
-576,
1477,
1435,
-928,
-1414,
18,
-285,
2245,
1595,
-730,
-1894,
-762,
-902,
53,
309,
-461,
221,
369,
136,
562,
223,
155,
79,
179,
-302,
-919,
-1073,
-817,
293,
-1044,
156,
-1765,
-431,
1089,
1317,
-405,
104,
773,
-188,
1161,
-1500,
-80,
564,
-1210,
-429,
-529,
-15,
89,
726,
53,
-235,
82,
-505,
262,
-564,
1244,
-422,
-3,
446,
9,
-151,
-96,
25,
1745,
-1593,
65,
-375,
-868,
140,
260,
26,
-15,
-56,
-10,
-340,
2126,
-2961,
-608,
660,
-1016,
376,
390,
166,
350,
-398,
-758,
1016,
-718,
-695,
-586,
1425,
-1422,
1363,
-735,
-1023,
381,
603,
152,
0,
340,
-1185,
53,
-266,
681,
-79,
-395,
-117,
-511,
-421,
527,
-907,
-280,
125,
-196,
-376,
-329,
-167,
236,
-264,
-434,
-345,
-704,
2071,
-917,
1059,
-121,
-358,
-41,
-83,
-383,
-32,
-52,
-253,
-24,
1448,
345,
-571,
337,
-116,
562,
-1295,
-1238,
512,
-853,
-584,
-544,
-1024,
820,
-143,
501,
-920,
798,
-1735,
-968,
2257,
-680,
-961,
-42,
451,
-101,
-622,
336,
159,
215,
359,
13,
226,
411,
69,
-217,
287,
245,
-760,
-1088,
1558,
-488,
1735,
-824,
-1120,
497,
-104,
-382,
-1253,
127,
1265,
-497,
1099,
-493,
-8,
569,
-456,
-391,
931,
341,
-224,
467,
888,
456,
-167,
126,
-438,
-85,
159,
-802,
-349,
48,
-1144,
-492,
-158,
-71,
1134,
916,
-239,
929,
-177,
158,
849,
36,
1003,
-548,
-721,
20,
757,
757,
-202,
247,
247,
115,
-114,
-24,
-592,
420,
40,
-548,
-981,
-934,
-23,
-466,
158,
1286,
-253,
245,
-1195,
-1164,
-256,
-203,
-107,
100,
-505,
-131,
-167,
-319,
850,
-58,
1009,
-632,
-664,
117,
463,
-111,
-11,
202,
-128,
-412,
-43,
83,
-230,
-374,
-911,
-45,
-4,
-1086,
192,
-483,
542,
-76,
48,
-243,
1370,
-355,
-581,
859,
28,
-590,
-266,
-657,
-120,
-247,
25,
-188,
1956,
25,
873,
1423,
-802,
-934,
165,
-741,
55,
-570,
-436,
2,
-77,
-185,
-422,
228,
381,
-77,
273,
-49,
93,
248,
202,
83,
-546,
700,
176,
-844,
-548,
-1128,
-136,
-373,
-398,
963,
-504,
-210,
1696,
993,
560,
-25,
609,
864,
273,
78,
-342,
-66,
61,
-141,
718,
275,
-148,
482,
1138,
648,
851,
14,
-799,
-581,
212,
345,
2140,
-1928,
1269,
-163,
-613,
-642,
-75,
173,
390,
-44,
-219,
-248,
-238,
-2507,
2494,
200,
375,
-773,
236,
-510,
-44,
-577,
-204,
861,
257,
396,
453,
-721,
-1479,
1071,
-1496,
-282,
1991,
602,
-714,
-196,
-1745,
-869,
579,
-485,
-661,
708,
44,
-479,
-394,
26,
-354,
-71,
-281,
-197,
-525,
-116,
-880,
-830,
279,
-345,
-197,
-245,
3,
582,
-999,
1239,
-1569,
-125,
145,
16,
82,
99,
84,
-133,
72,
-101,
-1681,
192,
6,
666,
-509,
-1069,
1211,
10,
-433,
-792,
52,
235,
7,
-705,
-235,
463,
1684,
-1759,
1323,
-463,
-1247,
-828,
612,
12,
-285,
-267,
6,
244,
177,
193,
269,
-105,
123,
221,
-201,
371,
-207,
-352,
792,
-882,
-579,
1538,
-1553,
-662,
1456,
291,
-416,
34,
2162,
1234,
111,
-424,
407,
43,
-484,
1053,
-257,
-275,
599,
-528,
-1044,
40,
-867,
253,
-803,
467,
-109,
-969,
-139,
459,
-317,
-341,
554,
1021,
-1620,
61,
142,
-156,
-136,
411,
272,
464,
251,
-778,
1146,
-1080,
-1779,
-358,
-295,
-922,
338,
-208,
-45,
-277,
-149,
712,
641,
-195,
1006,
-460,
1552,
-840,
-7,
-145,
-282,
383,
67,
-451,
-323,
1880,
427,
179,
-224,
288,
-439,
402,
-117,
-499,
-314,
-508,
-818,
-248,
-942,
316,
-165,
11,
-157,
2025,
-230,
287,
-533,
-215,
1678,
-1136,
808,
-109,
-1137,
541,
103,
-525,
-132,
-165,
604,
-1335,
588,
-146,
477,
164,
-586,
223,
-528,
-888,
-392,
-693,
-222,
-1438,
57,
-724,
333,
573,
-794,
345,
-1104,
-162,
230,
-587,
-1469,
36,
594,
218,
-359,
290,
137,
121,
273,
-205,
276,
-92,
202,
1237,
-239,
322,
-61,
-1063,
1954,
-831,
-36,
-619,
-137,
-111,
279,
407,
-434,
-617,
220,
106,
-53,
592,
-469,
1239,
279,
477,
405,
-626,
-90,
1098,
-1061,
274,
-851,
537,
-320,
-1202,
611,
-487,
-576,
-136,
520,
-273,
-229,
312,
1007,
2152,
97,
1369,
246,
347,
730,
-463,
-244,
-1636,
-1956,
-95,
983,
195,
-304,
-221,
441,
-389,
501,
899,
277,
-1601,
1609,
-676,
457,
-698,
116,
585,
-270,
836,
-136,
-274,
-525,
939,
1807,
-342,
401,
-96,
-43,
1152,
-205,
-411,
607,
-458,
125,
-626,
-93,
266,
870,
-170,
415,
3168,
-185,
-228,
479,
305,
-512,
-1060,
-398,
-15,
-960,
-1128,
-47,
-605,
62,
-49,
1249,
-1165,
-470,
1495,
-1392,
84,
127,
-319,
-312,
-1377,
-54,
-295,
385,
-1297,
-467,
2725,
-1787,
680,
971,
46,
-185,
260,
-522,
-817,
0,
-156,
58,
-261,
7,
146,
44,
-197,
193,
-125,
252,
17,
453,
1564,
-846,
-2117,
2756,
-820,
-398,
-129,
-458,
-994,
-153,
148,
116,
591,
1852,
-152,
-52,
156,
-452,
882,
103,
392,
192,
369,
-89,
-200,
1647,
-438,
714,
83,
831,
-108,
93,
-735,
18,
-749,
-101,
380,
1805,
-682,
746,
375,
-305,
-5,
-213,
-43,
379,
132,
102,
52,
-1601,
-1348,
-647,
-26,
-110,
-351,
804,
-471,
64,
-83,
103,
838,
245,
328,
-936,
-536,
-713,
170,
-814,
-69,
50,
777,
-1255,
34,
846,
-108,
1417,
-356,
204,
570,
-370,
389,
-157,
110,
-551,
-364,
-486,
78,
1023,
264,
-514,
-1017,
75,
1448,
-188,
37,
-440,
93,
-1393,
1127,
-1716,
-387,
-103,
-16,
94,
-176,
-204,
-53,
533,
-946,
-704,
774,
-391,
-404,
551,
-109,
250,
-315,
-98,
-698,
287,
-1142,
-329,
443,
365,
231,
1350,
-667,
186,
-567,
-26,
-779,
433,
-26,
-64,
-104,
445,
102,
101,
88,
355,
-57,
131,
275,
252,
1024,
333,
-734,
-643,
-636,
-797,
658,
-794,
-1080,
63,
238,
-389,
262,
1075,
-414,
-1069,
9,
-633,
405,
-624,
1240,
252,
197,
82
};

#endif