#ifndef __MMCBLOCK3_MMLAYER1_BRANCH33C_CONV_0_WEIGHT_H__
#define __MMCBLOCK3_MMLAYER1_BRANCH33C_CONV_0_WEIGHT_H__

// MMCBlock3_mmLayer1_branch33c_conv_0_weight
// (3, 3, 6, 6)
const int MMCBlock3_mmLayer1_branch33c_conv_0_weight[] = {
-151,
-494,
-2429,
-630,
481,
426,
-486,
-1394,
-1190,
1876,
908,
-941,
-530,
100,
578,
490,
-1633,
-949,
422,
5680,
-564,
-81,
294,
586,
-40,
1415,
1088,
2017,
554,
-1364,
65,
1071,
-2905,
1060,
2436,
-118,
1049,
198,
44,
675,
35,
-804,
-16,
-1915,
-1833,
1008,
559,
-1126,
-1426,
109,
-855,
-198,
694,
-301,
1716,
3952,
5109,
1278,
-21,
-1329,
-794,
455,
-1342,
-1280,
-1141,
-658,
1881,
1195,
1030,
2071,
-270,
-1880,
-55,
-825,
-1307,
-1356,
-190,
931,
-480,
-1255,
-103,
2342,
1100,
-1237,
15,
-251,
1783,
390,
-1615,
36,
1296,
5114,
-455,
12,
1078,
1193,
-1325,
2290,
1397,
1007,
287,
-1435,
-378,
1046,
-1677,
2035,
3017,
-158,
1272,
-354,
-950,
-131,
858,
536,
-432,
-21,
-1309,
-463,
625,
107,
-1931,
899,
2143,
-374,
-755,
-1359,
-1050,
384,
-2835,
-4,
-276,
582,
-679,
314,
-1605,
776,
-170,
-545,
157,
-786,
-3330,
1668,
2761,
-707,
781,
-322,
-1919,
443,
-578,
-195,
-879,
16,
-74,
-2500,
-1316,
-82,
-1816,
-291,
1619,
-596,
801,
-1216,
-972,
-1745,
-1026,
1382,
-230,
-1702,
-1185,
-436,
-1924,
-1094,
222,
-914,
-7,
-254,
-1169,
1571,
-186,
-1711,
66,
-721,
-356,
-949,
66,
428,
-594,
230,
-1348,
-251,
165,
271,
-1873,
871,
566,
833,
-1372,
-1163,
-850,
1384,
-3215,
98,
-78,
439,
-853,
680,
-1168,
1308,
217,
-583,
166,
-1662,
-3454,
1816,
3000,
-399,
-6,
-876,
33,
684,
1458,
110,
1445,
-988,
-1682,
3565,
-161,
39,
-121,
578,
-1206,
-499,
-337,
737,
-554,
-63,
-693,
-1045,
1111,
216,
2988,
-166,
-1305,
789,
203,
1925,
-23,
-1019,
-613,
850,
2503,
185,
-791,
-917,
-1731,
370,
227,
-116,
-1756,
1678,
-733,
4879,
-1681,
220,
7833,
-360,
-1962,
-77,
18,
-1010,
2876,
-275,
104,
-2215,
-1120,
-2007,
-2647,
186,
-598,
2136,
-519,
5622,
-3821,
664,
446,
1801,
713,
2696,
-858,
-222,
362,
-396,
644,
86,
-1146,
-209,
-2143,
5141,
-210,
-247,
1142,
1669,
-8,
-812,
-484,
629,
232,
1025,
-711,
-334,
301,
167,
2219,
-404,
-855,
937,
-37,
1699,
865,
-1740,
-1493,
578,
2696,
384
};

#endif