#ifndef __MMCBLOCK3_MMLAYER3_BRANCH11_CONV_0_WEIGHT_H__
#define __MMCBLOCK3_MMLAYER3_BRANCH11_CONV_0_WEIGHT_H__

// MMCBlock3_mmLayer3_branch11_conv_0_weight
// (1, 1, 248, 12)
const int MMCBlock3_mmLayer3_branch11_conv_0_weight[] = {
428,
-1082,
735,
-1420,
517,
-593,
-807,
205,
1089,
-873,
356,
-133,
-887,
-434,
-588,
-227,
2457,
-95,
-717,
-148,
-720,
-744,
226,
-226,
-331,
955,
-311,
-1553,
-1280,
-270,
4,
-1383,
35,
-363,
72,
-156,
486,
-1499,
1642,
-767,
186,
659,
-278,
582,
-1271,
-516,
558,
-489,
-925,
-1966,
-265,
992,
-548,
1132,
-13,
124,
-1440,
788,
-352,
66,
973,
-1046,
42,
682,
604,
-450,
-1276,
1321,
536,
-402,
-222,
-52,
-810,
-70,
-820,
-711,
780,
-751,
931,
1731,
94,
392,
422,
-78,
-1331,
132,
-371,
-190,
331,
-382,
-914,
1893,
-674,
294,
-352,
-963,
1949,
1082,
-467,
-464,
-962,
-1319,
-192,
-695,
1018,
-40,
-531,
386,
313,
1280,
-348,
-394,
-783,
1267,
-121,
-184,
439,
279,
-760,
76,
-109,
-358,
625,
-556,
-178,
-65,
-33,
668,
427,
-221,
681,
62,
-131,
1489,
-26,
-1985,
-933,
-267,
-1585,
-626,
131,
-1019,
-736,
-780,
602,
850,
2115,
-395,
-1305,
-1100,
727,
-530,
2592,
-1516,
166,
508,
1403,
-805,
-1095,
424,
-199,
1194,
3545,
-539,
55,
37,
-398,
-579,
-329,
293,
228,
196,
-529,
1090,
1357,
-426,
372,
432,
-3,
37,
-2063,
300,
1595,
-332,
1052,
-398,
2462,
458,
717,
-130,
298,
-91,
-433,
805,
831,
176,
-641,
306,
-2609,
-29,
-1440,
-429,
295,
-1459,
1237,
175,
-498,
419,
-69,
631,
43,
-698,
-235,
-102,
-226,
-583,
588,
741,
288,
-389,
-1555,
-179,
-711,
-892,
101,
-526,
474,
-1488,
-1786,
372,
55,
204,
381,
1492,
101,
1562,
-574,
-112,
-48,
183,
128,
-246,
-1216,
-756,
-659,
-2002,
-1980,
-474,
-1326,
179,
194,
147,
3,
-925,
1408,
1103,
-1033,
-743,
-410,
-367,
-174,
-403,
334,
-398,
1823,
1127,
-580,
-886,
-494,
1336,
544,
-761,
-965,
-232,
453,
-578,
-992,
-350,
-655,
-1412,
-183,
-141,
-585,
-1054,
69,
492,
-134,
68,
-540,
-350,
-620,
666,
418,
926,
1459,
34,
243,
139,
347,
416,
431,
1165,
108,
466,
1138,
-267,
-431,
-321,
990,
-47,
349,
-16,
-44,
1478,
-1028,
-921,
91,
1772,
900,
237,
310,
-1189,
-294,
-130,
1966,
-611,
-2466,
-35,
-1917,
811,
-1059,
-2364,
-1359,
-188,
-311,
-1098,
1396,
465,
749,
-437,
-923,
-989,
-489,
-833,
-490,
-851,
-1260,
-1030,
1248,
1485,
409,
-733,
-108,
-1008,
265,
-524,
807,
-1365,
-51,
-63,
-278,
2,
93,
-2026,
-86,
-567,
431,
-97,
348,
419,
344,
-848,
-585,
-754,
-415,
-957,
4,
141,
879,
949,
-419,
635,
-846,
-813,
1416,
-723,
-16,
-488,
-504,
76,
5620,
-329,
606,
95,
478,
98,
-1380,
-1114,
89,
-632,
463,
1182,
852,
816,
-737,
970,
-264,
-976,
384,
-364,
-138,
-57,
-190,
-36,
550,
-1365,
973,
-75,
364,
-166,
-454,
-1095,
485,
-978,
-29,
-40,
-1844,
1906,
-1467,
98,
-286,
-61,
-611,
-1031,
-751,
-415,
1227,
-1603,
-3274,
2994,
-718,
-280,
641,
-90,
-269,
-851,
-824,
41,
205,
759,
-1231,
548,
-1282,
941,
-104,
-532,
512,
2028,
-391,
-1230,
13,
252,
282,
551,
-353,
-348,
-76,
-7,
3127,
41,
-1535,
-1067,
-219,
-1651,
-23,
-443,
1914,
-2198,
-158,
393,
-233,
616,
-438,
-630,
377,
657,
1251,
508,
-1278,
123,
95,
101,
516,
-838,
187,
153,
599,
-153,
418,
577,
310,
-54,
307,
374,
677,
388,
-693,
759,
-841,
2226,
-854,
-771,
-401,
1108,
-566,
-1640,
-2101,
351,
-1105,
1088,
10,
-377,
1112,
-689,
405,
459,
-750,
-292,
1361,
108,
-1222,
33,
-165,
-1083,
-578,
-935,
-830,
-282,
257,
-518,
-732,
-511,
-560,
429,
4,
2804,
-1061,
-286,
-832,
-217,
755,
1443,
292,
-824,
777,
245,
-250,
-517,
749,
-416,
-740,
-207,
-57,
422,
-1384,
295,
-264,
214,
502,
-7,
940,
840,
524,
613,
-21,
947,
-1494,
152,
-364,
528,
-251,
-598,
1574,
-380,
444,
520,
-196,
126,
-823,
1014,
717,
1020,
-375,
-563,
247,
-1280,
49,
-769,
164,
-732,
956,
275,
405,
-247,
-284,
-948,
-544,
-608,
1158,
-195,
595,
939,
-1530,
524,
64,
660,
389,
202,
-296,
1274,
-74,
-13,
-71,
-798,
-617,
-472,
-162,
-1803,
-1907,
-707,
295,
3556,
19,
439,
362,
1301,
-754,
-1921,
-332,
1031,
277,
-1232,
934,
-174,
19,
577,
876,
63,
0,
430,
621,
1626,
146,
554,
1678,
-851,
-1244,
-176,
-9,
383,
-265,
1181,
-517,
142,
-298,
-705,
656,
570,
587,
109,
24,
-265,
-1492,
829,
-1369,
159,
-295,
787,
-1098,
198,
-153,
302,
-876,
922,
689,
1274,
-1383,
542,
1005,
-286,
2945,
599,
-340,
557,
-113,
642,
-1358,
-1255,
-999,
-185,
1510,
-101,
-69,
1444,
-1369,
-27,
356,
-171,
-706,
-154,
-290,
639,
279,
1954,
682,
-485,
39,
177,
-227,
-183,
785,
584,
486,
891,
-477,
-634,
2,
1287,
-125,
491,
-269,
-232,
8,
-692,
-67,
337,
1685,
-1343,
-159,
1744,
-715,
-415,
377,
155,
-797,
-16,
1139,
-1128,
137,
-193,
-82,
-913,
-303,
760,
-3,
-575,
-861,
-86,
272,
-611,
669,
-225,
-1211,
-45,
-1066,
507,
663,
529,
1089,
334,
2282,
-1554,
139,
-986,
29,
585,
3034,
-2214,
-695,
1228,
1285,
-54,
-751,
-233,
-709,
-703,
501,
-756,
772,
827,
-53,
-1155,
926,
376,
-825,
-258,
272,
448,
-1146,
952,
523,
1092,
194,
1421,
-46,
-59,
-548,
387,
280,
2068,
-21,
511,
-2379,
1590,
3,
-610,
-1,
-532,
-337,
143,
359,
-1651,
1533,
533,
711,
-1244,
-91,
-307,
-1411,
-903,
803,
-1345,
-363,
-335,
150,
-984,
667,
-234,
-319,
-586,
-10,
-228,
-490,
44,
-293,
-1141,
2866,
163,
1871,
-374,
456,
2418,
27,
437,
-298,
-5,
337,
364,
470,
405,
-878,
11,
309,
130,
-139,
-504,
1047,
1559,
242,
686,
-1392,
1155,
-394,
1519,
538,
237,
-1211,
153,
-258,
1260,
526,
521,
523,
501,
192,
-148,
265,
597,
-586,
1610,
-721,
-452,
-871,
97,
341,
-1157,
83,
-91,
376,
783,
-514,
792,
-738,
1151,
-334,
-317,
686,
396,
1449,
-284,
-35,
210,
-662,
530,
-761,
385,
462,
400,
879,
-350,
905,
-458,
-131,
191,
-1556,
-752,
1915,
-868,
485,
1249,
3102,
-142,
232,
161,
-129,
488,
155,
-1568,
742,
2092,
238,
1381,
1460,
-855,
-1401,
-27,
-721,
329,
-1111,
-901,
-396,
941,
-287,
-581,
-368,
-177,
-33,
680,
733,
-1780,
-1689,
1778,
-563,
-1637,
-475,
-256,
153,
-547,
115,
-282,
173,
848,
227,
-220,
-129,
-158,
1818,
-40,
-109,
246,
120,
-412,
398,
112,
-920,
-1457,
436,
176,
-32,
258,
1981,
-481,
234,
137,
-16,
-739,
-725,
-731,
151,
-583,
-422,
-2000,
4732,
-371,
908,
-44,
84,
1146,
2250,
-1851,
-163,
274,
36,
305,
-2243,
1961,
-683,
764,
374,
-436,
-564,
665,
-980,
331,
-487,
1431,
621,
-728,
-229,
677,
-133,
-648,
540,
-536,
194,
-16,
134,
1961,
-426,
125,
-647,
459,
217,
349,
223,
1306,
-86,
-1337,
-3353,
1167,
447,
897,
518,
-98,
-187,
713,
-66,
1669,
-2030,
-2023,
165,
-515,
1282,
-201,
755,
536,
95,
-834,
-751,
-758,
274,
1884,
1764,
1634,
11,
336,
-761,
528,
1167,
1138,
-821,
1408,
-1525,
792,
1290,
-341,
338,
911,
1706,
-757,
-168,
-467,
391,
-13,
2066,
768,
410,
130,
-1330,
211,
1182,
-686,
-122,
25,
-781,
-170,
105,
-137,
1517,
-597,
-1153,
489,
-1043,
-618,
655,
532,
-1814,
-17,
880,
292,
-270,
-1033,
11,
-1086,
297,
79,
-29,
-489,
1169,
-541,
-1313,
-71,
198,
-1289,
-837,
1513,
1850,
99,
321,
458,
476,
-402,
-1486,
1534,
-754,
551,
-10,
-773,
-1617,
586,
94,
-1703,
-9,
-75,
-392,
1716,
644,
165,
2902,
836,
-1921,
789,
-44,
-140,
1402,
1485,
1491,
631,
895,
-1370,
90,
627,
231,
-668,
-867,
157,
-1508,
-379,
-309,
544,
315,
1949,
-903,
472,
-116,
379,
336,
689,
-898,
-34,
-1558,
431,
-438,
-1068,
314,
-990,
-52,
-807,
-2,
-859,
-25,
-671,
992,
-2145,
-439,
-893,
-1360,
908,
-280,
-24,
212,
-1195,
-499,
1074,
-399,
1051,
308,
-128,
-76,
85,
-266,
461,
-66,
-788,
1886,
-199,
8,
-665,
-531,
361,
-691,
-928,
-370,
-629,
222,
-1327,
-1554,
-874,
20,
2939,
700,
618,
441,
270,
-2647,
643,
-160,
-1426,
-319,
799,
674,
-277,
495,
-1115,
566,
-138,
-234,
-704,
-46,
-506,
781,
72,
356,
-1321,
239,
-1308,
2429,
-188,
-933,
-912,
296,
222,
-608,
535,
-1037,
-957,
3996,
-1194,
-24,
133,
309,
-455,
635,
659,
497,
22,
-1909,
-1025,
-1400,
-1014,
-1109,
-311,
-530,
-381,
85,
162,
2977,
-621,
-1518,
-928,
-854,
-968,
363,
-130,
-256,
-241,
-143,
447,
-354,
-360,
-312,
-856,
-3337,
-569,
2303,
2497,
184,
-118,
426,
979,
-325,
-136,
-192,
55,
121,
493,
-184,
-220,
1324,
-344,
-791,
-477,
-399,
179,
1142,
-996,
596,
-936,
348,
1013,
-457,
464,
-329,
1086,
78,
-570,
1610,
-260,
455,
41,
-372,
335,
94,
186,
160,
-929,
744,
-100,
713,
-227,
-421,
-268,
-321,
-749,
-797,
-402,
-94,
-668,
-295,
408,
-1463,
-923,
110,
-1116,
166,
-45,
760,
-62,
16,
446,
2596,
717,
171,
-337,
-282,
-567,
-1172,
302,
-773,
-1217,
-765,
-504,
1769,
-348,
663,
1111,
582,
-1482,
-1195,
167,
-908,
67,
-123,
-221,
1203,
1437,
-315,
-235,
-767,
147,
212,
-371,
596,
453,
84,
-596,
441,
535,
169,
336,
384,
-291,
-255,
108,
-221,
-598,
351,
-502,
-37,
-1074,
-246,
-1168,
13,
-1248,
-2412,
13,
1032,
-744,
-267,
-1080,
150,
-64,
-591,
-895,
4477,
-557,
1235,
-983,
545,
-666,
693,
-51,
-858,
141,
1151,
-1031,
877,
-912,
2691,
132,
-181,
651,
82,
-528,
-2146,
385,
-1124,
-654,
95,
-1723,
237,
133,
999,
-274,
-93,
1170,
749,
-101,
1225,
1887,
83,
-132,
-435,
-799,
-1226,
-998,
-950,
-652,
-730,
52,
1188,
52,
-434,
-110,
-18,
1011,
501,
867,
-485,
-728,
1325,
1539,
-1434,
-1129,
-987,
-920,
14,
-224,
1285,
-736,
693,
117,
-1198,
62,
-587,
-629,
-1349,
-955,
-1751,
-1754,
736,
274,
-206,
-2579,
1682,
-296,
155,
1262,
-322,
1646,
-1181,
521,
-957,
374,
510,
-960,
2161,
-990,
448,
115,
944,
-1129,
161,
1218,
-529,
-359,
588,
-116,
-1661,
273,
-249,
74,
868,
906,
592,
1060,
76,
641,
203,
63,
-804,
-377,
594,
576,
418,
424,
1748,
-129,
570,
-346,
-315,
-1044,
-1151,
-538,
-169,
1060,
-699,
-795,
-764,
818,
1533,
-270,
-21,
1315,
2434,
324,
1958,
-85,
-447,
-670,
-1654,
-267,
-377,
521,
-883,
-1275,
-1882,
-688,
-250,
1700,
656,
1061,
-1196,
683,
-548,
329,
-12,
-1326,
-1185,
898,
497,
-1036,
55,
34,
-106,
90,
-572,
392,
-776,
-415,
-200,
1780,
1193,
-800,
-258,
313,
-566,
634,
-688,
201,
231,
48,
-2421,
158,
-554,
-117,
1211,
1144,
-45,
1991,
-621,
-220,
869,
1974,
-136,
-32,
-401,
372,
-528,
259,
484,
-712,
33,
-447,
424,
383,
376,
-659,
-1907,
-988,
-74,
145,
-413,
-533,
671,
-648,
265,
1220,
259,
354,
-251,
313,
-673,
-454,
-200,
-859,
-1959,
426,
-18,
60,
-386,
396,
223,
984,
-1277,
-1340,
-223,
-166,
64,
-497,
-564,
-1631,
-727,
698,
-1214,
535,
105,
399,
131,
512,
393,
463,
45,
-571,
-502,
-1873,
-467,
-53,
936,
-832,
-2268,
1976,
364,
-533,
7,
278,
-277,
194,
94,
-428,
-442,
933,
-58,
-334,
-2075,
205,
180,
-1109,
465,
344,
79,
1496,
1921,
256,
-966,
96,
-316,
502,
-535,
-381,
1307,
-190,
221,
844,
-620,
1932,
2624,
-1067,
-118,
351,
-843,
400,
589,
-730,
-1259,
272,
-1329,
339,
4,
-1029,
232,
340,
168,
97,
1447,
1116,
-1126,
847,
-749,
-498,
-1533,
66,
-50,
466,
-659,
-459,
1324,
786,
542,
-760,
-252,
-308,
-1022,
-177,
-691,
540,
159,
1375,
-362,
323,
-30,
480,
51,
8,
-944,
969,
-75,
-659,
-471,
-768,
46,
-995,
688,
1874,
-541,
-51,
-647,
-433,
-539,
-323,
-920,
-425,
568,
-780,
-297,
-709,
-999,
-1499,
-1116,
-231,
-811,
-123,
990,
-351,
-141,
1454,
-592,
-494,
-461,
1698,
152,
-1297,
-142,
-615,
-92,
361,
226,
2054,
-449,
54,
-191,
153,
254,
-1140,
-1079,
503,
-46,
-677,
2953,
-322,
-409,
-2196,
-758,
-1142,
-681,
-156,
-589,
381,
-291,
-1338,
929,
-1735,
837,
-1393,
362,
-2738,
446,
706,
2404,
-1322,
-159,
859,
-244,
185,
1026,
-899,
384,
-8,
-339,
356,
-873,
87,
-128,
-565,
-854,
-197,
-240,
61,
-373,
15,
-32,
430,
817,
-546,
-161,
665,
269,
830,
496,
234,
67,
-574,
-54,
719,
169,
317,
196,
234,
2608,
1863,
625,
-283,
-597,
-1442,
-1291,
-810,
664,
-251,
-1075,
-75,
-392,
846,
481,
-795,
386,
-409,
897,
-539,
2150,
-811,
-416,
1804,
1244,
475,
-251,
-696,
186,
167,
-669,
499,
-1888,
-237,
476,
-1135,
-548,
-1402,
-638,
1905,
-764,
1502,
292,
-1109,
-861,
1407,
-979,
-848,
212,
1739,
-639,
-1400,
-69,
1314,
879,
964,
-239,
665,
115,
-95,
-1529,
-50,
-937,
302,
671,
-151,
-88,
646,
-1841,
283,
210,
-1686,
-2618,
-499,
-554,
-1124,
-343,
983,
91,
-239,
-28,
279,
-225,
-349,
1908,
1145,
-1869,
-1242,
-565,
-27,
-2143,
636,
1623,
-782,
-38,
190,
-1492,
530,
830,
-100,
1168,
183,
1833,
-200,
62,
957,
566,
-367,
668,
-924,
-29,
148,
234,
-303,
-1346,
-353,
-416,
311,
-291,
185,
1540,
2332,
458,
389,
464,
-319,
-1616,
429,
1225,
237,
-131,
987,
-34,
-407,
895,
-1810,
1319,
-536,
650,
1178,
94,
-335,
-43,
1299,
-638,
-472,
-896,
178,
540,
50,
-151,
249,
-266,
27,
412,
523,
2343,
549,
73,
-1278,
482,
-787,
-1321,
-515,
732,
-1280,
265,
447,
1427,
172,
-19,
-182,
-146,
-1028,
-909,
-1341,
399,
-675,
-120,
289,
926,
-57,
-1022,
2466,
-481,
-92,
720,
-590,
470,
-1194,
-319,
107,
578,
1737,
-1560,
-1838,
-424,
-2086,
-779,
-1100,
435,
-853,
577,
-186,
1529,
-144,
621,
127,
719,
-517,
785,
-636,
131,
-871,
473,
328,
570,
-1758,
-373,
1041,
-1940,
-1370,
-2441,
-1042,
-748,
474,
512,
-1344,
645,
-493,
-208,
604,
-1751,
-389,
-1828,
-336,
-355,
-1140,
-401,
-918,
527,
1532,
-882,
-1280,
183,
-1433,
-314,
185,
2437,
-1281,
-15,
1240,
186,
-2487,
15127,
-375,
-1431,
-655,
-1380,
-808,
311,
775,
-504,
-1436,
1307,
644,
-682,
-1383,
-44,
108,
-877,
403,
-518,
901,
-473,
1150,
-248,
1177,
-551,
-522,
-333,
-786,
697,
-303,
1302,
-793,
0,
1582,
757,
246,
-1273,
-74,
-1040,
-367,
629,
-140,
-367,
-168,
19,
293,
904,
-181,
-241,
840,
149,
476,
-350,
92,
-483,
-122,
268,
-1348,
-1242,
965,
293,
-770,
760,
583,
-42,
907,
-384,
362,
554,
81,
506,
-490,
566,
603,
-311,
572,
-801,
-834,
-1054,
-23,
-319,
-90,
1638,
-43,
-1949,
388,
-332,
1375,
114,
-183,
1173,
-914,
-758,
71,
-515,
-96,
-29,
-1245,
33,
41,
34,
542,
521,
-443,
171,
342,
492,
-1130,
-1813,
-1487,
0,
-122,
-2189,
308,
-1603,
535,
120,
-493,
704,
1109,
-864,
-629,
3141,
368,
-759,
-1527,
130,
-1152,
-70,
121,
361,
327,
-32,
653,
318,
1256,
-2928,
940,
-1235,
630,
-307,
-744,
-391,
-565,
12,
1537,
1151,
-715,
-1318,
2718,
-783,
3,
-289,
677,
-1552,
291,
63,
746,
1081,
-449,
-1182,
745,
151,
814,
-211,
808,
2070,
-1089,
606,
-537,
353,
-1365,
210,
781,
-37,
-713,
539,
1247,
908,
-516,
878,
693,
-389,
589,
-1322,
91,
-1039,
-600,
-49,
-1212,
-602,
-451,
278,
233,
-724,
109,
-135,
1148,
-108,
28,
294,
65,
-1616,
-166,
-656,
973,
820,
-408,
238,
798,
-573,
460,
-330,
-90,
297,
-459,
-792,
1788,
-1209,
2190,
71,
-373,
-1836,
-1032,
-237,
-384,
-285,
-258,
-6,
-682,
385,
178,
725,
253,
1031,
-1158,
-571,
570,
2340,
-962,
-992,
-645,
-5,
1181,
74,
-800,
840,
229,
-586,
-402,
-1237,
-191,
-357,
-512,
-412,
-33,
-975,
525,
1083,
90,
-164,
-154,
335,
-5,
-125,
828,
-1853,
497,
-2287,
-2628,
-1434,
423,
-325,
-1655,
-598,
157,
-1062,
211,
-932,
-545,
1758,
655,
-182,
-104,
475,
135,
-362,
-15,
-2316,
677,
-951,
-350,
1587,
-1002,
1401,
-1105,
51,
464,
-215,
170,
-252,
-1089,
1081,
-251,
-1804,
1361,
-606,
-353,
-183,
376,
-866,
-1775,
187,
217,
-1514,
-263,
-1893,
-1372,
-996,
1162,
388,
-617,
-679,
-394,
539,
472,
1189,
112,
3,
-1057,
784,
243,
275,
-540,
-700,
30,
957,
652,
345,
1214,
-1327,
598,
501,
282,
-4,
-811,
310,
-391,
996,
-247,
-464,
41,
-1477,
1021,
108,
-358,
-158,
-105,
-1078,
-2418,
1044,
1668,
-546,
-117,
-647,
-979,
-202,
-768,
-784,
34,
526,
-321,
0,
-502,
1,
-1212,
-1330,
-884,
-11,
-1101,
-1151,
837,
-836,
-534,
-209,
-603,
-1045,
-325,
-1188,
-2015,
489,
-892,
-245,
-316,
-1699,
105,
-1113,
868,
552,
68,
-1476,
-388,
-356,
-87,
-280,
1058,
144,
1237,
694,
-590,
-377,
44,
1181,
-344,
353,
142,
-746,
-70,
-656,
-667,
-409,
214,
-468,
913,
-1341,
-594,
787,
413,
-661,
-152,
-1498,
328,
9,
936,
-616,
8,
76,
444,
-497,
277,
65,
-1198,
245,
-35,
-153,
140,
-1522,
-1152,
-2196,
-1051,
1047,
-809,
-127,
-388,
929,
-714,
-869,
-685,
-236,
309,
-421,
-246,
-818,
-605,
-542,
201,
-263,
856,
-175,
245,
537,
-325,
-271,
-210,
-103,
-465,
-417,
-461,
697,
-101,
329,
1102,
717,
79,
2122,
493,
588,
360,
195,
800,
1163,
-26,
-1166,
625,
-653,
602,
-594,
7,
-517,
260,
-174,
-713,
-585,
-1505,
-2714,
-861,
-1206,
-774,
-2473,
-754,
-317,
-1035,
300,
-1497,
883,
-314,
-1774,
-1142,
-413,
664,
318,
250,
-819,
-439,
536,
-332,
-906,
275,
1071,
-80,
-218,
-268,
-1929,
448,
-31,
80,
411,
-311,
967,
301,
329,
-997,
1227,
-1229,
-2029,
17,
67,
-400,
-811,
-511,
-1969,
-514,
653,
-871,
-163,
970,
-858,
18,
583,
291,
-259,
-241,
-2439,
-1595,
428,
-129,
-9,
207,
-1855,
-133,
-552,
134,
84,
-871,
-401,
-277,
71,
-165,
-101,
589,
-69,
-824,
25,
-153,
466,
1291,
879,
-786,
-747,
-681,
-936,
-1116,
19,
-1527,
-899,
-155,
-278,
-889,
-2017,
-112,
-80,
1298,
-304,
-781,
-3089,
-1112,
183,
651,
329,
-196,
925,
-635,
916,
-1674,
120,
517,
935,
109,
584,
-15,
714,
-465,
-1229,
-1076,
325,
117,
-722,
155,
-1469,
418,
-462,
58,
70,
-549,
456,
631,
-1575,
378,
859,
-827,
1136,
-1,
846,
-356,
-168,
257,
-70,
-45,
9,
-23,
295,
-376,
-318,
-129,
-458,
529,
331,
-691,
1004,
326,
1522,
1106,
-896,
-587,
-1059,
-268,
-283,
-647,
447,
-509,
70,
671,
-275,
-338,
141,
-538,
-119,
-272,
58,
159,
-74,
30,
332,
-932,
-152,
-612,
-97,
-57,
-785,
-767,
-69,
-167,
-412,
542,
2522,
-112,
1144,
770,
936,
203,
620,
1164,
-16,
613,
4,
1253,
-238,
-989,
-599,
-579,
-662,
480,
-450,
-410,
251,
316,
-81,
-2,
-5,
-1,
-2,
0,
-1,
0,
-7,
-4,
-3,
0,
-1,
-5,
-232,
-45,
1304,
-4,
-547,
-1208,
-800,
407,
-430,
-470,
184,
10,
550,
343,
-579,
-229,
0,
-111,
196,
-226,
11,
-77,
-79,
166,
1109,
-558,
-270,
561,
-325,
-168,
35,
-632,
759,
-499,
29,
-25,
0,
0,
0,
0,
0,
0,
0,
0,
0,
0,
0,
0,
-403,
-203,
-149,
-632,
-263,
-154,
-223,
-318,
-209,
-52,
476,
-676,
-1730,
623,
-1611,
-972,
-176,
-113,
248,
246,
-219,
-277,
-448,
-568,
440,
-549,
-26,
27,
835,
-171,
-608,
-232,
-264,
-429,
176,
-346
};

#endif