#ifndef __MMCBLOCK3_MMLAYER7_BRANCH33C_CONV_0_WEIGHT_H__
#define __MMCBLOCK3_MMLAYER7_BRANCH33C_CONV_0_WEIGHT_H__

// MMCBlock3_mmLayer7_branch33c_conv_0_weight
// (3, 3, 6, 6)
const int MMCBlock3_mmLayer7_branch33c_conv_0_weight[] = {
-1423,
3972,
-81,
1010,
-537,
-79,
1478,
1777,
309,
-685,
-533,
134,
-2012,
-2067,
-1372,
2534,
525,
-432,
4484,
96,
1551,
1038,
-838,
-981,
-1853,
-1694,
-904,
865,
2917,
-854,
-2024,
-6,
1843,
-122,
-885,
-507,
-29,
2580,
105,
522,
-476,
-10,
-2223,
2038,
-1436,
-821,
-351,
2570,
-1226,
-1156,
-2090,
6267,
-1269,
-1927,
1206,
1465,
-2008,
777,
-413,
-666,
-1484,
-1699,
-2201,
1105,
3703,
-155,
-1465,
-122,
815,
339,
-414,
-249,
5540,
-1662,
1242,
682,
-469,
407,
1697,
2607,
-74,
-1032,
-121,
882,
-1511,
-1619,
-957,
2432,
-4,
-293,
-80,
3103,
826,
1351,
-614,
-268,
-1720,
-1799,
-696,
1214,
2888,
-131,
-1013,
-253,
123,
-152,
-215,
-588,
-1474,
1906,
-3209,
393,
45,
233,
433,
-985,
1890,
-798,
-956,
-556,
637,
-750,
-969,
-1443,
1319,
-352,
-140,
-172,
3265,
139,
-672,
-1141,
23,
-952,
-535,
-955,
-705,
-713,
-2257,
-503,
985,
-538,
-407,
-1765,
-1482,
-1129,
-1248,
-29,
-330,
-376,
-201,
-1399,
-1898,
488,
82,
-161,
20,
1261,
-1732,
-1175,
-605,
-1698,
310,
-2459,
903,
-84,
-671,
-2087,
1879,
413,
-371,
-438,
-764,
-322,
-1465,
-1366,
-358,
-694,
-642,
-1728,
2017,
-1868,
5042,
256,
-927,
-1121,
1140,
-303,
78,
-600,
-1755,
-791,
67,
-830,
-1556,
-1323,
947,
-646,
-1070,
1997,
357,
-933,
-1134,
-1233,
382,
-1130,
210,
254,
-805,
-535,
-663,
-179,
304,
-566,
-205,
-1115,
88,
-55,
-1242,
-611,
312,
-922,
199,
120,
276,
-684,
73,
100,
1191,
-1434,
379,
-314,
793,
-1484,
-1789,
-66,
180,
1076,
1505,
2138,
-903,
851,
-1338,
735,
-533,
-1630,
699,
-1763,
-1168,
124,
795,
1707,
-997,
-665,
-411,
-599,
15,
-1380,
88,
29,
-1536,
955,
429,
165,
-404,
-2404,
-1330,
-959,
-170,
-1466,
-710,
-520,
3213,
-444,
116,
631,
-490,
1681,
-567,
326,
-344,
-968,
1617,
-1839,
-2187,
607,
44,
1464,
-1889,
-1116,
3620,
-277,
-29,
698,
-542,
161,
-380,
230,
-12,
511,
616,
867,
-452,
136,
156,
-1941,
-1159,
349,
-27,
-1329,
609,
709,
-288,
684,
-799,
30,
-165,
-1893,
2700,
-330,
-801,
707,
437,
908
};

#endif