#ifndef __MMCBLOCK2_MMLAYER1_BRANCH33A_CONV_0_WEIGHT_H__
#define __MMCBLOCK2_MMLAYER1_BRANCH33A_CONV_0_WEIGHT_H__

// MMCBlock2_mmLayer1_branch33a_conv_0_weight
// (3, 3, 12, 12)
const int MMCBlock2_mmLayer1_branch33a_conv_0_weight[] = {
175,
146,
2123,
-352,
-141,
-582,
-1634,
703,
-261,
433,
167,
1059,
-23,
330,
1389,
-500,
-839,
-868,
-1095,
777,
-26,
-85,
-868,
-1424,
-200,
-73,
-2062,
407,
497,
1543,
2253,
1304,
20,
-909,
270,
-129,
-430,
788,
108,
-925,
-494,
276,
-139,
-504,
-323,
181,
-791,
345,
-53,
-469,
-1968,
59,
188,
913,
607,
2017,
105,
-780,
-449,
-247,
1168,
-634,
333,
-187,
-611,
418,
26,
275,
253,
-289,
-786,
437,
-670,
-1127,
1546,
-96,
774,
-944,
-733,
-1504,
-197,
1206,
796,
-181,
-577,
-172,
-527,
-763,
-285,
-331,
136,
324,
906,
-351,
-237,
-854,
-74,
-90,
-643,
51,
-131,
-257,
-211,
270,
422,
-233,
283,
-90,
-93,
1134,
280,
333,
-819,
-169,
-763,
3,
522,
-250,
-792,
-47,
277,
380,
1838,
1168,
178,
-362,
-844,
-685,
-917,
913,
197,
-732,
-313,
-320,
240,
109,
181,
302,
108,
-23,
1050,
355,
-1058,
73,
708,
169,
-1201,
597,
1152,
177,
-891,
480,
-89,
422,
-1261,
2312,
1058,
-62,
-429,
341,
423,
-546,
-376,
176,
-249,
-3,
-1106,
-328,
127,
202,
816,
-1364,
-2414,
-643,
431,
-972,
-932,
-395,
3749,
-2464,
-763,
524,
-718,
-1251,
486,
-22,
-616,
-105,
270,
-353,
-1678,
1499,
1593,
-684,
385,
-905,
-1294,
-738,
-433,
-633,
-440,
-879,
382,
-772,
2394,
-384,
-273,
-540,
1391,
-891,
-164,
-157,
455,
-595,
-3739,
2430,
-2258,
-551,
-569,
843,
-1473,
1057,
-617,
-1309,
-150,
-239,
3928,
-2002,
897,
-241,
-39,
-453,
-932,
170,
44,
-29,
-489,
78,
75,
-596,
115,
610,
-637,
-411,
-1015,
-194,
-1389,
-773,
111,
-587,
1250,
-1092,
-522,
1900,
875,
85,
-54,
534,
726,
408,
263,
676,
-1289,
-853,
-76,
268,
-1153,
2273,
188,
-12,
-694,
-364,
-395,
-110,
220,
814,
402,
-94,
290,
149,
-710,
340,
-186,
58,
561,
387,
47,
-914,
228,
-82,
-1489,
-321,
-681,
354,
1987,
304,
-37,
-246,
91,
474,
525,
450,
-1182,
-624,
-292,
-378,
973,
-832,
182,
-50,
-549,
-1265,
-198,
-429,
2231,
178,
1276,
-1212,
-1904,
-330,
-329,
2213,
70,
174,
-586,
621,
-250,
-600,
-179,
-632,
61,
597,
41,
-171,
-297,
191,
-41,
-271,
570,
-487,
62,
-548,
-1886,
-541,
339,
1153,
-879,
-435,
1443,
-632,
214,
22,
-211,
-862,
228,
50,
509,
788,
-643,
62,
-1096,
-652,
-262,
-5,
-313,
1781,
1445,
443,
-411,
-1577,
976,
364,
-143,
-69,
-81,
-885,
590,
325,
-582,
-423,
972,
290,
120,
-792,
-106,
332,
-505,
136,
605,
243,
-227,
-579,
730,
-270,
58,
119,
-236,
1000,
-1086,
468,
240,
399,
181,
-355,
367,
-307,
-690,
-119,
162,
268,
-1013,
990,
-539,
893,
1460,
1113,
-834,
-705,
457,
-321,
-431,
-332,
131,
-203,
9,
505,
148,
507,
1100,
-118,
-690,
36,
60,
-401,
3297,
120,
699,
72,
-2814,
1038,
124,
-178,
-355,
-255,
-454,
-124,
704,
-279,
-205,
-606,
-1211,
1809,
268,
-769,
-415,
-401,
-126,
-68,
-2357,
-135,
-1482,
394,
3005,
-393,
1,
136,
354,
55,
-373,
373,
3260,
-16,
908,
162,
-2175,
295,
-193,
189,
299,
-784,
-162,
-437,
-813,
-510,
-709,
1387,
1291,
2269,
678,
-2059,
120,
141,
273,
-776,
2325,
436,
1163,
2528,
-414,
2272,
-273,
-2249,
-451,
-759,
-733,
-1065,
528,
150,
-761,
-2583,
461,
-2952,
-154,
4668,
-147,
-22,
-961,
-222,
267,
-1382,
-1120,
-795,
-485,
1254,
1617,
-929,
-1476,
-729,
169,
-691,
-970,
-223,
-1413,
-1151,
-397,
27,
202,
-417,
238,
431,
-344,
960,
86,
114,
-743,
-665,
-907,
-97,
344,
-217,
138,
299,
-412,
491,
-1180,
-96,
204,
416,
489,
-230,
524,
585,
-187,
-536,
-613,
-309,
-1345,
135,
-842,
-113,
1379,
278,
897,
427,
-127,
539,
-127,
-373,
-225,
1458,
920,
-82,
-533,
-23,
371,
607,
-67,
76,
1079,
-575,
628,
563,
-267,
-221,
319,
-531,
-130,
242,
2055,
212,
-636,
15,
-851,
-1157,
-1178,
536,
197,
-682,
-755,
236,
-1067,
-387,
-437,
66,
-2077,
774,
2308,
981,
-1139,
-410,
615,
150,
-384,
1492,
615,
-704,
92,
-811,
145,
392,
-106,
-892,
-117,
-393,
780,
705,
-629,
-278,
-170,
461,
1055,
158,
-400,
-1245,
-238,
-768,
272,
64,
-105,
-781,
-299,
1157,
-1715,
-1103,
-438,
551,
-78,
-243,
-1436,
-743,
362,
-656,
-27,
-191,
-478,
58,
246,
-103,
138,
43,
-880,
-253,
689,
153,
-1051,
-259,
-1595,
-876,
-1031,
-507,
-175,
-890,
204,
101,
-811,
1756,
1226,
-636,
257,
601,
893,
79,
89,
693,
-1055,
-692,
457,
103,
716,
-315,
-2019,
-1909,
-425,
46,
884,
-684,
681,
-915,
526,
-291,
-83,
-41,
-1405,
-821,
-607,
-437,
-51,
-200,
-13,
-640,
-125,
-429,
-2600,
-294,
-1561,
18,
3467,
-721,
82,
372,
-54,
-15,
391,
-235,
-867,
-217,
-249,
160,
935,
-1969,
274,
865,
-242,
-387,
-443,
-62,
2888,
154,
2076,
276,
-3166,
1012,
-203,
774,
163,
-336,
-184,
423,
-2019,
615,
-1661,
-159,
2902,
436,
171,
64,
105,
82,
-103,
-457,
1187,
-222,
1018,
-2064,
-1060,
-967,
473,
2113,
172,
-361,
-237,
-462,
-432,
440,
-1635,
-2163,
2248,
-1417,
-205,
3255,
-107,
394,
-821,
-1159,
881,
-366,
1340,
4394,
682,
3314,
-180,
-3486,
-1081,
-923,
-358,
-476,
-522,
-844,
718,
-393,
331,
-1409,
1431,
422,
-1160,
-1740,
435,
-307,
27,
-173,
120,
849,
-867,
-791,
121,
-1214,
517,
0,
-287,
357,
-895,
-78,
479,
823,
-222,
-882,
203,
-633,
155,
231,
-59,
89,
738,
-345,
-284,
239,
-460,
985,
552,
-299,
-267,
-495,
-604,
-513,
1426,
-49,
1550,
142,
-1054,
132,
903,
-271,
-147,
-447,
96,
-161,
1119,
-715,
18,
-107,
-872,
688,
448,
-6,
253,
-1045,
-835,
110,
-645,
-515,
-677,
-160,
-151,
1482,
578,
-171,
-377,
43,
-90,
17,
363,
550,
448,
239,
573,
37,
-64,
902,
-207,
729,
1015,
269,
2401,
431,
1336,
-873,
-1999,
126,
-649,
1266,
603,
-1221,
-470,
184,
-289,
-39,
152,
173,
389,
1033,
481,
-1066,
252,
610,
-537,
-661,
-2,
536,
250,
1294,
496,
284,
-424,
-708,
298,
-1218,
723,
-408,
894,
-832,
192,
-418,
-549,
-1641,
6,
1462,
131,
797,
-700,
131,
-285,
-501,
-865,
-116,
-252,
387,
563,
-332,
-961,
-286,
-302,
-420,
149,
-268,
-931,
79,
-123,
-190,
283,
-274,
233,
866,
-366,
812,
78,
383,
-193,
-935,
-266,
11,
1,
-443,
-254,
178,
486,
-74,
-656,
-1261,
-133,
1681,
1418,
814,
475,
-595,
26,
-341,
-752,
-482,
-1125,
297,
-381,
908,
551,
200,
554,
-219,
-391,
611,
-438,
218,
159,
-627,
-356,
-318,
321,
-60,
470,
373,
2008,
-1293,
-226,
-16,
-211,
3,
684,
510,
266,
-161,
-1,
530,
1954,
186,
131,
-121,
-1095,
1120,
1047,
-804,
-875,
-245,
-54,
-317,
-3082,
2626,
-56,
45,
-1231,
1467,
-1160,
-194,
-1315,
-126,
-156,
-154,
2473,
-654,
-1106,
-291,
-164,
457,
306,
315,
143,
-884,
-70,
-47,
1075,
1256,
-2611,
-148,
-572,
-150,
-928,
1127,
-702,
-1201,
-596,
-353,
4630,
-1723,
3404,
310,
-552,
-661,
780,
-1855,
-94,
372,
-6,
-945,
-2963,
2118,
-348,
-153,
153,
372,
-131,
501,
524,
-269,
-553,
440,
485,
-455,
252,
511,
-665,
-199,
223,
-738,
-533,
-366,
27,
-600,
-884,
1249,
-1079,
1807,
1106,
-354,
565,
189,
890,
201,
-235,
626,
-1695,
-326,
1153,
113,
-13,
-2460,
-1068,
-117,
93,
-738,
206,
-1019,
277,
-886,
-202,
-609,
-171,
36,
271,
-64,
-12,
-222,
-223,
340,
-1600,
1074,
158,
-372,
-1037,
-927,
-801,
-156,
1346,
-467,
329,
70,
172,
-268,
-620,
73,
37,
-403,
1363,
5,
-649,
-808,
637,
258,
-571,
46,
4,
7,
-26,
834,
703,
440,
-321,
1146,
-99,
-36,
48,
627,
385,
417,
-1428,
111,
-2815,
1438,
2468,
434,
-523,
-661,
517,
123,
-747,
-51,
256,
-95,
226,
-723,
-183,
-935,
244,
821,
201,
297,
-1400,
-708,
234,
130,
-1357,
-246,
-380,
52,
-648,
1330,
174,
-78,
1023,
-637,
-324,
-602,
1267,
443,
1317,
1166,
94,
-974,
106,
78,
-666,
-137,
-417,
-893,
1194,
193,
-287,
-981,
856,
-194,
-1150,
-941,
-48,
6,
-100,
-341,
992,
-178,
-521,
-1114,
224,
-433,
66,
-137,
-573,
751,
-296,
128,
217,
359,
-298,
-648,
-83,
-573,
-70,
244,
678,
-236,
1128,
-904,
1252,
-1291,
-1516,
72,
823,
1170,
472,
-68,
-845,
-663,
48,
103,
1411,
-16,
-1012,
-739,
503,
267,
-536,
206
};

#endif