#ifndef __MMCBLOCK4_MMLAYER2_BRANCH33B_CONV_0_WEIGHT_H__
#define __MMCBLOCK4_MMLAYER2_BRANCH33B_CONV_0_WEIGHT_H__

// MMCBlock4_mmLayer2_branch33b_conv_0_weight
// (3, 3, 12, 6)
const int MMCBlock4_mmLayer2_branch33b_conv_0_weight[] = {
0,
0,
0,
0,
0,
0,
-589,
1188,
158,
0,
14,
-713,
0,
0,
0,
0,
0,
0,
0,
0,
0,
0,
0,
0,
-569,
2516,
682,
0,
-129,
-596,
0,
0,
0,
0,
0,
0,
-891,
754,
-392,
0,
332,
-1709,
-121,
2079,
166,
0,
-373,
-228,
-442,
473,
-816,
0,
-1336,
-633,
6,
-7,
-9,
0,
-4,
2,
-977,
1787,
54,
0,
-262,
-361,
-89,
506,
3993,
0,
24,
393,
0,
0,
0,
0,
0,
0,
-1219,
491,
-314,
0,
-302,
-378,
0,
0,
0,
0,
0,
0,
0,
0,
0,
0,
0,
0,
643,
2285,
515,
0,
-169,
-1289,
0,
0,
0,
0,
0,
0,
-887,
-1399,
-644,
0,
122,
-1222,
-1000,
1003,
462,
0,
-55,
-36,
-616,
-1021,
-370,
0,
-1479,
-1001,
-7,
0,
0,
0,
-12,
9,
-824,
115,
331,
0,
-626,
246,
776,
321,
3798,
0,
116,
287,
0,
0,
0,
0,
0,
0,
-479,
-192,
-192,
0,
-106,
-46,
0,
0,
0,
0,
0,
0,
0,
0,
0,
0,
0,
0,
1710,
2374,
705,
0,
-389,
-1339,
0,
0,
0,
0,
0,
0,
376,
-53,
-780,
0,
454,
-2122,
149,
-257,
199,
0,
198,
-151,
-132,
-891,
-277,
0,
-1275,
-764,
-8,
1,
-5,
0,
-9,
9,
733,
-392,
-547,
0,
-556,
-620,
639,
299,
3719,
0,
124,
290,
0,
0,
0,
0,
0,
0,
478,
269,
491,
0,
574,
-919,
0,
0,
0,
0,
0,
0,
0,
0,
0,
0,
0,
0,
-1126,
-101,
50,
0,
-262,
176,
0,
0,
0,
0,
0,
0,
423,
-2861,
218,
0,
-583,
-627,
591,
445,
-565,
0,
-521,
-529,
-583,
-1387,
-1361,
0,
-508,
137,
6,
-28,
-2,
0,
1,
-12,
1405,
-1237,
451,
0,
-378,
-70,
-418,
422,
41,
0,
346,
-212,
0,
0,
0,
0,
0,
0,
24,
-1059,
-202,
0,
988,
5,
0,
0,
0,
0,
0,
0,
0,
0,
0,
0,
0,
0,
-802,
-1355,
-47,
0,
-322,
-212,
0,
0,
0,
0,
0,
0,
-1884,
-2762,
259,
0,
-726,
-517,
-773,
-987,
-764,
0,
-299,
-8,
-1391,
-1277,
-946,
0,
-1773,
-643,
2,
-9,
-4,
0,
-6,
-8,
19,
-1665,
1024,
0,
-590,
377,
-311,
76,
-2634,
0,
476,
-787,
0,
0,
0,
0,
0,
0,
-543,
-1148,
-557,
0,
685,
963,
0,
0,
0,
0,
0,
0,
0,
0,
0,
0,
0,
0,
305,
-834,
391,
0,
-509,
-746,
0,
0,
0,
0,
0,
0,
-1642,
187,
91,
0,
-345,
-1105,
-739,
-485,
-583,
0,
-6,
212,
-1691,
-864,
-1079,
0,
-1858,
10,
0,
8,
-3,
0,
8,
-5,
-416,
-202,
-111,
0,
-347,
99,
415,
325,
680,
0,
344,
-452,
0,
0,
0,
0,
0,
0,
669,
-465,
-43,
0,
-367,
-752,
0,
0,
0,
0,
0,
0,
0,
0,
0,
0,
0,
0,
796,
-1577,
-60,
0,
129,
-1695,
0,
0,
0,
0,
0,
0,
1829,
54,
-36,
0,
-243,
-2347,
1192,
133,
-67,
0,
-219,
-768,
601,
-1961,
-161,
0,
3536,
301,
3,
4,
-3,
0,
-7,
-20,
2003,
-754,
182,
0,
-466,
-664,
-304,
793,
-2591,
0,
380,
406,
0,
0,
0,
0,
0,
0,
897,
-691,
-580,
0,
803,
247,
0,
0,
0,
0,
0,
0,
0,
0,
0,
0,
0,
0,
-223,
-978,
156,
0,
36,
-692,
0,
0,
0,
0,
0,
0,
1493,
1616,
-246,
0,
323,
-2283,
745,
111,
-237,
0,
97,
-382,
420,
-629,
-155,
0,
4834,
-367,
8,
9,
1,
0,
-5,
-21,
925,
112,
198,
0,
-329,
157,
-210,
735,
-3620,
0,
472,
-106,
0,
0,
0,
0,
0,
0,
-845,
90,
-140,
0,
447,
656,
0,
0,
0,
0,
0,
0,
0,
0,
0,
0,
0,
0,
-74,
786,
436,
0,
-135,
-1890,
0,
0,
0,
0,
0,
0,
1450,
3156,
-134,
0,
399,
-2211,
-491,
833,
-233,
0,
-27,
323,
-748,
-402,
-221,
0,
3502,
516,
9,
9,
2,
0,
1,
-13,
521,
2093,
-119,
0,
171,
-388,
281,
616,
-1702,
0,
-316,
445
};

#endif