#ifndef __MMCBLOCK3_MMLAYER2_BRANCH33A_CONV_0_WEIGHT_H__
#define __MMCBLOCK3_MMLAYER2_BRANCH33A_CONV_0_WEIGHT_H__

// MMCBlock3_mmLayer2_branch33a_conv_0_weight
// (3, 3, 12, 12)
const int MMCBlock3_mmLayer2_branch33a_conv_0_weight[] = {
692,
-386,
-189,
-583,
-364,
1230,
-293,
-254,
473,
403,
-914,
-303,
-741,
132,
255,
286,
-92,
712,
-379,
-174,
436,
2363,
-1038,
665,
-384,
13,
-1275,
12,
-201,
-835,
484,
-164,
-714,
-460,
225,
-323,
-1105,
140,
-183,
-201,
132,
-62,
-501,
-142,
-200,
123,
1167,
679,
636,
-501,
-1325,
-477,
451,
-409,
224,
302,
-250,
65,
-251,
455,
-1022,
-281,
-482,
-85,
-131,
60,
-608,
625,
89,
-751,
1757,
-36,
83,
-1155,
498,
155,
-589,
488,
-741,
563,
450,
247,
137,
20,
-37,
-507,
601,
-56,
631,
-360,
-489,
97,
563,
-31,
105,
-135,
-507,
301,
536,
-331,
-1036,
589,
-672,
-279,
130,
-139,
-431,
-624,
120,
42,
-468,
286,
648,
-405,
-158,
40,
110,
-602,
609,
32,
76,
795,
237,
-279,
-460,
104,
603,
-803,
-1126,
-552,
-764,
-83,
-1013,
-173,
-359,
687,
-15,
-35,
-470,
896,
564,
-49,
-226,
-370,
125,
-1150,
-591,
-233,
107,
246,
80,
-28,
826,
-266,
-444,
-321,
1254,
186,
-201,
-20,
-427,
366,
-789,
124,
-18,
486,
-332,
364,
-504,
634,
-585,
581,
-502,
-409,
381,
-472,
-318,
464,
-392,
617,
982,
1175,
585,
-88,
-51,
401,
33,
-546,
-693,
-48,
1373,
906,
667,
-97,
-924,
-24,
936,
-780,
75,
314,
538,
-400,
-153,
741,
-359,
-308,
-307,
597,
151,
366,
-703,
691,
-88,
220,
429,
313,
30,
-1706,
239,
232,
-127,
31,
-1131,
2308,
-277,
-571,
-369,
149,
-66,
-338,
320,
488,
1310,
-691,
-176,
578,
696,
-41,
-131,
-410,
-500,
673,
251,
703,
-955,
981,
203,
-773,
232,
-72,
551,
-965,
248,
496,
467,
975,
143,
-720,
613,
-699,
634,
-799,
-284,
414,
91,
1073,
1381,
801,
-856,
95,
827,
-1102,
-2324,
-318,
510,
-8,
-501,
-34,
-1059,
1010,
87,
538,
-148,
998,
556,
-4,
-544,
-297,
-626,
-589,
4,
-691,
-334,
1237,
-468,
-451,
89,
446,
517,
-88,
1652,
-275,
-572,
-123,
-364,
22,
-552,
556,
591,
-880,
-611,
-273,
-156,
83,
-1317,
-358,
120,
-801,
477,
-376,
-372,
-534,
-477,
-214,
1218,
-24,
-303,
-300,
-899,
62,
-192,
-498,
-105,
914,
-1127,
823,
-308,
-516,
-1113,
-425,
-104,
-67,
-68,
83,
-76,
353,
545,
345,
-805,
-293,
445,
495,
-1188,
400,
-572,
-157,
661,
2204,
-463,
505,
567,
-1110,
229,
336,
86,
347,
-751,
913,
243,
75,
-109,
-19,
47,
-350,
580,
300,
2060,
-452,
-668,
18,
694,
-242,
-450,
-233,
-154,
154,
534,
-580,
-519,
676,
-466,
-223,
448,
24,
-512,
-662,
54,
390,
-142,
279,
-33,
-511,
-262,
-436,
-46,
-698,
657,
-64,
-149,
1028,
204,
-175,
88,
-162,
765,
-687,
-1393,
-702,
298,
-200,
-31,
-292,
-242,
319,
-527,
152,
-309,
806,
739,
-334,
-548,
-228,
592,
-550,
-238,
356,
-546,
305,
-221,
-419,
-115,
113,
-1113,
-165,
877,
483,
997,
37,
511,
417,
-983,
547,
-236,
285,
-535,
441,
141,
-333,
-302,
1151,
-52,
-1280,
400,
-26,
-851,
-472,
-519,
-408,
17,
-380,
-157,
661,
2058,
14,
-261,
-188,
-410,
547,
770,
-160,
910,
-314,
-87,
466,
-242,
74,
-339,
348,
865,
-523,
-614,
-215,
-279,
129,
-341,
403,
-490,
27,
-867,
-55,
-101,
223,
-495,
-163,
579,
-254,
-175,
903,
-483,
224,
-977,
-500,
2,
649,
-201,
-23,
179,
-14,
167,
516,
-289,
-695,
-1039,
25,
681,
-440,
488,
-126,
-1971,
-429,
8,
-457,
686,
645,
83,
-56,
-364,
408,
2398,
296,
187,
6,
-45,
1870,
-86,
-471,
-32,
509,
578,
123,
906,
-51,
-1031,
302,
-109,
-200,
70,
449,
694,
319,
-1831,
-238,
248,
172,
186,
207,
374,
1067,
-956,
-265,
-876,
479,
211,
-211,
41,
-25,
-39,
-306,
457,
793,
-34,
-201,
373,
178,
466,
-646,
-451,
-67,
142,
366,
-337,
1212,
5,
-91,
-1153,
130,
24,
126,
442,
112,
-107,
44,
603,
898,
290,
-370,
-190,
-249,
-482,
357,
-334,
360,
-244,
-332,
-137,
-87,
1678,
-175,
-243,
352,
96,
382,
-269,
38,
-459,
241,
552,
1592,
-75,
715,
184,
-120,
543,
-1029,
-468,
625,
532,
580,
-146,
1249,
106,
-171,
-1164,
342,
472,
-43,
366,
-132,
-365,
-217,
116,
934,
-19,
-377,
-255,
-25,
-656,
-564,
-20,
519,
-977,
47,
-8,
1565,
-803,
-434,
336,
148,
158,
-62,
-882,
-507,
-604,
-185,
-713,
314,
-1524,
250,
786,
507,
141,
860,
500,
-131,
-194,
-339,
101,
2132,
-449,
-293,
-400,
104,
1184,
268,
-404,
134,
527,
184,
-331,
137,
32,
78,
-67,
18,
-2001,
-90,
505,
-341,
-564,
21,
-91,
2482,
-236,
88,
-807,
-241,
128,
131,
-177,
-52,
-728,
-378,
-319,
17,
262,
460,
-135,
-419,
256,
192,
1470,
-304,
149,
26,
-215,
329,
-538,
125,
-1242,
323,
-95,
314,
66,
-497,
-754,
-313,
-185,
1231,
-269,
-1018,
476,
352,
-735,
-353,
113,
-457,
633,
-415,
192,
434,
-954,
189,
-230,
-162,
-493,
320,
-340,
206,
-662,
-371,
-205,
89,
876,
-32,
-650,
413,
39,
-110,
807,
59,
-608,
576,
967,
440,
-944,
290,
-921,
40,
-301,
490,
1431,
276,
-632,
-261,
-177,
301,
-121,
165,
-1086,
-425,
-39,
556,
1199,
33,
197,
-102,
-129,
476,
1158,
-648,
-564,
-185,
661,
-509,
-602,
-329,
2243,
-370,
90,
-738,
-1150,
517,
-79,
-258,
-368,
389,
-1804,
505,
28,
-207,
-114,
1316,
-339,
-686,
-323,
480,
750,
-68,
-112,
-59,
496,
717,
-179,
80,
-1026,
168,
562,
-45,
-1409,
-109,
-735,
392,
84,
284,
34,
979,
-164,
-242,
-842,
293,
186,
-106,
-66,
-237,
591,
-253,
-445,
94,
135,
-481,
167,
-194,
145,
463,
-467,
-57,
-213,
-192,
713,
737,
557,
-186,
279,
199,
-294,
-982,
-115,
-240,
129,
-184,
199,
131,
-655,
-538,
-126,
376,
-539,
815,
124,
-257,
525,
-517,
264,
102,
-752,
258,
232,
-646,
-626,
46,
-469,
-29,
200,
211,
277,
-730,
-382,
-214,
-698,
406,
875,
-38,
-385,
-1190,
831,
221,
-432,
-372,
167,
633,
-583,
-98,
-514,
219,
-878,
66,
298,
340,
-231,
333,
-143,
1236,
-526,
-1111,
722,
80,
-248,
-833,
168,
-151,
-590,
-467,
456,
-102,
-664,
-493,
240,
-205,
137,
344,
-1047,
-423,
208,
-192,
2126,
553,
161,
60,
-711,
-465,
689,
1158,
252,
-187,
134,
1298,
-69,
-618,
489,
222,
165,
-7,
55,
-171,
-927,
-404,
-406,
-225,
1094,
273,
367,
733,
-1634,
212,
1299,
612,
-136,
57,
579,
940,
327,
-829,
-145,
-338,
272,
-516,
560,
-52,
84,
-386,
105,
341,
-425,
-1053,
359,
-495,
188,
282,
-599,
-320,
896,
710,
204,
974,
7,
160,
-1250,
-241,
-1022,
-698,
406,
-311,
-598,
-214,
643,
605,
-848,
-41,
516,
260,
-416,
1288,
-43,
-547,
-647,
-629,
-126,
718,
-280,
-34,
36,
-232,
-1287,
-78,
28,
-268,
108,
-52,
318,
-378,
-937,
168,
-441,
33,
687,
400,
345,
-905,
235,
580,
96,
748,
1001,
-36,
-862,
-624,
-482,
-905,
241,
-323,
732,
2351,
-279,
-553,
454,
1197,
-1116,
-1838,
836,
43,
428,
-545,
-160,
300,
-562,
-522,
-521,
-472,
-45,
-621,
7,
159,
-297,
547,
-630,
-874,
-336,
-451,
1626,
-628,
-272,
338,
95,
-971,
-423,
1026,
-633,
-272,
807,
1189,
-431,
-699,
1421,
302,
346,
48,
-232,
-348,
110,
-705,
-678,
187,
642,
230,
-72,
1661,
-1767,
-902,
-148,
132,
139,
596,
664,
1187,
-57,
-951,
-547,
-560,
181,
68,
-42,
545,
-450,
-261,
-473,
-15,
302,
-520,
8,
-133,
-20,
601,
558,
94,
-259,
-301,
-327,
-197,
657,
646,
-872,
8,
-644,
217,
1136,
-152,
-544,
-277,
379,
382,
131,
-779,
-174,
430,
-598,
722,
444,
-417,
-643,
-557,
594,
451,
154,
123,
240,
-655,
-817,
-262,
321,
-87,
-723,
-45,
195,
-569,
44,
-407,
-614,
523,
742,
78,
109,
-1118,
346,
-161,
848,
850,
-838,
-57,
-209,
74,
-545,
-1235,
-335,
-82,
75,
519,
-461,
374,
-279,
1472,
-568,
-1043,
678,
151,
798,
-793,
157,
-104,
-622,
-142,
198,
-181,
-289,
-484,
97,
-349,
330,
191,
1453,
-662,
445,
-291,
-809,
605,
327,
51,
-273,
-434,
-1489,
960,
140,
82,
313,
1039,
-140,
-644,
694,
316,
241,
184,
314,
-209,
1473,
-512,
-306,
-241,
-1027,
540,
366,
830,
-1434,
181,
-566,
773,
259,
320,
223,
919,
200,
-312,
-568,
-442,
468,
-261,
-245,
112
};

#endif