#ifndef __MMCBLOCK3_MMLAYER5_BRANCH33B_CONV_0_WEIGHT_H__
#define __MMCBLOCK3_MMLAYER5_BRANCH33B_CONV_0_WEIGHT_H__

// MMCBlock3_mmLayer5_branch33b_conv_0_weight
// (3, 3, 12, 6)
const int MMCBlock3_mmLayer5_branch33b_conv_0_weight[] = {
-112,
1202,
-589,
-39,
-423,
-171,
2239,
-1441,
356,
-385,
2717,
2692,
-507,
-635,
-49,
-931,
341,
52,
-521,
-790,
889,
900,
200,
130,
527,
53,
416,
-813,
-335,
-1143,
2127,
3,
2348,
-1142,
-95,
-360,
903,
-930,
-552,
-928,
-195,
552,
1613,
-894,
530,
1344,
-122,
-671,
-1096,
215,
-317,
-589,
1816,
-904,
-679,
-597,
-1421,
-98,
-17,
-963,
-860,
-12,
-188,
10,
-267,
-1189,
-945,
1585,
255,
-173,
-723,
539,
-1440,
1105,
855,
1674,
-1215,
-447,
773,
-1521,
-648,
-811,
2886,
2494,
-870,
320,
-261,
-1436,
2119,
1178,
747,
-1427,
-39,
47,
-104,
496,
1735,
-1479,
-493,
-833,
2257,
1925,
1380,
-49,
2318,
560,
-48,
-1402,
235,
-1722,
-143,
107,
-276,
88,
4061,
-820,
-1070,
484,
281,
168,
-965,
231,
-544,
-1059,
1041,
-1091,
-296,
-150,
-1378,
-253,
362,
178,
-898,
-401,
44,
-339,
-1198,
-1560,
-681,
2182,
691,
-997,
-1819,
-229,
-366,
431,
-251,
-751,
-604,
-388,
470,
-249,
-17,
-644,
155,
-1028,
-106,
-340,
-413,
-613,
205,
16,
1672,
-485,
-408,
-825,
-333,
-216,
969,
-898,
200,
391,
2513,
2522,
1849,
-103,
2323,
-892,
-523,
-625,
-216,
-1366,
582,
1301,
979,
417,
2360,
-1452,
362,
605,
-305,
-695,
-621,
-87,
-743,
-633,
1562,
-978,
-869,
-919,
-1297,
-450,
99,
-289,
-673,
-484,
1039,
-985,
-1044,
-527,
-935,
1407,
521,
499,
-592,
1334,
-62,
1,
-486,
-696,
351,
1,
-314,
18,
341,
3658,
-485,
251,
-363,
-1542,
-1,
-166,
-1442,
-614,
-1114,
-35,
205,
1287,
158,
-327,
284,
900,
375,
-109,
-527,
-393,
1460,
-542,
-27,
-218,
422,
607,
-318,
-611,
-388,
-516,
-222,
426,
-1609,
834,
29,
394,
492,
-612,
-499,
-537,
-219,
-737,
-403,
-869,
530,
233,
-638,
-588,
-412,
-343,
233,
-605,
-197,
-541,
771,
-319,
39,
784,
-301,
-72,
154,
-534,
-326,
66,
285,
-1073,
-792,
378,
-1432,
-681,
121,
1102,
167,
-217,
-1620,
-329,
384,
516,
8,
995,
-354,
-1333,
-298,
402,
-248,
-42,
-1172,
-648,
-92,
1765,
73,
-208,
1257,
875,
-1415,
1636,
-147,
-417,
-1024,
-1293,
-404,
-144,
-306,
-731,
-340,
-50,
-435,
-558,
-266,
824,
-586,
136,
820,
-844,
-31,
756,
657,
311,
-584,
237,
511,
772,
855,
-649,
-591,
-1011,
1151,
909,
1028,
521,
-538,
-55,
99,
-162,
-46,
218,
-279,
-492,
343,
-330,
-459,
763,
616,
-543,
-820,
-560,
-1127,
-399,
-48,
-467,
-1192,
-864,
89,
-672,
-563,
-915,
218,
-1,
-776,
-573,
337,
2887,
-852,
87,
1403,
-157,
177,
-1133,
924,
455,
-659,
1023,
-147,
907,
1,
-367,
-1627,
158,
409,
872,
522,
-492,
38,
-103,
-175,
-673,
-1015,
-920,
848,
-790,
-836,
-1138,
66,
64,
565,
35,
-113,
-729,
739,
409,
296,
498,
-95,
-67,
266,
345,
92,
557,
-240,
655,
1639,
-446,
-856,
649,
3,
1871,
-1791,
-866,
780,
-1328,
-154,
2637,
445,
-1282,
-830,
2991,
-418,
1410,
922,
-341,
59,
-498,
634,
-309,
582,
-1105,
-84,
-69,
-612,
-1282,
-59,
687,
-770,
-493,
-87,
-304,
-7,
806,
-2389,
805,
100,
-1087,
388,
-1866,
1604,
-758,
-609,
194,
-78,
-376,
503,
267,
417,
-453,
-101,
575,
-217,
25,
133,
-94,
349,
565,
-445,
472,
175,
767,
-194,
-314,
417,
-1275,
-741,
-434,
1494,
-1234,
-167,
-474,
-446,
-663,
-869,
-1927,
-612,
-1819,
885,
3305,
1169,
-2104,
-347,
2295,
-203,
-326,
384,
-595,
-153,
-399,
-385,
85,
-980,
-2092,
217,
1614,
-941,
-1526,
-833,
1485,
-792,
1858,
18,
-199,
1040,
-3,
-1906,
18,
-289,
243,
-1150,
-1540,
629,
-536,
-811,
1663,
2,
783,
99,
597,
862,
613,
51,
900,
-478,
-144,
-169,
316,
451,
1251,
484,
969,
-445,
1037,
-189,
-715,
-168,
498,
34,
67,
1448,
-268,
-67,
-811,
595,
-745,
-253,
-928,
239,
-1065,
-334,
2220,
519,
-1542,
-1149,
-296,
-207,
-1023,
330,
666,
-26,
1165,
-41,
1521,
-1784,
-333,
114,
-10,
-633,
-768,
29,
818,
137,
3331,
-282,
-210,
835,
112,
-1390,
1201,
-272,
-689,
53,
-1269,
459,
-588,
-1091,
791,
-637,
-440,
1275,
233,
215,
-1004,
265,
730,
880,
77,
-295,
720,
748,
332,
608,
724,
86,
881,
-596,
-832
};

#endif