#ifndef __MMCBLOCK2_MMLAYER1_BRANCH33B_CONV_0_WEIGHT_H__
#define __MMCBLOCK2_MMLAYER1_BRANCH33B_CONV_0_WEIGHT_H__

// MMCBlock2_mmLayer1_branch33b_conv_0_weight
// (3, 3, 12, 6)
const int MMCBlock2_mmLayer1_branch33b_conv_0_weight[] = {
-906,
-55,
-90,
-1278,
781,
219,
-248,
-1753,
74,
3081,
758,
230,
-227,
706,
-1041,
960,
-123,
-1406,
18,
226,
-530,
-543,
213,
-420,
1392,
-482,
1028,
114,
-374,
1468,
-1374,
-1033,
239,
81,
-364,
-1509,
-929,
-931,
-474,
-67,
1181,
397,
-1225,
533,
-285,
1519,
637,
-453,
-990,
706,
-832,
-290,
127,
-1595,
987,
-1099,
-68,
-588,
322,
-1426,
-651,
136,
-1385,
-604,
495,
1115,
-444,
108,
-255,
-545,
398,
-2369,
-2544,
-450,
-546,
-61,
207,
3600,
-597,
-2276,
-523,
-1945,
233,
-311,
-553,
-102,
-775,
552,
880,
155,
-39,
-547,
-151,
-318,
-461,
-737,
-15,
168,
-776,
-24,
-665,
1167,
505,
-475,
-73,
860,
-44,
-670,
-336,
905,
169,
-43,
-500,
205,
-543,
1045,
-23,
-365,
74,
169,
-280,
666,
104,
95,
192,
-272,
-204,
305,
-165,
-183,
-665,
-1367,
1900,
630,
1473,
1981,
1367,
-1417,
46,
-675,
-1012,
-139,
-2010,
3468,
-387,
-1542,
-414,
136,
693,
-984,
-154,
2715,
-183,
-1865,
554,
316,
-669,
-1260,
-355,
-595,
129,
878,
3,
-1537,
-337,
-579,
327,
-991,
-997,
117,
-805,
182,
1306,
-2121,
781,
-847,
-39,
69,
471,
238,
35,
-634,
-1378,
1108,
-122,
-860,
649,
-726,
-180,
-73,
-366,
-2468,
-1249,
399,
-1123,
373,
-235,
-1437,
-1965,
-755,
417,
208,
166,
-170,
-1057,
-419,
-1120,
1370,
143,
602,
964,
-1211,
417,
-435,
-485,
1390,
-82,
2,
823,
-1120,
-124,
-643,
-476,
-1331,
-43,
4721,
-229,
-819,
757,
-456,
-2506,
518,
-966,
1904,
-109,
590,
-450,
-428,
-190,
-1071,
446,
856,
-1554,
-448,
-2120,
2595,
-1679,
-1292,
1515,
-1088,
31,
4320,
1301,
-154,
2823,
-213,
2658,
-1182,
-1570,
232,
-526,
577,
1599,
3356,
-623,
-202,
-29,
-395,
-13,
-694,
2291,
965,
-956,
-571,
761,
-891,
-658,
627,
-636,
-1006,
754,
-613,
-452,
829,
-969,
-199,
1119,
-432,
-156,
-527,
-492,
175,
-1391,
351,
-955,
-1633,
-561,
-1782,
-815,
-1332,
-684,
320,
-1019,
410,
-1346,
-83,
1260,
-1229,
2720,
121,
459,
1424,
462,
471,
775,
-136,
-112,
-1347,
121,
122,
-4,
432,
-147,
-990,
-590,
932,
-642,
-427,
-1853,
572,
-493,
277,
53,
7,
-907,
1075,
158,
391,
1306,
-180,
307,
355,
98,
967,
-253,
-2,
-931,
-341,
711,
1951,
640,
-116,
-1343,
-1844,
-86,
-129,
1630,
1,
94,
-561,
-188,
-1180,
-111,
299,
885,
-330,
-411,
4299,
-62,
-2206,
-470,
-356,
1030,
-1133,
3079,
31,
1782,
-945,
282,
-275,
-361,
-295,
203,
-177,
144,
1565,
-307,
-75,
1826,
-820,
789,
1319,
-1712,
239,
1444,
-1883,
968,
-297,
-3178,
-240,
-1490,
2756,
2103,
-758,
614,
-168,
-13,
-462,
-773,
230,
-27,
-90,
132,
-922,
-2389,
-667,
692,
-109,
696,
5334,
-523,
-658,
87,
664,
602,
708,
-851,
-768,
-1001,
279,
-751,
1197,
892,
-342,
751,
-393,
70,
-436,
59,
-1127,
349,
2614,
72,
449,
1147,
-502,
-1820,
-139,
-227,
1042,
-433,
-291,
-275,
-323,
370,
864,
-678,
612,
-1039,
-977,
-1253,
-1114,
-1534,
-720,
796,
-2,
-539,
417,
106,
-274,
-164,
-685,
-222,
-1374,
-1533,
117,
-856,
397,
978,
-2573,
-651,
-752,
-1348,
-197,
-509,
-865,
-2,
158,
-703,
-432,
1259,
-1040,
-835,
1038,
565,
-583,
-1036,
-1034,
-1311,
232,
-1315,
553,
480,
324,
2437,
-1129,
-486,
-115,
-678,
-1065,
-364,
-1713,
-154,
-1830,
-438,
-702,
-188,
225,
-705,
218,
-461,
-275,
-395,
-858,
697,
-64,
-971,
874,
723,
680,
1994,
-109,
745,
-1760,
-275,
623,
950,
-104,
-439,
-515,
126,
6,
-163,
-91,
138,
1,
-56,
-189,
443,
-72,
-451,
-714,
306,
229,
-311,
-76,
-230,
347,
233,
-286,
240,
194,
-213,
-634,
-294,
-50,
-753,
-591,
-2763,
4069,
1670,
410,
3183,
1389,
800,
-3278,
-299,
-549,
295,
638,
988,
-692,
-88,
2739,
458,
-1555,
-231,
232,
-174,
241,
825,
-95,
-1093,
-1208,
-268,
-948,
-355,
-207,
215,
709,
-770,
-162,
-1846,
-1164,
943,
935,
-127,
1352,
-780,
276,
789,
-1830,
804,
-511,
-2255,
-142,
-264,
252,
675,
-741,
306,
-533,
-20,
1125,
-475,
382,
-1133,
-246,
-99,
-1027,
-1483,
-162,
-307,
-494,
510,
-1792,
-586,
912,
710,
807,
-1141,
-259,
-747,
69,
-752,
1,
-108,
-1528
};

#endif