#ifndef __MMCBLOCK2_MMLAYER3_BRANCH33B_CONV_0_WEIGHT_H__
#define __MMCBLOCK2_MMLAYER3_BRANCH33B_CONV_0_WEIGHT_H__

// MMCBlock2_mmLayer3_branch33b_conv_0_weight
// (3, 3, 12, 6)
const int MMCBlock2_mmLayer3_branch33b_conv_0_weight[] = {
321,
-1520,
131,
1865,
-630,
-153,
-148,
-426,
-342,
792,
954,
-720,
-1224,
87,
-1499,
-1033,
-1767,
1498,
88,
-864,
-114,
2934,
1430,
-1551,
241,
-31,
1029,
-338,
547,
-1706,
414,
-789,
-818,
-679,
-698,
523,
151,
-174,
-293,
76,
-41,
-77,
-184,
140,
-867,
-1006,
531,
31,
242,
-59,
522,
-231,
-380,
340,
-653,
830,
988,
121,
-156,
-1684,
-360,
-1051,
-716,
1058,
-305,
1646,
605,
-135,
164,
697,
46,
288,
-544,
-1019,
-857,
-306,
-349,
-464,
-1715,
-94,
-922,
-131,
-740,
8,
105,
-2,
-1063,
382,
-448,
-206,
-1370,
606,
-967,
758,
-458,
-484,
-205,
-452,
-934,
-430,
-256,
-249,
-237,
-547,
-621,
1285,
-1055,
1366,
-597,
-404,
-96,
-1195,
3148,
-82,
-574,
964,
-165,
-1647,
-21,
870,
57,
1279,
179,
162,
2534,
42,
-643,
-1108,
852,
-888,
1405,
-1648,
-319,
-780,
-1425,
-157,
-824,
-393,
-72,
1215,
686,
686,
-510,
1345,
-387,
780,
-918,
-884,
-66,
20,
-132,
-397,
-268,
-403,
-749,
826,
-942,
-1183,
-19,
3259,
1508,
-1577,
-1027,
682,
-959,
-324,
-1821,
1257,
211,
-906,
-606,
-92,
-34,
1543,
-102,
-626,
-699,
205,
-613,
378,
-877,
-382,
-487,
571,
241,
21,
12,
373,
-1126,
-1243,
720,
-223,
-1283,
520,
909,
869,
561,
-210,
-2428,
502,
1115,
-347,
199,
-1987,
126,
-138,
-452,
-97,
-858,
-2077,
318,
-102,
41,
490,
679,
510,
-491,
-618,
343,
217,
-609,
-349,
2907,
-720,
-896,
335,
2125,
-271,
-1456,
1212,
-1530,
-710,
-1423,
1593,
2226,
-1145,
1837,
1434,
2159,
-666,
125,
262,
-1252,
602,
221,
-566,
-256,
-851,
-235,
-548,
-513,
337,
847,
-24,
-248,
-153,
-171,
-1,
1054,
-412,
-681,
108,
1002,
1193,
-306,
-805,
-313,
-506,
-1476,
291,
925,
1997,
-169,
213,
85,
-104,
-389,
-1332,
-264,
-51,
-19,
-502,
-800,
83,
61,
-525,
-737,
551,
-26,
-77,
-1198,
-117,
-928,
-191,
-1211,
-126,
-254,
384,
976,
563,
1879,
-228,
-309,
-1292,
1809,
21,
-1186,
213,
219,
-1181,
1879,
-109,
-330,
-115,
-740,
-685,
-155,
654,
-233,
-311,
-233,
655,
781,
-3,
703,
-110,
331,
-452,
1129,
-97,
-366,
553,
-748,
1818,
-369,
400,
1257,
-582,
159,
-120,
833,
-303,
937,
-1391,
-556,
-2650,
1195,
22,
-258,
27,
-1040,
-221,
-462,
694,
-642,
1064,
410,
-937,
326,
-1129,
458,
572,
-945,
187,
-374,
857,
-290,
-264,
-391,
-1093,
-824,
737,
-1424,
-1392,
1403,
1333,
3028,
-756,
1007,
1289,
-1262,
-733,
-1204,
1039,
523,
-1309,
-269,
519,
751,
-313,
575,
-429,
-565,
535,
-1200,
894,
-1153,
110,
-172,
-800,
-1098,
-13,
2879,
-213,
-717,
546,
1787,
456,
333,
-647,
-721,
106,
-542,
734,
-2015,
1926,
-106,
701,
-74,
137,
-302,
237,
-1143,
686,
1194,
-427,
1315,
-360,
-81,
68,
-140,
420,
-1088,
469,
-800,
-486,
-508,
-134,
1449,
288,
-159,
1166,
741,
289,
-826,
704,
-1592,
287,
-1395,
-25,
548,
-448,
1507,
-1447,
900,
-153,
-165,
1363,
-1068,
-514,
278,
310,
-1097,
-512,
-184,
-89,
-643,
-480,
-765,
-277,
112,
1928,
-404,
-205,
351,
-752,
-230,
-447,
-984,
-301,
-1483,
630,
-305,
-271,
-187,
-21,
35,
1529,
-1432,
624,
-177,
407,
-237,
-802,
392,
-1876,
1891,
-1787,
-677,
-903,
232,
257,
-1436,
206,
30,
273,
-1490,
1719,
-568,
201,
-269,
-496,
-456,
192,
-1090,
-248,
403,
662,
-228,
36,
1008,
221,
-864,
248,
682,
-773,
1490,
14,
-689,
296,
-816,
-1035,
-797,
-620,
-1083,
573,
-51,
-1473,
1434,
-192,
-260,
583,
878,
3338,
-1149,
820,
-748,
-409,
-589,
-183,
-390,
-1453,
-571,
447,
1108,
-454,
798,
7,
1264,
1419,
-729,
3,
-1694,
1531,
-553,
226,
-318,
-1778,
-168,
-535,
-421,
-414,
982,
-2342,
1180,
-620,
517,
-356,
-820,
1273,
151,
-570,
-637,
-1204,
-569,
-1408,
-919,
-681,
-1745,
-129,
960,
-462,
736,
-205,
505,
1253,
-1110,
367,
-934,
170,
-392,
-932,
-192,
-1232,
865,
-1640,
-902,
-531,
-467,
-744,
-355,
-623,
-150,
18,
-171,
620,
-69,
-721,
2445,
-740,
45,
268,
-474,
-689,
-776,
359,
541,
127,
99,
325,
-956,
1472,
-1528,
1175,
-220,
135,
120,
1363,
-149,
-670,
1423,
667,
501,
-1278,
425,
-356,
-884,
249
};

#endif