#ifndef __MMCBLOCK4_MMLAYER2_BRANCH11_CONV_0_WEIGHT_H__
#define __MMCBLOCK4_MMLAYER2_BRANCH11_CONV_0_WEIGHT_H__

// MMCBlock4_mmLayer2_branch11_conv_0_weight
// (1, 1, 416, 12)
const int MMCBlock4_mmLayer2_branch11_conv_0_weight[] = {
1451,
237,
1178,
1186,
-1509,
-26,
671,
-1695,
-2293,
662,
1903,
1391,
-1674,
-284,
1389,
389,
51,
-1799,
-1003,
1430,
4036,
184,
542,
970,
4471,
467,
-1082,
-2125,
-1403,
-2671,
1884,
-3283,
-2540,
-1481,
2699,
-428,
-3804,
35,
-1231,
-432,
-4184,
1257,
-1034,
41,
-397,
2381,
-2490,
-201,
-1908,
-2442,
2476,
-1494,
-129,
-2483,
-3167,
-946,
2055,
320,
-1807,
2846,
2454,
-2333,
331,
-1045,
3159,
903,
2522,
-1691,
-633,
-2616,
1670,
527,
1962,
2383,
421,
3260,
-3593,
-3398,
-2233,
4674,
3744,
733,
-573,
189,
-3474,
983,
2290,
-2891,
2470,
-3023,
1524,
2346,
2427,
2151,
0,
134,
464,
-339,
-318,
738,
-979,
-2888,
-4250,
-831,
476,
-1345,
1072,
-422,
3877,
1739,
-1585,
3114,
-227,
-1849,
-1572,
1807,
-784,
645,
2230,
-14,
-2846,
252,
1525,
-231,
1334,
1150,
5822,
1479,
771,
520,
-2446,
-1127,
-2276,
-348,
1588,
840,
752,
1869,
-1228,
2995,
-178,
1440,
-1265,
1168,
1044,
246,
720,
2028,
2911,
-1324,
1661,
-10,
-753,
-2506,
1472,
1914,
-227,
-1050,
-1537,
-829,
1164,
1014,
294,
-2761,
-2833,
477,
987,
1163,
-3508,
-810,
2175,
-20,
-74,
-447,
1749,
-598,
-3027,
259,
-964,
1362,
-431,
-270,
-3842,
3116,
-268,
-1577,
-4364,
-1595,
-2268,
-2802,
2566,
-525,
4269,
-407,
719,
659,
-2496,
-1972,
-777,
346,
-267,
-2495,
-2314,
-269,
-2295,
-1529,
1603,
92,
1617,
2619,
3303,
-898,
-1363,
-2553,
-917,
-1606,
-3768,
-1421,
4257,
-231,
-3029,
-2745,
-1730,
110,
4950,
1608,
143,
4240,
529,
1857,
3117,
840,
5988,
1517,
-629,
2532,
298,
2866,
826,
3046,
-1186,
365,
-1399,
1015,
-1425,
-2179,
-1259,
-1029,
326,
87,
1080,
-1040,
788,
-36,
-2163,
2267,
-473,
-8,
-1903,
202,
-2624,
-756,
-796,
-1105,
776,
-1348,
-1027,
-1295,
614,
-178,
-1503,
-1398,
-813,
-428,
-2037,
524,
835,
-4462,
1223,
-1593,
-2313,
-496,
4382,
494,
663,
-730,
-3122,
2419,
1739,
1582,
-1714,
-968,
-351,
64,
-311,
-2321,
1107,
2377,
1934,
388,
-1215,
478,
-1192,
-1993,
677,
1409,
593,
706,
-1556,
-3647,
1329,
-314,
-1219,
-3050,
2905,
3219,
-418,
-543,
1996,
53,
-1141,
-690,
-3516,
371,
355,
-2599,
1991,
-198,
-364,
-1857,
-3802,
-578,
-2034,
1633,
-20,
-237,
-657,
2295,
-454,
1169,
1122,
2315,
1577,
1568,
-859,
3094,
300,
-457,
2128,
627,
-53,
2399,
-482,
2447,
-1076,
1957,
-798,
-447,
-3324,
-572,
-3108,
-3939,
392,
-609,
192,
2547,
37,
-896,
-742,
183,
-354,
-613,
-1278,
-1743,
2580,
-479,
1089,
-3346,
-2793,
1576,
-170,
-961,
1307,
842,
2442,
1371,
-900,
-3884,
-1357,
-1400,
-2082,
1042,
-245,
1056,
1969,
-675,
685,
-671,
151,
480,
-341,
-176,
-1116,
-1092,
-2579,
-2316,
3052,
87,
1583,
-3900,
3458,
1850,
-2212,
-430,
5344,
-1914,
-2309,
-486,
-1298,
546,
421,
-1350,
642,
-1087,
2670,
1998,
-1493,
-1294,
-1127,
-804,
2356,
-501,
-531,
-1669,
2234,
2002,
815,
386,
-609,
-767,
458,
-411,
-230,
-97,
-3627,
3307,
39,
791,
-3236,
-468,
-3425,
1685,
1797,
1237,
683,
356,
-181,
-285,
1351,
-2247,
-3689,
-1531,
3992,
-1579,
-677,
325,
-1271,
1709,
2091,
-2428,
1205,
-318,
-116,
-4228,
3154,
443,
1461,
-1548,
950,
1884,
3010,
597,
-1720,
1644,
-545,
1330,
336,
1700,
-1655,
-2205,
1755,
956,
-1,
1434,
-1975,
-2642,
-995,
-512,
-1387,
1669,
1617,
-606,
-751,
-785,
517,
-2768,
-15,
1793,
-3750,
1115,
3801,
-138,
-1438,
-113,
-900,
-746,
-946,
2209,
1245,
-1022,
1726,
563,
422,
1074,
1735,
16,
522,
120,
3028,
-800,
707,
111,
-1654,
-2145,
-2550,
4042,
3914,
1181,
2588,
1622,
1051,
1563,
233,
-2019,
-229,
-1521,
-2045,
877,
9,
165,
-80,
-250,
1725,
-497,
-1222,
-1534,
1787,
-133,
24,
73,
425,
1504,
578,
613,
-1194,
1465,
-1577,
265,
1141,
-1266,
-2825,
1299,
967,
353,
-1379,
1160,
3857,
-886,
-2421,
-1557,
-811,
-1712,
-2817,
-1562,
1493,
1567,
-341,
-297,
1652,
2101,
-914,
3759,
-120,
-1703,
-2055,
1269,
-2031,
2995,
-115,
-373,
-1612,
-1399,
2546,
431,
-1060,
2866,
6478,
2534,
-592,
1661,
-1869,
1132,
-1455,
2063,
-1896,
-712,
1598,
608,
-4394,
659,
-195,
1402,
191,
-1522,
1468,
943,
-1969,
-1660,
-691,
1409,
2735,
-498,
-46,
-1941,
-501,
-850,
1995,
1310,
-2892,
-270,
1648,
6959,
-847,
-293,
-2310,
-1800,
982,
-2735,
-4132,
453,
549,
3033,
-837,
2163,
2495,
3278,
-1148,
689,
-3646,
-2557,
4531,
4772,
631,
2482,
-1873,
-1360,
-2104,
1276,
-572,
2963,
62,
1445,
-3566,
3038,
454,
-4074,
-155,
150,
-3815,
895,
-989,
-364,
-1428,
-2382,
1689,
299,
1174,
3791,
-2837,
1239,
94,
2192,
-2992,
-1065,
-1392,
553,
-1857,
967,
-440,
-1563,
795,
977,
-2634,
-409,
1105,
2366,
-1561,
-1311,
-464,
15,
-224,
855,
-145,
-269,
646,
-2286,
-834,
-1538,
563,
91,
-480,
2218,
-1911,
-3206,
3849,
1875,
-1325,
-831,
77,
4100,
904,
-101,
794,
-2912,
-263,
3874,
199,
1216,
-171,
-801,
-3023,
-3229,
1659,
-2362,
-1444,
847,
-1050,
-947,
-1689,
808,
-374,
-668,
2235,
1947,
-2433,
-468,
30,
450,
-385,
-680,
-1294,
2204,
2891,
80,
-1309,
-3582,
-1145,
-1012,
-1249,
-410,
1122,
1785,
-726,
-2656,
65,
4834,
1146,
-3369,
3314,
1582,
-2219,
96,
-585,
-1493,
1833,
8425,
1577,
1030,
-1595,
824,
-1815,
-383,
62,
1693,
-353,
2072,
-3091,
1479,
579,
1077,
-686,
0,
-2516,
-3183,
-57,
-3578,
994,
1283,
73,
594,
-1499,
-3441,
-2229,
-2631,
2365,
799,
2439,
552,
-2574,
-1154,
-2697,
3640,
-2155,
214,
-837,
-74,
-1569,
-461,
156,
-436,
-843,
887,
-1072,
-548,
2833,
-2532,
-2702,
-2619,
407,
-423,
1473,
1945,
-34,
-1070,
3015,
22,
2612,
-845,
478,
-439,
4467,
810,
641,
562,
-1571,
-2064,
-1447,
383,
-2027,
-598,
4743,
-93,
-1401,
3375,
587,
190,
2717,
-1035,
-408,
-2184,
3071,
577,
-1393,
-373,
949,
-178,
668,
-602,
-1432,
-1639,
5247,
4501,
2709,
7,
357,
2431,
-2578,
551,
-241,
2251,
-2194,
-2010,
-2099,
1686,
-458,
2254,
255,
2714,
-366,
-2540,
-3345,
-1558,
1322,
931,
-3343,
1029,
-760,
1960,
-327,
330,
-729,
-1140,
1103,
-1196,
1231,
894,
-961,
-1719,
-1737,
333,
-2127,
-613,
-1972,
-472,
-959,
-3901,
1477,
-1109,
-2681,
2177,
-126,
-2416,
-83,
2625,
-1597,
3224,
3293,
-1168,
-1158,
-1428,
1361,
-1562,
-386,
-4115,
-2090,
1343,
1185,
5252,
-165,
-1519,
2173,
1614,
-2467,
-2047,
-2290,
2207,
493,
-947,
-469,
2794,
1195,
-2450,
1450,
-1589,
700,
-480,
4146,
-1112,
-57,
-1086,
-1958,
1105,
-742,
213,
-1938,
785,
-3626,
-1893,
-3912,
2046,
-673,
-1668,
170,
1497,
-1252,
531,
1178,
-3378,
-738,
1387,
984,
-1199,
2833,
872,
-55,
2367,
136,
-2434,
-2268,
2477,
-2386,
1697,
764,
999,
-2363,
3105,
-3122,
-1020,
-263,
-1374,
-844,
-3085,
2745,
-2381,
-3638,
-1648,
333,
185,
1447,
1711,
2249,
-2593,
3496,
3068,
-2175,
-1040,
2657,
455,
-1778,
-692,
530,
-2033,
834,
-1648,
138,
-2161,
4393,
1101,
350,
-1855,
-376,
1084,
3821,
3187,
-3159,
60,
1687,
-2846,
2091,
-3927,
-1570,
-2983,
1467,
1333,
3719,
3601,
-262,
1258,
-998,
-1258,
-3236,
-1665,
976,
-3656,
-19,
2609,
896,
-1011,
-3038,
-1308,
2173,
-884,
150,
494,
2728,
-168,
-147,
-2121,
-1848,
-1698,
481,
624,
-621,
-2872,
-2211,
5204,
-1959,
-2075,
1256,
3420,
84,
-1972,
1002,
-2740,
-729,
-1314,
2057,
28,
2859,
-2439,
636,
954,
1287,
4356,
618,
-905,
-613,
751,
795,
-2195,
-583,
735,
-1716,
1176,
1701,
155,
1299,
854,
-1198,
-4454,
1023,
824,
263,
-709,
266,
-642,
-1848,
-2809,
-465,
-73,
-86,
-1284,
-1387,
-1309,
-2028,
-2012,
-693,
-101,
-1451,
562,
-1130,
-2031,
-506,
-802,
1813,
6546,
3337,
1290,
-1592,
-1030,
-1475,
-562,
281,
-576,
2630,
608,
-3089,
1112,
-160,
1922,
2625,
1131,
-1642,
1349,
-1864,
-1895,
-2069,
-1009,
-945,
-2573,
-3673,
-1293,
-2162,
-313,
-1658,
-314,
3242,
816,
-467,
1067,
1186,
611,
-715,
35,
-1109,
-153,
962,
-1541,
1105,
1387,
-90,
-2320,
3345,
1387,
124,
-689,
2113,
1226,
1029,
2380,
1475,
706,
2033,
-2983,
-458,
-3671,
16,
229,
2699,
-1459,
1788,
3877,
1098,
1004,
795,
2608,
406,
-3170,
1576,
1636,
2862,
1365,
1731,
2436,
393,
-960,
591,
5349,
-3671,
-853,
1778,
1994,
-1316,
1924,
-2204,
-880,
-220,
425,
494,
-1820,
3222,
2551,
-1285,
2366,
1239,
3142,
796,
-1759,
2238,
32,
2952,
499,
349,
-861,
990,
-1758,
-264,
-2122,
1788,
1145,
1093,
-2192,
-1020,
-1305,
1969,
1865,
2770,
-1573,
-940,
-2041,
-845,
-1107,
3207,
1064,
-4357,
3892,
-1661,
1139,
-143,
-535,
-2630,
-541,
-974,
-1338,
4187,
1183,
-1367,
-358,
-1067,
-1222,
-905,
-2349,
-129,
-2118,
2962,
2295,
3747,
-1000,
414,
-2863,
-409,
-3286,
-619,
-1930,
-257,
-1620,
3624,
-1450,
-2358,
899,
2037,
-2436,
96,
813,
33,
-1052,
1835,
-1801,
-451,
1218,
-536,
1174,
-1628,
3316,
-123,
691,
-1304,
99,
-1872,
-946,
1669,
-1336,
1461,
-736,
-1408,
1531,
-687,
2675,
1168,
3506,
-320,
938,
214,
-3988,
29,
1142,
-3077,
3396,
-593,
2964,
498,
1084,
-2780,
2676,
-2593,
-1450,
-491,
-2366,
-107,
1317,
-979,
-958,
-367,
-775,
76,
-2103,
-1438,
-505,
80,
-186,
850,
391,
746,
1869,
5289,
-90,
-3276,
-1417,
-689,
3553,
758,
-2212,
-3411,
-1305,
3405,
822,
4418,
-4550,
-1870,
-324,
-843,
5218,
-633,
420,
716,
936,
367,
1570,
1118,
364,
3873,
1256,
671,
-1107,
-1067,
-2489,
-902,
-2437,
-2531,
585,
524,
308,
1226,
540,
184,
885,
-753,
-2197,
271,
264,
-3049,
-1198,
1819,
-1656,
2100,
1736,
-213,
526,
-78,
-874,
-752,
-1426,
874,
7203,
487,
1367,
292,
1551,
-544,
1315,
553,
-2736,
-428,
-5491,
222,
1569,
751,
-2222,
431,
-826,
807,
3187,
-2050,
-1715,
1685,
1749,
2436,
460,
1667,
2680,
-1858,
1588,
-267,
467,
1348,
-60,
-1059,
366,
-527,
3524,
680,
-705,
-458,
2081,
-651,
-1358,
736,
816,
-1652,
2132,
290,
-1902,
576,
-1015,
-1606,
-1702,
1778,
-2074,
-903,
-2362,
2563,
80,
702,
-1175,
-157,
-2743,
-633,
-1738,
2151,
2715,
-342,
-2931,
-662,
-1771,
382,
442,
894,
-3474,
1016,
1020,
1551,
2586,
-1841,
4274,
252,
-2865,
1555,
1346,
1246,
479,
1926,
804,
-648,
-935,
1105,
667,
-307,
-3483,
1217,
-885,
17,
-1675,
-402,
1547,
2409,
2955,
-142,
1160,
-1451,
-653,
-791,
-4311,
1285,
-435,
-216,
2056,
-398,
-387,
-746,
689,
875,
1171,
1601,
-271,
2731,
2100,
-3783,
-2528,
-1183,
-845,
1652,
2198,
-1349,
1326,
2060,
1462,
3359,
610,
-1184,
-119,
-520,
-1532,
2252,
1080,
-525,
4770,
-426,
-2342,
-1761,
1335,
-457,
-4457,
4947,
483,
2087,
1398,
-2274,
-1226,
-1589,
-936,
-2232,
2018,
-99,
1087,
-117,
-1723,
451,
-2013,
838,
69,
-23,
1410,
2315,
427,
-2141,
-2068,
-17,
882,
1879,
76,
-343,
1602,
2392,
1815,
652,
-726,
-990,
279,
2900,
-1369,
1029,
-1276,
-117,
-1188,
-727,
1093,
2118,
-732,
-946,
-1578,
-686,
1077,
-32,
-602,
-1897,
-1255,
-1736,
-490,
-4710,
-443,
-2306,
-1226,
-530,
1167,
991,
-3701,
271,
-662,
-1714,
-3084,
591,
-4073,
-3588,
-751,
763,
954,
4433,
3174,
-4780,
130,
2184,
1107,
-624,
716,
800,
2941,
-1529,
-2715,
1032,
-645,
2762,
2750,
176,
1647,
970,
129,
-1199,
1895,
2647,
12,
-3132,
680,
1032,
441,
-4668,
2017,
-1628,
1873,
-1143,
1559,
-3287,
178,
-3903,
80,
-2214,
1103,
161,
-2817,
-1535,
-311,
-671,
-31,
3888,
660,
-786,
-1589,
-118,
-2412,
899,
2019,
-597,
939,
741,
-2186,
-1416,
-2720,
2289,
-655,
-341,
584,
2078,
-2176,
1191,
169,
-446,
-3102,
3654,
951,
-293,
3072,
-1369,
-804,
3306,
-1003,
-2502,
-652,
49,
169,
1375,
-3073,
106,
1069,
-1007,
565,
-1589,
4074,
1275,
342,
1702,
-1460,
-3555,
-2094,
1610,
-737,
1344,
-735,
2738,
-1143,
465,
-158,
-1357,
-615,
1163,
1499,
-2157,
206,
-886,
-2581,
-829,
-423,
1817,
-2087,
5644,
1175,
-2225,
-2363,
-278,
-1162,
1769,
-1292,
1346,
-2685,
148,
607,
555,
-2306,
2248,
1541,
-5269,
-2167,
2605,
721,
-2552,
-1419,
445,
1412,
-1827,
1504,
-505,
3200,
-1554,
-2469,
3306,
27,
85,
4607,
2965,
1210,
1754,
-1210,
-989,
253,
195,
-2366,
-1695,
-1502,
-612,
-3349,
-3002,
-2632,
-1315,
-3578,
-2898,
-617,
733,
1106,
-668,
1117,
273,
2744,
68,
1763,
-2448,
2116,
1182,
-1788,
-1267,
-1413,
167,
-2421,
803,
3423,
1507,
775,
2026,
3449,
-2916,
-2310,
864,
2279,
-1670,
1339,
-1956,
276,
1639,
-1666,
-1530,
-678,
150,
583,
955,
2445,
-192,
2698,
25,
1916,
231,
-1421,
-728,
1632,
-1126,
-5,
-2353,
1443,
-464,
-477,
1999,
-765,
351,
1293,
2897,
-613,
-2530,
-1829,
-2171,
4812,
103,
2124,
1031,
-381,
589,
4710,
1027,
-1801,
2640,
-1526,
-1321,
-4078,
-209,
-791,
-193,
2124,
1170,
1344,
-1416,
2443,
-2434,
-646,
-696,
-346,
-614,
-2209,
2243,
-165,
6125,
-1988,
3407,
917,
-887,
-1563,
-2675,
-299,
-574,
-1393,
1280,
2903,
-2002,
3051,
1192,
-488,
-930,
-1177,
-2500,
-1043,
-508,
2329,
-3201,
1127,
-4034,
-641,
-1345,
1096,
-1324,
-86,
1553,
-1604,
566,
-1168,
-1171,
585,
-1680,
-1749,
1961,
3339,
2349,
440,
1559,
-2994,
1,
-645,
-754,
1015,
2551,
2167,
-817,
123,
-2831,
2004,
2413,
-636,
-1807,
-2683,
905,
3805,
1124,
195,
-1777,
532,
81,
-2294,
224,
-409,
980,
97,
1359,
-1415,
-6319,
-1868,
-3284,
2397,
-1848,
-2604,
-371,
3482,
-1630,
-2883,
-1305,
242,
-4297,
2306,
3005,
2598,
447,
1966,
1381,
2297,
-1556,
-2010,
-2838,
-2530,
-4210,
-1137,
740,
3287,
-1147,
-589,
514,
151,
-3174,
545,
983,
121,
1146,
-1588,
1040,
-2226,
-320,
-1668,
1415,
1306,
-1392,
-2397,
-2452,
2496,
-1310,
2,
2042,
1964,
-224,
4,
1063,
-1677,
-171,
-306,
-818,
-276,
-110,
-1082,
-2617,
-1217,
-1569,
-1051,
-349,
-272,
-524,
1484,
1315,
-2440,
-1624,
-10,
-2475,
-382,
2199,
-934,
3349,
-2602,
2280,
-2655,
-2345,
-330,
714,
-2786,
1773,
2157,
-140,
3047,
1729,
6195,
-128,
-627,
1465,
-1532,
-3432,
589,
27,
-2023,
3567,
-3177,
-3300,
1313,
216,
-1631,
-1134,
2128,
1026,
2398,
1978,
1039,
-1212,
-3272,
-850,
266,
-3440,
78,
2011,
-320,
-2345,
908,
353,
-505,
1154,
235,
-624,
-320,
-1972,
-178,
1407,
2104,
-4411,
1609,
523,
-406,
-4077,
1010,
371,
-2640,
207,
397,
-899,
-207,
3025,
-695,
-3654,
-2839,
-873,
1435,
-1839,
4398,
2244,
-1351,
158,
1351,
3433,
1159,
4408,
1686,
1091,
-1099,
2502,
-338,
-494,
-2033,
1794,
-1316,
-2717,
-658,
364,
-1933,
766,
-1558,
1748,
-2064,
3058,
-101,
-4688,
-1460,
-3122,
1716,
3532,
-1562,
-1447,
6436,
-1744,
-521,
685,
336,
1429,
360,
453,
-373,
718,
2669,
-1222,
1727,
-2733,
544,
782,
1027,
-710,
1438,
-300,
5948,
-1695,
-922,
-1541,
-796,
344,
448,
-491,
3541,
-1530,
-923,
-275,
491,
-919,
54,
358,
-978,
-55,
2755,
-628,
893,
2097,
-3263,
-1294,
2023,
-125,
-3878,
-2399,
-2865,
-1437,
-1663,
-1175,
-3320,
3928,
-246,
385,
1188,
1845,
-4299,
146,
-2754,
-1055,
-1270,
-247,
997,
2069,
-1346,
-1102,
-877,
-1467,
-606,
-516,
-532,
-176,
-44,
1978,
-2394,
2200,
-1876,
1685,
1378,
3297,
-1348,
905,
1956,
-364,
3274,
-677,
-2567,
-702,
-1455,
-1604,
-2005,
3891,
1924,
-838,
1121,
-1756,
-691,
531,
1023,
1647,
-63,
4112,
1915,
277,
-836,
76,
-1581,
1814,
2605,
-337,
-1170,
1400,
-1757,
-84,
1785,
-1604,
-1867,
4152,
-338,
-4232,
-1067,
2315,
-462,
2322,
2770,
-2674,
2333,
638,
3739,
-1888,
1298,
-481,
768,
111,
2302,
-678,
1647,
4285,
2102,
-1592,
4365,
-3390,
-453,
-1800,
-1868,
557,
836,
638,
504,
3157,
-1475,
-1576,
2311,
-889,
1280,
-1672,
-2067,
3575,
-633,
-59,
-88,
-1998,
1815,
2423,
746,
-817,
2617,
-1832,
3199,
1659,
-1321,
4176,
-251,
2881,
736,
1579,
-3014,
1622,
2022,
-1357,
-651,
-3669,
-168,
-2416,
-77,
-2298,
-2517,
-1217,
1502,
1911,
278,
805,
-602,
-1754,
1686,
-1962,
-1814,
-4048,
584,
-79,
180,
427,
605,
1242,
-1696,
713,
-464,
-2998,
247,
151,
-3064,
1469,
-855,
-3272,
2876,
-2788,
-725,
-1449,
1069,
327,
-308,
-2520,
-3655,
-1452,
-3554,
1058,
-1067,
3730,
1039,
-1404,
1332,
-3070,
-2434,
-1641,
-607,
1168,
-2606,
2643,
-1001,
-605,
-2430,
-2098,
-462,
-745,
-3905,
-4322,
-2032,
-2458,
-1465,
-1350,
-2853,
-1583,
-1869,
2481,
-364,
-875,
-2889,
-1941,
1171,
1458,
-78,
-174,
3808,
3039,
4008,
-2217,
3811,
1059,
-4547,
-93,
1970,
-249,
-4689,
1299,
-1011,
-1710,
-1214,
1530,
1519,
-1952,
4149,
383,
-1626,
815,
5014,
-2065,
1115,
-2231,
4321,
443,
-429,
1424,
334,
-717,
5230,
379,
-165,
-991,
-3105,
1577,
-848,
-238,
273,
-1445,
-2943,
-2024,
1837,
-1260,
681,
-1930,
1319,
471,
-2568,
3765,
5374,
-2669,
2989,
2121,
-1475,
-1579,
289,
-1668,
3798,
-2547,
1053,
510,
1352,
-3135,
-485,
-2163,
1468,
-16,
4506,
-3145,
436,
-1244,
-284,
-871,
1365,
-1239,
1810,
-986,
480,
-313,
2899,
-684,
340,
1558,
-2384,
-2240,
-1651,
5218,
-280,
2444,
-3506,
-2555,
-1530,
2043,
1731,
715,
2469,
-3001,
-609,
-1529,
-598,
-2244,
2308,
-2873,
-1681,
-1667,
-1748,
-667,
-581,
584,
-688,
-1331,
-612,
-2606,
-20,
-1323,
-1923,
-507,
-1128,
-1108,
1912,
1302,
-733,
232,
889,
-2689,
507,
2494,
345,
475,
-1331,
1297,
374,
-1807,
1070,
388,
5469,
-1877,
-346,
-2916,
545,
-1114,
-448,
-1545,
-1160,
1026,
1729,
430,
-873,
617,
143,
-650,
800,
-1495,
1672,
1897,
-376,
-504,
-2175,
3502,
3666,
3013,
-2119,
2263,
2629,
-412,
299,
-1077,
-1382,
498,
252,
-2438,
-1750,
-2595,
1394,
-2444,
-1,
-2355,
99,
-1299,
-3078,
316,
-1744,
-728,
713,
649,
-2374,
13,
-226,
-840,
-37,
1772,
676,
-135,
2378,
-831,
2840,
628,
416,
-2105,
202,
-1660,
157,
-1387,
7189,
-3280,
-2627,
-2313,
-403,
-2512,
1495,
-1331,
-3678,
-72,
-3798,
1575,
1060,
-405,
1153,
-2257,
-1356,
-2199,
2114,
-177,
-893,
763,
-633,
1630,
-117,
524,
-219,
-21,
-1918,
-185,
37,
2558,
-1782,
-1528,
2280,
249,
-2527,
-854,
-2145,
-2060,
-2115,
-3807,
-699,
1707,
746,
758,
-317,
558,
-895,
-2633,
209,
-461,
1296,
473,
-1210,
-1248,
3710,
-1627,
310,
-661,
-2819,
2256,
2393,
-2567,
901,
2156,
-1722,
619,
-1977,
-3684,
-1103,
1086,
662,
1562,
-265,
494,
-463,
-2895,
396,
330,
178,
1854,
378,
1030,
207,
-1090,
1956,
4,
-1830,
-2558,
704,
48,
2161,
688,
2631,
-1184,
10,
701,
-3235,
262,
-421,
-1142,
-766,
3808,
1591,
1601,
-2249,
-431,
-597,
-810,
1750,
-1690,
-2444,
-3166,
1884,
1185,
111,
2274,
1189,
-1385,
-1294,
21,
-767,
867,
1265,
2480,
-1364,
-1801,
-1953,
-744,
-1352,
121,
-3093,
2443,
423,
934,
-582,
-254,
-1294,
-2070,
-2210,
2815,
2238,
3309,
2275,
-1396,
2359,
1727,
1484,
1074,
589,
-465,
1204,
-808,
-2141,
-1521,
-954,
1906,
-509,
-2157,
-120,
-2572,
3320,
3544,
-1124,
455,
482,
1252,
-891,
877,
-667,
1774,
-867,
1713,
-1386,
-19,
70,
1358,
874,
-168,
-19,
2116,
955,
1388,
-1268,
5628,
-1293,
-1919,
883,
-8,
1986,
-852,
140,
-2540,
1991,
-2312,
-2616,
-1423,
-957,
440,
359,
-2069,
698,
-645,
1434,
-1424,
735,
-1794,
551,
-2729,
3026,
1330,
1958,
218,
-206,
-300,
-263,
-1560,
-852,
-2364,
953,
973,
1136,
-72,
44,
-1907,
-162,
-906,
2470,
-1044,
2095,
645,
5843,
-487,
89,
-709,
-241,
-1872,
-45,
-2541,
2971,
-134,
795,
4060,
-93,
2382,
1140,
247,
-830,
-3278,
-3419,
-587,
-4330,
1037,
2167,
-2593,
-3686,
2434,
-290,
-1454,
-1773,
-140,
-835,
-1064,
406,
2484,
-2869,
2020,
479,
400,
-577,
2847,
1789,
1593,
-58,
2549,
1147,
477,
385,
610,
1111,
-3130,
191,
-504,
604,
1637,
295,
-1753,
1607,
1344,
2441,
-976,
-630,
769,
-503,
846,
1260,
2316,
-1923,
-304,
-1658,
3279,
4267,
-766,
4870,
5047,
875,
-2171,
366,
-2404,
484,
-788,
3915,
-750,
-2088,
1428,
-1789,
350,
313,
2621,
-1942,
3691,
61,
-2765,
-1455,
377,
1278,
21,
4590,
-457,
2390,
140,
-1647,
-2076,
-2365,
-1866,
-1972,
818,
-2836,
1330,
-1971,
-1332,
-901,
193,
-1951,
-724,
-1106,
1125,
2074,
-3243,
-1328,
2921,
6034,
1745,
-41,
-435,
-815,
134,
-3592,
-1291,
-2450,
3019,
-1789,
-503,
-3147,
-718,
-1726,
1237,
-1270,
1416,
53,
-568,
-677,
-2161,
-1463,
-426,
111,
-3920,
-2019,
1190,
-957,
-1147,
-2019,
-253,
277,
-709,
-2955,
-1851,
1407,
1694,
1299,
-397,
-392,
-1765,
-2445,
-1091,
1362,
-1850,
-1620,
1819,
-39,
-3773,
-1549,
2518,
1799,
3743,
-817,
-2621,
795,
-825,
2422,
779,
776,
-2208,
-1747,
-423,
-237,
3422,
39,
-256,
950,
-2172,
-994,
500,
1764,
-2741,
-1774,
-1968,
-1217,
3307,
-416,
-4197,
157,
-327,
-4835,
1374,
3018,
206,
-1969,
5105,
-1812,
2416,
-1208,
-851,
-246,
3182,
2564,
353,
867,
1221,
3165,
-1716,
-714,
1322,
2104,
-40,
2721,
-1444,
-1724,
2284,
-1524,
-819,
2623,
-428,
1003,
839,
-1735,
-4278,
-3105,
983,
-2400,
291,
-223,
-987,
-584,
-191,
3153,
1402,
2743,
-1267,
0,
1702,
-769,
-230,
-2566,
154,
-2166,
-3216,
-2441,
-525,
920,
-684,
-133,
-899,
-2909,
1006,
3978,
1615,
319,
1729,
2259,
458,
-2233,
3199,
188,
-810,
-795,
-1150,
-1183,
-1619,
351,
-1212,
-503,
-2,
2105,
2494,
-492,
-1098,
706,
1631,
6257,
3742,
-751,
-1641,
-2355,
-2174,
-10,
-1943,
-1166,
1203,
-1073,
5402,
494,
-4161,
1379,
2412,
7068,
1215,
-1010,
-1397,
1132,
1944,
852,
950,
-822,
3643,
940,
684,
-1996,
-737,
-1002,
805,
-567,
-2160,
648,
1524,
-828,
-1897,
143,
-2477,
432,
314,
338,
337,
-1129,
1241,
-665,
-2334,
782,
2158,
2024,
1136,
-1416,
-3357,
505,
1224,
2308,
1364,
-3802,
739,
-12,
-4615,
2844,
-542,
3014,
231,
-820,
3776,
1191,
-3025,
1835,
329,
1308,
1751,
1013,
123,
-617,
-1075,
-3501,
-3908,
-1121,
801,
-1153,
-932,
-3439,
730,
-171,
-1374,
1956,
-2055,
240,
-1707,
-463,
-2238,
5736,
667,
2191,
-1337,
27,
-2055,
-2007,
290,
1933,
1080,
-664,
-1280,
-2853,
2506,
7184,
4972,
23,
830,
-858,
-2411,
-862,
-2739,
902,
1722,
1313,
-1105,
-2043,
94,
1791,
847,
-499,
-107,
523,
-1284,
875,
1281,
-388,
-656,
-3667,
111,
3466,
-2349,
514,
-215,
-581,
-1290,
-1229,
1016,
1149,
-26,
1866,
3836,
-549,
600,
448,
-1540,
2774,
-1468,
-111,
269,
1333,
5579,
-1565,
-105,
2068,
-364,
1278,
994,
-410,
1882,
-3020,
1147,
3712,
-2229,
-278,
530,
-1762,
-369,
-1075,
-231,
282,
1526,
2500,
-299,
708,
-3885,
-2784,
-2487,
1472,
-2441,
349,
-1206,
-428,
1529,
-3101,
1575,
515,
1053,
1063,
2023,
-1429,
-1264,
-455,
-595,
1062,
948,
-987,
570,
714,
-1972,
1835,
-1435,
363,
-1212,
835,
-3626,
-927,
-153,
440,
-1025,
-1144,
-900,
-935,
-2885,
707,
-606,
-1691,
-3087,
637,
-1027,
1766,
880,
2837,
-2984,
-1224,
3721,
3212,
-1476,
64,
-2084,
-1385,
85,
2087,
-2005,
-1357,
2690,
-4,
-1178,
-1107,
3159,
-1665,
1838,
179,
689,
4699,
-2874,
2613,
2490,
735,
391,
-364,
-899,
-1029,
1818,
-1789,
666,
446,
-1740,
-638,
2466,
1631,
409,
315,
-490,
-1925,
1143,
-425,
1239,
-1074,
976,
-917,
875,
-1690,
1126,
1182,
-1021,
-1898,
-678,
-271,
-278,
-3716,
195,
1021,
3506,
-505,
1821,
-106,
-1461,
-4858,
1189,
-1392,
-693,
3399,
791,
-541,
334,
883,
125,
3122,
3711,
-115,
498,
-1999,
1414,
4240,
-759,
-1423,
-562,
-215,
1246,
1515,
1325,
252,
192,
-1457,
2317,
5347,
-1843,
-1184,
-1107,
-636,
-1324,
917,
295,
-626,
1100,
-158,
2933,
-2725,
-1361,
736,
831,
-2329,
3357,
-2586,
-1227,
211,
-1699,
3150,
-134,
-278,
2085,
4165,
-2399,
-2058,
1652,
-1352,
-2826,
-897,
-596,
257,
6137,
1711,
-1997,
1380,
-2455,
-754,
-3695,
1318,
2824,
1723,
3355,
1280,
4167,
1974,
-531,
-417,
-60,
-3327,
-1723,
-626,
-1352,
560,
1416,
413,
-47,
-468,
2512,
-1306,
3730,
1489,
-1729,
657,
-174,
-19,
2075,
2598,
-1182,
-1311,
767,
-228,
1664,
3445,
1865,
3401,
-1792,
-1062,
-31,
1590,
1230,
-1553,
2427,
1914,
-954,
-2201,
72,
310,
742,
-1960,
1717,
3820,
4875,
2943,
-764,
1853,
-6,
-2316,
-2184,
456,
-943,
2925,
-2515,
-2527,
-261,
4035,
-664,
1952,
-1316,
-1270,
-708,
1862,
325,
-720,
-117,
-1833,
-594,
1067,
827,
3006,
-606,
-1151,
716,
3660,
-126,
-202,
958,
-2401,
2210,
-2236,
-1507,
-1983,
500,
-1244,
-1157,
-667,
-1985,
-2082,
105,
-298,
314,
-322,
-2610,
-598,
-1917,
1036,
837,
-4,
-1905,
-275,
-1148,
21,
1191,
3315,
-1821,
-1035,
2185,
1195,
-1377,
2356,
4133,
2644,
2806,
-721,
2499,
-1954,
2342,
-2139,
664,
959,
1274,
492,
-793,
-1736,
-1367,
1092,
-1535,
3344,
65,
-3485,
2568,
-131,
-2385,
1339,
2534,
-859,
284,
615,
1070,
1368,
326,
1365,
1028,
-1023,
-133,
4087,
1108,
193,
1569,
180,
-866,
-263,
-1607,
-258,
4029,
3531,
-379,
621,
249,
889,
-2162,
-17,
566,
2790,
-1144,
1010,
-1858,
809,
2733,
3073,
-2981,
-3325,
-932,
-480,
2661,
1980,
-1943,
-565,
2109,
-986,
-1526,
-1020,
-1638,
-2017,
1160,
-149,
2277,
305,
1,
2653,
-272,
-3041,
638,
2129,
-2848,
-1873,
-118,
-791,
1429,
-666,
311,
1764,
-1271,
-832,
-1268,
-1439,
755,
-1286,
3329,
2337,
-1487,
-1869,
27,
1950,
1894,
1380,
-891,
-966,
-2411,
-773,
315,
1309,
1189,
-1855,
42,
1633,
-2003,
-90,
718,
364,
-2222,
733,
958,
-855,
348,
1016,
-4092,
-917,
-1531,
307,
-3267,
1738,
-308,
-157,
-442,
-955,
3400,
1771,
601,
-1719,
-973,
-3980,
-2297,
2389,
-852,
-2260,
2792,
1213,
922,
1557,
-1252,
1501,
-2056,
2073,
616,
2021,
-1070,
4467,
-1640,
365,
-1699,
-2074,
2590,
-2473,
166,
507,
-1732,
1821,
-1266,
1512,
38,
1151,
-628,
-2,
59,
550,
-2715,
-2746,
121,
-527,
-1954,
-437,
-1579,
2097,
1621,
839,
610,
2089,
-623,
-2414,
-3016,
1840,
2099,
-667,
541,
1354,
-1541,
-2280,
1393,
4152,
-2135,
-3650,
-759,
1862,
-4042,
610,
-1443,
-1784,
-645,
3691,
-600,
-2082,
1010,
259,
1145,
-1822,
-1177,
1845,
1377,
-1071,
-1316,
-1982,
-1442,
1258,
3207,
-1411,
620,
-929,
-1912,
-1291,
-315,
134,
-2611,
1239,
-4065,
-1888,
-2274,
1209,
-2372,
-3030,
1188,
-333,
687,
-3486,
893,
2356,
-2390,
273,
42,
-3424,
-1634,
1555,
1075,
-2030,
2280,
-530,
2818,
1839,
-2634,
-1291,
1393,
4349,
-917,
-2159,
746,
143,
817,
156,
2433,
1059,
2896,
2034,
752,
-2298,
2506,
1991,
356,
-674,
1992,
2500,
-455,
180,
2273,
-694,
1601,
-1683,
-2638,
2296,
1361,
-976,
8,
2058,
230,
119,
-407,
1717,
561,
238,
-578,
276,
2773,
3651,
-2927,
509,
607,
-2029,
-87,
-617,
-1632,
-1073,
-802,
383,
-1841,
643,
1605,
178,
339,
1594,
-1089,
-2573,
3509,
1622,
348,
-3073,
-217,
-1908,
1892,
332,
3102,
-2254,
-714,
79,
-936,
422,
-1828,
-1871,
-1685,
-1679,
-2826,
455,
-782,
-1029,
-902,
-1858,
815,
854,
-1743,
-518,
-448,
2782,
1359,
4516,
-1263,
-1225,
457,
-5049,
300,
2127,
-255,
-1559,
3567,
691,
707,
-449,
-1103,
-1261,
1988,
-1082,
-568,
-1228,
4407,
-575,
396,
1414,
-2391,
401,
-2482,
-2900,
975,
-1921,
1238,
-1079,
-1317,
152,
205,
326,
383,
2959,
1703,
-3162,
275,
174,
-1246,
-63,
1830,
-378,
-1973,
-2213,
-488,
1282,
-3443,
-1014,
672,
-999,
567,
2144,
-1036,
900,
1356,
7787,
-2478,
-639,
-476,
1164,
-915,
-2792,
-3643,
1875,
-1892,
374,
127,
437,
-2574,
-238,
1003,
1852,
1855,
-1012,
-1503,
-1710,
-1151,
401,
2912,
-2217,
3339,
1941,
389,
327,
2694,
-470,
-853,
-3065,
-485,
-201,
1921,
-6,
2209,
2982,
-2446,
-2725,
-1395,
-1059,
443,
-704,
-2102,
-1965,
-2535,
240,
-1074,
-3997,
-137,
-400,
-100,
545,
-1792,
4191,
2811,
-1458,
1516,
823,
-1890,
-673,
3840,
-3177,
-1700,
1101,
-249,
3528,
1042,
-2060,
-2503,
1170,
-3314,
1258,
-465,
-227,
1385,
803,
8,
-3738,
874,
-840,
1507,
-850,
1106,
3273,
3576,
177,
-978,
2115,
-1255,
-648,
-1798,
-1980,
286,
-1984,
1769,
574,
-2750,
1235,
215,
-3401,
293,
318,
2193,
-1610,
178,
-2641,
708,
-1516,
-770,
-1474,
-908,
2403,
-1518,
447,
1990,
-3568,
-1237,
722,
-1308,
2023,
1591,
2969,
473,
58,
-2032,
-1139,
-2091,
1100,
3589,
2554,
385,
509,
264,
-4411,
1886,
4116,
-2764,
125,
2685,
-1051,
-1989,
476,
-2598,
2286,
-2870,
2811,
-326,
1093,
-2024,
3055,
-1293,
6197,
-351,
-2713,
-3089,
-2934,
-802,
590,
1456,
578,
628,
-586,
1571,
-1182,
1572,
2722,
507,
471,
1037,
1869,
-1393,
-453,
-971,
166,
2466,
780,
2680,
1176,
1305,
-330,
507,
-1561,
-1415,
-1683,
3596,
1650,
-1254,
-173,
-1455,
124,
1565,
-583,
-1474,
-3038,
1360,
581,
-98,
3022,
2977,
-151,
-798,
-83,
-981,
-402,
688,
521,
2546,
-83,
-406,
1375,
3016,
1558,
567,
-1060,
-832,
2968,
1365,
1474,
-3593,
51,
-2674,
-1887,
-2902,
-2253,
4400,
1609,
2135,
881,
714,
-974,
-587,
1123,
-3728,
-781,
-1119,
539,
-140,
-1790,
1098,
-1245,
-2498,
1033,
-339,
2613,
786,
-516,
254,
2950,
-1769,
-1621,
-2098,
-1404,
3364,
-2920,
1504,
-676,
-1363,
-3570,
2489,
-2104,
-3039,
-2997,
-262,
-1140,
-705,
-1543,
3214,
-2294,
1491,
-2835,
2469,
2283,
2413,
-1684,
3300,
3115,
-126,
4490,
-1351,
-1254,
1740,
-3478,
3178,
509,
692,
-337,
2414,
-3254,
460,
-55,
1099,
468,
1065,
-2100,
-213,
1160,
-1710,
-71,
145,
794,
-301,
1749,
-969,
-195,
640,
-3261,
-359,
160,
1326,
534,
1677,
-2859,
-472,
1244,
-109,
404,
409,
227,
866,
893,
-2109,
-1782,
-147,
-1562,
852,
1903,
1058,
-314,
814,
424,
-3257,
2419,
-169,
923,
1139,
841,
-547,
876,
-1568,
-2380,
988,
1461,
1564,
-533,
2283,
1,
870,
-85,
-1056,
32,
-1263,
549,
256,
1209,
-92,
682,
658,
-1364,
1846,
742,
738,
-845,
-266,
-665,
2417,
419,
1767,
3212,
-1057,
1096,
876,
295,
-2334,
5282,
-232,
-1664,
1710,
2605,
-629,
2251,
2519,
479,
1534,
194,
-416,
-2178,
-408,
-2300,
2289,
122,
298,
-2264,
-482,
3272,
44,
3668,
305,
2566,
-787,
-1343,
-289,
-1412,
130,
-828,
3455,
-2830,
909,
419,
-166,
109,
1553,
-772,
-1966,
-1320,
285,
1102,
4038,
-1248,
1365,
-377,
-2393,
985,
-1319,
-545,
-2987,
4257,
-602,
286,
232,
-2298,
-440,
-3026,
406,
-692,
-961,
636,
-3541,
515,
-5074,
-486,
96,
1468,
-1195,
3891,
-186,
-493,
-1794,
-1407,
74,
1123,
-293,
-1029,
361,
1798,
-585,
2273,
2769,
1349,
-1726,
1702,
-1447,
-889,
-2040,
1236,
1814,
1572,
1889,
1989,
-1784,
-1557,
312,
-1882,
-3236,
-1061,
-970,
-2371,
1989,
-52,
527,
-619,
2575,
575,
-321,
1354,
485,
-3312,
-145,
-29,
-987,
-1712,
2497,
3412,
114,
-2001,
1001,
-1836,
2395,
1192,
1265,
558,
1586,
-2049,
1037,
-1571,
2982,
530,
-1154,
904,
-847,
2536,
655,
72,
-1568,
414,
-146,
33,
805,
-1138,
-1525,
666,
724,
-3182,
-1232,
-485,
133,
-1669,
1441,
1020,
55,
-3369,
76,
628,
-390,
-2546,
35,
-541,
-270,
-2524,
1043,
-783,
3807,
-1597,
276,
4386,
-1809,
-2057,
-1499,
2607,
-2891,
-2395,
95,
1171,
2600,
4424,
-277,
1448,
1350,
-3079,
-3884,
5682,
3423,
3171,
672,
-1470,
-260,
150,
1811,
2371,
-3183,
-297,
347,
-2133,
-2604,
2041,
-1173,
-912,
-2385,
1565,
1117,
842,
-1484,
-1016,
2436,
4554,
107,
-671,
-1781,
-2891,
-560,
3164,
878,
660,
-811,
1979,
-1563,
-1615,
-169,
284,
784,
209,
-491,
554,
1217,
-572,
-384,
-578,
4536,
-804,
-165,
-1069,
-544,
1886,
-3067,
905,
516,
-1733,
4398,
-2539,
-1618,
1509,
-92,
-4989,
6209,
725,
2505,
397,
-918,
-137,
1081,
-2356,
3009,
952,
-1442,
-5044,
1251,
729,
816,
2458,
624,
-3272,
-550,
-2779,
2187,
-1532,
2616,
-1461,
279,
-1512,
-523,
-3718,
-356,
527,
373,
-2178,
2602,
-1436,
-1903,
-1297,
499,
1335,
-900,
-4626,
-1356,
-2991,
920,
-2764,
1505,
-1985,
-606,
-2044,
-2614,
-2396,
1333,
1898,
-331,
3180,
-1843,
-1618,
-1472,
350,
-828,
-1272,
-1012,
-2646,
-1154,
-448,
-2936,
1377,
707,
828,
-1738,
1934,
1436,
-209,
985,
-1544,
906,
2527,
-270,
2932,
1117,
-2148,
784,
-4,
-1312,
1825,
399,
-609,
0,
0,
0,
0,
0,
0,
0,
0,
0,
0,
0,
0,
1156,
2359,
370,
1800,
-6,
1999,
-993,
647,
-1273,
574,
1842,
395,
-259,
-1930,
-1277,
843,
1990,
-655,
517,
1269,
-528,
43,
1752,
1186,
0,
0,
0,
0,
0,
0,
0,
0,
0,
0,
0,
0,
0,
0,
0,
0,
0,
0,
0,
0,
0,
0,
0,
0,
-1571,
-2840,
283,
-2952,
-2042,
-680,
-942,
806,
-626,
3047,
-2287,
217,
623,
-3052,
712,
-2384,
890,
-906,
2226,
-719,
-2415,
-1294,
-1898,
1228,
-231,
1691,
-312,
1610,
-726,
1722,
1259,
1099,
-1570,
589,
1380,
-2767,
0,
0,
0,
0,
0,
0,
0,
0,
0,
0,
0,
0,
0,
0,
0,
0,
0,
0,
0,
0,
0,
0,
0,
0,
0,
0,
0,
0,
0,
0,
0,
0,
0,
0,
0,
0,
0,
0,
0,
0,
0,
0,
0,
0,
0,
0,
0,
0,
0,
0,
0,
0,
0,
0,
0,
0,
0,
0,
0,
0,
0,
0,
0,
0,
0,
0,
0,
0,
0,
0,
0,
0,
0,
0,
0,
0,
0,
0,
0,
0,
0,
0,
0,
0,
0,
0,
0,
0,
0,
0,
0,
0,
0,
0,
0,
0,
0,
0,
0,
0,
0,
0,
0,
0,
0,
0,
0,
0,
0,
0,
0,
0,
0,
0,
0,
0,
0,
0,
0,
0,
0,
0,
0,
0,
0,
0,
0,
0,
0,
0,
0,
0
};

#endif