#ifndef __MMCBLOCK3_MMLAYER7_BRANCH33A_CONV_0_WEIGHT_H__
#define __MMCBLOCK3_MMLAYER7_BRANCH33A_CONV_0_WEIGHT_H__

// MMCBlock3_mmLayer7_branch33a_conv_0_weight
// (3, 3, 12, 12)
const int MMCBlock3_mmLayer7_branch33a_conv_0_weight[] = {
-34,
-221,
-359,
-868,
899,
-111,
2648,
325,
297,
-459,
-1042,
-450,
6,
245,
162,
1626,
357,
277,
-236,
-331,
-221,
221,
356,
-442,
50,
898,
179,
57,
1227,
-1083,
484,
-976,
-1416,
1000,
-54,
1128,
901,
-601,
-325,
737,
881,
-1127,
1106,
-120,
-794,
381,
-224,
-1394,
259,
-422,
176,
310,
-924,
15,
-133,
-295,
-526,
-800,
-469,
-458,
-279,
-398,
-553,
-205,
233,
-635,
-379,
-503,
-138,
33,
-182,
-574,
-304,
-218,
-248,
-410,
557,
-1013,
585,
927,
457,
655,
-64,
-917,
260,
160,
346,
-1543,
-385,
-162,
-774,
311,
-630,
-800,
593,
-340,
539,
-317,
-404,
454,
-283,
-27,
-334,
684,
250,
1264,
120,
-748,
-1555,
1661,
-893,
-26,
1320,
-270,
194,
-552,
-607,
-155,
1754,
-526,
-124,
-371,
539,
30,
-379,
814,
546,
-235,
469,
-833,
-700,
-428,
1489,
-349,
-847,
-8,
-808,
-348,
294,
138,
-1686,
316,
-84,
413,
167,
-489,
-528,
-424,
-307,
-94,
1021,
-54,
838,
312,
-742,
-700,
582,
972,
-92,
-103,
-158,
-1380,
65,
1311,
749,
-829,
-329,
997,
-771,
-371,
-305,
-80,
919,
-769,
223,
-612,
-751,
804,
295,
-78,
3509,
-1233,
-927,
-334,
1186,
-1168,
-384,
-525,
-205,
36,
-81,
-1462,
-116,
-1336,
-79,
755,
-170,
615,
264,
-1240,
-771,
-670,
192,
-1440,
137,
-467,
17,
-466,
642,
74,
-84,
-573,
-95,
-1229,
682,
-403,
-419,
944,
-1824,
-652,
-9,
-474,
21,
2238,
-481,
1451,
-162,
459,
-612,
-688,
2028,
990,
760,
1018,
842,
-1158,
-656,
-1230,
-439,
-503,
211,
1104,
-192,
-1353,
11,
-497,
881,
2278,
874,
1136,
-363,
1303,
-320,
1032,
-1779,
-681,
1303,
-245,
-956,
301,
-215,
-412,
2057,
-646,
-187,
1020,
1159,
-31,
-772,
80,
-451,
-562,
19,
1257,
-1774,
3261,
3000,
-25,
-2392,
-267,
-1050,
-534,
368,
2340,
-1243,
-1191,
1224,
173,
279,
-164,
-444,
-44,
649,
81,
3072,
47,
1050,
-516,
-577,
-748,
499,
204,
49,
-826,
91,
-76,
-147,
-50,
-131,
282,
286,
-77,
576,
713,
-17,
-962,
1338,
-1335,
53,
-883,
-989,
944,
115,
1023,
1190,
-673,
-228,
-525,
857,
-1049,
673,
107,
-566,
447,
114,
-718,
355,
-484,
94,
599,
-648,
-111,
-411,
-567,
-615,
-673,
-339,
-387,
-290,
-482,
-149,
-280,
468,
-330,
-479,
-371,
-190,
-306,
124,
-324,
-666,
-67,
-1009,
82,
922,
-672,
495,
1063,
-2,
953,
-575,
-892,
448,
-259,
51,
681,
-315,
-335,
-682,
-66,
-529,
-904,
288,
-226,
1103,
-265,
-510,
-1004,
-5,
-350,
-95,
789,
126,
1156,
299,
-905,
-1458,
1278,
-989,
-484,
1160,
-195,
405,
-515,
-609,
-129,
1646,
-1105,
-145,
-210,
110,
974,
-681,
846,
832,
-471,
325,
-650,
-585,
-602,
1775,
-409,
-630,
-474,
-746,
-329,
-13,
333,
-1531,
350,
255,
351,
-786,
-22,
-347,
91,
-31,
-728,
1453,
-325,
377,
-596,
-153,
-417,
-712,
-1034,
-50,
-302,
-206,
1096,
482,
-747,
-1274,
-86,
-209,
280,
855,
52,
-174,
40,
923,
-177,
698,
-773,
393,
218,
-429,
919,
-795,
420,
-229,
-229,
-120,
240,
501,
252,
-103,
114,
318,
-46,
118,
90,
-334,
355,
206,
-272,
694,
376,
280,
278,
-306,
-446,
-35,
8,
-593,
-719,
-52,
-458,
-328,
-226,
-530,
874,
-81,
569,
-14,
-208,
-694,
1396,
271,
-349,
-1138,
80,
878,
481,
399,
-1004,
-497,
-329,
703,
-2085,
10,
-12,
856,
463,
-779,
-1205,
394,
-743,
241,
-149,
155,
1462,
-629,
666,
-464,
-138,
346,
193,
-28,
-641,
-1268,
-879,
599,
-422,
581,
-417,
331,
-88,
-851,
97,
-6,
-224,
-828,
-21,
366,
568,
-447,
338,
1104,
-604,
839,
-576,
479,
-618,
538,
-260,
19,
194,
-448,
182,
91,
1104,
-1782,
415,
-691,
1175,
-208,
-13,
-989,
-589,
-454,
-609,
147,
-42,
681,
-453,
-10,
-1005,
-1466,
-1326,
-583,
247,
563,
203,
825,
-960,
334,
-1280,
14,
-588,
-255,
231,
-316,
-735,
98,
138,
742,
504,
275,
-1020,
326,
-476,
-332,
461,
424,
-207,
181,
-30,
-320,
-377,
-107,
389,
-187,
1016,
-696,
304,
-1305,
-309,
385,
38,
821,
238,
-112,
681,
-358,
-450,
474,
-278,
-53,
143,
-219,
90,
464,
528,
330,
722,
326,
371,
-8,
948,
-150,
-594,
374,
-856,
1085,
113,
-167,
-575,
401,
1045,
459,
-122,
678,
236,
724,
-42,
3017,
-147,
-295,
-146,
639,
-1855,
-483,
-362,
-82,
-128,
139,
-278,
1456,
-369,
625,
-1357,
-376,
410,
-49,
-1168,
1175,
747,
328,
204,
559,
-239,
-50,
-621,
249,
-729,
-509,
143,
188,
-1104,
-60,
-109,
855,
653,
-64,
-84,
272,
1863,
-368,
280,
1765,
1278,
607,
-313,
1698,
-674,
-1398,
-933,
363,
270,
104,
-260,
-383,
-291,
143,
-743,
1807,
-416,
676,
-599,
59,
-947,
-1305,
-1104,
251,
-529,
-112,
1179,
157,
-1187,
-1187,
-358,
453,
-16,
951,
681,
174,
-987,
597,
-197,
439,
-270,
-355,
122,
-387,
832,
-1004,
337,
-186,
-234,
394,
-61,
880,
143,
-301,
215,
397,
-289,
-54,
193,
-537,
-138,
273,
-528,
712,
700,
64,
-233,
79,
-644,
276,
318,
-224,
125,
-222,
-67,
-264,
-64,
-281,
853,
-68,
561,
-476,
-396,
-607,
-917,
259,
-148,
-893,
-299,
903,
660,
321,
-961,
-204,
-212,
113,
1853,
-257,
-535,
1050,
511,
-670,
-951,
655,
-235,
455,
85,
458,
-1568,
-555,
338,
-139,
-176,
348,
365,
-423,
-148,
-1286,
-264,
413,
-748,
622,
-492,
239,
-215,
-701,
-10,
299,
-246,
-39,
156,
490,
-443,
109,
657,
1361,
-1054,
751,
-538,
168,
-911,
171,
66,
122,
-831,
-751,
-179,
263,
1091,
-1851,
432,
-893,
808,
194,
-111,
323,
924,
649,
-409,
824,
-404,
-4,
-198,
-259,
-822,
96,
-914,
-585,
-179,
-781,
698,
79,
-260,
-530,
427,
851,
-712,
434,
-264,
-616,
-123,
489,
91,
1144,
-84,
441,
1339,
23,
252,
-864,
711,
311,
511,
187,
277,
1274,
-416,
190,
-75,
581,
-632,
-23,
997,
-416,
84,
1406,
-995,
-165,
-172,
-17,
150,
-268,
-377,
1318,
1415,
-330,
-81,
537,
-734,
288,
46,
-144,
452,
130,
-235,
539,
-571,
-23,
991,
129,
156,
-685,
-561,
800,
427,
1181,
-1837,
-196,
-369,
638,
-1213,
45,
124,
-293,
143,
-637,
-947,
567,
496,
-762,
-118,
76,
50,
-752,
1395,
43,
-226,
-499,
-73,
610,
420,
-418,
-500,
288,
-239,
1034,
-888,
449,
470,
-553,
-648,
-735,
-1209,
408,
-630,
9,
-465,
-110,
149,
-83,
173,
-279,
-167,
301,
-484,
-1019,
267,
-333,
-801,
622,
624,
15,
-42,
-1246,
671,
-842,
210,
86,
-335,
-209,
10,
-44,
68,
497,
-77,
561,
-617,
-195,
-846,
-176,
-389,
-933,
109,
-578,
1150,
-182,
-638,
399,
946,
1152,
-529,
-639,
-781,
-605,
-650,
-24,
1122,
1789,
635,
876,
-145,
412,
-1584,
-1171,
2538,
1237,
-233,
346,
71,
208,
-1259,
-895,
87,
-10,
2403,
-1,
868,
-549,
-633,
1096,
-1160,
150,
937,
-400,
-22,
-717,
267,
1704,
1419,
-261,
-286,
608,
-554,
38,
-25,
-138,
453,
46,
182,
1701,
-423,
220,
-240,
814,
-238,
-418,
-2039,
126,
-2,
17,
-1120,
218,
-939,
417,
502,
590,
32,
1547,
966,
-627,
-861,
1750,
-1523,
-631,
-288,
-705,
-525,
-690,
1381,
-28,
-1282,
-427,
-43,
-76,
-388,
201,
-643,
2474,
-70,
327,
-77,
-761,
955,
-940,
-253,
-974,
1253,
271,
-265,
-1417,
-604,
-403,
217,
-332,
306,
-1609,
400,
410,
1118,
-1904,
-207,
648,
-46,
2158,
565,
142,
-1642,
-673,
-184,
-1043,
935,
120,
251,
304,
-380,
450,
-454,
500,
-415,
-3,
-222,
-340,
-637,
91,
-1130,
-433,
-423,
-320,
810,
141,
-333,
-498,
121,
982,
-233,
80,
-283,
91,
-1262,
324,
408,
1122,
-179,
379,
1035,
10,
336,
-1090,
1161,
405,
-507,
15,
169,
444,
-223,
-15,
-64,
221,
-540,
619,
973,
-292,
-955,
1354,
-769,
298,
201,
113,
-131,
-366,
-725,
843,
1556,
10,
-2,
87,
-774,
61,
-391,
90,
165,
-113,
-572,
888,
-831,
55,
-924,
225,
682,
-962,
-724,
854,
525,
1071,
-1623,
-96,
-64,
79,
1110,
-466,
-445,
-368,
279,
-963,
-1150,
197,
384,
-719,
-380,
281,
-672,
-274,
1046,
-45,
-590,
-499,
93,
586,
51,
-44,
-721,
347,
-483,
1125,
-854,
889,
902,
-739,
-441,
-547,
-660,
400,
-538,
-79,
281,
11,
-47,
-167,
-309,
-346,
-105,
452,
-553,
-1074,
-84,
105,
90,
940,
621,
-5,
142,
-518,
631,
-679,
96
};

#endif