#ifndef __STEMBLOCK_STEMCONV_0_0_WEIGHT_H__
#define __STEMBLOCK_STEMCONV_0_0_WEIGHT_H__

// stemBlock_stemConv_0_0_weight
// (3, 3, 3, 32)
const int stemBlock_stemConv_0_0_weight[] = {
-1076,
167,
-176,
37,
-153,
-236,
957,
57,
247,
86,
-88,
132,
51,
3,
7,
152,
-10,
51,
48,
232,
109,
63,
-72,
280,
2,
36,
-29,
-205,
-47,
-23,
-42,
-113,
463,
307,
-35,
165,
-21,
8,
-321,
-124,
251,
222,
-159,
-126,
-76,
38,
-7,
-171,
134,
-189,
-15,
95,
163,
-239,
-120,
26,
-27,
170,
-12,
-225,
123,
-11,
-46,
-156,
749,
78,
133,
-77,
12,
-47,
-994,
111,
193,
39,
-34,
51,
-19,
-32,
-4,
72,
139,
120,
132,
-149,
-66,
26,
106,
211,
-51,
-49,
-83,
-190,
182,
-29,
4,
103,
-2333,
-20,
-164,
-311,
124,
-11,
2332,
136,
526,
-46,
160,
516,
-286,
-121,
5,
-22,
-331,
461,
-241,
160,
359,
-694,
-150,
86,
38,
-350,
16,
-192,
-17,
-18,
190,
-300,
469,
-3,
398,
380,
163,
165,
-555,
-495,
563,
383,
-629,
-470,
-307,
35,
-20,
-423,
-139,
-514,
-336,
-131,
304,
100,
-116,
-154,
-60,
80,
-4,
-232,
202,
-8,
-512,
-81,
1685,
-19,
-237,
-182,
-11,
86,
-1967,
231,
452,
-444,
169,
-72,
-247,
107,
-15,
379,
-131,
502,
-220,
-428,
349,
-387,
289,
276,
-53,
53,
-88,
-171,
11,
-22,
245,
459,
-1332,
-65,
-154,
-50,
-147,
-311,
1375,
98,
263,
154,
74,
178,
-51,
38,
19,
126,
-5,
6,
105,
141,
173,
423,
-14,
248,
49,
-79,
-25,
-161,
131,
-47,
179,
-123,
412,
-307,
136,
169,
4,
-89,
-404,
-131,
315,
325,
-177,
-196,
-130,
45,
-10,
-189,
122,
-380,
331,
-10,
205,
188,
-112,
-16,
172,
92,
-18,
-205,
267,
-32,
-11,
-88,
975,
-70,
147,
-154,
-7,
-225,
-1331,
152,
216,
-2,
93,
-8,
-97,
-56,
-8,
148,
96,
105,
64,
-269,
99,
311,
150,
162,
72,
-52,
-79,
-204,
301,
-37,
139,
223,
-81,
371,
-59,
-305,
261,
85,
13,
168,
38,
-255,
226,
295,
-163,
-18,
5,
198,
-143,
223,
-299,
86,
58,
-401,
-66,
78,
75,
-214,
-26,
55,
-126,
-17,
159,
-238,
66,
633,
254,
265,
201,
177,
47,
-422,
-26,
256,
-369,
-369,
-242,
84,
-5,
-354,
-64,
-577,
-520,
50,
-146,
-215,
-33,
-287,
-21,
78,
35,
-72,
179,
18,
-374,
-240,
125,
372,
-289,
-26,
-196,
126,
-98,
206,
-8,
-160,
169,
-29,
-203,
134,
-1,
261,
-8,
334,
-366,
-178,
-62,
-400,
142,
149,
-4,
25,
-55,
3,
-113,
-13,
168,
258,
-12,
-100,
108,
-545,
666,
692,
133,
529,
-30,
-330,
554,
896,
-306,
207,
-36,
85,
-731,
419,
-504,
-674,
-897,
1204,
-26,
-873,
34,
-611,
-142,
22,
-227,
-49,
987,
-442,
-207,
-24,
769,
836,
440,
819,
160,
-670,
-54,
553,
-1014,
-647,
-285,
452,
-62,
-583,
-593,
-1380,
-663,
-735,
-1392,
2702,
108,
-1200,
-77,
19,
-96,
-133,
131,
-4,
-471,
-155,
-55,
-33,
-933,
228,
-305,
662,
219,
430,
-37,
-745,
287,
-102,
-276,
603,
-44,
681,
-492,
416,
-514,
-892,
-572,
611,
456,
-311,
-12,
166,
-178,
-19,
-505,
-33,
779,
662,
-91,
-349,
-72,
-341,
272,
322,
109,
152,
-24,
-277,
188,
413,
-231,
6,
18,
96,
-137,
519,
798,
40,
-189,
-1098,
-26,
-18,
391,
-337,
-54,
73,
-127,
-42,
-95,
-282,
21,
-576,
343,
385,
249,
459,
129,
-517,
-56,
286,
-611,
-366,
-289,
35,
-11,
-472,
-36,
-464,
1196,
65,
-457,
-1385,
-34,
-339,
538,
-20,
4,
-79,
166,
5,
-985,
-244,
148,
-364,
-488,
30,
-163,
297,
-48,
210,
-54,
-370,
116,
-53,
-263,
51,
-10,
315,
-6,
498,
740,
-233,
-146,
-893,
214,
119,
362,
-8,
-70,
-37,
-227,
-19,
7,
351,
962,
105,
49,
-227,
125,
79,
-905,
91,
-185,
-82,
168,
161,
163,
-140,
17,
58,
38,
94,
101,
148,
-23,
-20,
21,
104,
28,
-155,
-28,
209,
34,
-23,
-3,
-40,
-315,
275,
56,
142,
54,
-201,
330,
-217,
-356,
173,
-182,
-155,
253,
-21,
4,
-263,
40,
-301,
44,
160,
95,
-233,
92,
-211,
-72,
72,
44,
68,
210,
12,
-129,
-144,
-757,
83,
-138,
52,
-231,
-149,
948,
208,
-190,
269,
60,
42,
215,
-47,
1,
197,
95,
271,
111,
-28,
-29,
22,
96,
148,
5,
36,
-38,
181,
50,
-28,
-42,
285,
2612,
-40,
146,
-748,
491,
-550,
-2336,
194,
-453,
-180,
370,
509,
484,
-53,
5,
-115,
-156,
399,
-278,
8,
572,
-363,
37,
-84,
-408,
-497,
7,
293,
-26,
7,
380,
-359,
-534,
75,
299,
338,
210,
-969,
262,
-610,
-589,
412,
-790,
-542,
718,
164,
-13,
-492,
-119,
-813,
-333,
137,
762,
-142,
190,
-455,
-535,
-16,
88,
158,
261,
53,
-530,
-206,
-1829,
-18,
-912,
163,
-384,
-439,
1952,
318,
-405,
-157,
186,
-108,
528,
216,
-11,
558,
-70,
377,
-298,
-191,
401,
-69,
282,
142,
-325,
172,
-24,
278,
-234,
-2,
325,
546,
1403,
-102,
23,
-305,
133,
-131,
-1518,
97,
-195,
-36,
189,
191,
300,
-105,
21,
8,
9,
159,
205,
120,
147,
211,
47,
71,
-57,
-98,
-6,
284,
70,
-16,
160,
-126,
-433,
-181,
42,
238,
74,
-384,
259,
-268,
-312,
351,
-343,
-188,
392,
-12,
0,
-319,
17,
-386,
357,
209,
203,
135,
80,
-252,
-83,
119,
67,
128,
227,
23,
-90,
-203,
-1024,
-133,
-463,
127,
-241,
-194,
1275,
182,
-167,
254,
20,
-22,
274,
-57,
-2,
274,
54,
325,
229,
-112,
139,
52,
110,
78,
-51,
142,
-24,
200,
-25,
-25,
68,
347
};

#endif