#ifndef __TRAN_CONVNORMRELU1_CONV_0_WEIGHT_H__
#define __TRAN_CONVNORMRELU1_CONV_0_WEIGHT_H__

// tran_ConvNormRelu1_conv_0_weight
// (1, 1, 104, 104)
const int tran_ConvNormRelu1_conv_0_weight[] = {
116,
-660,
-443,
-326,
682,
245,
591,
-32,
9,
428,
605,
-378,
407,
72,
-252,
232,
-70,
2799,
-183,
238,
254,
-540,
-631,
-1621,
123,
1475,
-178,
-543,
-301,
1063,
-794,
581,
-41,
974,
325,
2869,
391,
-622,
-370,
-1721,
-2452,
-967,
136,
898,
-504,
89,
-417,
-6910,
-3483,
-8031,
-2264,
67,
726,
-412,
5237,
-149,
-461,
-270,
388,
-1937,
32,
-1022,
-133,
-1035,
329,
586,
-2921,
416,
-11371,
553,
-488,
122,
1227,
-565,
518,
473,
-418,
3251,
-58,
-43,
-786,
6064,
557,
-375,
145,
-547,
33,
-102,
2486,
-1167,
-130,
900,
-264,
38,
683,
243,
-98,
749,
-495,
625,
-38,
-200,
-1114,
725,
4394,
117,
-2151,
1355,
-433,
101,
-1211,
760,
-219,
-515,
156,
-688,
-141,
-539,
-486,
-553,
-607,
-740,
262,
136,
-190,
-398,
114,
525,
-274,
-70,
-2487,
-818,
-826,
406,
-155,
314,
-548,
-1173,
-945,
-390,
76,
812,
-4210,
-365,
702,
-546,
-44,
-480,
-806,
718,
10,
291,
1432,
-396,
58,
-6407,
-1157,
-1075,
-478,
286,
814,
864,
-1468,
-393,
-571,
421,
-663,
-282,
296,
2895,
-204,
348,
-274,
-316,
3259,
-947,
922,
-429,
1386,
-764,
-162,
351,
2170,
67,
535,
-472,
-1057,
-355,
-401,
-273,
181,
39,
-456,
-691,
-689,
-2411,
266,
441,
620,
124,
2297,
-1726,
413,
-1311,
-434,
-913,
-262,
594,
-868,
828,
14,
823,
-528,
596,
26,
-256,
-2334,
883,
3075,
-3295,
724,
-427,
402,
365,
176,
1877,
387,
1,
553,
1175,
-537,
-1850,
-259,
-622,
-157,
211,
-63,
-1026,
-243,
80,
3,
512,
-1192,
-635,
1629,
397,
217,
-3580,
47,
-3623,
347,
652,
-18,
-337,
1035,
-2987,
-312,
-753,
713,
-651,
300,
-104,
1750,
-6,
112,
85,
109,
1945,
-898,
-970,
-493,
-2004,
701,
219,
-4261,
536,
-1365,
-363,
339,
-203,
-967,
-370,
-1372,
804,
657,
339,
-1068,
-481,
-3092,
-841,
1148,
-991,
246,
4487,
8,
113,
1415,
772,
361,
-101,
-1243,
456,
266,
299,
592,
-115,
2098,
234,
-1129,
-1525,
12,
653,
596,
2231,
-329,
709,
-2900,
736,
467,
32,
-2111,
-2106,
-1506,
-1466,
277,
-964,
1315,
-1201,
-734,
-1706,
-320,
363,
-110,
-478,
1189,
-726,
378,
-424,
-1318,
539,
-108,
-1697,
715,
251,
-1507,
1009,
-386,
18,
650,
11,
-656,
2577,
941,
634,
957,
-925,
-300,
-106,
770,
1692,
676,
1492,
1801,
108,
15,
574,
-1370,
668,
-183,
544,
1102,
-1367,
528,
-2543,
-103,
-251,
481,
551,
-1839,
327,
-122,
-795,
-873,
-12,
-1005,
18,
991,
625,
1650,
872,
-406,
-62,
-180,
-1983,
874,
-107,
117,
1440,
-703,
-849,
-778,
311,
-1700,
-344,
-2919,
78,
486,
3859,
-594,
-602,
-3882,
-6,
-685,
1353,
-101,
-1033,
-600,
-238,
-338,
-762,
189,
494,
-41,
-239,
-1911,
-1922,
826,
-6396,
173,
-207,
3862,
-59,
217,
-6901,
-341,
-1172,
-557,
52,
726,
-1596,
924,
-367,
-1112,
990,
-344,
-2432,
-848,
-554,
219,
-1009,
-1267,
715,
80,
-57,
-1134,
-4035,
1315,
-2318,
345,
-2031,
-168,
892,
509,
263,
-2115,
-373,
954,
-130,
300,
1049,
-1327,
-1074,
-31,
1481,
-509,
-1888,
787,
-1747,
246,
-159,
958,
-161,
-2342,
904,
-3839,
436,
-634,
139,
-1220,
-314,
-581,
-520,
4513,
193,
-1169,
-868,
-1254,
-1047,
-1098,
301,
296,
-1463,
-395,
-386,
4365,
-330,
-2179,
-1578,
4377,
-21,
51,
-54,
-1300,
2153,
-2563,
925,
-688,
-628,
1184,
-739,
-353,
-302,
-530,
-491,
43,
447,
167,
-132,
-167,
-1276,
-977,
-381,
655,
-920,
506,
349,
-714,
587,
-879,
-130,
1097,
231,
203,
-557,
-782,
-2307,
-560,
443,
-1061,
-1826,
758,
-1146,
518,
3464,
-481,
-1609,
82,
220,
499,
365,
1961,
308,
39,
239,
-219,
-107,
453,
1278,
-1478,
787,
247,
-180,
318,
59,
877,
136,
-558,
-72,
-229,
-45,
-339,
-913,
-803,
-924,
-115,
368,
927,
-418,
-2097,
-66,
-523,
749,
-830,
695,
-187,
606,
-291,
567,
295,
-380,
413,
1109,
34,
413,
-603,
-1055,
-263,
-1295,
1013,
-1444,
0,
70,
273,
-586,
-11,
179,
202,
950,
-238,
-1517,
-120,
51,
-701,
139,
-612,
1243,
832,
173,
-551,
-165,
785,
437,
229,
-579,
1103,
-1565,
-15,
306,
38,
175,
237,
-7013,
193,
-534,
49,
-446,
-19,
1658,
175,
-526,
-248,
521,
-852,
-1725,
339,
420,
-727,
-225,
130,
-1916,
1042,
25,
-78,
601,
2812,
665,
287,
-1179,
-72,
-1455,
867,
5984,
1236,
4920,
4148,
76,
830,
221,
-6878,
-158,
609,
-1224,
-168,
882,
-1531,
-1003,
13,
1131,
-200,
604,
1451,
-116,
6109,
-236,
-75,
-682,
-1334,
325,
-2906,
71,
568,
-5097,
-186,
647,
399,
-9770,
293,
583,
-341,
-138,
-435,
70,
-1693,
-390,
381,
-963,
672,
5,
360,
-495,
-200,
106,
-222,
715,
-215,
-1010,
-15,
-752,
240,
-491,
-167,
98,
1102,
309,
223,
198,
1822,
178,
-474,
-527,
0,
93,
108,
-255,
-25,
-103,
-8,
-1682,
438,
892,
104,
-792,
-273,
153,
257,
-29,
295,
-990,
-100,
-40,
-206,
-51,
-452,
-281,
82,
308,
-114,
-964,
1016,
523,
313,
-546,
-420,
-177,
51,
-24,
-293,
-305,
1200,
316,
-54,
263,
36,
183,
-41,
-109,
374,
150,
-43,
-192,
328,
-778,
-1987,
87,
-97,
-70,
-120,
-123,
242,
386,
-207,
269,
-589,
-73,
-2038,
148,
-282,
-91,
1314,
-165,
-262,
130,
56,
-2364,
-438,
-49,
959,
-510,
49,
-166,
378,
-63,
841,
-723,
-244,
-242,
-1540,
-100,
-936,
11,
243,
-200,
-216,
349,
-1772,
-767,
-376,
-1717,
169,
-713,
-401,
-2273,
-154,
1125,
64,
-930,
-880,
-257,
31,
-60,
1121,
-284,
2574,
-53,
-2752,
1576,
528,
6949,
-1501,
71,
-2097,
-2910,
589,
14,
-1012,
3500,
119,
-1955,
458,
-376,
1103,
-1313,
1877,
-91,
135,
2169,
234,
-1253,
-6209,
3451,
431,
-1402,
-463,
24,
-1166,
-307,
1473,
-180,
-1766,
-889,
-1088,
-419,
-1264,
546,
-45,
-3538,
301,
22,
-3956,
-176,
-2467,
305,
-1348,
-1191,
-1320,
-672,
250,
627,
-1089,
166,
-1495,
-591,
-524,
-3725,
-1238,
-1454,
419,
-192,
279,
705,
410,
3844,
-2374,
342,
-119,
-728,
-1021,
13,
2124,
2127,
390,
-1421,
-585,
-1802,
284,
1127,
-202,
341,
-467,
176,
-799,
7,
-23,
-110,
-1049,
-742,
276,
-1755,
-429,
-11,
820,
-193,
356,
227,
143,
-136,
69,
242,
-625,
-1411,
847,
550,
-598,
-105,
-482,
-1023,
112,
298,
-266,
181,
-238,
-506,
-129,
259,
13,
-1239,
953,
-909,
186,
-727,
376,
-204,
501,
696,
157,
839,
812,
-339,
-124,
710,
-353,
304,
-69,
436,
317,
478,
167,
-935,
265,
-110,
485,
-244,
73,
210,
-397,
-489,
-80,
-61,
-435,
-641,
-287,
244,
2438,
8,
-311,
-207,
-1269,
-33,
-443,
-416,
72,
1088,
-73,
469,
1311,
-204,
-1554,
-765,
168,
319,
302,
1336,
17,
136,
-854,
619,
-375,
-629,
511,
156,
600,
-402,
749,
-906,
1424,
630,
689,
-271,
2931,
561,
851,
-803,
423,
513,
1117,
32,
643,
2814,
245,
-1064,
169,
622,
503,
-733,
1451,
-458,
570,
1111,
-1734,
-4289,
198,
199,
719,
105,
396,
-1691,
-1294,
439,
37,
-4066,
480,
-478,
824,
762,
-565,
1436,
-1134,
-505,
-169,
-4643,
2537,
-90,
-852,
1285,
174,
485,
970,
-5,
-667,
2131,
1374,
-425,
226,
-1353,
-2842,
-70,
-1655,
845,
2227,
-400,
644,
264,
824,
286,
-2775,
459,
-1222,
-1359,
1333,
302,
-1359,
-1079,
-2463,
275,
525,
-2976,
-553,
-238,
3176,
-225,
1610,
-218,
-1724,
399,
-352,
-1389,
270,
1776,
1048,
-1083,
-930,
-1903,
198,
1723,
384,
-5458,
-74,
-90,
2543,
366,
548,
437,
46,
-2624,
3583,
-2203,
942,
-690,
147,
-217,
-50,
-603,
330,
-3112,
-375,
-189,
541,
-1389,
-447,
-1369,
586,
612,
534,
-2021,
-217,
-34,
739,
-990,
-1108,
-1186,
1253,
255,
38,
-5854,
-1761,
-2757,
741,
1335,
-824,
715,
1420,
-141,
-2561,
990,
1958,
68,
1060,
-454,
-419,
393,
232,
1448,
153,
222,
177,
363,
-276,
291,
-1148,
-241,
-1952,
286,
-208,
206,
676,
213,
-1718,
353,
-2483,
62,
-1935,
-466,
-1087,
-56,
326,
-218,
503,
196,
303,
-2269,
534,
-694,
1973,
770,
-161,
-704,
1772,
-394,
377,
-5517,
-161,
-132,
1118,
676,
-511,
820,
-16,
180,
-46,
-125,
1137,
-724,
-336,
-860,
537,
-198,
-172,
510,
286,
-259,
346,
-900,
-97,
-521,
-281,
-1232,
48,
344,
2157,
-755,
234,
-1096,
-889,
-1058,
-120,
-323,
-1253,
2209,
95,
284,
621,
389,
171,
4195,
-1235,
-397,
-2393,
57,
359,
-1125,
-67,
40,
328,
-1905,
1882,
-2589,
3257,
-665,
184,
-520,
-627,
-161,
-2276,
0,
1257,
-295,
154,
1029,
-758,
-227,
-1181,
1916,
-69,
-71,
-758,
-761,
1406,
-41,
-144,
-798,
1451,
268,
-1041,
374,
-402,
-2419,
283,
-1160,
-561,
314,
-35,
-625,
212,
189,
213,
724,
918,
-4444,
679,
-1193,
-587,
-519,
-679,
486,
-1629,
977,
162,
1243,
-1083,
-1627,
-122,
459,
-973,
-210,
-452,
-606,
-167,
407,
360,
-450,
-794,
-252,
113,
-779,
369,
-59,
1762,
-80,
-147,
-244,
79,
-593,
-48,
-185,
377,
94,
-692,
336,
-325,
695,
-959,
-1205,
131,
254,
-751,
-478,
-65,
581,
-630,
-66,
-353,
733,
3491,
225,
485,
-810,
-415,
42,
-304,
300,
927,
-1656,
127,
-791,
-645,
-16,
-631,
-725,
-97,
190,
-304,
-26,
-248,
-450,
-7,
-991,
-126,
454,
-1944,
266,
-761,
96,
-347,
11,
183,
194,
-92,
738,
-342,
669,
421,
203,
-575,
-707,
-768,
-260,
241,
-321,
84,
75,
149,
-190,
-607,
-734,
1377,
79,
-355,
1130,
20,
105,
-163,
-382,
-506,
261,
-23,
212,
-60,
-71,
0,
-16,
6,
-6,
10,
-7,
-32,
-57,
95,
-155,
-33,
-2,
70,
-52,
13,
-111,
-22,
-57,
-88,
-51,
-7,
-55,
57,
42,
-58,
48,
-16,
-70,
-21,
43,
106,
-29,
-43,
18,
19,
-28,
-67,
-42,
105,
-54,
93,
38,
-10,
9,
18,
50,
-34,
17,
108,
-94,
-97,
31,
-72,
-7,
-27,
9,
-10,
106,
12,
-70,
77,
-6,
-36,
-34,
-17,
167,
-17,
-36,
-63,
-13,
-32,
-28,
-34,
48,
-56,
-8,
-21,
-13,
13,
-140,
-50,
37,
3,
-23,
21,
48,
186,
17,
3,
-100,
26,
79,
-33,
-39,
-23,
-58,
-41,
-16,
58,
-87,
17,
83,
-268,
363,
-10,
-277,
510,
146,
394,
-372,
2372,
442,
-2345,
-157,
-498,
269,
567,
-568,
-555,
-880,
-794,
-1529,
-63,
676,
-584,
-128,
-590,
-374,
-501,
-331,
295,
801,
270,
-271,
-664,
589,
-269,
124,
491,
331,
-371,
149,
2812,
1949,
-345,
-1382,
-186,
-334,
1392,
15,
217,
21,
935,
-189,
-431,
347,
-12,
-581,
-474,
-1024,
565,
-1134,
-329,
-369,
396,
-947,
-2212,
115,
-577,
562,
-474,
4,
-634,
-206,
119,
-135,
-187,
-246,
-2539,
371,
-109,
127,
1857,
498,
-782,
289,
-16,
-3217,
113,
65,
338,
-159,
274,
238,
72,
90,
1120,
314,
-124,
-671,
-3369,
-215,
393,
-103,
-428,
-229,
-438,
699,
571,
-654,
-335,
-813,
371,
-729,
-503,
-1016,
-533,
-1271,
-477,
414,
838,
-115,
251,
-1048,
47,
489,
43,
-384,
190,
1101,
-1196,
-20,
-419,
-720,
-331,
-40,
-478,
331,
438,
-514,
-282,
504,
591,
-235,
-58,
377,
293,
183,
-19,
-2262,
-421,
-419,
-377,
-352,
446,
-15,
-831,
-51,
-850,
-853,
283,
-1073,
80,
-193,
-1264,
2023,
-724,
-516,
451,
-42,
-247,
-122,
755,
3024,
-2258,
214,
-319,
605,
1883,
-122,
-219,
361,
-521,
-795,
1092,
-47,
-123,
-50,
-764,
578,
176,
-217,
-95,
650,
3682,
-711,
228,
-424,
33,
649,
-826,
-139,
-642,
-465,
-682,
-377,
112,
-756,
336,
1364,
136,
-1232,
-323,
1140,
1557,
228,
89,
596,
2676,
-108,
-931,
-874,
-122,
179,
-8,
-196,
-297,
-345,
-326,
-2427,
493,
851,
236,
-1110,
-733,
-204,
345,
50,
519,
-519,
-30,
173,
-441,
-256,
-670,
187,
-103,
249,
-320,
-1126,
2303,
833,
-23,
-608,
-427,
-460,
883,
-269,
-550,
67,
1435,
89,
-343,
413,
286,
219,
95,
64,
930,
-336,
-287,
-94,
748,
-713,
-2993,
-398,
-255,
62,
-749,
-77,
-538,
353,
-348,
-308,
-992,
-557,
-3042,
393,
-55,
254,
2237,
11,
-120,
603,
129,
-3085,
-939,
-104,
1061,
-739,
-370,
-87,
958,
241,
1502,
-1102,
-638,
-824,
-2315,
6,
-884,
99,
22,
443,
-6260,
170,
-30,
416,
-105,
-47,
-501,
-1685,
-75,
-980,
546,
-751,
-1248,
-261,
-393,
403,
295,
-834,
-1110,
45,
208,
42,
1137,
1233,
-89,
-474,
2773,
76,
-325,
207,
-529,
-220,
-311,
-1149,
-602,
-596,
-627,
854,
1182,
-731,
565,
-464,
-771,
281,
-1216,
240,
520,
739,
1166,
-740,
299,
2819,
-902,
-224,
-317,
-290,
-3086,
752,
-432,
733,
-314,
-423,
-41,
89,
-44,
-2504,
-827,
613,
-189,
-938,
-3310,
129,
941,
218,
697,
520,
464,
113,
570,
2796,
853,
-335,
-117,
-262,
-591,
499,
191,
258,
-261,
-247,
-1258,
-93,
554,
477,
149,
421,
-3859,
-649,
415,
-735,
-302,
-478,
164,
502,
-1162,
-381,
570,
-319,
186,
-317,
0,
-468,
-514,
-276,
2987,
-3627,
-530,
352,
479,
-241,
300,
26,
-53,
-186,
-1952,
-560,
-189,
-6,
407,
373,
-1061,
460,
-691,
-1755,
-461,
844,
1133,
-589,
-404,
-467,
291,
-68,
8,
-68,
403,
-1539,
332,
1711,
90,
315,
294,
-832,
713,
-523,
243,
-866,
-1236,
-357,
-126,
-313,
-63,
-556,
-924,
4044,
-516,
-1943,
685,
-405,
-81,
-103,
-1844,
2351,
1144,
-457,
-900,
162,
-282,
-417,
-995,
693,
-1445,
-1031,
453,
-380,
-640,
-2483,
63,
303,
565,
3239,
-11,
579,
1178,
23,
831,
-1021,
-1102,
1137,
-1116,
-612,
145,
-1402,
1038,
-1096,
-145,
-2209,
490,
2334,
-69,
-6,
-327,
-922,
271,
-629,
-454,
-383,
103,
-717,
-208,
245,
-596,
1001,
-637,
-59,
556,
-66,
766,
-17,
221,
-667,
-607,
1169,
238,
1396,
411,
-30,
-197,
1047,
-117,
902,
-460,
-2124,
287,
-614,
-507,
-1113,
-824,
-532,
617,
279,
166,
146,
-158,
-430,
-450,
-366,
-148,
570,
497,
495,
-737,
180,
-606,
-65,
186,
-732,
-533,
-468,
-316,
395,
620,
-314,
-477,
137,
-307,
687,
-201,
-352,
-533,
-325,
665,
-688,
16,
-497,
-708,
260,
-687,
-81,
50,
761,
441,
-567,
854,
-137,
-83,
1748,
24,
883,
-783,
-614,
596,
-113,
-587,
-290,
-50,
216,
-288,
956,
-55,
-215,
1135,
599,
-544,
458,
116,
-1066,
-968,
561,
1020,
-750,
-796,
659,
85,
-274,
-36,
-389,
1319,
-720,
-710,
403,
561,
726,
-52,
1076,
27,
291,
190,
-116,
-875,
399,
-65,
-868,
-819,
-840,
231,
1214,
93,
46,
1797,
404,
423,
-806,
-1229,
-277,
-354,
19,
-239,
266,
326,
497,
600,
-809,
471,
-150,
212,
-762,
-86,
-208,
762,
558,
-799,
1230,
-43,
-1111,
-956,
29,
348,
2512,
-50,
-329,
807,
-66,
2160,
136,
763,
1191,
559,
1593,
1582,
-391,
-1560,
-2591,
-853,
-317,
125,
-119,
32,
1178,
645,
-475,
1028,
-612,
94,
-778,
-646,
-1428,
-569,
740,
719,
-357,
210,
-543,
-92,
332,
-335,
-737,
-1467,
-2383,
107,
1640,
139,
-14,
-512,
-1000,
-696,
-1353,
-194,
-3690,
274,
188,
2133,
-512,
-398,
-1622,
-298,
-2579,
-1447,
-358,
-1590,
-1780,
683,
-39,
-1239,
553,
55,
311,
-82,
640,
-118,
-1346,
-341,
2361,
-98,
-603,
-912,
4001,
5321,
427,
944,
1435,
81,
282,
1014,
-1303,
1319,
-1070,
-1138,
200,
-960,
-252,
-1007,
-865,
-412,
-383,
-1099,
-450,
196,
-2068,
313,
-2301,
-249,
272,
-3883,
814,
-4215,
-50,
-1810,
663,
-1523,
198,
1202,
941,
-1272,
2077,
533,
300,
15,
-1828,
1129,
267,
614,
-1755,
-334,
545,
-438,
-686,
-2226,
664,
1859,
194,
746,
838,
-734,
223,
-1940,
-493,
-270,
-15,
-60,
-474,
-582,
1374,
987,
32,
89,
-633,
-508,
-308,
1284,
-602,
-384,
-1866,
-1058,
372,
598,
17,
372,
-654,
186,
-203,
452,
-356,
135,
3824,
58,
205,
-882,
-154,
-2375,
-464,
-224,
368,
-102,
-7,
132,
483,
-146,
-244,
-99,
-231,
65,
116,
-121,
-1110,
56,
551,
-2999,
-13,
349,
-748,
1235,
-149,
-625,
801,
-79,
-670,
136,
-401,
-1364,
2240,
-519,
-589,
277,
-626,
-1289,
-415,
-587,
2726,
-1410,
551,
-598,
208,
2054,
-652,
-911,
-132,
-176,
-1572,
1550,
746,
-491,
601,
-1620,
614,
-426,
-1189,
-200,
622,
4146,
-1228,
-179,
-74,
-1111,
1127,
-643,
-345,
33,
1485,
-468,
-993,
-266,
-2868,
1132,
2136,
-1505,
98,
-848,
423,
-52,
87,
-279,
-404,
4,
-629,
-219,
-211,
-326,
-208,
-361,
155,
-45,
-130,
-266,
-67,
1558,
-522,
93,
425,
-116,
229,
426,
407,
-869,
-1124,
17,
-463,
626,
1939,
-271,
-1236,
-428,
-24,
354,
-159,
1510,
148,
-158,
543,
-617,
-191,
-843,
842,
43,
256,
165,
417,
-354,
243,
593,
-212,
-609,
125,
-271,
-111,
-380,
-171,
-215,
-876,
-212,
-1877,
-34,
156,
-413,
-113,
-1764,
-123,
-467,
624,
-187,
342,
-357,
54,
-252,
875,
345,
-322,
-307,
39,
-150,
-382,
93,
27,
-177,
-343,
-314,
653,
483,
202,
62,
-189,
-693,
39,
98,
-881,
-105,
-53,
-43,
380,
0,
4702,
896,
-859,
-1800,
1383,
-70,
-319,
911,
3688,
-2564,
-198,
598,
-510,
1893,
-268,
-71,
-327,
37,
1595,
-880,
101,
1076,
1345,
459,
-690,
-664,
1273,
-364,
-987,
-384,
-282,
569,
89,
-244,
624,
66,
15,
-310,
-3144,
-700,
64,
220,
-2596,
163,
860,
-655,
-465,
417,
-4233,
1562,
-247,
-913,
1215,
237,
-912,
809,
1021,
372,
579,
155,
-961,
142,
-1011,
-1273,
-18,
-1039,
1198,
-527,
-332,
-691,
184,
1112,
462,
-1398,
143,
-3166,
-716,
712,
171,
-47,
-530,
-1773,
0,
511,
1513,
-319,
55,
2471,
-561,
530,
-601,
-1127,
1519,
642,
1432,
-231,
1342,
-2654,
31,
-610,
-1342,
878,
525,
-22,
328,
403,
-316,
93,
46,
-50,
-75,
-86,
472,
581,
-827,
-87,
100,
337,
56,
237,
190,
-58,
37,
-482,
-149,
408,
-116,
174,
-14,
-165,
79,
-340,
-649,
-143,
258,
753,
-257,
-185,
55,
-417,
20,
128,
47,
223,
-285,
130,
46,
51,
-111,
-320,
-208,
429,
-292,
-188,
157,
-299,
-79,
0,
-506,
246,
33,
-255,
1451,
-246,
-414,
271,
-288,
-76,
-7,
-731,
466,
-23,
84,
-198,
57,
173,
12,
-135,
290,
-636,
-170,
248,
-78,
-183,
-761,
-404,
-67,
237,
799,
-96,
145,
532,
-138,
337,
-655,
-173,
192,
-208,
64,
125,
-189,
286,
-381,
-116,
-692,
406,
377,
-201,
-653,
696,
-712,
-227,
-353,
698,
-316,
-314,
-2,
283,
3,
55,
-577,
310,
40,
-51,
-650,
-102,
-111,
1818,
187,
204,
-1477,
-294,
667,
-148,
-741,
-1014,
-128,
-303,
-252,
-307,
714,
246,
2372,
-693,
102,
-972,
-1056,
-41,
-973,
-116,
34,
447,
-1192,
337,
-351,
1900,
-2157,
72,
-247,
-724,
26,
-607,
-332,
418,
-124,
435,
611,
-704,
389,
-1112,
997,
-212,
158,
-1384,
-616,
307,
331,
-48,
-674,
666,
547,
-1148,
230,
-742,
-701,
121,
-471,
-682,
-1503,
-422,
-235,
30,
-629,
230,
-309,
778,
-662,
1137,
-645,
-88,
-68,
-748,
-135,
-629,
983,
-332,
-156,
-774,
-1819,
-1069,
181,
-816,
190,
-335,
22,
-437,
250,
70,
-300,
-815,
-571,
219,
-1786,
-459,
-122,
808,
-252,
343,
-752,
206,
-183,
-96,
370,
323,
-1616,
1299,
847,
-534,
51,
-481,
-1190,
-116,
374,
528,
-758,
181,
-203,
-615,
-18,
-348,
-433,
816,
-635,
396,
-52,
577,
103,
-605,
379,
-387,
-48,
-65,
-106,
53,
387,
-842,
-53,
-269,
74,
-83,
392,
27,
-621,
399,
-498,
641,
-208,
-198,
795,
-311,
-86,
-317,
-302,
174,
-214,
95,
94,
2056,
517,
-261,
-96,
-1000,
-1050,
-572,
126,
294,
317,
-382,
624,
862,
418,
-869,
-10,
882,
-45,
140,
1065,
-196,
747,
-750,
294,
-269,
-344,
595,
346,
87,
386,
178,
-136,
-2,
53,
1,
-48,
84,
494,
78,
-317,
-9,
4,
121,
77,
148,
112,
-5,
73,
-165,
10,
257,
-62,
30,
-34,
-30,
36,
-218,
-423,
-112,
80,
476,
-125,
-7,
8,
-258,
7,
89,
-9,
143,
-88,
41,
-164,
46,
1,
-257,
-69,
162,
-228,
-165,
215,
-256,
-31,
66,
-304,
157,
-24,
-122,
662,
-100,
-175,
51,
-199,
-75,
-48,
-360,
128,
-21,
33,
-78,
15,
249,
43,
-55,
111,
-346,
-43,
182,
-16,
-129,
-385,
-383,
-44,
137,
272,
-51,
98,
378,
39,
206,
-306,
-71,
129,
-98,
118,
70,
48,
65,
-155,
-88,
-193,
189,
121,
-312,
-2032,
67,
553,
2142,
-17,
-31,
-277,
1981,
-918,
-371,
-597,
494,
227,
1357,
-682,
-857,
-1587,
-557,
-2667,
-466,
378,
-70,
-487,
-115,
-700,
-662,
518,
697,
-91,
-444,
-162,
-384,
-89,
-91,
509,
1098,
-33,
-363,
223,
1991,
799,
1104,
-453,
-679,
-51,
893,
839,
-444,
297,
1541,
57,
93,
139,
-461,
-128,
221,
-102,
70,
-910,
-273,
-448,
-349,
-542,
-2121,
1638,
160,
625,
-1300,
-190,
1010,
105,
-64,
902,
77,
-434,
-3770,
539,
-986,
-1455,
2489,
-169,
-226,
-101,
-57,
-3823,
56,
448,
-94,
-373,
-232,
-1002,
2374,
-344,
967,
-1382,
-355,
-682,
-1881,
-713,
-920,
375,
270,
-411,
354,
2540,
855,
-423,
-1956,
118,
1059,
-360,
587,
165,
-2451,
-1977,
745,
-253,
1085,
-966,
-432,
-2054,
-857,
74,
-1625,
1420,
-1048,
399,
-784,
-1230,
-618,
99,
35,
177,
538,
-101,
879,
-369,
-765,
955,
1573,
265,
301,
-2268,
-2156,
1944,
176,
-1039,
-285,
221,
183,
-1319,
-925,
-1428,
1737,
856,
551,
713,
482,
-849,
173,
78,
-349,
-1791,
659,
-1566,
-380,
-400,
-1559,
135,
-2211,
474,
-163,
-731,
-1101,
883,
-100,
234,
-1097,
516,
-1559,
-623,
-1155,
-15,
-252,
1302,
1056,
689,
329,
-3145,
555,
-436,
512,
1454,
95,
856,
-3121,
0,
1033,
1612,
-621,
202,
-4458,
146,
1427,
56,
-436,
211,
-2305,
64,
2313,
2274,
-90,
-197,
-2228,
647,
-191,
-284,
130,
1503,
-2464,
2149,
289,
899,
882,
-413,
202,
121,
1247,
1851,
-702,
-2198,
-791,
-754,
1127,
-431,
684,
-365,
343,
-285,
107,
325,
-545,
472,
-2162,
-196,
-414,
303,
-212,
85,
515,
-724,
108,
-535,
50,
624,
-258,
880,
826,
3155,
1090,
-369,
-544,
244,
-1604,
125,
802,
-188,
476,
466,
409,
414,
53,
-986,
-569,
140,
411,
-451,
-1436,
-1321,
871,
283,
-807,
54,
-57,
289,
1812,
-787,
-62,
-527,
-219,
-545,
559,
809,
-707,
-231,
-369,
1111,
763,
-199,
149,
264,
-571,
-28,
-2770,
951,
-588,
-299,
-542,
-1127,
-1085,
1099,
612,
533,
-922,
58,
-635,
-825,
1199,
-523,
-101,
-454,
34,
501,
-307,
109,
-128,
-588,
1045,
-132,
2689,
-201,
838,
1140,
858,
-459,
-1881,
2192,
1247,
-731,
-1443,
-924,
-1051,
-372,
724,
-1365,
-309,
-1643,
-386,
-7,
-453,
909,
224,
167,
-469,
-1290,
-1320,
-733,
-2154,
1272,
1608,
887,
294,
-540,
-605,
-757,
-395,
-1080,
-927,
653,
-974,
315,
-558,
-498,
-636,
363,
-458,
424,
-2119,
531,
1000,
-1278,
671,
-1038,
1539,
469,
1393,
982,
1068,
1197,
1644,
969,
1586,
-82,
-629,
-1100,
-348,
238,
497,
15,
-616,
-501,
-452,
-1906,
1150,
-78,
1040,
349,
-463,
-219,
-118,
-746,
1483,
-685,
-1546,
1004,
1177,
14,
184,
-1229,
-368,
1541,
-769,
224,
263,
-182,
-469,
1161,
147,
-361,
-84,
-708,
633,
276,
-270,
36,
112,
1297,
-89,
-523,
581,
400,
194,
1003,
-179,
-322,
3555,
1458,
-1919,
2612,
1406,
-650,
1176,
-644,
441,
241,
552,
5,
1095,
69,
400,
-381,
-1396,
-761,
-345,
-106,
-152,
1948,
-2769,
-324,
756,
-3005,
740,
-2166,
1128,
308,
-513,
1621,
644,
-245,
-123,
1,
-758,
818,
484,
587,
1251,
-1136,
7,
682,
128,
1262,
845,
-239,
-1263,
-619,
337,
-552,
-2208,
-1322,
-725,
104,
1185,
1077,
666,
-322,
-1013,
-1397,
630,
1160,
-248,
386,
727,
-2293,
152,
1271,
-1107,
-165,
-439,
28,
-1548,
182,
-788,
-3915,
225,
-269,
344,
-120,
221,
-39,
52,
-168,
-192,
-256,
-207,
-1137,
-719,
-686,
1567,
-782,
-538,
1598,
652,
620,
-380,
450,
-971,
745,
-924,
919,
-286,
-266,
-2138,
1282,
837,
848,
-787,
-97,
794,
48,
453,
124,
487,
628,
591,
-249,
-868,
-1192,
714,
-1148,
515,
-326,
546,
539,
599,
-288,
-502,
-1081,
-377,
-147,
426,
-1357,
-837,
-388,
-198,
627,
275,
777,
-279,
-716,
311,
-1073,
-1091,
1374,
-1295,
1743,
1062,
-334,
-1603,
-1019,
391,
355,
577,
-9,
545,
255,
1256,
-31,
720,
-300,
-171,
-121,
-329,
-1460,
-45,
168,
655,
339,
69,
1189,
284,
287,
1178,
-529,
585,
-409,
504,
87,
55,
128,
-985,
1054,
-566,
113,
210,
-299,
-84,
-664,
-211,
633,
915,
-1144,
-1053,
-213,
-95,
2236,
1954,
1018,
-440,
-1482,
539,
76,
-598,
575,
905,
33,
-1641,
186,
-383,
716,
-1260,
306,
-929,
-221,
748,
-122,
244,
-777,
727,
-144,
292,
-944,
199,
-644,
87,
-273,
518,
-604,
579,
-248,
-749,
707,
-287,
-932,
478,
560,
786,
-114,
-214,
-1158,
65,
96,
-347,
-900,
-1184,
795,
-1774,
-1018,
-254,
-970,
48,
-260,
-759,
361,
-8,
664,
618,
349,
-492,
-171,
-625,
-376,
55,
153,
-912,
-1418,
-358,
1836,
713,
161,
-1066,
835,
570,
167,
-668,
1084,
-451,
246,
4122,
-124,
-554,
314,
-34,
312,
-165,
795,
149,
384,
469,
-31,
-518,
1203,
-889,
-533,
654,
203,
777,
38,
-83,
1132,
-105,
-1226,
110,
586,
-373,
363,
-1140,
-246,
-1433,
894,
407,
1198,
749,
-592,
508,
-226,
-1415,
107,
513,
262,
1115,
-511,
-38,
-797,
-825,
389,
532,
531,
-525,
-2004,
-115,
-218,
94,
-1021,
1700,
-237,
235,
-174,
-398,
1247,
685,
244,
-117,
49,
-439,
586,
198,
523,
-184,
-892,
531,
-43,
-881,
50,
167,
-602,
-613,
-649,
674,
-677,
-902,
-1872,
1860,
179,
-431,
-619,
-765,
-710,
993,
-619,
-34,
-334,
-345,
184,
1367,
519,
98,
39,
459,
-928,
-1245,
-590,
-1331,
915,
588,
-3340,
510,
-47,
1704,
-7,
469,
1306,
18,
282,
1735,
-805,
702,
-547,
-1463,
942,
-591,
-94,
-640,
911,
-102,
-1354,
-775,
1494,
-164,
-730,
200,
-880,
1511,
677,
1490,
-776,
-443,
-214,
-1015,
337,
1221,
-401,
901,
-73,
141,
393,
559,
-655,
-109,
604,
-1122,
-1524,
409,
77,
-843,
57,
-190,
310,
-186,
-786,
237,
-951,
-289,
-262,
-189,
997,
-90,
707,
-543,
296,
363,
-705,
-172,
766,
1146,
-156,
-302,
-459,
1270,
503,
-1002,
-1242,
371,
419,
399,
1254,
-553,
1060,
-346,
-76,
-943,
629,
817,
939,
470,
-1684,
-89,
11,
560,
812,
421,
680,
-273,
129,
171,
-329,
2145,
922,
-1200,
-908,
24,
-138,
931,
725,
19,
675,
-364,
-331,
-801,
-481,
72,
361,
-1502,
-16,
-1394,
-145,
-959,
114,
-359,
747,
-743,
324,
-133,
331,
-528,
348,
622,
-537,
-146,
-293,
242,
-474,
-563,
-454,
-1378,
125,
-9,
184,
164,
-655,
-859,
515,
-619,
288,
-37,
-29,
9,
-2523,
-691,
-476,
-909,
134,
802,
714,
-781,
-451,
32,
-684,
-2487,
463,
-69,
2309,
725,
299,
197,
-364,
952,
2349,
658,
1962,
439,
1501,
324,
-28,
-1558,
1227,
566,
-412,
-620,
-466,
-541,
43,
-491,
228,
-189,
-599,
420,
-341,
379,
474,
590,
246,
1816,
-631,
82,
402,
-584,
304,
-1104,
-847,
3059,
-171,
-552,
2797,
429,
1262,
-1109,
562,
702,
-695,
676,
-48,
-1623,
1050,
-482,
575,
-872,
-449,
121,
255,
210,
1005,
1229,
2711,
-378,
-331,
-354,
287,
74,
-311,
-14,
-1018,
-1433,
1272,
1262,
737,
506,
-629,
-1420,
716,
40,
-93,
-520,
-325,
63,
1283,
-81,
-443,
1007,
15,
234,
-2143,
857,
-671,
291,
-230,
871,
170,
-687,
-594,
384,
1097,
240,
480,
-28,
-1417,
-345,
43,
-876,
-706,
999,
113,
-1145,
288,
285,
831,
212,
-141,
2388,
-1005,
982,
406,
-1017,
1880,
606,
-73,
-318,
-297,
338,
-675,
607,
-1564,
931,
298,
440,
347,
2128,
-1776,
626,
-832,
545,
1114,
-948,
1674,
-1943,
41,
267,
-1530,
-464,
-228,
1433,
-425,
445,
335,
286,
735,
1607,
-1231,
292,
-1332,
2083,
-251,
1824,
-42,
-254,
1822,
-731,
802,
-1229,
-1586,
396,
-231,
-1065,
2898,
-1647,
1161,
-1345,
1892,
1002,
-559,
452,
-141,
593,
332,
-833,
115,
805,
-798,
74,
-1192,
353,
-1592,
2133,
-619,
1017,
1048,
-413,
-270,
-877,
-960,
-79,
635,
-226,
354,
671,
1558,
-488,
-987,
-426,
-1021,
2828,
1446,
-244,
-1579,
585,
-787,
-2912,
-1059,
1303,
-482,
2232,
-660,
139,
-380,
1229,
623,
95,
-183,
848,
-73,
-265,
657,
672,
-515,
-298,
-2243,
1054,
670,
368,
613,
-1952,
63,
159,
773,
101,
1028,
-1095,
308,
-485,
67,
-302,
-361,
-280,
-389,
281,
-1361,
-256,
-398,
-181,
31,
-882,
-29,
-147,
522,
-1288,
397,
-1691,
328,
-293,
236,
842,
-310,
-608,
597,
347,
-179,
55,
-767,
813,
356,
247,
-1339,
-181,
-403,
1667,
-1790,
428,
233,
-343,
497,
651,
-930,
-641,
-17,
844,
487,
96,
-220,
652,
-443,
-683,
-983,
-442,
-557,
541,
397,
191,
319,
-442,
758,
-259,
315,
-61,
308,
936,
52,
-418,
-454,
-41,
1723,
1347,
-234,
885,
-813,
468,
215,
-27,
166,
1382,
860,
-819,
2796,
140,
-563,
-1493,
1353,
-819,
-289,
537,
-1414,
806,
1335,
515,
285,
226,
-335,
319,
110,
-884,
278,
522,
-84,
-300,
-228,
1406,
1883,
177,
45,
923,
-1330,
208,
640,
592,
254,
-500,
-1154,
-1303,
1013,
197,
-405,
-1521,
217,
-928,
217,
2112,
1419,
964,
-631,
2557,
-1001,
-854,
927,
-58,
-797,
-1903,
404,
655,
721,
986,
444,
3822,
914,
732,
49,
-525,
-438,
-1074,
944,
-1124,
-436,
1150,
-159,
-201,
3349,
321,
-1873,
-237,
-229,
-1265,
960,
-2832,
-105,
419,
406,
-778,
107,
-88,
-528,
1182,
566,
-378,
1242,
171,
-528,
103,
220,
799,
-50,
-186,
-598,
-407,
1472,
203,
-375,
-2552,
608,
-871,
-544,
618,
-165,
367,
-1351,
-377,
-3701,
700,
835,
681,
-21,
-1080,
-2497,
568,
-771,
1877,
-46,
-943,
-487,
-1069,
-256,
-1282,
-86,
-202,
-1542,
-1077,
-1012,
347,
336,
420,
1163,
-527,
255,
-976,
211,
-109,
499,
-682,
-17,
-1073,
1367,
1676,
1501,
-1032,
-1212,
-608,
108,
-431,
-15,
108,
297,
-1129,
130,
390,
105,
6792,
-246,
-126,
-743,
-1282,
-283,
117,
-393,
2066,
23,
837,
-1558,
38,
1418,
388,
-2259,
-185,
-299,
358,
230,
-1396,
565,
-987,
1542,
-154,
-302,
-614,
-91,
-284,
-1002,
-371,
882,
-1287,
-2784,
-540,
-269,
408,
-856,
-166,
-467,
-1776,
126,
-202,
-35,
-101,
-106,
-272,
-1477,
-834,
-87,
-663,
-712,
-46,
573,
-675,
-713,
204,
-620,
113,
-269,
-240,
1581,
71,
-7,
148,
-756,
296,
1352,
-2776,
679,
-567,
1985,
-311,
-1229,
-1674,
-2343,
478,
-440,
759,
266,
-1386,
939,
31,
-135,
-660,
-257,
2607,
37,
3899,
-1078,
1221,
652,
-2557,
-388,
970,
-1851,
753,
-13,
-425,
-767,
-170,
-1254,
440,
-757,
-886,
27,
-245,
892,
597,
-21,
-304,
-909,
-692,
884,
-205,
240,
45,
1326,
-215,
3417,
1814,
-1796,
-118,
-294,
-871,
530,
-1119,
929,
113,
649,
636,
331,
6,
2570,
-107,
684,
307,
-1420,
499,
-2094,
474,
-616,
914,
-12,
-185,
705,
28,
75,
1008,
-1011,
-1221,
3437,
563,
-85,
-672,
-443,
129,
-1260,
-991,
118,
500,
475,
449,
-323,
308,
-1152,
-502,
-114,
-728,
1858,
-1000,
1818,
-635,
777,
-1191,
-331,
-231,
-676,
1994,
-1044,
116,
897,
195,
154,
219,
-419,
1248,
-514,
-1231,
-296,
1647,
48,
684,
3036,
1720,
404,
-2982,
-702,
-1030,
-1390,
-772,
859,
162,
-564,
-771,
-1806,
494,
-208,
1718,
408,
-267,
141,
889,
-290,
-139,
-2777,
914,
1049,
-1033,
221,
932,
252,
-341,
-1551,
-397,
-2562,
0,
-122,
-5,
1125,
-2668,
-11,
630,
-1030,
-1226,
341,
177,
2812,
489,
569,
406,
-2112,
372,
961,
-9,
-52,
581,
494,
282,
34,
123,
510,
1105,
328,
-1447,
465,
-664,
437,
255,
-499,
-467,
-407,
541,
-1841,
2,
630,
10,
66,
113,
585,
127,
259,
-880,
693,
-731,
1036,
372,
-187,
1362,
-690,
198,
-263,
-1675,
-450,
602,
51,
663,
-65,
-91,
643,
-49,
578,
-1205,
711,
-2220,
18,
-1060,
1124,
1676,
-24,
-1327,
634,
315,
-1047,
-1234,
662,
-270,
-305,
-540,
354,
370,
287,
-79,
-226,
-424,
484,
-1237,
214,
396,
-2096,
-931,
-412,
-256,
1089,
2482,
-224,
624,
-137,
402,
702,
-509,
-622,
440,
2898,
358,
738,
-57,
-683,
-38,
-191,
206,
-1055,
163,
680,
-179,
-1214,
94,
3266,
-440,
1020,
-9,
-306,
366,
-269,
322,
494,
381,
25,
-53,
3909,
-627,
-560,
222,
467,
-225,
129,
-235,
-1648,
126,
-1112,
-513,
141,
-56,
1110,
349,
133,
-1455,
-1112,
-828,
1222,
-1588,
444,
-599,
-1843,
81,
-259,
852,
218,
113,
2645,
80,
-1432,
-473,
-368,
220,
-439,
-432,
264,
934,
-236,
-1913,
3154,
377,
358,
-1776,
638,
-374,
-864,
-303,
76,
-1105,
-294,
-229,
-1622,
-44,
-10,
770,
69,
-1326,
747,
784,
21,
-411,
-609,
2282,
713,
-372,
-296,
70,
137,
-92,
-1101,
-893,
-806,
282,
1218,
-765,
-312,
-963,
-516,
-81,
-395,
121,
-25,
87,
474,
384,
1073,
596,
-2749,
197,
124,
624,
103,
733,
-429,
267,
671,
-1069,
696,
-200,
-487,
-123,
442,
-8,
-259,
718,
-1020,
-469,
307,
745,
-1256,
331,
1878,
780,
232,
-1279,
2159,
-247,
171,
-476,
-74,
572,
-369,
887,
311,
-536,
-83,
-123,
-166,
-35,
1238,
271,
154,
649,
-248,
182,
-688,
183,
1128,
2208,
-1058,
-1699,
207,
758,
1156,
2415,
682,
-579,
1249,
385,
-508,
42,
-1139,
1595,
1633,
-160,
-265,
-365,
-444,
118,
481,
-388,
-238,
640,
123,
860,
-2458,
-365,
559,
176,
-132,
-943,
25,
356,
-1581,
-247,
-933,
3,
-411,
-119,
-626,
-323,
190,
301,
955,
1318,
708,
54,
106,
-2197,
748,
346,
-686,
244,
1161,
44,
-933,
247,
252,
182,
-60,
-358,
-330,
569,
-482,
756,
93,
-640,
104,
-1165,
92,
-74,
288,
-112,
-724,
-141,
-112,
63,
-21,
389,
-649,
-148,
-171,
-28,
1610,
-1245,
-46,
209,
-602,
376,
146,
-117,
-622,
1555,
166,
-685,
-3119,
404,
-194,
1369,
525,
1988,
-188,
91,
-1192,
455,
94,
5502,
286,
113,
361,
2252,
-2842,
-841,
356,
-1518,
-1355,
1626,
920,
-2770,
-2053,
67,
-964,
-2823,
387,
432,
-14,
776,
531,
1483,
-3053,
-2847,
127,
-87,
59,
382,
-30,
-91,
589,
3849,
-615,
-629,
-2058,
287,
1259,
371,
-537,
328,
-1725,
200,
7,
326,
23,
-1047,
-1067,
-1623,
8041,
-1416,
184,
-1852,
949,
-1288,
-42,
476,
154,
1112,
-1069,
1206,
128,
1819,
509,
-352,
-1319,
504,
463,
804,
-1137,
-245,
-380,
-653,
-2735,
-2033,
219,
272,
-3319,
58,
-202,
-52,
393,
638,
-986,
-233,
-1582,
-163,
-1992,
-47,
-715,
-454,
1062,
-699,
-696,
357,
-1220,
-418,
816,
1585,
-474,
-8,
27,
-330,
-45,
-5318,
-1011,
266,
-24,
9879,
47,
443,
256,
-442,
816,
1625,
1285,
-1286,
1055,
-1694,
-401,
819,
93,
622,
-1081,
-1769,
1029,
644,
2319,
-526,
247,
889,
-33,
1581,
208,
1670,
920,
-468,
2828,
-759,
-724,
-132,
-831,
1169,
-784,
-118,
-907,
636,
463,
-299,
1172,
1443,
428,
-291,
-959,
507,
204,
-29,
560,
366,
1883,
459,
100,
1582,
-235,
371,
-133,
3913,
-766,
137,
-423,
209,
150,
21,
1160,
-247,
-68,
-461,
-766,
73,
180,
-107,
-93,
465,
-990,
-477,
598,
-248,
-464,
333,
335,
-1318,
671,
-288,
-1298,
47,
798,
-119,
-39,
418,
136,
-997,
-608,
711,
1182,
2653,
-472,
-1980,
-95,
1649,
-2840,
1482,
832,
-2888,
-924,
500,
-460,
-467,
565,
439,
567,
-65,
-1104,
-311,
-619,
-2661,
394,
-1421,
284,
-102,
239,
535,
-1773,
-2699,
413,
-250,
-230,
160,
176,
-67,
-1790,
340,
-1147,
-147,
-3,
-174,
682,
-1767,
699,
1515,
283,
-749,
354,
-213,
108,
1052,
312,
-312,
-1744,
87,
4726,
-246,
229,
747,
652,
962,
464,
252,
115,
965,
388,
396,
-2463,
-2002,
271,
-105,
-842,
1224,
-943,
-652,
-1183,
129,
-537,
303,
261,
528,
-1035,
267,
-81,
-514,
1135,
-1172,
1542,
-155,
-440,
387,
373,
-411,
1126,
1253,
-331,
97,
602,
-89,
-436,
338,
-127,
1022,
703,
40,
-271,
-357,
-455,
-835,
1234,
-3149,
-2694,
790,
1349,
728,
132,
-128,
412,
1304,
176,
11297,
1859,
-380,
-1213,
59,
-1037,
38,
-160,
-1210,
637,
-272,
5725,
-716,
-2406,
-966,
-326,
-824,
-410,
308,
390,
-714,
2513,
340,
-1223,
667,
-92,
1424,
1431,
-1173,
328,
369,
628,
-265,
-432,
-879,
38,
-497,
-1437,
1328,
-511,
1697,
-213,
491,
226,
481,
182,
933,
1187,
74,
-272,
2030,
-472,
-1148,
-499,
-1085,
1111,
90,
-696,
-387,
353,
612,
-1443,
-246,
-34,
-308,
1010,
67,
-903,
1868,
-2417,
-630,
-620,
-781,
-322,
401,
-1322,
-266,
-276,
-1435,
-162,
621,
-308,
264,
523,
929,
852,
72,
575,
-1456,
-90,
-1358,
-83,
-1677,
947,
1465,
1877,
-296,
155,
269,
577,
-299,
878,
311,
458,
-438,
1642,
143,
29,
1083,
227,
573,
-546,
-867,
480,
632,
-708,
728,
-1855,
135,
800,
2120,
-495,
14,
1098,
-2740,
1633,
-373,
-1479,
207,
1660,
591,
442,
-512,
300,
-1032,
515,
-153,
-295,
-592,
1446,
89,
-2921,
-183,
-546,
21,
-140,
-284,
1339,
553,
-254,
-653,
-184,
663,
-765,
-7,
-701,
-827,
-508,
-536,
271,
1058,
1075,
-86,
-1278,
84,
121,
-1130,
71,
-254,
1893,
152,
990,
7639,
-561,
236,
339,
63,
98,
-627,
-965,
259,
32,
1435,
-298,
-477,
-868,
541,
-240,
1040,
-126,
-146,
-323,
-598,
-723,
-319,
-181,
-316,
537,
375,
-660,
1737,
1090,
-394,
168,
-1061,
-325,
460,
389,
-408,
-348,
256,
-1010,
-261,
266,
-453,
-718,
-223,
28,
552,
649,
-1015,
134,
-1296,
-286,
986,
1067,
-372,
-44,
1417,
-484,
216,
-421,
1622,
800,
100,
-213,
-361,
-867,
395,
-214,
12,
2162,
428,
-193,
-100,
2421,
-779,
-219,
20,
575,
3,
-215,
505,
49,
-335,
25,
-11,
-864,
-86,
-2117,
-678,
94,
-150,
711,
-1426,
-642,
-203,
-789,
323,
-1141,
190,
-604,
741,
-1167,
25,
-203,
-940,
-1,
-419,
-803,
562,
181,
210,
-424,
-215,
-937,
-256,
1166,
-117,
-380,
-271,
479,
-67,
215,
-513,
1311,
761,
-646,
-127,
-375,
457,
-2558,
-1070,
-647,
1249,
-2199,
-487,
789,
-664,
1962,
77,
-169,
-167,
224,
417,
-138,
848,
-184,
1862,
374,
292,
280,
107,
2181,
387,
-30,
-752,
-559,
684,
-833,
252,
560,
193,
2017,
-970,
-211,
90,
247,
772,
-367,
305,
479,
238,
51,
13,
-1028,
810,
-2311,
-1739,
666,
-153,
-963,
-1298,
-382,
-754,
-217,
-239,
-644,
-57,
-680,
-734,
-894,
360,
31,
-316,
-78,
603,
-678,
-135,
-159,
141,
647,
-170,
-37,
68,
276,
-325,
1279,
-115,
-139,
-1791,
-2251,
-149,
116,
-299,
449,
-1747,
421,
-392,
-446,
-575,
-150,
339,
662,
115,
864,
-1152,
653,
-702,
-526,
-438,
629,
-670,
94,
-376,
1540,
-1743,
1217,
1006,
-2177,
-69,
834,
-358,
2510,
64,
-188,
27,
-48,
115,
152,
1009,
-550,
-531,
-1030,
302,
311,
-823,
1012,
-513,
-329,
111,
44,
1347,
-2334,
-191,
701,
1323,
-271,
-654,
-800,
-599,
-738,
-87,
333,
-449,
-432,
435,
-1004,
-112,
666,
-979,
626,
994,
467,
302,
95,
1903,
-625,
-242,
1177,
14,
-628,
160,
825,
-307,
634,
-591,
-1095,
344,
49,
-143,
-483,
325,
-406,
-1794,
-5,
-272,
542,
-632,
-244,
2039,
-867,
-258,
832,
-977,
-116,
1255,
194,
-803,
-1334,
-1276,
-1233,
-248,
-175,
-22,
-231,
-29,
241,
396,
354,
591,
-1466,
-1185,
-1163,
-1346,
-171,
659,
8,
-153,
-1431,
-620,
-2507,
-730,
-2006,
-1660,
-48,
351,
-63,
-46,
-226,
-144,
-151,
-1362,
-605,
1919,
581,
-691,
720,
-733,
380,
-594,
-509,
492,
-532,
972,
110,
-2432,
987,
-76,
-1730,
-14,
-1288,
81,
-434,
-566,
-274,
-213,
-2884,
-124,
-445,
-1678,
377,
-242,
869,
1177,
1380,
384,
647,
658,
158,
-1310,
540,
-112,
67,
-202,
-417,
-2175,
-1884,
321,
-200,
186,
-144,
-394,
-118,
-112,
-1636,
-2366,
-791,
671,
936,
146,
-1992,
315,
-781,
-184,
-1257,
-43,
-370,
50,
3133,
-1724,
-1870,
662,
471,
-1877,
-329,
443,
-1120,
1953,
-131,
-95,
364,
-756,
1552,
-974,
24,
-257,
-119,
3,
2026,
55,
171,
-128,
187,
-2495,
-856,
-983,
-3076,
-52,
-102,
661,
1328,
124,
-354,
-718,
-1671,
-277,
-904,
-244,
-1221,
1481,
511,
399,
-83,
541,
2044,
-531,
1748,
95,
156,
-901,
891,
-617,
-645,
901,
-871,
1315,
544,
-415,
-201,
243,
180,
127,
-503,
-553,
-2736,
109,
1331,
1607,
-87,
1904,
1458,
-37,
-815,
-1292,
47,
-262,
-1015,
-508,
850,
74,
-593,
-335,
1215,
-681,
-1230,
555,
-19,
-723,
-840,
113,
2785,
-2688,
3396,
40,
63,
987,
-159,
748,
141,
-99,
1257,
1282,
538,
909,
730,
580,
1048,
-1508,
394,
533,
-1245,
-32,
-190,
459,
-467,
719,
334,
-492,
-987,
-807,
423,
-806,
-786,
-891,
10,
287,
-989,
219,
417,
227,
229,
-330,
-1973,
-481,
-2565,
-722,
-190,
388,
1211,
1303,
-1948,
596,
359,
522,
841,
1977,
94,
-654,
1266,
579,
-141,
-841,
350,
2138,
-772,
339,
385,
382,
226,
-1239,
-5,
-161,
-1138,
-135,
-1126,
-174,
1842,
-1309,
-707,
-421,
-481,
217,
1431,
-114,
-620,
147,
-303,
-886,
230,
-259,
-94,
1150,
-802,
-456,
281,
688,
-2932,
-562,
-430,
-1083,
1324,
-329,
-305,
-643,
-539,
-1265,
-452,
866,
-393,
-622,
120,
234,
-543,
-150,
-1044,
641,
368,
-847,
1974,
314,
-226,
1812,
2281,
-522,
-667,
810,
84,
-50,
2533,
-157,
-749,
-308,
140,
166,
373,
408,
-385,
-709,
-51,
-818,
560,
-1037,
-1257,
-302,
503,
1328,
990,
-224,
290,
387,
-955,
1814,
-4264,
406,
2781,
282,
-853,
-1575,
268,
-820,
-132,
-503,
319,
-434,
230,
2782,
-473,
-1702,
-276,
-293,
-227,
1753,
-342,
-1236,
1662,
573,
551,
-3,
-1153,
7,
-677,
-800,
2069,
206,
226,
-1696,
87,
-184,
922,
11,
-442,
54,
424,
-601,
-873,
-774,
-1166,
1465,
432,
-538,
-355,
712,
-714,
-958,
-561,
238,
-1159,
-1388,
-4975,
4412,
1287,
-1257,
-666,
705,
-660,
-1840,
273,
-731,
2,
706,
502,
1094,
377,
-120,
116,
-1018,
-565,
-630,
-518,
2189,
-233,
-373,
591,
-142,
-2096,
-349,
-614,
1191,
29,
-624,
-819,
-211,
-233,
64,
-739,
1386,
1378,
-5167,
906,
-384,
-970,
-1148,
-1029,
594,
494,
3,
-182,
-1993,
-225,
69,
500,
-374,
-436,
1760,
-1039,
-777,
-2583,
10,
-139,
-2356,
1555,
256,
-1786,
1751,
-38,
-1290,
-1084,
-196,
-967,
-562,
-1799,
253,
222,
-1129,
476,
-224,
-76,
-437,
374,
-2117,
14,
-359,
-2713,
-345,
-29,
602,
-626,
392,
1695,
-854,
1022,
1985,
-49,
844,
-1284,
-2918,
-405,
-100,
-514,
309,
-452,
1008,
-1670,
-994,
-1786,
249,
570,
-558,
-656,
107,
1105,
-1474,
314,
-1589,
-408,
-994,
645,
-288,
-1125,
-635,
103,
431,
-136,
-524,
-729,
-346,
-236,
-33,
80,
2115,
-126,
-1151,
264,
-714,
-351,
-357,
159,
-546,
-972,
1070,
729,
-992,
4563,
463,
622,
1442,
-3907,
-1676,
-1127,
-829,
-891,
134,
-1169,
-245,
-1415,
927,
223,
-367,
19,
-49,
-1517,
228,
880,
-2076,
518,
-1557,
-755,
-1309,
358,
169,
-911,
216,
783,
-16,
769,
-1161,
-838,
698,
-1543,
541,
-337,
378,
748,
-1977,
179,
-585,
36,
192,
1004,
431,
324,
-498,
-1283,
-1419,
-452,
-912,
1349,
-534,
-509,
-1421,
1355,
1156,
-157,
-312,
883,
-1944,
1136,
-656,
-388,
-1062,
1431,
915,
-416,
156,
-271,
-88,
424,
-1222,
1746,
-1085,
764,
1364,
-470,
877,
-634,
-191,
503,
516,
100,
-76,
-705,
-68,
-528,
840,
-964,
24,
-692,
-1081,
-1359,
1096,
-22,
-151,
-868,
523,
-524,
535,
-984,
-946,
-3,
-888,
-1146,
-1304,
-396,
-1257,
1457,
448,
-9,
-247,
383,
-578,
158,
-914,
376,
-335,
-714,
-378,
-448,
-707,
-1062,
911,
-747,
-66,
-737,
475,
794,
-509,
19,
749,
-499,
216,
-16,
-997,
-404,
-759,
-386,
100,
1327,
-784,
320,
-63,
566,
592,
-738,
314,
411,
-69,
-171,
135,
-464,
470,
-534,
90,
-890,
914,
289,
761,
-373,
-789,
705,
-104,
-3409,
-993,
-451,
774,
-1670,
39,
-118,
-526,
644,
95,
98,
-1017,
852,
-930,
-264,
697,
779,
3,
333,
-385,
537,
396,
-327,
-161,
-770,
-225,
169,
-920,
193,
-1355,
322,
35,
-142,
-538,
-385,
-1489,
1672,
-168,
934,
1595,
-99,
-669,
-238,
-955,
754,
918,
131,
-781,
221,
387,
242,
622,
-697,
781,
-633,
340,
36,
818,
-185,
-582,
-325,
-1213,
-705,
1425,
-999,
1100,
-560,
-704,
640,
-1526,
-610,
239,
-284,
-494,
1218,
-643,
-1612,
-351,
-977,
-415,
-2017,
-2048,
-529,
-287,
-362,
-1348,
115,
1781,
-188,
291,
-610,
600,
-367,
-527,
-556,
-187,
-654,
-338,
-1160,
-912,
137,
333,
907,
-553,
-119,
-1597,
-1132,
-279,
-1085,
422,
353,
-726,
-223,
-266,
262,
-297,
-83,
-109,
-1121,
-329,
825,
-556,
-1205,
-508,
-630,
664,
-756,
-228,
-625,
-596,
-303,
221,
-424,
-262,
105,
-484,
878,
-674,
-462,
2683,
1012,
-555,
-1418,
-1487,
-4001,
-419,
-733,
-1025,
1037,
-518,
141,
-1667,
3478,
-131,
246,
-360,
-468,
-605,
-76,
136,
-520,
509,
-818,
-360,
-877,
-67,
-974,
3807,
744,
-875,
233,
-734,
-650,
-672,
-688,
121,
418,
40,
690,
-348,
371,
-97,
-2005,
-7,
-17,
126,
228,
-57,
-354,
-52,
528,
-1960,
-530,
-848,
-1032,
-73,
-405,
-98,
-224,
-29,
845,
-592,
45,
-1177,
-1026,
-739,
1090,
1677,
-1630,
-907,
920,
52,
-1166,
21,
38,
-714,
813,
-307,
559,
-814,
-1248,
35,
1317,
-586,
-320,
-819,
-529,
6,
18,
765,
-56,
-162,
30,
385,
-819,
-844,
683,
476,
344,
312,
-1372,
-622,
279,
-669,
-179,
2391,
1807,
-806,
2199,
359,
570,
-34,
-962,
-138,
195,
-1763,
-2401,
775,
-636,
-449,
-449,
-462,
-1027,
-1393,
-514,
701,
-1870,
-903,
1057,
-1480,
-231,
-86,
-1332,
551,
349,
393,
-453,
-736,
511,
-981,
-478,
-698,
55,
-620,
-954,
39,
-767,
-49,
863,
-1384,
709,
-29,
42,
774,
-1811,
601,
304,
512,
-283,
-140,
199,
407,
1239,
-382,
-668,
564,
-850,
-364,
-375,
-699,
-61,
-816,
-960,
-1775,
-1314,
-55,
-130,
650,
-120,
-758,
325,
-234,
-1466,
1510,
874,
-791,
150,
725,
-204,
530,
372,
410,
-1083,
-11,
707,
962,
-61,
1104,
-324,
308,
5,
-1108,
396,
109,
-2040,
228,
-143,
1383,
269,
-703,
-267,
35,
-2627,
857,
-404,
-284,
722,
-603,
-801,
-4687,
1114,
2941,
-1557,
-1102,
483,
-333,
-470,
-678,
-794,
270,
-2374,
319,
-377,
-1279,
-2582,
1425,
-1002,
488,
630,
701,
-407,
-992,
-285,
648,
-2258,
798,
1593,
-907,
1694,
-855,
64,
79,
313,
-861,
360,
-4874,
804,
986,
-922,
1108,
-4,
467,
-906,
1248,
-1926,
-230,
1383,
66,
-2723,
-1366,
-221,
359,
940,
254,
-120,
-1233,
-1419,
-1418,
-760,
1717,
-565,
244,
756,
403,
568,
313,
607,
757,
-852,
362,
263,
112,
-487,
1432,
2006,
231,
-1437,
-1915,
342,
-1244,
339,
-689,
731,
2687,
1533,
-573,
586,
668,
118,
649,
86,
87,
-671,
-1424,
-2346,
944,
-1803,
-289,
1924,
2796,
-2077,
-284,
-1671,
1498,
-1141,
722,
-739,
3114,
-8,
1020,
733,
-486,
462,
159,
3182,
700,
771,
476,
-314,
-810,
-701,
488,
65,
511,
1514,
-1842,
888,
652,
1030,
735,
-1612,
903,
403,
1466,
497,
736,
1791,
3492,
-2659,
-892,
586,
-686,
1419,
-2113,
796,
-1145,
-2519,
-916,
-1368,
-1729,
-908,
-374,
-1588,
3439,
916,
405,
-1065,
-628,
466,
-1236,
922,
1112,
4521,
-1117,
2117,
1815,
155,
1624,
1300,
10,
260,
684,
-3383,
-1072,
-726,
-217,
-888,
270,
-521,
-132,
540,
304,
-219,
-434,
-333,
-520,
-427,
701,
254,
-357,
230,
1140,
6,
652,
215,
1002,
-1224,
3631,
200,
437,
4260,
-48,
1347,
-307,
-2138,
-753,
-951,
526,
-3580,
175,
1990,
121,
-878,
-1119,
-72,
-270,
-179,
532,
-1838,
-482,
-691,
-1061,
-875,
441,
25,
137,
-91,
26,
604,
206,
522,
124,
351,
-280,
-935,
-404,
-18,
81,
808,
70,
1252,
-1500,
-721,
220,
308,
-300,
-83,
769,
-753,
-236,
-264,
336,
102,
-222,
-710,
-182,
-109,
670,
-1493,
-120,
-1078,
590,
114,
-523,
-2293,
1070,
-2532,
-481,
688,
570,
-439,
-1811,
-575,
-297,
-1692,
1743,
-1191,
-619,
254,
630,
463,
839,
142,
30,
-363,
-523,
1091,
308,
-1321,
-134,
1108,
-715,
-725,
26,
24,
553,
1959,
378,
-24,
-657,
592,
-16,
2533,
639,
1235,
816,
-187,
-623,
-1067,
-606,
26,
-144,
109,
1487,
-826,
-1490,
-551,
-427,
-137,
-43,
-60,
369,
465,
-490,
-980,
-1058,
179,
-1319,
-518,
357,
581,
203,
672,
-658,
-428,
-986,
-460,
364,
575,
-931,
-633,
698,
1311,
-165,
-371,
129,
-1040,
245,
355,
-882,
-1334,
2797,
-426,
-941,
-230,
252,
-983,
1846,
-46,
-101,
-601,
-474,
-267,
1617,
420,
258,
17,
-215,
-392,
-24,
-539,
-837,
-1347,
-499,
362,
-721,
-179,
-5,
58,
-57,
3938,
1100,
1091,
-2140,
360,
175,
-433,
346,
1246,
-258,
1414,
716,
-547,
197,
412,
-181,
399,
0,
-174,
-921,
1190,
-1228,
71,
-1726,
4669,
-771,
264,
-476,
244,
-3551,
18,
667,
846,
-981,
-103,
-2258,
1529,
3,
1050,
-5147,
157,
447,
671,
800,
929,
1423,
578,
-2340,
200,
1232,
433,
-272,
305,
701,
-2909,
391,
790,
495,
-939,
-1529,
-283,
-748,
1122,
-215,
-90,
1717,
832,
-75,
-6387,
1652,
-873,
337,
-2344,
-2245,
-156,
42,
443,
653,
-1070,
1474,
476,
1989,
-2256,
277,
521,
2013,
-428,
281,
338,
798,
784,
1269,
1798,
1417,
107,
1116,
-1889,
-1340,
288,
-2502,
-2955,
1208,
668,
-1300,
-81,
835,
619,
344,
-780,
-2101,
-1070,
-182,
-328,
-991,
-247,
-710,
-161,
-167,
310,
-1218,
274,
-782,
709,
361,
-1225,
-358,
385,
-532,
482,
-1033,
1687,
1316,
-1338,
218,
461,
848,
488,
-1010,
-764,
-201,
-168,
-72,
-275,
-341,
-1629,
239,
-755,
-1276,
-244,
421,
-99,
-748,
229,
685,
-547,
552,
-953,
420,
-659,
245,
-504,
-392,
815,
-258,
1165,
-2998,
-419,
-227,
-1910,
842,
-2296,
-53,
-467,
-1333,
-1106,
-546,
-384,
-305,
-110,
-675,
-867,
-327,
-706,
-1581,
-846,
-25,
165,
-755,
-332,
-604,
456,
162,
-1019,
-541,
167,
1612,
2102,
-1250,
-1031,
-1676,
549,
-203,
-428,
1069,
465,
233,
-283,
-1613,
1472,
1470,
774,
511,
1029,
948,
335,
350,
619,
-287,
801,
955,
944,
552,
443,
335,
-195,
-600,
259,
616,
-1581,
238,
11,
1281,
-900,
478,
1352,
-998,
-1518,
-267,
-132,
-192,
-1278,
-359,
-487,
1109,
-5063,
2976,
-2048,
-320,
-472,
103,
1321,
-1540,
811,
-165,
1022,
1425,
-812,
-314,
-4736,
-1063,
-3235,
551,
744,
180,
744,
-1453,
-1135,
797,
-2116,
1014,
-468,
-725,
1988,
144,
-1285,
174,
48,
681,
-592,
-4785,
1142,
168,
104,
317,
-228,
-110,
-1242,
861,
-2966,
-911,
-973,
193,
-3039,
-5,
516,
409,
774,
519,
243,
-542,
84,
809,
-456,
1205,
198,
952,
612,
574,
721,
1371,
-1143,
-1942,
-690,
810,
1157,
-1114,
-181,
-842,
-1038,
-390,
104,
-569,
1,
-95,
-1668,
186,
-196,
1044,
-242,
-19,
-391,
48,
-114,
-10,
47,
326,
-1293,
-1650,
2659,
-683,
-1439,
310,
-23,
-1166,
-95,
54,
67,
232,
-387,
-269,
-1898,
2114,
-641,
-840,
266,
101,
57,
23,
-439,
-1592,
-684,
-997,
-730,
566,
-1884,
-437,
556,
497,
-425,
-228,
-796,
219,
1816,
584,
405,
-543,
-117,
-871,
81,
-175,
1743,
1352,
-498,
99,
27,
387,
-92,
2262,
-15,
471,
592,
571,
-48,
-58,
-215,
-431,
197,
-381,
490,
723,
-213,
-292,
-805,
128,
74,
-1424,
-204,
892,
463,
750,
-240,
262,
-1138,
-439,
-137,
-552,
6852,
-953,
1236,
-137,
172,
-541,
14,
-339,
489,
-195,
343,
218,
-800,
-419,
225,
1759,
-459,
287,
-58,
187,
27,
1292,
-188,
73,
239,
-1356,
2439,
-841,
-1976,
62,
-1491,
-555,
104,
89,
269,
-173,
1297,
415,
-393,
383,
880,
1033,
-297,
-48,
-133,
170,
410,
-545,
-124,
-1012,
-317,
-166,
-995,
240,
-874,
-347,
564,
126,
-823,
-338,
181,
169,
579,
-558,
-622,
-1294,
-340,
-270,
454,
844,
-220,
-79,
-676,
273,
317,
1700,
-330,
45,
223,
-94,
293,
-878,
279,
-534,
-239,
837,
-651,
-259,
-330,
-242,
-1855,
480,
-167,
-333,
431,
249,
-1537,
-241,
-259,
-255,
-1141,
-97,
-158,
-789,
7114,
-994,
-386,
-3797,
-28,
968,
-3080,
213,
1018,
-2661,
-1603,
304,
-713,
226,
595,
1384,
917,
-505,
1142,
492,
1032,
-508,
8,
-1221,
3441,
-347,
107,
-153,
230,
1267,
482,
707,
425,
-568,
-298,
-1287,
1094,
459,
524,
-4906,
117,
-1798,
551,
894,
397,
78,
1617,
-2221,
324,
1018,
294,
-410,
131,
341,
-1443,
177,
1640,
311,
57,
356,
-35,
125,
615,
792,
-522,
127,
40,
-203,
1825,
1500,
-1218,
505,
-1309,
-81,
-532,
-83,
990,
501,
-1052,
927,
356,
-1551,
663,
188,
261,
1467,
-927,
178,
307,
581,
809,
288,
1832,
229,
954,
928,
-1598,
-1165,
221,
774,
-2215,
855,
565,
-807,
-919,
23,
-432,
86,
-859,
662,
1181,
105,
115,
152,
371,
-859,
-1236,
-61,
-415,
535,
-747,
-553,
330,
-54,
879,
-787,
-590,
523,
-755,
2847,
105,
388,
289,
-467,
-730,
61,
-1840,
-490,
249,
1829,
585,
-857,
1257,
1124,
-804,
-851,
226,
1245,
-266,
-334,
-1258,
-134,
-377,
-2848,
-558,
2230,
-385,
-1072,
-348,
345,
-337,
-759,
458,
-350,
-1078,
-929,
66,
-290,
-1533,
-551,
-16,
158,
-880,
-2444,
-84,
742,
364,
-800,
276,
2859,
-45,
260,
-416,
305,
-418,
-1500,
-590,
-842,
1103,
-568,
165,
488,
-470,
-924,
-125,
-588,
-343,
257,
-376,
-70,
-106,
-1081,
-660,
-583,
952,
-515,
155,
-2043,
3114,
-95,
-1031,
1280,
-761,
1347,
143,
-242,
-567,
-376,
-1671,
-767,
658,
-1020,
618,
833,
811,
-17,
-223,
529,
465,
-594,
182,
-1635,
-743,
-1602,
-763,
-819,
-417,
659,
1369,
637,
801,
110,
-174,
659,
-898,
-591,
-529,
-1111,
371,
157,
-26,
-1430,
360,
963,
2884,
-961,
500,
908,
301,
-982,
227,
396,
604,
650,
2480,
-70,
792,
1535,
94,
920,
129,
-61,
-1350,
1337,
-8,
242,
2006,
1757,
-450,
494,
-337,
1962,
461,
-905,
989,
-234,
-371,
-665,
13,
-635,
1803,
-871,
-493,
1101,
-617,
974,
-1001,
317,
111,
-392,
1433,
557,
2096,
-1571,
979,
-775,
-82,
2011,
-57,
-395,
10,
-689,
-1135,
745,
-720,
231,
-970,
328,
1866,
-51,
-267,
-892,
441,
179,
-947,
-130,
691,
-40,
123,
-759,
-692,
-34,
-26,
-632,
-352,
-1726,
-5,
-752,
2,
1153,
732,
-247,
784,
313,
-896,
-55,
-721,
247,
-77,
218,
-257,
-1419,
-759,
-547,
-193,
-563,
111,
88,
-374,
-1447,
34,
-78,
9,
403,
269,
-336,
252,
1026,
-18,
396,
-148,
784,
739,
-710,
-168,
196,
-2255,
614,
-349,
261,
-1450,
-645,
398,
-410,
-127,
199,
1987,
529,
-493,
41,
727,
-628,
-326,
200,
670,
304,
-162,
342,
434,
-772,
328,
6884,
1080,
-884,
1490,
-36,
-111,
657,
979,
-329,
163,
-500,
706,
774,
862,
-2436,
-374,
1906,
-255,
439,
969,
2292,
-2646,
-446,
-1387,
1549,
255,
244,
760,
284,
-1148,
-1517,
780,
350,
255,
527,
1125,
916,
326,
-427,
-242,
-2795,
1395,
-277,
-896,
1429,
-1492,
-183,
3287,
2100,
228,
553,
-1669,
632,
2846,
594,
-2958,
-3216,
-59,
-234,
25,
-452,
1926,
-524,
-871,
3617,
-901,
587,
523,
351,
-516,
965,
-285,
-1321,
236,
2573,
234,
-1043,
485,
621,
-582,
-1503,
869,
-455,
1435,
2,
-662,
479,
22,
1007,
-873,
1822,
-1827,
529,
1158,
-107,
-1266,
-452,
-1333,
507,
52,
-1183,
-286,
267,
-32,
-758,
-575,
714,
-8150,
4578,
-2263,
-212,
-4402,
-352,
-363,
-2123,
526,
290,
2738,
489,
2708,
4941,
-1039,
-773,
471,
-1704,
3851,
-390,
-757,
-875,
-292,
377,
-143,
-93,
808,
-153,
3275,
-228,
3051,
-1172,
297,
362,
673,
728,
-2935,
1622,
1393,
-2295,
-1029,
574,
-3428,
897,
805,
507,
-1056,
-276,
-976,
668,
75,
-2138,
-849,
-429,
394,
889,
-672,
72,
-2325,
2607,
994,
80,
-510,
748,
359,
-628,
793,
-246,
-2391,
-254,
-878,
244,
-598,
-1577,
-226,
-320,
280,
-1978,
112,
-99,
-693,
-248,
-1226,
-53,
-567,
117,
402,
-600,
-1103,
494,
-142,
-748,
222,
1052,
2068,
99,
203,
-2771,
884,
252,
722,
-1143,
139,
-173,
-701,
285,
-665,
350,
2432,
-813,
-570,
-383,
-261,
-141,
1425,
101,
4042,
500,
2027,
672,
96,
1009,
1622,
-123,
1086,
-737,
66,
219,
406,
-182,
-711,
-357,
818,
16,
-385,
-550,
944,
924,
-245,
-1348,
779,
355,
-35,
-744,
693,
571,
409,
164,
-1337,
-1918,
-936,
243,
1057,
632,
896,
-2336,
1153,
-1068,
-619,
-24,
235,
-904,
-853,
899,
104,
-648,
1121,
-292,
2793,
-25,
-496,
1280,
-359,
270,
1054,
424,
604,
-1086,
-905,
1676,
-1788,
-906,
1404,
144,
-36,
2490,
338,
503,
-522,
-284,
-2572,
165,
2736,
263,
608,
-271,
1063,
1154,
1221,
504,
2412,
271,
-2754,
966,
-267,
1540,
43,
346,
-3328,
1598,
-2167,
-352,
-37,
595,
-58,
215,
-318,
-198,
-700,
4492,
-721,
-3454,
246,
804,
-554,
1201,
-862,
-92,
1645,
-315,
522,
-200,
-1170,
-622,
-891,
2265,
-970,
687,
-132,
-478,
-1049,
535,
-21,
1261,
-554,
4718,
-517,
1494,
-504,
-811,
-2615,
66,
-195,
-88,
-869,
-1453,
392,
-1074,
1136,
-614,
1903,
-861,
772,
813,
-23,
702,
-726,
1456,
-2370,
-2297,
-2965,
1058,
498,
-733,
-709,
-353,
1205,
-1410,
-1439,
2486,
-1220,
1450,
-96,
670,
1421,
-1473,
388,
99,
-646,
-661,
89,
-1106,
159,
95,
36,
255,
-56,
1152,
-849,
967,
-951,
-360,
-294,
501,
-100,
-692,
1276,
1061,
6,
-673,
-1578,
151,
-1668,
2139,
-968,
1237,
-953,
-2300,
184,
-642,
-77,
-775,
753,
-775,
525,
-553,
-451,
-951,
-284,
1918,
-1223,
-155,
1212,
-3,
114,
-33,
-1101,
-357,
-374,
-2382,
-220,
-285,
794,
359,
-91,
481,
111,
-120,
-1566,
1976,
931,
-822,
-391,
749,
1598,
-249,
-48,
-315,
445,
452,
-825,
1157,
-1208,
2910,
-313,
195,
827,
145,
-311,
-2676,
-2418,
383,
-807,
-1046,
-1031,
967,
364,
-997,
991,
766,
-134,
-715,
-390,
-901,
-594,
417,
119,
519,
-399,
1042,
72,
10,
79,
-726,
-323,
-451,
1138,
40,
-458,
-159,
3137,
993,
936,
73,
-171,
101,
147,
250,
710,
-1297,
264,
479,
894,
-297,
-463,
-7,
-839,
-1473,
-1508,
404,
-2118,
-616,
32,
-628,
-989,
-463,
717,
-415,
3157,
-884,
-294,
-828,
508,
-2456,
-1306,
186,
802,
646,
291,
378,
1173,
370,
242,
14,
-1040,
-511,
187,
-1696,
-628,
701,
574,
1109,
511,
-1781,
-455,
428,
-3286,
90,
542,
54,
3181,
612,
-1056,
-1210,
2442,
20,
242,
-941,
1095,
899,
-580,
269,
12,
-97,
1710,
-5,
-750,
383,
-248,
-308,
-2359,
1075,
0,
-453,
-805,
270,
297,
-1189,
-1235,
-1987,
171,
-1786,
-198,
-1671,
-1983,
-486,
572,
-367,
-239,
11,
650,
147,
25,
-974,
-396,
640,
1083,
192,
-576,
272,
33,
433,
-982,
-1312,
340,
-1297,
542,
-138,
-1420,
1434,
587,
-2522,
260,
-46,
-1727,
-419,
291,
1250,
555,
1031,
-111,
-392,
1540,
633,
512,
-402,
576,
445,
-64,
56,
-1137,
5489,
251,
255,
819,
-400,
-627,
1686,
-1596,
387,
-803,
1255,
-495,
-318,
-170,
-558,
-4083,
254,
881,
-2211,
-1157,
1398,
-1232,
-525,
604,
-961,
-342,
-1428,
-1775,
617,
-610,
447,
677,
2125,
-106,
404,
-486,
-2056,
-153,
-203,
939,
-1715,
152,
915,
-66,
-827,
-1135,
1053,
-1389,
-166,
-502,
-718,
-769,
-1308,
59,
457,
-18,
-1413,
500,
68,
-841,
1188,
453,
1200,
880,
-607,
1497,
-120,
818,
1120,
123,
-700,
476,
-588,
1091,
-272,
-147,
-3714,
-1639,
-640,
-305,
-708,
-960,
-175,
-984,
-375,
-574,
-221,
392,
868,
-628,
-1384,
-721,
35,
-59,
383,
1339,
-391,
177,
-1661,
-42,
1787,
318,
-283,
294,
-1636,
-620,
342,
697,
14,
-79,
4438,
-2313,
-599,
-290,
2473,
425,
-490,
-115,
-1924,
-189,
421,
706,
-127,
1591,
36,
-880,
1260,
-216,
1719,
1430,
1076,
124,
849,
-65,
2959,
994,
1541,
-229,
-846,
78,
184,
-1057,
-85,
429,
414,
387,
-194,
1483,
12,
1669,
-22,
-68,
-688,
-65,
335,
77,
-375,
-172,
646,
24,
3464,
796,
-101,
-332,
50,
-551,
407,
-1360,
156,
2010,
-13,
-3971,
-148,
-1836,
102,
185,
610,
-561,
78,
997,
3,
115,
-2017,
198,
-899,
514,
-308,
-3311,
1700,
-1542,
-103,
-319,
201,
-33,
-1653,
-1088,
111,
-32,
-1133,
2179,
-1042,
80,
-1090,
-125,
-1126,
-2577,
8,
-1334,
357,
-475,
104,
-452,
-57,
-128,
-342,
399,
-286,
-1018,
830,
-739,
3074,
194,
513,
-496,
978,
999,
-370,
1365,
-473,
-1260,
322,
-1591,
-2672,
738,
763,
0,
-553,
-1511,
1157,
-1778,
985,
-200,
684,
329,
530,
-2934,
-247,
1581,
-793,
572,
153,
-651,
196,
347,
857,
-561,
1205,
-837,
-565,
795,
-1075,
345,
864,
-962,
123,
-366,
-128,
-174,
-2104,
-1579,
293,
-67,
463,
-2795,
-949,
-1872,
360,
-409,
-77,
935,
-150,
-496,
356,
333,
240,
-599,
2632,
-256,
37,
1417,
-477,
3106,
-1370,
-1066,
53,
-3737,
51,
259,
69,
-806,
99,
310,
3329,
1560,
3017,
-1308,
2329,
528,
-1889,
4164,
-221,
-931,
-2769,
1201,
137,
464,
-393,
789,
756,
-1842,
32,
-1150,
2140,
43,
1031,
533,
18,
-925,
-613,
1443,
26,
820,
-183,
379,
199,
1206,
-184,
215,
-1458,
637,
415,
-509,
-3716,
773,
-1329,
-406,
-500,
-116,
-1144,
665,
41,
338,
-665,
-144,
-192,
-434,
317,
-2142,
5,
-696,
420,
-279,
-172,
-823,
-1584,
605,
-91,
69,
2960,
210,
-58,
-1052,
-1612,
-67,
-902,
478,
-161,
-1342,
172,
-2288,
264,
936,
-578,
-584,
377,
520,
167,
-905,
-2248,
-765,
-489,
257,
280,
-956,
506,
1142,
-785,
1017,
-134,
4444,
-954,
-330,
1030,
-394,
-234,
875,
585,
4351,
1684,
274,
-1485,
441,
-3254,
-2648,
-145,
-1052,
655,
-231,
-11,
-1147,
-712,
-380,
-869,
568,
-616,
1987,
-1252,
-638,
-1830,
204,
-759,
-285,
-1665,
3392,
-96,
4534,
-130,
-472,
2290,
-2906,
593,
-895,
706,
543,
-320,
-1473,
-55,
-1037,
2190,
-797,
-136,
236,
418,
1218,
808,
-353,
-1435,
1529,
-1602,
-3498,
-425,
-745,
-234,
564,
2083,
-8,
-3275,
-248,
-1492,
64,
-1097,
816,
-1411,
-1660,
327,
1070,
-3725,
-572,
-1541,
-115,
-710,
950,
482,
2,
-156,
-474,
-284,
-79,
-858,
217,
294,
-1935,
-266,
897,
-1879,
-537,
-494,
837,
791,
3162,
-2754,
-31,
731,
-3021,
-1035,
171,
2237,
-408,
-191,
-380,
118,
2742,
4243,
-1658,
450,
323,
-528,
-726,
-359,
2653,
158,
406,
-394,
725,
-9,
-1097,
721,
-231,
-968,
104,
-39,
-236,
-36,
-99,
1742,
-926,
979,
-786,
1770,
1110,
-1,
-175,
349,
353,
317,
-1402,
485,
2326,
-460,
1102,
-833,
1471,
-327,
-615,
629,
307,
773,
841,
-149,
-1863,
-1075,
-148,
-1218,
-292,
22,
21,
-755,
-16,
469,
1091,
-332,
-3354,
-657,
-254,
-885,
169,
-2253,
-167,
-54,
-743,
-2647,
359,
-72,
632,
254,
-554,
329,
-1388,
757,
-354,
-129,
-726,
1064,
-888,
712,
283,
-379,
-918,
-1320,
-651,
1022,
-309,
1014,
-2944,
83,
-3594,
-498,
-982,
-2685,
-523,
-509,
-662,
544,
426,
450,
1635,
-277,
-49,
369,
-503,
521,
-771,
-32,
479,
-53,
1149,
-134,
174,
-547,
-142,
-2076,
-1100,
-424,
740,
62,
-156,
-686,
-215,
353,
437,
630,
-479,
-117,
1811,
-69,
-154,
580,
-1298,
-754,
1565,
461,
-249,
-362,
306,
-1413,
-721,
61,
606,
1907,
453,
-2788,
-2698,
571,
450,
-1350,
-306,
616,
255,
-852,
-55,
-93,
302,
670,
-453,
-366,
-3148,
-86,
-519,
-819,
-35,
1778,
-447,
215,
-384,
17,
356,
-224,
1353,
-347,
1156,
852,
-947,
335,
-466,
76,
228,
-236,
-143,
207,
579,
-293,
-51,
-1076,
271,
290,
2505,
123,
-1641,
-1124,
-1151,
106,
-1653,
-1825,
-369,
1053,
-602,
725,
1616,
-752,
872,
-813,
-1114,
-747,
562,
409,
-1455,
-278,
-152,
375,
185,
545,
1856,
660,
-105,
-1174,
-1563,
-1028,
203,
537,
582,
-669,
89,
1031,
-598,
1060,
399,
-425,
25,
-131,
3158,
-192,
11,
102,
719,
-1527,
419,
-295,
-847,
165,
-742,
93,
-71,
234,
-111,
-1331,
64,
852,
-259,
1015,
-11,
460,
42,
-514,
778,
-2544,
-1099,
18,
-1772,
-1085,
-953,
-164,
992,
-186,
434,
2305,
601,
163,
-881,
-740,
-504,
116,
609,
573,
-1903,
-585,
751,
-82,
1846,
-278,
71,
360,
-1321,
293,
-480,
-888,
4784,
1,
-159,
1764,
161,
240,
-1586,
592,
-848,
917,
-1263,
-1469,
205,
-1194,
-1701,
-6,
609,
-1929,
2788,
-262,
-146,
206,
278,
-66,
-2467,
-399,
1903,
-2811,
1340,
-344,
184,
-508,
282,
-545,
2904,
-1369,
1532,
-197,
641,
-912,
82,
-1124,
507,
-267,
102,
1558,
2201,
-25,
1102,
750,
-1196,
540,
-773,
1914,
1733,
-750,
827,
2490,
-1753,
52,
266,
-262,
-76,
1730,
-1689,
232,
-980,
-509,
426,
578,
-218,
-910,
364,
-937,
-441,
144,
-2094,
388,
-552,
916,
557,
337,
714,
139,
-147,
-26,
-1945,
-319,
-673,
818,
1681,
-143,
1037,
577,
2799,
-977,
1127,
355,
354,
-881,
-623,
267,
230,
-2390,
-134,
1720,
-150,
0,
607,
-52,
-1654,
45,
-2079,
-330,
932,
-1869,
-368,
860,
-3203,
-118,
-63,
-1856,
-1358,
-774,
48,
395,
483,
-212,
-2884,
-254,
-228,
-1915,
-116,
-439,
-922,
198,
466,
2577,
857,
-577,
554,
295,
613,
-1237,
-127,
-1616,
102,
-908,
-500,
-2,
1365,
567,
-178,
-389,
-60,
-734,
-1,
1215,
1130,
-314,
-31,
-293,
59,
829,
-14,
-701,
-137,
-122,
-827,
462,
-1739,
-790,
1128,
1480,
-520,
-352,
573,
294,
-1107,
604,
-2983,
97,
550,
-61,
657,
388,
-1035,
2605,
-439,
-325,
504,
-853,
-520,
1130,
686,
310,
1640,
106,
-664,
-781,
236,
810,
384,
-511,
969,
317,
334,
-2644,
1158,
339,
455,
-459,
794,
296,
-435,
-131,
-2168,
-223,
-598,
-2069,
-146,
745,
-1891,
-308,
-206,
-1361,
-1982,
-1164,
839,
-412,
348,
-802,
-1750,
-216,
342,
-321,
504,
422,
559,
-295,
-17,
476,
1441,
-1082,
108,
-681,
1195,
2619,
-101,
766,
-360,
8,
441,
-935,
44,
-227,
-232,
304,
591,
-60,
-302,
531,
1121,
222,
-1159,
858,
954,
1175,
459,
641,
-236,
2837,
-1516,
-30,
237,
1683,
-151,
-421,
238,
-425,
383,
-2488,
-953,
-255,
-645,
-361,
-425,
637,
859,
-588,
778,
-1420,
165,
98,
205,
684,
-348,
-230,
189,
197,
970,
1214,
-2026,
-259,
-1652,
172,
-452,
-158,
-289,
-216,
83,
-236,
-882,
1555,
-436,
3209,
-1247,
157,
1457,
375,
329,
85,
-1430,
-714,
-9,
325,
16,
65,
864,
404,
-237,
-105,
36,
-557,
32,
-993,
-2168,
-648,
-1077,
-1345,
-126,
-137,
365,
192,
324,
85,
272,
-1025,
-1096,
1046,
149,
2693,
22,
-1449,
-1487,
-315,
-923,
2352,
-256,
-46,
-3594,
1614,
-501,
808,
812,
1094,
-178,
-1572,
885,
-147,
1039,
368,
1031,
22,
-280,
1263,
1647,
2320,
-2182,
219,
98,
1209,
111,
-1660,
-749,
-1672,
-413,
363,
-7035,
-807,
1036,
753,
508,
3235,
992,
1536,
216,
-135,
-2051,
1436,
-1780,
-326,
1494,
497,
-2284,
-62,
1442,
-307,
-1340,
660,
-367,
707,
152,
1136,
-475,
-5001,
-885,
-1552,
112,
-2155,
269,
-97,
-44,
178,
-438,
353,
-176,
-3711,
260,
907,
-4425,
-506,
-942,
-142,
-3185,
-1011,
132,
678,
88,
265,
-932,
-535,
1573,
-1365,
535,
176,
-400,
-429,
463,
647,
548,
-652,
-563,
-266,
114,
-2057,
165,
-611,
-301,
538,
-620,
2006,
1104,
459,
1109,
1118,
-863,
-502,
427,
40,
540,
-708,
-276,
1018,
-64,
-437,
186,
197,
-119,
3028,
-62,
-246,
2215,
-476,
75,
-808,
186,
-547,
847,
-3171,
-706,
-370,
-2150,
-611,
-618,
1500,
973,
18,
1328,
25,
-173,
-93,
-1223,
-379,
-726,
12,
1446,
-452,
819,
778,
-713,
400,
1046,
114,
-226,
-268,
862,
801,
-994,
-1998,
-1630,
3045,
-160,
740,
1281,
348,
-571,
-1235,
-674,
239,
2015,
-1303,
308,
953,
-3650,
-298,
312,
-2725,
-1533,
-1593,
-73,
20,
-395,
-530,
-472,
506,
-952,
-282,
-1220,
-361,
-1069,
436,
-353,
1877,
3357,
1213,
106,
-1842,
-538,
-89,
-46,
-1281,
1351,
1319,
-23,
1454,
292,
13,
-2386,
-1941,
-359,
794,
-1380,
-708,
684,
1403,
384,
691,
505,
189,
399,
-695,
34,
4837,
-175,
-1331,
-359,
-927,
-269,
920,
354,
771,
-219,
2329,
-279,
-245,
-551,
1995,
2914,
-1341,
-431,
-231,
-3082,
-3167,
523,
88,
-8,
-371,
962,
-136,
261,
-643,
1547,
-394,
-252,
-763,
-1092,
367,
302,
-271,
214,
833,
892,
174,
-1410,
-930,
72,
-360,
112,
-437,
-384,
650,
-1242,
33,
-34,
1869,
83,
630,
-495,
422,
-1133,
-1579,
-59,
-1371,
377,
367,
749,
-1917,
-440,
-266,
-1186,
665,
700,
512,
1081,
629,
559,
-283,
-1371,
-1243,
2083,
456,
214,
-1518,
-382,
-1116,
-1789,
-184,
154,
1138,
-348,
-55,
4250,
355,
382,
1754,
-750,
-710,
52,
-107,
-675,
-614,
-1115,
793,
776,
1111,
-578,
3221,
-452,
1479,
-385,
3263,
-157,
98,
562,
-585,
-216,
-4774,
-2230,
247,
-3188,
352,
1756,
-181,
829,
1381,
195,
-1564,
1233,
119,
345,
906,
-1534,
-14,
236,
570,
-1576,
-426,
-2449,
2,
714,
-593,
502,
-527,
-1345,
-192,
473,
-1061,
-1773,
-320,
456,
4393,
-2538,
-846,
1505,
1007,
1045,
952,
-3201,
1579,
252,
630,
-10,
-190,
-870,
1846,
1809,
-105,
-25,
-187,
-648,
1662,
-594,
1128,
-2105,
-1298,
-811,
125,
-1772,
133,
705,
1298,
-178,
2055,
-1035,
-166,
-985,
-1256,
-92,
-1481,
106,
-950,
-1843,
-1957,
-1294,
-720,
-196,
-2172,
-1551,
-237,
288,
-1070,
-1628,
3128,
591,
-790,
166,
1194,
325,
-253,
-636,
-898,
-1228,
-2093,
-1040,
-446,
67,
940,
-136,
2792,
219,
2278,
-2318,
262,
-2462,
238,
7904,
-2091,
-930,
37,
-1870,
1001,
-14,
-11,
-528,
509,
99,
-1207,
-504,
-1255,
867,
-1467,
2081,
-1414,
799,
984,
-72,
-225,
-555,
551,
537,
331,
1309,
-900,
173,
-1070,
-1862,
-980,
1120,
-225,
-746,
-91,
-453,
4473,
461,
697,
-131,
512,
-1561,
1519,
-49,
-947,
-247,
-287,
185,
-602,
1473,
-193,
-370,
761,
49,
267,
1654,
-96,
9,
973,
-1412,
170,
224,
-1224,
-692,
-566,
-27,
826,
-522,
-2141,
-2178,
656,
-1739,
399,
-2072,
-1280,
639,
500,
-1207,
-869,
-63,
-489,
-795,
-1772,
1026,
-76,
83,
-199,
9,
466,
651,
-1100,
4269,
724,
299,
-461,
209,
606,
355,
-3300,
-595,
-461,
1259,
167,
-1319,
864,
-856,
-1712,
805,
-2025,
777,
138,
-1394,
4394,
745,
31,
66,
1146,
-1203,
-1181,
1419,
481,
-1032,
539,
233,
1522,
-288,
426,
-670,
318,
-316,
-535,
667,
1126,
5116,
-33,
203,
224,
770,
-469,
-982,
-36,
-460,
581,
1296,
132,
1535,
196,
-386,
-3335,
-411
};

#endif