#ifndef __TRAN_CONVNORMRELU3_CONV_0_WEIGHT_H__
#define __TRAN_CONVNORMRELU3_CONV_0_WEIGHT_H__

// tran_ConvNormRelu3_conv_0_weight
// (1, 1, 392, 392)
const int tran_ConvNormRelu3_conv_0_weight[] = {
-427,
-1401,
-862,
-1251,
230,
-448,
-305,
-546,
-2354,
906,
-692,
-335,
-32,
11,
690,
393,
253,
1003,
-1800,
-1172,
462,
837,
188,
294,
488,
230,
24,
-308,
974,
-1054,
382,
-290,
-1260,
-1018,
-963,
-667,
186,
574,
-172,
-537,
-534,
62,
-1182,
552,
-257,
201,
-848,
-166,
-659,
1090,
284,
495,
-735,
663,
1528,
-456,
915,
-281,
2578,
-522,
-196,
-265,
543,
298,
-12,
-727,
-13,
-1379,
63,
-409,
-253,
-601,
-119,
144,
-272,
-1449,
88,
-513,
1813,
-1187,
-300,
-611,
-1539,
-987,
-177,
-333,
122,
424,
1575,
444,
-1232,
515,
75,
487,
508,
346,
849,
133,
-725,
907,
-22,
-251,
185,
212,
-153,
546,
100,
-776,
-4,
-807,
966,
86,
-511,
-171,
-282,
2077,
1531,
1080,
766,
-1340,
227,
-470,
-170,
547,
1172,
490,
-201,
-999,
1589,
-922,
-1186,
-1364,
-1051,
-344,
-680,
-124,
373,
-406,
-660,
-434,
-964,
-1905,
-604,
-578,
1007,
-416,
-199,
-734,
-1073,
14,
-460,
217,
537,
-100,
673,
2016,
-871,
192,
63,
419,
1122,
1146,
783,
-235,
-26,
-436,
-477,
867,
-684,
466,
-988,
-740,
-219,
-2261,
-435,
281,
-935,
-126,
-527,
-1171,
665,
1234,
-564,
674,
-508,
-8,
901,
-29,
-349,
-487,
-756,
-405,
-652,
-1116,
-539,
964,
-27,
-197,
-407,
-888,
-666,
368,
-1894,
-1,
82,
126,
-1131,
-206,
-38,
484,
286,
933,
-1375,
934,
-144,
1498,
129,
1136,
53,
405,
-309,
-1329,
193,
660,
260,
-1665,
99,
-1122,
-656,
-1516,
-1122,
-1110,
-921,
-435,
-1208,
-621,
-192,
102,
-698,
1055,
-815,
-418,
5,
-528,
-344,
-891,
70,
-468,
-811,
690,
-961,
189,
-478,
-1165,
-1052,
-545,
414,
332,
164,
380,
-557,
-407,
-682,
1512,
-126,
-299,
341,
-1434,
-44,
759,
-642,
1749,
474,
-1214,
-936,
-403,
151,
-64,
-226,
-704,
-337,
510,
-168,
-988,
-38,
-1201,
1161,
20,
-3,
319,
1311,
-215,
-876,
327,
218,
750,
729,
-711,
13,
-101,
-219,
260,
-127,
-1311,
-330,
-1164,
-98,
-454,
1199,
767,
-796,
73,
-547,
-384,
-491,
-538,
-115,
689,
-1496,
-1267,
-397,
384,
141,
340,
737,
7,
100,
-680,
20,
-649,
1427,
-420,
-316,
484,
-555,
1148,
790,
607,
1330,
-364,
-773,
-3,
-6,
-40,
-1070,
689,
-1308,
-11,
801,
-453,
-173,
-399,
-683,
599,
-659,
-1088,
-878,
1520,
-878,
-1382,
553,
-345,
-753,
665,
366,
-491,
-6,
-1572,
-812,
399,
46,
-151,
-476,
-421,
-91,
-136,
-821,
-848,
-177,
-667,
803,
-426,
1798,
333,
-1014,
-643,
-490,
702,
-204,
-1013,
-937,
-726,
870,
-638,
356,
-141,
100,
-433,
261,
870,
-1048,
423,
-72,
-443,
-264,
792,
245,
74,
-244,
635,
241,
496,
-189,
535,
257,
73,
26,
-663,
-121,
-420,
99,
103,
163,
-561,
316,
89,
152,
-748,
-338,
1202,
1530,
-718,
755,
-472,
33,
-1033,
945,
-440,
-312,
-311,
-358,
574,
-882,
430,
415,
200,
958,
185,
-115,
-509,
280,
-217,
-120,
139,
484,
-126,
-364,
345,
154,
-670,
1054,
498,
-612,
217,
112,
-121,
420,
268,
455,
291,
287,
-258,
563,
-272,
-296,
-537,
-468,
370,
-335,
-374,
-543,
133,
-156,
102,
-151,
-275,
639,
121,
426,
-102,
45,
262,
170,
352,
33,
-334,
-172,
32,
52,
-551,
-101,
45,
-1374,
141,
587,
-589,
603,
-18,
4,
216,
786,
-54,
836,
19,
79,
290,
65,
-125,
-255,
-85,
560,
753,
-10,
-634,
-75,
533,
281,
111,
216,
-196,
859,
314,
167,
352,
-9,
662,
298,
-41,
242,
-668,
-760,
-295,
684,
-61,
372,
419,
1003,
-261,
-89,
-147,
-353,
187,
-586,
-104,
-464,
532,
-521,
326,
1307,
-210,
-234,
654,
-383,
-218,
364,
436,
1495,
-431,
186,
-275,
-360,
-733,
-444,
623,
385,
-793,
-206,
-723,
-144,
-38,
-147,
370,
-389,
250,
360,
439,
113,
-22,
-65,
74,
-103,
346,
39,
64,
-49,
-362,
270,
221,
21,
-398,
-21,
266,
-76,
-235,
-160,
84,
194,
163,
-58,
-111,
478,
193,
-415,
710,
-218,
-840,
80,
-330,
1266,
294,
63,
-926,
-250,
296,
-444,
-527,
866,
259,
-430,
782,
-222,
416,
57,
-15,
-5,
304,
-349,
-379,
-533,
-283,
370,
-95,
58,
177,
171,
245,
-148,
82,
261,
-268,
565,
-449,
-270,
290,
-285,
-475,
-643,
-315,
694,
-404,
-128,
-54,
-298,
-461,
86,
-220,
83,
463,
205,
-606,
-284,
771,
-154,
219,
357,
-20,
-129,
209,
-208,
444,
509,
108,
-98,
35,
6,
-215,
-56,
-332,
-534,
324,
-84,
-52,
-109,
-1322,
-88,
-133,
464,
-350,
-90,
-569,
-351,
748,
-572,
121,
-232,
377,
-342,
392,
-103,
-235,
712,
279,
-242,
-267,
-754,
-9,
1003,
386,
867,
-171,
-221,
-94,
294,
-543,
655,
519,
-281,
136,
-236,
143,
493,
-311,
404,
-666,
966,
-120,
487,
366,
-203,
203,
175,
-304,
-14,
127,
20,
298,
501,
506,
-662,
-803,
-107,
-582,
76,
864,
226,
-611,
33,
254,
197,
248,
551,
709,
-344,
-583,
397,
165,
176,
165,
651,
-595,
20,
-100,
-125,
63,
462,
31,
458,
-65,
-429,
640,
-404,
-614,
313,
387,
1227,
790,
761,
-1450,
1245,
-571,
50,
533,
1339,
-1062,
-720,
-106,
125,
1509,
67,
302,
437,
-1064,
320,
655,
-131,
259,
-310,
-107,
-584,
-648,
643,
-62,
-638,
757,
1441,
-1207,
256,
-1286,
296,
482,
-1001,
85,
-668,
-325,
1146,
292,
-1428,
-1317,
1081,
-148,
1762,
-734,
-435,
1110,
-2332,
-2699,
221,
-677,
459,
-223,
-414,
5,
-47,
802,
944,
123,
-1046,
-150,
1220,
413,
648,
435,
-678,
-985,
-1628,
-142,
-1322,
-640,
742,
-211,
201,
-469,
-29,
-254,
-759,
587,
-446,
207,
-767,
-222,
1837,
1409,
120,
-192,
-932,
230,
403,
-888,
-645,
-451,
-157,
-215,
-309,
2,
275,
-74,
804,
-729,
-1587,
-140,
1331,
828,
-385,
1094,
550,
-12,
393,
-708,
-424,
28,
80,
1475,
2463,
-760,
402,
864,
-545,
-252,
325,
-76,
-1192,
-703,
592,
262,
30,
-602,
339,
749,
1407,
-683,
253,
-292,
119,
625,
349,
926,
-1190,
699,
-56,
387,
55,
-804,
509,
-786,
90,
330,
427,
1372,
-399,
-529,
578,
830,
721,
-150,
726,
-1067,
-594,
-222,
-593,
-976,
1524,
266,
-50,
831,
1889,
-354,
792,
1086,
-910,
-493,
-1208,
1319,
508,
-1841,
907,
656,
-1151,
1473,
-1366,
147,
1222,
410,
219,
-264,
-272,
-355,
-1096,
-427,
1061,
1033,
-4,
1136,
1429,
1874,
-405,
98,
740,
-1129,
-224,
-1639,
684,
-146,
700,
-569,
-734,
-1362,
-712,
569,
-1310,
995,
-1814,
-857,
1767,
-1346,
-797,
-1524,
310,
206,
638,
-551,
1155,
85,
-782,
-91,
899,
-991,
378,
-893,
-909,
596,
781,
752,
217,
-1689,
-442,
-554,
-235,
-927,
-130,
711,
432,
-1003,
-12,
-1307,
-728,
254,
4,
2214,
650,
-471,
53,
-188,
176,
2123,
-337,
-575,
-71,
-1419,
-129,
-947,
2236,
-910,
-955,
-354,
857,
-1229,
34,
-661,
-1320,
-377,
-1973,
958,
854,
815,
41,
-440,
-698,
922,
-184,
-193,
18,
349,
45,
284,
-640,
-536,
-66,
266,
-1233,
457,
-231,
1042,
936,
-1101,
1321,
1286,
-930,
1740,
427,
230,
-889,
-815,
-242,
208,
997,
-1112,
-1163,
-126,
852,
-106,
-1077,
-170,
-754,
1002,
-1143,
1280,
-758,
396,
-565,
-1182,
-762,
-423,
-806,
1225,
370,
553,
-481,
-87,
200,
-34,
-217,
-973,
-813,
1315,
382,
932,
446,
817,
1336,
-546,
546,
-99,
-186,
658,
-1363,
-579,
498,
-1143,
170,
125,
642,
-1125,
-666,
-311,
-119,
-378,
-327,
363,
-585,
12,
-648,
49,
-116,
-141,
-665,
157,
1586,
-469,
431,
-244,
465,
1702,
237,
-740,
-319,
1114,
251,
-1037,
-594,
-323,
-757,
-724,
585,
1069,
-618,
2078,
717,
-1281,
353,
-1358,
-484,
451,
-352,
-1170,
-677,
-330,
930,
-850,
-154,
258,
300,
45,
-59,
206,
1049,
-747,
-220,
1244,
-1311,
-312,
238,
-380,
-316,
-294,
70,
-512,
-1093,
-383,
318,
-359,
646,
238,
938,
-159,
-729,
2912,
102,
102,
937,
-806,
-1156,
-785,
60,
-753,
-890,
1497,
-387,
607,
206,
322,
46,
-1489,
609,
521,
2156,
216,
-811,
-1318,
780,
500,
1894,
-1080,
171,
-1470,
-1856,
-915,
878,
315,
-258,
-1227,
-485,
-974,
182,
669,
464,
838,
897,
44,
-478,
-251,
251,
-121,
54,
-476,
1273,
-171,
105,
-1074,
131,
-907,
787,
281,
-40,
-435,
1226,
716,
-781,
-571,
-102,
-718,
810,
1242,
705,
1270,
345,
-545,
1225,
149,
972,
-723,
671,
-871,
925,
-97,
-281,
-1787,
881,
14,
-51,
-269,
-1061,
-669,
-271,
-694,
411,
308,
-470,
108,
-558,
201,
1378,
216,
1103,
-1202,
1159,
-879,
-372,
-437,
-857,
-656,
574,
-327,
-18,
1195,
258,
-1284,
1171,
-382,
5,
606,
-1034,
-1026,
602,
2184,
-872,
1735,
1154,
-148,
-135,
-73,
-1079,
-318,
-304,
-225,
-1058,
836,
-774,
-1011,
-466,
-48,
133,
-934,
668,
-1301,
-781,
1502,
-543,
-331,
-289,
641,
-590,
594,
410,
-575,
1200,
84,
-62,
-725,
688,
-525,
-1088,
-217,
-343,
-126,
593,
790,
437,
-339,
-265,
57,
509,
-420,
209,
-460,
548,
-225,
655,
-216,
-456,
1187,
-84,
-137,
-1208,
-348,
-222,
-144,
-712,
-1564,
460,
-551,
821,
-1601,
-1298,
279,
-955,
-1333,
-162,
-117,
-431,
-1819,
-578,
-777,
-1283,
-698,
-348,
784,
215,
1788,
-325,
-1062,
-350,
-303,
1904,
-1683,
-243,
-781,
88,
-770,
917,
309,
-757,
-1598,
-904,
-443,
1313,
-1364,
1024,
86,
42,
82,
1455,
1057,
-2001,
28,
-437,
-531,
-1063,
764,
-639,
-965,
164,
82,
413,
1359,
-1107,
-1028,
-48,
-882,
435,
-1211,
64,
-2144,
-771,
-775,
1469,
21,
605,
539,
721,
1003,
-855,
-537,
1160,
660,
978,
-333,
-1245,
-729,
-598,
999,
-90,
-742,
338,
1090,
-362,
-124,
82,
2195,
-358,
-433,
10,
240,
989,
-1584,
-451,
-951,
374,
2041,
1718,
-1194,
-252,
-126,
-302,
860,
-699,
-815,
315,
-737,
-1296,
91,
789,
-298,
185,
205,
-471,
-155,
194,
102,
2084,
1482,
-351,
1008,
-1282,
311,
563,
258,
-596,
536,
1265,
-199,
39,
-547,
-98,
-517,
681,
-339,
-742,
-151,
-564,
-4,
-724,
1047,
1640,
-1299,
-1047,
-80,
-815,
3,
63,
-772,
76,
-457,
-235,
527,
-15,
3466,
31,
311,
768,
86,
768,
-253,
-837,
-659,
-134,
505,
-672,
-205,
-1043,
1377,
1056,
2072,
73,
339,
-540,
-76,
1475,
-312,
1103,
142,
-541,
613,
-798,
-1207,
-427,
-562,
-1649,
249,
-1174,
-434,
-623,
371,
969,
-1161,
281,
-646,
-564,
-900,
769,
783,
-157,
1833,
137,
119,
-810,
261,
-125,
-147,
775,
-388,
-304,
1792,
2817,
-901,
-729,
-1180,
-561,
26,
979,
-169,
-102,
-441,
-950,
-39,
466,
-98,
-1931,
-1112,
850,
973,
-549,
276,
-679,
-439,
-105,
-397,
-58,
-1556,
-180,
-962,
-401,
-1033,
-329,
-570,
227,
-500,
-1159,
-1071,
273,
-507,
-850,
986,
-1726,
777,
1947,
-1309,
-2584,
807,
-871,
413,
662,
-730,
347,
762,
514,
-448,
-264,
-897,
1013,
396,
-496,
-1062,
2054,
-313,
-196,
-1457,
-304,
-1699,
-489,
965,
47,
-910,
-283,
1137,
-1373,
-660,
982,
-26,
-565,
514,
885,
-988,
1887,
-1183,
306,
491,
1214,
-1617,
858,
1426,
1194,
-327,
-732,
399,
-873,
1453,
-911,
1020,
-194,
-1485,
-1616,
1176,
-1494,
5,
-102,
-530,
-1522,
659,
-943,
-130,
-851,
864,
493,
-551,
91,
-8,
78,
365,
402,
-1454,
-183,
716,
671,
-1913,
3,
-1285,
308,
-437,
222,
1167,
-686,
2141,
-749,
758,
-648,
241,
214,
620,
-305,
-245,
53,
-158,
915,
-761,
-864,
-522,
1196,
710,
-439,
-1644,
-679,
-387,
286,
894,
106,
87,
-1488,
-1198,
1903,
-126,
-1375,
513,
980,
-500,
317,
204,
617,
-253,
37,
502,
613,
-1368,
7,
70,
1127,
1391,
-656,
732,
51,
-1257,
-828,
1777,
-992,
-897,
85,
-807,
963,
-692,
683,
828,
-163,
344,
-498,
226,
1779,
251,
-319,
-303,
411,
-320,
302,
-3520,
-306,
-117,
1619,
2621,
-173,
1054,
-606,
-573,
-650,
990,
-3407,
-2732,
-85,
-572,
-203,
65,
-2595,
-257,
681,
138,
-1463,
1222,
-2579,
-167,
510,
-481,
-319,
979,
1454,
-148,
-305,
-897,
-1150,
-288,
-856,
-532,
-1058,
267,
-392,
-306,
-327,
309,
404,
-1858,
679,
-167,
524,
295,
-231,
995,
-1416,
-1352,
291,
767,
175,
-976,
307,
2163,
328,
-792,
479,
-1184,
1987,
504,
405,
3580,
-210,
1397,
260,
277,
-309,
456,
1071,
391,
-1070,
-41,
-155,
-2936,
134,
657,
-1401,
536,
-605,
489,
-1584,
-832,
-58,
175,
-484,
950,
-346,
300,
737,
-663,
-1694,
1129,
-428,
-801,
-163,
590,
-948,
-1011,
786,
-234,
29,
-500,
-29,
1038,
1625,
-483,
558,
-445,
-1013,
738,
514,
-36,
-983,
1058,
-999,
-225,
618,
1114,
1511,
131,
394,
319,
-219,
1034,
417,
1060,
-896,
237,
-123,
-992,
-801,
571,
-150,
-425,
-902,
-1368,
323,
852,
603,
367,
-725,
-164,
1104,
-420,
528,
946,
-624,
-676,
-668,
-517,
-762,
435,
1246,
1365,
-525,
-102,
535,
-1448,
292,
498,
986,
247,
1359,
739,
408,
963,
-1150,
-1391,
-86,
309,
522,
229,
221,
1169,
398,
158,
504,
-897,
684,
501,
-221,
353,
-1059,
1601,
-734,
298,
-566,
-507,
-1470,
189,
-986,
-280,
649,
-268,
10,
-81,
207,
-1344,
573,
557,
-1025,
890,
-1093,
160,
416,
-615,
-671,
703,
1384,
609,
229,
578,
-36,
34,
-1532,
126,
-232,
-447,
984,
752,
-36,
1211,
-771,
-736,
-58,
-781,
-1923,
-2164,
491,
919,
279,
359,
926,
89,
1648,
-1550,
-204,
213,
-373,
-171,
-130,
-75,
22,
-101,
-768,
-582,
1560,
672,
1709,
-1255,
-566,
1062,
-426,
470,
-723,
583,
168,
438,
-205,
-1803,
791,
-1264,
281,
-705,
-502,
-383,
1166,
-490,
307,
-253,
259,
-636,
316,
538,
51,
73,
-194,
-875,
-1151,
-638,
-665,
-1466,
307,
-1018,
-944,
-1267,
1722,
-232,
-991,
-86,
1611,
-994,
-394,
677,
-673,
-203,
-294,
484,
523,
462,
96,
1142,
1279,
-1040,
-229,
-169,
-105,
-374,
220,
448,
447,
624,
-137,
1178,
-368,
-314,
-158,
86,
157,
1074,
41,
177,
449,
2767,
1378,
-440,
1513,
-1413,
-300,
905,
-608,
1262,
162,
108,
-604,
656,
1414,
-893,
367,
-927,
91,
1196,
-1252,
464,
-1444,
-395,
893,
-155,
-1495,
-123,
343,
-895,
-495,
-16,
-1185,
53,
477,
163,
-389,
-902,
-1486,
589,
199,
557,
-1057,
-142,
-1031,
897,
705,
1114,
-518,
74,
-215,
-566,
-1143,
-329,
955,
-1082,
-1322,
545,
-224,
387,
-32,
-355,
-209,
391,
495,
402,
-456,
-105,
-103,
-560,
-931,
164,
785,
871,
2317,
-812,
-1011,
-1125,
-252,
-241,
388,
-983,
290,
-837,
-267,
-854,
793,
-825,
-153,
404,
-902,
-546,
-608,
-1587,
-1243,
358,
361,
672,
-129,
2977,
-777,
-479,
279,
-1122,
-360,
134,
-583,
-376,
1324,
-1138,
225,
-898,
-816,
-1121,
261,
-218,
-886,
75,
-1037,
689,
1148,
9,
639,
540,
-414,
-60,
710,
2002,
-1162,
252,
1187,
-171,
1026,
557,
30,
-425,
-869,
-900,
-475,
-351,
721,
174,
400,
730,
-1247,
318,
1133,
-154,
999,
2088,
-1108,
-797,
-602,
136,
-795,
-132,
645,
-980,
259,
-185,
451,
-646,
-217,
912,
226,
-218,
-488,
1094,
-461,
101,
197,
187,
973,
261,
152,
330,
-192,
419,
-928,
-94,
1404,
568,
-450,
-382,
63,
-95,
453,
589,
771,
21,
477,
233,
581,
-202,
143,
801,
-463,
-564,
-16,
507,
-772,
-787,
-1219,
-702,
-588,
2028,
-326,
55,
-667,
-796,
-24,
63,
-182,
-202,
-734,
-815,
-547,
-584,
-745,
585,
1554,
64,
274,
663,
-255,
-279,
867,
631,
-1983,
-412,
217,
-1017,
-583,
929,
511,
200,
-566,
186,
622,
77,
-647,
-1349,
25,
-932,
-687,
-59,
525,
-1636,
-19,
-1102,
-342,
-666,
-959,
176,
-488,
-37,
-148,
1474,
-1889,
-887,
-888,
959,
-1264,
326,
-816,
-566,
26,
-498,
-964,
615,
-677,
-861,
1673,
-1101,
480,
552,
-362,
514,
-500,
-93,
273,
1918,
219,
2406,
449,
721,
522,
301,
75,
103,
-1074,
446,
935,
-1292,
-520,
416,
-859,
-342,
-286,
472,
688,
390,
405,
-1069,
347,
865,
-778,
223,
-895,
-1092,
468,
-318,
-753,
75,
-358,
79,
-1075,
-703,
-15,
45,
296,
328,
-1142,
243,
-417,
210,
-296,
674,
648,
-709,
591,
-403,
-475,
-301,
-572,
235,
-343,
-54,
-1093,
-627,
110,
549,
-1112,
-634,
-387,
-665,
-817,
337,
-733,
-377,
1050,
-1676,
-755,
-255,
663,
22,
-163,
361,
603,
-485,
234,
362,
336,
320,
1058,
-351,
-402,
-36,
-62,
-63,
1404,
-1113,
579,
635,
-31,
707,
-1014,
979,
-609,
382,
1783,
-965,
83,
-80,
-612,
-17,
894,
-47,
-1010,
-516,
207,
636,
1189,
-1024,
465,
-974,
-311,
-1334,
835,
-853,
815,
-124,
-260,
-1374,
420,
-60,
-264,
-756,
516,
1264,
-452,
-432,
908,
-1057,
1143,
55,
-394,
137,
-838,
-308,
-799,
-35,
751,
-129,
201,
926,
8,
-27,
-1987,
-774,
-460,
-767,
-1059,
-56,
691,
2175,
154,
-366,
844,
-598,
-439,
-1341,
2671,
-1032,
-807,
-668,
-1106,
148,
-469,
-1025,
634,
421,
-88,
-1980,
-723,
152,
-429,
-1549,
125,
-967,
-557,
-506,
71,
-1090,
-423,
-116,
35,
-600,
-376,
1391,
-48,
363,
492,
-216,
1140,
39,
1294,
-912,
-515,
-495,
302,
-525,
-1050,
748,
1560,
1334,
-1848,
207,
-1381,
-65,
-1472,
689,
102,
-1211,
-398,
-85,
128,
-1177,
342,
78,
1339,
-365,
-454,
2859,
679,
-138,
670,
-1169,
114,
-97,
-118,
-481,
-539,
67,
-383,
391,
1098,
420,
888,
28,
-861,
-283,
-471,
1543,
-110,
-412,
1266,
1302,
-231,
319,
317,
-821,
996,
-1751,
-72,
-212,
218,
-770,
-511,
-59,
413,
-702,
153,
-885,
307,
-168,
100,
1056,
1201,
-638,
-417,
-115,
-485,
-607,
-167,
129,
-232,
-1113,
165,
-576,
606,
-647,
-231,
598,
-843,
495,
1614,
972,
-698,
-185,
714,
1209,
-702,
-435,
560,
-149,
108,
748,
451,
300,
-179,
-806,
1668,
-1514,
-111,
580,
190,
-1135,
710,
-151,
-110,
-854,
-2,
493,
1383,
560,
1737,
408,
-102,
1095,
121,
-327,
1115,
-73,
-231,
-257,
269,
759,
387,
-346,
-120,
-1809,
-1032,
482,
512,
484,
52,
919,
-537,
1915,
-156,
-153,
275,
-933,
7,
-603,
246,
-201,
85,
-1266,
918,
-376,
-697,
-41,
-805,
-171,
1383,
1058,
1387,
892,
-511,
532,
-329,
-341,
-1145,
-669,
-1003,
-365,
-848,
-408,
-704,
1860,
-253,
-726,
-516,
379,
1610,
652,
-1288,
162,
649,
31,
-162,
530,
1792,
150,
-111,
-1102,
475,
-570,
85,
98,
-864,
1418,
-783,
136,
2,
39,
-538,
114,
-292,
481,
245,
-310,
471,
739,
-673,
-482,
495,
-365,
982,
-198,
-342,
-1440,
1192,
1009,
-99,
838,
314,
605,
-268,
-737,
-598,
-43,
-1253,
-785,
-272,
-500,
-849,
1200,
-181,
244,
-359,
-1591,
649,
1345,
-399,
1294,
1299,
1176,
678,
816,
-223,
2190,
511,
-1197,
-668,
811,
148,
-1065,
-595,
170,
-52,
441,
-1005,
909,
-1301,
-295,
681,
-414,
306,
1478,
-459,
-222,
1174,
-222,
-1404,
645,
1272,
-412,
644,
-661,
1452,
-438,
-153,
242,
-1338,
-144,
-1202,
-834,
1261,
-507,
-1622,
-1002,
556,
-647,
-166,
451,
421,
1771,
-1097,
479,
266,
-317,
-1417,
1525,
-824,
-400,
453,
63,
502,
547,
593,
-1625,
695,
-25,
213,
-1798,
2170,
644,
-479,
621,
36,
447,
-448,
-165,
-310,
824,
-84,
1114,
-997,
-182,
-221,
681,
-438,
973,
-521,
51,
-231,
818,
-1522,
-799,
-156,
-485,
-426,
-122,
1056,
1400,
-233,
-702,
-1185,
-5,
1743,
408,
122,
-535,
-1271,
401,
-630,
-259,
-305,
437,
515,
215,
-483,
-142,
-1021,
-923,
453,
-1077,
270,
-549,
-44,
905,
355,
-1075,
-629,
-1602,
-328,
-559,
-901,
-564,
826,
283,
41,
-141,
-454,
455,
2035,
1024,
-720,
158,
-29,
547,
-413,
306,
368,
279,
561,
271,
748,
-43,
-1751,
1599,
-726,
-226,
-526,
-768,
300,
1626,
1873,
-524,
-559,
-1343,
-1211,
-124,
61,
1202,
-559,
-467,
-681,
102,
-688,
862,
-397,
-734,
1769,
1946,
-641,
-872,
-693,
209,
52,
-983,
674,
108,
-412,
-190,
-874,
-423,
-911,
246,
-22,
7,
-226,
1307,
-355,
457,
376,
327,
-376,
1160,
-216,
-307,
-86,
-1094,
-431,
-224,
-1462,
-15,
208,
-130,
-696,
621,
618,
-944,
1305,
-304,
569,
218,
-1521,
123,
-469,
-351,
368,
234,
-169,
-983,
-1619,
-1223,
1246,
-286,
-758,
-75,
676,
-546,
684,
1077,
411,
41,
-1932,
-809,
-791,
328,
-476,
546,
1283,
87,
-722,
-327,
-224,
-162,
-490,
724,
1506,
298,
-415,
14,
-117,
-368,
298,
1064,
-446,
-1096,
368,
-924,
-6,
-183,
-568,
-273,
-1844,
-1084,
489,
442,
-507,
-209,
-220,
153,
-1502,
-1854,
-92,
1038,
1389,
-810,
0,
-731,
335,
-154,
-140,
-392,
-245,
-331,
299,
242,
153,
-544,
-423,
1101,
360,
554,
238,
1108,
365,
-601,
-10,
-18,
868,
-607,
-492,
957,
-733,
1871,
27,
-446,
881,
249,
-1075,
-270,
245,
1175,
-468,
2121,
-241,
-1035,
834,
156,
-1172,
698,
239,
312,
1276,
-403,
-408,
259,
1411,
196,
-52,
-921,
301,
155,
-494,
28,
-860,
1418,
73,
192,
2051,
-1474,
-353,
379,
-413,
1138,
-374,
-728,
566,
307,
494,
-2078,
374,
303,
-697,
-485,
-152,
-602,
-364,
-19,
131,
-233,
-538,
-232,
204,
55,
406,
1751,
783,
-196,
-525,
333,
178,
192,
-544,
1090,
1648,
497,
930,
-475,
-675,
-15,
-438,
-256,
-160,
-1108,
-1473,
798,
-509,
-742,
-671,
190,
1214,
954,
-14,
1217,
-968,
1127,
-767,
455,
-472,
-596,
-650,
-142,
-146,
-1506,
307,
912,
-79,
-441,
1605,
-19,
156,
2048,
616,
211,
-201,
-326,
274,
-988,
-667,
43,
-994,
-301,
-534,
47,
801,
470,
-829,
-128,
133,
-270,
-126,
158,
132,
1065,
776,
-259,
-88,
-530,
-572,
1062,
623,
-222,
-431,
576,
630,
212,
-337,
1124,
-350,
-1129,
-1906,
-896,
959,
-1039,
114,
-108,
-720,
-634,
-563,
-566,
-1032,
-1417,
13,
1587,
1113,
62,
151,
132,
423,
754,
274,
39,
-848,
777,
458,
-835,
-662,
-460,
-153,
379,
192,
-512,
-65,
151,
2332,
331,
357,
185,
-63,
1094,
98,
288,
-1328,
796,
-236,
-1032,
-764,
691,
6,
260,
-750,
-382,
-507,
115,
386,
1034,
-1045,
-421,
435,
-1496,
1464,
-819,
-1069,
-580,
-71,
-194,
-1037,
-98,
-109,
1624,
206,
174,
684,
111,
9,
-722,
-8,
461,
-135,
1260,
-117,
748,
277,
1874,
752,
195,
342,
-208,
448,
1070,
824,
-935,
1637,
411,
-26,
-1407,
217,
729,
358,
63,
3,
76,
-469,
-112,
-1054,
888,
-917,
-901,
-1410,
-1165,
851,
-478,
331,
-187,
-478,
-632,
1101,
586,
-251,
8,
455,
-432,
273,
1725,
-1777,
-771,
215,
-926,
-244,
-656,
32,
1657,
-987,
-956,
197,
-618,
-472,
1554,
-900,
-502,
-290,
68,
-9,
554,
-296,
1305,
-325,
-562,
268,
421,
920,
-697,
1050,
-782,
-886,
-319,
742,
-1555,
-1606,
367,
269,
621,
-2023,
-704,
-377,
735,
-1261,
959,
-1550,
156,
7,
-570,
269,
-1527,
-354,
-420,
825,
-339,
-336,
-630,
-705,
-364,
305,
-132,
-70,
395,
-89,
1051,
506,
682,
1086,
1623,
-622,
460,
-45,
-96,
1392,
-103,
635,
-99,
13,
860,
392,
1552,
1271,
49,
607,
1398,
-1113,
690,
97,
1571,
-43,
1896,
678,
-792,
491,
-150,
-1012,
-34,
-455,
-1590,
-32,
-527,
-128,
-363,
673,
1635,
89,
8,
1077,
1361,
-354,
-2110,
-1413,
850,
681,
-672,
395,
-956,
-1073,
-150,
-364,
-506,
-886,
-1178,
-789,
-132,
233,
1959,
28,
-791,
452,
1163,
-850,
-864,
108,
-728,
452,
-1147,
183,
-983,
177,
859,
-605,
250,
-261,
-703,
-253,
1553,
-1982,
810,
129,
-464,
991,
-295,
639,
279,
-412,
304,
43,
-1050,
1102,
-592,
-411,
-1206,
823,
-776,
83,
-793,
-335,
873,
-174,
-113,
767,
-332,
138,
317,
-60,
182,
-1032,
-772,
412,
-134,
-793,
-1311,
771,
-22,
-1551,
174,
1001,
-400,
-257,
478,
1041,
-133,
-1962,
267,
-1154,
-412,
-182,
40,
122,
-53,
-1687,
1163,
-529,
-660,
-925,
-1409,
821,
835,
661,
996,
-91,
1146,
-596,
-927,
279,
251,
2,
-1125,
-953,
-47,
-537,
-255,
-1423,
-1254,
-977,
-1060,
-1035,
1274,
742,
-1109,
-512,
350,
-1679,
908,
193,
-358,
-466,
-470,
721,
315,
648,
3374,
337,
578,
278,
-804,
-565,
255,
-349,
145,
181,
557,
559,
-231,
-674,
-1009,
-5,
1797,
863,
74,
500,
1100,
460,
163,
10,
-451,
810,
-1958,
1147,
-577,
45,
2385,
-430,
-1762,
241,
421,
1203,
-145,
-1242,
-133,
431,
-984,
565,
893,
133,
-355,
803,
1026,
537,
-256,
1631,
857,
227,
-482,
820,
1285,
-488,
1070,
-24,
-415,
146,
-1277,
-1313,
-398,
439,
1178,
-83,
-966,
-969,
-557,
363,
445,
-444,
1517,
323,
-869,
-266,
523,
39,
58,
-164,
405,
-501,
838,
527,
967,
1215,
2461,
276,
117,
92,
381,
-219,
989,
-42,
-679,
577,
-1221,
-437,
586,
-439,
207,
923,
1690,
-175,
-283,
-213,
388,
790,
-993,
303,
162,
-227,
234,
-342,
689,
356,
-816,
-1135,
187,
-114,
396,
-640,
-18,
-298,
-430,
103,
-134,
180,
-168,
168,
-21,
1217,
529,
-146,
-403,
225,
-107,
1121,
830,
435,
127,
272,
1408,
-520,
-925,
-1082,
31,
-62,
-316,
-1008,
-973,
791,
-249,
-1432,
284,
-281,
-438,
-893,
-351,
438,
1862,
-543,
191,
608,
224,
-263,
514,
56,
-782,
755,
43,
-203,
-455,
-610,
-398,
18,
-286,
-464,
1367,
-1124,
1324,
788,
-435,
-253,
2099,
415,
-1097,
-267,
659,
-1005,
2032,
858,
55,
-623,
-431,
-1249,
328,
-192,
187,
1304,
-989,
723,
333,
17,
-1578,
235,
396,
1012,
-784,
-289,
-916,
-447,
845,
758,
811,
-1106,
-173,
-118,
-687,
-515,
1553,
-24,
1921,
-139,
574,
-553,
149,
-239,
-365,
-234,
572,
-447,
-451,
609,
-697,
571,
-273,
1901,
732,
-2008,
719,
-1370,
1173,
-329,
-471,
2574,
-391,
-375,
-2322,
786,
-435,
-363,
-762,
129,
-624,
-534,
-1609,
1544,
-1264,
451,
-128,
309,
200,
-1236,
-783,
1132,
66,
449,
1137,
140,
-241,
217,
189,
-164,
-149,
1434,
-1128,
279,
831,
1048,
528,
1134,
389,
2538,
83,
-831,
-495,
-987,
-10,
-678,
980,
1577,
-600,
-265,
-1831,
272,
-21,
-555,
-1184,
-244,
1574,
-585,
-553,
754,
-881,
932,
-214,
-1604,
1743,
-889,
111,
-631,
774,
2418,
-201,
-495,
1336,
-190,
-596,
-425,
693,
849,
471,
-541,
-863,
-1712,
611,
751,
1653,
-369,
-299,
-249,
969,
-723,
-1482,
1065,
-513,
-213,
384,
278,
-971,
397,
-602,
-64,
597,
-52,
-610,
-1147,
795,
-794,
1195,
-1351,
-444,
1564,
1405,
1163,
-728,
928,
118,
328,
417,
-511,
-637,
-51,
-1448,
792,
220,
-414,
608,
-1199,
-322,
-715,
-534,
-124,
-894,
-304,
68,
700,
593,
-526,
1465,
-804,
-600,
-400,
572,
569,
-671,
-462,
1446,
1867,
240,
500,
-713,
285,
49,
172,
-72,
-83,
375,
1246,
-157,
-1598,
221,
-1714,
-39,
1931,
-67,
-214,
130,
-468,
41,
-496,
-708,
-354,
-1263,
160,
-643,
-1000,
-126,
-799,
1600,
-271,
-353,
-168,
435,
-698,
-1618,
-120,
-123,
-312,
-965,
-628,
-441,
204,
432,
-668,
132,
-642,
-629,
58,
0,
156,
424,
1165,
-316,
875,
-1215,
2052,
-572,
-243,
659,
-988,
1365,
-1171,
25,
685,
-1259,
168,
-461,
872,
-927,
-1088,
-594,
115,
-448,
316,
-763,
-587,
-329,
-728,
1005,
293,
304,
-194,
9,
-105,
2133,
477,
-958,
-30,
-877,
-334,
-1056,
-201,
-272,
383,
97,
-749,
-346,
-1141,
-1417,
355,
310,
-258,
-1216,
703,
-36,
-864,
1177,
429,
-733,
-602,
54,
-197,
479,
246,
567,
223,
-1018,
1826,
-1416,
-254,
-442,
-377,
1121,
-364,
-679,
-1174,
-1283,
105,
-968,
-177,
-960,
-121,
1068,
-804,
308,
724,
1295,
196,
-589,
815,
-141,
-846,
-372,
722,
-302,
-292,
-1511,
-796,
-1758,
296,
-552,
-764,
199,
-99,
1866,
-1428,
222,
-261,
1177,
-1277,
-419,
309,
-751,
519,
278,
311,
192,
-417,
-1143,
321,
106,
-1191,
253,
-363,
722,
-1388,
-150,
-241,
-1295,
-806,
489,
-1254,
374,
181,
-492,
-490,
-736,
738,
-184,
1800,
-1345,
486,
-743,
68,
744,
300,
-289,
861,
-364,
-189,
1352,
953,
445,
-549,
-33,
418,
-1916,
13,
500,
-2,
-612,
23,
1703,
-45,
-558,
-72,
-413,
-292,
706,
1079,
-895,
-561,
-866,
822,
729,
-807,
-155,
-273,
758,
1474,
-4,
800,
898,
1133,
562,
208,
-1269,
-493,
-90,
-896,
-204,
389,
-927,
403,
732,
-899,
-41,
1991,
-1863,
495,
-1265,
785,
117,
-422,
-1402,
-649,
-754,
-2123,
510,
-363,
-1389,
-763,
-85,
725,
-580,
187,
-1055,
-611,
1002,
-454,
-475,
115,
935,
488,
-74,
-188,
-2057,
139,
-355,
1256,
2174,
-611,
-273,
820,
3133,
1691,
-1534,
688,
-1184,
-43,
-500,
-497,
573,
-293,
-449,
-464,
-191,
552,
-147,
-202,
-157,
-974,
1008,
-359,
935,
-233,
-102,
-633,
646,
-992,
-1816,
-902,
1602,
477,
-229,
873,
-2113,
272,
673,
101,
-870,
-1946,
175,
-910,
476,
209,
440,
806,
-328,
-342,
1068,
-1984,
813,
-491,
1200,
-154,
-156,
-1124,
-1324,
44,
-206,
-621,
-1071,
1130,
-318,
1566,
157,
-774,
-881,
-316,
-699,
1109,
499,
123,
119,
-1745,
1240,
-193,
-422,
768,
-861,
-655,
572,
-744,
-1119,
1310,
114,
-391,
-244,
161,
311,
471,
-239,
765,
-1036,
-86,
91,
-1104,
142,
-1565,
-4077,
907,
875,
1494,
-1111,
829,
-529,
433,
-356,
314,
142,
-413,
-383,
445,
-942,
-536,
-1557,
70,
-355,
-1114,
2087,
-1229,
-2303,
-585,
-529,
2480,
-781,
336,
1481,
500,
-663,
448,
1149,
1225,
-375,
-1233,
1998,
-151,
67,
643,
-1087,
714,
3278,
-409,
16,
-259,
-560,
-929,
-1077,
-817,
-1284,
275,
-1763,
-397,
492,
3,
-327,
-2002,
2771,
-538,
-109,
-177,
-282,
-403,
-1387,
323,
-548,
-593,
323,
1865,
-235,
-602,
24,
-196,
992,
-794,
-1231,
373,
-1840,
1276,
303,
1130,
540,
-701,
43,
-413,
1519,
-939,
-1652,
1197,
-88,
445,
-537,
-2624,
-568,
862,
-434,
1586,
-643,
-770,
-1318,
-465,
-212,
-452,
-28,
336,
-719,
99,
241,
-1098,
983,
-38,
-32,
-389,
441,
305,
586,
-1881,
464,
610,
-3,
773,
-1688,
-2163,
2076,
34,
1124,
735,
-739,
-337,
-949,
-1697,
109,
125,
-275,
27,
1333,
-199,
-1862,
-81,
82,
-840,
33,
-25,
1512,
-1073,
1302,
-919,
1259,
1255,
67,
331,
381,
222,
-488,
635,
57,
-1489,
-1433,
-408,
-1146,
-183,
-1905,
-720,
196,
-369,
-74,
-125,
603,
-908,
498,
418,
2056,
-504,
607,
-768,
857,
-1730,
-1331,
95,
-1357,
-735,
-130,
449,
1023,
330,
-467,
-1732,
-780,
-353,
1090,
-361,
248,
-354,
-377,
512,
387,
-773,
-1019,
-658,
-198,
263,
-1951,
636,
56,
-565,
-293,
-2677,
320,
1131,
520,
897,
-183,
-567,
-639,
198,
-420,
-1232,
45,
400,
-998,
-275,
-93,
307,
-1092,
-886,
-79,
-931,
-1476,
-479,
668,
540,
297,
-755,
153,
133,
2558,
783,
-479,
-1187,
-2548,
-350,
-1414,
-508,
-642,
-500,
-424,
-391,
-1128,
-529,
-166,
-141,
-79,
-511,
600,
-296,
522,
511,
-630,
-475,
221,
528,
472,
-767,
567,
79,
683,
-357,
-729,
608,
-801,
301,
568,
-106,
583,
517,
-137,
1535,
605,
1038,
-393,
-257,
1102,
-1052,
-1066,
-181,
-489,
194,
-105,
146,
-248,
-141,
593,
-373,
216,
-2051,
286,
-254,
-78,
31,
312,
449,
-339,
338,
159,
818,
1249,
-543,
421,
-644,
-471,
91,
-454,
-134,
182,
-661,
-163,
-31,
-26,
1512,
-527,
299,
-280,
-707,
-160,
-688,
1835,
467,
944,
-458,
-839,
230,
-603,
-249,
-310,
61,
-157,
865,
152,
492,
-604,
6,
-523,
-643,
380,
604,
-827,
289,
96,
-1442,
-918,
430,
-689,
505,
272,
473,
987,
-1243,
19,
253,
81,
-72,
-246,
488,
-196,
5,
-120,
476,
872,
635,
-511,
-512,
-880,
1082,
-540,
-414,
58,
562,
-9,
496,
-80,
291,
-225,
510,
-1551,
473,
-96,
320,
-494,
-290,
-546,
-517,
648,
-131,
-180,
295,
-1118,
-752,
-166,
-217,
1590,
491,
-26,
-354,
-107,
218,
23,
-1028,
337,
603,
-135,
-907,
712,
-549,
-991,
120,
48,
-411,
1356,
-2086,
-207,
-1368,
-473,
-134,
301,
-1476,
835,
8,
546,
651,
-1037,
612,
601,
-226,
-1584,
0,
234,
297,
-1379,
175,
193,
-443,
192,
-540,
-25,
155,
-330,
690,
-198,
781,
-920,
-1375,
-281,
-976,
302,
-535,
-1033,
665,
902,
-592,
778,
-128,
-542,
262,
231,
867,
106,
-312,
-696,
577,
1132,
-2944,
-606,
-266,
329,
-1343,
310,
729,
-94,
-390,
-496,
1400,
-619,
32,
-554,
-650,
-255,
1448,
-361,
349,
-567,
-334,
-862,
-846,
-720,
-358,
1537,
-764,
-561,
-596,
-136,
71,
1459,
305,
-202,
970,
-720,
-219,
-668,
-359,
1836,
-1744,
-401,
83,
-311,
274,
-304,
805,
-1746,
-474,
524,
439,
35,
1689,
-1158,
88,
104,
-772,
792,
-157,
125,
67,
-397,
57,
295,
-652,
-743,
-138,
-99,
389,
-1092,
52,
1055,
142,
-1547,
31,
-297,
986,
-852,
95,
-281,
-1001,
-964,
1032,
95,
-10,
573,
-981,
-330,
-942,
1147,
682,
-623,
1665,
-947,
-135,
-1155,
-33,
581,
-391,
-351,
462,
-618,
1045,
-22,
-739,
-856,
-366,
618,
215,
-128,
636,
324,
38,
-421,
-338,
-692,
884,
-250,
-553,
-699,
259,
-665,
-1012,
274,
83,
-510,
-282,
169,
343,
1162,
-383,
163,
-468,
-208,
771,
180,
-44,
573,
1393,
190,
131,
-954,
-92,
68,
126,
-826,
-246,
-1079,
271,
1214,
361,
657,
-750,
-73,
28,
678,
1332,
-1008,
989,
474,
38,
-135,
2348,
-266,
-469,
97,
-754,
-330,
-90,
97,
-109,
360,
116,
1444,
1327,
-874,
400,
801,
124,
-243,
686,
356,
-525,
-474,
76,
-27,
202,
347,
-278,
236,
-684,
-1752,
-129,
880,
722,
-1392,
-24,
240,
-877,
-904,
866,
462,
114,
-50,
-228,
676,
542,
-834,
247,
336,
-52,
491,
411,
-216,
-891,
-712,
650,
1109,
-860,
141,
-70,
243,
412,
-20,
88,
1572,
184,
-191,
1163,
455,
-1481,
555,
-218,
-153,
53,
-190,
-203,
-594,
811,
-101,
-450,
-7,
2584,
-571,
964,
346,
498,
536,
1299,
864,
-1199,
-81,
961,
314,
-262,
-1179,
593,
-721,
-811,
-396,
-1716,
-1333,
-707,
-1172,
-117,
631,
1390,
415,
481,
2,
329,
-998,
-313,
-595,
-338,
-1280,
-1813,
-262,
-468,
972,
1907,
-1222,
769,
-723,
440,
370,
270,
-1175,
-242,
-897,
269,
-254,
-1276,
781,
-351,
246,
-293,
-1062,
940,
-864,
365,
627,
-555,
675,
110,
1150,
228,
-36,
335,
-790,
-682,
-134,
914,
408,
306,
673,
597,
715,
-488,
-972,
1024,
1676,
294,
13,
329,
-210,
-733,
596,
-1326,
-214,
-467,
-175,
-298,
-114,
1296,
-248,
603,
-136,
-82,
235,
-162,
-903,
-541,
1069,
-114,
-675,
904,
178,
446,
-950,
409,
1357,
-1163,
-544,
-116,
1381,
1229,
-20,
334,
-1144,
231,
264,
1191,
-1596,
-507,
-422,
162,
572,
-833,
-871,
1550,
-1637,
981,
-10,
935,
-19,
-160,
624,
-69,
746,
934,
-473,
-40,
735,
-804,
-315,
1757,
-298,
660,
-340,
105,
1879,
646,
39,
1021,
-269,
-511,
-775,
-459,
610,
-872,
457,
112,
-368,
845,
718,
525,
816,
-679,
16,
1050,
3074,
-400,
114,
1441,
389,
-14,
1111,
-375,
-494,
487,
991,
702,
476,
398,
-1346,
-1288,
195,
-194,
722,
-391,
-1,
-840,
-359,
1758,
1627,
-812,
1094,
-628,
-1254,
-360,
926,
51,
823,
1406,
668,
544,
-316,
161,
-873,
688,
303,
352,
-667,
-123,
-696,
480,
-1766,
-1249,
-794,
-778,
238,
169,
-1752,
-365,
435,
999,
227,
-504,
-202,
188,
710,
-194,
-531,
597,
1242,
149,
44,
101,
-686,
985,
187,
589,
77,
-1719,
474,
-595,
-123,
248,
118,
8,
-283,
584,
-948,
1347,
13,
-955,
616,
722,
380,
-161,
422,
-1177,
625,
-40,
-1445,
-225,
-536,
970,
-265,
557,
-292,
-69,
91,
4,
1430,
737,
-71,
-243,
-410,
-125,
528,
409,
-256,
2105,
-537,
240,
92,
272,
-805,
152,
-201,
34,
200,
1592,
668,
-238,
-1207,
-396,
686,
-732,
-382,
-625,
1251,
-1008,
448,
-2,
374,
311,
773,
570,
-6,
327,
1070,
-709,
791,
626,
-211,
799,
587,
-470,
-384,
966,
-490,
-1069,
-789,
-552,
-132,
-121,
1237,
1567,
-122,
-538,
-843,
-228,
-46,
-863,
-24,
698,
-420,
-434,
818,
1190,
696,
-78,
-764,
-259,
-624,
444,
-214,
673,
402,
-201,
378,
333,
330,
241,
-1106,
167,
-70,
423,
-775,
-258,
-122,
89,
182,
1140,
834,
-2345,
-224,
212,
542,
221,
436,
1585,
-1451,
-510,
-508,
-653,
-278,
-764,
798,
-316,
-701,
1094,
720,
1414,
86,
677,
-535,
-214,
-33,
1112,
-1137,
-496,
-11,
1445,
311,
-603,
119,
-623,
589,
42,
926,
-891,
2299,
1267,
-897,
930,
-609,
1215,
19,
29,
421,
-1202,
57,
126,
150,
92,
1637,
612,
-88,
-631,
310,
161,
-620,
-430,
1848,
457,
369,
-562,
-1407,
-287,
718,
-1749,
1466,
27,
-842,
-163,
0,
354,
463,
873,
29,
-901,
-202,
479,
-851,
-731,
1381,
919,
1173,
1382,
-935,
163,
-962,
1234,
22,
-109,
-346,
90,
-1003,
-700,
-228,
-611,
285,
-63,
14,
-487,
-799,
506,
-750,
-489,
-374,
1435,
-25,
-308,
-713,
147,
-518,
1995,
-1206,
162,
192,
81,
917,
980,
622,
-316,
-118,
838,
4,
-164,
144,
-215,
-434,
2243,
-1876,
1273,
-627,
-1119,
-139,
665,
119,
-421,
555,
-94,
535,
-780,
-145,
-1411,
2592,
-1068,
307,
1206,
862,
-572,
-1326,
1623,
612,
333,
467,
-656,
-1262,
373,
-180,
-672,
-1145,
504,
-1265,
246,
1036,
-513,
563,
73,
-1232,
-879,
251,
-554,
-64,
77,
98,
367,
-1075,
-376,
-427,
1994,
486,
-763,
-1148,
-322,
-113,
183,
1766,
-81,
681,
222,
-1296,
-182,
257,
-143,
259,
-1054,
108,
-1661,
1482,
1840,
412,
1773,
811,
-51,
1011,
-737,
-1053,
-27,
181,
1751,
1121,
389,
104,
385,
291,
-31,
722,
-1392,
2168,
-558,
95,
781,
-764,
82,
552,
140,
-356,
-113,
321,
-165,
-499,
-270,
945,
1413,
498,
280,
196,
-46,
25,
292,
722,
197,
522,
772,
-728,
473,
808,
977,
259,
172,
-1088,
554,
-63,
93,
-1127,
-749,
-365,
-602,
-1135,
-868,
1743,
7,
-29,
-387,
401,
-872,
-908,
-995,
-981,
-822,
-170,
415,
-607,
-458,
-803,
-214,
-538,
183,
-640,
-316,
360,
-502,
-518,
-5,
-635,
1016,
1063,
-495,
-289,
277,
1765,
-74,
688,
-252,
1765,
-419,
254,
572,
-672,
462,
-568,
156,
-136,
643,
580,
-467,
164,
-109,
-589,
-247,
-196,
970,
-461,
-1357,
829,
-896,
479,
183,
166,
458,
94,
-739,
-333,
707,
-1289,
-32,
-961,
357,
-51,
-313,
-826,
321,
-90,
-933,
-102,
233,
-79,
407,
-2213,
1213,
26,
-252,
696,
781,
857,
157,
920,
-132,
-750,
442,
-437,
-607,
1118,
-233,
459,
-536,
893,
-473,
-434,
507,
349,
148,
-140,
426,
1508,
528,
-1477,
1554,
-99,
35,
-1356,
-465,
-374,
-115,
537,
-1365,
-443,
527,
-213,
1259,
194,
498,
-1097,
461,
464,
-550,
-5,
-583,
-398,
-529,
-158,
-309,
1633,
263,
696,
842,
-452,
58,
-396,
-409,
-1582,
-1454,
-182,
187,
514,
-123,
-350,
50,
-317,
-519,
-197,
-162,
-9,
-561,
-954,
1043,
-1579,
-95,
-1049,
524,
-402,
609,
-424,
681,
-278,
-672,
485,
-835,
38,
-1607,
-44,
-495,
-662,
-172,
438,
-871,
563,
400,
-220,
665,
-6,
-23,
-777,
-398,
415,
963,
-112,
964,
-177,
-658,
17,
-1129,
786,
-806,
-67,
939,
-566,
-607,
-307,
175,
-555,
583,
474,
40,
49,
258,
965,
50,
-274,
423,
-6,
13,
199,
-190,
105,
800,
-404,
-83,
-1030,
403,
-878,
-553,
-110,
853,
-549,
182,
0,
188,
-137,
-1114,
224,
-170,
-1039,
324,
-415,
-551,
1698,
465,
-978,
466,
-139,
-65,
135,
931,
-615,
282,
1251,
299,
1742,
-1078,
-397,
-288,
-934,
-750,
-543,
-300,
795,
-946,
281,
-397,
-202,
-702,
1024,
-49,
631,
419,
-1162,
186,
211,
-961,
-467,
-687,
-180,
-247,
376,
-462,
1136,
509,
1082,
-767,
143,
-253,
-777,
-208,
-22,
-266,
-1103,
43,
-675,
-1269,
-89,
-1385,
-891,
341,
-463,
-599,
-990,
664,
-235,
261,
-712,
557,
-686,
458,
-719,
-380,
-674,
-349,
-868,
699,
-114,
149,
-106,
221,
915,
-782,
-935,
816,
710,
360,
-194,
1896,
362,
-617,
363,
-56,
204,
1088,
600,
9,
-959,
1094,
-740,
161,
-477,
1189,
620,
751,
1605,
79,
363,
778,
-144,
52,
-625,
-726,
30,
-1163,
913,
-707,
1318,
-282,
-5,
-1210,
-577,
1192,
-929,
1676,
875,
-506,
1416,
-383,
-766,
-885,
-551,
-629,
255,
1362,
-785,
-144,
-385,
526,
719,
370,
-493,
33,
-297,
679,
88,
1462,
-1117,
119,
1848,
-908,
-1091,
474,
499,
-158,
-1434,
-1330,
-443,
-951,
324,
12,
944,
-41,
-856,
1387,
-159,
-523,
-2003,
341,
-52,
-422,
666,
458,
1041,
1803,
-614,
-103,
347,
-334,
-81,
1119,
-641,
-414,
-1210,
-76,
-184,
-183,
-232,
91,
369,
-96,
426,
-105,
295,
1046,
28,
-327,
-1036,
811,
313,
-468,
-213,
-871,
719,
620,
-1238,
93,
723,
1333,
-696,
-869,
-334,
228,
-748,
-458,
367,
755,
1425,
-529,
527,
-1079,
-94,
119,
-643,
-952,
1262,
-106,
1827,
-276,
439,
-671,
-334,
-232,
-631,
-621,
1062,
1737,
-673,
785,
-1254,
2055,
-163,
467,
-4,
5,
-826,
545,
5,
-2255,
89,
-473,
-229,
155,
-790,
45,
-192,
142,
-1319,
-387,
-381,
764,
-122,
-84,
-403,
-19,
-538,
-529,
-867,
218,
315,
-645,
-1070,
401,
-1028,
-1212,
-348,
-5,
-727,
-372,
-617,
-207,
-226,
-574,
-506,
-663,
-1514,
-254,
96,
-842,
-1115,
388,
719,
-326,
212,
830,
-1229,
159,
-1305,
-146,
-72,
-194,
635,
-326,
474,
-390,
99,
-419,
225,
-204,
697,
-1174,
-1730,
-507,
-437,
-769,
1004,
-1059,
361,
1137,
790,
-622,
900,
265,
682,
328,
-686,
-230,
-4,
-746,
-649,
2340,
-770,
67,
-375,
-55,
-1112,
-776,
-823,
-1183,
-446,
-1167,
2182,
1175,
-2581,
-391,
-40,
570,
-420,
373,
-1756,
545,
-263,
391,
-683,
471,
405,
121,
2163,
204,
457,
899,
-130,
2168,
2107,
665,
-155,
-413,
377,
-1960,
-163,
-1035,
-820,
-594,
905,
-998,
-377,
-1290,
1858,
-1106,
-251,
-676,
489,
-144,
1371,
-518,
-15,
-75,
-691,
-1027,
507,
-690,
-960,
-1220,
230,
-804,
-632,
179,
1089,
1347,
-492,
-882,
-880,
554,
-618,
507,
-461,
907,
-1032,
1304,
-211,
-1402,
-157,
-620,
576,
945,
-1084,
-551,
-281,
535,
-850,
-388,
-562,
-1275,
-111,
-287,
57,
-529,
-13,
1011,
-917,
-923,
-624,
-1343,
474,
1199,
224,
173,
-1063,
-140,
-97,
238,
-288,
764,
1197,
528,
-49,
1018,
1362,
1015,
-255,
737,
1242,
-735,
251,
41,
-1643,
533,
-124,
314,
148,
356,
-934,
-588,
-308,
-985,
-445,
799,
-1072,
-1383,
-15,
-224,
376,
-140,
2309,
-219,
545,
-811,
-515,
52,
188,
-1602,
-653,
887,
-132,
-53,
684,
-333,
-1006,
-1316,
573,
30,
-1467,
-355,
-347,
-149,
-1050,
-274,
-687,
-503,
86,
-71,
-913,
639,
-321,
-178,
406,
-521,
-25,
2588,
-222,
301,
-1699,
589,
-36,
59,
1647,
268,
-1789,
73,
-2042,
-281,
-99,
-605,
531,
-1331,
-1463,
-317,
-193,
-742,
224,
187,
-989,
-503,
-9,
-2344,
335,
212,
-38,
2724,
883,
1122,
-49,
-1686,
65,
-691,
-24,
-202,
-571,
-1161,
1061,
-307,
-760,
-1039,
443,
-1257,
-663,
-487,
-2574,
1451,
215,
-661,
38,
-556,
-266,
514,
-1591,
339,
917,
-395,
569,
190,
-373,
-884,
450,
-20,
116,
-226,
-584,
671,
386,
-706,
-428,
-611,
-918,
-628,
182,
-402,
-1148,
-510,
259,
-345,
185,
801,
1237,
-418,
310,
1544,
-280,
-2,
-377,
-1933,
1500,
-918,
178,
-679,
-144,
-182,
478,
275,
-384,
-737,
-992,
127,
1947,
167,
-1423,
-882,
374,
664,
-456,
1018,
-445,
-209,
-562,
1848,
-472,
-612,
-218,
1174,
1037,
904,
2495,
-1019,
-93,
-133,
-275,
196,
145,
-891,
-108,
46,
61,
618,
-628,
-44,
-66,
-601,
1210,
-1187,
161,
289,
-165,
-365,
274,
-574,
-49,
-708,
299,
239,
-145,
-105,
-330,
410,
30,
1,
452,
-598,
-538,
-661,
-821,
-407,
420,
-289,
-101,
-137,
1005,
211,
1047,
273,
106,
39,
-566,
-449,
-286,
594,
-446,
121,
564,
-113,
-688,
143,
14,
372,
361,
576,
-39,
-448,
-909,
16,
489,
281,
-162,
386,
31,
262,
-545,
-442,
-499,
-126,
511,
467,
-411,
186,
1090,
210,
69,
-536,
234,
184,
228,
46,
-11,
-142,
-493,
-106,
-80,
832,
-423,
406,
-128,
499,
-228,
129,
167,
-177,
-1241,
-390,
2,
235,
-608,
-183,
220,
152,
562,
250,
-247,
-71,
192,
376,
459,
374,
-27,
195,
955,
187,
421,
1013,
370,
-337,
-179,
363,
-871,
97,
-359,
-24,
-263,
6,
369,
-228,
608,
-154,
322,
91,
784,
160,
-295,
-391,
-221,
-802,
466,
19,
-119,
162,
-330,
435,
189,
-390,
48,
485,
-5,
531,
-157,
55,
-314,
-430,
-289,
1402,
-250,
947,
-145,
229,
-560,
513,
-658,
-561,
314,
-1054,
141,
-524,
-97,
-721,
687,
595,
-89,
756,
54,
702,
-443,
818,
522,
478,
-627,
322,
443,
121,
910,
-297,
-31,
116,
149,
263,
-65,
399,
34,
487,
-364,
54,
132,
502,
-13,
-373,
-182,
532,
204,
-228,
650,
255,
-350,
-170,
411,
629,
-518,
131,
-39,
-443,
460,
176,
77,
564,
-69,
-82,
-144,
412,
287,
316,
822,
-198,
-814,
-610,
-791,
1099,
-680,
-123,
-519,
81,
-404,
-674,
390,
-548,
731,
-133,
196,
-31,
-116,
55,
103,
27,
-422,
-309,
358,
-324,
-155,
51,
90,
-616,
-250,
669,
-238,
626,
357,
-546,
-1043,
-304,
-489,
459,
238,
535,
-213,
62,
-428,
62,
-192,
-204,
324,
394,
62,
-274,
-437,
174,
213,
-381,
208,
701,
-63,
-216,
-13,
-682,
459,
338,
500,
78,
893,
233,
-443,
225,
-50,
83,
36,
-762,
51,
78,
-204,
986,
-296,
158,
50,
-168,
622,
-142,
-166,
50,
-765,
702,
895,
195,
292,
-101,
319,
-116,
123,
-367,
-899,
58,
-354,
445,
494,
804,
73,
43,
-135,
254,
122,
-101,
99,
243,
518,
-258,
262,
135,
-56,
-300,
40,
673,
123,
304,
6,
584,
-176,
972,
1044,
355,
344,
660,
-347,
-297,
376,
-156,
41,
300,
-770,
369,
732,
782,
374,
227,
73,
-1046,
-447,
-347,
426,
230,
-701,
-831,
108,
-363,
-66,
187,
96,
165,
-18,
9,
-152,
1159,
225,
2,
-255,
-73,
19,
-24,
7,
-199,
419,
724,
-53,
-994,
-333,
167,
-455,
-550,
-120,
968,
-1806,
-8,
587,
131,
-1023,
-1658,
-909,
203,
581,
-1002,
-609,
280,
-547,
-377,
878,
-155,
1153,
-90,
-1079,
101,
1,
-463,
-1070,
37,
-1317,
-208,
-930,
-541,
1180,
322,
-1081,
-817,
1518,
-808,
-309,
-1107,
320,
-1133,
-128,
622,
-952,
12,
355,
170,
-893,
-345,
-264,
-1534,
-1238,
-616,
-294,
566,
611,
685,
900,
1809,
1081,
-189,
1160,
-667,
-312,
-642,
-709,
-421,
827,
355,
-1190,
-602,
450,
-633,
444,
-247,
-197,
-235,
529,
527,
-610,
-790,
-51,
93,
1942,
442,
-603,
987,
-551,
46,
100,
273,
-104,
313,
182,
773,
809,
-137,
860,
546,
-180,
-1205,
-1189,
-2228,
183,
-915,
-423,
-855,
-655,
-1256,
-1209,
1042,
-426,
574,
101,
-706,
-142,
202,
-190,
-305,
-178,
-158,
-260,
218,
373,
-346,
-399,
844,
-216,
-102,
-348,
615,
-332,
262,
-1234,
-1186,
-1222,
-879,
-405,
-179,
-747,
-1059,
119,
-1093,
-428,
-2226,
113,
977,
-474,
-937,
740,
-1697,
1959,
-381,
399,
-454,
331,
-492,
-132,
-50,
100,
155,
435,
492,
37,
595,
-438,
-1105,
-765,
462,
7,
-88,
86,
1339,
-2469,
1659,
-23,
887,
914,
-483,
574,
375,
-1845,
-560,
-87,
-316,
-231,
-464,
-611,
-519,
-789,
-273,
-504,
141,
-1396,
221,
-170,
143,
-1066,
726,
692,
-256,
713,
-366,
-248,
-1042,
-897,
254,
-499,
-2183,
1150,
-282,
-517,
164,
23,
502,
-1135,
40,
-289,
-1456,
-630,
623,
-433,
843,
429,
762,
-518,
1297,
183,
-1035,
-484,
-575,
-661,
-277,
-492,
-121,
-1038,
156,
-503,
16,
-1170,
356,
435,
-631,
-1390,
-1448,
554,
643,
388,
1028,
-454,
795,
-183,
-90,
-1925,
-248,
-585,
-134,
-1604,
-862,
937,
12,
467,
-250,
804,
-1367,
900,
-750,
-1401,
373,
66,
260,
302,
-542,
206,
-269,
34,
-131,
-205,
63,
-446,
1352,
1113,
655,
-353,
494,
-410,
-530,
-1766,
977,
25,
445,
-45,
-931,
-1422,
-376,
-119,
-1338,
-305,
402,
950,
450,
-103,
765,
-659,
444,
-622,
-1827,
-728,
-79,
-118,
-1567,
-645,
-1472,
-165,
-290,
-53,
678,
-21,
1130,
-1743,
239,
-674,
-1281,
870,
-63,
23,
-999,
-732,
581,
647,
412,
-527,
-434,
427,
-445,
-277,
571,
-1358,
1118,
966,
-355,
-157,
-1303,
365,
-607,
-733,
-44,
1701,
-1994,
-293,
319,
1609,
802,
-1079,
-761,
183,
-164,
840,
-248,
356,
-913,
-741,
426,
918,
3,
263,
506,
-771,
88,
-1229,
-275,
362,
-297,
591,
-1307,
-404,
-28,
-921,
-52,
-146,
-199,
2263,
-375,
-178,
-1677,
330,
-432,
-228,
-1536,
-589,
1072,
-112,
-619,
-306,
-745,
305,
-219,
649,
-1774,
-83,
-35,
-2391,
-603,
1187,
-431,
-51,
-299,
-847,
968,
-1428,
1063,
780,
-971,
-848,
-2,
-961,
-66,
-351,
-707,
-870,
32,
317,
1169,
-411,
241,
-13,
-1193,
-433,
-650,
-282,
-962,
631,
-514,
117,
1578,
-702,
390,
-599,
1129,
1435,
-676,
416,
-151,
550,
1036,
1529,
-290,
640,
442,
198,
-523,
-1409,
-151,
824,
1066,
-1697,
451,
337,
88,
-800,
-455,
847,
-171,
-1266,
-831,
-156,
-223,
860,
-954,
-204,
974,
-934,
226,
-1240,
-550,
-124,
-2102,
-1144,
-248,
346,
-592,
-1137,
-830,
-141,
-1121,
-231,
18,
-513,
-633,
-1017,
1013,
145,
-1473,
-1129,
103,
-92,
-68,
-224,
471,
-259,
139,
-1400,
-2492,
36,
-538,
1550,
-57,
-244,
645,
-18,
1182,
186,
-662,
-579,
701,
-556,
-766,
-751,
-490,
-546,
636,
-401,
-316,
748,
-1098,
-112,
-1208,
-415,
-304,
-41,
-858,
-1012,
368,
286,
219,
-502,
-711,
-172,
119,
30,
-1227,
997,
775,
1403,
1123,
-591,
1135,
117,
203,
-1540,
-887,
558,
256,
-298,
-748,
-548,
-352,
-485,
114,
-1447,
-548,
81,
-1706,
-1388,
218,
801,
-1301,
61,
168,
-348,
-1076,
38,
-685,
-730,
929,
336,
-754,
-1245,
793,
-1500,
-20,
150,
-163,
16,
-100,
-2534,
-288,
-533,
-322,
-81,
1232,
1109,
596,
-369,
-1429,
34,
95,
-185,
-521,
345,
1139,
702,
-2353,
159,
-557,
636,
-1552,
212,
559,
-1097,
-1092,
1158,
767,
957,
885,
204,
-804,
428,
1166,
90,
-360,
-205,
346,
-1371,
-2,
308,
-856,
1442,
243,
1012,
-137,
567,
348,
-595,
-848,
-242,
-521,
1639,
2264,
467,
1091,
-889,
-204,
-85,
-425,
-49,
-970,
651,
1040,
10,
-67,
193,
-703,
-1186,
89,
-459,
-1476,
1470,
-1294,
-421,
-387,
-421,
-666,
-109,
459,
193,
-18,
-127,
982,
277,
1051,
-1146,
-1636,
101,
-229,
-846,
3111,
-430,
-16,
-1126,
110,
950,
686,
-134,
-789,
-2934,
-473,
-271,
-2091,
13,
-506,
1708,
-1378,
87,
1719,
-1016,
114,
119,
-609,
-1796,
384,
194,
1380,
519,
-1085,
44,
180,
-753,
-1118,
-1629,
-233,
-290,
-58,
-564,
222,
-546,
443,
51,
-403,
81,
-1673,
-60,
-20,
-377,
88,
-1842,
-549,
-337,
825,
1510,
-190,
313,
-199,
-81,
-1137,
745,
-397,
424,
1105,
-1385,
1638,
-578,
1074,
-769,
-1646,
271,
-130,
-210,
296,
-644,
182,
-142,
-479,
-1377,
833,
-435,
-411,
469,
253,
731,
-658,
-43,
-159,
-862,
71,
-209,
294,
-206,
1187,
54,
-49,
-848,
-214,
370,
-486,
-988,
-444,
-81,
-667,
-694,
-798,
-1154,
-318,
-762,
-152,
-1024,
-315,
-517,
-348,
-772,
-411,
-515,
-112,
100,
1184,
-1086,
18,
-193,
-618,
-901,
-1298,
-619,
76,
139,
-200,
549,
-61,
152,
-193,
-192,
636,
-876,
2352,
638,
-244,
-785,
-2385,
38,
-1396,
-99,
-146,
-1338,
136,
1256,
21,
809,
-1261,
-316,
-729,
-1239,
-803,
-921,
-755,
454,
360,
102,
185,
-188,
1297,
-1254,
-339,
-219,
115,
-483,
-454,
-598,
-50,
-2432,
-582,
-432,
738,
990,
-2052,
-1062,
437,
25,
-305,
-12,
-976,
-19,
1142,
-625,
-2401,
-869,
580,
-156,
-1180,
-679,
-1051,
-448,
3,
-476,
200,
-1895,
501,
232,
-1264,
-1341,
-481,
-596,
257,
465,
-329,
779,
-653,
-1010,
-512,
845,
-770,
177,
-2,
847,
624,
-419,
150,
-796,
-236,
-702,
-572,
-1638,
-1248,
-982,
-391,
862,
-490,
-219,
-754,
-139,
-892,
-1042,
8,
-349,
847,
-379,
415,
-1301,
129,
-1444,
378,
774,
-493,
-628,
384,
-1256,
90,
6,
-451,
78,
87,
-198,
-1960,
-875,
-755,
-123,
-1458,
988,
-307,
-318,
-871,
-344,
-1169,
-1445,
-730,
-238,
-630,
909,
-236,
292,
692,
-375,
216,
-389,
-1329,
241,
951,
51,
93,
-613,
-402,
-1098,
-870,
-1178,
170,
173,
-424,
-1315,
-1850,
-550,
-158,
424,
-589,
-129,
-799,
-492,
0,
-126,
-325,
-745,
-752,
50,
67,
-459,
-604,
-292,
-446,
-1564,
-551,
-260,
-1094,
181,
513,
-181,
94,
-1229,
-1118,
-470,
-572,
-1067,
-1719,
-890,
-477,
-957,
-231,
1100,
-840,
-1268,
-295,
133,
-565,
-1206,
63,
-716,
-1614,
1061,
-1717,
-384,
-218,
-780,
-418,
-1715,
281,
-1287,
-1141,
-896,
-625,
-1298,
76,
-160,
1281,
812,
-221,
-664,
-573,
-1606,
326,
-1404,
-3,
-563,
107,
-718,
-468,
-2050,
329,
-888,
108,
-927,
-1014,
-469,
-754,
-443,
-729,
-664,
8,
-1429,
-273,
1538,
236,
-485,
257,
409,
-439,
-67,
-346,
1048,
-1034,
-732,
-264,
-614,
-1331,
-128,
905,
-332,
-1074,
-19,
-1469,
397,
854,
-139,
-1467,
-1033,
-45,
34,
-53,
-947,
-967,
-763,
349,
-689,
-860,
-174,
-1079,
-2367,
-437,
-863,
-37,
1508,
-1284,
139,
-563,
1523,
-72,
181,
-62,
108,
-2239,
-898,
-150,
119,
515,
-377,
-838,
-372,
-1259,
305,
403,
-1272,
-684,
856,
-544,
-1117,
-937,
-930,
104,
-680,
71,
909,
338,
414,
300,
-1136,
-2813,
35,
-1846,
-884,
-980,
-135,
-836,
-258,
-1536,
-1428,
-743,
-1455,
-231,
-654,
-77,
-580,
-665,
337,
-975,
-947,
786,
1635,
39,
-607,
-399,
-197,
832,
-795,
-765,
-160,
-702,
324,
287,
275,
123,
-907,
-328,
235,
-845,
1334,
-575,
-1,
-27,
-1374,
-7,
-36,
-549,
-77,
5,
639,
-1653,
-489,
38,
715,
-322,
-388,
71,
1124,
-994,
-651,
-772,
521,
-695,
989,
599,
-919,
-76,
23,
170,
-577,
508,
307,
-595,
-891,
1008,
-680,
-963,
-577,
41,
1437,
-1087,
-450,
163,
1194,
-2966,
-1045,
-893,
-1372,
-1773,
-222,
-91,
1270,
-1190,
-1209,
415,
-2189,
-150,
-108,
-1508,
-1399,
1047,
-2381,
175,
512,
-56,
-133,
-509,
-346,
-392,
-2371,
-25,
-913,
-999,
508,
-1202,
-106,
1320,
-342,
618,
-1097,
-623,
583,
-18,
-567,
-782,
-479,
480,
-1215,
-3024,
-229,
-1115,
173,
-610,
-182,
1522,
1963,
-655,
89,
-858,
466,
879,
-236,
-315,
-2307,
-8,
-96,
-873,
-394,
160,
-281,
82,
-767,
-704,
-43,
-39,
-151,
-1202,
-621,
-382,
-665,
-1052,
681,
-58,
-581,
-1131,
207,
-122,
722,
-2364,
1698,
-136,
138,
1161,
-44,
-1573,
145,
-698,
-1332,
-751,
-1410,
-1797,
-1735,
-398,
371,
-925,
-408,
270,
-1271,
-54,
-68,
-337,
-202,
-1960,
-137,
41,
146,
-914,
646,
475,
-609,
-772,
463,
-1472,
-19,
859,
-331,
807,
-1290,
10,
-134,
452,
-1278,
-243,
1838,
-1075,
1181,
-971,
385,
-555,
61,
873,
-2262,
-689,
244,
-981,
225,
-29,
1108,
-1663,
313,
-216,
-444,
714,
-586,
1097,
-697,
447,
-150,
-283,
-485,
994,
280,
-507,
-346,
-1508,
-1184,
133,
-2098,
-1808,
-112,
-547,
381,
-770,
-1335,
-684,
-500,
745,
717,
-758,
-779,
-1707,
-1095,
1194,
-69,
-692,
-48,
-133,
-500,
-297,
-1101,
-124,
-1016,
-1401,
157,
-295,
46,
-236,
425,
108,
161,
-869,
840,
-800,
-1492,
792,
-894,
-917,
-951,
654,
188,
-757,
277,
-915,
402,
800,
-75,
-959,
-783,
-820,
-1641,
-300,
356,
-884,
33,
-3154,
-537,
-168,
-944,
-444,
-410,
-1081,
-991,
2235,
-484,
-894,
-793,
-1011,
1246,
-340,
88,
53,
-652,
426,
23,
-1193,
726,
402,
1519,
1340,
-853,
676,
233,
52,
-822,
-693,
66,
-29,
-681,
-1222,
-1423,
-2112,
404,
-1523,
-152,
-353,
-608,
-266,
-1381,
-682,
2766,
-522,
371,
885,
598,
-560,
281,
-466,
-95,
-719,
-540,
407,
-2076,
-41,
739,
89,
232,
-525,
150,
-1359,
-1359,
-367,
1094,
-1217,
-491,
-902,
-1303,
-54,
-1386,
-831,
909,
-819,
-486,
-1722,
318,
-877,
-502,
-338,
932,
-57,
-184,
-452,
-1110,
-502,
1031,
-1559,
-348,
-1610,
-421,
71,
224,
379,
-169,
-59,
-640,
-427,
-611,
1056,
-827,
4,
681,
-418,
1535,
-369,
1303,
610,
-182,
-942,
-385,
11,
92,
-941,
-1344,
-1445,
-2147,
-1862,
-1800,
-1888,
61,
-793,
317,
411,
-1573,
-529,
65,
-439,
-120,
-662,
1618,
220,
-730,
639,
557,
1052,
-956,
-455,
1066,
223,
-575,
-566,
-155,
-914,
1278,
-567,
-42,
-104,
1836,
-205,
355,
-413,
64,
1592,
694,
-442,
762,
-850,
-305,
-427,
597,
-151,
-1329,
747,
1918,
-1438,
-1468,
61,
99,
-8,
-413,
-753,
488,
-62,
353,
1953,
987,
-820,
836,
615,
-1036,
400,
-348,
-91,
-578,
3,
18,
-1767,
-138,
-910,
504,
-826,
204,
-303,
288,
64,
-463,
-528,
751,
-985,
-282,
-568,
170,
300,
-1400,
-345,
-539,
941,
-236,
324,
-497,
827,
505,
-228,
472,
-201,
-372,
-424,
-450,
-116,
470,
-1083,
-145,
244,
-551,
-90,
-646,
141,
640,
219,
-421,
-674,
-1933,
-229,
-852,
169,
-319,
1264,
210,
276,
149,
-523,
-1276,
-607,
-23,
541,
-371,
709,
-271,
-248,
-99,
109,
-86,
2313,
933,
1346,
-679,
103,
-719,
460,
416,
-113,
696,
-131,
-246,
-325,
209,
8,
-595,
-62,
-1218,
-378,
-319,
-564,
552,
959,
127,
415,
-2018,
-512,
-59,
194,
-63,
286,
707,
776,
-1138,
-282,
626,
350,
-222,
-1729,
196,
-145,
-774,
141,
207,
-166,
-829,
33,
32,
-267,
-261,
-652,
298,
140,
-20,
-851,
-259,
1153,
-164,
-34,
1553,
-1155,
-131,
68,
100,
398,
939,
187,
331,
344,
-847,
695,
-280,
-1099,
-22,
1125,
99,
-423,
-1138,
-487,
307,
-26,
602,
-58,
-1139,
-1072,
249,
-478,
-714,
593,
-1152,
-521,
234,
-319,
-637,
-28,
406,
-872,
-334,
-637,
-1223,
457,
-316,
1388,
435,
1105,
-2035,
-395,
-388,
264,
-478,
-566,
-931,
-894,
260,
-63,
-476,
1024,
873,
-795,
289,
-451,
2679,
-406,
412,
780,
-473,
-1349,
595,
-431,
265,
477,
500,
-1861,
1646,
-424,
-231,
128,
340,
-257,
-677,
495,
-260,
258,
-210,
307,
-1181,
742,
188,
-959,
-1077,
1217,
-181,
123,
24,
400,
-212,
-1227,
-403,
-131,
511,
-133,
-147,
1084,
1399,
1008,
-1182,
75,
376,
145,
-245,
697,
-709,
-641,
-940,
-394,
-729,
-33,
110,
-541,
669,
1476,
-761,
-472,
-814,
18,
-465,
-22,
-1236,
-393,
-10,
118,
85,
25,
314,
1124,
369,
123,
-1321,
-56,
-577,
-4,
67,
244,
1155,
426,
1540,
-578,
257,
836,
750,
-132,
258,
-228,
-881,
-504,
-1509,
9,
-702,
-1077,
-566,
446,
2859,
575,
350,
920,
-881,
468,
797,
-374,
-262,
-389,
258,
772,
1632,
-168,
-316,
-268,
-341,
1161,
-380,
444,
89,
-157,
246,
790,
-898,
-1241,
-585,
-467,
-28,
-423,
1812,
1099,
-333,
738,
-845,
371,
186,
47,
98,
646,
458,
-436,
-1095,
528,
-487,
992,
-241,
-226,
189,
1123,
584,
2732,
-567,
24,
1933,
487,
1272,
558,
-1006,
-405,
-130,
787,
-1223,
613,
1856,
-58,
-1452,
-683,
255,
-367,
-232,
-23,
-249,
328,
945,
-363,
723,
118,
482,
-451,
-1013,
-488,
-1130,
-1213,
393,
21,
-1332,
-758,
655,
-784,
1506,
-144,
-437,
21,
2526,
1501,
122,
-527,
-1614,
-547,
-105,
-388,
-1022,
-135,
-163,
-1183,
491,
274,
-1603,
-581,
1576,
-2853,
3072,
1924,
1136,
268,
-798,
187,
-999,
-206,
441,
-458,
1456,
694,
-63,
-139,
-275,
875,
721,
-706,
-316,
1677,
-199,
1522,
-1821,
-66,
-1528,
-576,
-3158,
1395,
-215,
-764,
-334,
20,
253,
8,
850,
1003,
-223,
351,
91,
-264,
-929,
-10,
1066,
-628,
-1069,
832,
689,
1950,
3279,
136,
547,
-606,
-749,
-610,
544,
1042,
48,
184,
-829,
770,
-389,
613,
584,
-1111,
50,
434,
-286,
-1496,
458,
868,
351,
877,
1290,
6,
112,
-935,
309,
1593,
-556,
1188,
-1107,
-289,
-226,
2329,
-741,
738,
-542,
-39,
876,
315,
-1196,
671,
-932,
680,
44,
-2820,
509,
1061,
263,
977,
619,
-1094,
-81,
560,
154,
-53,
-435,
448,
-1014,
215,
368,
-528,
-214,
2274,
404,
65,
-874,
-10,
663,
-394,
-913,
-545,
965,
-1747,
181,
-536,
-669,
-585,
-694,
300,
-454,
334,
17,
1421,
2701,
-1659,
-379,
-2650,
-976,
-608,
-3,
557,
181,
-484,
360,
281,
369,
184,
-2118,
-744,
1867,
1547,
-1306,
-1656,
1,
-411,
-987,
0,
868,
-1056,
-410,
1029,
13,
-1369,
-658,
1456,
249,
1341,
142,
-481,
-594,
581,
505,
-1035,
-365,
421,
1356,
-1025,
2486,
-262,
-613,
-457,
499,
-855,
795,
-273,
-616,
441,
-327,
374,
319,
-15,
-443,
2249,
-2118,
601,
667,
-980,
-986,
-1262,
-1179,
-744,
-82,
-601,
932,
689,
1474,
-432,
395,
-971,
1339,
-113,
-634,
-227,
708,
-372,
-13,
-1601,
449,
1279,
-998,
-605,
-568,
-1316,
-939,
-1178,
-26,
1698,
-354,
-329,
93,
816,
-153,
-103,
-31,
166,
-1960,
552,
178,
57,
471,
-891,
704,
-797,
212,
387,
429,
-1886,
-927,
378,
767,
679,
-800,
-335,
-225,
-307,
0,
906,
817,
-242,
782,
-344,
-1372,
-848,
1339,
-142,
-581,
463,
413,
-381,
-1359,
963,
-606,
-109,
-441,
1234,
485,
115,
-1017,
142,
428,
2760,
605,
3169,
-328,
1466,
-735,
2392,
679,
501,
-1484,
517,
-1243,
472,
646,
-210,
-323,
990,
919,
-1127,
-580,
-412,
-2099,
-340,
-127,
-569,
-572,
-2213,
948,
-356,
-744,
70,
1079,
-29,
1215,
-1550,
-310,
150,
570,
625,
-130,
-1042,
-570,
550,
-1156,
492,
222,
-354,
-48,
-54,
-293,
-445,
543,
-491,
-231,
1297,
821,
-111,
-555,
377,
159,
1644,
270,
-218,
-852,
-143,
-154,
-239,
629,
-382,
-225,
352,
-449,
649,
439,
1193,
-590,
-125,
299,
-55,
231,
384,
-232,
616,
-142,
-184,
-848,
-930,
-534,
-241,
-381,
-768,
1001,
406,
1144,
-188,
122,
-325,
-1067,
499,
0,
-999,
-28,
-6,
548,
-261,
-928,
809,
281,
-873,
-640,
527,
-49,
-551,
-238,
89,
708,
-925,
-760,
-78,
-701,
626,
58,
-238,
706,
-145,
151,
868,
-1180,
97,
39,
-23,
391,
-36,
-591,
-166,
-633,
-174,
3195,
-1212,
-22,
-427,
-232,
-218,
466,
336,
-491,
-1967,
-1168,
481,
930,
-213,
-1421,
1898,
-485,
272,
-1246,
-2056,
1469,
289,
-874,
-1224,
321,
1022,
-718,
1436,
-197,
1762,
305,
-487,
-533,
-456,
514,
-853,
647,
-66,
229,
1496,
-35,
-337,
204,
231,
-220,
-467,
244,
273,
509,
-419,
283,
-1972,
-701,
492,
-422,
-495,
27,
-149,
-433,
1325,
-1038,
-791,
1304,
218,
-852,
88,
-586,
63,
620,
-786,
196,
-200,
-538,
933,
-63,
-264,
554,
-401,
-585,
1149,
107,
-635,
1419,
-387,
-125,
-908,
622,
-385,
-1319,
-446,
-772,
581,
10,
-1908,
-309,
-154,
514,
-767,
-227,
-208,
-90,
131,
-586,
-338,
0,
3327,
-114,
-1306,
817,
-155,
-917,
-465,
-287,
571,
124,
-189,
-431,
-143,
-812,
2136,
228,
-165,
-426,
-544,
422,
45,
394,
893,
-100,
71,
-873,
951,
1774,
-129,
-81,
143,
597,
359,
431,
-511,
-133,
2510,
-1741,
-778,
2425,
-196,
422,
-416,
-466,
-620,
-365,
-164,
353,
205,
550,
335,
-809,
1289,
302,
413,
-54,
-383,
-611,
-971,
230,
-23,
1994,
-156,
2388,
47,
-430,
917,
277,
-554,
-358,
-271,
103,
486,
-10,
141,
217,
-789,
1164,
-16,
607,
-50,
-344,
-855,
-63,
-104,
1188,
1791,
-601,
-143,
180,
267,
1233,
36,
-538,
-442,
-1656,
948,
-275,
965,
-911,
886,
1245,
-659,
-1770,
169,
180,
-61,
-384,
1781,
1510,
-1387,
837,
1178,
-574,
16,
25,
-758,
-730,
416,
-570,
548,
-445,
-344,
-64,
317,
2749,
-13,
541,
-524,
112,
350,
-821,
-957,
574,
673,
339,
328,
-496,
-161,
-1880,
222,
565,
1917,
191,
-654,
73,
-448,
285,
-1132,
-660,
-144,
281,
124,
232,
1168,
-1207,
603,
-31,
679,
610,
489,
-626,
459,
-205,
-129,
-1005,
24,
-206,
-447,
-47,
117,
29,
-1414,
-483,
1078,
-975,
-1079,
-431,
-802,
-199,
399,
-1716,
-934,
-505,
1908,
714,
-524,
-1,
-378,
36,
-1063,
112,
349,
-291,
244,
382,
-772,
-904,
615,
362,
-30,
479,
-180,
-317,
721,
1413,
-397,
-378,
-182,
33,
-339,
706,
-89,
76,
199,
-1505,
-248,
49,
-1144,
-66,
415,
-215,
34,
99,
-637,
277,
-773,
1711,
458,
-312,
688,
-638,
401,
-780,
-520,
-699,
-156,
20,
-677,
-440,
63,
1245,
-532,
-234,
567,
-386,
373,
-542,
-118,
-191,
46,
-696,
-301,
239,
-113,
14,
-912,
-735,
-400,
-205,
957,
1170,
97,
-319,
226,
45,
-318,
574,
472,
-225,
-516,
-811,
-144,
-128,
-171,
-562,
843,
0,
-1266,
373,
-362,
111,
143,
-756,
380,
-484,
54,
-9,
189,
-177,
46,
-522,
351,
313,
-241,
-333,
507,
-657,
368,
-411,
-790,
229,
253,
95,
-1267,
214,
-874,
971,
1387,
-439,
223,
17,
-608,
141,
682,
248,
807,
-310,
-818,
-325,
719,
-136,
-42,
-384,
387,
-33,
-413,
-772,
28,
-155,
-270,
150,
67,
41,
415,
3,
620,
243,
-194,
172,
-63,
163,
-967,
-187,
-718,
-972,
675,
799,
-86,
-344,
-251,
-230,
-393,
-189,
-168,
-501,
-1007,
222,
-658,
217,
212,
-552,
-160,
-47,
-302,
-414,
-445,
115,
-410,
-248,
-470,
259,
-361,
-63,
-364,
-1035,
116,
-255,
-327,
-1223,
-1002,
-640,
-267,
524,
-40,
-305,
271,
185,
115,
11,
155,
-566,
1407,
140,
-86,
58,
-236,
1420,
5,
484,
-159,
431,
447,
-35,
-292,
-480,
1607,
167,
-1326,
-17,
-18,
948,
104,
190,
-988,
-314,
-308,
-277,
-249,
571,
-479,
-885,
-1315,
57,
-1014,
-1738,
767,
489,
701,
769,
-785,
735,
-414,
-14,
-467,
-13,
1023,
93,
299,
-607,
-500,
807,
28,
-222,
-468,
348,
-228,
-273,
-157,
-567,
-819,
817,
1413,
0,
-730,
1144,
559,
-398,
2089,
59,
-473,
342,
140,
-486,
-988,
-344,
-313,
1083,
-59,
-489,
411,
-65,
-416,
157,
312,
541,
-466,
726,
651,
-257,
520,
-313,
-536,
1113,
-112,
234,
-476,
-567,
390,
-814,
703,
-741,
-963,
384,
-686,
-321,
264,
-783,
-612,
314,
80,
59,
777,
1045,
560,
136,
277,
-286,
-218,
-120,
280,
-270,
51,
49,
-1068,
132,
642,
2562,
468,
-51,
778,
335,
1049,
-653,
-115,
148,
27,
292,
-468,
-29,
-94,
-616,
-322,
-582,
-53,
-504,
1250,
350,
844,
-310,
1287,
174,
1075,
262,
140,
-369,
358,
408,
-322,
436,
-80,
-1647,
-808,
781,
505,
66,
162,
7,
170,
175,
-969,
1104,
451,
575,
-422,
1,
-398,
-76,
-724,
-14,
295,
-75,
1122,
-390,
-923,
1005,
704,
3,
-63,
-837,
156,
-255,
-411,
-428,
602,
0,
-764,
371,
-277,
-28,
-620,
-401,
-1766,
-638,
12,
536,
164,
942,
466,
-634,
-688,
-422,
602,
-587,
-489,
153,
164,
587,
-1126,
-358,
788,
992,
-22,
-663,
269,
-1244,
1503,
754,
41,
-70,
-225,
-300,
1449,
-1200,
-395,
-1121,
-975,
208,
-97,
-944,
-1365,
-1607,
-860,
94,
1491,
1325,
-484,
1317,
586,
416,
1886,
51,
-71,
-296,
-1385,
-1302,
357,
579,
202,
-96,
279,
-427,
645,
114,
-699,
-24,
1229,
-177,
663,
449,
755,
-526,
37,
-1036,
-180,
-497,
1654,
-406,
365,
-780,
-581,
-230,
-580,
1288,
-265,
134,
-537,
-1244,
188,
-1083,
196,
-428,
-234,
1125,
117,
-796,
370,
-1690,
1162,
-702,
299,
649,
-1585,
-410,
575,
-215,
-224,
-221,
-1549,
-1198,
-1382,
-1749,
936,
1068,
1916,
-274,
-473,
-232,
90,
-955,
371,
879,
1908,
-214,
738,
-869,
-1052,
2032,
574,
721,
-441,
-578,
-1015,
-461,
1935,
972,
-397,
-612,
304,
1393,
2847,
164,
-817,
222,
-1003,
-580,
815,
479,
-848,
391,
-682,
-393,
-299,
150,
-712,
-520,
373,
93,
-233,
-225,
-1531,
89,
391,
-384,
391,
1411,
225,
176,
-775,
-904,
-998,
-632,
823,
-956,
-885,
-352,
-678,
1168,
1894,
-667,
1214,
898,
822,
-611,
788,
-231,
-1049,
-524,
817,
1467,
-360,
-729,
1812,
727,
-202,
-307,
-512,
-1614,
-244,
1332,
-586,
1097,
1167,
-518,
-231,
-1050,
-771,
-69,
1955,
401,
-68,
-490,
138,
1238,
798,
-1448,
584,
42,
-1259,
-875,
-280,
-214,
-20,
294,
-292,
-490,
-501,
1283,
732,
1273,
-331,
-853,
-485,
2514,
-1061,
-174,
1408,
593,
247,
653,
-336,
-168,
468,
-81,
-47,
926,
-304,
-262,
724,
737,
-31,
-487,
-1166,
1129,
23,
2446,
-374,
3084,
828,
532,
-368,
744,
1925,
-386,
321,
2002,
659,
508,
1767,
-681,
-520,
573,
1207,
682,
-97,
-981,
126,
173,
-210,
899,
987,
-425,
-546,
1039,
244,
-1609,
154,
-543,
-547,
527,
1301,
1379,
-215,
312,
1793,
-378,
-909,
-409,
1387,
-541,
-587,
-126,
-88,
-901,
480,
-675,
155,
-1612,
-125,
-373,
-443,
222,
612,
-215,
231,
358,
575,
122,
-147,
-255,
613,
408,
251,
-799,
103,
724,
1284,
347,
-1344,
-12,
-40,
-1018,
-609,
1129,
1749,
291,
-982,
35,
55,
193,
303,
-14,
-1055,
-599,
586,
265,
-1008,
-803,
-850,
459,
-1011,
-323,
1412,
128,
996,
1562,
-1335,
708,
-784,
634,
52,
82,
-450,
129,
-208,
177,
-155,
-1903,
-23,
-380,
-158,
-253,
643,
-55,
1411,
1021,
-53,
-28,
1240,
28,
1052,
521,
713,
-1273,
-377,
-238,
-1195,
195,
-276,
159,
-676,
-601,
-665,
-576,
-1251,
-496,
478,
-499,
-230,
-199,
-616,
-833,
490,
-522,
-599,
31,
332,
521,
595,
887,
-370,
769,
-724,
-129,
-206,
145,
-150,
108,
-440,
1666,
325,
-249,
-125,
235,
-1005,
-572,
-57,
349,
-890,
-95,
-698,
-230,
-9,
269,
363,
-1293,
-452,
-435,
966,
111,
377,
159,
171,
-78,
-785,
1028,
138,
-176,
-217,
-163,
-472,
700,
-412,
902,
1151,
631,
-923,
180,
-309,
252,
-491,
-403,
710,
2015,
1839,
-1087,
-95,
-1459,
-1019,
-233,
1116,
-12,
-195,
1661,
-2105,
-501,
-893,
-282,
-846,
598,
844,
-291,
799,
-107,
-459,
484,
-682,
-468,
239,
-895,
-979,
-866,
615,
1207,
-1753,
-272,
632,
-941,
970,
311,
923,
1223,
102,
-681,
-149,
729,
256,
913,
-622,
1009,
204,
476,
-746,
714,
-863,
193,
878,
-1582,
-993,
-1156,
-1182,
-229,
63,
-203,
-711,
-83,
-812,
710,
-80,
-1176,
-335,
1103,
2112,
-306,
-1701,
321,
-814,
-432,
-746,
359,
-562,
918,
-953,
476,
314,
-572,
-850,
-375,
-489,
191,
218,
162,
-3,
587,
-438,
-558,
-162,
253,
-240,
-268,
-249,
431,
922,
235,
-128,
748,
-480,
-1920,
172,
-382,
386,
992,
139,
314,
-30,
189,
1016,
-700,
-675,
-1005,
521,
132,
556,
-506,
47,
-216,
192,
-97,
-728,
608,
-704,
-641,
-797,
1289,
1188,
-276,
-450,
-12,
-335,
-823,
-885,
-1071,
260,
-1364,
694,
1046,
-558,
-778,
306,
813,
-1072,
1738,
-410,
-249,
-415,
-327,
65,
283,
-605,
1714,
272,
79,
242,
-359,
-1235,
988,
14,
-2239,
34,
-84,
-807,
-231,
-687,
-581,
762,
-814,
-848,
140,
-117,
-995,
309,
1975,
-1373,
-261,
-1525,
-124,
-1003,
337,
-648,
969,
-1413,
-30,
-948,
-469,
-1054,
179,
950,
-416,
2142,
77,
448,
-645,
-603,
433,
-217,
-702,
-882,
353,
-1484,
-492,
264,
-144,
1288,
453,
-864,
-827,
-1166,
-886,
738,
872,
21,
-1221,
357,
-55,
56,
-490,
148,
-173,
678,
248,
104,
764,
-1496,
-79,
-351,
55,
-535,
484,
107,
-217,
-587,
-583,
392,
2065,
-207,
-652,
-162,
-361,
-252,
5,
356,
-97,
-336,
844,
-1143,
223,
343,
583,
-361,
-597,
-1048,
573,
562,
-603,
511,
351,
-463,
-574,
-2237,
-180,
-828,
235,
-1186,
119,
533,
-1587,
115,
-232,
-1466,
186,
-570,
-226,
844,
388,
-260,
-665,
729,
-476,
-1242,
-177,
864,
-1244,
821,
-487,
848,
-334,
492,
-272,
-870,
20,
-649,
-383,
291,
-1089,
604,
-875,
-52,
338,
-986,
1128,
-257,
-14,
-19,
-50,
-449,
63,
435,
-682,
-1410,
898,
-505,
1674,
970,
-647,
-251,
-235,
-1047,
-1631,
92,
474,
-455,
1531,
-739,
811,
89,
70,
730,
494,
220,
-985,
-769,
558,
153,
-117,
-388,
68,
520,
-456,
289,
519,
-958,
-398,
-384,
-1108,
1294,
-40,
-30,
-158,
-1625,
237,
1379,
-890,
-1472,
1114,
-651,
13,
107,
868,
-246,
-1137,
-282,
-748,
-252,
-312,
-627,
184,
-819,
444,
903,
-347,
-634,
-1370,
-779,
880,
-512,
-1152,
2325,
-2123,
-910,
-662,
281,
-166,
-419,
1176,
-252,
333,
305,
601,
-648,
-214,
1326,
1216,
321,
-308,
462,
748,
-962,
1100,
-385,
-349,
-834,
-490,
-620,
2107,
671,
145,
-327,
414,
-179,
727,
-568,
896,
-596,
95,
-681,
579,
-721,
331,
-1024,
801,
-769,
-627,
-852,
281,
-112,
500,
-2126,
-186,
1596,
405,
-788,
187,
-570,
664,
249,
631,
-471,
-1888,
-269,
457,
-361,
-1708,
1898,
410,
55,
178,
339,
-1051,
754,
2189,
-297,
-578,
281,
-158,
138,
-632,
-154,
370,
-810,
45,
702,
807,
123,
-383,
-1245,
-386,
38,
89,
-685,
1216,
-258,
232,
-896,
-739,
-913,
-705,
-940,
728,
-377,
182,
439,
-482,
-592,
-319,
525,
2377,
273,
-1529,
790,
1056,
580,
157,
349,
-802,
-997,
330,
-117,
-68,
392,
382,
329,
1405,
457,
-44,
-141,
-54,
-37,
881,
391,
-487,
-245,
248,
782,
-1193,
-427,
1449,
-545,
219,
1,
-343,
260,
-757,
1188,
-464,
-218,
822,
-231,
527,
-1772,
-818,
471,
286,
1822,
-1201,
-512,
-123,
-630,
1908,
587,
-406,
1030,
-604,
-675,
296,
1731,
-408,
1033,
-185,
-475,
-345,
546,
338,
-362,
75,
236,
799,
-357,
689,
442,
629,
657,
-925,
-383,
755,
-330,
-543,
-228,
-439,
-248,
1510,
110,
1064,
-757,
-916,
-577,
165,
-860,
540,
621,
34,
-252,
306,
1184,
-95,
1118,
109,
621,
-666,
51,
-710,
-420,
323,
414,
-25,
-337,
-67,
-411,
15,
-1010,
-339,
1531,
-977,
-813,
-707,
-518,
-1373,
-199,
1702,
159,
-1666,
232,
-153,
-327,
-270,
479,
-456,
-231,
-1364,
1224,
-2104,
1242,
93,
61,
-952,
778,
-91,
415,
-1146,
476,
-175,
-137,
0,
-326,
1117,
-428,
-1444,
-5,
-327,
359,
-488,
655,
214,
-630,
647,
955,
1809,
154,
1404,
1082,
-133,
501,
-293,
121,
742,
-306,
1110,
-1395,
304,
-1866,
-707,
-578,
-694,
-86,
-1104,
493,
665,
-1112,
1933,
-339,
57,
-1145,
-1028,
-467,
-255,
1380,
438,
-975,
-476,
1174,
188,
-376,
-1271,
-958,
1580,
712,
-1056,
205,
-108,
-91,
76,
-527,
642,
-55,
804,
-538,
419,
-14,
519,
808,
717,
447,
270,
60,
-67,
197,
24,
325,
-414,
496,
-563,
681,
-483,
-269,
-271,
-122,
434,
-235,
438,
993,
-797,
-53,
-522,
-122,
662,
-688,
-439,
803,
-608,
-70,
462,
1257,
343,
309,
186,
459,
-2412,
365,
199,
523,
971,
-948,
-42,
-81,
-781,
560,
1605,
-575,
-143,
166,
-589,
371,
43,
454,
-618,
-249,
162,
631,
734,
-144,
-73,
314,
-18,
425,
501,
-620,
-1415,
251,
426,
350,
779,
737,
67,
75,
438,
-351,
-81,
854,
-565,
-159,
1702,
-294,
716,
-147,
85,
-35,
123,
-23,
251,
-252,
-347,
88,
294,
-104,
-919,
338,
-737,
427,
47,
-339,
56,
-121,
-90,
799,
-432,
-692,
593,
496,
-143,
-399,
-1248,
-291,
-702,
105,
-653,
80,
435,
-461,
-391,
1577,
1221,
-613,
-752,
-322,
229,
-258,
-58,
545,
346,
1174,
-187,
-64,
-598,
-243,
168,
354,
-41,
1320,
733,
-778,
-489,
-352,
-427,
-137,
675,
91,
95,
-939,
-919,
-131,
239,
-984,
186,
653,
590,
-272,
413,
464,
-857,
-829,
894,
-1060,
-137,
-492,
-1856,
-1996,
-88,
-648,
-474,
358,
123,
1449,
-292,
-988,
-1074,
1521,
304,
186,
250,
-33,
-909,
211,
324,
978,
-256,
645,
-262,
-385,
-296,
-682,
-112,
80,
-517,
-82,
787,
-129,
263,
257,
-739,
558,
-1415,
1082,
-83,
10,
-1172,
642,
1053,
322,
261,
-347,
169,
106,
677,
-153,
657,
-378,
463,
-1163,
-546,
318,
-560,
271,
-370,
-123,
-593,
-1001,
-98,
-5,
1002,
792,
697,
1080,
-263,
376,
-527,
-82,
-575,
430,
-885,
1101,
195,
481,
282,
169,
-251,
-453,
-19,
-366,
481,
154,
-818,
1583,
377,
-481,
517,
-314,
-1597,
-145,
157,
-700,
-440,
-1716,
-358,
161,
-1028,
-956,
339,
378,
-1488,
-168,
-1023,
15,
-634,
-1034,
-1133,
-202,
1943,
-392,
129,
-108,
-445,
72,
-71,
-36,
-359,
39,
-409,
-1289,
514,
-1153,
381,
654,
827,
310,
-637,
662,
105,
630,
75,
223,
-281,
-75,
-484,
-938,
897,
-178,
498,
-518,
-186,
-1603,
796,
710,
100,
-968,
888,
-536,
-92,
-619,
-786,
280,
482,
507,
484,
1008,
-8,
-515,
-120,
550,
-893,
925,
-668,
-1328,
788,
504,
-71,
170,
-658,
363,
125,
111,
-1090,
-559,
1192,
1146,
556,
935,
-666,
-617,
725,
-945,
253,
699,
-42,
1131,
-556,
651,
760,
-639,
48,
742,
-399,
763,
184,
1082,
175,
-350,
-575,
175,
-853,
-305,
-209,
-258,
-692,
-263,
-115,
553,
-186,
-977,
377,
-229,
2157,
-98,
292,
918,
-76,
54,
-132,
-477,
1144,
-111,
-733,
520,
-872,
628,
-197,
-834,
-37,
271,
700,
-1248,
2211,
-1297,
-769,
89,
706,
2287,
-663,
-1937,
-105,
-516,
-1294,
192,
85,
10,
1055,
1205,
-1450,
751,
-371,
-6,
-194,
172,
-314,
-1182,
373,
-1191,
1539,
-230,
121,
709,
-157,
1052,
-328,
396,
468,
613,
-239,
-814,
-782,
191,
655,
-469,
760,
888,
-955,
-286,
-1328,
-373,
-330,
-463,
-295,
1046,
-1104,
302,
-2186,
296,
1971,
194,
112,
475,
-687,
-1197,
-588,
-191,
-883,
1504,
-1977,
621,
1654,
-1477,
386,
-479,
-727,
72,
-681,
-1265,
-1773,
-1902,
-1180,
-267,
-846,
672,
-550,
93,
42,
-1238,
-1235,
22,
-1336,
1482,
-241,
-607,
476,
750,
-102,
-603,
-938,
438,
1688,
421,
828,
-851,
-600,
1751,
68,
-1999,
209,
111,
-713,
1507,
892,
2647,
212,
-542,
643,
-744,
76,
-715,
-357,
113,
-24,
768,
-691,
-27,
-874,
-268,
1800,
-143,
-23,
761,
-824,
-347,
-587,
-347,
-372,
-10,
451,
994,
-656,
74,
801,
256,
-1010,
-1281,
7,
-843,
1089,
694,
-417,
1797,
-250,
525,
875,
-1348,
17,
1001,
-426,
1341,
-359,
308,
-287,
-234,
302,
-334,
-1026,
299,
385,
68,
-68,
-1424,
1015,
1212,
-7,
-939,
755,
873,
392,
31,
-400,
-1211,
-801,
1425,
1011,
-926,
257,
-564,
303,
-603,
654,
-1128,
1327,
-431,
227,
883,
66,
-164,
-23,
-144,
-6,
-467,
388,
-746,
61,
-403,
-325,
-71,
-96,
-763,
729,
-1255,
485,
-266,
-1087,
1072,
-831,
-355,
185,
81,
-414,
-927,
-627,
-199,
-672,
-1593,
-1977,
-1396,
855,
106,
-499,
-1304,
493,
197,
112,
374,
-1528,
277,
118,
423,
-1259,
-221,
229,
494,
-791,
-410,
399,
331,
-551,
257,
168,
687,
125,
557,
-693,
493,
-374,
-70,
99,
-1694,
-135,
1904,
-462,
-336,
-213,
-152,
20,
-421,
832,
476,
209,
112,
-359,
901,
205,
-512,
-483,
1864,
-869,
19,
175,
310,
541,
193,
82,
-738,
193,
-179,
628,
-1032,
209,
141,
-429,
545,
-513,
-288,
81,
473,
426,
1653,
-1076,
-1045,
168,
-678,
-37,
-686,
-2019,
-1248,
798,
55,
717,
-496,
417,
-515,
1208,
1238,
-554,
-423,
202,
-868,
694,
865,
-590,
-242,
-353,
1037,
-584,
210,
1609,
-527,
32,
-694,
-238,
-36,
950,
-468,
995,
3057,
-969,
135,
-839,
3455,
-724,
825,
-1226,
861,
-289,
-1078,
-528,
-1015,
1464,
-752,
681,
-1510,
-248,
-398,
1868,
1008,
-211,
896,
-368,
-1365,
171,
-1086,
255,
-445,
937,
-480,
843,
224,
-443,
2,
117,
363,
-87,
985,
-838,
765,
-568,
758,
-1597,
835,
-1014,
-266,
-1768,
-359,
144,
1544,
-337,
730,
392,
-620,
372,
553,
2146,
-1608,
-265,
923,
-1526,
-844,
494,
-956,
618,
307,
-1588,
-2725,
515,
220,
719,
-149,
402,
1298,
-889,
-875,
453,
938,
-621,
-880,
-598,
3,
-535,
487,
1939,
-1753,
-1071,
-256,
-1058,
597,
157,
-164,
-154,
222,
45,
1451,
1111,
-197,
-460,
320,
-351,
914,
-475,
353,
-803,
477,
-1564,
-134,
33,
441,
-293,
116,
-1043,
-555,
-1364,
151,
-1295,
-410,
1773,
353,
1781,
2087,
65,
323,
394,
-728,
705,
-1226,
351,
1928,
-671,
-649,
-1633,
-1620,
-1270,
943,
-3,
-4,
1420,
-129,
-981,
216,
108,
968,
-1939,
179,
-207,
-184,
-900,
-556,
-589,
-1187,
1634,
2131,
-354,
-334,
-410,
-309,
428,
-689,
351,
-269,
-1040,
847,
1432,
1395,
-228,
1105,
36,
-65,
129,
0,
651,
-856,
43,
-567,
-258,
315,
-422,
751,
-55,
-90,
-974,
673,
-750,
454,
-806,
-497,
-908,
576,
1040,
1642,
792,
-368,
553,
680,
212,
1280,
59,
641,
330,
387,
596,
415,
-380,
-378,
21,
-989,
759,
-49,
-341,
976,
801,
-1899,
92,
954,
-401,
-78,
-440,
-796,
-229,
1376,
417,
-581,
-61,
675,
-222,
224,
-116,
106,
-426,
-707,
-581,
847,
145,
-781,
1373,
220,
6,
-338,
-1071,
288,
549,
407,
178,
-410,
-700,
-7,
-437,
627,
-235,
443,
-306,
-103,
58,
-33,
-1580,
713,
-157,
-340,
-901,
-117,
-149,
-643,
-188,
574,
-103,
-113,
-1358,
-1525,
1344,
450,
485,
639,
481,
819,
-802,
809,
-164,
1161,
-694,
761,
570,
2592,
-318,
-304,
228,
-1191,
-841,
900,
2000,
1101,
391,
-880,
-843,
279,
-233,
127,
1036,
35,
-25,
672,
-718,
-2157,
-1252,
-149,
427,
826,
-448,
-918,
1930,
-678,
-276,
-435,
-601,
12,
-254,
-623,
-394,
450,
-519,
-559,
456,
-1575,
-1189,
703,
-372,
-353,
1907,
-291,
-136,
-2,
-607,
821,
-181,
-1105,
-8,
1698,
1578,
-557,
-1547,
374,
692,
-208,
-533,
-277,
495,
-64,
446,
351,
540,
2706,
236,
-1040,
-950,
757,
573,
-459,
348,
-792,
-1320,
120,
603,
129,
-523,
334,
-762,
507,
-557,
281,
-1462,
-171,
-716,
-538,
1048,
-921,
-1344,
662,
1459,
1277,
-1028,
-1631,
-239,
871,
578,
-946,
703,
-567,
-1827,
712,
-782,
1312,
-1937,
196,
-326,
-872,
-1701,
499,
131,
-242,
-457,
1303,
-1261,
-272,
-562,
-198,
-939,
-692,
729,
-206,
781,
319,
743,
427,
63,
33,
1281,
263,
150,
24,
-93,
534,
424,
-821,
1,
176,
-1556,
-1253,
-17,
-336,
260,
1034,
197,
1880,
699,
411,
829,
405,
21,
360,
-30,
-473,
111,
698,
46,
-317,
1373,
-195,
362,
-308,
792,
-246,
-1600,
434,
-268,
-1429,
144,
-475,
-388,
383,
-35,
-209,
551,
7,
598,
182,
794,
-590,
-552,
265,
398,
-1403,
-224,
-1417,
629,
-675,
-1328,
-55,
-93,
-290,
528,
-183,
79,
38,
-578,
-707,
-146,
1681,
4,
286,
1215,
-1190,
796,
-350,
396,
-457,
-366,
-270,
-534,
397,
12,
349,
92,
550,
1767,
-160,
80,
491,
173,
999,
594,
571,
-914,
-714,
1144,
229,
444,
-525,
1692,
407,
-839,
-137,
423,
-742,
-324,
-195,
-229,
1465,
393,
1022,
-457,
-240,
547,
573,
750,
-1411,
-1115,
569,
-330,
-138,
-207,
532,
918,
-679,
-955,
-1062,
-470,
2008,
536,
1773,
295,
199,
33,
-253,
-136,
274,
-797,
261,
-128,
715,
-452,
261,
-338,
131,
476,
798,
365,
648,
-657,
-18,
1023,
746,
-754,
977,
809,
-138,
44,
39,
-88,
-454,
376,
960,
850,
124,
315,
2370,
-122,
-204,
-410,
-6,
191,
1506,
-263,
21,
-763,
1036,
337,
-968,
143,
1126,
615,
1772,
-260,
871,
277,
-590,
-356,
654,
617,
-133,
-845,
-28,
157,
-144,
-878,
1246,
-40,
351,
37,
803,
85,
-514,
553,
-328,
204,
625,
-302,
-154,
318,
149,
-593,
445,
-488,
5,
-1014,
-514,
122,
-847,
92,
-240,
-280,
-587,
-106,
-42,
-1044,
16,
-928,
79,
-296,
703,
-978,
594,
-567,
-623,
-594,
-1134,
601,
2243,
148,
-189,
-189,
2251,
659,
1813,
333,
-1637,
381,
-928,
-858,
523,
541,
662,
238,
-516,
-327,
-1483,
295,
-374,
-491,
841,
-146,
-719,
145,
392,
561,
532,
147,
1285,
-348,
661,
504,
-341,
450,
229,
-591,
-1033,
192,
239,
224,
-455,
1103,
1116,
-812,
801,
-1083,
-1333,
30,
36,
-171,
130,
1191,
-133,
1019,
-290,
633,
189,
-140,
1631,
322,
-326,
-665,
17,
-1203,
-74,
-320,
1630,
-139,
-614,
-241,
243,
1094,
789,
56,
-501,
277,
1211,
-49,
-460,
381,
-440,
-412,
-578,
119,
1019,
-171,
391,
-120,
1342,
-452,
-514,
-747,
-694,
273,
-274,
1454,
-276,
-233,
245,
808,
-235,
-1271,
-181,
-1101,
804,
-110,
-47,
-825,
-498,
-322,
-490,
726,
-309,
-75,
136,
-170,
-639,
-489,
-53,
642,
-177,
-347,
150,
159,
402,
52,
1053,
385,
449,
255,
181,
-53,
248,
-424,
24,
-287,
-52,
272,
-50,
-476,
195,
-98,
1085,
828,
-5,
242,
759,
-808,
-604,
77,
661,
-147,
-344,
1266,
-380,
1310,
-241,
-828,
-1318,
609,
9,
149,
725,
807,
-797,
702,
1204,
-270,
828,
-757,
-84,
205,
1042,
-737,
-210,
-900,
139,
-514,
-457,
197,
433,
163,
452,
197,
244,
-1060,
121,
-448,
-720,
-823,
234,
1841,
-551,
193,
-36,
-633,
-958,
876,
-961,
-605,
1900,
-253,
-289,
1423,
-378,
-1382,
-1865,
-796,
157,
701,
-632,
-1029,
1103,
1752,
2264,
-930,
-901,
332,
241,
-1211,
-319,
-1364,
-1179,
-1044,
-2296,
-1084,
-1002,
-653,
-474,
-1136,
-82,
383,
26,
-922,
789,
-1454,
-1072,
93,
-410,
-401,
715,
-152,
463,
-706,
-1328,
-446,
-1777,
-630,
-35,
-1194,
-111,
-150,
-828,
-369,
1296,
581,
1606,
-269,
516,
432,
2287,
1001,
-571,
-1069,
224,
773,
361,
-1372,
936,
1230,
1509,
-622,
287,
181,
435,
-898,
590,
-740,
2890,
-473,
115,
1241,
56,
1194,
54,
-1451,
-1320,
-129,
1438,
-467,
-506,
-1122,
-530,
-1130,
660,
-389,
-830,
-601,
-127,
429,
-659,
320,
-2886,
-657,
724,
1008,
176,
-292,
-62,
-185,
-673,
1523,
665,
-686,
-588,
267,
-96,
1459,
814,
-490,
191,
525,
487,
-266,
-608,
-208,
-95,
-632,
2271,
-907,
812,
88,
-1369,
1246,
-249,
-1263,
-349,
-1089,
189,
421,
-317,
97,
-1560,
-197,
-206,
402,
-557,
2940,
-1668,
-368,
-209,
-337,
830,
1215,
54,
-1348,
-398,
601,
-460,
-283,
629,
-666,
2102,
-130,
34,
-110,
-87,
-458,
112,
-305,
31,
-319,
257,
546,
-88,
-499,
-161,
-493,
-595,
-1198,
528,
-593,
-302,
-580,
-123,
-238,
414,
-1076,
-594,
-1060,
-408,
-262,
-1128,
133,
-1701,
-1778,
1408,
1121,
-1533,
521,
-449,
254,
465,
-621,
-93,
158,
-286,
-575,
-974,
187,
370,
266,
615,
922,
1327,
1097,
-161,
-700,
2760,
273,
2219,
-971,
736,
-916,
828,
618,
470,
414,
-1370,
-545,
-618,
72,
435,
-1176,
1052,
-277,
-208,
-392,
-575,
-781,
1013,
-959,
355,
-312,
-857,
-91,
-249,
-1519,
-880,
-11,
-143,
1237,
-621,
-1167,
-138,
-1447,
509,
-1670,
-683,
-293,
-398,
-544,
537,
-8,
-1923,
-1141,
450,
2239,
-870,
764,
-1215,
1774,
-97,
-1344,
-850,
908,
295,
1791,
-329,
-250,
1315,
-642,
1452,
558,
1031,
-532,
-829,
641,
-481,
18,
-634,
426,
786,
176,
238,
1500,
68,
162,
-2404,
551,
687,
963,
1797,
33,
-2895,
579,
-921,
-856,
446,
876,
438,
-1187,
-182,
769,
525,
1749,
-2237,
2251,
-310,
-335,
-1055,
-890,
-540,
170,
131,
-936,
-769,
411,
-1613,
813,
-1292,
-287,
1964,
-53,
500,
310,
-1403,
-130,
-875,
342,
1586,
-31,
-1959,
-842,
522,
-674,
1236,
-517,
69,
200,
-40,
-411,
-129,
1433,
-292,
-135,
-1173,
-1620,
2179,
1129,
-1160,
-774,
265,
1182,
-158,
-191,
-518,
179,
-40,
-1810,
169,
-281,
-1994,
873,
-955,
468,
-641,
58,
-1020,
1927,
288,
-389,
1209,
2370,
2718,
-1304,
-390,
585,
-160,
-1528,
-493,
-665,
-1775,
-1066,
135,
1675,
1378,
-279,
-1311,
926,
-106,
-372,
1562,
408,
-1365,
869,
-391,
-843,
-613,
-2008,
353,
1696,
562,
693,
1238,
1366,
-472,
2012,
-452,
1086,
-346,
1416,
749,
205,
935,
1069,
1099,
-1427,
511,
-52,
-286,
-1265,
-73,
2507,
156,
90,
-553,
-241,
-410,
1033,
-1076,
756,
1579,
319,
970,
637,
-232,
494,
-802,
-1464,
-148,
816,
58,
1179,
286,
-212,
-745,
375,
1322,
751,
-210,
395,
144,
21,
90,
-33,
579,
487,
-1430,
381,
-757,
1725,
139,
-171,
-806,
-269,
-1276,
33,
2348,
-442,
1435,
1037,
-526,
774,
-118,
-880,
-1361,
1314,
1420,
-528,
-393,
1385,
564,
-388,
-2053,
-761,
328,
17,
1064,
1265,
1185,
230,
221,
-1694,
-318,
-392,
238,
1677,
-1340,
-140,
2094,
-516,
30,
-216,
-1190,
-368,
-1186,
-515,
-1118,
-1073,
-318,
-1104,
-1274,
533,
-1037,
-325,
-268,
2717,
-755,
-1592,
-2526,
-125,
-1173,
973,
2004,
623,
-171,
-689,
547,
566,
531,
2555,
-357,
1424,
-1277,
-156,
-208,
-836,
-881,
-240,
918,
473,
340,
-942,
-290,
88,
265,
-1747,
1019,
1116,
1333,
-462,
-160,
-143,
-245,
1612,
-920,
107,
620,
-1618,
-492,
-737,
272,
-758,
-522,
508,
648,
-349,
-1104,
-374,
460,
54,
-481,
1876,
1596,
817,
-78,
215,
1601,
-1579,
-206,
-299,
600,
-488,
-607,
-165,
632,
-1320,
681,
122,
486,
726,
-605,
-2045,
271,
1958,
269,
-9,
-712,
1280,
-1487,
-149,
808,
-563,
300,
3217,
1520,
1369,
-840,
617,
98,
-275,
2287,
353,
894,
-804,
-678,
421,
-1587,
-463,
1891,
-446,
904,
-1340,
1032,
-995,
1041,
-314,
-935,
1311,
-1013,
282,
360,
-50,
721,
475,
407,
480,
342,
2633,
-51,
525,
-489,
1182,
1007,
-91,
496,
1135,
-837,
1340,
634,
-1809,
-49,
-804,
-64,
507,
524,
-1446,
1223,
-542,
-260,
-993,
2014,
941,
-1693,
-559,
693,
251,
486,
-1129,
-236,
44,
2439,
-668,
-1121,
-166,
302,
343,
-326,
-156,
-426,
387,
-1432,
-1050,
56,
-1063,
2043,
-1280,
37,
-670,
-177,
920,
213,
-366,
-685,
-544,
209,
-678,
423,
-1127,
1612,
1297,
-1190,
-824,
-688,
224,
-1574,
181,
-250,
-562,
-1836,
-141,
309,
-803,
-168,
-121,
-323,
2148,
-821,
-1030,
-1391,
-430,
-261,
1426,
396,
335,
332,
1582,
-982,
879,
435,
68,
-788,
1676,
-635,
-257,
-550,
-1034,
592,
-911,
1562,
-93,
279,
-519,
508,
-1071,
-470,
775,
-1729,
-802,
-237,
280,
826,
-1125,
-1177,
-1327,
1343,
-375,
-565,
1079,
231,
-676,
-575,
-122,
983,
30,
410,
374,
143,
535,
258,
721,
-965,
916,
-1031,
211,
-50,
-106,
-788,
1042,
436,
896,
-631,
48,
-70,
-108,
1391,
298,
-365,
-1619,
1511,
-654,
-295,
1424,
-791,
1479,
-767,
2260,
134,
-952,
1213,
-22,
-317,
844,
584,
-71,
579,
-451,
-217,
534,
-929,
-468,
932,
2174,
-783,
-612,
1163,
457,
-613,
-457,
-1202,
1041,
-1651,
-1431,
-756,
1024,
1133,
632,
466,
-906,
173,
274,
953,
-115,
248,
1122,
-1034,
171,
4,
1364,
901,
606,
-558,
653,
-384,
235,
-224,
14,
-504,
690,
401,
82,
119,
-1466,
14,
-562,
60,
152,
-1308,
166,
998,
246,
-528,
533,
-1041,
-115,
-285,
223,
2680,
336,
-238,
-162,
43,
751,
-684,
-1440,
2748,
951,
-1167,
-539,
-33,
-654,
-191,
2046,
-206,
684,
1457,
530,
351,
-1047,
158,
-719,
1122,
-1039,
1263,
-1162,
328,
-300,
-112,
-75,
883,
-942,
1083,
1945,
-1877,
319,
903,
-943,
1075,
1363,
-305,
2113,
235,
786,
744,
469,
-132,
576,
-592,
-874,
-749,
-1888,
833,
-1172,
862,
-973,
230,
-1959,
-468,
2581,
1154,
-1130,
1490,
-435,
-252,
130,
-1216,
-572,
-192,
850,
328,
528,
-397,
-89,
72,
71,
-162,
-595,
350,
95,
-588,
339,
-234,
122,
327,
460,
324,
332,
345,
1371,
-53,
-523,
390,
1487,
267,
128,
-1133,
1637,
-438,
984,
-1806,
-221,
-443,
-1649,
495,
-766,
-1133,
-1396,
-1366,
-401,
-879,
-833,
-1695,
-601,
-676,
665,
-60,
-1171,
243,
-216,
-618,
-822,
-415,
-446,
-267,
1066,
-707,
944,
-1792,
-311,
2734,
69,
-56,
1214,
-241,
-632,
994,
376,
-603,
169,
829,
689,
461,
-288,
26,
-824,
-468,
525,
873,
766,
1149,
1045,
1827,
-1519,
-107,
-1308,
79,
125,
-74,
1440,
377,
-274,
-859,
-544,
722,
179,
-1067,
-1326,
74,
183,
451,
-1016,
-404,
-1095,
-285,
-301,
-39,
-117,
-1144,
-359,
220,
-130,
160,
555,
-130,
-1225,
127,
-393,
-563,
537,
-841,
56,
-256,
132,
179,
329,
1389,
-1685,
-116,
-1862,
-787,
675,
1057,
815,
622,
363,
-428,
-186,
-65,
-796,
-544,
-449,
-793,
797,
679,
-824,
-196,
135,
375,
-404,
-1632,
-1188,
-430,
1875,
-219,
-1188,
-1270,
403,
89,
-246,
-1275,
1898,
-178,
-1624,
1338,
-205,
667,
379,
704,
-1,
-331,
754,
315,
-692,
-747,
557,
730,
-327,
-733,
-303,
-781,
-893,
31,
-607,
-838,
390,
501,
48,
38,
673,
-2032,
1202,
-83,
95,
-42,
381,
-652,
-1070,
131,
257,
639,
-1611,
-602,
-285,
-369,
-188,
523,
-900,
-1426,
-91,
-795,
-112,
-679,
1146,
-164,
-49,
382,
905,
-289,
785,
263,
-378,
386,
809,
72,
520,
595,
988,
174,
-232,
-1123,
-635,
935,
-533,
-406,
994,
-849,
1114,
1213,
780,
-1043,
-32,
276,
1285,
-1369,
-45,
-1214,
827,
-1001,
377,
-622,
1767,
-534,
-1308,
-582,
1134,
-909,
-746,
1178,
-894,
544,
9,
657,
1734,
-406,
-397,
-1008,
-954,
768,
219,
16,
-227,
210,
1244,
-1002,
-50,
-314,
810,
128,
517,
32,
1174,
1079,
65,
2075,
-702,
-271,
1871,
693,
778,
-812,
461,
-480,
199,
907,
2007,
185,
-80,
-299,
403,
-408,
222,
-482,
2681,
1276,
1307,
-781,
-505,
1004,
-152,
-2187,
-1039,
-896,
342,
-57,
-107,
1278,
-399,
-1103,
-605,
-691,
186,
815,
468,
-149,
-213,
-380,
629,
49,
2252,
-39,
-731,
941,
-329,
-934,
248,
-557,
1453,
1312,
-574,
-649,
114,
-738,
-1117,
59,
-772,
1150,
-61,
-1993,
-223,
700,
-27,
172,
-497,
-414,
2125,
-83,
296,
-788,
-69,
-1272,
624,
993,
771,
190,
141,
-259,
676,
-121,
1012,
-532,
-502,
-140,
846,
122,
-527,
-301,
-334,
-605,
3026,
-1354,
-724,
1161,
56,
1107,
-590,
-8,
-1627,
735,
172,
-169,
1830,
-334,
-1017,
-431,
-265,
-28,
-754,
-263,
2,
1117,
108,
-516,
-15,
634,
-280,
513,
1385,
-485,
-284,
-541,
698,
849,
684,
53,
-310,
1090,
-1394,
-685,
301,
-2,
-420,
-294,
-353,
-696,
-195,
-175,
-165,
325,
-115,
-629,
403,
591,
-1086,
-44,
-891,
1976,
424,
1398,
2003,
-122,
-738,
70,
177,
-667,
-29,
-749,
684,
172,
409,
502,
-1288,
1398,
304,
-764,
925,
-63,
-123,
1993,
-1772,
708,
199,
1247,
2327,
1011,
-105,
-478,
385,
-510,
1005,
-2122,
-1064,
726,
-952,
722,
486,
-1048,
625,
-199,
-375,
-166,
63,
-162,
-448,
-236,
453,
2231,
500,
-51,
-556,
-1062,
-508,
-666,
-681,
247,
195,
-800,
-1623,
-1000,
-940,
-1346,
-1251,
-1500,
311,
1090,
-1272,
-539,
694,
436,
-212,
1310,
34,
719,
774,
-452,
-610,
-159,
573,
-150,
294,
-233,
616,
-171,
-89,
-445,
440,
262,
625,
1319,
-1116,
-915,
-466,
-1352,
-831,
-1366,
-875,
65,
-135,
-332,
-1835,
-199,
-736,
-962,
-629,
-760,
-638,
-1107,
630,
-65,
-906,
-903,
-237,
-791,
-273,
-817,
133,
-1429,
865,
347,
1214,
-1496,
-403,
368,
-979,
197,
-30,
961,
-123,
-1009,
19,
505,
-1016,
-738,
-207,
-1213,
2055,
-310,
-229,
41,
-326,
-291,
-924,
-438,
302,
-691,
-1393,
-1933,
-421,
-1125,
43,
606,
411,
-1345,
-824,
936,
-725,
776,
1473,
755,
173,
-97,
-118,
308,
-810,
-613,
725,
1594,
-235,
-51,
383,
-1817,
662,
-104,
212,
568,
-555,
597,
-481,
-41,
-455,
-91,
-220,
-478,
-682,
1088,
717,
-59,
495,
202,
-988,
-1520,
-319,
116,
-800,
29,
-284,
-1267,
-826,
1540,
-827,
793,
597,
-324,
-151,
1014,
-131,
-1131,
551,
-527,
1119,
-993,
-611,
249,
437,
-584,
-539,
-151,
1092,
46,
-643,
982,
114,
392,
779,
-1366,
-1853,
128,
139,
856,
1,
-556,
984,
931,
206,
-323,
-176,
196,
5,
-1215,
-136,
-493,
231,
-294,
325,
-708,
-1367,
-33,
64,
-563,
14,
-932,
-162,
748,
-1053,
420,
1048,
-374,
-95,
689,
66,
1790,
37,
-1195,
1187,
210,
98,
-505,
1060,
-909,
198,
-216,
-718,
-196,
-573,
-107,
542,
-804,
-546,
-435,
699,
-543,
-631,
-189,
-729,
-1744,
-287,
-868,
905,
-538,
74,
-708,
-974,
-173,
-329,
1032,
1213,
-652,
-272,
-937,
-1516,
762,
1245,
373,
-106,
-64,
1378,
992,
-920,
-889,
-122,
626,
-452,
882,
2065,
1025,
2009,
-1406,
-930,
-916,
-656,
-1085,
335,
993,
-1966,
-229,
391,
-909,
-1188,
-1680,
-449,
4,
-1167,
-88,
176,
934,
-48,
-695,
655,
328,
487,
-83,
-617,
399,
-329,
-1488,
691,
964,
-103,
248,
-558,
23,
1974,
-751,
169,
-641,
23,
-341,
-1767,
-28,
1675,
-538,
-148,
91,
535,
-534,
-758,
-64,
262,
1594,
-965,
328,
148,
-1305,
209,
-548,
1044,
5,
1110,
-889,
1310,
-171,
184,
-305,
-820,
-879,
-165,
1352,
673,
-1070,
-874,
-810,
-359,
-11,
-262,
-267,
-803,
-96,
514,
-429,
12,
-315,
2297,
-853,
1,
-32,
150,
406,
137,
624,
-594,
1685,
1269,
1376,
-134,
573,
-103,
291,
-1376,
-244,
126,
94,
-311,
296,
-670,
794,
209,
-1233,
-100,
200,
1128,
216,
-195,
392,
-767,
288,
-290,
-700,
1650,
-1559,
-497,
-1014,
-540,
641,
168,
-399,
-316,
-942,
-13,
-241,
251,
-679,
-938,
-923,
-792,
-757,
-267,
-63,
-647,
667,
53,
-197,
-744,
136,
-339,
921,
-864,
813,
-427,
-1540,
-45,
-359,
-72,
-311,
-1686,
-526,
498,
521,
105,
-289,
-826,
-388,
1926,
326,
-359,
443,
-195,
-846,
9,
-550,
1342,
-262,
-1060,
-51,
178,
-1937,
-530,
59,
-228,
-409,
1666,
-1782,
542,
-371,
-717,
-1186,
-811,
-184,
-1288,
1682,
-354,
-208,
1382,
-95,
628,
-720,
-1595,
1066,
123,
-50,
605,
-531,
-437,
1514,
81,
-425,
965,
-676,
922,
-191,
-621,
72,
-604,
-202,
-48,
-1086,
189,
-556,
-801,
-124,
-617,
-836,
402,
141,
-555,
-153,
1614,
-72,
2042,
714,
693,
-864,
1622,
-879,
-517,
918,
4,
-1012,
219,
-649,
-165,
-498,
-5,
351,
2156,
224,
1261,
452,
785,
35,
1435,
57,
-404,
904,
63,
-945,
-620,
-164,
107,
-1242,
191,
-401,
357,
-452,
-124,
-2828,
-974,
-1031,
319,
1900,
-285,
-321,
354,
569,
1482,
117,
-921,
451,
-611,
1911,
-738,
-315,
-712,
548,
-633,
355,
-183,
-122,
-1853,
-483,
-355,
-42,
-1042,
-144,
1382,
-925,
-864,
-266,
749,
-465,
-425,
-386,
1028,
188,
-166,
-662,
603,
433,
1453,
661,
-587,
-227,
126,
-582,
473,
-583,
1802,
124,
-850,
-287,
-1274,
404,
-286,
-671,
383,
102,
-1127,
-167,
301,
274,
679,
127,
676,
938,
433,
-431,
-460,
-1028,
-946,
1115,
2855,
1919,
1030,
763,
1107,
2403,
-398,
153,
901,
56,
768,
-425,
197,
2014,
-985,
1019,
-686,
935,
-1128,
-1036,
-79,
242,
-370,
1201,
-155,
-222,
-240,
-1192,
-2075,
738,
1962,
-43,
-271,
772,
-807,
-401,
-358,
-314,
-852,
874,
563,
798,
-649,
-551,
1101,
-510,
-409,
269,
1287,
-275,
-450,
84,
246,
218,
-574,
-206,
-124,
-239,
-132,
-814,
1092,
-436,
238,
1062,
-318,
-1066,
192,
-1542,
358,
148,
280,
-714,
970,
940,
238,
-224,
2368,
63,
411,
55,
93,
-20,
257,
-483,
203,
-1028,
-197,
483,
-1583,
771,
-753,
602,
958,
272,
169,
208,
-661,
-172,
76,
-1787,
742,
-232,
-561,
447,
-182,
-35,
701,
-293,
499,
501,
-159,
123,
182,
1364,
121,
768,
-282,
554,
-526,
582,
-236,
373,
1553,
-113,
-1445,
55,
1234,
592,
-446,
1123,
1686,
-102,
937,
97,
-1799,
-432,
771,
208,
105,
-1515,
-165,
-430,
809,
-365,
295,
-483,
-605,
-1175,
-774,
1457,
807,
2788,
202,
-568,
171,
-213,
-500,
-677,
-1095,
-422,
-19,
70,
-447,
-1459,
308,
398,
-435,
329,
349,
707,
1093,
-1235,
565,
591,
876,
267,
961,
188,
-70,
-403,
207,
-298,
-621,
155,
65,
755,
-1491,
6,
93,
316,
150,
-871,
-392,
52,
-675,
385,
-396,
1,
-95,
60,
-69,
855,
872,
-798,
1153,
-721,
-1098,
-688,
584,
-1820,
-94,
35,
1124,
31,
-274,
-619,
-432,
-874,
-760,
-1123,
979,
-235,
-147,
1186,
209,
-346,
-110,
-1052,
-703,
-314,
-210,
-761,
-62,
654,
31,
-602,
142,
-169,
-1819,
-135,
796,
376,
578,
-1454,
586,
92,
-326,
1985,
-91,
-931,
65,
260,
21,
1310,
-264,
-717,
1412,
-179,
-167,
-804,
327,
826,
867,
-559,
324,
263,
-1507,
594,
-1021,
-199,
7,
-361,
-107,
616,
-533,
228,
-91,
-104,
148,
-1032,
-1337,
-1401,
955,
-1187,
238,
54,
658,
-403,
-767,
968,
-826,
1421,
1058,
-517,
-12,
1499,
-63,
-107,
-665,
488,
429,
-86,
-103,
-783,
-440,
-189,
883,
660,
-130,
378,
-554,
-1260,
-1164,
-218,
214,
435,
531,
-598,
2281,
-478,
161,
63,
-52,
365,
1144,
-1349,
-975,
159,
1150,
648,
495,
-928,
401,
-336,
-10,
-912,
-500,
214,
-344,
815,
1623,
-612,
-101,
-476,
-1408,
-1101,
-374,
-196,
-481,
-344,
-677,
457,
-993,
-309,
-1018,
1382,
-686,
965,
265,
997,
-92,
590,
-665,
-1891,
-216,
-211,
-433,
-1782,
-388,
-237,
3366,
-960,
-712,
-988,
-69,
-230,
1485,
150,
-135,
-593,
964,
-484,
345,
-647,
-612,
-1357,
1215,
-39,
305,
-704,
-361,
-334,
-122,
-1064,
-1155,
1085,
723,
-992,
393,
788,
1321,
286,
-121,
61,
-110,
-281,
1545,
809,
4,
112,
-654,
-432,
-23,
166,
-1805,
-927,
338,
-369,
-28,
-361,
-179,
-1059,
-1385,
-455,
724,
-1133,
-92,
726,
9,
1197,
-609,
-493,
1398,
-398,
-1049,
-246,
1313,
-938,
418,
-919,
163,
1570,
245,
92,
-838,
-717,
872,
19,
873,
36,
114,
777,
-684,
992,
-936,
-275,
1286,
981,
-663,
-601,
674,
-117,
-20,
-312,
-936,
-1464,
89,
1745,
-673,
489,
-224,
-887,
-431,
679,
-724,
166,
-602,
-870,
-102,
559,
-1280,
645,
596,
-747,
-2007,
-888,
487,
-212,
-293,
-848,
-251,
-596,
-1208,
32,
237,
-108,
-857,
1785,
643,
631,
-1078,
94,
-1673,
463,
-601,
-379,
992,
253,
428,
694,
273,
-328,
-519,
-1446,
792,
-373,
1939,
76,
137,
190,
615,
169,
-532,
-631,
-187,
-645,
650,
589,
-110,
-168,
1283,
121,
1040,
-277,
1056,
978,
2718,
-1067,
-808,
-1123,
959,
-324,
44,
-1171,
-174,
1896,
43,
632,
1723,
1076,
62,
-121,
-245,
-169,
-1179,
-341,
601,
0,
1240,
206,
-936,
601,
182,
886,
-869,
-341,
-901,
789,
720,
-1281,
308,
986,
1192,
21,
525,
-875,
779,
-779,
-562,
-93,
-542,
-564,
-345,
-450,
-509,
-275,
976,
-220,
-814,
-1034,
849,
-307,
167,
565,
606,
91,
9,
-614,
-518,
1811,
287,
520,
-844,
48,
443,
-532,
-278,
181,
-33,
819,
718,
-1515,
-217,
1484,
149,
593,
284,
771,
-1222,
-161,
474,
548,
-250,
-188,
1634,
212,
-271,
296,
-1530,
-194,
874,
1249,
-360,
-1101,
522,
682,
-696,
912,
-431,
-179,
-667,
-538,
-447,
-110,
-299,
999,
-82,
-327,
-526,
-1008,
-302,
260,
-1029,
-425,
482,
-836,
714,
-862,
101,
428,
-494,
-1404,
-515,
393,
741,
-409,
291,
-390,
525,
-533,
651,
822,
-624,
83,
-831,
-312,
-371,
-367,
-70,
889,
34,
-323,
-1470,
649,
-127,
-698,
-1107,
-132,
-247,
-112,
-258,
428,
-979,
315,
-100,
67,
-1074,
290,
-612,
667,
373,
-505,
-515,
367,
620,
93,
400,
78,
-382,
-810,
-77,
-369,
-671,
-85,
10,
-991,
933,
-65,
2854,
-704,
205,
992,
124,
417,
-210,
-535,
478,
1711,
1227,
404,
97,
-96,
-1286,
-314,
-133,
-633,
24,
-723,
1432,
423,
339,
-308,
1103,
-78,
-379,
-253,
956,
-208,
-67,
-721,
264,
766,
-214,
1079,
-365,
53,
-905,
1099,
-784,
1336,
-38,
1485,
-584,
-202,
333,
-920,
-346,
1337,
-409,
-526,
746,
1061,
-635,
-757,
326,
-583,
-462,
1298,
149,
-95,
-227,
1163,
537,
54,
1462,
2532,
-527,
403,
-187,
-632,
682,
-1044,
-256,
20,
89,
253,
-2064,
1030,
584,
-1212,
-746,
2231,
-198,
688,
116,
630,
-35,
410,
232,
-1236,
198,
-108,
4,
91,
1304,
361,
440,
325,
1207,
200,
-281,
-890,
-83,
-366,
90,
661,
1742,
-869,
823,
160,
-282,
-1157,
-1062,
-642,
-778,
495,
278,
208,
370,
420,
72,
-1415,
-655,
-396,
380,
-801,
-434,
-960,
-1958,
-1440,
-317,
-82,
644,
832,
-144,
-127,
-1185,
-638,
-75,
218,
-1413,
160,
721,
-293,
-401,
-598,
9,
364,
-198,
-444,
-169,
-1308,
346,
43,
-404,
-692,
1388,
1277,
178,
-1021,
862,
-1080,
1368,
254,
829,
9,
-1036,
-822,
757,
47,
-1746,
-445,
-1255,
322,
-515,
298,
-83,
-1442,
-317,
63,
136,
260,
-364,
484,
-396,
-1043,
308,
913,
-348,
113,
429,
-215,
725,
-1017,
669,
-72,
-208,
-272,
-891,
-955,
785,
154,
-133,
-1285,
-226,
-764,
246,
761,
-1886,
-716,
-682,
-799,
196,
109,
926,
1577,
-593,
-1164,
107,
347,
134,
-158,
-126,
187,
-761,
1339,
-816,
87,
-541,
-136,
-456,
-82,
-1246,
390,
-1412,
-697,
106,
360,
664,
-922,
-191,
24,
-1046,
679,
-837,
908,
-2014,
1773,
-766,
-333,
-151,
-553,
-320,
628,
19,
165,
-1031,
-479,
1711,
667,
-25,
-943,
92,
-714,
-308,
2229,
-33,
123,
976,
9,
-476,
1422,
-520,
-1110,
952,
377,
-1842,
-2435,
-211,
-24,
1714,
406,
-1528,
-656,
-446,
364,
-1828,
-6,
650,
-680,
-159,
-674,
-650,
251,
368,
-1233,
-807,
763,
8,
-605,
494,
55,
-440,
71,
729,
-203,
-633,
1666,
-1185,
-163,
-134,
303,
2025,
-265,
91,
-307,
-719,
366,
-336,
329,
314,
-793,
-589,
-424,
-556,
361,
-2329,
-429,
1158,
244,
426,
1058,
-19,
183,
224,
-673,
-643,
-348,
54,
-80,
97,
-2249,
1031,
619,
-460,
76,
119,
914,
-1415,
-855,
974,
-676,
-742,
-577,
-298,
1165,
1765,
-331,
-416,
770,
-892,
230,
-938,
-364,
317,
742,
516,
-214,
-369,
-558,
424,
-16,
694,
-155,
-592,
-1517,
-1001,
-273,
-644,
-883,
354,
307,
-133,
-683,
-102,
149,
479,
-1329,
-862,
577,
-333,
-936,
-747,
-579,
625,
836,
-315,
131,
608,
378,
-353,
-259,
50,
-450,
-280,
561,
-856,
-536,
-418,
-618,
216,
123,
-1076,
-533,
1005,
172,
-981,
219,
155,
-95,
1050,
95,
546,
-502,
-484,
40,
-851,
623,
-966,
-911,
163,
-735,
-294,
335,
1053,
2133,
-2341,
-104,
-79,
333,
228,
-74,
866,
264,
-397,
495,
-280,
-314,
-574,
311,
199,
-786,
-492,
-59,
-124,
918,
208,
-1233,
-352,
1943,
-517,
397,
1420,
-577,
-130,
377,
9,
-85,
392,
-182,
245,
-1636,
-304,
1399,
1118,
-1770,
1803,
-775,
-420,
-304,
932,
969,
-335,
-1261,
-164,
-515,
-28,
-431,
-876,
-1959,
1,
630,
-223,
840,
-190,
605,
-1557,
-1027,
16,
938,
-636,
735,
447,
198,
-2071,
1681,
155,
0,
-13,
572,
-451,
-447,
169,
-597,
63,
125,
-226,
256,
877,
-223,
-209,
585,
706,
-1127,
1050,
-859,
-1029,
-122,
1050,
-95,
-500,
-80,
-376,
-883,
1904,
-232,
66,
249,
234,
690,
84,
411,
-79,
235,
-983,
486,
-126,
-925,
414,
-183,
-302,
1502,
-2045,
384,
-1,
-528,
390,
1057,
-1251,
87,
-580,
-404,
745,
278,
-137,
-1246,
-170,
110,
1113,
-329,
90,
-195,
169,
66,
379,
-918,
-873,
-892,
576,
-805,
1100,
-1107,
-1147,
-77,
375,
-164,
562,
-675,
-960,
-183,
-323,
49,
-292,
-295,
-587,
261,
847,
744,
-507,
-577,
282,
3,
-442,
-864,
-907,
-287,
-506,
-980,
-989,
978,
-485,
583,
456,
402,
-213,
-461,
787,
-1119,
1597,
-410,
-996,
-104,
-552,
-352,
796,
318,
-250,
-1767,
-207,
404,
379,
-1962,
667,
-1601,
515,
-267,
864,
875,
521,
-1218,
180,
-117,
-163,
877,
-228,
268,
128,
-1161,
-826,
877,
-1230,
-504,
-284,
-109,
2142,
80,
-676,
867,
1542,
-531,
-1206,
-1120,
-337,
-668,
-24,
-456,
-298,
981,
942,
670,
-250,
398,
-738,
764,
-152,
145,
498,
1313,
-96,
-131,
200,
-680,
-726,
2259,
6,
-8,
-587,
-343,
-446,
320,
-152,
239,
-797,
3083,
-1587,
1312,
-728,
-113,
-1239,
-270,
-93,
88,
98,
552,
286,
-533,
-89,
68,
237,
-380,
-745,
-1187,
-866,
899,
254,
-275,
843,
36,
1651,
2023,
469,
-472,
122,
-1821,
-54,
523,
-25,
-332,
-1240,
2,
-110,
652,
288,
-44,
276,
546,
-216,
146,
759,
-482,
-342,
507,
594,
-500,
456,
786,
145,
589,
-1082,
696,
-563,
441,
889,
-242,
-118,
278,
-676,
-130,
843,
839,
984,
-375,
-1389,
-172,
-90,
-158,
351,
524,
1608,
439,
-350,
-456,
-62,
-517,
134,
-1791,
1916,
-889,
-963,
-519,
-1008,
22,
-188,
-156,
717,
226,
-472,
-494,
-894,
837,
-398,
447,
-339,
1807,
675,
-1504,
112,
-649,
-599,
562,
-839,
-512,
-672,
-1696,
-427,
-564,
588,
113,
-375,
-749,
-427,
1301,
-1175,
-1066,
126,
745,
826,
693,
725,
184,
156,
426,
419,
-770,
427,
-747,
-1144,
-1683,
-1649,
-434,
314,
194,
-391,
648,
182,
-117,
976,
2501,
-270,
-957,
11,
208,
-149,
463,
-286,
-538,
20,
-250,
714,
-17,
-1285,
-1117,
-435,
690,
-930,
-272,
-302,
914,
281,
-333,
30,
-2309,
-926,
122,
668,
-906,
418,
284,
-363,
-1005,
786,
-326,
112,
41,
-524,
-1052,
-686,
298,
414,
669,
-1282,
-425,
-268,
-747,
938,
430,
-286,
655,
7,
-138,
1567,
97,
-768,
-203,
-196,
-568,
1077,
-1236,
-347,
401,
39,
-1087,
-491,
-33,
-361,
-595,
84,
-746,
234,
-726,
1102,
252,
-534,
-160,
179,
-94,
540,
-1112,
-472,
44,
-426,
-834,
-480,
-582,
-314,
-922,
396,
443,
-878,
125,
70,
-38,
-1631,
-1809,
443,
-54,
160,
764,
483,
-1023,
-366,
135,
16,
377,
872,
1259,
698,
1221,
312,
361,
-440,
-639,
772,
857,
98,
328,
366,
346,
-325,
-290,
537,
-89,
-394,
-424,
931,
214,
983,
-194,
474,
356,
38,
-986,
-1160,
12,
-1276,
-31,
-1541,
-569,
-646,
446,
556,
232,
663,
270,
852,
-1353,
-97,
764,
-658,
137,
-775,
-133,
52,
-885,
983,
-592,
-684,
426,
276,
-6,
-99,
-1168,
-992,
-89,
575,
-47,
-781,
-43,
-361,
99,
1566,
-290,
755,
-171,
-571,
454,
220,
25,
526,
-703,
-114,
-823,
664,
-1347,
-746,
537,
88,
-1537,
95,
1813,
352,
281,
-1284,
47,
923,
-1010,
726,
396,
124,
381,
201,
-666,
-375,
223,
16,
-913,
-1221,
-176,
-1080,
-1067,
206,
-1210,
-644,
-663,
-406,
-522,
46,
-1378,
848,
-119,
-322,
24,
-252,
-1034,
444,
-819,
-1179,
-992,
-680,
1218,
-78,
-761,
412,
-568,
1278,
-506,
-542,
-333,
160,
-86,
302,
277,
152,
1192,
-331,
-482,
-703,
207,
-161,
-428,
-477,
-242,
-391,
95,
313,
-579,
-50,
271,
-193,
975,
173,
994,
-540,
-250,
1524,
-437,
142,
913,
-765,
-708,
-543,
-394,
-524,
-776,
-862,
922,
363,
1021,
-8,
-1595,
-867,
-559,
723,
-497,
590,
-1411,
-1038,
-419,
-1659,
325,
-373,
-457,
-1219,
1129,
-122,
-738,
-1107,
265,
-501,
-200,
-39,
-381,
92,
-30,
-1156,
8,
458,
62,
-1084,
-417,
1677,
2496,
-598,
-61,
117,
-877,
-1231,
-640,
-1453,
890,
-1923,
-1235,
-431,
-120,
-469,
672,
-745,
-561,
38,
4587,
-916,
-288,
-590,
364,
-95,
-402,
-544,
-25,
-507,
896,
109,
-1624,
1094,
-508,
691,
-365,
883,
-889,
818,
-801,
-137,
223,
195,
-962,
567,
-237,
-1666,
594,
-259,
753,
-270,
26,
-425,
-509,
-397,
932,
-282,
-1436,
1438,
190,
-61,
-573,
952,
1682,
-433,
-356,
175,
235,
566,
-1366,
1694,
1783,
-178,
-911,
146,
-520,
-524,
160,
-325,
-29,
295,
-238,
-515,
-635,
-972,
154,
-1131,
72,
371,
-262,
710,
-618,
612,
-33,
402,
1180,
486,
-9,
170,
70,
-61,
-1052,
-92,
-155,
520,
-331,
-480,
759,
287,
-528,
-269,
-457,
3162,
803,
-298,
188,
-6,
481,
750,
-1054,
-1343,
-263,
-186,
1617,
-190,
27,
-278,
-518,
-1157,
641,
648,
-296,
-1692,
258,
409,
-813,
-809,
36,
-143,
238,
-729,
275,
-850,
438,
-345,
147,
579,
-472,
-207,
-1490,
-922,
-1232,
-472,
-81,
-124,
-1069,
899,
-266,
164,
392,
117,
706,
-945,
-932,
-1310,
-172,
136,
742,
345,
-673,
-331,
-21,
402,
-139,
-1016,
989,
101,
-361,
-74,
432,
-336,
-1184,
-183,
144,
-579,
-372,
-5,
-756,
-147,
39,
63,
-872,
691,
-345,
-463,
799,
-459,
-854,
190,
-966,
-1035,
-784,
8,
435,
2600,
-1554,
-424,
-258,
175,
-1251,
-496,
-621,
89,
-196,
-1196,
420,
-448,
272,
2005,
-113,
-257,
-1388,
-415,
-619,
741,
720,
632,
-473,
514,
171,
332,
683,
163,
113,
-665,
-994,
-497,
-175,
371,
-1008,
196,
1383,
-410,
-996,
1141,
844,
-60,
305,
-993,
111,
442,
-47,
-88,
861,
-85,
-21,
551,
-781,
-1915,
-675,
-904,
257,
599,
-1772,
-351,
-2,
-90,
136,
370,
590,
467,
-39,
-887,
-312,
-1166,
-1309,
210,
705,
-658,
876,
-688,
-422,
-800,
415,
-1392,
660,
-729,
-73,
-79,
594,
23,
73,
-856,
-125,
277,
-121,
-1200,
472,
-7,
-1086,
85,
447,
-638,
-391,
-104,
-1337,
957,
1261,
687,
-512,
946,
292,
344,
214,
-1134,
-472,
612,
897,
-1068,
406,
-975,
-408,
-457,
-496,
-526,
971,
-814,
389,
-381,
397,
312,
-1428,
827,
-990,
-375,
-361,
-2514,
-684,
271,
525,
-1173,
90,
-459,
-260,
-133,
-156,
566,
-351,
-1122,
-620,
-377,
-613,
560,
309,
-408,
811,
481,
102,
-1294,
-226,
198,
-690,
-1281,
-302,
1646,
-438,
-360,
1538,
485,
-566,
1970,
-831,
358,
1129,
749,
-39,
-1810,
-794,
-964,
-358,
1799,
-1556,
-936,
542,
-929,
-1473,
-744,
-369,
3314,
-1130,
-73,
177,
-693,
-37,
218,
-245,
-820,
-114,
-1364,
741,
-959,
807,
677,
-502,
-1398,
688,
160,
-26,
679,
-194,
3025,
-2817,
-335,
-1673,
-315,
1276,
429,
-1776,
-525,
-257,
-227,
-1062,
655,
-548,
-1101,
135,
-168,
-47,
-181,
1131,
1219,
-1489,
354,
56,
-756,
880,
-252,
-293,
-762,
-590,
-347,
-445,
1450,
-362,
2416,
-922,
-49,
265,
-711,
1107,
354,
-46,
-75,
785,
-442,
1395,
303,
-362,
52,
-49,
-455,
1054,
7,
282,
-221,
550,
694,
15,
-659,
-341,
136,
2497,
-168,
-731,
1083,
-606,
-131,
-1700,
-378,
794,
18,
519,
-962,
-186,
761,
-71,
1144,
-1127,
-200,
1763,
539,
-333,
-1297,
-994,
863,
1013,
-171,
-1132,
-1069,
-1065,
428,
-951,
1551,
-545,
371,
-513,
-1148,
-1122,
-1713,
-222,
-1066,
-711,
-653,
1117,
914,
334,
-476,
1025,
-512,
1335,
496,
278,
440,
-593,
-661,
-848,
218,
-378,
-1597,
2369,
1125,
188,
-775,
37,
-163,
205,
-637,
2072,
697,
4171,
-346,
767,
-1510,
778,
506,
-650,
2375,
1035,
-481,
-33,
423,
563,
-1025,
219,
-978,
-263,
-967,
127,
-483,
-58,
-928,
83,
-579,
-26,
-488,
1156,
725,
490,
-368,
551,
-1195,
115,
1718,
283,
661,
1003,
-650,
-1864,
569,
-825,
44,
-290,
380,
136,
-1252,
-1200,
1006,
-141,
-62,
32,
-429,
2322,
-40,
-924,
-292,
1723,
212,
-396,
-1177,
-1120,
-192,
-353,
-466,
2322,
-436,
528,
368,
1365,
728,
333,
-527,
-337,
-239,
-215,
262,
-117,
1137,
-691,
-774,
1933,
213,
-736,
1022,
-455,
-408,
-403,
-389,
-830,
790,
-1186,
69,
-959,
539,
-941,
-664,
-258,
1686,
-1004,
159,
1042,
-729,
1552,
-312,
-2229,
-599,
445,
1009,
-1093,
-386,
815,
-272,
-512,
721,
-183,
-510,
926,
-1929,
-570,
-978,
194,
-843,
-815,
-132,
-1419,
46,
764,
-1470,
-1731,
420,
-522,
571,
1112,
122,
-789,
-106,
-183,
-277,
667,
844,
1546,
-558,
-277,
-422,
-483,
1674,
-362,
-1196,
1175,
676,
320,
-739,
-1382,
1002,
1032,
1846,
1798,
-1031,
621,
288,
-781,
381,
-445,
-1317,
-489,
-780,
727,
394,
556,
282,
-976,
759,
-441,
986,
-720,
605,
-223,
-412,
265,
611,
40,
905,
705,
564,
-355,
-802,
373,
751,
-441,
1943,
-145,
-165,
350,
511,
-384,
-482,
-1334,
1139,
159,
-391,
621,
-168,
-996,
649,
-1450,
546,
-1463,
449,
808,
1313,
-731,
381,
-1358,
572,
-490,
967,
-1072,
-177,
100,
-1181,
-181,
-665,
-604,
-141,
43,
721,
728,
234,
133,
-267,
-8,
-1407,
-260,
726,
-36,
160,
-109,
-580,
-703,
-608,
-336,
1153,
-820,
916,
417,
-185,
440,
530,
-1046,
-254,
-94,
-912,
1229,
63,
-21,
-33,
-559,
638,
210,
769,
0,
-717,
-1239,
-465,
1563,
-917,
163,
71,
-132,
-313,
203,
168,
-408,
299,
-1216,
640,
-1181,
-805,
157,
-142,
625,
342,
-969,
833,
-656,
-1290,
161,
-32,
129,
-518,
-784,
213,
-72,
-333,
566,
60,
-697,
-376,
-845,
1,
291,
218,
-79,
-448,
-721,
-90,
407,
93,
-366,
-215,
-152,
-628,
-955,
165,
94,
-1517,
-395,
27,
-132,
-107,
21,
-1042,
-283,
-629,
2682,
-1853,
-375,
-144,
-486,
-731,
