#ifndef __TRAN_CONVNORMRELU2_CONV_0_WEIGHT_H__
#define __TRAN_CONVNORMRELU2_CONV_0_WEIGHT_H__

// tran_ConvNormRelu2_conv_0_weight
// (1, 1, 200, 200)
const int tran_ConvNormRelu2_conv_0_weight[] = {
-997,
-82,
-1709,
2748,
-2511,
1749,
-41,
1165,
-118,
-994,
2106,
821,
-1774,
-2569,
1497,
-674,
-78,
-222,
1093,
-1637,
614,
84,
154,
-1542,
-243,
-459,
-3336,
-2339,
1331,
-110,
93,
-134,
-1724,
-150,
-264,
2104,
687,
418,
-1215,
709,
514,
-483,
346,
-1721,
887,
748,
-360,
-342,
1051,
-994,
-1482,
-703,
2173,
668,
-134,
-54,
-730,
-416,
952,
-1357,
947,
1250,
-1477,
-368,
445,
1218,
190,
-1813,
5126,
-974,
765,
1064,
-50,
1173,
-690,
-1796,
578,
-669,
-2725,
316,
-1042,
-436,
-367,
-521,
1182,
572,
-2132,
1237,
-114,
-1051,
63,
-1689,
1647,
1007,
-177,
924,
-389,
-1127,
-1398,
1217,
2179,
710,
108,
-1632,
-471,
1417,
-751,
-457,
-724,
759,
1111,
-753,
-744,
320,
-1393,
2141,
-1077,
-294,
-341,
605,
-965,
-397,
1472,
2929,
-1557,
-1510,
95,
-918,
-973,
-1385,
-109,
258,
2247,
378,
-2371,
-521,
246,
-98,
-159,
668,
26,
903,
183,
-1672,
-1005,
-1254,
275,
-213,
6,
1347,
-334,
2116,
-1069,
-236,
-1973,
175,
1772,
585,
621,
155,
750,
-298,
-62,
283,
2139,
1829,
-103,
748,
1673,
210,
44,
661,
-575,
-474,
481,
-730,
-2491,
-2584,
-34,
-253,
33,
-712,
850,
792,
-23,
70,
-869,
-1287,
1102,
-1734,
-1285,
-585,
512,
-211,
-1388,
-690,
-295,
-511,
-647,
1393,
-56,
-394,
-211,
1065,
439,
761,
2686,
-1198,
-293,
-1461,
-1041,
-1497,
658,
336,
1034,
248,
-10,
-224,
-20,
89,
-43,
-175,
-782,
-727,
-343,
-199,
1686,
-556,
-998,
-351,
-1203,
-51,
-1388,
-709,
381,
-2194,
-1122,
-186,
293,
715,
340,
-1328,
-2008,
893,
1319,
-136,
-685,
263,
667,
-124,
-159,
25,
-34,
-1335,
341,
-127,
-2195,
-1108,
-1858,
534,
-827,
198,
898,
-722,
976,
-1210,
328,
-1772,
-2019,
-71,
443,
-663,
1399,
836,
-1840,
1675,
-2766,
-1959,
-1628,
134,
883,
-816,
688,
544,
-217,
1390,
-1412,
-872,
-1541,
-378,
2526,
1475,
-1170,
-590,
-1284,
-986,
-2582,
-1573,
-641,
686,
-1546,
288,
-42,
674,
-1290,
-21,
19,
558,
-352,
122,
1198,
-2238,
1573,
662,
-254,
867,
174,
-565,
-455,
684,
-350,
564,
-906,
-929,
200,
-88,
1390,
-1081,
-3461,
434,
491,
509,
-3089,
-85,
-718,
-674,
-178,
-1387,
-700,
27,
1568,
-1411,
-1570,
-2175,
232,
-1459,
-239,
-1340,
-895,
-1207,
299,
472,
-1153,
101,
-1851,
-1080,
-1037,
-163,
255,
-1053,
-1148,
-1410,
2349,
343,
1006,
2331,
-66,
-1182,
372,
2333,
-1516,
739,
-417,
138,
653,
772,
365,
-918,
-513,
-1416,
141,
-78,
-37,
-116,
-65,
33,
-1612,
2582,
307,
1021,
-773,
-155,
-57,
1319,
-377,
390,
-129,
-631,
-3416,
345,
-61,
1938,
-543,
339,
-2970,
275,
29,
-13,
-556,
-770,
-924,
-1114,
-325,
-303,
-1170,
1491,
256,
-619,
791,
-228,
1314,
254,
-209,
-672,
529,
1402,
210,
564,
-259,
-268,
897,
-1932,
-91,
923,
-2,
901,
524,
-1715,
1410,
-945,
102,
-1528,
-483,
-102,
1374,
-437,
-938,
-784,
779,
-1145,
43,
-180,
-1496,
389,
-1968,
360,
-792,
767,
-382,
268,
-359,
-100,
1687,
1400,
1313,
-873,
459,
-309,
1680,
1486,
492,
677,
-394,
251,
215,
346,
2266,
-474,
-2554,
-924,
-458,
-842,
-575,
196,
-828,
-777,
-5,
-417,
954,
57,
722,
-418,
-455,
748,
1033,
42,
-931,
92,
1705,
-386,
405,
-619,
-1107,
-241,
-1248,
-562,
1654,
-310,
464,
-1455,
-392,
337,
-1369,
1092,
177,
615,
-111,
-766,
587,
2105,
2433,
-1187,
3130,
200,
-3018,
-306,
-1249,
-22,
-1469,
460,
-226,
-598,
908,
-59,
-1175,
160,
1737,
-154,
795,
-190,
1723,
366,
268,
120,
-1543,
-1100,
491,
-1042,
654,
-44,
743,
-152,
-120,
-1021,
-247,
18,
-151,
508,
-474,
-1755,
-797,
-679,
-1878,
-460,
358,
546,
761,
-1337,
-1211,
192,
575,
-548,
-470,
-1685,
73,
400,
-909,
-856,
-1732,
1335,
-349,
161,
1230,
-1466,
20,
-134,
-469,
-270,
323,
304,
-637,
1520,
537,
73,
-1553,
242,
-1284,
-1128,
726,
949,
-231,
164,
2511,
1847,
-1272,
-130,
511,
1008,
52,
-669,
1287,
1073,
-1412,
899,
2074,
268,
-270,
64,
-711,
-2819,
-1020,
202,
-1225,
799,
1161,
-1071,
-463,
910,
-326,
-431,
-1705,
3113,
3345,
-1235,
-959,
999,
-214,
318,
800,
612,
-399,
-318,
-236,
-1704,
859,
-852,
-1153,
-289,
927,
-1224,
1297,
-791,
-1417,
-2339,
901,
-628,
148,
256,
-309,
-1363,
-308,
10,
1425,
173,
-1928,
920,
-631,
1807,
-2354,
-935,
1155,
-1228,
1484,
-2823,
243,
-417,
-1128,
-1532,
16,
-509,
723,
86,
-803,
109,
-823,
318,
-2244,
181,
365,
-2199,
-529,
-2300,
937,
2433,
358,
997,
884,
-712,
-2102,
1966,
1534,
1320,
637,
-200,
376,
2790,
-1270,
-150,
-560,
-853,
129,
375,
-2697,
420,
9,
-373,
319,
-1377,
-565,
-794,
-465,
585,
3072,
-1387,
846,
-316,
2487,
-1354,
232,
-2840,
-624,
-397,
-746,
-227,
117,
-599,
1820,
-691,
-686,
-2420,
2654,
1092,
-694,
-825,
-117,
1671,
1952,
-376,
115,
-669,
41,
-973,
1437,
57,
1141,
742,
-558,
-896,
-851,
-7,
1158,
463,
1129,
-705,
-2421,
536,
-737,
2399,
-115,
-581,
3273,
211,
-1130,
-589,
-1067,
-1628,
2375,
-144,
1521,
724,
-45,
-439,
-587,
-833,
-2123,
2318,
103,
-1955,
1744,
2071,
-233,
-502,
-664,
-890,
-1187,
-402,
108,
-1461,
650,
-2673,
802,
-480,
-95,
1127,
88,
-3223,
-334,
641,
-1874,
-1628,
-93,
1695,
-1432,
-813,
-207,
613,
697,
-456,
9,
807,
684,
-1879,
425,
1422,
-204,
-271,
-2069,
163,
48,
-1463,
-3102,
556,
641,
-1449,
-1055,
-789,
-1360,
2187,
26,
-1793,
-604,
1114,
-313,
-165,
560,
2036,
1211,
-530,
677,
-2768,
-187,
-445,
-229,
544,
338,
-762,
-220,
-20,
-997,
96,
-294,
281,
-931,
716,
-1472,
-2204,
95,
1328,
-93,
293,
714,
-252,
-509,
-907,
-361,
-385,
-1053,
-503,
-135,
510,
-268,
-161,
-357,
1237,
-434,
2208,
-251,
-946,
-589,
583,
675,
-1106,
-2883,
-679,
-2378,
1446,
-870,
-704,
-436,
-293,
742,
116,
-1137,
818,
-714,
939,
-323,
388,
-2241,
140,
-624,
-1730,
-944,
1532,
-1076,
-3103,
-1170,
-208,
-34,
1179,
857,
2228,
-537,
-199,
-675,
-939,
-1056,
759,
-815,
-918,
-384,
-2276,
-814,
-1007,
-556,
1103,
-287,
-560,
-2315,
-725,
2275,
-1585,
-912,
1330,
855,
-731,
435,
965,
947,
-1062,
344,
-330,
269,
-1412,
-132,
-513,
-675,
-752,
-955,
-2760,
-1712,
657,
-1936,
-255,
392,
134,
-1083,
1344,
198,
-2374,
524,
-62,
248,
-2415,
320,
21,
-1524,
-723,
-272,
155,
-1474,
446,
1014,
-194,
1352,
636,
-778,
-412,
-860,
806,
-88,
-1279,
-1814,
1687,
-258,
181,
198,
483,
-1017,
-1581,
-1237,
1210,
-1020,
-212,
-880,
737,
-1725,
720,
-895,
282,
-1,
-796,
79,
-86,
-115,
1244,
-227,
-106,
-735,
74,
-92,
-1148,
269,
-908,
-931,
-357,
-1257,
-848,
473,
-600,
560,
121,
-1079,
-425,
-413,
162,
352,
225,
-1645,
1034,
-711,
1007,
-1216,
1567,
0,
1805,
-938,
12,
1972,
830,
1385,
172,
356,
1512,
-1431,
694,
-1544,
1500,
1453,
1167,
-449,
-322,
1918,
2929,
-541,
-571,
214,
-1038,
249,
74,
-37,
1089,
-711,
-553,
229,
96,
710,
-223,
-1899,
-202,
-237,
-155,
8,
-692,
-406,
1550,
513,
-641,
-52,
2492,
457,
-625,
-1092,
2520,
294,
-105,
-27,
-2541,
788,
1428,
373,
-1789,
305,
1348,
-1084,
-61,
176,
-137,
-662,
55,
463,
1287,
-2244,
-1640,
523,
-159,
1624,
-1210,
111,
1216,
-20,
206,
-1313,
-283,
-988,
-359,
-731,
1169,
-679,
-211,
275,
2309,
-2051,
-1061,
-273,
60,
1167,
-78,
-1057,
-316,
-1755,
2065,
282,
-584,
337,
-879,
-2339,
-861,
-298,
-609,
676,
-1214,
-1804,
3003,
1250,
-318,
-127,
480,
283,
-835,
27,
-508,
94,
142,
-1038,
-835,
-574,
-195,
205,
-197,
-913,
-163,
497,
-1825,
940,
353,
-995,
1521,
2019,
60,
-234,
-1222,
-256,
646,
73,
1165,
162,
-1157,
-607,
1448,
20,
919,
-79,
754,
-714,
-144,
571,
1459,
-1228,
113,
-79,
-239,
-527,
255,
-3268,
-3,
337,
-102,
1004,
287,
2450,
552,
-43,
642,
1635,
-380,
1420,
-99,
-24,
-1585,
1074,
-856,
-43,
1196,
-489,
-498,
525,
211,
1171,
-46,
-1484,
1167,
292,
691,
-365,
-602,
1405,
1279,
-1117,
-1020,
1279,
-1611,
734,
-1826,
-370,
-1040,
1170,
839,
1097,
-947,
843,
-1043,
-1377,
-788,
676,
145,
-152,
-1061,
-946,
-1194,
-666,
-2127,
1025,
-94,
355,
-528,
-340,
-1468,
-912,
-1618,
-1461,
-2171,
3,
-1605,
740,
879,
-819,
1930,
-1992,
-215,
395,
-415,
1058,
1590,
745,
-293,
-977,
-90,
-112,
-934,
117,
475,
-94,
2583,
-555,
268,
172,
-67,
-1382,
2096,
-1567,
-98,
45,
-1430,
-816,
1063,
-832,
573,
-669,
-506,
-1647,
691,
-1212,
-597,
300,
-608,
-1841,
-887,
32,
-518,
1174,
-196,
-736,
-2265,
653,
-114,
1094,
-2281,
2591,
-3689,
345,
984,
-475,
258,
-594,
-582,
-2669,
476,
-1925,
-1164,
2856,
-154,
-1972,
-1191,
-138,
612,
213,
-2051,
1829,
-247,
-323,
-271,
31,
-2385,
-3151,
161,
-639,
-1319,
-371,
223,
342,
-828,
2063,
485,
-681,
2634,
81,
363,
-427,
2022,
-631,
-96,
-792,
143,
-2803,
315,
1211,
-698,
741,
28,
835,
1520,
-455,
-506,
-954,
-1083,
-160,
464,
983,
2886,
176,
735,
852,
-1275,
-426,
380,
578,
76,
1318,
437,
-1236,
-144,
-815,
665,
314,
397,
-725,
-353,
-364,
958,
-294,
463,
-471,
511,
-636,
234,
-454,
-6,
-144,
755,
-257,
-550,
458,
174,
141,
59,
-1234,
-397,
-266,
450,
-128,
-331,
-224,
162,
-137,
80,
-734,
190,
-785,
-183,
281,
513,
-318,
635,
-46,
540,
-674,
-15,
-47,
-146,
25,
-498,
1172,
368,
259,
657,
139,
387,
748,
810,
367,
-165,
-457,
-278,
-1320,
561,
-304,
512,
731,
-342,
-310,
1259,
-853,
-602,
-76,
-221,
564,
-312,
891,
307,
-433,
-4,
-174,
266,
87,
164,
767,
988,
-368,
1004,
392,
-871,
-140,
-110,
-143,
268,
-70,
-772,
-39,
-75,
29,
-490,
-649,
1278,
-51,
136,
-350,
225,
-347,
714,
65,
872,
-4,
-1932,
-859,
273,
-408,
247,
77,
166,
-662,
319,
-417,
697,
-635,
-131,
-409,
-199,
-110,
-199,
527,
-569,
-9,
-355,
-121,
551,
61,
-90,
-1157,
281,
-1009,
-78,
116,
776,
-479,
-315,
-641,
22,
-538,
354,
57,
-46,
-777,
1101,
296,
-225,
563,
-480,
170,
-307,
14,
172,
-77,
240,
471,
122,
562,
-255,
557,
-988,
866,
24,
889,
-403,
288,
994,
-1004,
293,
-303,
-781,
-1002,
273,
250,
-289,
-244,
-51,
-59,
-816,
373,
308,
-584,
175,
-8,
511,
-89,
-346,
74,
756,
-597,
-424,
320,
-354,
-180,
-652,
-2590,
-29,
-955,
-1002,
-1372,
502,
1730,
1300,
416,
187,
289,
174,
675,
-13,
-80,
1427,
1029,
-1402,
788,
1083,
-1581,
-587,
21,
988,
-1527,
606,
-1870,
-836,
1219,
-45,
-1078,
-520,
-59,
1598,
-1899,
1619,
-947,
1379,
-207,
-800,
-716,
827,
-817,
-1345,
724,
12,
187,
241,
-724,
616,
-1983,
864,
-899,
197,
-1811,
-207,
22,
451,
-293,
-404,
524,
551,
-1008,
679,
1532,
469,
-1301,
-1428,
1712,
-925,
-7,
-433,
-451,
-1689,
-1073,
-240,
-222,
405,
-904,
838,
760,
545,
-98,
-121,
626,
248,
-873,
-2113,
-1984,
-2349,
-1297,
-31,
-1512,
-678,
-944,
169,
-1996,
414,
-1637,
1123,
-1147,
-632,
-840,
-852,
-1155,
132,
-12,
-707,
485,
103,
-49,
-74,
-262,
115,
89,
-249,
324,
-698,
-1612,
2151,
-1708,
-935,
1335,
1159,
497,
-2314,
261,
-1119,
-899,
1006,
-1816,
-1390,
1321,
-1080,
-547,
-487,
-82,
-366,
316,
-1151,
1092,
-337,
-913,
964,
-832,
766,
1257,
211,
-943,
-275,
828,
1257,
-1669,
-120,
354,
1931,
542,
1338,
368,
1296,
508,
3460,
-2406,
106,
-263,
-1282,
-4275,
-87,
-1400,
1209,
290,
-1014,
-378,
-373,
-861,
-1361,
412,
-512,
-73,
-61,
496,
818,
-1875,
-1754,
-120,
1261,
-11,
-729,
405,
817,
477,
-94,
-213,
395,
-1371,
869,
416,
512,
-414,
290,
160,
-33,
755,
-994,
-317,
612,
329,
-1383,
-331,
1276,
685,
735,
-400,
170,
-935,
-1681,
-355,
-879,
-638,
-366,
-612,
-373,
24,
-521,
-711,
1427,
1514,
618,
497,
-223,
2353,
-603,
1807,
-508,
271,
1001,
-136,
1061,
-1102,
-40,
-1333,
-925,
-279,
-184,
1119,
-170,
9,
-508,
305,
470,
-551,
-252,
-1091,
68,
-825,
1438,
-811,
-86,
1988,
1214,
-1418,
2523,
-97,
-1269,
-677,
623,
425,
-430,
1943,
-267,
-1080,
-1096,
-730,
-973,
-2247,
-110,
-156,
-318,
810,
-608,
-1395,
-861,
-531,
-680,
-1175,
1733,
1121,
-640,
-488,
-536,
484,
-458,
104,
-2442,
46,
970,
-1011,
1081,
306,
-749,
-553,
-1040,
198,
-501,
534,
-21,
82,
662,
282,
-763,
-396,
-141,
-914,
-721,
-75,
713,
-83,
-385,
2255,
51,
-546,
-1085,
2393,
-197,
-851,
356,
523,
794,
-645,
353,
-508,
-775,
-898,
-796,
-451,
224,
-784,
797,
-59,
-242,
-534,
251,
746,
-930,
-889,
-232,
-74,
768,
-1652,
-487,
549,
1943,
514,
-781,
-739,
1005,
822,
-1310,
-1162,
1395,
912,
-86,
-303,
-562,
1097,
-374,
-678,
510,
1180,
2120,
-304,
1915,
345,
-908,
248,
-282,
680,
1096,
-1348,
387,
-211,
-848,
-1229,
1337,
153,
586,
-635,
-159,
1593,
-109,
1005,
944,
282,
0,
-1615,
-587,
-511,
-207,
-8,
81,
821,
-1496,
-1469,
-82,
-422,
1751,
2814,
875,
-1340,
-570,
-547,
-141,
704,
-371,
-527,
-989,
-141,
-857,
-42,
-1032,
-345,
278,
-6,
788,
-732,
-1747,
78,
604,
-1538,
-336,
-1153,
1004,
-460,
525,
1230,
-605,
152,
-2315,
-272,
-661,
1210,
-206,
-422,
956,
-1953,
-521,
-1645,
-732,
-668,
-2393,
-423,
-1167,
1316,
-113,
-368,
10,
88,
-952,
-124,
-888,
-1107,
-1625,
-8,
-2899,
-2410,
-78,
-198,
-41,
561,
-1358,
-725,
-2130,
-1229,
1086,
3592,
826,
-1705,
-810,
-1123,
1077,
-887,
2204,
-2804,
42,
-693,
-862,
672,
131,
-96,
129,
-2173,
-1795,
-1272,
-950,
1612,
-180,
-408,
-579,
-861,
-417,
-2507,
1562,
-634,
29,
-745,
477,
415,
-133,
-188,
1605,
-1345,
-2343,
443,
-487,
-142,
582,
591,
-347,
483,
685,
196,
-617,
-2121,
-296,
-1108,
877,
-809,
-921,
-117,
1406,
140,
1504,
-2136,
541,
-316,
-1249,
362,
1140,
-1764,
869,
-542,
-474,
-246,
310,
54,
-1002,
-157,
-2065,
932,
-268,
-2592,
64,
2656,
-540,
-456,
-583,
258,
325,
-944,
-1055,
692,
1355,
-1660,
-121,
-1600,
-1466,
2605,
-827,
776,
-998,
-214,
-838,
62,
1408,
-547,
-1034,
829,
-142,
-307,
-27,
-637,
-925,
1425,
-1473,
-742,
-289,
-770,
1483,
-746,
17,
1358,
-1414,
-146,
-1842,
-1671,
52,
-779,
91,
2404,
-1541,
-909,
304,
212,
-709,
152,
2380,
-1410,
1262,
816,
335,
703,
1973,
-344,
272,
453,
-956,
99,
-1144,
275,
158,
-856,
-256,
644,
1667,
-644,
2900,
-120,
-250,
-1383,
2022,
851,
-760,
1684,
1376,
-345,
-1401,
1064,
2162,
-195,
238,
1178,
-98,
-979,
-240,
117,
208,
-888,
-523,
24,
3455,
1618,
-360,
173,
335,
-101,
-2352,
218,
1242,
394,
-564,
-543,
3443,
-992,
1707,
-142,
-1271,
131,
3628,
-797,
55,
2656,
42,
1583,
-674,
-131,
1855,
1971,
854,
1898,
-724,
-716,
453,
18,
727,
2590,
180,
-700,
925,
1981,
-277,
836,
-3007,
356,
2273,
-1355,
216,
-628,
1378,
-326,
2024,
3582,
219,
-366,
-596,
-1134,
55,
50,
-664,
1233,
-1042,
-690,
3527,
1405,
553,
308,
-1325,
-532,
-1594,
921,
-804,
-3992,
-150,
2867,
-684,
1465,
-2047,
347,
-119,
1163,
-1685,
-805,
-1072,
1599,
-301,
-381,
-93,
424,
-1040,
45,
-1387,
596,
-795,
-895,
657,
940,
2261,
364,
-515,
55,
832,
-502,
438,
-2261,
-1335,
-56,
3576,
1128,
1320,
-810,
-658,
388,
-1999,
903,
246,
433,
818,
-716,
-674,
-385,
737,
-1240,
684,
-728,
621,
574,
2174,
-32,
459,
418,
355,
-98,
393,
-1103,
-1171,
586,
-774,
226,
-2024,
-397,
-835,
-938,
691,
-263,
2541,
819,
-3112,
338,
-963,
283,
-412,
266,
-313,
101,
104,
848,
-1776,
-447,
-293,
-1076,
-269,
-563,
-734,
-470,
686,
799,
-13,
-108,
54,
1397,
-1307,
-487,
-1503,
67,
-169,
881,
-86,
-1196,
-827,
-67,
304,
1092,
1220,
3206,
180,
148,
-228,
-1317,
-649,
-342,
150,
590,
933,
3,
-1759,
119,
998,
-443,
1790,
1167,
244,
-288,
-2603,
311,
920,
-1012,
1261,
55,
2200,
139,
-671,
-811,
-642,
1679,
-601,
-474,
-816,
295,
-128,
1124,
529,
-697,
-184,
85,
143,
-1621,
80,
-214,
1107,
441,
-384,
767,
-104,
340,
520,
-1117,
1711,
-947,
-554,
654,
-556,
1404,
-576,
-305,
766,
200,
1474,
1138,
-560,
-97,
-680,
549,
1292,
-156,
256,
935,
1875,
-1293,
-551,
-189,
1006,
-865,
-1287,
1382,
-356,
-1249,
1312,
-907,
-527,
-1204,
-351,
13,
-913,
-501,
1909,
-975,
1549,
-968,
-601,
-408,
-486,
-709,
1053,
2141,
1128,
-1931,
111,
2523,
221,
1935,
-365,
343,
596,
-685,
-922,
-564,
-216,
669,
-494,
632,
1634,
-82,
-546,
-1350,
123,
551,
-1357,
-49,
-103,
-46,
1004,
-761,
-1648,
-226,
-1080,
1060,
-1097,
-907,
201,
142,
-1580,
-185,
-501,
-415,
1516,
-728,
-627,
-263,
-1022,
-630,
1293,
389,
-716,
-574,
2079,
414,
-318,
-278,
678,
13,
-1630,
1458,
-678,
-349,
-1401,
104,
1324,
268,
-1042,
1209,
1510,
-1628,
-468,
75,
-401,
641,
-185,
377,
-884,
1172,
-496,
-1042,
-747,
285,
375,
-660,
258,
446,
131,
-317,
-575,
238,
-690,
919,
-721,
-590,
142,
461,
-760,
-745,
-63,
768,
818,
-842,
-438,
491,
-725,
399,
-931,
-103,
-721,
-283,
-44,
2134,
-1057,
-206,
1853,
-691,
1067,
91,
-396,
1191,
-1623,
980,
-545,
1200,
-238,
-671,
-453,
-1319,
-1535,
-372,
203,
3239,
-328,
-281,
-116,
1939,
529,
-482,
237,
-92,
-766,
717,
-812,
457,
-102,
827,
667,
547,
327,
-453,
-171,
-520,
79,
-56,
-354,
-22,
915,
-811,
-244,
750,
1102,
-530,
642,
-580,
172,
-1115,
-813,
-265,
-179,
-787,
-939,
-849,
70,
-610,
-132,
-1088,
-343,
506,
-242,
-586,
1192,
-327,
1350,
-1410,
58,
391,
-146,
-715,
240,
537,
574,
536,
-1021,
2826,
-763,
-1239,
-441,
-464,
-451,
1049,
-1304,
-2221,
-494,
650,
354,
2825,
-454,
247,
-40,
-913,
486,
583,
630,
-228,
589,
1388,
246,
904,
-756,
-1459,
0,
-255,
765,
1007,
1307,
482,
65,
-94,
-975,
497,
159,
210,
-919,
-698,
1635,
-27,
207,
-711,
1233,
357,
594,
577,
1324,
-620,
988,
-1090,
2291,
993,
1368,
203,
-1193,
-726,
129,
-544,
-616,
858,
-446,
-830,
-43,
-896,
-695,
354,
625,
274,
632,
-390,
-295,
397,
-1753,
-2598,
-1017,
-1892,
-514,
-135,
109,
1108,
367,
144,
-1889,
-79,
-87,
587,
-95,
782,
-1390,
892,
3588,
90,
-316,
-816,
-505,
-219,
9,
-537,
739,
493,
-1466,
-631,
-641,
-1492,
-1246,
918,
375,
505,
-407,
-371,
919,
719,
-2002,
-1078,
-130,
-1246,
-3,
-865,
-296,
521,
-684,
-356,
-264,
-1175,
-609,
21,
-735,
663,
-1685,
75,
1122,
180,
-769,
879,
-890,
-986,
-1577,
-389,
740,
-305,
-350,
-491,
90,
-575,
-917,
-2224,
-406,
-2085,
-1644,
427,
297,
-569,
-483,
360,
1347,
-1725,
127,
398,
-347,
-320,
424,
-1336,
1346,
-737,
-588,
-1853,
-1505,
-1589,
22,
-1190,
-1529,
75,
-1720,
-1456,
-341,
-564,
-5,
1056,
880,
-1280,
-2241,
-1203,
-495,
-285,
-1672,
-697,
-93,
-397,
495,
371,
-1062,
-963,
-713,
-1888,
687,
61,
328,
-563,
380,
-151,
244,
-1867,
-194,
-582,
-149,
-47,
-1012,
1461,
-25,
99,
-1350,
227,
-1334,
-208,
-1201,
-1244,
-1296,
-547,
723,
-2032,
472,
159,
-258,
94,
-219,
-1118,
-550,
59,
-1164,
-475,
-829,
-2763,
-143,
-2030,
-627,
538,
-1205,
245,
-141,
-626,
-265,
354,
-77,
-620,
-1412,
195,
-1301,
-197,
-949,
961,
349,
-173,
-687,
-267,
-99,
-69,
-858,
-961,
-1784,
9,
333,
-343,
93,
-891,
-30,
-123,
-337,
-835,
-399,
-1290,
-324,
648,
-280,
-1620,
-103,
-1483,
312,
989,
-340,
-492,
1216,
395,
1591,
-682,
-776,
95,
228,
-895,
-1070,
-635,
-591,
278,
-157,
-105,
-1144,
761,
91,
614,
562,
-1136,
-840,
-262,
-597,
-335,
509,
-1124,
441,
-1276,
361,
-1206,
533,
-1540,
-813,
-219,
63,
666,
-708,
487,
1776,
-513,
1288,
-195,
146,
634,
-1673,
1057,
845,
-294,
435,
26,
46,
-1564,
-771,
-1365,
653,
1135,
655,
-326,
-1429,
777,
-99,
-1572,
-385,
746,
-380,
-622,
-1171,
-284,
1083,
532,
721,
-735,
443,
17,
-290,
-168,
416,
-664,
564,
1396,
-785,
-240,
-355,
852,
-1860,
7,
718,
-777,
885,
-863,
-1003,
-636,
-451,
-1046,
1472,
-467,
481,
482,
-1137,
-681,
-1658,
426,
-573,
-486,
-38,
-882,
374,
-1095,
-611,
942,
529,
-592,
-473,
463,
-22,
1575,
-1132,
-204,
-270,
-1473,
63,
-227,
-459,
1939,
-533,
1207,
-502,
-367,
-1,
972,
383,
699,
-659,
-25,
115,
1172,
-637,
767,
1485,
33,
-742,
244,
18,
808,
835,
-339,
171,
559,
201,
435,
728,
-632,
-780,
-130,
-962,
-629,
-146,
-465,
-348,
388,
-253,
873,
74,
-537,
-65,
716,
1182,
-629,
-386,
-1177,
149,
-194,
669,
-1717,
-790,
-610,
290,
157,
452,
1864,
434,
111,
135,
-732,
-532,
-371,
825,
-884,
-476,
-1171,
672,
509,
-795,
-1517,
297,
76,
-709,
1708,
-1126,
-534,
-375,
-29,
1818,
-594,
-1740,
284,
-1194,
-99,
-599,
-688,
-286,
634,
-607,
472,
1283,
523,
285,
-727,
748,
-294,
-47,
-443,
-1052,
-343,
395,
-347,
566,
191,
502,
-1220,
659,
-1329,
-471,
-37,
-560,
1476,
-312,
-450,
2078,
301,
-2688,
-87,
-16,
-100,
157,
445,
876,
-309,
971,
-1023,
11,
-1745,
-860,
-1012,
632,
2157,
555,
-4,
-1076,
1379,
-1455,
1204,
-47,
499,
781,
-248,
-955,
896,
945,
346,
-1534,
-812,
882,
-830,
-929,
-800,
-251,
-389,
94,
393,
-583,
-467,
-768,
1753,
-1369,
-230,
160,
-1270,
893,
-486,
-965,
-311,
-849,
-647,
664,
1281,
673,
-415,
426,
-1469,
-993,
606,
-868,
-621,
346,
-1568,
-1603,
302,
-37,
838,
1058,
-1556,
-144,
1847,
-338,
1906,
-1287,
2016,
-483,
-1782,
-10,
-602,
-22,
948,
305,
-999,
-639,
408,
65,
901,
-1205,
431,
-406,
523,
33,
115,
-1420,
387,
1024,
365,
-830,
80,
-101,
-41,
1349,
25,
743,
-839,
436,
163,
-263,
-284,
-366,
-282,
-419,
46,
-1055,
-540,
1154,
772,
-441,
815,
-23,
-318,
631,
726,
2473,
-1037,
81,
-1736,
562,
-32,
-1545,
-563,
-1292,
-839,
702,
17,
1494,
-300,
568,
-1006,
-535,
85,
24,
-774,
834,
-958,
1058,
973,
1064,
-9,
-37,
-1859,
-2316,
-893,
-242,
-756,
-330,
-185,
-1697,
-1173,
1561,
-304,
-113,
-1062,
-168,
-109,
-1103,
-1215,
-136,
97,
7565,
1014,
-430,
519,
-293,
-793,
2091,
1769,
-877,
1146,
1689,
-504,
-1683,
770,
-547,
232,
-391,
75,
1172,
527,
-332,
447,
-300,
2789,
950,
779,
-446,
-469,
282,
-1268,
1821,
432,
-1043,
617,
825,
-169,
-658,
-1304,
426,
-607,
-922,
-811,
-700,
689,
-1235,
604,
-242,
-84,
851,
1288,
836,
1716,
-1008,
-998,
-399,
-165,
107,
-1047,
-328,
15,
-1517,
-652,
461,
-15,
-977,
2982,
907,
365,
1573,
-136,
-235,
-11,
-1244,
-608,
48,
522,
1074,
704,
-180,
-882,
-3282,
-1707,
353,
-1247,
-97,
449,
255,
735,
-1902,
575,
-128,
-249,
82,
-2494,
-461,
-52,
346,
1050,
-941,
3257,
38,
-3054,
676,
922,
235,
1219,
-661,
-280,
702,
-392,
-184,
-277,
-2810,
1302,
-1062,
-175,
-1316,
61,
-747,
1576,
813,
-1155,
520,
938,
-182,
-1585,
1425,
-1573,
-656,
-661,
-714,
683,
2013,
-1222,
-399,
-703,
939,
-1230,
-232,
-836,
-434,
-173,
1856,
-1483,
1107,
185,
-1336,
1086,
866,
858,
1084,
-1550,
-3084,
586,
926,
-741,
-641,
-396,
-579,
1309,
304,
1552,
-999,
732,
216,
-485,
-1060,
-333,
-1213,
-1278,
698,
393,
-20,
865,
438,
-1854,
-714,
-328,
-770,
711,
-647,
-592,
564,
-136,
108,
854,
-282,
-117,
130,
388,
1581,
-913,
-1339,
673,
-370,
-982,
-378,
-648,
-476,
-137,
-808,
841,
-930,
1050,
1103,
-619,
-68,
-1180,
633,
-1218,
-16,
-266,
-852,
-494,
385,
-402,
219,
-476,
83,
-1355,
-98,
57,
-864,
1421,
-969,
10,
1871,
-601,
324,
-264,
708,
1325,
-574,
293,
1286,
-842,
-22,
508,
-146,
-1848,
259,
-1117,
345,
1868,
1367,
-840,
-1152,
143,
-1054,
871,
-468,
1434,
673,
-1168,
-770,
544,
1260,
653,
440,
-811,
-455,
394,
-417,
-504,
-508,
696,
-54,
176,
-373,
-288,
-705,
1398,
-1838,
-23,
244,
-1350,
981,
-302,
-293,
-230,
-363,
-818,
716,
42,
309,
58,
572,
-1038,
-704,
1340,
-1394,
-74,
-260,
-1250,
294,
-1100,
-75,
1183,
784,
-767,
-1292,
2047,
-1634,
1781,
-876,
1668,
-365,
-580,
560,
-561,
-88,
1590,
31,
-1121,
-721,
-416,
-419,
-407,
-383,
85,
-536,
-84,
-87,
-20,
-1784,
524,
372,
427,
-730,
206,
351,
89,
1415,
-1222,
420,
-416,
761,
-30,
312,
136,
-320,
833,
-1529,
61,
-799,
1177,
876,
124,
620,
454,
544,
-669,
-47,
740,
1843,
-1060,
-1002,
-739,
240,
-594,
-1321,
-1634,
-1830,
-1220,
467,
-1037,
1670,
-196,
547,
-1085,
-688,
-471,
-956,
-723,
561,
-1300,
239,
1127,
150,
-275,
328,
-1161,
-239,
1179,
-1774,
-505,
-1210,
-875,
-1817,
790,
932,
675,
1753,
-85,
-516,
-446,
-156,
-510,
-798,
-184,
-1503,
-178,
-61,
1188,
431,
-503,
2155,
193,
-1323,
-293,
-134,
830,
-2609,
133,
-560,
59,
594,
1091,
-1344,
-174,
2096,
1089,
832,
874,
256,
-389,
980,
-52,
-199,
988,
2016,
-105,
-117,
-527,
-479,
-867,
959,
-854,
-431,
1329,
-1064,
397,
2276,
-245,
-790,
-2190,
-1476,
-996,
1714,
-1061,
877,
108,
478,
1628,
-658,
-1859,
2500,
597,
-186,
1141,
-1896,
-570,
35,
302,
-438,
786,
-441,
539,
1745,
1114,
549,
1985,
-3955,
-117,
486,
-339,
717,
1255,
1650,
713,
488,
1594,
-1311,
297,
-343,
-1316,
548,
876,
-1938,
586,
-1486,
-2,
3029,
-143,
-538,
-398,
-820,
-243,
625,
1032,
-795,
-1693,
-133,
1074,
-1049,
-473,
-65,
104,
1095,
149,
-858,
-1101,
-1620,
98,
-1102,
1034,
-494,
-1344,
-1091,
603,
-3052,
-325,
-1146,
640,
1341,
-1296,
-1300,
-1327,
1374,
-1435,
218,
-2361,
-191,
-1058,
139,
300,
407,
-469,
-2023,
-882,
-1130,
627,
-1680,
-1275,
-585,
383,
1112,
-1194,
114,
-40,
678,
-324,
1436,
449,
-1054,
-718,
1695,
488,
-632,
-129,
100,
943,
510,
-856,
366,
33,
-957,
-563,
-1270,
-1591,
-105,
-55,
249,
69,
67,
-2438,
-1829,
166,
65,
176,
-140,
-684,
-239,
-1163,
769,
-836,
-1347,
-459,
-803,
1057,
318,
-1679,
-1441,
324,
-163,
-348,
-96,
533,
-143,
-24,
-1130,
1093,
-515,
-842,
2293,
-1105,
-1050,
-2771,
22,
265,
-660,
-272,
1473,
-1040,
-687,
-1606,
587,
-531,
-131,
447,
-810,
-720,
784,
16,
-1013,
-240,
-1118,
1344,
-546,
-808,
1391,
2601,
-1086,
-563,
321,
-1815,
79,
-661,
-297,
-1254,
1142,
257,
-121,
-1405,
1464,
1289,
-1768,
423,
474,
-1114,
577,
1394,
65,
-46,
-192,
-432,
385,
23,
20,
-524,
-470,
127,
-104,
224,
160,
-192,
419,
124,
-209,
-208,
-455,
649,
-1117,
-456,
-632,
-1071,
2898,
212,
-454,
429,
-96,
-82,
750,
-883,
490,
114,
349,
-1379,
-1485,
863,
-455,
448,
-1593,
-1148,
-123,
-26,
-166,
330,
-714,
491,
-1719,
936,
1459,
1057,
-673,
351,
717,
-778,
865,
-133,
-389,
1441,
-892,
663,
-1025,
100,
954,
400,
-3339,
861,
-961,
-40,
570,
701,
-1124,
452,
1108,
-524,
61,
283,
-3582,
62,
-566,
355,
-1080,
-864,
-1326,
295,
-251,
-1255,
353,
-95,
-78,
-18,
-663,
-258,
-1351,
664,
340,
140,
-2082,
-1409,
543,
865,
864,
725,
393,
-653,
-1368,
-271,
-496,
-632,
-226,
-390,
-893,
1138,
703,
352,
-968,
169,
-1271,
-360,
31,
43,
1648,
1289,
465,
728,
-560,
-1344,
-518,
1361,
1008,
-433,
680,
-386,
-573,
-759,
350,
2222,
-3339,
-531,
-313,
936,
741,
-923,
766,
1000,
1262,
33,
799,
-1768,
199,
-843,
-3043,
357,
405,
1458,
-1574,
-1911,
1193,
1629,
1550,
-149,
178,
1258,
834,
275,
-488,
1242,
2228,
31,
-1046,
-1356,
-2120,
357,
1795,
-775,
554,
-203,
-404,
-2259,
603,
812,
-582,
1946,
-1669,
418,
-378,
-1157,
260,
2583,
-36,
-112,
869,
286,
1920,
1086,
1026,
-15,
2249,
-184,
151,
1450,
-395,
-768,
-1097,
1214,
935,
1066,
392,
2226,
943,
-130,
401,
409,
297,
122,
2774,
786,
-376,
1434,
1267,
1133,
1658,
151,
987,
-240,
-399,
576,
871,
995,
-194,
127,
-699,
780,
-551,
-377,
1156,
1817,
-935,
-322,
1202,
721,
658,
950,
1621,
-446,
440,
-495,
-240,
-529,
833,
-324,
1767,
254,
1271,
818,
-403,
89,
-310,
-248,
2114,
-396,
-526,
1410,
440,
-48,
-992,
168,
338,
947,
-247,
-483,
2252,
-617,
-524,
-255,
484,
1001,
735,
-1449,
746,
-598,
552,
-146,
1755,
1111,
-27,
-113,
1379,
1423,
-451,
787,
-1005,
-385,
1993,
808,
1223,
-416,
1159,
669,
181,
-273,
-774,
1398,
2810,
1813,
914,
805,
499,
105,
-510,
1463,
3228,
511,
-2145,
31,
86,
718,
-1796,
-937,
-271,
-501,
898,
1064,
-665,
-373,
-232,
748,
541,
-33,
2245,
267,
994,
-2126,
-1827,
1129,
-1599,
104,
-420,
-312,
2573,
1193,
-438,
-2284,
66,
1086,
289,
-1321,
-319,
-374,
-918,
-1223,
-497,
-1356,
-2308,
452,
-1322,
1566,
-589,
1565,
-98,
-2040,
83,
-239,
450,
-1220,
322,
608,
-675,
-1031,
686,
5164,
1094,
834,
-2374,
761,
-624,
262,
879,
1532,
-497,
-839,
1068,
499,
-1779,
68,
416,
-1665,
1066,
1289,
-952,
1692,
-1800,
-969,
-1530,
3689,
-1323,
1301,
2039,
-793,
-426,
-1338,
374,
1494,
1085,
-2774,
-641,
1909,
5366,
1792,
-654,
-1852,
-1106,
175,
-1208,
-1015,
-828,
-293,
2209,
-846,
-491,
74,
-230,
780,
462,
1905,
-1598,
999,
-509,
-1664,
-73,
-686,
-151,
-153,
682,
-174,
-407,
-588,
-2140,
73,
-198,
1613,
-1015,
-493,
-2622,
894,
-169,
-2386,
-1092,
4410,
-1395,
-113,
-508,
2024,
469,
534,
124,
-580,
-1310,
1165,
-979,
-2065,
-63,
1088,
626,
-696,
838,
385,
-345,
1286,
-362,
1055,
-10,
-58,
-18,
-225,
-120,
-1354,
-1891,
1122,
293,
-1490,
1436,
-920,
1789,
-387,
-252,
-675,
-1205,
-2425,
-676,
-1725,
701,
-773,
1761,
300,
-318,
-180,
-730,
-421,
-2843,
-985,
-294,
-1085,
-1681,
166,
551,
-676,
-690,
1051,
812,
-509,
-931,
-290,
204,
-1365,
-143,
-2428,
-1139,
-1405,
-513,
-78,
1262,
-171,
-1412,
1800,
-184,
-354,
606,
482,
-429,
2629,
-894,
1,
-2208,
-705,
-211,
4121,
365,
-67,
255,
734,
-197,
499,
106,
67,
1006,
2804,
-293,
-618,
405,
417,
-721,
-376,
840,
187,
-226,
-354,
-592,
542,
-435,
-26,
-1434,
603,
-1111,
-740,
-422,
742,
1225,
3416,
2185,
-458,
-725,
-1735,
1728,
732,
359,
-463,
-1224,
-488,
-390,
-643,
-1122,
-1794,
-489,
400,
-2592,
-1745,
-1299,
1801,
-1176,
-307,
-2962,
-584,
424,
-834,
-1732,
-321,
363,
68,
1174,
-610,
-702,
-990,
-350,
1175,
618,
-1715,
-1458,
566,
566,
-630,
535,
-94,
-1867,
381,
926,
757,
-1038,
443,
-1362,
-695,
-300,
-1071,
-531,
-2077,
-1132,
-1570,
-1149,
709,
2336,
-47,
498,
-1335,
-965,
-215,
-757,
-775,
-628,
559,
1085,
-2079,
372,
295,
42,
-1249,
-147,
393,
-1404,
-2800,
711,
-1327,
-584,
-2901,
-604,
-343,
-480,
-2048,
-46,
-3542,
3945,
3278,
-78,
57,
601,
-1074,
-222,
-737,
-1555,
-534,
-1630,
-470,
-306,
-472,
1804,
1218,
1692,
281,
2213,
203,
-1185,
-861,
418,
471,
-2103,
-291,
-1274,
-704,
-542,
-611,
-2101,
-477,
151,
-479,
900,
-389,
-200,
-529,
-2435,
-2033,
733,
-456,
-635,
-2010,
468,
1470,
-687,
1386,
-766,
-316,
3072,
89,
-190,
1590,
-294,
657,
-634,
-66,
889,
351,
-590,
-974,
-1099,
67,
-247,
1313,
-461,
-376,
870,
1206,
1068,
-1264,
-1594,
-624,
226,
312,
-210,
-458,
1064,
-898,
423,
-1367,
-264,
-273,
1113,
-121,
2419,
-806,
1068,
413,
443,
-349,
-117,
1071,
-506,
4848,
-2294,
-157,
669,
640,
-263,
-82,
-1685,
-162,
96,
225,
-557,
518,
910,
-212,
-334,
-61,
480,
-1615,
839,
111,
619,
417,
-1393,
901,
361,
-436,
-166,
548,
750,
-116,
860,
-1560,
-4275,
206,
-792,
-524,
-2621,
915,
1239,
-117,
1254,
-1465,
1179,
-1051,
-921,
545,
550,
-935,
67,
-168,
-734,
-1072,
567,
55,
826,
-830,
81,
-2251,
500,
85,
-100,
597,
302,
31,
-304,
-756,
-58,
-2380,
-1786,
1320,
-1925,
1026,
-1734,
636,
136,
411,
-1393,
-315,
653,
-589,
1528,
-1066,
-3293,
-838,
-118,
-461,
-558,
-241,
1377,
747,
404,
-1507,
2356,
-46,
-876,
-1353,
-9,
478,
-862,
-713,
-549,
-1738,
-1752,
-303,
497,
-399,
765,
1636,
556,
-2214,
661,
-481,
117,
-728,
-588,
-1779,
1190,
-515,
-108,
-1843,
250,
-810,
2412,
-533,
-674,
1747,
932,
570,
-1175,
-480,
-1565,
-761,
-1053,
-858,
114,
961,
-1618,
-392,
552,
1239,
-624,
-339,
929,
731,
-1413,
611,
-386,
1600,
296,
-183,
-788,
-1329,
-82,
118,
-1096,
1567,
271,
-805,
-3160,
351,
-291,
937,
994,
-47,
36,
-66,
890,
-2307,
-597,
1912,
-976,
481,
1923,
-571,
1785,
1946,
424,
-837,
-2129,
-1449,
-1122,
-676,
-1174,
-481,
-131,
1099,
-320,
608,
342,
966,
494,
223,
1872,
1582,
496,
1575,
-65,
-2345,
-634,
518,
-125,
-610,
453,
-1517,
366,
1631,
-506,
2261,
-1244,
-473,
-244,
1688,
-638,
-1391,
-3098,
165,
379,
-316,
-759,
-495,
-333,
-234,
285,
-2018,
-403,
-556,
-667,
-1314,
-182,
283,
512,
1554,
359,
-1336,
-320,
974,
2631,
-2230,
279,
-64,
-1747,
1005,
1396,
3070,
-2334,
-693,
692,
61,
-529,
-3293,
-958,
-512,
-1113,
321,
950,
-1590,
-67,
1556,
-3668,
-242,
333,
97,
-906,
-845,
154,
-1496,
-4100,
-115,
-1340,
1381,
-1620,
-279,
-2628,
38,
-1079,
-676,
47,
-857,
-509,
854,
730,
-447,
1433,
-569,
-1265,
-6099,
-749,
-617,
-1349,
-831,
-328,
462,
-303,
-380,
-2132,
972,
-1322,
-1742,
-713,
-725,
-1041,
1434,
323,
1636,
1999,
161,
-475,
953,
-345,
-2440,
2285,
-1276,
616,
893,
-728,
5211,
-1457,
-1070,
2381,
-405,
415,
-890,
974,
-1335,
-293,
-283,
1491,
980,
661,
0,
139,
-1081,
257,
-811,
-1528,
518,
1356,
-308,
3669,
-2107,
-146,
-2322,
-153,
-3710,
645,
-34,
-2325,
-2563,
77,
321,
1396,
-243,
-1190,
452,
1358,
766,
-973,
-115,
236,
113,
1124,
-894,
-428,
-1039,
-1073,
244,
-138,
-491,
-341,
-922,
1040,
-684,
-88,
-518,
188,
-159,
342,
138,
-954,
1077,
1582,
-952,
-319,
516,
-1197,
-42,
-481,
-719,
-1773,
82,
1282,
-324,
-224,
-402,
1316,
-2307,
-685,
485,
-144,
-1333,
818,
1754,
-978,
336,
1007,
1402,
1151,
-326,
-76,
-495,
714,
28,
-1201,
534,
593,
-203,
-197,
-192,
-354,
-394,
-1378,
-555,
183,
706,
-822,
-71,
-112,
-341,
-202,
-1564,
1050,
-181,
-649,
-264,
1464,
354,
-512,
1336,
-813,
301,
-105,
467,
-253,
-280,
-1037,
-155,
-1165,
-1931,
738,
-757,
346,
-1258,
-255,
-777,
75,
-89,
-988,
-949,
-1084,
-626,
-139,
-411,
-298,
834,
-1692,
424,
-546,
-1399,
1313,
256,
-48,
-632,
-1437,
-878,
2149,
1463,
-197,
8,
-412,
-543,
-199,
-1218,
-231,
-27,
177,
-1744,
-455,
17,
141,
1574,
644,
1473,
290,
-1703,
-1210,
556,
-1720,
-91,
-789,
-879,
-116,
482,
378,
-669,
589,
1182,
-1003,
-339,
-332,
-366,
-2481,
1821,
-1014,
588,
-488,
-186,
-831,
981,
233,
-1010,
195,
-228,
-1223,
-86,
975,
1175,
278,
-1487,
-2223,
183,
-705,
-150,
-732,
-644,
-269,
-216,
614,
-1148,
593,
1853,
76,
-45,
-635,
-627,
293,
647,
-298,
649,
1050,
422,
453,
562,
-1301,
-848,
-1013,
-322,
-1125,
482,
153,
982,
-407,
883,
-89,
-408,
1230,
-146,
166,
-1499,
212,
70,
1100,
112,
-2224,
1143,
-536,
-723,
-421,
-606,
306,
-618,
426,
-653,
452,
581,
-1079,
279,
-458,
-382,
947,
-562,
-846,
-238,
-463,
-1449,
267,
-343,
1210,
584,
-872,
1250,
-801,
-160,
-588,
245,
-101,
-785,
185,
-730,
773,
-380,
755,
-834,
830,
-1683,
-53,
-191,
118,
313,
-510,
76,
-1234,
110,
133,
-363,
1749,
-1111,
198,
0,
-496,
94,
-708,
-690,
-885,
-633,
1014,
-514,
-1321,
42,
-429,
-923,
805,
715,
-610,
-114,
-455,
-1574,
661,
631,
-203,
114,
-533,
-129,
203,
-822,
895,
927,
-334,
-349,
236,
-186,
-185,
-655,
-434,
-1122,
-1450,
28,
-196,
465,
822,
-809,
-119,
834,
-263,
804,
-635,
-244,
-195,
954,
-198,
1361,
-649,
983,
-734,
-300,
412,
886,
-17,
680,
132,
665,
-683,
-555,
1397,
-824,
569,
-674,
855,
569,
1798,
-402,
473,
332,
-9,
-254,
-375,
1037,
71,
-386,
761,
-2870,
-56,
-353,
380,
326,
470,
-717,
-1397,
540,
-1328,
-581,
-721,
-151,
-696,
1339,
-189,
1503,
-756,
-666,
-1668,
-1541,
543,
297,
970,
1089,
-895,
-1118,
-669,
466,
-608,
-597,
-616,
695,
-609,
562,
-189,
60,
-512,
2912,
-1224,
-570,
-872,
-534,
-1056,
525,
-27,
138,
397,
540,
603,
-351,
162,
95,
-569,
261,
-124,
-233,
-154,
567,
-70,
-3877,
1163,
1475,
-1133,
811,
-2449,
694,
438,
1425,
1047,
-1473,
823,
-3120,
-789,
1162,
-435,
-150,
-415,
361,
354,
-1313,
-774,
-264,
-1025,
151,
921,
1777,
205,
2176,
-864,
-1060,
1721,
-224,
-655,
203,
1299,
-308,
1320,
-693,
-1285,
-48,
718,
-1980,
319,
950,
-639,
138,
-149,
742,
2391,
-1767,
326,
15,
513,
-588,
1029,
-958,
1444,
2099,
-1212,
245,
364,
31,
1403,
-2456,
752,
1380,
4222,
170,
-994,
-580,
1667,
2594,
-1782,
-1601,
-1221,
-666,
-385,
3040,
1434,
728,
605,
946,
-634,
-1841,
393,
2058,
15,
-270,
637,
509,
-3204,
-428,
1169,
-1630,
730,
1681,
-5,
464,
230,
1230,
-892,
704,
3795,
-676,
-73,
564,
-149,
377,
95,
-980,
925,
-472,
1026,
-1713,
-1380,
2550,
-992,
-276,
226,
-181,
415,
-1178,
865,
56,
619,
1311,
525,
892,
183,
-2072,
-1125,
1316,
-642,
2927,
-2272,
-1579,
-426,
-1688,
-842,
-273,
2236,
-371,
-1704,
1551,
844,
-967,
-1398,
-359,
-1474,
1886,
-3213,
-1164,
-418,
185,
-724,
224,
796,
819,
1547,
-929,
1813,
1831,
-99,
-864,
-2135,
189,
792,
439,
-1805,
596,
-458,
-1011,
-1165,
2781,
-203,
-1163,
1867,
528,
-1978,
-4,
245,
-990,
516,
885,
-1081,
-237,
-22,
-330,
448,
503,
-803,
-1101,
1509,
-625,
605,
304,
324,
570,
-666,
-697,
-193,
-1139,
1812,
-915,
1502,
-1565,
-296,
1288,
1532,
-458,
-667,
-68,
-1385,
952,
1083,
134,
274,
-1732,
-198,
1213,
108,
-432,
-575,
968,
17,
-1583,
1241,
-1021,
1477,
430,
-1333,
-617,
1633,
-350,
509,
1833,
-997,
-2784,
2296,
-1315,
2257,
-335,
-1482,
-541,
791,
-2067,
-340,
-310,
-1004,
751,
-145,
1056,
1190,
22,
-824,
464,
727,
728,
1140,
-296,
2258,
570,
1088,
1234,
1429,
-422,
-992,
594,
1342,
-272,
1886,
-1360,
-1410,
915,
-585,
32,
239,
528,
-699,
-35,
-230,
6132,
-730,
-626,
-242,
96,
-688,
-43,
-2332,
504,
1502,
-970,
766,
1498,
434,
-540,
-839,
-368,
-412,
-283,
-194,
1468,
2832,
-932,
199,
1119,
-12,
-2467,
497,
508,
-1118,
-422,
-769,
-898,
109,
-381,
-120,
251,
229,
718,
1902,
919,
974,
-2611,
-1001,
1716,
-816,
-172,
-2020,
704,
1692,
-325,
-155,
-684,
-1530,
-1824,
77,
277,
-433,
-496,
1235,
2019,
-1725,
-1070,
1585,
866,
-760,
165,
-541,
3079,
-259,
-1666,
-972,
-952,
860,
2979,
913,
269,
1188,
1845,
-134,
-1218,
-547,
-67,
-1302,
2123,
142,
1326,
-374,
-114,
-271,
-667,
2286,
-207,
1147,
-972,
-1291,
-2164,
66,
-41,
-877,
520,
38,
-409,
666,
-841,
-2163,
-944,
-2473,
257,
1826,
-356,
-248,
-635,
1957,
-718,
100,
-1258,
152,
-1132,
-866,
-1996,
-471,
-186,
1235,
-589,
469,
-95,
719,
-794,
-298,
471,
116,
-1041,
-1460,
899,
-126,
-309,
278,
104,
-7,
-1190,
211,
-403,
-968,
-920,
-1308,
-1669,
46,
162,
-1540,
-331,
1337,
-328,
-673,
-1849,
1301,
-1482,
52,
-836,
1191,
-341,
87,
-1733,
65,
1791,
17,
-1113,
1381,
215,
838,
192,
-75,
726,
-805,
914,
289,
440,
-1170,
488,
-475,
-2534,
-925,
-752,
499,
11,
-437,
-1214,
-293,
1009,
1023,
-769,
1099,
335,
-1951,
-487,
-475,
808,
1530,
-1350,
416,
450,
138,
349,
122,
-871,
148,
575,
800,
-806,
611,
-1582,
-798,
287,
-722,
-347,
-460,
-777,
-922,
-382,
-1171,
198,
-499,
-864,
-109,
-541,
621,
723,
287,
-411,
-213,
1650,
-1445,
-1478,
-955,
64,
-256,
-789,
-1662,
674,
-346,
-466,
513,
-931,
13,
621,
-1253,
-254,
987,
378,
1709,
-673,
-225,
302,
-769,
-923,
1636,
315,
1330,
-1613,
-1398,
15,
-383,
-12,
-285,
-1231,
-728,
849,
2142,
1922,
617,
-1315,
-355,
697,
429,
-78,
815,
133,
793,
168,
-256,
-478,
-401,
1140,
1050,
-339,
-555,
-157,
-96,
-1178,
-1502,
1308,
611,
-1328,
-111,
337,
1475,
-821,
-1324,
200,
608,
-359,
638,
-973,
-1336,
-1328,
-600,
-751,
-234,
-20,
17,
1454,
-1056,
-439,
201,
-356,
468,
-2375,
-502,
-1283,
686,
-1662,
339,
-1405,
1497,
-598,
42,
-73,
-615,
-787,
-175,
346,
-1193,
-1425,
391,
923,
-633,
-756,
25,
497,
766,
-290,
-892,
-806,
1343,
-1225,
-1176,
-760,
54,
944,
-1748,
-471,
1292,
136,
335,
-1170,
-476,
-417,
-793,
-1359,
306,
542,
309,
-796,
52,
1438,
-846,
-889,
885,
906,
-1679,
-71,
-77,
328,
1455,
517,
299,
1401,
-634,
-876,
-947,
-1839,
-832,
-931,
-422,
-355,
-1025,
-70,
237,
635,
43,
-959,
49,
300,
-1116,
-236,
-265,
-529,
331,
234,
69,
338,
438,
-130,
483,
-1705,
-459,
-286,
536,
-148,
393,
-425,
623,
-340,
422,
-1055,
-1147,
-1167,
288,
-512,
-1631,
-5,
-536,
-528,
50,
680,
711,
-108,
376,
-1148,
-72,
964,
-1198,
-157,
-1036,
-311,
-278,
174,
-113,
475,
230,
-1446,
-80,
-652,
25,
175,
-1371,
-57,
-441,
284,
1522,
-1279,
-1132,
-274,
-393,
-1288,
1143,
-276,
516,
-396,
-833,
-141,
49,
-167,
-643,
-1465,
-572,
-562,
1001,
115,
762,
-527,
447,
-646,
-903,
-433,
856,
-1013,
-1050,
-111,
-1070,
-617,
-587,
-317,
932,
-152,
-1097,
256,
-203,
-438,
112,
105,
285,
-382,
196,
-230,
639,
-670,
-1375,
759,
378,
-384,
-2032,
37,
-904,
-710,
-350,
-754,
-126,
-437,
122,
583,
-742,
-223,
-1119,
-72,
-75,
-754,
-253,
-1141,
129,
-71,
732,
2547,
1120,
414,
254,
2309,
-555,
-668,
-574,
-50,
3397,
-926,
-603,
-442,
102,
-170,
-721,
157,
701,
-1614,
265,
-1300,
-704,
-872,
-1615,
127,
614,
-2372,
3612,
-474,
2143,
672,
-184,
-538,
503,
-136,
-1813,
-20,
1037,
-729,
-332,
-857,
-8,
550,
191,
177,
-2130,
-297,
215,
161,
-1782,
584,
499,
306,
-875,
105,
-660,
1860,
-151,
-826,
366,
837,
771,
1221,
1731,
-1224,
813,
197,
263,
0,
-1548,
-510,
656,
-186,
-710,
839,
282,
-508,
-515,
-941,
-491,
-98,
1886,
216,
-35,
1620,
-792,
5100,
689,
-1643,
2014,
951,
-553,
1352,
-1064,
-758,
-1150,
-429,
764,
-639,
-260,
-433,
818,
-37,
-936,
-1012,
1145,
-73,
2937,
-453,
-851,
-805,
-790,
257,
-338,
-75,
4371,
214,
-489,
6,
-159,
3762,
-280,
-117,
719,
-1282,
-866,
2170,
2049,
-634,
-662,
-358,
-271,
1263,
408,
-889,
-1449,
329,
4421,
1076,
-879,
1321,
-1699,
196,
-167,
-351,
78,
1089,
-632,
-2350,
2073,
2065,
1607,
-1618,
1635,
-1868,
713,
-372,
826,
-776,
-1426,
-977,
-764,
-1470,
326,
325,
1782,
-34,
-1511,
-141,
-663,
-968,
590,
269,
-131,
-1665,
-239,
467,
-42,
507,
537,
-2542,
169,
-213,
508,
613,
-25,
40,
-95,
1977,
215,
564,
-828,
19,
-1255,
24,
-328,
1395,
-46,
-267,
143,
-14,
-1178,
-376,
1948,
-1755,
750,
-2111,
-1653,
2285,
308,
-462,
-625,
789,
180,
-365,
1770,
779,
250,
1063,
-394,
-2016,
10,
365,
-546,
-2041,
-284,
681,
-1907,
700,
1876,
-972,
-511,
-30,
691,
-529,
-495,
-446,
-2070,
-551,
275,
516,
1268,
-3384,
1371,
216,
1294,
-230,
671,
-991,
590,
-980,
473,
707,
1247,
-179,
2606,
-598,
-914,
-143,
-89,
716,
-1387,
-1288,
-1510,
-63,
-291,
-955,
1644,
-1288,
645,
1742,
30,
-365,
-911,
-2337,
7,
1924,
-664,
-2186,
-1292,
-858,
2869,
-4,
82,
2828,
1015,
-2076,
1309,
-925,
504,
265,
-556,
-610,
-795,
-1407,
-1065,
206,
-1121,
-1577,
-313,
3165,
378,
146,
-193,
-796,
-1218,
613,
1039,
-1391,
-909,
1551,
-171,
-4343,
-572,
85,
-2091,
-1016,
-1500,
1086,
-182,
-1748,
-3,
-525,
-1483,
-1741,
310,
-21,
349,
125,
-938,
-672,
1786,
1178,
-1977,
-681,
289,
-614,
932,
173,
-1613,
-867,
-380,
-1203,
148,
-1414,
1608,
-492,
697,
1356,
5201,
1509,
-1029,
316,
-228,
-338,
-1152,
-1085,
995,
-1417,
-803,
-307,
-1850,
-255,
348,
-624,
-121,
-370,
-710,
-208,
-82,
-1436,
-135,
-791,
744,
-1160,
-812,
84,
-792,
-180,
701,
214,
672,
-912,
-1665,
173,
440,
132,
-47,
-1128,
277,
-1211,
-1172,
-1052,
-1129,
-1194,
-620,
2426,
943,
2128,
-343,
742,
1975,
843,
1294,
-125,
888,
647,
-504,
2324,
1174,
666,
1388,
-757,
1214,
634,
-796,
-340,
631,
429,
2363,
65,
833,
-707,
2842,
-299,
1797,
255,
1291,
1727,
1298,
-321,
326,
1786,
158,
-1768,
631,
2111,
218,
1265,
42,
-1957,
-1446,
954,
628,
660,
-488,
690,
409,
1395,
-592,
-398,
510,
114,
716,
-86,
-429,
-365,
-940,
563,
195,
12,
869,
270,
1501,
1246,
69,
-257,
3,
-1071,
-1440,
238,
1071,
769,
570,
1322,
721,
-2459,
1293,
418,
1632,
1146,
-692,
2113,
618,
-5,
-2454,
-811,
847,
1274,
-309,
-520,
1577,
1716,
-834,
784,
-921,
1037,
1482,
-484,
-690,
1628,
-17,
1067,
-527,
896,
238,
353,
1000,
1428,
1262,
506,
2160,
-482,
1095,
1382,
406,
1118,
296,
1592,
799,
765,
105,
614,
112,
1005,
-408,
704,
-560,
533,
1827,
-962,
929,
-164,
74,
1040,
77,
212,
-1231,
-1046,
984,
-945,
2339,
-1448,
1423,
-376,
1291,
602,
-601,
457,
821,
478,
2410,
-2391,
-2266,
804,
1023,
1649,
183,
-1131,
715,
1028,
2892,
2500,
1710,
207,
904,
1843,
1263,
2436,
-428,
-791,
1102,
1390,
-1227,
-2927,
2329,
1108,
185,
1922,
1118,
-1236,
709,
-102,
-41,
-470,
2817,
1260,
350,
2604,
-615,
54,
958,
1850,
462,
1419,
-1675,
469,
-513,
-164,
144,
-1817,
-429,
-1754,
183,
-307,
-379,
824,
-257,
-900,
-1470,
-527,
1943,
21,
58,
609,
-254,
1850,
217,
-469,
-1641,
1183,
615,
216,
556,
-1018,
-190,
641,
-2756,
-400,
-1678,
1409,
65,
750,
-1943,
-1890,
358,
-1014,
632,
-685,
-1231,
-587,
-384,
227,
-1163,
-424,
-2655,
386,
-425,
-472,
-438,
-940,
-223,
-911,
741,
512,
-1669,
-926,
1784,
1676,
1015,
1925,
-897,
529,
-2286,
318,
409,
1651,
-103,
-601,
157,
-483,
402,
-174,
-11,
-992,
-2272,
-228,
-188,
2436,
-1305,
-1536,
-60,
-847,
-803,
346,
-612,
-2154,
-31,
-1798,
956,
-234,
130,
-1712,
-21,
411,
152,
-2072,
-179,
-1911,
3401,
-2533,
-1309,
-290,
-1143,
-955,
-10,
-1095,
124,
-2060,
-595,
-516,
-360,
289,
-309,
-94,
-153,
125,
-880,
3200,
501,
-4775,
1073,
-125,
958,
336,
-1625,
-1650,
-763,
-1609,
-104,
-4126,
112,
587,
-960,
740,
375,
944,
-273,
159,
-2326,
-1054,
1206,
1766,
-818,
1245,
-272,
2666,
-324,
-502,
-980,
-1746,
-762,
-910,
-1036,
1260,
-446,
-977,
-790,
144,
261,
-909,
-2170,
-85,
-1889,
719,
-2213,
684,
-235,
-354,
-1103,
-179,
-1826,
-744,
-1468,
-1787,
-429,
-904,
-1336,
2427,
-54,
716,
416,
-316,
-323,
-679,
-1425,
-267,
989,
-1538,
-476,
-1159,
64,
-110,
-92,
659,
10,
182,
128,
-354,
-89,
490,
-902,
1252,
-72,
-655,
1420,
-513,
1385,
-398,
255,
1558,
2366,
-537,
562,
-1982,
-191,
-1093,
846,
-157,
-66,
580,
-636,
1473,
-494,
-1451,
481,
342,
569,
3975,
-228,
167,
-1837,
1144,
982,
83,
556,
62,
2201,
-1433,
-318,
-182,
1210,
-886,
1852,
-1810,
462,
-956,
526,
401,
-1701,
-1264,
64,
763,
1945,
286,
1363,
-311,
-836,
70,
-519,
-1704,
881,
-898,
-2086,
-2621,
-1059,
-697,
889,
885,
-2423,
1534,
-746,
-1544,
-11,
-816,
10,
-1939,
44,
-583,
1251,
79,
-423,
-1291,
-766,
598,
3032,
-1613,
449,
-129,
197,
622,
-1542,
143,
-760,
-1518,
-1767,
100,
1301,
-1932,
-1513,
-1231,
4285,
1011,
-790,
1035,
-389,
-469,
969,
-1811,
-922,
72,
-1491,
1043,
-1259,
271,
-1355,
-25,
763,
469,
-967,
-727,
-1124,
274,
-2005,
-1821,
-1910,
471,
-973,
-435,
659,
-1375,
1808,
2650,
-449,
-1702,
-1344,
-3012,
3890,
675,
-773,
-444,
348,
-469,
149,
-257,
760,
-1600,
-767,
-11,
441,
4693,
339,
970,
-551,
292,
-932,
501,
57,
92,
-909,
-1157,
-857,
-308,
3335,
547,
-313,
761,
-1143,
-479,
1682,
-713,
-282,
2001,
-308,
665,
597,
-116,
-313,
898,
-170,
-1269,
539,
22,
-247,
306,
-788,
952,
971,
486,
1030,
1319,
-306,
720,
143,
-2498,
-3633,
-1212,
-544,
173,
497,
-2353,
1276,
-499,
1231,
-936,
-1303,
-138,
894,
574,
649,
-1794,
1208,
302,
111,
-1072,
94,
599,
-517,
-214,
84,
-548,
-1298,
-630,
-720,
-915,
1349,
-103,
-149,
386,
1321,
1329,
1279,
-535,
9,
384,
-792,
-1711,
498,
679,
1053,
-571,
-684,
1243,
-914,
1161,
1290,
1012,
882,
-30,
1639,
-116,
-1992,
143,
847,
588,
-415,
58,
152,
1211,
390,
-424,
-1226,
1655,
365,
970,
238,
1659,
1215,
-1047,
1107,
1043,
-121,
-18,
-180,
-2502,
-106,
1007,
-990,
467,
-830,
766,
748,
-677,
593,
566,
510,
-276,
162,
447,
1233,
-27,
842,
-1318,
-319,
1215,
1665,
1170,
-2165,
-161,
587,
-974,
298,
-397,
1110,
-208,
382,
-1317,
1894,
-767,
-2422,
901,
-489,
120,
-1389,
-874,
144,
349,
-375,
111,
-1083,
-416,
229,
-340,
-218,
-444,
514,
-659,
1135,
-800,
-2076,
882,
465,
-579,
120,
-1749,
-41,
3315,
328,
74,
426,
253,
-381,
-652,
278,
-1126,
1297,
934,
-1057,
1337,
1331,
34,
-359,
-1059,
1294,
589,
735,
-92,
1006,
342,
473,
-1335,
-663,
57,
-1557,
-1018,
1709,
338,
-1834,
193,
85,
568,
597,
-993,
1383,
-1139,
-991,
-65,
914,
-73,
1621,
-780,
-445,
-516,
-982,
-194,
11,
-234,
-1311,
-784,
579,
-1169,
35,
-14,
427,
-881,
962,
-205,
-613,
-641,
1410,
-2136,
-861,
-448,
-767,
939,
-608,
85,
1933,
664,
-810,
1249,
451,
740,
779,
-57,
-760,
650,
-792,
1531,
-806,
-446,
-1667,
-1560,
-1174,
2553,
1478,
391,
-1845,
1185,
362,
540,
-200,
-571,
113,
-2243,
310,
-515,
482,
-739,
-1015,
-274,
193,
-393,
-348,
-529,
1103,
-505,
1235,
-184,
107,
647,
-3149,
90,
-200,
-797,
-2085,
-1414,
371,
235,
-361,
332,
139,
-324,
-2551,
2961,
233,
190,
508,
-1426,
-108,
586,
355,
22,
241,
-3401,
537,
2220,
80,
453,
-371,
-790,
-633,
-1121,
-872,
-125,
-1451,
1043,
822,
261,
-447,
-309,
-1088,
-531,
1881,
-855,
1387,
-1606,
200,
-216,
-442,
330,
2372,
-577,
-568,
430,
-2029,
-541,
-828,
-1019,
813,
202,
622,
1330,
-283,
-1287,
158,
-794,
-1483,
1081,
360,
-1405,
-75,
529,
457,
-1539,
-1161,
-578,
703,
986,
-682,
-1470,
-614,
208,
1079,
-944,
-131,
1145,
311,
-387,
353,
383,
-730,
-123,
-84,
1833,
122,
-1295,
1924,
986,
363,
-1045,
-235,
-251,
-43,
2176,
-1377,
855,
-495,
-32,
-59,
434,
712,
437,
-585,
213,
208,
927,
-544,
-501,
1992,
-243,
-158,
201,
-37,
857,
1171,
-256,
-880,
184,
1379,
-734,
49,
-388,
88,
1869,
-536,
2788,
-1362,
-1181,
-2088,
689,
-1221,
-784,
-830,
-880,
-1181,
-1005,
206,
-1679,
1852,
-1255,
1977,
1210,
267,
-817,
-1077,
-289,
-1313,
-808,
-146,
-524,
83,
241,
71,
290,
-2017,
-1442,
1867,
-157,
-989,
-1071,
-177,
-1240,
210,
-1785,
-2519,
157,
1556,
2526,
1992,
-7132,
2793,
-1135,
-551,
-548,
-1696,
5,
-299,
652,
1030,
-454,
2039,
3345,
99,
-629,
-880,
-590,
775,
324,
-1883,
-1259,
80,
-267,
1963,
13,
794,
-289,
1613,
-1059,
1611,
-829,
1284,
-948,
-430,
-2289,
237,
2063,
44,
-331,
-959,
850,
-2941,
968,
2443,
1268,
-323,
-1886,
81,
-705,
-561,
1410,
695,
-3292,
-290,
-525,
47,
-1276,
-176,
2391,
-1296,
251,
1762,
858,
-1783,
1965,
-1549,
1811,
974,
624,
-114,
-837,
566,
-23,
-16,
-1091,
106,
395,
-1295,
1561,
1693,
-1549,
-701,
722,
361,
-178,
-68,
419,
-415,
897,
1388,
15,
-1026,
-529,
2020,
2066,
-508,
-278,
-272,
-1425,
965,
-1143,
-1380,
-340,
1284,
1853,
-211,
1465,
1451,
-1723,
-474,
-1039,
2295,
291,
60,
-333,
-239,
2914,
235,
2470,
-761,
-313,
-231,
1509,
-470,
-847,
-1949,
-738,
1149,
-1481,
-369,
-481,
56,
146,
920,
1,
-1333,
821,
810,
-1518,
-773,
296,
-2191,
922,
791,
-839,
-1030,
-501,
-2336,
190,
-215,
1008,
1682,
-1602,
15,
-1348,
202,
-506,
-281,
-2634,
-1793,
1087,
319,
-250,
-1182,
1865,
-804,
425,
-524,
-682,
-2429,
-2484,
-1394,
-655,
1943,
-531,
-1526,
-2151,
-2015,
569,
-2104,
817,
-1468,
582,
-375,
-350,
-1764,
182,
-267,
-941,
-17,
1477,
294,
-105,
305,
-1191,
-697,
427,
0,
-1195,
-512,
-1484,
96,
655,
-2019,
1236,
-877,
-621,
349,
1032,
243,
-101,
-13,
169,
369,
57,
158,
543,
142,
-695,
251,
-1908,
281,
-867,
-1287,
-1131,
302,
-207,
2543,
65,
391,
-1237,
420,
-1026,
-1046,
-3334,
-559,
-318,
-2902,
-1094,
1131,
2676,
-1530,
-1484,
1157,
-2095,
-1602,
-1041,
-220,
286,
952,
-230,
-371,
-1742,
-702,
1090,
460,
909,
91,
1627,
948,
-998,
488,
-1968,
-1507,
-7,
-61,
-3585,
-141,
628,
-1469,
-1546,
-1662,
-679,
617,
11,
-438,
-2102,
-2120,
-1052,
-217,
334,
-271,
-1056,
-351,
-223,
-567,
-890,
-932,
1251,
-367,
552,
50,
346,
-424,
-520,
72,
-208,
651,
-466,
-221,
-76,
-1695,
-39,
-331,
347,
-813,
-212,
53,
-980,
1621,
613,
-479,
547,
-884,
-883,
588,
-3696,
-1119,
453,
-3007,
1295,
191,
-359,
-1092,
-28,
-1044,
-905,
352,
615,
-288,
-1176,
-297,
-886,
-273,
-543,
-471,
-1226,
157,
-1787,
355,
-462,
-1611,
556,
-1731,
-1286,
-92,
68,
-384,
-147,
-13,
2064,
-1191,
-105,
376,
-2013,
171,
-593,
-1759,
-1022,
-830,
1378,
-39,
261,
-1509,
-383,
703,
-3287,
205,
877,
-64,
1080,
918,
763,
-1869,
-1100,
1165,
228,
-450,
-901,
-751,
-188,
1494,
507,
-446,
97,
-1144,
537,
1033,
-852,
-1473,
366,
282,
1687,
-221,
-834,
-1889,
785,
349,
-1110,
3615,
812,
1517,
726,
-968,
60,
-757,
417,
-1917,
-732,
993,
1099,
-1264,
-888,
-1561,
-1033,
-406,
-805,
17,
-495,
-2338,
-662,
19,
-84,
-635,
1070,
-543,
357,
-1698,
1111,
-262,
-226,
877,
-617,
-1724,
-172,
848,
-856,
1379,
1249,
-674,
-714,
-2542,
309,
467,
1165,
-1953,
67,
-142,
-372,
-89,
-390,
585,
-2301,
2,
1536,
806,
222,
-403,
1113,
-2113,
-825,
65,
-1612,
41,
-460,
897,
-600,
-1062,
-918,
2213,
-1203,
721,
-740,
459,
-1009,
188,
-644,
2349,
1467,
1957,
102,
-823,
1696,
-1168,
-266,
527,
129,
631,
582,
-792,
867,
686,
-1323,
-835,
-40,
1394,
-281,
-398,
-337,
798,
210,
1224,
-1594,
294,
875,
286,
1370,
589,
-1994,
-429,
327,
-212,
-816,
2327,
709,
-388,
303,
-377,
-378,
-1144,
366,
380,
2171,
-70,
351,
1305,
831,
684,
2005,
-792,
275,
2597,
-146,
-1550,
-868,
1787,
-174,
411,
-1673,
302,
-265,
-297,
-626,
2883,
350,
-1422,
-191,
-1170,
426,
473,
-1088,
364,
-3494,
-1559,
-1735,
-226,
-506,
1075,
0,
511,
474,
-493,
-678,
-513,
-977,
779,
73,
-712,
66,
-766,
-793,
-795,
-424,
-114,
-452,
-872,
-902,
-394,
417,
-856,
-588,
-1061,
1263,
-84,
-959,
956,
698,
-62,
-212,
-104,
-981,
-251,
295,
-167,
-285,
-743,
2140,
-1029,
290,
-1168,
1013,
-189,
-1497,
-59,
-655,
732,
-853,
346,
66,
468,
-77,
-155,
1292,
-862,
-1082,
438,
-586,
955,
-1218,
-278,
899,
-709,
-154,
-1199,
-151,
-1451,
-513,
-663,
-1683,
-1193,
-391,
-1039,
-45,
-1242,
-615,
-78,
1052,
-837,
-168,
871,
36,
-1163,
-1154,
340,
-659,
-499,
-1181,
-418,
-495,
239,
-1250,
702,
-873,
-320,
-370,
-2111,
-414,
609,
-557,
256,
-1093,
-722,
-475,
346,
-797,
-635,
-877,
-383,
845,
130,
85,
-292,
-560,
688,
1265,
570,
-325,
-776,
2416,
631,
-998,
-490,
-240,
-312,
-513,
-492,
103,
-1088,
-1132,
549,
-806,
345,
-601,
-159,
782,
1540,
-1032,
-280,
-577,
46,
1602,
-1351,
-1045,
833,
704,
1888,
-819,
-1891,
387,
-650,
-827,
415,
-1171,
111,
-175,
-1750,
80,
418,
-190,
-466,
360,
-653,
180,
-329,
681,
-1025,
183,
-178,
-778,
-308,
409,
658,
-490,
-1120,
-574,
-222,
-673,
-1005,
-133,
-2,
311,
-1314,
-365,
-59,
903,
-842,
-664,
-564,
-600,
1066,
1307,
-755,
-182,
-344,
-720,
-1023,
-510,
-1205,
615,
-1245,
90,
-273,
-133,
-414,
224,
1228,
-3,
-207,
1035,
2641,
659,
546,
-317,
451,
-756,
-1394,
-204,
-1146,
14,
-52,
-316,
169,
-1000,
-169,
-1435,
912,
-170,
-460,
-347,
1341,
-492,
-1037,
-559,
-1030,
1193,
477,
1584,
1171,
-140,
749,
-276,
-271,
-1565,
-81,
-317,
-1085,
478,
-428,
-562,
78,
-2152,
-722,
2173,
1364,
562,
-1198,
1110,
651,
-280,
1024,
118,
-475,
105,
336,
947,
-801,
184,
-725,
-1887,
-155,
-168,
-1223,
672,
-1414,
-107,
-428,
346,
816,
925,
938,
-1564,
630,
191,
1630,
1474,
253,
150,
-638,
1629,
2097,
-716,
1149,
-24,
-608,
3593,
1662,
-569,
-1543,
-1257,
2049,
-1424,
938,
-550,
1604,
243,
210,
1699,
-310,
1154,
-253,
750,
-354,
-545,
-1277,
-1587,
211,
753,
1609,
-718,
-340,
241,
-766,
-126,
-40,
-236,
-1716,
320,
-1385,
430,
125,
371,
-840,
-219,
-621,
1483,
-44,
-205,
-114,
895,
-748,
-113,
-1241,
-3146,
1693,
274,
-907,
-261,
1651,
-257,
1331,
-139,
288,
-2125,
-369,
-553,
-393,
1355,
-110,
609,
1631,
-463,
-200,
71,
938,
-1469,
1046,
-993,
-1652,
-1962,
-230,
466,
342,
-839,
119,
-1356,
-2249,
524,
-487,
-151,
259,
28,
-147,
-692,
557,
277,
-378,
-201,
3,
-780,
592,
-663,
-170,
531,
302,
674,
276,
-391,
-761,
-929,
-605,
-242,
-490,
-292,
85,
161,
-324,
-252,
-160,
174,
-883,
-1424,
-529,
529,
499,
421,
580,
-569,
-384,
-162,
1554,
-110,
1302,
337,
131,
-741,
22,
-713,
-87,
-293,
434,
683,
6,
1177,
858,
-356,
744,
71,
-424,
1266,
-699,
-21,
-869,
-386,
459,
185,
-80,
-769,
-158,
-1056,
-440,
-1155,
-441,
-452,
1210,
-242,
1807,
-477,
-102,
341,
55,
-431,
657,
169,
1557,
-159,
637,
327,
431,
280,
561,
-614,
817,
827,
360,
109,
-857,
-190,
30,
-96,
-781,
441,
-493,
-1551,
-914,
-351,
570,
-625,
121,
-356,
309,
-287,
-673,
-805,
-20,
809,
-647,
-850,
-524,
-507,
721,
-794,
-881,
474,
528,
274,
-2176,
605,
-232,
-806,
-227,
-1314,
-636,
454,
-250,
1006,
-284,
172,
-1287,
629,
-713,
422,
-670,
112,
-884,
-199,
-460,
65,
954,
322,
-480,
118,
-173,
1676,
-248,
-734,
-730,
-296,
-428,
-13,
-587,
259,
-1107,
-129,
-858,
-949,
-565,
-634,
2539,
-99,
-742,
-473,
-3,
74,
-348,
-674,
-59,
649,
-612,
-260,
464,
1832,
616,
73,
30,
-233,
1385,
405,
1074,
685,
-279,
-682,
-1726,
-223,
606,
370,
-381,
-158,
-665,
305,
707,
-48,
203,
-117,
368,
-1458,
-686,
-298,
561,
-620,
-51,
-512,
-395,
-1534,
223,
-808,
921,
486,
928,
-1018,
165,
-294,
-273,
-300,
-824,
-941,
-1063,
255,
134,
307,
-713,
916,
631,
-1142,
107,
-931,
1223,
753,
678,
-733,
454,
2673,
-553,
601,
319,
-319,
-347,
-122,
-241,
389,
-579,
-184,
-965,
-669,
192,
982,
280,
186,
969,
532,
-1414,
-785,
-808,
-891,
191,
-1028,
2316,
-943,
-66,
-1239,
247,
-488,
-57,
-567,
64,
2046,
-1000,
1172,
87,
-652,
-635,
205,
-612,
-627,
378,
156,
768,
266,
-96,
211,
771,
-842,
9,
-1314,
-1867,
-215,
-125,
-666,
992,
1221,
-106,
572,
-342,
-749,
-327,
-982,
-973,
697,
33,
-1152,
-1143,
-1552,
550,
731,
566,
-1447,
1233,
-434,
-390,
-1225,
103,
-436,
-1343,
-44,
-448,
350,
2451,
-1321,
-920,
271,
-637,
1597,
-102,
-661,
-387,
1659,
321,
1575,
1101,
-1866,
-365,
486,
383,
875,
-918,
62,
-221,
-947,
-93,
-444,
455,
-227,
469,
-705,
-21,
174,
295,
607,
790,
-784,
-696,
522,
438,
475,
-717,
190,
-681,
-2627,
51,
-1239,
44,
163,
292,
-872,
-842,
198,
-895,
-1975,
-1361,
112,
1300,
265,
213,
556,
-1716,
-31,
-1170,
488,
84,
264,
1057,
-593,
1233,
-457,
742,
0,
-733,
-1045,
-365,
694,
-174,
614,
-1908,
507,
-1221,
4420,
326,
686,
-1067,
-1342,
651,
-119,
1390,
1505,
-666,
1281,
511,
-331,
-410,
-899,
-127,
-375,
54,
367,
1155,
50,
394,
-962,
59,
-1289,
287,
2449,
-184,
-2773,
2500,
414,
-618,
-407,
-1337,
-291,
-153,
247,
-1318,
649,
-401,
802,
2053,
0,
-441,
-1252,
-264,
623,
516,
312,
-237,
-2091,
-2378,
-870,
-253,
361,
673,
-2337,
1741,
-125,
1165,
2686,
-555,
-148,
1392,
-812,
-2070,
-648,
-383,
-2448,
-157,
-677,
-1652,
67,
342,
556,
-1166,
-899,
-360,
-1116,
-747,
-600,
382,
-1046,
1829,
-2005,
795,
-379,
1355,
-284,
1777,
-2512,
338,
780,
-1379,
680,
-1005,
470,
-1867,
-1168,
0,
2588,
-1436,
-2339,
-185,
1580,
18,
-1959,
-18,
460,
-1026,
-909,
-2481,
922,
-946,
-2851,
263,
782,
1066,
-440,
-4802,
1127,
-627,
265,
125,
-147,
-2706,
-1284,
-1000,
637,
937,
36,
124,
1581,
-1132,
542,
-197,
-435,
-2361,
-5551,
-682,
-391,
-153,
245,
1008,
3734,
277,
-2427,
-875,
-377,
-268,
199,
662,
-2013,
-1255,
1876,
2062,
-314,
-1586,
-252,
-516,
1684,
-240,
-1626,
1208,
-185,
-535,
-1483,
2025,
620,
-1794,
-416,
-1336,
2213,
-286,
-1546,
-1305,
1843,
2751,
4277,
755,
782,
-1762,
42,
-1349,
-3038,
607,
2206,
-128,
-445,
-320,
484,
-1390,
214,
-712,
-2239,
-953,
-5088,
2605,
25,
-1666,
-543,
558,
-165,
174,
-838,
-493,
1579,
-1162,
-73,
-624,
24,
364,
-982,
3581,
-526,
-68,
-585,
1493,
-360,
-1990,
-1463,
-1398,
-1749,
-1281,
-1138,
-221,
347,
-112,
2306,
-58,
-482,
-726,
3581,
244,
243,
-252,
-1272,
-1749,
1659,
352,
-758,
-581,
1116,
-32,
166,
-776,
-283,
1768,
-720,
1648,
-2074,
501,
-619,
2143,
556,
-3444,
5682,
-2802,
738,
-2238,
-909,
-1071,
2069,
-2032,
1002,
-2424,
-1708,
245,
1762,
-592,
-3382,
-2556,
516,
-1166,
207,
-751,
733,
-968,
1149,
-1013,
1499,
-1796,
1938,
-158,
322,
-824,
-384,
-2751,
-255,
-2563,
167,
770,
168,
294,
-737,
2623,
412,
3206,
-1795,
2442,
2828,
-3584,
-2725,
508,
-694,
-3264,
428,
1247,
246,
-443,
-486,
-3687,
-2171,
-345,
1609,
-613,
-1004,
1405,
-1874,
-2416,
-525,
1188,
-925,
-976,
-2247,
4191,
-885,
-1867,
188,
1250,
-670,
-821,
-896,
-725,
-286,
-2375,
-1953,
313,
1323,
939,
27,
-1122,
-437,
-1305,
787,
-225,
1106,
287,
1048,
1176,
527,
-803,
-691,
24,
-424,
944,
-3481,
1750,
115,
431,
3,
364,
-466,
228,
-2711,
-1194,
2203,
-1426,
752,
1346,
917,
2423,
2314,
134,
522,
220,
-254,
-1129,
-3386,
782,
1279,
1452,
-865,
3658,
3951,
-1426,
-375,
1053,
-1522,
-305,
-387,
-116,
-3821,
761,
880,
1238,
2282,
-1931,
265,
-763,
-3158,
-1030,
-687,
-414,
486,
-157,
-2116,
-108,
258,
-3160,
223,
-2379,
-857,
-759,
-1100,
-477,
-921,
540,
-633,
-83,
-213,
-966,
-186,
18,
-356,
-26,
-166,
3788,
-452,
-287,
623,
-1470,
-1877,
-506,
-268,
-1817,
-170,
664,
-303,
180,
-480,
-764,
560,
413,
-377,
32,
338,
-1339,
-776,
-274,
-970,
-1316,
206,
-479,
901,
3213,
-2924,
351,
632,
-999,
-1779,
-871,
-856,
451,
1103,
-949,
-646,
794,
1428,
850,
832,
-1432,
778,
136,
329,
-100,
2151,
-572,
-802,
-161,
-209,
989,
-452,
2074,
-1103,
-275,
1543,
-907,
299,
-866,
-1187,
-970,
645,
237,
-311,
272,
-555,
-2233,
-2009,
-254,
1704,
478,
1287,
158,
3562,
2349,
2290,
-1035,
-95,
-901,
-824,
-1657,
-157,
593,
840,
-1400,
-336,
-186,
-1176,
245,
-291,
-1354,
-12,
-1240,
1932,
-466,
-1147,
1511,
81,
-427,
788,
556,
145,
-118,
679,
752,
18,
611,
821,
380,
-131,
-1077,
1229,
919,
-1440,
-274,
427,
-221,
-258,
-793,
2198,
-512,
96,
-654,
-597,
-958,
-102,
-1367,
-1331,
672,
587,
883,
303,
1430,
953,
416,
-422,
-506,
-419,
396,
-151,
-826,
-1284,
860,
245,
-915,
-37,
-131,
543,
777,
-450,
-23,
-1262,
-1280,
-1630,
-1270,
-1357,
-606,
-269,
663,
924,
8,
-659,
-479,
-1635,
-442,
-496,
-2484,
-181,
-2657,
-2133,
-1578,
514,
-1014,
-1480,
-651,
497,
421,
415,
755,
-805,
-1462,
-959,
-1715,
-1638,
-782,
-1000,
418,
363,
-1027,
1843,
56,
-692,
-1092,
-1688,
2076,
392,
-1877,
926,
1107,
-83,
-766,
266,
-782,
-468,
547,
-244,
-742,
831,
57,
837,
-819,
-562,
-1321,
-449,
-1489,
1905,
993,
277,
1425,
-124,
-1913,
434,
203,
1872,
325,
-1483,
2824,
157,
985,
1908,
-989,
1732,
-1067,
1637,
-257,
543,
-623,
63,
-1097,
-452,
-1477,
906,
-424,
1388,
-1763,
-910,
593,
11,
-511,
1389,
607,
184,
-1292,
-1276,
-875,
-482,
-1789,
454,
2296,
-652,
625,
962,
748,
-1638,
28,
258,
-1490,
-87,
232,
-1627,
-23,
-2059,
-170,
-188,
563,
-12,
34,
783,
-1204,
-213,
-696,
-1196,
-1841,
-170,
1208,
-1398,
715,
1073,
-920,
1131,
300,
7197,
-486,
3128,
-1753,
207,
492,
923,
602,
-882,
-688,
923,
-697,
1002,
-46,
-365,
1482,
-710,
1150,
-101,
-542,
-105,
1673,
901,
-382,
4340,
1077,
-1074,
285,
1482,
-842,
-1192,
-98,
-92,
-139,
1873,
-693,
487,
889,
-1304,
-1276,
1180,
-1720,
-2567,
41,
-165,
-626,
283,
68,
-571,
980,
-3651,
-1066,
-952,
1976,
496,
-343,
1878,
1709,
685,
-2693,
-442,
2205,
-1677,
1990,
53,
2029,
1429,
-915,
-118,
-1137,
2471,
298,
-21,
-2117,
-1071,
289,
-476,
-718,
-1645,
-815,
-102,
529,
-87,
-565,
-213,
-943,
407,
558,
-1385,
1899,
-1040,
-487,
-608,
-428,
-592,
-263,
-1258,
-2318,
532,
474,
-1537,
-340,
-286,
-570,
82,
-133,
-1659,
-1035,
-356,
781,
-315,
-1329,
-225,
79,
481,
-74,
207,
-13,
-624,
1626,
447,
1715,
-525,
-567,
254,
-353,
-470,
620,
-124,
1631,
-1257,
-133,
486,
961,
-822,
-1335,
-1394,
544,
-1731,
-1452,
166,
54,
857,
-1343,
-1385,
410,
-1042,
132,
-265,
543,
-315,
121,
-1292,
-1120,
-115,
116,
133,
471,
661,
520,
-289,
-888,
-1117,
-657,
93,
-195,
-39,
-1862,
-1253,
-303,
-1173,
240,
-1284,
-536,
1226,
-1554,
-162,
-566,
728,
261,
718,
-614,
315,
-1872,
-177,
729,
1029,
-422,
1792,
-280,
-758,
-346,
-444,
-225,
-1433,
-176,
-17,
571,
32,
-1001,
-3144,
-1808,
-911,
-1520,
-643,
-925,
-937,
81,
1232,
-191,
1594,
471,
106,
-1844,
258,
36,
-1515,
-392,
-62,
-1890,
-818,
-681,
-1002,
275,
-2184,
321,
137,
-446,
-871,
153,
-644,
98,
206,
607,
98,
-472,
-707,
174,
-267,
-648,
-1662,
226,
-287,
-677,
-138,
1089,
152,
440,
675,
-1743,
-149,
-1427,
-328,
943,
729,
-1424,
-1060,
130,
34,
-710,
-990,
-77,
627,
805,
-611,
-784,
-41,
37,
-643,
-447,
-1748,
-636,
-1206,
-246,
706,
-1483,
101,
-1238,
-1321,
-477,
634,
-650,
-373,
258,
730,
522,
-140,
-1347,
-30,
-582,
-387,
721,
-1077,
-321,
375,
-507,
-361,
-869,
276,
-1053,
-480,
1460,
-1706,
3228,
-1391,
1604,
-188,
1164,
-447,
-1147,
1230,
-16,
-1198,
-2500,
956,
-865,
630,
109,
1012,
-1315,
489,
50,
151,
-810,
-93,
562,
-2417,
-2143,
609,
-623,
888,
-887,
-2267,
-526,
-18,
1949,
522,
527,
-1161,
-113,
101,
-943,
426,
-769,
-234,
409,
382,
-817,
768,
-25,
-1009,
-197,
-26,
290,
-938,
-1883,
-174,
320,
1290,
-722,
-999,
780,
-745,
-430,
24,
551,
409,
-1150,
4995,
-178,
-553,
1455,
899,
767,
-21,
-1331,
-743,
-500,
-2926,
655,
-595,
319,
-1157,
-500,
128,
341,
-1987,
-1180,
984,
-735,
29,
-1505,
1424,
73,
-1005,
860,
-705,
-623,
-1103,
381,
1845,
214,
514,
-869,
522,
1120,
1501,
-305,
-916,
-1368,
1201,
-980,
-461,
1850,
-1300,
2167,
-475,
251,
-127,
173,
967,
-793,
1793,
3164,
-724,
-855,
-186,
-231,
-1205,
-1032,
213,
101,
1720,
265,
-1267,
464,
306,
1,
709,
-235,
-314,
1164,
524,
-1841,
1428,
-867,
622,
269,
-99,
1960,
376,
1681,
-387,
-237,
-2201,
-90,
1478,
1108,
173,
118,
306,
634,
-766,
-165,
2172,
1779,
316,
261,
48,
-386,
-413,
301,
-258,
-735,
915,
-360,
-1601,
-1714,
-251,
-858,
-241,
-171,
359,
-72,
342,
720,
-814,
-1610,
1412,
-1241,
1662,
-548,
815,
56,
-1622,
791,
-568,
-1037,
384,
883,
1024,
32,
1206,
3679,
-695,
-480,
-69,
-1416,
-466,
-1242,
-108,
-1164,
-8,
-864,
-292,
453,
112,
-135,
767,
-1684,
1523,
1112,
-205,
-395,
829,
543,
-153,
711,
-1057,
-256,
-1635,
-234,
129,
389,
649,
212,
1141,
247,
427,
-1069,
559,
-1255,
1031,
-950,
2690,
378,
-866,
-946,
-1,
-1011,
-497,
-260,
-341,
-1712,
2226,
-7,
-222,
-733,
255,
-121,
-147,
-422,
97,
-1022,
388,
178,
-567,
-724,
-375,
846,
-558,
-15,
832,
-966,
181,
-126,
2749,
288,
-677,
-1176,
166,
409,
1252,
-961,
8,
29,
-1324,
-169,
-58,
-1544,
130,
139,
-5,
1605,
-442,
1771,
-463,
-1510,
-378,
1467,
-205,
-443,
1289,
1094,
-994,
-866,
99,
449,
-943,
-707,
-1011,
-1072,
-745,
2090,
-40,
994,
-1833,
765,
-58,
96,
-765,
1627,
-797,
-1148,
714,
-421,
-166,
-783,
-706,
-790,
-172,
-297,
-235,
147,
116,
1403,
501,
-18,
503,
-545,
3968,
-1398,
-708,
578,
-898,
-713,
-174,
1814,
248,
-929,
-462,
904,
-1089,
-45,
-1981,
-667,
-324,
-848,
286,
609,
-360,
-472,
-686,
-1851,
-456,
-1438,
1794,
458,
-226,
1415,
928,
1156,
-603,
-232,
-589,
739,
-325,
615,
-889,
1959,
150,
319,
1013,
147,
262,
-151,
1107,
-890,
-286,
-648,
-32,
1114,
-917,
18,
435,
-519,
3,
-127,
-1477,
-1586,
866,
-103,
-531,
-1199,
1555,
680,
-123,
-913,
-751,
-296,
217,
-453,
473,
187,
-406,
997,
-476,
419,
-948,
396,
791,
2665,
298,
1630,
-397,
-319,
-104,
460,
108,
-223,
2390,
-850,
-397,
133,
795,
-837,
-306,
-1634,
-547,
-167,
-38,
719,
-69,
717,
-423,
-257,
-601,
137,
-155,
-944,
617,
28,
33,
-633,
-1116,
-7,
-626,
163,
190,
1191,
79,
143,
1322,
-752,
1109,
-725,
-354,
-963,
373,
2095,
-557,
231,
-1012,
186,
-668,
440,
347,
-783,
-66,
-1208,
288,
-317,
-258,
-39,
-474,
845,
352,
-474,
-961,
105,
1129,
1265,
-343,
-96,
67,
-787,
-455,
-571,
-1041,
-1235,
-128,
-703,
212,
139,
-381,
99,
-158,
-475,
262,
39,
-355,
1114,
-1019,
-1621,
656,
-375,
515,
-342,
384,
1758,
50,
-103,
-990,
258,
-696,
39,
-1180,
942,
-339,
122,
-48,
-593,
-2145,
-823,
-716,
1022,
-83,
287,
1228,
438,
-986,
1585,
-388,
833,
-466,
-1220,
-217,
1142,
-312,
-422,
-1632,
-972,
-353,
2109,
2268,
-444,
171,
-319,
-140,
-1731,
-465,
-214,
-546,
-48,
-1972,
-1132,
598,
-1064,
-444,
1278,
-120,
-124,
-549,
40,
1473,
-108,
20,
-802,
837,
-34,
184,
-821,
-570,
141,
-1246,
915,
832,
221,
-1072,
-1479,
-567,
-47,
-164,
941,
12,
-407,
-357,
-858,
-408,
-98,
-2456,
84,
395,
2174,
-1454,
101,
891,
-436,
-1078,
1108,
-245,
-569,
-618,
-1249,
-1849,
349,
899,
-204,
294,
-3305,
931,
-1492,
1281,
564,
351,
-185,
846,
-549,
55,
1237,
598,
708,
-448,
4472,
-6270,
664,
630,
-1070,
-908,
-2098,
319,
-1559,
1098,
468,
1930,
79,
-1866,
-750,
2885,
-241,
258,
200,
217,
-2681,
-1174,
467,
-185,
186,
-37,
-781,
-936,
-956,
-459,
680,
803,
-3025,
314,
1816,
129,
472,
-1479,
1570,
400,
307,
1892,
-1893,
22,
-1035,
-1643,
1371,
598,
-1306,
-388,
782,
1075,
-270,
-1984,
-36,
2297,
-373,
202,
-1074,
1012,
202,
-1669,
-1561,
-1144,
1229,
-737,
-2055,
3094,
-813,
2007,
-4496,
-1435,
2306,
269,
-783,
704,
-493,
3411,
-114,
1556,
520,
548,
2250,
3015,
110,
-97,
-1520,
-402,
-905,
-849,
1475,
1075,
363,
-53,
-412,
-1231,
-873,
-659,
-110,
573,
359,
3378,
-204,
1090,
1018,
-652,
-182,
-288,
407,
-1225,
1640,
-854,
-1727,
928,
1649,
-1215,
1285,
-4904,
136,
-1258,
-189,
-484,
-2312,
-489,
-8,
-4,
-1638,
-1738,
71,
-3603,
993,
851,
5203,
-288,
261,
-352,
539,
2446,
-348,
-30,
-1892,
-2502,
1295,
-9,
-3078,
-2531,
-1048,
-192,
272,
-951,
45,
836,
-2881,
643,
-579,
1905,
945,
89,
-44,
-872,
697,
-762,
-967,
654,
-1712,
-128,
-23,
-946,
-180,
-402,
391,
-419,
110,
516,
-423,
-859,
-498,
-1377,
-961,
931,
-1454,
955,
1830,
-358,
311,
-547,
41,
1122,
-1198,
161,
1255,
-1104,
-255,
-1174,
160,
70,
-178,
1477,
510,
2859,
-1761,
26,
-1127,
1411,
244,
-1050,
-1031,
309,
452,
569,
-104,
735,
-504,
162,
707,
1672,
-137,
453,
-537,
-522,
481,
592,
284,
-539,
-1929,
-390,
896,
123,
-1737,
2449,
1806,
-592,
-540,
-2032,
199,
-900,
1790,
-503,
-323,
-398,
-1019,
815,
-83,
249,
249,
55,
-1375,
329,
617,
-11,
-1360,
-208,
-758,
862,
76,
342,
-903,
-1458,
-229,
-1240,
2921,
-383,
413,
-629,
-1518,
1244,
1268,
966,
-1366,
888,
1429,
1390,
-313,
-625,
544,
-2223,
-184,
1639,
1554,
-124,
-311,
499,
-723,
-1930,
375,
539,
-944,
-922,
1450,
944,
-1674,
-1834,
-386,
-1047,
-337,
194,
-1497,
-288,
-505,
-114,
12,
1095,
1283,
-526,
-235,
807,
399,
-1559,
-2425,
-1976,
277,
-407,
-1087,
-580,
206,
1334,
-712,
-1116,
100,
-1015,
-389,
951,
155,
982,
-571,
-505,
-165,
-193,
-408,
-908,
-545,
27,
-1276,
122,
1839,
330,
-282,
-737,
1345,
-683,
-963,
-973,
386,
-736,
-1105,
911,
352,
173,
-964,
-818,
-248,
-2,
2073,
2109,
-1539,
-237,
679,
-495,
-951,
-425,
1104,
495,
286,
3,
1294,
351,
583,
-250,
-1130,
29,
339,
-2021,
563,
-236,
278,
317,
-417,
26,
-1007,
-1039,
-684,
-238,
166,
-147,
271,
417,
114,
1382,
707,
-51,
-272,
-297,
-1563,
-170,
282,
347,
-936,
-409,
-480,
-543,
738,
-574,
547,
-32,
-156,
668,
-788,
279,
-872,
-302,
-1226,
581,
59,
-452,
-251,
705,
-714,
926,
326,
2101,
726,
-421,
-962,
-772,
126,
-1232,
100,
-1703,
278,
593,
675,
572,
-327,
672,
-587,
1398,
913,
862,
63,
-394,
754,
71,
510,
1834,
-394,
-2639,
-199,
-382,
235,
185,
311,
-668,
-778,
23,
-427,
-315,
-1543,
256,
-170,
33,
1213,
752,
405,
-1097,
400,
880,
-129,
-214,
-661,
105,
-884,
-882,
-24,
-1399,
127,
378,
2513,
-87,
442,
-781,
883,
-256,
420,
-285,
198,
-1077,
1277,
-1359,
-412,
1921,
262,
-2074,
-272,
-1216,
262,
184,
152,
-575,
89,
510,
-80,
-851,
-539,
865,
-165,
-40,
121,
1248,
700,
937,
-385,
-517,
-456,
38,
-1189,
158,
-102,
908,
-86,
-247,
25,
-434,
-370,
693,
848,
1106,
-614,
-686,
-797,
-1580,
-460,
425,
455,
809,
-704,
1162,
80,
309,
301,
-273,
-1007,
-1261,
445,
-605,
-1321,
-1047,
1203,
-110,
94,
79,
1430,
775,
-381,
-228,
340,
175,
296,
-451,
1014,
338,
-326,
-636,
-1640,
310,
-124,
746,
937,
1525,
-540,
-276,
4104,
-575,
829,
-1056,
-1030,
-1035,
-1404,
544,
-1088,
-328,
-2162,
-2908,
-929,
-160,
-205,
546,
-150,
1733,
3616,
614,
-328,
-1597,
367,
-20,
2140,
-2841,
-91,
-1576,
-1767,
-1823,
-807,
-2294,
-834,
-11,
-1403,
748,
-261,
3728,
668,
-193,
-1602,
1370,
779,
-227,
136,
-1648,
-1086,
-719,
499,
642,
-2121,
-712,
412,
657,
-2830,
-385,
-1315,
527,
-34,
-2848,
-1322,
1306,
-2988,
-641,
146,
-1522,
-1104,
892,
-370,
-1758,
-1552,
-634,
-949,
-525,
-1197,
-592,
-131,
-1045,
-190,
424,
-240,
-53,
1541,
-1567,
127,
-994,
-1186,
-1204,
1130,
-288,
649,
198,
571,
-752,
509,
-2095,
-3629,
290,
3991,
557,
-2503,
1168,
-1158,
-163,
-46,
-264,
-1096,
-648,
-1909,
1059,
941,
-1450,
625,
897,
1053,
57,
283,
-937,
-202,
-965,
-23,
-466,
-812,
-1276,
427,
2711,
556,
52,
-525,
-2834,
754,
-922,
-604,
-301,
-1229,
1490,
818,
966,
-2721,
571,
-328,
-35,
-1033,
-216,
1918,
756,
-976,
-1076,
3036,
-514,
-2001,
-1170,
-25,
-1178,
37,
-132,
-426,
-158,
-877,
-4325,
-2294,
2326,
-954,
-766,
-273,
606,
97,
-1716,
2572,
-792,
1013,
-3164,
-951,
-108,
-474,
-2291,
409,
-1000,
38,
-236,
-554,
537,
-638,
1177,
-1363,
-338,
-2715,
-678,
-807,
141,
219,
945,
1350,
-224,
-303,
-1741,
-1906,
-1036,
775,
-1490,
-897,
1592,
668,
-289,
436,
-1491,
-948,
-1520,
-190,
-376,
-275,
-1657,
1010,
605,
391,
150,
1072,
-93,
835,
572,
-454,
927,
126,
-770,
-509,
-1351,
-18,
-6,
-1132,
-1831,
2015,
581,
1135,
-1152,
-833,
-1497,
-3156,
680,
651,
474,
1891,
-719,
697,
-948,
-142,
-1647,
-93,
621,
379,
-554,
-67,
-539,
7,
-442,
287,
200,
628,
-30,
37,
705,
-371,
-689,
346,
-985,
-34,
653,
-654,
-364,
1698,
-1000,
-396,
507,
-556,
84,
-1408,
97,
-320,
-192,
-176,
-332,
-876,
16,
-334,
790,
-358,
-849,
330,
502,
954,
22,
-1709,
-654,
-995,
-1211,
-1757,
905,
-2332,
469,
-602,
306,
-283,
695,
621,
-146,
1153,
-1624,
-212,
-1075,
135,
229,
-2430,
71,
-572,
-849,
230,
593,
2851,
131,
-44,
-411,
-955,
-2360,
515,
-1818,
1281,
-2567,
595,
849,
-516,
-1376,
-1142,
-3169,
1144,
1329,
804,
-1522,
1032,
-1773,
1123,
1181,
1043,
-595,
-1242,
359,
-386,
-582,
985,
-510,
-20,
-908,
1903,
695,
-1590,
175,
-87,
191,
-1156,
-1327,
-816,
-607,
615,
-868,
-396,
-909,
-1110,
671,
-729,
-294,
-467,
-458,
-658,
-1582,
680,
38,
-155,
-2040,
-1164,
-445,
-882,
-176,
136,
-258,
1655,
-542,
-1012,
-29,
-860,
273,
844,
1434,
699,
-280,
229,
8,
-1020,
-888,
-1410,
1757,
-576,
-623,
-129,
-623,
-911,
673,
-611,
1373,
-1285,
1789,
209,
3815,
208,
-210,
-595,
-40,
-205,
-722,
-1923,
-368,
1916,
720,
-1660,
-1807,
-372,
379,
-750,
-239,
-107,
2617,
-1646,
-12,
953,
-1182,
-655,
-1637,
-79,
1738,
912,
-934,
-1585,
253,
484,
-635,
551,
1570,
552,
-722,
2976,
323,
-762,
-854,
-120,
-2526,
-29,
-435,
-1177,
-1954,
-593,
-847,
-1830,
-385,
-1858,
1904,
1256,
-659,
-2715,
-684,
533,
345,
-1459,
-1392,
1374,
-743,
-10,
-1071,
109,
-966,
-251,
1462,
-82,
93,
2329,
-1169,
29,
-2070,
-463,
-1089,
-3121,
1403,
1337,
-1229,
83,
528,
-1459,
-1227,
-1567,
-708,
-234,
-1076,
-564,
-585,
-1846,
-77,
-732,
0,
177,
-276,
359,
248,
-418,
-164,
839,
414,
-1799,
792,
337,
-463,
350,
378,
379,
-1522,
125,
-691,
2427,
25,
-1632,
-289,
-226,
826,
631,
-1722,
-37,
-1802,
355,
-708,
644,
2257,
685,
470,
368,
484,
1319,
-682,
-1530,
490,
-245,
-447,
-1228,
-1787,
1207,
441,
-271,
-608,
1772,
238,
1324,
-558,
-2579,
1226,
-1797,
-1990,
-1326,
-1474,
-57,
-533,
-850,
206,
-239,
-985,
-922,
210,
1720,
627,
-423,
1705,
2057,
-619,
362,
1692,
-2393,
-457,
132,
-371,
72,
-1465,
1079,
-1572,
318,
-12,
-1072,
-2591,
346,
582,
551,
-1060,
-2755,
609,
1883,
-713,
-26,
643,
-551,
-1097,
-1063,
-201,
-753,
340,
-485,
-129,
-1135,
-1223,
277,
-1229,
-1666,
690,
-333,
1352,
215,
-28,
-96,
384,
995,
-1133,
-168,
1991,
788,
-709,
170,
100,
-447,
-887,
-1685,
74,
-1053,
1158,
-46,
1087,
-37,
-219,
-442,
-486,
-1030,
535,
-182,
227,
-262,
-767,
2403,
-1083,
-123,
163,
-596,
476,
-267,
801,
-53,
-1716,
69,
-748,
-508,
-1254,
-1577,
-870,
130,
1401,
-404,
-69,
-534,
261,
-1803,
911,
-1136,
-979,
327,
-633,
-1406,
299,
473,
30,
-670,
-1284,
-1559,
-1729,
62,
-517,
-151,
-964,
-121,
-617,
-198,
-619,
-474,
-87,
-516,
-432,
282,
-1106,
-288,
-876,
261,
-871,
-1161,
-676,
-836,
-547,
79,
440,
-135,
-376,
-921,
2697,
417,
-871,
727,
-757,
13,
-288,
-137,
-391,
-899,
-276,
1412,
-1933,
-984,
1232,
211,
-393,
-42,
-2044,
-1482,
-379,
-151,
-594,
-482,
-682,
-65,
-726,
778,
800,
-177,
281,
-409,
-319,
746,
-879,
-162,
-1766,
-413,
2748,
-671,
1254,
153,
-185,
511,
-739,
873,
-13,
2757,
-48,
-563,
914,
-239,
1755,
69,
379,
-1391,
125,
970,
-1484,
670,
108,
467,
69,
-1428,
-1049,
2347,
-202,
-1069,
-935,
247,
-724,
-384,
-404,
-1319,
-545,
1241,
-16,
82,
77,
1488,
-494,
-283,
385,
-307,
-431,
-1313,
-657,
1352,
-937,
563,
-28,
-1322,
-1510,
1695,
-977,
1524,
281,
1423,
-426,
1196,
576,
-46,
-842,
-433,
898,
586,
-74,
-703,
-557,
-98,
1022,
566,
465,
168,
-724,
1534,
324,
604,
-434,
-278,
-1120,
326,
-244,
-356,
1283,
1543,
-1749,
-1208,
-716,
1338,
-1101,
-77,
-1084,
-92,
35,
710,
-653,
934,
-32,
-54,
114,
1335,
1868,
565,
1610,
1517,
883,
-768,
751,
275,
-1295,
607,
-805,
1247,
109,
1024,
66,
-1228,
539,
1703,
-711,
-313,
2154,
-462,
-1562,
-933,
-505,
1487,
-1556,
172,
-778,
-223,
746,
-249,
1611,
681,
1500,
-2386,
-832,
-170,
-76,
-297,
-322,
-540,
504,
484,
-375,
-1161,
671,
-1338,
-459,
-1008,
-759,
1337,
117,
34,
596,
56,
-642,
-1199,
871,
-1912,
172,
204,
197,
-125,
549,
-409,
1045,
0,
-944,
-537,
-118,
281,
1639,
422,
-337,
529,
263,
850,
48,
-736,
1844,
381,
448,
-555,
-875,
184,
-1000,
-390,
1090,
-959,
389,
45,
-927,
-577,
-248,
2160,
455,
-32,
-1330,
1836,
1424,
-483,
-491,
237,
123,
776,
165,
1500,
-593,
-129,
-391,
42,
137,
760,
-143,
337,
267,
-466,
1313,
-949,
-1345,
636,
-971,
559,
-1369,
-116,
427,
534,
-396,
474,
-1337,
-381,
-1462,
-1734,
-519,
211,
179,
891,
1184,
104,
-1339,
443,
154,
2632,
-109,
-1473,
-709,
858,
367,
624,
-582,
-838,
314,
-137,
1077,
-270,
-249,
-238,
1164,
-541,
-840,
-455,
108,
-1417,
-157,
256,
-150,
-415,
-187,
-502,
-962,
2100,
1488,
-177,
-622,
640,
485,
-1033,
-765,
-371,
603,
980,
-503,
457,
269,
-460,
388,
-471,
-732,
83,
-487,
-895,
1678,
-622,
-112,
2133,
-836,
-2097,
18,
798,
620,
1602,
992,
-112,
1209,
35,
-349,
-292,
-1561,
-896,
-1006,
192,
2333,
52,
-1118,
-592,
1212,
-232,
681,
965,
571,
-404,
848,
-822,
1576,
-245,
480,
-1015,
936,
454,
-384,
481,
-795,
434,
776,
-313,
1041,
100,
-227,
504,
93,
360,
-196,
489,
-555,
793,
-744,
-527,
-57,
13,
-532,
-1570,
1711,
23,
-695,
516,
-528,
-478,
514,
316,
-334,
985,
-497,
-1098,
635,
-567,
689,
462,
-1858,
1263,
1365,
1133,
851,
-1134,
2060,
-121,
-1070,
-472,
230,
-98,
1180,
-1475,
-2030,
-116,
1032,
187,
3227,
610,
49,
-128,
540,
734,
-103,
471,
587,
253,
530,
-196,
554,
179,
-1054,
-95,
-890,
230,
-787,
850,
998,
153,
1098,
-894,
784,
665,
224,
-1043,
-337,
1143,
-1048,
201,
-1081,
1736,
1300,
40,
824,
2338,
-14,
1010,
-2049,
706,
-581,
-1947,
1348,
-1036,
-982,
681,
-1045,
18,
-74,
-553,
-1393,
320,
284,
-400,
-861,
1495,
-8,
-392,
-18,
-69,
-1332,
650,
143,
-241,
-439,
713,
108,
-973,
-172,
-250,
367,
104,
-1693,
1520,
446,
173,
369,
1405,
755,
-1129,
-309,
-2887,
666,
6,
-1681,
-293,
-2398,
-1185,
-188,
588,
2732,
-145,
349,
1835,
1277,
-797,
1385,
-1471,
1441,
-105,
589,
-637,
0,
-1764,
-1508,
-1497,
-1306,
-992,
-296,
-807,
448,
842,
-165,
-620,
69,
988,
-791,
762,
-882,
-736,
826,
-614,
916,
1672,
-906,
-565,
110,
-621,
2601,
1731,
-2440,
-767,
-1334,
-2240,
1573,
-1077,
-2560,
559,
-916,
-206,
-306,
2128,
-1843,
-1071,
629,
-891,
-526,
-664,
-2446,
184,
-1467,
-961,
900,
-1063,
-106,
-1426,
587,
-1192,
2755,
924,
-1389,
-909,
1037,
69,
398,
117,
1506,
1192,
-652,
1542,
-6,
-827,
271,
596,
-1234,
753,
106,
-288,
1045,
40,
2611,
-591,
-2268,
-256,
-2543,
-210,
1436,
1066,
-287,
-1067,
1108,
-50,
-722,
-506,
-725,
362,
-680,
517,
303,
-1188,
1534,
293,
-1055,
509,
1335,
-40,
-439,
-192,
-1780,
610,
-1626,
1297,
803,
1082,
1083,
1182,
-58,
-2748,
248,
-1678,
-2731,
638,
366,
-1755,
715,
-407,
-273,
-630,
2426,
62,
-418,
-1223,
-2503,
648,
383,
-917,
-2176,
721,
49,
1278,
292,
-389,
-203,
-529,
-558,
-180,
-962,
-82,
-1278,
424,
-119,
-52,
-468,
179,
-289,
-1346,
559,
-1919,
311,
-83,
-565,
745,
286,
800,
1421,
-1985,
22,
-674,
1884,
-4329,
-950,
532,
-523,
-467,
1942,
-324,
121,
2009,
605,
-2400,
248,
-3674,
-422,
-483,
-117,
1485,
562,
-2176,
-978,
541,
1277,
-2610,
-1442,
-691,
-2427,
-594,
-317,
-1736,
1804,
-301,
1298,
-1089,
297,
1241,
2000,
1,
-1124,
1286,
49,
94,
-394,
2833,
1091,
188,
411,
1121,
-92,
714,
293,
-690,
236,
711,
-619,
1032,
-654,
1241,
1288,
-1161,
-2266,
237,
136,
1007,
284,
90,
-66,
-175,
1767,
1229,
-622,
-6,
826,
-1286,
661,
-1338,
1120,
736,
-802,
-1160,
-457,
-266,
1079,
0,
-1376,
-821,
1108,
-513,
1129,
-2025,
2671,
1042,
2549,
1619,
201,
-777,
-1266,
-20,
-112,
-492,
-1535,
193,
-459,
-257,
1106,
2055,
196,
62,
30,
-720,
-943,
-121,
142,
1686,
-2468,
-630,
230,
1070,
2357,
-1001,
50,
153,
835,
93,
-942,
-2135,
-1615,
-327,
-598,
-1411,
-1287,
-959,
-9,
-4842,
-72,
693,
1751,
-76,
-1769,
-768,
-951,
766,
-2288,
679,
-1171,
-2989,
-752,
73,
-111,
-583,
-1017,
-320,
-759,
957,
797,
-2498,
-2074,
840,
-249,
-2790,
424,
69,
-2015,
-1846,
1363,
-2105,
-252,
-159,
-1969,
-1562,
-1261,
-3,
-995,
-924,
195,
1933,
2176,
-633,
-590,
-397,
134,
1226,
-667,
-589,
258,
-245,
-169,
-2410,
2369,
-705,
425,
-226,
-527,
576,
85,
718,
798,
165,
-294,
160,
1162,
658,
-341,
-65,
1262,
82,
932,
-291,
-539,
75,
323,
506,
199,
-214,
-485,
3,
-1,
-596,
830,
-558,
-1127,
871,
1290,
161,
-274,
689,
1220,
-4,
-1078,
-851,
419,
-120,
272,
-924,
31,
366,
1266,
612,
-290,
-156,
-780,
7,
377,
-1444,
640,
1211,
494,
-361,
-444,
290,
122,
-118,
-283,
-780,
-760,
-182,
55,
-971,
-522,
-1129,
585,
-688,
221,
-288,
478,
308,
-797,
1143,
-418,
-685,
254,
215,
-474,
663,
955,
-134,
-269,
1233,
-1133,
-1246,
-59,
460,
339,
1403,
611,
-316,
584,
-589,
-1636,
1495,
-599,
-279,
-263,
-766,
335,
2420,
-185,
50,
-206,
1962,
-672,
359,
-90,
-367,
90,
366,
-573,
77,
455,
-447,
-1247,
543,
-1019,
-758,
736,
-547,
991,
-782,
1116,
-1761,
-709,
622,
-1284,
772,
-120,
551,
-224,
313,
-1116,
-764,
836,
-235,
131,
-357,
-1119,
539,
-680,
-1036,
1572,
-39,
-972,
-130,
446,
-1007,
-120,
-88,
61,
-782,
-99,
-1848,
-249,
-180,
210,
-142,
-696,
1146,
1,
979,
287,
624,
288,
1010,
-507,
381,
-1033,
-492,
1122,
-465,
661,
-337,
77,
-205,
-235,
-546,
-1497,
-337,
619,
251,
961,
722,
-340,
629,
918,
-384,
594,
-394,
571,
-242,
454,
-719,
1140,
-315,
1663,
562,
1802,
-414,
-702,
140,
-637,
259,
34,
-241,
129,
526,
853,
4,
-650,
117,
-322,
1779,
-40,
57,
-318,
-454,
-231,
-62,
435,
-343,
791,
379,
-923,
816,
-44,
-426,
1409,
912,
1601,
-331,
1705,
-3230,
2535,
1162,
258,
488,
-61,
-428,
-574,
848,
-887,
72,
-185,
-144,
279,
-438,
-357,
-135,
1724,
-454,
634,
3610,
-234,
-750,
-686,
-1268,
-135,
1422,
-409,
1362,
-939,
-908,
373,
1173,
-2462,
472,
323,
-930,
2174,
736,
679,
-1008,
1659,
269,
-250,
-1642,
-683,
-949,
2226,
649,
-204,
284,
-437,
751,
441,
-1238,
1704,
-168,
236,
-1127,
1032,
-176,
3484,
995,
-1344,
-1484,
6783,
394,
459,
-236,
-452,
-709,
-274,
1516,
1156,
-822,
-639,
1075,
-3762,
54,
102,
1020,
-495,
224,
1286,
-944,
390,
150,
-120,
-243,
665,
-321,
-304,
3,
1019,
197,
1152,
-226,
-1127,
-78,
-808,
-242,
607,
-1024,
22,
-647,
-570,
182,
142,
918,
-96,
704,
-230,
401,
405,
3668,
628,
-1221,
2393,
1399,
-184,
-1639,
500,
2406,
-1149,
1080,
1390,
-1847,
2435,
215,
-231,
1042,
-3,
1100,
-1364,
749,
-2008,
1858,
-577,
715,
-67,
846,
-75,
1229,
-577,
-258,
-357,
1691,
-493,
-583,
-879,
304,
-65,
726,
860,
506,
896,
744,
-639,
433,
1968,
-794,
-1146,
-312,
-708,
-28,
1569,
-1733,
-1196,
116,
-222,
-429,
-334,
322,
-1201,
-1689,
-846,
748,
789,
-590,
302,
-381,
241,
1829,
-405,
-614,
-259,
158,
-1129,
-276,
-155,
-1687,
-2732,
923,
330,
-327,
435,
675,
533,
-822,
226,
-2181,
312,
1265,
-529,
-1244,
-470,
-780,
824,
-133,
-1335,
552,
189,
-439,
-79,
342,
552,
-158,
126,
-223,
577,
-1091,
-130,
14,
-1405,
-204,
-492,
-57,
-1099,
1032,
635,
-713,
-185,
286,
-408,
-1426,
-685,
-1764,
-1013,
553,
-83,
1224,
-1249,
-327,
-242,
-775,
329,
-236,
1323,
-341,
-987,
385,
-1328,
-1173,
810,
-251,
-2058,
319,
-42,
-332,
-1584,
-532,
787,
-2038,
-449,
1014,
675,
-638,
-1445,
-284,
-333,
-131,
-1916,
1717,
1521,
-66,
-1567,
-610,
-356,
-990,
-772,
983,
-308,
-578,
768,
-1051,
-737,
-1791,
17,
209,
-27,
-988,
-1561,
-22,
578,
-307,
678,
-385,
-854,
24,
-2396,
245,
-1541,
-1070,
-264,
-1631,
-627,
-795,
-1592,
-808,
-675,
277,
656,
738,
-969,
-228,
943,
-894,
59,
346,
811,
-496,
-1002,
199,
-1746,
-1960,
-378,
-1798,
-28,
-221,
-94,
-1529,
168,
101,
-499,
222,
-1175,
-779,
-287,
-401,
-1847,
-2974,
5317,
-85,
-1569,
-949,
-1204,
-68,
367,
-1614,
-204,
-613,
-1196,
-364,
324,
-2,
-568,
-236,
234,
95,
-479,
-621,
-1662,
-1509,
814,
1035,
1287,
-994,
1336,
-1283,
-2101,
2773,
4984,
2203,
330,
-1035,
-1063,
284,
-1073,
-50,
-511,
-5872,
-370,
-399,
-140,
-1587,
1953,
353,
-1362,
-303,
-368,
3172,
1161,
1068,
1553,
4567,
-4163,
-394,
1076,
-811,
-633,
-4200,
2566,
-1805,
1466,
-133,
-920,
-508,
-1090,
-16,
1323,
-2007,
643,
16,
321,
-1639,
811,
-132,
-638,
-776,
136,
2559,
872,
959,
-218,
-44,
-334,
-2249,
961,
-563,
-1493,
911,
-768,
-296,
-915,
95,
885,
406,
-1608,
-141,
2687,
154,
-27,
159,
-1559,
3822,
-1155,
395,
-1167,
-1663,
-2919,
861,
430,
-3191,
-2412,
-870,
-905,
-2112,
-1221,
-2908,
-35,
1217,
4965,
-71,
2009,
-5491,
-1241,
2518,
535,
-551,
-3055,
-528,
1413,
-1093,
1522,
308,
-60,
-1619,
-25,
1187,
-731,
2110,
-1093,
36,
-516,
1332,
1188,
640,
1947,
-636,
1432,
-922,
-990,
369,
-2438,
43,
-239,
496,
347,
825,
-324,
749,
1157,
-3379,
-2706,
3643,
18,
-1521,
332,
1316,
86,
2725,
-2992,
1,
1158,
-1292,
-117,
-2001,
666,
-473,
567,
-1316,
-2128,
1842,
-2497,
-1156,
-1618,
5528,
-1400,
-676,
-230,
-1713,
1707,
-1290,
-105,
-1031,
934,
5009,
-717,
-114,
-1897,
-962,
-268,
-6,
-3815,
-204,
-1906,
-227,
264,
-1431,
895,
2230,
-2057,
-1724,
-252,
-825,
-598,
-30,
-1978,
-146,
-808,
-1420,
470,
-312,
-1089,
2183,
-118,
-957,
-2415,
-1769,
484,
-3535,
-397,
-1113,
-901,
-706,
-936,
-535,
-1034,
-296,
1680,
1000,
1111,
-1844,
206,
-2171,
651,
1133,
-1480,
-1001,
236,
-1089,
1488,
-1318,
-1489,
-943,
437,
1454,
-878,
-3012,
-101,
610,
-659,
-1865,
1025,
1258,
-1248,
556,
-533,
-5143,
220,
606,
491,
-213,
-313,
90,
2650,
-197,
-1181,
-2082,
1125,
-1783,
-413,
420,
-2794,
-1830,
778,
-1251,
-53,
-753,
2838,
-692,
-785,
1093,
1030,
1614,
-1072,
-385,
2200,
388,
-1882,
-612,
95,
-663,
706,
974,
1231,
-438,
-20,
303,
-1521,
442,
344,
-1173,
711,
-287,
-870,
1330,
-1443,
-373,
-1150,
4366,
-714,
-2656,
2022,
388,
-48,
-35,
-257,
310,
-753,
-305,
-1306,
-1294,
742,
-1100,
-850,
1966,
-1448,
1879,
-216,
645,
-233,
1155,
-1050,
1381,
-315,
1498,
-953,
134,
403,
-75,
-1610,
-600,
-111,
-1383,
732,
-1011,
-103,
1943,
191,
2714,
2565,
-2892,
-18,
183,
-167,
-292,
-699,
859,
253,
-555,
-86,
2519,
324,
-2259,
-1212,
-2007,
-755,
-151,
851,
-251,
228,
-861,
410,
-54,
2577,
57,
1584,
-1822,
1066,
1071,
697,
-635,
-827,
166,
240,
489,
-960,
282,
536,
500,
-1174,
-616,
162,
155,
2355,
-691,
499,
642,
1667,
-802,
1049,
-1843,
501,
-3558,
-735,
525,
-239,
764,
618,
2724,
-538,
-793,
-673,
-1416,
-131,
-350,
-985,
544,
304,
1053,
1164,
1655,
246,
250,
1182,
-318,
647,
-472,
-666,
-1192,
-65,
380,
217,
498,
-327,
-766,
-1246,
-1022,
1530,
726,
-641,
-684,
294,
-599,
998,
-155,
992,
1200,
-227,
30,
-547,
-31,
-214,
-948,
-563,
591,
444,
343,
-991,
746,
1,
-829,
1051,
224,
1168,
-120,
1058,
-116,
-643,
-186,
799,
216,
-451,
-1175,
-249,
1125,
968,
-1017,
681,
-1146,
-204,
-7,
610,
-702,
81,
-276,
-702,
-685,
-1101,
916,
562,
-340,
-382,
550,
-348,
-443,
450,
689,
-1796,
-1899,
-260,
618,
-98,
-214,
898,
-2279,
576,
-368,
-1090,
1545,
401,
-730,
-184,
-1957,
-470,
1908,
77,
20,
191,
2057,
-1124,
-791,
-359,
-1030,
152,
728,
-1775,
-44,
-247,
264,
-1085,
639,
408,
-434,
-2535,
-602,
283,
-1229,
1073,
-1112,
-738,
1419,
117,
-272,
-736,
653,
-776,
-828,
-656,
-591,
-407,
-1220,
1069,
-297,
-1065,
-353,
-360,
-704,
595,
1154,
-1243,
-329,
-290,
-638,
-462,
636,
1114,
431,
525,
-579,
929,
-1354,
609,
-455,
-504,
-278,
-559,
701,
862,
210,
983,
-69,
396,
1025,
-1298,
255,
822,
-315,
484,
614,
1083,
803,
-56,
-81,
-1150,
-1674,
-334,
-8,
430,
332,
-760,
210,
1383,
-300,
67,
-1087,
361,
777,
-1027,
-1015,
-287,
-111,
424,
-1003,
-344,
952,
-1090,
926,
287,
-191,
57,
886,
588,
1106,
-1352,
722,
234,
408,
15,
-77,
-333,
-583,
83,
417,
-90,
-141,
724,
262,
443,
-691,
-1964,
-587,
-923,
-168,
-72,
445,
2123,
-60,
-766,
692,
13,
1329,
-1852,
-610,
121,
174,
1085,
-732,
-191,
88,
-829,
835,
263,
-321,
1551,
-482,
1058,
880,
-396,
3206,
-172,
-158,
-634,
243,
428,
349,
-858,
-343,
-802,
-744,
1296,
-249,
-324,
-1115,
-772,
-485,
-1149,
-531,
-522,
575,
-576,
1625,
111,
1485,
795,
-1238,
1440,
-88,
-1308,
1037,
-122,
-328,
-337,
-57,
1727,
-1785,
1173,
202,
-52,
-95,
630,
626,
61,
-822,
210,
1405,
486,
374,
884,
-1029,
-640,
58,
966,
-888,
197,
35,
-521,
-36,
-604,
-882,
711,
1519,
192,
-1272,
1492,
-592,
688,
-99,
-582,
-627,
-291,
715,
-726,
1354,
1185,
422,
-1379,
-700,
-412,
-87,
-1036,
-726,
989,
-25,
-85,
1103,
-222,
-401,
-31,
15,
439,
-721,
343,
-2356,
1711,
956,
-728,
-195,
-1240,
-94,
417,
239,
217,
-27,
277,
-535,
-1395,
-562,
1851,
-1113,
658,
2106,
577,
974,
-1798,
-350,
1009,
1595,
-626,
-1016,
381,
-479,
-261,
-1504,
-1898,
-928,
-576,
894,
-1093,
320,
835,
1108,
482,
261,
1636,
-739,
-388,
36,
-788,
536,
-692,
-643,
-842,
802,
-660,
-1571,
891,
-702,
-329,
-1412,
549,
-763,
2275,
1144,
-1526,
420,
-79,
35,
332,
-180,
235,
-857,
-852,
-155,
52,
-3,
245,
-494,
-40,
121,
-634,
-645,
-196,
-682,
1769,
155,
-238,
-1410,
-631,
-1641,
327,
-61,
1476,
134,
1531,
787,
1079,
15,
-1290,
-798,
-371,
124,
278,
-781,
-1523,
-655,
-469,
-969,
-1279,
1138,
-816,
-947,
2721,
-967,
3260,
-1370,
-1300,
-1569,
819,
439,
250,
-562,
-680,
1751,
188,
411,
-594,
-1067,
-2025,
334,
1767,
-145,
-1180,
-481,
619,
-158,
-291,
-34,
-564,
2113,
1349,
2287,
-474,
-589,
950,
-1105,
-994,
767,
121,
-586,
-696,
-1517,
-1783,
1942,
1183,
-569,
1053,
43,
-588,
187,
-69,
965,
-519,
526,
124,
798,
790,
611,
204,
3221,
-440,
-868,
-828,
-1129,
-1892,
801,
-1029,
-421,
-2334,
219,
921,
25,
-2688,
-240,
-2419,
1224,
3355,
-1030,
1349,
845,
-1469,
645,
1641,
-1017,
-1173,
-685,
783,
203,
1610,
-635,
-2312,
131,
304,
-1171,
-299,
-878,
-1413,
9,
-104,
-1146,
-1162,
-741,
-526,
345,
-1604,
-475,
-1339,
-830,
118,
1957,
-280,
113,
187,
-1435,
333,
1169,
-840,
-555,
-1448,
383,
880,
479,
3493,
-196,
-1002,
964,
-372,
-570,
158,
-126,
-664,
-1517,
226,
2092,
1650,
504,
335,
-1219,
20,
395,
819,
1106,
444,
126,
-2597,
196,
794,
180,
600,
-2452,
349,
-951,
-438,
416,
-464,
-819,
-305,
-1800,
540,
-453,
688,
371,
212,
-621,
288,
65,
109,
-269,
608,
660,
-1169,
945,
-157,
-222,
2970,
351,
2184,
-742,
130,
-1411,
-817,
-1068,
17,
-176,
143,
-331,
436,
-428,
1301,
2536,
12,
-3269,
345,
716,
-702,
2217,
543,
1561,
-732,
353,
133,
2085,
-206,
-26,
-807,
-587,
2947,
-576,
463,
-1185,
2168,
-475,
9,
-322,
348,
-87,
1287,
-297,
-2176,
1466,
689,
-1150,
-738,
-694,
1871,
-200,
104,
68,
-371,
1674,
251,
-542,
461,
-122,
1871,
-328,
-117,
477,
-1011,
1699,
1156,
-610,
-1553,
-476,
659,
2073,
-467,
358,
631,
-507,
-2116,
50,
-958,
141,
-533,
-849,
-594,
-1229,
1154,
1282,
-10,
308,
-949,
-854,
779,
-1241,
566,
743,
-773,
299,
-1439,
50,
-296,
-1180,
-420,
1016,
777,
998,
-2097,
-375,
4797,
171,
1261,
-1252,
601,
626,
-310,
-21,
-450,
1947,
1348,
-895,
430,
1479,
-457,
1036,
-2001,
1880,
-2020,
-297,
-170,
803,
418,
579,
-1125,
-2015,
68,
-299,
-957,
796,
-121,
-1034,
-234,
-1289,
-1015,
-5,
229,
3015,
-1864,
-861,
-43,
910,
-102,
-2365,
-835,
-701,
-398,
2177,
686,
-119,
-6,
876,
494,
-637,
191,
1042,
-934,
713,
-249,
1901,
-999,
-34,
-1140,
1396,
644,
2950,
-594,
406,
-862,
-676,
-95,
121,
-248,
941,
1015,
-1355,
527,
-229,
-472,
1227,
-295,
1849,
-403,
289,
-397,
-395,
-1333,
-223,
166,
-1709,
681,
-230,
-407,
1286,
-2387,
1308,
-1732,
1227,
-919,
-505,
-1024,
705,
777,
259,
-807,
1754,
1167,
647,
97,
506,
-1187,
137,
-459,
-344,
-111,
148,
396,
798,
1430,
552,
-727,
0,
713,
668,
-340,
1093,
-1218,
-344,
-575,
434,
320,
288,
-706,
704,
1648,
-919,
528,
942,
-557,
-43,
-1033,
-400,
-1222,
-1127,
1547,
673,
-542,
290,
1206,
-1748,
-478,
567,
1390,
1202,
332,
279,
1018,
28,
-376,
-515,
-963,
-1100,
879,
502,
-757,
1123,
-880,
-188,
-5,
96,
-620,
2496,
458,
-1662,
-834,
-697,
25,
-589,
-164,
-1066,
97,
-712,
-529,
458,
1245,
-864,
526,
-173,
539,
-1739,
0,
523,
-1589,
-417,
815,
446,
-1182,
655,
297,
-600,
-207,
-204,
-356,
-32,
-309,
1696,
248,
-304,
-774,
-793,
2332,
-928,
433,
1127,
-668,
-1094,
419,
-140,
-369,
-726,
-124,
-166,
-48,
-199,
-1022,
-644,
-687,
209,
332,
1367,
213,
12,
-1750,
-597,
-489,
-1071,
-87,
911,
423,
-106,
756,
-697,
115,
-239,
-235,
329,
1328,
561,
1676,
-2030,
385,
534,
-42,
557,
-920,
98,
336,
256,
652,
1419,
-782,
87,
-1112,
-567,
-1286,
1168,
-1136,
499,
-355,
-664,
-499,
88,
398,
-595,
-1283,
-307,
954,
-402,
-333,
-512,
-120,
923,
-659,
66,
43,
-268,
-1162,
-808,
-735,
234,
592,
-1497,
-971,
791,
-1324,
70,
-579,
680,
-824,
748,
-1296,
-241,
140,
-72,
-850,
669,
523,
-822,
-353,
378,
424,
-955,
362,
-754,
-412,
916,
1148,
-449,
438,
368,
-53,
-1210,
-1682,
-1709,
-349,
-20,
-1082,
-1510,
-1213,
-369,
-289,
1257,
-1346,
494,
694,
-1357,
-854,
-324,
-1172,
500,
70,
-10,
254,
354,
613,
805,
-1352,
-330,
-494,
146,
-129,
1300,
-234,
-374,
-397,
-293,
-1277,
-1249,
-754,
-852,
-429,
-461,
-242,
-1063,
-880,
-183,
-718,
654,
1249,
433,
-656,
-609,
1291,
-1423,
-98,
-559,
-1,
376,
-89,
-845,
-664,
-278,
-264,
-164,
3,
187,
164,
-653,
-1380,
713,
362,
1431,
-980,
-445,
-333,
-462,
158,
829,
607,
40,
-2043,
-731,
-108,
226,
495,
-1123,
-1753,
-608,
-108,
1197,
56,
-149,
-674,
205,
-396,
-421,
566,
329,
-170,
-555,
-404,
58,
-55,
-517,
-58,
770,
-320,
-647,
-235,
-89,
-372,
-27,
974,
962,
-803,
-191,
483,
-191,
356,
-813,
-43,
-636,
45,
-953,
-205,
-953,
-476,
-1140,
-796,
-287,
323,
96,
497,
-160,
-436,
-455,
391,
-424,
-2099,
-385,
-594,
-591,
-1539,
-1932,
-985,
386,
-1425,
-623,
-128,
-627,
3726,
57,
-90,
212,
-210,
-1281,
4511,
711,
-917,
909,
497,
1213,
377,
40,
-1997,
-720,
-622,
-184,
-148,
-1212,
-1960,
819,
721,
-1149,
-2720,
-1499,
-756,
2148,
-1089,
233,
-346,
1983,
621,
-88,
-1086,
1029,
48,
359,
198,
975,
-273,
-196,
874,
-2339,
-482,
-801,
602,
-212,
365,
85,
624,
-1380,
-436,
1659,
2214,
-2804,
-1583,
-150,
2296,
1119,
-715,
-1221,
-1302,
1232,
-658,
-969,
-1,
-504,
604,
570,
-341,
87,
-1109,
754,
2194,
1982,
-315,
1395,
-294,
547,
-1327,
633,
-1652,
658,
-695,
2875,
1355,
381,
393,
1693,
-1024,
-1223,
1300,
-2216,
-2586,
707,
-437,
-192,
3,
213,
-1114,
-407,
-1414,
-1202,
1469,
-957,
-1323,
-150,
199,
218,
176,
-426,
42,
1982,
30,
-924,
-1629,
2079,
473,
504,
321,
1214,
11,
52,
-1068,
634,
310,
-1053,
458,
-532,
-151,
-1328,
1152,
-128,
-511,
-1329,
-1737,
25,
-215,
531,
-155,
-212,
-1093,
-776,
-1560,
-1000,
-1052,
-119,
-477,
-463,
-43,
-384,
206,
1211,
267,
507,
-953,
-887,
-369,
468,
-573,
-815,
-339,
-922,
-628,
-1888,
148,
1140,
-330,
-583,
631,
185,
-743,
-311,
-1173,
-306,
1285,
-1196,
-692,
2019,
891,
1184,
1169,
798,
-104,
-802,
-200,
-663,
-1150,
1459,
-1406,
-220,
-1249,
-975,
-372,
807,
-203,
969,
-753,
-299,
732,
-514,
-959,
-1182,
-897,
-472,
1091,
-98,
794,
-3187,
-56,
2,
-378,
-260,
527,
425,
-307,
-2091,
-290,
-462,
858,
1196,
-776,
1558,
-3196,
-738,
-1289,
-1495,
-1956,
-1691,
-636,
913,
1599,
-826,
-747,
-70,
473,
-258,
1469,
-181,
686,
-160,
-1975,
-2470,
-633,
604,
1331,
-221,
436,
-721,
-1492,
-895,
1321,
-130,
-877,
-2076,
-94,
1044,
87,
144,
-778,
-2547,
-619,
2895,
2495,
-1973,
-1993,
114,
-646,
-310,
59,
-442,
-1024,
77,
1483,
559,
-1740,
81,
-1331,
-1989,
603,
-42,
871,
-264,
-2559,
396,
-1036,
30,
-1572,
-1602,
-1091,
-276,
1697,
-4323,
-2317,
-18,
-1369,
-229,
434,
-513,
-39,
2606,
1588,
-1646,
1002,
-2003,
3403,
258,
4,
680,
-1320,
-1009,
-2079,
-581,
1812,
143,
2197,
666,
-1156,
-1229,
-552,
-1163,
-2422,
235,
2407,
-1593,
-867,
1677,
-237,
819,
-329,
-100,
-119,
352,
-922,
1130,
961,
-591,
-1387,
805,
-593,
294,
1631,
-115,
-67,
-2644,
-2738,
-1530,
-211,
-1081,
-729,
-1589,
-2357,
-611,
-967,
1821,
-1990,
20,
1015,
158,
-81,
446,
-1661,
-1171,
-293,
-1395,
-566,
-1550,
-663,
-1322,
-647,
-569,
-1169,
-763,
-404,
-435,
1693,
257,
2444,
-1133,
637,
-268,
-1074,
8,
-970,
-350,
642,
-983,
2323,
-1246,
687,
136,
-500,
531,
-2162,
1085,
-276,
-431,
508,
-1797,
1261,
1223,
395,
-339,
171,
-460,
38,
-30,
-574,
-1088,
-115,
1687,
249,
42,
-88,
-414,
-2277,
-1509,
-830,
154,
66,
77,
851,
379,
-1192,
218,
113,
-474,
-141,
1155,
2,
125,
679,
30,
-476,
529,
-824,
-1878,
-145,
190,
295,
-241,
-127,
-645,
-814,
-778,
53,
-1695,
-714,
-195,
-189,
-940,
1134,
-1459,
848,
-249,
-1251,
-1651,
-574,
180,
478,
-1114,
-2426,
411,
-1121,
-142,
21,
-974,
-935,
-1080,
-305,
96,
413,
-639,
987,
299,
-534,
173,
-1746,
-1545,
-151,
977,
-304,
389,
1637,
-646,
181,
-923,
-848,
1815,
-601,
-964,
225,
-2043,
-518,
1780,
129,
108,
748,
359,
-676,
1477,
-355,
-1654,
516,
1026,
-67,
529,
252,
415,
301,
1307,
605,
-522,
-1119,
123,
-1108,
-941,
-1235,
47,
623,
-628,
-1657,
-234,
-2262,
-87,
2266,
398,
1623,
-279,
-758,
-1699,
1440,
293,
-289,
-13,
-192,
-1035,
1141,
-392,
-478,
308,
-189,
-337,
-519,
567,
-387,
463,
797,
-1678,
1544,
-1386,
-98,
540,
-763,
577,
479,
-504,
702,
814,
592,
566,
-562,
-831,
168,
-383,
2005,
-626,
1196,
1395,
-406,
-341,
-286,
-575,
-710,
-790,
-16,
-1332,
635,
-858,
306,
-558,
404,
-263,
1100,
46,
77,
-1484,
-1033,
731,
-397,
-267,
-88,
1863,
573,
1584,
145,
-180,
-985,
-637,
210,
1504,
-59,
271,
1336,
35,
173,
132,
-601,
-395,
29,
1241,
380,
-311,
-837,
-398,
-447,
-1223,
180,
-189,
-651,
-325,
942,
158,
-954,
323,
389,
-163,
-824,
-642,
-279,
-686,
777,
-471,
529,
527,
349,
436,
-310,
-209,
229,
-4,
389,
-906,
288,
-16,
-190,
-594,
-271,
185,
-707,
357,
-103,
-1297,
-374,
-38,
-119,
-402,
-1085,
-168,
224,
-549,
-1012,
-1566,
327,
-1246,
-687,
82,
-699,
-425,
595,
1161,
-726,
60,
1248,
588,
-760,
-132,
-667,
-2071,
-401,
306,
1234,
563,
299,
-173,
339,
-348,
-1184,
108,
-609,
-917,
63,
-958,
-312,
2002,
46,
74,
80,
-426,
-824,
481,
-353,
-1479,
-25,
1077,
228,
-379,
-649,
-760,
-476,
316,
-392,
-763,
238,
-743,
456,
61,
-792,
-1167,
-237,
-206,
-880,
-141,
-1013,
-131,
157,
-778,
-886,
-931,
-1498,
98,
-773,
-281,
408,
53,
171,
-307,
1870,
118,
-798,
604,
-232,
-283,
-456,
-626,
177,
-52,
-1048,
-920,
303,
-319,
-109,
-326,
-889,
943,
-1030,
1114,
-275,
1107,
-164,
599,
-1701,
1327,
-586,
-690,
1161,
-1067,
1818,
572,
1059,
-310,
-790,
-500,
-821,
-63,
297,
-375,
773,
-1882,
1274,
-80,
181,
717,
99,
174,
-8,
-366,
19,
31,
-309,
-410,
-1174,
-518,
-918,
186,
-266,
237,
-627,
-1277,
-956,
-836,
-377,
-2867,
-1208,
-675,
1241,
-486,
-299,
1623,
288,
-395,
418,
-636,
244,
-740,
-1299,
-1429,
-1672,
-437,
-1744,
-567,
-521,
1013,
-702,
1108,
1223,
663,
-909,
-1056,
-264,
688,
105,
-738,
183,
577,
666,
-817,
-567,
-990,
137,
-510,
-415,
424,
991,
-21,
432,
-1293,
150,
-1498,
-487,
-332,
-277,
-1205,
-1036,
451,
-888,
1791,
-724,
-203,
-454,
158,
-476,
-1161,
783,
-1157,
-1794,
31,
-880,
-931,
-520,
-103,
-1126,
-766,
332,
496,
-137,
-349,
568,
-2196,
-1587,
-453,
50,
-1434,
-133,
1720,
-1014,
-2393,
-602,
-647,
-1334,
-329,
-942,
858,
-821,
737,
-446,
612,
-1518,
-167,
-672,
166,
2239,
-993,
360,
-466,
-227,
-673,
-705,
-493,
-340,
533,
-1278,
-686,
158,
-406,
498,
-522,
-1558,
-906,
486,
-1203,
1245,
390,
506,
-1089,
-812,
254,
-900,
241,
-1695,
-1908,
107,
180,
241,
-683,
-1372,
307,
605,
321,
103,
786,
-1972,
-465,
-274,
-1241,
552,
1095,
470,
-88,
-1076,
1127,
-308,
-794,
897,
597,
-1105,
-504,
-861,
-542,
-2243,
1051,
-1713,
-1051,
-1024,
-923,
-858,
-111,
-713,
-1299,
330,
13,
-452,
-146,
1642,
33,
-1069,
-2757,
-1117,
-1233,
-95,
-171,
850,
-38,
803,
269,
-448,
-306,
-2215,
-305,
-1145,
397,
12,
-958,
2679,
-2779,
-503,
675,
-1932,
740,
2614,
-433,
-469,
1144,
-398,
-596,
698,
-138,
299,
-2536,
476,
-371,
482,
3983,
86,
765,
-724,
1769,
-1561,
591,
504,
1942,
834,
-930,
1319,
-2533,
-790,
-2754,
-3162,
-314,
1847,
1689,
-178,
-979,
-641,
1426,
3693,
-1185,
-549,
-2105,
143,
-541,
-1939,
-1767,
2506,
-1000,
1462,
-44,
1864,
-187,
-1351,
-2116,
-690,
-551,
1195,
-1695,
252,
-1921,
-1041,
974,
-47,
-2276,
-452,
1126,
-2228,
2213,
-310,
1237,
3444,
-2936,
-1346,
-69,
44,
-1503,
-877,
1621,
2719,
-554,
-1433,
-1843,
159,
-139,
-1410,
-198,
-1892,
542,
-2573,
-1602,
-804,
1372,
-1150,
-990,
-966,
2855,
-2216,
-400,
-1827,
241,
-340,
805,
763,
1631,
650,
-3847,
606,
1318,
2104,
-191,
99,
774,
601,
-342,
3304,
-1369,
-100,
541,
2462,
1711,
1950,
-1177,
-260,
496,
-383,
999,
0,
-1963,
-197,
-1063,
-857,
-692,
1890,
-642,
384,
-1056,
-1141,
2709,
1791,
2521,
-2444,
1394,
4030,
-1542,
-645,
1185,
823,
715,
-3157,
-1853,
-187,
1310,
-1421,
-623,
374,
-1176,
272,
1784,
44,
487,
781,
-1526,
-157,
942,
-1137,
17,
391,
-1825,
-591,
469,
-2948,
-2780,
-165,
-1688,
2175,
-99,
-701,
141,
741,
-2095,
-650,
-2630,
2,
1174,
-460,
-126,
605,
411,
1389,
199,
-1296,
-530,
-333,
-456,
-239,
405,
3678,
-1000,
485,
-1903,
-1612,
-276,
-1165,
-245,
1392,
121,
-640,
359,
-509,
-524,
-579,
-791,
1830,
1769,
368,
121,
-632,
-1645,
235,
-1139,
-845,
93,
373,
-769,
-700,
693,
-1024,
-944,
-873,
-1621,
-352,
-1582,
-13,
1129,
1543,
-386,
406,
356,
1675,
283,
-1008,
-940,
-401,
-345,
-539,
-1957,
-754,
-647,
-376,
-832,
-807,
320,
-1177,
-843,
1255,
-2436,
363,
-983,
357,
-1287,
-707,
1971,
-522,
-177,
595,
-1420,
311,
-1131,
-550,
1089,
900,
-1804,
220,
-395,
-806,
-409,
-580,
-1268,
6,
-240,
-2632,
-316,
1363,
792,
619,
-1589,
-470,
-1168,
-1616,
-1133,
-855,
-1680,
-339,
-1667,
890,
165,
1530,
814,
-1218,
1013,
-2813,
-438,
-2618,
1619,
-71,
-2004,
-444,
-337,
-158,
-782,
-838,
1850,
-951,
1613,
-1805,
-2930,
-1510,
-831,
-1023,
-718,
-697,
-603,
-309,
-394,
-3179,
-853,
-1347,
2129,
-8,
-282,
1949,
1074,
-3159,
199,
-61,
1825,
-498,
-1261,
680,
-294,
1513,
-297,
-869,
2168,
-932,
355,
945,
-1618,
-102,
-32,
-807,
-1412,
-815,
-1690,
-2312,
-1691,
-1245,
-2495,
-599,
-283,
-138,
-317,
-275,
-870,
-461,
866,
-3156,
-36,
-163,
-1433,
-1191,
-1319,
-1140,
106,
-1070,
-1251,
-625,
1574,
1393,
-1176,
-1207,
-2108,
-133,
-208,
-41,
1044,
55,
-507,
-681,
-1019,
-1473,
-284,
-658,
-554,
235,
-115,
-94,
961,
-960,
1367,
69,
-85,
-868,
1069,
629,
2009,
-1547,
62,
289,
-165,
576,
-260,
-299,
-925,
-986,
467,
-335,
-1408,
603,
54,
-1357,
-725,
-1548,
526,
636,
-74,
-17,
-169,
933,
216,
-964,
461,
-646,
408,
-2164,
-267,
127,
-351,
919,
1111,
-188,
420,
-540,
-386,
1047,
-396,
1370,
-994,
511,
745,
-785,
2621,
900,
-496,
109,
424,
-361,
1351,
-495,
-91,
-1995,
-160,
1408,
-99,
-1144,
-321,
-141,
14,
-986,
-2188,
-248,
1194,
-912,
-924,
326,
1358,
881,
-1478,
829,
625,
-2412,
539,
-1396,
-621,
-151,
-327,
1605,
-764,
1053,
75,
-55,
-1721,
1132,
671,
-936,
122,
-1054,
445,
-217,
4,
886,
523,
-623,
-939,
615,
-2013,
-12,
-113,
-956,
-1040,
212,
-1101,
-1424,
1104,
344,
-1479,
780,
-784,
861,
549,
-1558,
-757,
-630,
824,
-338,
1533,
1819,
105,
-999,
-991,
89,
116,
-173,
-125,
591,
-668,
-261,
-272,
-591,
-100,
-655,
1450,
-490,
-1264,
890,
-1634,
2543,
948,
-423,
61,
-188,
781,
735,
1096,
44,
-718,
-191,
-821,
-1634,
-406,
-568,
-937,
737,
586,
157,
1637,
-912,
-500,
968,
1509,
-1510,
-889,
-426,
-1517,
222,
-14,
-1163,
-1457,
-314,
239,
-684,
-595,
50,
1425,
678,
1427,
1300,
695,
-228,
246,
-1188,
761,
-846,
-973,
567,
-2161,
-718,
-264,
49,
-76,
53,
377,
313,
-29,
142,
-55,
-648,
-974,
165,
508,
-582,
199,
-632,
-888,
350,
-338,
-574,
-1412,
-105,
362,
232,
423,
1427,
84,
-684,
-689,
-699,
226,
-1804,
1535,
372,
213,
-776,
-622,
-1796,
1863,
-750,
723,
110,
-156,
-49,
2055,
19,
2448,
503,
-160,
288,
-461,
-786,
1421,
720,
139,
565,
-523,
-1042,
-47,
-925,
-537,
1161,
427,
135,
-844,
-670,
300,
873,
632,
-64,
-99,
-101,
-600,
201,
1718,
768,
-82,
-833,
507,
-478,
1506,
-861,
-261,
584,
2469,
446,
-468,
-1269,
390,
372,
-636,
-522,
213,
350,
356,
-935,
-1347,
-385,
234,
-1603,
-143,
-806,
289,
-949,
517,
629,
-529,
-74,
-565,
-433,
-347,
-1499,
164,
-1132,
-51,
130,
-1067,
-621,
1216,
-787,
528,
1240,
-509,
-801,
-137,
-293,
930,
-548,
-973,
-140,
464,
363,
-651,
-438,
100,
-1120,
1297,
196,
279,
-365,
-307,
-1169,
-1490,
-244,
1208,
134,
-1365,
-308,
153,
-61,
-36,
286,
-170,
1876,
-214,
-630,
313,
1398,
199,
-648,
458,
-759,
-29,
-307,
104,
-1172,
-1232,
954,
-622,
1339,
237,
-65,
1947,
2164,
-242,
-1028,
-273,
971,
2315,
169,
-279,
-181,
410,
-1021,
1236,
-79,
898,
207,
-287,
-550,
-380,
544,
515,
-988,
-377,
862,
360,
-1003,
-928,
-4501,
-1243,
1911,
449,
-2347,
-1539,
429,
-2185,
-552,
-1096,
353,
1292,
232,
-126,
-2056,
2220,
-107,
-840,
312,
-1611,
233,
990,
-633,
-749,
-1780,
-1293,
1795,
-808,
717,
89,
-967,
-1355,
-1349,
-1,
-378,
1095,
-426,
-492,
-799,
51,
-2000,
-1582,
-429,
675,
-1398,
707,
314,
-286,
-1267,
768,
-1132,
627,
-414,
-1354,
32,
-925,
-827,
455,
1039,
-1417,
-1789,
-565,
-1225,
1299,
1652,
-1483,
-3342,
-1843,
1691,
1205,
-1621,
602,
-2506,
512,
-1679,
334,
-297,
-530,
423,
-158,
-859,
579,
-1101,
-172,
-97,
-1102,
2968,
780,
-814,
-1101,
-1051,
189,
185,
-2539,
536,
-718,
0,
414,
2211,
-248,
-2883,
-1351,
-816,
-686,
-3069,
-318,
-1830,
-2184,
-1355,
-2178,
-14,
-2877,
1740,
-499,
-307,
-838,
-303,
-306,
-1363,
-1742,
-237,
-480,
2492,
621,
-1462,
-2178,
-974,
683,
-364,
512,
-772,
-1553,
-884,
-1518,
2336,
-1182,
667,
-239,
1919,
-2917,
-944,
-1609,
-382,
-380,
-1535,
-629,
-1007,
1604,
-1466,
-955,
-869,
-1265,
-1653,
-1722,
913,
-464,
-2183,
334,
-264,
-3149,
295,
-1930,
-2659,
-204,
-359,
-2510,
-388,
-1302,
7,
-267,
957,
-343,
2861,
-612,
-3042,
-227,
424,
-1270,
-523,
-26,
1201,
33,
-857,
113,
-31,
-89,
-225,
-603,
-1184,
1012,
-455,
98,
417,
-975,
-4825,
-2186,
-3198,
327,
817,
-4308,
733,
-1211,
-2883,
309,
1427,
5927,
-1337,
1117,
-145,
105,
36,
-2910,
1070,
135,
-750,
1534,
-2187,
-2828,
-751,
-84,
-2736,
-307,
859,
935,
1552,
-2076,
-978,
-2712,
-1156,
-1087,
-426,
513,
-2133,
1619,
-427,
4446,
-660,
1571,
-3502,
2610,
-1293,
45,
97,
199,
261,
-337,
-1752,
29,
-258,
