#ifndef __TRAN_CONVNORMRELU2_CONV_0_BIAS_H__
#define __TRAN_CONVNORMRELU2_CONV_0_BIAS_H__

// tran_ConvNormRelu2_conv_0_bias
// (200,)
const int tran_ConvNormRelu2_conv_0_bias[] = {
1013,
-919,
-2046,
-2494,
-42,
-748,
1895,
-142,
-388,
3945,
-3238,
85,
-1719,
1843,
471,
-956,
-3929,
1073,
-867,
-1117,
-1672,
-5302,
-1676,
-2162,
0,
781,
69,
2487,
3119,
-612,
-1352,
1964,
420,
-492,
-576,
1200,
-569,
-41,
424,
939,
-3655,
-994,
-611,
1445,
-617,
-2079,
-3401,
-2101,
2199,
520,
-10,
-76,
316,
217,
-4616,
-399,
-1215,
-288,
-2142,
467,
1513,
-115,
700,
2240,
-405,
-117,
1537,
-1349,
-2070,
-778,
219,
-4680,
-232,
1811,
-2390,
1080,
2877,
1069,
-967,
844,
-56,
85,
-688,
-2159,
-1171,
-4277,
47,
10,
261,
4897,
723,
-458,
848,
250,
2636,
3193,
1274,
3400,
1702,
2353,
412,
3175,
-291,
1847,
493,
-2243,
1411,
-2659,
759,
-538,
504,
-1911,
-1964,
944,
-1552,
-335,
-2996,
1291,
951,
-3503,
491,
726,
-2908,
3358,
3363,
-458,
22,
-82,
524,
423,
-1415,
-1817,
2387,
504,
1889,
-908,
1056,
-2388,
-315,
-66,
3241,
3604,
357,
-898,
1089,
1148,
966,
-2566,
-2255,
-245,
-76,
-3687,
886,
-2997,
483,
1639,
967,
-1178,
-484,
228,
1308,
480,
3144,
2380,
850,
-3620,
2857,
-1179,
106,
589,
-2322,
-2110,
1949,
214,
1725,
474,
185,
3486,
4631,
909,
-144,
365,
-1053,
989,
393,
-1728,
-1963,
-1129,
1005,
-1478,
-491,
2102,
352,
-2322,
-1507,
-1075,
456,
611,
2844,
2128
};

#endif