#ifndef __TRAN_CONVNORMRELU4_CONV_0_WEIGHT_H__
#define __TRAN_CONVNORMRELU4_CONV_0_WEIGHT_H__

// tran_ConvNormRelu4_conv_0_weight
// (1, 1, 464, 464)
const int tran_ConvNormRelu4_conv_0_weight[] = {
1659,
-3623,
2381,
667,
2847,
314,
846,
199,
-4818,
-1783,
117,
2027,
2939,
2704,
-1502,
12,
-805,
-3480,
-1259,
51,
-2240,
-1738,
1252,
1631,
-1857,
3751,
1061,
726,
-698,
4977,
2189,
239,
4859,
1685,
1021,
-2760,
34,
-725,
-473,
-2316,
-379,
3439,
5096,
1029,
5519,
-1118,
-1609,
-2779,
-1316,
-3783,
-2459,
-320,
-696,
715,
-1855,
40,
-2268,
-387,
-2660,
3606,
-1273,
-1923,
3347,
3290,
1834,
3622,
24,
-718,
3340,
-1322,
1207,
-1545,
240,
-3227,
-835,
-829,
2720,
4033,
848,
-1406,
-1367,
-164,
53,
4850,
-2053,
-732,
-2639,
-1847,
582,
5323,
447,
132,
-581,
-1286,
-1655,
2229,
4011,
-771,
85,
664,
-3264,
2336,
247,
2528,
-1515,
5077,
316,
3060,
-183,
338,
-990,
-3412,
-4463,
-3535,
133,
-4064,
-3404,
133,
-2861,
6498,
2391,
1604,
-1871,
-155,
-1201,
-2816,
437,
2227,
1759,
-1576,
623,
-4835,
-1198,
-602,
-1124,
4085,
-1013,
218,
3032,
3830,
-1726,
3072,
-5526,
-606,
-1430,
-3587,
2559,
1307,
-1414,
1121,
-1505,
98,
-950,
2395,
-2638,
-285,
733,
-765,
-3024,
-1764,
-1444,
-1500,
2993,
-769,
-6439,
-1135,
1381,
1711,
10971,
-123,
-4988,
1613,
-983,
-3726,
7019,
5305,
3671,
-2991,
812,
2038,
1585,
766,
1084,
-3808,
-4695,
-1596,
-1895,
3299,
-2720,
-3043,
-2694,
1037,
-3820,
-429,
3168,
1410,
484,
3288,
-647,
861,
-3838,
-2065,
-2556,
-1014,
-789,
2061,
2210,
-1137,
1970,
-5177,
-1113,
-546,
-1054,
249,
451,
-687,
-1306,
475,
-917,
-62,
2625,
-1349,
677,
332,
-545,
1655,
-1704,
-2812,
1328,
-1161,
2911,
-103,
731,
1631,
3431,
-1267,
-463,
81,
1644,
2521,
-3598,
-545,
-380,
3222,
-1565,
-1336,
1682,
-748,
-1314,
-1938,
139,
208,
4408,
1940,
-1765,
1974,
-2804,
-531,
2099,
2077,
1661,
-2297,
2302,
574,
-2138,
-3321,
335,
-1446,
645,
-3268,
185,
-2189,
-3328,
-1426,
-661,
-568,
-1308,
-14,
3213,
839,
-2681,
-3238,
2095,
2751,
-1184,
-3303,
-3135,
937,
-3105,
-642,
-1571,
717,
-666,
774,
2552,
2580,
3199,
-1281,
-2393,
-8,
-954,
-1370,
5048,
-1726,
2051,
-4979,
-655,
4038,
-2499,
-3944,
612,
-919,
-2962,
2677,
-2030,
-105,
-2488,
74,
2349,
2323,
256,
1351,
1293,
-358,
-3619,
189,
-2510,
-2214,
466,
-1986,
-713,
-3701,
2950,
-4,
950,
1793,
198,
2041,
892,
6631,
-903,
-206,
-24,
1438,
2855,
1874,
754,
-4365,
3440,
-4596,
-5242,
257,
-1509,
3335,
3498,
3796,
-3503,
-831,
660,
-6181,
-578,
1812,
-1867,
-1513,
3133,
-1654,
-1496,
7618,
-2219,
100,
-2617,
1321,
-3000,
1449,
-959,
-2349,
3579,
-1983,
-1270,
-766,
-438,
-2676,
3893,
1104,
1462,
3859,
5595,
-2508,
-3266,
2471,
-1991,
947,
1332,
-761,
-1327,
1532,
3618,
-2825,
-398,
-763,
-811,
371,
-3425,
-247,
-798,
-1199,
-732,
-867,
-1765,
-1105,
-1791,
4327,
-2283,
1854,
3734,
-1434,
65,
-1792,
-863,
-503,
3222,
-1903,
2175,
-401,
73,
-2799,
-2630,
2383,
-976,
-1738,
2101,
-3661,
1863,
-1833,
2306,
3649,
880,
-1545,
-4190,
683,
-2828,
-2755,
996,
9195,
6407,
-1815,
1100,
-3565,
5401,
-1062,
-1230,
842,
1098,
-114,
-2174,
2347,
-1916,
653,
1937,
1976,
626,
-721,
-606,
-231,
-1823,
1862,
1162,
-4197,
2164,
-1538,
2661,
-2947,
-1881,
4186,
-408,
-1475,
1174,
-2735,
-500,
-2470,
-5557,
2289,
-2806,
1579,
1032,
-933,
1292,
-245,
-61,
2561,
874,
355,
969,
1774,
1316,
-4300,
10960,
-4576,
748,
404,
-3180,
-6247,
-3516,
-1157,
1332,
1698,
534,
-1646,
2033,
-531,
-4848,
-1558,
-1563,
-2380,
-1059,
269,
-2561,
961,
-3056,
-4199,
-1068,
-1834,
-2422,
-4460,
-3032,
-2604,
-6127,
2805,
-2014,
733,
-776,
-5731,
4661,
-4802,
-1972,
1030,
642,
-992,
4481,
-1167,
4840,
483,
-1033,
-722,
-4570,
78,
-1781,
4536,
-3256,
-306,
9616,
-1980,
-1076,
408,
-566,
-141,
-228,
-2417,
-295,
2589,
2461,
910,
-2876,
-2111,
-1016,
155,
1307,
-943,
-1448,
5645,
-5154,
1519,
-242,
508,
-3613,
-1036,
-1655,
-1902,
-226,
282,
-1563,
-2372,
-586,
5134,
459,
1404,
-1432,
3698,
-2160,
-185,
-4426,
-811,
923,
-474,
-1855,
1911,
-1598,
-5827,
-5325,
3766,
-1370,
-2553,
1553,
-3530,
-2222,
54,
-2503,
564,
-3202,
-2557,
1334,
-5455,
1041,
-767,
-1801,
-195,
-6732,
2296,
-2320,
-4464,
25,
-34,
-4821,
-3037,
-2819,
-4378,
2232,
-782,
-2920,
809,
-3524,
-322,
7862,
-1455,
-3110,
-1228,
-398,
-2017,
5310,
5656,
-613,
-4077,
-2141,
1526,
6609,
-7239,
-3628,
-1288,
-62,
-2440,
-341,
2163,
-245,
-3675,
-314,
670,
-1444,
665,
1565,
9923,
-5182,
-1376,
-747,
-933,
221,
-4470,
1858,
334,
-82,
-1276,
-3630,
-569,
-1156,
-1508,
-4092,
-2035,
-1815,
-4059,
-5186,
-2364,
208,
-4201,
649,
-599,
1926,
-1152,
-1281,
-932,
-665,
2431,
986,
142,
54,
-1114,
2314,
-288,
-2861,
258,
254,
790,
-2164,
745,
264,
-309,
-1804,
-3009,
-429,
3673,
-2464,
131,
405,
5574,
-773,
-181,
-3540,
6076,
3923,
-1362,
1622,
-2820,
-1430,
1070,
120,
-4943,
2325,
-2964,
2426,
-706,
-2890,
-3189,
-390,
1540,
-1085,
-1150,
-3937,
-3642,
5409,
-1464,
-2203,
-2821,
1327,
-2861,
-2054,
-4085,
-867,
-335,
2271,
6137,
-1832,
-1580,
-697,
3653,
91,
-2648,
-2449,
-5957,
-4367,
-3397,
449,
2038,
2978,
-2950,
1716,
64,
-1995,
-865,
1570,
-407,
-967,
-2112,
-1351,
-3538,
-828,
-2608,
1564,
-2518,
-908,
3402,
62,
426,
-1664,
-907,
869,
2080,
-813,
-1680,
-1323,
2,
-109,
-1967,
2118,
29,
2544,
364,
654,
3608,
-2757,
342,
316,
2453,
1718,
95,
-1002,
5311,
-1693,
-1411,
-1633,
619,
1576,
1068,
-2579,
-998,
-673,
-2403,
2777,
2611,
-1279,
4356,
2690,
2474,
-2522,
-3717,
-2925,
-2190,
10,
245,
-2241,
-985,
2195,
671,
-512,
2140,
1149,
3641,
-70,
-243,
-1316,
2668,
-1284,
-1744,
1612,
4599,
-1381,
-1577,
-1665,
-1298,
2976,
-2856,
-861,
-293,
3427,
-4012,
-3293,
2933,
-373,
8,
-1302,
-3135,
-101,
4423,
348,
857,
-2570,
-35,
-4437,
-4100,
1909,
1883,
-3308,
329,
235,
-264,
-5,
-4911,
-2153,
8800,
-808,
-128,
380,
-2268,
-5409,
67,
1430,
-3429,
2979,
3234,
183,
1714,
-654,
-891,
-1757,
-243,
-1126,
-658,
746,
-128,
-2168,
963,
854,
3779,
-5173,
-634,
-2525,
-547,
1006,
-2422,
-4525,
8141,
959,
-870,
-72,
-1122,
-1828,
-1532,
-158,
191,
238,
2211,
-2064,
2783,
5,
-3806,
2758,
-1488,
-3476,
-7922,
1567,
-1222,
-858,
-2504,
225,
1342,
1734,
662,
247,
3784,
852,
-893,
266,
-2341,
-1924,
-280,
83,
-604,
2913,
-2313,
-360,
-562,
-3893,
-471,
-1421,
5133,
-850,
-164,
437,
1279,
-3300,
4535,
-2154,
658,
1723,
-264,
1066,
-2598,
2988,
2154,
1327,
1012,
-847,
3809,
3110,
2269,
5225,
-309,
3220,
251,
-489,
309,
-268,
2007,
1814,
698,
2500,
3388,
-202,
-1176,
907,
438,
757,
-1118,
1386,
-318,
655,
2813,
-878,
1428,
2502,
1213,
-1260,
-1906,
-1417,
-141,
-556,
-1440,
1205,
1790,
384,
-2757,
262,
-1838,
-1297,
4444,
-901,
-2058,
-4033,
-3521,
-1455,
7048,
109,
-2133,
605,
-703,
-2937,
-2726,
6344,
-482,
3869,
1445,
-520,
2362,
-2148,
833,
-112,
4664,
398,
1747,
1062,
-2862,
-669,
-4017,
-446,
112,
-1602,
-1136,
-406,
-241,
-2244,
-429,
2727,
611,
-844,
721,
7,
-646,
1552,
2636,
-1898,
-2098,
-1536,
-1690,
426,
2688,
2657,
2191,
1252,
2394,
3493,
7984,
459,
-3054,
-207,
1692,
960,
-531,
-1575,
312,
944,
-721,
-482,
1111,
2227,
-258,
-622,
228,
-891,
-1006,
612,
-331,
-761,
1546,
-1002,
828,
-536,
-1932,
775,
4483,
10010,
-487,
-363,
53,
-1343,
-85,
-1008,
2644,
2518,
141,
1564,
-43,
71,
1710,
3902,
-697,
-2082,
842,
-1663,
3696,
98,
1624,
-2525,
-1092,
369,
-865,
-2812,
679,
-1336,
3990,
365,
-682,
-4386,
-783,
3216,
-2115,
-2609,
2514,
106,
-3533,
-86,
77,
-1516,
1272,
66,
-1873,
3799,
1229,
-1255,
2030,
-900,
-840,
-1641,
-799,
-145,
-787,
-745,
2147,
1726,
-2646,
-951,
385,
1841,
-510,
-693,
-692,
4467,
-251,
99,
-3200,
2810,
-2423,
-1341,
-270,
-3,
2344,
1172,
1371,
444,
647,
-3632,
602,
-2593,
1359,
-1791,
5862,
-488,
846,
-63,
-919,
1895,
1271,
1125,
1048,
-308,
-1201,
1324,
-562,
-1864,
-2073,
-345,
-4381,
2801,
934,
-65,
935,
136,
167,
-2376,
-13,
-1580,
983,
-343,
-821,
-3073,
569,
-2546,
-883,
-2409,
917,
-1119,
-1821,
647,
2170,
951,
-2699,
3548,
1246,
1735,
1265,
-913,
641,
-376,
142,
4392,
448,
59,
-16,
621,
-379,
-3076,
493,
183,
365,
-433,
1346,
6,
1095,
-1657,
-1075,
3983,
-304,
63,
718,
-1601,
-861,
543,
-756,
-1735,
-2083,
-235,
-3270,
-2696,
243,
287,
-1307,
-1098,
1353,
-2222,
5984,
1659,
8635,
583,
1024,
3362,
4286,
-462,
-575,
-1011,
1659,
12,
-103,
506,
1119,
512,
736,
-541,
1294,
644,
1510,
3809,
-1970,
181,
4314,
621,
26,
3924,
-1289,
-271,
2374,
-270,
121,
-2416,
-1909,
-44,
-1029,
-712,
323,
3281,
-2160,
-194,
633,
-34,
-2601,
-1531,
-1556,
2298,
-2133,
2278,
1315,
482,
1552,
113,
2675,
1790,
-1033,
-3426,
1089,
-781,
-2846,
1481,
-2439,
924,
-917,
-4985,
1416,
-1273,
-1980,
-603,
-1340,
2151,
1320,
564,
1278,
-1336,
-1176,
-1187,
-425,
2277,
-718,
-910,
1830,
-2121,
-5184,
2433,
-1670,
-1083,
-2094,
-711,
-1972,
-733,
-3261,
3960,
-1071,
327,
-564,
-302,
-631,
997,
-1549,
385,
1879,
-1115,
849,
3526,
9711,
7551,
-1788,
-1539,
-4210,
840,
697,
-3559,
-1745,
-1078,
-3160,
-346,
1146,
-986,
1551,
-935,
-541,
1847,
3898,
-297,
-959,
-2482,
4221,
-755,
-4541,
-1569,
-1023,
1944,
-5934,
1119,
1305,
-1152,
-1165,
-280,
-3199,
784,
488,
-4965,
2948,
844,
16,
-891,
187,
-297,
-3236,
2051,
-1286,
47,
-2026,
2409,
-2379,
-2197,
-3675,
2227,
-3183,
-1671,
-108,
-2693,
-2577,
-2383,
2193,
2436,
-2042,
-3353,
-4214,
-2614,
1044,
-5167,
2072,
1037,
-928,
1860,
77,
494,
-1407,
-1835,
-3471,
-58,
42,
770,
-5708,
1068,
-530,
-9298,
-1261,
-3234,
-2967,
1467,
-3922,
-504,
409,
765,
-738,
1029,
2108,
2900,
1165,
-153,
-2362,
-1975,
5068,
-2469,
350,
2140,
-1223,
2,
2451,
1145,
6261,
3661,
-4668,
-307,
1127,
409,
135,
-126,
-980,
-3310,
-709,
-3351,
-2048,
1769,
-60,
2527,
-2050,
-89,
-2483,
-4375,
-1789,
-2995,
1740,
314,
4125,
4687,
-228,
25,
6422,
3484,
308,
6398,
-1117,
-373,
-637,
1076,
-1023,
135,
6009,
-5817,
-3237,
-1519,
4128,
-1562,
5697,
205,
-5128,
2,
-2030,
1010,
-2911,
-3288,
-9013,
-571,
-1938,
4953,
-210,
243,
3013,
-1367,
-5280,
-42,
-2155,
1347,
1302,
-4204,
-997,
3022,
-1247,
-816,
-757,
-2685,
2284,
-1421,
1190,
-533,
-241,
1342,
4356,
-3363,
-2857,
-2933,
-715,
4225,
-1711,
1941,
2903,
7,
-1249,
-2070,
-866,
-3753,
-568,
2759,
-5416,
-2954,
1792,
9295,
-128,
4595,
-1908,
-612,
4778,
6245,
-235,
1712,
2772,
-430,
3698,
-2358,
-3986,
-1318,
604,
-1419,
1808,
9656,
-1017,
2772,
-730,
-2268,
4018,
-2386,
1430,
-2032,
-538,
-1797,
-104,
1498,
-1128,
-93,
-7809,
-759,
1509,
-1299,
3044,
-1582,
504,
300,
-1537,
-575,
589,
-2727,
223,
-1994,
-898,
-535,
-1506,
-3081,
1380,
-1959,
2104,
-419,
-3620,
5950,
946,
511,
-966,
-1323,
-348,
-1435,
3435,
4501,
-290,
-60,
3008,
-165,
-4465,
3170,
-3938,
139,
7414,
-2362,
-5133,
1265,
-5175,
-352,
-18,
5952,
2453,
-3,
3109,
46,
4627,
-3498,
-1508,
1299,
-270,
28,
237,
2829,
424,
-3085,
-5051,
1807,
-265,
3124,
-740,
2857,
694,
-1275,
1120,
6232,
1259,
-1218,
-6506,
-5806,
1296,
-2436,
-1101,
-1438,
860,
1051,
518,
851,
993,
-263,
1869,
-1783,
3408,
-2820,
-6595,
2661,
4146,
-617,
-2184,
6540,
486,
2186,
-720,
4163,
1227,
-1792,
-1060,
-323,
-2513,
-2449,
-518,
693,
1371,
-571,
5008,
3715,
-913,
1890,
10794,
-5433,
988,
34,
-301,
1521,
-3659,
-3694,
-3378,
-254,
-2665,
-1026,
-3632,
-932,
332,
-1979,
3549,
-3561,
3706,
6917,
137,
592,
-605,
-951,
-1610,
-1507,
-2856,
-3511,
5844,
1429,
-3735,
-492,
916,
-1885,
-531,
3610,
-4305,
2265,
1267,
-643,
-65,
1444,
905,
1934,
777,
-2147,
386,
2178,
283,
1016,
3397,
1213,
10,
-2692,
-772,
-2853,
-387,
-2131,
-699,
2810,
-1978,
-3262,
2356,
3783,
1307,
-552,
-491,
-2133,
2837,
-2192,
-828,
223,
-32,
329,
-855,
-609,
1966,
-590,
-2132,
1382,
648,
2586,
-751,
-1129,
-466,
-5910,
3942,
163,
-2177,
1321,
3378,
-1881,
832,
-1811,
6059,
6216,
-2768,
855,
3782,
-2734,
5572,
-3301,
275,
-466,
-1269,
-3934,
1769,
4493,
-922,
4227,
1333,
-2273,
-3179,
-4497,
7405,
672,
4094,
-6947,
746,
3960,
-448,
308,
3414,
2843,
-450,
4036,
-4164,
3224,
-2164,
-1343,
-6215,
1419,
1561,
1818,
1203,
1174,
-3141,
-487,
-2200,
-157,
887,
-5360,
2469,
-1297,
-1669,
-1143,
1670,
-1879,
-1998,
-456,
2251,
-1936,
17,
675,
-658,
-777,
1030,
3801,
-606,
-59,
1118,
279,
-31,
-116,
-867,
2587,
-1403,
-1420,
612,
-349,
-1918,
-34,
-368,
-1399,
801,
1170,
-2947,
4553,
-857,
-1075,
-2459,
6,
366,
-1963,
982,
-1067,
652,
-3353,
-2686,
-531,
766,
-4322,
747,
-3419,
-2275,
-643,
-927,
500,
111,
-1338,
-312,
-1225,
-4285,
-3903,
1119,
126,
-2536,
3304,
-1385,
-507,
4680,
-747,
1031,
-20,
-3119,
-146,
3579,
461,
-1738,
3239,
378,
50,
2930,
-1185,
88,
-370,
-2181,
-96,
-1869,
3242,
498,
-588,
-564,
-1518,
-1704,
-252,
-2134,
-1108,
1161,
-1552,
-252,
248,
-1874,
-1513,
-2801,
-1760,
261,
-1275,
65,
-1811,
-6,
-491,
2173,
-1174,
-549,
-1496,
1440,
-1681,
463,
-3810,
5634,
-201,
-155,
-560,
1004,
-1092,
-1164,
-3834,
-1580,
631,
547,
2392,
626,
-3332,
-404,
-2503,
-351,
-3037,
-3016,
-199,
1373,
526,
-470,
-574,
-511,
-561,
-639,
-3594,
-2787,
-110,
328,
1573,
-4660,
256,
-2771,
-134,
-557,
-2390,
-2074,
-17,
805,
7754,
-772,
-2924,
998,
46,
-1889,
-1670,
-2045,
-1148,
-32,
-200,
-1391,
3279,
-3372,
-1604,
-1234,
16,
-782,
-251,
1280,
-508,
-4467,
-158,
-659,
-4021,
-290,
-1106,
1460,
-1376,
1341,
379,
-1251,
1283,
-3637,
837,
-103,
-1989,
-1942,
373,
-3262,
-697,
250,
2100,
-2262,
-4580,
142,
-4119,
-924,
451,
-4613,
1300,
55,
-1353,
-1146,
-918,
1420,
-900,
4350,
1175,
-229,
-2243,
-950,
308,
234,
-1856,
-142,
-130,
1648,
-764,
-2121,
377,
-2942,
-866,
-3170,
-602,
239,
-929,
244,
2335,
1554,
-3035,
-256,
-398,
3242,
3935,
3378,
1042,
271,
-2010,
3715,
5664,
-3003,
3857,
1551,
-518,
59,
-2733,
-2140,
2487,
715,
-993,
-3809,
-3245,
-2661,
3712,
-392,
-1926,
-2170,
650,
-3077,
1693,
-270,
2016,
-571,
-2699,
3798,
4753,
2242,
1091,
3249,
-1687,
-3735,
-2083,
-1375,
-2830,
1522,
574,
-1012,
-777,
-1530,
202,
-869,
-1422,
-1191,
-1767,
95,
2910,
-2059,
-3557,
-868,
-2144,
-2849,
420,
-251,
-878,
-1308,
-831,
2655,
251,
-1989,
-158,
-209,
-1435,
-221,
-550,
144,
-3122,
-2189,
1968,
348,
536,
424,
1211,
5965,
-1944,
-1218,
833,
-1512,
550,
1244,
-2068,
4704,
-3671,
1088,
-1909,
2513,
331,
4452,
2646,
-2091,
-733,
-2359,
1734,
-684,
458,
1387,
730,
1111,
916,
-703,
151,
-2511,
-1312,
3313,
-3366,
-1332,
1872,
1147,
-676,
302,
-63,
2796,
1207,
-330,
-2924,
-890,
382,
-1420,
-1367,
1424,
-1161,
-1339,
-468,
-1689,
-1130,
520,
-620,
1931,
1888,
-2526,
77,
788,
-371,
1974,
-1806,
-2105,
-3014,
2059,
2055,
1081,
-1061,
-1945,
-3607,
792,
2718,
273,
240,
757,
633,
2499,
-162,
-1135,
-2678,
-739,
-1183,
4924,
6239,
-2648,
-4548,
-824,
464,
-1967,
-677,
2803,
-229,
1854,
569,
228,
-3056,
765,
-23,
-2946,
1107,
140,
352,
627,
417,
-900,
-2167,
9,
-3012,
-818,
464,
-3462,
-2298,
7201,
155,
-180,
-683,
-3024,
-812,
-1172,
-2876,
-753,
186,
289,
-1248,
-988,
773,
-3784,
-743,
-886,
-2147,
-2202,
1770,
-121,
-3166,
-2686,
-236,
8445,
-2215,
-2332,
-834,
2990,
-1922,
-1100,
306,
139,
-5016,
-1104,
-1407,
1048,
2583,
-4122,
2856,
-257,
395,
-896,
2477,
-1035,
-1739,
2608,
-497,
643,
4009,
89,
-298,
1238,
-1438,
2710,
368,
-1281,
1570,
6245,
1580,
6763,
-3157,
-583,
-1223,
-3807,
-1196,
-1512,
3762,
-1872,
1995,
3140,
-1533,
836,
659,
1094,
-2472,
2896,
-2164,
1479,
-1154,
1359,
139,
588,
2611,
2889,
1780,
410,
-3759,
1809,
1520,
-468,
-877,
-973,
1128,
-2717,
-952,
-220,
-611,
-194,
-3313,
-2193,
4820,
530,
-707,
-977,
4070,
1194,
-6344,
-2455,
-988,
-2733,
-1317,
2562,
-1312,
576,
867,
5315,
-700,
-316,
767,
923,
-2690,
-2353,
1434,
581,
-1657,
1173,
6282,
-2049,
1847,
2306,
6791,
-94,
-2390,
2213,
-571,
-1529,
-3171,
1320,
-2084,
2670,
2574,
549,
-121,
-2450,
-1015,
-2771,
1523,
-256,
149,
2531,
3775,
-5565,
181,
1664,
-385,
-2446,
-793,
575,
1635,
3598,
5716,
-1229,
-4381,
-2575,
729,
-3946,
-44,
-2519,
-2432,
1134,
3469,
3968,
4558,
2018,
-3429,
-1000,
47,
-144,
3660,
-2251,
2752,
1446,
2339,
-1234,
-2126,
-498,
300,
839,
-2546,
673,
-4965,
-900,
1361,
-2783,
-3253,
1761,
4957,
2676,
122,
3363,
-614,
8614,
6247,
-288,
-3280,
-811,
-1018,
-122,
-4155,
1664,
-605,
1833,
-1836,
-631,
-4268,
-2335,
6483,
-18,
-28,
-4226,
-1688,
-987,
25,
612,
1832,
-429,
1850,
1338,
3307,
-217,
1345,
1232,
295,
3156,
8738,
-314,
-709,
8404,
-1462,
5,
3900,
3220,
3060,
-4437,
-220,
-1774,
-2914,
-655,
-850,
54,
-3248,
290,
1219,
-1093,
-1682,
-389,
3087,
2542,
617,
-1206,
-852,
2559,
-1983,
3168,
-1919,
-2857,
809,
-1071,
1114,
1845,
5732,
-1628,
-4147,
408,
-2468,
2817,
-2957,
-715,
-1021,
7056,
-1103,
3807,
1567,
1923,
5771,
-1422,
-3457,
493,
-2993,
620,
-1659,
1697,
234,
-1642,
-53,
5564,
1499,
4067,
-947,
-1024,
-1477,
-5150,
2453,
533,
-1134,
-5724,
3833,
-882,
3150,
-1109,
3809,
3351,
4747,
431,
-1416,
-1061,
-1252,
499,
-4777,
2391,
421,
-824,
4257,
-418,
36,
-3683,
-317,
3289,
-736,
-2104,
-86,
2418,
-275,
1400,
-2301,
-1807,
-3183,
4342,
-477,
747,
-2018,
2932,
697,
204,
-2568,
4193,
-1929,
370,
-1162,
2527,
-105,
-4211,
2807,
2512,
-4154,
4725,
864,
380,
-1669,
658,
646,
1389,
-570,
-2502,
893,
-201,
-1817,
-2123,
3920,
-3700,
-3454,
-1795,
-1643,
-988,
1046,
1007,
3244,
2799,
1634,
-3205,
196,
-1278,
5582,
-826,
-1041,
-931,
1406,
1202,
-1919,
214,
-1876,
2904,
-1726,
2395,
-658,
562,
-1400,
-2643,
2777,
3357,
1376,
-1328,
-2931,
-2008,
-2415,
300,
1671,
-2695,
6756,
-435,
-1570,
1519,
-3198,
855,
1862,
-708,
-1416,
-1771,
1512,
1555,
-458,
949,
-2380,
-2688,
1557,
-301,
1671,
-679,
-4250,
5129,
-1195,
-504,
-1180,
-371,
-816,
1790,
3229,
2088,
-2376,
4597,
-624,
-1152,
-768,
2501,
449,
-1674,
2802,
-180,
-974,
966,
250,
-1073,
723,
-3398,
-3523,
2638,
3378,
1512,
-2127,
-687,
-3531,
-1458,
4499,
-1039,
-2297,
-858,
3621,
-535,
6714,
-82,
2299,
1093,
1544,
2934,
-431,
2104,
-1327,
7659,
-401,
2100,
5150,
2784,
-145,
-1221,
3429,
1052,
1568,
-6971,
5796,
1363,
-858,
1662,
5396,
7159,
2222,
-937,
378,
613,
3418,
-636,
279,
1414,
-3281,
14,
5656,
2324,
-186,
2375,
165,
-1480,
-1568,
3697,
-2189,
-3163,
6397,
2259,
680,
-4743,
2574,
1503,
184,
-4771,
-1245,
3956,
1046,
-2500,
2823,
5018,
-3492,
2478,
-1163,
6117,
-39,
5070,
4254,
6305,
-2732,
2023,
-1718,
-3826,
-185,
-3040,
550,
-2726,
1350,
-4053,
-2755,
-1146,
-1695,
-183,
2401,
-791,
3939,
-2959,
-150,
1237,
-366,
4992,
7706,
-1969,
-118,
-3498,
1163,
-263,
-1284,
-593,
-1905,
2424,
-384,
243,
5092,
-2455,
-2053,
2774,
1552,
-3202,
4712,
-2923,
1804,
-773,
2377,
499,
1573,
-2332,
1709,
-3352,
637,
-3830,
1653,
4796,
-250,
3235,
933,
-466,
-4889,
2463,
9,
4271,
-875,
-2085,
709,
-2862,
-846,
-4075,
-2051,
-918,
-353,
753,
-530,
-64,
-478,
937,
3683,
-3815,
-2346,
3,
-291,
-1801,
-3947,
5555,
-3297,
64,
960,
-4264,
-747,
1907,
554,
-255,
-808,
326,
762,
1423,
87,
-550,
-1539,
3730,
-720,
-836,
344,
-2615,
536,
503,
2860,
-842,
1007,
-4107,
-2726,
-384,
353,
545,
-1950,
1449,
1415,
-272,
570,
2122,
-1660,
-64,
132,
-939,
-4683,
1532,
6840,
-1329,
-39,
545,
-4364,
1712,
24,
-376,
-625,
3742,
4866,
-792,
-753,
-303,
5087,
-801,
1705,
1167,
-7216,
-2333,
-227,
3081,
2619,
-2615,
-1322,
432,
55,
-4461,
-4461,
1680,
-1966,
4167,
-1289,
232,
3958,
-5395,
-1634,
-1892,
832,
-5568,
1081,
-730,
-1219,
-3246,
-1424,
-3649,
-1262,
1676,
-279,
1377,
2962,
47,
4531,
135,
-1212,
5655,
2743,
1803,
-614,
-249,
-2692,
4901,
-3170,
-1954,
4156,
3662,
-1543,
141,
25,
276,
1537,
5851,
-6738,
-6,
3821,
2214,
368,
-2814,
3054,
-5583,
883,
-2636,
-1116,
3190,
-349,
-1952,
-2695,
-2352,
2149,
-230,
1024,
2724,
-2032,
-1393,
11635,
-581,
-1549,
-4423,
-1060,
-1634,
4484,
1364,
2209,
6439,
1183,
6088,
-4670,
-4995,
4759,
2965,
-3402,
-400,
1655,
-5791,
-3847,
-4321,
2312,
3558,
4255,
-3086,
1922,
1315,
-831,
3197,
-3389,
2575,
-3016,
-251,
3357,
-3405,
1615,
-368,
54,
-12,
-1581,
-496,
965,
1614,
-25,
-470,
-2398,
-1003,
1459,
-2460,
-514,
353,
6900,
-176,
1736,
-1399,
-669,
4994,
397,
-3592,
-2072,
-11,
855,
-3965,
897,
3566,
3189,
6038,
701,
1866,
13898,
2696,
-1759,
-2292,
221,
80,
-3431,
209,
453,
-48,
-2397,
3497,
-2129,
-1497,
4028,
715,
121,
960,
-322,
2482,
-808,
484,
-1612,
995,
-1189,
-4447,
395,
5247,
1720,
-3005,
4929,
-376,
-2038,
311,
6969,
2340,
-2190,
-472,
-728,
1826,
760,
-3278,
3722,
-3698,
-1538,
-1914,
5585,
1474,
-17,
2143,
4619,
-599,
383,
-28,
-2047,
2117,
-1829,
294,
-2815,
-4534,
6595,
100,
-3637,
824,
3510,
-1818,
-297,
-2206,
-782,
81,
-207,
-3514,
-3889,
-3122,
-1522,
-1977,
1580,
-1834,
1608,
2663,
2322,
6428,
342,
-75,
-4598,
4458,
-1486,
1773,
2094,
-2023,
-880,
3440,
4883,
-647,
-4897,
-1068,
-110,
9749,
-186,
130,
-5327,
5123,
4168,
-5149,
-2888,
2564,
-4896,
-475,
411,
-132,
-2085,
-2169,
-3610,
-2194,
-2066,
-6620,
-2163,
-1556,
-4304,
-569,
3295,
-802,
-2653,
96,
-549,
-2695,
1806,
-393,
2535,
-174,
1107,
227,
-1008,
-2299,
-324,
-2835,
551,
-1629,
-492,
1066,
-1448,
1269,
1821,
-828,
197,
1580,
103,
-44,
2085,
784,
-2030,
976,
-991,
-1334,
1497,
-2233,
-890,
1133,
-917,
-2494,
-541,
-3995,
1435,
1234,
-1000,
328,
1781,
623,
246,
1598,
-1423,
43,
1235,
-732,
-531,
161,
-2483,
-1107,
760,
-532,
844,
-1718,
-635,
1383,
-882,
179,
-2045,
33,
-530,
412,
641,
82,
-1157,
479,
24,
888,
261,
1180,
340,
867,
0,
231,
-1957,
86,
-6,
1542,
-2559,
1403,
2376,
592,
468,
1382,
-444,
-1361,
918,
1010,
790,
141,
2474,
133,
-559,
-1747,
723,
2255,
-29,
2590,
-124,
1250,
-425,
249,
1206,
734,
-2509,
2605,
2441,
221,
-152,
-20,
966,
-1956,
1164,
-356,
-498,
-114,
1127,
-133,
-1353,
832,
-1830,
985,
-638,
-863,
-337,
517,
-1076,
218,
163,
116,
-192,
690,
424,
1161,
-1817,
-2488,
2222,
-499,
-2041,
362,
-1365,
-455,
-82,
-1083,
-1279,
-1902,
-2138,
222,
-415,
-231,
-542,
-41,
-302,
349,
-1360,
-1700,
-1138,
-732,
1864,
4335,
-1348,
1146,
3306,
-944,
891,
-572,
-363,
1319,
1065,
-655,
-1591,
251,
1322,
-137,
1208,
-595,
-1879,
1700,
1128,
-442,
600,
1135,
242,
-108,
388,
-54,
1238,
-1687,
-1330,
1046,
-3388,
1038,
-1180,
-894,
1689,
-1002,
-406,
885,
1683,
2337,
-2534,
1605,
-391,
1919,
24,
-1194,
-2365,
-2776,
-2857,
-370,
443,
-2215,
-686,
-9,
-77,
-1178,
-104,
585,
762,
946,
781,
1871,
-170,
-1017,
-506,
-389,
-2198,
-1852,
478,
-9,
-983,
1155,
37,
-1753,
-2220,
-1156,
322,
927,
16,
104,
-416,
694,
1888,
-226,
-2837,
700,
-1600,
426,
2920,
-1325,
690,
-261,
1153,
-532,
1154,
-1436,
409,
-930,
-2726,
-2033,
-166,
-540,
-702,
2825,
-4046,
-2495,
-625,
378,
10,
-2081,
-821,
-1047,
-3591,
-558,
-322,
329,
2683,
1294,
108,
692,
-917,
869,
-1139,
-954,
-1655,
-310,
-965,
-3085,
617,
448,
894,
-951,
-829,
-865,
-877,
749,
-1095,
-1234,
452,
2276,
-1211,
-2910,
1338,
2820,
74,
-716,
-1906,
-75,
-937,
464,
-300,
-1023,
1583,
-372,
-561,
-1060,
-1800,
41,
333,
-1145,
405,
-245,
1638,
1014,
480,
1804,
-1605,
-457,
-1486,
-744,
177,
1337,
-2716,
3076,
-1785,
-139,
1217,
1423,
-1406,
702,
410,
2026,
-1197,
1198,
648,
-181,
-56,
-403,
-608,
333,
-200,
-1722,
1066,
3619,
741,
989,
-1761,
-828,
1455,
287,
-1040,
-417,
3239,
397,
791,
-1535,
1224,
1126,
55,
-1367,
546,
913,
-1256,
-1392,
-921,
1348,
658,
-1638,
80,
-1946,
392,
1400,
-1541,
673,
1103,
-1172,
-82,
-2144,
2703,
681,
-1790,
401,
-288,
1805,
-885,
-2559,
2420,
-102,
-1898,
394,
-288,
246,
-356,
-2261,
1113,
468,
1352,
304,
903,
294,
-2703,
-847,
-168,
-1560,
1355,
1940,
-148,
-40,
-837,
601,
-1996,
-2195,
-210,
1765,
1319,
141,
-2165,
-122,
-1467,
493,
-1794,
-195,
2873,
1407,
-129,
1025,
-1997,
3550,
552,
62,
-2553,
2756,
-1114,
466,
2311,
-233,
-880,
-1453,
-1299,
-443,
513,
-2336,
3152,
-761,
-2026,
-154,
66,
-344,
-468,
4056,
582,
-3484,
804,
-2245,
-264,
-955,
-2147,
5763,
904,
-2162,
-3281,
-1990,
-346,
-2071,
-2502,
2627,
-185,
-183,
778,
2305,
251,
-2033,
2104,
-1126,
-1746,
-795,
550,
-4034,
1437,
-1947,
5819,
-6782,
1610,
600,
-1821,
-4152,
-2080,
6659,
-405,
-3268,
-488,
-1429,
-4809,
-327,
-7202,
-2,
2835,
1998,
-694,
1917,
-2505,
-462,
-3559,
-6514,
-961,
-759,
-2938,
-6408,
-2149,
-5053,
-10543,
-427,
-2788,
-1399,
-1924,
-3611,
2948,
-4642,
-3147,
1298,
610,
-407,
5733,
-2487,
2274,
-3564,
-1737,
-819,
-192,
-2084,
-2233,
1139,
2779,
42,
8738,
-2275,
-2341,
-3206,
-479,
-294,
773,
-4025,
124,
340,
-1413,
48,
-1554,
-2834,
-456,
-5171,
2326,
-5657,
-92,
3392,
-2985,
169,
-1627,
4,
1544,
-22,
-804,
1191,
-2012,
519,
-682,
-1194,
-248,
-1480,
-1714,
130,
-1899,
-129,
-1597,
557,
-4868,
228,
1014,
2214,
-1774,
3664,
300,
-5449,
-6431,
1838,
-1437,
-1798,
-1011,
-10044,
1904,
-708,
-1162,
-917,
-730,
-2120,
199,
-3554,
-47,
-2549,
2690,
3213,
-1844,
-511,
-1772,
-5338,
-484,
276,
296,
-4930,
2122,
-2746,
-1679,
-784,
-3529,
-870,
-3406,
-2288,
59,
-907,
-2035,
-387,
1378,
-1088,
-2115,
2292,
-4600,
-1662,
1507,
-468,
3706,
-4686,
-4680,
-1770,
900,
-698,
43,
481,
-255,
-1073,
396,
-34,
-983,
1216,
-2195,
6221,
-3514,
-5096,
-728,
-1852,
-226,
-3196,
9514,
376,
-41,
-6472,
-3726,
-638,
-3407,
-2500,
-288,
-857,
1471,
-2896,
-341,
-2625,
253,
-5168,
646,
-709,
-374,
2975,
-1779,
-5166,
-1582,
603,
-1657,
511,
-600,
698,
1289,
-200,
-2081,
963,
-994,
2429,
-300,
378,
-2878,
-1299,
5379,
-1456,
-67,
2408,
-2116,
-737,
655,
3640,
-300,
4184,
-1959,
3530,
3199,
-1970,
-1448,
-4488,
-1233,
7896,
399,
-5501,
254,
-284,
-144,
-763,
3459,
478,
1373,
2333,
-2158,
-332,
-4374,
-522,
8602,
-1155,
-2490,
267,
1454,
-1614,
-622,
-3745,
4047,
568,
354,
2813,
-378,
-869,
2032,
2679,
4939,
-3393,
1635,
-9981,
-5309,
-2656,
-753,
1332,
1603,
-2362,
-737,
2987,
-700,
-173,
-2580,
4565,
-2469,
-1563,
-92,
-8164,
19,
-3411,
-243,
-1184,
4116,
1942,
1060,
1179,
-1044,
827,
-3551,
-178,
-1383,
-2402,
-2430,
123,
833,
232,
783,
1675,
255,
1089,
1940,
9307,
-7160,
994,
-779,
1237,
1939,
-1266,
678,
731,
108,
-113,
5229,
-1139,
-1820,
-460,
-1194,
-1179,
-3387,
-1297,
5458,
650,
-388,
2167,
-1339,
-805,
2129,
-803,
-2697,
-297,
96,
-478,
2282,
496,
-2466,
408,
2788,
-4459,
-1722,
3947,
76,
-1284,
-953,
-29,
-720,
1147,
1906,
4616,
2464,
903,
807,
16,
-1434,
-3976,
-666,
-4150,
-1131,
-6198,
4815,
1224,
-78,
3012,
-784,
-1233,
84,
2403,
-2576,
744,
-3457,
121,
-5284,
-2968,
2620,
-195,
-563,
887,
-156,
46,
-1262,
-1621,
-2573,
4535,
-1143,
-1005,
-2542,
-3199,
-5685,
3495,
459,
-2398,
120,
4369,
-338,
2685,
-297,
177,
1434,
588,
-432,
-450,
-1008,
467,
-3115,
980,
425,
-164,
-7887,
2397,
-3324,
4420,
1824,
-2785,
-6641,
323,
-1257,
-2087,
-1335,
372,
-5175,
-1208,
409,
-651,
-947,
990,
1422,
523,
-551,
-3882,
-1040,
-3151,
-3941,
-5225,
2314,
-1160,
4477,
2400,
3378,
405,
3017,
234,
-1022,
9299,
2257,
3709,
3698,
-5523,
-6762,
2608,
1502,
-3076,
4417,
406,
404,
-87,
3729,
-613,
-1594,
1448,
-569,
-2322,
-543,
4949,
1436,
-5373,
3230,
10643,
-5695,
-1685,
3508,
1415,
159,
-1689,
453,
5972,
-1444,
-4183,
4930,
3376,
-4944,
896,
-1636,
3960,
414,
8023,
2521,
5736,
-3914,
2058,
2263,
-3598,
1377,
495,
-2908,
1678,
-3217,
-550,
-768,
-2595,
402,
1878,
-728,
3365,
2341,
-5701,
-6640,
599,
-1050,
1688,
3997,
-719,
-2265,
-2123,
-500,
-346,
2649,
-2963,
-164,
-397,
2048,
-1899,
-3420,
-981,
-1692,
519,
770,
1357,
2837,
-340,
503,
-3334,
1026,
-66,
1123,
2023,
1293,
-5509,
-2624,
-2329,
-12,
4675,
5854,
221,
1709,
-2160,
1989,
-1043,
-684,
6347,
-2541,
-3129,
96,
128,
-2069,
-2125,
-3612,
-1077,
34,
-366,
-1299,
-1502,
1297,
2752,
1409,
-735,
-759,
1953,
62,
1147,
-6227,
2654,
-4501,
2575,
4265,
-1764,
-2,
-1173,
626,
759,
-4115,
-251,
-997,
5570,
958,
-825,
1547,
1789,
2263,
-2456,
-2068,
729,
-683,
371,
8718,
-5291,
3047,
-5340,
-187,
948,
1233,
-1265,
1326,
1729,
-2607,
-915,
407,
5371,
633,
634,
-6103,
-3790,
-3925,
5148,
8619,
-3125,
-2848,
5792,
-2109,
1264,
-2254,
-1671,
-970,
3158,
3281,
-2996,
-1218,
-845,
2292,
2554,
-6676,
-3569,
2058,
-2516,
742,
-336,
2266,
-6869,
-3061,
97,
-2311,
-5360,
2109,
-2673,
-370,
3421,
2399,
-1732,
-326,
731,
-2855,
-594,
693,
-862,
555,
-97,
-2143,
-1251,
-874,
-5448,
-279,
-363,
-1248,
1006,
506,
453,
4614,
121,
-3134,
3706,
2088,
965,
2545,
-2288,
-3776,
128,
-5653,
-5527,
1847,
3684,
-180,
715,
3847,
-2209,
-3084,
6156,
1752,
-2826,
4374,
2910,
-411,
1479,
895,
-695,
1560,
4253,
-2528,
10909,
-1870,
1710,
-3081,
-6696,
1282,
255,
-399,
-2780,
2780,
3037,
7178,
-813,
150,
-725,
252,
-4239,
6314,
3363,
-499,
5211,
-3884,
2981,
-2619,
-7044,
5362,
1169,
-3467,
-5747,
2139,
-3843,
-1549,
-2816,
1159,
1703,
2233,
-4248,
-1814,
1083,
-2926,
2459,
-7089,
-1257,
-304,
1253,
1892,
528,
-585,
-3129,
-631,
3897,
-3566,
-2584,
-633,
-273,
-537,
-1942,
-3555,
-1895,
147,
441,
63,
60,
6170,
-2550,
946,
-406,
-1427,
3345,
376,
-2295,
-343,
-1686,
-571,
-2073,
-1968,
2019,
8186,
3971,
-2920,
5359,
10868,
96,
-519,
-1324,
2689,
-2258,
1223,
529,
-1971,
-1078,
-3593,
4655,
-880,
-184,
8662,
1431,
2780,
1150,
-995,
1319,
-252,
221,
-3737,
808,
-1607,
-3381,
-95,
2518,
2272,
1713,
2799,
-2327,
-2242,
1119,
4443,
-1495,
-1029,
-182,
-828,
-1012,
-4548,
1246,
2171,
312,
1492,
-2873,
10540,
213,
-1012,
613,
3240,
-3796,
-2729,
-2451,
943,
1220,
-892,
-2115,
1345,
2384,
5367,
0,
1236,
748,
3160,
-1176,
1289,
705,
-2698,
-4740,
-672,
-906,
-982,
-31,
-44,
-2359,
-169,
-558,
-2838,
-763,
2865,
5510,
109,
-1276,
-4661,
4234,
581,
-2676,
1755,
-2613,
678,
2492,
840,
-3006,
-3331,
1004,
-3230,
6937,
1339,
-2781,
-4666,
1788,
3479,
-5361,
2402,
-847,
3929,
-1655,
-2958,
-790,
504,
-98,
-4573,
-2153,
-2253,
95,
-2098,
-51,
-2279,
3671,
1721,
-336,
3594,
2179,
-160,
-2137,
552,
553,
-1439,
378,
1424,
-1715,
50,
-1022,
-1580,
3242,
553,
-847,
1237,
1992,
-298,
1305,
1348,
-1899,
138,
-1452,
-1541,
-378,
-734,
-1309,
603,
-656,
938,
1199,
-3260,
-951,
-102,
4353,
-652,
-1249,
97,
-3559,
429,
-338,
352,
27,
-557,
484,
1462,
618,
-1933,
-628,
146,
-1244,
-250,
-380,
4221,
317,
2273,
46,
955,
2030,
281,
1127,
1274,
-73,
2686,
-1164,
786,
1167,
-1586,
1240,
-1494,
3021,
-302,
1403,
-1509,
-153,
-1620,
-555,
50,
-1255,
-795,
862,
-698,
-1763,
-2370,
-89,
707,
-3113,
-1726,
-824,
269,
-504,
728,
736,
1862,
428,
-1539,
1904,
-1235,
2429,
2337,
-775,
-530,
-988,
1098,
-2845,
1391,
-135,
203,
69,
-2477,
3617,
2022,
-420,
921,
-1297,
2408,
-1018,
-1944,
-2436,
-1538,
-1179,
361,
2229,
819,
-1112,
-217,
-525,
620,
-2773,
-201,
1547,
1235,
2248,
1103,
366,
-106,
417,
-895,
-138,
-1528,
964,
3972,
1518,
-517,
2984,
348,
1624,
1252,
9,
-1569,
-2034,
-928,
-72,
2007,
3256,
225,
2356,
-464,
146,
-1460,
-895,
-871,
1573,
4846,
1003,
1153,
-1151,
-3214,
479,
4198,
922,
-861,
2814,
-1369,
-3842,
-2275,
1738,
985,
-706,
-2146,
2462,
-1474,
-68,
-1864,
1349,
-1113,
-1374,
1909,
-380,
-1377,
125,
955,
1507,
-969,
-3160,
-1978,
-93,
3601,
877,
4702,
-1199,
-3737,
2169,
-91,
-314,
-317,
-15,
926,
259,
44,
-463,
-1761,
-2548,
-46,
1316,
2099,
-2382,
3282,
-479,
176,
-2676,
272,
1817,
-76,
-1351,
1193,
4091,
21,
1288,
1175,
2074,
-750,
515,
-668,
-1237,
-135,
60,
-481,
840,
-2805,
771,
704,
-2142,
2132,
1224,
-49,
-1696,
50,
-2348,
-2050,
-2078,
-393,
-1009,
-1762,
2401,
2154,
-4542,
-1355,
660,
-1608,
610,
-218,
526,
-2449,
-1057,
-531,
-652,
592,
1865,
4648,
2429,
-3418,
1442,
1906,
-2431,
-1010,
713,
652,
1252,
-2851,
2495,
-258,
-1287,
-1445,
840,
-1634,
-1374,
-3115,
-1279,
-1943,
1754,
-687,
-3907,
-620,
-290,
-560,
-464,
496,
-470,
903,
146,
-2875,
-2731,
36,
3732,
-1172,
1719,
3030,
-266,
935,
682,
-1870,
-2122,
1760,
-1281,
64,
253,
116,
-886,
429,
2058,
836,
1473,
3564,
260,
4261,
-1446,
-1771,
538,
1170,
-4173,
1328,
-54,
-220,
-3746,
-460,
-2161,
2529,
-3309,
-750,
-416,
-339,
-1510,
-732,
-1568,
-280,
-570,
437,
3385,
-3603,
572,
-36,
-846,
-1199,
-1080,
-1124,
-1211,
607,
4463,
-20,
-1823,
-1327,
1610,
-513,
2899,
-1249,
-2812,
-879,
-1225,
3486,
577,
639,
120,
-266,
2606,
186,
308,
-1958,
-291,
-799,
2744,
-1462,
-306,
372,
-391,
-1517,
4103,
-2800,
-1199,
-547,
-3213,
80,
-1047,
-68,
-1344,
108,
5105,
1230,
-142,
3105,
-1718,
1532,
1156,
1110,
3325,
-285,
-822,
2338,
-922,
602,
-3377,
-352,
-967,
-1007,
-294,
-1404,
-1994,
1546,
-1105,
-536,
1847,
-339,
-671,
3823,
-1328,
-3290,
350,
1221,
197,
-1469,
-1397,
1981,
1608,
1024,
-208,
-653,
-913,
-341,
88,
1126,
932,
-711,
-3407,
-1183,
-2686,
1486,
3837,
675,
433,
-112,
251,
-541,
-2269,
-1059,
-2359,
-1390,
-1948,
-2190,
246,
-1133,
3252,
-526,
-769,
-1877,
2982,
286,
-2298,
-87,
-1090,
-274,
268,
2029,
1880,
31,
-1740,
-2555,
-2228,
497,
-1121,
599,
854,
2225,
-515,
-1187,
-865,
-2117,
-301,
424,
-2928,
47,
1169,
3668,
-1834,
-3426,
-36,
-3830,
-3881,
85,
-904,
-46,
-994,
316,
3949,
160,
-1310,
-736,
-189,
-1887,
572,
-694,
1712,
1536,
1666,
1342,
-216,
-320,
-40,
4157,
-1683,
2453,
738,
956,
-4032,
1720,
34,
-7289,
-2904,
-2283,
-549,
-255,
1374,
-695,
103,
-2148,
-1006,
-566,
1625,
1915,
1153,
-1980,
-978,
-1035,
2413,
341,
-2757,
479,
-772,
1843,
-747,
-1770,
4103,
311,
185,
-342,
1587,
673,
313,
-536,
-4336,
162,
-839,
-479,
607,
2144,
-1809,
-1056,
-1374,
1266,
-1112,
2977,
-711,
-140,
-2208,
2740,
360,
4280,
1827,
-1632,
483,
2438,
790,
3572,
-2181,
-1749,
-1041,
1815,
-920,
212,
2660,
-2960,
462,
-2929,
3334,
-1974,
3261,
1190,
1107,
254,
-890,
-653,
835,
-315,
357,
1678,
-4542,
4596,
1320,
85,
2607,
-2802,
-595,
966,
-3252,
2323,
1312,
158,
-2225,
2159,
1064,
-1350,
-1016,
2106,
-1922,
801,
-514,
-468,
1193,
6832,
1263,
-1564,
337,
-2192,
-955,
3913,
-21,
2051,
3465,
-4023,
-2818,
-2897,
1627,
31,
-2245,
-1103,
2297,
-2136,
2949,
4010,
2221,
2866,
184,
638,
3242,
4256,
-1597,
1534,
2390,
-2843,
-3190,
133,
-70,
-811,
-852,
-1195,
-759,
1633,
-1897,
-1263,
-1490,
-269,
-2781,
-3116,
3296,
990,
-80,
-191,
1153,
3093,
751,
-351,
-4147,
-883,
449,
-3211,
2116,
-1791,
-661,
452,
-835,
529,
-370,
-2049,
1035,
-613,
-1096,
-1513,
-2531,
-36,
683,
96,
-2609,
-1354,
-3390,
-1279,
-1753,
352,
-80,
1933,
1102,
673,
-1662,
-2350,
1618,
2005,
-2089,
-739,
-184,
2751,
-2084,
1035,
4990,
532,
846,
-948,
1164,
-1931,
1255,
2809,
200,
-945,
3078,
-714,
-1288,
2993,
2691,
3799,
1589,
1407,
987,
3083,
-1659,
-3923,
-588,
-189,
540,
-3590,
100,
1395,
-523,
1200,
-404,
3025,
-1713,
674,
-509,
-3565,
-309,
-18,
-707,
-959,
-661,
-418,
1600,
-189,
1109,
-3533,
-833,
343,
4767,
-670,
-8981,
-243,
2364,
-1084,
165,
73,
-1758,
1176,
-537,
2317,
-1113,
-777,
-2032,
-764,
-1428,
-4660,
-937,
2624,
-863,
-880,
3024,
17,
-491,
453,
1852,
-6024,
-1269,
-717,
-802,
-1332,
-166,
1593,
-521,
-52,
433,
-1452,
-802,
-1133,
233,
107,
3288,
-156,
3606,
-64,
67,
-459,
-312,
-1077,
-610,
1159,
-215,
1066,
4552,
1320,
-762,
1773,
1378,
-1061,
-628,
1162,
-3133,
2748,
923,
298,
1683,
1180,
-2394,
272,
3302,
-381,
-450,
1722,
886,
438,
428,
-2157,
511,
-189,
-1478,
-470,
3124,
1699,
-681,
1768,
-1240,
-588,
-623,
-1312,
-1634,
-1544,
-1436,
228,
-942,
1794,
1327,
1804,
591,
1645,
-1593,
-527,
565,
2354,
-127,
425,
-3834,
2551,
784,
196,
738,
-2977,
1715,
-516,
-1246,
-2537,
-971,
7,
3136,
-2581,
3301,
1320,
-4183,
1479,
-2083,
-155,
977,
-2319,
19,
-1953,
-3274,
-3177,
2465,
2518,
-108,
2925,
809,
-1924,
-1329,
-172,
322,
1737,
225,
-526,
819,
-1818,
-2634,
242,
2513,
-103,
-1625,
81,
-2178,
-1964,
-3365,
-1359,
2026,
1135,
370,
-1542,
-5426,
-881,
2538,
-1255,
765,
-1185,
3805,
460,
-2700,
616,
-2556,
-4359,
-1410,
6,
-197,
3221,
-4936,
0,
-1198,
1460,
612,
1297,
2233,
500,
123,
-154,
2392,
-2573,
-454,
30,
1958,
-4532,
1381,
50,
-2158,
3837,
4270,
3301,
3636,
-3258,
60,
-1506,
2094,
796,
-390,
2338,
-143,
2140,
3336,
-192,
1220,
688,
713,
-2243,
3534,
-1550,
1223,
-182,
-1406,
511,
956,
1350,
80,
-735,
-756,
-1454,
4546,
187,
857,
-2018,
-2460,
216,
-1243,
-3626,
491,
-1248,
1062,
768,
-2252,
5088,
1455,
-1153,
-1719,
4955,
534,
-5463,
-4379,
-1450,
1406,
-14,
-1005,
-166,
702,
826,
2830,
-33,
-1372,
4517,
-1360,
-1690,
-539,
128,
350,
-777,
744,
3807,
-1278,
2138,
1422,
1703,
-1918,
-2638,
2731,
727,
-3313,
-2718,
-522,
-2476,
-2954,
-366,
45,
411,
-4240,
-1424,
-2471,
4462,
3351,
169,
-2060,
3038,
-5779,
-956,
4609,
1155,
-1152,
711,
2421,
851,
4051,
272,
-443,
-3565,
-2356,
1624,
-3658,
-602,
5662,
-2064,
419,
761,
1022,
7292,
291,
-3291,
-1089,
-193,
-1052,
5048,
-455,
4428,
1176,
-1987,
-1134,
-1402,
-1951,
-792,
2668,
-3221,
-295,
-4123,
27,
-1203,
-2335,
-4640,
-563,
428,
2685,
937,
1061,
-3612,
5412,
3005,
655,
-4012,
-218,
-1965,
84,
-1236,
-752,
-2632,
1111,
-35,
-2873,
-3570,
-5031,
2341,
2387,
-1503,
-1041,
-1961,
566,
-5067,
-254,
835,
1608,
-995,
542,
784,
1423,
4585,
1537,
2923,
-518,
844,
548,
-1187,
3616,
-2597,
-371,
1649,
-1178,
1553,
1088,
312,
447,
-2474,
-1539,
1314,
-1058,
-1559,
-817,
-503,
-43,
667,
-537,
2369,
1451,
404,
1929,
461,
1592,
-75,
1250,
-726,
-2134,
-671,
-2889,
365,
2481,
324,
-4174,
-2302,
5409,
-1705,
-390,
-513,
-3085,
2293,
4175,
-1576,
3570,
-35,
-261,
-702,
-150,
-67,
-2932,
-70,
-1013,
-2104,
-198,
-1873,
-1275,
-395,
853,
-2702,
1498,
-268,
4171,
1620,
-1305,
-398,
-1395,
869,
292,
4331,
-2101,
-2899,
-784,
4054,
5310,
4051,
-2716,
275,
-475,
-552,
914,
-4242,
248,
-177,
74,
-798,
492,
1505,
-3288,
3368,
1750,
-1682,
-478,
-1372,
1762,
-2039,
-1041,
-2945,
929,
-3252,
1845,
65,
-403,
-39,
-70,
541,
-469,
-998,
1814,
-3429,
-2920,
-1973,
2928,
-2517,
-5615,
2701,
1557,
-2078,
-1147,
446,
3295,
-566,
-163,
1896,
2333,
-634,
2493,
-1315,
-991,
2787,
-1604,
169,
-3248,
-3677,
-2365,
-44,
-2420,
-1659,
-1088,
3454,
4964,
3212,
-4114,
-238,
3881,
336,
-1487,
-454,
-1797,
-794,
-626,
-672,
-2161,
-2065,
-1563,
277,
215,
-57,
-1734,
288,
-2637,
-350,
700,
-80,
-2206,
-4261,
-2079,
1041,
-1052,
-2203,
-1276,
5784,
-520,
-1036,
4189,
1746,
-667,
684,
-2309,
-1776,
-2690,
2200,
600,
-1277,
-1592,
-894,
-2395,
1549,
-1541,
1511,
-155,
-2781,
4786,
-198,
-2854,
-454,
784,
895,
1363,
6039,
-1812,
-2506,
3118,
-1897,
-4390,
-264,
1320,
-1435,
-2655,
-2297,
531,
-490,
-127,
1252,
-2784,
-1519,
-1516,
-1479,
-68,
3357,
-1072,
-742,
-534,
-4126,
-361,
3442,
-2638,
400,
-2349,
-2240,
-2483,
2345,
64,
1106,
442,
-529,
-2920,
735,
-1112,
-1616,
2771,
-995,
1351,
1990,
4296,
-1222,
-1511,
-1457,
1719,
29,
-6767,
-338,
-1535,
678,
672,
-1687,
3473,
-1660,
-4356,
56,
-1353,
-858,
-2319,
-1230,
3071,
-2665,
260,
1435,
2143,
473,
4767,
4755,
304,
-477,
2101,
-1116,
3629,
-1787,
-1635,
7797,
-4361,
-1871,
264,
523,
-1930,
75,
1122,
-1144,
3978,
-460,
55,
5479,
-1307,
-1696,
-1657,
1652,
1225,
-1295,
372,
1870,
1312,
-1448,
-725,
307,
540,
-65,
-2489,
941,
-2756,
-5460,
794,
-146,
-630,
-2911,
-566,
872,
78,
-3425,
855,
176,
-1958,
5074,
-1471,
2033,
3546,
246,
-953,
-1105,
-245,
-1519,
4363,
1010,
-1116,
-2400,
-2436,
311,
2609,
-1103,
-144,
-1062,
-2145,
1233,
140,
5036,
483,
2539,
-847,
-1017,
1643,
2775,
-1599,
980,
2613,
-436,
877,
158,
-1038,
-3245,
-2446,
-1194,
523,
1176,
6527,
-1889,
-1928,
385,
2374,
1982,
-54,
-326,
2466,
-1611,
1802,
-3397,
5375,
-1196,
1273,
-367,
3307,
-1545,
-418,
160,
31,
5404,
783,
2226,
1229,
-4643,
-2701,
-2182,
605,
2633,
-2673,
-1095,
-1204,
1029,
-1577,
-1137,
1830,
-966,
407,
-2672,
-2207,
-679,
373,
117,
-2145,
-118,
3114,
514,
-246,
118,
-2623,
-2435,
2616,
8927,
-1160,
-2866,
-625,
205,
-1056,
-646,
1174,
1223,
-568,
-766,
-631,
5025,
-2249,
-1543,
353,
1740,
1558,
4,
1490,
201,
192,
-252,
-203,
-1364,
-24,
-1794,
7693,
-4719,
2066,
270,
-3106,
1540,
1400,
6050,
702,
-1472,
1024,
-3062,
-2494,
-204,
862,
1115,
697,
754,
-3053,
-3761,
224,
154,
-6746,
570,
-568,
316,
-370,
-36,
4633,
-856,
5207,
2757,
-477,
-585,
-1621,
-772,
131,
-4446,
-1782,
763,
2587,
-1881,
-1090,
3799,
-1709,
9016,
3148,
-1651,
3122,
409,
779,
353,
5008,
-2653,
2383,
-2366,
7209,
539,
6106,
1396,
-796,
-317,
6622,
6405,
-1845,
5565,
145,
435,
-798,
-1970,
5284,
1202,
132,
-1982,
-3067,
-1372,
-4120,
3778,
1088,
-969,
-3605,
-125,
1584,
-2633,
-1125,
6040,
7,
-2450,
5055,
6032,
9581,
325,
3767,
2879,
-516,
-603,
-372,
-5759,
-3652,
1004,
16,
421,
2485,
287,
-861,
1384,
-816,
4757,
5645,
1548,
-811,
-704,
-3628,
-2219,
-189,
887,
-1024,
4245,
1799,
-854,
4569,
-1835,
-290,
2735,
-136,
-1562,
-8,
-2054,
208,
-2913,
1659,
1345,
2413,
1937,
919,
1210,
12058,
-3728,
282,
-1464,
-144,
2110,
6166,
-4388,
7007,
1788,
823,
-940,
6576,
-127,
3993,
734,
2730,
-1076,
-1957,
6770,
831,
4100,
1364,
654,
755,
375,
-622,
1115,
-1791,
-1050,
7491,
-4431,
-983,
3979,
487,
1180,
-504,
460,
4464,
812,
-863,
-1465,
-397,
2622,
-2086,
-715,
-1097,
-1157,
-2009,
-1185,
-2353,
-1898,
-3195,
116,
-1061,
887,
281,
-795,
1285,
1039,
7300,
-463,
-1398,
-1718,
4389,
-1209,
54,
-330,
-1238,
-2290,
-4073,
2550,
1182,
-326,
593,
-346,
3085,
491,
-1972,
-126,
4451,
-46,
3810,
3539,
-3777,
-4449,
1528,
221,
-2466,
-1797,
3857,
-408,
3349,
179,
-143,
5158,
-1880,
1075,
-2122,
3011,
5594,
-1374,
-379,
-1299,
796,
-2595,
550,
-57,
-575,
2294,
-48,
-453,
8753,
1078,
8306,
-654,
-3203,
-2134,
298,
-1740,
-808,
609,
1040,
5519,
533,
4255,
-5671,
-639,
-1224,
-1520,
-1781,
2557,
-1947,
-2589,
2737,
-3359,
-3877,
-3660,
-2653,
1065,
-1988,
-125,
-62,
-2183,
-4971,
-1161,
-2582,
-2136,
-2634,
-1791,
2038,
-1684,
716,
622,
701,
-654,
6312,
3702,
-1200,
-167,
-181,
-1485,
4805,
-3781,
-3356,
2307,
-4071,
-2909,
1643,
4369,
2727,
2677,
-3215,
-401,
5455,
-5161,
638,
6716,
-1769,
-1962,
-2074,
1419,
-3518,
-1480,
-1471,
5440,
-795,
1429,
4638,
3649,
758,
2728,
-2839,
2702,
-1702,
-2450,
-1036,
-1771,
-2723,
-4270,
487,
-2337,
4509,
-3914,
1296,
-355,
-2532,
488,
47,
-336,
4283,
-149,
-301,
-96,
701,
-899,
521,
1188,
320,
5101,
-1474,
419,
350,
-2094,
-761,
-2450,
-1470,
2731,
-1269,
3267,
696,
5987,
-1186,
173,
5138,
8,
-1143,
3956,
-1836,
-6235,
-1172,
1870,
-517,
-2113,
-306,
2761,
-2813,
-17,
4728,
140,
-1022,
1947,
-779,
2740,
-551,
34,
1478,
-696,
2069,
337,
3001,
-2202,
1130,
-850,
3941,
-123,
1934,
7085,
-3184,
8395,
738,
-2153,
-279,
-2283,
-4685,
2466,
2113,
3272,
-152,
-2276,
-3243,
1949,
-2238,
-652,
-1116,
2848,
-485,
-1145,
-716,
-1022,
733,
-3565,
225,
-154,
5185,
-820,
1036,
5388,
1636,
-1003,
3466,
1814,
-565,
1102,
-2495,
-200,
1973,
-747,
-1052,
1792,
-2196,
317,
-446,
1506,
-5740,
1927,
-36,
2775,
4575,
1005,
435,
2044,
1877,
1454,
-597,
-1562,
1454,
-2933,
1883,
-3244,
1599,
463,
-5265,
4812,
1178,
3660,
1058,
384,
4644,
-3021,
-842,
-2299,
-1080,
1508,
1986,
1623,
-1873,
-780,
4396,
949,
-3907,
536,
-275,
-1335,
276,
-581,
3476,
-66,
3368,
7054,
953,
934,
-464,
-4345,
-5,
-3603,
-3556,
-174,
289,
-1572,
-208,
6693,
-2610,
6210,
4644,
-3227,
-2070,
6622,
2986,
-2704,
2296,
-661,
-3108,
-2873,
4382,
-6754,
5776,
750,
-2315,
367,
-444,
3738,
-5855,
5126,
-1538,
-247,
-1413,
-483,
2009,
-1788,
796,
-3421,
-1191,
698,
-1369,
-2353,
4330,
-451,
-1488,
692,
3210,
-5999,
-1639,
3334,
841,
361,
-908,
6347,
8412,
-1693,
571,
1585,
-1608,
-624,
3183,
-2765,
-3495,
681,
-1919,
-1911,
4357,
-137,
-1919,
2482,
-881,
4791,
2549,
2576,
3710,
280,
-5506,
-726,
3593,
429,
-1880,
2363,
571,
-374,
3773,
-382,
-363,
5031,
-1215,
-2682,
-1831,
-2754,
264,
-839,
2137,
2133,
2336,
1698,
-12,
1497,
1588,
-4214,
-499,
-2802,
-689,
-776,
6888,
-3841,
1381,
1896,
-507,
375,
7763,
-1017,
3179,
-345,
2904,
-2358,
2116,
153,
808,
4608,
-4190,
-1346,
-1659,
-3346,
2347,
1590,
2696,
-438,
6498,
-2321,
-118,
4976,
1461,
675,
-3844,
882,
-24,
3244,
-1986,
-2049,
257,
3538,
381,
-2524,
2211,
-97,
-768,
-779,
-785,
-1450,
-2051,
-228,
-2002,
-3927,
5301,
-5119,
-1001,
1383,
6284,
-452,
-2577,
421,
2680,
-3501,
1090,
2274,
443,
-386,
-2744,
465,
1838,
2084,
1064,
-709,
2808,
4197,
1375,
1921,
469,
700,
3574,
2786,
-2209,
1921,
347,
-233,
818,
-558,
1983,
-1625,
-842,
-300,
1291,
4495,
-4004,
3601,
-1029,
3007,
4425,
-1931,
-557,
-3750,
-986,
-1215,
-516,
3713,
-1439,
3599,
2623,
4504,
2311,
-1743,
7573,
-1322,
-488,
-5190,
1810,
461,
-1417,
22,
1370,
5171,
-520,
3794,
-3162,
1725,
-1586,
597,
-182,
200,
-1365,
3058,
-207,
-448,
-4998,
2054,
3856,
-3961,
-5872,
490,
-279,
808,
4192,
5629,
2798,
1272,
2206,
-4881,
29,
-2107,
-2136,
-3584,
1757,
117,
513,
1729,
-1677,
-3597,
-3066,
743,
-1681,
4021,
-843,
-1299,
-203,
578,
-1863,
91,
-2361,
-903,
-2578,
470,
-1030,
-735,
3617,
-1129,
1580,
-4179,
577,
37,
-2861,
565,
548,
1048,
-1458,
-4955,
-1432,
-1040,
-1590,
160,
721,
325,
-5230,
-1616,
-978,
94,
-2952,
6010,
-2788,
-1762,
-638,
3067,
-291,
962,
2047,
711,
-3215,
-1156,
-2598,
3815,
1494,
-2899,
1554,
-642,
-1625,
-1169,
-2054,
4509,
-383,
-676,
404,
2100,
-591,
1179,
-3864,
-2570,
-743,
-1265,
-1034,
828,
-2686,
-140,
-652,
1427,
-7540,
1007,
-3106,
-5837,
2313,
-4126,
-823,
-1909,
-1871,
-4435,
-2771,
2262,
2952,
-787,
-314,
-3261,
-3946,
-593,
-1061,
-3076,
-2784,
485,
-967,
177,
-3375,
2931,
544,
-959,
-722,
-821,
-1650,
-620,
1604,
2640,
-2765,
-4832,
-5832,
-1101,
6296,
-3214,
-2173,
1805,
-136,
2976,
102,
-1733,
1933,
-422,
-1881,
-2036,
-1074,
598,
-3015,
1624,
-764,
-2749,
199,
-1363,
2095,
-2440,
-1296,
-4090,
-6175,
-666,
-1923,
-2966,
486,
-1110,
1265,
43,
-2648,
1123,
-3023,
-3039,
-3888,
-1656,
-1653,
267,
-7728,
-3234,
-4166,
-1480,
453,
-1521,
-1847,
1489,
-2275,
-889,
191,
383,
-1620,
6267,
-46,
-3261,
-1674,
-1047,
7224,
-4017,
2796,
-1792,
-1155,
-2615,
-2348,
-1012,
31,
-1074,
-5146,
-3147,
1092,
3053,
66,
-1666,
-653,
-926,
-5224,
-89,
-178,
-70,
703,
-1435,
4824,
-2057,
-329,
-553,
-1946,
2513,
-746,
2692,
-221,
2555,
4002,
453,
-142,
-1938,
-1301,
-17,
4928,
5037,
892,
2615,
-3060,
-657,
-940,
-2476,
334,
-249,
-3253,
-1658,
137,
5277,
-2221,
-3887,
-1797,
1169,
-4399,
-2040,
-6960,
575,
-4440,
-1132,
-540,
-631,
3237,
3019,
1588,
4852,
-1236,
-5007,
-3016,
-2704,
40,
-2490,
-2043,
1229,
-50,
5165,
817,
1487,
1939,
-2139,
-1964,
2217,
4889,
-2105,
-1198,
2416,
3240,
-330,
-3090,
-5456,
4353,
406,
618,
331,
1479,
2326,
-201,
532,
221,
-1743,
1805,
-2291,
-3786,
2057,
1287,
-352,
-2126,
-969,
-2566,
1640,
-1024,
380,
558,
1363,
24,
-1169,
-541,
3371,
-2017,
2260,
-281,
-220,
-1028,
-1577,
1478,
-2248,
-3016,
447,
-2998,
776,
477,
4510,
-2200,
1921,
-1304,
1128,
-5402,
2084,
-2039,
-1862,
1227,
-1385,
-1086,
359,
-1988,
-4657,
-2083,
260,
-1750,
2063,
-12,
-1724,
-2760,
-2215,
-487,
-2747,
-5486,
-1588,
-867,
-835,
-505,
-571,
-1093,
960,
-5480,
-4492,
-374,
-2450,
-1035,
708,
-2266,
871,
-1983,
1214,
1621,
293,
-614,
710,
-417,
2541,
972,
2232,
-730,
-4995,
-477,
-4108,
-1085,
-1145,
192,
3126,
3213,
-3795,
-267,
123,
-524,
-628,
-2699,
-3675,
143,
-3590,
-1961,
-2598,
-976,
218,
1205,
-2366,
-1933,
-515,
-1254,
-3036,
-1386,
-2004,
-3682,
-1069,
1008,
728,
-1988,
140,
2906,
-39,
-111,
-167,
-358,
3017,
3843,
-904,
-135,
-1441,
2454,
1586,
1161,
5063,
-658,
-1792,
488,
-2091,
-858,
-166,
-349,
-1987,
-4964,
208,
3100,
-1905,
-1439,
-7833,
-462,
-3227,
1118,
-786,
871,
3034,
-2001,
1960,
-5904,
-5980,
-372,
-2511,
-4140,
34,
649,
349,
-4941,
991,
1857,
2550,
2346,
223,
2774,
3361,
-2886,
836,
2405,
2004,
1574,
1934,
504,
3501,
-3863,
-583,
-1106,
-2260,
-1735,
511,
-696,
-3053,
1860,
2283,
115,
-451,
167,
1907,
3614,
-2647,
1738,
1092,
-2954,
-630,
-263,
10,
-2364,
288,
112,
3830,
1261,
892,
1475,
3008,
2824,
-2152,
12,
2541,
-83,
-1953,
472,
-2,
-43,
-1770,
-181,
566,
4821,
-718,
3837,
5338,
1363,
1635,
3667,
2696,
1357,
309,
-521,
598,
-2962,
17,
2545,
-3455,
1641,
-622,
1379,
766,
630,
238,
1408,
1791,
-269,
-1392,
723,
-4108,
1069,
894,
3042,
1804,
-525,
1627,
2581,
-2357,
1588,
513,
-1417,
-920,
1305,
272,
851,
-1647,
5701,
-1843,
1369,
6611,
1084,
351,
1473,
-431,
165,
-1811,
839,
521,
-5252,
-31,
-298,
-748,
3505,
-1320,
141,
1785,
-2207,
-1020,
-1092,
1940,
-433,
2023,
-4085,
1601,
-5220,
-2090,
1998,
-1244,
2391,
-2303,
1319,
2125,
7929,
-2632,
3101,
-1065,
-1672,
-1505,
375,
1806,
3351,
-1937,
2112,
-1019,
-1573,
-152,
743,
184,
1387,
828,
-1504,
1651,
1678,
-640,
-2598,
2717,
-850,
-2088,
-1457,
1418,
752,
1041,
-337,
-144,
1651,
-1569,
-663,
4037,
-1160,
-778,
3209,
500,
-424,
-2436,
7999,
305,
1520,
-1846,
-2705,
-458,
1245,
-1239,
-1717,
-500,
898,
3257,
-1211,
2083,
-3638,
2120,
2351,
-1560,
2915,
-3968,
-1490,
-7477,
-1305,
981,
1724,
2289,
2873,
2873,
2088,
-213,
-966,
-1027,
246,
-3681,
-1436,
-1548,
1945,
-2089,
654,
1740,
-2960,
862,
-1288,
1256,
-1543,
-2815,
-2066,
761,
-1801,
2667,
-741,
1273,
1851,
2138,
-1574,
1477,
1425,
-1338,
2030,
-6593,
-1726,
2057,
-319,
-2953,
-2100,
1532,
-2269,
2699,
-1582,
376,
-2943,
111,
-560,
57,
2731,
334,
-5478,
-964,
7705,
-1838,
2370,
684,
994,
-3871,
-2604,
-429,
-2451,
2155,
1634,
470,
-1837,
-4228,
-2001,
654,
-570,
-2001,
-1241,
4124,
2794,
-3634,
-1399,
1588,
-1031,
-3438,
-3827,
-1056,
-1109,
-6893,
-596,
-933,
2548,
2195,
55,
1422,
1543,
1335,
-2046,
-306,
-1697,
-1360,
1328,
-3059,
-3359,
1391,
-2214,
-1,
8593,
603,
1396,
-661,
2214,
-4913,
-1419,
-2020,
-1875,
98,
-1483,
101,
637,
1814,
1683,
4222,
-645,
-722,
-1929,
-4084,
-4258,
-829,
-2144,
-3074,
-8153,
5739,
-861,
1147,
-851,
-1372,
-1042,
2160,
786,
-849,
1005,
457,
-1718,
2069,
-633,
1121,
-345,
4617,
-523,
-5257,
-1572,
-1819,
525,
2654,
1973,
429,
-573,
2668,
-2619,
-896,
-1609,
-2436,
-2414,
173,
-2479,
-3021,
4929,
583,
-2023,
-3071,
1468,
3105,
793,
-2195,
-4606,
2551,
-2057,
-1940,
-1199,
-1150,
483,
3559,
1865,
1386,
4526,
3515,
-2076,
27,
396,
-274,
-3287,
1392,
-688,
986,
-1748,
4103,
-2992,
644,
809,
339,
808,
-4770,
-1669,
-1837,
-2465,
1443,
-1767,
-2802,
113,
761,
-1811,
768,
197,
1594,
818,
1218,
-3969,
-878,
103,
2089,
-4904,
2360,
-487,
-1273,
-316,
-7282,
2711,
-2029,
1836,
218,
-4413,
1335,
-445,
1532,
1259,
1587,
-1811,
1599,
243,
-4080,
882,
-548,
-238,
4186,
-6535,
1263,
266,
8448,
-391,
1454,
1909,
602,
-1451,
-3628,
-513,
-3250,
2257,
603,
3599,
-125,
2920,
-1344,
611,
2956,
1546,
136,
2524,
-2091,
-2379,
-2264,
3520,
-2825,
-1870,
-483,
-2715,
-3534,
3469,
-2015,
-1216,
3538,
640,
-73,
2416,
3129,
-1461,
490,
-767,
-1978,
1051,
-1157,
374,
-1363,
-202,
-1774,
1995,
-3795,
-758,
-586,
5347,
161,
273,
705,
303,
-581,
-156,
721,
-1976,
-97,
-2086,
3909,
-2530,
-1109,
-226,
-2595,
-305,
-404,
515,
5512,
1501,
2068,
-3,
-1194,
4820,
-334,
786,
4846,
1248,
5134,
1783,
-3674,
2851,
843,
-969,
-2529,
3944,
-686,
-2998,
-3098,
-833,
-820,
247,
-2129,
-3304,
1144,
-367,
-1546,
-1906,
-739,
-879,
-1422,
-4254,
-2366,
-267,
-1325,
-432,
-1503,
438,
4459,
1378,
-1388,
3420,
-487,
5143,
-67,
-1496,
-1381,
703,
664,
-47,
4187,
-2042,
2656,
-577,
-276,
1263,
-142,
-386,
-622,
-1618,
-316,
-309,
-3109,
-120,
-433,
-53,
-729,
4365,
416,
-2508,
135,
-1176,
-1410,
-3115,
1848,
193,
1380,
2565,
-1165,
-1637,
-471,
1048,
196,
5041,
1184,
-2123,
810,
2381,
-509,
-394,
-924,
1245,
2157,
783,
-650,
847,
1010,
742,
-344,
2442,
31,
4098,
422,
-2494,
-500,
-716,
497,
2088,
2073,
650,
1972,
-356,
-2769,
1202,
13,
689,
-1144,
813,
-3389,
-57,
407,
2047,
-46,
741,
-3179,
3993,
1023,
-1131,
-3751,
1522,
-2208,
-222,
269,
-1199,
-3194,
379,
-2595,
1102,
-3706,
-1935,
1651,
1896,
5965,
-4138,
8335,
-1930,
-1074,
4423,
-1075,
-643,
1469,
-1513,
3578,
-972,
990,
-532,
-2398,
-1117,
1584,
2210,
2903,
2894,
4227,
-1007,
1412,
-2009,
2051,
-1338,
-462,
-1871,
1875,
4107,
-759,
1152,
-1594,
3447,
-1222,
-1459,
41,
-1041,
1031,
-906,
-331,
-2426,
-386,
609,
-2448,
808,
2969,
2378,
791,
-1345,
-1764,
-218,
-75,
-1880,
-3765,
-1431,
-3144,
5278,
-826,
1216,
-1922,
5497,
-1828,
2296,
280,
917,
-556,
-367,
-2483,
-2228,
-2965,
29,
7090,
2321,
-273,
1188,
1792,
49,
-2398,
670,
-642,
1560,
-1523,
-179,
-1408,
-1109,
-2647,
-533,
1153,
-1325,
-2590,
-1572,
-386,
4652,
2669,
-3563,
-12,
-652,
-742,
-187,
-1047,
681,
880,
-1244,
-665,
-347,
700,
1581,
-1870,
4348,
1098,
-2510,
2459,
2161,
412,
-360,
109,
-1369,
-2145,
973,
-48,
64,
-2048,
5055,
704,
2479,
116,
2150,
6389,
-2634,
-2020,
3280,
2323,
-2499,
3373,
63,
-2940,
-486,
-1219,
-880,
-597,
-2507,
-1062,
682,
-2119,
-1518,
-122,
-1357,
128,
-2348,
2868,
559,
-2070,
989,
-681,
-900,
-276,
179,
-303,
-68,
1592,
1639,
95,
-1874,
919,
1303,
-248,
4500,
-309,
1517,
-2858,
-2119,
5348,
1025,
-2826,
-270,
-505,
2940,
-501,
-398,
-911,
442,
-375,
251,
-3419,
-751,
-1096,
-622,
862,
1703,
-337,
-677,
-1500,
-2130,
-1423,
-1479,
-926,
-1564,
-506,
5929,
1117,
-961,
3089,
-1006,
3730,
1638,
1631,
5103,
127,
-1422,
3558,
701,
-1116,
-1272,
-1753,
-1079,
-319,
-624,
-217,
-1044,
1000,
781,
-1612,
397,
677,
207,
6184,
-3101,
-1835,
-294,
1789,
-920,
-344,
-1333,
3311,
-406,
-3312,
1204,
460,
-1112,
-2550,
-1317,
410,
-1431,
1404,
-3693,
664,
-1912,
2326,
1519,
5732,
-302,
-1380,
271,
-26,
-3093,
-558,
-619,
-838,
2936,
-2546,
2467,
639,
5453,
-1084,
-1605,
-1151,
7686,
-2512,
-2138,
-2296,
-2288,
430,
-8814,
-1992,
1324,
-1731,
2420,
1036,
-910,
-1079,
1003,
-4967,
6706,
30,
649,
-487,
1659,
522,
-2761,
2098,
-1726,
-1548,
-4006,
2004,
-381,
-3317,
-5093,
6303,
-737,
-1801,
1719,
-2072,
-184,
-1414,
1507,
886,
-188,
-4462,
-3774,
-489,
-659,
-4449,
-1617,
1622,
-3608,
-1287,
-2114,
1497,
-2503,
-45,
-1807,
273,
1165,
83,
-1216,
968,
-2493,
-2600,
-851,
-427,
-2714,
-1593,
-3695,
-1017,
298,
813,
3634,
1504,
-844,
936,
-1887,
946,
-880,
-1423,
1120,
-1611,
-691,
-685,
-889,
910,
-133,
13898,
1198,
349,
-4390,
-1325,
1954,
-1429,
-1856,
84,
-501,
-2952,
654,
-2529,
-64,
545,
-933,
3670,
-3601,
586,
-3174,
-8443,
-1884,
-3865,
-728,
971,
1115,
1115,
-2600,
492,
6153,
807,
1865,
2116,
2201,
1476,
-86,
-1875,
1897,
1529,
3427,
-3366,
-4229,
-1911,
5079,
-280,
7067,
1600,
-3865,
-273,
-2801,
4432,
-3941,
-5064,
-9161,
-668,
-1179,
1812,
911,
1674,
847,
-135,
-3421,
993,
-894,
1216,
956,
-2718,
-267,
400,
428,
96,
828,
-4984,
-1491,
-703,
3954,
386,
340,
441,
1461,
587,
-3901,
-1957,
745,
1222,
-3051,
2046,
959,
781,
970,
1427,
-4898,
-3725,
779,
3662,
-10548,
-1121,
-1995,
4276,
1986,
1311,
-2682,
-91,
2916,
2512,
-249,
-1386,
2646,
1345,
6361,
-336,
-3511,
696,
-2052,
1114,
2694,
-1596,
930,
-454,
-1844,
57,
-291,
-2100,
-3197,
-1372,
220,
-492,
3237,
3124,
718,
854,
-2619,
1504,
18,
-738,
4144,
-376,
4248,
-1198,
387,
1611,
1411,
-2643,
1464,
-3267,
634,
942,
-3189,
-2777,
490,
-2193,
-682,
1996,
-4414,
7751,
2901,
-1719,
-1699,
1074,
913,
-2728,
3976,
-244,
-1419,
2019,
4857,
-825,
-5246,
1048,
-791,
-379,
-5047,
-2104,
-7104,
3131,
-8792,
-589,
-117,
5165,
5443,
607,
2404,
-1448,
810,
764,
105,
1887,
1012,
-285,
1525,
2788,
1962,
-3809,
-2617,
1838,
-299,
-169,
-130,
4682,
7820,
-1983,
1323,
7888,
1292,
-439,
-3141,
-2609,
5252,
-2214,
-1666,
-1755,
2610,
2927,
778,
1946,
-1031,
3811,
3329,
-1083,
1527,
-2167,
-3875,
803,
-257,
405,
-3489,
5917,
1680,
2480,
727,
817,
1935,
-893,
461,
-1346,
-1135,
-1890,
550,
-345,
1718,
1733,
5162,
2325,
-1036,
5084,
-2670,
-2806,
1747,
461,
2239,
3317,
-3739,
-2461,
-4536,
978,
-4083,
-4425,
-958,
1176,
1661,
-1606,
1699,
-2968,
1279,
3760,
1273,
3677,
-2243,
485,
-1036,
-3889,
-1823,
-4875,
1972,
541,
-2348,
-757,
1597,
-261,
1176,
3457,
-2370,
-612,
371,
1134,
261,
-1636,
-784,
3014,
2304,
-3607,
6929,
2521,
-69,
1625,
792,
117,
-513,
-2618,
1071,
-2342,
254,
-3471,
-795,
1262,
361,
-2981,
3019,
-111,
3413,
844,
1876,
-2021,
-96,
350,
783,
4229,
1059,
1981,
1763,
-2004,
2450,
1494,
-1200,
-264,
3939,
-826,
737,
125,
-1357,
-2878,
4840,
919,
-1467,
333,
11268,
-2313,
-362,
1207,
2019,
8895,
-3185,
1749,
231,
-2583,
5357,
243,
609,
-1369,
-199,
-1023,
1377,
-294,
-3574,
4834,
18,
-281,
-3187,
-5012,
9037,
1205,
1426,
-7453,
344,
-119,
-416,
995,
3828,
5127,
1169,
4169,
-1711,
58,
-2194,
383,
-5041,
458,
-484,
768,
-5953,
1866,
2665,
2234,
2259,
401,
9542,
3482,
-3551,
185,
-3897,
-4319,
1206,
1368,
-2635,
10971,
-5330,
-278,
-585,
1029,
-2584,
-170,
2842,
-3808,
2040,
2418,
3663,
161,
-92,
1645,
7763,
-5078,
-16,
28,
-1352,
3079,
2121,
4266,
-3289,
-570,
81,
4982,
4156,
1605,
1059,
13628,
3456,
-2506,
4405,
3043,
-1562,
-2707,
2012,
5841,
1013,
-1032,
561,
-340,
4180,
-2417,
3162,
6127,
515,
1683,
5709,
724,
9677,
-889,
-2178,
-2616,
-2506,
-747,
2392,
-3834,
1371,
-1688,
3213,
1490,
-1982,
4144,
1244,
165,
953,
-36,
1003,
-9694,
-1570,
-1418,
6340,
1473,
-426,
1731,
1366,
-575,
515,
2669,
-650,
2118,
4113,
923,
-1219,
-3408,
7080,
-2313,
549,
17225,
556,
4788,
1064,
-378,
344,
5,
3549,
271,
-7086,
94,
-800,
-1232,
-85,
-2689,
-51,
2962,
-1875,
-1883,
-2334,
5841,
4895,
1328,
-3413,
2820,
-6914,
-1833,
10910,
-3367,
1166,
-3893,
6246,
5634,
19067,
-2376,
-467,
-91,
231,
-3148,
450,
-1159,
9183,
-933,
509,
-1625,
-3000,
5724,
58,
-979,
1958,
-510,
-836,
7439,
-396,
1610,
-5047,
968,
807,
212,
1034,
2434,
3953,
4283,
-683,
5,
2587,
-1222,
-32,
-2064,
-3050,
-1056,
8291,
5640,
-887,
-3739,
21806,
1185,
3483,
-3809,
-3552,
-1137,
610,
-217,
-3384,
-1790,
275,
2840,
-517,
-4255,
-6356,
1376,
7025,
329,
1003,
-1146,
-4866,
-7660,
-827,
1439,
-908,
1352,
1320,
2252,
5013,
4651,
-814,
-1103,
-1195,
-2784,
229,
-782,
5289,
-1527,
-261,
900,
-3808,
1684,
-1279,
898,
-750,
-1777,
-929,
3156,
-1901,
1217,
-242,
-1798,
1616,
3669,
-2232,
3743,
1180,
-2243,
3784,
-10065,
-2666,
625,
502,
-2089,
-741,
3310,
-4142,
1159,
370,
-232,
-4820,
-3612,
4493,
957,
3353,
907,
-4780,
1828,
18287,
-2939,
9974,
492,
1663,
-6115,
-6514,
-2106,
-1768,
640,
940,
6872,
713,
-4279,
-2274,
1257,
-1190,
-1834,
-1692,
1228,
7081,
-5116,
514,
810,
-1214,
-3336,
-6258,
2381,
-2481,
-9145,
-4499,
712,
8496,
4963,
-4452,
2675,
896,
743,
-3731,
-3692,
-1961,
-2227,
2216,
-4743,
-5761,
2989,
-539,
1060,
7049,
-99,
1471,
-270,
6100,
-7935,
-3422,
-4155,
-1597,
-1626,
-2086,
-90,
-381,
1231,
2526,
2192,
-544,
1555,
-2038,
-1908,
-3939,
-1125,
1144,
-3621,
-7512,
5530,
-1486,
-1869,
-2556,
-3119,
2316,
2950,
1236,
-2837,
4970,
-2939,
1123,
-228,
-836,
4133,
-292,
6410,
49,
-6315,
-1282,
-3456,
960,
571,
2367,
4248,
2540,
7447,
-327,
-965,
1127,
-2163,
-2677,
60,
-1223,
-4482,
7194,
2205,
-2482,
-1410,
1385,
2998,
678,
-2770,
-3906,
1306,
-4219,
-2792,
-1228,
-2472,
-101,
-1540,
-101,
2272,
-40,
4376,
-711,
3219,
600,
-455,
-3307,
3409,
-5007,
1212,
-2713,
291,
-1639,
3834,
1100,
2492,
-352,
-2266,
-721,
430,
-1638,
2960,
-2135,
-268,
3562,
-131,
-5069,
1396,
549,
1230,
848,
5130,
-6094,
-1383,
2712,
-290,
-7336,
2754,
-374,
-547,
-2302,
-9198,
1867,
-877,
865,
2301,
-6157,
1051,
-432,
-1133,
-131,
343,
-1405,
1733,
-837,
-4364,
60,
-1072,
1327,
7213,
-8454,
1310,
120,
14984,
-1206,
1562,
144,
-19,
-2097,
-6049,
-1641,
-4170,
2452,
572,
3102,
-210,
14222,
-1345,
-463,
-3466,
269,
-2318,
-3018,
-4937,
-271,
-2700,
-682,
-2482,
-1089,
-2717,
-4969,
-2196,
-2767,
-1324,
-1628,
-1262,
-1029,
-480,
-789,
-330,
-3208,
-1203,
-1160,
-1428,
-3016,
-3146,
-255,
2692,
-2438,
-4556,
-2137,
-5611,
-1451,
-3410,
1089,
-1015,
-1554,
-386,
-3545,
-1786,
-2226,
-4300,
-4539,
-4098,
-1393,
-2207,
-3545,
-1431,
-1087,
-2701,
52,
-579,
-394,
-808,
-1258,
520,
473,
-106,
-2864,
-1253,
-3169,
-3177,
-2444,
-1198,
-2768,
-719,
-1505,
-3809,
-388,
-2276,
489,
-13,
-2434,
-756,
-1484,
-2070,
-3141,
-2335,
-1910,
-1091,
-2286,
82,
-2912,
-1286,
-916,
-4756,
-1275,
347,
-5408,
-461,
1913,
-2488,
-1952,
166,
-2944,
-2347,
-190,
-1136,
29,
-1003,
-1824,
-981,
-5388,
-1715,
-3236,
342,
-3085,
-1417,
-1518,
-745,
-539,
-637,
-1408,
-2154,
-489,
-664,
-360,
-766,
-3731,
-1789,
-1131,
-1794,
-2079,
-1124,
-930,
-2306,
-2122,
-3123,
1996,
50,
-1813,
-725,
-1118,
-405,
-4364,
-541,
-799,
-2324,
-6478,
-2730,
-3781,
-200,
-976,
-1690,
-438,
-2055,
-5809,
-315,
-1378,
-543,
-3372,
-1674,
-1841,
-400,
-831,
-879,
454,
-1375,
-202,
-1341,
-889,
-1087,
92,
-113,
-2594,
-1336,
-1103,
-6354,
-954,
-327,
-1897,
1585,
-18,
-4239,
-3663,
-2443,
-1052,
-624,
-2214,
-3007,
-196,
-2346,
-2359,
-1052,
-166,
-399,
-1692,
-3572,
-2021,
-11,
-915,
-2510,
38,
-2386,
-4141,
765,
-2973,
66,
-827,
1373,
-1024,
-4268,
541,
-1489,
-2418,
-1392,
-1424,
-532,
-3007,
-452,
-1489,
-4186,
257,
-3111,
-102,
603,
-3610,
-193,
135,
-2269,
-361,
-332,
-2601,
-1183,
-2017,
-1687,
616,
-3247,
-788,
-4571,
49,
-2909,
-4355,
-3479,
-818,
-1115,
-1839,
-1218,
-4269,
-3756,
-2022,
-1817,
-3036,
542,
-713,
-1312,
-2498,
-1526,
-2080,
2549,
-3865,
-6296,
-1495,
-3036,
-780,
-1633,
-4646,
-2128,
-35,
-2178,
2175,
-1894,
931,
-2782,
-2033,
-3687,
1230,
-245,
-1190,
254,
-203,
-2445,
305,
-554,
-960,
1821,
-2330,
-6840,
-3532,
-2220,
-4402,
-3647,
-2121,
-186,
-585,
-194,
-2861,
-1415,
-2082,
-1447,
-1121,
-2144,
-2067,
-2593,
-2489,
-2978,
-303,
-2295,
-1916,
-996,
-1889,
-3229,
-2703,
-1666,
-274,
-3776,
-4320,
-655,
58,
-970,
367,
-3069,
-2340,
-2100,
-1159,
-762,
-1572,
-1521,
-1519,
-277,
-316,
-2565,
188,
-4412,
-1972,
194,
2067,
-2297,
-194,
440,
-4987,
-1751,
-821,
-3561,
-2966,
-389,
-1509,
-5389,
-3730,
-2747,
840,
-2859,
-1416,
-1134,
-1711,
-2751,
-95,
-1151,
-157,
-2124,
-1849,
-103,
-3794,
-2002,
-2115,
-1280,
-1603,
-1337,
-922,
-1611,
-1853,
-2684,
-1193,
-2355,
726,
-1758,
-4530,
-2821,
-871,
989,
1159,
-2627,
-2437,
246,
-1071,
-3770,
-2220,
-437,
-987,
-927,
-1139,
-2711,
-1162,
-2971,
-22,
-3254,
69,
-3234,
-1692,
-376,
-3054,
-3991,
-2425,
-1962,
-2630,
-2291,
541,
-753,
-1330,
-580,
-1172,
-686,
-1359,
315,
806,
-1078,
-156,
-1204,
-1444,
594,
-3925,
-1426,
-1510,
-3029,
-1827,
-1902,
-1625,
-1013,
-1657,
-3357,
-594,
-2194,
77,
-47,
-1051,
-512,
-4572,
-331,
-1053,
-1104,
-119,
-1904,
-2760,
-4649,
-2759,
-889,
1596,
11,
-1829,
-1191,
238,
-872,
-5370,
-5435,
840,
1591,
-1229,
-3425,
-70,
-1807,
-1089,
783,
2289,
-1515,
-2392,
-234,
-2419,
-3189,
-1538,
-1282,
-1550,
67,
-566,
-209,
-1064,
-2702,
-2922,
-138,
1674,
-1083,
-9853,
724,
-2829,
-1625,
11624,
10637,
-113,
801,
5164,
-4483,
725,
-809,
-574,
-4339,
1135,
-227,
-3403,
1502,
-1639,
-1158,
-6158,
-713,
-157,
484,
-6698,
1420,
3981,
-1589,
-1087,
-1344,
-744,
-1983,
-4744,
2597,
-613,
-4599,
-1995,
-1892,
1579,
-3629,
792,
-65,
-3862,
1103,
-2893,
2084,
-3752,
-2125,
-444,
-780,
-365,
2395,
-1226,
1998,
-671,
-2197,
-903,
-969,
-4029,
5082,
-4090,
-4071,
4165,
9934,
-745,
744,
2224,
-3932,
-184,
371,
-3051,
1323,
5237,
-3264,
2354,
2315,
-2802,
-2107,
766,
3291,
5748,
3417,
-4161,
931,
919,
637,
-421,
-1359,
-1061,
-4038,
-536,
-1847,
-3067,
994,
20,
1766,
-1440,
1242,
-7039,
-7228,
187,
-4595,
2,
-2002,
2590,
783,
-2554,
2973,
7033,
2253,
1534,
1263,
-475,
1602,
-67,
-458,
-644,
2148,
2055,
-3160,
-8165,
670,
2629,
-1727,
1054,
299,
-3533,
1936,
-1796,
2635,
-3960,
-6368,
-7357,
-692,
5237,
1633,
-1559,
2650,
2865,
2527,
-4387,
-932,
1675,
-1287,
-1969,
-3945,
6,
3715,
-138,
1806,
-789,
-5052,
5058,
-2525,
4045,
-705,
-982,
-1090,
1100,
-552,
-3063,
-4945,
1979,
3234,
-2846,
468,
812,
4801,
-1,
669,
-2575,
-3987,
1137,
924,
-8646,
-802,
-1150,
3127,
1010,
919,
-3829,
-970,
3660,
1818,
-185,
512,
-1688,
11377,
1743,
-2113,
-3207,
-1182,
5343,
-3005,
7746,
9705,
-763,
326,
-1639,
61,
3057,
-1144,
-2115,
-4456,
634,
596,
2697,
2270,
-827,
-633,
-3067,
-154,
950,
-755,
2376,
-926,
4028,
-84,
-2787,
-1049,
-137,
-430,
175,
-933,
-276,
6307,
161,
-2684,
-311,
-2524,
-24,
597,
1466,
6197,
5249,
1501,
-5413,
-667,
-1142,
-4371,
1636,
3589,
-4328,
302,
2192,
1264,
-6767,
-1259,
-1846,
733,
6160,
-6165,
-8504,
1249,
-11499,
-822,
-1276,
1723,
6880,
1469,
682,
3383,
3910,
-3726,
-2806,
-6204,
521,
-179,
-269,
838,
3857,
-378,
-3236,
731,
-1787,
1506,
-7102,
3360,
5899,
-5903,
-2111,
6119,
8500,
-1965,
-4068,
-1679,
7614,
-2110,
-1664,
-2342,
3161,
4903,
-1612,
3264,
127,
2895,
1855,
-3131,
6,
-741,
-756,
2527,
1586,
-407,
-4621,
4938,
1352,
2050,
-1459,
4772,
1939,
-884,
853,
1957,
-2101,
1089,
-347,
-2454,
2109,
-984,
2906,
40,
-4358,
-40,
12093,
-1483,
1073,
6318,
489,
1170,
-5099,
-3188,
-8582,
1991,
-5381,
-2250,
-3511,
838,
158,
-2694,
1485,
-5096,
1815,
8365,
-125,
2923,
-3106,
-91,
-2772,
-4205,
-2191,
-4176,
1299,
583,
-5329,
-1102,
509,
-765,
-843,
1853,
-3361,
-1607,
-4491,
-1807,
-934,
748,
-1165,
2014,
-597,
-3026,
1376,
492,
-542,
1896,
3169,
5696,
3461,
-1253,
1475,
-5297,
295,
-5225,
-1595,
542,
-3326,
-1040,
7016,
1069,
1145,
1378,
87,
-776,
534,
-633,
2010,
-5557,
-1096,
-1775,
-1109,
-2266,
1893,
-1861,
-1892,
1945,
2343,
-362,
-1632,
-1699,
-333,
-2018,
3229,
1165,
-1098,
2855,
2009,
-2176,
-6217,
-234,
3383,
8334,
-1002,
-958,
3139,
-3167,
6402,
562,
510,
4367,
-195,
1449,
-26,
1577,
-2027,
377,
2402,
-264,
-8017,
-4881,
8418,
-1010,
3069,
-10659,
1140,
1233,
1173,
418,
1693,
4204,
848,
4006,
-3674,
-601,
-1281,
-2,
-4614,
-2406,
3005,
-2078,
-2705,
-644,
3989,
-1428,
-1689,
-121,
-1671,
-3853,
-1035,
-634,
2943,
1347,
-1117,
-1740,
1854,
-1432,
-2204,
1727,
-678,
-3537,
-2297,
-111,
-1232,
-1192,
2181,
926,
-797,
638,
2761,
-2042,
-4061,
3110,
1243,
-323,
-2885,
-252,
1311,
-842,
-1769,
140,
2376,
76,
-3471,
3923,
-1347,
910,
-3039,
-176,
-3671,
-2628,
-2644,
531,
-78,
-23,
-427,
30,
-119,
-1421,
1107,
-1161,
-1620,
305,
1600,
-645,
2061,
-1285,
-1727,
676,
-720,
2214,
-2668,
147,
-1664,
-146,
-1175,
1699,
3140,
-1888,
-970,
-828,
-1890,
-318,
1669,
-912,
-1126,
-5168,
-1113,
-263,
644,
-744,
619,
-2176,
-1263,
-2263,
76,
1211,
-1298,
-1317,
-168,
-652,
127,
-410,
1149,
-427,
1893,
-211,
-7,
-405,
-564,
2134,
-2994,
-1568,
-2803,
-1024,
2019,
-422,
890,
-1076,
4967,
3491,
1514,
-892,
-1712,
1296,
-1413,
-1432,
-1079,
-1225,
1614,
-354,
-1569,
773,
-399,
-577,
699,
472,
-461,
1363,
4632,
2668,
-369,
-948,
223,
-400,
736,
362,
-4812,
-559,
-21,
809,
-2040,
-1337,
1501,
1884,
62,
83,
-1613,
-3844,
-504,
-1859,
1145,
2221,
-101,
-856,
-2668,
588,
263,
4556,
511,
253,
-1716,
433,
-891,
1267,
4875,
5574,
-2000,
-3435,
2336,
1827,
-737,
3349,
-1482,
-1748,
-124,
-356,
338,
-1749,
907,
-346,
-58,
-2793,
-824,
673,
294,
2971,
2288,
-1569,
-1569,
-3532,
1434,
-485,
-1758,
-1356,
474,
352,
-2252,
-589,
-2663,
-2229,
-299,
-3276,
1297,
3946,
-772,
-1397,
4546,
-2248,
-124,
628,
1818,
-266,
-2616,
-640,
-663,
-91,
-2445,
-2816,
698,
-391,
-1222,
2500,
-1804,
455,
-533,
-135,
-814,
2368,
-3604,
-1666,
-239,
-1844,
140,
-205,
9,
-282,
597,
-2472,
-3630,
1348,
1123,
-1697,
-1577,
-1457,
-228,
-1603,
-2811,
-475,
924,
1823,
-2738,
1207,
360,
2894,
764,
-2242,
388,
-1581,
-3029,
-901,
586,
-3802,
-94,
-434,
2765,
656,
650,
-1840,
-3251,
-2154,
-2500,
-1307,
282,
1146,
-1282,
-2807,
-1120,
2911,
1557,
-1019,
-301,
-1617,
3012,
245,
214,
501,
533,
400,
490,
-165,
-1465,
7391,
-3744,
1412,
-1351,
-3301,
838,
-1681,
-2342,
-571,
-1012,
549,
2245,
997,
-1618,
225,
-162,
1450,
1597,
-1084,
-578,
-294,
-1000,
-372,
-841,
-3500,
1349,
-839,
-3678,
-1922,
-633,
608,
-427,
842,
5284,
-515,
-1759,
-1390,
1741,
-479,
-938,
-6533,
-1892,
1275,
2175,
-2612,
-1805,
2177,
-356,
-941,
997,
-378,
541,
2178,
2767,
-3519,
-1023,
217,
-3233,
345,
-1608,
2381,
873,
2311,
-2218,
750,
4841,
-1232,
519,
-2086,
937,
-2893,
629,
519,
813,
-620,
-2137,
1551,
1318,
1519,
-1388,
1208,
1166,
-1595,
335,
3766,
-35,
-3783,
1347,
-872,
-1817,
-2582,
3000,
-2094,
1054,
-92,
-3431,
-184,
-1455,
-48,
2092,
-4095,
194,
-321,
-2496,
-1702,
562,
268,
138,
-790,
3019,
-1274,
1774,
1553,
-256,
-508,
1240,
-1107,
999,
-1019,
-2943,
-175,
-1131,
-2348,
-1251,
4314,
-2030,
-207,
-2084,
-123,
1817,
119,
-892,
-322,
1480,
237,
422,
-2541,
-3568,
-490,
-1291,
1545,
2416,
1049,
4254,
235,
-3390,
2282,
287,
-1941,
-308,
591,
2066,
-511,
3704,
1100,
4045,
169,
46,
1983,
-1987,
111,
-26,
-1184,
3295,
4232,
4641,
-3546,
-3220,
-1899,
8303,
-2987,
5186,
19,
-3418,
-4956,
-273,
-1615,
-1734,
6328,
854,
1031,
-1072,
1980,
1190,
1632,
-273,
2289,
741,
473,
3246,
10546,
-2454,
-848,
6327,
-1834,
1369,
-639,
-583,
1145,
2335,
2541,
4517,
-3364,
-1788,
2241,
-2275,
-936,
-1689,
5947,
-1715,
2245,
4192,
-1326,
1317,
-948,
2316,
-941,
1005,
-845,
4058,
-2459,
3070,
-1910,
823,
4217,
891,
950,
1402,
-4550,
6617,
-2822,
-1877,
-4202,
516,
1162,
-3117,
5354,
295,
-1821,
3302,
-1842,
80,
5028,
-89,
514,
-1726,
5203,
39,
4347,
1452,
306,
-1476,
-1615,
5742,
-1554,
807,
1326,
2932,
-829,
-965,
902,
2413,
-1655,
-2606,
2369,
1834,
-1507,
-1357,
11515,
-3333,
3024,
971,
5852,
-1501,
-2059,
2425,
-121,
452,
-2521,
1304,
539,
6467,
-1593,
-619,
1242,
-3228,
-2089,
484,
866,
6752,
-567,
5091,
4094,
371,
-1182,
5032,
-1652,
-3720,
-814,
3546,
4164,
4704,
-1120,
-2136,
-3039,
-1486,
-1249,
-3156,
-1002,
5180,
-1478,
789,
2713,
1113,
4559,
-86,
-3778,
356,
-479,
-205,
6546,
-2799,
3848,
-877,
5704,
-428,
-1645,
-2379,
841,
720,
-1553,
-638,
-3837,
3444,
4208,
-2096,
-6152,
-4040,
906,
5254,
1231,
-839,
536,
14013,
1156,
2061,
694,
-944,
660,
-1293,
-2395,
-1990,
1930,
1256,
-2596,
3004,
-4726,
-892,
6569,
700,
-575,
-5194,
55,
-1723,
261,
511,
291,
-750,
3035,
-598,
2730,
2940,
6665,
-873,
-1519,
4016,
-2206,
-13,
-311,
3624,
-935,
423,
2311,
2108,
2061,
-371,
241,
1441,
-2331,
-508,
-392,
-1218,
236,
-126,
-1427,
-1031,
-1531,
2375,
3042,
820,
-1182,
-2112,
627,
567,
-1775,
16,
-486,
-1836,
5993,
-325,
-899,
5124,
8153,
-645,
5254,
4141,
330,
2998,
-2611,
-519,
5871,
11959,
-164,
10166,
-15,
4864,
-1339,
-606,
911,
4814,
-3432,
-1652,
50,
1040,
6229,
-1059,
-84,
1776,
5749,
517,
2759,
2278,
2820,
-2527,
-1502,
2719,
2854,
16,
2939,
595,
686,
-2809,
1132,
4800,
2544,
613,
-1441,
-2491,
-2412,
-730,
-4228,
-301,
-528,
-364,
-2697,
935,
3782,
-2640,
-1343,
6197,
-1550,
-726,
-971,
5218,
757,
-2145,
-2455,
1376,
-1431,
819,
-1469,
-701,
-2836,
2662,
1885,
7,
-3847,
1014,
-1637,
4056,
-1124,
2431,
2131,
-3470,
3798,
1260,
-2920,
68,
1909,
737,
524,
-1185,
-1427,
4525,
-1663,
565,
1791,
3034,
3989,
-42,
7042,
-3056,
-371,
-2658,
-40,
4625,
3459,
3181,
4392,
1794,
3326,
-2711,
-1734,
2727,
-1209,
-1893,
-2299,
-654,
312,
1935,
-76,
3535,
-376,
6732,
-2003,
215,
417,
-1729,
-3323,
3178,
552,
-634,
-362,
-2222,
-4640,
646,
-1563,
3731,
6762,
-3064,
4334,
-926,
219,
2785,
-2189,
-2096,
-74,
-520,
3034,
-1000,
1729,
44,
-347,
3018,
2625,
-1844,
4584,
371,
1167,
1663,
-2216,
3252,
-1542,
-2765,
760,
4576,
4743,
351,
1532,
583,
-1532,
1844,
-3419,
3524,
208,
3410,
-271,
952,
-89,
1267,
1088,
-843,
-541,
1153,
-41,
-1909,
-3086,
-14,
1145,
5603,
-848,
-148,
-43,
-2054,
492,
-1462,
-2345,
504,
8016,
-2109,
11840,
-673,
294,
582,
2868,
8113,
-402,
-1059,
568,
4712,
-2218,
2241,
1463,
6913,
2507,
-648,
-1068,
-1428,
-1872,
-2289,
18,
1581,
-42,
-1898,
2050,
2888,
522,
947,
3178,
-2166,
836,
783,
-1206,
-190,
-993,
100,
2138,
3322,
-911,
3187,
1334,
-1325,
-1755,
1693,
-4299,
1020,
113,
-1778,
3881,
-669,
481,
-367,
948,
-1223,
-4,
4342,
816,
1061,
-1606,
3154,
1296,
-13,
-2755,
-751,
1510,
1627,
-580,
615,
646,
183,
-1845,
-1067,
732,
-812,
975,
-3149,
2166,
-4976,
-3282,
-720,
-2626,
-1466,
876,
360,
3588,
356,
1798,
-505,
-552,
72,
2665,
-2785,
1549,
-194,
1480,
-125,
795,
62,
-1451,
2471,
1468,
-1507,
2870,
-2629,
-439,
2916,
339,
-1925,
-60,
-3656,
1074,
-2450,
3066,
308,
2145,
-2557,
66,
796,
571,
-5283,
3440,
2846,
-4035,
2919,
151,
-2286,
-944,
-1941,
-1256,
1358,
387,
968,
-461,
-1091,
-1432,
-2835,
1165,
445,
-1930,
1084,
1041,
-383,
576,
933,
-409,
-1185,
-1569,
-197,
833,
79,
-135,
2111,
815,
194,
-1070,
-1431,
1561,
-447,
-900,
528,
3309,
-567,
397,
472,
702,
-997,
319,
3490,
885,
-62,
436,
-3230,
104,
-519,
672,
578,
1874,
1027,
-3047,
6,
-290,
-1493,
-1178,
1917,
3510,
-31,
-643,
-1716,
-1082,
-935,
2167,
3170,
-936,
-1245,
-798,
960,
1862,
-4771,
-1205,
-1261,
-530,
1160,
-991,
2001,
3813,
893,
-1360,
-1151,
708,
-1124,
3116,
3989,
-3850,
47,
-1044,
1654,
169,
1787,
336,
-948,
-2098,
-868,
-2725,
-2039,
-3343,
-1111,
133,
2183,
5341,
-2446,
-262,
-203,
-60,
-2512,
-176,
-822,
-1965,
-170,
-1109,
2174,
-1724,
2135,
1202,
-1010,
1382,
952,
-308,
-786,
794,
6,
2064,
912,
-608,
-2350,
610,
1923,
4208,
1613,
834,
3098,
528,
1089,
-2160,
2264,
-2103,
3150,
-3481,
2617,
-574,
2347,
-41,
-3614,
1484,
-1002,
1190,
-5664,
1371,
-1007,
-244,
-2447,
917,
3254,
1483,
-1436,
1001,
-2518,
-2186,
258,
5921,
299,
-1936,
-1010,
-1974,
653,
-1491,
320,
3218,
4502,
-806,
3200,
431,
1672,
3252,
1886,
798,
1978,
2548,
-1842,
-3843,
-880,
1894,
1224,
1528,
819,
2302,
2081,
1586,
-513,
2289,
3949,
-583,
-711,
3845,
-5898,
-1579,
-1320,
318,
-2104,
1451,
1836,
2272,
1798,
-325,
373,
509,
263,
883,
-2871,
-2583,
-516,
4056,
1287,
847,
-813,
456,
2166,
-1424,
756,
-2373,
111,
1004,
688,
359,
4199,
-442,
4115,
3693,
246,
2829,
3480,
-1187,
58,
348,
-359,
-4902,
-655,
1679,
1163,
572,
-1457,
-1867,
-1858,
1623,
1480,
-121,
-1520,
449,
3342,
1654,
1814,
1357,
90,
635,
-3718,
-869,
2420,
337,
-3646,
348,
-627,
-16,
2241,
1362,
1214,
9,
792,
562,
-1303,
1540,
-2280,
2207,
-1776,
-3822,
250,
3633,
876,
-523,
4700,
2588,
1284,
-2381,
1848,
-1838,
-9,
-497,
-1619,
-2808,
-2325,
3742,
823,
-973,
-1028,
-522,
383,
1173,
115,
-225,
3491,
-1771,
-309,
-234,
-2292,
771,
774,
1049,
-160,
847,
-208,
-7,
3410,
-1598,
-663,
694,
-723,
-28,
-1677,
2554,
610,
-1613,
1619,
1054,
78,
-843,
-684,
-1681,
446,
137,
144,
-1071,
5221,
2951,
1164,
-3966,
-2063,
-8216,
-107,
-2585,
-1643,
-1360,
-2224,
1830,
760,
410,
-2749,
-1211,
-3247,
-1350,
96,
877,
-735,
-1325,
2951,
779,
-781,
553,
462,
1218,
-1061,
1844,
3884,
-421,
-5112,
-2857,
-1736,
1413,
-1293,
9,
2141,
489,
-1102,
-127,
1475,
-2562,
-267,
2783,
-2803,
114,
235,
1986,
-2910,
-1525,
2598,
-2040,
-2836,
-868,
-1148,
-1183,
-1940,
-551,
1157,
-166,
-2607,
-18,
-736,
-3417,
1352,
-803,
2122,
936,
2632,
2185,
1704,
-1079,
-281,
1238,
-2959,
500,
835,
1009,
-1411,
653,
1008,
-2353,
-3201,
-1579,
-656,
1045,
-250,
-735,
-547,
-2206,
-593,
-279,
2179,
3720,
1432,
-1502,
-1549,
-296,
3450,
-846,
-1695,
1080,
-240,
1019,
-188,
-715,
4042,
1717,
-1423,
211,
1341,
938,
984,
-1461,
-4945,
-337,
-1198,
-399,
356,
1238,
-1382,
-146,
-703,
-105,
-142,
1947,
-264,
-1289,
-1208,
-218,
-105,
2684,
2006,
-1752,
1479,
1453,
-378,
4710,
-1797,
-2015,
-994,
1755,
-1931,
-965,
4184,
-2388,
957,
-1610,
2020,
-1161,
5550,
-347,
-914,
-980,
-866,
-1061,
-300,
-667,
-3959,
-1265,
-4624,
3169,
20,
-85,
1058,
-3007,
861,
117,
-2461,
518,
925,
-1190,
-2498,
629,
348,
-1647,
-1009,
717,
-615,
453,
-617,
-362,
442,
1107,
157,
-1114,
-496,
-1809,
-1419,
2329,
1200,
1540,
1785,
-3825,
-3408,
-3148,
471,
594,
-2714,
-952,
1902,
-2867,
2655,
6399,
30,
3143,
474,
395,
1984,
4165,
-1528,
1686,
2296,
-2819,
-955,
-401,
-3112,
-1019,
965,
-1128,
-1638,
5972,
-1746,
-276,
-1991,
-1400,
-1541,
-1901,
2986,
1091,
-919,
268,
-445,
-1665,
-525,
-509,
-1929,
-1222,
732,
-3556,
495,
-1293,
-1840,
688,
1183,
-620,
-828,
-781,
-245,
-944,
-1013,
-2761,
-724,
-637,
2086,
-182,
-1276,
-2260,
-1664,
2563,
-1936,
1372,
-114,
-14,
47,
906,
588,
-1213,
2559,
518,
330,
2261,
-382,
3429,
-1392,
1149,
6126,
1238,
1458,
-1225,
122,
-1795,
847,
5,
877,
1964,
2310,
609,
-1109,
857,
85,
6206,
243,
464,
-857,
1777,
-2147,
-1719,
-335,
3172,
1061,
-2238,
847,
2049,
-477,
221,
1713,
828,
-1474,
-318,
-3122,
-1364,
-3485,
-222,
-172,
-34,
-743,
-908,
-184,
-680,
1261,
-3588,
2700,
-550,
2453,
-184,
-3984,
-468,
3901,
-1341,
435,
2757,
-1611,
359,
1678,
1991,
-2227,
-1990,
-1848,
471,
-773,
-2709,
-788,
176,
-2053,
-1153,
2467,
1448,
-994,
735,
10234,
-2639,
-1914,
-627,
-2368,
-331,
-482,
-2100,
226,
-194,
99,
1809,
767,
-837,
-52,
1398,
3447,
1065,
2444,
6049,
-1005,
117,
340,
-797,
-841,
1792,
-1251,
-1124,
2744,
598,
865,
-1133,
12,
-2232,
-679,
1051,
-3237,
3194,
1980,
-69,
682,
2209,
-1857,
455,
142,
302,
-576,
84,
-756,
-507,
-57,
-2204,
-691,
-156,
150,
-349,
-483,
2158,
-255,
2469,
1370,
-235,
-1388,
-668,
-735,
-222,
-1443,
-1260,
-334,
768,
-1019,
3123,
-508,
788,
-1287,
631,
1221,
601,
-1666,
762,
-2154,
2967,
534,
-227,
58,
-3528,
647,
-841,
-1778,
-2035,
317,
-306,
1105,
-1928,
3964,
364,
-1695,
1486,
-1221,
-133,
1372,
-2413,
517,
-1202,
-3495,
-3195,
2237,
4484,
1603,
3534,
1156,
-3132,
-384,
-1482,
229,
1235,
-33,
2309,
329,
-656,
-1905,
259,
2087,
704,
-1927,
699,
-828,
335,
-1313,
-1759,
-749,
1762,
163,
-1249,
1142,
931,
-1801,
-3898,
-3489,
-1820,
9616,
-2061,
4178,
-1139,
-7076,
-7691,
-1799,
-1896,
-3038,
5018,
420,
-1203,
752,
6310,
584,
2028,
3335,
2340,
1310,
-1205,
5159,
-909,
-990,
-318,
3716,
-1798,
-4273,
-1827,
4540,
2884,
119,
2277,
3635,
-4226,
-457,
-1259,
-607,
-95,
-2683,
1677,
-2019,
1228,
5759,
-2371,
3874,
-453,
3478,
-35,
1401,
1151,
935,
-1586,
-4603,
-2090,
-1605,
-7728,
1186,
-408,
465,
-6453,
4978,
-867,
-894,
-6400,
2747,
324,
-4223,
4768,
-1689,
-1332,
757,
-1669,
-4116,
2756,
139,
-3523,
1120,
2712,
1362,
-1625,
-7537,
-3135,
-88,
-2529,
-602,
-1747,
-1463,
5303,
3534,
2263,
1664,
3928,
-870,
-1463,
-2325,
1967,
-2431,
-1205,
3322,
5168,
-2743,
7274,
1419,
-630,
183,
-1432,
3746,
-263,
-169,
-3415,
-1784,
-2419,
-4682,
-1064,
-581,
-162,
-516,
-2016,
-1541,
119,
5520,
-719,
-692,
2341,
408,
-1057,
4398,
-438,
-3031,
-709,
3677,
4164,
3241,
-142,
-4270,
-2722,
-350,
-1722,
-4101,
-1996,
3157,
-422,
-1593,
-140,
1225,
4523,
653,
-4085,
-3492,
-792,
2932,
5844,
-3991,
3719,
-1000,
-2635,
-64,
3389,
-163,
-3299,
4069,
507,
-533,
-4116,
486,
-38,
-1267,
-8102,
-2236,
-1995,
3607,
4024,
161,
-823,
6032,
-597,
1101,
-3158,
-193,
-2154,
3033,
-1757,
-3122,
-2449,
1041,
-2623,
-236,
-8317,
-910,
-1656,
1162,
2068,
-6856,
8974,
-3546,
474,
5171,
2083,
-1574,
-2909,
-816,
1147,
2566,
4740,
-831,
-1358,
-3092,
-2095,
853,
2447,
-2421,
1157,
-1592,
2205,
-927,
1536,
-1688,
-909,
1976,
483,
3320,
2170,
-1079,
-3512,
1914,
-4634,
-1094,
-1274,
1648,
1001,
2015,
-724,
-697,
-524,
95,
-2735,
1913,
1203,
187,
2515,
16,
-1141,
5091,
-1741,
-176,
-637,
6373,
-531,
-444,
-1216,
2726,
3900,
3633,
-407,
11009,
773,
-212,
-2525,
-3009,
185,
112,
-4485,
-682,
-1846,
-662,
5086,
421,
-766,
-1352,
-186,
382,
-1730,
1686,
3760,
-2176,
-621,
3542,
1714,
-899,
6799,
1397,
-781,
-4317,
2249,
1414,
-2269,
-5802,
-508,
-1199,
-831,
-851,
-4047,
-290,
-633,
-748,
-2530,
685,
973,
-1301,
198,
-4178,
-841,
-1565,
802,
3215,
-938,
-998,
-2691,
1939,
-4112,
1914,
-360,
-1490,
-3350,
1147,
-2453,
2159,
-4383,
2291,
2997,
-317,
-1892,
6895,
2211,
2383,
-2684,
1425,
-5458,
-2056,
1903,
6024,
-4099,
6364,
-1730,
5552,
6082,
2846,
-3005,
-9,
3620,
-204,
258,
-2374,
210,
-1925,
-575,
897,
-2950,
-503,
5851,
3236,
4180,
-1553,
-1864,
4743,
-2,
-1840,
-254,
2910,
-644,
-3479,
-129,
3477,
4235,
-1015,
-2462,
1334,
-265,
-1425,
117,
-388,
-899,
-511,
-653,
-2168,
-7454,
-5818,
-990,
-4653,
107,
669,
6542,
313,
-406,
3333,
-1015,
-3267,
2292,
-518,
-3775,
3534,
1371,
1934,
-2018,
-4122,
3365,
-1089,
2154,
4246,
3412,
635,
367,
1485,
-1502,
-2155,
-655,
1252,
949,
-2266,
641,
-637,
-1384,
484,
-3447,
3967,
-452,
3096,
3074,
-2613,
-1271,
286,
974,
-968,
3104,
-320,
-2196,
-2495,
-4564,
1314,
-2131,
645,
-1726,
3045,
503,
-1507,
-314,
4072,
-1645,
-2069,
-1061,
-868,
1331,
-410,
2203,
-398,
-995,
-1472,
-914,
-1648,
-293,
-1439,
-2339,
-272,
-752,
6286,
1885,
-3430,
-1080,
721,
-1763,
-1069,
-1504,
-182,
-974,
-2866,
-86,
78,
-15,
241,
-1772,
-777,
-317,
468,
-1697,
80,
1064,
-1348,
478,
73,
1719,
-2274,
539,
-594,
-1485,
-1336,
-372,
-4375,
691,
-1741,
-1280,
8,
-712,
-782,
-212,
1655,
68,
5330,
-1738,
-3773,
-3163,
-696,
-4185,
-526,
-4629,
-673,
2315,
-252,
-318,
-616,
-560,
-1018,
-6370,
-1335,
-1454,
692,
-411,
-1946,
460,
-3291,
-3189,
229,
-1083,
-3104,
-785,
-2210,
-1965,
282,
216,
-86,
843,
-1200,
-45,
-553,
-980,
-2290,
-547,
-480,
1680,
1132,
-676,
-2228,
3137,
1238,
-2157,
-73,
-593,
-3091,
-218,
1244,
-755,
-2518,
1011,
2786,
-3157,
-991,
-370,
-1904,
-1868,
-3602,
2374,
-6409,
-638,
-2926,
-4111,
-1196,
-123,
1473,
3518,
-189,
-589,
-186,
416,
1592,
-1779,
961,
598,
-1518,
-852,
-748,
-581,
-3082,
-407,
825,
-345,
-1850,
569,
3347,
1495,
-845,
90,
-2814,
-1032,
-2144,
-953,
-1040,
-2070,
-8434,
2277,
1902,
-2801,
-3028,
941,
-2087,
1070,
-442,
-1864,
326,
2769,
1995,
1473,
-3,
-1048,
-4386,
563,
-262,
89,
263,
1941,
686,
-443,
-1455,
-2613,
-846,
-2047,
-2338,
-5016,
383,
-2888,
-906,
1337,
-2160,
-1613,
-2038,
-678,
-1364,
-2180,
-84,
306,
-6130,
277,
-929,
1065,
32,
425,
-1617,
-2524,
1793,
146,
1023,
-448,
-1128,
-865,
-187,
1400,
-3380,
-1128,
-741,
-215,
352,
3366,
826,
1628,
-4872,
-567,
2340,
223,
-916,
450,
995,
496,
1885,
4127,
-828,
-288,
-3642,
-765,
-269,
1609,
3634,
635,
-2549,
-735,
-1993,
-3362,
-544,
1123,
-30,
-2679,
-146,
337,
268,
-1796,
441,
-490,
1827,
-2013,
1715,
3655,
1795,
-521,
-1932,
-749,
-2333,
-1108,
-76,
2245,
100,
2364,
-707,
-1624,
-2221,
-616,
-1089,
-1531,
5695,
-1480,
-5730,
-1475,
-2669,
104,
-237,
5377,
618,
-215,
121,
-399,
1478,
-6011,
-692,
682,
-614,
-2479,
2230,
414,
2045,
-301,
-978,
1481,
-3018,
1195,
-684,
1257,
-2054,
1111,
-190,
4343,
-484,
2527,
-3094,
-4964,
2420,
-1501,
-849,
-991,
205,
-2074,
1336,
517,
-399,
-2009,
1175,
-1408,
-3348,
690,
-1870,
-472,
-165,
-1017,
-1031,
3296,
-612,
-1029,
-878,
-921,
2286,
-3257,
-729,
-259,
-157,
545,
57,
-2865,
2539,
-1736,
2280,
-406,
1138,
1238,
2298,
-1223,
2101,
-538,
987,
2268,
-2517,
-1728,
-4023,
1051,
-1100,
-2004,
-2891,
-823,
-981,
-425,
150,
-2500,
-2708,
11,
-2121,
-534,
-1670,
-784,
-1270,
173,
1232,
-2145,
-1830,
471,
-2327,
1994,
-470,
-3222,
-761,
2297,
-4555,
-919,
141,
-666,
-562,
-307,
443,
251,
-105,
-1284,
-359,
2678,
1495,
1742,
-653,
-960,
-1289,
-681,
-1048,
-2015,
-2849,
1708,
-1044,
262,
519,
-762,
1658,
2166,
-788,
-1937,
-1079,
-1144,
1506,
-5091,
15,
-1361,
-2582,
841,
21,
519,
535,
-3942,
1576,
-344,
-929,
-184,
-995,
-1937,
-1327,
369,
2941,
-1074,
609,
305,
2888,
-1472,
1020,
-123,
579,
3914,
455,
-645,
1729,
-1879,
1380,
-1172,
-1738,
-381,
550,
74,
1762,
-2,
-1576,
-493,
-341,
337,
-5081,
-3722,
1314,
-416,
-534,
-5611,
-84,
2325,
1114,
131,
730,
1703,
-657,
348,
245,
-867,
-217,
1093,
-3140,
325,
-120,
2018,
-1781,
-1868,
2547,
1851,
1689,
2108,
-3354,
-782,
-3486,
-107,
8606,
2906,
2790,
168,
3759,
-2375,
-192,
340,
1281,
-975,
-2153,
1315,
-1101,
-2468,
3023,
1088,
-2365,
-3341,
2626,
778,
-2864,
3146,
5135,
-1,
929,
-1551,
-165,
-1583,
-3015,
986,
2323,
-90,
-590,
2804,
228,
-1014,
387,
-2138,
-2289,
60,
-2599,
344,
-1269,
-20,
659,
-822,
-1617,
-826,
4390,
-1208,
-223,
5242,
2714,
2929,
796,
2070,
-2781,
1484,
-423,
5645,
556,
-106,
642,
-4361,
7,
1889,
1173,
302,
-1360,
-3000,
1003,
-292,
2011,
-3686,
373,
-1383,
-1501,
-1097,
1864,
1070,
-1570,
366,
-101,
-328,
2981,
1356,
1327,
-2106,
180,
264,
1867,
-1039,
2127,
333,
1690,
-3545,
1461,
-377,
1391,
-1137,
353,
-923,
-2320,
310,
-553,
276,
1234,
-1382,
1334,
2431,
1617,
-744,
3201,
1964,
-1522,
1066,
-3063,
1021,
-1897,
-260,
-920,
1062,
-2403,
-629,
1347,
362,
-1604,
-1408,
660,
2468,
3328,
-20,
1130,
266,
716,
2432,
-1850,
743,
2759,
-1468,
-1468,
-3675,
2527,
1587,
883,
1231,
880,
-3484,
1923,
-2998,
696,
114,
248,
-1829,
642,
2761,
-165,
5447,
2036,
58,
-1788,
-1914,
19,
4921,
5126,
3290,
-2525,
-1846,
3363,
893,
-3503,
1987,
-1355,
-2186,
100,
-1206,
602,
-337,
-336,
-2024,
1036,
293,
-646,
3908,
1204,
433,
718,
1300,
2116,
257,
2443,
-115,
1114,
883,
1471,
1332,
1621,
1979,
-2319,
-3781,
-26,
-1516,
1404,
3168,
-562,
504,
3742,
1172,
-254,
2245,
-158,
521,
-113,
201,
-15,
687,
817,
228,
1107,
-226,
900,
5318,
302,
1351,
-1892,
-911,
1702,
1306,
1144,
-2102,
-56,
474,
-460,
-818,
896,
-2434,
-30,
1588,
-2703,
-1118,
1204,
-2802,
-2217,
-372,
2255,
-377,
-3128,
-2455,
-2416,
1441,
-5409,
2241,
-1560,
1672,
897,
-1431,
-2333,
1333,
892,
238,
-145,
-3811,
-483,
-313,
1193,
-2241,
442,
-13,
-604,
-3513,
-545,
2899,
-2641,
-2607,
-397,
-2435,
-737,
762,
3486,
-1651,
-741,
1818,
3534,
869,
1117,
1196,
318,
1503,
236,
343,
-46,
5485,
-2505,
-528,
-232,
-1091,
4814,
983,
-1868,
1534,
-2650,
-778,
2696,
1489,
-1331,
-528,
1207,
1447,
2233,
1335,
1362,
2897,
689,
1137,
-87,
1931,
-1722,
719,
-1253,
-745,
-1652,
4034,
796,
1369,
3033,
-782,
-1593,
315,
1384,
367,
-2616,
-3567,
-867,
1536,
443,
-1928,
-2078,
-1554,
-69,
69,
1471,
-512,
-2677,
648,
563,
-2910,
-1826,
-1553,
-507,
863,
-1766,
2218,
1184,
2459,
838,
104,
4112,
-459,
-3049,
-28,
-1931,
177,
2610,
-856,
1363,
712,
-464,
175,
898,
1008,
795,
2887,
1377,
-160,
579,
-654,
-656,
-3789,
1180,
-1054,
-3056,
-546,
2973,
683,
1379,
615,
1552,
-778,
564,
660,
1671,
-2165,
1602,
-2306,
943,
-86,
-1137,
1220,
-1272,
-382,
3182,
-930,
-629,
314,
1061,
1275,
464,
1284,
-77,
3308,
-1122,
395,
-3750,
1919,
-1887,
807,
319,
-901,
1083,
8,
-845,
3319,
164,
1137,
3663,
2733,
-2673,
-1881,
-2214,
-833,
-923,
1429,
2931,
2751,
-728,
-2005,
847,
-2810,
-515,
1117,
1844,
-502,
-2349,
-1085,
2875,
-633,
1774,
2605,
1783,
1503,
-2891,
-2064,
830,
3909,
691,
70,
1956,
1125,
914,
-661,
-2010,
-1664,
-2416,
-229,
6030,
2143,
5067,
-347,
2839,
-1550,
250,
486,
912,
-656,
-1924,
1241,
-5040,
-3556,
1051,
-563,
-1344,
248,
-1873,
2774,
1328,
-1890,
2421,
-294,
2597,
-2194,
-577,
-1627,
-3969,
2278,
-2350,
1895,
-1689,
-3631,
390,
-280,
-571,
-2481,
-3516,
-285,
-891,
-791,
-830,
-1617,
-695,
-1527,
-1719,
-980,
5201,
-1607,
-556,
4512,
1338,
4522,
141,
2602,
-3506,
-1314,
532,
4200,
1982,
714,
-2,
-2992,
-465,
-285,
-3554,
-145,
957,
-2131,
2017,
1105,
-1774,
-3290,
956,
-1423,
2143,
120,
-2917,
852,
-446,
84,
200,
705,
2076,
-3949,
1478,
-3946,
1408,
650,
-828,
352,
-1295,
-1023,
-1446,
-2609,
-92,
-1271,
1599,
-714,
4615,
-264,
-3041,
1412,
-2689,
1856,
909,
-1359,
-1123,
-685,
157,
-1416,
876,
2305,
-1462,
593,
-5160,
2242,
-1973,
1274,
-1060,
420,
-3500,
-607,
422,
-2568,
-2738,
-2121,
-5057,
660,
5948,
1175,
-940,
-1335,
2832,
3442,
-1778,
-508,
3907,
-1256,
-2132,
-3463,
909,
2909,
2892,
2466,
1856,
-3008,
2730,
-2641,
-1336,
-409,
-190,
-3273,
624,
2593,
-3646,
-4164,
2431,
2880,
743,
-1023,
668,
3704,
-29,
-1029,
-2320,
-990,
872,
-1083,
-2671,
132,
-2608,
-1749,
-1198,
-1034,
-1744,
-601,
-839,
-1331,
1234,
-689,
28,
3356,
-2170,
1631,
-2085,
2424,
2638,
447,
1264,
-4453,
1795,
862,
-1345,
3009,
4415,
3622,
-3192,
-4139,
-615,
-2231,
1424,
2968,
-1074,
1248,
2851,
2814,
422,
2017,
-1008,
750,
-1168,
-258,
-3446,
-2383,
2970,
1596,
508,
1681,
2312,
4064,
2495,
-1282,
-1809,
-382,
1428,
-2314,
2929,
-4450,
1490,
247,
-2048,
-2123,
-1321,
-1064,
-1650,
4230,
-2645,
601,
-2108,
1227,
-7008,
-2119,
4408,
-420,
-3669,
-5179,
-2915,
-2968,
-1921,
570,
215,
297,
-618,
-1058,
-75,
1912,
5208,
-61,
-135,
-2741,
-1442,
452,
50,
-336,
1319,
3893,
-571,
-3949,
-701,
2194,
-3378,
-4276,
-2599,
-1458,
-2217,
-2289,
2054,
-2105,
-2155,
3349,
2911,
-1446,
69,
35,
-712,
2414,
-625,
457,
-392,
-1835,
-3100,
-2908,
279,
-1505,
9375,
4544,
-1502,
884,
-302,
-2511,
-660,
1219,
-3211,
1843,
1889,
-2171,
1072,
1189,
2709,
5063,
1549,
-1135,
1261,
2127,
-1378,
-458,
-104,
1020,
-5658,
4316,
1049,
2939,
-396,
743,
-6575,
375,
-4927,
-1119,
-1204,
-871,
-5724,
545,
-2800,
-2772,
-2780,
-1113,
1406,
-2438,
282,
-1328,
116,
321,
35,
-2758,
-2300,
-3509,
1112,
164,
-6253,
404,
508,
-2550,
1542,
-1247,
678,
-2097,
-2980,
254,
608,
-465,
431,
-1559,
-642,
380,
-488,
-437,
402,
794,
4024,
3349,
2794,
-909,
1899,
-56,
-601,
-4019,
-227,
-1190,
-6262,
-855,
2450,
1588,
-1181,
2070,
4386,
-1445,
853,
2785,
2266,
-1868,
-382,
-1903,
2531,
185,
-2160,
-1818,
-1127,
-227,
-1302,
-1599,
-3183,
-3000,
1386,
828,
-1526,
1788,
-126,
2135,
2251,
290,
-2912,
4878,
-756,
-3414,
3100,
-1401,
3663,
-3547,
-2753,
5316,
692,
3167,
1541,
1386,
-1503,
-1606,
-470,
-896,
-696,
-1037,
-5105,
-941,
-4872,
575,
5657,
-1839,
-540,
1813,
3158,
-237,
-560,
-2303,
82,
-2211,
2087,
-91,
3123,
-345,
-4162,
-1512,
1804,
-969,
6976,
678,
2348,
-2754,
-3205,
-990,
103,
-4614,
4467,
-2563,
-2077,
-1334,
-1520,
-2678,
-1310,
734,
4562,
1114,
1761,
-1281,
-2230,
-2579,
95,
889,
-1707,
48,
-1330,
1754,
2331,
-6573,
-3869,
5754,
-2334,
-1977,
2272,
-347,
916,
149,
-1756,
1044,
2192,
110,
-4214,
3012,
-2166,
1387,
-4341,
98,
-1291,
-3367,
-1471,
236,
-463,
7496,
274,
3441,
1150,
-1665,
-3100,
-1596,
1445,
-3755,
-1750,
-244,
677,
-3717,
1121,
-1224,
-1297,
-1946,
2660,
-1588,
-3372,
4084,
87,
1935,
2897,
-2949,
-2176,
-153,
-5055,
-1850,
1468,
-151,
-2718,
7221,
-2811,
-1084,
17,
-2110,
1402,
-2474,
764,
-224,
-4955,
430,
1762,
-282,
3495,
400,
-854,
-2577,
2144,
1919,
-518,
-1831,
-1729,
-1923,
-4030,
838,
-1789,
1794,
-1576,
-3801,
2571,
839,
988,
-733,
4414,
1659,
825,
-444,
6458,
1514,
-749,
-3191,
1545,
-4655,
3512,
-1603,
9111,
2736,
1092,
-93,
-1714,
800,
-71,
1291,
2581,
1241,
-6525,
3283,
6326,
-989,
443,
-3067,
-4513,
5050,
-3137,
555,
-2547,
-579,
-954,
316,
575,
-1847,
1565,
-1194,
-3425,
-775,
-285,
1914,
3424,
3943,
341,
316,
-562,
4594,
-7,
995,
-2325,
1284,
2529,
-2056,
2771,
3844,
-1149,
-1728,
-4,
3934,
-2222,
1764,
-1183,
-1266,
2631,
-524,
-939,
1881,
-1747,
-631,
-1997,
-4305,
6489,
-3599,
4286,
825,
1513,
2917,
-4122,
2835,
-1635,
-1807,
186,
-3590,
360,
-840,
-6070,
-2643,
-2208,
531,
-1090,
-4844,
729,
-1249,
2582,
1402,
2770,
2876,
-945,
-2834,
1650,
-869,
-4213,
120,
1600,
6297,
1090,
-5358,
2538,
-1265,
916,
-1616,
-5341,
-1393,
806,
-365,
-4369,
1926,
-7891,
254,
-2365,
-3092,
-1269,
3545,
5301,
1262,
3346,
-6133,
434,
1668,
3051,
-1739,
237,
-729,
-715,
-771,
3649,
2194,
-1080,
2851,
-2023,
-1459,
494,
-1423,
-1689,
-2711,
2101,
-3162,
-5496,
8854,
4501,
3844,
1981,
1373,
1060,
1404,
-1949,
-7997,
-2962,
411,
2250,
-4621,
875,
2332,
66,
-3237,
1704,
3599,
-1749,
-1375,
-751,
1803,
-744,
-838,
-1492,
-1398,
-185,
1861,
54,
-379,
-2129,
3994,
-950,
1670,
4720,
-4354,
-8552,
-1845,
-1509,
1673,
-285,
-405,
1618,
2575,
769,
-972,
-2670,
1322,
679,
-2493,
277,
-6157,
488,
984,
-2858,
4250,
4077,
44,
-2302,
2514,
731,
-4898,
-2320,
-1482,
3136,
-2526,
-980,
-1467,
-434,
-2483,
-916,
-3042,
816,
1243,
2917,
-893,
-2157,
596,
2224,
119,
5078,
272,
788,
1555,
1492,
-1779,
-817,
-150,
3045,
3,
365,
1039,
3143,
2194,
2519,
763,
3187,
-1161,
2473,
3259,
818,
-3971,
-2587,
650,
5124,
-2531,
3931,
619,
56,
-675,
-1681,
-1511,
-1662,
-2396,
-368,
2388,
2380,
-2684,
754,
-735,
206,
-3789,
-2271,
-4514,
2577,
-431,
2139,
-12,
-3344,
2583,
-1295,
4168,
6162,
3372,
1848,
-3350,
1246,
8340,
-48,
-1167,
3503,
-485,
2677,
2272,
882,
-1789,
1957,
1420,
-154,
-2793,
1670,
-765,
-692,
1240,
-1140,
3207,
-6021,
3482,
-5145,
-388,
2413,
-609,
1761,
-3405,
-2147,
-1654,
1601,
-1704,
-1737,
7141,
-1383,
1272,
2158,
-1692,
3191,
2373,
-2168,
-541,
-516,
-4947,
-3700,
926,
2866,
-143,
2656,
1645,
1880,
-941,
-3552,
1157,
2045,
1213,
-2050,
1162,
3400,
792,
1413,
-1283,
-2113,
-1323,
901,
-4778,
3397,
1568,
784,
-1483,
1110,
-1970,
-1,
-1379,
2960,
1183,
369,
1542,
49,
-1867,
-772,
91,
-2427,
-1216,
1326,
-743,
-2746,
-2239,
771,
1099,
-1032,
2760,
1180,
-937,
-1618,
-1595,
5378,
-126,
-2486,
1014,
-3371,
-3069,
-1663,
-3794,
-3271,
822,
1979,
-2472,
1825,
-716,
967,
2772,
-2286,
1959,
-1218,
-2535,
-57,
-513,
-3127,
-943,
-2350,
831,
762,
-2371,
-2362,
3003,
-2116,
-95,
1615,
-779,
-2603,
2967,
-2169,
1135,
-3089,
-2527,
-1910,
-344,
-4115,
-1385,
-541,
425,
-2360,
3819,
-2245,
-1551,
-2176,
-1052,
201,
-1639,
-2426,
907,
-4170,
-1069,
789,
-604,
1732,
69,
-3252,
-857,
-3684,
1509,
3160,
-1760,
-830,
-1396,
-3187,
1862,
-2024,
54,
1807,
-2996,
65,
244,
1666,
-2653,
-1185,
-272,
199,
-1230,
2648,
2283,
-1142,
-2671,
-600,
-1762,
1419,
-2607,
5176,
3483,
-2922,
-1918,
887,
-957,
-1530,
513,
-6743,
4086,
-3281,
1505,
2963,
-463,
493,
-1857,
-3645,
2312,
-1902,
1590,
3617,
-1726,
-1795,
750,
123,
-848,
1055,
495,
-3368,
536,
-626,
-522,
1569,
2656,
-2294,
1256,
-755,
-1999,
445,
390,
744,
582,
1170,
-3346,
2373,
-1214,
-1129,
-1760,
-1056,
742,
-3312,
-962,
-276,
-2400,
2251,
-1802,
645,
939,
89,
-2209,
-1776,
-3070,
2204,
-1076,
2232,
480,
-2990,
1733,
-2678,
1973,
-1666,
3919,
706,
-3048,
-4416,
1370,
-4195,
-2070,
166,
-1957,
-585,
-1174,
1221,
5048,
-246,
734,
1370,
1667,
-786,
-3174,
2138,
-2043,
-4433,
-1349,
291,
1653,
545,
-4135,
3531,
2100,
705,
320,
-1309,
-1005,
1203,
511,
-3412,
-1906,
-6380,
2563,
-2286,
-1517,
3427,
1436,
2807,
572,
1442,
-4447,
3888,
1051,
853,
1280,
-383,
-1006,
120,
-1065,
1401,
-348,
-2479,
-790,
2187,
-1492,
125,
3788,
-183,
-520,
283,
-2143,
-4193,
3835,
4804,
7462,
1265,
-11,
1222,
-374,
-1855,
-146,
-3048,
742,
1670,
-4664,
3259,
-1619,
-848,
3225,
1619,
3218,
-1486,
865,
-5695,
-1043,
2253,
-744,
-44,
59,
-928,
2693,
3901,
-510,
-1352,
-1159,
1969,
-2210,
2196,
-1556,
-5499,
-1392,
-3663,
648,
272,
2870,
1232,
4419,
262,
-649,
-524,
-1693,
-337,
-1501,
90,
-2730,
560,
5741,
-780,
1847,
775,
-883,
1861,
1293,
2159,
-4169,
-764,
428,
2605,
-490,
20,
5995,
1385,
-867,
1158,
-2882,
-281,
332,
-1220,
-1421,
-1486,
-1321,
1066,
1618,
3373,
-472,
2129,
-643,
-242,
1772,
-682,
-1884,
222,
595,
413,
4008,
4026,
-1683,
1216,
1963,
-2684,
-793,
2674,
1815,
-63,
-3323,
-2200,
-622,
6804,
558,
1993,
1696,
2161,
1176,
-1866,
-1806,
432,
-1510,
399,
36,
518,
3965,
418,
-760,
1776,
-2409,
-13,
-3601,
373,
164,
1332,
-2103,
-2637,
1714,
1754,
5237,
2341,
-388,
1508,
-694,
-605,
4175,
-640,
-2284,
2014,
-1378,
-1904,
-1876,
-68,
-1363,
2647,
845,
-140,
-3080,
1138,
483,
6000,
1420,
-1997,
786,
-1294,
142,
-3977,
-737,
-119,
660,
1895,
-545,
-2349,
-2594,
821,
-3452,
-1475,
3829,
-2386,
-2476,
-63,
-1063,
-1360,
532,
-2399,
-2084,
-310,
-3822,
-2153,
-392,
-703,
774,
1193,
-480,
1517,
-3022,
-3253,
-769,
-2897,
1300,
-755,
-300,
1240,
-195,
2953,
-248,
717,
-657,
-4193,
-819,
850,
2169,
12601,
4354,
-242,
-403,
6180,
-2473,
1984,
2751,
-372,
-2877,
175,
-2819,
-2987,
446,
-2949,
-659,
-1727,
-2048,
-1962,
-1827,
-1806,
1721,
6945,
2614,
-1444,
-858,
3223,
-2172,
6515,
898,
-2200,
-990,
-1713,
-4018,
21,
-2017,
-856,
2265,
-854,
-751,
-841,
1679,
-1598,
-2002,
821,
-67,
224,
1019,
865,
2815,
-1010,
3399,
-3164,
-656,
-1996,
1371,
-4825,
1775,
2681,
8240,
-1315,
-580,
-328,
711,
-777,
808,
-2564,
-481,
1432,
-584,
-2498,
802,
-2891,
1965,
-2023,
3667,
2891,
2233,
-4547,
306,
794,
-158,
-669,
-1680,
-5541,
-3961,
-542,
-1375,
-1200,
-105,
-1173,
-1237,
-1322,
2185,
-1635,
-4819,
-633,
-3388,
-3235,
5284,
-1943,
279,
-71,
-1416,
5268,
548,
4133,
1250,
462,
2635,
593,
-512,
-376,
3623,
1919,
545,
-4232,
-2252,
5062,
-721,
3978,
3157,
-4266,
3148,
-583,
954,
-2783,
-2723,
-4722,
7163,
-361,
333,
105,
2788,
896,
-860,
-4807,
380,
829,
3923,
3399,
-1550,
-1941,
3386,
-707,
308,
-939,
-1728,
1467,
100,
3783,
-1151,
95,
17,
-1812,
1257,
-2303,
-6063,
2212,
820,
-217,
1229,
-154,
707,
3819,
4282,
-1661,
-983,
604,
1891,
-5805,
3401,
-155,
2659,
2253,
1273,
-2172,
-503,
5234,
798,
-1900,
-372,
384,
4897,
2177,
3044,
-3461,
-1158,
1389,
-3631,
5277,
8967,
-1959,
-2737,
-1731,
3268,
-3164,
-1493,
-226,
-3820,
2226,
1837,
5892,
5783,
-799,
-662,
2017,
-746,
334,
-3681,
6173,
-607,
-1534,
-423,
-2165,
-514,
-1283,
-1801,
3119,
636,
-785,
8782,
-356,
-2462,
567,
-416,
-3512,
-366,
-840,
4589,
1150,
278,
1234,
-751,
49,
-1201,
2318,
-3175,
-1577,
2932,
1769,
2012,
-4937,
367,
-897,
-826,
9581,
-3295,
-4198,
398,
-5095,
-1992,
-821,
10510,
4009,
-225,
208,
885,
-2656,
-1990,
1439,
-371,
919,
-465,
5897,
-310,
1436,
474,
-2781,
440,
-670,
-3851,
-777,
1853,
-1170,
-890,
383,
10009,
6226,
2868,
-4891,
-1077,
10196,
-2142,
-925,
-1288,
2507,
3824,
4874,
1923,
-501,
5193,
1300,
-1660,
444,
505,
-839,
-1118,
-540,
-899,
-2162,
5529,
2748,
5484,
-1290,
1197,
1622,
-1668,
347,
673,
-1217,
-1570,
-736,
1971,
1213,
-840,
3809,
729,
-1814,
-468,
10919,
1836,
-309,
2720,
5849,
-1144,
-3716,
3827,
-5245,
3657,
-1941,
-1652,
-3757,
1400,
356,
-2541,
1239,
-2646,
370,
5073,
2085,
522,
895,
68,
-1506,
-631,
180,
-2883,
-893,
2137,
-3633,
6994,
4072,
-2595,
-723,
4542,
-1854,
-54,
541,
-1473,
-1883,
-591,
-2838,
1557,
5157,
-1493,
1580,
4938,
3588,
4616,
-782,
2117,
2080,
-961,
2251,
-2279,
-456,
1634,
-999,
585,
404,
-1312,
8421,
-3110,
783,
1051,
-1002,
-1281,
-2364,
-714,
4920,
-1340,
446,
1127,
-1570,
-2138,
1165,
211,
905,
-120,
2353,
-31,
-978,
-1230,
-493,
2029,
6482,
644,
1699,
-2038,
-1015,
-1024,
496,
-1371,
1451,
10127,
-1283,
445,
-2326,
-2170,
4753,
912,
788,
1124,
-3392,
4524,
1554,
-427,
-915,
2604,
256,
3171,
-6704,
-4123,
7508,
-2117,
-2230,
-6248,
1198,
-3547,
-1957,
330,
-61,
2659,
3059,
3022,
2468,
-1853,
-1735,
3976,
-5256,
90,
1120,
-916,
-3195,
174,
-2339,
-982,
-2565,
1037,
-2429,
-1926,
-385,
588,
-3145,
-5915,
-1644,
-1218,
-1989,
-979,
-2168,
-1714,
591,
376,
686,
-124,
7982,
-27,
841,
-123,
1107,
-6281,
-69,
-558,
-3109,
3098,
-5580,
948,
-26,
2355,
-1647,
-487,
4713,
-2806,
389,
1565,
455,
965,
-1526,
-122,
-1009,
923,
5740,
-678,
488,
-1270,
-52,
-3203,
-2375,
-534,
-3050,
-1275,
-2526,
-1076,
-1456,
-2043,
904,
-1483,
702,
-5460,
-1839,
3501,
-1137,
-3585,
-574,
-1886,
-3109,
379,
-1498,
999,
-734,
-2298,
-3950,
801,
-1553,
-3349,
5556,
938,
-711,
-987,
-6602,
-4245,
2122,
-1454,
-4225,
-1002,
-1206,
119,
176,
8704,
774,
5561,
-2508,
-2467,
-2448,
-2352,
-2114,
-1301,
6999,
-3589,
431,
880,
-918,
-3691,
-2105,
-1739,
4309,
-2088,
-2680,
-2964,
-2749,
-2032,
-3712,
1013,
889,
39,
1169,
-866,
-717,
-1199,
4805,
-538,
-4455,
-3237,
-1617,
484,
-2159,
-1445,
901,
-2109,
1322,
3417,
-437,
1013,
-2902,
-3100,
367,
471,
-3397,
-655,
-3454,
839,
-1410,
-1351,
4901,
1396,
1015,
-3059,
-2843,
-448,
127,
5121,
-3997,
2022,
-1117,
-3759,
-735,
-1984,
-705,
-1333,
5922,
9881,
-144,
-4380,
-1543,
-2961,
-1826,
-3634,
3270,
-1159,
-201,
-1536,
1616,
1332,
-4158,
-255,
1354,
-2710,
-424,
-2052,
5377,
-1968,
1702,
-2881,
-341,
-1418,
-2256,
-5104,
2523,
-5868,
-674,
-198,
-5401,
-48,
-3422,
797,
-159,
-642,
-2221,
-2668,
-2103,
-1705,
1103,
-806,
1046,
799,
-5639,
5277,
-1231,
-86,
355,
-166,
-1776,
-166,
-2680,
-1615,
-4559,
-698,
4200,
631,
-456,
-47,
509,
337,
-78,
-1544,
-272,
2215,
917,
-661,
-777,
-1017,
-1098,
-1020,
-546,
-1478,
4952,
-1056,
834,
100,
1504,
-2324,
6400,
-6538,
2450,
-853,
10106,
1505,
-1932,
-2599,
4064,
3636,
-3900,
-292,
-6160,
919,
-3021,
226,
-2072,
-1617,
-2896,
-4240,
-2273,
-4309,
-26,
-168,
-396,
-1346,
-1953,
-3763,
75,
-522,
-2532,
1544,
-1892,
-119,
4854,
-4923,
-4213,
-1799,
3831,
-3193,
-3278,
3652,
-6469,
-490,
-6878,
2208,
1031,
1641,
-1698,
-3522,
1542,
-678,
-460,
708,
2707,
-1584,
-1835,
388,
-4748,
-1919,
463,
771,
-2621,
-1303,
1853,
-655,
3255,
-3464,
291,
1048,
332,
-2647,
-1832,
-2282,
0,
-968,
1185,
1329,
-3855,
727,
422,
-2309,
2233,
-3072,
-685,
-3407,
903,
-2591,
11582,
-774,
16018,
491,
-798,
-667,
8537,
-2261,
-2065,
-2112,
3320,
-4283,
-2865,
-782,
967,
-1894,
968,
-1909,
251,
4369,
2304,
1212,
-3273,
256,
9726,
963,
469,
1662,
399,
-708,
-348,
1761,
1319,
119,
-4713,
-781,
947,
-2549,
1195,
1518,
-367,
-1177,
940,
-588,
-2540,
-3695,
-4993,
687,
-5866,
40,
-1964,
6868,
1835,
781,
9544,
281,
-1934,
-1015,
1524,
-4182,
26,
-1111,
-650,
-2116,
-4732,
-566,
731,
-3348,
-165,
77,
-1993,
653,
594,
-1071,
1090,
-47,
-2874,
-4165,
-1385,
-971,
-1507,
-550,
1310,
-1113,
-4454,
1034,
-2878,
-187,
-2565,
-3302,
-627,
-1724,
-2050,
6357,
-2753,
-1375,
-1506,
-2096,
1484,
-4995,
-3626,
726,
-1128,
-1125,
-959,
-3395,
14341,
3693,
-5849,
-5524,
-2389,
-6005,
292,
-985,
-855,
-2504,
-5202,
-2118,
1132,
-2386,
-2822,
-406,
-1447,
-1474,
-1645,
-858,
-2602,
2565,
5809,
1015,
519,
-1772,
-2346,
-670,
1206,
-4223,
-1711,
-1765,
-2883,
-1826,
2523,
-1933,
-2411,
1725,
3137,
794,
1212,
1437,
-2979,
-1307,
-1691,
-525,
-1417,
-1279,
-512,
3574,
-259,
-2946,
819,
1600,
-1298,
-2016,
3718,
-867,
414,
589,
-3462,
236,
-595,
206,
-3737,
-403,
-1640,
1011,
-2743,
-765,
-1441,
-2179,
-1298,
-1450,
-72,
4773,
-438,
2082,
2030,
-2628,
2426,
-2636,
-238,
1222,
-1262,
3521,
-258,
-2961,
2389,
-2505,
-2627,
-3283,
3823,
-249,
-2810,
-1751,
-667,
1020,
1232,
-2741,
-1023,
547,
-3029,
-133,
-354,
-422,
-1581,
-647,
22,
80,
-2130,
-1005,
2940,
-1718,
-128,
1617,
-3227,
-991,
1840,
-1416,
4276,
549,
-2159,
-1858,
-1647,
-268,
-1892,
4262,
-1588,
309,
-2539,
721,
-315,
806,
-1407,
-2181,
215,
392,
1126,
-1017,
3501,
-578,
-95,
-878,
3911,
560,
-691,
-2530,
475,
-2357,
2040,
1324,
4518,
740,
1047,
-2380,
-1241,
-1363,
408,
417,
-1402,
-3188,
-2638,
1471,
2785,
-3305,
125,
-1301,
243,
2377,
-599,
-441,
-3090,
-88,
-750,
-1150,
1816,
-534,
2595,
-105,
-3936,
-1070,
-2609,
2733,
1992,
2990,
-497,
1622,
-1170,
-746,
134,
600,
193,
1496,
1325,
-1734,
-530,
915,
748,
729,
-949,
1132,
5438,
-51,
-997,
-784,
618,
-278,
-1214,
218,
-2533,
-311,
-1064,
-3029,
4525,
-2271,
1228,
2115,
-424,
4371,
-3031,
4571,
-3872,
-1606,
1891,
-2050,
-2714,
2455,
-3919,
1102,
-1221,
1811,
-2505,
-5476,
1758,
-4605,
1587,
2108,
-899,
4169,
-17,
-1485,
343,
1383,
-2951,
-560,
-628,
1964,
2495,
-2927,
843,
-740,
2403,
-2428,
-1799,
-1768,
-257,
146,
-2922,
-332,
-4267,
-4052,
-2676,
-2044,
-2412,
2097,
2246,
1756,
629,
-4070,
-1788,
3387,
623,
-335,
-1204,
-1239,
2999,
-1291,
4755,
481,
5130,
456,
1672,
-1021,
2446,
-3915,
-3732,
-1685,
905,
-2415,
-2969,
6598,
2129,
-2759,
855,
1081,
-350,
1430,
-2306,
-1542,
-481,
-1750,
172,
-2924,
-1497,
817,
-1921,
195,
-952,
-123,
-3210,
-2581,
2428,
764,
125,
-1336,
-833,
-880,
-1855,
1268,
-2140,
-1397,
-1399,
-434,
-2657,
1518,
2586,
-4157,
-637,
77,
-2591,
1433,
1310,
-2262,
133,
1482,
-704,
-830,
-1896,
-941,
387,
-1845,
3511,
-2479,
1545,
-330,
-1611,
3762,
1969,
-278,
430,
3618,
1275,
219,
-1566,
-708,
65,
-1462,
-1896,
-2386,
-834,
-3916,
355,
-2127,
-1736,
1989,
1409,
653,
-1657,
3397,
1104,
-525,
2590,
-1046,
-270,
1726,
979,
-1512,
-1361,
-723,
2099,
-1488,
-1486,
-3196,
914,
-856,
2771,
-740,
963,
-1359,
-998,
3600,
3554,
-2789,
-1882,
-29,
1379,
-1311,
-441,
-388,
-1677,
-1255,
-326,
-1367,
1024,
-2288,
3031,
2296,
647,
-3487,
-259,
-946,
-1855,
-3167,
-3563,
-2254,
640,
2037,
3930,
302,
-1805,
2363,
1074,
3855,
2861,
4148,
3895,
-1319,
284,
3652,
198,
-1544,
1630,
-1240,
1743,
1775,
-446,
-2522,
-379,
1519,
-754,
-1042,
2459,
-771,
-1830,
4185,
-701,
284,
-2042,
2548,
-3120,
-966,
344,
2953,
1145,
-1372,
-1573,
-620,
1201,
-2592,
-1198,
3714,
-2225,
42,
-422,
-2029,
1069,
5386,
-120,
4804,
-777,
-2710,
-1625,
1870,
2726,
-2266,
514,
216,
678,
-1578,
-852,
440,
2787,
-826,
-774,
1051,
6228,
547,
-2596,
-1729,
-2233,
-1077,
-2688,
-3151,
4689,
-23,
-474,
-1838,
