#ifndef __TRAN_CONVNORMRELU3_CONV_0_BIAS_H__
#define __TRAN_CONVNORMRELU3_CONV_0_BIAS_H__

// tran_ConvNormRelu3_conv_0_bias
// (392,)
const int tran_ConvNormRelu3_conv_0_bias[] = {
-1890,
-383,
-570,
-156,
-123,
-1585,
-2675,
-1438,
-948,
-1820,
446,
-576,
-160,
-190,
-1853,
-91,
-212,
-576,
-1049,
-1550,
432,
-1343,
572,
-1275,
-1412,
-2138,
-1452,
1094,
1689,
-26,
-1298,
70,
297,
238,
-2690,
-883,
-378,
420,
-122,
-1188,
-1051,
-398,
-1051,
-505,
-2012,
-1308,
-111,
-396,
-70,
-2624,
-1670,
-2002,
-1402,
-1248,
-913,
-187,
97,
-510,
-902,
329,
108,
-1130,
-1279,
-1974,
-1294,
-1019,
-1050,
-2006,
-1050,
-257,
188,
-1121,
-982,
-2765,
-552,
-1247,
-18,
-1228,
-1111,
407,
-2169,
-2545,
-1549,
-1399,
-1380,
-1222,
-412,
115,
338,
493,
10,
-1377,
-577,
273,
-2904,
-751,
-1055,
948,
-671,
-293,
1229,
-719,
-1204,
-867,
-1700,
-1700,
-568,
-611,
952,
-1604,
-1872,
-336,
-862,
-935,
973,
327,
-892,
-149,
-1591,
265,
753,
98,
-1208,
-2096,
797,
-806,
351,
-740,
-1294,
-936,
-1337,
-72,
-1357,
-887,
-2065,
-785,
-2414,
-903,
-1501,
-351,
-147,
-1878,
730,
-1152,
149,
1404,
-2930,
1490,
1138,
107,
-582,
654,
279,
-455,
-432,
-1383,
-266,
-2212,
-1521,
-1015,
-926,
-2128,
-565,
-141,
-1433,
1158,
-864,
-146,
-109,
-1049,
684,
-255,
-416,
-128,
-758,
-1144,
-522,
-797,
-1017,
-1163,
-805,
-231,
-82,
421,
-891,
-944,
780,
-2202,
573,
-1603,
-714,
-1121,
-206,
-1790,
-1262,
675,
590,
-578,
288,
1554,
-1876,
1229,
-59,
-1271,
-252,
-2767,
300,
-1216,
-860,
-21,
-509,
250,
473,
-1104,
-1256,
-289,
-387,
-965,
-733,
250,
-815,
279,
932,
-405,
-1048,
-2324,
234,
-1249,
-1231,
-1324,
-808,
-1051,
-1612,
607,
-1162,
-1041,
-13,
-1137,
295,
-108,
-145,
-1398,
537,
733,
-3,
-455,
-1123,
-62,
1077,
-1139,
-1012,
-1056,
-1341,
-388,
191,
-1048,
195,
476,
-1818,
-22,
11,
-1954,
589,
-931,
-481,
-685,
-1167,
-650,
-751,
-1208,
738,
-1680,
-1091,
-957,
347,
-1430,
1188,
-3972,
-644,
-3089,
746,
-695,
-1805,
377,
-315,
-1359,
-442,
629,
-345,
-330,
-1620,
-2446,
-1622,
-629,
687,
857,
-1832,
-962,
-1650,
-92,
957,
-650,
69,
-1416,
-1508,
-1575,
645,
-193,
-1849,
-315,
-1817,
-1815,
1763,
-1431,
672,
-417,
-200,
-3085,
92,
1118,
262,
-2886,
-531,
951,
-3260,
-720,
125,
-827,
194,
-1589,
-804,
-1291,
-1284,
-4,
441,
-748,
-1973,
-470,
-1877,
-2311,
463,
-169,
-2563,
-734,
-93,
-1153,
370,
-439,
-1030,
-344,
-2289,
208,
-1650,
31,
405,
-349,
-2410,
-658,
-44,
1906,
598,
-360,
-420,
454,
526,
-1679,
-408,
656,
-794,
-2524,
58,
-2873,
-446,
-516,
-965,
-920,
-762,
-686,
-1638,
-1444,
-468,
-1273,
-2899,
-2803,
-2173,
1067,
1025,
192,
-76,
-1735,
691,
-1957
};

#endif