{"learner":{"attributes":{"scikit_learn":"{\"_estimator_type\": \"regressor\"}"},"feature_names":["rel_time","hops","size","prod_0","prod_1","prod_2","prod_4","cons_0","cons_1","cons_2","cons_3"],"feature_types":["int","int","int","i","i","i","i","i","i","i","i"],"gradient_booster":{"model":{"gbtree_model_param":{"num_parallel_tree":"1","num_trees":"19"},"iteration_indptr":[0,1,2,3,4,5,6,7,8,9,10,11,12,13,14,15,16,17,18,19],"tree_info":[0,0,0,0,0,0,0,0,0,0,0,0,0,0,0,0,0,0,0],"trees":[{"base_weights":[4.8795886E2,4.689593E2,5.449573E2,5.290507E2,4.6578708E2,6.2752997E2,5.406111E2,5.631407E2,4.605767E2,4.6038474E2,4.765891E2,6.2022345E2,6.3484894E2,5.3333417E2,5.4791064E2,5.5615643E2,5.700871E2,4.5315277E2,4.680109E2,4.5305737E2,4.677431E2,4.6924368E2,4.8395135E2,1.8479233E2,1.8704634E2,1.8908794E2,6.3961285E2,1.5875807E2,1.6095987E2,1.6297343E2,5.5281165E2,1.6568935E2,1.6773375E2,5.681933E2,1.7414313E2,1.3471182E2,1.3689503E2,1.3900784E2,4.7291068E2,1.3472247E2,1.3683539E2,1.3895833E2,4.7255362E2,1.3964612E2,1.4164285E2,1.4372545E2,4.8905292E2,1.9108424E2,1.9357701E2,1.6501207E2,5.5875104E2,1.6983374E2,1.7139326E2,1.4109807E2,1.4354137E2,1.4099211E2,1.4344638E2,1.4591394E2,1.4845242E2,1.6731342E2,1.6924301E2],"categories":[],"categories_nodes":[],"categories_segments":[],"categories_sizes":[],"default_left":[0,0,0,0,0,0,0,0,0,0,0,0,0,0,0,0,0,0,0,0,0,0,0,0,0,0,0,0,0,0,0,0,0,0,0,0,0,0,0,0,0,0,0,0,0,0,0,0,0,0,0,0,0,0,0,0,0,0,0,0,0],"id":0,"left_children":[1,3,5,7,9,11,13,15,17,19,21,23,25,27,29,31,33,35,37,39,41,43,45,-1,-1,-1,47,-1,-1,-1,49,-1,-1,51,-1,-1,-1,-1,53,-1,-1,-1,55,-1,-1,-1,57,-1,-1,-1,59,-1,-1,-1,-1,-1,-1,-1,-1,-1,-1],"loss_changes":[1.0034872E10,1.3244826E9,8.309965E8,8.131707E8,3.8508954E8,5.804032E6,1.1665408E8,1.0969088E7,6.182912E6,2.3704371E8,1.1881677E8,4.1984E5,8.4992E5,1.4319616E7,2.4805376E7,1.015808E6,1.961984E6,5.49888E5,1.099776E6,2.6640384E7,4.784128E7,1.1763712E7,2.7066368E7,0E0,0E0,0E0,1.2288E4,0E0,0E0,0E0,8.51968E6,0E0,0E0,3.15392E5,0E0,0E0,0E0,0E0,1.78688E5,0E0,0E0,0E0,1.5187968E7,0E0,0E0,0E0,8.052736E6,0E0,0E0,0E0,6.43072E5,0E0,0E0,0E0,0E0,0E0,0E0,0E0,0E0,0E0,0E0],"parents":[2147483647,0,0,1,1,2,2,3,3,4,4,5,5,6,6,7,7,8,8,9,9,10,10,11,11,12,12,13,13,14,14,15,15,16,16,17,17,18,18,19,19,20,20,21,21,22,22,26,26,30,30,33,33,38,38,42,42,46,46,50,50],"right_children":[2,4,6,8,10,12,14,16,18,20,22,24,26,28,30,32,34,36,38,40,42,44,46,-1,-1,-1,48,-1,-1,-1,50,-1,-1,52,-1,-1,-1,-1,54,-1,-1,-1,56,-1,-1,-1,58,-1,-1,-1,60,-1,-1,-1,-1,-1,-1,-1,-1,-1,-1],"split_conditions":[1.41E2,1.08532E5,5.314E4,1E0,1E0,3E0,3E0,3E0,3E0,3E0,3E0,2E0,4E0,2E0,4E0,2E0,5E0,2E0,4E0,2E0,4E0,2E0,4E0,1.8479233E2,1.8704634E2,1.8908794E2,5E0,1.5875807E2,1.6095987E2,1.6297343E2,5E0,1.6568935E2,1.6773375E2,4E0,1.7414313E2,1.3471182E2,1.3689503E2,1.3900784E2,5E0,1.3472247E2,1.3683539E2,1.3895833E2,5E0,1.3964612E2,1.4164285E2,1.4372545E2,5E0,1.9108424E2,1.9357701E2,1.6501207E2,6E0,1.6983374E2,1.7139326E2,1.4109807E2,1.4354137E2,1.4099211E2,1.4344638E2,1.4591394E2,1.4845242E2,1.6731342E2,1.6924301E2],"split_indices":[2,0,0,4,3,1,1,1,1,1,1,1,1,1,1,1,1,1,1,1,1,1,1,0,0,0,1,0,0,0,1,0,0,1,0,0,0,0,1,0,0,0,1,0,0,0,1,0,0,0,1,0,0,0,0,0,0,0,0,0,0],"split_type":[0,0,0,0,0,0,0,0,0,0,0,0,0,0,0,0,0,0,0,0,0,0,0,0,0,0,0,0,0,0,0,0,0,0,0,0,0,0,0,0,0,0,0,0,0,0,0,0,0,0,0,0,0,0,0,0,0,0,0,0,0],"sum_hessian":[9.2664E6,6.9498E6,2.3166E6,3.48475E5,6.601325E6,1.1583E5,2.20077E6,2.32645E5,1.1583E5,4.400555E6,2.20077E6,5.8007E4,5.7823E4,1.102133E6,1.098637E6,1.16047E5,1.16598E5,5.7986E4,5.7844E4,2.20495E6,2.195605E6,1.101677E6,1.099093E6,2.5285E4,3.2722E4,2.9625E4,2.8198E4,4.80415E5,6.21718E5,5.62875E5,5.35762E5,5.042E4,6.5627E4,9.8669E4,1.7929E4,2.5273E4,3.2713E4,2.9723E4,2.8121E4,9.58227E5,1.246723E6,1.128562E6,1.067043E6,4.7994E5,6.21737E5,5.62552E5,5.36541E5,1.923E4,8.968E3,3.6537E5,1.70392E5,5.9283E4,3.9386E4,1.9258E4,8.863E3,7.30597E5,3.36446E5,3.67099E5,1.69442E5,1.42937E5,2.7455E4],"tree_param":{"num_deleted":"0","num_feature":"11","num_nodes":"61","size_leaf_vector":"1"}},{"base_weights":[3.4157172E2,3.2827194E2,3.8147095E2,3.7033994E2,3.2605115E2,4.3927914E2,3.784282E2,3.9420212E2,3.224097E2,3.2226947E2,3.3361267E2,4.341628E2,4.4440417E2,3.7333423E2,3.8353802E2,3.8931238E2,3.9906537E2,3.172116E2,3.2761496E2,3.171403E2,3.2742035E2,3.2847083E2,3.3876633E2,1.2935683E2,1.3093416E2,1.3236346E2,4.4774265E2,1.1113075E2,1.1267199E2,1.1408149E2,3.8696906E2,1.1598353E2,1.1741438E2,3.9773874E2,1.2190308E2,9.429988E1,9.582778E1,9.730689E1,3.3104758E2,9.430576E1,3.1928265E2,9.727087E1,3.3078778E2,9.775237E1,9.915006E1,1.0060788E2,3.423376E2,1.3376195E2,1.3551038E2,1.1550858E2,3.9112772E2,1.1957008E2,1.1794607E2,9.8770836E1,1.0048382E2,9.567363E1,9.589647E1,9.869453E1,1.0041259E2,1.0213988E2,1.0391696E2,1.1711974E2,1.18471954E2],"categories":[],"categories_nodes":[],"categories_segments":[],"categories_sizes":[],"default_left":[0,0,0,0,0,0,0,0,0,0,0,0,0,0,0,0,0,0,0,0,0,0,0,0,0,0,0,0,0,0,0,0,0,0,0,0,0,0,0,0,0,0,0,0,0,0,0,0,0,0,0,0,0,0,0,0,0,0,0,0,0,0,0],"id":1,"left_children":[1,3,5,7,9,11,13,15,17,19,21,23,25,27,29,31,33,35,37,39,41,43,45,-1,-1,-1,47,-1,-1,-1,49,-1,-1,51,-1,-1,-1,-1,53,-1,55,-1,57,-1,-1,-1,59,-1,-1,-1,61,-1,-1,-1,-1,-1,-1,-1,-1,-1,-1,-1,-1],"loss_changes":[4.917035E9,6.4926515E8,4.0730624E8,3.984302E8,1.8867814E8,2.844672E6,5.714739E7,5.378048E6,3.030016E6,1.1616256E8,5.819597E7,2.05824E5,4.18816E5,7.028736E6,1.2156928E7,4.97664E5,9.64608E5,2.688E5,5.39648E5,1.3058048E7,2.342912E7,5.77536E6,1.3254656E7,0E0,0E0,0E0,7.168E3,0E0,0E0,0E0,4.17792E6,0E0,0E0,2.18112E5,0E0,0E0,0E0,0E0,8.8576E4,0E0,7.3728E4,0E0,7.446528E6,0E0,0E0,0E0,3.95264E6,0E0,0E0,0E0,3.13344E5,0E0,0E0,0E0,0E0,0E0,0E0,0E0,0E0,0E0,0E0,0E0,0E0],"parents":[2147483647,0,0,1,1,2,2,3,3,4,4,5,5,6,6,7,7,8,8,9,9,10,10,11,11,12,12,13,13,14,14,15,15,16,16,17,17,18,18,19,19,20,20,21,21,22,22,26,26,30,30,33,33,38,38,40,40,42,42,46,46,50,50],"right_children":[2,4,6,8,10,12,14,16,18,20,22,24,26,28,30,32,34,36,38,40,42,44,46,-1,-1,-1,48,-1,-1,-1,50,-1,-1,52,-1,-1,-1,-1,54,-1,56,-1,58,-1,-1,-1,60,-1,-1,-1,62,-1,-1,-1,-1,-1,-1,-1,-1,-1,-1,-1,-1],"split_conditions":[1.41E2,1.08532E5,5.314E4,1E0,1E0,3E0,3E0,3E0,3E0,3E0,3E0,2E0,4E0,2E0,4E0,2E0,5E0,2E0,4E0,2E0,4E0,2E0,4E0,1.2935683E2,1.3093416E2,1.3236346E2,5E0,1.1113075E2,1.1267199E2,1.1408149E2,5E0,1.1598353E2,1.1741438E2,6.689E4,1.2190308E2,9.429988E1,9.582778E1,9.730689E1,5E0,9.430576E1,1E0,9.727087E1,5E0,9.775237E1,9.915006E1,1.0060788E2,5E0,1.3376195E2,1.3551038E2,1.1550858E2,6E0,1.1957008E2,1.1794607E2,9.8770836E1,1.0048382E2,9.567363E1,9.589647E1,9.869453E1,1.0041259E2,1.0213988E2,1.0391696E2,1.1711974E2,1.18471954E2],"split_indices":[2,0,0,4,3,1,1,1,1,1,1,1,1,1,1,1,1,1,1,1,1,1,1,0,0,0,1,0,0,0,1,0,0,0,0,0,0,0,1,0,4,0,1,0,0,0,1,0,0,0,1,0,0,0,0,0,0,0,0,0,0,0,0],"split_type":[0,0,0,0,0,0,0,0,0,0,0,0,0,0,0,0,0,0,0,0,0,0,0,0,0,0,0,0,0,0,0,0,0,0,0,0,0,0,0,0,0,0,0,0,0,0,0,0,0,0,0,0,0,0,0,0,0,0,0,0,0,0,0],"sum_hessian":[9.2664E6,6.9498E6,2.3166E6,3.48475E5,6.601325E6,1.1583E5,2.20077E6,2.32645E5,1.1583E5,4.400555E6,2.20077E6,5.8007E4,5.7823E4,1.102133E6,1.098637E6,1.16047E5,1.16598E5,5.7986E4,5.7844E4,2.20495E6,2.195605E6,1.101677E6,1.099093E6,2.5285E4,3.2722E4,2.9625E4,2.8198E4,4.80415E5,6.21718E5,5.62875E5,5.35762E5,5.042E4,6.5627E4,9.8669E4,1.7929E4,2.5273E4,3.2713E4,2.9723E4,2.8121E4,9.58227E5,1.246723E6,1.128562E6,1.067043E6,4.7994E5,6.21737E5,5.62552E5,5.36541E5,1.923E4,8.968E3,3.6537E5,1.70392E5,8.3501E4,1.5168E4,1.9258E4,8.863E3,6.25176E5,6.21547E5,7.30597E5,3.36446E5,3.67099E5,1.69442E5,1.42937E5,2.7455E4],"tree_param":{"num_deleted":"0","num_feature":"11","num_nodes":"63","size_leaf_vector":"1"}},{"base_weights":[2.3910057E2,2.2979065E2,2.6703024E2,2.5924106E2,2.2823598E2,3.075011E2,2.6490005E2,2.7594403E2,2.2569098E2,2.2558876E2,2.3352911E2,3.0391846E2,3.1108984E2,2.6133414E2,2.6847705E2,2.7252066E2,2.7934885E2,2.220514E2,2.293356E2,2.2199832E2,2.2919438E2,2.2992975E2,2.3713672E2,9.0551315E1,9.1655106E1,9.2655754E1,3.1342938E2,7.7791595E1,7.887044E1,7.985709E1,2.70879E2,8.118916E1,8.219061E1,8.3084366E1,2.8182736E2,6.6011024E1,6.708032E1,6.8115814E1,2.317404E2,6.601407E1,2.23498E2,6.808963E1,2.3155164E2,6.842671E1,6.940509E1,7.042558E1,2.3963667E2,9.388723E1,9.658334E1,8.08561E1,2.7379077E2,8.501593E1,8.215717E1,6.938202E1,7.197797E1,6.697158E1,6.712757E1,6.931921E1,7.207386E1,7.174802E1,7.442486E1,8.198407E1,8.293166E1],"categories":[],"categories_nodes":[],"categories_segments":[],"categories_sizes":[],"default_left":[0,0,0,0,0,0,0,0,0,0,0,0,0,0,0,0,0,0,0,0,0,0,0,0,0,0,0,0,0,0,0,0,0,0,0,0,0,0,0,0,0,0,0,0,0,0,0,0,0,0,0,0,0,0,0,0,0,0,0,0,0,0,0],"id":2,"left_children":[1,3,5,7,9,11,13,15,17,19,21,23,25,27,29,31,33,35,37,39,41,43,45,-1,-1,-1,47,-1,-1,-1,49,-1,-1,-1,51,-1,-1,-1,53,-1,55,-1,57,-1,-1,-1,59,-1,-1,-1,61,-1,-1,-1,-1,-1,-1,-1,-1,-1,-1,-1,-1],"loss_changes":[2.4093983E9,3.181445E8,1.9962266E8,1.9521946E8,9.24713E7,1.395712E6,2.801664E7,2.635776E6,1.485824E6,5.6918016E7,2.8524544E7,1.00352E5,2.05824E5,3.44064E6,5.963776E6,2.42688E5,6.15424E5,1.32096E5,2.6496E5,6.397952E6,1.1476992E7,2.822144E6,6.496256E6,0E0,0E0,0E0,1.2544E4,0E0,0E0,0E0,2.048E6,0E0,0E0,0E0,6.34368E5,0E0,0E0,0E0,5.1968E4,0E0,3.6864E4,0E0,4.468736E6,0E0,0E0,0E0,2.103296E6,0E0,0E0,0E0,1.54624E5,0E0,0E0,0E0,0E0,0E0,0E0,0E0,0E0,0E0,0E0,0E0,0E0],"parents":[2147483647,0,0,1,1,2,2,3,3,4,4,5,5,6,6,7,7,8,8,9,9,10,10,11,11,12,12,13,13,14,14,15,15,16,16,17,17,18,18,19,19,20,20,21,21,22,22,26,26,30,30,34,34,38,38,40,40,42,42,46,46,50,50],"right_children":[2,4,6,8,10,12,14,16,18,20,22,24,26,28,30,32,34,36,38,40,42,44,46,-1,-1,-1,48,-1,-1,-1,50,-1,-1,-1,52,-1,-1,-1,54,-1,56,-1,58,-1,-1,-1,60,-1,-1,-1,62,-1,-1,-1,-1,-1,-1,-1,-1,-1,-1,-1,-1],"split_conditions":[1.41E2,1.08532E5,5.314E4,1E0,1E0,3E0,3E0,3E0,3E0,3E0,3E0,2E0,4E0,2E0,4E0,2E0,4E0,2E0,4E0,2E0,4E0,2E0,4E0,9.0551315E1,9.1655106E1,9.2655754E1,6E0,7.7791595E1,7.887044E1,7.985709E1,5E0,8.118916E1,8.219061E1,8.3084366E1,6.689E4,6.6011024E1,6.708032E1,6.8115814E1,6E0,6.601407E1,1E0,6.808963E1,6E0,6.842671E1,6.940509E1,7.042558E1,6E0,9.388723E1,9.658334E1,8.08561E1,6E0,8.501593E1,8.215717E1,6.938202E1,7.197797E1,6.697158E1,6.712757E1,6.931921E1,7.207386E1,7.174802E1,7.442486E1,8.198407E1,8.293166E1],"split_indices":[2,0,0,4,3,1,1,1,1,1,1,1,1,1,1,1,1,1,1,1,1,1,1,0,0,0,1,0,0,0,1,0,0,0,0,0,0,0,1,0,4,0,1,0,0,0,1,0,0,0,1,0,0,0,0,0,0,0,0,0,0,0,0],"split_type":[0,0,0,0,0,0,0,0,0,0,0,0,0,0,0,0,0,0,0,0,0,0,0,0,0,0,0,0,0,0,0,0,0,0,0,0,0,0,0,0,0,0,0,0,0,0,0,0,0,0,0,0,0,0,0,0,0,0,0,0,0,0,0],"sum_hessian":[9.2664E6,6.9498E6,2.3166E6,3.48475E5,6.601325E6,1.1583E5,2.20077E6,2.32645E5,1.1583E5,4.400555E6,2.20077E6,5.8007E4,5.7823E4,1.102133E6,1.098637E6,1.16047E5,1.16598E5,5.7986E4,5.7844E4,2.20495E6,2.195605E6,1.101677E6,1.099093E6,2.5285E4,3.2722E4,2.9625E4,2.8198E4,4.80415E5,6.21718E5,5.62875E5,5.35762E5,5.042E4,6.5627E4,5.9283E4,5.7315E4,2.5273E4,3.2713E4,2.9723E4,2.8121E4,9.58227E5,1.246723E6,1.128562E6,1.067043E6,4.7994E5,6.21737E5,5.62552E5,5.36541E5,2.6753E4,1.445E3,3.6537E5,1.70392E5,4.7909E4,9.406E3,2.6631E4,1.49E3,6.25176E5,6.21547E5,1.010404E6,5.6639E4,5.07908E5,2.8633E4,1.42937E5,2.7455E4],"tree_param":{"num_deleted":"0","num_feature":"11","num_nodes":"63","size_leaf_vector":"1"}},{"base_weights":[1.6737067E2,1.6085367E2,1.8692157E2,1.814709E2,1.5976529E2,2.1525478E2,1.8543025E2,1.9316258E2,1.5798665E2,1.5791222E2,1.6347054E2,2.1274603E2,2.1776779E2,1.8293404E2,1.8793423E2,1.9076585E2,1.9554633E2,1.5543828E2,1.6053854E2,1.5539891E2,1.6043616E2,1.6095096E2,1.6599588E2,6.338699E1,6.415941E1,2.1700569E2,6.656844E1,5.445416E1,5.5209347E1,5.5900013E1,1.8961575E2,5.6832886E1,5.7533794E1,1.9475659E2,1.9988145E2,4.6208508E1,4.6956844E1,1.5978888E2,4.939891E1,4.6209866E1,1.564487E2,1.5969818E2,1.6451358E2,4.7898743E1,4.8583595E1,1.6521603E2,1.7027357E2,6.485997E1,6.547073E1,5.6599335E1,1.9165451E2,5.807609E1,5.878249E1,5.9567883E1,6.1918888E1,4.7681755E1,4.8327602E1,4.688014E1,4.6989334E1,4.7662758E1,4.829047E1,4.9131634E1,5.0452087E1,4.929794E1,4.997364E1,5.0875084E1,5.209818E1,5.7389015E1,5.805307E1],"categories":[],"categories_nodes":[],"categories_segments":[],"categories_sizes":[],"default_left":[0,0,0,0,0,0,0,0,0,0,0,0,0,0,0,0,0,0,0,0,0,0,0,0,0,0,0,0,0,0,0,0,0,0,0,0,0,0,0,0,0,0,0,0,0,0,0,0,0,0,0,0,0,0,0,0,0,0,0,0,0,0,0,0,0,0,0,0,0],"id":3,"left_children":[1,3,5,7,9,11,13,15,17,19,21,23,25,27,29,31,33,35,37,39,41,43,45,-1,-1,47,-1,-1,-1,-1,49,-1,-1,51,53,-1,-1,55,-1,-1,57,59,61,-1,-1,63,65,-1,-1,-1,67,-1,-1,-1,-1,-1,-1,-1,-1,-1,-1,-1,-1,-1,-1,-1,-1,-1,-1],"loss_changes":[1.180631E9,1.5592653E8,9.785344E7,9.565082E7,4.5285376E7,6.84032E5,1.3713408E7,1.291264E6,7.28064E5,2.7885568E7,1.3979648E7,4.9152E4,1.33888E5,1.687552E6,2.924544E6,1.19296E5,3.60448E5,6.4512E4,1.52448E5,3.137536E6,6.582272E6,1.384448E6,3.639296E6,0E0,0E0,1.28E3,0E0,0E0,0E0,0E0,1.00352E6,0E0,0E0,9.9072E4,1.13472E5,0E0,0E0,2.8672E4,0E0,0E0,1.4336E4,1.916928E6,8.8576E5,0E0,0E0,1.099776E6,3.66592E5,0E0,0E0,0E0,7.6288E4,0E0,0E0,0E0,0E0,0E0,0E0,0E0,0E0,0E0,0E0,0E0,0E0,0E0,0E0,0E0,0E0,0E0,0E0],"parents":[2147483647,0,0,1,1,2,2,3,3,4,4,5,5,6,6,7,7,8,8,9,9,10,10,11,11,12,12,13,13,14,14,15,15,16,16,17,17,18,18,19,19,20,20,21,21,22,22,25,25,30,30,33,33,34,34,37,37,40,40,41,41,42,42,45,45,46,46,50,50],"right_children":[2,4,6,8,10,12,14,16,18,20,22,24,26,28,30,32,34,36,38,40,42,44,46,-1,-1,48,-1,-1,-1,-1,50,-1,-1,52,54,-1,-1,56,-1,-1,58,60,62,-1,-1,64,66,-1,-1,-1,68,-1,-1,-1,-1,-1,-1,-1,-1,-1,-1,-1,-1,-1,-1,-1,-1,-1,-1],"split_conditions":[1.41E2,1.08532E5,5.314E4,1E0,1E0,3E0,3E0,3E0,3E0,3E0,3E0,2E0,5E0,2E0,4E0,2E0,5E0,2E0,5E0,2E0,5E0,2E0,5E0,6.338699E1,6.415941E1,4E0,6.656844E1,5.445416E1,5.5209347E1,5.5900013E1,5E0,5.6832886E1,5.7533794E1,1E0,6E0,4.6208508E1,4.6956844E1,4E0,4.939891E1,4.6209866E1,1E0,4E0,6E0,4.7898743E1,4.8583595E1,4E0,6E0,6.485997E1,6.547073E1,5.6599335E1,6E0,5.807609E1,5.878249E1,5.9567883E1,6.1918888E1,4.7681755E1,4.8327602E1,4.688014E1,4.6989334E1,4.7662758E1,4.829047E1,4.9131634E1,5.0452087E1,4.929794E1,4.997364E1,5.0875084E1,5.209818E1,5.7389015E1,5.805307E1],"split_indices":[2,0,0,4,3,1,1,1,1,1,1,1,1,1,1,1,1,1,1,1,1,1,1,0,0,1,0,0,0,0,1,0,0,3,1,0,0,1,0,0,4,1,1,0,0,1,1,0,0,0,1,0,0,0,0,0,0,0,0,0,0,0,0,0,0,0,0,0,0],"split_type":[0,0,0,0,0,0,0,0,0,0,0,0,0,0,0,0,0,0,0,0,0,0,0,0,0,0,0,0,0,0,0,0,0,0,0,0,0,0,0,0,0,0,0,0,0,0,0,0,0,0,0,0,0,0,0,0,0,0,0,0,0,0,0,0,0,0,0,0,0],"sum_hessian":[9.2664E6,6.9498E6,2.3166E6,3.48475E5,6.601325E6,1.1583E5,2.20077E6,2.32645E5,1.1583E5,4.400555E6,2.20077E6,5.8007E4,5.7823E4,1.102133E6,1.098637E6,1.16047E5,1.16598E5,5.7986E4,5.7844E4,2.20495E6,2.195605E6,1.101677E6,1.099093E6,2.5285E4,3.2722E4,4.8855E4,8.968E3,4.80415E5,6.21718E5,5.62875E5,5.35762E5,5.042E4,6.5627E4,9.8669E4,1.7929E4,2.5273E4,3.2713E4,4.8981E4,8.863E3,9.58227E5,1.246723E6,1.859159E6,3.36446E5,4.7994E5,6.21737E5,9.29651E5,1.69442E5,2.9625E4,1.923E4,3.6537E5,1.70392E5,4.974E4,4.8929E4,1.4931E4,2.998E3,2.9723E4,1.9258E4,6.25176E5,6.21547E5,1.128562E6,7.30597E5,2.79807E5,5.6639E4,5.62552E5,3.67099E5,1.40809E5,2.8633E4,1.42937E5,2.7455E4],"tree_param":{"num_deleted":"0","num_feature":"11","num_nodes":"69","size_leaf_vector":"1"}},{"base_weights":[1.1715967E2,1.12597755E2,1.3084538E2,1.2703133E2,1.118358E2,1.5068114E2,1.2980132E2,1.3521533E2,1.1059271E2,1.10538635E2,1.1442951E2,1.4892442E2,1.5244084E2,1.2805392E2,1.3155417E2,1.3418027E2,1.3837926E2,1.088084E2,1.12379486E2,1.08779305E2,1.12305405E2,1.12665764E2,1.161973E2,4.437165E1,4.491217E1,1.5190663E2,4.6600136E1,3.8117943E1,1.2882188E2,3.9130035E1,1.3273135E2,3.978336E1,1.3481256E2,1.3950208E2,1.3264601E2,3.2346504E1,3.287022E1,1.11854164E2,1.1526971E2,1.0782307E2,1.0951418E2,1.1178879E2,1.1515981E2,3.3529152E1,3.4008545E1,1.1565133E2,1.1919209E2,4.5402626E1,4.5830536E1,1.287814E2,3.886393E1,3.961958E1,1.3415883E2,4.0273926E1,4.0631104E1,4.177359E1,4.3211845E1,1.2181834E1,4.302173E1,3.337771E1,3.3830074E1,3.4372326E1,3.558933E1,3.2307922E1,3.2385677E1,3.281612E1,3.289256E1,3.3363945E1,3.3803352E1,3.4392204E1,3.5316727E1,3.4508583E1,3.498159E1,3.5612663E1,3.6469273E1,3.8647556E1,3.8410007E1,4.0172436E1,4.063778E1],"categories":[],"categories_nodes":[],"categories_segments":[],"categories_sizes":[],"default_left":[0,0,0,0,0,0,0,0,0,0,0,0,0,0,0,0,0,0,0,0,0,0,0,0,0,0,0,0,0,0,0,0,0,0,0,0,0,0,0,0,0,0,0,0,0,0,0,0,0,0,0,0,0,0,0,0,0,0,0,0,0,0,0,0,0,0,0,0,0,0,0,0,0,0,0,0,0,0,0],"id":4,"left_children":[1,3,5,7,9,11,13,15,17,19,21,23,25,27,29,31,33,35,37,39,41,43,45,-1,-1,47,-1,-1,49,-1,51,-1,53,55,57,-1,-1,59,61,63,65,67,69,-1,-1,71,73,-1,-1,75,-1,-1,77,-1,-1,-1,-1,-1,-1,-1,-1,-1,-1,-1,-1,-1,-1,-1,-1,-1,-1,-1,-1,-1,-1,-1,-1,-1,-1],"loss_changes":[5.7851904E8,7.641498E7,4.795597E7,4.686643E7,2.220032E7,3.3536E5,6.725632E6,7.43424E5,3.56992E5,1.3664256E7,6.85056E6,2.4064E4,6.5664E4,8.25344E5,1.431552E6,1.5616E5,3.50464E5,3.1616E4,7.4944E4,1.538048E6,3.2256E6,6.77888E5,1.783808E6,0E0,0E0,7.68E2,0E0,0E0,1.024E3,0E0,4.92544E5,0E0,2.5856E4,3.5776E4,9.310176E6,0E0,0E0,1.408E4,7.12E3,3.072E3,7.168E3,9.37984E5,4.34176E5,0E0,0E0,5.38624E5,1.79968E5,0E0,0E0,3.072E3,0E0,0E0,3.7376E4,0E0,0E0,0E0,0E0,0E0,0E0,0E0,0E0,0E0,0E0,0E0,0E0,0E0,0E0,0E0,0E0,0E0,0E0,0E0,0E0,0E0,0E0,0E0,0E0,0E0,0E0],"parents":[2147483647,0,0,1,1,2,2,3,3,4,4,5,5,6,6,7,7,8,8,9,9,10,10,11,11,12,12,13,13,14,14,15,15,16,16,17,17,18,18,19,19,20,20,21,21,22,22,25,25,28,28,30,30,32,32,33,33,34,34,37,37,38,38,39,39,40,40,41,41,42,42,45,45,46,46,49,49,52,52],"right_children":[2,4,6,8,10,12,14,16,18,20,22,24,26,28,30,32,34,36,38,40,42,44,46,-1,-1,48,-1,-1,50,-1,52,-1,54,56,58,-1,-1,60,62,64,66,68,70,-1,-1,72,74,-1,-1,76,-1,-1,78,-1,-1,-1,-1,-1,-1,-1,-1,-1,-1,-1,-1,-1,-1,-1,-1,-1,-1,-1,-1,-1,-1,-1,-1,-1,-1],"split_conditions":[1.41E2,1.08532E5,5.314E4,1E0,1E0,3E0,3E0,4E0,3E0,3E0,3E0,2E0,5E0,2E0,4E0,2E0,6.689E4,2E0,5E0,2E0,5E0,2E0,5E0,4.437165E1,4.491217E1,4E0,4.6600136E1,3.8117943E1,9.95684E5,3.9130035E1,5E0,3.978336E1,3E0,6E0,1E0,3.2346504E1,3.287022E1,4E0,6E0,1E0,1E0,4E0,6E0,3.3529152E1,3.4008545E1,4E0,6E0,4.5402626E1,4.5830536E1,9.40336E5,3.886393E1,3.961958E1,6E0,4.0273926E1,4.0631104E1,4.177359E1,4.3211845E1,1.2181834E1,4.302173E1,3.337771E1,3.3830074E1,3.4372326E1,3.558933E1,3.2307922E1,3.2385677E1,3.281612E1,3.289256E1,3.3363945E1,3.3803352E1,3.4392204E1,3.5316727E1,3.4508583E1,3.498159E1,3.5612663E1,3.6469273E1,3.8647556E1,3.8410007E1,4.0172436E1,4.063778E1],"split_indices":[2,0,0,4,3,1,1,1,1,1,1,1,1,1,1,1,0,1,1,1,1,1,1,0,0,1,0,0,0,0,1,0,1,1,3,0,0,1,1,4,4,1,1,0,0,1,1,0,0,0,0,0,1,0,0,0,0,0,0,0,0,0,0,0,0,0,0,0,0,0,0,0,0,0,0,0,0,0,0],"split_type":[0,0,0,0,0,0,0,0,0,0,0,0,0,0,0,0,0,0,0,0,0,0,0,0,0,0,0,0,0,0,0,0,0,0,0,0,0,0,0,0,0,0,0,0,0,0,0,0,0,0,0,0,0,0,0,0,0,0,0,0,0,0,0,0,0,0,0,0,0,0,0,0,0,0,0,0,0,0,0],"sum_hessian":[9.2664E6,6.9498E6,2.3166E6,3.48475E5,6.601325E6,1.1583E5,2.20077E6,2.32645E5,1.1583E5,4.400555E6,2.20077E6,5.8007E4,5.7823E4,1.102133E6,1.098637E6,1.7533E5,5.7315E4,5.7986E4,5.7844E4,2.20495E6,2.195605E6,1.101677E6,1.099093E6,2.5285E4,3.2722E4,4.8855E4,8.968E3,4.80415E5,6.21718E5,5.62875E5,5.35762E5,5.042E4,1.2491E5,4.7909E4,9.406E3,2.5273E4,3.2713E4,4.8981E4,8.863E3,9.58227E5,1.246723E6,1.859159E6,3.36446E5,4.7994E5,6.21737E5,9.29651E5,1.69442E5,2.9625E4,1.923E4,5.88996E5,3.2722E4,3.6537E5,1.70392E5,6.5627E4,5.9283E4,4.5373E4,2.536E3,9.85E2,8.421E3,2.9723E4,1.9258E4,7.373E3,1.49E3,4.7804E5,4.80187E5,6.25176E5,6.21547E5,1.128562E6,7.30597E5,2.79807E5,5.6639E4,5.62552E5,3.67099E5,1.40809E5,2.8633E4,5.56274E5,3.2722E4,1.42937E5,2.7455E4],"tree_param":{"num_deleted":"0","num_feature":"11","num_nodes":"79","size_leaf_vector":"1"}},{"base_weights":[8.2011925E1,7.881856E1,9.1591995E1,8.8923256E1,7.828513E1,1.0547876E2,9.086107E1,9.465185E1,7.741665E1,7.73771E1,8.010075E1,1.0424864E2,1.0671097E2,8.963788E1,9.208806E1,9.3926865E1,9.686791E1,7.6167015E1,7.866801E1,7.614557E1,7.861384E1,7.88661E1,8.133824E1,3.1060686E1,3.1438929E1,1.06564766E2,3.370127E1,2.6682583E1,9.017551E1,2.7391047E1,9.291217E1,2.7848587E1,9.436943E1,9.765321E1,9.285808E1,2.264294E1,2.3009457E1,7.829928E1,8.069669E1,7.547621E1,7.665998E1,7.825218E1,8.061207E1,2.3470428E1,7.935332E1,8.095601E1,8.343488E1,3.1782293E1,3.2175465E1,9.014712E1,9.068369E1,9.244581E1,9.3911644E1,2.8191921E1,2.8441984E1,2.9241787E1,3.0253397E1,8.530994E0,3.0116745E1,2.3364727E1,2.3681576E1,2.4062029E1,2.4919691E1,2.2615566E1,2.2669994E1,2.3073326E1,2.2988243E1,2.3354767E1,2.3662363E1,2.4074575E1,2.472189E1,2.3707054E1,2.3817593E1,2.4156027E1,2.4487143E1,2.4928936E1,2.5528872E1,2.705331E1,2.6887362E1,2.7289814E1,2.688071E1,2.7984829E1,2.7717209E1,2.812078E1,2.8446898E1],"categories":[],"categories_nodes":[],"categories_segments":[],"categories_sizes":[],"default_left":[0,0,0,0,0,0,0,0,0,0,0,0,0,0,0,0,0,0,0,0,0,0,0,0,0,0,0,0,0,0,0,0,0,0,0,0,0,0,0,0,0,0,0,0,0,0,0,0,0,0,0,0,0,0,0,0,0,0,0,0,0,0,0,0,0,0,0,0,0,0,0,0,0,0,0,0,0,0,0,0,0,0,0,0,0],"id":5,"left_children":[1,3,5,7,9,11,13,15,17,19,21,23,25,27,29,31,33,35,37,39,41,43,45,-1,-1,47,-1,-1,49,-1,51,-1,53,55,57,-1,-1,59,61,63,65,67,69,-1,71,73,75,-1,-1,77,79,81,83,-1,-1,-1,-1,-1,-1,-1,-1,-1,-1,-1,-1,-1,-1,-1,-1,-1,-1,-1,-1,-1,-1,-1,-1,-1,-1,-1,-1,-1,-1,-1,-1],"loss_changes":[2.8347597E8,3.744973E7,2.3502848E7,2.29632E7,1.0878976E7,1.64352E5,3.295232E6,3.64672E5,1.75168E5,6.69696E6,3.356672E6,1.184E4,3.5584E4,4.05504E5,7.02464E5,7.6416E4,1.71392E5,1.5456E4,3.696E4,7.53664E5,1.581056E6,3.32288E5,8.74496E5,0E0,0E0,1.28E4,0E0,0E0,5.12E2,0E0,2.41152E5,0E0,1.28E4,1.7792E4,4.561064E6,0E0,0E0,6.912E3,3.628E3,2.048E3,4.096E3,4.59776E5,2.12992E5,0E0,1.792E3,2.64192E5,8.8192E4,0E0,0E0,1.024E3,1.856E3,8.192E3,1.8304E4,0E0,0E0,0E0,0E0,0E0,0E0,0E0,0E0,0E0,0E0,0E0,0E0,0E0,0E0,0E0,0E0,0E0,0E0,0E0,0E0,0E0,0E0,0E0,0E0,0E0,0E0,0E0,0E0,0E0,0E0,0E0,0E0],"parents":[2147483647,0,0,1,1,2,2,3,3,4,4,5,5,6,6,7,7,8,8,9,9,10,10,11,11,12,12,13,13,14,14,15,15,16,16,17,17,18,18,19,19,20,20,21,21,22,22,25,25,28,28,30,30,32,32,33,33,34,34,37,37,38,38,39,39,40,40,41,41,42,42,44,44,45,45,46,46,49,49,50,50,51,51,52,52],"right_children":[2,4,6,8,10,12,14,16,18,20,22,24,26,28,30,32,34,36,38,40,42,44,46,-1,-1,48,-1,-1,50,-1,52,-1,54,56,58,-1,-1,60,62,64,66,68,70,-1,72,74,76,-1,-1,78,80,82,84,-1,-1,-1,-1,-1,-1,-1,-1,-1,-1,-1,-1,-1,-1,-1,-1,-1,-1,-1,-1,-1,-1,-1,-1,-1,-1,-1,-1,-1,-1,-1,-1],"split_conditions":[1.41E2,1.08532E5,5.314E4,1E0,1E0,3E0,3E0,4E0,3E0,3E0,3E0,2E0,6E0,2E0,4E0,2E0,6.689E4,2E0,5E0,2E0,5E0,2E0,5E0,3.1060686E1,3.1438929E1,4E0,3.370127E1,2.6682583E1,9.95684E5,2.7391047E1,5E0,2.7848587E1,3E0,6E0,1E0,2.264294E1,2.3009457E1,4E0,6E0,1E0,2.1923E5,4E0,6E0,2.3470428E1,2.19177E5,4E0,6E0,3.1782293E1,3.2175465E1,9.40336E5,1.050759E6,1.10113E5,6E0,2.8191921E1,2.8441984E1,2.9241787E1,3.0253397E1,8.530994E0,3.0116745E1,2.3364727E1,2.3681576E1,2.4062029E1,2.4919691E1,2.2615566E1,2.2669994E1,2.3073326E1,2.2988243E1,2.3354767E1,2.3662363E1,2.4074575E1,2.472189E1,2.3707054E1,2.3817593E1,2.4156027E1,2.4487143E1,2.4928936E1,2.5528872E1,2.705331E1,2.6887362E1,2.7289814E1,2.688071E1,2.7984829E1,2.7717209E1,2.812078E1,2.8446898E1],"split_indices":[2,0,0,4,3,1,1,1,1,1,1,1,1,1,1,1,0,1,1,1,1,1,1,0,0,1,0,0,0,0,1,0,1,1,3,0,0,1,1,4,0,1,1,0,0,1,1,0,0,0,0,0,1,0,0,0,0,0,0,0,0,0,0,0,0,0,0,0,0,0,0,0,0,0,0,0,0,0,0,0,0,0,0,0,0],"split_type":[0,0,0,0,0,0,0,0,0,0,0,0,0,0,0,0,0,0,0,0,0,0,0,0,0,0,0,0,0,0,0,0,0,0,0,0,0,0,0,0,0,0,0,0,0,0,0,0,0,0,0,0,0,0,0,0,0,0,0,0,0,0,0,0,0,0,0,0,0,0,0,0,0,0,0,0,0,0,0,0,0,0,0,0,0],"sum_hessian":[9.2664E6,6.9498E6,2.3166E6,3.48475E5,6.601325E6,1.1583E5,2.20077E6,2.32645E5,1.1583E5,4.400555E6,2.20077E6,5.8007E4,5.7823E4,1.102133E6,1.098637E6,1.7533E5,5.7315E4,5.7986E4,5.7844E4,2.20495E6,2.195605E6,1.101677E6,1.099093E6,2.5285E4,3.2722E4,5.6378E4,1.445E3,4.80415E5,6.21718E5,5.62875E5,5.35762E5,5.042E4,1.2491E5,4.7909E4,9.406E3,2.5273E4,3.2713E4,4.8981E4,8.863E3,9.58227E5,1.246723E6,1.859159E6,3.36446E5,4.7994E5,6.21737E5,9.29651E5,1.69442E5,2.9625E4,2.6753E4,5.88996E5,3.2722E4,3.6537E5,1.70392E5,6.5627E4,5.9283E4,4.5373E4,2.536E3,9.85E2,8.421E3,2.9723E4,1.9258E4,7.373E3,1.49E3,4.7804E5,4.80187E5,1.42628E5,1.104095E6,1.128562E6,7.30597E5,2.79807E5,5.6639E4,6.5446E4,5.56291E5,5.62552E5,3.67099E5,1.40809E5,2.8633E4,5.56274E5,3.2722E4,2.5881E4,6.841E3,2.2468E4,3.42902E5,1.42937E5,2.7455E4],"tree_param":{"num_deleted":"0","num_feature":"11","num_nodes":"85","size_leaf_vector":"1"}},{"base_weights":[5.7408466E1,5.5173088E1,6.4114586E1,6.224722E1,5.4799644E1,7.3836525E1,6.3602867E1,6.625709E1,5.4192875E1,5.4164013E1,5.60706E1,7.297514E1,7.469936E1,6.2746635E1,6.446177E1,6.5749306E1,6.7809265E1,5.3317696E1,5.5069267E1,5.3301937E1,5.502973E1,5.520633E1,5.693685E1,2.1742853E1,2.2007545E1,2.2320036E1,7.6321106E1,6.2259407E1,6.3123024E1,1.9173744E1,6.5038734E1,1.9494173E1,6.605908E1,6.835851E1,6.5004745E1,1.5850324E1,1.610683E1,5.481046E1,5.64932E1,5.2833397E1,5.366201E1,5.4776554E1,5.642858E1,5.476438E1,5.5547394E1,5.6669247E1,5.8404728E1,2.2758463E1,2.3597876E1,6.2231693E1,6.259027E1,6.307305E1,6.3388897E1,6.4712234E1,6.573847E1,1.9913965E1,1.9720783E1,2.046945E1,2.1180948E1,5.9742875E0,2.108279E1,1.6355549E1,1.657747E1,1.6844393E1,1.7448803E1,1.5830908E1,1.5869014E1,1.6092499E1,1.6224808E1,1.6348343E1,1.6563667E1,1.6852226E1,1.7305452E1,1.6353788E1,1.6438162E1,1.6595047E1,1.6672327E1,1.690923E1,1.7141016E1,1.7450312E1,1.7870478E1,1.8678543E1,1.8382866E1,1.8853811E1,1.8567427E1,1.8937277E1,1.8690937E1,1.9261034E1,1.8942472E1,1.9426134E1,1.9188309E1,1.9684603E1,1.9913137E1],"categories":[],"categories_nodes":[],"categories_segments":[],"categories_sizes":[],"default_left":[0,0,0,0,0,0,0,0,0,0,0,0,0,0,0,0,0,0,0,0,0,0,0,0,0,0,0,0,0,0,0,0,0,0,0,0,0,0,0,0,0,0,0,0,0,0,0,0,0,0,0,0,0,0,0,0,0,0,0,0,0,0,0,0,0,0,0,0,0,0,0,0,0,0,0,0,0,0,0,0,0,0,0,0,0,0,0,0,0,0,0,0,0],"id":6,"left_children":[1,3,5,7,9,11,13,15,17,19,21,23,25,27,29,31,33,35,37,39,41,43,45,-1,-1,-1,47,49,51,-1,53,-1,55,57,59,-1,-1,61,63,65,67,69,71,73,75,77,79,-1,-1,81,83,85,87,89,91,-1,-1,-1,-1,-1,-1,-1,-1,-1,-1,-1,-1,-1,-1,-1,-1,-1,-1,-1,-1,-1,-1,-1,-1,-1,-1,-1,-1,-1,-1,-1,-1,-1,-1,-1,-1,-1,-1],"loss_changes":[1.389056E8,1.8358272E7,1.152E7,1.12512E7,5.330944E6,8.064E4,1.614848E6,1.7888E5,8.5888E4,3.280896E6,1.644544E6,5.76E3,2.2368E4,1.97632E5,3.43552E5,3.744E4,8.384E4,7.584E3,1.824E4,3.6864E5,7.74656E5,1.63072E5,4.28288E5,0E0,0E0,0E0,3.672E3,5.12E2,4.608E3,0E0,1.18272E5,0E0,8.512E3,8.832E3,2.234476E6,0E0,0E0,3.392E3,1.842E3,1.024E3,7.936E3,2.2528E5,1.0432E5,5.12E2,8.96E2,1.2928E5,4.3264E4,0E0,0E0,8.832E3,2.736E3,1.664E4,1.5712E4,7.296E3,9.024E3,0E0,0E0,0E0,0E0,0E0,0E0,0E0,0E0,0E0,0E0,0E0,0E0,0E0,0E0,0E0,0E0,0E0,0E0,0E0,0E0,0E0,0E0,0E0,0E0,0E0,0E0,0E0,0E0,0E0,0E0,0E0,0E0,0E0,0E0,0E0,0E0,0E0,0E0],"parents":[2147483647,0,0,1,1,2,2,3,3,4,4,5,5,6,6,7,7,8,8,9,9,10,10,11,11,12,12,13,13,14,14,15,15,16,16,17,17,18,18,19,19,20,20,21,21,22,22,26,26,27,27,28,28,30,30,32,32,33,33,34,34,37,37,38,38,39,39,40,40,41,41,42,42,43,43,44,44,45,45,46,46,49,49,50,50,51,51,52,52,53,53,54,54],"right_children":[2,4,6,8,10,12,14,16,18,20,22,24,26,28,30,32,34,36,38,40,42,44,46,-1,-1,-1,48,50,52,-1,54,-1,56,58,60,-1,-1,62,64,66,68,70,72,74,76,78,80,-1,-1,82,84,86,88,90,92,-1,-1,-1,-1,-1,-1,-1,-1,-1,-1,-1,-1,-1,-1,-1,-1,-1,-1,-1,-1,-1,-1,-1,-1,-1,-1,-1,-1,-1,-1,-1,-1,-1,-1,-1,-1,-1,-1],"split_conditions":[1.41E2,1.08532E5,5.314E4,1E0,1E0,3E0,3E0,4E0,3E0,3E0,3E0,2E0,5E0,2E0,4E0,2E0,6.689E4,2E0,5E0,2E0,5E0,2E0,5E0,2.1742853E1,2.2007545E1,2.2320036E1,6E0,9.95155E5,8.84979E5,1.9173744E1,5E0,1.9494173E1,5.4721E4,6E0,1E0,1.5850324E1,1.610683E1,4E0,6E0,1E0,1.104799E6,4E0,6E0,2.19177E5,2.19177E5,4E0,6E0,2.2758463E1,2.3597876E1,9.40087E5,1.050482E6,8.29632E5,9.40087E5,1.000144E6,6E0,1.9913965E1,1.9720783E1,2.046945E1,2.1180948E1,5.9742875E0,2.108279E1,1.6355549E1,1.657747E1,1.6844393E1,1.7448803E1,1.5830908E1,1.5869014E1,1.6092499E1,1.6224808E1,1.6348343E1,1.6563667E1,1.6852226E1,1.7305452E1,1.6353788E1,1.6438162E1,1.6595047E1,1.6672327E1,1.690923E1,1.7141016E1,1.7450312E1,1.7870478E1,1.8678543E1,1.8382866E1,1.8853811E1,1.8567427E1,1.8937277E1,1.8690937E1,1.9261034E1,1.8942472E1,1.9426134E1,1.9188309E1,1.9684603E1,1.9913137E1],"split_indices":[2,0,0,4,3,1,1,1,1,1,1,1,1,1,1,1,0,1,1,1,1,1,1,0,0,0,1,0,0,0,1,0,0,1,3,0,0,1,1,4,0,1,1,0,0,1,1,0,0,0,0,0,0,0,1,0,0,0,0,0,0,0,0,0,0,0,0,0,0,0,0,0,0,0,0,0,0,0,0,0,0,0,0,0,0,0,0,0,0,0,0,0,0],"split_type":[0,0,0,0,0,0,0,0,0,0,0,0,0,0,0,0,0,0,0,0,0,0,0,0,0,0,0,0,0,0,0,0,0,0,0,0,0,0,0,0,0,0,0,0,0,0,0,0,0,0,0,0,0,0,0,0,0,0,0,0,0,0,0,0,0,0,0,0,0,0,0,0,0,0,0,0,0,0,0,0,0,0,0,0,0,0,0,0,0,0,0,0,0],"sum_hessian":[9.2664E6,6.9498E6,2.3166E6,3.48475E5,6.601325E6,1.1583E5,2.20077E6,2.32645E5,1.1583E5,4.400555E6,2.20077E6,5.8007E4,5.7823E4,1.102133E6,1.098637E6,1.7533E5,5.7315E4,5.7986E4,5.7844E4,2.20495E6,2.195605E6,1.101677E6,1.099093E6,2.5285E4,3.2722E4,4.8855E4,8.968E3,4.80415E5,6.21718E5,5.62875E5,5.35762E5,5.042E4,1.2491E5,4.7909E4,9.406E3,2.5273E4,3.2713E4,4.8981E4,8.863E3,9.58227E5,1.246723E6,1.859159E6,3.36446E5,4.7994E5,6.21737E5,9.29651E5,1.69442E5,7.523E3,1.445E3,4.43457E5,3.6958E4,5.23552E5,9.8166E4,3.6537E5,1.70392E5,6.2579E4,6.2331E4,4.5373E4,2.536E3,9.85E2,8.421E3,2.9723E4,1.9258E4,7.373E3,1.49E3,4.7804E5,4.80187E5,1.189327E6,5.7396E4,1.128562E6,7.30597E5,2.79807E5,5.6639E4,5.052E4,4.2942E5,6.5446E4,5.56291E5,5.62552E5,3.67099E5,1.40809E5,2.8633E4,4.29845E5,1.3612E4,2.6991E4,9.967E3,4.9083E5,3.2722E4,2.2804E4,7.5362E4,3.4614E5,1.923E4,1.42937E5,2.7455E4],"tree_param":{"num_deleted":"0","num_feature":"11","num_nodes":"93","size_leaf_vector":"1"}},{"base_weights":[4.0186016E1,3.8621227E1,4.4880363E1,4.357371E1,3.8359787E1,5.168654E1,4.4522118E1,4.6380524E1,3.7935863E1,3.7914833E1,3.9249474E1,5.1339897E1,5.2761948E1,4.39228E1,4.5123306E1,4.6024857E1,4.7467712E1,3.7322937E1,3.8549637E1,3.7311386E1,3.8520836E1,3.864448E1,3.985585E1,1.5220252E1,5.1584732E1,1.579044E1,1.6523403E1,4.3581753E1,4.418626E1,4.4738747E1,4.5527245E1,4.5757206E1,4.6548008E1,4.7851856E1,4.550622E1,1.1095419E1,1.1274925E1,3.836798E1,3.9549114E1,3.698341E1,3.7563435E1,3.8343597E1,3.9500103E1,3.8335125E1,3.8883224E1,3.96685E1,4.088351E1,1.5405478E1,1.5552153E1,4.3562283E1,4.381419E1,4.4132282E1,4.433712E1,1.3358599E1,1.3429193E1,4.5298656E1,4.601714E1,1.36460285E1,1.3789288E1,1.3917649E1,1.4239976E1,1.432876E1,1.4829162E1,4.1838217E0,1.4758711E1,1.1449045E1,1.1604484E1,1.1791761E1,1.2217676E1,1.1112341E1,1.1081834E1,1.1242371E1,1.129583E1,1.1443838E1,1.1594575E1,1.1796574E1,1.211391E1,1.1506438E1,1.1393871E1,1.16166115E1,1.1670636E1,1.1836466E1,1.1998723E1,1.2215254E1,1.2509521E1,1.3074997E1,1.2868409E1,1.3197874E1,1.2997751E1,1.3258448E1,1.2995383E1,1.3576868E1,1.3265172E1,1.3762169E1,1.357825E1,1.3779255E1,1.3939411E1],"categories":[],"categories_nodes":[],"categories_segments":[],"categories_sizes":[],"default_left":[0,0,0,0,0,0,0,0,0,0,0,0,0,0,0,0,0,0,0,0,0,0,0,0,0,0,0,0,0,0,0,0,0,0,0,0,0,0,0,0,0,0,0,0,0,0,0,0,0,0,0,0,0,0,0,0,0,0,0,0,0,0,0,0,0,0,0,0,0,0,0,0,0,0,0,0,0,0,0,0,0,0,0,0,0,0,0,0,0,0,0,0,0,0,0,0,0],"id":7,"left_children":[1,3,5,7,9,11,13,15,17,19,21,23,25,27,29,31,33,35,37,39,41,43,45,-1,47,-1,-1,49,51,53,55,57,59,61,63,-1,-1,65,67,69,71,73,75,77,79,81,83,-1,-1,85,87,89,91,-1,-1,93,95,-1,-1,-1,-1,-1,-1,-1,-1,-1,-1,-1,-1,-1,-1,-1,-1,-1,-1,-1,-1,-1,-1,-1,-1,-1,-1,-1,-1,-1,-1,-1,-1,-1,-1,-1,-1,-1,-1,-1,-1],"loss_changes":[6.806528E7,8.996864E6,5.646336E6,5.512704E6,2.612224E6,4.0448E4,7.90528E5,8.7776E4,4.2128E4,1.607168E6,8.05632E5,1.0384E4,5.408E3,9.7152E4,1.68448E5,2.2432E4,4.1E4,3.704E3,8.992E3,1.81248E5,3.79648E5,7.9872E4,2.10048E5,0E0,1.056E3,0E0,0E0,2.56E2,3.2E3,1.024E3,5.7984E4,4.416E3,6.28E3,4.392E3,1.09467E6,0E0,0E0,1.664E3,9.36E2,1.024E3,8.32E3,1.10336E5,5.1104E4,1.92E3,3.84E2,6.3232E4,2.1216E4,0E0,0E0,4.416E3,1.32E3,2.1376E4,1.6032E4,0E0,0E0,5.824E3,4.48E3,0E0,0E0,0E0,0E0,0E0,0E0,0E0,0E0,0E0,0E0,0E0,0E0,0E0,0E0,0E0,0E0,0E0,0E0,0E0,0E0,0E0,0E0,0E0,0E0,0E0,0E0,0E0,0E0,0E0,0E0,0E0,0E0,0E0,0E0,0E0,0E0,0E0,0E0,0E0,0E0],"parents":[2147483647,0,0,1,1,2,2,3,3,4,4,5,5,6,6,7,7,8,8,9,9,10,10,11,11,12,12,13,13,14,14,15,15,16,16,17,17,18,18,19,19,20,20,21,21,22,22,24,24,27,27,28,28,29,29,30,30,31,31,32,32,33,33,34,34,37,37,38,38,39,39,40,40,41,41,42,42,43,43,44,44,45,45,46,46,49,49,50,50,51,51,52,52,55,55,56,56],"right_children":[2,4,6,8,10,12,14,16,18,20,22,24,26,28,30,32,34,36,38,40,42,44,46,-1,48,-1,-1,50,52,54,56,58,60,62,64,-1,-1,66,68,70,72,74,76,78,80,82,84,-1,-1,86,88,90,92,-1,-1,94,96,-1,-1,-1,-1,-1,-1,-1,-1,-1,-1,-1,-1,-1,-1,-1,-1,-1,-1,-1,-1,-1,-1,-1,-1,-1,-1,-1,-1,-1,-1,-1,-1,-1,-1,-1,-1,-1,-1,-1,-1],"split_conditions":[1.41E2,1.08532E5,5.314E4,1E0,1E0,4E0,3E0,4E0,3E0,3E0,3E0,2E0,6E0,2E0,4E0,3E0,6.689E4,2E0,5E0,2E0,5E0,2E0,5E0,1.5220252E1,3E0,1.579044E1,1.6523403E1,9.95155E5,7.74277E5,1.65434E5,5E0,2E0,6.689E4,6E0,1E0,1.1095419E1,1.1274925E1,4E0,6E0,5.51244E5,1E0,4E0,6E0,1.104799E6,2.19177E5,4E0,6E0,1.5405478E1,1.5552153E1,9.40087E5,1.050482E6,7.1893E5,8.29415E5,1.3358599E1,1.3429193E1,1.10113E5,6E0,1.36460285E1,1.3789288E1,1.3917649E1,1.4239976E1,1.432876E1,1.4829162E1,4.1838217E0,1.4758711E1,1.1449045E1,1.1604484E1,1.1791761E1,1.2217676E1,1.1112341E1,1.1081834E1,1.1242371E1,1.129583E1,1.1443838E1,1.1594575E1,1.1796574E1,1.211391E1,1.1506438E1,1.1393871E1,1.16166115E1,1.1670636E1,1.1836466E1,1.1998723E1,1.2215254E1,1.2509521E1,1.3074997E1,1.2868409E1,1.3197874E1,1.2997751E1,1.3258448E1,1.2995383E1,1.3576868E1,1.3265172E1,1.3762169E1,1.357825E1,1.3779255E1,1.3939411E1],"split_indices":[2,0,0,4,3,1,1,1,1,1,1,1,1,1,1,1,0,1,1,1,1,1,1,0,1,0,0,0,0,0,1,1,0,1,3,0,0,1,1,0,4,1,1,0,0,1,1,0,0,0,0,0,0,0,0,0,1,0,0,0,0,0,0,0,0,0,0,0,0,0,0,0,0,0,0,0,0,0,0,0,0,0,0,0,0,0,0,0,0,0,0,0,0,0,0,0,0],"split_type":[0,0,0,0,0,0,0,0,0,0,0,0,0,0,0,0,0,0,0,0,0,0,0,0,0,0,0,0,0,0,0,0,0,0,0,0,0,0,0,0,0,0,0,0,0,0,0,0,0,0,0,0,0,0,0,0,0,0,0,0,0,0,0,0,0,0,0,0,0,0,0,0,0,0,0,0,0,0,0,0,0,0,0,0,0,0,0,0,0,0,0,0,0,0,0,0,0],"sum_hessian":[9.2664E6,6.9498E6,2.3166E6,3.48475E5,6.601325E6,1.1583E5,2.20077E6,2.32645E5,1.1583E5,4.400555E6,2.20077E6,8.7632E4,2.8198E4,1.102133E6,1.098637E6,1.7533E5,5.7315E4,5.7986E4,5.7844E4,2.20495E6,2.195605E6,1.101677E6,1.099093E6,2.5285E4,6.2347E4,2.6753E4,1.445E3,4.80415E5,6.21718E5,5.62875E5,5.35762E5,1.16047E5,5.9283E4,4.7909E4,9.406E3,2.5273E4,3.2713E4,4.8981E4,8.863E3,9.58227E5,1.246723E6,1.859159E6,3.36446E5,4.7994E5,6.21737E5,9.29651E5,1.69442E5,3.2722E4,2.9625E4,4.43457E5,3.6958E4,4.58108E5,1.6361E5,6.0534E4,5.02341E5,3.6537E5,1.70392E5,5.042E4,6.5627E4,5.0728E4,8.555E3,4.5373E4,2.536E3,9.85E2,8.421E3,2.9723E4,1.9258E4,7.373E3,1.49E3,4.13935E5,5.44292E5,6.25176E5,6.21547E5,1.128562E6,7.30597E5,2.79807E5,5.6639E4,4.5468E5,2.526E4,6.5446E4,5.56291E5,5.62552E5,3.67099E5,1.40809E5,2.8633E4,4.29845E5,1.3612E4,2.6991E4,9.967E3,4.25386E5,3.2722E4,1.8834E4,1.44776E5,2.2468E4,3.42902E5,1.42937E5,2.7455E4],"tree_param":{"num_deleted":"0","num_feature":"11","num_nodes":"97","size_leaf_vector":"1"}},{"base_weights":[2.8130278E1,2.703491E1,3.1416368E1,3.0502087E1,2.6851877E1,3.6181255E1,3.116557E1,3.24668E1,2.65557E1,2.65404E1,2.747468E1,3.5938465E1,3.6934483E1,3.0746054E1,3.1586391E1,3.2217697E1,3.3228252E1,2.6126432E1,2.6985563E1,2.6117985E1,2.6964602E1,2.7051186E1,2.7899145E1,1.065435E1,3.6109833E1,1.0997409E1,3.7523136E1,3.050732E1,3.093048E1,3.1317165E1,3.1869183E1,3.2030254E1,3.2584064E1,3.349693E1,3.1856354E1,7.7669215E0,7.892549E0,2.685806E1,2.7687098E1,2.5888405E1,2.6294416E1,2.6840527E1,2.7650143E1,2.6834635E1,2.7218306E1,2.7767982E1,2.8618614E1,1.0783982E1,1.0886672E1,1.1195314E1,1.1569817E1,3.0484045E1,3.0605381E1,3.0763348E1,3.0974985E1,3.1207071E1,3.134825E1,3.1709137E1,3.2212177E1,9.552292E0,9.652558E0,9.856856E0,9.6930685E0,9.984939E0,1.0187289E1,2.9299507E0,1.0331617E1,8.01445E0,8.123317E0,8.254717E0,8.55483E0,7.8787227E0,7.7647443E0,7.9436126E0,7.881176E0,7.9997272E0,8.104462E0,8.257615E0,8.479796E0,7.9958835E0,8.056785E0,8.161895E0,8.235081E0,8.285535E0,8.3991165E0,8.550708E0,8.756795E0,9.152866E0,8.829852E0,9.275182E0,9.139907E0,9.305379E0,8.999606E0,9.529554E0,9.275542E0,9.378381E0,9.019646E0,9.59587E0,9.393389E0,9.521263E0,9.358858E0,9.674917E0,9.459869E0],"categories":[],"categories_nodes":[],"categories_segments":[],"categories_sizes":[],"default_left":[0,0,0,0,0,0,0,0,0,0,0,0,0,0,0,0,0,0,0,0,0,0,0,0,0,0,0,0,0,0,0,0,0,0,0,0,0,0,0,0,0,0,0,0,0,0,0,0,0,0,0,0,0,0,0,0,0,0,0,0,0,0,0,0,0,0,0,0,0,0,0,0,0,0,0,0,0,0,0,0,0,0,0,0,0,0,0,0,0,0,0,0,0,0,0,0,0,0,0,0,0,0,0],"id":8,"left_children":[1,3,5,7,9,11,13,15,17,19,21,23,25,27,29,31,33,35,37,39,41,43,45,-1,47,-1,49,51,53,55,57,59,61,63,65,-1,-1,67,69,71,73,75,77,79,81,83,85,-1,-1,-1,-1,87,89,91,93,95,97,99,101,-1,-1,-1,-1,-1,-1,-1,-1,-1,-1,-1,-1,-1,-1,-1,-1,-1,-1,-1,-1,-1,-1,-1,-1,-1,-1,-1,-1,-1,-1,-1,-1,-1,-1,-1,-1,-1,-1,-1,-1,-1,-1,-1,-1],"loss_changes":[3.3353216E7,4.409856E6,2.76736E6,2.701056E6,1.279488E6,1.9856E4,3.87584E5,4.3072E4,2.0672E4,7.87712E5,3.94752E5,5.08E3,3.216E3,4.7552E4,8.256E4,1.0992E4,2.006E4,1.816E3,4.432E3,8.8704E4,1.85856E5,3.9104E4,1.02976E5,0E0,5.2E2,0E0,4.83E2,1.6E2,3.712E3,9.6E2,2.8416E4,2.152E3,3.356E3,3.588E3,5.36278E5,0E0,0E0,8.16E2,4.745E2,1.408E3,4.736E3,5.6064E4,2.5088E4,1.152E3,9.92E2,3.104E4,1.0416E4,0E0,0E0,0E0,0E0,9.504E3,3.04E3,2.456E4,2.096E4,6.744E3,9.344E3,4.32E3,3.328E3,0E0,0E0,0E0,0E0,0E0,0E0,0E0,0E0,0E0,0E0,0E0,0E0,0E0,0E0,0E0,0E0,0E0,0E0,0E0,0E0,0E0,0E0,0E0,0E0,0E0,0E0,0E0,0E0,0E0,0E0,0E0,0E0,0E0,0E0,0E0,0E0,0E0,0E0,0E0,0E0,0E0,0E0,0E0,0E0],"parents":[2147483647,0,0,1,1,2,2,3,3,4,4,5,5,6,6,7,7,8,8,9,9,10,10,11,11,12,12,13,13,14,14,15,15,16,16,17,17,18,18,19,19,20,20,21,21,22,22,24,24,26,26,27,27,28,28,29,29,30,30,31,31,32,32,33,33,34,34,37,37,38,38,39,39,40,40,41,41,42,42,43,43,44,44,45,45,46,46,51,51,52,52,53,53,54,54,55,55,56,56,57,57,58,58],"right_children":[2,4,6,8,10,12,14,16,18,20,22,24,26,28,30,32,34,36,38,40,42,44,46,-1,48,-1,50,52,54,56,58,60,62,64,66,-1,-1,68,70,72,74,76,78,80,82,84,86,-1,-1,-1,-1,88,90,92,94,96,98,100,102,-1,-1,-1,-1,-1,-1,-1,-1,-1,-1,-1,-1,-1,-1,-1,-1,-1,-1,-1,-1,-1,-1,-1,-1,-1,-1,-1,-1,-1,-1,-1,-1,-1,-1,-1,-1,-1,-1,-1,-1,-1,-1,-1,-1],"split_conditions":[1.41E2,1.08532E5,5.314E4,1E0,1E0,4E0,3E0,4E0,3E0,3E0,3E0,2E0,5E0,2E0,4E0,3E0,6.689E4,2E0,5E0,2E0,5E0,2E0,5E0,1.065435E1,3E0,1.0997409E1,6E0,8.84509E5,2.20781E5,2.76132E5,5E0,2E0,5.4721E4,5E0,1E0,7.7669215E0,7.892549E0,4E0,6E0,1.0858E5,2.1923E5,1E0,6E0,2.19177E5,1.117926E6,4E0,6E0,1.0783982E1,1.0886672E1,1.1195314E1,1.1569817E1,8.29415E5,9.39835E5,1.65434E5,2.76132E5,2.20841E5,2.76207E5,1.000144E6,1.000144E6,9.552292E0,9.652558E0,9.856856E0,9.6930685E0,9.984939E0,1.0187289E1,2.9299507E0,1.0331617E1,8.01445E0,8.123317E0,8.254717E0,8.55483E0,7.8787227E0,7.7647443E0,7.9436126E0,7.881176E0,7.9997272E0,8.104462E0,8.257615E0,8.479796E0,7.9958835E0,8.056785E0,8.161895E0,8.235081E0,8.285535E0,8.3991165E0,8.550708E0,8.756795E0,9.152866E0,8.829852E0,9.275182E0,9.139907E0,9.305379E0,8.999606E0,9.529554E0,9.275542E0,9.378381E0,9.019646E0,9.59587E0,9.393389E0,9.521263E0,9.358858E0,9.674917E0,9.459869E0],"split_indices":[2,0,0,4,3,1,1,1,1,1,1,1,1,1,1,1,0,1,1,1,1,1,1,0,1,0,1,0,0,0,1,1,0,1,3,0,0,1,1,0,0,4,1,0,0,1,1,0,0,0,0,0,0,0,0,0,0,0,0,0,0,0,0,0,0,0,0,0,0,0,0,0,0,0,0,0,0,0,0,0,0,0,0,0,0,0,0,0,0,0,0,0,0,0,0,0,0,0,0,0,0,0,0],"split_type":[0,0,0,0,0,0,0,0,0,0,0,0,0,0,0,0,0,0,0,0,0,0,0,0,0,0,0,0,0,0,0,0,0,0,0,0,0,0,0,0,0,0,0,0,0,0,0,0,0,0,0,0,0,0,0,0,0,0,0,0,0,0,0,0,0,0,0,0,0,0,0,0,0,0,0,0,0,0,0,0,0,0,0,0,0,0,0,0,0,0,0,0,0,0,0,0,0,0,0,0,0,0,0],"sum_hessian":[9.2664E6,6.9498E6,2.3166E6,3.48475E5,6.601325E6,1.1583E5,2.20077E6,2.32645E5,1.1583E5,4.400555E6,2.20077E6,8.7632E4,2.8198E4,1.102133E6,1.098637E6,1.7533E5,5.7315E4,5.7986E4,5.7844E4,2.20495E6,2.195605E6,1.101677E6,1.099093E6,2.5285E4,6.2347E4,1.923E4,8.968E3,4.80415E5,6.21718E5,5.62875E5,5.35762E5,1.16047E5,5.9283E4,4.7909E4,9.406E3,2.5273E4,3.2713E4,4.8981E4,8.863E3,9.58227E5,1.246723E6,1.859159E6,3.36446E5,4.7994E5,6.21737E5,9.29651E5,1.69442E5,3.2722E4,2.9625E4,7.523E3,1.445E3,3.88506E5,9.1909E4,1.30888E5,4.9083E5,1.24152E5,4.38723E5,3.6537E5,1.70392E5,5.042E4,6.5627E4,2.9675E4,2.9608E4,3.2773E4,1.5136E4,9.85E2,8.421E3,2.9723E4,1.9258E4,7.373E3,1.49E3,1.4872E4,9.43355E5,1.42628E5,1.104095E6,9.2852E5,9.30639E5,2.79807E5,5.6639E4,5.052E4,4.2942E5,5.91288E5,3.0449E4,5.62552E5,3.67099E5,1.40809E5,2.8633E4,3.79275E5,9.231E3,2.8269E4,6.364E4,9.8166E4,3.2722E4,3.2722E4,4.58108E5,1.185E5,5.652E3,2.3973E4,4.1475E5,3.4614E5,1.923E4,1.61424E5,8.968E3],"tree_param":{"num_deleted":"0","num_feature":"11","num_nodes":"103","size_leaf_vector":"1"}},{"base_weights":[1.9691248E1,1.8924475E1,2.199156E1,2.13518E1,1.8796337E1,2.5327442E1,2.1815975E1,2.272706E1,1.8589417E1,1.8578299E1,1.9232307E1,2.5157291E1,2.5855316E1,2.1522308E1,2.2110556E1,2.2552591E1,2.3260365E1,1.828878E1,1.8890469E1,1.8407051E1,1.9113266E1,1.8935856E1,1.952944E1,7.4581685E0,2.527723E1,7.6983495E0,2.6268732E1,2.1355179E1,2.1651419E1,2.1922098E1,2.230851E1,2.242132E1,2.2809174E1,2.3448273E1,2.2300873E1,5.436942E0,5.5248575E0,1.8800978E1,1.9382856E1,1.8121904E1,1.8522076E1,1.8944519E1,1.9281488E1,1.8784271E1,1.905284E1,1.9437614E1,2.0033125E1,7.5488815E0,7.620785E0,7.837167E0,8.10127E0,2.1340477E1,2.1530998E1,2.1628374E1,2.1975574E1,2.1792099E1,2.1937721E1,2.2196468E1,2.2548628E1,6.6866565E0,6.7568254E0,6.8058248E0,7.0609007E0,7.0179615E0,7.3271756E0,2.0518627E0,7.232505E0,5.6102E0,5.686446E0,5.778633E0,5.9901085E0,5.422568E0,5.4505014E0,5.5218353E0,5.595049E0,5.6468153E0,5.76262E0,5.754105E0,5.85034E0,5.639512E0,5.558906E0,5.6831517E0,5.7196884E0,5.799882E0,5.8793907E0,5.98551E0,6.1298537E0,6.4064274E0,6.266403E0,6.496792E0,6.3571277E0,6.4962564E0,6.3105426E0,6.6359115E0,6.374549E0,6.544152E0,6.2318096E0,6.6139946E0,6.5736613E0,6.7774634E0,6.651155E0,6.746451E0,6.8587685E0],"categories":[],"categories_nodes":[],"categories_segments":[],"categories_sizes":[],"default_left":[0,0,0,0,0,0,0,0,0,0,0,0,0,0,0,0,0,0,0,0,0,0,0,0,0,0,0,0,0,0,0,0,0,0,0,0,0,0,0,0,0,0,0,0,0,0,0,0,0,0,0,0,0,0,0,0,0,0,0,0,0,0,0,0,0,0,0,0,0,0,0,0,0,0,0,0,0,0,0,0,0,0,0,0,0,0,0,0,0,0,0,0,0,0,0,0,0,0,0,0,0,0,0],"id":9,"left_children":[1,3,5,7,9,11,13,15,17,19,21,23,25,27,29,31,33,35,37,39,41,43,45,-1,47,-1,49,51,53,55,57,59,61,63,65,-1,-1,67,69,71,73,75,77,79,81,83,85,-1,-1,-1,-1,87,89,91,93,95,97,99,101,-1,-1,-1,-1,-1,-1,-1,-1,-1,-1,-1,-1,-1,-1,-1,-1,-1,-1,-1,-1,-1,-1,-1,-1,-1,-1,-1,-1,-1,-1,-1,-1,-1,-1,-1,-1,-1,-1,-1,-1,-1,-1,-1,-1],"loss_changes":[1.6343808E7,2.161152E6,1.356416E6,1.32344E6,6.272E5,9.752E3,1.89824E5,2.1128E4,1.014E4,4.02816E5,1.93472E5,2.492E3,1.59E3,2.3296E4,4.0576E4,5.392E3,9.812E3,8.9E2,2.186E3,1.09056E5,2.9952E4,1.92E4,5.0432E4,0E0,2.56E2,0E0,2.495E2,8E2,4.16E3,6.4E2,1.392E4,1.056E3,4.772E3,2E3,2.62723E5,0E0,0E0,4.02E2,2.405E2,1.728E3,3.488E4,1.6784E4,1.1488E4,1.376E3,4.96E2,1.52E4,5.104E3,0E0,0E0,0E0,0E0,2.416E3,1.116E3,8.448E3,3.846E3,8.88E2,9.12E2,3.232E3,2.728E3,0E0,0E0,0E0,0E0,0E0,0E0,0E0,0E0,0E0,0E0,0E0,0E0,0E0,0E0,0E0,0E0,0E0,0E0,0E0,0E0,0E0,0E0,0E0,0E0,0E0,0E0,0E0,0E0,0E0,0E0,0E0,0E0,0E0,0E0,0E0,0E0,0E0,0E0,0E0,0E0,0E0,0E0,0E0,0E0],"parents":[2147483647,0,0,1,1,2,2,3,3,4,4,5,5,6,6,7,7,8,8,9,9,10,10,11,11,12,12,13,13,14,14,15,15,16,16,17,17,18,18,19,19,20,20,21,21,22,22,24,24,26,26,27,27,28,28,29,29,30,30,31,31,32,32,33,33,34,34,37,37,38,38,39,39,40,40,41,41,42,42,43,43,44,44,45,45,46,46,51,51,52,52,53,53,54,54,55,55,56,56,57,57,58,58],"right_children":[2,4,6,8,10,12,14,16,18,20,22,24,26,28,30,32,34,36,38,40,42,44,46,-1,48,-1,50,52,54,56,58,60,62,64,66,-1,-1,68,70,72,74,76,78,80,82,84,86,-1,-1,-1,-1,88,90,92,94,96,98,100,102,-1,-1,-1,-1,-1,-1,-1,-1,-1,-1,-1,-1,-1,-1,-1,-1,-1,-1,-1,-1,-1,-1,-1,-1,-1,-1,-1,-1,-1,-1,-1,-1,-1,-1,-1,-1,-1,-1,-1,-1,-1,-1,-1,-1],"split_conditions":[1.41E2,1.08532E5,5.314E4,1E0,1E0,4E0,3E0,4E0,3E0,4E0,3E0,2E0,5E0,2E0,4E0,3E0,6.689E4,2E0,5E0,2E0,1E0,2E0,5E0,7.4581685E0,3E0,7.6983495E0,6E0,9.95155E5,9.9542E5,1.65434E5,5E0,2E0,6.689E4,6E0,1E0,5.436942E0,5.5248575E0,4E0,6E0,1E0,3E0,5E0,5E0,1.104799E6,2.19177E5,4E0,6E0,7.5488815E0,7.620785E0,7.837167E0,8.10127E0,9.40087E5,1.050482E6,9.40336E5,1.050759E6,1.10113E5,3.31479E5,1.10113E5,6E0,6.6866565E0,6.7568254E0,6.8058248E0,7.0609007E0,7.0179615E0,7.3271756E0,2.0518627E0,7.232505E0,5.6102E0,5.686446E0,5.778633E0,5.9901085E0,5.422568E0,5.4505014E0,5.5218353E0,5.595049E0,5.6468153E0,5.76262E0,5.754105E0,5.85034E0,5.639512E0,5.558906E0,5.6831517E0,5.7196884E0,5.799882E0,5.8793907E0,5.98551E0,6.1298537E0,6.4064274E0,6.266403E0,6.496792E0,6.3571277E0,6.4962564E0,6.3105426E0,6.6359115E0,6.374549E0,6.544152E0,6.2318096E0,6.6139946E0,6.5736613E0,6.7774634E0,6.651155E0,6.746451E0,6.8587685E0],"split_indices":[2,0,0,4,3,1,1,1,1,1,1,1,1,1,1,1,0,1,1,1,4,1,1,0,1,0,1,0,0,0,1,1,0,1,3,0,0,1,1,4,1,1,1,0,0,1,1,0,0,0,0,0,0,0,0,0,0,0,1,0,0,0,0,0,0,0,0,0,0,0,0,0,0,0,0,0,0,0,0,0,0,0,0,0,0,0,0,0,0,0,0,0,0,0,0,0,0,0,0,0,0,0,0],"split_type":[0,0,0,0,0,0,0,0,0,0,0,0,0,0,0,0,0,0,0,0,0,0,0,0,0,0,0,0,0,0,0,0,0,0,0,0,0,0,0,0,0,0,0,0,0,0,0,0,0,0,0,0,0,0,0,0,0,0,0,0,0,0,0,0,0,0,0,0,0,0,0,0,0,0,0,0,0,0,0,0,0,0,0,0,0,0,0,0,0,0,0,0,0,0,0,0,0,0,0,0,0,0,0],"sum_hessian":[9.2664E6,6.9498E6,2.3166E6,3.48475E5,6.601325E6,1.1583E5,2.20077E6,2.32645E5,1.1583E5,4.400555E6,2.20077E6,8.7632E4,2.8198E4,1.102133E6,1.098637E6,1.7533E5,5.7315E4,5.7986E4,5.7844E4,3.333512E6,1.067043E6,1.101677E6,1.099093E6,2.5285E4,6.2347E4,1.923E4,8.968E3,4.80415E5,6.21718E5,5.62875E5,5.35762E5,1.16047E5,5.9283E4,4.7909E4,9.406E3,2.5273E4,3.2713E4,4.8981E4,8.863E3,9.58227E5,2.375285E6,5.32744E5,5.34299E5,4.7994E5,6.21737E5,9.29651E5,1.69442E5,3.2722E4,2.9625E4,7.523E3,1.445E3,4.43457E5,3.6958E4,5.80515E5,4.1203E4,6.0534E4,5.02341E5,3.6537E5,1.70392E5,5.042E4,6.5627E4,5.0728E4,8.555E3,4.5373E4,2.536E3,9.85E2,8.421E3,2.9723E4,1.9258E4,7.373E3,1.49E3,4.7804E5,4.80187E5,1.246723E6,1.128562E6,3.64695E5,1.68049E5,3.65902E5,1.68397E5,4.5468E5,2.526E4,6.5446E4,5.56291E5,5.62552E5,3.67099E5,1.40809E5,2.8633E4,4.29845E5,1.3612E4,2.6991E4,9.967E3,5.56274E5,2.4241E4,3.4362E4,6.841E3,5.925E4,1.284E3,9.518E4,4.07161E5,2.2468E4,3.42902E5,1.42937E5,2.7455E4],"tree_param":{"num_deleted":"0","num_feature":"11","num_nodes":"103","size_leaf_vector":"1"}},{"base_weights":[1.3783901E1,1.3247152E1,1.5394143E1,1.4946502E1,1.3157444E1,1.7729599E1,1.5271216E1,1.5909159E1,1.301288E1,1.3004811E1,1.3462633E1,1.7610352E1,1.8099552E1,1.506565E1,1.5477424E1,1.5786962E1,1.6282684E1,1.2802323E1,1.3223729E1,1.2884936E1,1.3379299E1,1.3255109E1,1.3670633E1,5.2208E0,1.7694298E1,5.3889594E0,1.8389898E1,1.4948674E1,1.5156014E1,1.5345509E1,1.5615986E1,1.5933506E1,1.563999E1,1.6208593E1,1.7619204E1,3.8059213E0,1.2891488E1,1.3160922E1,1.3569307E1,1.268534E1,1.296545E1,1.3345613E1,1.398E1,1.3148999E1,1.3336998E1,1.3606352E1,1.4023233E1,5.2842836E0,5.3346257E0,5.486332E0,5.672574E0,1.4938357E1,1.5072068E1,1.5121224E1,1.5341408E1,1.5268464E1,1.5367276E1,1.5537537E1,1.5784112E1,4.665305E0,4.826111E0,4.657804E0,4.772611E0,4.912625E0,4.6081715E0,5.129898E0,6.1283975E0,3.8940346E0,3.8462968E0,3.927197E0,3.9806054E0,4.0452714E0,4.1942797E0,3.803581E0,3.8915331E0,3.8652854E0,3.9165313E0,3.9669948E0,4.040251E0,4.221673E0,4.1806183E0,3.9015791E0,3.9489903E0,4.022398E0,3.993484E0,4.0599256E0,4.1155777E0,4.1898623E0,4.290953E0,4.4859223E0,4.4123797E0,4.5478344E0,4.450184E0,4.54725E0,4.373002E0,4.772258E0,4.5509686E0,4.592435E0,4.330375E0,4.721205E0,4.6015654E0,4.5797596E0,4.6726823E0,4.5916586E0,4.7431817E0],"categories":[],"categories_nodes":[],"categories_segments":[],"categories_sizes":[],"default_left":[0,0,0,0,0,0,0,0,0,0,0,0,0,0,0,0,0,0,0,0,0,0,0,0,0,0,0,0,0,0,0,0,0,0,0,0,0,0,0,0,0,0,0,0,0,0,0,0,0,0,0,0,0,0,0,0,0,0,0,0,0,0,0,0,0,0,0,0,0,0,0,0,0,0,0,0,0,0,0,0,0,0,0,0,0,0,0,0,0,0,0,0,0,0,0,0,0,0,0,0,0,0,0,0,0],"id":10,"left_children":[1,3,5,7,9,11,13,15,17,19,21,23,25,27,29,31,33,35,37,39,41,43,45,-1,47,-1,49,51,53,55,57,59,61,63,65,-1,67,69,71,73,75,77,79,81,83,85,87,-1,-1,-1,-1,89,91,93,95,97,99,101,103,-1,-1,-1,-1,-1,-1,-1,-1,-1,-1,-1,-1,-1,-1,-1,-1,-1,-1,-1,-1,-1,-1,-1,-1,-1,-1,-1,-1,-1,-1,-1,-1,-1,-1,-1,-1,-1,-1,-1,-1,-1,-1,-1,-1,-1,-1],"loss_changes":[8.008704E6,1.059328E6,6.64832E5,6.48456E5,3.07328E5,4.792E3,9.3088E4,1.036E4,4.97E3,1.97376E5,9.4816E4,1.22E3,7.87E2,1.1408E4,1.9824E4,3.528E3,5.391E3,4.36E2,1.077E3,5.3376E4,2.1392E4,9.408E3,2.4736E4,0E0,1.26E2,0E0,1.29E2,3.84E2,3.792E3,7.2E2,6.816E3,4.902E3,2.436E3,7.432E3,4.027125E3,0E0,3.8E1,1.98E2,1.21875E2,1.696E3,1.7152E4,1.4896E4,3.7E1,8.16E2,9.36E2,7.456E3,2.506E3,0E0,0E0,0E0,0E0,1.288E3,5.43E2,1.012E4,9.29E3,3.884E3,4.424E3,3.544E3,1.92E3,0E0,0E0,0E0,0E0,0E0,0E0,0E0,0E0,0E0,0E0,0E0,0E0,0E0,0E0,0E0,0E0,0E0,0E0,0E0,0E0,0E0,0E0,0E0,0E0,0E0,0E0,0E0,0E0,0E0,0E0,0E0,0E0,0E0,0E0,0E0,0E0,0E0,0E0,0E0,0E0,0E0,0E0,0E0,0E0,0E0,0E0],"parents":[2147483647,0,0,1,1,2,2,3,3,4,4,5,5,6,6,7,7,8,8,9,9,10,10,11,11,12,12,13,13,14,14,15,15,16,16,17,17,18,18,19,19,20,20,21,21,22,22,24,24,26,26,27,27,28,28,29,29,30,30,31,31,32,32,33,33,34,34,36,36,37,37,38,38,39,39,40,40,41,41,42,42,43,43,44,44,45,45,46,46,51,51,52,52,53,53,54,54,55,55,56,56,57,57,58,58],"right_children":[2,4,6,8,10,12,14,16,18,20,22,24,26,28,30,32,34,36,38,40,42,44,46,-1,48,-1,50,52,54,56,58,60,62,64,66,-1,68,70,72,74,76,78,80,82,84,86,88,-1,-1,-1,-1,90,92,94,96,98,100,102,104,-1,-1,-1,-1,-1,-1,-1,-1,-1,-1,-1,-1,-1,-1,-1,-1,-1,-1,-1,-1,-1,-1,-1,-1,-1,-1,-1,-1,-1,-1,-1,-1,-1,-1,-1,-1,-1,-1,-1,-1,-1,-1,-1,-1,-1,-1],"split_conditions":[1.41E2,1.08532E5,5.314E4,1E0,1E0,4E0,3E0,4E0,3E0,4E0,3E0,2E0,5E0,2E0,4E0,5.4721E4,6E0,2E0,5E0,2E0,6E0,2E0,5E0,5.2208E0,3E0,5.3889594E0,6E0,9.95155E5,8.84979E5,2.76132E5,5E0,2E0,6.689E4,6.689E4,6.689E4,3.8059213E0,5.9864E4,4E0,6E0,1.111031E6,3E0,1E0,4.40571E5,1.77333E5,3.85135E5,4E0,6E0,5.2842836E0,5.3346257E0,5.486332E0,5.672574E0,9.39835E5,1.050482E6,8.29632E5,9.40087E5,2.20841E5,3.31479E5,1.65479E5,5.9853E4,4.665305E0,4.826111E0,4.657804E0,4.772611E0,4.912625E0,4.6081715E0,5.129898E0,6.1283975E0,3.8940346E0,3.8462968E0,3.927197E0,3.9806054E0,4.0452714E0,4.1942797E0,3.803581E0,3.8915331E0,3.8652854E0,3.9165313E0,3.9669948E0,4.040251E0,4.221673E0,4.1806183E0,3.9015791E0,3.9489903E0,4.022398E0,3.993484E0,4.0599256E0,4.1155777E0,4.1898623E0,4.290953E0,4.4859223E0,4.4123797E0,4.5478344E0,4.450184E0,4.54725E0,4.373002E0,4.772258E0,4.5509686E0,4.592435E0,4.330375E0,4.721205E0,4.6015654E0,4.5797596E0,4.6726823E0,4.5916586E0,4.7431817E0],"split_indices":[2,0,0,4,3,1,1,1,1,1,1,1,1,1,1,0,1,1,1,1,1,1,1,0,1,0,1,0,0,0,1,1,0,0,0,0,0,1,1,0,1,4,0,0,0,1,1,0,0,0,0,0,0,0,0,0,0,0,0,0,0,0,0,0,0,0,0,0,0,0,0,0,0,0,0,0,0,0,0,0,0,0,0,0,0,0,0,0,0,0,0,0,0,0,0,0,0,0,0,0,0,0,0,0,0],"split_type":[0,0,0,0,0,0,0,0,0,0,0,0,0,0,0,0,0,0,0,0,0,0,0,0,0,0,0,0,0,0,0,0,0,0,0,0,0,0,0,0,0,0,0,0,0,0,0,0,0,0,0,0,0,0,0,0,0,0,0,0,0,0,0,0,0,0,0,0,0,0,0,0,0,0,0,0,0,0,0,0,0,0,0,0,0,0,0,0,0,0,0,0,0,0,0,0,0,0,0,0,0,0,0,0,0],"sum_hessian":[9.2664E6,6.9498E6,2.3166E6,3.48475E5,6.601325E6,1.1583E5,2.20077E6,2.32645E5,1.1583E5,4.400555E6,2.20077E6,8.7632E4,2.8198E4,1.102133E6,1.098637E6,1.7533E5,5.7315E4,5.7986E4,5.7844E4,3.333512E6,1.067043E6,1.101677E6,1.099093E6,2.5285E4,6.2347E4,1.923E4,8.968E3,4.80415E5,6.21718E5,5.62875E5,5.35762E5,8.7739E4,8.7591E4,5.4317E4,2.998E3,2.5273E4,3.2713E4,4.8981E4,8.863E3,9.58227E5,2.375285E6,1.010404E6,5.6639E4,4.7994E5,6.21737E5,9.29651E5,1.69442E5,3.2722E4,2.9625E4,7.523E3,1.445E3,4.43457E5,3.6958E4,5.23552E5,9.8166E4,1.24152E5,4.38723E5,3.6537E5,1.70392E5,2.516E4,6.2579E4,6.1545E4,2.6046E4,4.5373E4,8.944E3,2.536E3,4.62E2,1.4412E4,1.8301E4,2.9723E4,1.9258E4,7.373E3,1.49E3,9.36251E5,2.1976E4,1.246723E6,1.128562E6,5.04415E5,5.05989E5,1.8359E4,3.828E4,4.3514E4,4.36426E5,1.63615E5,4.58122E5,5.62552E5,3.67099E5,1.40809E5,2.8633E4,4.16775E5,2.6682E4,2.6991E4,9.967E3,4.9083E5,3.2722E4,2.2804E4,7.5362E4,1.185E5,5.652E3,3.1562E4,4.07161E5,4.4957E4,3.20413E5,8.968E3,1.61424E5],"tree_param":{"num_deleted":"0","num_feature":"11","num_nodes":"105","size_leaf_vector":"1"}},{"base_weights":[9.648756E0,9.273022E0,1.0775955E1,1.046276E1,9.210216E0,1.2410978E1,1.0689896E1,1.11366005E1,9.109263E0,9.103373E0,9.42385E0,1.2327402E1,1.2670264E1,1.0546E1,1.083424E1,1.0970642E1,1.130168E1,8.961833E0,9.256899E0,9.019453E0,9.365535E0,9.27859E0,9.569443E0,3.6546144E0,1.2386155E1,3.7723508E0,1.2874181E1,1.04641285E1,1.0609247E1,1.0741897E1,1.0931237E1,1.1039741E1,1.0891369E1,1.1274242E1,1.2337206E1,2.664194E0,9.024282E0,9.21282E0,9.499432E0,8.879738E0,9.075812E0,9.297632E0,9.512958E0,9.204302E0,9.335921E0,9.524439E0,9.816298E0,3.6990416E0,3.7342832E0,3.8406522E0,3.9719865E0,1.0446545E1,1.053834E1,1.054833E1,1.071363E1,1.0694237E1,1.0766536E1,1.0953407E1,1.0531804E1,3.2676442E0,3.3454733E0,3.2875624E0,3.2516246E0,3.4330695E0,3.3323476E0,3.5915391E0,4.293843E0,2.7259026E0,2.692475E0,2.7490811E0,2.7864902E0,2.8318496E0,2.936841E0,2.6712408E0,2.6420488E0,2.7006478E0,2.7448878E0,2.7797313E0,2.9610596E0,2.8372865E0,2.9358468E0,2.7658997E0,2.722061E0,2.7981963E0,2.8507843E0,2.8419466E0,2.8809006E0,2.9329069E0,3.0037115E0,3.1393135E0,2.9138427E0,3.2251332E0,3.1331868E0,3.1838539E0,2.951508E0,3.5000043E0,3.1899436E0,3.2263901E0,3.130377E0,3.2721272E0,3.2193248E0,3.2733152E0,3.5019171E0,3.142689E0,3.4691567E0],"categories":[],"categories_nodes":[],"categories_segments":[],"categories_sizes":[],"default_left":[0,0,0,0,0,0,0,0,0,0,0,0,0,0,0,0,0,0,0,0,0,0,0,0,0,0,0,0,0,0,0,0,0,0,0,0,0,0,0,0,0,0,0,0,0,0,0,0,0,0,0,0,0,0,0,0,0,0,0,0,0,0,0,0,0,0,0,0,0,0,0,0,0,0,0,0,0,0,0,0,0,0,0,0,0,0,0,0,0,0,0,0,0,0,0,0,0,0,0,0,0,0,0,0,0],"id":11,"left_children":[1,3,5,7,9,11,13,15,17,19,21,23,25,27,29,31,33,35,37,39,41,43,45,-1,47,-1,49,51,53,55,57,59,61,63,65,-1,67,69,71,73,75,77,79,81,83,85,87,-1,-1,-1,-1,89,91,93,95,97,99,101,103,-1,-1,-1,-1,-1,-1,-1,-1,-1,-1,-1,-1,-1,-1,-1,-1,-1,-1,-1,-1,-1,-1,-1,-1,-1,-1,-1,-1,-1,-1,-1,-1,-1,-1,-1,-1,-1,-1,-1,-1,-1,-1,-1,-1,-1,-1],"loss_changes":[3.92448E6,5.19168E5,3.25824E5,3.17724E5,1.50656E5,2.354E3,4.56E4,6.248E3,2.438E3,9.6736E4,4.6448E4,5.98E2,3.89E2,5.584E3,9.72E3,5.15E2,3.173E3,2.14E2,5.305E2,2.6176E4,1.0584E4,4.616E3,1.212E4,0E0,6.1E1,0E0,6.675E1,5.16E2,3.848E3,5.44E2,4.632E3,9.01E2,7.2E1,3.075E3,1.9936562E3,0E0,1.85E1,9.725E1,6.16875E1,1.624E3,1.2848E4,1.3236E4,4.994E3,8.8E2,8E2,3.648E3,1.229E3,0E0,0E0,0E0,0E0,4.984E3,1.728E3,1.788E4,1.7446E4,2.898E3,1.732E3,1.5344E4,1.5135E3,0E0,0E0,0E0,0E0,0E0,0E0,0E0,0E0,0E0,0E0,0E0,0E0,0E0,0E0,0E0,0E0,0E0,0E0,0E0,0E0,0E0,0E0,0E0,0E0,0E0,0E0,0E0,0E0,0E0,0E0,0E0,0E0,0E0,0E0,0E0,0E0,0E0,0E0,0E0,0E0,0E0,0E0,0E0,0E0,0E0,0E0],"parents":[2147483647,0,0,1,1,2,2,3,3,4,4,5,5,6,6,7,7,8,8,9,9,10,10,11,11,12,12,13,13,14,14,15,15,16,16,17,17,18,18,19,19,20,20,21,21,22,22,24,24,26,26,27,27,28,28,29,29,30,30,31,31,32,32,33,33,34,34,36,36,37,37,38,38,39,39,40,40,41,41,42,42,43,43,44,44,45,45,46,46,51,51,52,52,53,53,54,54,55,55,56,56,57,57,58,58],"right_children":[2,4,6,8,10,12,14,16,18,20,22,24,26,28,30,32,34,36,38,40,42,44,46,-1,48,-1,50,52,54,56,58,60,62,64,66,-1,68,70,72,74,76,78,80,82,84,86,88,-1,-1,-1,-1,90,92,94,96,98,100,102,104,-1,-1,-1,-1,-1,-1,-1,-1,-1,-1,-1,-1,-1,-1,-1,-1,-1,-1,-1,-1,-1,-1,-1,-1,-1,-1,-1,-1,-1,-1,-1,-1,-1,-1,-1,-1,-1,-1,-1,-1,-1,-1,-1,-1,-1,-1],"split_conditions":[1.41E2,1.08532E5,5.314E4,1E0,1E0,4E0,3E0,3E0,3E0,4E0,3E0,2E0,5E0,2E0,4E0,6.6861E4,6E0,2E0,5E0,2E0,5E0,2E0,5E0,3.6546144E0,3E0,3.7723508E0,6E0,8.84509E5,6.63579E5,3.86832E5,1.000144E6,2E0,2E0,5.4721E4,6.689E4,2.664194E0,5.9864E4,4E0,6E0,8.83259E5,1E0,1.062862E6,6E0,1.049002E6,1.117926E6,4E0,6E0,3.6990416E0,3.7342832E0,3.8406522E0,3.9719865E0,8.29415E5,9.39835E5,6.08232E5,7.18745E5,3.31479E5,4.97782E5,9.44817E5,6E0,3.2676442E0,3.3454733E0,3.2875624E0,3.2516246E0,3.4330695E0,3.3323476E0,3.5915391E0,4.293843E0,2.7259026E0,2.692475E0,2.7490811E0,2.7864902E0,2.8318496E0,2.936841E0,2.6712408E0,2.6420488E0,2.7006478E0,2.7448878E0,2.7797313E0,2.9610596E0,2.8372865E0,2.9358468E0,2.7658997E0,2.722061E0,2.7981963E0,2.8507843E0,2.8419466E0,2.8809006E0,2.9329069E0,3.0037115E0,3.1393135E0,2.9138427E0,3.2251332E0,3.1331868E0,3.1838539E0,2.951508E0,3.5000043E0,3.1899436E0,3.2263901E0,3.130377E0,3.2721272E0,3.2193248E0,3.2733152E0,3.5019171E0,3.142689E0,3.4691567E0],"split_indices":[2,0,0,4,3,1,1,1,1,1,1,1,1,1,1,0,1,1,1,1,1,1,1,0,1,0,1,0,0,0,0,1,1,0,0,0,0,1,1,0,4,0,1,0,0,1,1,0,0,0,0,0,0,0,0,0,0,0,1,0,0,0,0,0,0,0,0,0,0,0,0,0,0,0,0,0,0,0,0,0,0,0,0,0,0,0,0,0,0,0,0,0,0,0,0,0,0,0,0,0,0,0,0,0,0],"split_type":[0,0,0,0,0,0,0,0,0,0,0,0,0,0,0,0,0,0,0,0,0,0,0,0,0,0,0,0,0,0,0,0,0,0,0,0,0,0,0,0,0,0,0,0,0,0,0,0,0,0,0,0,0,0,0,0,0,0,0,0,0,0,0,0,0,0,0,0,0,0,0,0,0,0,0,0,0,0,0,0,0,0,0,0,0,0,0,0,0,0,0,0,0,0,0,0,0,0,0,0,0,0,0,0,0],"sum_hessian":[9.2664E6,6.9498E6,2.3166E6,3.48475E5,6.601325E6,1.1583E5,2.20077E6,2.32645E5,1.1583E5,4.400555E6,2.20077E6,8.7632E4,2.8198E4,1.102133E6,1.098637E6,1.16047E5,1.16598E5,5.7986E4,5.7844E4,3.333512E6,1.067043E6,1.101677E6,1.099093E6,2.5285E4,6.2347E4,1.923E4,8.968E3,4.80415E5,6.21718E5,5.62875E5,5.35762E5,6.1929E4,5.4118E4,1.136E5,2.998E3,2.5273E4,3.2713E4,4.8981E4,8.863E3,9.58227E5,2.375285E6,7.30597E5,3.36446E5,4.7994E5,6.21737E5,9.29651E5,1.69442E5,3.2722E4,2.9625E4,7.523E3,1.445E3,3.88506E5,9.1909E4,3.92664E5,2.29054E5,1.91975E5,3.709E5,5.07564E5,2.8198E4,2.6739E4,3.519E4,2.3681E4,3.0437E4,5.6275E4,5.7325E4,2.536E3,4.62E2,1.4412E4,1.8301E4,2.9723E4,1.9258E4,7.373E3,1.49E3,7.17882E5,2.40345E5,1.189001E6,1.186284E6,6.92101E5,3.8496E4,2.79807E5,5.6639E4,4.2942E5,5.052E4,5.91288E5,3.0449E4,5.62552E5,3.67099E5,1.40809E5,2.8633E4,3.79275E5,9.231E3,2.8269E4,6.364E4,3.59942E5,3.2722E4,1.7826E4,2.11228E5,1.55714E5,3.6261E4,7.465E4,2.9625E5,4.79366E5,2.8198E4,2.6753E4,1.445E3],"tree_param":{"num_deleted":"0","num_feature":"11","num_nodes":"105","size_leaf_vector":"1"}},{"base_weights":[6.7541485E0,6.4911294E0,7.543202E0,7.324075E0,6.4471583E0,8.687896E0,7.482951E0,7.795751E0,6.376653E0,6.3391867E0,6.5555186E0,8.629324E0,8.869608E0,7.382217E0,7.5839987E0,7.7594075E0,8.230539E0,6.27343E0,6.48002E0,6.2613273E0,6.495013E0,6.6277413E0,6.4107385E0,2.5582771E0,8.670445E0,2.640708E0,9.01281E0,7.330865E0,7.439261E0,7.5502644E0,7.7677283E0,7.6795673E0,7.8532305E0,8.328502E0,7.696865E0,1.8649702E0,6.317168E0,6.449081E0,6.6502557E0,6.250315E0,6.45949E0,6.4430246E0,6.535135E0,6.5549994E0,6.7043114E0,6.6917515E0,6.359327E0,2.5893645E0,2.614045E0,2.6886141E0,2.7812152E0,7.3877754E0,6.8185506E0,7.901263E0,7.381494E0,7.455781E0,7.566172E0,7.7896276E0,7.372719E0,2.3196185E0,2.2880607E0,2.393935E0,2.3185995E0,2.4653614E0,2.5360317E0,-9.7394955E-1,2.5062103E0,1.908192E0,1.8847767E0,1.9243836E0,1.9505838E0,1.9824103E0,2.0563836E0,1.8789892E0,1.7854389E0,2.0022082E0,1.9154125E0,1.8883551E0,1.9353784E0,1.9320735E0,1.963886E0,1.9437126E0,1.9893725E0,1.8625504E0,2.0157332E0,1.9545362E0,2.0642357E0,1.8998121E0,2.0279312E0,2.196441E0,2.3754268E0,2.1273162E0,1.9823315E0,2.2571468E0,2.4578044E0,2.0955825E0,2.2314239E0,2.307162E0,2.1962175E0,2.353691E0,2.2632983E0,2.3279757E0,2.4881244E0,2.1697586E0,2.4291234E0],"categories":[],"categories_nodes":[],"categories_segments":[],"categories_sizes":[],"default_left":[0,0,0,0,0,0,0,0,0,0,0,0,0,0,0,0,0,0,0,0,0,0,0,0,0,0,0,0,0,0,0,0,0,0,0,0,0,0,0,0,0,0,0,0,0,0,0,0,0,0,0,0,0,0,0,0,0,0,0,0,0,0,0,0,0,0,0,0,0,0,0,0,0,0,0,0,0,0,0,0,0,0,0,0,0,0,0,0,0,0,0,0,0,0,0,0,0,0,0,0,0,0,0,0,0],"id":12,"left_children":[1,3,5,7,9,11,13,15,17,19,21,23,25,27,29,31,33,35,37,39,41,43,45,-1,47,-1,49,51,53,55,57,59,61,63,65,-1,67,69,71,73,75,77,79,81,83,85,87,-1,-1,-1,-1,89,91,93,95,97,99,101,103,-1,-1,-1,-1,-1,-1,-1,-1,-1,-1,-1,-1,-1,-1,-1,-1,-1,-1,-1,-1,-1,-1,-1,-1,-1,-1,-1,-1,-1,-1,-1,-1,-1,-1,-1,-1,-1,-1,-1,-1,-1,-1,-1,-1,-1,-1],"loss_changes":[1.923104E6,2.54464E5,1.59712E5,1.55676E5,7.7216E4,1.157E3,2.2336E4,3.612E3,1.1955E3,4.008E4,3.44E4,2.92E2,1.9225E2,3.176E3,6.748E3,1.548E3,8.7325E2,1.0475E2,2.6175E2,4.776E3,2.26E3,1.22E4,1.5796E4,0E0,3.05E1,0E0,3.4375E1,1.686E4,1.3876E4,1.34E3,1.417E3,2.625E2,1.4935E3,1.3975E2,2.0120578E4,0E0,9.25E0,4.75E1,3.115625E1,8.064E3,1.819E3,5.46E2,6.14E2,6.484E3,7.816E3,5.6165E3,9.836E3,0E0,0E0,0E0,0E0,1.83E4,3.28525E3,6.31925E3,1.0352E4,4.1875E3,4.788E3,2.353E3,8.521875E2,0E0,0E0,0E0,0E0,0E0,0E0,0E0,0E0,0E0,0E0,0E0,0E0,0E0,0E0,0E0,0E0,0E0,0E0,0E0,0E0,0E0,0E0,0E0,0E0,0E0,0E0,0E0,0E0,0E0,0E0,0E0,0E0,0E0,0E0,0E0,0E0,0E0,0E0,0E0,0E0,0E0,0E0,0E0,0E0,0E0,0E0],"parents":[2147483647,0,0,1,1,2,2,3,3,4,4,5,5,6,6,7,7,8,8,9,9,10,10,11,11,12,12,13,13,14,14,15,15,16,16,17,17,18,18,19,19,20,20,21,21,22,22,24,24,26,26,27,27,28,28,29,29,30,30,31,31,32,32,33,33,34,34,36,36,37,37,38,38,39,39,40,40,41,41,42,42,43,43,44,44,45,45,46,46,51,51,52,52,53,53,54,54,55,55,56,56,57,57,58,58],"right_children":[2,4,6,8,10,12,14,16,18,20,22,24,26,28,30,32,34,36,38,40,42,44,46,-1,48,-1,50,52,54,56,58,60,62,64,66,-1,68,70,72,74,76,78,80,82,84,86,88,-1,-1,-1,-1,90,92,94,96,98,100,102,104,-1,-1,-1,-1,-1,-1,-1,-1,-1,-1,-1,-1,-1,-1,-1,-1,-1,-1,-1,-1,-1,-1,-1,-1,-1,-1,-1,-1,-1,-1,-1,-1,-1,-1,-1,-1,-1,-1,-1,-1,-1,-1,-1,-1,-1,-1],"split_conditions":[1.41E2,1.08532E5,5.314E4,1E0,3E0,4E0,3E0,5E0,3E0,1E0,1E0,2E0,5E0,5.5288E5,5E0,3E0,6.689E4,2E0,5E0,1.062862E6,2E0,4E0,2.19377E5,2.5582771E0,3E0,2.640708E0,6E0,4.97533E5,6.08232E5,1.65479E5,1.000144E6,5.4721E4,5.4721E4,5.316E4,1E0,1.8649702E0,5.9864E4,4E0,6E0,1.049478E6,1.105068E6,1.63851E5,2.19177E5,1E0,1.21927E5,4E0,1.050482E6,2.5893645E0,2.614045E0,2.6886141E0,2.7812152E0,4.42179E5,2E0,2E0,6.63579E5,5.9853E4,2.20841E5,9.44817E5,6E0,2.3196185E0,2.2880607E0,2.393935E0,2.3185995E0,2.4653614E0,2.5360317E0,-9.7394955E-1,2.5062103E0,1.908192E0,1.8847767E0,1.9243836E0,1.9505838E0,1.9824103E0,2.0563836E0,1.8789892E0,1.7854389E0,2.0022082E0,1.9154125E0,1.8883551E0,1.9353784E0,1.9320735E0,1.963886E0,1.9437126E0,1.9893725E0,1.8625504E0,2.0157332E0,1.9545362E0,2.0642357E0,1.8998121E0,2.0279312E0,2.196441E0,2.3754268E0,2.1273162E0,1.9823315E0,2.2571468E0,2.4578044E0,2.0955825E0,2.2314239E0,2.307162E0,2.1962175E0,2.353691E0,2.2632983E0,2.3279757E0,2.4881244E0,2.1697586E0,2.4291234E0],"split_indices":[2,0,0,4,1,1,1,1,1,3,5,1,1,0,1,1,0,1,1,0,1,1,0,0,1,0,1,0,0,0,0,0,0,0,3,0,0,1,1,0,0,0,0,3,0,1,0,0,0,0,0,0,1,1,0,0,0,0,1,0,0,0,0,0,0,0,0,0,0,0,0,0,0,0,0,0,0,0,0,0,0,0,0,0,0,0,0,0,0,0,0,0,0,0,0,0,0,0,0,0,0,0,0,0,0],"split_type":[0,0,0,0,0,0,0,0,0,0,0,0,0,0,0,0,0,0,0,0,0,0,0,0,0,0,0,0,0,0,0,0,0,0,0,0,0,0,0,0,0,0,0,0,0,0,0,0,0,0,0,0,0,0,0,0,0,0,0,0,0,0,0,0,0,0,0,0,0,0,0,0,0,0,0,0,0,0,0,0,0,0,0,0,0,0,0,0,0,0,0,0,0,0,0,0,0,0,0,0,0,0,0,0,0],"sum_hessian":[9.2664E6,6.9498E6,2.3166E6,3.48475E5,6.601325E6,1.1583E5,2.20077E6,2.32645E5,1.1583E5,3.306627E6,3.294698E6,8.7632E4,2.8198E4,1.102133E6,1.098637E6,2.14716E5,1.7929E4,5.7986E4,5.7844E4,2.20495E6,1.101677E6,2.198129E6,1.096569E6,2.5285E4,6.2347E4,1.923E4,8.968E3,5.8007E5,5.22063E5,9.28245E5,1.70392E5,1.16047E5,9.8669E4,1.5136E4,2.793E3,2.5273E4,3.2713E4,4.8981E4,8.863E3,2.0889E6,1.1605E5,4.7994E5,6.21737E5,1.127289E6,1.07084E6,1.69572E5,9.26997E5,3.2722E4,2.9625E4,7.523E3,1.445E3,5.22063E5,5.8007E4,5.8007E4,4.64056E5,1.33832E5,7.94413E5,1.61424E5,8.968E3,5.8064E4,5.7983E4,4.8913E4,4.9756E4,8.063E3,7.073E3,1.58E2,2.635E3,1.4412E4,1.8301E4,2.9723E4,1.9258E4,7.373E3,1.49E3,2.001917E6,8.6983E4,2.9973E4,8.6077E4,2.526E4,4.5468E5,6.5446E4,5.56291E5,5.64737E5,5.62552E5,3.1049E4,1.039791E6,8.768E4,8.1892E4,8.69231E5,5.7766E4,4.64056E5,5.8007E4,2.5285E4,3.2722E4,2.5285E4,3.2722E4,5.8007E4,4.06049E5,4.8855E4,8.4977E4,5.7569E4,7.36844E5,1.52456E5,8.968E3,7.523E3,1.445E3],"tree_param":{"num_deleted":"0","num_feature":"11","num_nodes":"105","size_leaf_vector":"1"}},{"base_weights":[4.7279115E0,4.543794E0,5.28026E0,5.1269336E0,4.5130105E0,6.081661E0,5.238078E0,5.457085E0,4.4637814E0,4.4587164E0,4.6215715E0,6.0406055E0,6.209033E0,5.1974874E0,5.364215E0,5.4316177E0,5.761761E0,4.391504E0,4.5361595E0,4.3829255E0,4.534828E0,4.5787597E0,4.754357E0,1.790821E0,6.0693855E0,1.8485432E0,6.309594E0,5.1119027E0,5.232192E0,5.393915E0,5.2057514E0,5.375713E0,5.497314E0,5.6860094E0,6.1370053E0,4.351681E0,4.4221354E0,4.514448E0,4.655623E0,4.5008945E0,4.367791E0,4.5068727E0,4.689292E0,4.6685863E0,4.548662E0,4.5148907E0,4.78252E0,1.8125819E0,1.829849E0,1.8821416E0,1.9474353E0,5.1056995E0,5.186197E0,5.1875343E0,5.263143E0,5.3443084E0,6.137795E0,4.6545863E0,5.4812465E0,1.6230904E0,1.6008099E0,1.6207713E0,1.6780547E0,1.7459016E0,1.4883977E0,1.7642497E0,2.2582343E0,1.3003638E0,1.3236783E0,1.3357708E0,1.3193779E0,1.3470896E0,1.3654457E0,1.3877642E0,1.4398782E0,1.2953382E0,1.3983059E0,1.2921672E0,1.3281883E0,1.3489013E0,1.4320014E0,1.3951662E0,1.4641747E0,1.3778129E0,1.4450252E0,1.3505609E0,1.370289E0,1.3154285E0,1.438967E0,1.429848E0,1.5217593E0,1.5341758E0,1.453738E0,1.5742018E0,1.5060333E0,1.5709537E0,1.4241958E0,1.6736571E0,1.5673755E0,1.6184374E0,1.3912163E0,1.8502688E0,1.6748374E0,1.3777413E0,1.7401901E0,1.7509723E0,1.5377173E0],"categories":[],"categories_nodes":[],"categories_segments":[],"categories_sizes":[],"default_left":[0,0,0,0,0,0,0,0,0,0,0,0,0,0,0,0,0,0,0,0,0,0,0,0,0,0,0,0,0,0,0,0,0,0,0,0,0,0,0,0,0,0,0,0,0,0,0,0,0,0,0,0,0,0,0,0,0,0,0,0,0,0,0,0,0,0,0,0,0,0,0,0,0,0,0,0,0,0,0,0,0,0,0,0,0,0,0,0,0,0,0,0,0,0,0,0,0,0,0,0,0,0,0,0,0,0,0],"id":13,"left_children":[1,3,5,7,9,11,13,15,17,19,21,23,25,27,29,31,33,35,37,39,41,43,45,-1,47,-1,49,51,53,55,57,59,61,63,65,67,69,71,73,75,77,79,81,83,85,87,89,-1,-1,-1,-1,91,93,95,97,99,101,103,105,-1,-1,-1,-1,-1,-1,-1,-1,-1,-1,-1,-1,-1,-1,-1,-1,-1,-1,-1,-1,-1,-1,-1,-1,-1,-1,-1,-1,-1,-1,-1,-1,-1,-1,-1,-1,-1,-1,-1,-1,-1,-1,-1,-1,-1,-1,-1,-1],"loss_changes":[9.42352E5,1.24736E5,7.8276E4,7.6271E4,3.8896E4,5.68E2,1.124E4,1.774E3,5.8575E2,2.5368E4,1.2488E4,1.4325E2,9.5E1,4.92E3,2.494E3,7.585E2,4.7475E2,5.1625E1,1.29E2,3.92E3,9.46E3,4.476E3,3.596E3,0E0,1.475E1,0E0,1.765625E1,1.96E2,1.608E3,1.6618E4,1.281975E4,1.3025E2,8.6925E2,1.4174688E3,1.02396094E3,7.125E0,4.5E0,2.34375E1,1.5765625E1,7.3295E3,7.02E3,5.2E3,2.47E3,4.673E3,1.084E3,2.049125E3,2.254E3,0E0,0E0,0E0,0E0,9.23E2,3.489375E2,1.0432E4,8.488E3,1.5069E4,4.315E2,1.98075E3,7.0945E3,0E0,0E0,0E0,0E0,0E0,0E0,0E0,0E0,0E0,0E0,0E0,0E0,0E0,0E0,0E0,0E0,0E0,0E0,0E0,0E0,0E0,0E0,0E0,0E0,0E0,0E0,0E0,0E0,0E0,0E0,0E0,0E0,0E0,0E0,0E0,0E0,0E0,0E0,0E0,0E0,0E0,0E0,0E0,0E0,0E0,0E0,0E0,0E0],"parents":[2147483647,0,0,1,1,2,2,3,3,4,4,5,5,6,6,7,7,8,8,9,9,10,10,11,11,12,12,13,13,14,14,15,15,16,16,17,17,18,18,19,19,20,20,21,21,22,22,24,24,26,26,27,27,28,28,29,29,30,30,31,31,32,32,33,33,34,34,35,35,36,36,37,37,38,38,39,39,40,40,41,41,42,42,43,43,44,44,45,45,46,46,51,51,52,52,53,53,54,54,55,55,56,56,57,57,58,58],"right_children":[2,4,6,8,10,12,14,16,18,20,22,24,26,28,30,32,34,36,38,40,42,44,46,-1,48,-1,50,52,54,56,58,60,62,64,66,68,70,72,74,76,78,80,82,84,86,88,90,-1,-1,-1,-1,92,94,96,98,100,102,104,106,-1,-1,-1,-1,-1,-1,-1,-1,-1,-1,-1,-1,-1,-1,-1,-1,-1,-1,-1,-1,-1,-1,-1,-1,-1,-1,-1,-1,-1,-1,-1,-1,-1,-1,-1,-1,-1,-1,-1,-1,-1,-1,-1,-1,-1,-1,-1,-1],"split_conditions":[1.41E2,1.08532E5,5.314E4,1E0,1E0,4E0,4E0,5E0,3E0,3E0,4E0,2E0,5E0,2E0,8.89501E5,3E0,6E0,2E0,5E0,2.1923E5,5E0,3.43426E5,2.19177E5,1.790821E0,3E0,1.8485432E0,6E0,9.95155E5,4.42179E5,8.34173E5,9.44817E5,6.6861E4,1E0,6.689E4,6.689E4,5.9877E4,5.9864E4,4E0,6E0,1.63851E5,1E0,1.105068E6,6E0,3E0,2E0,5E0,6E0,1.8125819E0,1.829849E0,1.8821416E0,1.9474353E0,9.40087E5,1.050482E6,3.87026E5,4.97782E5,7.78862E5,6E0,6E0,1.000144E6,1.6230904E0,1.6008099E0,1.6207713E0,1.6780547E0,1.7459016E0,1.4883977E0,1.7642497E0,2.2582343E0,1.3003638E0,1.3236783E0,1.3357708E0,1.3193779E0,1.3470896E0,1.3654457E0,1.3877642E0,1.4398782E0,1.2953382E0,1.3983059E0,1.2921672E0,1.3281883E0,1.3489013E0,1.4320014E0,1.3951662E0,1.4641747E0,1.3778129E0,1.4450252E0,1.3505609E0,1.370289E0,1.3154285E0,1.438967E0,1.429848E0,1.5217593E0,1.5341758E0,1.453738E0,1.5742018E0,1.5060333E0,1.5709537E0,1.4241958E0,1.6736571E0,1.5673755E0,1.6184374E0,1.3912163E0,1.8502688E0,1.6748374E0,1.3777413E0,1.7401901E0,1.7509723E0,1.5377173E0],"split_indices":[2,0,0,4,3,1,1,1,1,1,1,1,1,1,0,1,1,1,1,0,1,0,0,0,1,0,1,0,0,0,0,0,3,0,0,0,0,1,1,0,4,0,1,1,1,1,1,0,0,0,0,0,0,0,0,0,1,1,0,0,0,0,0,0,0,0,0,0,0,0,0,0,0,0,0,0,0,0,0,0,0,0,0,0,0,0,0,0,0,0,0,0,0,0,0,0,0,0,0,0,0,0,0,0,0,0,0],"split_type":[0,0,0,0,0,0,0,0,0,0,0,0,0,0,0,0,0,0,0,0,0,0,0,0,0,0,0,0,0,0,0,0,0,0,0,0,0,0,0,0,0,0,0,0,0,0,0,0,0,0,0,0,0,0,0,0,0,0,0,0,0,0,0,0,0,0,0,0,0,0,0,0,0,0,0,0,0,0,0,0,0,0,0,0,0,0,0,0,0,0,0,0,0,0,0,0,0,0,0,0,0,0,0,0,0,0,0],"sum_hessian":[9.2664E6,6.9498E6,2.3166E6,3.48475E5,6.601325E6,1.1583E5,2.20077E6,2.32645E5,1.1583E5,4.400555E6,2.20077E6,8.7632E4,2.8198E4,1.665008E6,5.35762E5,2.14716E5,1.7929E4,5.7986E4,5.7844E4,2.20495E6,2.195605E6,1.664229E6,5.36541E5,2.5285E4,6.2347E4,1.923E4,8.968E3,4.80415E5,1.184593E6,4.51168E5,8.4594E4,1.16047E5,9.8669E4,1.4931E4,2.998E3,2.5273E4,3.2713E4,4.8981E4,8.863E3,2.50676E5,1.954274E6,1.859159E6,3.36446E5,4.17633E5,1.246596E6,5.6478E4,4.80063E5,3.2722E4,2.9625E4,7.523E3,1.445E3,4.43457E5,3.6958E4,4.84996E5,6.99597E5,4.2297E5,2.8198E4,2.8198E4,5.6396E4,6.1929E4,5.4118E4,4.974E4,4.8929E4,1.26E4,2.331E3,2.536E3,4.62E2,1.9757E4,5.516E3,1.4412E4,1.8301E4,2.9723E4,1.9258E4,7.373E3,1.49E3,1.16961E5,1.33715E5,9.68512E5,9.85762E5,1.788467E6,7.0692E4,2.79807E5,5.6639E4,2.76213E5,1.4142E5,3.5963E5,8.86966E5,3.8642E4,1.7836E4,4.54444E5,2.5619E4,4.29845E5,1.3612E4,2.6991E4,9.967E3,4.36429E5,4.8567E4,7.6127E4,6.2347E5,3.94772E5,2.8198E4,2.6753E4,1.445E3,2.6753E4,1.445E3,2.8198E4,2.8198E4],"tree_param":{"num_deleted":"0","num_feature":"11","num_nodes":"107","size_leaf_vector":"1"}},{"base_weights":[3.3095438E0,3.1806598E0,3.6961942E0,3.5778008E0,3.157669E0,4.257261E0,3.6666622E0,3.7762067E0,3.124751E0,3.1186655E0,3.235093E0,4.228495E0,4.346504E0,3.6152782E0,3.7182066E0,3.8200088E0,3.4559493E0,3.0741477E0,3.1754246E0,3.0878577E0,3.2147815E0,3.1807854E0,3.2895255E0,1.2535923E0,4.2486463E0,1.2940005E0,4.417141E0,3.591801E0,3.6810021E0,3.7106388E0,4.013323E0,3.7822318E0,3.9355023E0,3.5145361E0,3.4013343E0,3.0462902E0,3.095576E0,3.1601884E0,3.2592611E0,3.020066E0,3.115247E0,3.4249184E0,3.191738E0,3.0972614E0,3.1906085E0,3.2672343E0,3.4118068E0,1.2688301E0,1.2809172E0,1.3175744E0,1.3636048E0,3.6271586E0,3.1320953E0,4.034348E0,3.5926485E0,3.681025E0,3.7545173E0,9.7697467E-1,4.0552373E0,1.1272612E0,1.177087E0,1.1008754E0,1.2627488E0,1.0192612E0,1.0780345E0,9.928328E-1,1.0609512E0,9.041613E-1,9.204416E-1,9.4202155E-1,9.259946E-1,9.429804E-1,9.558418E-1,9.7149384E-1,1.0082039E0,8.416589E-1,9.091556E-1,9.223719E-1,9.4660825E-1,9.7627264E-1,1.0872821E0,9.38023E-1,9.769971E-1,9.162736E-1,9.39126E-1,1.0294743E0,9.5266324E-1,1.006611E0,9.7521144E-1,1.0296642E0,9.714499E-1,1.0777252E0,1.213196E0,7.530678E-1,9.6670306E-1,1.1455259E0,1.2603239E0,9.542195E-1,1.1076379E0,1.1153654E0,9.925321E-1,1.3243172E0,1.1078236E0,1.5282398E0,1.1981763E0],"categories":[],"categories_nodes":[],"categories_segments":[],"categories_sizes":[],"default_left":[0,0,0,0,0,0,0,0,0,0,0,0,0,0,0,0,0,0,0,0,0,0,0,0,0,0,0,0,0,0,0,0,0,0,0,0,0,0,0,0,0,0,0,0,0,0,0,0,0,0,0,0,0,0,0,0,0,0,0,0,0,0,0,0,0,0,0,0,0,0,0,0,0,0,0,0,0,0,0,0,0,0,0,0,0,0,0,0,0,0,0,0,0,0,0,0,0,0,0,0,0,0,0,0,0],"id":14,"left_children":[1,3,5,7,9,11,13,15,17,19,21,23,25,27,29,31,33,35,37,39,41,43,45,-1,47,-1,49,51,53,55,57,59,61,63,65,67,69,71,73,75,77,79,81,83,85,87,89,-1,-1,-1,-1,91,93,95,97,99,101,-1,103,-1,-1,-1,-1,-1,-1,-1,-1,-1,-1,-1,-1,-1,-1,-1,-1,-1,-1,-1,-1,-1,-1,-1,-1,-1,-1,-1,-1,-1,-1,-1,-1,-1,-1,-1,-1,-1,-1,-1,-1,-1,-1,-1,-1,-1,-1],"loss_changes":[4.6176E5,6.344E4,3.8368E4,3.41735E4,1.9836E4,2.79E2,5.816E3,3.69675E3,2.8725E2,1.2924E4,6.494E3,7.0375E1,4.70625E1,1.687E3,2.438E3,1.00025E3,8.9875E1,2.51875E1,6.35625E1,6.132E3,5.126E3,8.95E2,2.985E3,0E0,7.25E0,0E0,9.046875E0,1.3189E4,9.04025E3,1.378E3,8.57625E2,5.975E2,4.1555E3,1.2928125E2,1.933125E2,8.65625E0,3.3125E0,1.146875E1,7.9453125E0,2.126E3,3.836E3,3.55325E3,4.021E3,1.55875E2,3.567E3,1.344E3,5.89375E2,0E0,0E0,0E0,0E0,1.0906E4,3.2474375E3,2.0724375E3,9.496E3,8.771E3,1.7576E4,0E0,1.6365938E3,0E0,0E0,0E0,0E0,0E0,0E0,0E0,0E0,0E0,0E0,0E0,0E0,0E0,0E0,0E0,0E0,0E0,0E0,0E0,0E0,0E0,0E0,0E0,0E0,0E0,0E0,0E0,0E0,0E0,0E0,0E0,0E0,0E0,0E0,0E0,0E0,0E0,0E0,0E0,0E0,0E0,0E0,0E0,0E0,0E0,0E0],"parents":[2147483647,0,0,1,1,2,2,3,3,4,4,5,5,6,6,7,7,8,8,9,9,10,10,11,11,12,12,13,13,14,14,15,15,16,16,17,17,18,18,19,19,20,20,21,21,22,22,24,24,26,26,27,27,28,28,29,29,30,30,31,31,32,32,33,33,34,34,35,35,36,36,37,37,38,38,39,39,40,40,41,41,42,42,43,43,44,44,45,45,46,46,51,51,52,52,53,53,54,54,55,55,56,56,58,58],"right_children":[2,4,6,8,10,12,14,16,18,20,22,24,26,28,30,32,34,36,38,40,42,44,46,-1,48,-1,50,52,54,56,58,60,62,64,66,68,70,72,74,76,78,80,82,84,86,88,90,-1,-1,-1,-1,92,94,96,98,100,102,-1,104,-1,-1,-1,-1,-1,-1,-1,-1,-1,-1,-1,-1,-1,-1,-1,-1,-1,-1,-1,-1,-1,-1,-1,-1,-1,-1,-1,-1,-1,-1,-1,-1,-1,-1,-1,-1,-1,-1,-1,-1,-1,-1,-1,-1,-1,-1],"split_conditions":[1.41E2,1.08557E5,5.314E4,1E0,1E0,4E0,3E0,1.08532E5,3E0,4E0,3E0,2E0,5E0,7.74277E5,6E0,4E0,3E0,2E0,5E0,2E0,1.77247E5,2.19177E5,5E0,1.2535923E0,3E0,1.2940005E0,6E0,7.1893E5,8.29632E5,6.63579E5,5.9853E4,6.689E4,1E0,2E0,4E0,5.9864E4,5.9853E4,4E0,6E0,1.21927E5,1E0,1.63891E5,1E0,2E0,2.74494E5,2.74494E5,1.049002E6,1.2688301E0,1.2809172E0,1.3175744E0,1.3636048E0,6.63579E5,7.73867E5,2E0,8.84748E5,6.08232E5,6.68388E5,9.7697467E-1,1.1503E5,1.1272612E0,1.177087E0,1.1008754E0,1.2627488E0,1.0192612E0,1.0780345E0,9.928328E-1,1.0609512E0,9.041613E-1,9.204416E-1,9.4202155E-1,9.259946E-1,9.429804E-1,9.558418E-1,9.7149384E-1,1.0082039E0,8.416589E-1,9.091556E-1,9.223719E-1,9.4660825E-1,9.7627264E-1,1.0872821E0,9.38023E-1,9.769971E-1,9.162736E-1,9.39126E-1,1.0294743E0,9.5266324E-1,1.006611E0,9.7521144E-1,1.0296642E0,9.714499E-1,1.0777252E0,1.213196E0,7.530678E-1,9.6670306E-1,1.1455259E0,1.2603239E0,9.542195E-1,1.1076379E0,1.1153654E0,9.925321E-1,1.3243172E0,1.1078236E0,1.5282398E0,1.1981763E0],"split_indices":[2,0,0,4,3,1,1,0,1,1,1,1,1,0,1,1,1,1,1,1,0,0,1,0,1,0,1,0,0,0,0,0,3,1,1,0,0,1,1,0,4,0,4,1,0,0,0,0,0,0,0,0,0,1,0,0,0,0,0,0,0,0,0,0,0,0,0,0,0,0,0,0,0,0,0,0,0,0,0,0,0,0,0,0,0,0,0,0,0,0,0,0,0,0,0,0,0,0,0,0,0,0,0,0,0],"split_type":[0,0,0,0,0,0,0,0,0,0,0,0,0,0,0,0,0,0,0,0,0,0,0,0,0,0,0,0,0,0,0,0,0,0,0,0,0,0,0,0,0,0,0,0,0,0,0,0,0,0,0,0,0,0,0,0,0,0,0,0,0,0,0,0,0,0,0,0,0,0,0,0,0,0,0,0,0,0,0,0,0,0,0,0,0,0,0,0,0,0,0,0,0,0,0,0,0,0,0,0,0,0,0,0,0],"sum_hessian":[9.2664E6,6.9498E6,2.3166E6,3.80305E5,6.569495E6,1.1583E5,2.20077E6,2.64475E5,1.1583E5,4.368725E6,2.20077E6,8.7632E4,2.8198E4,1.102133E6,1.098637E6,2.32645E5,3.183E4,5.7986E4,5.7844E4,3.308346E6,1.060379E6,1.101677E6,1.099093E6,2.5285E4,6.2347E4,1.923E4,8.968E3,8.12098E5,2.90035E5,1.071182E6,2.7455E4,1.7533E5,5.7315E4,1.5326E4,1.6504E4,2.5273E4,3.2713E4,4.8981E4,8.863E3,9.52036E5,2.35631E6,1.04775E5,9.55604E5,1.15966E5,9.85711E5,9.29651E5,1.69442E5,3.2722E4,2.9625E4,7.523E3,1.445E3,7.54091E5,5.8007E4,5.8007E4,2.32028E5,6.39599E5,4.31583E5,1.445E3,2.601E4,1.49284E5,2.6046E4,2.9076E4,2.8239E4,6.191E3,9.135E3,9.84E3,6.664E3,1.0231E4,1.5042E4,5.408E3,2.7305E4,2.9723E4,1.9258E4,7.373E3,1.49E3,4.4242E4,9.07794E5,1.170026E6,1.186284E6,5.6457E4,4.8318E4,4.77547E5,4.78057E5,5.052E4,6.5446E4,5.7983E4,9.27728E5,1.46787E5,7.82864E5,1.51606E5,1.7836E4,6.96084E5,5.8007E4,7.355E3,5.0652E4,2.5285E4,3.2722E4,4.5141E4,1.86887E5,5.82012E5,5.7587E4,3.6937E4,3.94646E5,1.445E3,2.4565E4],"tree_param":{"num_deleted":"0","num_feature":"11","num_nodes":"105","size_leaf_vector":"1"}},{"base_weights":[2.3166924E0,2.2264729E0,2.5873494E0,2.4891813E0,2.2077076E0,2.980132E0,2.5666752E0,2.5897744E0,2.1873822E0,2.237091E0,2.145675E0,2.9599671E0,3.0426931E0,2.545196E0,2.633422E0,2.7599359E0,2.504682E0,2.1519654E0,2.2228482E0,1.9127953E0,2.2467263E0,2.3002877E0,2.13032E0,8.775268E-1,2.9740646E0,9.058187E-1,3.0923076E0,2.5008247E0,2.5631888E0,2.595633E0,2.7152822E0,2.5486038E0,2.8185496E0,2.3335652E0,2.6757772E0,2.1324704E0,2.1669607E0,2.212151E0,2.2817082E0,1.8716894E0,2.3385427E0,2.2050104E0,2.28855E0,2.418269E0,2.2721632E0,2.1174617E0,2.3279872E0,8.881838E-1,8.966468E-1,9.223571E-1,9.5481175E-1,2.4834168E0,2.5413327E0,2.5550866E0,2.7032735E0,2.6540072E0,1.8950726E0,3.3786004E0,2.5825956E0,7.3431534E-1,7.758882E-1,8.310043E-1,8.7797123E-1,-2.2887132E0,7.2572345E-1,7.7029604E-1,8.792799E-1,6.366858E-1,6.5056723E-1,6.5548056E-1,6.458063E-1,6.7441887E-1,6.614375E-1,6.800844E-1,7.0595306E-1,4.969374E-1,5.795215E-1,6.1206603E-1,7.2555894E-1,6.904566E-1,6.5983146E-1,7.387428E-1,6.835568E-1,7.2197473E-1,1.0014682E0,6.5975225E-1,7.031911E-1,6.3149893E-1,6.801755E-1,6.684515E-1,7.9189783E-1,7.4989784E-1,5.27183E-1,8.40612E-1,7.4493814E-1,7.713109E-1,6.819078E-1,8.858001E-1,7.529266E-1,7.816677E-1,9.5604825E-1,5.515408E-1,8.8231206E-1,1.0255373E0,7.9164815E-1,6.401288E-1,8.0843526E-1],"categories":[],"categories_nodes":[],"categories_segments":[],"categories_sizes":[],"default_left":[0,0,0,0,0,0,0,0,0,0,0,0,0,0,0,0,0,0,0,0,0,0,0,0,0,0,0,0,0,0,0,0,0,0,0,0,0,0,0,0,0,0,0,0,0,0,0,0,0,0,0,0,0,0,0,0,0,0,0,0,0,0,0,0,0,0,0,0,0,0,0,0,0,0,0,0,0,0,0,0,0,0,0,0,0,0,0,0,0,0,0,0,0,0,0,0,0,0,0,0,0,0,0,0,0,0,0],"id":15,"left_children":[1,3,5,7,9,11,13,15,17,19,21,23,25,27,29,31,33,35,37,39,41,43,45,-1,47,-1,49,51,53,55,57,59,61,63,65,67,69,71,73,75,77,79,81,83,85,87,89,-1,-1,-1,-1,91,93,95,97,99,101,103,105,-1,-1,-1,-1,-1,-1,-1,-1,-1,-1,-1,-1,-1,-1,-1,-1,-1,-1,-1,-1,-1,-1,-1,-1,-1,-1,-1,-1,-1,-1,-1,-1,-1,-1,-1,-1,-1,-1,-1,-1,-1,-1,-1,-1,-1,-1,-1,-1],"loss_changes":[2.26264E5,3.4256E4,1.8804E4,1.406025E4,1.1818E4,1.370625E2,3.148E3,5.0245E3,1.406875E2,1.375E4,4.945E3,3.4375E1,2.325E1,1.324E3,1.65E3,1.4276875E3,6.77625E3,1.234375E1,3.1375E1,2.218375E3,7.452E3,6.194375E2,4.815E3,0E0,3.5625E0,0E0,4.6328125E0,3.3225E2,1.3375E3,1.4986E4,1.4882125E4,8.934375E1,4.6725E2,9.869844E4,3.1880625E3,4.6875E0,3.671875E0,7.96875E0,4.015625E0,1.4938125E3,2.618164E2,1.147E3,3.717E3,3.8157812E2,7.92E2,3.3205E3,3.5976875E3,0E0,0E0,0E0,0E0,3.959375E3,2.183625E3,5.032E3,3.1176875E3,8.7265E3,1.664125E3,8.224375E2,7.09375E3,0E0,0E0,0E0,0E0,0E0,0E0,0E0,0E0,0E0,0E0,0E0,0E0,0E0,0E0,0E0,0E0,0E0,0E0,0E0,0E0,0E0,0E0,0E0,0E0,0E0,0E0,0E0,0E0,0E0,0E0,0E0,0E0,0E0,0E0,0E0,0E0,0E0,0E0,0E0,0E0,0E0,0E0,0E0,0E0,0E0,0E0,0E0,0E0],"parents":[2147483647,0,0,1,1,2,2,3,3,4,4,5,5,6,6,7,7,8,8,9,9,10,10,11,11,12,12,13,13,14,14,15,15,16,16,17,17,18,18,19,19,20,20,21,21,22,22,24,24,26,26,27,27,28,28,29,29,30,30,31,31,32,32,33,33,34,34,35,35,36,36,37,37,38,38,39,39,40,40,41,41,42,42,43,43,44,44,45,45,46,46,51,51,52,52,53,53,54,54,55,55,56,56,57,57,58,58],"right_children":[2,4,6,8,10,12,14,16,18,20,22,24,26,28,30,32,34,36,38,40,42,44,46,-1,48,-1,50,52,54,56,58,60,62,64,66,68,70,72,74,76,78,80,82,84,86,88,90,-1,-1,-1,-1,92,94,96,98,100,102,104,106,-1,-1,-1,-1,-1,-1,-1,-1,-1,-1,-1,-1,-1,-1,-1,-1,-1,-1,-1,-1,-1,-1,-1,-1,-1,-1,-1,-1,-1,-1,-1,-1,-1,-1,-1,-1,-1,-1,-1,-1,-1,-1,-1,-1,-1,-1,-1,-1],"split_conditions":[1.41E2,1.10053E5,5.314E4,1E0,1E0,4E0,4E0,5.4721E4,3E0,1.21927E5,2.19278E5,2E0,5E0,2E0,7.23722E5,2E0,1E0,2E0,5E0,1E0,3E0,1.63891E5,1.050482E6,8.775268E-1,3E0,9.058187E-1,6E0,7.73867E5,9.95684E5,6.68388E5,7.78862E5,5.314E4,4E0,1.08532E5,6.689E4,5.9877E4,5.9864E4,5.9853E4,6E0,2E0,2E0,1.77247E5,1.77247E5,6E0,3E0,5E0,4E0,8.881838E-1,8.966468E-1,9.223571E-1,9.5481175E-1,7.18745E5,8.29191E5,9.44817E5,1.050759E6,6.13051E5,6E0,6E0,8.34173E5,7.3431534E-1,7.758882E-1,8.310043E-1,8.7797123E-1,-2.2887132E0,7.2572345E-1,7.7029604E-1,8.792799E-1,6.366858E-1,6.5056723E-1,6.5548056E-1,6.458063E-1,6.7441887E-1,6.614375E-1,6.800844E-1,7.0595306E-1,4.969374E-1,5.795215E-1,6.1206603E-1,7.2555894E-1,6.904566E-1,6.5983146E-1,7.387428E-1,6.835568E-1,7.2197473E-1,1.0014682E0,6.5975225E-1,7.031911E-1,6.3149893E-1,6.801755E-1,6.684515E-1,7.9189783E-1,7.4989784E-1,5.27183E-1,8.40612E-1,7.4493814E-1,7.713109E-1,6.819078E-1,8.858001E-1,7.529266E-1,7.816677E-1,9.5604825E-1,5.515408E-1,8.8231206E-1,1.0255373E0,7.9164815E-1,6.401288E-1,8.0843526E-1],"split_indices":[2,0,0,4,5,1,1,0,1,0,0,1,1,1,0,1,3,1,1,3,1,0,0,0,1,0,1,0,0,0,0,0,1,0,0,0,0,0,1,1,1,0,0,1,1,1,1,0,0,0,0,0,0,0,0,0,1,1,0,0,0,0,0,0,0,0,0,0,0,0,0,0,0,0,0,0,0,0,0,0,0,0,0,0,0,0,0,0,0,0,0,0,0,0,0,0,0,0,0,0,0,0,0,0,0,0,0],"split_type":[0,0,0,0,0,0,0,0,0,0,0,0,0,0,0,0,0,0,0,0,0,0,0,0,0,0,0,0,0,0,0,0,0,0,0,0,0,0,0,0,0,0,0,0,0,0,0,0,0,0,0,0,0,0,0,0,0,0,0,0,0,0,0,0,0,0,0,0,0,0,0,0,0,0,0,0,0,0,0,0,0,0,0,0,0,0,0,0,0,0,0,0,0,0,0,0,0,0,0,0,0,0,0,0,0,0,0],"sum_hessian":[9.2664E6,6.9498E6,2.3166E6,4.6332E5,6.48648E6,1.1583E5,2.20077E6,3.4749E5,1.1583E5,4.40154E6,2.08494E6,8.7632E4,2.8198E4,1.665008E6,5.35762E5,1.1583E5,2.3166E5,5.7986E4,5.7844E4,1.27008E5,4.274532E6,1.8834E5,1.8966E6,2.5285E4,6.2347E4,1.923E4,8.968E3,4.80415E5,1.184593E6,3.66574E5,1.69188E5,2.516E4,9.067E4,1.1583E5,1.1583E5,2.5273E4,3.2713E4,4.8981E4,8.863E3,1.1583E5,1.1178E4,2.14005E6,2.134482E6,3.6238E4,1.52102E5,1.78077E6,1.1583E5,3.2722E4,2.9625E4,7.523E3,1.445E3,3.3606E5,1.44355E5,1.119842E6,6.4751E4,3.38376E5,2.8198E4,2.8198E4,1.4099E5,6.861E3,1.8299E4,6.2579E4,2.8091E4,9.85E2,1.14845E5,8.1363E4,3.4467E4,1.9757E4,5.516E3,1.4412E4,1.8301E4,8.279E3,4.0702E4,7.373E3,1.49E3,2.5273E4,9.0557E4,2.369E3,8.809E3,1.16791E5,2.023259E6,1.16339E5,2.018143E6,3.5787E4,4.51E2,7.5446E4,7.6656E4,1.643977E6,1.36793E5,8.7739E4,2.8091E4,3.28705E5,7.355E3,2.6338E4,1.18017E5,1.059899E6,5.9943E4,2.8285E4,3.6466E4,3.10178E5,2.8198E4,2.6753E4,1.445E3,2.6753E4,1.445E3,2.8198E4,1.12792E5],"tree_param":{"num_deleted":"0","num_feature":"11","num_nodes":"107","size_leaf_vector":"1"}},{"base_weights":[1.6216934E0,1.5585374E0,1.8111602E0,1.7424386E0,1.5454013E0,2.0861382E0,1.7966868E0,1.8128438E0,1.5312088E0,1.5222598E0,1.5904657E0,2.0720074E0,2.1299784E0,1.7875564E0,1.9054728E0,1.9319855E0,1.7532649E0,1.5166866E0,1.5764478E0,1.311893E0,1.5282571E0,1.572085E0,1.6474752E0,6.1428654E-1,2.081864E0,6.34086E-1,2.1648157E0,1.7294142E0,1.8011469E0,1.9373266E0,1.7355205E0,1.7840897E0,1.9730049E0,1.6334742E0,1.8730404E0,1.5525444E0,1.5098839E0,4.717196E-1,1.6477176E0,1.1595293E0,1.3530521E0,1.6878164E0,1.5173646E0,1.6257378E0,1.5570805E0,1.4329962E0,1.672705E0,6.217369E-1,6.276556E-1,6.4568484E-1,6.6855955E-1,1.7745414E0,1.2696922E0,2.0432088E0,1.7844124E0,1.9015132E0,2.4742532E0,1.3883467E0,1.9090204E0,5.140533E-1,5.4313725E-1,5.8171016E-1,6.1458343E-1,-1.6028006E0,5.080059E-1,5.357305E-1,6.4309984E-1,4.5807582E-1,4.7908923E-1,4.5016244E-1,4.6085048E-1,4.843385E-1,5.213336E-1,3.3753878E-1,3.500624E-1,4.037132E-1,5.361792E-1,4.852622E-1,5.337233E-1,4.3734783E-1,4.6018738E-1,4.6806386E-1,5.0598747E-1,4.6512488E-1,4.9480468E-1,4.0477398E-1,4.843067E-1,4.9890453E-1,5.533565E-1,5.239165E-1,5.4557425E-1,3.5973775E-1,4.7885627E-1,6.4967567E-1,5.68949E-1,4.666036E-1,5.405502E-1,5.772755E-1,4.7489914E-1,7.7506244E-1,5.7116383E-1,3.779283E-1,6.1693776E-1,6.373638E-1,5.0798464E-1],"categories":[],"categories_nodes":[],"categories_segments":[],"categories_sizes":[],"default_left":[0,0,0,0,0,0,0,0,0,0,0,0,0,0,0,0,0,0,0,0,0,0,0,0,0,0,0,0,0,0,0,0,0,0,0,0,0,0,0,0,0,0,0,0,0,0,0,0,0,0,0,0,0,0,0,0,0,0,0,0,0,0,0,0,0,0,0,0,0,0,0,0,0,0,0,0,0,0,0,0,0,0,0,0,0,0,0,0,0,0,0,0,0,0,0,0,0,0,0,0,0,0,0,0,0],"id":16,"left_children":[1,3,5,7,9,11,13,15,17,19,21,23,25,27,29,31,33,35,37,39,41,43,45,-1,47,-1,49,51,53,55,57,59,61,63,65,67,69,-1,71,73,75,77,79,81,83,85,87,-1,-1,-1,-1,89,91,93,95,97,99,101,103,-1,-1,-1,-1,-1,-1,-1,-1,-1,-1,-1,-1,-1,-1,-1,-1,-1,-1,-1,-1,-1,-1,-1,-1,-1,-1,-1,-1,-1,-1,-1,-1,-1,-1,-1,-1,-1,-1,-1,-1,-1,-1,-1,-1,-1,-1],"loss_changes":[1.10876E5,1.6788E4,9.2165E3,6.8875E3,6.762E3,6.734375E1,2.1825E3,2.463125E3,7.371875E1,5.405E3,2.303E3,1.68125E1,1.15E1,1.6015E3,9.190625E2,6.991875E2,3.32075E3,1.9046875E1,5.5234375E0,7.434219E2,7.239E3,1.33725E3,2.901E3,0E0,1.71875E0,0E0,2.3632812E0,7.97875E3,6.6625E3,2.7544375E3,1.6179688E3,4.3726562E1,2.289375E2,4.8394375E4,2.7319062E3,1.34375E1,1.58125E1,0E0,1.6599121E0,5.078125E0,2.9575E2,1.7048125E3,3.852E3,1.4483125E3,7.9725E2,8.5566406E2,7.9625E2,0E0,0E0,0E0,0E0,4.31125E2,7.904414E2,1.906375E3,6.14E3,9.711875E2,5.5416797E2,7.679336E2,8.304219E2,0E0,0E0,0E0,0E0,0E0,0E0,0E0,0E0,0E0,0E0,0E0,0E0,0E0,0E0,0E0,0E0,0E0,0E0,0E0,0E0,0E0,0E0,0E0,0E0,0E0,0E0,0E0,0E0,0E0,0E0,0E0,0E0,0E0,0E0,0E0,0E0,0E0,0E0,0E0,0E0,0E0,0E0,0E0,0E0,0E0,0E0],"parents":[2147483647,0,0,1,1,2,2,3,3,4,4,5,5,6,6,7,7,8,8,9,9,10,10,11,11,12,12,13,13,14,14,15,15,16,16,17,17,18,18,19,19,20,20,21,21,22,22,24,24,26,26,27,27,28,28,29,29,30,30,31,31,32,32,33,33,34,34,35,35,36,36,38,38,39,39,40,40,41,41,42,42,43,43,44,44,45,45,46,46,51,51,52,52,53,53,54,54,55,55,56,56,57,57,58,58],"right_children":[2,4,6,8,10,12,14,16,18,20,22,24,26,28,30,32,34,36,38,40,42,44,46,-1,48,-1,50,52,54,56,58,60,62,64,66,68,70,-1,72,74,76,78,80,82,84,86,88,-1,-1,-1,-1,90,92,94,96,98,100,102,104,-1,-1,-1,-1,-1,-1,-1,-1,-1,-1,-1,-1,-1,-1,-1,-1,-1,-1,-1,-1,-1,-1,-1,-1,-1,-1,-1,-1,-1,-1,-1,-1,-1,-1,-1,-1,-1,-1,-1,-1,-1,-1,-1,-1,-1,-1],"split_conditions":[1.41E2,1.10053E5,5.314E4,1E0,1E0,4E0,5E0,5.4721E4,4E0,1.63851E5,4E0,2E0,5E0,2.20781E5,8.89501E5,2E0,1E0,5.9853E4,6E0,2E0,2.1923E5,3.43219E5,2.19177E5,6.1428654E-1,3E0,6.34086E-1,6E0,2.20723E5,2.76132E5,8.34173E5,9.44817E5,5.314E4,4E0,1.08532E5,4E0,3E0,5.9877E4,4.717196E-1,5.9877E4,1.1503E5,6E0,1E0,2E0,2.19177E5,1.104799E6,5E0,6E0,6.217369E-1,6.276556E-1,6.4568484E-1,6.6855955E-1,1.1503E5,3E0,3E0,3.31479E5,7.78862E5,6E0,6E0,1.000144E6,5.140533E-1,5.4313725E-1,5.8171016E-1,6.1458343E-1,-1.6028006E0,5.080059E-1,5.357305E-1,6.4309984E-1,4.5807582E-1,4.7908923E-1,4.5016244E-1,4.6085048E-1,4.843385E-1,5.213336E-1,3.3753878E-1,3.500624E-1,4.037132E-1,5.361792E-1,4.852622E-1,5.337233E-1,4.3734783E-1,4.6018738E-1,4.6806386E-1,5.0598747E-1,4.6512488E-1,4.9480468E-1,4.0477398E-1,4.843067E-1,4.9890453E-1,5.533565E-1,5.239165E-1,5.4557425E-1,3.5973775E-1,4.7885627E-1,6.4967567E-1,5.68949E-1,4.666036E-1,5.405502E-1,5.772755E-1,4.7489914E-1,7.7506244E-1,5.7116383E-1,3.779283E-1,6.1693776E-1,6.373638E-1,5.0798464E-1],"split_indices":[2,0,0,4,3,1,1,0,1,0,1,1,1,0,0,1,3,0,1,1,0,0,0,0,1,0,1,0,0,0,0,0,1,0,1,1,0,0,0,0,1,4,1,0,0,1,1,0,0,0,0,0,1,1,0,0,1,1,0,0,0,0,0,0,0,0,0,0,0,0,0,0,0,0,0,0,0,0,0,0,0,0,0,0,0,0,0,0,0,0,0,0,0,0,0,0,0,0,0,0,0,0,0,0,0],"split_type":[0,0,0,0,0,0,0,0,0,0,0,0,0,0,0,0,0,0,0,0,0,0,0,0,0,0,0,0,0,0,0,0,0,0,0,0,0,0,0,0,0,0,0,0,0,0,0,0,0,0,0,0,0,0,0,0,0,0,0,0,0,0,0,0,0,0,0,0,0,0,0,0,0,0,0,0,0,0,0,0,0,0,0,0,0,0,0,0,0,0,0,0,0,0,0,0,0,0,0,0,0,0,0,0,0],"sum_hessian":[9.2664E6,6.9498E6,2.3166E6,4.6332E5,6.48648E6,1.1583E5,2.20077E6,3.4749E5,1.1583E5,4.28571E6,2.20077E6,8.7632E4,2.8198E4,2.030378E6,1.70392E5,1.1583E5,2.3166E5,8.7709E4,2.8121E4,1.188E5,4.16691E6,1.664229E6,5.36541E5,2.5285E4,6.2347E4,1.923E4,8.968E3,3.84701E5,1.645677E6,1.43488E5,2.6904E4,2.516E4,9.067E4,1.1583E5,1.1583E5,1.395E4,7.3759E4,2.6631E4,1.49E3,2.5273E4,9.3527E4,2.66273E5,3.900637E6,3.63681E5,1.300548E6,5.6478E4,4.80063E5,3.2722E4,2.9625E4,7.523E3,1.445E3,3.50311E5,3.439E4,1.06406E5,1.539271E6,1.3452E5,8.968E3,8.968E3,1.7936E4,6.861E3,1.8299E4,6.2579E4,2.8091E4,9.85E2,1.14845E5,8.7591E4,2.8239E4,8.869E3,5.081E3,5.446E4,1.9299E4,1.102E3,3.88E2,4.474E3,2.0799E4,9.1976E4,1.551E3,1.50443E5,1.1583E5,8.50179E5,3.050458E6,1.75182E5,1.88499E5,1.212957E6,8.7591E4,3.8642E4,1.7836E4,4.54444E5,2.5619E4,2.13724E5,1.36587E5,2.8282E4,6.108E3,5.8007E4,4.8399E4,1.08799E5,1.430472E6,1.25552E5,8.968E3,7.523E3,1.445E3,7.523E3,1.445E3,8.968E3,8.968E3],"tree_param":{"num_deleted":"0","num_feature":"11","num_nodes":"105","size_leaf_vector":"1"}},{"base_weights":[1.1351887E0,1.0909752E0,1.2678285E0,1.2197224E0,1.0817788E0,1.4603183E0,1.2576967E0,1.2690022E0,1.0718732E0,1.0742496E0,1.172475E0,1.4504141E0,1.4910457E0,1.2322426E0,1.2839665E0,1.2334834E0,1.3796684E0,1.0526705E0,1.0911045E0,1.0915468E0,1.0377456E0,1.1524252E0,1.2713947E0,4.300165E-1,1.4572958E0,4.4386762E-1,1.5155092E0,1.2675431E0,9.327894E-1,1.5976968E0,1.2460474E0,1.2881947E0,1.1241399E0,1.3188777E0,1.5005612E0,1.0392163E0,1.0630326E0,1.085508E0,1.1219075E0,9.308694E-1,1.0963192E0,1.106306E0,1.020094E0,1.1625034E0,9.4091713E-1,1.0226228E0,1.2984219E0,4.35213E-1,4.393563E-1,4.520033E-1,4.6812457E-1,1.2310548E0,1.5476756E0,1.028986E0,6.268403E-1,1.4690317E0,2.0018182E0,9.8207694E-1,1.2824275E0,4.056002E-1,3.7839672E-1,3.5150325E-1,3.0932656E-1,4.3022108E-1,3.6109155E-1,3.8922355E-1,5.935329E-1,3.0610922E-1,3.155911E-1,3.2291827E-1,3.1573564E-1,3.2326385E-1,3.3405793E-1,3.4108335E-1,3.2052925E-1,2.7237415E-1,3.5103244E-1,3.1876227E-1,3.3203083E-1,3.2315361E-1,3.749025E-1,3.0255046E-1,3.523301E-1,3.472644E-1,6.6179204E-1,2.0700635E-1,2.950044E-1,3.70039E-1,1.9757247E-1,4.2309535E-1,3.7925467E-1,3.8119674E-1,2.9170892E-1,4.1840398E-1,6.0593927E-1,4.9735525E-1,2.726442E-1,1.7417814E-1,4.446192E-1,4.7937804E-1,3.6733174E-1,6.1022884E-1,4.2096776E-1,3.2011104E-1,2.1431197E-1,4.7254196E-1,3.7540606E-1],"categories":[],"categories_nodes":[],"categories_segments":[],"categories_sizes":[],"default_left":[0,0,0,0,0,0,0,0,0,0,0,0,0,0,0,0,0,0,0,0,0,0,0,0,0,0,0,0,0,0,0,0,0,0,0,0,0,0,0,0,0,0,0,0,0,0,0,0,0,0,0,0,0,0,0,0,0,0,0,0,0,0,0,0,0,0,0,0,0,0,0,0,0,0,0,0,0,0,0,0,0,0,0,0,0,0,0,0,0,0,0,0,0,0,0,0,0,0,0,0,0,0,0,0,0,0,0],"id":17,"left_children":[1,3,5,7,9,11,13,15,17,19,21,23,25,27,29,31,33,35,37,39,41,43,45,-1,47,-1,49,51,53,55,57,59,61,63,65,67,69,71,73,75,77,79,81,83,85,87,89,-1,-1,-1,-1,91,93,95,97,99,101,103,105,-1,-1,-1,-1,-1,-1,-1,-1,-1,-1,-1,-1,-1,-1,-1,-1,-1,-1,-1,-1,-1,-1,-1,-1,-1,-1,-1,-1,-1,-1,-1,-1,-1,-1,-1,-1,-1,-1,-1,-1,-1,-1,-1,-1,-1,-1,-1,-1],"loss_changes":[5.4341E4,8.227E3,4.51625E3,3.374375E3,4.4285E3,3.309375E1,1.46975E3,1.3641875E3,4.1609375E1,3.781E3,9.84625E2,8.171875E0,5.6835938E0,1.1814625E4,1.2882E4,1.5723125E3,6.184531E2,6.9765625E0,8.7578125E0,3.1155E3,2.32925E3,8.80125E2,5.62E2,0E0,8.28125E-1,0E0,1.2070312E0,1.02185E4,3.4685312E3,6.0692188E3,9.27775E3,2.989375E2,3.8690625E2,7.4408594E2,2.7390117E3,5.001953E0,3.4921875E0,9.730469E0,5.913086E0,6.427344E2,1.3915E3,1.645E3,2.738625E3,2.037875E3,1.9954688E2,6.297383E2,2.8772656E2,0E0,0E0,0E0,0E0,9.061625E3,8.320281E3,6.7754844E3,1.1144434E3,2.7907344E3,5.419844E2,2.661211E3,7.721875E3,0E0,0E0,0E0,0E0,0E0,0E0,0E0,0E0,0E0,0E0,0E0,0E0,0E0,0E0,0E0,0E0,0E0,0E0,0E0,0E0,0E0,0E0,0E0,0E0,0E0,0E0,0E0,0E0,0E0,0E0,0E0,0E0,0E0,0E0,0E0,0E0,0E0,0E0,0E0,0E0,0E0,0E0,0E0,0E0,0E0,0E0,0E0,0E0],"parents":[2147483647,0,0,1,1,2,2,3,3,4,4,5,5,6,6,7,7,8,8,9,9,10,10,11,11,12,12,13,13,14,14,15,15,16,16,17,17,18,18,19,19,20,20,21,21,22,22,24,24,26,26,27,27,28,28,29,29,30,30,31,31,32,32,33,33,34,34,35,35,36,36,37,37,38,38,39,39,40,40,41,41,42,42,43,43,44,44,45,45,46,46,51,51,52,52,53,53,54,54,55,55,56,56,57,57,58,58],"right_children":[2,4,6,8,10,12,14,16,18,20,22,24,26,28,30,32,34,36,38,40,42,44,46,-1,48,-1,50,52,54,56,58,60,62,64,66,68,70,72,74,76,78,80,82,84,86,88,90,-1,-1,-1,-1,92,94,96,98,100,102,104,106,-1,-1,-1,-1,-1,-1,-1,-1,-1,-1,-1,-1,-1,-1,-1,-1,-1,-1,-1,-1,-1,-1,-1,-1,-1,-1,-1,-1,-1,-1,-1,-1,-1,-1,-1,-1,-1,-1,-1,-1,-1,-1,-1,-1,-1,-1,-1,-1],"split_conditions":[1.41E2,1.10053E5,5.314E4,1E0,5E0,4E0,5.5288E5,4E0,3E0,1E0,6E0,2E0,5E0,4.97533E5,6.08232E5,1.08532E5,1E0,2E0,5E0,1.21927E5,3.29981E5,1.105068E6,2.19278E5,4.300165E-1,3E0,4.4386762E-1,6E0,4.42179E5,4E0,4E0,6.63579E5,5.3147E4,3E0,5.4721E4,6.689E4,5.9864E4,5.9864E4,5.9877E4,5.9877E4,1E0,2E0,3.29819E5,1.050482E6,1.104799E6,1.105352E6,1E0,4.40571E5,4.35213E-1,4.393563E-1,4.520033E-1,4.6812457E-1,3.86832E5,4E0,4.97782E5,6E0,3E0,6E0,4E0,7.18745E5,4.056002E-1,3.7839672E-1,3.5150325E-1,3.0932656E-1,4.3022108E-1,3.6109155E-1,3.8922355E-1,5.935329E-1,3.0610922E-1,3.155911E-1,3.2291827E-1,3.1573564E-1,3.2326385E-1,3.3405793E-1,3.4108335E-1,3.2052925E-1,2.7237415E-1,3.5103244E-1,3.1876227E-1,3.3203083E-1,3.2315361E-1,3.749025E-1,3.0255046E-1,3.523301E-1,3.472644E-1,6.6179204E-1,2.0700635E-1,2.950044E-1,3.70039E-1,1.9757247E-1,4.2309535E-1,3.7925467E-1,3.8119674E-1,2.9170892E-1,4.1840398E-1,6.0593927E-1,4.9735525E-1,2.726442E-1,1.7417814E-1,4.446192E-1,4.7937804E-1,3.6733174E-1,6.1022884E-1,4.2096776E-1,3.2011104E-1,2.1431197E-1,4.7254196E-1,3.7540606E-1],"split_indices":[2,0,0,4,1,1,0,1,1,5,1,1,1,0,0,0,3,1,1,0,0,0,0,0,1,0,1,0,1,1,0,0,1,0,0,0,0,0,0,3,1,0,0,0,0,3,0,0,0,0,0,0,1,0,1,1,1,1,0,0,0,0,0,0,0,0,0,0,0,0,0,0,0,0,0,0,0,0,0,0,0,0,0,0,0,0,0,0,0,0,0,0,0,0,0,0,0,0,0,0,0,0,0,0,0,0,0],"split_type":[0,0,0,0,0,0,0,0,0,0,0,0,0,0,0,0,0,0,0,0,0,0,0,0,0,0,0,0,0,0,0,0,0,0,0,0,0,0,0,0,0,0,0,0,0,0,0,0,0,0,0,0,0,0,0,0,0,0,0,0,0,0,0,0,0,0,0,0,0,0,0,0,0,0,0,0,0,0,0,0,0,0,0,0,0,0,0,0,0,0,0,0,0,0,0,0,0,0,0,0,0,0,0,0,0,0,0],"sum_hessian":[9.2664E6,6.9498E6,2.3166E6,4.6332E5,6.48648E6,1.1583E5,2.20077E6,3.4749E5,1.1583E5,5.989287E6,4.97193E5,8.7632E4,2.8198E4,1.11776E6,1.08301E6,2.63069E5,8.4421E4,5.7986E4,5.7844E4,4.063701E6,1.925586E6,4.13412E5,8.3781E4,2.5285E4,6.2347E4,1.923E4,8.968E3,9.99887E5,1.17873E5,1.16779E5,9.66231E5,1.7533E5,8.7739E4,5.6182E4,2.8239E4,2.5273E4,3.2713E4,4.8981E4,8.863E3,1.17226E5,3.946475E6,3.94245E5,1.531341E6,3.94605E5,1.8807E4,8.214E3,7.5567E4,3.2722E4,2.9625E4,7.523E3,1.445E3,8.84662E5,1.15225E5,8.9675E4,2.8198E4,8.8581E4,2.8198E4,1.17039E5,8.49192E5,5.1944E4,1.23386E5,5.8064E4,2.9675E4,2.8091E4,2.8091E4,1.9818E4,8.421E3,1.0231E4,1.5042E4,1.4412E4,1.8301E4,3.8173E4,1.0808E4,6.902E3,1.961E3,1.06967E5,1.0259E4,9.32485E5,3.01399E6,3.27681E5,6.6564E4,1.424364E6,1.06977E5,3.92742E5,1.863E3,2.723E3,1.6084E4,5.2E3,3.014E3,1.7696E4,5.7871E4,7.67212E5,1.1745E5,8.7027E4,2.8198E4,1.4385E4,7.529E4,2.6753E4,1.445E3,5.8007E4,3.0574E4,2.6753E4,1.445E3,8.8841E4,2.8198E4,8.1493E4,7.67699E5],"tree_param":{"num_deleted":"0","num_feature":"11","num_nodes":"107","size_leaf_vector":"1"}},{"base_weights":[7.946275E-1,7.6368034E-1,8.8746864E-1,9.492425E-1,7.605351E-1,1.022251E0,8.803744E-1,8.548074E-1,9.754375E-1,7.457291E-1,7.894064E-1,1.0153093E0,1.043787E0,8.6413103E-1,9.2195606E-1,2.3820846E-1,2.6326537E-1,9.4173276E-1,9.9461937E-1,7.404967E-1,8.425249E-1,9.152504E-1,7.827826E-1,3.0102375E-1,1.020118E0,3.1072026E-1,1.0609373E0,8.853005E-1,5.985436E-1,1.2127023E0,8.767631E-1,9.681595E-1,9.0342087E-1,1.0405189E0,9.745211E-1,7.5240266E-1,6.264609E-1,7.4657583E-1,8.692219E-1,8.544296E-1,1.0587955E0,7.8954667E-1,7.252855E-1,3.0464447E-1,3.0756146E-1,3.164134E-1,3.277798E-1,8.6949944E-1,1.072354E0,6.620136E-1,3.9901936E-1,1.097346E0,1.4375017E0,7.3411673E-1,9.3398064E-1,2.693954E-1,3.1772387E-1,2.6846513E-1,2.843884E-1,3.0957744E-1,3.2886937E-1,2.8657657E-1,2.980451E-1,2.2359633E-1,2.843737E-1,1.8219422E-1,2.5598037E-1,1.8181941E-1,2.6592878E-1,2.886619E-1,2.5077388E-1,2.8190714E-1,2.3098154E-1,2.195358E-1,4.186988E-1,2.3284994E-1,2.555956E-1,1.974934E-1,2.3767601E-1,2.660274E-1,2.0623462E-1,2.514748E-1,3.4168246E-1,3.9416802E-1,1.6842775E-1,1.08217195E-1,3.3218616E-1,2.3958504E-1,3.5122323E-1,4.4001922E-1,2.687129E-1,2.7816927E-1,2.0230582E-1,3.7569332E-1,2.5389227E-1],"categories":[],"categories_nodes":[],"categories_segments":[],"categories_sizes":[],"default_left":[0,0,0,0,0,0,0,0,0,0,0,0,0,0,0,0,0,0,0,0,0,0,0,0,0,0,0,0,0,0,0,0,0,0,0,0,0,0,0,0,0,0,0,0,0,0,0,0,0,0,0,0,0,0,0,0,0,0,0,0,0,0,0,0,0,0,0,0,0,0,0,0,0,0,0,0,0,0,0,0,0,0,0,0,0,0,0,0,0,0,0,0,0,0,0],"id":18,"left_children":[1,3,5,7,9,11,13,15,17,19,21,23,25,27,29,-1,-1,31,33,35,37,39,41,-1,43,-1,45,47,49,51,53,55,57,59,61,63,65,67,69,71,73,75,77,-1,-1,-1,-1,79,81,83,85,87,89,91,93,-1,-1,-1,-1,-1,-1,-1,-1,-1,-1,-1,-1,-1,-1,-1,-1,-1,-1,-1,-1,-1,-1,-1,-1,-1,-1,-1,-1,-1,-1,-1,-1,-1,-1,-1,-1,-1,-1,-1,-1],"loss_changes":[2.6623E4,4.0555E3,2.214125E3,2.8570312E2,2.921E3,1.6257812E1,1.48575E3,3.4083984E1,5.7679688E1,2.28725E3,1.930375E3,3.984375E0,2.796875E0,8.89725E3,8.12175E3,0E0,0E0,3.2439453E1,5.2277344E1,5.81825E3,5.927656E2,1.0103594E3,8.55375E2,0E0,4.296875E-1,0E0,6.1621094E-1,4.33125E3,1.4793086E3,2.1549531E3,4.3661875E3,1.23203125E2,4.2646484E0,7.2851562E0,1.3730469E1,5.372E3,1.7589375E3,9.905371E2,5.604844E2,5.8540234E2,3.7959297E3,1.644375E3,1.0385078E3,0E0,0E0,0E0,0E0,4.246E3,1.7787344E3,5.811293E3,7.6445264E2,1.2041953E3,4.4525E2,1.7672109E3,1.0656219E4,0E0,0E0,0E0,0E0,0E0,0E0,0E0,0E0,0E0,0E0,0E0,0E0,0E0,0E0,0E0,0E0,0E0,0E0,0E0,0E0,0E0,0E0,0E0,0E0,0E0,0E0,0E0,0E0,0E0,0E0,0E0,0E0,0E0,0E0,0E0,0E0,0E0,0E0,0E0,0E0],"parents":[2147483647,0,0,1,1,2,2,3,3,4,4,5,5,6,6,7,7,8,8,9,9,10,10,11,11,12,12,13,13,14,14,17,17,18,18,19,19,20,20,21,21,22,22,24,24,26,26,27,27,28,28,29,29,30,30,31,31,32,32,33,33,34,34,35,35,36,36,37,37,38,38,39,39,40,40,41,41,42,42,47,47,48,48,49,49,50,50,51,51,52,52,53,53,54,54],"right_children":[2,4,6,8,10,12,14,16,18,20,22,24,26,28,30,-1,-1,32,34,36,38,40,42,-1,44,-1,46,48,50,52,54,56,58,60,62,64,66,68,70,72,74,76,78,-1,-1,-1,-1,80,82,84,86,88,90,92,94,-1,-1,-1,-1,-1,-1,-1,-1,-1,-1,-1,-1,-1,-1,-1,-1,-1,-1,-1,-1,-1,-1,-1,-1,-1,-1,-1,-1,-1,-1,-1,-1,-1,-1,-1,-1,-1,-1,-1,-1],"split_conditions":[1.41E2,5.4721E4,5.314E4,2E0,1E0,4E0,7.74277E5,5.314E4,3E0,1.062862E6,1.08532E5,2E0,5E0,7.1893E5,8.29415E5,2.3820846E-1,2.6326537E-1,5.3147E4,5.314E4,9.94129E5,2E0,6.689E4,1.049002E6,3.0102375E-1,3E0,3.1072026E-1,6E0,6.63579E5,4E0,4E0,8.84979E5,5.314E4,5.316E4,5E0,4E0,9.45063E5,5E0,1E0,1.105068E6,3E0,3E0,8.83035E5,1.104799E6,3.0464447E-1,3.0756146E-1,3.164134E-1,3.277798E-1,6.08232E5,2E0,7.19293E5,6E0,7.78862E5,6E0,8.29632E5,9.40087E5,2.693954E-1,3.1772387E-1,2.6846513E-1,2.843884E-1,3.0957744E-1,3.2886937E-1,2.8657657E-1,2.980451E-1,2.2359633E-1,2.843737E-1,1.8219422E-1,2.5598037E-1,1.8181941E-1,2.6592878E-1,2.886619E-1,2.5077388E-1,2.8190714E-1,2.3098154E-1,2.195358E-1,4.186988E-1,2.3284994E-1,2.555956E-1,1.974934E-1,2.3767601E-1,2.660274E-1,2.0623462E-1,2.514748E-1,3.4168246E-1,3.9416802E-1,1.6842775E-1,1.08217195E-1,3.3218616E-1,2.3958504E-1,3.5122323E-1,4.4001922E-1,2.687129E-1,2.7816927E-1,2.0230582E-1,3.7569332E-1,2.5389227E-1],"split_indices":[2,0,0,1,3,1,0,0,1,0,0,1,1,0,0,0,0,0,0,0,1,0,0,0,1,0,1,0,1,1,0,0,0,1,1,0,1,4,0,1,1,0,0,0,0,0,0,0,1,0,1,0,1,0,0,0,0,0,0,0,0,0,0,0,0,0,0,0,0,0,0,0,0,0,0,0,0,0,0,0,0,0,0,0,0,0,0,0,0,0,0,0,0,0,0],"split_type":[0,0,0,0,0,0,0,0,0,0,0,0,0,0,0,0,0,0,0,0,0,0,0,0,0,0,0,0,0,0,0,0,0,0,0,0,0,0,0,0,0,0,0,0,0,0,0,0,0,0,0,0,0,0,0,0,0,0,0,0,0,0,0,0,0,0,0,0,0,0,0,0,0,0,0,0,0,0,0,0,0,0,0,0,0,0,0,0,0,0,0,0,0,0,0],"sum_hessian":[9.2664E6,6.9498E6,2.3166E6,1.1583E5,6.83397E6,1.1583E5,2.20077E6,2.516E4,9.067E4,4.51737E6,2.3166E6,8.7632E4,2.8198E4,1.582579E6,6.18191E5,6.861E3,1.8299E4,3.2904E4,5.7766E4,4.28571E6,2.3166E5,1.1583E5,2.20077E6,2.5285E4,6.2347E4,1.923E4,8.968E3,1.465745E6,1.16834E5,8.316E4,5.35031E5,1.9458E4,1.3446E4,1.7576E4,4.019E4,3.880553E6,4.05157E5,5.0433E4,1.81227E5,8.1363E4,3.4467E4,1.96911E6,2.3166E5,3.2722E4,2.9625E4,7.523E3,1.445E3,1.351578E6,1.14167E5,8.8636E4,2.8198E4,5.4962E4,2.8198E4,1.53174E5,3.81857E5,1.0988E4,8.47E3,1.1301E4,2.145E3,1.5244E4,2.332E3,1.9961E4,2.0229E4,3.744913E6,1.3564E5,3.7362E5,3.1537E4,2.516E4,2.5273E4,4.779E4,1.33437E5,4.0492E4,4.0871E4,1.7491E4,1.6976E4,1.62162E6,3.4749E5,1.1583E5,1.1583E5,1.234539E6,1.17039E5,2.5285E4,8.8882E4,1.1847E4,7.6789E4,2.6753E4,1.445E3,1.0843E4,4.4119E4,2.6753E4,1.445E3,3.6197E4,1.16977E5,8.2456E4,2.99401E5],"tree_param":{"num_deleted":"0","num_feature":"11","num_nodes":"95","size_leaf_vector":"1"}}]},"name":"gbtree"},"learner_model_param":{"base_score":"5E1","boost_from_average":"0","num_class":"0","num_feature":"11","num_target":"1"},"objective":{"name":"reg:squarederror","reg_loss_param":{"scale_pos_weight":"1"}}},"version":[2,1,3]}